/* Species # 001         : (size= 005) (AvfFit= 9.000) (Age= 50.000)  */
/*-------------------------------------------------------------------*/
/* Organism # 000 Fitness:  9.000 Error:  1.000                      */
genomestart  0
trait 1 0.1 0.8547064134552635 0.0037666697821318483 0.0 0.8618570098948919 0.34187400946385177 0.006918479051791198 0.0 
trait 2 0.2 0.0 0.0 0.05101173960322635 0.0 0.007846789930717466 0.0 0.0 
trait 3 0.3 0.0 0.0 0.0 0.0 0.0 0.0 0.0 
node 1 1 1 1
node 2 1 1 1
node 3 1 1 3
node 4 1 0 2
gene  1 1 4 -19.380319433265687 0 1.0 -19.380319433265687 1
gene  2 2 4 16.326596916487617 0 2.0 16.326596916487617 1
gene  2 3 4 -9.15291648447595 0 3.0 -9.15291648447595 1
genomeend 0
/* Organism # 001 Fitness:  9.000 Error:  1.000                      */
genomestart  1
trait 1 0.1 0.8547064134552635 0.0037666697821318483 0.0 0.8618570098948919 0.34187400946385177 0.006918479051791198 0.0 
trait 2 0.2 0.0 0.0 0.05101173960322635 0.0 0.007846789930717466 0.0 0.0 
trait 3 0.3 0.0 0.0 0.0 0.0 0.0 0.0 0.0 
node 1 1 1 1
node 2 1 1 1
node 3 1 1 3
node 4 1 0 2
gene  1 1 4 -17.547389287981712 0 1.0 -17.547389287981712 1
gene  2 2 4 14.182479691226252 0 2.0 14.182479691226252 1
gene  2 3 4 -7.554146870848791 0 3.0 -7.554146870848791 1
genomeend 1
/* Organism # 002 Fitness:  9.000 Error:  1.000                      */
genomestart  2
trait 1 0.1 0.8547064134552635 0.0037666697821318483 0.0 0.8618570098948919 0.34187400946385177 0.006918479051791198 0.0 
trait 2 0.2 0.0 0.0 0.05101173960322635 0.0 0.007846789930717466 0.0 0.0 
trait 3 0.3 0.0 0.0 0.0 0.0 0.0 0.0 0.0 
node 1 1 1 1
node 2 1 1 1
node 3 1 1 3
node 4 1 0 2
gene  1 1 4 -17.276214456118613 0 1.0 -17.276214456118613 1
gene  2 2 4 16.695916847904776 0 2.0 16.695916847904776 1
gene  2 3 4 -4.648713229645269 0 3.0 -4.648713229645269 1
genomeend 2
/* Organism # 003 Fitness:  9.000 Error:  1.000                      */
genomestart  3
trait 1 0.1 0.8547064134552635 0.0037666697821318483 0.0 0.8618570098948919 0.34187400946385177 0.006918479051791198 0.0 
trait 2 0.2 0.0 0.0 0.05101173960322635 0.0 0.007846789930717466 0.0 0.0 
trait 3 0.3 0.0 0.0 0.0 0.0 0.0 0.0 0.0 
node 1 1 1 1
node 2 1 1 1
node 3 1 1 3
node 4 1 0 2
gene  3 1 4 -17.345322399577476 0 1.0 -17.345322399577476 1
gene  2 2 4 15.159433097729853 0 2.0 15.159433097729853 1
gene  2 3 4 -7.000824775972655 0 3.0 -7.000824775972655 1
genomeend 3
/* Organism # 004 Fitness:  9.000 Error:  1.000                      */
genomestart  4
trait 1 0.1 0.8547064134552635 0.0037666697821318483 0.0 0.8618570098948919 0.34187400946385177 0.006918479051791198 0.0 
trait 2 0.2 0.0 0.0 0.05101173960322635 0.0 0.007846789930717466 0.0 0.0 
trait 3 0.3 0.0 0.0 0.0 0.0 0.0 0.0 0.0 
node 1 1 1 1
node 2 1 1 1
node 3 1 1 3
node 4 1 0 2
gene  1 1 4 -17.436691328529317 0 1.0 -17.436691328529317 1
gene  2 2 4 16.703500144136388 0 2.0 16.703500144136388 1
gene  2 3 4 -6.932832195327783 0 3.0 -6.932832195327783 1
genomeend 4
/*-------------------------------------------------------------------*/
/* Species # 002         : (size= 006) (AvfFit= 8.167) (Age= 48.000)  */
/*-------------------------------------------------------------------*/
/* Organism # 005 Fitness:  9.000 Error:  1.000                      */
genomestart  5
trait 1 0.1 0.0 0.0 0.0 0.0 0.0 0.0 0.0 
trait 2 0.3386966037068258 0.05166593596237018 0.0 0.07453471633608144 0.0 0.0 0.0 0.10825705328172042 
trait 3 0.3 0.0 0.0 0.0 0.0 0.0 0.0 0.0 
node 1 1 1 1
node 2 1 1 1
node 3 1 1 3
node 4 1 0 2
node 7 3 0 0
gene  1 1 4 -5.975801800081034 0 1.0 -5.975801800081034 1
gene  2 2 4 8.949567982922655 0 2.0 8.949567982922655 1
gene  3 3 4 -0.3396656514452925 0 3.0 -0.3396656514452925 1
gene  1 1 7 7.516930290120833 0 8.0 7.516930290120833 1
gene  1 7 4 -10.708578997908393 0 9.0 -10.708578997908393 1
gene  1 2 7 -11.241343659429223 0 24.0 -11.241343659429223 1
gene  3 3 7 4.832631849381429 0 53.0 4.832631849381429 1
genomeend 5
/* Organism # 006 Fitness:  9.000 Error:  1.000                      */
genomestart  6
trait 1 0.1 0.0 0.0 0.0 0.0 0.0 0.0 0.0 
trait 2 0.3386966037068258 0.05166593596237018 0.0 0.07453471633608144 0.0 0.0 0.0 0.10825705328172042 
trait 3 0.3 0.0 0.0 0.0 0.0 0.0 0.0 0.0 
node 1 1 1 1
node 2 1 1 1
node 3 1 1 3
node 4 1 0 2
node 7 1 0 0
gene  1 1 4 -3.1404962835087193 0 1.0 -3.1404962835087193 1
gene  2 2 4 9.549240042234253 0 2.0 9.549240042234253 1
gene  3 3 4 0.7392530594634766 0 3.0 0.7392530594634766 1
gene  1 1 7 8.76064775588077 0 8.0 8.76064775588077 1
gene  1 7 4 -15.412105498983774 0 9.0 -15.412105498983774 1
gene  1 2 7 -11.725398963858762 0 24.0 -11.725398963858762 1
gene  3 3 7 4.330437762431565 0 53.0 4.330437762431565 1
genomeend 6
/* Organism # 007 Fitness:  9.000 Error:  1.000                      */
genomestart  7
trait 1 0.1 0.0 0.0 0.0 0.0 0.0 0.0 0.0 
trait 2 0.3386966037068258 0.05166593596237018 0.0 0.07453471633608144 0.0 0.0 0.0 0.10825705328172042 
trait 3 0.3 0.0 0.0 0.0 0.0 0.0 0.0 0.0 
node 1 1 1 1
node 2 1 1 1
node 3 1 1 3
node 4 1 0 2
node 7 1 0 0
gene  1 1 4 -1.6820977439756253 0 1.0 -1.6820977439756253 1
gene  2 2 4 8.347432395508786 0 2.0 8.347432395508786 1
gene  3 3 4 0.021593905571251293 0 3.0 0.021593905571251293 1
gene  1 1 7 11.399685563370795 0 8.0 11.399685563370795 1
gene  1 7 4 -13.042831770024883 0 9.0 -13.042831770024883 1
gene  1 2 7 -12.612310234645431 0 24.0 -12.612310234645431 1
gene  3 3 7 4.801506780976544 0 53.0 4.801506780976544 1
genomeend 7
/* Organism # 008 Fitness:  9.000 Error:  1.000                      */
genomestart  8
trait 1 0.1 0.0 0.0 0.0 0.0 0.0 0.0 0.0 
trait 2 0.3386966037068258 0.05166593596237018 0.0 0.07453471633608144 0.0 0.0 0.0 0.10825705328172042 
trait 3 0.3 0.0 0.0 0.0 0.0 0.0 0.0 0.0 
node 1 1 1 1
node 2 1 1 1
node 3 1 1 3
node 4 1 0 2
node 7 1 0 0
gene  1 1 4 -3.2331383433633114 0 1.0 -3.2331383433633114 1
gene  2 2 4 8.893335472969007 0 2.0 8.893335472969007 1
gene  3 3 4 2.295793966385814 0 3.0 2.295793966385814 1
gene  1 1 7 7.939706931881284 0 8.0 7.939706931881284 1
gene  1 7 4 -16.146165576028405 0 9.0 -16.146165576028405 1
gene  1 2 7 -12.133920749694274 0 24.0 -12.133920749694274 1
gene  3 3 7 5.416506772086319 0 53.0 5.416506772086319 1
genomeend 8
/* Organism # 009 Fitness:  9.000 Error:  1.000                      */
genomestart  9
trait 1 0.1 0.0 0.0 0.0 0.0 0.0 0.0 0.0 
trait 2 0.3386966037068258 0.05166593596237018 0.0 0.07453471633608144 0.0 0.0 0.0 0.10825705328172042 
trait 3 0.3 0.0 0.0 0.0 0.0 0.0 0.0 0.0 
node 1 1 1 1
node 2 1 1 1
node 3 1 1 3
node 4 1 0 2
node 7 3 0 0
gene  1 1 4 -5.975801800081034 0 1.0 -5.975801800081034 1
gene  2 2 4 8.949567982922655 0 2.0 8.949567982922655 1
gene  3 3 4 -0.3396656514452925 0 3.0 -0.3396656514452925 1
gene  1 1 7 7.516930290120833 0 8.0 7.516930290120833 1
gene  1 7 4 -10.708578997908393 0 9.0 -10.708578997908393 1
gene  1 2 7 -11.241343659429223 0 24.0 -11.241343659429223 1
gene  3 3 7 4.832631849381429 0 53.0 4.832631849381429 1
genomeend 9
/* Organism # 010 Fitness:  4.000 Error:  2.000                      */
genomestart  10
trait 1 0.1 0.0 0.0 0.0 0.0 0.0 0.0 0.0 
trait 2 0.3386966037068258 0.05166593596237018 0.0 0.07453471633608144 0.0 0.0 0.0 0.10825705328172042 
trait 3 0.0 0.0 0.3307932578694933 0.0 0.0 0.0 0.0 0.0 
node 1 1 1 1
node 2 1 1 1
node 3 1 1 3
node 4 1 0 2
node 7 3 0 0
gene  1 1 4 -0.838313388242933 0 1.0 -0.838313388242933 1
gene  2 2 4 9.587578455383614 0 2.0 9.587578455383614 1
gene  3 3 4 -0.2768450424860732 0 3.0 -0.2768450424860732 1
gene  1 1 7 -0.8193915655137268 0 8.0 -0.8193915655137268 1
gene  1 7 4 -1.6074431183900395 0 9.0 -1.6074431183900395 1
gene  1 2 7 -1.2071975422533523 0 24.0 -1.2071975422533523 1
gene  3 3 7 6.021517942462132 0 53.0 6.021517942462132 1
genomeend 10
/*-------------------------------------------------------------------*/
/* Species # 003         : (size= 005) (AvfFit= 7.016) (Age= 46.000)  */
/*-------------------------------------------------------------------*/
/* Organism # 011 Fitness:  4.180 Error:  1.955                      */
genomestart  11
trait 1 0.1 0.0 0.0 0.0 0.0 0.0 0.0 0.0 
trait 2 0.2 0.8949380476378068 0.16310930450948868 0.0 0.45000406625499134 0.0 0.0 0.0 
trait 3 0.3 0.0 0.0 0.0 0.0 0.0 0.0 0.0 
node 1 3 1 1
node 2 1 1 1
node 3 1 1 3
node 4 1 0 2
node 7 2 0 0
node 11 1 0 0
gene  1 1 4 -6.792685253994774 0 1.0 -6.792685253994774 1
gene  3 2 4 4.269450431492389 0 2.0 4.269450431492389 1
gene  3 3 4 -3.741019949668702 0 3.0 -3.741019949668702 1
gene  1 1 7 -7.4833311039968695 0 8.0 -7.4833311039968695 1
gene  1 7 4 -1.1507803334611857 0 9.0 -1.1507803334611857 1
gene  2 2 11 1.479554302168624 0 19.0 1.479554302168624 1
gene  2 11 4 1.6145004738542066 0 20.0 1.6145004738542066 1
gene  1 3 11 -4.945954701496255 0 60.0 -4.945954701496255 1
gene  1 11 7 14.478027966535779 0 102.0 14.478027966535779 1
gene  1 3 7 7.8116567136804544 0 197.0 7.8116567136804544 1
gene  1 1 11 -3.417161554231875 0 248.0 -3.417161554231875 1
gene  1 2 7 2.6974750551070015 0 263.0 2.6974750551070015 1
genomeend 11
/* Organism # 012 Fitness:  4.000 Error:  2.000                      */
genomestart  12
trait 1 0.1 0.0 0.0 0.0 0.0 0.0 0.0 0.0 
trait 2 0.2 0.8949380476378068 0.16310930450948868 0.0 0.45000406625499134 0.0 0.0 0.0 
trait 3 0.3 0.0 0.0 0.0 0.0 0.0 0.0 0.0 
node 1 3 1 1
node 2 1 1 1
node 3 1 1 3
node 4 1 0 2
node 7 2 0 0
node 11 1 0 0
gene  1 1 4 1.787222883455029 0 1.0 1.787222883455029 1
gene  3 2 4 3.1965159577296083 0 2.0 3.1965159577296083 1
gene  3 3 4 -1.997190995651038 0 3.0 -1.997190995651038 1
gene  1 1 7 -3.0317461635697853 0 8.0 -3.0317461635697853 1
gene  1 7 4 -2.20941185049935 0 9.0 -2.20941185049935 1
gene  2 2 11 7.074635912040291 0 19.0 7.074635912040291 1
gene  2 11 4 3.136789986113392 0 20.0 3.136789986113392 1
gene  1 3 11 -5.79634535153871 0 60.0 -5.79634535153871 1
gene  1 11 7 10.917950567063713 0 102.0 10.917950567063713 1
gene  1 3 7 5.394708444233951 0 197.0 5.394708444233951 1
gene  1 1 11 -0.42480719366994957 0 248.0 -0.42480719366994957 1
gene  1 2 7 1.1573739219469639 0 263.0 1.1573739219469639 1
genomeend 12
/* Organism # 013 Fitness:  8.931 Error:  1.012                      */
genomestart  13
trait 1 0.1 0.0 0.0 0.0 0.0 0.0 0.0 0.0 
trait 2 0.2 0.8949380476378068 0.16310930450948868 0.0 0.45000406625499134 0.0 0.0 0.0 
trait 3 0.3 0.0 0.0 0.0 0.0 0.0 0.0 0.0 
node 1 3 1 1
node 2 1 1 1
node 3 1 1 3
node 4 1 0 2
node 7 2 0 0
node 11 1 0 0
gene  1 1 4 -7.646746920637428 0 1.0 -7.646746920637428 1
gene  3 2 4 5.13007284793945 0 2.0 5.13007284793945 1
gene  3 3 4 0.5615575474120362 0 3.0 0.5615575474120362 1
gene  1 1 7 -3.885268302194109 0 8.0 -3.885268302194109 1
gene  1 7 4 -1.465703310659148 0 9.0 -1.465703310659148 1
gene  2 2 11 8.28399363831093 0 19.0 8.28399363831093 1
gene  2 11 4 0.01634354445953723 0 20.0 0.01634354445953723 1
gene  1 3 11 -4.731614764926353 0 60.0 -4.731614764926353 1
gene  1 11 7 11.422913650937646 0 102.0 11.422913650937646 1
gene  1 3 7 7.283128603258432 0 197.0 7.283128603258432 1
gene  1 1 11 -1.7513226902769485 0 248.0 -1.7513226902769485 1
gene  1 2 7 2.3181296920997165 0 263.0 2.3181296920997165 1
genomeend 13
/* Organism # 014 Fitness:  8.971 Error:  1.005                      */
genomestart  14
trait 1 0.1 0.0 0.0 0.0 0.0 0.0 0.0 0.0 
trait 2 0.2 0.8949380476378068 0.16310930450948868 0.0 0.45000406625499134 0.0 0.0 0.0 
trait 3 0.3 0.0 0.0 0.0 0.0 0.0 0.0 0.0 
node 1 3 1 1
node 2 1 1 1
node 3 1 1 3
node 4 1 0 2
node 7 2 0 0
node 11 1 0 0
gene  1 1 4 -8.088596498516331 0 1.0 -8.088596498516331 1
gene  3 2 4 3.329122244533164 0 2.0 3.329122244533164 1
gene  3 3 4 -1.485018496366017 0 3.0 -1.485018496366017 1
gene  1 1 7 -5.0051731754707385 0 8.0 -5.0051731754707385 1
gene  1 7 4 -1.7446336770025774 0 9.0 -1.7446336770025774 1
gene  2 2 11 6.885560924957184 0 19.0 6.885560924957184 1
gene  2 11 4 0.9802400987514621 0 20.0 0.9802400987514621 1
gene  1 3 11 -3.024444609628114 0 60.0 -3.024444609628114 1
gene  1 11 7 9.947658467280394 0 102.0 9.947658467280394 1
gene  1 3 7 6.735392321454232 0 197.0 6.735392321454232 1
gene  1 1 11 1.946255589482004 0 248.0 1.946255589482004 1
gene  1 2 7 -0.5319487768678679 0 263.0 -0.5319487768678679 1
genomeend 14
/* Organism # 015 Fitness:  9.000 Error:  1.000                      */
genomestart  15
trait 1 0.1 0.0 0.0 0.0 0.0 0.0 0.0 0.0 
trait 2 0.2 0.8949380476378068 0.16310930450948868 0.0 0.45000406625499134 0.0 0.0 0.0 
trait 3 0.3 0.0 0.0 0.0 0.0 0.0 0.0 0.0 
node 1 3 1 1
node 2 1 1 1
node 3 1 1 3
node 4 1 0 2
node 7 2 0 0
node 11 1 0 0
gene  1 1 4 -5.959393687839821 0 1.0 -5.959393687839821 1
gene  3 2 4 4.594408017378544 0 2.0 4.594408017378544 1
gene  3 3 4 -1.4282340456714806 0 3.0 -1.4282340456714806 1
gene  1 1 7 -3.2720207856626065 0 8.0 -3.2720207856626065 1
gene  1 7 4 -3.307544130170861 0 9.0 -3.307544130170861 1
gene  2 2 11 7.259329999229649 0 19.0 7.259329999229649 1
gene  2 11 4 3.0003958962484027 0 20.0 3.0003958962484027 1
gene  1 3 11 -6.297085369310012 0 60.0 -6.297085369310012 1
gene  1 11 7 13.125883632341056 0 102.0 13.125883632341056 1
gene  1 3 7 8.671576969881901 0 197.0 8.671576969881901 1
gene  1 1 11 -1.7513226902769485 0 248.0 -1.7513226902769485 1
gene  1 2 7 0.049727542716135886 0 263.0 0.049727542716135886 1
genomeend 15
/*-------------------------------------------------------------------*/
/* Species # 004         : (size= 005) (AvfFit= 7.999) (Age= 45.000)  */
/*-------------------------------------------------------------------*/
/* Organism # 016 Fitness:  9.000 Error:  1.000                      */
genomestart  16
trait 1 0.1 0.0 0.0 0.0 0.0 0.0 0.0 0.0 
trait 2 0.2 0.0 0.0 0.0 0.0 0.0 0.0 0.0 
trait 3 0.3 0.0 0.0 0.0 0.0 0.0 0.0 0.0 
node 1 2 1 1
node 2 2 1 1
node 3 1 1 3
node 4 1 0 2
node 7 2 0 0
node 14 1 0 0
node 17 1 0 0
node 28 1 0 0
gene  1 1 4 5.458287784677157 0 1.0 5.458287784677157 1
gene  2 2 4 9.57197022467553 0 2.0 9.57197022467553 1
gene  3 3 4 -1.798695294699659 0 3.0 -1.798695294699659 1
gene  1 1 7 -0.8826341639665443 0 8.0 -0.8826341639665443 0
gene  1 7 4 9.030482394074944 0 9.0 9.030482394074944 1
gene  1 1 14 1.2256653120493033 0 27.0 1.2256653120493033 1
gene  1 14 4 -0.7045283497905002 0 28.0 -0.7045283497905002 1
gene  2 2 17 -3.1304122765971765 0 37.0 -3.1304122765971765 1
gene  2 17 4 -7.402087366777427 0 38.0 -7.402087366777427 1
gene  2 1 17 -6.106664055378318 0 54.0 -6.106664055378318 1
gene  1 1 28 3.0700428978805254 0 78.0 3.0700428978805254 1
gene  1 28 7 3.058881845271536 0 79.0 3.058881845271536 1
gene  3 17 7 -7.8971091404203815 0 148.0 -7.8971091404203815 1
genomeend 16
/* Organism # 017 Fitness:  9.000 Error:  1.000                      */
genomestart  17
trait 1 0.0 0.0996959996336042 0.0 0.0 0.0 0.17980252092901416 0.0 0.0 
trait 2 0.2 0.0 0.0 0.0 0.0 0.0 0.0 0.0 
trait 3 0.3 0.0 0.0 0.0 0.0 0.0 0.0 0.0 
node 1 2 1 1
node 2 2 1 1
node 3 1 1 3
node 4 1 0 2
node 7 2 0 0
node 14 1 0 0
node 17 1 0 0
node 28 1 0 0
gene  1 1 4 5.867015934840698 0 1.0 5.867015934840698 1
gene  2 2 4 8.714465308129974 0 2.0 8.714465308129974 1
gene  3 3 4 -6.477170765081473 0 3.0 -6.477170765081473 1
gene  1 1 7 1.143657488335987 0 8.0 1.143657488335987 0
gene  1 7 4 6.15544233156003 0 9.0 6.15544233156003 1
gene  1 1 14 0.21952294420413498 0 27.0 0.21952294420413498 1
gene  1 14 4 3.3284486013058334 0 28.0 3.3284486013058334 1
gene  2 2 17 -1.9706084933022558 0 37.0 -1.9706084933022558 1
gene  2 17 4 -7.891341071697626 0 38.0 -7.891341071697626 1
gene  2 1 17 -4.839632783771011 0 54.0 -4.839632783771011 1
gene  1 1 28 5.408596161397833 0 78.0 5.408596161397833 1
gene  1 28 7 0.8622359341767922 0 79.0 0.8622359341767922 1
gene  3 17 7 -9.134559027862727 0 148.0 -9.134559027862727 1
genomeend 17
/* Organism # 018 Fitness:  9.000 Error:  1.000                      */
genomestart  18
trait 1 0.0 0.0996959996336042 0.0 0.0 0.0 0.17980252092901416 0.0 0.0 
trait 2 0.2 0.0 0.0 0.0 0.0 0.0 0.0 0.0 
trait 3 0.3 0.0 0.0 0.0 0.0 0.0 0.0 0.0 
node 1 2 1 1
node 2 2 1 1
node 3 1 1 3
node 4 1 0 2
node 7 2 0 0
node 14 1 0 0
node 17 1 0 0
node 28 1 0 0
gene  1 1 4 7.849283518847023 0 1.0 7.849283518847023 1
gene  2 2 4 9.57197022467553 0 2.0 9.57197022467553 1
gene  3 3 4 -5.263424589049189 0 3.0 -5.263424589049189 1
gene  1 1 7 -0.8826341639665443 0 8.0 -0.8826341639665443 0
gene  1 7 4 7.473464632993105 0 9.0 7.473464632993105 1
gene  1 1 14 -0.6727259002669841 0 27.0 -0.6727259002669841 1
gene  1 14 4 1.2128746366448666 0 28.0 1.2128746366448666 1
gene  2 2 17 -3.604601958301375 0 37.0 -3.604601958301375 1
gene  2 17 4 -7.402087366777427 0 38.0 -7.402087366777427 1
gene  2 1 17 -4.234607238330689 0 54.0 -4.234607238330689 1
gene  1 1 28 3.7209672301377745 0 78.0 3.7209672301377745 1
gene  1 28 7 1.3016058124219407 0 79.0 1.3016058124219407 1
gene  3 17 7 -9.958243968034644 0 148.0 -9.958243968034644 1
genomeend 18
/* Organism # 019 Fitness:  9.000 Error:  1.000                      */
genomestart  19
trait 1 0.0 0.0996959996336042 0.0 0.0 0.0 0.17980252092901416 0.0 0.0 
trait 2 0.2 0.0 0.0 0.0 0.0 0.0 0.0 0.0 
trait 3 0.3 0.0 0.0 0.0 0.0 0.0 0.0 0.0 
node 1 2 1 1
node 2 2 1 1
node 3 1 1 3
node 4 1 0 2
node 7 2 0 0
node 14 1 0 0
node 17 1 0 0
node 28 1 0 0
gene  1 1 4 6.261019174638182 0 1.0 6.261019174638182 1
gene  2 2 4 10.307787626508237 0 2.0 10.307787626508237 1
gene  3 3 4 -6.8425802389849775 0 3.0 -6.8425802389849775 1
gene  1 1 7 0.39064735577995524 0 8.0 0.39064735577995524 0
gene  1 7 4 7.003182011889271 0 9.0 7.003182011889271 1
gene  1 1 14 0.7001992530868151 0 27.0 0.7001992530868151 1
gene  1 14 4 2.0719961679381953 0 28.0 2.0719961679381953 1
gene  2 2 17 -2.002261294949998 0 37.0 -2.002261294949998 1
gene  2 17 4 -8.898936146835823 0 38.0 -8.898936146835823 1
gene  2 1 17 -5.129905856522008 0 54.0 -5.129905856522008 1
gene  1 1 28 4.991540408382066 0 78.0 4.991540408382066 1
gene  1 28 7 3.3260843183246767 0 79.0 3.3260843183246767 1
gene  3 17 7 -0.3624659255798704 0 148.0 -0.3624659255798704 1
genomeend 19
/* Organism # 020 Fitness:  3.997 Error:  2.001                      */
genomestart  20
trait 1 0.1 0.0 0.0 0.0 0.0 0.0 0.0 0.0 
trait 2 0.2 0.0 0.0 0.0 0.0 0.0 0.0 0.0 
trait 3 0.3 0.0 0.0 0.0 0.0 0.0 0.0 0.0 
node 1 2 1 1
node 2 2 1 1
node 3 1 1 3
node 4 1 0 2
node 7 2 0 0
node 14 1 0 0
node 17 1 0 0
node 28 1 0 0
gene  1 1 4 1.5503166532576542 0 1.0 1.5503166532576542 1
gene  2 2 4 0.961959239686937 0 2.0 0.961959239686937 1
gene  3 3 4 -4.020911170647372 0 3.0 -4.020911170647372 1
gene  1 1 7 0.4456168520831647 0 8.0 0.4456168520831647 0
gene  1 7 4 5.39074290481909 0 9.0 5.39074290481909 1
gene  1 1 14 -2.47933551691548 0 27.0 -2.47933551691548 1
gene  1 14 4 1.2128746366448666 0 28.0 1.2128746366448666 1
gene  2 2 17 -3.604601958301375 0 37.0 -3.604601958301375 1
gene  2 17 4 -1.4413111443485511 0 38.0 -1.4413111443485511 1
gene  2 1 17 -3.506403863767994 0 54.0 -3.506403863767994 1
gene  1 1 28 4.048693301005939 0 78.0 4.048693301005939 1
gene  1 28 7 -0.7972720376138529 0 79.0 -0.7972720376138529 1
gene  3 17 7 -11.386262887413093 0 148.0 -11.386262887413093 1
genomeend 20
/*-------------------------------------------------------------------*/
/* Species # 005         : (size= 006) (AvfFit= 8.167) (Age= 44.000)  */
/*-------------------------------------------------------------------*/
/* Organism # 021 Fitness:  9.000 Error:  1.000                      */
genomestart  21
trait 1 0.00390625 0.0 0.5086472835778034 0.0 0.0 0.0 0.0 0.0 
trait 2 0.2 0.0 0.0 0.090960560818385 0.0 0.0 0.49427861223422004 0.0 
trait 3 0.2983558404368756 0.0 0.0 0.0 0.009562911290708196 0.0 0.0 0.14394152103312102 
node 1 1 1 1
node 2 1 1 1
node 3 1 1 3
node 4 1 0 2
node 17 1 0 0
gene  1 1 4 9.204179730172099 0 1.0 9.204179730172099 1
gene  2 2 4 8.975056800835842 0 2.0 8.975056800835842 1
gene  3 3 4 -1.206310751028354 0 3.0 -1.206310751028354 1
gene  2 2 17 -3.907045952610614 0 37.0 -3.907045952610614 1
gene  2 17 4 -6.36286651287322 0 38.0 -6.36286651287322 1
gene  1 1 17 -3.558970077140273 0 80.0 -3.558970077140273 1
gene  2 3 17 2.33745016199698 0 219.0 2.33745016199698 1
genomeend 21
/* Organism # 022 Fitness:  9.000 Error:  1.000                      */
genomestart  22
trait 1 0.00390625 0.0 0.5086472835778034 0.0 0.0 0.0 0.0 0.0 
trait 2 0.2 0.0 0.0 0.090960560818385 0.0 0.0 0.49427861223422004 0.0 
trait 3 0.2983558404368756 0.0 0.0 0.0 0.009562911290708196 0.0 0.0 0.14394152103312102 
node 1 1 1 1
node 2 1 1 1
node 3 1 1 3
node 4 1 0 2
node 17 1 0 0
gene  1 1 4 8.021459124395532 0 1.0 8.021459124395532 1
gene  2 2 4 6.483754761473211 0 2.0 6.483754761473211 1
gene  3 3 4 -3.2120494917452813 0 3.0 -3.2120494917452813 1
gene  2 2 17 -2.752815900625741 0 37.0 -2.752815900625741 1
gene  2 17 4 -11.014609707139359 0 38.0 -11.014609707139359 1
gene  1 1 17 -0.9892487196980717 0 80.0 -0.9892487196980717 1
gene  2 3 17 0.0919639207096079 0 219.0 0.0919639207096079 1
genomeend 22
/* Organism # 023 Fitness:  4.000 Error:  2.000                      */
genomestart  23
trait 1 0.00390625 0.0 0.5086472835778034 0.0 0.0 0.0 0.0 0.0 
trait 2 0.2 0.0 0.0 0.090960560818385 0.0 0.0 0.49427861223422004 0.0 
trait 3 0.2983558404368756 0.0 0.0 0.0 0.009562911290708196 0.0 0.0 0.14394152103312102 
node 1 1 1 1
node 2 1 1 1
node 3 1 1 3
node 4 1 0 2
node 17 1 0 0
gene  1 1 4 9.015873147021285 0 1.0 9.015873147021285 1
gene  2 2 4 10.54768200740673 0 2.0 10.54768200740673 1
gene  3 3 4 1.5709003120183125 0 3.0 1.5709003120183125 1
gene  2 2 17 -4.5732370122432675 0 37.0 -4.5732370122432675 1
gene  2 17 4 1.7223783905571102 0 38.0 1.7223783905571102 1
gene  1 1 17 -1.7104681188368784 0 80.0 -1.7104681188368784 1
gene  2 3 17 2.1707534476107857 0 219.0 2.1707534476107857 1
genomeend 23
/* Organism # 024 Fitness:  9.000 Error:  1.000                      */
genomestart  24
trait 1 0.00390625 0.0 0.5086472835778034 0.0 0.0 0.0 0.0 0.0 
trait 2 0.2 0.0 0.0 0.090960560818385 0.0 0.0 0.49427861223422004 0.0 
trait 3 0.2983558404368756 0.0 0.0 0.0 0.009562911290708196 0.0 0.0 0.14394152103312102 
node 1 1 1 1
node 2 1 1 1
node 3 1 1 3
node 4 1 0 2
node 17 1 0 0
gene  1 1 4 11.059984442524717 0 1.0 11.059984442524717 1
gene  2 2 4 8.975056800835842 0 2.0 8.975056800835842 1
gene  3 3 4 -1.2710255950844584 0 3.0 -1.2710255950844584 1
gene  2 2 17 -5.142808583033654 0 37.0 -5.142808583033654 1
gene  2 17 4 -1.9072296062787744 0 38.0 -1.9072296062787744 1
gene  1 1 17 -4.816384798890598 0 80.0 -4.816384798890598 1
gene  2 3 17 3.8533605403253053 0 219.0 3.8533605403253053 1
genomeend 24
/* Organism # 025 Fitness:  9.000 Error:  1.000                      */
genomestart  25
trait 1 0.00390625 0.0 0.5086472835778034 0.0 0.0 0.0 0.0 0.0 
trait 2 0.2 0.0 0.0 0.090960560818385 0.0 0.0 0.49427861223422004 0.0 
trait 3 0.2983558404368756 0.0 0.0 0.0 0.009562911290708196 0.0 0.0 0.14394152103312102 
node 1 1 1 1
node 2 1 1 1
node 3 1 1 3
node 4 1 0 2
node 17 1 0 0
gene  1 1 4 7.619185382772205 0 1.0 7.619185382772205 1
gene  2 2 4 8.946900005883506 0 2.0 8.946900005883506 1
gene  3 3 4 0.40915534619636285 0 3.0 0.40915534619636285 1
gene  2 2 17 -1.9855900746695818 0 37.0 -1.9855900746695818 1
gene  2 17 4 -4.141635063895617 0 38.0 -4.141635063895617 1
gene  1 1 17 -5.673072702199111 0 80.0 -5.673072702199111 1
gene  2 3 17 0.865922586472478 0 219.0 0.865922586472478 1
genomeend 25
/* Organism # 026 Fitness:  9.000 Error:  1.000                      */
genomestart  26
trait 1 0.00390625 0.0 0.5086472835778034 0.0 0.0 0.0 0.0 0.0 
trait 2 0.2 0.0 0.0 0.090960560818385 0.0 0.0 0.49427861223422004 0.0 
trait 3 0.2983558404368756 0.0 0.0 0.0 0.009562911290708196 0.0 0.0 0.14394152103312102 
node 1 1 1 1
node 2 1 1 1
node 3 1 1 3
node 4 1 0 2
node 17 1 0 0
gene  1 1 4 9.10567806050872 0 1.0 9.10567806050872 1
gene  2 2 4 8.975056800835842 0 2.0 8.975056800835842 1
gene  3 3 4 0.8058535094621808 0 3.0 0.8058535094621808 1
gene  2 2 17 -2.172656371347573 0 37.0 -2.172656371347573 1
gene  2 17 4 -5.276145336016814 0 38.0 -5.276145336016814 1
gene  1 1 17 -5.767802713575101 0 80.0 -5.767802713575101 1
gene  2 3 17 1.3088493382008926 0 219.0 1.3088493382008926 1
genomeend 26
/*-------------------------------------------------------------------*/
/* Species # 006         : (size= 006) (AvfFit= 6.500) (Age= 44.000)  */
/*-------------------------------------------------------------------*/
/* Organism # 027 Fitness:  9.000 Error:  1.000                      */
genomestart  27
trait 1 0.1 0.0 0.0 0.0 0.0 0.0 0.0 0.0 
trait 2 0.7476831688323962 0.1545554094655182 0.0 0.7628308545096194 0.0 0.46690530368792726 0.055171032298881206 0.0 
trait 3 0.3 0.0 0.0 0.0 0.501051688414251 0.16421972382120997 0.0 0.0 
node 1 2 1 1
node 2 2 1 1
node 3 1 1 3
node 4 1 0 2
node 7 1 0 0
node 14 3 0 0
node 17 1 0 0
node 28 1 0 0
node 48 1 0 0
node 83 2 0 0
gene  1 1 4 7.480410888913297 0 1.0 7.480410888913297 1
gene  2 2 4 15.864650955657662 0 2.0 15.864650955657662 1
gene  3 3 4 -8.758574794564947 0 3.0 -8.758574794564947 1
gene  1 1 7 1.1203857688803551 0 8.0 1.1203857688803551 0
gene  1 7 4 -4.800158218042943 0 9.0 -4.800158218042943 0
gene  1 1 14 -5.664484687143512 0 27.0 -5.664484687143512 1
gene  1 14 4 -2.5768892913769266 0 28.0 -2.5768892913769266 1
gene  2 2 17 -5.505891850934066 0 37.0 -5.505891850934066 1
gene  1 17 4 -9.056333713833482 0 38.0 -9.056333713833482 1
gene  2 1 17 -20.82964719696493 0 54.0 -20.82964719696493 1
gene  1 1 28 0.8261356478656969 0 78.0 0.8261356478656969 1
gene  1 28 7 1.8047148649544695 0 79.0 1.8047148649544695 1
gene  1 1 48 1.2875495606953475 0 154.0 1.2875495606953475 1
gene  1 48 4 12.457324236582012 0 155.0 12.457324236582012 1
gene  3 48 28 1.592251397234524 0 180.0 1.592251397234524 1
gene  1 7 83 1.282097923657678 0 344.0 1.282097923657678 1
gene  1 83 4 -2.6876060856834125 0 345.0 -2.6876060856834125 1
genomeend 27
/* Organism # 028 Fitness:  4.000 Error:  2.000                      */
genomestart  28
trait 1 0.1 0.0 0.0 0.0 0.0 0.0 0.0 0.0 
trait 2 0.7476831688323962 0.1545554094655182 0.0 0.7628308545096194 0.0 0.46690530368792726 0.055171032298881206 0.0 
trait 3 0.3 0.0 0.0 0.0 0.501051688414251 0.16421972382120997 0.0 0.0 
node 1 2 1 1
node 2 2 1 1
node 3 1 1 3
node 4 1 0 2
node 7 1 0 0
node 14 3 0 0
node 17 1 0 0
node 28 1 0 0
node 48 1 0 0
node 83 2 0 0
gene  1 1 4 7.291673275396084 0 1.0 7.291673275396084 1
gene  2 2 4 16.90967556125989 0 2.0 16.90967556125989 1
gene  3 3 4 -6.267885614361302 0 3.0 -6.267885614361302 1
gene  1 1 7 0.22777293640896557 0 8.0 0.22777293640896557 0
gene  1 7 4 -3.23505331523583 0 9.0 -3.23505331523583 0
gene  1 1 14 -4.4743163548423475 0 27.0 -4.4743163548423475 1
gene  1 14 4 -1.8677193392384914 0 28.0 -1.8677193392384914 1
gene  2 2 17 -7.8886463654618595 0 37.0 -7.8886463654618595 1
gene  1 17 4 -10.701225321263909 0 38.0 -10.701225321263909 1
gene  2 1 17 -20.61817935508479 0 54.0 -20.61817935508479 1
gene  1 1 28 1.8815052854762868 0 78.0 1.8815052854762868 1
gene  1 28 7 1.564519363959962 0 79.0 1.564519363959962 1
gene  1 1 48 1.12563640565343 0 154.0 1.12563640565343 1
gene  1 48 4 -2.2940200062328318 0 155.0 -2.2940200062328318 1
gene  3 48 28 0.208908882212838 0 180.0 0.208908882212838 1
gene  1 7 83 3.898182102152336 0 344.0 3.898182102152336 1
gene  1 83 4 -2.6876060856834125 0 345.0 -2.6876060856834125 1
genomeend 28
/* Organism # 029 Fitness:  4.000 Error:  2.000                      */
genomestart  29
trait 1 0.1 0.0 0.0 0.0 0.0 0.0 0.0 0.0 
trait 2 0.7476831688323962 0.1545554094655182 0.0 0.7628308545096194 0.0 0.46690530368792726 0.055171032298881206 0.0 
trait 3 0.3 0.0 0.0 0.0 0.501051688414251 0.16421972382120997 0.0 0.0 
node 1 2 1 1
node 2 2 1 1
node 3 1 1 3
node 4 1 0 2
node 7 1 0 0
node 14 3 0 0
node 17 1 0 0
node 28 1 0 0
node 48 1 0 0
node 83 2 0 0
gene  1 1 4 8.919710107522443 0 1.0 8.919710107522443 1
gene  2 2 4 2.0829109356946294 0 2.0 2.0829109356946294 1
gene  3 3 4 -8.77405074708567 0 3.0 -8.77405074708567 1
gene  1 1 7 1.3993551258503651 0 8.0 1.3993551258503651 0
gene  1 7 4 0.017478771555343164 0 9.0 0.017478771555343164 0
gene  1 1 14 1.94223821048804 0 27.0 1.94223821048804 1
gene  1 14 4 -2.6070815796031637 0 28.0 -2.6070815796031637 1
gene  2 2 17 -7.843854456338336 0 37.0 -7.843854456338336 1
gene  1 17 4 -9.546760702394279 0 38.0 -9.546760702394279 1
gene  2 1 17 0.09603595087114891 0 54.0 0.09603595087114891 1
gene  1 1 28 1.5401694111975341 0 78.0 1.5401694111975341 1
gene  1 28 7 -0.2887265691381189 0 79.0 -0.2887265691381189 1
gene  1 1 48 1.8209941892316097 0 154.0 1.8209941892316097 1
gene  1 48 4 14.392075640307052 0 155.0 14.392075640307052 1
gene  3 48 28 -0.7792313789675367 0 180.0 -0.7792313789675367 1
gene  1 7 83 3.8455298206176733 0 344.0 3.8455298206176733 1
gene  1 83 4 -2.526354528365388 0 345.0 -2.526354528365388 1
genomeend 29
/* Organism # 030 Fitness:  9.000 Error:  1.000                      */
genomestart  30
trait 1 0.1 0.0 0.0 0.0 0.0 0.0 0.0 0.0 
trait 2 0.7476831688323962 0.1545554094655182 0.0 0.7628308545096194 0.0 0.46690530368792726 0.055171032298881206 0.0 
trait 3 0.3 0.0 0.0 0.0 0.501051688414251 0.16421972382120997 0.0 0.0 
node 1 2 1 1
node 2 2 1 1
node 3 1 1 3
node 4 1 0 2
node 7 1 0 0
node 14 3 0 0
node 17 1 0 0
node 28 1 0 0
node 48 1 0 0
node 83 2 0 0
gene  1 1 4 10.011570307509514 0 1.0 10.011570307509514 1
gene  2 2 4 17.929113118982563 0 2.0 17.929113118982563 1
gene  3 3 4 -6.8546009644275525 0 3.0 -6.8546009644275525 1
gene  1 1 7 0.8519888439367898 0 8.0 0.8519888439367898 0
gene  3 7 4 -3.1445825518873636 0 9.0 -3.1445825518873636 0
gene  1 1 14 -6.482585705597064 0 27.0 -6.482585705597064 1
gene  1 14 4 -1.1173701442751476 0 28.0 -1.1173701442751476 1
gene  2 2 17 -6.28612067354215 0 37.0 -6.28612067354215 1
gene  1 17 4 -7.27231562784403 0 38.0 -7.27231562784403 1
gene  2 1 17 -21.227065372669326 0 54.0 -21.227065372669326 1
gene  1 1 28 -2.4836615801503585 0 78.0 -2.4836615801503585 1
gene  1 28 7 1.0434609619895876 0 79.0 1.0434609619895876 1
gene  1 1 48 3.0600057790845407 0 154.0 3.0600057790845407 1
gene  1 48 4 13.724266898931127 0 155.0 13.724266898931127 1
gene  3 48 28 0.6279290224161935 0 180.0 0.6279290224161935 1
gene  1 7 83 0.7535651708548403 0 344.0 0.7535651708548403 1
gene  1 83 4 -2.6876060856834125 0 345.0 -2.6876060856834125 1
genomeend 30
/* Organism # 031 Fitness:  9.000 Error:  1.000                      */
genomestart  31
trait 1 0.1 0.0 0.0 0.0 0.0 0.0 0.0 0.0 
trait 2 0.7476831688323962 0.1545554094655182 0.0 0.7628308545096194 0.0 0.46690530368792726 0.055171032298881206 0.0 
trait 3 0.3 0.0 0.0 0.0 0.501051688414251 0.16421972382120997 0.0 0.0 
node 1 2 1 1
node 2 2 1 1
node 3 1 1 3
node 4 1 0 2
node 7 1 0 0
node 14 3 0 0
node 17 1 0 0
node 28 1 0 0
node 48 1 0 0
node 83 2 0 0
gene  1 1 4 10.03899775235851 0 1.0 10.03899775235851 1
gene  2 2 4 16.917156933805195 0 2.0 16.917156933805195 1
gene  3 3 4 -6.608804059765294 0 3.0 -6.608804059765294 1
gene  1 1 7 -0.44773236013517126 0 8.0 -0.44773236013517126 0
gene  1 7 4 -0.7202286219170246 0 9.0 -0.7202286219170246 0
gene  1 1 14 -4.490259846536532 0 27.0 -4.490259846536532 1
gene  1 14 4 -1.6278459702736714 0 28.0 -1.6278459702736714 1
gene  2 2 17 -7.252310440123008 0 37.0 -7.252310440123008 1
gene  1 17 4 -8.183603569155734 0 38.0 -8.183603569155734 1
gene  2 1 17 -23.506807367366196 0 54.0 -23.506807367366196 1
gene  1 1 28 2.796562429658961 0 78.0 2.796562429658961 1
gene  1 28 7 2.065059657896788 0 79.0 2.065059657896788 1
gene  1 1 48 1.132706637263635 0 154.0 1.132706637263635 1
gene  1 48 4 16.061715205738796 0 155.0 16.061715205738796 1
gene  3 48 28 -1.242769454153645 0 180.0 -1.242769454153645 1
gene  1 7 83 -0.3721331256956426 0 344.0 -0.3721331256956426 1
gene  1 83 4 -4.488243823041445 0 345.0 -4.488243823041445 1
genomeend 31
/* Organism # 032 Fitness:  4.000 Error:  2.000                      */
genomestart  32
trait 1 0.1 0.0 0.0 0.0 0.0 0.0 0.0 0.0 
trait 2 0.7476831688323962 0.1545554094655182 0.0 0.7628308545096194 0.0 0.46690530368792726 0.055171032298881206 0.0 
trait 3 1.1229189678467697 0.6382468630194483 0.8922373100134694 0.0 0.501051688414251 1.1131863213080972 0.0 0.0 
node 1 2 1 1
node 2 2 1 1
node 3 1 1 3
node 4 1 0 2
node 7 1 0 0
node 14 3 0 0
node 17 1 0 0
node 28 1 0 0
node 48 1 0 0
node 83 2 0 0
gene  1 1 4 1.6207317135679813 0 1.0 1.6207317135679813 1
gene  2 2 4 16.55254888947904 0 2.0 16.55254888947904 1
gene  3 3 4 -6.530724979401339 0 3.0 -6.530724979401339 1
gene  1 1 7 -0.48652546694389165 0 8.0 -0.48652546694389165 0
gene  1 7 4 -6.159426943411985 0 9.0 -6.159426943411985 0
gene  1 1 14 -5.664484687143512 0 27.0 -5.664484687143512 1
gene  1 14 4 -0.6265144635168918 0 28.0 -0.6265144635168918 1
gene  2 2 17 -5.226245719455492 0 37.0 -5.226245719455492 1
gene  1 17 4 0.24576447826721498 0 38.0 0.24576447826721498 1
gene  2 1 17 0.560025008008283 0 54.0 0.560025008008283 1
gene  1 1 28 0.35337762884458607 0 78.0 0.35337762884458607 1
gene  1 28 7 4.170938216335216 0 79.0 4.170938216335216 1
gene  1 1 48 -2.360657803752873 0 154.0 -2.360657803752873 1
gene  1 48 4 2.156961308183925 0 155.0 2.156961308183925 1
gene  3 48 28 2.727092214296975 0 180.0 2.727092214296975 1
gene  1 7 83 -0.4694058004139754 0 344.0 -0.4694058004139754 1
gene  1 83 4 -3.271897637618463 0 345.0 -3.271897637618463 1
genomeend 32
/*-------------------------------------------------------------------*/
/* Species # 008         : (size= 003) (AvfFit= 6.861) (Age= 42.000)  */
/*-------------------------------------------------------------------*/
/* Organism # 033 Fitness:  4.001 Error:  2.000                      */
genomestart  33
trait 1 0.38814261839298536 0.0 0.9050006718919018 0.36384170006448224 0.935613007493204 0.0 0.0 0.0 
trait 2 0.0 0.0 0.5929322033646273 0.06819585184899224 0.0 0.0 0.0 0.0 
trait 3 0.3 0.22225896443068605 0.0 0.0 0.0 0.0 0.0 0.0 
node 1 2 1 1
node 2 2 1 1
node 3 1 1 3
node 4 1 0 2
node 7 1 0 0
node 14 1 0 0
node 17 1 0 0
node 26 1 0 0
node 85 1 0 0
node 122 1 0 0
node 138 1 0 0
gene  1 1 4 2.4375078008324405 0 1.0 2.4375078008324405 1
gene  2 2 4 -5.170800789939483 0 2.0 -5.170800789939483 0
gene  3 3 4 -6.261472956319711 0 3.0 -6.261472956319711 1
gene  1 1 7 7.673907631710948 0 8.0 7.673907631710948 1
gene  1 7 4 1.8937792662295216 0 9.0 1.8937792662295216 0
gene  1 1 14 -1.0664897391765058 0 27.0 -1.0664897391765058 1
gene  1 14 4 -1.7924908363026537 0 28.0 -1.7924908363026537 1
gene  2 2 17 1.3271921300413372 0 37.0 1.3271921300413372 1
gene  2 17 4 -2.290230162067747 0 38.0 -2.290230162067747 1
gene  3 17 7 -1.7353611150657295 0 58.0 -1.7353611150657295 0
gene  2 2 26 0.7716232902789757 0 72.0 0.7716232902789757 1
gene  2 26 4 7.808277185875534 0 73.0 7.808277185875534 1
gene  2 1 26 0.5711796879462103 0 173.0 0.5711796879462103 1
gene  2 1 17 -4.242446395553024 0 237.0 -4.242446395553024 1
gene  1 2 7 0.6994077888647907 0 302.0 0.6994077888647907 1
gene  1 2 85 -1.3189647210347117 0 352.0 -1.3189647210347117 1
gene  1 85 7 3.2669673088000257 0 353.0 3.2669673088000257 1
gene  3 3 85 0.3742008179146714 0 446.0 0.3742008179146714 1
gene  1 17 122 2.077273413068338 0 547.0 2.077273413068338 1
gene  3 122 7 -0.20996386042507142 0 548.0 -0.20996386042507142 1
gene  3 14 122 2.987481247700687 0 585.0 2.987481247700687 1
gene  1 7 138 -3.9497362727744343 0 609.0 -3.9497362727744343 1
gene  3 138 4 -2.7599665299747427 0 610.0 -2.7599665299747427 1
genomeend 33
/* Organism # 034 Fitness:  7.584 Error:  1.246                      */
genomestart  34
trait 1 0.38814261839298536 0.0 0.9050006718919018 0.36384170006448224 0.935613007493204 0.0 0.0 0.0 
trait 2 0.0 0.0 0.5929322033646273 0.06819585184899224 0.0 0.0 0.0 0.0 
trait 3 0.3 0.22225896443068605 0.0 0.0 0.0 0.0 0.0 0.0 
node 1 2 1 1
node 2 2 1 1
node 3 1 1 3
node 4 1 0 2
node 7 1 0 0
node 14 1 0 0
node 17 1 0 0
node 26 1 0 0
node 85 1 0 0
node 122 1 0 0
node 138 1 0 0
gene  1 1 4 1.647627796525895 0 1.0 1.647627796525895 1
gene  2 2 4 -3.1671867982475863 0 2.0 -3.1671867982475863 0
gene  3 3 4 -6.261472956319711 0 3.0 -6.261472956319711 1
gene  1 1 7 7.673907631710948 0 8.0 7.673907631710948 1
gene  1 7 4 0.8498786454128615 0 9.0 0.8498786454128615 0
gene  1 1 14 2.1718875568177536 0 27.0 2.1718875568177536 1
gene  1 14 4 -8.770721382220012 0 28.0 -8.770721382220012 1
gene  2 2 17 3.207029946577153 0 37.0 3.207029946577153 1
gene  2 17 4 6.033751120266032 0 38.0 6.033751120266032 1
gene  3 17 7 -3.3584499070529183 0 58.0 -3.3584499070529183 0
gene  2 2 26 1.9229895108312942 0 72.0 1.9229895108312942 1
gene  2 26 4 7.279186241609354 0 73.0 7.279186241609354 1
gene  2 1 26 0.5711796879462103 0 173.0 0.5711796879462103 1
gene  2 1 17 -2.469735858054962 0 237.0 -2.469735858054962 1
gene  1 2 7 0.6994077888647907 0 302.0 0.6994077888647907 0
gene  1 2 85 -2.1083184100997077 0 352.0 -2.1083184100997077 1
gene  1 85 7 1.2749292165142152 0 353.0 1.2749292165142152 1
gene  3 3 85 2.215788010587061 0 446.0 2.215788010587061 1
gene  1 17 122 4.456519845158155 0 547.0 4.456519845158155 1
gene  3 122 7 0.16804496877449282 0 548.0 0.16804496877449282 1
gene  3 14 122 4.473358726756033 0 585.0 4.473358726756033 1
gene  1 7 138 -2.1528686317735795 0 609.0 -2.1528686317735795 1
gene  3 138 4 -1.6102300273867451 0 610.0 -1.6102300273867451 1
genomeend 34
/* Organism # 035 Fitness:  9.000 Error:  1.000                      */
genomestart  35
trait 1 0.38814261839298536 0.0 0.9050006718919018 0.36384170006448224 0.935613007493204 0.0 0.0 0.0 
trait 2 0.0 0.0 0.5929322033646273 0.06819585184899224 0.0 0.0 0.0 0.0 
trait 3 0.3 0.22225896443068605 0.0 0.0 0.0 0.0 0.0 0.0 
node 1 2 1 1
node 2 2 1 1
node 3 1 1 3
node 4 1 0 2
node 7 1 0 0
node 14 1 0 0
node 17 1 0 0
node 26 1 0 0
node 85 1 0 0
node 122 1 0 0
node 138 1 0 0
gene  1 1 4 1.038278565934685 0 1.0 1.038278565934685 1
gene  2 2 4 -1.1837371290524155 0 2.0 -1.1837371290524155 0
gene  3 3 4 -7.243791840415014 0 3.0 -7.243791840415014 1
gene  1 1 7 9.174869196499571 0 8.0 9.174869196499571 1
gene  1 7 4 0.937304417551138 0 9.0 0.937304417551138 0
gene  1 1 14 4.248001870040319 0 27.0 4.248001870040319 1
gene  1 14 4 -9.995377248611101 0 28.0 -9.995377248611101 1
gene  2 2 17 0.9203713327633469 0 37.0 0.9203713327633469 1
gene  2 17 4 7.815672136946271 0 38.0 7.815672136946271 1
gene  3 17 7 -4.0575493846184765 0 58.0 -4.0575493846184765 0
gene  2 2 26 3.75159950633938 0 72.0 3.75159950633938 1
gene  2 26 4 7.826358786287006 0 73.0 7.826358786287006 1
gene  2 1 26 -1.917388823339565 0 173.0 -1.917388823339565 1
gene  2 1 17 -3.8449376944797304 0 237.0 -3.8449376944797304 1
gene  1 2 7 -0.11698385163685154 0 302.0 -0.11698385163685154 0
gene  1 2 85 -1.1681966112022113 0 352.0 -1.1681966112022113 1
gene  1 85 7 3.4227628016556926 0 353.0 3.4227628016556926 1
gene  3 3 85 3.6173681142336367 0 446.0 3.6173681142336367 1
gene  1 17 122 2.600247517487223 0 547.0 2.600247517487223 1
gene  3 122 7 -0.3561874337253326 0 548.0 -0.3561874337253326 1
gene  3 14 122 3.633825472971933 0 585.0 3.633825472971933 1
gene  1 7 138 -4.145429763411078 0 609.0 -4.145429763411078 1
gene  3 138 4 -1.6102300273867451 0 610.0 -1.6102300273867451 1
genomeend 35
/*-------------------------------------------------------------------*/
/* Species # 009         : (size= 005) (AvfFit= 7.273) (Age= 42.000)  */
/*-------------------------------------------------------------------*/
/* Organism # 036 Fitness:  4.000 Error:  2.000                      */
genomestart  36
trait 1 0.07500000000000001 0.2072284296513441 0.0 0.0 0.0 0.0 0.0 0.0 
trait 2 0.2 0.0 0.0 0.0 0.0 0.0 0.0 0.0 
trait 3 0.3 0.475715308707353 0.23456319870909614 0.35145865708632473 0.0 0.0 0.0 0.0 
node 1 2 1 1
node 2 2 1 1
node 3 1 1 3
node 4 1 0 2
node 7 2 0 0
node 14 1 0 0
node 26 1 0 0
node 99 2 0 0
node 152 1 0 0
gene  1 1 4 -1.446109221003862 0 1.0 -1.446109221003862 0
gene  2 2 4 -2.5818468357925237 0 2.0 -2.5818468357925237 1
gene  3 3 4 -14.158321261117475 0 3.0 -14.158321261117475 1
gene  1 1 7 1.5244163724024822 0 8.0 1.5244163724024822 0
gene  1 7 4 -2.4078494662719083 0 9.0 -2.4078494662719083 0
gene  1 1 14 1.3923282513808088 0 27.0 1.3923282513808088 1
gene  1 14 4 2.083213842731192 0 28.0 2.083213842731192 1
gene  2 3 7 -3.5659042888398984 0 53.0 -3.5659042888398984 1
gene  2 2 26 2.4786125486186767 0 72.0 2.4786125486186767 1
gene  2 26 4 1.3229375090138638 0 73.0 1.3229375090138638 1
gene  1 1 26 -1.35959655640506 0 93.0 -1.35959655640506 1
gene  1 3 14 0.33446805136328006 0 199.0 0.33446805136328006 1
gene  1 7 99 -3.110025968472721 0 409.0 -3.110025968472721 1
gene  1 99 4 0.7273478838720961 0 410.0 0.7273478838720961 1
gene  1 2 99 -4.032214207335698 0 626.0 -4.032214207335698 0
gene  1 2 152 1.9307131603021035 0 664.0 1.9307131603021035 1
gene  1 152 99 -1.9698875106099427 0 665.0 -1.9698875106099427 1
genomeend 36
/* Organism # 037 Fitness:  9.000 Error:  1.000                      */
genomestart  37
trait 1 0.07500000000000001 0.2072284296513441 0.0 0.0 0.0 0.0 0.0 0.0 
trait 2 0.2 0.0 0.0 0.0 0.0 0.0 0.0 0.0 
trait 3 0.3 0.475715308707353 0.23456319870909614 0.35145865708632473 0.0 0.0 0.0 0.0 
node 1 2 1 1
node 2 2 1 1
node 3 1 1 3
node 4 1 0 2
node 7 2 0 0
node 14 1 0 0
node 26 1 0 0
node 99 2 0 0
node 152 1 0 0
gene  1 1 4 -1.2275548047045761 0 1.0 -1.2275548047045761 0
gene  2 2 4 -2.5818468357925237 0 2.0 -2.5818468357925237 0
gene  3 3 4 -12.928414839618544 0 3.0 -12.928414839618544 1
gene  1 1 7 1.5244163724024822 0 8.0 1.5244163724024822 0
gene  1 7 4 -2.4078494662719083 0 9.0 -2.4078494662719083 0
gene  1 1 14 5.140753851764838 0 27.0 5.140753851764838 1
gene  1 14 4 0.9092635454103863 0 28.0 0.9092635454103863 1
gene  2 3 7 -2.8591034787696676 0 53.0 -2.8591034787696676 1
gene  2 2 26 2.2992054158920574 0 72.0 2.2992054158920574 1
gene  2 26 4 20.790142424726373 0 73.0 20.790142424726373 1
gene  1 1 26 0.9420516325282602 0 93.0 0.9420516325282602 1
gene  1 3 14 -2.0662695373356574 0 199.0 -2.0662695373356574 1
gene  1 7 99 -1.9614739727240655 0 409.0 -1.9614739727240655 1
gene  1 99 4 -6.475792457704308 0 410.0 -6.475792457704308 1
gene  1 2 99 -1.7345064551733416 0 626.0 -1.7345064551733416 0
gene  1 2 152 3.4736378041163802 0 664.0 3.4736378041163802 1
gene  1 152 99 -0.5374254006231958 0 665.0 -0.5374254006231958 1
genomeend 37
/* Organism # 038 Fitness:  6.460 Error:  1.458                      */
genomestart  38
trait 1 0.07500000000000001 0.2072284296513441 0.0 0.0 0.0 0.0 0.0 0.0 
trait 2 0.2 0.0 0.0 0.0 0.0 0.0 0.0 0.0 
trait 3 0.3 0.475715308707353 0.23456319870909614 0.35145865708632473 0.0 0.0 0.0 0.0 
node 1 2 1 1
node 2 2 1 1
node 3 1 1 3
node 4 1 0 2
node 7 2 0 0
node 14 1 0 0
node 26 1 0 0
node 99 2 0 0
node 152 1 0 0
gene  1 1 4 -1.5352995511577885 0 1.0 -1.5352995511577885 0
gene  2 2 4 -4.828370494829311 0 2.0 -4.828370494829311 0
gene  3 3 4 -12.72574073243264 0 3.0 -12.72574073243264 1
gene  1 1 7 1.6683375908359184 0 8.0 1.6683375908359184 0
gene  1 7 4 -3.0096552317764025 0 9.0 -3.0096552317764025 0
gene  1 1 14 7.377077215631401 0 27.0 7.377077215631401 1
gene  1 14 4 -1.5052968098355164 0 28.0 -1.5052968098355164 1
gene  2 3 7 -0.6209395361503156 0 53.0 -0.6209395361503156 1
gene  2 2 26 4.564944753901608 0 72.0 4.564944753901608 1
gene  2 26 4 18.709009233275854 0 73.0 18.709009233275854 1
gene  1 1 26 2.940546601628683 0 93.0 2.940546601628683 1
gene  1 3 14 -0.5590172210873199 0 199.0 -0.5590172210873199 1
gene  1 7 99 -2.300760873367035 0 409.0 -2.300760873367035 1
gene  1 99 4 -8.311294733600167 0 410.0 -8.311294733600167 1
gene  1 2 99 -2.256536453683101 0 626.0 -2.256536453683101 0
gene  1 2 152 4.577141873227105 0 664.0 4.577141873227105 1
gene  1 152 99 0.3088956714497171 0 665.0 0.3088956714497171 1
genomeend 38
/* Organism # 039 Fitness:  7.907 Error:  1.188                      */
genomestart  39
trait 1 0.07500000000000001 0.2072284296513441 0.0 0.0 0.0 0.0 0.0 0.0 
trait 2 0.2 0.0 0.0 0.0 0.0 0.0 0.0 0.0 
trait 3 0.3 0.475715308707353 0.23456319870909614 0.35145865708632473 0.0 0.0 0.0 0.0 
node 1 2 1 1
node 2 2 1 1
node 3 1 1 3
node 4 1 0 2
node 7 2 0 0
node 14 1 0 0
node 26 1 0 0
node 99 2 0 0
node 152 1 0 0
gene  1 1 4 -1.2275548047045761 0 1.0 -1.2275548047045761 0
gene  2 2 4 -2.5818468357925237 0 2.0 -2.5818468357925237 0
gene  3 3 4 -12.928414839618544 0 3.0 -12.928414839618544 1
gene  1 1 7 1.5244163724024822 0 8.0 1.5244163724024822 0
gene  1 7 4 -2.4078494662719083 0 9.0 -2.4078494662719083 0
gene  1 1 14 5.140753851764838 0 27.0 5.140753851764838 1
gene  1 14 4 0.9092635454103863 0 28.0 0.9092635454103863 1
gene  2 3 7 -2.8591034787696676 0 53.0 -2.8591034787696676 1
gene  2 2 26 2.2992054158920574 0 72.0 2.2992054158920574 1
gene  2 26 4 20.790142424726373 0 73.0 20.790142424726373 1
gene  1 1 26 0.9420516325282602 0 93.0 0.9420516325282602 1
gene  1 3 14 -2.0662695373356574 0 199.0 -2.0662695373356574 1
gene  1 7 99 -1.9614739727240655 0 409.0 -1.9614739727240655 1
gene  1 99 4 -6.475792457704308 0 410.0 -6.475792457704308 1
gene  1 2 99 -1.7345064551733416 0 626.0 -1.7345064551733416 0
gene  1 2 152 3.4736378041163802 0 664.0 3.4736378041163802 1
gene  1 152 99 -0.5374254006231958 0 665.0 -0.5374254006231958 1
gene  3 152 4 -7.139272769198617 0 742.0 -7.139272769198617 1
genomeend 39
/* Organism # 040 Fitness:  9.000 Error:  1.000                      */
genomestart  40
trait 1 0.07500000000000001 0.2072284296513441 0.0 0.0 0.0 0.0 0.0 0.0 
trait 2 0.2 0.0 0.0 0.0 0.0 0.0 0.0 0.0 
trait 3 0.3 0.475715308707353 0.23456319870909614 0.35145865708632473 0.0 0.0 0.0 0.0 
node 1 2 1 1
node 2 2 1 1
node 3 1 1 3
node 4 1 0 2
node 7 2 0 0
node 14 1 0 0
node 26 1 0 0
node 99 2 0 0
node 152 1 0 0
gene  1 1 4 -2.6022792640870667 0 1.0 -2.6022792640870667 0
gene  2 2 4 -3.9506980902862683 0 2.0 -3.9506980902862683 0
gene  3 3 4 -13.005033862742655 0 3.0 -13.005033862742655 1
gene  1 1 7 -0.28473917324476217 0 8.0 -0.28473917324476217 0
gene  1 7 4 -1.8820998704843488 0 9.0 -1.8820998704843488 0
gene  1 1 14 3.162678173266051 0 27.0 3.162678173266051 1
gene  1 14 4 -0.0075390601852455275 0 28.0 -0.0075390601852455275 1
gene  2 3 7 -5.084433490726649 0 53.0 -5.084433490726649 1
gene  2 2 26 -1.7987193003484552 0 72.0 -1.7987193003484552 1
gene  2 26 4 23.01670156595056 0 73.0 23.01670156595056 1
gene  1 1 26 1.337042848963053 0 93.0 1.337042848963053 1
gene  1 3 14 -0.621904094087466 0 199.0 -0.621904094087466 1
gene  1 7 99 -3.55924489568135 0 409.0 -3.55924489568135 1
gene  1 99 4 -4.543718023778792 0 410.0 -4.543718023778792 1
gene  1 2 99 1.0375966548346482 0 626.0 1.0375966548346482 0
gene  1 2 152 -1.0022058878841795 0 664.0 -1.0022058878841795 1
gene  1 152 99 1.0337699783487482 0 665.0 1.0337699783487482 1
genomeend 40
/*-------------------------------------------------------------------*/
/* Species # 010         : (size= 003) (AvfFit= 4.000) (Age= 41.000)  */
/*-------------------------------------------------------------------*/
/* Organism # 041 Fitness:  4.000 Error:  2.000                      */
genomestart  41
trait 1 0.11002367167915897 0.016313322420038384 0.0 0.0 0.011060308754703343 0.014515605707494987 0.0 0.0 
trait 2 0.2 0.0 0.1885750971657665 0.0 0.0 0.0 0.0 0.016297946705203927 
trait 3 0.3 0.0 0.0 0.0 0.0 0.0 0.0 0.10925253295104365 
node 1 1 1 1
node 2 1 1 1
node 3 1 1 3
node 4 1 0 2
node 7 2 0 0
node 11 1 0 0
node 31 3 0 0
gene  1 1 4 -3.391160726725317 0 1.0 -3.391160726725317 1
gene  2 2 4 3.3388373462803584 0 2.0 3.3388373462803584 1
gene  3 3 4 -9.609544240384343 0 3.0 -9.609544240384343 1
gene  2 1 7 -0.42190930326807585 0 8.0 -0.42190930326807585 1
gene  1 7 4 -0.7706821399453672 0 9.0 -0.7706821399453672 1
gene  2 2 11 -1.0391204331832462 0 19.0 -1.0391204331832462 1
gene  2 11 4 17.614964452648074 0 20.0 17.614964452648074 1
gene  1 3 11 -0.8718091373214067 0 60.0 -0.8718091373214067 1
gene  1 1 31 -10.824081856124264 0 88.0 -10.824081856124264 1
gene  1 31 7 -7.308562023105379 0 89.0 -7.308562023105379 1
gene  1 1 11 -6.825591109014282 0 118.0 -6.825591109014282 1
gene  1 31 11 -3.3361754877739713 0 156.0 -3.3361754877739713 1
gene  3 2 31 -2.255494842453023 0 212.0 -2.255494842453023 1
gene  3 11 7 -2.0532709818302566 0 323.0 -2.0532709818302566 1
genomeend 41
/* Organism # 042 Fitness:  4.000 Error:  2.000                      */
genomestart  42
trait 1 0.11002367167915897 0.016313322420038384 0.0 0.0 0.011060308754703343 0.014515605707494987 0.0 0.0 
trait 2 0.2 0.0 0.1885750971657665 0.0 0.0 0.0 0.0 0.016297946705203927 
trait 3 0.3 0.0 0.0 0.0 0.0 0.0 0.0 0.10925253295104365 
node 1 1 1 1
node 2 1 1 1
node 3 1 1 3
node 4 1 0 2
node 7 2 0 0
node 11 1 0 0
node 31 3 0 0
gene  1 1 4 -5.4458859052917585 0 1.0 -5.4458859052917585 1
gene  2 2 4 1.0152271307385612 0 2.0 1.0152271307385612 1
gene  3 3 4 -8.165177320341291 0 3.0 -8.165177320341291 1
gene  2 1 7 1.5366605475506654 0 8.0 1.5366605475506654 1
gene  1 7 4 2.358299563783431 0 9.0 2.358299563783431 1
gene  2 2 11 1.5314408612968553 0 19.0 1.5314408612968553 1
gene  2 11 4 19.44045025367297 0 20.0 19.44045025367297 1
gene  1 3 11 -3.5333965019257922 0 60.0 -3.5333965019257922 1
gene  1 1 31 0.7431804645639353 0 88.0 0.7431804645639353 1
gene  1 31 7 -9.827828124849063 0 89.0 -9.827828124849063 1
gene  1 1 11 0.0857626543180498 0 118.0 0.0857626543180498 1
gene  1 31 11 -1.2111974447099012 0 156.0 -1.2111974447099012 1
gene  3 2 31 -1.5992889315054157 0 212.0 -1.5992889315054157 1
gene  3 11 7 -0.01806489315910431 0 323.0 -0.01806489315910431 1
genomeend 42
/* Organism # 043 Fitness:  4.000 Error:  2.000                      */
genomestart  43
trait 1 0.11002367167915897 0.016313322420038384 0.0 0.0 0.011060308754703343 0.014515605707494987 0.0 0.0 
trait 2 0.2 0.0 0.1885750971657665 0.0 0.0 0.0 0.0 0.016297946705203927 
trait 3 0.3 0.0 0.0 0.0 0.0 0.0 0.0 0.10925253295104365 
node 1 1 1 1
node 2 1 1 1
node 3 1 1 3
node 4 1 0 2
node 7 2 0 0
node 11 1 0 0
node 31 3 0 0
gene  1 1 4 -11.14744004643916 0 1.0 -11.14744004643916 1
gene  2 2 4 1.4804355843970134 0 2.0 1.4804355843970134 1
gene  3 3 4 1.0069844336937241 0 3.0 1.0069844336937241 1
gene  2 1 7 5.305386692765889 0 8.0 5.305386692765889 1
gene  1 7 4 2.2249289893269286 0 9.0 2.2249289893269286 1
gene  2 2 11 -0.6424340937007358 0 19.0 -0.6424340937007358 1
gene  2 11 4 20.68896814698796 0 20.0 20.68896814698796 1
gene  1 3 11 -5.420996351028901 0 60.0 -5.420996351028901 1
gene  1 1 31 -1.6021276457934963 0 88.0 -1.6021276457934963 1
gene  1 31 7 1.2694023799942973 0 89.0 1.2694023799942973 1
gene  1 1 11 1.480885148914112 0 118.0 1.480885148914112 1
gene  1 31 11 -0.20988756388630098 0 156.0 -0.20988756388630098 1
gene  3 2 31 0.011566840103884202 0 212.0 0.011566840103884202 1
gene  3 11 7 -2.124678198426646 0 323.0 -2.124678198426646 1
gene  3 31 4 -0.6954352774892618 0 679.0 -0.6954352774892618 1
genomeend 43
/*-------------------------------------------------------------------*/
/* Species # 011         : (size= 002) (AvfFit= 3.952) (Age= 40.000)  */
/*-------------------------------------------------------------------*/
/* Organism # 044 Fitness:  4.000 Error:  2.000                      */
genomestart  44
trait 1 0.1 0.0 0.0 0.0 0.055398074479255544 0.0 0.0 0.12192827250494745 
trait 2 0.09375 0.38009042412031013 0.0 0.03312654059381397 0.0 0.0 0.0 0.02176789354007065 
trait 3 0.18922734668377778 0.0 0.0 0.0 0.0 0.0 0.0 0.29941432001084967 
node 1 2 1 1
node 2 2 1 1
node 3 1 1 3
node 4 1 0 2
node 7 2 0 0
node 14 1 0 0
node 34 1 0 0
node 39 1 0 0
gene  1 1 4 6.782916401138853 0 1.0 6.782916401138853 1
gene  2 2 4 -4.068647308622715 0 2.0 -4.068647308622715 1
gene  3 3 4 1.118032655940302 0 3.0 1.118032655940302 1
gene  1 1 7 -2.3776796595756875 0 8.0 -2.3776796595756875 1
gene  1 7 4 -0.27579126119638175 0 9.0 -0.27579126119638175 1
gene  1 1 14 2.108752790301041 0 27.0 2.108752790301041 1
gene  1 14 4 -8.427419792801564 0 28.0 -8.427419792801564 1
gene  2 2 34 2.275862598212913 0 97.0 2.275862598212913 1
gene  2 34 4 5.157967074294643 0 98.0 5.157967074294643 1
gene  1 7 39 -0.7380845701349703 0 121.0 -0.7380845701349703 1
gene  1 39 4 -3.9903286903688313 0 122.0 -3.9903286903688313 1
gene  2 14 39 3.3490022115135023 0 262.0 3.3490022115135023 1
genomeend 44
/* Organism # 045 Fitness:  3.904 Error:  2.024                      */
genomestart  45
trait 1 0.1 0.0 0.0 0.0 0.055398074479255544 0.0 0.0 0.12192827250494745 
trait 2 0.09375 0.38009042412031013 0.0 0.03312654059381397 0.0 0.0 0.0 0.02176789354007065 
trait 3 0.18922734668377778 0.0 0.0 0.0 0.0 0.0 0.0 0.29941432001084967 
node 1 2 1 1
node 2 2 1 1
node 3 1 1 3
node 4 1 0 2
node 7 2 0 0
node 14 1 0 0
node 34 1 0 0
node 39 1 0 0
gene  1 1 4 2.6032094543135242 0 1.0 2.6032094543135242 1
gene  2 2 4 -1.6386927261193707 0 2.0 -1.6386927261193707 1
gene  3 3 4 0.09960927751570825 0 3.0 0.09960927751570825 1
gene  1 1 7 -1.999912082052058 0 8.0 -1.999912082052058 1
gene  1 7 4 2.4476266448179693 0 9.0 2.4476266448179693 1
gene  1 1 14 0.1521650014995265 0 27.0 0.1521650014995265 1
gene  1 14 4 -7.656365295178322 0 28.0 -7.656365295178322 1
gene  2 2 34 4.091692928252326 0 97.0 4.091692928252326 1
gene  2 34 4 6.091402934286234 0 98.0 6.091402934286234 1
gene  1 7 39 -0.47787732510108705 0 121.0 -0.47787732510108705 1
gene  1 39 4 -1.1791414971478782 0 122.0 -1.1791414971478782 1
gene  2 14 39 -0.6028353029910265 0 262.0 -0.6028353029910265 1
genomeend 45
/*-------------------------------------------------------------------*/
/* Species # 012         : (size= 006) (AvfFit= 8.085) (Age= 40.000)  */
/*-------------------------------------------------------------------*/
/* Organism # 046 Fitness:  9.000 Error:  1.000                      */
genomestart  46
trait 1 0.1 0.7607114810711857 0.0 0.0 0.9892163601020136 0.0 0.0 0.12192827250494745 
trait 2 0.0 0.4350332952577277 0.0 0.0 0.0 0.0 0.0 0.0 
trait 3 0.3 0.0 0.0 0.0 0.0 0.0 0.0 0.0 
node 1 2 1 1
node 2 2 1 1
node 3 1 1 3
node 4 1 0 2
node 7 1 0 0
node 14 1 0 0
node 17 1 0 0
node 34 1 0 0
node 96 1 0 0
gene  1 1 4 -2.985710809524937 0 1.0 -2.985710809524937 0
gene  2 2 4 9.414252709015186 0 2.0 9.414252709015186 1
gene  3 3 4 4.566504380359908 0 3.0 4.566504380359908 1
gene  1 1 7 -5.426436109718587 0 8.0 -5.426436109718587 1
gene  1 7 4 -3.49766888811248 0 9.0 -3.49766888811248 1
gene  1 1 14 -12.236805495140649 0 27.0 -12.236805495140649 1
gene  1 14 4 -11.398100269976247 0 28.0 -11.398100269976247 1
gene  2 2 17 -6.094907033106257 0 37.0 -6.094907033106257 1
gene  2 17 4 -0.7059277139873723 0 38.0 -0.7059277139873723 1
gene  3 17 7 1.1480091494170925 0 58.0 1.1480091494170925 1
gene  1 7 14 -1.719196092083246 0 68.0 -1.719196092083246 1
gene  1 2 34 4.420585911808071 0 97.0 4.420585911808071 1
gene  2 34 4 2.35014061142384 0 98.0 2.35014061142384 1
gene  3 17 34 1.9866569779237175 0 123.0 1.9866569779237175 1
gene  2 34 14 4.779229794540264 0 158.0 4.779229794540264 1
gene  2 34 7 -2.285164509515071 0 204.0 -2.285164509515071 1
gene  3 3 17 2.159927886933442 0 287.0 2.159927886933442 1
gene  1 1 96 -4.684550674485249 0 398.0 -4.684550674485249 1
gene  1 96 4 1.507389125373886 0 399.0 1.507389125373886 1
genomeend 46
/* Organism # 047 Fitness:  8.508 Error:  1.083                      */
genomestart  47
trait 1 0.1 0.7607114810711857 0.0 0.0 0.9892163601020136 0.0 0.0 0.12192827250494745 
trait 2 0.0 0.4350332952577277 0.0 0.0 0.0 0.0 0.0 0.0 
trait 3 0.3 0.0 0.0 0.0 0.0 0.0 0.0 0.0 
node 1 2 1 1
node 2 2 1 1
node 3 1 1 3
node 4 1 0 2
node 7 1 0 0
node 14 1 0 0
node 17 1 0 0
node 34 1 0 0
node 96 1 0 0
gene  1 1 4 -4.605852135978571 0 1.0 -4.605852135978571 0
gene  2 2 4 11.413507902413999 0 2.0 11.413507902413999 1
gene  3 3 4 6.71884960747673 0 3.0 6.71884960747673 1
gene  1 1 7 -3.1418440509843046 0 8.0 -3.1418440509843046 1
gene  1 7 4 -1.9882243323274595 0 9.0 -1.9882243323274595 1
gene  1 1 14 -11.11273724663815 0 27.0 -11.11273724663815 1
gene  1 14 4 -9.185970185202459 0 28.0 -9.185970185202459 1
gene  2 2 17 -7.067058429733678 0 37.0 -7.067058429733678 1
gene  2 17 4 1.2065651858008724 0 38.0 1.2065651858008724 1
gene  3 17 7 0.8482892087376934 0 58.0 0.8482892087376934 1
gene  1 7 14 0.4174257805817332 0 68.0 0.4174257805817332 1
gene  1 2 34 4.7712784178538525 0 97.0 4.7712784178538525 1
gene  2 34 4 0.11537311009457252 0 98.0 0.11537311009457252 1
gene  3 17 34 3.5389272163829104 0 123.0 3.5389272163829104 1
gene  2 34 14 3.338794928239031 0 158.0 3.338794928239031 1
gene  2 34 7 -3.5718896196838603 0 204.0 -3.5718896196838603 1
gene  3 3 17 0.4968964528780213 0 287.0 0.4968964528780213 1
gene  1 1 96 -2.2545507388194195 0 398.0 -2.2545507388194195 1
gene  1 96 4 1.507389125373886 0 399.0 1.507389125373886 1
genomeend 47
/* Organism # 048 Fitness:  9.000 Error:  1.000                      */
genomestart  48
trait 1 0.1 0.7607114810711857 0.0 0.0 0.9892163601020136 0.0 0.0 0.12192827250494745 
trait 2 0.0 0.4350332952577277 0.0 0.0 0.0 0.0 0.0 0.0 
trait 3 0.3 0.0 0.0 0.0 0.0 0.0 0.0 0.0 
node 1 2 1 1
node 2 2 1 1
node 3 1 1 3
node 4 1 0 2
node 7 1 0 0
node 14 1 0 0
node 17 1 0 0
node 34 1 0 0
node 96 1 0 0
gene  1 1 4 -0.8266206399587053 0 1.0 -0.8266206399587053 0
gene  2 2 4 7.045885503899489 0 2.0 7.045885503899489 1
gene  3 3 4 6.58105297471513 0 3.0 6.58105297471513 1
gene  1 1 7 -5.8621365359438125 0 8.0 -5.8621365359438125 1
gene  1 7 4 -4.304997987433683 0 9.0 -4.304997987433683 1
gene  1 1 14 -11.268853743736534 0 27.0 -11.268853743736534 1
gene  1 14 4 -11.186550820689337 0 28.0 -11.186550820689337 1
gene  2 2 17 -7.601386895059331 0 37.0 -7.601386895059331 1
gene  2 17 4 -2.2616083753368663 0 38.0 -2.2616083753368663 1
gene  3 17 7 1.7775327044733786 0 58.0 1.7775327044733786 1
gene  1 7 14 -2.188246717219632 0 68.0 -2.188246717219632 1
gene  1 2 34 5.642120463420476 0 97.0 5.642120463420476 1
gene  2 34 4 1.2962744574851226 0 98.0 1.2962744574851226 1
gene  3 17 34 4.096795305332346 0 123.0 4.096795305332346 1
gene  2 34 14 5.38933009533282 0 158.0 5.38933009533282 1
gene  2 34 7 -1.6499682514431726 0 204.0 -1.6499682514431726 1
gene  3 3 17 2.159927886933442 0 287.0 2.159927886933442 1
gene  1 1 96 -5.181083528986434 0 398.0 -5.181083528986434 1
gene  1 96 4 1.507389125373886 0 399.0 1.507389125373886 1
genomeend 48
/* Organism # 049 Fitness:  4.000 Error:  2.000                      */
genomestart  49
trait 1 0.1 0.7607114810711857 0.0 0.0 0.9892163601020136 0.0 0.0 0.12192827250494745 
trait 2 0.0 0.4350332952577277 0.0 0.0 0.0 0.0 0.0 0.0 
trait 3 0.3 0.0 0.0 0.0 0.0 0.0 0.0 0.0 
node 1 2 1 1
node 2 2 1 1
node 3 1 1 3
node 4 1 0 2
node 7 1 0 0
node 14 1 0 0
node 17 1 0 0
node 34 1 0 0
node 96 1 0 0
gene  1 1 4 -2.2124411862004014 0 1.0 -2.2124411862004014 0
gene  2 2 4 -1.6790224605100557 0 2.0 -1.6790224605100557 1
gene  3 3 4 5.9527232253965146 0 3.0 5.9527232253965146 1
gene  1 1 7 -6.257245269575959 0 8.0 -6.257245269575959 1
gene  1 7 4 -4.506522412149302 0 9.0 -4.506522412149302 1
gene  1 1 14 -10.673624391387058 0 27.0 -10.673624391387058 1
gene  1 14 4 -13.084790749353488 0 28.0 -13.084790749353488 1
gene  2 2 17 0.6171312207725013 0 37.0 0.6171312207725013 1
gene  2 17 4 -0.6823781402050941 0 38.0 -0.6823781402050941 1
gene  3 17 7 -0.8039083182289373 0 58.0 -0.8039083182289373 1
gene  1 7 14 -3.540296246069295 0 68.0 -3.540296246069295 1
gene  1 2 34 3.5616383560244538 0 97.0 3.5616383560244538 1
gene  2 34 4 2.35014061142384 0 98.0 2.35014061142384 1
gene  3 17 34 2.0916210433261866 0 123.0 2.0916210433261866 1
gene  2 34 14 4.779229794540264 0 158.0 4.779229794540264 1
gene  2 34 7 -1.927036077115073 0 204.0 -1.927036077115073 1
gene  3 3 17 2.523814979721989 0 287.0 2.523814979721989 1
gene  1 1 96 -4.684550674485249 0 398.0 -4.684550674485249 1
gene  1 96 4 3.371595877622779 0 399.0 3.371595877622779 1
genomeend 49
/* Organism # 050 Fitness:  9.000 Error:  1.000                      */
genomestart  50
trait 1 0.1 0.7607114810711857 0.0 0.0 0.9892163601020136 0.0 0.0 0.12192827250494745 
trait 2 0.0 0.4350332952577277 0.0 0.0 0.0 0.0 0.0 0.0 
trait 3 0.3 0.0 0.0 0.0 0.0 0.0 0.0 0.0 
node 1 2 1 1
node 2 2 1 1
node 3 1 1 3
node 4 1 0 2
node 7 1 0 0
node 14 1 0 0
node 17 1 0 0
node 34 1 0 0
node 96 1 0 0
gene  1 1 4 -2.756665749122818 0 1.0 -2.756665749122818 0
gene  2 2 4 11.634412038031964 0 2.0 11.634412038031964 1
gene  3 3 4 3.6915867998220717 0 3.0 3.6915867998220717 1
gene  1 1 7 -7.433731164108831 0 8.0 -7.433731164108831 1
gene  1 7 4 -1.4544405947301784 0 9.0 -1.4544405947301784 1
gene  1 1 14 -12.739869103642736 0 27.0 -12.739869103642736 1
gene  1 14 4 -12.785404014533242 0 28.0 -12.785404014533242 1
gene  2 2 17 -3.768633560024986 0 37.0 -3.768633560024986 1
gene  2 17 4 -0.10524815424502643 0 38.0 -0.10524815424502643 1
gene  3 17 7 -0.5653946472605735 0 58.0 -0.5653946472605735 1
gene  1 7 14 -2.039352381858657 0 68.0 -2.039352381858657 1
gene  1 2 34 5.923157667020266 0 97.0 5.923157667020266 1
gene  2 34 4 1.7247863126524978 0 98.0 1.7247863126524978 1
gene  1 17 34 4.194228957111011 0 123.0 4.194228957111011 1
gene  2 34 14 7.127084925967629 0 158.0 7.127084925967629 1
gene  2 34 7 -1.9552627666462863 0 204.0 -1.9552627666462863 1
gene  3 3 17 0.8035688557125293 0 287.0 0.8035688557125293 1
gene  1 1 96 -4.684550674485249 0 398.0 -4.684550674485249 1
gene  1 96 4 -2.098951903385771 0 399.0 -2.098951903385771 1
genomeend 50
/* Organism # 051 Fitness:  9.000 Error:  1.000                      */
genomestart  51
trait 1 0.1 0.7607114810711857 0.0 0.0 0.9892163601020136 0.0 0.0 0.12192827250494745 
trait 2 0.0 0.4350332952577277 0.0 0.0 0.0 0.0 0.0 0.0 
trait 3 0.3 0.0 0.0 0.0 0.0 0.0 0.0 0.0 
node 1 2 1 1
node 2 2 1 1
node 3 1 1 3
node 4 1 0 2
node 7 1 0 0
node 14 1 0 0
node 17 1 0 0
node 34 1 0 0
node 96 1 0 0
gene  1 1 4 -2.5444566015320262 0 1.0 -2.5444566015320262 0
gene  2 2 4 7.6209850149404055 0 2.0 7.6209850149404055 1
gene  3 3 4 4.380972874061089 0 3.0 4.380972874061089 1
gene  1 1 7 -5.209735554131572 0 8.0 -5.209735554131572 1
gene  1 7 4 -1.1145319669893006 0 9.0 -1.1145319669893006 1
gene  1 1 14 -12.956842266666028 0 27.0 -12.956842266666028 1
gene  1 14 4 -9.445308775768101 0 28.0 -9.445308775768101 1
gene  2 2 17 -7.309347605866754 0 37.0 -7.309347605866754 1
gene  2 17 4 -2.193171858538898 0 38.0 -2.193171858538898 1
gene  3 17 7 2.3175250656586814 0 58.0 2.3175250656586814 1
gene  1 7 14 -1.9058083037885152 0 68.0 -1.9058083037885152 1
gene  1 2 34 5.908744587678767 0 97.0 5.908744587678767 1
gene  2 34 4 0.9534115863922334 0 98.0 0.9534115863922334 1
gene  3 17 34 0.6693892008002944 0 123.0 0.6693892008002944 1
gene  2 34 14 2.932021675841911 0 158.0 2.932021675841911 1
gene  2 34 7 -0.2541921817212969 0 204.0 -0.2541921817212969 1
gene  3 3 17 4.4800846439446165 0 287.0 4.4800846439446165 1
gene  1 1 96 -4.684550674485249 0 398.0 -4.684550674485249 1
gene  1 96 4 3.312658015644809 0 399.0 3.312658015644809 1
genomeend 51
/*-------------------------------------------------------------------*/
/* Species # 014         : (size= 004) (AvfFit= 7.049) (Age= 38.000)  */
/*-------------------------------------------------------------------*/
/* Organism # 052 Fitness:  8.998 Error:  1.000                      */
genomestart  52
trait 1 0.1 0.0 0.0 0.0 0.055398074479255544 0.0 0.0 0.12192827250494745 
trait 2 0.9627215360255031 0.0 0.0 0.05276591096484689 0.0 0.0 0.11429357504937143 0.6226084608402673 
trait 3 0.15 0.0 0.0 0.0 0.49688686749830285 0.1878309756298922 0.0 0.0 
node 1 1 1 1
node 2 2 1 1
node 3 1 1 3
node 4 1 0 2
node 7 2 0 0
node 14 1 0 0
node 34 1 0 0
gene  1 1 4 -0.2374205306311139 0 1.0 -0.2374205306311139 1
gene  2 2 4 0.18174734387664565 0 2.0 0.18174734387664565 1
gene  3 3 4 -2.3789964794016534 0 3.0 -2.3789964794016534 1
gene  1 1 7 2.4281435119273675 0 8.0 2.4281435119273675 1
gene  1 7 4 0.3270890392069865 0 9.0 0.3270890392069865 1
gene  1 1 14 -2.3288493727220505 0 27.0 -2.3288493727220505 1
gene  1 14 4 1.105643861281127 0 28.0 1.105643861281127 1
gene  2 2 34 10.342963666053986 0 97.0 10.342963666053986 1
gene  2 34 4 9.53015454870417 0 98.0 9.53015454870417 1
gene  1 2 7 1.0581526365875369 0 302.0 1.0581526365875369 1
gene  3 14 7 0.27468036322098793 0 445.0 0.27468036322098793 1
gene  1 2 14 -5.956353929601226 0 646.0 -5.956353929601226 1
gene  3 1 34 7.113450740628626 0 685.0 7.113450740628626 1
gene  2 7 34 -5.677423961212222 0 707.0 -5.677423961212222 1
genomeend 52
/* Organism # 053 Fitness:  6.225 Error:  1.505                      */
genomestart  53
trait 1 0.1 0.0 0.0 0.0 0.055398074479255544 0.0 0.0 0.12192827250494745 
trait 2 0.9627215360255031 0.0 0.27764098122247505 0.05276591096484689 0.0 0.0 0.9487664431386027 0.6226084608402673 
trait 3 0.15 0.0 0.0 0.0 0.49688686749830285 0.1878309756298922 0.0 0.0 
node 1 1 1 1
node 2 2 1 1
node 3 1 1 3
node 4 1 0 2
node 7 2 0 0
node 14 1 0 0
node 34 1 0 0
gene  1 1 4 -4.494818663650922 0 1.0 -4.494818663650922 1
gene  2 2 4 -1.9161519082997123 0 2.0 -1.9161519082997123 1
gene  3 3 4 -2.3574549762719155 0 3.0 -2.3574549762719155 1
gene  1 1 7 1.6959953979688998 0 8.0 1.6959953979688998 1
gene  1 7 4 0.705221866935422 0 9.0 0.705221866935422 1
gene  1 1 14 -4.339552121334791 0 27.0 -4.339552121334791 1
gene  1 14 4 0.40858081137149277 0 28.0 0.40858081137149277 1
gene  2 2 34 7.955519677362815 0 97.0 7.955519677362815 1
gene  2 34 4 6.143281599648971 0 98.0 6.143281599648971 1
gene  1 2 7 3.1243021648687574 0 302.0 3.1243021648687574 1
gene  3 14 7 1.444807363744137 0 445.0 1.444807363744137 1
gene  1 2 14 -7.345513704510401 0 646.0 -7.345513704510401 1
gene  3 1 34 10.839026506771683 0 685.0 10.839026506771683 1
gene  2 7 34 0.8526559270010892 0 707.0 0.8526559270010892 1
genomeend 53
/* Organism # 054 Fitness:  8.972 Error:  1.005                      */
genomestart  54
trait 1 0.1 0.0 0.0 0.0 0.055398074479255544 0.0 0.0 0.12192827250494745 
trait 2 0.9627215360255031 0.0 0.0 0.05276591096484689 0.0 0.0 0.11429357504937143 0.6226084608402673 
trait 3 0.15 0.0 0.0 0.5572352273886907 0.49688686749830285 0.1878309756298922 0.0 0.0 
node 1 1 1 1
node 2 2 1 1
node 3 1 1 3
node 4 1 0 2
node 7 2 0 0
node 14 1 0 0
node 34 1 0 0
gene  1 1 4 -0.5897797086964243 0 1.0 -0.5897797086964243 1
gene  2 2 4 -0.9737056848340331 0 2.0 -0.9737056848340331 1
gene  3 3 4 -1.7076235529468007 0 3.0 -1.7076235529468007 1
gene  1 1 7 4.424364461501754 0 8.0 4.424364461501754 1
gene  1 7 4 1.2093875053335994 0 9.0 1.2093875053335994 1
gene  1 1 14 -1.1131301214965121 0 27.0 -1.1131301214965121 1
gene  1 14 4 -1.6872502610862732 0 28.0 -1.6872502610862732 1
gene  2 2 34 11.343085665992541 0 97.0 11.343085665992541 1
gene  2 34 4 5.845403143601167 0 98.0 5.845403143601167 1
gene  1 2 7 3.4368129932652276 0 302.0 3.4368129932652276 1
gene  3 14 7 -1.3714607424618843 0 445.0 -1.3714607424618843 1
gene  1 2 14 -4.579779844477635 0 646.0 -4.579779844477635 1
gene  3 1 34 9.893112905874647 0 685.0 9.893112905874647 1
gene  2 7 34 -6.962948350607024 0 707.0 -6.962948350607024 1
genomeend 54
/* Organism # 055 Fitness:  4.000 Error:  2.000                      */
genomestart  55
trait 1 0.1 0.0 0.0 0.0 0.055398074479255544 0.0 0.0 0.12192827250494745 
trait 2 0.9627215360255031 0.0 0.0 0.05276591096484689 0.0 0.0 0.11429357504937143 0.6226084608402673 
trait 3 0.15 0.0 0.0 0.0 0.49688686749830285 0.1878309756298922 0.0 0.0 
node 1 1 1 1
node 2 2 1 1
node 3 1 1 3
node 4 1 0 2
node 7 2 0 0
node 14 1 0 0
node 34 1 0 0
gene  1 1 4 -4.022160242705311 0 1.0 -4.022160242705311 1
gene  2 2 4 1.109457477077954 0 2.0 1.109457477077954 1
gene  3 3 4 -3.615575231028907 0 3.0 -3.615575231028907 1
gene  1 1 7 3.960942836253938 0 8.0 3.960942836253938 1
gene  1 7 4 -0.7258528315122508 0 9.0 -0.7258528315122508 1
gene  1 1 14 -2.7660484449029847 0 27.0 -2.7660484449029847 1
gene  1 14 4 -0.9811548575255735 0 28.0 -0.9811548575255735 1
gene  2 2 34 10.298057308196185 0 97.0 10.298057308196185 1
gene  2 34 4 10.1782303794572 0 98.0 10.1782303794572 1
gene  1 2 7 2.0293770836991407 0 302.0 2.0293770836991407 1
gene  3 14 7 0.5898647696622713 0 445.0 0.5898647696622713 1
gene  1 2 14 -3.496242718296207 0 646.0 -3.496242718296207 1
gene  3 1 34 2.264514844194548 0 685.0 2.264514844194548 1
gene  2 7 34 -6.421875784034414 0 707.0 -6.421875784034414 1
genomeend 55
/*-------------------------------------------------------------------*/
/* Species # 015         : (size= 006) (AvfFit= 9.000) (Age= 37.000)  */
/*-------------------------------------------------------------------*/
/* Organism # 056 Fitness:  9.000 Error:  1.000                      */
genomestart  56
trait 1 0.1 0.0 0.0 0.0 0.0 0.0 0.0 0.0 
trait 2 1.0247826227428418 0.30651935219284276 0.0 0.09937962178144191 0.0 0.16763701104293527 0.39867617969017766 0.1387563345930259 
trait 3 0.49331176923233705 0.2163142808593559 0.0 0.0 0.0 0.0 0.0 0.0 
node 1 1 1 1
node 2 1 1 1
node 3 3 1 3
node 4 2 0 2
node 7 1 0 0
node 42 3 0 0
gene  1 1 4 12.257848612982965 0 1.0 12.257848612982965 1
gene  2 2 4 6.643888671999273 0 2.0 6.643888671999273 1
gene  3 3 4 -4.554589510726149 0 3.0 -4.554589510726149 1
gene  1 1 7 -3.3886862638698663 0 8.0 -3.3886862638698663 1
gene  1 7 4 -8.019399527648057 0 9.0 -8.019399527648057 1
gene  3 2 7 -4.790099477372722 0 24.0 -4.790099477372722 1
gene  2 3 7 2.757501134516234 0 53.0 2.757501134516234 1
gene  1 1 42 8.155417342214129 0 132.0 8.155417342214129 1
gene  1 42 4 14.233690716744434 0 133.0 14.233690716744434 1
gene  3 42 7 1.8977279157008686 0 196.0 1.8977279157008686 1
genomeend 56
/* Organism # 057 Fitness:  9.000 Error:  1.000                      */
genomestart  57
trait 1 0.1 0.0 0.0 0.0 0.0 0.0 0.0 0.0 
trait 2 1.0247826227428418 0.30651935219284276 0.0 0.09937962178144191 0.0 0.16763701104293527 0.39867617969017766 0.1387563345930259 
trait 3 0.49331176923233705 0.2163142808593559 0.0 0.0 0.0 0.0 0.0 0.0 
node 1 1 1 1
node 2 1 1 1
node 3 3 1 3
node 4 2 0 2
node 7 1 0 0
node 42 3 0 0
gene  1 1 4 11.21608654203283 0 1.0 11.21608654203283 1
gene  2 2 4 9.04763616967111 0 2.0 9.04763616967111 1
gene  3 3 4 -5.277769034635392 0 3.0 -5.277769034635392 1
gene  1 1 7 -2.1449132230146106 0 8.0 -2.1449132230146106 1
gene  1 7 4 -8.223878876187765 0 9.0 -8.223878876187765 1
gene  3 2 7 -2.805338913474764 0 24.0 -2.805338913474764 1
gene  2 3 7 2.94046468426707 0 53.0 2.94046468426707 1
gene  1 1 42 7.601988070602141 0 132.0 7.601988070602141 1
gene  1 42 4 15.659140062580788 0 133.0 15.659140062580788 1
gene  3 42 7 1.8977279157008686 0 196.0 1.8977279157008686 1
genomeend 57
/* Organism # 058 Fitness:  9.000 Error:  1.000                      */
genomestart  58
trait 1 0.1 0.0 0.0 0.0 0.0 0.0 0.0 0.0 
trait 2 1.0247826227428418 0.30651935219284276 0.0 0.09937962178144191 0.0 0.16763701104293527 0.39867617969017766 0.1387563345930259 
trait 3 0.49331176923233705 0.2163142808593559 0.0 0.0 0.0 0.0 0.0 0.0 
node 1 1 1 1
node 2 1 1 1
node 3 3 1 3
node 4 2 0 2
node 7 1 0 0
node 42 3 0 0
gene  1 1 4 14.318944150438067 0 1.0 14.318944150438067 1
gene  2 2 4 8.494383132256505 0 2.0 8.494383132256505 1
gene  3 3 4 -4.495817646954229 0 3.0 -4.495817646954229 1
gene  1 1 7 -5.378121634292578 0 8.0 -5.378121634292578 1
gene  1 7 4 -9.005593539543321 0 9.0 -9.005593539543321 1
gene  3 2 7 -3.0715851309209583 0 24.0 -3.0715851309209583 1
gene  2 3 7 1.307194671081818 0 53.0 1.307194671081818 1
gene  1 1 42 9.70862973311798 0 132.0 9.70862973311798 1
gene  1 42 4 12.220190632510022 0 133.0 12.220190632510022 1
gene  3 42 7 1.547528645916074 0 196.0 1.547528645916074 1
genomeend 58
/* Organism # 059 Fitness:  9.000 Error:  1.000                      */
genomestart  59
trait 1 0.1 0.0 0.0 0.0 0.0 0.0 0.0 0.0 
trait 2 1.0247826227428418 0.30651935219284276 0.0 0.09937962178144191 0.0 0.16763701104293527 0.39867617969017766 0.1387563345930259 
trait 3 0.49331176923233705 0.2163142808593559 0.0 0.0 0.0 0.0 0.0 0.0 
node 1 1 1 1
node 2 1 1 1
node 3 3 1 3
node 4 2 0 2
node 7 1 0 0
node 42 3 0 0
gene  1 1 4 14.233625161467328 0 1.0 14.233625161467328 1
gene  2 2 4 6.850369751990394 0 2.0 6.850369751990394 1
gene  3 3 4 -4.312069679071618 0 3.0 -4.312069679071618 1
gene  1 1 7 -5.311216196195094 0 8.0 -5.311216196195094 1
gene  1 7 4 -7.126310747705852 0 9.0 -7.126310747705852 1
gene  3 2 7 -4.015244897103226 0 24.0 -4.015244897103226 1
gene  2 3 7 1.7447447134689527 0 53.0 1.7447447134689527 1
gene  1 1 42 5.8971408405445125 0 132.0 5.8971408405445125 1
gene  1 42 4 14.652518495010321 0 133.0 14.652518495010321 1
gene  3 42 7 2.0091442093514993 0 196.0 2.0091442093514993 1
genomeend 59
/* Organism # 060 Fitness:  9.000 Error:  1.000                      */
genomestart  60
trait 1 0.1 0.0 0.0 0.0 0.0 0.0 0.0 0.0 
trait 2 1.0247826227428418 0.30651935219284276 0.0 0.09937962178144191 0.0 0.16763701104293527 0.39867617969017766 0.1387563345930259 
trait 3 0.49331176923233705 0.2163142808593559 0.0 0.0 0.0 0.0 0.0 0.0 
node 1 1 1 1
node 2 1 1 1
node 3 3 1 3
node 4 2 0 2
node 7 1 0 0
node 42 3 0 0
gene  1 1 4 14.661037549450558 0 1.0 14.661037549450558 1
gene  2 2 4 4.831691204088752 0 2.0 4.831691204088752 1
gene  3 3 4 -3.0801269787874688 0 3.0 -3.0801269787874688 1
gene  1 1 7 -1.2686486344012562 0 8.0 -1.2686486344012562 1
gene  1 7 4 -6.108214557855921 0 9.0 -6.108214557855921 1
gene  3 2 7 -6.462099271328303 0 24.0 -6.462099271328303 1
gene  2 3 7 3.5218148462713543 0 53.0 3.5218148462713543 1
gene  1 1 42 10.259171273270386 0 132.0 10.259171273270386 1
gene  1 42 4 14.440122211751818 0 133.0 14.440122211751818 1
gene  3 42 7 1.4994230516638511 0 196.0 1.4994230516638511 1
genomeend 60
/* Organism # 061 Fitness:  9.000 Error:  1.000                      */
genomestart  61
trait 1 0.1 0.0 0.0 0.0 0.0 0.0 0.0 0.0 
trait 2 1.0247826227428418 0.30651935219284276 0.0 0.09937962178144191 0.0 0.16763701104293527 0.39867617969017766 0.1387563345930259 
trait 3 0.49331176923233705 0.2163142808593559 0.0 0.0 0.0 0.0 0.0 0.0 
node 1 1 1 1
node 2 1 1 1
node 3 3 1 3
node 4 2 0 2
node 7 1 0 0
node 42 3 0 0
gene  1 1 4 -1.6265976663353674 0 1.0 -1.6265976663353674 1
gene  2 2 4 4.209438327547888 0 2.0 4.209438327547888 1
gene  3 3 4 -6.114944460282131 0 3.0 -6.114944460282131 1
gene  1 1 7 -5.079994665453804 0 8.0 -5.079994665453804 1
gene  1 7 4 -10.158814801241883 0 9.0 -10.158814801241883 1
gene  3 2 7 -4.790099477372722 0 24.0 -4.790099477372722 1
gene  2 3 7 1.0789962365754944 0 53.0 1.0789962365754944 1
gene  1 1 42 9.109830761534171 0 132.0 9.109830761534171 1
gene  1 42 4 14.233690716744434 0 133.0 14.233690716744434 1
gene  3 42 7 1.8977279157008686 0 196.0 1.8977279157008686 1
genomeend 61
/*-------------------------------------------------------------------*/
/* Species # 016         : (size= 003) (AvfFit= 6.306) (Age= 37.000)  */
/*-------------------------------------------------------------------*/
/* Organism # 062 Fitness:  4.000 Error:  2.000                      */
genomestart  62
trait 1 0.1 0.0 0.0 0.0 0.0 0.0 0.0 0.0 
trait 2 0.2 0.0 0.0 0.0 0.0 0.0 0.0 0.009840269708802371 
trait 3 0.3 0.0 0.0 0.0 0.0 0.0 0.0 0.0 
node 1 1 1 1
node 2 1 1 1
node 3 1 1 3
node 4 1 0 2
node 7 2 0 0
node 11 1 0 0
node 47 1 0 0
gene  1 1 4 2.370566538661982 0 1.0 2.370566538661982 0
gene  2 2 4 -0.06712966016845956 0 2.0 -0.06712966016845956 0
gene  3 3 4 -4.822915509723755 0 3.0 -4.822915509723755 1
gene  2 1 7 -2.2795550031069216 0 8.0 -2.2795550031069216 0
gene  1 7 4 -0.14993818516045754 0 9.0 -0.14993818516045754 1
gene  2 2 11 5.038374417727227 0 19.0 5.038374417727227 1
gene  2 11 4 1.490228187265402 0 20.0 1.490228187265402 1
gene  1 3 11 1.897816168564933 0 60.0 1.897816168564933 1
gene  2 7 11 0.797805112665201 0 116.0 0.797805112665201 1
gene  1 1 47 -8.305531693459344 0 151.0 -8.305531693459344 1
gene  1 47 7 4.822158295130268 0 152.0 4.822158295130268 1
gene  3 47 11 -7.1113354653643155 0 429.0 -7.1113354653643155 1
gene  1 47 4 -7.7274487866948265 0 527.0 -7.7274487866948265 1
gene  3 2 47 -5.624523766240997 0 565.0 -5.624523766240997 1
gene  2 2 7 -2.2581288827631782 0 708.0 -2.2581288827631782 1
genomeend 62
/* Organism # 063 Fitness:  7.855 Error:  1.197                      */
genomestart  63
trait 1 0.1 0.0 0.0 0.0 0.0 0.0 0.0 0.0 
trait 2 0.2 0.0 0.0 0.0 0.0 0.0 0.0 0.009840269708802371 
trait 3 0.3 0.0 0.0 0.0 0.0 0.0 0.0 0.0 
node 1 1 1 1
node 2 1 1 1
node 3 1 1 3
node 4 1 0 2
node 7 2 0 0
node 11 1 0 0
node 47 1 0 0
gene  1 1 4 2.747746084262195 0 1.0 2.747746084262195 0
gene  2 2 4 0.5268387511802328 0 2.0 0.5268387511802328 0
gene  3 3 4 -1.008217810146653 0 3.0 -1.008217810146653 1
gene  2 1 7 -4.609606593066609 0 8.0 -4.609606593066609 0
gene  1 7 4 -0.22695429669506129 0 9.0 -0.22695429669506129 1
gene  2 2 11 5.9966514086187575 0 19.0 5.9966514086187575 1
gene  2 11 4 1.4483949540376613 0 20.0 1.4483949540376613 1
gene  1 3 11 -0.13162953269523187 0 60.0 -0.13162953269523187 1
gene  2 7 11 1.6909183072026133 0 116.0 1.6909183072026133 1
gene  1 1 47 -4.926141724609111 0 151.0 -4.926141724609111 1
gene  1 47 7 1.2130797600957863 0 152.0 1.2130797600957863 1
gene  3 47 11 -6.249224224711182 0 429.0 -6.249224224711182 1
gene  1 47 4 -7.6628894519486055 0 527.0 -7.6628894519486055 1
gene  3 2 47 -3.1445269582565483 0 565.0 -3.1445269582565483 1
gene  2 2 7 -1.2809103199259326 0 708.0 -1.2809103199259326 1
genomeend 63
/* Organism # 064 Fitness:  7.064 Error:  1.342                      */
genomestart  64
trait 1 0.1 0.0 0.0 0.0 0.0 0.0 0.0 0.0 
trait 2 0.2 0.0 0.0 0.0 0.0 0.0 0.0 0.009840269708802371 
trait 3 0.3 0.0 0.24593080655229294 0.2455800795211336 0.0 0.0 0.0 0.0 
node 1 1 1 1
node 2 1 1 1
node 3 1 1 3
node 4 1 0 2
node 7 2 0 0
node 11 1 0 0
node 47 1 0 0
gene  1 1 4 0.7316212923899355 0 1.0 0.7316212923899355 0
gene  2 2 4 0.7702101177116677 0 2.0 0.7702101177116677 0
gene  3 3 4 -2.4169751776271244 0 3.0 -2.4169751776271244 1
gene  2 1 7 -4.609606593066609 0 8.0 -4.609606593066609 0
gene  1 7 4 1.1408948571823283 0 9.0 1.1408948571823283 1
gene  2 2 11 4.05150883486754 0 19.0 4.05150883486754 1
gene  2 11 4 3.0350815313724624 0 20.0 3.0350815313724624 1
gene  1 3 11 -0.13162953269523187 0 60.0 -0.13162953269523187 1
gene  2 7 11 0.5185093572264934 0 116.0 0.5185093572264934 1
gene  1 1 47 -7.175409150183065 0 151.0 -7.175409150183065 1
gene  1 47 7 3.1148666261333546 0 152.0 3.1148666261333546 1
gene  3 47 11 -7.907751755059637 0 429.0 -7.907751755059637 1
gene  1 47 4 -5.925143903377981 0 527.0 -5.925143903377981 1
gene  3 2 47 -5.624523766240997 0 565.0 -5.624523766240997 1
gene  2 2 7 0.7930784205120911 0 708.0 0.7930784205120911 1
genomeend 64
/*-------------------------------------------------------------------*/
/* Species # 017         : (size= 004) (AvfFit= 7.661) (Age= 37.000)  */
/*-------------------------------------------------------------------*/
/* Organism # 065 Fitness:  8.643 Error:  1.060                      */
genomestart  65
trait 1 0.0 0.0 0.0 0.0 0.055398074479255544 0.0 0.3568575379219483 0.12192827250494745 
trait 2 0.17500000000000002 0.03353619471315164 0.0 0.0 0.122845498985575 0.0 0.0 0.0 
trait 3 0.2829116187943524 0.2848498721046737 0.6147039796354924 0.0 0.7884341693559529 0.3153447806910977 0.7110590540879159 0.0 
node 1 2 1 1
node 2 2 1 1
node 3 1 1 3
node 4 1 0 2
node 7 1 0 0
node 14 1 0 0
node 17 2 0 0
node 28 1 0 0
node 44 3 0 0
node 47 1 0 0
node 58 1 0 0
node 89 1 0 0
gene  1 1 4 0.8745718846110009 0 1.0 0.8745718846110009 1
gene  2 2 4 4.972368844095808 0 2.0 4.972368844095808 1
gene  3 3 4 2.762291785696868 0 3.0 2.762291785696868 1
gene  1 1 7 2.3491951056731364 0 8.0 2.3491951056731364 0
gene  1 7 4 -2.3845843831949916 0 9.0 -2.3845843831949916 0
gene  1 1 14 -0.59560755451316 0 27.0 -0.59560755451316 1
gene  1 14 4 -11.389248169748623 0 28.0 -11.389248169748623 1
gene  2 2 17 4.069187933451982 0 37.0 4.069187933451982 1
gene  2 17 4 4.226309470062348 0 38.0 4.226309470062348 1
gene  2 1 17 0.8061136178919621 0 54.0 0.8061136178919621 0
gene  1 1 28 0.5115225369366933 0 78.0 0.5115225369366933 1
gene  1 28 7 2.6733091415085424 0 79.0 2.6733091415085424 1
gene  1 7 44 -1.4504228873904879 0 138.0 -1.4504228873904879 1
gene  1 44 4 0.5219048506739608 0 139.0 0.5219048506739608 1
gene  1 1 47 2.4974737922693477 0 151.0 2.4974737922693477 0
gene  1 47 7 -3.143585197227753 0 152.0 -3.143585197227753 1
gene  2 1 58 2.2050466060869436 0 221.0 2.2050466060869436 1
gene  2 58 17 -1.9552678006362003 0 222.0 -1.9552678006362003 1
gene  2 47 58 -2.788805686494854 0 279.0 -2.788805686494854 1
gene  2 2 28 -8.70146793947293 0 339.0 -8.70146793947293 1
gene  1 1 89 -0.40276387941012093 0 366.0 -0.40276387941012093 1
gene  1 89 47 1.5710405405722137 0 367.0 1.5710405405722137 1
gene  1 7 58 -1.6599456389952665 0 623.0 -1.6599456389952665 1
genomeend 65
/* Organism # 066 Fitness:  4.000 Error:  2.000                      */
genomestart  66
trait 1 0.0 0.0 0.0 0.0 0.055398074479255544 0.0 0.3568575379219483 0.12192827250494745 
trait 2 0.17500000000000002 0.03353619471315164 0.0 0.0 0.122845498985575 0.0 0.0 0.0 
trait 3 0.2829116187943524 0.2848498721046737 0.6147039796354924 0.0 0.7884341693559529 0.3153447806910977 0.7110590540879159 0.0 
node 1 2 1 1
node 2 2 1 1
node 3 1 1 3
node 4 1 0 2
node 7 1 0 0
node 14 1 0 0
node 17 2 0 0
node 28 1 0 0
node 44 1 0 0
node 47 1 0 0
node 58 1 0 0
node 89 1 0 0
gene  1 1 4 -8.130106680765996 0 1.0 -8.130106680765996 1
gene  2 2 4 2.554512358295342 0 2.0 2.554512358295342 1
gene  3 3 4 -0.8431210323800578 0 3.0 -0.8431210323800578 1
gene  1 1 7 2.283426732544007 0 8.0 2.283426732544007 0
gene  1 7 4 -1.769249710518166 0 9.0 -1.769249710518166 0
gene  1 1 14 8.215997570213899 0 27.0 8.215997570213899 1
gene  1 14 4 -11.000149316240213 0 28.0 -11.000149316240213 1
gene  2 2 17 5.092626742108293 0 37.0 5.092626742108293 1
gene  2 17 4 1.418565128311585 0 38.0 1.418565128311585 1
gene  2 1 17 1.4081369466052611 0 54.0 1.4081369466052611 0
gene  1 1 28 -0.5336326724573859 0 78.0 -0.5336326724573859 1
gene  1 28 7 -0.7230435690776456 0 79.0 -0.7230435690776456 1
gene  1 7 44 -2.986829882823314 0 138.0 -2.986829882823314 1
gene  1 44 4 -2.263841813319458 0 139.0 -2.263841813319458 1
gene  1 1 47 2.2654186235747487 0 151.0 2.2654186235747487 0
gene  1 47 7 -2.225539302335017 0 152.0 -2.225539302335017 1
gene  2 1 58 3.240756041910368 0 221.0 3.240756041910368 1
gene  2 58 17 0.5803931371792439 0 222.0 0.5803931371792439 1
gene  2 47 58 -3.3346990197817554 0 279.0 -3.3346990197817554 1
gene  2 2 28 -11.220064385292606 0 339.0 -11.220064385292606 1
gene  1 1 89 0.4337243292734869 0 366.0 0.4337243292734869 1
gene  1 89 47 0.9774853643421766 0 367.0 0.9774853643421766 1
gene  1 7 58 2.060509973523225 0 623.0 2.060509973523225 1
genomeend 66
/* Organism # 067 Fitness:  9.000 Error:  1.000                      */
genomestart  67
trait 1 0.0 0.0 0.0 0.0 0.055398074479255544 0.0 0.3568575379219483 0.12192827250494745 
trait 2 0.17500000000000002 0.03353619471315164 0.0 0.0 0.122845498985575 0.0 0.0 0.0 
trait 3 0.2829116187943524 0.2848498721046737 0.6147039796354924 0.0 0.7884341693559529 0.3153447806910977 0.7110590540879159 0.0 
node 1 2 1 1
node 2 2 1 1
node 3 1 1 3
node 4 1 0 2
node 7 1 0 0
node 14 1 0 0
node 17 2 0 0
node 28 1 0 0
node 44 1 0 0
node 47 1 0 0
node 58 1 0 0
node 89 1 0 0
gene  1 1 4 -5.893192805500327 0 1.0 -5.893192805500327 1
gene  2 2 4 4.621548473024054 0 2.0 4.621548473024054 1
gene  3 3 4 1.3762106121047073 0 3.0 1.3762106121047073 1
gene  1 1 7 0.5856090094310602 0 8.0 0.5856090094310602 0
gene  1 7 4 -2.005135625139925 0 9.0 -2.005135625139925 1
gene  1 1 14 8.28221608668266 0 27.0 8.28221608668266 1
gene  1 14 4 -9.050255814361169 0 28.0 -9.050255814361169 1
gene  2 2 17 6.4217848620328 0 37.0 6.4217848620328 1
gene  2 17 4 3.686588307334027 0 38.0 3.686588307334027 1
gene  2 1 17 0.9457155836082025 0 54.0 0.9457155836082025 0
gene  1 1 28 1.3156599830642457 0 78.0 1.3156599830642457 1
gene  1 28 7 1.3493636039900503 0 79.0 1.3493636039900503 1
gene  1 7 44 -1.3724774714417065 0 138.0 -1.3724774714417065 1
gene  1 44 4 -3.873987893400188 0 139.0 -3.873987893400188 1
gene  1 1 47 0.4433357198321355 0 151.0 0.4433357198321355 0
gene  1 47 7 -4.012430361887004 0 152.0 -4.012430361887004 1
gene  2 1 58 2.2050466060869436 0 221.0 2.2050466060869436 1
gene  2 58 17 -0.7025453107793749 0 222.0 -0.7025453107793749 1
gene  2 47 58 -4.5763819613688455 0 279.0 -4.5763819613688455 1
gene  2 2 28 -9.610169675814504 0 339.0 -9.610169675814504 1
gene  1 1 89 0.4337243292734869 0 366.0 0.4337243292734869 1
gene  1 89 47 0.9808720981870975 0 367.0 0.9808720981870975 1
gene  1 7 58 3.516722812584892 0 623.0 3.516722812584892 1
gene  2 28 47 9.64713347700085 0 743.0 9.64713347700085 1
genomeend 67
/* Organism # 068 Fitness:  9.000 Error:  1.000                      */
genomestart  68
trait 1 0.0 0.0 0.0 0.0 0.055398074479255544 0.0 0.3568575379219483 0.12192827250494745 
trait 2 0.17500000000000002 0.03353619471315164 0.0 0.0 0.122845498985575 0.0 0.0 0.0 
trait 3 0.2829116187943524 0.2848498721046737 0.6147039796354924 0.0 0.7884341693559529 0.3153447806910977 0.7110590540879159 0.0 
node 1 2 1 1
node 2 2 1 1
node 3 1 1 3
node 4 1 0 2
node 7 1 0 0
node 14 1 0 0
node 17 2 0 0
node 28 1 0 0
node 44 1 0 0
node 47 1 0 0
node 58 1 0 0
node 89 1 0 0
gene  1 1 4 -6.246482850452255 0 1.0 -6.246482850452255 1
gene  2 2 4 5.99861538861796 0 2.0 5.99861538861796 1
gene  3 3 4 -1.0172235243541579 0 3.0 -1.0172235243541579 1
gene  1 1 7 1.1946372212508294 0 8.0 1.1946372212508294 0
gene  1 7 4 -2.005135625139925 0 9.0 -2.005135625139925 0
gene  1 1 14 2.187611408807488 0 27.0 2.187611408807488 1
gene  1 14 4 -6.982305774005375 0 28.0 -6.982305774005375 1
gene  2 2 17 6.936915229494018 0 37.0 6.936915229494018 1
gene  2 17 4 1.4407756911339114 0 38.0 1.4407756911339114 1
gene  2 1 17 2.908472793551565 0 54.0 2.908472793551565 0
gene  1 1 28 2.1310785710910216 0 78.0 2.1310785710910216 1
gene  1 28 7 1.4711308551770959 0 79.0 1.4711308551770959 1
gene  1 7 44 -1.2608493680003516 0 138.0 -1.2608493680003516 1
gene  1 44 4 -3.599635194648613 0 139.0 -3.599635194648613 1
gene  1 1 47 -1.0546551382183729 0 151.0 -1.0546551382183729 0
gene  1 47 7 0.7017364324770092 0 152.0 0.7017364324770092 1
gene  2 1 58 0.786177704099803 0 221.0 0.786177704099803 1
gene  2 58 17 -3.024868445140329 0 222.0 -3.024868445140329 1
gene  2 47 58 -6.823542330585626 0 279.0 -6.823542330585626 1
gene  2 2 28 -9.610169675814504 0 339.0 -9.610169675814504 1
gene  1 1 89 2.1815263452383054 0 366.0 2.1815263452383054 1
gene  1 89 47 1.249169151439037 0 367.0 1.249169151439037 1
gene  1 7 58 0.6965630641312328 0 623.0 0.6965630641312328 1
genomeend 68
/*-------------------------------------------------------------------*/
/* Species # 018         : (size= 005) (AvfFit= 7.000) (Age= 37.000)  */
/*-------------------------------------------------------------------*/
/* Organism # 069 Fitness:  4.000 Error:  2.000                      */
genomestart  69
trait 1 0.0 0.0 0.0 0.7168957110675539 0.0 0.0 0.0 0.8832896837332472 
trait 2 0.2 0.0 0.0 0.0 0.0 0.0 0.0 0.011377811850802742 
trait 3 0.40500261316494196 0.5332891832981644 0.19951034042631954 0.0 0.17973207655117207 0.4842336084676263 0.0 0.09301400611535382 
node 1 1 1 1
node 2 1 1 1
node 3 1 1 3
node 4 1 0 2
node 7 3 0 0
node 11 1 0 0
node 31 1 0 0
node 44 1 0 0
gene  1 1 4 -6.4409311405950245 0 1.0 -6.4409311405950245 0
gene  3 2 4 4.831359695155564 0 2.0 4.831359695155564 0
gene  3 3 4 7.06300070552851 0 3.0 7.06300070552851 1
gene  2 1 7 1.107627201801017 0 8.0 1.107627201801017 1
gene  1 7 4 -4.853093161935439 0 9.0 -4.853093161935439 0
gene  2 2 11 -0.4276686856980201 0 19.0 -0.4276686856980201 1
gene  2 11 4 0.5772773332889388 0 20.0 0.5772773332889388 1
gene  1 3 11 -10.648510834507555 0 60.0 -10.648510834507555 1
gene  1 1 31 -7.2237865612807 0 88.0 -7.2237865612807 1
gene  1 31 7 -10.249636161981366 0 89.0 -10.249636161981366 1
gene  1 7 44 -3.053034869679908 0 138.0 -3.053034869679908 1
gene  1 44 4 -15.059794767462378 0 139.0 -15.059794767462378 1
gene  3 2 44 -2.6027247730708725 0 144.0 -2.6027247730708725 1
gene  1 2 31 1.329711572183344 0 243.0 1.329711572183344 1
gene  2 31 44 -0.8632232145348517 0 332.0 -0.8632232145348517 1
genomeend 69
/* Organism # 070 Fitness:  4.000 Error:  2.000                      */
genomestart  70
trait 1 0.0 0.0 0.0 0.7168957110675539 0.0 0.0 0.0 0.8832896837332472 
trait 2 0.2 0.0 0.0 0.0 0.0 0.0 0.0 0.011377811850802742 
trait 3 0.40500261316494196 0.5332891832981644 0.19951034042631954 0.0 0.17973207655117207 0.4842336084676263 0.0 0.09301400611535382 
node 1 1 1 1
node 2 1 1 1
node 3 1 1 3
node 4 1 0 2
node 7 3 0 0
node 11 1 0 0
node 31 3 0 0
node 44 1 0 0
gene  1 1 4 -6.402394538390828 0 1.0 -6.402394538390828 0
gene  3 2 4 4.682353946354848 0 2.0 4.682353946354848 0
gene  3 3 4 7.038073388094633 0 3.0 7.038073388094633 1
gene  2 1 7 5.0855206193506834 0 8.0 5.0855206193506834 1
gene  1 7 4 -2.665996647130295 0 9.0 -2.665996647130295 0
gene  2 2 11 0.8317295190419995 0 19.0 0.8317295190419995 1
gene  2 11 4 1.9920698681024236 0 20.0 1.9920698681024236 1
gene  1 3 11 -10.400663323610804 0 60.0 -10.400663323610804 1
gene  1 1 31 -5.859449507856114 0 88.0 -5.859449507856114 1
gene  1 31 7 -10.868510820694098 0 89.0 -10.868510820694098 1
gene  1 7 44 -4.3036743635079 0 138.0 -4.3036743635079 1
gene  1 44 4 -15.093630261986315 0 139.0 -15.093630261986315 1
gene  3 2 44 -4.46627697371175 0 144.0 -4.46627697371175 1
gene  3 2 31 6.061095876743915 0 243.0 6.061095876743915 1
gene  3 31 44 5.881658365182785 0 332.0 5.881658365182785 1
genomeend 70
/* Organism # 071 Fitness:  9.000 Error:  1.000                      */
genomestart  71
trait 1 0.0 0.0 0.0 0.7168957110675539 0.0 0.0 0.0 0.8832896837332472 
trait 2 0.2 0.0 0.0 0.0 0.0 0.0 0.0 0.011377811850802742 
trait 3 0.40500261316494196 0.5332891832981644 0.19951034042631954 0.0 0.17973207655117207 0.4842336084676263 0.0 0.09301400611535382 
node 1 1 1 1
node 2 1 1 1
node 3 1 1 3
node 4 1 0 2
node 7 3 0 0
node 11 1 0 0
node 31 1 0 0
node 44 1 0 0
gene  1 1 4 -4.501904295767836 0 1.0 -4.501904295767836 0
gene  3 2 4 6.490860406638328 0 2.0 6.490860406638328 0
gene  3 3 4 9.610347839500964 0 3.0 9.610347839500964 1
gene  2 1 7 4.08784953174105 0 8.0 4.08784953174105 1
gene  1 7 4 -4.386419547631348 0 9.0 -4.386419547631348 0
gene  2 2 11 2.6363943165585786 0 19.0 2.6363943165585786 1
gene  2 11 4 2.5312572959180484 0 20.0 2.5312572959180484 1
gene  1 3 11 -12.301337803094414 0 60.0 -12.301337803094414 1
gene  1 1 31 -5.487642484007587 0 88.0 -5.487642484007587 1
gene  1 31 7 -11.572167399234186 0 89.0 -11.572167399234186 1
gene  1 7 44 -3.768147015557373 0 138.0 -3.768147015557373 1
gene  1 44 4 -15.855555708616379 0 139.0 -15.855555708616379 1
gene  3 2 44 -5.623084518514724 0 144.0 -5.623084518514724 1
gene  3 2 31 -0.8099097343752084 0 243.0 -0.8099097343752084 1
gene  2 31 44 3.627052669561697 0 332.0 3.627052669561697 1
genomeend 71
/* Organism # 072 Fitness:  9.000 Error:  1.000                      */
genomestart  72
trait 1 0.0 0.0 0.0 0.7168957110675539 0.0 0.0 0.0 0.8832896837332472 
trait 2 0.2 0.0 0.0 0.0 0.0 0.0 0.0 0.011377811850802742 
trait 3 0.40500261316494196 0.5332891832981644 0.19951034042631954 0.0 0.17973207655117207 0.4842336084676263 0.0 0.09301400611535382 
node 1 1 1 1
node 2 1 1 1
node 3 1 1 3
node 4 1 0 2
node 7 3 0 0
node 11 1 0 0
node 31 3 0 0
node 44 1 0 0
gene  1 1 4 -8.621397478036549 0 1.0 -8.621397478036549 0
gene  3 2 4 7.144474787977913 0 2.0 7.144474787977913 0
gene  3 3 4 9.652028205227445 0 3.0 9.652028205227445 1
gene  2 1 7 4.558286845386175 0 8.0 4.558286845386175 1
gene  1 7 4 -3.308272129659223 0 9.0 -3.308272129659223 0
gene  2 2 11 0.1361241278887232 0 19.0 0.1361241278887232 1
gene  2 11 4 1.9776270380297918 0 20.0 1.9776270380297918 1
gene  1 3 11 -13.978839876215078 0 60.0 -13.978839876215078 1
gene  1 1 31 -6.603333029905176 0 88.0 -6.603333029905176 1
gene  1 31 7 -11.164987851475068 0 89.0 -11.164987851475068 1
gene  1 7 44 -3.2904134284797513 0 138.0 -3.2904134284797513 1
gene  1 44 4 -16.454673580543883 0 139.0 -16.454673580543883 1
gene  3 2 44 -7.9684365508001695 0 144.0 -7.9684365508001695 1
gene  3 2 31 6.061095876743915 0 243.0 6.061095876743915 1
gene  3 31 44 4.325489287601347 0 332.0 4.325489287601347 1
genomeend 72
/* Organism # 073 Fitness:  9.000 Error:  1.000                      */
genomestart  73
trait 1 0.0 0.0 0.0 0.7168957110675539 0.0 0.0 0.0 0.8832896837332472 
trait 2 0.2 0.0 0.0 0.0 0.0 0.0 0.0 0.011377811850802742 
trait 3 0.40500261316494196 0.5332891832981644 0.19951034042631954 0.0 0.17973207655117207 0.4842336084676263 0.0 0.09301400611535382 
node 1 1 1 1
node 2 1 1 1
node 3 1 1 3
node 4 1 0 2
node 7 3 0 0
node 11 1 0 0
node 31 3 0 0
node 44 1 0 0
gene  1 1 4 -5.598234919340726 0 1.0 -5.598234919340726 0
gene  3 2 4 2.5685345535464252 0 2.0 2.5685345535464252 0
gene  3 3 4 5.309919278352932 0 3.0 5.309919278352932 1
gene  2 1 7 2.878048570346239 0 8.0 2.878048570346239 1
gene  1 7 4 -5.691034268089832 0 9.0 -5.691034268089832 0
gene  2 2 11 0.39288349997468164 0 19.0 0.39288349997468164 1
gene  2 11 4 1.9504120291018068 0 20.0 1.9504120291018068 1
gene  1 3 11 -11.276919321785616 0 60.0 -11.276919321785616 1
gene  1 1 31 -9.91191371813812 0 88.0 -9.91191371813812 1
gene  1 31 7 -7.973726567355499 0 89.0 -7.973726567355499 1
gene  1 7 44 -6.806986864066013 0 138.0 -6.806986864066013 1
gene  1 44 4 -16.55498992685144 0 139.0 -16.55498992685144 1
gene  3 2 44 -4.140085108481834 0 144.0 -4.140085108481834 1
gene  3 2 31 4.8041882815977575 0 243.0 4.8041882815977575 1
gene  3 31 44 3.627052669561697 0 332.0 3.627052669561697 1
genomeend 73
/*-------------------------------------------------------------------*/
/* Species # 019         : (size= 005) (AvfFit= 5.001) (Age= 36.000)  */
/*-------------------------------------------------------------------*/
/* Organism # 074 Fitness:  5.277 Error:  1.703                      */
genomestart  74
trait 1 0.1 0.0 0.0 0.0 0.0 0.0 0.0 0.0 
trait 2 0.2 0.0 0.0 0.0 0.0 0.0 0.0 0.0 
trait 3 0.0 0.0 0.0 0.0 0.0 0.006647304815511457 0.0 0.0 
node 1 2 1 1
node 2 1 1 1
node 3 1 1 3
node 4 1 0 2
node 7 1 0 0
node 14 2 0 0
node 26 2 0 0
node 46 3 0 0
gene  1 1 4 1.1202599821277828 0 1.0 1.1202599821277828 1
gene  2 2 4 0.693645326512877 0 2.0 0.693645326512877 0
gene  3 3 4 -0.3155851938798129 0 3.0 -0.3155851938798129 1
gene  1 1 7 0.34985477992141933 0 8.0 0.34985477992141933 0
gene  1 7 4 0.33328213619417874 0 9.0 0.33328213619417874 0
gene  1 1 14 -1.4023349670026133 0 27.0 -1.4023349670026133 1
gene  1 14 4 -10.220988279508601 0 28.0 -10.220988279508601 1
gene  2 3 7 2.8232671522905006 0 53.0 2.8232671522905006 1
gene  3 2 26 4.000790701799301 0 72.0 4.000790701799301 1
gene  2 26 4 -0.7127166417859132 0 73.0 -0.7127166417859132 1
gene  1 7 46 -2.142918107738299 0 149.0 -2.142918107738299 1
gene  1 46 4 -0.8068654325107294 0 150.0 -0.8068654325107294 1
gene  2 14 46 -11.10770828776719 0 340.0 -11.10770828776719 1
genomeend 74
/* Organism # 075 Fitness:  9.000 Error:  1.000                      */
genomestart  75
trait 1 0.1 0.0 0.0 0.0 0.0 0.0 0.0 0.0 
trait 2 0.2 0.0 0.0 0.0 0.0 0.0 0.0 0.0 
trait 3 0.0 0.0 0.0 0.0 0.0 0.006647304815511457 0.0 0.0 
node 1 2 1 1
node 2 1 1 1
node 3 1 1 3
node 4 1 0 2
node 7 1 0 0
node 14 2 0 0
node 26 2 0 0
node 46 1 0 0
gene  1 1 4 -0.315683587909297 0 1.0 -0.315683587909297 0
gene  2 2 4 0.15959044085559349 0 2.0 0.15959044085559349 0
gene  3 3 4 -1.8216592776725742 0 3.0 -1.8216592776725742 1
gene  1 1 7 2.1308627438236765 0 8.0 2.1308627438236765 0
gene  1 7 4 7.487112392829195 0 9.0 7.487112392829195 0
gene  1 1 14 1.3046329214471666 0 27.0 1.3046329214471666 1
gene  1 14 4 -11.262083871003405 0 28.0 -11.262083871003405 1
gene  2 3 7 3.515332805059751 0 53.0 3.515332805059751 1
gene  3 2 26 4.194684116649658 0 72.0 4.194684116649658 1
gene  2 26 4 9.811699659178396 0 73.0 9.811699659178396 1
gene  1 7 46 -1.1061401478596555 0 149.0 -1.1061401478596555 1
gene  1 46 4 0.5635510302563118 0 150.0 0.5635510302563118 1
gene  2 14 46 -13.51779715681159 0 340.0 -13.51779715681159 1
genomeend 75
/* Organism # 076 Fitness:  2.552 Error:  2.402                      */
genomestart  76
trait 1 0.1 0.0 0.0 0.0 0.0 0.0 0.0 0.0 
trait 2 0.2 0.0 0.0 0.0 0.0 0.0 0.0 0.0 
trait 3 0.0 0.0 0.0 0.0 0.0 0.006647304815511457 0.0 0.0 
node 1 2 1 1
node 2 1 1 1
node 3 1 1 3
node 4 1 0 2
node 7 1 0 0
node 14 2 0 0
node 26 2 0 0
node 46 1 0 0
gene  1 1 4 3.412699687823569 0 1.0 3.412699687823569 0
gene  2 2 4 -0.1635000315605286 0 2.0 -0.1635000315605286 0
gene  3 3 4 0.7227743776883497 0 3.0 0.7227743776883497 1
gene  1 1 7 2.0582003278587284 0 8.0 2.0582003278587284 0
gene  1 7 4 10.73428269273064 0 9.0 10.73428269273064 0
gene  1 1 14 4.699452199905135 0 27.0 4.699452199905135 1
gene  1 14 4 -10.43926227869017 0 28.0 -10.43926227869017 1
gene  2 3 7 0.6019961332119066 0 53.0 0.6019961332119066 1
gene  3 2 26 4.208052089462973 0 72.0 4.208052089462973 1
gene  2 26 4 9.747198901628632 0 73.0 9.747198901628632 1
gene  1 7 46 1.3737496396262991 0 149.0 1.3737496396262991 1
gene  1 46 4 -3.5772636799422575 0 150.0 -3.5772636799422575 1
gene  2 14 46 -12.681216465078053 0 340.0 -12.681216465078053 1
genomeend 76
/* Organism # 077 Fitness:  3.999 Error:  2.000                      */
genomestart  77
trait 1 0.1 0.0 0.0 0.0 0.0 0.0 0.0 0.0 
trait 2 0.2 0.0 0.0 0.0 0.0 0.0 0.0 0.0 
trait 3 0.0 0.0 0.0 0.0 0.0 0.006647304815511457 0.0 0.0 
node 1 2 1 1
node 2 1 1 1
node 3 1 1 3
node 4 1 0 2
node 7 1 0 0
node 14 2 0 0
node 26 2 0 0
node 46 1 0 0
gene  2 1 4 3.3645848414407045 0 1.0 3.3645848414407045 0
gene  2 2 4 2.3408134977490445 0 2.0 2.3408134977490445 0
gene  3 3 4 -0.03958039031281113 0 3.0 -0.03958039031281113 1
gene  1 1 7 1.0058838161817971 0 8.0 1.0058838161817971 0
gene  1 7 4 8.83197130734019 0 9.0 8.83197130734019 1
gene  1 1 14 2.7900950152836206 0 27.0 2.7900950152836206 1
gene  1 14 4 -9.516336503161108 0 28.0 -9.516336503161108 1
gene  2 3 7 1.658846484512034 0 53.0 1.658846484512034 1
gene  3 2 26 4.801806618856803 0 72.0 4.801806618856803 1
gene  2 26 4 10.797027992966656 0 73.0 10.797027992966656 1
gene  1 7 46 0.8078622896136545 0 149.0 0.8078622896136545 1
gene  1 46 4 -2.902698765326184 0 150.0 -2.902698765326184 1
gene  2 14 46 1.1505063980686516 0 340.0 1.1505063980686516 1
genomeend 77
/* Organism # 078 Fitness:  4.179 Error:  1.956                      */
genomestart  78
trait 1 0.1 0.0 0.0 0.0 0.0 0.0 0.0 0.0 
trait 2 0.2 0.0 0.0 0.0 0.0 0.0 0.0 0.0 
trait 3 0.0 0.0 0.0 0.0 0.0 0.006647304815511457 0.0 0.0 
node 1 2 1 1
node 2 1 1 1
node 3 1 1 3
node 4 1 0 2
node 7 1 0 0
node 14 2 0 0
node 26 2 0 0
node 46 1 0 0
gene  2 1 4 2.5777815587219908 0 1.0 2.5777815587219908 0
gene  2 2 4 -0.7025480516577889 0 2.0 -0.7025480516577889 0
gene  3 3 4 1.304381623278243 0 3.0 1.304381623278243 1
gene  1 1 7 2.9153202403222664 0 8.0 2.9153202403222664 0
gene  1 7 4 7.699832231200672 0 9.0 7.699832231200672 0
gene  1 1 14 -0.1355789991921985 0 27.0 -0.1355789991921985 1
gene  1 14 4 -12.000802568565135 0 28.0 -12.000802568565135 1
gene  2 3 7 3.3616058749738222 0 53.0 3.3616058749738222 1
gene  3 2 26 2.0770461022999736 0 72.0 2.0770461022999736 1
gene  2 26 4 10.63913573264317 0 73.0 10.63913573264317 1
gene  1 7 46 -0.7616090587184523 0 149.0 -0.7616090587184523 1
gene  1 46 4 -3.502971787204693 0 150.0 -3.502971787204693 1
gene  2 14 46 -11.078587781435575 0 340.0 -11.078587781435575 1
genomeend 78
/*-------------------------------------------------------------------*/
/* Species # 020         : (size= 004) (AvfFit= 6.536) (Age= 36.000)  */
/*-------------------------------------------------------------------*/
/* Organism # 079 Fitness:  8.732 Error:  1.045                      */
genomestart  79
trait 1 0.1 0.0 0.0 0.0 0.055398074479255544 0.0 0.0 0.12192827250494745 
trait 2 0.0 0.0 0.0 0.0 0.0 0.0 0.0 0.0 
trait 3 0.3 0.08587097521680265 0.0 0.0 0.0 0.0 0.0 0.0 
node 1 1 1 1
node 2 2 1 1
node 3 1 1 3
node 4 1 0 2
node 7 1 0 0
node 14 1 0 0
node 17 1 0 0
node 34 1 0 0
node 51 1 0 0
node 170 1 0 0
