/* Species # 005         : (size= 002) (AvfFit= 6.208) (Age= 80.000)  */
/*-------------------------------------------------------------------*/
/* Organism # 000 Fitness:  8.417 Error:  1.099                      */
genomestart  0
trait 1 0.06875 0.0 0.0 0.0 0.0 0.0 0.023801055305950197 0.0 
trait 2 0.1 0.1412634290958787 0.0 0.001363430081560609 0.0 0.0 0.9851503113260676 0.661528521616242 
trait 3 0.35386636961471096 1.0159496137448694 0.8296591421590434 0.03323828345753185 0.0 0.03067172874770574 0.7842890379958926 0.12535123080935073 
node 1 1 1 1
node 2 1 1 1
node 3 1 1 3
node 4 2 0 2
node 27 1 0 0
node 149 1 0 0
node 162 1 0 0
node 201 1 0 0
node 211 1 0 0
node 218 1 0 0
node 229 1 0 0
gene  1 1 4 1.3601236044585243 0 1.0 1.3601236044585243 1
gene  2 2 4 1.5671324437295666 0 2.0 1.5671324437295666 1
gene  3 3 4 -0.45017923628950324 0 3.0 -0.45017923628950324 1
gene  1 1 27 -2.4290981365922084 0 80.0 -2.4290981365922084 1
gene  1 27 4 -2.621832653249233 0 81.0 -2.621832653249233 1
gene  3 2 27 0.9047026046505681 0 128.0 0.9047026046505681 1
gene  3 3 27 -2.358602242148055 0 221.0 -2.358602242148055 1
gene  1 1 149 4.947834886090144 0 673.0 4.947834886090144 1
gene  1 149 4 0.07500522758694128 0 674.0 0.07500522758694128 1
gene  2 2 149 1.5905194365260327 0 701.0 1.5905194365260327 1
gene  2 2 162 3.1072649263569367 0 724.0 3.1072649263569367 1
gene  2 162 4 0.90932126837722 0 725.0 0.90932126837722 1
gene  2 162 149 1.2179244669101124 0 859.0 1.2179244669101124 1
gene  2 2 201 1.6240242661112716 0 874.0 1.6240242661112716 1
gene  2 201 4 2.4044880969109066 0 875.0 2.4044880969109066 1
gene  1 1 211 6.402112434466204 0 921.0 6.402112434466204 1
gene  1 211 149 -0.003578480789864502 0 922.0 -0.003578480789864502 0
gene  1 162 218 8.856730762022565 0 947.0 8.856730762022565 1
gene  2 218 4 -2.132341501724992 0 948.0 -2.132341501724992 1
gene  1 211 229 2.1318998473476074 0 991.0 2.1318998473476074 1
gene  1 229 149 -2.2458458007010313 0 992.0 -2.2458458007010313 1
gene  2 3 149 -0.9837358740141078 0 1111.0 -0.9837358740141078 1
gene  2 201 162 1.1011762524819402 0 1151.0 1.1011762524819402 1
gene  3 3 229 -4.370441567472014 0 1244.0 -4.370441567472014 1
genomeend 0
/* Organism # 001 Fitness:  3.999 Error:  2.000                      */
genomestart  1
trait 1 0.06875 0.0 0.0 0.0 0.0 0.0 0.023801055305950197 0.0 
trait 2 0.1 0.1412634290958787 0.0 0.001363430081560609 0.0 0.0 0.9851503113260676 0.661528521616242 
trait 3 0.35386636961471096 1.0159496137448694 0.8296591421590434 0.03323828345753185 0.0 0.03067172874770574 0.7842890379958926 0.12535123080935073 
node 1 1 1 1
node 2 1 1 1
node 3 1 1 3
node 4 2 0 2
node 27 1 0 0
node 149 1 0 0
node 162 1 0 0
node 201 1 0 0
node 211 1 0 0
node 218 1 0 0
node 229 1 0 0
gene  1 1 4 2.5832434129377253 0 1.0 2.5832434129377253 1
gene  2 2 4 -0.08152593874963987 0 2.0 -0.08152593874963987 1
gene  3 3 4 -2.2650579603519705 0 3.0 -2.2650579603519705 1
gene  1 1 27 -4.02583985840651 0 80.0 -4.02583985840651 1
gene  1 27 4 -0.5315532715723461 0 81.0 -0.5315532715723461 1
gene  3 2 27 -0.5833579154077554 0 128.0 -0.5833579154077554 1
gene  3 3 27 -4.071922357437391 0 221.0 -4.071922357437391 1
gene  1 1 149 5.719976983547911 0 673.0 5.719976983547911 1
gene  1 149 4 -0.7659892358486452 0 674.0 -0.7659892358486452 1
gene  2 2 149 -0.42927893828859087 0 701.0 -0.42927893828859087 1
gene  2 2 162 4.289555483139063 0 724.0 4.289555483139063 1
gene  2 162 4 0.44238911940369385 0 725.0 0.44238911940369385 1
gene  2 162 149 0.8970772178751409 0 859.0 0.8970772178751409 1
gene  2 2 201 2.65506591769468 0 874.0 2.65506591769468 1
gene  2 201 4 0.2921132039218377 0 875.0 0.2921132039218377 1
gene  1 1 211 8.82275126708917 0 921.0 8.82275126708917 1
gene  1 211 149 1.786132794753928 0 922.0 1.786132794753928 0
gene  1 162 218 7.950530356686165 0 947.0 7.950530356686165 1
gene  2 218 4 -1.750260338351521 0 948.0 -1.750260338351521 1
gene  1 211 229 -0.18042956909034125 0 991.0 -0.18042956909034125 1
gene  1 229 149 -3.0907323870766574 0 992.0 -3.0907323870766574 1
gene  2 3 149 -0.9837358740141078 0 1111.0 -0.9837358740141078 1
gene  2 201 162 1.1011762524819402 0 1151.0 1.1011762524819402 1
genomeend 1
/*-------------------------------------------------------------------*/
/* Species # 008         : (size= 003) (AvfFit= 4.678) (Age= 77.000)  */
/*-------------------------------------------------------------------*/
/* Organism # 002 Fitness:  1.317 Error:  2.852                      */
genomestart  2
trait 1 0.9705231484165675 0.0 0.0 0.4496886226836102 0.06238223346322236 0.20026449725369408 0.0 0.0 
trait 2 0.0 0.3291122098781708 0.9455711414604356 1.3803467568087786 0.0 0.27706296753271353 0.0 0.0 
trait 3 0.7593903095090313 0.10938488939320123 0.0 0.08651291291510643 0.0 0.49099957482746426 0.0 0.0 
node 1 2 1 1
node 2 2 1 1
node 3 1 1 3
node 4 2 0 2
node 18 3 0 0
node 25 3 0 0
node 47 1 0 0
node 128 1 0 0
node 267 2 0 0
gene  1 1 4 -2.833908510895344 0 1.0 -2.833908510895344 1
gene  2 2 4 -1.6807889297745868 0 2.0 -1.6807889297745868 1
gene  3 3 4 -0.015116598416064775 0 3.0 -0.015116598416064775 1
gene  2 2 18 7.893397542687634 0 44.0 7.893397542687634 1
gene  2 18 4 4.068661969299084 0 45.0 4.068661969299084 1
gene  3 1 18 0.39575302739312357 0 63.0 0.39575302739312357 1
gene  1 1 25 -0.5517140575594588 0 69.0 -0.5517140575594588 1
gene  1 25 4 -2.7420230029435793 0 70.0 -2.7420230029435793 1
gene  2 18 25 5.661057205707176 0 78.0 5.661057205707176 1
gene  1 1 47 -9.700054319037203 0 180.0 -9.700054319037203 1
gene  2 47 4 1.008251310750989 0 181.0 1.008251310750989 1
gene  1 25 47 -2.4632489725106446 0 428.0 -2.4632489725106446 1
gene  1 3 47 -0.2158062755204626 0 474.0 -0.2158062755204626 1
gene  2 2 128 -2.7823226317180834 0 575.0 -2.7823226317180834 1
gene  2 128 4 -0.6123693825593229 0 576.0 -0.6123693825593229 1
gene  3 128 47 2.9469611421753736 0 628.0 2.9469611421753736 1
gene  2 1 128 0.03255559857469753 0 694.0 0.03255559857469753 1
gene  1 128 18 0.5041197359375389 0 853.0 0.5041197359375389 1
gene  2 3 18 0.8023531903750807 0 873.0 0.8023531903750807 1
gene  1 128 25 0.9411463486664571 0 918.0 0.9411463486664571 1
gene  1 1 267 0.5231313276557588 0 1171.0 0.5231313276557588 1
gene  1 267 47 -2.402727395446026 0 1172.0 -2.402727395446026 1
genomeend 2
/* Organism # 003 Fitness:  3.743 Error:  2.065                      */
genomestart  3
trait 1 0.9705231484165675 0.0 0.0 0.4496886226836102 0.06238223346322236 0.20026449725369408 0.0 0.0 
trait 2 0.0 0.3291122098781708 0.9455711414604356 1.3803467568087786 0.0 0.27706296753271353 0.0 0.0 
trait 3 0.7593903095090313 0.10938488939320123 0.0 0.08651291291510643 0.0 0.49099957482746426 0.0 0.0 
node 1 3 1 1
node 2 2 1 1
node 3 1 1 3
node 4 2 0 2
node 18 3 0 0
node 25 3 0 0
node 47 1 0 0
node 128 1 0 0
node 267 2 0 0
gene  1 1 4 -3.1180310239198774 0 1.0 -3.1180310239198774 1
gene  2 2 4 -4.341343232347419 0 2.0 -4.341343232347419 1
gene  3 3 4 2.984173185620709 0 3.0 2.984173185620709 1
gene  2 2 18 0.34997059518981494 0 44.0 0.34997059518981494 1
gene  2 18 4 1.9890670839061517 0 45.0 1.9890670839061517 1
gene  3 1 18 -0.3958075568814987 0 63.0 -0.3958075568814987 1
gene  1 1 25 -1.7900215979705898 0 69.0 -1.7900215979705898 1
gene  1 25 4 1.9496033714048289 0 70.0 1.9496033714048289 1
gene  2 18 25 4.198669228760831 0 78.0 4.198669228760831 1
gene  1 1 47 -12.60151527319653 0 180.0 -12.60151527319653 1
gene  2 47 4 -4.112273814625007 0 181.0 -4.112273814625007 1
gene  1 25 47 -2.250228779355554 0 428.0 -2.250228779355554 1
gene  1 3 47 3.316149935792074 0 474.0 3.316149935792074 1
gene  2 2 128 -5.330199844955148 0 575.0 -5.330199844955148 1
gene  2 128 4 2.399871976058349 0 576.0 2.399871976058349 1
gene  3 128 47 2.8352571813991725 0 628.0 2.8352571813991725 1
gene  2 1 128 -4.221300222534985 0 694.0 -4.221300222534985 1
gene  1 128 18 1.6411099275904828 0 853.0 1.6411099275904828 1
gene  2 3 18 1.4030932329575156 0 873.0 1.4030932329575156 1
gene  1 128 25 1.9269287700358069 0 918.0 1.9269287700358069 1
gene  1 1 267 1.2002628234234773 0 1171.0 1.2002628234234773 1
gene  1 267 47 1.2098932473086046 0 1172.0 1.2098932473086046 1
genomeend 3
/* Organism # 004 Fitness:  8.974 Error:  1.004                      */
genomestart  4
trait 1 0.9705231484165675 0.0 0.0 0.4496886226836102 0.06238223346322236 0.20026449725369408 0.0 0.0 
trait 2 0.0 0.3291122098781708 0.9455711414604356 1.3803467568087786 0.0 0.27706296753271353 0.0 0.0 
trait 3 0.7593903095090313 0.10938488939320123 0.0 0.08651291291510643 0.0 0.49099957482746426 0.0 0.0 
node 1 1 1 1
node 2 2 1 1
node 3 1 1 3
node 4 2 0 2
node 18 3 0 0
node 25 3 0 0
node 47 1 0 0
node 128 1 0 0
node 267 2 0 0
gene  1 1 4 -5.874532043048568 0 1.0 -5.874532043048568 1
gene  2 2 4 -2.6493642643508553 0 2.0 -2.6493642643508553 1
gene  3 3 4 0.5071050479665945 0 3.0 0.5071050479665945 1
gene  2 2 18 6.747582410289678 0 44.0 6.747582410289678 1
gene  2 18 4 4.489895581447575 0 45.0 4.489895581447575 1
gene  3 1 18 -1.8198277676925358 0 63.0 -1.8198277676925358 1
gene  1 1 25 -2.334214172736365 0 69.0 -2.334214172736365 1
gene  1 25 4 -1.099986140593054 0 70.0 -1.099986140593054 1
gene  2 18 25 -1.2084207911733225 0 78.0 -1.2084207911733225 1
gene  1 1 47 -12.396216679861073 0 180.0 -12.396216679861073 1
gene  2 47 4 -2.4444365665062966 0 181.0 -2.4444365665062966 1
gene  1 25 47 -1.0972792524804842 0 428.0 -1.0972792524804842 1
gene  1 3 47 2.5114559299621417 0 474.0 2.5114559299621417 1
gene  2 2 128 -1.686762597049563 0 575.0 -1.686762597049563 1
gene  2 128 4 0.14754411738570422 0 576.0 0.14754411738570422 1
gene  3 128 47 6.414997850351316 0 628.0 6.414997850351316 1
gene  2 1 128 -2.0753788826529633 0 694.0 -2.0753788826529633 1
gene  1 128 18 -0.3740195452203306 0 853.0 -0.3740195452203306 1
gene  2 3 18 0.04162415982746526 0 873.0 0.04162415982746526 1
gene  1 128 25 1.4434174842704022 0 918.0 1.4434174842704022 1
gene  1 1 267 0.6141893064474273 0 1171.0 0.6141893064474273 1
gene  1 267 47 -8.62351296518025 0 1172.0 -8.62351296518025 1
genomeend 4
/*-------------------------------------------------------------------*/
/* Species # 009         : (size= 005) (AvfFit= 5.896) (Age= 76.000)  */
/*-------------------------------------------------------------------*/
/* Organism # 005 Fitness:  1.482 Error:  2.783                      */
genomestart  5
trait 1 0.08095703125 0.17058250465120967 0.0 0.03137016751792348 0.0 0.0 0.0 0.0 
trait 2 0.24344716250459295 0.0 0.03420370051487321 0.05329185178940672 0.0 0.04194257483884601 0.0 0.0 
trait 3 0.3 0.08272181738054382 0.2515412502623684 0.0 0.0 0.6192375517619333 0.2919406141810683 0.13865768321162808 
node 1 2 1 1
node 2 1 1 1
node 3 1 1 3
node 4 1 0 2
node 7 1 0 0
node 26 2 0 0
node 29 1 0 0
node 165 1 0 0
node 202 1 0 0
gene  3 1 4 8.253980136223975 0 1.0 8.253980136223975 1
gene  2 2 4 -1.821723191860669 0 2.0 -1.821723191860669 1
gene  3 3 4 -0.039620048783769735 0 3.0 -0.039620048783769735 1
gene  1 1 7 9.979240904716724 0 8.0 9.979240904716724 1
gene  1 7 4 17.3661326816247 0 9.0 17.3661326816247 1
gene  2 2 7 -5.95476747242653 0 12.0 -5.95476747242653 1
gene  2 3 7 -3.0341443558483294 0 64.0 -3.0341443558483294 1
gene  3 1 26 0.2183538698196949 0 73.0 0.2183538698196949 1
gene  1 26 4 1.6567739911317025 0 74.0 1.6567739911317025 1
gene  1 1 29 -0.602411263561023 0 90.0 -0.602411263561023 1
gene  1 29 7 -2.6420839354882157 0 91.0 -2.6420839354882157 1
gene  3 2 29 -9.931730255786354 0 185.0 -9.931730255786354 1
gene  3 29 4 6.504503734548255 0 315.0 6.504503734548255 1
gene  2 3 26 0.6828184808913438 0 337.0 0.6828184808913438 1
gene  1 29 26 0.42492427301018487 0 357.0 0.42492427301018487 1
gene  2 2 165 1.6805361373690508 0 731.0 1.6805361373690508 0
gene  2 165 7 3.1351064039924728 0 732.0 3.1351064039924728 1
gene  2 2 202 -4.286278982118861 0 882.0 -4.286278982118861 1
gene  2 202 165 3.6410451082028636 0 883.0 3.6410451082028636 1
genomeend 5
/* Organism # 006 Fitness:  9.000 Error:  1.000                      */
genomestart  6
trait 1 0.08095703125 0.17058250465120967 0.0 0.03137016751792348 0.0 0.0 0.0 0.0 
trait 2 0.24344716250459295 0.0 0.03420370051487321 0.05329185178940672 0.0 0.04194257483884601 0.0 0.0 
trait 3 0.3 0.08272181738054382 0.2515412502623684 0.0 0.0 0.6192375517619333 0.2919406141810683 0.13865768321162808 
node 1 2 1 1
node 2 1 1 1
node 3 1 1 3
node 4 1 0 2
node 7 1 0 0
node 26 2 0 0
node 29 1 0 0
node 165 1 0 0
node 202 1 0 0
gene  3 1 4 9.40550331684829 0 1.0 9.40550331684829 1
gene  2 2 4 -16.53991648000855 0 2.0 -16.53991648000855 1
gene  3 3 4 -17.337057572782722 0 3.0 -17.337057572782722 1
gene  1 1 7 7.522498405814108 0 8.0 7.522498405814108 1
gene  1 7 4 15.061302451372704 0 9.0 15.061302451372704 1
gene  2 2 7 -6.049910196475972 0 12.0 -6.049910196475972 1
gene  2 3 7 -6.523172179704394 0 64.0 -6.523172179704394 1
gene  3 1 26 -7.064676894381421 0 73.0 -7.064676894381421 1
gene  1 26 4 1.2259788929677498 0 74.0 1.2259788929677498 1
gene  1 1 29 2.4662325932959077 0 90.0 2.4662325932959077 1
gene  1 29 7 -0.5314097495700834 0 91.0 -0.5314097495700834 1
gene  3 2 29 -10.540089632120875 0 185.0 -10.540089632120875 1
gene  3 29 4 9.217777636816374 0 315.0 9.217777636816374 1
gene  2 3 26 4.465213755714386 0 337.0 4.465213755714386 1
gene  1 29 26 -0.2533613816598648 0 357.0 -0.2533613816598648 1
gene  2 2 165 -10.031186770233095 0 731.0 -10.031186770233095 0
gene  2 165 7 -0.6451675831738688 0 732.0 -0.6451675831738688 1
gene  2 2 202 -1.503281716668625 0 882.0 -1.503281716668625 1
gene  2 202 165 -1.6256753714296162 0 883.0 -1.6256753714296162 1
genomeend 6
/* Organism # 007 Fitness:  1.000 Error:  3.000                      */
genomestart  7
trait 1 0.08095703125 0.17058250465120967 0.0 0.03137016751792348 0.0 0.0 0.0 0.0 
trait 2 0.24344716250459295 0.0 0.03420370051487321 0.05329185178940672 0.0 0.04194257483884601 0.0 0.0 
trait 3 0.3 0.08272181738054382 0.2515412502623684 0.0 0.0 0.6192375517619333 0.2919406141810683 0.13865768321162808 
node 1 2 1 1
node 2 1 1 1
node 3 1 1 3
node 4 1 0 2
node 7 1 0 0
node 26 2 0 0
node 29 1 0 0
node 165 1 0 0
node 202 1 0 0
gene  3 1 4 7.749593364416304 0 1.0 7.749593364416304 1
gene  2 2 4 -12.329561615535699 0 2.0 -12.329561615535699 1
gene  3 3 4 -1.4328731503521817 0 3.0 -1.4328731503521817 1
gene  1 1 7 11.834702917577395 0 8.0 11.834702917577395 1
gene  1 7 4 18.41429277786208 0 9.0 18.41429277786208 1
gene  2 2 7 -8.517203455356915 0 12.0 -8.517203455356915 1
gene  2 3 7 -0.9179669112445095 0 64.0 -0.9179669112445095 1
gene  3 1 26 -6.524740882352896 0 73.0 -6.524740882352896 1
gene  1 26 4 2.4588886382495865 0 74.0 2.4588886382495865 1
gene  1 1 29 -0.4122242556483515 0 90.0 -0.4122242556483515 1
gene  1 29 7 2.1991824430022837 0 91.0 2.1991824430022837 1
gene  3 2 29 2.054996113576983 0 185.0 2.054996113576983 1
gene  3 29 4 8.280967032221211 0 315.0 8.280967032221211 1
gene  2 3 26 6.593096868050889 0 337.0 6.593096868050889 1
gene  1 29 26 1.7523464110398872 0 357.0 1.7523464110398872 1
gene  2 2 165 -9.970684272009365 0 731.0 -9.970684272009365 0
gene  2 165 7 -0.28115698806548073 0 732.0 -0.28115698806548073 1
gene  2 2 202 -5.6332220630804 0 882.0 -5.6332220630804 1
gene  2 202 165 1.1832605655523272 0 883.0 1.1832605655523272 1
genomeend 7
/* Organism # 008 Fitness:  9.000 Error:  1.000                      */
genomestart  8
trait 1 0.08095703125 0.17058250465120967 0.0 0.03137016751792348 0.0 0.0 0.0 0.0 
trait 2 0.24344716250459295 0.0 0.03420370051487321 0.05329185178940672 0.0 0.04194257483884601 0.0 0.0 
trait 3 0.3 0.08272181738054382 0.2515412502623684 0.0 0.0 0.6192375517619333 0.2919406141810683 0.13865768321162808 
node 1 2 1 1
node 2 1 1 1
node 3 1 1 3
node 4 1 0 2
node 7 1 0 0
node 26 2 0 0
node 29 1 0 0
node 165 1 0 0
node 202 1 0 0
gene  3 1 4 8.721642019677759 0 1.0 8.721642019677759 1
gene  2 2 4 -16.210496796602968 0 2.0 -16.210496796602968 1
gene  3 3 4 -18.51127844948169 0 3.0 -18.51127844948169 1
gene  1 1 7 9.618561943159005 0 8.0 9.618561943159005 1
gene  1 7 4 15.654794921002871 0 9.0 15.654794921002871 1
gene  2 2 7 -7.655577691047551 0 12.0 -7.655577691047551 1
gene  2 3 7 -5.326154889442368 0 64.0 -5.326154889442368 1
gene  3 1 26 -8.406299965260414 0 73.0 -8.406299965260414 1
gene  1 26 4 0.7297460343236843 0 74.0 0.7297460343236843 1
gene  1 1 29 1.8242504418413668 0 90.0 1.8242504418413668 1
gene  1 29 7 0.0687330057823563 0 91.0 0.0687330057823563 1
gene  3 2 29 -9.931730255786354 0 185.0 -9.931730255786354 1
gene  3 29 4 8.748481386572392 0 315.0 8.748481386572392 1
gene  2 3 26 2.7794343077155537 0 337.0 2.7794343077155537 1
gene  1 29 26 -0.38946948271028625 0 357.0 -0.38946948271028625 1
gene  2 2 165 -10.98635774352124 0 731.0 -10.98635774352124 0
gene  2 165 7 -1.0243875169668293 0 732.0 -1.0243875169668293 1
gene  2 2 202 0.6793626212160869 0 882.0 0.6793626212160869 1
gene  2 202 165 3.0602753924574677 0 883.0 3.0602753924574677 1
genomeend 8
/* Organism # 009 Fitness:  9.000 Error:  1.000                      */
genomestart  9
trait 1 0.08095703125 0.17058250465120967 0.0 0.03137016751792348 0.0 0.0 0.0 0.0 
trait 2 0.24344716250459295 0.0 0.03420370051487321 0.05329185178940672 0.0 0.04194257483884601 0.0 0.0 
trait 3 0.3 0.08272181738054382 0.2515412502623684 0.0 0.0 0.6192375517619333 0.2919406141810683 0.13865768321162808 
node 1 2 1 1
node 2 1 1 1
node 3 1 1 3
node 4 1 0 2
node 7 1 0 0
node 26 2 0 0
node 29 1 0 0
node 165 1 0 0
node 202 1 0 0
gene  3 1 4 10.037638216716584 0 1.0 10.037638216716584 1
gene  2 2 4 -15.69615320502868 0 2.0 -15.69615320502868 1
gene  3 3 4 -19.952164392209255 0 3.0 -19.952164392209255 1
gene  1 1 7 8.185714058355922 0 8.0 8.185714058355922 1
gene  1 7 4 13.86975246205617 0 9.0 13.86975246205617 1
gene  2 2 7 -6.281027113631916 0 12.0 -6.281027113631916 1
gene  2 3 7 -7.44982498306298 0 64.0 -7.44982498306298 1
gene  3 1 26 -8.771801751443215 0 73.0 -8.771801751443215 1
gene  1 26 4 0.02007652228275747 0 74.0 0.02007652228275747 1
gene  1 1 29 2.5742358625359163 0 90.0 2.5742358625359163 1
gene  1 29 7 2.286859928935374 0 91.0 2.286859928935374 1
gene  3 2 29 -8.114843371299406 0 185.0 -8.114843371299406 1
gene  3 29 4 9.045017970367958 0 315.0 9.045017970367958 1
gene  2 3 26 4.846927040589402 0 337.0 4.846927040589402 1
gene  1 29 26 1.3136510954241467 0 357.0 1.3136510954241467 1
gene  2 2 165 -10.855511923653161 0 731.0 -10.855511923653161 0
gene  2 165 7 1.115559968156405 0 732.0 1.115559968156405 1
gene  2 2 202 0.6793626212160869 0 882.0 0.6793626212160869 1
gene  2 202 165 3.0602753924574677 0 883.0 3.0602753924574677 1
genomeend 9
/*-------------------------------------------------------------------*/
/* Species # 010         : (size= 008) (AvfFit= 14.500) (Age= 75.000)  */
/*-------------------------------------------------------------------*/
/* Organism # 010 Fitness:  16.000 Error:  0.000                      */
/*  $  This organism is WINNER with genome_id  010 Species # 010 $   */
genomestart  10
trait 1 0.1 0.0 0.0 0.0 0.0 0.0 0.0 0.0 
trait 2 0.2 0.0 0.0 0.0 0.0 0.0 0.0 0.0 
trait 3 1.151261093921767 0.0 0.0 1.4184737047667049 0.20136119511435402 0.0 0.0 0.0 
node 1 3 1 1
node 2 1 1 1
node 3 3 1 3
node 4 1 0 2
node 27 3 0 0
gene  1 1 4 -13.25579544934265 0 1.0 -13.25579544934265 1
gene  2 2 4 -11.615386727076094 0 2.0 -11.615386727076094 1
gene  3 3 4 -7.2517663358345725 0 3.0 -7.2517663358345725 1
gene  3 1 27 6.639480775853071 0 80.0 6.639480775853071 1
gene  1 27 4 26.321023537387905 0 81.0 26.321023537387905 1
gene  2 3 27 -3.94752721731934 0 109.0 -3.94752721731934 1
gene  2 2 27 8.34979093453956 0 113.0 8.34979093453956 1
genomeend 10
/* Organism # 011 Fitness:  16.000 Error:  0.000                      */
/*  $  This organism is WINNER with genome_id  011 Species # 010 $   */
genomestart  11
trait 1 0.1 0.0 0.0 0.0 0.0 0.0 0.0 0.0 
trait 2 0.2 0.0 0.0 0.0 0.0 0.0 0.0 0.0 
trait 3 1.151261093921767 0.0 0.18789522590379415 1.005829440361821 0.20136119511435402 0.0 0.0 0.04596599991569372 
node 1 3 1 1
node 2 1 1 1
node 3 3 1 3
node 4 1 0 2
node 27 3 0 0
gene  1 1 4 -13.25579544934265 0 1.0 -13.25579544934265 1
gene  2 2 4 -10.84431830514453 0 2.0 -10.84431830514453 1
gene  3 3 4 -7.2517663358345725 0 3.0 -7.2517663358345725 1
gene  3 1 27 6.639480775853071 0 80.0 6.639480775853071 1
gene  1 27 4 24.671831355616593 0 81.0 24.671831355616593 1
gene  2 3 27 -3.94752721731934 0 109.0 -3.94752721731934 1
gene  2 2 27 8.34979093453956 0 113.0 8.34979093453956 1
genomeend 11
/* Organism # 012 Fitness:  16.000 Error:  0.000                      */
/*  $  This organism is WINNER with genome_id  012 Species # 010 $   */
genomestart  12
trait 1 0.1 0.0 0.0 0.0 0.0 0.0 0.0 0.0 
trait 2 0.2 0.0 0.0 0.0 0.0 0.0 0.0 0.0 
trait 3 1.151261093921767 0.0 0.3757904518075883 0.5931851759569372 0.20136119511435402 0.0 0.0 0.09193199983138745 
node 1 3 1 1
node 2 1 1 1
node 3 3 1 3
node 4 1 0 2
node 27 1 0 0
gene  1 1 4 -12.50098178088074 0 1.0 -12.50098178088074 1
gene  2 2 4 -10.84431830514453 0 2.0 -10.84431830514453 1
gene  3 3 4 -7.161861742469301 0 3.0 -7.161861742469301 1
gene  3 1 27 8.38281092211654 0 80.0 8.38281092211654 1
gene  1 27 4 24.671831355616593 0 81.0 24.671831355616593 1
gene  2 3 27 -5.16503399598515 0 109.0 -5.16503399598515 1
gene  2 2 27 6.2706883418410335 0 113.0 6.2706883418410335 1
genomeend 12
/* Organism # 013 Fitness:  4.000 Error:  2.000                      */
genomestart  13
trait 1 0.1 0.0 0.0 0.0 0.0 0.0 0.0 0.0 
trait 2 0.2 0.0 0.0 0.0 0.0 0.0 0.0 0.0 
trait 3 1.151261093921767 0.0 0.3757904518075883 0.5931851759569372 0.20136119511435402 0.0 0.0 0.09193199983138745 
node 1 3 1 1
node 2 1 1 1
node 3 3 1 3
node 4 1 0 2
node 27 1 0 0
gene  1 1 4 -2.1625946933949205 0 1.0 -2.1625946933949205 1
gene  2 2 4 -12.82195871550747 0 2.0 -12.82195871550747 1
gene  3 3 4 -6.983859264148135 0 3.0 -6.983859264148135 1
gene  3 1 27 1.963288657091808 0 80.0 1.963288657091808 1
gene  1 27 4 24.435338484331876 0 81.0 24.435338484331876 1
gene  2 3 27 -3.6594893070334553 0 109.0 -3.6594893070334553 1
gene  2 2 27 5.377682466723291 0 113.0 5.377682466723291 1
genomeend 13
/* Organism # 014 Fitness:  16.000 Error:  0.000                      */
/*  $  This organism is WINNER with genome_id  014 Species # 010 $   */
genomestart  14
trait 1 0.1 0.0 0.0 0.0 0.0 0.0 0.0 0.0 
trait 2 0.2 0.0 0.0 0.0 0.0 0.0 0.0 0.0 
trait 3 1.151261093921767 0.0 0.3757904518075883 0.5931851759569372 0.20136119511435402 0.0 0.0 0.09193199983138745 
node 1 3 1 1
node 2 1 1 1
node 3 3 1 3
node 4 1 0 2
node 27 1 0 0
gene  1 1 4 -12.50098178088074 0 1.0 -12.50098178088074 1
gene  2 2 4 -10.84431830514453 0 2.0 -10.84431830514453 1
gene  3 3 4 -7.161861742469301 0 3.0 -7.161861742469301 1
gene  3 1 27 8.38281092211654 0 80.0 8.38281092211654 1
gene  1 27 4 24.671831355616593 0 81.0 24.671831355616593 1
gene  2 3 27 -5.16503399598515 0 109.0 -5.16503399598515 1
gene  2 2 27 6.2706883418410335 0 113.0 6.2706883418410335 1
genomeend 14
/* Organism # 015 Fitness:  16.000 Error:  0.000                      */
/*  $  This organism is WINNER with genome_id  015 Species # 010 $   */
genomestart  15
trait 1 0.1 0.0 0.0 0.0 0.0 0.0 0.0 0.0 
trait 2 0.2 0.0 0.0 0.0 0.0 0.0 0.0 0.0 
trait 3 1.151261093921767 0.0 0.0 1.4184737047667049 0.20136119511435402 0.0 0.0 0.0 
node 1 3 1 1
node 2 1 1 1
node 3 3 1 3
node 4 1 0 2
node 27 3 0 0
gene  1 1 4 -11.107027931821477 0 1.0 -11.107027931821477 1
gene  2 2 4 -12.879322111884806 0 2.0 -12.879322111884806 1
gene  3 3 4 -8.342936331248415 0 3.0 -8.342936331248415 1
gene  3 1 27 6.947022357738118 0 80.0 6.947022357738118 1
gene  1 27 4 26.926344735015693 0 81.0 26.926344735015693 1
gene  2 3 27 -4.142196230498152 0 109.0 -4.142196230498152 1
gene  2 2 27 6.923695450757579 0 113.0 6.923695450757579 1
genomeend 15
/* Organism # 016 Fitness:  16.000 Error:  0.000                      */
/*  $  This organism is WINNER with genome_id  016 Species # 010 $   */
genomestart  16
trait 1 0.1 0.0 0.0 0.0 0.0 0.0 0.0 0.0 
trait 2 0.2 0.0 0.0 0.0 0.0 0.0 0.0 0.0 
trait 3 1.151261093921767 0.0 0.18789522590379415 1.005829440361821 0.20136119511435402 0.0 0.0 0.04596599991569372 
node 1 3 1 1
node 2 1 1 1
node 3 3 1 3
node 4 1 0 2
node 27 1 0 0
gene  1 1 4 -13.25579544934265 0 1.0 -13.25579544934265 1
gene  2 2 4 -10.84431830514453 0 2.0 -10.84431830514453 1
gene  3 3 4 -7.161861742469301 0 3.0 -7.161861742469301 1
gene  3 1 27 8.38281092211654 0 80.0 8.38281092211654 1
gene  1 27 4 26.321023537387905 0 81.0 26.321023537387905 1
gene  2 3 27 -5.16503399598515 0 109.0 -5.16503399598515 1
gene  2 2 27 6.2706883418410335 0 113.0 6.2706883418410335 1
genomeend 16
/* Organism # 017 Fitness:  16.000 Error:  0.000                      */
/*  $  This organism is WINNER with genome_id  017 Species # 010 $   */
genomestart  17
trait 1 0.1 0.0 0.0 0.0 0.0 0.0 0.0 0.0 
trait 2 0.2 0.0 0.0 0.0 0.0 0.0 0.0 0.0 
trait 3 1.151261093921767 0.0 0.18789522590379415 1.005829440361821 0.20136119511435402 0.0 0.0 0.04596599991569372 
node 1 3 1 1
node 2 1 1 1
node 3 3 1 3
node 4 1 0 2
node 27 3 0 0
gene  1 1 4 -14.572168356960258 0 1.0 -14.572168356960258 1
gene  2 2 4 -8.74658007834922 0 2.0 -8.74658007834922 1
gene  3 3 4 -7.334499344803209 0 3.0 -7.334499344803209 1
gene  3 1 27 6.276235225174268 0 80.0 6.276235225174268 1
gene  1 27 4 27.513078173022286 0 81.0 27.513078173022286 1
gene  2 3 27 -5.429466280568068 0 109.0 -5.429466280568068 1
gene  2 2 27 9.85028592812749 0 113.0 9.85028592812749 1
genomeend 17
/*-------------------------------------------------------------------*/
/* Species # 011         : (size= 004) (AvfFit= 9.000) (Age= 75.000)  */
/*-------------------------------------------------------------------*/
/* Organism # 018 Fitness:  9.000 Error:  1.000                      */
genomestart  18
trait 1 0.13758880872216217 0.0 0.0 0.0 0.0 0.0 0.0 0.23261439317019972 
trait 2 0.2 0.2177678020902366 0.0 0.796866821784067 0.0 0.0 0.0 0.0 
trait 3 0.6647931693886189 0.0 0.0 0.11609151232060977 0.0 0.1999730630644102 0.018335650124731706 0.0 
node 1 2 1 1
node 2 2 1 1
node 3 1 1 3
node 4 2 0 2
node 17 1 0 0
node 59 1 0 0
gene  3 1 4 -6.300445058136989 0 1.0 -6.300445058136989 0
gene  3 2 4 8.147039255689595 0 2.0 8.147039255689595 1
gene  3 3 4 -12.641532284172548 0 3.0 -12.641532284172548 1
gene  2 1 17 2.3967037423861246 0 38.0 2.3967037423861246 1
gene  3 17 4 19.822112687189854 0 39.0 19.822112687189854 1
gene  1 2 17 21.69310998882571 0 175.0 21.69310998882571 1
gene  2 2 59 -2.984957706119872 0 244.0 -2.984957706119872 1
gene  1 59 4 -13.396211963966685 0 245.0 -13.396211963966685 1
gene  1 1 59 -7.321311367457919 0 850.0 -7.321311367457919 1
gene  2 59 17 -9.477597802033618 0 1196.0 -9.477597802033618 1
genomeend 18
/* Organism # 019 Fitness:  9.000 Error:  1.000                      */
genomestart  19
trait 1 0.13758880872216217 0.0 0.0 0.0 0.0 0.0 0.0 0.23261439317019972 
trait 2 0.2 0.2177678020902366 0.0 0.796866821784067 0.0 0.0 0.0 0.0 
trait 3 0.6647931693886189 0.0 0.0 0.11609151232060977 0.0 0.1999730630644102 0.018335650124731706 0.0 
node 1 2 1 1
node 2 2 1 1
node 3 1 1 3
node 4 2 0 2
node 17 1 0 0
node 59 1 0 0
gene  3 1 4 -8.054143858093363 0 1.0 -8.054143858093363 0
gene  3 2 4 4.691699601557122 0 2.0 4.691699601557122 1
gene  3 3 4 2.1104621504131322 0 3.0 2.1104621504131322 1
gene  2 1 17 1.6465449638567895 0 38.0 1.6465449638567895 1
gene  3 17 4 18.756978494343656 0 39.0 18.756978494343656 1
gene  1 2 17 -0.1864548456813392 0 175.0 -0.1864548456813392 1
gene  2 2 59 -4.12899599703775 0 244.0 -4.12899599703775 1
gene  1 59 4 -17.368793422789235 0 245.0 -17.368793422789235 1
gene  1 1 59 -7.845089657025088 0 850.0 -7.845089657025088 1
gene  2 59 17 -11.72004150392045 0 1196.0 -11.72004150392045 1
genomeend 19
/* Organism # 020 Fitness:  9.000 Error:  1.000                      */
genomestart  20
trait 1 0.13758880872216217 0.0 0.0 0.0 0.0 0.0 0.0 0.23261439317019972 
trait 2 0.2 0.2177678020902366 0.0 0.796866821784067 0.0 0.0 0.0 0.0 
trait 3 0.6647931693886189 0.0 0.0 0.11609151232060977 0.0 0.1999730630644102 0.018335650124731706 0.0 
node 1 2 1 1
node 2 2 1 1
node 3 1 1 3
node 4 2 0 2
node 17 1 0 0
node 59 1 0 0
gene  3 1 4 -6.794681328515329 0 1.0 -6.794681328515329 0
gene  3 2 4 7.157099459348066 0 2.0 7.157099459348066 1
gene  3 3 4 -12.310325890048333 0 3.0 -12.310325890048333 1
gene  2 1 17 2.8424145163982137 0 38.0 2.8424145163982137 1
gene  3 17 4 20.751316225272653 0 39.0 20.751316225272653 1
gene  1 2 17 19.763722459734655 0 175.0 19.763722459734655 1
gene  2 2 59 -3.024185176110504 0 244.0 -3.024185176110504 1
gene  1 59 4 -15.295415273859657 0 245.0 -15.295415273859657 1
gene  1 1 59 -5.930916970048694 0 850.0 -5.930916970048694 1
gene  2 59 17 -9.477597802033618 0 1196.0 -9.477597802033618 1
genomeend 20
/* Organism # 021 Fitness:  9.000 Error:  1.000                      */
genomestart  21
trait 1 0.13758880872216217 0.0 0.0 0.0 0.0 0.0 0.0 0.23261439317019972 
trait 2 0.2 0.2177678020902366 0.0 0.796866821784067 0.0 0.0 0.0 0.0 
trait 3 0.6647931693886189 0.0 0.0 0.11609151232060977 0.0 0.1999730630644102 0.018335650124731706 0.0 
node 1 2 1 1
node 2 2 1 1
node 3 1 1 3
node 4 2 0 2
node 17 1 0 0
node 59 1 0 0
gene  3 1 4 -6.340365490959668 0 1.0 -6.340365490959668 0
gene  3 2 4 8.603902835381117 0 2.0 8.603902835381117 1
gene  3 3 4 -10.553419281020926 0 3.0 -10.553419281020926 1
gene  2 1 17 5.054515416533355 0 38.0 5.054515416533355 1
gene  3 17 4 21.18501392100831 0 39.0 21.18501392100831 1
gene  1 2 17 18.706807403277146 0 175.0 18.706807403277146 1
gene  2 2 59 -0.8596337334088937 0 244.0 -0.8596337334088937 1
gene  1 59 4 -15.245847958778063 0 245.0 -15.245847958778063 1
gene  1 1 59 -7.2712890997523 0 850.0 -7.2712890997523 1
gene  2 59 17 -7.899466988579329 0 1196.0 -7.899466988579329 1
genomeend 21
/*-------------------------------------------------------------------*/
/* Species # 014         : (size= 006) (AvfFit= 12.060) (Age= 73.000)  */
/*-------------------------------------------------------------------*/
/* Organism # 022 Fitness:  16.000 Error:  0.000                      */
/*  $  This organism is WINNER with genome_id  022 Species # 014 $   */
genomestart  22
trait 1 0.7967452314742557 0.17845554332741934 0.0 0.0328180214033661 0.0 0.0 0.0 0.0 
trait 2 0.0 0.0 0.0 0.20631741608972873 0.0 0.3897432748031502 0.0 0.7538324996060509 
trait 3 0.4699729905849149 0.2310849248346033 0.21623721513782546 0.8577324532130781 0.2277504798096388 0.0 0.021860793569105474 0.0 
node 1 1 1 1
node 2 1 1 1
node 3 3 1 3
node 4 1 0 2
node 7 3 0 0
node 34 1 0 0
node 112 3 0 0
gene  1 1 4 -3.6526472779355013 0 1.0 -3.6526472779355013 1
gene  1 2 4 1.0837534914628408 0 2.0 1.0837534914628408 1
gene  3 3 4 4.310229108001551 0 3.0 4.310229108001551 1
gene  1 1 7 -2.1501307898828417 0 8.0 -2.1501307898828417 1
gene  2 7 4 14.169072235890585 0 9.0 14.169072235890585 1
gene  2 2 7 9.529118807880064 0 12.0 9.529118807880064 1
gene  2 3 7 7.367426577098874 0 64.0 7.367426577098874 1
gene  1 1 34 -6.714891545640684 0 105.0 -6.714891545640684 1
gene  1 34 7 -12.996123975601035 0 106.0 -12.996123975601035 1
gene  3 2 34 1.0947796955590667 0 144.0 1.0947796955590667 1
gene  2 34 4 -20.29585991051328 0 235.0 -20.29585991051328 1
gene  1 2 112 7.693717106300799 0 497.0 7.693717106300799 1
gene  2 112 4 14.23424883491038 0 498.0 14.23424883491038 1
gene  2 3 34 6.199019712416362 0 572.0 6.199019712416362 1
gene  3 34 112 -4.995940081931679 0 609.0 -4.995940081931679 1
gene  1 3 112 -0.2884497307704498 0 620.0 -0.2884497307704498 1
gene  3 7 112 -0.8437516742821632 0 670.0 -0.8437516742821632 1
gene  2 1 112 -3.5770180891903123 0 804.0 -3.5770180891903123 1
genomeend 22
/* Organism # 023 Fitness:  16.000 Error:  0.000                      */
/*  $  This organism is WINNER with genome_id  023 Species # 014 $   */
genomestart  23
trait 1 0.6235626876319484 1.0747697537559355 0.0 0.0328180214033661 0.0 0.745972087818952 0.16896126426604752 0.0 
trait 2 0.0 0.0 0.0 0.20631741608972873 0.0 0.3897432748031502 0.0 0.7538324996060509 
trait 3 0.4699729905849149 0.2310849248346033 0.21623721513782546 0.8577324532130781 0.2277504798096388 0.0 0.021860793569105474 0.0 
node 1 1 1 1
node 2 1 1 1
node 3 3 1 3
node 4 1 0 2
node 7 3 0 0
node 34 1 0 0
node 112 3 0 0
gene  1 1 4 -3.6526472779355013 0 1.0 -3.6526472779355013 1
gene  1 2 4 1.0837534914628408 0 2.0 1.0837534914628408 1
gene  3 3 4 4.310229108001551 0 3.0 4.310229108001551 1
gene  1 1 7 -2.1501307898828417 0 8.0 -2.1501307898828417 1
gene  2 7 4 14.169072235890585 0 9.0 14.169072235890585 1
gene  2 2 7 9.529118807880064 0 12.0 9.529118807880064 1
gene  2 3 7 7.367426577098874 0 64.0 7.367426577098874 1
gene  1 1 34 -6.714891545640684 0 105.0 -6.714891545640684 1
gene  1 34 7 -12.996123975601035 0 106.0 -12.996123975601035 1
gene  3 2 34 1.0947796955590667 0 144.0 1.0947796955590667 1
gene  2 34 4 -20.29585991051328 0 235.0 -20.29585991051328 1
gene  1 2 112 7.693717106300799 0 497.0 7.693717106300799 1
gene  2 112 4 14.23424883491038 0 498.0 14.23424883491038 1
gene  2 3 34 6.199019712416362 0 572.0 6.199019712416362 1
gene  3 34 112 -4.995940081931679 0 609.0 -4.995940081931679 1
gene  1 3 112 -0.2884497307704498 0 620.0 -0.2884497307704498 1
gene  3 7 112 -0.8437516742821632 0 670.0 -0.8437516742821632 1
gene  2 1 112 -3.5770180891903123 0 804.0 -3.5770180891903123 1
genomeend 23
/* Organism # 024 Fitness:  4.000 Error:  2.000                      */
genomestart  24
trait 1 0.7967452314742557 0.17845554332741934 0.0 0.0328180214033661 0.0 0.0 0.0 0.0 
trait 2 0.0 0.0 0.0 0.20631741608972873 0.0 0.3897432748031502 0.0 0.7538324996060509 
trait 3 0.4699729905849149 0.2310849248346033 0.21623721513782546 0.8577324532130781 0.2277504798096388 0.0 0.021860793569105474 0.0 
node 1 1 1 1
node 2 1 1 1
node 3 3 1 3
node 4 1 0 2
node 7 3 0 0
node 34 1 0 0
node 112 3 0 0
gene  1 1 4 -6.140967194424539 0 1.0 -6.140967194424539 1
gene  1 2 4 1.0837534914628408 0 2.0 1.0837534914628408 1
gene  3 3 4 6.623160934395038 0 3.0 6.623160934395038 1
gene  1 1 7 -3.3675648987991957 0 8.0 -3.3675648987991957 1
gene  2 7 4 12.770942167647595 0 9.0 12.770942167647595 1
gene  2 2 7 9.529118807880064 0 12.0 9.529118807880064 1
gene  2 3 7 -1.2866417304584976 0 64.0 -1.2866417304584976 1
gene  1 1 34 -8.465422653134938 0 105.0 -8.465422653134938 1
gene  1 34 7 -11.598022939941941 0 106.0 -11.598022939941941 1
gene  3 2 34 1.443553920010979 0 144.0 1.443553920010979 1
gene  2 34 4 -18.678909618155508 0 235.0 -18.678909618155508 1
gene  1 2 112 7.693717106300799 0 497.0 7.693717106300799 1
gene  2 112 4 12.431237900643524 0 498.0 12.431237900643524 1
gene  2 3 34 -1.2974991670872478 0 572.0 -1.2974991670872478 1
gene  3 34 112 -7.283099037034813 0 609.0 -7.283099037034813 1
gene  1 3 112 -1.9280328375510862 0 620.0 -1.9280328375510862 1
gene  3 7 112 -3.3167569878271093 0 670.0 -3.3167569878271093 1
gene  2 1 112 2.4088115298774087 0 804.0 2.4088115298774087 1
genomeend 24
/* Organism # 025 Fitness:  4.358 Error:  1.912                      */
genomestart  25
trait 1 0.6235626876319484 1.0747697537559355 0.0 0.0328180214033661 0.0 0.745972087818952 0.16896126426604752 0.0 
trait 2 0.0 0.0 0.0 0.20631741608972873 0.0 0.3897432748031502 0.0 0.7538324996060509 
trait 3 0.4699729905849149 0.2310849248346033 0.21623721513782546 0.8577324532130781 0.2277504798096388 0.0 0.021860793569105474 0.0 
node 1 1 1 1
node 2 1 1 1
node 3 3 1 3
node 4 1 0 2
node 7 3 0 0
node 34 1 0 0
node 112 3 0 0
gene  1 1 4 -5.308682186890827 0 1.0 -5.308682186890827 1
gene  1 2 4 -2.2338493896370175 0 2.0 -2.2338493896370175 1
gene  3 3 4 -0.8220511995719328 0 3.0 -0.8220511995719328 1
gene  1 1 7 -0.8177567805663057 0 8.0 -0.8177567805663057 1
gene  2 7 4 14.169072235890585 0 9.0 14.169072235890585 1
gene  2 2 7 10.57521589745712 0 12.0 10.57521589745712 1
gene  2 3 7 9.729393043747002 0 64.0 9.729393043747002 1
gene  1 1 34 -1.1488420046111174 0 105.0 -1.1488420046111174 1
gene  1 34 7 -11.602254945914058 0 106.0 -11.602254945914058 1
gene  3 2 34 1.0391448305699122 0 144.0 1.0391448305699122 1
gene  2 34 4 -19.16732079843338 0 235.0 -19.16732079843338 1
gene  1 2 112 9.607562984978404 0 497.0 9.607562984978404 1
gene  2 112 4 14.23424883491038 0 498.0 14.23424883491038 1
gene  2 3 34 4.892163887422804 0 572.0 4.892163887422804 1
gene  3 34 112 -4.410419996987895 0 609.0 -4.410419996987895 1
gene  1 3 112 0.19814611261489423 0 620.0 0.19814611261489423 1
gene  3 7 112 -1.0964200987672545 0 670.0 -1.0964200987672545 1
gene  2 1 112 -3.5770180891903123 0 804.0 -3.5770180891903123 1
genomeend 25
/* Organism # 026 Fitness:  16.000 Error:  0.000                      */
/*  $  This organism is WINNER with genome_id  026 Species # 014 $   */
genomestart  26
trait 1 0.7967452314742557 0.17845554332741934 0.0 0.0328180214033661 0.0 0.0 0.0 0.0 
trait 2 0.0 0.0 0.0 0.20631741608972873 0.0 0.3897432748031502 0.0 0.7538324996060509 
trait 3 0.4699729905849149 0.2310849248346033 0.21623721513782546 0.8577324532130781 0.2277504798096388 0.0 0.021860793569105474 0.0 
node 1 1 1 1
node 2 1 1 1
node 3 3 1 3
node 4 1 0 2
node 7 3 0 0
node 34 1 0 0
node 112 3 0 0
gene  1 1 4 -3.6526472779355013 0 1.0 -3.6526472779355013 1
gene  1 2 4 1.0837534914628408 0 2.0 1.0837534914628408 1
gene  3 3 4 4.310229108001551 0 3.0 4.310229108001551 1
gene  1 1 7 -2.1501307898828417 0 8.0 -2.1501307898828417 1
gene  2 7 4 14.169072235890585 0 9.0 14.169072235890585 1
gene  2 2 7 9.529118807880064 0 12.0 9.529118807880064 1
gene  2 3 7 7.367426577098874 0 64.0 7.367426577098874 1
gene  1 1 34 -6.714891545640684 0 105.0 -6.714891545640684 1
gene  1 34 7 -12.996123975601035 0 106.0 -12.996123975601035 1
gene  3 2 34 1.0947796955590667 0 144.0 1.0947796955590667 1
gene  2 34 4 -20.29585991051328 0 235.0 -20.29585991051328 1
gene  1 2 112 7.693717106300799 0 497.0 7.693717106300799 1
gene  2 112 4 14.23424883491038 0 498.0 14.23424883491038 1
gene  2 3 34 6.199019712416362 0 572.0 6.199019712416362 1
gene  3 34 112 -4.995940081931679 0 609.0 -4.995940081931679 1
gene  1 3 112 -0.2884497307704498 0 620.0 -0.2884497307704498 1
gene  3 7 112 -0.8437516742821632 0 670.0 -0.8437516742821632 1
gene  2 1 112 -3.5770180891903123 0 804.0 -3.5770180891903123 1
genomeend 26
/* Organism # 027 Fitness:  16.000 Error:  0.000                      */
/*  $  This organism is WINNER with genome_id  027 Species # 014 $   */
genomestart  27
trait 1 0.7967452314742557 0.17845554332741934 0.0 0.0328180214033661 0.0 0.0 0.0 0.0 
trait 2 0.0 0.0 0.0 0.20631741608972873 0.0 0.3897432748031502 0.0 0.7538324996060509 
trait 3 0.4699729905849149 0.2310849248346033 0.21623721513782546 0.8577324532130781 0.2277504798096388 0.0 0.021860793569105474 0.0 
node 1 1 1 1
node 2 1 1 1
node 3 3 1 3
node 4 1 0 2
node 7 3 0 0
node 34 1 0 0
node 112 3 0 0
gene  1 1 4 -3.6526472779355013 0 1.0 -3.6526472779355013 1
gene  1 2 4 1.0837534914628408 0 2.0 1.0837534914628408 1
gene  3 3 4 4.310229108001551 0 3.0 4.310229108001551 1
gene  1 1 7 -2.1501307898828417 0 8.0 -2.1501307898828417 1
gene  2 7 4 14.169072235890585 0 9.0 14.169072235890585 1
gene  2 2 7 9.529118807880064 0 12.0 9.529118807880064 1
gene  2 3 7 7.367426577098874 0 64.0 7.367426577098874 1
gene  1 1 34 -6.714891545640684 0 105.0 -6.714891545640684 1
gene  1 34 7 -12.996123975601035 0 106.0 -12.996123975601035 1
gene  3 2 34 1.0947796955590667 0 144.0 1.0947796955590667 1
gene  2 34 4 -20.29585991051328 0 235.0 -20.29585991051328 1
gene  1 2 112 7.693717106300799 0 497.0 7.693717106300799 1
gene  2 112 4 14.23424883491038 0 498.0 14.23424883491038 1
gene  2 3 34 6.199019712416362 0 572.0 6.199019712416362 1
gene  3 34 112 -4.995940081931679 0 609.0 -4.995940081931679 1
gene  1 3 112 -0.2884497307704498 0 620.0 -0.2884497307704498 1
gene  3 7 112 -0.8437516742821632 0 670.0 -0.8437516742821632 1
gene  2 1 112 -3.5770180891903123 0 804.0 -3.5770180891903123 1
genomeend 27
/*-------------------------------------------------------------------*/
/* Species # 016         : (size= 004) (AvfFit= 6.500) (Age= 72.000)  */
/*-------------------------------------------------------------------*/
/* Organism # 028 Fitness:  9.000 Error:  1.000                      */
genomestart  28
trait 1 0.07915039062500001 0.18676597304119621 0.0 0.03434631161577775 0.0 0.01964290855023909 0.0 0.0 
trait 2 0.0 0.0 0.0 0.22054537128060178 0.0 0.7550646294524289 0.0 0.0 
trait 3 0.3 0.0653502357306296 0.08715683671371535 0.22808661851128836 0.0 0.3452723060109913 0.16840750186746922 0.0 
node 1 2 1 1
node 2 1 1 1
node 3 1 1 3
node 4 3 0 2
node 7 3 0 0
node 36 1 0 0
node 158 1 0 0
node 215 1 0 0
gene  1 1 4 3.8627214437506243 0 1.0 3.8627214437506243 1
gene  2 2 4 -16.755233103656703 0 2.0 -16.755233103656703 1
gene  3 3 4 -6.911389516427646 0 3.0 -6.911389516427646 1
gene  3 1 7 18.96097206282027 0 8.0 18.96097206282027 1
gene  1 7 4 15.035544740552414 0 9.0 15.035544740552414 0
gene  2 2 7 -0.20552162308714905 0 12.0 -0.20552162308714905 1
gene  2 3 7 -2.2520364601974467 0 64.0 -2.2520364601974467 1
gene  2 2 36 16.790298778606 0 114.0 16.790298778606 1
gene  2 36 4 -4.76612211097167 0 115.0 -4.76612211097167 1
gene  3 3 36 1.3037679260050448 0 424.0 1.3037679260050448 1
gene  1 1 158 -7.836350013360735 0 707.0 -7.836350013360735 1
gene  1 158 4 -2.0881818148235403 0 708.0 -2.0881818148235403 1
gene  3 1 36 2.1195778509433105 0 844.0 2.1195778509433105 1
gene  1 7 215 8.561387022870433 0 933.0 8.561387022870433 1
gene  1 215 4 14.837362945936912 0 934.0 14.837362945936912 1
gene  1 7 158 9.160579032031627 0 985.0 9.160579032031627 1
gene  3 215 158 3.116127535303592 0 1082.0 3.116127535303592 1
gene  1 3 215 -6.773051195096778 0 1218.0 -6.773051195096778 1
gene  3 158 36 9.299872173451039 0 1234.0 0.0 1
genomeend 28
/* Organism # 029 Fitness:  4.000 Error:  2.000                      */
genomestart  29
trait 1 0.07915039062500001 0.18676597304119621 0.0 0.03434631161577775 0.0 0.01964290855023909 0.0 0.0 
trait 2 0.0 0.0 0.0 0.22054537128060178 0.0 0.7550646294524289 0.0 0.0 
trait 3 0.3 0.0653502357306296 0.08715683671371535 0.22808661851128836 0.0 0.3452723060109913 0.16840750186746922 0.0 
node 1 2 1 1
node 2 1 1 1
node 3 1 1 3
node 4 3 0 2
node 7 3 0 0
node 36 1 0 0
node 158 1 0 0
node 215 1 0 0
gene  1 1 4 2.4721046005520106 0 1.0 2.4721046005520106 1
gene  2 2 4 -18.43815959820619 0 2.0 -18.43815959820619 1
gene  3 3 4 -6.963380008307403 0 3.0 -6.963380008307403 1
gene  3 1 7 17.132210055284347 0 8.0 17.132210055284347 1
gene  1 7 4 15.457020075128801 0 9.0 15.457020075128801 0
gene  2 2 7 -0.2259251249769329 0 12.0 -0.2259251249769329 1
gene  2 3 7 -3.250488156026825 0 64.0 -3.250488156026825 1
gene  2 2 36 16.386095626624304 0 114.0 16.386095626624304 1
gene  2 36 4 -2.983819318707141 0 115.0 -2.983819318707141 1
gene  3 3 36 3.760990487138798 0 424.0 3.760990487138798 1
gene  1 1 158 -5.484374321671099 0 707.0 -5.484374321671099 1
gene  1 158 4 -2.008366519111396 0 708.0 -2.008366519111396 1
gene  3 1 36 -0.21508804981275276 0 844.0 -0.21508804981275276 1
gene  1 7 215 9.613754999144106 0 933.0 9.613754999144106 1
gene  1 215 4 14.596211146203956 0 934.0 14.596211146203956 1
gene  1 7 158 10.422506283547287 0 985.0 10.422506283547287 1
gene  3 215 158 5.240009857555601 0 1082.0 5.240009857555601 1
gene  1 3 215 1.8861594071244427 0 1218.0 1.8861594071244427 1
genomeend 29
/* Organism # 030 Fitness:  9.000 Error:  1.000                      */
genomestart  30
trait 1 0.07915039062500001 0.18676597304119621 0.0 0.03434631161577775 0.0 0.01964290855023909 0.0 0.0 
trait 2 0.0 0.0 0.0 0.22054537128060178 0.0 0.7550646294524289 0.0 0.932742871756034 
trait 3 0.3 0.0653502357306296 0.08715683671371535 0.22808661851128836 0.0 0.3452723060109913 0.16840750186746922 0.0 
node 1 2 1 1
node 2 1 1 1
node 3 1 1 3
node 4 3 0 2
node 7 3 0 0
node 36 1 0 0
node 158 1 0 0
node 215 1 0 0
gene  1 1 4 3.8627214437506243 0 1.0 3.8627214437506243 1
gene  2 2 4 -16.755233103656703 0 2.0 -16.755233103656703 1
gene  3 3 4 -6.911389516427646 0 3.0 -6.911389516427646 1
gene  3 1 7 18.96097206282027 0 8.0 18.96097206282027 1
gene  1 7 4 15.035544740552414 0 9.0 15.035544740552414 0
gene  2 2 7 -0.20552162308714905 0 12.0 -0.20552162308714905 1
gene  2 3 7 -2.2520364601974467 0 64.0 -2.2520364601974467 1
gene  2 2 36 16.790298778606 0 114.0 16.790298778606 1
gene  2 36 4 -4.76612211097167 0 115.0 -4.76612211097167 1
gene  3 3 36 1.3037679260050448 0 424.0 1.3037679260050448 1
gene  1 1 158 -7.836350013360735 0 707.0 -7.836350013360735 1
gene  1 158 4 -2.0881818148235403 0 708.0 -2.0881818148235403 1
gene  3 1 36 2.1195778509433105 0 844.0 2.1195778509433105 1
gene  1 7 215 8.561387022870433 0 933.0 8.561387022870433 1
gene  1 215 4 14.837362945936912 0 934.0 14.837362945936912 1
gene  1 7 158 9.160579032031627 0 985.0 9.160579032031627 1
gene  3 215 158 3.116127535303592 0 1082.0 3.116127535303592 1
gene  1 3 215 -6.773051195096778 0 1218.0 -6.773051195096778 1
genomeend 30
/* Organism # 031 Fitness:  4.000 Error:  2.000                      */
genomestart  31
trait 1 0.07915039062500001 0.18676597304119621 0.0 0.03434631161577775 0.0 0.01964290855023909 0.0 0.0 
trait 2 0.0 0.0 0.0 0.22054537128060178 0.0 0.7550646294524289 0.0 0.0 
trait 3 0.3 0.0653502357306296 0.08715683671371535 0.22808661851128836 0.0 0.3452723060109913 0.16840750186746922 0.0 
node 1 2 1 1
node 2 1 1 1
node 3 1 1 3
node 4 3 0 2
node 7 3 0 0
node 36 1 0 0
node 158 1 0 0
node 215 1 0 0
gene  1 1 4 5.9497203700877925 0 1.0 5.9497203700877925 1
gene  2 2 4 -15.93042304461712 0 2.0 -15.93042304461712 1
gene  3 3 4 -7.678190422481528 0 3.0 -7.678190422481528 1
gene  3 1 7 20.24177769940633 0 8.0 20.24177769940633 1
gene  1 7 4 0.5215647449487959 0 9.0 0.5215647449487959 1
gene  2 2 7 0.03862436296966609 0 12.0 0.03862436296966609 1
gene  2 3 7 -1.2594659017616796 0 64.0 -1.2594659017616796 1
gene  2 2 36 18.71843706261305 0 114.0 18.71843706261305 1
gene  2 36 4 -0.11549186079476609 0 115.0 -0.11549186079476609 1
gene  3 3 36 1.4489146428578374 0 424.0 1.4489146428578374 1
gene  1 1 158 -7.836350013360735 0 707.0 -7.836350013360735 1
gene  1 158 4 -3.7789408816590746 0 708.0 -3.7789408816590746 1
gene  3 1 36 2.1195778509433105 0 844.0 2.1195778509433105 1
gene  1 7 215 1.8620889508431397 0 933.0 1.8620889508431397 1
gene  1 215 4 14.39998579822375 0 934.0 14.39998579822375 1
gene  1 7 158 7.899225266191765 0 985.0 7.899225266191765 1
gene  3 215 158 -0.8217644091226497 0 1082.0 -0.8217644091226497 1
gene  1 3 215 -6.602876199125052 0 1218.0 -6.602876199125052 1
genomeend 31
/*-------------------------------------------------------------------*/
/* Species # 017         : (size= 003) (AvfFit= 6.628) (Age= 71.000)  */
/*-------------------------------------------------------------------*/
/* Organism # 032 Fitness:  3.558 Error:  2.114                      */
genomestart  32
trait 1 0.519277221665123 0.06792372724096563 0.0 0.4826060874653464 0.0 0.048750027671035825 0.001001516964367476 0.0 
trait 2 0.2 0.0 0.3346577519059606 0.0 0.0 0.0 0.9028370149050807 0.0 
trait 3 0.013246439942365629 0.0 0.0 0.0 0.0 0.10132158262737821 0.0865647617141137 0.07354908607405791 
node 1 1 1 1
node 2 3 1 1
node 3 1 1 3
node 4 3 0 2
node 12 1 0 0
node 37 1 0 0
node 134 1 0 0
node 182 1 0 0
node 199 1 0 0
node 244 1 0 0
gene  1 1 4 -3.790404628474557 0 1.0 -3.790404628474557 1
gene  2 2 4 3.625834221137683 0 2.0 3.625834221137683 1
gene  1 3 4 -1.7782300035515142 0 3.0 -1.7782300035515142 1
gene  1 1 12 -5.696558115269015 0 21.0 -5.696558115269015 1
gene  1 12 4 -5.20463694361104 0 22.0 -5.20463694361104 1
gene  3 2 12 2.8061254443942634 0 36.0 2.8061254443942634 1
gene  1 3 12 -5.051373122381307 0 86.0 -5.051373122381307 1
gene  3 1 37 0.4904770939919705 0 117.0 0.4904770939919705 1
gene  1 37 4 4.681270056497835 0 118.0 4.681270056497835 1
gene  2 37 12 -8.369159081750745 0 193.0 -8.369159081750745 1
gene  1 2 37 3.2998466647203575 0 259.0 3.2998466647203575 1
gene  1 1 134 -5.315172745454605 0 602.0 -5.315172745454605 1
gene  1 134 4 -1.951402944468433 0 603.0 -1.951402944468433 1
gene  1 134 12 -0.6046428473843783 0 640.0 -0.6046428473843783 1
gene  1 1 182 3.9068922176114684 0 784.0 3.9068922176114684 1
gene  1 182 12 -3.6254937174920285 0 785.0 -3.6254937174920285 1
gene  1 182 199 1.7266577356942345 0 857.0 1.7266577356942345 1
gene  1 199 12 -0.3925088801473836 0 858.0 -0.3925088801473836 1
gene  1 182 244 -0.52468638567651 0 1054.0 -0.52468638567651 1
gene  1 244 199 -3.367211572336765 0 1055.0 -3.367211572336765 1
genomeend 32
/* Organism # 033 Fitness:  8.991 Error:  1.002                      */
genomestart  33
trait 1 0.519277221665123 0.06792372724096563 0.0 0.4826060874653464 0.0 0.048750027671035825 0.001001516964367476 0.0 
trait 2 0.2 0.0 0.3346577519059606 0.0 0.0 0.0 0.9028370149050807 0.0 
trait 3 0.013246439942365629 0.0 0.0 0.0 0.0 0.10132158262737821 0.0865647617141137 0.07354908607405791 
node 1 1 1 1
node 2 3 1 1
node 3 1 1 3
node 4 3 0 2
node 12 1 0 0
node 37 1 0 0
node 134 1 0 0
node 182 1 0 0
node 199 1 0 0
node 244 1 0 0
gene  1 1 4 -5.479986518530325 0 1.0 -5.479986518530325 1
gene  2 2 4 2.7582407524626165 0 2.0 2.7582407524626165 1
gene  1 3 4 -2.539262131323021 0 3.0 -2.539262131323021 1
gene  1 1 12 0.760341126374364 0 21.0 0.760341126374364 1
gene  1 12 4 -4.459938025572666 0 22.0 -4.459938025572666 1
gene  3 2 12 3.3718182151755314 0 36.0 3.3718182151755314 1
gene  1 3 12 -3.032933903395316 0 86.0 -3.032933903395316 1
gene  3 1 37 0.6463153762956777 0 117.0 0.6463153762956777 1
gene  1 37 4 1.481909171914067 0 118.0 1.481909171914067 1
gene  2 37 12 -8.08262172952599 0 193.0 -8.08262172952599 1
gene  1 2 37 3.074300859550907 0 259.0 3.074300859550907 1
gene  1 1 134 -4.887106078850602 0 602.0 -4.887106078850602 1
gene  1 134 4 -0.7555514394995194 0 603.0 -0.7555514394995194 1
gene  1 134 12 2.188684144095048 0 640.0 2.188684144095048 1
gene  1 1 182 -2.1651280227496628 0 784.0 -2.1651280227496628 1
gene  1 182 12 -3.7107013316588726 0 785.0 -3.7107013316588726 1
gene  1 182 199 4.497070598064907 0 857.0 4.497070598064907 1
gene  1 199 12 0.7461111280290841 0 858.0 0.7461111280290841 1
gene  1 182 244 0.7716673561830059 0 1054.0 0.7716673561830059 1
gene  1 244 199 -4.602973533059062 0 1055.0 -4.602973533059062 1
genomeend 33
/* Organism # 034 Fitness:  7.335 Error:  1.292                      */
genomestart  34
trait 1 0.519277221665123 0.06792372724096563 0.0 0.4826060874653464 0.0 0.048750027671035825 0.001001516964367476 0.0 
trait 2 0.2 0.0 0.3346577519059606 0.0 0.0 0.0 0.9028370149050807 0.0 
trait 3 0.013246439942365629 0.0 0.0 0.0 0.0 0.10132158262737821 0.0865647617141137 0.07354908607405791 
node 1 1 1 1
node 2 3 1 1
node 3 1 1 3
node 4 3 0 2
node 12 1 0 0
node 37 1 0 0
node 134 1 0 0
node 182 1 0 0
node 199 1 0 0
node 244 1 0 0
node 285 1 0 0
gene  1 1 4 -4.227755668251959 0 1.0 -4.227755668251959 1
gene  2 2 4 3.7416104998624387 0 2.0 3.7416104998624387 1
gene  1 3 4 -1.9825014565515877 0 3.0 -1.9825014565515877 1
gene  1 1 12 -5.799777275756862 0 21.0 -5.799777275756862 1
gene  1 12 4 -6.207757002173107 0 22.0 -6.207757002173107 1
gene  3 2 12 1.6931890969206929 0 36.0 1.6931890969206929 1
gene  1 3 12 -2.67286400136588 0 86.0 -2.67286400136588 1
gene  3 1 37 0.662726750421168 0 117.0 0.662726750421168 1
gene  1 37 4 2.284660788333982 0 118.0 2.284660788333982 1
gene  2 37 12 -8.832248565366026 0 193.0 -8.832248565366026 1
gene  1 2 37 2.2677428896754783 0 259.0 2.2677428896754783 1
gene  1 1 134 -3.9495373552052735 0 602.0 -3.9495373552052735 1
gene  1 134 4 -0.5718164832213646 0 603.0 -0.5718164832213646 1
gene  1 134 12 -0.04977219541566297 0 640.0 -0.04977219541566297 1
gene  1 1 182 4.693300481364558 0 784.0 4.693300481364558 1
gene  1 182 12 -3.9105636044501972 0 785.0 -3.9105636044501972 1
gene  1 182 199 2.933140407106642 0 857.0 2.933140407106642 1
gene  1 199 12 -0.3925088801473836 0 858.0 -0.3925088801473836 1
gene  1 182 244 0.3140483941230468 0 1054.0 0.3140483941230468 1
gene  1 244 199 -3.367211572336765 0 1055.0 -3.367211572336765 0
gene  1 244 285 1.0 0 1245.0 0.0 1
gene  1 285 199 -3.367211572336765 0 1246.0 0.0 1
genomeend 34
/*-------------------------------------------------------------------*/
/* Species # 019         : (size= 006) (AvfFit= 6.500) (Age= 70.000)  */
/*-------------------------------------------------------------------*/
/* Organism # 035 Fitness:  9.000 Error:  1.000                      */
genomestart  35
trait 1 0.0853515625 0.13121731127016129 0.0 0.024130898090710368 0.0 0.0 0.0 0.0 
trait 2 0.7318291397837294 0.3245490479734989 0.030018305407581998 0.0522542106662498 0.0 0.0 0.0 0.0 
trait 3 0.3 0.019853236171330516 0.4501264478379223 0.0 0.0 0.6568022356739168 0.028566163676391813 0.41597304963488424 
node 1 3 1 1
node 2 2 1 1
node 3 1 1 3
node 4 1 0 2
node 7 1 0 0
node 37 1 0 0
node 187 1 0 0
node 233 1 0 0
gene  1 1 4 0.848269870997903 0 1.0 0.848269870997903 0
gene  2 2 4 -6.77270328343101 0 2.0 -6.77270328343101 1
gene  3 3 4 -9.542779834391235 0 3.0 -9.542779834391235 1
gene  1 1 7 14.124738686781264 0 8.0 14.124738686781264 1
gene  3 7 4 17.80726861298264 0 9.0 17.80726861298264 1
gene  1 2 7 -13.64190415248212 0 12.0 -13.64190415248212 1
gene  2 3 7 -9.798946107767351 0 64.0 -9.798946107767351 1
gene  1 1 37 -3.4804994876156057 0 117.0 -3.4804994876156057 0
gene  1 37 4 -0.039362796476801465 0 118.0 -0.039362796476801465 1
gene  3 7 37 -1.3231667211440843 0 155.0 -1.3231667211440843 1
gene  3 3 37 2.1286577551756527 0 167.0 2.1286577551756527 1
gene  2 2 37 -3.096749364139804 0 222.0 -3.096749364139804 1
gene  3 1 187 -2.9323285772655074 0 807.0 -2.9323285772655074 1
gene  1 187 4 3.169946320561804 0 808.0 3.169946320561804 1
gene  2 7 187 4.979564196581772 0 935.0 4.979564196581772 1
gene  2 1 233 2.4780661119445457 0 1004.0 2.4780661119445457 1
gene  1 233 37 -2.040901456021137 0 1005.0 -2.040901456021137 1
gene  3 2 233 -5.406828803197934 0 1039.0 -5.406828803197934 1
gene  2 187 37 4.951519802625384 0 1096.0 4.951519802625384 1
genomeend 35
/* Organism # 036 Fitness:  9.000 Error:  1.000                      */
genomestart  36
trait 1 0.0853515625 0.13121731127016129 0.0 0.024130898090710368 0.0 0.0 0.0 0.0 
trait 2 0.7318291397837294 0.3245490479734989 0.030018305407581998 0.0522542106662498 0.0 0.0 0.0 0.0 
trait 3 0.3 0.019853236171330516 0.4501264478379223 0.0 0.0 0.6568022356739168 0.028566163676391813 0.41597304963488424 
node 1 3 1 1
node 2 2 1 1
node 3 1 1 3
node 4 1 0 2
node 7 1 0 0
node 37 1 0 0
node 187 1 0 0
node 233 1 0 0
gene  1 1 4 2.1474219810039425 0 1.0 2.1474219810039425 0
gene  2 2 4 -7.080400679349618 0 2.0 -7.080400679349618 1
gene  3 3 4 -10.793262181614711 0 3.0 -10.793262181614711 1
gene  1 1 7 16.20310128071469 0 8.0 16.20310128071469 1
gene  3 7 4 16.932470017683638 0 9.0 16.932470017683638 1
gene  1 2 7 -16.116194433008324 0 12.0 -16.116194433008324 1
gene  2 3 7 -8.448407110557959 0 64.0 -8.448407110557959 1
gene  1 1 37 -2.242204850241803 0 117.0 -2.242204850241803 0
gene  1 37 4 -0.6995377942244618 0 118.0 -0.6995377942244618 1
gene  3 7 37 -0.48254858234573794 0 155.0 -0.48254858234573794 1
gene  3 3 37 0.8655481777567271 0 167.0 0.8655481777567271 1
gene  2 2 37 -2.227056936438747 0 222.0 -2.227056936438747 1
gene  3 1 187 -2.288375637844599 0 807.0 -2.288375637844599 1
gene  1 187 4 3.221945776909928 0 808.0 3.221945776909928 1
gene  2 7 187 3.5047763772296934 0 935.0 3.5047763772296934 1
gene  2 1 233 0.11023626406309939 0 1004.0 0.11023626406309939 1
gene  1 233 37 -1.3139088885485735 0 1005.0 -1.3139088885485735 1
gene  3 2 233 -4.936345961237778 0 1039.0 -4.936345961237778 1
gene  2 187 37 4.951519802625384 0 1096.0 4.951519802625384 1
genomeend 36
/* Organism # 037 Fitness:  4.000 Error:  2.000                      */
genomestart  37
trait 1 0.0853515625 0.13121731127016129 0.0 0.024130898090710368 0.0 0.0 0.0 0.0 
trait 2 0.7318291397837294 0.3245490479734989 0.030018305407581998 0.0522542106662498 0.0 0.0 0.0 0.0 
trait 3 0.3 0.019853236171330516 0.4501264478379223 0.0 0.0 0.6568022356739168 0.028566163676391813 0.41597304963488424 
node 1 3 1 1
node 2 2 1 1
node 3 1 1 3
node 4 1 0 2
node 7 1 0 0
node 37 1 0 0
node 187 1 0 0
node 233 1 0 0
gene  1 1 4 1.6895959814733348 0 1.0 1.6895959814733348 0
gene  2 2 4 -4.3216762456375 0 2.0 -4.3216762456375 1
gene  3 3 4 1.122051818102769 0 3.0 1.122051818102769 1
gene  1 1 7 10.887356212826253 0 8.0 10.887356212826253 1
gene  3 7 4 17.218143652128678 0 9.0 17.218143652128678 1
gene  1 2 7 -12.533978090461167 0 12.0 -12.533978090461167 1
gene  2 3 7 -1.044912719258453 0 64.0 -1.044912719258453 1
gene  1 1 37 0.7756643955473121 0 117.0 0.7756643955473121 0
gene  1 37 4 1.766545721544166 0 118.0 1.766545721544166 1
gene  3 7 37 -2.1511979855482584 0 155.0 -2.1511979855482584 1
gene  3 3 37 5.0905181836920175 0 167.0 5.0905181836920175 1
gene  2 2 37 -1.6274961037389826 0 222.0 -1.6274961037389826 1
gene  3 1 187 -2.590763861815593 0 807.0 -2.590763861815593 1
gene  1 187 4 -0.09810801638191563 0 808.0 -0.09810801638191563 1
gene  2 7 187 6.651785031083149 0 935.0 6.651785031083149 1
gene  2 1 233 0.12989513022598764 0 1004.0 0.12989513022598764 1
gene  1 233 37 -3.227184219966198 0 1005.0 -3.227184219966198 1
gene  3 2 233 1.3300696639281875 0 1039.0 1.3300696639281875 1
gene  2 187 37 -0.002289115542282172 0 1096.0 -0.002289115542282172 1
genomeend 37
/* Organism # 038 Fitness:  9.000 Error:  1.000                      */
genomestart  38
trait 1 0.0853515625 0.13121731127016129 0.0 0.024130898090710368 0.0 0.0 0.0 0.0 
trait 2 0.7318291397837294 0.3245490479734989 0.030018305407581998 0.0522542106662498 0.0 0.0 0.0 0.0 
trait 3 0.3 0.019853236171330516 0.4501264478379223 0.0 0.0 0.6568022356739168 0.028566163676391813 0.41597304963488424 
node 1 3 1 1
node 2 2 1 1
node 3 1 1 3
node 4 1 0 2
node 7 1 0 0
node 37 1 0 0
node 187 1 0 0
node 233 1 0 0
gene  1 1 4 2.6692853900044593 0 1.0 2.6692853900044593 0
gene  2 2 4 -8.418528314331422 0 2.0 -8.418528314331422 1
gene  3 3 4 -10.479352561999963 0 3.0 -10.479352561999963 1
gene  1 1 7 13.100519994940205 0 8.0 13.100519994940205 1
gene  3 7 4 15.724185304930536 0 9.0 15.724185304930536 1
gene  1 2 7 -13.674781149692427 0 12.0 -13.674781149692427 1
gene  2 3 7 -8.51843840272403 0 64.0 -8.51843840272403 1
gene  1 1 37 -1.8448415554155382 0 117.0 -1.8448415554155382 0
gene  1 37 4 2.678047082697942 0 118.0 2.678047082697942 1
gene  3 7 37 -2.3182623779722062 0 155.0 -2.3182623779722062 1
gene  3 3 37 4.532297277585042 0 167.0 4.532297277585042 1
gene  2 2 37 -0.2731226381167251 0 222.0 -0.2731226381167251 1
gene  3 1 187 -0.8388634341302648 0 807.0 -0.8388634341302648 1
gene  1 187 4 2.6830011238521285 0 808.0 2.6830011238521285 1
gene  2 7 187 4.579804990829197 0 935.0 4.579804990829197 1
gene  2 1 233 3.3448467556408126 0 1004.0 3.3448467556408126 1
gene  1 233 37 -3.857615848344272 0 1005.0 -3.857615848344272 1
gene  3 2 233 0.6922883725092577 0 1039.0 0.6922883725092577 1
gene  2 187 37 0.5037270785381585 0 1096.0 0.5037270785381585 1
genomeend 38
/* Organism # 039 Fitness:  4.000 Error:  2.000                      */
genomestart  39
trait 1 0.0853515625 0.13121731127016129 0.0 0.024130898090710368 0.0 0.0 0.0 0.0 
trait 2 0.7318291397837294 0.3245490479734989 0.030018305407581998 0.0522542106662498 0.0 0.0 0.0 0.0 
trait 3 0.3 0.019853236171330516 0.4501264478379223 0.0 0.0 0.6568022356739168 0.028566163676391813 0.41597304963488424 
node 1 3 1 1
node 2 2 1 1
node 3 1 1 3
node 4 1 0 2
node 7 1 0 0
node 37 1 0 0
node 187 1 0 0
node 233 1 0 0
gene  1 1 4 -1.8224466215550859 0 1.0 -1.8224466215550859 0
gene  2 2 4 -0.5083013312351723 0 2.0 -0.5083013312351723 1
gene  3 3 4 2.4654099408862065 0 3.0 2.4654099408862065 1
gene  1 1 7 14.138217314952726 0 8.0 14.138217314952726 1
gene  3 7 4 16.391294386298977 0 9.0 16.391294386298977 1
gene  1 2 7 -14.138577535093805 0 12.0 -14.138577535093805 1
gene  2 3 7 1.762843941501412 0 64.0 1.762843941501412 1
gene  1 1 37 -4.3112680393245055 0 117.0 -4.3112680393245055 0
gene  1 37 4 -1.1599234087452104 0 118.0 -1.1599234087452104 1
gene  3 7 37 -1.3231667211440843 0 155.0 -1.3231667211440843 1
gene  3 3 37 0.9657740706474369 0 167.0 0.9657740706474369 1
gene  2 2 37 -3.096749364139804 0 222.0 -3.096749364139804 1
gene  3 1 187 -1.0112054495642953 0 807.0 -1.0112054495642953 1
gene  1 187 4 3.034840100181692 0 808.0 3.034840100181692 1
gene  2 7 187 3.1935071126907926 0 935.0 3.1935071126907926 1
gene  2 1 233 0.14563588328927596 0 1004.0 0.14563588328927596 1
gene  1 233 37 -3.2122903280530797 0 1005.0 -3.2122903280530797 1
gene  3 2 233 -7.707017559546481 0 1039.0 -7.707017559546481 1
gene  2 187 37 5.658004646283301 0 1096.0 5.658004646283301 1
genomeend 39
/* Organism # 040 Fitness:  4.000 Error:  2.000                      */
genomestart  40
trait 1 0.0853515625 0.13121731127016129 0.0 0.024130898090710368 0.0 0.0 0.0 0.0 
trait 2 0.7318291397837294 0.3245490479734989 0.030018305407581998 0.0522542106662498 0.0 0.0 0.0 0.0 
trait 3 0.3 0.019853236171330516 0.4501264478379223 0.0 0.0 0.6568022356739168 0.028566163676391813 0.41597304963488424 
node 1 3 1 1
node 2 2 1 1
node 3 1 1 3
node 4 1 0 2
node 7 1 0 0
node 37 3 0 0
node 187 1 0 0
node 233 1 0 0
gene  1 1 4 3.5763447222343046 0 1.0 3.5763447222343046 0
gene  2 2 4 -1.6916244623157746 0 2.0 -1.6916244623157746 1
gene  3 3 4 -11.637678480111187 0 3.0 -11.637678480111187 1
gene  1 1 7 13.396772585065403 0 8.0 13.396772585065403 1
gene  3 7 4 1.9541695016448133 0 9.0 1.9541695016448133 1
gene  1 2 7 -13.159463003993892 0 12.0 -13.159463003993892 1
gene  2 3 7 -9.754345549530287 0 64.0 -9.754345549530287 1
gene  1 1 37 -3.038586967314188 0 117.0 -3.038586967314188 0
gene  1 37 4 -0.42509870210648804 0 118.0 -0.42509870210648804 1
gene  3 7 37 -5.825781862988692 0 155.0 -5.825781862988692 1
gene  3 3 37 4.162028692787506 0 167.0 4.162028692787506 1
gene  2 2 37 -1.5279723222207577 0 222.0 -1.5279723222207577 1
gene  3 1 187 -2.5035187662171046 0 807.0 -2.5035187662171046 1
gene  1 187 4 -1.5025436497988842 0 808.0 -1.5025436497988842 1
gene  2 7 187 4.246572876496684 0 935.0 4.246572876496684 1
gene  2 1 233 -2.1015650189700548 0 1004.0 -2.1015650189700548 1
gene  1 233 37 -3.693791622777621 0 1005.0 -3.693791622777621 1
gene  3 2 233 2.4730549499026973 0 1039.0 2.4730549499026973 1
gene  2 187 37 2.390294649546034 0 1096.0 2.390294649546034 1
genomeend 40
/*-------------------------------------------------------------------*/
/* Species # 020         : (size= 002) (AvfFit= 3.672) (Age= 70.000)  */
/*-------------------------------------------------------------------*/
/* Organism # 041 Fitness:  5.255 Error:  1.708                      */
genomestart  41
trait 1 0.0 0.0 0.6536075785242846 0.0 0.21921345241673862 0.3767750124268312 0.21888240485455865 0.0 
trait 2 0.2 0.002513616858402405 0.0 0.0020379583673929284 0.0 0.0 0.0 0.012330498128105372 
trait 3 0.0 0.053450502245217954 0.6682116519813847 0.031885967900551634 0.0 0.06142622453377622 0.0 0.05876470826442323 
node 1 2 1 1
node 2 1 1 1
node 3 3 1 3
node 4 1 0 2
gene  1 1 4 0.24476868291778908 0 1.0 0.24476868291778908 1
gene  2 2 4 -2.260622921503312 0 2.0 -2.260622921503312 1
gene  1 3 4 -0.13350172168953156 0 3.0 -0.13350172168953156 1
genomeend 41
/* Organism # 042 Fitness:  2.088 Error:  2.555                      */
genomestart  42
trait 1 0.0 0.0 0.6536075785242846 0.0 0.21921345241673862 0.3767750124268312 0.21888240485455865 0.0 
trait 2 0.2 0.002513616858402405 0.0 0.0020379583673929284 0.0 0.0 0.0 0.012330498128105372 
trait 3 0.0 0.053450502245217954 0.6682116519813847 0.11210614037246756 0.0 0.0 0.0 0.05876470826442323 
node 1 2 1 1
node 2 1 1 1
node 3 2 1 3
node 4 1 0 2
gene  1 1 4 -1.0679531177327501 0 1.0 -1.0679531177327501 1
gene  2 2 4 -0.6599400773106741 0 2.0 -0.6599400773106741 1
gene  1 3 4 0.4987024472935353 0 3.0 0.4987024472935353 1
genomeend 42
/*-------------------------------------------------------------------*/
/* Species # 023         : (size= 003) (AvfFit= 6.863) (Age= 68.000)  */
/*-------------------------------------------------------------------*/
/* Organism # 043 Fitness:  8.294 Error:  1.120                      */
genomestart  43
trait 1 0.6244092353419322 0.18676597304119621 0.0 0.0 0.0 0.0 0.0 1.0859980841985493 
trait 2 0.2325853718784447 0.0 0.6386640856000645 0.2403165933703809 0.4692449137731377 0.0 0.0 0.9744350084943001 
trait 3 0.3 0.1307004714612592 0.1743136734274307 0.0 0.0 0.6874777039807156 0.1880605775362461 0.0 
node 1 3 1 1
node 2 1 1 1
node 3 3 1 3
node 4 3 0 2
node 7 2 0 0
node 36 3 0 0
node 176 1 0 0
gene  3 1 4 8.892886997193148 0 1.0 8.892886997193148 1
gene  2 2 4 -4.764452233203712 0 2.0 -4.764452233203712 1
gene  3 3 4 -4.589366642296886 0 3.0 -4.589366642296886 1
gene  1 1 7 -1.9816315413073702 0 8.0 -1.9816315413073702 1
gene  1 7 4 3.562603327574071 0 9.0 3.562603327574071 1
gene  2 2 7 2.658658465722576 0 12.0 2.658658465722576 1
gene  2 3 7 7.935126358649736 0 64.0 7.935126358649736 1
gene  2 2 36 0.9877662300092711 0 114.0 0.9877662300092711 1
gene  2 36 4 -10.33751123799284 0 115.0 -10.33751123799284 1
gene  3 36 7 0.7063642438956572 0 133.0 0.7063642438956572 1
gene  2 3 36 -0.9843344890968609 0 200.0 -0.9843344890968609 1
gene  1 1 36 -0.2691369074499581 0 252.0 -0.2691369074499581 1
gene  1 1 176 -1.1582129674013304 0 764.0 -1.1582129674013304 1
gene  1 176 4 -1.3094493763490935 0 765.0 -1.3094493763490935 1
gene  2 7 176 3.1547307857226254 0 865.0 3.1547307857226254 1
gene  1 36 176 -3.120478246529286 0 890.0 -3.120478246529286 1
gene  2 2 176 -1.7478244859257859 0 1046.0 -1.7478244859257859 1
gene  2 3 176 1.6702616425350914 0 1250.0 1.6702616425350914 1
genomeend 43
/* Organism # 044 Fitness:  4.000 Error:  2.000                      */
genomestart  44
trait 1 0.6244092353419322 0.18676597304119621 0.0 0.0 0.0 0.0 0.0 1.0859980841985493 
trait 2 0.2325853718784447 0.0 0.6386640856000645 0.2403165933703809 0.4692449137731377 0.0 0.0 0.9744350084943001 
trait 3 0.3 0.1307004714612592 0.1743136734274307 0.0 0.0 0.6874777039807156 0.1880605775362461 0.0 
node 1 3 1 1
node 2 1 1 1
node 3 3 1 3
node 4 3 0 2
node 7 2 0 0
node 36 3 0 0
node 176 1 0 0
gene  3 1 4 -0.061736270169707175 0 1.0 -0.061736270169707175 1
gene  2 2 4 -0.9684267486083681 0 2.0 -0.9684267486083681 1
gene  3 3 4 -6.675996291326669 0 3.0 -6.675996291326669 1
gene  1 1 7 -2.9598265371930967 0 8.0 -2.9598265371930967 1
gene  1 7 4 0.14818847235426535 0 9.0 0.14818847235426535 1
gene  2 2 7 3.6651181898993244 0 12.0 3.6651181898993244 1
gene  2 3 7 9.829326092209953 0 64.0 9.829326092209953 1
gene  2 2 36 1.5507413970262887 0 114.0 1.5507413970262887 1
gene  2 36 4 -11.595408533322345 0 115.0 -11.595408533322345 1
gene  3 36 7 0.7063642438956572 0 133.0 0.7063642438956572 1
gene  2 3 36 -1.9885663372119367 0 200.0 -1.9885663372119367 1
gene  1 1 36 -1.6205551504463134 0 252.0 -1.6205551504463134 1
gene  1 1 176 -1.653918756914583 0 764.0 -1.653918756914583 1
gene  1 176 4 1.2132211892661595 0 765.0 1.2132211892661595 1
gene  2 7 176 1.7894054723346784 0 865.0 1.7894054723346784 1
gene  1 36 176 1.1483613626152056 0 890.0 1.1483613626152056 1
gene  2 2 176 1.7994267364851368 0 1046.0 1.7994267364851368 1
genomeend 44
/* Organism # 045 Fitness:  8.294 Error:  1.120                      */
genomestart  45
trait 1 0.6244092353419322 0.18676597304119621 0.0 0.0 0.0 0.0 0.0 1.0859980841985493 
trait 2 0.2325853718784447 0.0 0.6386640856000645 0.2403165933703809 0.4692449137731377 0.0 0.0 0.9744350084943001 
trait 3 0.3 0.1307004714612592 0.1743136734274307 0.0 0.0 0.6874777039807156 0.1880605775362461 0.0 
node 1 3 1 1
node 2 1 1 1
node 3 3 1 3
node 4 3 0 2
node 7 2 0 0
node 36 3 0 0
node 176 1 0 0
gene  3 1 4 8.892886997193148 0 1.0 8.892886997193148 1
gene  2 2 4 -4.764452233203712 0 2.0 -4.764452233203712 1
gene  3 3 4 -4.589366642296886 0 3.0 -4.589366642296886 1
gene  1 1 7 -1.9816315413073702 0 8.0 -1.9816315413073702 1
gene  1 7 4 3.562603327574071 0 9.0 3.562603327574071 1
gene  2 2 7 2.658658465722576 0 12.0 2.658658465722576 1
gene  2 3 7 7.935126358649736 0 64.0 7.935126358649736 1
gene  2 2 36 0.9877662300092711 0 114.0 0.9877662300092711 1
gene  2 36 4 -10.33751123799284 0 115.0 -10.33751123799284 1
gene  3 36 7 0.7063642438956572 0 133.0 0.7063642438956572 1
gene  2 3 36 -0.9843344890968609 0 200.0 -0.9843344890968609 1
gene  1 1 36 -0.2691369074499581 0 252.0 -0.2691369074499581 1
gene  1 1 176 -1.1582129674013304 0 764.0 -1.1582129674013304 1
gene  1 176 4 -1.3094493763490935 0 765.0 -1.3094493763490935 1
gene  2 7 176 3.1547307857226254 0 865.0 3.1547307857226254 1
gene  1 36 176 -3.120478246529286 0 890.0 -3.120478246529286 1
gene  2 2 176 -1.7478244859257859 0 1046.0 -1.7478244859257859 1
gene  2 3 176 1.6702616425350914 0 1250.0 0.0 1
genomeend 45
/*-------------------------------------------------------------------*/
/* Species # 024         : (size= 002) (AvfFit= 4.000) (Age= 68.000)  */
/*-------------------------------------------------------------------*/
/* Organism # 046 Fitness:  4.001 Error:  2.000                      */
genomestart  46
trait 1 0.0 0.13764510123049556 0.0 0.0 0.8993233153112952 0.0 0.0 0.0 
trait 2 0.2 0.0 0.0 0.0 0.0 0.0 0.0 0.0 
trait 3 1.3505198581871123 0.5093048365791336 0.0 1.287597727711835 0.0 0.4995220146378667 0.0 0.9682790447428333 
node 1 1 1 1
node 2 3 1 1
node 3 1 1 3
node 4 1 0 2
node 27 1 0 0
node 43 1 0 0
gene  1 1 4 -3.8705710994242413 0 1.0 -3.8705710994242413 1
gene  2 2 4 1.266613681810021 0 2.0 1.266613681810021 1
gene  3 3 4 1.5290380097180445 0 3.0 1.5290380097180445 1
gene  1 1 27 2.3717625810725673 0 80.0 2.3717625810725673 1
gene  3 27 4 9.569070117128923 0 81.0 9.569070117128923 1
gene  2 3 27 -0.7008998002169344 0 109.0 -0.7008998002169344 1
gene  2 2 27 -0.9057439141117383 0 113.0 -0.9057439141117383 1
gene  2 2 43 0.6462758617680551 0 157.0 0.6462758617680551 1
gene  3 43 4 0.43137910841736593 0 158.0 0.43137910841736593 1
gene  3 3 43 -2.75096361688747 0 215.0 -2.75096361688747 1
gene  1 1 43 -3.872698471784384 0 272.0 -3.872698471784384 1
gene  2 27 43 -0.8336925212509314 0 290.0 -0.8336925212509314 1
genomeend 46
/* Organism # 047 Fitness:  4.000 Error:  2.000                      */
genomestart  47
trait 1 0.0 0.13764510123049556 0.0 0.0 0.8993233153112952 0.0 0.0 0.0 
trait 2 0.2 0.0 0.0 0.0 0.0 0.0 0.0 0.0 
trait 3 1.3505198581871123 0.5093048365791336 0.0 1.287597727711835 0.0 0.4995220146378667 0.0 0.9682790447428333 
node 1 1 1 1
node 2 2 1 1
node 3 1 1 3
node 4 1 0 2
node 27 1 0 0
node 43 1 0 0
gene  1 1 4 -3.6471353969406106 0 1.0 -3.6471353969406106 1
gene  2 2 4 3.7564132512706587 0 2.0 3.7564132512706587 1
gene  3 3 4 2.235137341802331 0 3.0 2.235137341802331 1
gene  1 1 27 0.8332293824251404 0 80.0 0.8332293824251404 1
gene  3 27 4 7.842029997273975 0 81.0 7.842029997273975 1
gene  2 3 27 0.7910138246809773 0 109.0 0.7910138246809773 1
gene  2 2 27 -2.1960144214117134 0 113.0 -2.1960144214117134 1
gene  2 2 43 2.444275155183538 0 157.0 2.444275155183538 1
gene  3 43 4 -0.5979852258224874 0 158.0 -0.5979852258224874 1
gene  3 3 43 -2.2507834085599336 0 215.0 -2.2507834085599336 1
gene  1 1 43 -1.6910196644911848 0 272.0 -1.6910196644911848 1
gene  2 27 43 -3.0148278672602498 0 290.0 -3.0148278672602498 1
genomeend 47
/*-------------------------------------------------------------------*/
/* Species # 025         : (size= 004) (AvfFit= 7.750) (Age= 68.000)  */
/*-------------------------------------------------------------------*/
/* Organism # 048 Fitness:  9.000 Error:  1.000                      */
genomestart  48
trait 1 0.8840272959659129 0.0 1.3579290274037175 0.5630203448559242 0.0 0.0 0.3000611335896256 0.6034990602745626 
trait 2 0.0 0.0 0.0 0.0 0.0 0.0 0.0 0.8880042084017186 
trait 3 0.33279162840142523 0.03391845409271829 0.0 0.020234098708277533 0.0 0.0 0.0 0.037290726481754424 
node 1 1 1 1
node 2 1 1 1
node 3 2 1 3
node 4 1 0 2
node 44 1 0 0
gene  1 1 4 -0.2783775976374032 0 1.0 -0.2783775976374032 0
gene  2 2 4 -10.849405061350744 0 2.0 -10.849405061350744 1
gene  2 3 4 -16.78811158669051 0 3.0 -16.78811158669051 1
gene  3 1 44 11.537014522097055 0 160.0 11.537014522097055 1
gene  3 44 4 26.32453670959042 0 161.0 26.32453670959042 1
gene  2 3 44 -6.940708073130573 0 179.0 -6.940708073130573 1
gene  1 2 44 -18.112061190922525 0 472.0 -18.112061190922525 1
genomeend 48
/* Organism # 049 Fitness:  4.000 Error:  2.000                      */
genomestart  49
trait 1 0.8840272959659129 0.0 1.3579290274037175 0.5630203448559242 0.0 0.0 0.3000611335896256 0.6034990602745626 
trait 2 0.0 0.0 0.0 0.0 0.0 0.0 0.0 0.8880042084017186 
trait 3 0.33279162840142523 0.03391845409271829 0.0 0.020234098708277533 0.0 0.0 0.0 0.037290726481754424 
node 1 1 1 1
node 2 1 1 1
node 3 2 1 3
node 4 1 0 2
node 44 1 0 0
gene  1 1 4 1.584120699493432 0 1.0 1.584120699493432 0
gene  2 2 4 -8.455741692009436 0 2.0 -8.455741692009436 1
gene  2 3 4 -13.490161433054661 0 3.0 -13.490161433054661 1
gene  3 1 44 14.507749509017835 0 160.0 14.507749509017835 1
gene  3 44 4 26.173472400940227 0 161.0 26.173472400940227 1
gene  3 3 44 -9.287358848893856 0 179.0 -9.287358848893856 1
gene  1 2 44 -0.003625857087973805 0 472.0 -0.003625857087973805 1
genomeend 49
/* Organism # 050 Fitness:  9.000 Error:  1.000                      */
genomestart  50
trait 1 0.8840272959659129 0.0 1.3579290274037175 0.5630203448559242 0.0 0.0 0.3000611335896256 0.6034990602745626 
trait 2 0.0 0.0 0.0 0.0 0.0 0.0 0.0 0.8880042084017186 
trait 3 0.33279162840142523 0.03391845409271829 0.0 0.020234098708277533 0.0 0.0 0.0 0.037290726481754424 
node 1 1 1 1
node 2 2 1 1
node 3 2 1 3
node 4 1 0 2
node 44 1 0 0
gene  1 1 4 1.6637689867697114 0 1.0 1.6637689867697114 0
gene  2 2 4 -10.816478232036605 0 2.0 -10.816478232036605 1
gene  2 3 4 -14.34295138830084 0 3.0 -14.34295138830084 1
gene  3 1 44 12.598701342478943 0 160.0 12.598701342478943 1
gene  3 44 4 25.72759843643119 0 161.0 25.72759843643119 1
gene  3 3 44 -6.661585032269516 0 179.0 -6.661585032269516 1
gene  1 2 44 -21.403952638927898 0 472.0 -21.403952638927898 1
genomeend 50
/* Organism # 051 Fitness:  9.000 Error:  1.000                      */
genomestart  51
trait 1 0.8840272959659129 0.0 1.3579290274037175 0.5630203448559242 0.0 0.0 0.3000611335896256 0.6034990602745626 
trait 2 0.0 0.0 0.0 0.0 0.0 0.0 0.0 0.8880042084017186 
trait 3 0.33279162840142523 0.03391845409271829 0.0 0.020234098708277533 0.0 0.0 0.0 0.037290726481754424 
node 1 1 1 1
node 2 1 1 1
node 3 2 1 3
node 4 1 0 2
node 44 1 0 0
gene  1 1 4 1.8890739330848145 0 1.0 1.8890739330848145 0
gene  2 2 4 -10.126227889218256 0 2.0 -10.126227889218256 1
gene  2 3 4 -16.118518473843416 0 3.0 -16.118518473843416 1
gene  3 1 44 11.975668236885701 0 160.0 11.975668236885701 1
gene  3 44 4 27.874001599411134 0 161.0 27.874001599411134 1
gene  3 3 44 -7.344540976542908 0 179.0 -7.344540976542908 1
gene  1 2 44 -19.909427291425917 0 472.0 -19.909427291425917 1
genomeend 51
/*-------------------------------------------------------------------*/
/* Species # 026         : (size= 002) (AvfFit= 4.000) (Age= 67.000)  */
/*-------------------------------------------------------------------*/
/* Organism # 052 Fitness:  4.000 Error:  2.000                      */
genomestart  52
trait 1 0.0 0.4164991608900766 0.0 0.024130898090710368 0.0 0.0 0.0 0.0 
trait 2 0.24344716250459295 0.0 0.0 0.5136909437064322 0.0 0.23038413510262534 0.0 0.0 
trait 3 0.3 0.019853236171330516 0.4501264478379223 0.0 0.0 0.6568022356739168 0.028566163676391813 0.41597304963488424 
node 1 3 1 1
node 2 2 1 1
node 3 1 1 3
node 4 1 0 2
node 7 1 0 0
node 37 3 0 0
node 81 3 0 0
node 190 3 0 0
node 241 1 0 0
node 245 1 0 0
gene  1 1 4 -0.2522944564126237 0 1.0 -0.2522944564126237 1
gene  2 2 4 2.3489020540283723 0 2.0 2.3489020540283723 1
gene  1 3 4 -8.983395733955184 0 3.0 -8.983395733955184 1
gene  2 1 7 -0.9631773608272356 0 8.0 -0.9631773608272356 1
gene  1 7 4 0.8890393422487822 0 9.0 0.8890393422487822 1
gene  2 2 7 -3.6675239342981447 0 12.0 -3.6675239342981447 1
gene  2 1 37 8.610137307599803 0 117.0 8.610137307599803 0
gene  1 37 4 -2.8569917817088153 0 118.0 -2.8569917817088153 1
gene  2 3 37 1.321636220863585 0 190.0 1.321636220863585 1
gene  3 7 37 0.6137728840206962 0 250.0 0.6137728840206962 1
gene  1 1 81 9.90431621499105 0 354.0 9.90431621499105 1
gene  1 81 4 -6.406190489308356 0 355.0 -6.406190489308356 1
gene  2 3 7 1.1912990323498782 0 377.0 1.1912990323498782 1
gene  3 2 37 0.7107841727001494 0 407.0 0.7107841727001494 1
gene  2 37 81 0.8123575048272815 0 531.0 0.8123575048272815 1
gene  2 7 81 -2.2004964054016347 0 721.0 -2.2004964054016347 1
gene  3 1 190 -0.529983058689514 0 819.0 -0.529983058689514 1
gene  1 190 81 3.3215849203097614 0 820.0 3.3215849203097614 1
gene  2 7 190 0.3032258766180802 0 968.0 0.3032258766180802 1
gene  3 2 81 -2.8784432835460665 0 1023.0 -2.8784432835460665 1
gene  1 1 241 -3.6098286151407026 0 1040.0 -3.6098286151407026 1
gene  1 241 37 1.547888138267778 0 1041.0 1.547888138267778 1
gene  1 190 245 4.048526872761301 0 1060.0 4.048526872761301 1
gene  1 245 81 -0.7444225862099224 0 1061.0 -0.7444225862099224 1
gene  2 2 190 -0.4626572528444779 0 1190.0 -0.4626572528444779 1
genomeend 52
/* Organism # 053 Fitness:  4.000 Error:  2.000                      */
genomestart  53
trait 1 0.0 0.4164991608900766 0.0 0.024130898090710368 0.0 0.0 0.0 0.0 
trait 2 0.24344716250459295 0.0 0.0 0.5136909437064322 0.0 0.23038413510262534 0.0 0.0 
trait 3 0.3 0.019853236171330516 0.4501264478379223 0.0 0.0 0.6568022356739168 0.028566163676391813 0.41597304963488424 
node 1 3 1 1
node 2 2 1 1
node 3 1 1 3
node 4 1 0 2
node 7 1 0 0
node 37 3 0 0
node 81 3 0 0
node 190 3 0 0
node 241 1 0 0
node 245 1 0 0
gene  1 1 4 -1.8798076192036268 0 1.0 -1.8798076192036268 1
gene  2 2 4 -0.4591546944934519 0 2.0 -0.4591546944934519 1
gene  1 3 4 -7.242724047702122 0 3.0 -7.242724047702122 1
gene  2 1 7 3.6799121053117503 0 8.0 3.6799121053117503 1
gene  1 7 4 -1.1057687352027092 0 9.0 -1.1057687352027092 1
gene  2 2 7 -2.8946136855107847 0 12.0 -2.8946136855107847 1
gene  2 1 37 11.77329063222825 0 117.0 11.77329063222825 1
gene  1 37 4 -7.596524031549836 0 118.0 -7.596524031549836 1
gene  2 3 37 0.894944791935548 0 190.0 0.894944791935548 1
gene  3 7 37 -2.289489027661398 0 250.0 -2.289489027661398 1
gene  1 1 81 7.045318054198921 0 354.0 7.045318054198921 1
gene  1 81 4 -5.853626142071326 0 355.0 -5.853626142071326 1
gene  2 3 7 -4.327391567682822 0 377.0 -4.327391567682822 1
gene  3 2 37 1.3196609292456947 0 407.0 1.3196609292456947 1
gene  2 37 81 -3.194801889156792 0 531.0 -3.194801889156792 1
gene  2 7 81 -4.302163353570327 0 721.0 -4.302163353570327 1
gene  3 1 190 5.851604823229503 0 819.0 5.851604823229503 1
gene  1 190 81 5.128880344354839 0 820.0 5.128880344354839 1
gene  2 7 190 -4.3885541082153665 0 968.0 -4.3885541082153665 1
gene  3 2 81 -3.094352568846208 0 1023.0 -3.094352568846208 1
gene  1 1 241 -2.3560973849565903 0 1040.0 -2.3560973849565903 1
gene  1 241 37 1.3437919837963923 0 1041.0 1.3437919837963923 1
gene  1 190 245 6.071832513197472 0 1060.0 6.071832513197472 1
gene  1 245 81 -0.6436000481660099 0 1061.0 -0.6436000481660099 1
gene  2 2 190 1.2383716331258006 0 1190.0 1.2383716331258006 1
genomeend 53
/*-------------------------------------------------------------------*/
/* Species # 027         : (size= 004) (AvfFit= 7.679) (Age= 66.000)  */
/*-------------------------------------------------------------------*/
/* Organism # 054 Fitness:  9.000 Error:  1.000                      */
genomestart  54
trait 1 0.08750000000000001 0.11197210561720429 0.0 1.0141595981327862 0.0 0.0 0.0 0.0 
trait 2 0.2 0.0 0.0 0.0 0.0 0.0 0.0 0.0 
trait 3 0.07049991630648073 0.0 0.5648645619926869 0.0 0.0 1.3869948938207721 0.0 0.5027773052376283 
node 1 2 1 1
node 2 3 1 1
node 3 2 1 3
node 4 1 0 2
node 7 1 0 0
node 44 1 0 0
node 270 1 0 0
gene  2 1 4 6.305869206765418 0 1.0 6.305869206765418 0
gene  2 2 4 3.3721667596928215 0 2.0 3.3721667596928215 1
gene  2 3 4 -1.331301260254524 0 3.0 -1.331301260254524 1
gene  1 1 7 1.2993974798984398 0 8.0 1.2993974798984398 1
gene  1 7 4 -1.0514054647745918 0 9.0 -1.0514054647745918 1
gene  2 2 7 0.01574898416230691 0 12.0 0.01574898416230691 1
gene  1 1 44 -4.7274116302692475 0 160.0 -4.7274116302692475 1
gene  1 44 4 -3.5128862484562404 0 161.0 -3.5128862484562404 1
gene  1 2 44 -5.290851848198817 0 183.0 -5.290851848198817 1
gene  3 44 7 -3.160999832839948 0 367.0 -3.160999832839948 1
gene  1 3 44 1.8893681651443366 0 794.0 1.8893681651443366 1
gene  2 1 270 2.7339933569795156 0 1187.0 2.7339933569795156 1
gene  3 270 4 4.485428905086561 0 1188.0 4.485428905086561 1
gene  3 270 7 -2.709512426684433 0 1223.0 -2.709512426684433 1
genomeend 54
/* Organism # 055 Fitness:  3.795 Error:  2.052                      */
genomestart  55
trait 1 0.08750000000000001 0.11197210561720429 0.0 1.0141595981327862 0.0 0.0 0.0 0.0 
trait 2 0.2 0.0 0.0 0.0 0.0 0.0 0.0 0.0 
trait 3 0.07049991630648073 0.0 0.5648645619926869 0.0 0.0 1.3869948938207721 0.0 0.5027773052376283 
node 1 2 1 1
node 2 3 1 1
node 3 2 1 3
node 4 1 0 2
node 7 1 0 0
node 44 1 0 0
node 270 1 0 0
gene  2 1 4 4.485428905086561 0 1.0 4.485428905086561 0
gene  2 2 4 1.8565686513495645 0 2.0 1.8565686513495645 1
gene  2 3 4 -2.792270883965655 0 3.0 -2.792270883965655 1
gene  1 1 7 0.4675373769461635 0 8.0 0.4675373769461635 1
gene  1 7 4 0.7331192737201278 0 9.0 0.7331192737201278 1
gene  2 2 7 -0.42476289429401226 0 12.0 -0.42476289429401226 1
gene  1 1 44 -4.602372857748428 0 160.0 -4.602372857748428 1
gene  1 44 4 -4.1176733124498135 0 161.0 -4.1176733124498135 1
gene  1 2 44 -2.9879621000894954 0 183.0 -2.9879621000894954 1
gene  3 44 7 -1.0843021052712105 0 367.0 -1.0843021052712105 1
gene  1 3 44 -0.4176172324357639 0 794.0 -0.4176172324357639 1
gene  2 1 270 1.0 0 1187.0 0.0 1
gene  2 270 4 4.485428905086561 0 1188.0 0.0 1
gene  3 270 7 -1.4282676674629324 0 1223.0 -1.4282676674629324 1
gene  2 270 44 9.28432912475817 0 1240.0 9.28432912475817 1
genomeend 55
/* Organism # 056 Fitness:  8.948 Error:  1.009                      */
genomestart  56
trait 1 0.08750000000000001 0.11197210561720429 0.0 1.0141595981327862 0.0 0.0 0.0 0.0 
trait 2 0.2 0.0 0.0 0.0 0.0 0.0 0.0 0.0 
trait 3 0.07049991630648073 0.0 0.5648645619926869 0.0 0.0 1.3869948938207721 0.0 0.5027773052376283 
node 1 2 1 1
node 2 3 1 1
node 3 2 1 3
node 4 1 0 2
node 7 1 0 0
node 44 1 0 0
node 270 1 0 0
node 284 1 0 0
gene  2 1 4 4.485428905086561 0 1.0 4.485428905086561 0
gene  2 2 4 1.8565686513495645 0 2.0 1.8565686513495645 1
gene  2 3 4 -2.792270883965655 0 3.0 -2.792270883965655 1
gene  1 1 7 0.4675373769461635 0 8.0 0.4675373769461635 1
gene  1 7 4 0.7331192737201278 0 9.0 0.7331192737201278 1
gene  2 2 7 -0.42476289429401226 0 12.0 -0.42476289429401226 0
gene  1 1 44 -4.602372857748428 0 160.0 -4.602372857748428 1
gene  1 44 4 -4.1176733124498135 0 161.0 -4.1176733124498135 1
gene  1 2 44 -2.9879621000894954 0 183.0 -2.9879621000894954 1
gene  3 44 7 -1.0843021052712105 0 367.0 -1.0843021052712105 1
gene  1 3 44 -0.4176172324357639 0 794.0 -0.4176172324357639 1
gene  2 1 270 1.0 0 1187.0 0.0 1
gene  2 270 4 4.485428905086561 0 1188.0 0.0 1
gene  3 270 7 -1.4282676674629324 0 1223.0 -1.4282676674629324 1
gene  2 2 284 1.0 0 1241.0 0.0 1
gene  2 284 7 -0.42476289429401226 0 1242.0 0.0 1
genomeend 56
/* Organism # 057 Fitness:  8.973 Error:  1.005                      */
genomestart  57
trait 1 0.08750000000000001 0.11197210561720429 0.0 1.0141595981327862 0.0 0.0 0.0 0.0 
trait 2 0.2 0.0 0.0 0.0 0.0 0.0 0.0 0.0 
trait 3 0.07049991630648073 0.0 0.5648645619926869 0.0 0.0 1.3869948938207721 0.0 0.5027773052376283 
node 1 2 1 1
node 2 3 1 1
node 3 2 1 3
node 4 1 0 2
node 7 1 0 0
node 44 1 0 0
node 270 1 0 0
gene  2 1 4 6.898805173392345 0 1.0 6.898805173392345 1
gene  2 2 4 1.4013983871789382 0 2.0 1.4013983871789382 1
gene  3 3 4 -0.6663767535433727 0 3.0 -0.6663767535433727 1
gene  1 1 7 2.376017683276955 0 8.0 2.376017683276955 1
gene  1 7 4 2.6759990635224478 0 9.0 2.6759990635224478 1
gene  2 2 7 -1.7896984922010413 0 12.0 -1.7896984922010413 1
gene  1 1 44 -5.813992585700458 0 160.0 -5.813992585700458 1
gene  1 44 4 -3.4814203976692264 0 161.0 -3.4814203976692264 1
gene  1 2 44 -1.044700773461118 0 183.0 -1.044700773461118 1
gene  3 44 7 0.3499347371563175 0 367.0 0.3499347371563175 1
gene  1 3 44 0.5914738737284908 0 794.0 0.5914738737284908 1
gene  2 1 270 2.4292363424715586 0 1187.0 2.4292363424715586 1
gene  2 270 4 4.485428905086561 0 1188.0 4.485428905086561 1
gene  3 270 7 -1.1399773955899088 0 1223.0 -1.1399773955899088 1
genomeend 57
/*-------------------------------------------------------------------*/
/* Species # 028         : (size= 002) (AvfFit= 5.295) (Age= 66.000)  */
/*-------------------------------------------------------------------*/
/* Organism # 058 Fitness:  1.591 Error:  2.739                      */
genomestart  58
trait 1 0.24752282297412978 0.0 0.0 0.6748884887868558 0.025071082154728298 0.004405795074528471 0.25232841527737 0.4736968391097336 
trait 2 0.2 0.0 0.0 0.0 0.0 0.0 0.0 0.0 
trait 3 0.34758106760543034 0.0 0.0 0.0 0.0 0.10121239988747802 0.08647148072088728 0.07346983059337467 
node 1 1 1 1
node 2 3 1 1
node 3 3 1 3
node 4 1 0 2
node 12 1 0 0
node 37 1 0 0
node 45 1 0 0
node 63 2 0 0
node 77 1 0 0
node 163 1 0 0
node 171 1 0 0
gene  1 1 4 0.8785583766395142 0 1.0 0.8785583766395142 1
gene  2 2 4 -2.2972426377951916 0 2.0 -2.2972426377951916 1
gene  3 3 4 -1.0385642794958811 0 3.0 -1.0385642794958811 1
gene  1 1 12 -0.14652339350398136 0 21.0 -0.14652339350398136 1
gene  1 12 4 1.294700698618596 0 22.0 1.294700698618596 1
gene  3 2 12 1.0249193384771096 0 36.0 1.0249193384771096 1
gene  1 3 12 -3.6522202406603617 0 86.0 -3.6522202406603617 1
gene  1 1 37 -0.7691902220750553 0 117.0 -0.7691902220750553 1
gene  1 37 4 1.1313097886058299 0 118.0 1.1313097886058299 1
gene  1 1 45 0.4672967776485004 0 170.0 0.4672967776485004 0
gene  1 45 4 -8.816142634300423 0 171.0 -8.816142634300423 1
gene  1 2 45 3.30153233247973 0 184.0 3.30153233247973 1
gene  3 37 45 -1.3373936082607008 0 229.0 -1.3373936082607008 1
gene  1 1 63 -1.0257604626529901 0 264.0 -1.0257604626529901 1
gene  1 63 4 2.8927824412299334 0 265.0 2.8927824412299334 1
gene  3 12 63 -2.4267592940600355 0 294.0 -2.4267592940600355 1
gene  1 1 77 4.792983942143769 0 338.0 4.792983942143769 1
gene  1 77 45 -8.611163104546442 0 339.0 -8.611163104546442 1
gene  3 12 45 2.3793741230292182 0 706.0 2.3793741230292182 1
gene  1 2 163 0.8382445918048207 0 726.0 0.8382445918048207 1
gene  1 163 45 1.1776898603570491 0 727.0 1.1776898603570491 1
gene  1 45 171 3.665764433535208 0 749.0 3.665764433535208 1
gene  1 171 4 -1.4942256759427541 0 750.0 -1.4942256759427541 1
gene  2 2 63 2.791122413666134 0 880.0 2.791122413666134 1
gene  1 12 163 0.9695200431461748 0 1037.0 0.9695200431461748 1
gene  1 63 45 4.583392275649634 0 1059.0 4.583392275649634 1
genomeend 58
/* Organism # 059 Fitness:  8.999 Error:  1.000                      */
genomestart  59
trait 1 0.24752282297412978 0.0 0.0 0.6748884887868558 0.025071082154728298 0.004405795074528471 0.25232841527737 0.4736968391097336 
trait 2 0.2 0.0 0.0 0.0 0.0 0.0 0.0 0.0 
trait 3 0.34758106760543034 0.0 0.0 0.0 0.0 0.10121239988747802 0.08647148072088728 0.07346983059337467 
node 1 1 1 1
node 2 3 1 1
node 3 3 1 3
node 4 1 0 2
node 12 1 0 0
node 37 1 0 0
node 45 1 0 0
node 63 2 0 0
node 77 1 0 0
node 163 1 0 0
node 171 1 0 0
gene  1 1 4 2.7102670779875986 0 1.0 2.7102670779875986 1
gene  2 2 4 -4.200591330540217 0 2.0 -4.200591330540217 1
gene  3 3 4 -0.24131730342730817 0 3.0 -0.24131730342730817 1
gene  1 1 12 -2.1921209761344427 0 21.0 -2.1921209761344427 1
gene  1 12 4 4.793725547117294 0 22.0 4.793725547117294 1
gene  3 2 12 -0.7378361069555416 0 36.0 -0.7378361069555416 1
gene  1 3 12 -2.5004609197278995 0 86.0 -2.5004609197278995 1
gene  1 1 37 -1.763926791530189 0 117.0 -1.763926791530189 1
gene  1 37 4 2.1881823072431534 0 118.0 2.1881823072431534 1
gene  1 1 45 -3.9611264686331165 0 170.0 -3.9611264686331165 0
gene  1 45 4 -12.22759579756811 0 171.0 -12.22759579756811 1
gene  1 2 45 0.7367825323590101 0 184.0 0.7367825323590101 1
gene  3 37 45 1.3173046871163534 0 229.0 1.3173046871163534 1
gene  1 1 63 -0.9583518983337995 0 264.0 -0.9583518983337995 1
gene  1 63 4 1.7064971844805314 0 265.0 1.7064971844805314 1
gene  3 12 63 1.8423565207296284 0 294.0 1.8423565207296284 1
gene  1 1 77 -0.03255833053793511 0 338.0 -0.03255833053793511 1
gene  1 77 45 -9.292556609373102 0 339.0 -9.292556609373102 1
gene  3 12 45 -0.47617941471491787 0 706.0 -0.47617941471491787 1
gene  1 2 163 3.9475615912146793 0 726.0 3.9475615912146793 1
gene  1 163 45 3.3313711036590337 0 727.0 3.3313711036590337 1
gene  1 45 171 -0.25329152185952275 0 749.0 -0.25329152185952275 1
gene  1 171 4 -1.2766255158408437 0 750.0 -1.2766255158408437 1
gene  2 2 63 4.98729319829063 0 880.0 4.98729319829063 1
gene  1 12 163 0.1608842265156032 0 1037.0 0.1608842265156032 1
gene  1 63 45 5.486977143662641 0 1059.0 5.486977143662641 1
genomeend 59
/*-------------------------------------------------------------------*/
/* Species # 031         : (size= 005) (AvfFit= 7.985) (Age= 61.000)  */
/*-------------------------------------------------------------------*/
/* Organism # 060 Fitness:  9.000 Error:  1.000                      */
genomestart  60
trait 1 0.0 0.09101498754782988 1.1884728227178445 0.6492743348959318 2.1168378779791457 1.3000379766466557 1.4600515357934547 0.8076904131955408 
trait 2 0.2 0.0 0.0 0.9861512519124853 0.0 0.0 0.0 0.0 
trait 3 0.6376267350833316 0.170572472457022 0.8101470843395345 0.0 0.0 0.0 0.0 0.06629462485645231 
node 1 1 1 1
node 2 2 1 1
node 3 1 1 3
node 4 1 0 2
node 27 1 0 0
node 43 1 0 0
node 58 1 0 0
node 176 1 0 0
node 264 1 0 0
gene  1 1 4 -0.536706279712764 0 1.0 -0.536706279712764 1
gene  1 2 4 9.70259428631803 0 2.0 9.70259428631803 1
gene  3 3 4 -9.05686582670304 0 3.0 -9.05686582670304 1
gene  1 1 27 5.107449778539493 0 80.0 5.107449778539493 1
gene  1 27 4 1.6386120899135939 0 81.0 1.6386120899135939 0
gene  2 3 27 -18.128529943261846 0 109.0 -18.128529943261846 1
gene  2 2 27 -5.783663626701924 0 113.0 -5.783663626701924 1
gene  3 2 43 10.11974924757981 0 157.0 10.11974924757981 1
gene  2 43 4 15.261791377942037 0 158.0 15.261791377942037 1
gene  1 1 43 1.928208169429615 0 224.0 1.928208169429615 1
gene  3 1 58 -7.269679436015281 0 242.0 -7.269679436015281 1
gene  1 58 4 -11.061257284867292 0 243.0 -11.061257284867292 1
gene  1 58 43 -0.6030729673905406 0 273.0 -0.6030729673905406 1
gene  3 58 27 -2.70346289753941 0 463.0 -2.70346289753941 1
gene  1 1 176 8.194517481621933 0 764.0 8.194517481621933 1
gene  1 176 4 5.182956645721805 0 765.0 5.182956645721805 1
gene  3 43 27 1.196863826704631 0 847.0 1.196863826704631 1
gene  3 43 176 0.7988551291800698 0 1062.0 0.7988551291800698 1
gene  1 27 264 1.51131606968224 0 1160.0 1.51131606968224 1
gene  1 264 4 -0.17294564192649547 0 1161.0 -0.17294564192649547 1
genomeend 60
/* Organism # 061 Fitness:  8.924 Error:  1.013                      */
genomestart  61
trait 1 0.0 0.09101498754782988 1.1884728227178445 0.6492743348959318 2.1168378779791457 1.3000379766466557 1.4600515357934547 0.8076904131955408 
trait 2 0.2 0.0 0.0 0.9861512519124853 0.0 0.0 0.0 0.0 
trait 3 0.6376267350833316 0.170572472457022 0.8101470843395345 0.0 0.0 0.0 0.0 0.06629462485645231 
node 1 1 1 1
node 2 2 1 1
node 3 1 1 3
node 4 1 0 2
node 27 1 0 0
node 43 1 0 0
node 58 1 0 0
node 176 1 0 0
node 264 1 0 0
gene  1 1 4 1.0378778491692278 0 1.0 1.0378778491692278 1
gene  1 2 4 7.053515180054131 0 2.0 7.053515180054131 1
gene  3 3 4 -10.56811403126774 0 3.0 -10.56811403126774 1
gene  1 1 27 1.1174201701098772 0 80.0 1.1174201701098772 1
gene  1 27 4 -1.7130672345953875 0 81.0 -1.7130672345953875 0
gene  2 3 27 -20.228436902650262 0 109.0 -20.228436902650262 1
gene  2 2 27 -7.260002566639735 0 113.0 -7.260002566639735 1
gene  3 2 43 11.702641666861894 0 157.0 11.702641666861894 1
gene  2 43 4 13.048658167751665 0 158.0 13.048658167751665 1
gene  1 1 43 2.4073218382630683 0 224.0 2.4073218382630683 1
gene  3 1 58 -3.2552105508438443 0 242.0 -3.2552105508438443 1
gene  1 58 4 -9.364793788858064 0 243.0 -9.364793788858064 1
gene  1 58 43 1.6518119081955502 0 273.0 1.6518119081955502 1
gene  3 58 27 -5.700195493500157 0 463.0 -5.700195493500157 1
gene  1 1 176 8.09823718707217 0 764.0 8.09823718707217 1
gene  1 176 4 1.6286848250772192 0 765.0 1.6286848250772192 1
gene  3 43 27 4.4115939216613 0 847.0 4.4115939216613 1
gene  3 43 176 0.6414584915885113 0 1062.0 0.6414584915885113 1
gene  1 27 264 0.7316572561125946 0 1160.0 0.7316572561125946 1
gene  1 264 4 -0.04328734788096922 0 1161.0 -0.04328734788096922 1
genomeend 61
/* Organism # 062 Fitness:  9.000 Error:  1.000                      */
genomestart  62
trait 1 0.0 0.09101498754782988 1.1884728227178445 0.6492743348959318 2.1168378779791457 1.3000379766466557 1.4600515357934547 0.8076904131955408 
trait 2 0.2 0.0 0.0 0.9861512519124853 0.0 0.0 0.0 0.0 
trait 3 0.6376267350833316 0.170572472457022 0.8101470843395345 0.0 0.0 0.0 0.0 0.06629462485645231 
node 1 1 1 1
node 2 2 1 1
node 3 1 1 3
node 4 1 0 2
node 27 1 0 0
node 43 1 0 0
node 58 1 0 0
node 176 1 0 0
node 264 1 0 0
gene  1 1 4 1.8393402437090975 0 1.0 1.8393402437090975 1
gene  1 2 4 8.34958905135737 0 2.0 8.34958905135737 1
gene  3 3 4 -10.80386301110098 0 3.0 -10.80386301110098 1
gene  1 1 27 2.803140580573926 0 80.0 2.803140580573926 1
gene  1 27 4 -0.4476029258385472 0 81.0 -0.4476029258385472 0
gene  2 3 27 -19.856818356918026 0 109.0 -19.856818356918026 1
gene  2 2 27 -5.508406492869932 0 113.0 -5.508406492869932 1
gene  3 2 43 9.378885996917518 0 157.0 9.378885996917518 1
gene  2 43 4 14.872917730788384 0 158.0 14.872917730788384 1
gene  1 1 43 0.9852590725478365 0 224.0 0.9852590725478365 1
gene  3 1 58 -4.925784582699536 0 242.0 -4.925784582699536 1
gene  1 58 4 -8.732577732744168 0 243.0 -8.732577732744168 1
gene  1 58 43 -0.2651657309274109 0 273.0 -0.2651657309274109 1
gene  3 58 27 -4.529242499906331 0 463.0 -4.529242499906331 1
gene  1 1 176 5.844592217444579 0 764.0 5.844592217444579 1
gene  1 176 4 4.044218753759635 0 765.0 4.044218753759635 1
gene  3 43 27 2.5516441859606647 0 847.0 2.5516441859606647 1
gene  3 43 176 2.2540361265509743 0 1062.0 2.2540361265509743 1
gene  1 27 264 0.7316572561125946 0 1160.0 0.7316572561125946 1
gene  1 264 4 -0.17294564192649547 0 1161.0 -0.17294564192649547 1
gene  2 2 58 -6.396715225719648 0 1235.0 -6.396715225719648 1
genomeend 62
/* Organism # 063 Fitness:  9.000 Error:  1.000                      */
genomestart  63
trait 1 0.0 0.09101498754782988 1.1884728227178445 0.6492743348959318 2.1168378779791457 1.3000379766466557 1.4600515357934547 0.8076904131955408 
trait 2 0.2 0.0 0.0 0.9861512519124853 0.0 0.0 0.0 0.0 
trait 3 0.6376267350833316 0.170572472457022 0.8101470843395345 0.0 0.0 0.0 0.0 0.06629462485645231 
node 1 1 1 1
node 2 2 1 1
node 3 1 1 3
node 4 1 0 2
node 27 1 0 0
node 43 1 0 0
node 58 1 0 0
node 176 1 0 0
node 264 1 0 0
gene  1 1 4 1.8393402437090975 0 1.0 1.8393402437090975 1
gene  1 2 4 -1.3696407129264057 0 2.0 -1.3696407129264057 1
gene  3 3 4 -8.883804827086156 0 3.0 -8.883804827086156 1
gene  1 1 27 1.877017110286964 0 80.0 1.877017110286964 1
gene  1 27 4 -1.3039703152838649 0 81.0 -1.3039703152838649 0
gene  2 3 27 2.261747246880221 0 109.0 2.261747246880221 1
gene  2 2 27 -5.37469922317078 0 113.0 -5.37469922317078 1
gene  3 2 43 9.653983285681342 0 157.0 9.653983285681342 1
gene  2 43 4 14.786302802940845 0 158.0 14.786302802940845 1
gene  1 1 43 0.3110762046774662 0 224.0 0.3110762046774662 1
gene  3 1 58 -0.17080729566593233 0 242.0 -0.17080729566593233 1
gene  1 58 4 -7.543283575735196 0 243.0 -7.543283575735196 1
gene  1 58 43 -0.2651657309274109 0 273.0 -0.2651657309274109 1
gene  3 58 27 -3.9088153343610106 0 463.0 -3.9088153343610106 1
gene  1 1 176 5.374390451713935 0 764.0 5.374390451713935 1
gene  1 176 4 3.3320292390453528 0 765.0 3.3320292390453528 1
gene  3 43 27 2.5516441859606647 0 847.0 2.5516441859606647 1
gene  3 43 176 1.7535015584712588 0 1062.0 1.7535015584712588 1
gene  1 27 264 1.715932990593696 0 1160.0 1.715932990593696 1
gene  1 264 4 2.1966353238941205 0 1161.0 2.1966353238941205 1
genomeend 63
/* Organism # 064 Fitness:  4.000 Error:  2.000                      */
genomestart  64
trait 1 0.0 0.09101498754782988 1.1884728227178445 0.6492743348959318 2.1168378779791457 1.3000379766466557 1.4600515357934547 0.8076904131955408 
trait 2 0.2 0.0 0.0 0.9861512519124853 0.0 0.0 0.0 0.0 
trait 3 0.6376267350833316 0.170572472457022 0.8101470843395345 0.0 0.0 0.0 0.0 0.06629462485645231 
node 1 1 1 1
node 2 2 1 1
node 3 1 1 3
node 4 1 0 2
node 27 1 0 0
node 43 1 0 0
node 58 1 0 0
node 176 1 0 0
node 264 1 0 0
gene  1 1 4 1.4424796162425126 0 1.0 1.4424796162425126 1
gene  1 2 4 8.823726629476699 0 2.0 8.823726629476699 1
gene  3 3 4 -11.532048862894138 0 3.0 -11.532048862894138 1
gene  1 1 27 4.148174568395688 0 80.0 4.148174568395688 1
gene  1 27 4 1.3212730000591015 0 81.0 1.3212730000591015 0
gene  2 3 27 -18.691297712146753 0 109.0 -18.691297712146753 1
gene  2 2 27 -3.9348844842963278 0 113.0 -3.9348844842963278 1
gene  3 2 43 9.557823463777611 0 157.0 9.557823463777611 1
gene  2 43 4 17.205544856143927 0 158.0 17.205544856143927 1
gene  1 1 43 1.1410795628876969 0 224.0 1.1410795628876969 1
gene  3 1 58 -4.6236516745189356 0 242.0 -4.6236516745189356 1
gene  1 58 4 -10.631821884011345 0 243.0 -10.631821884011345 1
gene  1 58 43 0.8435788359139376 0 273.0 0.8435788359139376 1
gene  3 58 27 -3.146604651761461 0 463.0 -3.146604651761461 1
gene  1 1 176 6.456829711103794 0 764.0 6.456829711103794 1
gene  1 176 4 5.628550868919215 0 765.0 5.628550868919215 1
gene  3 43 27 2.5336647697550974 0 847.0 2.5336647697550974 1
gene  3 43 176 2.2540361265509743 0 1062.0 2.2540361265509743 1
gene  1 27 264 0.7316572561125946 0 1160.0 0.7316572561125946 1
gene  1 264 4 -0.5320856665925017 0 1161.0 -0.5320856665925017 1
genomeend 64
/*-------------------------------------------------------------------*/
/* Species # 033         : (size= 004) (AvfFit= 7.717) (Age= 58.000)  */
/*-------------------------------------------------------------------*/
/* Organism # 065 Fitness:  4.006 Error:  1.999                      */
genomestart  65
trait 1 0.08750000000000001 0.11197210561720429 0.0 0.0 0.0 0.0 0.0 0.0 
trait 2 0.2 0.0 0.0 0.0 0.0 0.0 0.0 0.0 
trait 3 0.42866775686272524 0.0 1.1070596384679887 0.0 0.43219372272579937 1.4000909286651555 0.796965795006854 0.0 
node 1 2 1 1
node 2 3 1 1
node 3 1 1 3
node 4 2 0 2
node 7 1 0 0
node 44 2 0 0
node 64 1 0 0
node 114 3 0 0
node 237 1 0 0
gene  1 1 4 -1.5012323351628094 0 1.0 -1.5012323351628094 0
gene  2 2 4 -1.9268693027224681 0 2.0 -1.9268693027224681 1
gene  3 3 4 -0.5681783537935743 0 3.0 -0.5681783537935743 1
gene  1 1 7 -1.4062170852599585 0 8.0 -1.4062170852599585 1
gene  1 7 4 -3.693201804666743 0 9.0 -3.693201804666743 1
gene  2 2 7 -0.9513510098191367 0 12.0 -0.9513510098191367 1
gene  1 1 44 -6.23162508206476 0 160.0 -6.23162508206476 1
gene  1 44 4 -7.184072991653696 0 161.0 -7.184072991653696 1
gene  1 2 44 -4.532511371019156 0 183.0 -4.532511371019156 1
gene  2 2 64 -4.875047972851338 0 268.0 -4.875047972851338 1
gene  2 64 4 4.5450613930583845 0 269.0 4.5450613930583845 1
gene  2 7 64 6.8243046671054834 0 345.0 6.8243046671054834 1
gene  1 1 114 5.389824533193704 0 506.0 5.389824533193704 1
gene  1 114 4 7.657445527477339 0 507.0 7.657445527477339 1
gene  1 2 114 0.09846213597427156 0 541.0 0.09846213597427156 1
gene  1 44 114 -1.2529190249320168 0 624.0 -1.2529190249320168 1
