/* Species # 005         : (size= 001) (AvfFit= 3.144) (Age= 84.000)  */
/*-------------------------------------------------------------------*/
/* Organism # 000 Fitness:  3.144 Error:  2.227                      */
genomestart  0
trait 1 0.06875 0.0 0.0 0.0 0.0 0.0 0.023801055305950197 0.0 
trait 2 0.1 0.1412634290958787 0.0 0.001363430081560609 0.0 0.0 0.9851503113260676 0.661528521616242 
trait 3 0.35386636961471096 1.0159496137448694 0.8296591421590434 0.03323828345753185 0.0 0.03067172874770574 0.7842890379958926 0.12535123080935073 
node 1 1 1 1
node 2 1 1 1
node 3 1 1 3
node 4 2 0 2
node 27 1 0 0
node 149 1 0 0
node 162 1 0 0
node 201 1 0 0
node 211 1 0 0
node 218 1 0 0
node 229 1 0 0
gene  1 1 4 -3.002340633084795 0 1.0 -3.002340633084795 1
gene  2 2 4 1.7610902861868154 0 2.0 1.7610902861868154 1
gene  3 3 4 0.879267368978075 0 3.0 0.879267368978075 1
gene  1 1 27 1.6396871813241132 0 80.0 1.6396871813241132 1
gene  1 27 4 -3.9598747061846398 0 81.0 -3.9598747061846398 1
gene  3 2 27 -2.8935741308071563 0 128.0 -2.8935741308071563 1
gene  3 3 27 -2.8729491083576155 0 221.0 -2.8729491083576155 1
gene  1 1 149 4.837418332275443 0 673.0 4.837418332275443 1
gene  1 149 4 1.351390588785115 0 674.0 1.351390588785115 1
gene  2 2 149 -1.3962783589848964 0 701.0 -1.3962783589848964 1
gene  2 2 162 6.643231594106799 0 724.0 6.643231594106799 1
gene  2 162 4 -0.36668019185942446 0 725.0 -0.36668019185942446 1
gene  2 162 149 2.0152879608552645 0 859.0 2.0152879608552645 1
gene  2 2 201 3.613926403855058 0 874.0 3.613926403855058 1
gene  2 201 4 -2.5259076912090506 0 875.0 -2.5259076912090506 1
gene  1 1 211 4.409919665023399 0 921.0 4.409919665023399 1
gene  1 211 149 1.8062797319269768 0 922.0 1.8062797319269768 0
gene  1 162 218 7.973841791891584 0 947.0 7.973841791891584 1
gene  2 218 4 -0.7749528632564577 0 948.0 -0.7749528632564577 1
gene  1 211 229 0.542137894414771 0 991.0 0.542137894414771 1
gene  1 229 149 -1.8019829132729375 0 992.0 -1.8019829132729375 1
gene  2 3 149 -1.4138172520746601 0 1111.0 -1.4138172520746601 1
gene  2 201 162 2.7534748259422215 0 1151.0 2.7534748259422215 1
gene  3 3 229 -4.078690215410804 0 1244.0 -4.078690215410804 1
genomeend 0
/*-------------------------------------------------------------------*/
/* Species # 008         : (size= 002) (AvfFit= 3.798) (Age= 81.000)  */
/*-------------------------------------------------------------------*/
/* Organism # 001 Fitness:  3.586 Error:  2.106                      */
genomestart  1
trait 1 0.9705231484165675 0.0 0.0 0.4496886226836102 0.06238223346322236 0.20026449725369408 0.0 0.0 
trait 2 0.0 0.3291122098781708 0.9455711414604356 1.3803467568087786 0.0 0.27706296753271353 0.0 0.0 
trait 3 0.7593903095090313 0.10938488939320123 0.0 0.08651291291510643 0.0 0.49099957482746426 0.0 0.0 
node 1 1 1 1
node 2 2 1 1
node 3 1 1 3
node 4 2 0 2
node 18 1 0 0
node 25 3 0 0
node 47 1 0 0
node 128 1 0 0
node 267 2 0 0
gene  1 1 4 -7.0840663478190535 0 1.0 -7.0840663478190535 1
gene  2 2 4 -1.42183787440905 0 2.0 -1.42183787440905 1
gene  3 3 4 1.1408114003698966 0 3.0 1.1408114003698966 1
gene  2 2 18 7.736034935492855 0 44.0 7.736034935492855 1
gene  2 18 4 6.932907912150123 0 45.0 6.932907912150123 1
gene  3 1 18 -0.005981749491770438 0 63.0 -0.005981749491770438 1
gene  1 1 25 -5.419222959907986 0 69.0 -5.419222959907986 1
gene  1 25 4 -2.9111270244494536 0 70.0 -2.9111270244494536 1
gene  2 18 25 3.4336444473908188 0 78.0 3.4336444473908188 1
gene  1 1 47 -14.173409396005257 0 180.0 -14.173409396005257 1
gene  2 47 4 2.3282509927998776 0 181.0 2.3282509927998776 1
gene  3 25 47 -1.2595705013401273 0 428.0 -1.2595705013401273 1
gene  1 3 47 -2.974803980521173 0 474.0 -2.974803980521173 1
gene  2 2 128 -3.513024814127254 0 575.0 -3.513024814127254 1
gene  2 128 4 1.4651012982481901 0 576.0 1.4651012982481901 1
gene  3 128 47 4.667164651168787 0 628.0 4.667164651168787 1
gene  2 1 128 -3.319154170925232 0 694.0 -3.319154170925232 1
gene  1 128 18 0.330057261789237 0 853.0 0.330057261789237 1
gene  2 3 18 -2.3588756811669582 0 873.0 -2.3588756811669582 1
gene  1 128 25 -2.2441189326211344 0 918.0 -2.2441189326211344 1
gene  1 1 267 1.2265860743532764 0 1171.0 1.2265860743532764 1
gene  1 267 47 -6.26083610460997 0 1172.0 -6.26083610460997 1
genomeend 1
/* Organism # 002 Fitness:  4.009 Error:  1.998                      */
genomestart  2
trait 1 0.9705231484165675 0.0 0.0 0.4496886226836102 0.06238223346322236 0.20026449725369408 0.0 0.0 
trait 2 0.0 0.3291122098781708 0.9455711414604356 1.3803467568087786 0.0 0.27706296753271353 0.0 0.0 
trait 3 0.7593903095090313 0.10938488939320123 0.0 0.08651291291510643 0.0 0.49099957482746426 0.0 0.0 
node 1 1 1 1
node 2 2 1 1
node 3 1 1 3
node 4 2 0 2
node 18 1 0 0
node 25 3 0 0
node 47 1 0 0
node 128 1 0 0
node 267 2 0 0
gene  1 1 4 -7.386169466492854 0 1.0 -7.386169466492854 1
gene  2 2 4 -0.821043993035041 0 2.0 -0.821043993035041 1
gene  3 3 4 3.4453753332806887 0 3.0 3.4453753332806887 1
gene  2 2 18 4.187059380470343 0 44.0 4.187059380470343 1
gene  2 18 4 2.847980849151236 0 45.0 2.847980849151236 1
gene  3 1 18 1.2053700721632934 0 63.0 1.2053700721632934 1
gene  1 1 25 -7.682357076762326 0 69.0 -7.682357076762326 1
gene  1 25 4 -0.4093082046130593 0 70.0 -0.4093082046130593 1
gene  2 18 25 3.37592185127841 0 78.0 3.37592185127841 1
gene  1 1 47 -12.849976908205964 0 180.0 -12.849976908205964 1
gene  2 47 4 0.518167920243719 0 181.0 0.518167920243719 1
gene  3 25 47 -1.5735317302854233 0 428.0 -1.5735317302854233 1
gene  1 3 47 -2.1747905336706634 0 474.0 -2.1747905336706634 1
gene  2 2 128 -2.5920199467349043 0 575.0 -2.5920199467349043 1
gene  2 128 4 -0.8688309587718972 0 576.0 -0.8688309587718972 1
gene  3 128 47 4.76884960853068 0 628.0 4.76884960853068 1
gene  2 1 128 -0.35588182258848455 0 694.0 -0.35588182258848455 1
gene  1 128 18 4.612704078650772 0 853.0 4.612704078650772 1
gene  2 3 18 0.29211605349535863 0 873.0 0.29211605349535863 1
gene  1 128 25 2.314606182930052 0 918.0 2.314606182930052 1
gene  1 1 267 -0.5020628014398429 0 1171.0 -0.5020628014398429 1
gene  1 267 47 -6.26083610460997 0 1172.0 -6.26083610460997 1
genomeend 2
/*-------------------------------------------------------------------*/
/* Species # 009         : (size= 005) (AvfFit= 6.332) (Age= 80.000)  */
/*-------------------------------------------------------------------*/
/* Organism # 003 Fitness:  9.000 Error:  1.000                      */
genomestart  3
trait 1 0.08095703125 0.17058250465120967 0.0 0.03137016751792348 0.0 0.0 0.0 0.0 
trait 2 0.24344716250459295 0.0 0.03420370051487321 0.05329185178940672 0.0 0.04194257483884601 0.0 0.0 
trait 3 0.3 0.08272181738054382 0.2515412502623684 0.0 0.0 0.6192375517619333 0.2919406141810683 0.13865768321162808 
node 1 2 1 1
node 2 1 1 1
node 3 1 1 3
node 4 1 0 2
node 7 1 0 0
node 26 2 0 0
node 29 1 0 0
node 165 1 0 0
node 202 1 0 0
gene  3 1 4 10.473111191576807 0 1.0 10.473111191576807 1
gene  2 2 4 2.1998173528487266 0 2.0 2.1998173528487266 1
gene  3 3 4 -18.018788154855585 0 3.0 -18.018788154855585 1
gene  1 1 7 9.743647975606924 0 8.0 9.743647975606924 1
gene  1 7 4 17.287382161140727 0 9.0 17.287382161140727 1
gene  2 2 7 -10.669065081415294 0 12.0 -10.669065081415294 1
gene  2 3 7 -1.507273845251952 0 64.0 -1.507273845251952 1
gene  3 1 26 -13.205714608216745 0 73.0 -13.205714608216745 1
gene  1 26 4 -0.18651903312546014 0 74.0 -0.18651903312546014 1
gene  1 1 29 0.24079334520791418 0 90.0 0.24079334520791418 1
gene  1 29 7 0.8943953958057611 0 91.0 0.8943953958057611 1
gene  3 2 29 -12.170425591452238 0 185.0 -12.170425591452238 1
gene  3 29 4 9.402074682688944 0 315.0 9.402074682688944 1
gene  2 3 26 -0.25248040576138425 0 337.0 -0.25248040576138425 1
gene  1 29 26 -1.2689921214956383 0 357.0 -1.2689921214956383 1
gene  2 2 165 -11.762454961871017 0 731.0 -11.762454961871017 0
gene  2 165 7 -1.914681742425134 0 732.0 -1.914681742425134 1
gene  2 2 202 -2.7183920725600323 0 882.0 -2.7183920725600323 1
gene  2 202 165 0.22871826522994154 0 883.0 0.22871826522994154 1
genomeend 3
/* Organism # 004 Fitness:  3.617 Error:  2.098                      */
genomestart  4
trait 1 0.08095703125 0.17058250465120967 0.0 0.03137016751792348 0.0 0.0 0.0 0.0 
trait 2 0.24344716250459295 0.0 0.03420370051487321 0.05329185178940672 0.0 0.04194257483884601 0.0 0.0 
trait 3 0.3 0.08272181738054382 0.2515412502623684 0.0 0.0 0.6192375517619333 0.2919406141810683 0.13865768321162808 
node 1 2 1 1
node 2 1 1 1
node 3 1 1 3
node 4 1 0 2
node 7 1 0 0
node 26 2 0 0
node 29 1 0 0
node 165 1 0 0
node 202 1 0 0
gene  3 1 4 1.7267668960647784 0 1.0 1.7267668960647784 1
gene  2 2 4 1.5981505614271807 0 2.0 1.5981505614271807 1
gene  3 3 4 -0.2352938571529417 0 3.0 -0.2352938571529417 1
gene  1 1 7 9.93197557550741 0 8.0 9.93197557550741 1
gene  1 7 4 -0.26564660036769855 0 9.0 -0.26564660036769855 1
gene  2 2 7 0.5336478084084575 0 12.0 0.5336478084084575 1
gene  2 3 7 -7.9265406549599495 0 64.0 -7.9265406549599495 1
gene  3 1 26 -8.783817421280204 0 73.0 -8.783817421280204 1
gene  1 26 4 -1.6190999892570839 0 74.0 -1.6190999892570839 1
gene  1 1 29 -1.3701504649399232 0 90.0 -1.3701504649399232 1
gene  1 29 7 1.3868585770578505 0 91.0 1.3868585770578505 1
gene  3 2 29 -1.75685036668883 0 185.0 -1.75685036668883 1
gene  3 29 4 10.365977549856343 0 315.0 10.365977549856343 1
gene  2 3 26 0.05029565368641259 0 337.0 0.05029565368641259 1
gene  1 29 26 -0.14097575655708372 0 357.0 -0.14097575655708372 1
gene  2 2 165 -9.012648954137072 0 731.0 -9.012648954137072 0
gene  2 165 7 -0.09166844165957999 0 732.0 -0.09166844165957999 1
gene  2 2 202 -3.1704595724180287 0 882.0 -3.1704595724180287 1
gene  2 202 165 0.22871826522994154 0 883.0 0.22871826522994154 1
genomeend 4
/* Organism # 005 Fitness:  9.000 Error:  1.000                      */
genomestart  5
trait 1 0.08095703125 0.17058250465120967 0.0 0.03137016751792348 0.0 0.0 0.0 0.0 
trait 2 0.24344716250459295 0.0 0.03420370051487321 0.05329185178940672 0.0 0.04194257483884601 0.0 0.0 
trait 3 0.3 0.08272181738054382 0.2515412502623684 0.0 0.0 0.6192375517619333 0.2919406141810683 0.13865768321162808 
node 1 2 1 1
node 2 1 1 1
node 3 1 1 3
node 4 1 0 2
node 7 1 0 0
node 26 2 0 0
node 29 1 0 0
node 165 1 0 0
node 202 1 0 0
gene  3 1 4 9.526195875337738 0 1.0 9.526195875337738 1
gene  2 2 4 0.22062688866109492 0 2.0 0.22062688866109492 1
gene  3 3 4 -17.930102972031946 0 3.0 -17.930102972031946 1
gene  1 1 7 11.003606039629306 0 8.0 11.003606039629306 1
gene  1 7 4 17.905423137321367 0 9.0 17.905423137321367 1
gene  2 2 7 -10.63013750501003 0 12.0 -10.63013750501003 1
gene  2 3 7 -6.935988728422791 0 64.0 -6.935988728422791 1
gene  3 1 26 -8.58959564486025 0 73.0 -8.58959564486025 1
gene  1 26 4 -0.5373054586994672 0 74.0 -0.5373054586994672 1
gene  1 1 29 -4.528085024127061 0 90.0 -4.528085024127061 1
gene  1 29 7 1.9627537700467736 0 91.0 1.9627537700467736 1
gene  3 2 29 -13.633027524807396 0 185.0 -13.633027524807396 1
gene  3 29 4 9.79938056525457 0 315.0 9.79938056525457 1
gene  2 3 26 -0.44342400642359986 0 337.0 -0.44342400642359986 1
gene  1 29 26 1.4954233356191151 0 357.0 1.4954233356191151 1
gene  2 2 165 -10.642589014655284 0 731.0 -10.642589014655284 0
gene  2 165 7 -0.5296691237480413 0 732.0 -0.5296691237480413 1
gene  2 2 202 -2.7183920725600323 0 882.0 -2.7183920725600323 1
gene  2 202 165 0.22871826522994154 0 883.0 0.22871826522994154 1
genomeend 5
/* Organism # 006 Fitness:  9.000 Error:  1.000                      */
genomestart  6
trait 1 0.08095703125 0.17058250465120967 0.0 0.03137016751792348 0.0 0.0 0.0 0.0 
trait 2 0.24344716250459295 0.0 0.03420370051487321 0.05329185178940672 0.0 0.04194257483884601 0.0 0.0 
trait 3 0.3 0.08272181738054382 0.2515412502623684 0.0 0.0 0.6192375517619333 0.2919406141810683 0.13865768321162808 
node 1 2 1 1
node 2 1 1 1
node 3 1 1 3
node 4 1 0 2
node 7 1 0 0
node 26 2 0 0
node 29 1 0 0
node 165 1 0 0
node 202 1 0 0
gene  3 1 4 8.660936708714878 0 1.0 8.660936708714878 1
gene  2 2 4 1.0363746770811626 0 2.0 1.0363746770811626 1
gene  3 3 4 -18.25850369853436 0 3.0 -18.25850369853436 1
gene  1 1 7 11.680495039579325 0 8.0 11.680495039579325 1
gene  1 7 4 19.53071016860909 0 9.0 19.53071016860909 1
gene  2 2 7 -11.81855562428406 0 12.0 -11.81855562428406 1
gene  2 3 7 -8.662542157631316 0 64.0 -8.662542157631316 1
gene  3 1 26 -8.41863273347239 0 73.0 -8.41863273347239 1
gene  1 26 4 0.5575297967540854 0 74.0 0.5575297967540854 1
gene  1 1 29 -4.726543892795892 0 90.0 -4.726543892795892 1
gene  1 29 7 1.0379687285788255 0 91.0 1.0379687285788255 1
gene  3 2 29 -12.576311250573069 0 185.0 -12.576311250573069 1
gene  3 29 4 8.295341502716338 0 315.0 8.295341502716338 1
gene  2 3 26 -2.7186906586131983 0 337.0 -2.7186906586131983 1
gene  1 29 26 -0.9779603911921173 0 357.0 -0.9779603911921173 1
gene  2 2 165 -12.08461524641677 0 731.0 -12.08461524641677 0
gene  2 165 7 -0.19956010819446418 0 732.0 -0.19956010819446418 1
gene  2 2 202 -1.6702722932938316 0 882.0 -1.6702722932938316 1
gene  2 202 165 1.8890732910265158 0 883.0 1.8890732910265158 1
genomeend 6
/* Organism # 007 Fitness:  1.041 Error:  2.980                      */
genomestart  7
trait 1 0.08095703125 0.17058250465120967 0.0 0.03137016751792348 0.0 0.0 0.0 0.0 
trait 2 0.24344716250459295 0.0 0.03420370051487321 0.05329185178940672 0.0 0.04194257483884601 0.0 0.0 
trait 3 0.3 0.08272181738054382 0.2515412502623684 0.0 0.0 0.6192375517619333 0.2919406141810683 0.13865768321162808 
node 1 2 1 1
node 2 1 1 1
node 3 1 1 3
node 4 1 0 2
node 7 1 0 0
node 26 2 0 0
node 29 1 0 0
node 165 1 0 0
node 202 1 0 0
gene  3 1 4 8.660936708714878 0 1.0 8.660936708714878 1
gene  2 2 4 -1.7282222843068176 0 2.0 -1.7282222843068176 1
gene  3 3 4 0.9167386665546817 0 3.0 0.9167386665546817 1
gene  1 1 7 13.013189987112048 0 8.0 13.013189987112048 1
gene  1 7 4 -2.1435400998250436 0 9.0 -2.1435400998250436 1
gene  2 2 7 -11.81855562428406 0 12.0 -11.81855562428406 1
gene  2 3 7 -7.190174172326782 0 64.0 -7.190174172326782 1
gene  3 1 26 -10.072685320417065 0 73.0 -10.072685320417065 1
gene  1 26 4 0.08613555333757483 0 74.0 0.08613555333757483 1
gene  1 1 29 -1.2980664655767205 0 90.0 -1.2980664655767205 1
gene  1 29 7 1.745157852416817 0 91.0 1.745157852416817 1
gene  3 2 29 -11.819808391993906 0 185.0 -11.819808391993906 1
gene  3 29 4 6.970158134024784 0 315.0 6.970158134024784 1
gene  2 3 26 -0.17647526757214577 0 337.0 -0.17647526757214577 1
gene  1 29 26 1.7313431448626557 0 357.0 1.7313431448626557 1
gene  2 2 165 -9.989154231059269 0 731.0 -9.989154231059269 0
gene  2 165 7 -1.0843726267414249 0 732.0 -1.0843726267414249 1
gene  2 2 202 -2.7183920725600323 0 882.0 -2.7183920725600323 1
gene  2 202 165 -1.1391115831531275 0 883.0 -1.1391115831531275 1
genomeend 7
/*-------------------------------------------------------------------*/
/* Species # 010         : (size= 007) (AvfFit= 12.146) (Age= 79.000)  */
/*-------------------------------------------------------------------*/
/* Organism # 008 Fitness:  16.000 Error:  0.000                      */
/*  $  This organism is WINNER with genome_id  008 Species # 010 $   */
genomestart  8
trait 1 0.1 0.0 0.0 0.0 0.0 0.0 0.0 0.0 
trait 2 0.2 0.0 0.0 0.0 0.0 0.0 0.0 0.0 
trait 3 1.151261093921767 0.0 0.0 1.4184737047667049 0.20136119511435402 0.0 0.0 0.0 
node 1 3 1 1
node 2 1 1 1
node 3 3 1 3
node 4 1 0 2
node 27 3 0 0
gene  1 1 4 -13.007512347146125 0 1.0 -13.007512347146125 1
gene  2 2 4 -12.124496737159772 0 2.0 -12.124496737159772 1
gene  3 3 4 -6.280609708632605 0 3.0 -6.280609708632605 1
gene  3 1 27 7.39382225543038 0 80.0 7.39382225543038 1
gene  1 27 4 25.6125235114216 0 81.0 25.6125235114216 1
gene  2 3 27 -3.94752721731934 0 109.0 -3.94752721731934 1
gene  2 2 27 7.476805842069197 0 113.0 7.476805842069197 1
genomeend 8
/* Organism # 009 Fitness:  16.000 Error:  0.000                      */
/*  $  This organism is WINNER with genome_id  009 Species # 010 $   */
genomestart  9
trait 1 0.1 0.0 0.0 0.0 0.0 0.0 0.0 0.0 
trait 2 0.2 0.0 0.0 0.0 0.0 0.0 0.0 0.0 
trait 3 1.151261093921767 0.0 0.0 1.4184737047667049 0.20136119511435402 0.0 0.0 0.0 
node 1 3 1 1
node 2 1 1 1
node 3 3 1 3
node 4 1 0 2
node 27 3 0 0
gene  1 1 4 -12.120823712500247 0 1.0 -12.120823712500247 1
gene  2 2 4 -12.193099467906142 0 2.0 -12.193099467906142 1
gene  3 3 4 -5.846905058939469 0 3.0 -5.846905058939469 1
gene  3 1 27 4.898696472583616 0 80.0 4.898696472583616 1
gene  1 27 4 26.577437856969038 0 81.0 26.577437856969038 1
gene  2 3 27 -2.117776821129688 0 109.0 -2.117776821129688 1
gene  2 2 27 5.840494136654309 0 113.0 5.840494136654309 1
genomeend 9
/* Organism # 010 Fitness:  16.000 Error:  0.000                      */
/*  $  This organism is WINNER with genome_id  010 Species # 010 $   */
genomestart  10
trait 1 0.1 0.0 0.0 0.0 0.0 0.0 0.0 0.0 
trait 2 0.2 0.0 0.0 0.0 0.0 0.0 0.0 0.0 
trait 3 1.151261093921767 0.0 0.0 1.4184737047667049 0.20136119511435402 0.0 0.0 0.0 
node 1 3 1 1
node 2 1 1 1
node 3 3 1 3
node 4 1 0 2
node 27 3 0 0
gene  1 1 4 -12.120823712500247 0 1.0 -12.120823712500247 1
gene  2 2 4 -12.193099467906142 0 2.0 -12.193099467906142 1
gene  3 3 4 -5.846905058939469 0 3.0 -5.846905058939469 1
gene  3 1 27 6.5844551876871185 0 80.0 6.5844551876871185 1
gene  1 27 4 25.2589597941291 0 81.0 25.2589597941291 1
gene  2 3 27 -2.117776821129688 0 109.0 -2.117776821129688 1
gene  2 2 27 5.150576215948972 0 113.0 5.150576215948972 1
genomeend 10
/* Organism # 011 Fitness:  16.000 Error:  0.000                      */
/*  $  This organism is WINNER with genome_id  011 Species # 010 $   */
genomestart  11
trait 1 0.1 0.0 0.0 0.0 0.0 0.0 0.0 0.0 
trait 2 0.2 0.0 0.0 0.0 0.0 0.0 0.0 0.0 
trait 3 1.151261093921767 0.0 0.0 1.4184737047667049 0.20136119511435402 0.0 0.0 0.0 
node 1 3 1 1
node 2 1 1 1
node 3 3 1 3
node 4 1 0 2
node 27 3 0 0
gene  1 1 4 -13.671535506538023 0 1.0 -13.671535506538023 1
gene  2 2 4 -11.38177539545779 0 2.0 -11.38177539545779 1
gene  3 3 4 -7.162062963449527 0 3.0 -7.162062963449527 1
gene  3 1 27 6.989138721558749 0 80.0 6.989138721558749 1
gene  1 27 4 25.43574165277535 0 81.0 25.43574165277535 1
gene  2 3 27 -2.8232761564870663 0 109.0 -2.8232761564870663 1
gene  2 2 27 6.313691029009084 0 113.0 6.313691029009084 1
genomeend 11
/* Organism # 012 Fitness:  4.000 Error:  2.000                      */
genomestart  12
trait 1 0.1 0.0 0.0 0.0 0.0 0.0 0.0 0.0 
trait 2 0.2 0.0 0.0 0.0 0.0 0.0 0.0 0.0 
trait 3 1.151261093921767 0.0 0.0 1.4184737047667049 0.20136119511435402 0.0 0.0 0.0 
node 1 3 1 1
node 2 1 1 1
node 3 3 1 3
node 4 1 0 2
node 27 3 0 0
gene  1 1 4 -14.639064070024437 0 1.0 -14.639064070024437 1
gene  1 2 4 -9.891272677446082 0 2.0 -9.891272677446082 1
gene  3 3 4 -10.226062318884795 0 3.0 -10.226062318884795 1
gene  3 1 27 7.097505267545603 0 80.0 7.097505267545603 1
gene  1 27 4 1.2671389463831362 0 81.0 1.2671389463831362 1
gene  2 3 27 -3.3188282564355367 0 109.0 -3.3188282564355367 1
gene  2 2 27 5.150576215948972 0 113.0 5.150576215948972 1
genomeend 12
/* Organism # 013 Fitness:  1.024 Error:  2.988                      */
genomestart  13
trait 1 0.1 0.0 0.0 0.0 0.0 0.0 0.0 0.0 
trait 2 0.2 0.0 0.0 0.0 0.0 0.0 0.0 0.0 
trait 3 1.151261093921767 0.0 0.0 1.4184737047667049 0.20136119511435402 0.0 0.0 0.0 
node 1 3 1 1
node 2 1 1 1
node 3 3 1 3
node 4 1 0 2
node 27 3 0 0
gene  1 1 4 -0.6521541206768816 0 1.0 -0.6521541206768816 1
gene  2 2 4 -12.193099467906142 0 2.0 -12.193099467906142 1
gene  3 3 4 -5.275970142653797 0 3.0 -5.275970142653797 1
gene  3 1 27 -0.41924975777759693 0 80.0 -0.41924975777759693 1
gene  1 27 4 27.999318210266676 0 81.0 27.999318210266676 1
gene  2 3 27 0.11074408228823884 0 109.0 0.11074408228823884 1
gene  2 2 27 8.081112811470263 0 113.0 8.081112811470263 1
genomeend 13
/* Organism # 014 Fitness:  16.000 Error:  0.000                      */
/*  $  This organism is WINNER with genome_id  014 Species # 010 $   */
genomestart  14
trait 1 0.1 0.0 0.0 0.0 0.0 0.0 0.0 0.0 
trait 2 0.2 0.0 0.0 0.0 0.0 0.0 0.0 0.0 
trait 3 1.151261093921767 0.0 0.0 1.4184737047667049 0.20136119511435402 0.0 0.0 0.0 
node 1 3 1 1
node 2 1 1 1
node 3 3 1 3
node 4 1 0 2
node 27 3 0 0
gene  1 1 4 -14.642501718072104 0 1.0 -14.642501718072104 1
gene  2 2 4 -14.07925100133018 0 2.0 -14.07925100133018 1
gene  3 3 4 -7.167511992756694 0 3.0 -7.167511992756694 1
gene  3 1 27 5.933075891510026 0 80.0 5.933075891510026 1
gene  1 27 4 26.608104491734785 0 81.0 26.608104491734785 1
gene  2 3 27 -2.414330812163713 0 109.0 -2.414330812163713 1
gene  2 2 27 4.588242947545481 0 113.0 4.588242947545481 1
genomeend 14
/*-------------------------------------------------------------------*/
/* Species # 011         : (size= 005) (AvfFit= 5.400) (Age= 79.000)  */
/*-------------------------------------------------------------------*/
/* Organism # 015 Fitness:  1.000 Error:  3.000                      */
genomestart  15
trait 1 0.13758880872216217 0.0 0.0 0.0 0.0 0.0 0.0 0.23261439317019972 
trait 2 0.2 0.2177678020902366 0.8961841467396098 0.796866821784067 0.0 0.0 0.7883933915082119 0.5811723472787429 
trait 3 0.6647931693886189 0.0 0.0 0.11609151232060977 0.0 0.1999730630644102 0.018335650124731706 0.0 
node 1 2 1 1
node 2 2 1 1
node 3 1 1 3
node 4 2 0 2
node 17 1 0 0
node 59 1 0 0
gene  3 1 4 2.12689434580482 0 1.0 2.12689434580482 0
gene  3 2 4 2.7095393320216887 0 2.0 2.7095393320216887 1
gene  3 3 4 -12.146486534032773 0 3.0 -12.146486534032773 1
gene  2 1 17 -1.1843290083320475 0 38.0 -1.1843290083320475 1
gene  3 17 4 19.936835885519777 0 39.0 19.936835885519777 1
gene  1 2 17 21.801755814421607 0 175.0 21.801755814421607 1
gene  2 2 59 -3.6391650453957025 0 244.0 -3.6391650453957025 1
gene  1 59 4 3.6888269240886564 0 245.0 3.6888269240886564 1
gene  1 1 59 -4.631885429901898 0 850.0 -4.631885429901898 1
gene  2 59 17 1.7644419366310657 0 1196.0 1.7644419366310657 1
genomeend 15
/* Organism # 016 Fitness:  9.000 Error:  1.000                      */
genomestart  16
trait 1 0.13758880872216217 0.0 0.0 0.0 0.0 0.0 0.0 0.23261439317019972 
trait 2 0.28584644030129075 0.2177678020902366 0.5832264568680608 0.796866821784067 0.0 0.0 0.7883933915082119 0.5811723472787429 
trait 3 0.6647931693886189 0.0 0.0 0.11609151232060977 0.0 0.1999730630644102 0.018335650124731706 0.0 
node 1 2 1 1
node 2 2 1 1
node 3 1 1 3
node 4 2 0 2
node 17 1 0 0
node 59 1 0 0
gene  3 1 4 -10.556261076898807 0 1.0 -10.556261076898807 0
gene  3 2 4 1.4592571225756323 0 2.0 1.4592571225756323 1
gene  3 3 4 -12.801888429954415 0 3.0 -12.801888429954415 1
gene  2 1 17 2.2284685373686317 0 38.0 2.2284685373686317 1
gene  3 17 4 20.632191800948036 0 39.0 20.632191800948036 1
gene  1 2 17 21.387845258025568 0 175.0 21.387845258025568 1
gene  2 2 59 -3.821380078133395 0 244.0 -3.821380078133395 1
gene  1 59 4 0.8470244993958504 0 245.0 0.8470244993958504 1
gene  1 1 59 -3.592225790235856 0 850.0 -3.592225790235856 1
gene  2 59 17 -13.259906298670767 0 1196.0 -13.259906298670767 1
genomeend 16
/* Organism # 017 Fitness:  4.000 Error:  2.000                      */
genomestart  17
trait 1 0.13758880872216217 0.0 0.0 0.0 0.0 0.0 0.0 0.23261439317019972 
trait 2 0.2 0.2177678020902366 0.8961841467396098 0.796866821784067 0.0 0.0 0.7883933915082119 0.5811723472787429 
trait 3 0.6647931693886189 0.0 0.0 0.11609151232060977 0.0 0.1999730630644102 0.018335650124731706 0.0 
node 1 2 1 1
node 2 2 1 1
node 3 1 1 3
node 4 2 0 2
node 17 1 0 0
node 59 1 0 0
gene  3 1 4 -6.72834086494076 0 1.0 -6.72834086494076 0
gene  3 2 4 2.693266854468828 0 2.0 2.693266854468828 1
gene  3 3 4 -8.433061506172205 0 3.0 -8.433061506172205 1
gene  2 1 17 2.2304208008778006 0 38.0 2.2304208008778006 1
gene  3 17 4 -1.4141529193767854 0 39.0 -1.4141529193767854 1
gene  1 2 17 19.92279565587903 0 175.0 19.92279565587903 1
gene  2 2 59 1.5034975683589744 0 244.0 1.5034975683589744 1
gene  1 59 4 4.928882117759102 0 245.0 4.928882117759102 1
gene  1 1 59 1.196288920020018 0 850.0 1.196288920020018 1
gene  2 59 17 -13.259906298670767 0 1196.0 -13.259906298670767 1
genomeend 17
/* Organism # 018 Fitness:  9.000 Error:  1.000                      */
genomestart  18
trait 1 0.13758880872216217 0.0 0.0 0.0 0.0 0.0 0.0 0.23261439317019972 
trait 2 0.2 0.2177678020902366 0.8961841467396098 0.796866821784067 0.0 0.0 0.7883933915082119 0.5811723472787429 
trait 3 0.6647931693886189 0.0 0.0 0.11609151232060977 0.0 0.1999730630644102 0.018335650124731706 0.0 
node 1 2 1 1
node 2 2 1 1
node 3 1 1 3
node 4 2 0 2
node 17 1 0 0
node 59 1 0 0
gene  3 1 4 -7.211198162513148 0 1.0 -7.211198162513148 0
gene  3 2 4 0.3643084178606586 0 2.0 0.3643084178606586 1
gene  3 3 4 -10.849789991952898 0 3.0 -10.849789991952898 1
gene  2 1 17 3.4495850451008887 0 38.0 3.4495850451008887 1
gene  3 17 4 19.389813496629987 0 39.0 19.389813496629987 1
gene  1 2 17 18.967245921919528 0 175.0 18.967245921919528 1
gene  2 2 59 -2.455179277460671 0 244.0 -2.455179277460671 1
gene  1 59 4 0.6054832670915786 0 245.0 0.6054832670915786 1
gene  1 1 59 -2.8302307163252447 0 850.0 -2.8302307163252447 1
gene  2 59 17 -10.909467703610282 0 1196.0 -10.909467703610282 1
genomeend 18
/* Organism # 019 Fitness:  4.000 Error:  2.000                      */
genomestart  19
trait 1 0.13758880872216217 0.0 0.0 0.0 0.0 0.0 0.0 0.23261439317019972 
trait 2 0.2 0.2177678020902366 0.8961841467396098 0.796866821784067 0.0 0.0 0.7883933915082119 0.5811723472787429 
trait 3 0.6647931693886189 0.0 0.0 0.11609151232060977 0.0 0.1999730630644102 0.018335650124731706 0.0 
node 1 2 1 1
node 2 2 1 1
node 3 1 1 3
node 4 2 0 2
node 17 1 0 0
node 59 1 0 0
gene  3 1 4 -10.27767241740234 0 1.0 -10.27767241740234 0
gene  3 2 4 2.012991456249858 0 2.0 2.012991456249858 1
gene  3 3 4 -12.835037086800883 0 3.0 -12.835037086800883 1
gene  2 1 17 -0.558139373348246 0 38.0 -0.558139373348246 1
gene  3 17 4 18.29843742374641 0 39.0 18.29843742374641 1
gene  1 2 17 21.2741215214314 0 175.0 21.2741215214314 1
gene  2 2 59 -2.136659334687505 0 244.0 -2.136659334687505 1
gene  1 59 4 1.4207265118882593 0 245.0 1.4207265118882593 1
gene  1 1 59 -4.528416597647127 0 850.0 -4.528416597647127 1
gene  2 59 17 -11.856710136135671 0 1196.0 -11.856710136135671 1
genomeend 19
/*-------------------------------------------------------------------*/
/* Species # 014         : (size= 004) (AvfFit= 8.822) (Age= 77.000)  */
/*-------------------------------------------------------------------*/
/* Organism # 020 Fitness:  8.289 Error:  1.121                      */
genomestart  20
trait 1 0.6235626876319484 1.0747697537559355 0.0 0.0328180214033661 0.0 0.745972087818952 0.16896126426604752 0.0 
trait 2 0.0 0.0 0.0 0.20631741608972873 0.0 0.3897432748031502 0.0 0.7538324996060509 
trait 3 0.4699729905849149 0.2310849248346033 0.21623721513782546 0.8577324532130781 0.2277504798096388 0.0 0.021860793569105474 0.0 
node 1 1 1 1
node 2 1 1 1
node 3 3 1 3
node 4 1 0 2
node 7 3 0 0
node 34 1 0 0
node 112 3 0 0
gene  1 1 4 -2.1767583537361466 0 1.0 -2.1767583537361466 1
gene  1 2 4 3.305537491630213 0 2.0 3.305537491630213 1
gene  3 3 4 2.9541502061396265 0 3.0 2.9541502061396265 1
gene  1 1 7 -1.4071177377554895 0 8.0 -1.4071177377554895 1
gene  2 7 4 14.169072235890585 0 9.0 14.169072235890585 1
gene  2 2 7 11.56264113100544 0 12.0 11.56264113100544 1
gene  2 3 7 6.904405512098741 0 64.0 6.904405512098741 1
gene  1 1 34 -9.178725009760912 0 105.0 -9.178725009760912 1
gene  1 34 7 1.5783420872038676 0 106.0 1.5783420872038676 1
gene  3 2 34 -1.4983750732263144 0 144.0 -1.4983750732263144 1
gene  2 34 4 -20.358064104516544 0 235.0 -20.358064104516544 1
gene  1 2 112 9.186117196046807 0 497.0 9.186117196046807 1
gene  2 112 4 0.33205845369838644 0 498.0 0.33205845369838644 1
gene  2 3 34 5.3797543108228 0 572.0 5.3797543108228 1
gene  3 34 112 -4.644551437897981 0 609.0 -4.644551437897981 1
gene  1 3 112 2.168366481283918 0 620.0 2.168366481283918 1
gene  3 7 112 1.637374331653652 0 670.0 1.637374331653652 1
gene  2 1 112 -5.459014045298741 0 804.0 -5.459014045298741 1
genomeend 20
/* Organism # 021 Fitness:  9.000 Error:  1.000                      */
genomestart  21
trait 1 0.7967452314742557 0.17845554332741934 0.0 0.0328180214033661 0.0 0.0 0.0 0.0 
trait 2 0.0 0.0 0.0 0.20631741608972873 0.0 0.3897432748031502 0.0 0.7538324996060509 
trait 3 0.4699729905849149 0.2310849248346033 0.21623721513782546 0.8577324532130781 0.2277504798096388 0.0 0.021860793569105474 0.0 
node 1 1 1 1
node 2 1 1 1
node 3 3 1 3
node 4 1 0 2
node 7 3 0 0
node 34 1 0 0
node 112 3 0 0
gene  1 1 4 -5.004046230601043 0 1.0 -5.004046230601043 1
gene  1 2 4 4.035285002988374 0 2.0 4.035285002988374 1
gene  3 3 4 3.3902008576150986 0 3.0 3.3902008576150986 1
gene  1 1 7 -2.783271666103602 0 8.0 -2.783271666103602 1
gene  2 7 4 12.088046387130513 0 9.0 12.088046387130513 1
gene  2 2 7 6.971598411341441 0 12.0 6.971598411341441 1
gene  2 3 7 3.3015423810770455 0 64.0 3.3015423810770455 1
gene  1 1 34 -6.659424042173906 0 105.0 -6.659424042173906 1
gene  1 34 7 -14.917182150484074 0 106.0 -14.917182150484074 1
gene  3 2 34 4.42812018891787 0 144.0 4.42812018891787 1
gene  2 34 4 -18.985327037030114 0 235.0 -18.985327037030114 1
gene  1 2 112 5.639503006202419 0 497.0 5.639503006202419 1
gene  2 112 4 15.879951050504104 0 498.0 15.879951050504104 1
gene  2 3 34 8.674703855907493 0 572.0 8.674703855907493 1
gene  3 34 112 -2.5171362512236306 0 609.0 -2.5171362512236306 1
gene  1 3 112 2.012189866034537 0 620.0 2.012189866034537 1
gene  3 7 112 -2.644182922250736 0 670.0 -2.644182922250736 1
gene  2 1 112 -6.2303791091849 0 804.0 -6.2303791091849 1
genomeend 21
/* Organism # 022 Fitness:  9.000 Error:  1.000                      */
genomestart  22
trait 1 0.6235626876319484 1.0747697537559355 0.0 0.0328180214033661 0.0 0.745972087818952 0.16896126426604752 0.0 
trait 2 0.0 0.0 0.0 0.20631741608972873 0.0 0.3897432748031502 0.0 0.7538324996060509 
trait 3 0.4699729905849149 0.2310849248346033 0.21623721513782546 0.8577324532130781 0.2277504798096388 0.0 0.021860793569105474 0.0 
node 1 1 1 1
node 2 1 1 1
node 3 3 1 3
node 4 1 0 2
node 7 3 0 0
node 34 1 0 0
node 112 3 0 0
gene  1 1 4 -2.8178691408084853 0 1.0 -2.8178691408084853 1
gene  1 2 4 2.0629740843596394 0 2.0 2.0629740843596394 1
gene  3 3 4 6.528920295720495 0 3.0 6.528920295720495 1
gene  1 1 7 -1.9168978702823736 0 8.0 -1.9168978702823736 1
gene  2 7 4 13.111310046263432 0 9.0 13.111310046263432 1
gene  2 2 7 7.217412513102951 0 12.0 7.217412513102951 1
gene  2 3 7 4.885025379982441 0 64.0 4.885025379982441 1
gene  1 1 34 -7.244170189965386 0 105.0 -7.244170189965386 1
gene  1 34 7 -11.743764297670667 0 106.0 -11.743764297670667 1
gene  3 2 34 -0.49181026178796516 0 144.0 -0.49181026178796516 1
gene  2 34 4 -19.726605117785162 0 235.0 -19.726605117785162 1
gene  1 2 112 8.285130201790528 0 497.0 8.285130201790528 1
gene  2 112 4 12.941313485062205 0 498.0 12.941313485062205 1
gene  2 3 34 6.107306907412054 0 572.0 6.107306907412054 1
gene  3 34 112 -5.069103084234269 0 609.0 -5.069103084234269 1
gene  1 3 112 0.8890123642056191 0 620.0 0.8890123642056191 1
gene  3 7 112 -0.9474582780752607 0 670.0 -0.9474582780752607 1
gene  2 1 112 -3.2614718642187666 0 804.0 -3.2614718642187666 1
genomeend 22
/* Organism # 023 Fitness:  9.000 Error:  1.000                      */
genomestart  23
trait 1 1.559642906448984 1.8324874991995603 0.0 0.0 0.32490928925442997 0.745972087818952 0.7412691472794849 0.0 
trait 2 0.0 0.0 0.0 0.20631741608972873 0.0 0.3897432748031502 0.0 0.7538324996060509 
trait 3 0.4699729905849149 0.2310849248346033 0.21623721513782546 0.8577324532130781 0.2277504798096388 0.0 0.021860793569105474 0.0 
node 1 1 1 1
node 2 1 1 1
node 3 3 1 3
node 4 1 0 2
node 7 3 0 0
node 34 1 0 0
node 112 3 0 0
gene  1 1 4 -1.741092263593742 0 1.0 -1.741092263593742 1
gene  1 2 4 3.3517490938835697 0 2.0 3.3517490938835697 1
gene  3 3 4 5.2126327838224675 0 3.0 5.2126327838224675 1
gene  1 1 7 -2.555965829266415 0 8.0 -2.555965829266415 1
gene  2 7 4 12.059903247939742 0 9.0 12.059903247939742 1
gene  2 2 7 11.65311802502468 0 12.0 11.65311802502468 1
gene  2 3 7 5.700134955158839 0 64.0 5.700134955158839 1
gene  1 1 34 -8.552921802497398 0 105.0 -8.552921802497398 1
gene  1 34 7 -12.239803805304518 0 106.0 -12.239803805304518 1
gene  3 2 34 -1.27812375997265 0 144.0 -1.27812375997265 1
gene  2 34 4 -19.33041452182538 0 235.0 -19.33041452182538 1
gene  1 2 112 7.610303596170624 0 497.0 7.610303596170624 1
gene  2 112 4 12.91835883253328 0 498.0 12.91835883253328 1
gene  2 3 34 6.280635063784393 0 572.0 6.280635063784393 1
gene  3 34 112 -4.123031132285903 0 609.0 -4.123031132285903 1
gene  1 3 112 0.42411933397124235 0 620.0 0.42411933397124235 1
gene  3 7 112 -0.8437516742821632 0 670.0 -0.8437516742821632 1
gene  2 1 112 -4.49542250185885 0 804.0 -4.49542250185885 1
genomeend 23
/*-------------------------------------------------------------------*/
/* Species # 016         : (size= 003) (AvfFit= 9.000) (Age= 76.000)  */
/*-------------------------------------------------------------------*/
/* Organism # 024 Fitness:  9.000 Error:  1.000                      */
genomestart  24
trait 1 0.07915039062500001 0.18676597304119621 0.0 0.03434631161577775 0.0 0.01964290855023909 0.0 0.0 
trait 2 0.0 0.0 0.0 0.22054537128060178 0.0 0.7550646294524289 0.0 0.0 
trait 3 0.3 0.0653502357306296 0.08715683671371535 0.22808661851128836 0.0 0.3452723060109913 0.16840750186746922 0.0 
node 1 2 1 1
node 2 1 1 1
node 3 1 1 3
node 4 3 0 2
node 7 3 0 0
node 36 1 0 0
node 158 1 0 0
node 215 1 0 0
gene  1 1 4 2.145620602861032 0 1.0 2.145620602861032 1
gene  2 2 4 -19.598632613576697 0 2.0 -19.598632613576697 1
gene  3 3 4 -5.912391596492867 0 3.0 -5.912391596492867 1
gene  3 1 7 20.933598720666055 0 8.0 20.933598720666055 1
gene  1 7 4 12.954425017716352 0 9.0 12.954425017716352 0
gene  2 2 7 -1.4949365231486942 0 12.0 -1.4949365231486942 1
gene  2 3 7 -2.9779872346396514 0 64.0 -2.9779872346396514 1
gene  3 2 36 15.335606818645509 0 114.0 15.335606818645509 1
gene  2 36 4 0.5197507101879655 0 115.0 0.5197507101879655 1
gene  3 3 36 1.9277790679534024 0 424.0 1.9277790679534024 1
gene  1 1 158 -6.852605469659306 0 707.0 -6.852605469659306 1
gene  1 158 4 -0.286877966654977 0 708.0 -0.286877966654977 1
gene  3 1 36 4.725276417578584 0 844.0 4.725276417578584 1
gene  1 7 215 14.193321199856273 0 933.0 14.193321199856273 1
gene  1 215 4 15.70249073575236 0 934.0 15.70249073575236 1
gene  1 7 158 8.653112769735875 0 985.0 8.653112769735875 1
gene  3 215 158 0.6947064517088946 0 1082.0 0.6947064517088946 1
gene  1 3 215 -9.910551347464995 0 1218.0 -9.910551347464995 1
gene  3 158 36 9.913438263759597 0 1234.0 9.913438263759597 1
genomeend 24
/* Organism # 025 Fitness:  9.000 Error:  1.000                      */
genomestart  25
trait 1 0.07915039062500001 0.18676597304119621 0.0 0.03434631161577775 0.0 0.01964290855023909 0.0 0.0 
trait 2 0.0 0.0 0.0 0.22054537128060178 0.0 0.7550646294524289 0.0 0.0 
trait 3 0.3 0.0653502357306296 0.08715683671371535 0.22808661851128836 0.0 0.3452723060109913 0.16840750186746922 0.0 
node 1 2 1 1
node 2 1 1 1
node 3 1 1 3
node 4 3 0 2
node 7 3 0 0
node 36 1 0 0
node 158 1 0 0
node 215 1 0 0
gene  1 1 4 2.0471409653735106 0 1.0 2.0471409653735106 1
gene  2 2 4 -17.213422833312617 0 2.0 -17.213422833312617 1
gene  3 3 4 -2.670021634592293 0 3.0 -2.670021634592293 1
gene  3 1 7 21.03436168175436 0 8.0 21.03436168175436 1
gene  1 7 4 16.499592158678453 0 9.0 16.499592158678453 0
gene  2 2 7 -5.0523644375671095 0 12.0 -5.0523644375671095 1
gene  2 3 7 -2.6183167501068194 0 64.0 -2.6183167501068194 1
gene  3 2 36 17.598605064402552 0 114.0 17.598605064402552 1
gene  2 36 4 -1.9971262327136912 0 115.0 -1.9971262327136912 1
gene  3 3 36 3.074051480749159 0 424.0 3.074051480749159 1
gene  1 1 158 -4.4288250392354085 0 707.0 -4.4288250392354085 1
gene  1 158 4 -3.0162044755549244 0 708.0 -3.0162044755549244 1
gene  3 1 36 5.949953453609678 0 844.0 5.949953453609678 1
gene  1 7 215 11.017109205647852 0 933.0 11.017109205647852 1
gene  1 215 4 15.12143787704474 0 934.0 15.12143787704474 1
gene  1 7 158 6.968043826582418 0 985.0 6.968043826582418 1
gene  3 215 158 0.2139529962014679 0 1082.0 0.2139529962014679 1
gene  1 3 215 -9.354498126890533 0 1218.0 -9.354498126890533 1
gene  3 158 36 13.057594099926625 0 1234.0 13.057594099926625 1
genomeend 25
/* Organism # 026 Fitness:  9.000 Error:  1.000                      */
genomestart  26
trait 1 0.07915039062500001 0.18676597304119621 0.0 0.03434631161577775 0.0 0.01964290855023909 0.0 0.0 
trait 2 0.0 0.0 0.0 0.22054537128060178 0.0 0.7550646294524289 0.0 0.0 
trait 3 0.3 0.0653502357306296 0.08715683671371535 0.22808661851128836 0.0 0.3452723060109913 0.16840750186746922 0.0 
node 1 2 1 1
node 2 1 1 1
node 3 1 1 3
node 4 3 0 2
node 7 3 0 0
node 36 1 0 0
node 158 1 0 0
node 215 1 0 0
node 299 1 0 0
gene  1 1 4 4.799338011069567 0 1.0 4.799338011069567 1
gene  2 2 4 -17.1986361678721 0 2.0 -17.1986361678721 1
gene  3 3 4 -4.998955965431103 0 3.0 -4.998955965431103 1
gene  3 1 7 19.889054096110574 0 8.0 19.889054096110574 1
gene  1 7 4 13.076082931490964 0 9.0 13.076082931490964 0
gene  2 2 7 -2.030379862120972 0 12.0 -2.030379862120972 1
gene  2 3 7 -2.4754807517161677 0 64.0 -2.4754807517161677 1
gene  3 2 36 16.975503071461528 0 114.0 16.975503071461528 1
gene  2 36 4 -3.5844247597691257 0 115.0 -3.5844247597691257 1
gene  3 3 36 1.456579951324436 0 424.0 1.456579951324436 1
gene  1 1 158 -6.204792244241673 0 707.0 -6.204792244241673 1
gene  1 158 4 -1.3597149279092715 0 708.0 -1.3597149279092715 1
gene  3 1 36 4.481662181943996 0 844.0 4.481662181943996 1
gene  1 7 215 10.500878423209166 0 933.0 10.500878423209166 1
gene  1 215 4 16.220096071813984 0 934.0 16.220096071813984 1
gene  1 7 158 7.672188281163002 0 985.0 7.672188281163002 1
gene  3 215 158 -0.8759322167327697 0 1082.0 -0.8759322167327697 0
gene  1 3 215 -8.189521349522511 0 1218.0 -8.189521349522511 1
gene  3 158 36 11.582043038524473 0 1234.0 11.582043038524473 1
gene  3 215 299 1.0 0 1304.0 0.0 1
gene  3 299 158 -0.8759322167327697 0 1305.0 0.0 1
genomeend 26
/*-------------------------------------------------------------------*/
/* Species # 017         : (size= 005) (AvfFit= 7.356) (Age= 75.000)  */
/*-------------------------------------------------------------------*/
/* Organism # 027 Fitness:  3.967 Error:  2.008                      */
genomestart  27
trait 1 0.519277221665123 0.06792372724096563 0.0 0.4826060874653464 0.0 0.048750027671035825 0.001001516964367476 0.0 
trait 2 0.2 0.0 0.002227223157005076 0.11841663115858847 0.0 0.0 0.9028370149050807 0.0 
trait 3 0.013246439942365629 0.0 0.0 0.0 0.0 0.10132158262737821 0.0865647617141137 0.07354908607405791 
node 1 3 1 1
node 2 3 1 1
node 3 1 1 3
node 4 3 0 2
node 12 1 0 0
node 37 1 0 0
node 134 1 0 0
node 182 1 0 0
node 199 1 0 0
node 244 1 0 0
gene  1 1 4 -5.088115641369645 0 1.0 -5.088115641369645 1
gene  2 2 4 2.339575352104164 0 2.0 2.339575352104164 1
gene  1 3 4 -3.521313667828046 0 3.0 -3.521313667828046 1
gene  1 1 12 3.477832599264417 0 21.0 3.477832599264417 1
gene  1 12 4 -0.6900795245073246 0 22.0 -0.6900795245073246 1
gene  3 2 12 5.356356984786575 0 36.0 5.356356984786575 1
gene  1 3 12 0.44817270208924476 0 86.0 0.44817270208924476 1
gene  3 1 37 -0.14842832723763322 0 117.0 -0.14842832723763322 1
gene  1 37 4 4.0748302984681715 0 118.0 4.0748302984681715 1
gene  2 37 12 -8.8916022390144 0 193.0 -8.8916022390144 1
gene  1 2 37 -0.763125966503603 0 259.0 -0.763125966503603 1
gene  1 1 134 -3.685428169672818 0 602.0 -3.685428169672818 1
gene  1 134 4 1.1359106083386719 0 603.0 1.1359106083386719 1
gene  1 134 12 2.3426224439369845 0 640.0 2.3426224439369845 1
gene  1 1 182 -2.011822984830008 0 784.0 -2.011822984830008 1
gene  1 182 12 -0.6855459415988281 0 785.0 -0.6855459415988281 1
gene  1 182 199 2.6017614243347245 0 857.0 2.6017614243347245 1
gene  1 199 12 -1.0668726063586496 0 858.0 -1.0668726063586496 1
gene  1 182 244 -2.8385982025171432 0 1054.0 -2.8385982025171432 1
gene  1 244 199 -2.988364183953508 0 1055.0 -2.988364183953508 1
genomeend 27
/* Organism # 028 Fitness:  8.994 Error:  1.001                      */
genomestart  28
trait 1 0.519277221665123 0.06792372724096563 0.0 0.4826060874653464 0.0 0.048750027671035825 0.001001516964367476 0.0 
trait 2 0.2 0.0 0.002227223157005076 0.11841663115858847 0.0 0.0 0.9028370149050807 0.0 
trait 3 0.013246439942365629 0.0 0.0 0.0 0.0 0.10132158262737821 0.0865647617141137 0.07354908607405791 
node 1 3 1 1
node 2 3 1 1
node 3 1 1 3
node 4 3 0 2
node 12 1 0 0
node 37 1 0 0
node 134 1 0 0
node 182 1 0 0
node 199 1 0 0
node 244 1 0 0
gene  1 1 4 -5.455030039111641 0 1.0 -5.455030039111641 1
gene  2 2 4 1.8782157974964302 0 2.0 1.8782157974964302 1
gene  1 3 4 -5.589069193332837 0 3.0 -5.589069193332837 1
gene  1 1 12 4.037930187058783 0 21.0 4.037930187058783 1
gene  1 12 4 -2.6734245703185944 0 22.0 -2.6734245703185944 1
gene  3 2 12 4.961659478182432 0 36.0 4.961659478182432 1
gene  1 3 12 -1.4932954967101406 0 86.0 -1.4932954967101406 1
gene  3 1 37 1.7603483160090425 0 117.0 1.7603483160090425 1
gene  1 37 4 4.0748302984681715 0 118.0 4.0748302984681715 1
gene  2 37 12 -6.674456116567124 0 193.0 -6.674456116567124 1
gene  1 2 37 2.00082292610382 0 259.0 2.00082292610382 1
gene  1 1 134 -6.072419657561524 0 602.0 -6.072419657561524 1
gene  1 134 4 2.1074976431325423 0 603.0 2.1074976431325423 1
gene  1 134 12 2.9567464154978147 0 640.0 2.9567464154978147 1
gene  1 1 182 -5.367057509486013 0 784.0 -5.367057509486013 1
gene  1 182 12 -1.303167254308824 0 785.0 -1.303167254308824 1
gene  1 182 199 3.59661043170974 0 857.0 3.59661043170974 1
gene  1 199 12 1.1816566247080598 0 858.0 1.1816566247080598 1
gene  1 182 244 -2.8385982025171432 0 1054.0 -2.8385982025171432 1
gene  1 244 199 -4.21377367200835 0 1055.0 -4.21377367200835 1
gene  1 2 244 3.1905831976586474 0 1329.0 3.1905831976586474 1
genomeend 28
/* Organism # 029 Fitness:  8.967 Error:  1.006                      */
genomestart  29
trait 1 0.519277221665123 0.06792372724096563 0.0 0.4826060874653464 0.0 0.048750027671035825 0.001001516964367476 0.0 
trait 2 0.2 0.0 0.002227223157005076 0.11841663115858847 0.0 0.0 0.9028370149050807 0.0 
trait 3 0.013246439942365629 0.0 0.0 0.0 0.0 0.10132158262737821 0.0865647617141137 0.07354908607405791 
node 1 3 1 1
node 2 3 1 1
node 3 1 1 3
node 4 3 0 2
node 12 1 0 0
node 37 1 0 0
node 134 1 0 0
node 182 1 0 0
node 199 1 0 0
node 244 1 0 0
gene  1 1 4 -7.4261961926921884 0 1.0 -7.4261961926921884 1
gene  2 2 4 3.1483114171180295 0 2.0 3.1483114171180295 1
gene  1 3 4 -3.451541872824704 0 3.0 -3.451541872824704 1
gene  1 1 12 6.216207240580816 0 21.0 6.216207240580816 1
gene  1 12 4 -1.8421026884313814 0 22.0 -1.8421026884313814 1
gene  3 2 12 4.961659478182432 0 36.0 4.961659478182432 1
gene  1 3 12 -3.5972896899748754 0 86.0 -3.5972896899748754 1
gene  3 1 37 3.4775344963473787 0 117.0 3.4775344963473787 1
gene  1 37 4 2.652357005836856 0 118.0 2.652357005836856 1
gene  2 37 12 0.29113207243061323 0 193.0 0.29113207243061323 1
gene  1 2 37 3.0435638953084667 0 259.0 3.0435638953084667 1
gene  1 1 134 -5.487389195026343 0 602.0 -5.487389195026343 1
gene  1 134 4 2.1074976431325423 0 603.0 2.1074976431325423 1
gene  1 134 12 0.516802119982307 0 640.0 0.516802119982307 1
gene  1 1 182 2.0974853878404724 0 784.0 2.0974853878404724 1
gene  1 182 12 0.5779628484764485 0 785.0 0.5779628484764485 1
gene  1 182 199 6.00076785659609 0 857.0 6.00076785659609 1
gene  1 199 12 1.1816566247080598 0 858.0 1.1816566247080598 1
gene  1 182 244 -2.8385982025171432 0 1054.0 -2.8385982025171432 1
gene  1 244 199 -4.192115541194431 0 1055.0 -4.192115541194431 1
genomeend 29
/* Organism # 030 Fitness:  5.864 Error:  1.578                      */
genomestart  30
trait 1 0.519277221665123 0.06792372724096563 0.0 0.4826060874653464 0.0 0.048750027671035825 0.001001516964367476 0.0 
trait 2 0.2 0.0 0.002227223157005076 0.11841663115858847 0.0 0.0 0.9028370149050807 0.0 
trait 3 0.013246439942365629 0.0 0.0 0.0 0.0 0.10132158262737821 0.0865647617141137 0.07354908607405791 
node 1 3 1 1
node 2 3 1 1
node 3 1 1 3
node 4 3 0 2
node 12 1 0 0
node 37 1 0 0
node 134 1 0 0
node 182 1 0 0
node 199 1 0 0
node 244 1 0 0
gene  1 1 4 -5.455030039111641 0 1.0 -5.455030039111641 1
gene  2 2 4 1.6384146955098244 0 2.0 1.6384146955098244 1
gene  1 3 4 -2.197943111249819 0 3.0 -2.197943111249819 1
gene  1 1 12 6.264979245164538 0 21.0 6.264979245164538 1
gene  1 12 4 -4.788559457728814 0 22.0 -4.788559457728814 1
gene  3 2 12 4.499695204245214 0 36.0 4.499695204245214 1
gene  1 3 12 -0.8617602125773014 0 86.0 -0.8617602125773014 1
gene  3 1 37 2.1346893933787077 0 117.0 2.1346893933787077 1
gene  1 37 4 2.2774091148031013 0 118.0 2.2774091148031013 1
gene  2 37 12 -5.676883039178792 0 193.0 -5.676883039178792 1
gene  1 2 37 2.6191901339649304 0 259.0 2.6191901339649304 1
gene  1 1 134 -4.114822522437612 0 602.0 -4.114822522437612 1
gene  1 134 4 2.2468402617375802 0 603.0 2.2468402617375802 1
gene  1 134 12 2.9567464154978147 0 640.0 2.9567464154978147 1
gene  1 1 182 -6.286622899772555 0 784.0 -6.286622899772555 1
gene  1 182 12 -2.0835246800882072 0 785.0 -2.0835246800882072 1
gene  1 182 199 2.445804559465583 0 857.0 2.445804559465583 1
gene  1 199 12 0.07845848207138517 0 858.0 0.07845848207138517 1
gene  1 182 244 -2.8385982025171432 0 1054.0 -2.8385982025171432 1
gene  1 244 199 -1.6788707220001235 0 1055.0 -1.6788707220001235 1
genomeend 30
/* Organism # 031 Fitness:  8.989 Error:  1.002                      */
genomestart  31
trait 1 0.519277221665123 0.06792372724096563 0.0 0.4826060874653464 0.0 0.048750027671035825 0.001001516964367476 0.0 
trait 2 0.2 0.0 0.002227223157005076 0.11841663115858847 0.0 0.0 0.9028370149050807 0.0 
trait 3 0.013246439942365629 0.0 0.0 0.0 0.0 0.10132158262737821 0.0865647617141137 0.07354908607405791 
node 1 3 1 1
node 2 3 1 1
node 3 1 1 3
node 4 3 0 2
node 12 1 0 0
node 37 1 0 0
node 134 1 0 0
node 182 1 0 0
node 199 1 0 0
node 244 1 0 0
gene  1 1 4 -7.277060758341676 0 1.0 -7.277060758341676 1
gene  2 2 4 0.4233672031447058 0 2.0 0.4233672031447058 1
gene  1 3 4 -5.589069193332837 0 3.0 -5.589069193332837 1
gene  1 1 12 1.7188724724796378 0 21.0 1.7188724724796378 1
gene  1 12 4 -3.229562077915614 0 22.0 -3.229562077915614 1
gene  3 2 12 -0.7680565412671871 0 36.0 -0.7680565412671871 1
gene  1 3 12 1.1432219754727027 0 86.0 1.1432219754727027 1
gene  3 1 37 2.021425172043114 0 117.0 2.021425172043114 1
gene  1 37 4 4.999027598293237 0 118.0 4.999027598293237 1
gene  2 37 12 -8.838412265040672 0 193.0 -8.838412265040672 1
gene  1 2 37 1.7700075343632407 0 259.0 1.7700075343632407 1
gene  1 1 134 -4.658371221745039 0 602.0 -4.658371221745039 1
gene  1 134 4 3.0049700606360297 0 603.0 3.0049700606360297 1
gene  1 134 12 4.8612686369373375 0 640.0 4.8612686369373375 1
gene  1 1 182 -1.070031943903877 0 784.0 -1.070031943903877 1
gene  1 182 12 0.4738029431571836 0 785.0 0.4738029431571836 1
gene  1 182 199 3.778255255615169 0 857.0 3.778255255615169 1
gene  1 199 12 -1.124897849120456 0 858.0 -1.124897849120456 1
gene  1 182 244 -0.44091844298622984 0 1054.0 -0.44091844298622984 1
gene  1 244 199 -4.21377367200835 0 1055.0 -4.21377367200835 1
genomeend 31
/*-------------------------------------------------------------------*/
/* Species # 019         : (size= 004) (AvfFit= 7.750) (Age= 74.000)  */
/*-------------------------------------------------------------------*/
/* Organism # 032 Fitness:  9.000 Error:  1.000                      */
genomestart  32
trait 1 0.0853515625 0.13121731127016129 0.0 0.024130898090710368 0.0 0.0 0.0 0.0 
trait 2 0.7318291397837294 0.3245490479734989 0.030018305407581998 0.0522542106662498 0.0 0.0 0.0 0.0 
trait 3 0.3 0.019853236171330516 0.4501264478379223 0.0 0.0 0.6568022356739168 0.028566163676391813 0.41597304963488424 
node 1 3 1 1
node 2 2 1 1
node 3 1 1 3
node 4 1 0 2
node 7 1 0 0
node 37 1 0 0
node 187 1 0 0
node 233 1 0 0
gene  1 1 4 3.0399659397010232 0 1.0 3.0399659397010232 0
gene  2 2 4 -1.0852148960075712 0 2.0 -1.0852148960075712 1
gene  3 3 4 -11.504513021557909 0 3.0 -11.504513021557909 1
gene  1 1 7 11.85206188260113 0 8.0 11.85206188260113 1
gene  3 7 4 20.052063866903733 0 9.0 20.052063866903733 1
gene  1 2 7 -16.84027910195699 0 12.0 -16.84027910195699 1
gene  2 3 7 -9.181186482810476 0 64.0 -9.181186482810476 1
gene  1 1 37 -2.0989676617422264 0 117.0 -2.0989676617422264 0
gene  1 37 4 1.963806704263391 0 118.0 1.963806704263391 1
gene  3 7 37 -0.25111857448727604 0 155.0 -0.25111857448727604 1
gene  3 3 37 4.466306148851363 0 167.0 4.466306148851363 1
gene  2 2 37 -4.121004978508065 0 222.0 -4.121004978508065 1
gene  3 1 187 0.7215428282106704 0 807.0 0.7215428282106704 1
gene  1 187 4 -0.11031185661433768 0 808.0 -0.11031185661433768 1
gene  2 7 187 8.088372925968 0 935.0 8.088372925968 1
gene  2 1 233 4.251947513780655 0 1004.0 4.251947513780655 1
gene  1 233 37 -3.517951787453349 0 1005.0 -3.517951787453349 1
gene  3 2 233 -7.264891703298375 0 1039.0 -7.264891703298375 1
gene  2 187 37 1.1056626480789264 0 1096.0 1.1056626480789264 1
genomeend 32
/* Organism # 033 Fitness:  4.000 Error:  2.000                      */
genomestart  33
trait 1 0.0853515625 0.13121731127016129 0.0 0.024130898090710368 0.0 0.0 0.0 0.0 
trait 2 0.7318291397837294 0.3245490479734989 0.030018305407581998 0.0522542106662498 0.0 0.0 0.0 0.0 
trait 3 0.3 0.019853236171330516 0.4501264478379223 0.0 0.0 0.6568022356739168 0.028566163676391813 0.41597304963488424 
node 1 3 1 1
node 2 2 1 1
node 3 1 1 3
node 4 1 0 2
node 7 1 0 0
node 37 1 0 0
node 187 1 0 0
node 233 1 0 0
gene  1 1 4 0.2686953233670957 0 1.0 0.2686953233670957 0
gene  2 2 4 -0.9295453991378289 0 2.0 -0.9295453991378289 1
gene  3 3 4 -12.156568254393196 0 3.0 -12.156568254393196 1
gene  1 1 7 14.70496244416305 0 8.0 14.70496244416305 1
gene  3 7 4 -0.22019976012349785 0 9.0 -0.22019976012349785 1
gene  1 2 7 -13.460367800165425 0 12.0 -13.460367800165425 1
gene  2 3 7 -12.392884624096318 0 64.0 -12.392884624096318 1
gene  1 1 37 2.0079011290750004 0 117.0 2.0079011290750004 0
gene  1 37 4 0.9060405686465434 0 118.0 0.9060405686465434 1
gene  3 7 37 -2.433917536659838 0 155.0 -2.433917536659838 1
gene  3 3 37 0.6203566220502279 0 167.0 0.6203566220502279 1
gene  2 2 37 -3.6303631760646 0 222.0 -3.6303631760646 1
gene  3 1 187 -1.4442747286981215 0 807.0 -1.4442747286981215 1
gene  1 187 4 2.5225436255146154 0 808.0 2.5225436255146154 1
gene  2 7 187 9.973246432137818 0 935.0 9.973246432137818 1
gene  2 1 233 2.673960940237559 0 1004.0 2.673960940237559 1
gene  1 233 37 -6.5099300079014855 0 1005.0 -6.5099300079014855 1
gene  3 2 233 -2.1489841933736136 0 1039.0 -2.1489841933736136 1
gene  2 187 37 1.8082388786098718 0 1096.0 1.8082388786098718 1
genomeend 33
/* Organism # 034 Fitness:  9.000 Error:  1.000                      */
genomestart  34
trait 1 0.0853515625 0.13121731127016129 0.0 0.024130898090710368 0.0 0.0 0.0 0.0 
trait 2 0.7318291397837294 0.3245490479734989 0.030018305407581998 0.0522542106662498 0.0 0.0 0.0 0.0 
trait 3 0.3 0.019853236171330516 0.4501264478379223 0.0 0.0 0.6568022356739168 0.028566163676391813 0.41597304963488424 
node 1 3 1 1
node 2 2 1 1
node 3 1 1 3
node 4 1 0 2
node 7 1 0 0
node 37 1 0 0
node 187 1 0 0
node 233 1 0 0
gene  1 1 4 -0.22070807658755254 0 1.0 -0.22070807658755254 0
gene  2 2 4 -4.887932179044121 0 2.0 -4.887932179044121 1
gene  3 3 4 -12.791120438809239 0 3.0 -12.791120438809239 1
gene  1 1 7 14.663577073908634 0 8.0 14.663577073908634 1
gene  3 7 4 18.11328749831306 0 9.0 18.11328749831306 1
gene  1 2 7 -11.782124874141363 0 12.0 -11.782124874141363 1
gene  2 3 7 -10.119951881846685 0 64.0 -10.119951881846685 1
gene  1 1 37 -2.589513432748488 0 117.0 -2.589513432748488 0
gene  1 37 4 -0.016061278535136836 0 118.0 -0.016061278535136836 1
gene  3 7 37 0.9573728945723392 0 155.0 0.9573728945723392 1
gene  3 3 37 3.050760950451508 0 167.0 3.050760950451508 1
gene  2 2 37 -4.560245709833025 0 222.0 -4.560245709833025 1
gene  3 1 187 -1.56218806816681 0 807.0 -1.56218806816681 1
gene  1 187 4 0.988838955668732 0 808.0 0.988838955668732 1
gene  2 7 187 10.1400127213935 0 935.0 10.1400127213935 1
gene  2 1 233 2.431961946384654 0 1004.0 2.431961946384654 1
gene  1 233 37 -5.758134860727813 0 1005.0 -5.758134860727813 1
gene  3 2 233 -4.602538074146059 0 1039.0 -4.602538074146059 1
gene  2 187 37 -1.1086557243787996 0 1096.0 -1.1086557243787996 1
genomeend 34
/* Organism # 035 Fitness:  9.000 Error:  1.000                      */
genomestart  35
trait 1 0.0853515625 0.13121731127016129 0.0 0.024130898090710368 0.0 0.0 0.0 0.0 
trait 2 0.7318291397837294 0.3245490479734989 0.030018305407581998 0.0522542106662498 0.0 0.0 0.0 0.0 
trait 3 0.3 0.019853236171330516 0.4501264478379223 0.0 0.0 0.6568022356739168 0.028566163676391813 0.41597304963488424 
node 1 3 1 1
node 2 2 1 1
node 3 1 1 3
node 4 1 0 2
node 7 1 0 0
node 37 1 0 0
node 187 1 0 0
node 233 1 0 0
gene  1 1 4 -1.064235768254275 0 1.0 -1.064235768254275 0
gene  2 2 4 -7.80130910764549 0 2.0 -7.80130910764549 1
gene  3 3 4 -13.33103015682505 0 3.0 -13.33103015682505 1
gene  1 1 7 15.118249855077265 0 8.0 15.118249855077265 1
gene  3 7 4 21.227309909899834 0 9.0 21.227309909899834 1
gene  1 2 7 -17.655223631749585 0 12.0 -17.655223631749585 1
gene  2 3 7 -10.519346861176661 0 64.0 -10.519346861176661 1
gene  1 1 37 -3.420418330585141 0 117.0 -3.420418330585141 0
gene  1 37 4 1.8658045681100037 0 118.0 1.8658045681100037 1
gene  3 7 37 -1.1865313654413772 0 155.0 -1.1865313654413772 1
gene  3 3 37 1.910297280249184 0 167.0 1.910297280249184 1
gene  2 2 37 -4.809930773893779 0 222.0 -4.809930773893779 1
gene  3 1 187 -1.2374636425237673 0 807.0 -1.2374636425237673 1
gene  1 187 4 -1.6383426032403747 0 808.0 -1.6383426032403747 1
gene  2 7 187 -0.8041953865260645 0 935.0 -0.8041953865260645 1
gene  2 1 233 4.108073248185226 0 1004.0 4.108073248185226 1
gene  1 233 37 -3.4772895846952037 0 1005.0 -3.4772895846952037 1
gene  3 2 233 -7.572266119543674 0 1039.0 -7.572266119543674 1
gene  2 187 37 1.253844231594554 0 1096.0 1.253844231594554 1
genomeend 35
/*-------------------------------------------------------------------*/
/* Species # 023         : (size= 003) (AvfFit= 7.325) (Age= 72.000)  */
/*-------------------------------------------------------------------*/
/* Organism # 036 Fitness:  4.000 Error:  2.000                      */
genomestart  36
trait 1 0.6244092353419322 0.18676597304119621 0.0 0.0 0.0 0.0 0.0 1.0859980841985493 
trait 2 0.2325853718784447 0.0 0.6386640856000645 0.2403165933703809 0.4692449137731377 0.0 0.0 0.9744350084943001 
trait 3 0.3 0.1307004714612592 0.1743136734274307 0.0 0.0 0.6874777039807156 0.1880605775362461 0.0 
node 1 3 1 1
node 2 1 1 1
node 3 3 1 3
node 4 3 0 2
node 7 2 0 0
node 36 3 0 0
node 176 1 0 0
gene  3 1 4 9.771762695788583 0 1.0 9.771762695788583 1
gene  2 2 4 -8.573637167128087 0 2.0 -8.573637167128087 1
gene  3 3 4 -7.311501020384261 0 3.0 -7.311501020384261 1
gene  1 1 7 -1.7856901570366321 0 8.0 -1.7856901570366321 1
gene  1 7 4 2.860490540985194 0 9.0 2.860490540985194 1
gene  2 2 7 1.4471091645274323 0 12.0 1.4471091645274323 1
gene  2 3 7 7.60184374966136 0 64.0 7.60184374966136 1
gene  2 2 36 -2.708112294093852 0 114.0 -2.708112294093852 1
gene  2 36 4 -17.296176463796815 0 115.0 -17.296176463796815 1
gene  3 36 7 4.777025124334274 0 133.0 4.777025124334274 1
gene  2 3 36 1.8490427500141275 0 200.0 1.8490427500141275 1
gene  1 1 36 -0.05060564148922886 0 252.0 -0.05060564148922886 1
gene  1 1 176 1.479829413895307 0 764.0 1.479829413895307 1
gene  1 176 4 -1.7064541811102663 0 765.0 -1.7064541811102663 1
gene  2 7 176 0.8393969079144614 0 865.0 0.8393969079144614 1
gene  1 36 176 -2.710935486409163 0 890.0 -2.710935486409163 1
gene  2 2 176 -1.7478244859257859 0 1046.0 -1.7478244859257859 1
gene  2 3 176 3.6759806744993457 0 1250.0 3.6759806744993457 1
genomeend 36
/* Organism # 037 Fitness:  9.000 Error:  1.000                      */
genomestart  37
trait 1 0.6244092353419322 0.18676597304119621 0.0 0.0 0.0 0.0 0.0 1.0859980841985493 
trait 2 0.2325853718784447 0.0 0.6386640856000645 0.2403165933703809 0.4692449137731377 0.0 0.0 0.9744350084943001 
trait 3 0.3 0.1307004714612592 0.1743136734274307 0.0 0.0 0.6874777039807156 0.1880605775362461 0.0 
node 1 3 1 1
node 2 1 1 1
node 3 3 1 3
node 4 3 0 2
node 7 2 0 0
node 36 3 0 0
node 176 1 0 0
gene  3 1 4 8.88225997655563 0 1.0 8.88225997655563 1
gene  2 2 4 -6.777157027210136 0 2.0 -6.777157027210136 1
gene  3 3 4 -6.804023012235607 0 3.0 -6.804023012235607 1
gene  1 1 7 -3.3305759843767655 0 8.0 -3.3305759843767655 1
gene  1 7 4 2.4373131095862663 0 9.0 2.4373131095862663 1
gene  2 2 7 0.24698233866402103 0 12.0 0.24698233866402103 1
gene  2 3 7 6.617858533369154 0 64.0 6.617858533369154 1
gene  2 2 36 -3.159797124050596 0 114.0 -3.159797124050596 1
gene  2 36 4 -17.030861234407567 0 115.0 -17.030861234407567 1
gene  3 36 7 3.831787734554228 0 133.0 3.831787734554228 1
gene  2 3 36 -1.7222118687544605 0 200.0 -1.7222118687544605 1
gene  1 1 36 -2.7083502728867264 0 252.0 -2.7083502728867264 1
gene  1 1 176 0.3574556015089556 0 764.0 0.3574556015089556 1
gene  1 176 4 0.3692872804094609 0 765.0 0.3692872804094609 1
gene  2 7 176 -0.995124791099625 0 865.0 -0.995124791099625 1
gene  1 36 176 -2.8370723116565104 0 890.0 -2.8370723116565104 1
gene  2 2 176 -1.7478244859257859 0 1046.0 -1.7478244859257859 1
gene  2 3 176 1.414643825558271 0 1250.0 1.414643825558271 1
genomeend 37
/* Organism # 038 Fitness:  8.974 Error:  1.004                      */
genomestart  38
trait 1 0.6244092353419322 0.18676597304119621 0.0 0.0 0.0 0.0 0.0 1.0859980841985493 
trait 2 0.2325853718784447 0.0 0.6386640856000645 0.2403165933703809 0.4692449137731377 0.0 0.0 0.9744350084943001 
trait 3 0.3 0.1307004714612592 0.1743136734274307 0.0 0.0 0.6874777039807156 0.1880605775362461 0.0 
node 1 3 1 1
node 2 1 1 1
node 3 3 1 3
node 4 3 0 2
node 7 2 0 0
node 36 3 0 0
node 176 1 0 0
gene  3 1 4 10.85029016040004 0 1.0 10.85029016040004 1
gene  2 2 4 -6.254257774365305 0 2.0 -6.254257774365305 1
gene  3 3 4 -9.355815923246153 0 3.0 -9.355815923246153 1
gene  1 1 7 -3.7870164621450617 0 8.0 -3.7870164621450617 1
gene  1 7 4 2.1219733309619317 0 9.0 2.1219733309619317 1
gene  2 2 7 -0.39231294124843363 0 12.0 -0.39231294124843363 1
gene  2 3 7 10.053256040308401 0 64.0 10.053256040308401 1
gene  2 2 36 -1.7686083528252299 0 114.0 -1.7686083528252299 1
gene  2 36 4 -15.54353392926422 0 115.0 -15.54353392926422 1
gene  3 36 7 1.5976498408495072 0 133.0 1.5976498408495072 1
gene  2 3 36 -2.6539736623577457 0 200.0 -2.6539736623577457 1
gene  1 1 36 -1.2386295920506232 0 252.0 -1.2386295920506232 1
gene  1 1 176 2.153565919935023 0 764.0 2.153565919935023 1
gene  1 176 4 -2.5087474611212732 0 765.0 -2.5087474611212732 1
gene  2 7 176 1.1503559260954415 0 865.0 1.1503559260954415 1
gene  1 36 176 0.7396345134322326 0 890.0 0.7396345134322326 1
gene  2 2 176 -1.7478244859257859 0 1046.0 -1.7478244859257859 1
gene  2 3 176 2.231473832670691 0 1250.0 2.231473832670691 1
genomeend 38
/*-------------------------------------------------------------------*/
/* Species # 024         : (size= 002) (AvfFit= 4.000) (Age= 72.000)  */
/*-------------------------------------------------------------------*/
/* Organism # 039 Fitness:  4.000 Error:  2.000                      */
genomestart  39
trait 1 0.0 0.13764510123049556 0.0 0.0 0.8993233153112952 0.0 0.0 0.0 
trait 2 0.2 0.0 0.0 0.0 0.0 0.0 0.0 0.0 
trait 3 1.3505198581871123 0.5093048365791336 0.0 1.287597727711835 0.0 0.4995220146378667 0.0 0.9682790447428333 
node 1 1 1 1
node 2 3 1 1
node 3 1 1 3
node 4 1 0 2
node 27 1 0 0
node 43 1 0 0
gene  1 1 4 -0.20866020488239023 0 1.0 -0.20866020488239023 1
gene  2 2 4 -0.1483396640696355 0 2.0 -0.1483396640696355 1
gene  3 3 4 -1.5106970991531694 0 3.0 -1.5106970991531694 1
gene  1 1 27 3.960326882390536 0 80.0 3.960326882390536 1
gene  3 27 4 8.6482215882448 0 81.0 8.6482215882448 1
gene  2 3 27 2.235193982845119 0 109.0 2.235193982845119 1
gene  2 2 27 1.1556102213777368 0 113.0 1.1556102213777368 1
gene  2 2 43 -0.0234403767980762 0 157.0 -0.0234403767980762 1
gene  3 43 4 0.18378574928877883 0 158.0 0.18378574928877883 1
gene  3 3 43 -3.2209434591523918 0 215.0 -3.2209434591523918 1
gene  1 1 43 2.3349378558704172 0 272.0 2.3349378558704172 1
gene  2 27 43 2.4938039879368503 0 290.0 2.4938039879368503 1
genomeend 39
/* Organism # 040 Fitness:  4.000 Error:  2.000                      */
genomestart  40
trait 1 0.0 0.13764510123049556 0.0 0.0 0.8993233153112952 0.0 0.0 0.0 
trait 2 0.2 0.0 0.0 0.0 0.0 0.0 0.0 0.0 
trait 3 1.3505198581871123 0.5093048365791336 0.0 1.287597727711835 0.0 0.4995220146378667 0.0 0.9682790447428333 
node 1 1 1 1
node 2 3 1 1
node 3 1 1 3
node 4 1 0 2
node 27 1 0 0
node 43 1 0 0
gene  1 1 4 -2.339909924340585 0 1.0 -2.339909924340585 1
gene  2 2 4 -1.5016738118937223 0 2.0 -1.5016738118937223 1
gene  3 3 4 1.5399014078382478 0 3.0 1.5399014078382478 1
gene  1 1 27 3.6110197840568254 0 80.0 3.6110197840568254 1
gene  3 27 4 7.061898543672673 0 81.0 7.061898543672673 1
gene  2 3 27 3.911523451075383 0 109.0 3.911523451075383 1
gene  2 2 27 3.6987589808333627 0 113.0 3.6987589808333627 1
gene  2 2 43 0.26178623182297106 0 157.0 0.26178623182297106 1
gene  3 43 4 1.8408426449339357 0 158.0 1.8408426449339357 1
gene  3 3 43 -2.8085961928488943 0 215.0 -2.8085961928488943 1
gene  1 1 43 2.829110970940514 0 272.0 2.829110970940514 1
gene  2 27 43 1.1126498729455827 0 290.0 1.1126498729455827 1
genomeend 40
/*-------------------------------------------------------------------*/
/* Species # 025         : (size= 005) (AvfFit= 9.000) (Age= 72.000)  */
/*-------------------------------------------------------------------*/
/* Organism # 041 Fitness:  9.000 Error:  1.000                      */
genomestart  41
trait 1 0.8840272959659129 0.0 1.3579290274037175 0.5630203448559242 0.0 0.0 0.3000611335896256 0.6034990602745626 
trait 2 0.0 0.0 0.0 0.0 0.0 0.0 0.0 0.8880042084017186 
trait 3 0.33279162840142523 0.03391845409271829 0.0 0.020234098708277533 0.0 0.0 0.0 0.037290726481754424 
node 1 1 1 1
node 2 1 1 1
node 3 2 1 3
node 4 1 0 2
node 44 1 0 0
gene  1 1 4 -1.2723044785402724 0 1.0 -1.2723044785402724 0
gene  2 2 4 -11.169898553451027 0 2.0 -11.169898553451027 1
gene  2 3 4 -20.56262904670313 0 3.0 -20.56262904670313 1
gene  3 1 44 11.191834856437893 0 160.0 11.191834856437893 1
gene  3 44 4 29.804176978964723 0 161.0 29.804176978964723 1
gene  2 3 44 -6.585901683179433 0 179.0 -6.585901683179433 1
gene  1 2 44 -16.817613843276234 0 472.0 -16.817613843276234 1
genomeend 41
/* Organism # 042 Fitness:  9.000 Error:  1.000                      */
genomestart  42
trait 1 0.8840272959659129 0.0 1.3579290274037175 0.5630203448559242 0.0 0.0 0.3000611335896256 0.6034990602745626 
trait 2 0.0 0.0 0.0 0.0 0.0 0.0 0.0 0.8880042084017186 
trait 3 0.33279162840142523 0.03391845409271829 0.0 0.020234098708277533 0.0 0.0 0.0 0.037290726481754424 
node 1 1 1 1
node 2 1 1 1
node 3 2 1 3
node 4 1 0 2
node 44 1 0 0
gene  1 1 4 -1.2723044785402724 0 1.0 -1.2723044785402724 0
gene  2 2 4 -11.169898553451027 0 2.0 -11.169898553451027 1
gene  2 3 4 -20.56262904670313 0 3.0 -20.56262904670313 1
gene  3 1 44 11.191834856437893 0 160.0 11.191834856437893 1
gene  3 44 4 29.804176978964723 0 161.0 29.804176978964723 1
gene  2 3 44 -6.585901683179433 0 179.0 -6.585901683179433 1
gene  1 2 44 -16.817613843276234 0 472.0 -16.817613843276234 1
genomeend 42
/* Organism # 043 Fitness:  9.000 Error:  1.000                      */
genomestart  43
trait 1 0.8840272959659129 0.0 1.3579290274037175 0.5630203448559242 0.0 0.0 0.3000611335896256 0.6034990602745626 
trait 2 0.0 0.0 0.0 0.0 0.0 0.0 0.0 0.8880042084017186 
trait 3 0.33279162840142523 0.03391845409271829 0.0 0.020234098708277533 0.0 0.0 0.0 0.037290726481754424 
node 1 1 1 1
node 2 1 1 1
node 3 2 1 3
node 4 1 0 2
node 44 1 0 0
gene  1 1 4 -1.2723044785402724 0 1.0 -1.2723044785402724 0
gene  2 2 4 -11.169898553451027 0 2.0 -11.169898553451027 1
gene  2 3 4 -20.56262904670313 0 3.0 -20.56262904670313 1
gene  3 1 44 11.191834856437893 0 160.0 11.191834856437893 1
gene  3 44 4 29.804176978964723 0 161.0 29.804176978964723 1
gene  2 3 44 -6.585901683179433 0 179.0 -6.585901683179433 1
gene  1 2 44 -16.817613843276234 0 472.0 -16.817613843276234 1
genomeend 43
/* Organism # 044 Fitness:  9.000 Error:  1.000                      */
genomestart  44
trait 1 0.8840272959659129 0.0 1.3579290274037175 0.5630203448559242 0.0 0.0 0.3000611335896256 0.6034990602745626 
trait 2 0.0 0.0 0.0 0.0 0.0 0.0 0.0 0.8880042084017186 
trait 3 0.33279162840142523 0.03391845409271829 0.0 0.020234098708277533 0.0 0.0 0.0 0.037290726481754424 
node 1 1 1 1
node 2 1 1 1
node 3 2 1 3
node 4 1 0 2
node 44 1 0 0
gene  1 1 4 -3.664520861133528 0 1.0 -3.664520861133528 0
gene  2 2 4 -10.779930560694389 0 2.0 -10.779930560694389 1
gene  2 3 4 -21.15066693795638 0 3.0 -21.15066693795638 1
gene  3 1 44 9.893158771215619 0 160.0 9.893158771215619 1
gene  3 44 4 29.59490806567384 0 161.0 29.59490806567384 1
gene  2 3 44 -8.526036121629677 0 179.0 -8.526036121629677 1
gene  1 2 44 -14.773101428016453 0 472.0 -14.773101428016453 1
genomeend 44
/* Organism # 045 Fitness:  9.000 Error:  1.000                      */
genomestart  45
trait 1 0.8840272959659129 0.0 1.3579290274037175 0.5630203448559242 0.0 0.0 0.3000611335896256 0.6034990602745626 
trait 2 0.0 0.0 0.0 0.0 0.0 0.0 0.0 0.8880042084017186 
trait 3 0.33279162840142523 0.03391845409271829 0.0 0.020234098708277533 0.0 0.0 0.0 0.037290726481754424 
node 1 1 1 1
node 2 1 1 1
node 3 2 1 3
node 4 1 0 2
node 44 1 0 0
gene  1 1 4 -0.6586034016210005 0 1.0 -0.6586034016210005 0
gene  2 2 4 -9.993513340038291 0 2.0 -9.993513340038291 1
gene  2 3 4 -18.822989681061213 0 3.0 -18.822989681061213 1
gene  3 1 44 12.758140272629749 0 160.0 12.758140272629749 1
gene  3 44 4 31.385005345787746 0 161.0 31.385005345787746 1
gene  2 3 44 -8.76482307246856 0 179.0 -8.76482307246856 1
gene  1 2 44 -14.509710617986485 0 472.0 -14.509710617986485 1
genomeend 45
/*-------------------------------------------------------------------*/
/* Species # 026         : (size= 002) (AvfFit= 6.500) (Age= 71.000)  */
/*-------------------------------------------------------------------*/
/* Organism # 046 Fitness:  4.000 Error:  2.000                      */
genomestart  46
trait 1 0.0 0.4164991608900766 0.0 0.024130898090710368 0.0 0.0 0.0 0.0 
trait 2 0.24344716250459295 0.0 0.0 0.5136909437064322 0.0 0.23038413510262534 0.0 0.0 
trait 3 0.3 0.019853236171330516 0.4501264478379223 0.0 0.0 0.6568022356739168 0.028566163676391813 0.41597304963488424 
node 1 3 1 1
node 2 2 1 1
node 3 1 1 3
node 4 1 0 2
node 7 1 0 0
node 37 3 0 0
node 81 3 0 0
node 190 3 0 0
node 241 1 0 0
node 245 1 0 0
gene  1 1 4 -1.5074641935754576 0 1.0 -1.5074641935754576 1
gene  2 2 4 3.020152882481188 0 2.0 3.020152882481188 1
gene  1 3 4 -8.271501669682479 0 3.0 -8.271501669682479 1
gene  2 1 7 1.7838701745586565 0 8.0 1.7838701745586565 1
gene  1 7 4 -0.6851266759656052 0 9.0 -0.6851266759656052 1
gene  2 2 7 -1.126911739874941 0 12.0 -1.126911739874941 1
gene  1 1 37 10.020844858078576 0 117.0 10.020844858078576 0
gene  1 37 4 -4.859658811652726 0 118.0 -4.859658811652726 1
gene  2 3 37 1.5911921415740435 0 190.0 1.5911921415740435 1
gene  3 7 37 1.281280975895778 0 250.0 1.281280975895778 1
gene  1 1 81 9.748975367981409 0 354.0 9.748975367981409 1
gene  1 81 4 -7.375279386881308 0 355.0 -7.375279386881308 1
gene  2 3 7 0.2501278653072594 0 377.0 0.2501278653072594 1
gene  3 2 37 0.3219246407240391 0 407.0 0.3219246407240391 1
gene  2 37 81 -2.3928525482266623 0 531.0 -2.3928525482266623 1
gene  2 7 81 0.1347344730011042 0 721.0 0.1347344730011042 1
gene  3 1 190 -4.621639537215038 0 819.0 -4.621639537215038 1
gene  1 190 81 6.351813324039542 0 820.0 6.351813324039542 1
gene  2 7 190 3.899054298240352 0 968.0 3.899054298240352 1
gene  3 2 81 -4.40608664921908 0 1023.0 -4.40608664921908 1
gene  1 1 241 -4.7437761249053 0 1040.0 -4.7437761249053 1
gene  1 241 37 -0.5403609989723073 0 1041.0 -0.5403609989723073 1
gene  1 190 245 -0.01266310966181794 0 1060.0 -0.01266310966181794 1
gene  1 245 81 -1.9160618005176806 0 1061.0 -1.9160618005176806 1
gene  2 2 190 1.0785998556518757 0 1190.0 1.0785998556518757 1
genomeend 46
/* Organism # 047 Fitness:  9.000 Error:  1.000                      */
genomestart  47
trait 1 0.0 0.4164991608900766 0.0 0.024130898090710368 0.0 0.0 0.0 0.0 
trait 2 0.24344716250459295 0.0 0.0 0.5136909437064322 0.0 0.23038413510262534 0.0 0.0 
trait 3 0.3 0.019853236171330516 0.4501264478379223 0.0 0.0 0.6568022356739168 0.028566163676391813 0.41597304963488424 
node 1 3 1 1
node 2 2 1 1
node 3 1 1 3
node 4 1 0 2
node 7 1 0 0
node 37 3 0 0
node 81 3 0 0
node 190 3 0 0
node 241 1 0 0
node 245 1 0 0
gene  1 1 4 -4.2174295388964955 0 1.0 -4.2174295388964955 1
gene  2 2 4 2.019540482348309 0 2.0 2.019540482348309 1
gene  1 3 4 1.6032562380313697 0 3.0 1.6032562380313697 1
gene  2 1 7 1.9094865336701337 0 8.0 1.9094865336701337 1
gene  1 7 4 -2.1986089189405558 0 9.0 -2.1986089189405558 1
gene  2 2 7 -3.5275178434448984 0 12.0 -3.5275178434448984 1
gene  1 1 37 5.916126319949634 0 117.0 5.916126319949634 1
gene  1 37 4 -1.2581430254335413 0 118.0 -1.2581430254335413 1
gene  2 3 37 2.5836494009272517 0 190.0 2.5836494009272517 1
gene  3 7 37 0.9832219178646703 0 250.0 0.9832219178646703 1
gene  1 1 81 11.513935137879063 0 354.0 11.513935137879063 1
gene  1 81 4 -7.693594062347631 0 355.0 -7.693594062347631 1
gene  2 3 7 1.5998219209526174 0 377.0 1.5998219209526174 1
gene  3 2 37 1.5049659852149084 0 407.0 1.5049659852149084 1
gene  2 37 81 -3.8385411274130075 0 531.0 -3.8385411274130075 1
gene  2 7 81 -0.4116556045397253 0 721.0 -0.4116556045397253 1
gene  3 1 190 -3.929943810954785 0 819.0 -3.929943810954785 1
gene  1 190 81 4.204871527864332 0 820.0 4.204871527864332 1
gene  2 7 190 1.5937954191441022 0 968.0 1.5937954191441022 1
gene  3 2 81 -1.239317063976717 0 1023.0 -1.239317063976717 1
gene  1 1 241 -5.796569822469706 0 1040.0 -5.796569822469706 1
gene  1 241 37 -1.0040221736785229 0 1041.0 -1.0040221736785229 1
gene  1 190 245 -1.6490561788856766 0 1060.0 -1.6490561788856766 1
gene  1 245 81 -2.761936177438867 0 1061.0 -2.761936177438867 1
gene  2 2 190 -2.0590903020816067 0 1190.0 -2.0590903020816067 1
genomeend 47
/*-------------------------------------------------------------------*/
/* Species # 027         : (size= 005) (AvfFit= 6.017) (Age= 70.000)  */
/*-------------------------------------------------------------------*/
/* Organism # 048 Fitness:  8.994 Error:  1.001                      */
genomestart  48
trait 1 0.08750000000000001 0.11197210561720429 0.0 1.0141595981327862 0.0 0.0 0.0 0.0 
trait 2 0.2 0.2919116106874641 0.0 0.0 0.4906209871563788 0.9173133129330674 0.0 0.0 
trait 3 0.07049991630648073 0.0 0.5648645619926869 0.0 0.0 1.3869948938207721 0.0 0.5027773052376283 
node 1 2 1 1
node 2 3 1 1
node 3 2 1 3
node 4 1 0 2
node 7 1 0 0
node 44 1 0 0
node 270 1 0 0
gene  2 1 4 5.353487945936357 0 1.0 5.353487945936357 0
gene  2 2 4 2.3885576018026584 0 2.0 2.3885576018026584 1
gene  2 3 4 -1.331301260254524 0 3.0 -1.331301260254524 1
gene  1 1 7 1.8938684694336194 0 8.0 1.8938684694336194 1
gene  1 7 4 -1.1149698215368231 0 9.0 -1.1149698215368231 1
gene  2 2 7 1.8581431179127526 0 12.0 1.8581431179127526 1
gene  1 1 44 -6.476787592768698 0 160.0 -6.476787592768698 1
gene  1 44 4 -5.638251654471727 0 161.0 -5.638251654471727 1
gene  1 2 44 -7.056746303966094 0 183.0 -7.056746303966094 1
gene  3 44 7 2.2161568182567057 0 367.0 2.2161568182567057 1
gene  1 3 44 3.968143064022263 0 794.0 3.968143064022263 1
gene  2 1 270 1.8364544770938753 0 1187.0 1.8364544770938753 1
gene  3 270 4 6.351578536631856 0 1188.0 6.351578536631856 1
gene  3 270 7 -2.0526412212644027 0 1223.0 -2.0526412212644027 1
gene  1 3 270 1.9044116735758887 0 1327.0 1.9044116735758887 1
genomeend 48
/* Organism # 049 Fitness:  4.000 Error:  2.000                      */
genomestart  49
trait 1 0.08750000000000001 0.11197210561720429 0.0 1.0141595981327862 0.0 0.0 0.0 0.0 
trait 2 0.2 0.2919116106874641 0.0 0.0 0.4906209871563788 0.9173133129330674 0.0 0.0 
trait 3 0.07049991630648073 0.0 0.5648645619926869 0.0 0.0 1.3869948938207721 0.0 0.5027773052376283 
node 1 2 1 1
node 2 3 1 1
node 3 2 1 3
node 4 1 0 2
node 7 1 0 0
node 44 1 0 0
node 270 1 0 0
gene  2 1 4 7.805252173976193 0 1.0 7.805252173976193 0
gene  2 2 4 2.8451050748980493 0 2.0 2.8451050748980493 1
gene  2 3 4 -1.9074338378679077 0 3.0 -1.9074338378679077 1
gene  1 1 7 0.9725706779602838 0 8.0 0.9725706779602838 1
gene  1 7 4 -0.5584793267053978 0 9.0 -0.5584793267053978 1
gene  2 2 7 -1.550070620497267 0 12.0 -1.550070620497267 1
gene  1 1 44 0.8567130769712045 0 160.0 0.8567130769712045 1
gene  1 44 4 -7.304820776191456 0 161.0 -7.304820776191456 1
gene  1 2 44 -6.530774279831157 0 183.0 -6.530774279831157 1
gene  3 44 7 2.4275580768162994 0 367.0 2.4275580768162994 1
gene  1 3 44 1.7458185184372241 0 794.0 1.7458185184372241 1
gene  2 1 270 3.0742744268828197 0 1187.0 3.0742744268828197 1
gene  3 270 4 3.91594322895956 0 1188.0 3.91594322895956 1
gene  3 270 7 0.720187789639414 0 1223.0 0.720187789639414 1
genomeend 49
/* Organism # 050 Fitness:  4.089 Error:  1.978                      */
genomestart  50
trait 1 0.08750000000000001 0.11197210561720429 0.0 1.0141595981327862 0.0 0.0 0.0 0.0 
trait 2 0.2 0.2919116106874641 0.0 0.0 0.4906209871563788 0.9173133129330674 0.0 0.0 
trait 3 0.07049991630648073 0.0 0.5648645619926869 0.0 0.0 1.3869948938207721 0.0 0.5027773052376283 
node 1 2 1 1
node 2 3 1 1
node 3 2 1 3
node 4 1 0 2
node 7 1 0 0
node 44 1 0 0
node 270 1 0 0
gene  2 1 4 3.573956515422276 0 1.0 3.573956515422276 0
gene  2 2 4 0.893080749497126 0 2.0 0.893080749497126 1
gene  2 3 4 -2.1893166030553495 0 3.0 -2.1893166030553495 1
gene  1 1 7 2.6215388237747854 0 8.0 2.6215388237747854 1
gene  1 7 4 -1.834446436520821 0 9.0 -1.834446436520821 1
gene  2 2 7 2.684743976962663 0 12.0 2.684743976962663 1
gene  1 1 44 -6.225559546410619 0 160.0 -6.225559546410619 1
gene  1 44 4 -5.371872111095146 0 161.0 -5.371872111095146 1
gene  1 2 44 -9.538366454039352 0 183.0 -9.538366454039352 1
gene  3 44 7 3.2590838045980446 0 367.0 3.2590838045980446 1
gene  1 3 44 3.196490524690584 0 794.0 3.196490524690584 1
gene  2 1 270 0.6927267686659198 0 1187.0 0.6927267686659198 1
gene  3 270 4 1.472426868183509 0 1188.0 1.472426868183509 1
gene  3 270 7 -4.070653756059405 0 1223.0 -4.070653756059405 1
genomeend 50
/* Organism # 051 Fitness:  9.000 Error:  1.000                      */
genomestart  51
trait 1 0.08750000000000001 0.11197210561720429 0.0 1.0141595981327862 0.0 0.0 0.0 0.0 
trait 2 0.2 0.2919116106874641 0.0 0.0 0.4906209871563788 0.9173133129330674 0.0 0.0 
trait 3 0.07049991630648073 0.0 0.5648645619926869 0.0 0.0 1.3869948938207721 0.0 0.5027773052376283 
node 1 2 1 1
node 2 3 1 1
node 3 2 1 3
node 4 1 0 2
node 7 1 0 0
node 44 1 0 0
node 270 1 0 0
gene  2 1 4 4.8436022118611435 0 1.0 4.8436022118611435 0
gene  2 2 4 4.464088630740806 0 2.0 4.464088630740806 1
gene  2 3 4 -1.7931437784188766 0 3.0 -1.7931437784188766 1
gene  1 1 7 4.217803955091777 0 8.0 4.217803955091777 1
gene  1 7 4 -1.4809933955615158 0 9.0 -1.4809933955615158 1
gene  2 2 7 2.457233888613391 0 12.0 2.457233888613391 1
gene  1 1 44 -8.959703523270068 0 160.0 -8.959703523270068 1
gene  1 44 4 -3.308829886326256 0 161.0 -3.308829886326256 1
gene  1 2 44 -7.064816997353251 0 183.0 -7.064816997353251 1
gene  3 44 7 3.65094381645976 0 367.0 3.65094381645976 1
gene  1 3 44 3.937900571446593 0 794.0 3.937900571446593 1
gene  2 1 270 2.8889457492569717 0 1187.0 2.8889457492569717 1
gene  3 270 4 6.351578536631856 0 1188.0 6.351578536631856 1
gene  3 270 7 -2.0224602820077866 0 1223.0 -2.0224602820077866 1
genomeend 51
/* Organism # 052 Fitness:  4.000 Error:  2.000                      */
genomestart  52
trait 1 0.08750000000000001 0.11197210561720429 0.0 1.0141595981327862 0.0 0.0 0.0 0.0 
trait 2 0.2 0.2919116106874641 0.0 0.0 0.4906209871563788 0.9173133129330674 0.0 0.0 
trait 3 0.07049991630648073 0.0 0.5648645619926869 0.0 0.0 1.3869948938207721 0.0 0.5027773052376283 
node 1 2 1 1
node 2 3 1 1
node 3 2 1 3
node 4 1 0 2
node 7 1 0 0
node 44 1 0 0
node 270 1 0 0
gene  2 1 4 6.902968280357737 0 1.0 6.902968280357737 0
gene  2 2 4 0.7719603812015818 0 2.0 0.7719603812015818 1
gene  2 3 4 -1.4425698168039216 0 3.0 -1.4425698168039216 1
gene  1 1 7 4.3473259914199405 0 8.0 4.3473259914199405 1
gene  1 7 4 -1.50089472018913 0 9.0 -1.50089472018913 1
gene  2 2 7 3.0607827386517026 0 12.0 3.0607827386517026 1
gene  1 1 44 -4.088693126083153 0 160.0 -4.088693126083153 1
gene  1 44 4 -6.854946984523906 0 161.0 -6.854946984523906 1
gene  1 2 44 -6.318952802356434 0 183.0 -6.318952802356434 1
gene  3 44 7 4.359260031852381 0 367.0 4.359260031852381 1
gene  1 3 44 4.319687104624745 0 794.0 4.319687104624745 1
gene  2 1 270 2.1736108085148587 0 1187.0 2.1736108085148587 1
gene  3 270 4 -0.6548889747210251 0 1188.0 -0.6548889747210251 1
gene  3 270 7 -2.0526412212644027 0 1223.0 -2.0526412212644027 1
genomeend 52
/*-------------------------------------------------------------------*/
/* Species # 028         : (size= 003) (AvfFit= 5.973) (Age= 70.000)  */
/*-------------------------------------------------------------------*/
/* Organism # 053 Fitness:  4.950 Error:  1.775                      */
genomestart  53
trait 1 0.24752282297412978 0.0 0.0 0.6748884887868558 0.025071082154728298 0.004405795074528471 0.25232841527737 0.4736968391097336 
trait 2 0.2 0.0 0.0 0.0 0.0 0.0 0.0 0.0 
trait 3 0.34758106760543034 0.0 0.0 0.0 0.0 0.10121239988747802 0.08647148072088728 0.07346983059337467 
node 1 1 1 1
node 2 3 1 1
node 3 3 1 3
node 4 1 0 2
node 12 1 0 0
node 37 1 0 0
node 45 1 0 0
node 63 2 0 0
node 77 1 0 0
node 163 1 0 0
node 171 1 0 0
gene  1 1 4 1.852897856154637 0 1.0 1.852897856154637 1
gene  2 2 4 -3.0904099398610385 0 2.0 -3.0904099398610385 1
gene  3 3 4 0.3881692116662916 0 3.0 0.3881692116662916 1
gene  1 1 12 -1.8945358111418482 0 21.0 -1.8945358111418482 1
gene  1 12 4 -0.6347975201808733 0 22.0 -0.6347975201808733 1
gene  3 2 12 -2.580725929610384 0 36.0 -2.580725929610384 1
gene  1 3 12 1.1884737194279462 0 86.0 1.1884737194279462 1
gene  1 1 37 2.3771662729921426 0 117.0 2.3771662729921426 1
gene  1 37 4 -2.7622734129638187 0 118.0 -2.7622734129638187 1
gene  1 1 45 -5.253197692196668 0 170.0 -5.253197692196668 1
gene  1 45 4 -12.717558010573558 0 171.0 -12.717558010573558 1
gene  1 2 45 4.169222116960437 0 184.0 4.169222116960437 1
gene  3 37 45 0.13825481638144366 0 229.0 0.13825481638144366 1
gene  1 1 63 3.171380005375568 0 264.0 3.171380005375568 1
gene  1 63 4 -0.5390933900643202 0 265.0 -0.5390933900643202 1
gene  3 12 63 3.43950162361414 0 294.0 3.43950162361414 1
gene  1 1 77 -1.2184613128408137 0 338.0 -1.2184613128408137 1
gene  1 77 45 -10.183291062338776 0 339.0 -10.183291062338776 1
gene  3 12 45 -0.6304673645429475 0 706.0 -0.6304673645429475 1
gene  1 2 163 -0.23571998054598753 0 726.0 -0.23571998054598753 1
gene  1 163 45 4.206839648860898 0 727.0 4.206839648860898 1
gene  1 45 171 -0.8047846551978299 0 749.0 -0.8047846551978299 1
gene  1 171 4 2.384683033379473 0 750.0 2.384683033379473 1
gene  2 2 63 -1.7057334019649977 0 880.0 -1.7057334019649977 1
gene  1 12 163 3.542846626212392 0 1037.0 3.542846626212392 1
gene  1 63 45 1.7666547551438625 0 1059.0 1.7666547551438625 1
genomeend 53
/* Organism # 054 Fitness:  8.968 Error:  1.005                      */
genomestart  54
trait 1 0.24752282297412978 0.0 0.0 0.6748884887868558 0.025071082154728298 0.004405795074528471 0.25232841527737 0.4736968391097336 
trait 2 0.2 0.0 0.0 0.0 0.0 0.0 0.0 0.0 
trait 3 0.34758106760543034 0.0 0.0 0.0 0.0 0.10121239988747802 0.08647148072088728 0.07346983059337467 
node 1 1 1 1
node 2 3 1 1
node 3 3 1 3
node 4 1 0 2
node 12 1 0 0
node 37 1 0 0
node 45 1 0 0
node 63 2 0 0
node 77 1 0 0
node 163 1 0 0
node 171 1 0 0
gene  1 1 4 3.5533541980138956 0 1.0 3.5533541980138956 1
gene  2 2 4 -4.5391326319083065 0 2.0 -4.5391326319083065 1
gene  3 3 4 -0.817812359541674 0 3.0 -0.817812359541674 1
gene  1 1 12 -0.26495839014793215 0 21.0 -0.26495839014793215 1
gene  1 12 4 -0.1215372517410862 0 22.0 -0.1215372517410862 1
gene  3 2 12 -0.26730322624242425 0 36.0 -0.26730322624242425 1
gene  1 3 12 0.009842522028956857 0 86.0 0.009842522028956857 1
gene  1 1 37 0.3649958088184262 0 117.0 0.3649958088184262 1
gene  1 37 4 -1.565892949595444 0 118.0 -1.565892949595444 1
gene  1 1 45 -4.240475206169338 0 170.0 -4.240475206169338 1
gene  1 45 4 -10.773653301523227 0 171.0 -10.773653301523227 1
gene  1 2 45 1.7029124082240559 0 184.0 1.7029124082240559 1
gene  3 37 45 0.44882961698546825 0 229.0 0.44882961698546825 1
gene  1 1 63 1.3002213698196206 0 264.0 1.3002213698196206 1
gene  1 63 4 0.8624415061089872 0 265.0 0.8624415061089872 1
gene  3 12 63 1.4086583245122593 0 294.0 1.4086583245122593 1
gene  1 1 77 0.14744852905375416 0 338.0 0.14744852905375416 1
gene  1 77 45 -9.397184873057947 0 339.0 -9.397184873057947 1
gene  3 12 45 -0.08940350893713989 0 706.0 -0.08940350893713989 1
gene  1 2 163 1.21249441324716 0 726.0 1.21249441324716 1
gene  1 163 45 6.406151952748935 0 727.0 6.406151952748935 1
gene  1 45 171 -0.6381774399588023 0 749.0 -0.6381774399588023 1
gene  1 171 4 -2.3343036762382043 0 750.0 -2.3343036762382043 1
gene  2 2 63 -0.8158823696103829 0 880.0 -0.8158823696103829 1
gene  1 12 163 1.0466143193627198 0 1037.0 1.0466143193627198 1
gene  1 63 45 0.360609635452466 0 1059.0 0.360609635452466 1
genomeend 54
/* Organism # 055 Fitness:  4.000 Error:  2.000                      */
genomestart  55
trait 1 0.24752282297412978 0.0 0.0 0.6748884887868558 0.025071082154728298 0.004405795074528471 0.25232841527737 0.4736968391097336 
trait 2 0.2 0.0 0.0 0.0 0.0 0.0 0.0 0.0 
trait 3 0.34758106760543034 0.0 0.0 0.0 0.0 0.10121239988747802 0.08647148072088728 0.07346983059337467 
node 1 1 1 1
node 2 3 1 1
node 3 3 1 3
node 4 1 0 2
node 12 1 0 0
node 37 1 0 0
node 45 1 0 0
node 63 2 0 0
node 77 1 0 0
node 163 1 0 0
node 171 1 0 0
gene  1 1 4 3.5533541980138956 0 1.0 3.5533541980138956 1
gene  2 2 4 -4.948986530788241 0 2.0 -4.948986530788241 1
gene  3 3 4 -0.817812359541674 0 3.0 -0.817812359541674 1
gene  1 1 12 -2.46083984608248 0 21.0 -2.46083984608248 1
gene  1 12 4 0.5008576400041986 0 22.0 0.5008576400041986 1
gene  3 2 12 2.0251110915209 0 36.0 2.0251110915209 1
gene  1 3 12 -1.444398114131621 0 86.0 -1.444398114131621 1
gene  1 1 37 -1.3250534143918518 0 117.0 -1.3250534143918518 1
gene  1 37 4 0.922247733078966 0 118.0 0.922247733078966 1
gene  1 1 45 -1.7460301293131235 0 170.0 -1.7460301293131235 1
gene  1 45 4 -9.765148730944818 0 171.0 -9.765148730944818 1
gene  1 2 45 2.0384416324603096 0 184.0 2.0384416324603096 1
gene  3 37 45 1.05399194986028 0 229.0 1.05399194986028 1
gene  1 1 63 -1.1549013343669847 0 264.0 -1.1549013343669847 1
gene  1 63 4 -1.557032410676534 0 265.0 -1.557032410676534 1
gene  3 12 63 -0.6291550245153057 0 294.0 -0.6291550245153057 1
gene  1 1 77 -1.3599635020999516 0 338.0 -1.3599635020999516 1
gene  1 77 45 -11.195596217196613 0 339.0 -11.195596217196613 1
gene  3 12 45 -0.08940350893713989 0 706.0 -0.08940350893713989 1
gene  1 2 163 2.834218304663551 0 726.0 2.834218304663551 1
gene  1 163 45 8.626385601624785 0 727.0 8.626385601624785 1
gene  1 45 171 0.24570686308497042 0 749.0 0.24570686308497042 1
gene  1 171 4 -0.5908588834510164 0 750.0 -0.5908588834510164 1
gene  2 2 63 1.4142849559940815 0 880.0 1.4142849559940815 1
gene  1 12 163 -1.2392889000251348 0 1037.0 -1.2392889000251348 1
gene  1 63 45 2.268535462842141 0 1059.0 2.268535462842141 1
genomeend 55
/*-------------------------------------------------------------------*/
/* Species # 031         : (size= 001) (AvfFit= 4.000) (Age= 65.000)  */
/*-------------------------------------------------------------------*/
/* Organism # 056 Fitness:  4.000 Error:  2.000                      */
genomestart  56
trait 1 0.0 0.09101498754782988 1.1884728227178445 0.6492743348959318 2.1168378779791457 1.3000379766466557 1.4600515357934547 0.8076904131955408 
trait 2 0.2 0.0 0.0 0.9861512519124853 0.0 0.0 0.0 0.0 
trait 3 0.6376267350833316 0.170572472457022 0.8101470843395345 0.0 0.0 0.0 0.0 0.06629462485645231 
node 1 1 1 1
node 2 2 1 1
node 3 1 1 3
node 4 1 0 2
node 27 1 0 0
node 43 1 0 0
node 58 2 0 0
node 176 1 0 0
node 264 1 0 0
gene  1 1 4 4.1336026506857495 0 1.0 4.1336026506857495 1
gene  1 2 4 8.238112656518704 0 2.0 8.238112656518704 1
gene  3 3 4 -15.561984884195265 0 3.0 -15.561984884195265 1
gene  1 1 27 1.5401672036305454 0 80.0 1.5401672036305454 1
gene  1 27 4 -0.723010523150418 0 81.0 -0.723010523150418 0
gene  2 3 27 -21.440819301964048 0 109.0 -21.440819301964048 1
gene  2 2 27 -5.521122714397276 0 113.0 -5.521122714397276 1
gene  3 2 43 9.222528735105598 0 157.0 9.222528735105598 1
gene  2 43 4 15.358959767333637 0 158.0 15.358959767333637 1
gene  1 1 43 -1.0320980131097361 0 224.0 -1.0320980131097361 1
gene  3 1 58 -4.824494391481012 0 242.0 -4.824494391481012 1
gene  1 58 4 -8.604026303930628 0 243.0 -8.604026303930628 1
gene  1 58 43 -4.659802116515113 0 273.0 -4.659802116515113 1
gene  3 58 27 -4.194826951610515 0 463.0 -4.194826951610515 1
gene  1 1 176 7.221618188702693 0 764.0 7.221618188702693 1
gene  1 176 4 6.141641291702106 0 765.0 6.141641291702106 1
gene  3 43 27 3.3544974959463794 0 847.0 3.3544974959463794 1
gene  3 43 176 3.3724169790420757 0 1062.0 3.3724169790420757 1
gene  1 27 264 -1.4286378197799179 0 1160.0 -1.4286378197799179 1
gene  1 264 4 -1.5435897393757825 0 1161.0 -1.5435897393757825 1
gene  2 2 58 -7.380991157997743 0 1235.0 -7.380991157997743 1
genomeend 56
/*-------------------------------------------------------------------*/
/* Species # 033         : (size= 005) (AvfFit= 7.000) (Age= 62.000)  */
/*-------------------------------------------------------------------*/
/* Organism # 057 Fitness:  4.000 Error:  2.000                      */
genomestart  57
trait 1 0.08750000000000001 0.11197210561720429 0.0 0.0 0.0 0.0 0.0 0.0 
trait 2 0.2 0.0 0.0 0.0 0.0 0.0 0.0 0.0 
trait 3 0.42866775686272524 0.0 1.1070596384679887 0.0 0.43219372272579937 1.4000909286651555 0.796965795006854 0.0 
node 1 2 1 1
node 2 3 1 1
node 3 1 1 3
node 4 2 0 2
node 7 1 0 0
node 44 2 0 0
node 64 1 0 0
node 114 3 0 0
node 237 1 0 0
gene  1 1 4 -2.3227107255786907 0 1.0 -2.3227107255786907 0
gene  2 2 4 5.135875589597111 0 2.0 5.135875589597111 1
gene  3 3 4 -3.8293250896136684 0 3.0 -3.8293250896136684 1
gene  1 1 7 2.2436391964871376 0 8.0 2.2436391964871376 1
gene  1 7 4 -2.787959737857166 0 9.0 -2.787959737857166 1
gene  2 2 7 8.844755091796966 0 12.0 8.844755091796966 1
gene  1 1 44 1.551874879322758 0 160.0 1.551874879322758 1
gene  1 44 4 -5.555955927326076 0 161.0 -5.555955927326076 1
gene  1 2 44 -4.3624739675391755 0 183.0 -4.3624739675391755 1
gene  2 2 64 -1.5180231450633876 0 268.0 -1.5180231450633876 1
gene  2 64 4 1.636442383514562 0 269.0 1.636442383514562 1
gene  2 7 64 -0.7046098626836919 0 345.0 -0.7046098626836919 1
gene  1 1 114 5.086497612546868 0 506.0 5.086497612546868 1
gene  1 114 4 -1.3569887245753427 0 507.0 -1.3569887245753427 1
gene  1 2 114 8.000160466211945 0 541.0 8.000160466211945 1
gene  1 44 114 -4.011526360394419 0 624.0 -4.011526360394419 1
gene  2 3 7 -0.6228275926713556 0 657.0 -0.6228275926713556 1
gene  1 1 237 -3.5637877433783727 0 1029.0 -3.5637877433783727 1
gene  1 237 7 -1.1976899492620205 0 1030.0 -1.1976899492620205 1
gene  2 237 64 1.7924779880866164 0 1051.0 1.7924779880866164 1
gene  3 114 64 -3.546946797804808 0 1120.0 -3.546946797804808 1
genomeend 57
/* Organism # 058 Fitness:  9.000 Error:  1.000                      */
genomestart  58
trait 1 0.08750000000000001 0.11197210561720429 0.0 0.0 0.0 0.0 0.0 0.0 
trait 2 0.2 0.0 0.0 0.0 0.0 0.0 0.0 0.0 
trait 3 0.42866775686272524 0.0 1.1070596384679887 0.0 0.43219372272579937 1.4000909286651555 0.796965795006854 0.0 
node 1 2 1 1
node 2 3 1 1
node 3 1 1 3
node 4 2 0 2
node 7 1 0 0
node 44 2 0 0
node 64 1 0 0
node 114 3 0 0
node 237 1 0 0
gene  1 1 4 1.7591084917976707 0 1.0 1.7591084917976707 0
gene  2 2 4 3.768684588963854 0 2.0 3.768684588963854 1
gene  3 3 4 -1.8748592389170597 0 3.0 -1.8748592389170597 1
gene  1 1 7 2.168331991770774 0 8.0 2.168331991770774 1
gene  1 7 4 -3.1227872146837035 0 9.0 -3.1227872146837035 1
gene  2 2 7 7.905330818665824 0 12.0 7.905330818665824 1
gene  1 1 44 0.27291077741174175 0 160.0 0.27291077741174175 1
gene  1 44 4 -5.1986792979022365 0 161.0 -5.1986792979022365 1
gene  1 2 44 -3.116203532806801 0 183.0 -3.116203532806801 1
gene  2 2 64 -1.5180231450633876 0 268.0 -1.5180231450633876 1
gene  2 64 4 -1.2084211768508086 0 269.0 -1.2084211768508086 1
gene  2 7 64 5.54064710358015 0 345.0 5.54064710358015 1
gene  1 1 114 5.3649034221699345 0 506.0 5.3649034221699345 1
gene  1 114 4 11.389031592515941 0 507.0 11.389031592515941 1
gene  1 2 114 6.039055458595906 0 541.0 6.039055458595906 1
gene  1 44 114 -4.719836653475952 0 624.0 -4.719836653475952 1
gene  2 3 7 -0.6228275926713556 0 657.0 -0.6228275926713556 1
gene  1 1 237 -2.272281906337672 0 1029.0 -2.272281906337672 1
gene  1 237 7 -0.4897555542553589 0 1030.0 -0.4897555542553589 1
gene  2 237 64 1.5982568748752128 0 1051.0 1.5982568748752128 1
gene  3 114 64 -5.9367041447000855 0 1120.0 -5.9367041447000855 1
gene  1 7 114 7.0966995645975715 0 1328.0 7.0966995645975715 1
genomeend 58
/* Organism # 059 Fitness:  9.000 Error:  1.000                      */
genomestart  59
trait 1 0.08750000000000001 0.11197210561720429 0.0 0.0 0.0 0.0 0.0 0.0 
trait 2 0.2 0.0 0.0 0.0 0.0 0.0 0.0 0.0 
trait 3 0.42866775686272524 0.0 1.1070596384679887 0.0 0.43219372272579937 1.4000909286651555 0.796965795006854 0.0 
node 1 2 1 1
node 2 3 1 1
node 3 1 1 3
node 4 2 0 2
node 7 1 0 0
node 44 2 0 0
node 64 1 0 0
node 114 3 0 0
node 237 1 0 0
gene  1 1 4 0.7394889421582227 0 1.0 0.7394889421582227 0
gene  2 2 4 3.0908734038161927 0 2.0 3.0908734038161927 1
gene  3 3 4 0.43078459751639864 0 3.0 0.43078459751639864 1
gene  1 1 7 1.3062232038664343 0 8.0 1.3062232038664343 1
gene  1 7 4 -3.6255710516853514 0 9.0 -3.6255710516853514 1
gene  2 2 7 7.661723524520267 0 12.0 7.661723524520267 1
gene  1 1 44 -0.7190265723644607 0 160.0 -0.7190265723644607 1
gene  1 44 4 -4.619858100306029 0 161.0 -4.619858100306029 1
gene  1 2 44 -5.241565546988381 0 183.0 -5.241565546988381 1
gene  2 2 64 0.4184567732025506 0 268.0 0.4184567732025506 1
gene  2 64 4 -1.5339888986094505 0 269.0 -1.5339888986094505 1
gene  2 7 64 6.007384206609542 0 345.0 6.007384206609542 1
gene  1 1 114 3.6813631272504077 0 506.0 3.6813631272504077 1
gene  1 114 4 12.708062119264751 0 507.0 12.708062119264751 1
gene  1 2 114 6.606011296893313 0 541.0 6.606011296893313 1
gene  1 44 114 -7.140704906948692 0 624.0 -7.140704906948692 1
gene  2 3 7 -1.813899177107293 0 657.0 -1.813899177107293 1
gene  1 1 237 -2.272281906337672 0 1029.0 -2.272281906337672 1
gene  1 237 7 1.5368987735244575 0 1030.0 1.5368987735244575 1
gene  2 237 64 -0.10943214490781866 0 1051.0 -0.10943214490781866 1
gene  3 114 64 -5.086495447516572 0 1120.0 -5.086495447516572 1
genomeend 59
/* Organism # 060 Fitness:  9.000 Error:  1.000                      */
genomestart  60
trait 1 0.08750000000000001 0.11197210561720429 0.0 0.0 0.0 0.0 0.0 0.0 
trait 2 0.2 0.0 0.0 0.0 0.0 0.0 0.0 0.0 
trait 3 0.42866775686272524 0.0 1.1070596384679887 0.0 0.43219372272579937 1.4000909286651555 0.796965795006854 0.0 
node 1 2 1 1
node 2 3 1 1
node 3 1 1 3
node 4 2 0 2
node 7 1 0 0
node 44 2 0 0
node 64 1 0 0
node 114 3 0 0
node 237 1 0 0
gene  1 1 4 0.45172292850188267 0 1.0 0.45172292850188267 0
gene  2 2 4 -1.1944509326084234 0 2.0 -1.1944509326084234 1
gene  3 3 4 2.5161931686220127 0 3.0 2.5161931686220127 1
gene  1 1 7 0.44300565452154933 0 8.0 0.44300565452154933 1
gene  1 7 4 -3.131771784811902 0 9.0 -3.131771784811902 1
gene  2 2 7 10.077473142597903 0 12.0 10.077473142597903 1
gene  1 1 44 0.9218413898507654 0 160.0 0.9218413898507654 1
gene  1 44 4 -8.153021657943606 0 161.0 -8.153021657943606 1
gene  1 2 44 -7.895933528630529 0 183.0 -7.895933528630529 1
gene  2 2 64 0.5047875497804183 0 268.0 0.5047875497804183 1
gene  2 64 4 -0.8183068091736592 0 269.0 -0.8183068091736592 1
gene  2 7 64 -0.4445475244383257 0 345.0 -0.4445475244383257 1
gene  1 1 114 5.299658095460293 0 506.0 5.299658095460293 1
gene  1 114 4 10.581267817460638 0 507.0 10.581267817460638 1
gene  1 2 114 8.909793916780782 0 541.0 8.909793916780782 1
gene  1 44 114 -2.7789912773793612 0 624.0 -2.7789912773793612 1
gene  2 3 7 -0.06989180447390009 0 657.0 -0.06989180447390009 1
gene  1 1 237 -2.1474931501678762 0 1029.0 -2.1474931501678762 1
gene  1 237 7 0.8835095174461236 0 1030.0 0.8835095174461236 1
gene  2 237 64 3.4535101470179033 0 1051.0 3.4535101470179033 1
gene  3 114 64 -1.25396203187376 0 1120.0 -1.25396203187376 1
genomeend 60
/* Organism # 061 Fitness:  4.001 Error:  2.000                      */
genomestart  61
trait 1 0.08750000000000001 0.11197210561720429 0.0 0.0 0.0 0.0 0.0 0.0 
trait 2 0.2 0.0 0.0 0.0 0.0 0.0 0.0 0.0 
trait 3 0.42866775686272524 0.0 1.1070596384679887 0.0 0.43219372272579937 1.4000909286651555 0.796965795006854 0.0 
node 1 2 1 1
node 2 3 1 1
node 3 1 1 3
node 4 2 0 2
node 7 1 0 0
node 44 2 0 0
node 64 1 0 0
node 114 3 0 0
node 237 1 0 0
gene  1 1 4 0.6422004095069329 0 1.0 0.6422004095069329 0
gene  2 2 4 -1.1428255432677623 0 2.0 -1.1428255432677623 1
gene  3 3 4 -1.927946614896886 0 3.0 -1.927946614896886 1
gene  1 1 7 1.7577690762282643 0 8.0 1.7577690762282643 1
gene  1 7 4 -1.7389351663662773 0 9.0 -1.7389351663662773 1
gene  2 2 7 7.879341755057708 0 12.0 7.879341755057708 1
gene  1 1 44 -0.9279226763954188 0 160.0 -0.9279226763954188 1
gene  1 44 4 1.8937347881128566 0 161.0 1.8937347881128566 1
gene  1 2 44 -3.7411955860861372 0 183.0 -3.7411955860861372 1
gene  2 2 64 -0.5410000257402505 0 268.0 -0.5410000257402505 1
gene  2 64 4 -1.2084211768508086 0 269.0 -1.2084211768508086 1
gene  2 7 64 5.1103852186065035 0 345.0 5.1103852186065035 1
gene  1 1 114 7.589007989035961 0 506.0 7.589007989035961 1
gene  1 114 4 8.937755252717764 0 507.0 8.937755252717764 1
gene  1 2 114 -0.019669019406734767 0 541.0 -0.019669019406734767 1
gene  1 44 114 -4.719836653475952 0 624.0 -4.719836653475952 1
gene  2 3 7 -0.6228275926713556 0 657.0 -0.6228275926713556 1
gene  1 1 237 -1.94269646007633 0 1029.0 -1.94269646007633 1
gene  1 237 7 2.3936726363851704 0 1030.0 2.3936726363851704 1
gene  2 237 64 -0.1320060347729184 0 1051.0 -0.1320060347729184 1
gene  3 114 64 -5.12805469960826 0 1120.0 -5.12805469960826 1
genomeend 61
/*-------------------------------------------------------------------*/
/* Species # 034         : (size= 004) (AvfFit= 7.750) (Age= 62.000)  */
/*-------------------------------------------------------------------*/
/* Organism # 062 Fitness:  9.000 Error:  1.000                      */
genomestart  62
trait 1 0.13758880872216217 0.5028959458554745 0.0 0.0 0.0 0.0 0.5975840501348636 0.4905611515016084 
trait 2 0.2 0.0 0.0 0.0 0.0 0.0 0.0 0.0 
trait 3 0.0 0.0 0.9205082882187577 0.0 0.786987318095177 0.0 0.0 0.0 
node 1 3 1 1
node 2 1 1 1
node 3 3 1 3
node 4 1 0 2
node 17 3 0 0
node 117 1 0 0
gene  1 1 4 28.913075041244497 0 1.0 28.913075041244497 1
gene  2 2 4 14.587884838098198 0 2.0 14.587884838098198 1
gene  3 3 4 0.7869437484093367 0 3.0 0.7869437484093367 1
gene  1 1 17 -5.527770814055851 0 38.0 -5.527770814055851 1
gene  3 17 4 -5.227590941239925 0 39.0 -5.227590941239925 1
gene  1 2 17 -5.214139018473785 0 175.0 -5.214139018473785 1
gene  2 3 17 -0.14067940678551016 0 371.0 -0.14067940678551016 1
gene  2 2 117 -11.630583564550586 0 517.0 -11.630583564550586 1
gene  2 117 4 -14.06605073836127 0 518.0 -14.06605073836127 1
gene  1 117 17 0.6095166388752447 0 756.0 0.6095166388752447 1
genomeend 62
/* Organism # 063 Fitness:  4.000 Error:  2.000                      */
genomestart  63
trait 1 0.13758880872216217 0.5028959458554745 0.0 0.0 0.0 0.0 0.5975840501348636 0.4905611515016084 
trait 2 0.2 0.0 0.0 0.0 0.0 0.0 0.0 0.0 
trait 3 0.0 0.0 0.9205082882187577 0.0 0.786987318095177 0.0 0.0 0.0 
node 1 3 1 1
node 2 1 1 1
node 3 3 1 3
node 4 1 0 2
node 17 1 0 0
node 117 1 0 0
gene  1 1 4 22.355178478552588 0 1.0 22.355178478552588 1
gene  2 2 4 -1.8017392071002993 0 2.0 -1.8017392071002993 1
gene  3 3 4 -1.0178456578441708 0 3.0 -1.0178456578441708 1
gene  1 1 17 -2.27170537781946 0 38.0 -2.27170537781946 1
gene  3 17 4 -4.92011995134369 0 39.0 -4.92011995134369 1
gene  1 2 17 2.3804085427890778 0 175.0 2.3804085427890778 1
gene  2 3 17 0.8945291468283825 0 371.0 0.8945291468283825 1
gene  2 2 117 -15.108485013432894 0 517.0 -15.108485013432894 1
gene  2 117 4 -16.300577302596057 0 518.0 -16.300577302596057 1
gene  1 117 17 -3.530673887709941 0 756.0 -3.530673887709941 1
genomeend 63
/* Organism # 064 Fitness:  9.000 Error:  1.000                      */
genomestart  64
trait 1 0.13758880872216217 0.5028959458554745 0.0 0.0 0.0 0.0 0.5975840501348636 0.4905611515016084 
trait 2 0.2 0.0 0.0 0.0 0.0 0.0 0.0 0.0 
trait 3 0.0 0.0 0.9205082882187577 0.0 0.786987318095177 0.0 0.0 0.0 
node 1 3 1 1
node 2 1 1 1
node 3 3 1 3
node 4 1 0 2
node 17 1 0 0
node 117 1 0 0
gene  1 1 4 23.165522618365 0 1.0 23.165522618365 1
gene  2 2 4 11.984012514794713 0 2.0 11.984012514794713 1
gene  3 3 4 -0.8738879346073652 0 3.0 -0.8738879346073652 1
gene  1 1 17 -2.9365557681014582 0 38.0 -2.9365557681014582 1
gene  3 17 4 -7.6891973434516085 0 39.0 -7.6891973434516085 1
gene  1 2 17 1.8278992409611934 0 175.0 1.8278992409611934 1
gene  2 3 17 1.6060716311267913 0 371.0 1.6060716311267913 1
gene  2 2 117 -12.058085964131479 0 517.0 -12.058085964131479 1
gene  2 117 4 -15.429780870011047 0 518.0 -15.429780870011047 1
gene  1 117 17 -5.210447784571534 0 756.0 -5.210447784571534 1
genomeend 64
/* Organism # 065 Fitness:  9.000 Error:  1.000                      */
genomestart  65
trait 1 0.13758880872216217 0.5028959458554745 0.0 0.0 0.0 0.0 0.5975840501348636 0.4905611515016084 
trait 2 0.2 0.0 0.0 0.0 0.0 0.0 0.0 0.0 
trait 3 0.0 0.0 0.9205082882187577 0.0 0.786987318095177 0.0 0.0 0.0 
node 1 3 1 1
node 2 2 1 1
node 3 3 1 3
node 4 1 0 2
node 17 3 0 0
node 117 1 0 0
gene  1 1 4 28.948961195756123 0 1.0 28.948961195756123 1
gene  2 2 4 12.489212333174581 0 2.0 12.489212333174581 1
gene  3 3 4 2.954977082574116 0 3.0 2.954977082574116 1
gene  1 1 17 -7.577311385507551 0 38.0 -7.577311385507551 1
gene  3 17 4 -3.9092464266606317 0 39.0 -3.9092464266606317 1
gene  1 2 17 -1.7806557313450082 0 175.0 -1.7806557313450082 1
gene  2 3 17 1.8660755181385567 0 371.0 1.8660755181385567 1
gene  2 2 117 -15.439857693715274 0 517.0 -15.439857693715274 1
gene  2 117 4 -13.575235090801835 0 518.0 -13.575235090801835 1
gene  1 117 17 -3.0861174872757204 0 756.0 -3.0861174872757204 1
genomeend 65
/*-------------------------------------------------------------------*/
/* Species # 036         : (size= 004) (AvfFit= 6.719) (Age= 61.000)  */
/*-------------------------------------------------------------------*/
/* Organism # 066 Fitness:  5.832 Error:  1.585                      */
genomestart  66
trait 1 0.0 0.17867423884620293 0.6256959231159048 0.0 0.0 0.0 0.0 0.42939863738594386 
trait 2 1.3001130362616002 0.0 0.0 0.42196232411795137 0.23691030808986457 0.03669975298399026 0.32010472857759864 0.0 
trait 3 0.0 0.7573650566980925 0.1257706251311842 0.0768675118600059 0.7628906452854743 0.31115222990160013 0.7531511505000669 0.0 
