/* Species # 001         : (size= 010) (AvfFit= 8.112) (Age= 30.000)  */
/*-------------------------------------------------------------------*/
/* Organism # 000 Fitness:  9.000 Error:  1.000                      */
genomestart  0
trait 1 0.1 0.8547064134552635 0.0037666697821318483 0.0 0.8618570098948919 0.34187400946385177 0.006918479051791198 0.0 
trait 2 0.2 0.0 0.0 0.05101173960322635 0.0 0.007846789930717466 0.0 0.0 
trait 3 0.3 0.0 0.0 0.0 0.0 0.0 0.0 0.0 
node 1 1 1 1
node 2 1 1 1
node 3 1 1 3
node 4 1 0 2
gene  1 1 4 -16.705712361269768 0 1.0 -16.705712361269768 1
gene  2 2 4 15.946135805039757 0 2.0 15.946135805039757 1
gene  2 3 4 -7.803847253373157 0 3.0 -7.803847253373157 1
genomeend 0
/* Organism # 001 Fitness:  9.000 Error:  1.000                      */
genomestart  1
trait 1 0.1 0.8547064134552635 0.0037666697821318483 0.0 0.8618570098948919 0.34187400946385177 0.006918479051791198 0.0 
trait 2 0.2 0.0 0.0 0.05101173960322635 0.0 0.007846789930717466 0.0 0.0 
trait 3 0.3 0.0 0.0 0.0 0.0 0.0 0.0 0.0 
node 1 1 1 1
node 2 1 1 1
node 3 1 1 3
node 4 1 0 2
gene  1 1 4 -16.211728446709863 0 1.0 -16.211728446709863 1
gene  2 2 4 16.727677104464732 0 2.0 16.727677104464732 1
gene  2 3 4 -7.830910839637432 0 3.0 -7.830910839637432 1
genomeend 1
/* Organism # 002 Fitness:  9.000 Error:  1.000                      */
genomestart  2
trait 1 0.1 0.8480290196001443 0.0037666697821318483 6.452506390026858E-5 0.8552309978927716 0.33933522585117437 0.006918479051791198 0.0 
trait 2 0.22701912653466796 0.019603737139338065 0.0 0.05101173960322635 0.0 0.007846789930717466 0.01192708748644851 0.0 
trait 3 0.3 0.0 0.0 0.0 0.0 0.0 0.0 0.0 
node 1 1 1 1
node 2 1 1 1
node 3 1 1 3
node 4 1 0 2
gene  1 1 4 -16.261460231054578 0 1.0 -16.261460231054578 1
gene  2 2 4 16.857077699825787 0 2.0 16.857077699825787 1
gene  3 3 4 -7.584471799616695 0 3.0 -7.584471799616695 1
genomeend 2
/* Organism # 003 Fitness:  9.000 Error:  1.000                      */
genomestart  3
trait 1 0.1 0.8413516257450251 0.0037666697821318483 1.2905012780053715E-4 0.8486049858906513 0.33679644223849703 0.006918479051791198 0.0 
trait 2 0.2540382530693359 0.03920747427867613 0.0 0.05101173960322635 0.0 0.007846789930717466 0.02385417497289702 0.0 
trait 3 0.3 0.0 0.0 0.0 0.0 0.0 0.0 0.0 
node 1 1 1 1
node 2 1 1 1
node 3 1 1 3
node 4 1 0 2
gene  1 1 4 -14.839924792023035 0 1.0 -14.839924792023035 1
gene  2 2 4 15.946135805039757 0 2.0 15.946135805039757 1
gene  3 3 4 -7.843785946396015 0 3.0 -7.843785946396015 1
genomeend 3
/* Organism # 004 Fitness:  4.000 Error:  2.000                      */
genomestart  4
trait 1 0.1 0.8480290196001443 0.0037666697821318483 6.452506390026858E-5 0.8552309978927716 0.33933522585117437 0.006918479051791198 0.0 
trait 2 0.22701912653466796 0.019603737139338065 0.0 0.05101173960322635 0.0 0.007846789930717466 0.01192708748644851 0.0 
trait 3 0.3 0.0 0.0 0.0 0.0 0.0 0.0 0.0 
node 1 1 1 1
node 2 1 1 1
node 3 1 1 3
node 4 1 0 2
gene  1 1 4 -14.596061610703854 0 1.0 -14.596061610703854 1
gene  2 2 4 0.7301066022979852 0 2.0 0.7301066022979852 1
gene  3 3 4 -7.944299419515187 0 3.0 -7.944299419515187 1
genomeend 4
/* Organism # 005 Fitness:  9.000 Error:  1.000                      */
genomestart  5
trait 1 0.1 0.8547064134552635 0.0037666697821318483 0.0 0.8618570098948919 0.34187400946385177 0.006918479051791198 0.0 
trait 2 0.2 0.0 0.0 0.05101173960322635 0.0 0.007846789930717466 0.0 0.0 
trait 3 0.3 0.0 0.0 0.0 0.0 0.0 0.0 0.0 
node 1 1 1 1
node 2 1 1 1
node 3 1 1 3
node 4 1 0 2
gene  1 1 4 -16.705712361269768 0 1.0 -16.705712361269768 1
gene  2 2 4 15.946135805039757 0 2.0 15.946135805039757 1
gene  2 3 4 -7.830910839637432 0 3.0 -7.830910839637432 1
genomeend 5
/* Organism # 006 Fitness:  9.000 Error:  1.000                      */
genomestart  6
trait 1 0.1 0.8413516257450251 0.0037666697821318483 1.2905012780053715E-4 0.8486049858906513 0.33679644223849703 0.006918479051791198 0.0 
trait 2 0.2540382530693359 0.03920747427867613 0.0 0.05101173960322635 0.0 0.007846789930717466 0.02385417497289702 0.0 
trait 3 0.3 0.0 0.0 0.0 0.0 0.0 0.0 0.0 
node 1 1 1 1
node 2 1 1 1
node 3 1 1 3
node 4 1 0 2
gene  1 1 4 -15.136530942849204 0 1.0 -15.136530942849204 1
gene  2 2 4 15.401667752723968 0 2.0 15.401667752723968 1
gene  3 3 4 -9.631333421030014 0 3.0 -9.631333421030014 1
genomeend 6
/* Organism # 007 Fitness:  5.116 Error:  1.738                      */
genomestart  7
trait 1 0.1 0.8547064134552635 0.0037666697821318483 0.0 0.8618570098948919 0.34187400946385177 0.006918479051791198 0.0 
trait 2 0.2 0.0 0.0 0.05101173960322635 0.0 0.007846789930717466 0.0 0.0 
trait 3 0.3 0.0 0.0 0.0 0.0 0.0 0.0 0.0 
node 1 1 1 1
node 2 1 1 1
node 3 1 1 3
node 4 1 0 2
node 86 1 0 0
gene  1 1 4 -16.705712361269768 0 1.0 -16.705712361269768 0
gene  2 2 4 15.946135805039757 0 2.0 15.946135805039757 1
gene  2 3 4 -7.803847253373157 0 3.0 -7.803847253373157 1
gene  1 1 86 1.0 0 359.0 0.0 1
gene  1 86 4 -16.705712361269768 0 360.0 0.0 1
genomeend 7
/* Organism # 008 Fitness:  9.000 Error:  1.000                      */
genomestart  8
trait 1 0.1 0.8547064134552635 0.0037666697821318483 0.0 0.8618570098948919 0.34187400946385177 0.006918479051791198 0.0 
trait 2 0.2 0.0 0.0 0.05101173960322635 0.0 0.007846789930717466 0.0 0.0 
trait 3 0.3 0.0 0.0 0.0 0.0 0.0 0.0 0.0 
node 1 1 1 1
node 2 1 1 1
node 3 1 1 3
node 4 1 0 2
gene  1 1 4 -16.211728446709863 0 1.0 -16.211728446709863 1
gene  3 2 4 16.727677104464732 0 2.0 16.727677104464732 1
gene  2 3 4 -7.830910839637432 0 3.0 -7.830910839637432 1
genomeend 8
/* Organism # 009 Fitness:  9.000 Error:  1.000                      */
genomestart  9
trait 1 0.1 0.8547064134552635 0.0037666697821318483 0.0 0.8618570098948919 0.34187400946385177 0.006918479051791198 0.0 
trait 2 0.2 0.0 0.0 0.05101173960322635 0.0 0.007846789930717466 0.0 0.0 
trait 3 0.3 0.0 0.0 0.0 0.0 0.0 0.0 0.0 
node 1 1 1 1
node 2 1 1 1
node 3 1 1 3
node 4 1 0 2
gene  1 1 4 -15.574665892140835 0 1.0 -15.574665892140835 1
gene  2 2 4 16.687201864653357 0 2.0 16.687201864653357 1
gene  2 3 4 -6.918151005052987 0 3.0 -6.918151005052987 1
genomeend 9
/*-------------------------------------------------------------------*/
/* Species # 002         : (size= 010) (AvfFit= 7.836) (Age= 28.000)  */
/*-------------------------------------------------------------------*/
/* Organism # 010 Fitness:  9.000 Error:  1.000                      */
genomestart  10
trait 1 0.1 0.0 0.0 0.0 0.0 0.0 0.0 0.0 
trait 2 0.3386966037068258 0.05166593596237018 0.0 0.07453471633608144 0.0 0.0 0.0 0.10825705328172042 
trait 3 0.3 0.0 0.0 0.0 0.0 0.0 0.0 0.0 
node 1 1 1 1
node 2 1 1 1
node 3 1 1 3
node 4 1 0 2
node 7 1 0 0
gene  1 1 4 -6.30667396305866 0 1.0 -6.30667396305866 1
gene  2 2 4 7.779035598374287 0 2.0 7.779035598374287 1
gene  3 3 4 1.5091918110788884 0 3.0 1.5091918110788884 1
gene  1 1 7 6.3884595118178495 0 8.0 6.3884595118178495 1
gene  1 7 4 -10.349202488312114 0 9.0 -10.349202488312114 1
gene  3 2 7 -13.227893451281192 0 24.0 -13.227893451281192 1
gene  3 3 7 10.573963051614676 0 53.0 10.573963051614676 1
genomeend 10
/* Organism # 011 Fitness:  9.000 Error:  1.000                      */
genomestart  11
trait 1 0.1 0.052101728042031975 0.0 0.24764596273512635 0.0 0.0 0.0 0.0 
trait 2 0.32827025347514915 0.04843681496472205 0.0 0.07453471633608144 0.0 0.0 0.0 0.10825705328172042 
trait 3 0.3 0.0 0.0 0.0 0.0 0.0 0.0 0.0 
node 1 2 1 1
node 2 1 1 1
node 3 1 1 3
node 4 1 0 2
node 7 1 0 0
gene  2 1 4 -11.727533843182561 0 1.0 -11.727533843182561 1
gene  2 2 4 7.013173898602482 0 2.0 7.013173898602482 1
gene  3 3 4 -1.1353088952474133 0 3.0 -1.1353088952474133 1
gene  1 1 7 8.038019400697863 0 8.0 8.038019400697863 1
gene  1 7 4 -10.756466457638426 0 9.0 -10.756466457638426 1
gene  1 2 7 -10.289314104346802 0 24.0 -10.289314104346802 1
gene  3 3 7 9.070294022468637 0 53.0 9.070294022468637 1
genomeend 11
/* Organism # 012 Fitness:  9.000 Error:  1.000                      */
genomestart  12
trait 1 0.1 0.026050864021015988 0.0 0.12382298136756317 0.0 0.0 0.0 0.0 
trait 2 0.33348342859098745 0.05005137546354611 0.0 0.07453471633608144 0.0 0.0 0.0 0.10825705328172042 
trait 3 0.3 0.0 0.0 0.0 0.0 0.0 0.0 0.0 
node 1 2 1 1
node 2 1 1 1
node 3 1 1 3
node 4 1 0 2
node 7 1 0 0
gene  1 1 4 -8.491867994313045 0 1.0 -8.491867994313045 1
gene  2 2 4 5.818990121126176 0 2.0 5.818990121126176 1
gene  3 3 4 -0.9447910758194373 0 3.0 -0.9447910758194373 1
gene  1 1 7 5.7134537181092915 0 8.0 5.7134537181092915 1
gene  1 7 4 -12.784502552510757 0 9.0 -12.784502552510757 1
gene  3 2 7 -15.672631773373736 0 24.0 -15.672631773373736 1
gene  3 3 7 10.480338616166046 0 53.0 10.480338616166046 1
genomeend 12
/* Organism # 013 Fitness:  7.304 Error:  1.297                      */
genomestart  13
trait 1 0.1 0.0 0.0 0.0 0.0 0.0 0.0 0.0 
trait 2 0.3386966037068258 0.05166593596237018 0.0 0.07453471633608144 0.0 0.0 0.0 0.10825705328172042 
trait 3 0.3 0.0 0.0 0.0 0.0 0.0 0.0 0.0 
node 1 1 1 1
node 2 1 1 1
node 3 1 1 3
node 4 1 0 2
node 7 1 0 0
gene  1 1 4 -4.986338371816771 0 1.0 -4.986338371816771 1
gene  2 2 4 10.194670960567832 0 2.0 10.194670960567832 1
gene  3 3 4 2.516942318584068 0 3.0 2.516942318584068 1
gene  1 1 7 6.134284285446329 0 8.0 6.134284285446329 1
gene  1 7 4 -7.90346312306964 0 9.0 -7.90346312306964 1
gene  3 2 7 -15.644017241612621 0 24.0 -15.644017241612621 1
gene  3 3 7 11.073932204228097 0 53.0 11.073932204228097 1
genomeend 13
/* Organism # 014 Fitness:  4.002 Error:  1.999                      */
genomestart  14
trait 1 0.1 0.052101728042031975 0.0 0.24764596273512635 0.0 0.0 0.0 0.0 
trait 2 0.32827025347514915 0.04843681496472205 0.0 0.07453471633608144 0.0 0.0 0.0 0.10825705328172042 
trait 3 0.3 0.0 0.0 0.0 0.0 0.0 0.0 0.0 
node 1 2 1 1
node 2 1 1 1
node 3 1 1 3
node 4 1 0 2
node 7 1 0 0
gene  1 1 4 -8.525079880213895 0 1.0 -8.525079880213895 1
gene  2 2 4 7.4792385981979645 0 2.0 7.4792385981979645 1
gene  3 3 4 2.683017712308472 0 3.0 2.683017712308472 1
gene  1 1 7 8.08962944677481 0 8.0 8.08962944677481 1
gene  1 7 4 -11.416694968797431 0 9.0 -11.416694968797431 1
gene  1 2 7 -14.23694918837396 0 24.0 -14.23694918837396 1
gene  3 3 7 5.2303368435145465 0 53.0 5.2303368435145465 1
genomeend 14
/* Organism # 015 Fitness:  9.000 Error:  1.000                      */
genomestart  15
trait 1 0.1 0.026050864021015988 0.0 0.12382298136756317 0.0 0.0 0.0 0.0 
trait 2 0.33348342859098745 0.05005137546354611 0.0 0.07453471633608144 0.0 0.0 0.0 0.10825705328172042 
trait 3 0.3 0.0 0.0 0.0 0.0 0.0 0.0 0.0 
node 1 1 1 1
node 2 1 1 1
node 3 1 1 3
node 4 1 0 2
node 7 1 0 0
gene  1 1 4 -7.395232009512468 0 1.0 -7.395232009512468 1
gene  2 2 4 7.897936943751378 0 2.0 7.897936943751378 1
gene  3 3 4 -0.733296308824376 0 3.0 -0.733296308824376 1
gene  1 1 7 6.377414302016879 0 8.0 6.377414302016879 1
gene  1 7 4 -10.213462036652883 0 9.0 -10.213462036652883 1
gene  1 2 7 -13.384681165938781 0 24.0 -13.384681165938781 1
gene  3 3 7 8.154868261400743 0 53.0 8.154868261400743 1
genomeend 15
/* Organism # 016 Fitness:  4.056 Error:  1.986                      */
genomestart  16
trait 1 0.1 0.0 0.0 0.0 0.0 0.0 0.0 0.0 
trait 2 0.3386966037068258 0.05166593596237018 0.0 0.07453471633608144 0.0 0.0 0.0 0.10825705328172042 
trait 3 0.3 0.0 0.0 0.0 0.0 0.0 0.0 0.0 
node 1 1 1 1
node 2 1 1 1
node 3 1 1 3
node 4 1 0 2
node 7 1 0 0
gene  1 1 4 -5.919142043148128 0 1.0 -5.919142043148128 1
gene  2 2 4 0.22986051170702154 0 2.0 0.22986051170702154 1
gene  3 3 4 3.205686893393624 0 3.0 3.205686893393624 1
gene  1 1 7 8.128437048496565 0 8.0 8.128437048496565 1
gene  1 7 4 -2.3407642584385853 0 9.0 -2.3407642584385853 1
gene  3 2 7 -11.56798315791643 0 24.0 -11.56798315791643 1
gene  3 3 7 10.071109265764457 0 53.0 10.071109265764457 1
genomeend 16
/* Organism # 017 Fitness:  9.000 Error:  1.000                      */
genomestart  17
trait 1 0.1 0.0 0.0 0.0 0.0 0.0 0.0 0.0 
trait 2 0.3386966037068258 0.05166593596237018 0.0 0.07453471633608144 0.0 0.0 0.0 0.10825705328172042 
trait 3 0.3 0.0 0.0 0.0 0.0 0.0 0.0 0.0 
node 1 1 1 1
node 2 1 1 1
node 3 1 1 3
node 4 1 0 2
node 7 1 0 0
gene  1 1 4 -7.266847819628409 0 1.0 -7.266847819628409 1
gene  2 2 4 9.057523608540587 0 2.0 9.057523608540587 1
gene  3 3 4 1.4201716834182516 0 3.0 1.4201716834182516 1
gene  1 1 7 6.521030974603253 0 8.0 6.521030974603253 1
gene  1 7 4 -9.023360734768529 0 9.0 -9.023360734768529 1
gene  3 2 7 -12.220330344545378 0 24.0 -12.220330344545378 1
gene  3 3 7 10.47655603763527 0 53.0 10.47655603763527 1
genomeend 17
/* Organism # 018 Fitness:  9.000 Error:  1.000                      */
genomestart  18
trait 1 0.1 0.052101728042031975 0.0 0.24764596273512635 0.0 0.0 0.0 0.0 
trait 2 0.32827025347514915 0.04843681496472205 0.0 0.07453471633608144 0.0 0.0 0.0 0.10825705328172042 
trait 3 0.3 0.0 0.0 0.0 0.0 0.0 0.0 0.0 
node 1 2 1 1
node 2 1 1 1
node 3 1 1 3
node 4 1 0 2
node 7 1 0 0
gene  1 1 4 -12.213030574464453 0 1.0 -12.213030574464453 1
gene  2 2 4 8.244737787890326 0 2.0 8.244737787890326 1
gene  3 3 4 2.819774335542664 0 3.0 2.819774335542664 1
gene  1 1 7 9.982115856168308 0 8.0 9.982115856168308 1
gene  1 7 4 -8.239399246434976 0 9.0 -8.239399246434976 1
gene  1 2 7 -14.618592085332295 0 24.0 -14.618592085332295 1
gene  3 3 7 5.674051419397992 0 53.0 5.674051419397992 1
genomeend 18
/* Organism # 019 Fitness:  8.996 Error:  1.001                      */
genomestart  19
trait 1 0.1 0.0 0.0 0.0 0.0 0.0 0.0 0.0 
trait 2 0.3386966037068258 0.05166593596237018 0.0 0.07453471633608144 0.0 0.0 0.0 0.10825705328172042 
trait 3 0.3 0.0 0.0 0.0 0.0 0.0 0.0 0.0 
node 1 1 1 1
node 2 1 1 1
node 3 1 1 3
node 4 1 0 2
node 7 1 0 0
gene  3 1 4 -4.1164289807396335 0 1.0 -4.1164289807396335 1
gene  2 2 4 1.0029618858731846 0 2.0 1.0029618858731846 1
gene  3 3 4 0.4998982488879573 0 3.0 0.4998982488879573 1
gene  1 1 7 4.349544018279737 0 8.0 4.349544018279737 1
gene  1 7 4 -9.046243513257899 0 9.0 -9.046243513257899 1
gene  3 2 7 -14.170698888932433 0 24.0 -14.170698888932433 1
gene  3 3 7 10.747619451103969 0 53.0 10.747619451103969 1
genomeend 19
/*-------------------------------------------------------------------*/
/* Species # 003         : (size= 008) (AvfFit= 6.011) (Age= 26.000)  */
/*-------------------------------------------------------------------*/
/* Organism # 020 Fitness:  9.000 Error:  1.000                      */
genomestart  20
trait 1 0.1 0.0 0.0 0.0 0.0 0.0 0.0 0.0 
trait 2 0.2 0.0 0.0 0.0 0.0 0.0 0.0 0.006150168568001482 
trait 3 0.3 0.0 0.0 0.0 0.0 0.0 0.0 0.0 
node 1 3 1 1
node 2 1 1 1
node 3 1 1 3
node 4 1 0 2
node 7 2 0 0
node 11 1 0 0
gene  1 1 4 -6.12835141493592 0 1.0 -6.12835141493592 1
gene  3 2 4 3.4983931042510656 0 2.0 3.4983931042510656 1
gene  3 3 4 -2.4366095810485087 0 3.0 -2.4366095810485087 1
gene  1 1 7 -2.3279235135252794 0 8.0 -2.3279235135252794 1
gene  1 7 4 -0.31060640101410963 0 9.0 -0.31060640101410963 1
gene  2 2 11 3.95640917054481 0 19.0 3.95640917054481 1
gene  2 11 4 2.45587020007406 0 20.0 2.45587020007406 1
gene  1 3 11 -2.4482707104719985 0 60.0 -2.4482707104719985 1
gene  1 11 7 9.439468801985985 0 102.0 9.439468801985985 1
gene  1 3 7 7.099602095244888 0 197.0 0.0 1
gene  1 1 11 -1.8628363651883562 0 248.0 -1.8628363651883562 1
gene  1 2 7 3.9536299264870376 0 263.0 0.0 1
genomeend 20
/* Organism # 021 Fitness:  1.019 Error:  2.990                      */
genomestart  21
trait 1 0.1 0.0 0.0 0.0 0.0 0.0 0.0 0.0 
trait 2 0.2 0.0 0.0 0.0 0.0 0.0 0.0 0.006150168568001482 
trait 3 0.3 0.0 0.0 0.0 0.0 0.0 0.0 0.0 
node 1 3 1 1
node 2 1 1 1
node 3 1 1 3
node 4 1 0 2
node 7 2 0 0
node 11 1 0 0
gene  1 1 4 -8.16125655345311 0 1.0 -8.16125655345311 1
gene  3 2 4 3.2528216650293515 0 2.0 3.2528216650293515 1
gene  3 3 4 1.5891946200271956 0 3.0 1.5891946200271956 1
gene  1 1 7 0.0036168397818023834 0 8.0 0.0036168397818023834 1
gene  1 7 4 -0.4420528122812112 0 9.0 -0.4420528122812112 1
gene  2 2 11 5.506357252567247 0 19.0 5.506357252567247 1
gene  2 11 4 4.701294764324832 0 20.0 4.701294764324832 1
gene  1 3 11 0.1291006836186298 0 60.0 0.1291006836186298 1
gene  1 11 7 8.97854996845436 0 102.0 8.97854996845436 1
gene  1 3 7 7.63464982466834 0 197.0 7.63464982466834 1
gene  1 1 11 -1.806786221411099 0 248.0 -1.806786221411099 1
gene  1 2 7 3.6936662919237206 0 263.0 3.6936662919237206 1
genomeend 21
/* Organism # 022 Fitness:  7.898 Error:  1.190                      */
genomestart  22
trait 1 0.1 0.0 0.0 0.0 0.0 0.0 0.0 0.0 
trait 2 0.2 0.0 0.0 0.0 0.0 0.0 0.0 0.006150168568001482 
trait 3 0.3 0.0 0.0 0.0 0.0 0.0 0.0 0.0 
node 1 3 1 1
node 2 1 1 1
node 3 1 1 3
node 4 1 0 2
node 7 2 0 0
node 11 1 0 0
gene  1 1 4 -6.12835141493592 0 1.0 -6.12835141493592 1
gene  3 2 4 5.155938943435994 0 2.0 5.155938943435994 1
gene  3 3 4 -2.0187302975144066 0 3.0 -2.0187302975144066 1
gene  1 1 7 -3.982874766639012 0 8.0 -3.982874766639012 1
gene  1 7 4 0.6213979242361511 0 9.0 0.6213979242361511 1
gene  2 2 11 4.905377328226131 0 19.0 4.905377328226131 1
gene  2 11 4 2.2360014242397748 0 20.0 2.2360014242397748 1
gene  1 3 11 -2.5253498891065553 0 60.0 -2.5253498891065553 1
gene  1 11 7 11.304497548576919 0 102.0 11.304497548576919 1
gene  1 3 7 1.030110557796349 0 197.0 1.030110557796349 1
gene  1 1 11 -1.8628363651883562 0 248.0 -1.8628363651883562 1
gene  1 2 7 5.716332614609511 0 263.0 5.716332614609511 1
genomeend 22
/* Organism # 023 Fitness:  8.996 Error:  1.001                      */
genomestart  23
trait 1 0.1 0.0 0.0 0.0 0.0 0.0 0.0 0.0 
trait 2 0.2 0.0 0.0 0.0 0.0 0.0 0.0 0.006150168568001482 
trait 3 0.3 0.0 0.0 0.0 0.0 0.0 0.0 0.0 
node 1 3 1 1
node 2 1 1 1
node 3 1 1 3
node 4 1 0 2
node 7 2 0 0
node 11 1 0 0
gene  1 1 4 -4.539835944195506 0 1.0 -4.539835944195506 1
gene  3 2 4 3.417307959920147 0 2.0 3.417307959920147 1
gene  3 3 4 0.5357429171623471 0 3.0 0.5357429171623471 1
gene  1 1 7 -4.912220794881787 0 8.0 -4.912220794881787 1
gene  1 7 4 -4.123953364770884 0 9.0 -4.123953364770884 1
gene  2 2 11 6.656868743567947 0 19.0 6.656868743567947 1
gene  2 11 4 1.691971044326225 0 20.0 1.691971044326225 1
gene  1 3 11 2.1724501785749633 0 60.0 2.1724501785749633 1
gene  1 11 7 5.883942521923726 0 102.0 5.883942521923726 1
gene  1 3 7 4.631898000907686 0 197.0 4.631898000907686 1
gene  1 1 11 -1.8385135973544204 0 248.0 -1.8385135973544204 1
gene  1 2 7 -1.5395128152826447 0 263.0 -1.5395128152826447 1
genomeend 23
/* Organism # 024 Fitness:  4.172 Error:  1.957                      */
genomestart  24
trait 1 0.1 0.0 0.0 0.0 0.0 0.0 0.0 0.0 
trait 2 0.0 0.7493673095656188 0.2714099471688458 0.0 0.0 0.6468529550163901 0.0 0.8872692796544078 
trait 3 0.3 0.0 0.0 0.0 0.0 0.0 0.0 0.0 
node 1 3 1 1
node 2 1 1 1
node 3 1 1 3
node 4 1 0 2
node 7 2 0 0
node 11 1 0 0
gene  1 1 4 -7.244913607645113 0 1.0 -7.244913607645113 1
gene  3 2 4 3.366706943152099 0 2.0 3.366706943152099 1
gene  3 3 4 -0.20054558896644537 0 3.0 -0.20054558896644537 1
gene  1 1 7 -4.387392196665383 0 8.0 -4.387392196665383 1
gene  1 7 4 0.7829063785983879 0 9.0 0.7829063785983879 1
gene  2 2 11 6.18538229986686 0 19.0 6.18538229986686 1
gene  2 11 4 2.289361151052781 0 20.0 2.289361151052781 1
gene  1 3 11 -0.9891514799270376 0 60.0 -0.9891514799270376 1
gene  1 11 7 10.522250782077366 0 102.0 10.522250782077366 1
gene  1 3 7 5.507382025245528 0 197.0 5.507382025245528 1
gene  1 1 11 -1.8628363651883562 0 248.0 -1.8628363651883562 1
gene  1 2 7 -0.031535857965476755 0 263.0 -0.031535857965476755 1
genomeend 24
/* Organism # 025 Fitness:  4.000 Error:  2.000                      */
genomestart  25
trait 1 0.1 0.0 0.0 0.0 0.0 0.0 0.0 0.0 
trait 2 0.2 0.0 0.0 0.0 0.0 0.0 0.0 0.006150168568001482 
trait 3 0.3 0.0 0.0 0.0 0.0 0.0 0.0 0.0 
node 1 3 1 1
node 2 1 1 1
node 3 1 1 3
node 4 1 0 2
node 7 2 0 0
node 11 1 0 0
gene  1 1 4 -3.2962398232995804 0 1.0 -3.2962398232995804 1
gene  3 2 4 1.6224820106585502 0 2.0 1.6224820106585502 1
gene  3 3 4 -0.3961867856181488 0 3.0 -0.3961867856181488 1
gene  1 1 7 -2.0091761610821903 0 8.0 -2.0091761610821903 1
gene  1 7 4 -2.421577774198693 0 9.0 -2.421577774198693 1
gene  2 2 11 5.624957405184783 0 19.0 5.624957405184783 1
gene  2 11 4 -1.4581598873757964 0 20.0 -1.4581598873757964 1
gene  1 3 11 1.3919368390785514 0 60.0 1.3919368390785514 1
gene  1 11 7 5.741394294890738 0 102.0 5.741394294890738 1
gene  1 3 7 6.802619384989072 0 197.0 6.802619384989072 1
gene  1 1 11 -2.56289574748945 0 248.0 -2.56289574748945 1
gene  1 2 7 -0.8745253575285088 0 263.0 -0.8745253575285088 1
genomeend 25
/* Organism # 026 Fitness:  9.000 Error:  1.000                      */
genomestart  26
trait 1 0.1 0.0 0.0 0.0 0.0 0.0 0.0 0.0 
trait 2 0.2 0.0 0.0 0.0 0.0 0.0 0.0 0.006150168568001482 
trait 3 0.3 0.0 0.0 0.0 0.0 0.0 0.0 0.0 
node 1 3 1 1
node 2 1 1 1
node 3 1 1 3
node 4 1 0 2
node 7 2 0 0
node 11 1 0 0
gene  1 1 4 -7.642515867828199 0 1.0 -7.642515867828199 1
gene  3 2 4 2.271829799543382 0 2.0 2.271829799543382 1
gene  3 3 4 -1.3003018963081636 0 3.0 -1.3003018963081636 1
gene  1 1 7 -3.47013397319559 0 8.0 -3.47013397319559 1
gene  1 7 4 -0.7099633210098035 0 9.0 -0.7099633210098035 1
gene  2 2 11 2.6845528871309514 0 19.0 2.6845528871309514 1
gene  2 11 4 2.6987175865352575 0 20.0 2.6987175865352575 1
gene  1 3 11 -1.2598292363936539 0 60.0 -1.2598292363936539 1
gene  1 11 7 7.584188835049819 0 102.0 7.584188835049819 1
gene  1 3 7 8.923815491181212 0 197.0 8.923815491181212 1
gene  1 1 11 -1.8628363651883562 0 248.0 -1.8628363651883562 1
gene  1 2 7 3.9536299264870376 0 263.0 3.9536299264870376 1
genomeend 26
/* Organism # 027 Fitness:  4.000 Error:  2.000                      */
genomestart  27
trait 1 0.1 0.0 0.0 0.0 0.0 0.0 0.0 0.0 
trait 2 0.2 0.0 0.0 0.0 0.0 0.0 0.0 0.006150168568001482 
trait 3 0.3 0.0 0.0 0.0 0.0 0.0 0.0 0.0 
node 1 3 1 1
node 2 1 1 1
node 3 1 1 3
node 4 1 0 2
node 7 2 0 0
node 11 1 0 0
gene  1 1 4 -4.581752535978757 0 1.0 -4.581752535978757 1
gene  3 2 4 1.6620779316456353 0 2.0 1.6620779316456353 1
gene  3 3 4 -3.5878982766949052 0 3.0 -3.5878982766949052 1
gene  1 1 7 -0.43546579409295694 0 8.0 -0.43546579409295694 1
gene  1 7 4 -1.4936863755287457 0 9.0 -1.4936863755287457 1
gene  2 2 11 -2.386997223842369 0 19.0 -2.386997223842369 1
gene  2 11 4 4.651310566289126 0 20.0 4.651310566289126 1
gene  1 3 11 -2.4482707104719985 0 60.0 -2.4482707104719985 1
gene  1 11 7 8.586643047234585 0 102.0 8.586643047234585 1
gene  1 3 7 5.957285842670956 0 197.0 5.957285842670956 1
gene  1 1 11 -0.15223988764129004 0 248.0 -0.15223988764129004 1
gene  1 2 7 2.4734236130151777 0 263.0 2.4734236130151777 1
genomeend 27
/*-------------------------------------------------------------------*/
/* Species # 004         : (size= 011) (AvfFit= 8.490) (Age= 25.000)  */
/*-------------------------------------------------------------------*/
/* Organism # 028 Fitness:  9.000 Error:  1.000                      */
genomestart  28
trait 1 0.1 0.0 0.0 0.0 0.0 0.0 0.0 0.0 
trait 2 0.2 0.0 0.0 0.0 0.0 0.0 0.0 0.0 
trait 3 0.3 0.0 0.0 0.0 0.0 0.0 0.0 0.0 
node 1 2 1 1
node 2 2 1 1
node 3 1 1 3
node 4 1 0 2
node 7 1 0 0
node 14 1 0 0
node 17 1 0 0
node 28 1 0 0
gene  1 1 4 8.196212633440304 0 1.0 8.196212633440304 1
gene  2 2 4 7.89195935237432 0 2.0 7.89195935237432 1
gene  3 3 4 -4.461801294035034 0 3.0 -4.461801294035034 1
gene  1 1 7 0.09343581026916303 0 8.0 0.09343581026916303 0
gene  1 7 4 2.551202153425636 0 9.0 2.551202153425636 1
gene  1 1 14 0.9011676029561831 0 27.0 0.9011676029561831 1
gene  1 14 4 0.9662131936415582 0 28.0 0.9662131936415582 1
gene  2 2 17 -3.0104350785755987 0 37.0 -3.0104350785755987 1
gene  2 17 4 -3.285731003629797 0 38.0 -3.285731003629797 1
gene  2 1 17 -2.044678334839994 0 54.0 -2.044678334839994 1
gene  1 1 28 -0.06760169885530543 0 78.0 -0.06760169885530543 1
gene  1 28 7 1.558195608301335 0 79.0 1.558195608301335 1
gene  3 17 7 -10.180321560710592 0 148.0 -10.180321560710592 1
genomeend 28
/* Organism # 029 Fitness:  9.000 Error:  1.000                      */
genomestart  29
trait 1 0.1 0.0 0.0 0.0 0.0 0.0 0.0 0.0 
trait 2 0.2 0.0 0.0 0.0 0.0 0.0 0.0 0.0 
trait 3 0.2046771952334639 0.0 0.0 0.0 0.0 0.8293262738892233 0.6692323969780597 0.0 
node 1 2 1 1
node 2 2 1 1
node 3 1 1 3
node 4 1 0 2
node 7 1 0 0
node 14 1 0 0
node 17 1 0 0
node 28 1 0 0
gene  1 1 4 6.389791873664087 0 1.0 6.389791873664087 1
gene  2 2 4 9.037783171920887 0 2.0 9.037783171920887 1
gene  3 3 4 -4.04926062185454 0 3.0 -4.04926062185454 1
gene  1 1 7 1.8368565326098547 0 8.0 1.8368565326098547 0
gene  1 7 4 3.58057478448428 0 9.0 3.58057478448428 1
gene  1 1 14 0.6708568716888288 0 27.0 0.6708568716888288 1
gene  1 14 4 0.2549677271926961 0 28.0 0.2549677271926961 1
gene  2 2 17 -3.446377676203121 0 37.0 -3.446377676203121 1
gene  2 17 4 -0.8637940605851444 0 38.0 -0.8637940605851444 1
gene  2 1 17 -2.4254404619679186 0 54.0 -2.4254404619679186 1
gene  1 1 28 -2.034550609432172 0 78.0 -2.034550609432172 1
gene  1 28 7 -0.17326800539941378 0 79.0 -0.17326800539941378 1
gene  3 17 7 -11.523896249981371 0 148.0 -11.523896249981371 1
genomeend 29
/* Organism # 030 Fitness:  9.000 Error:  1.000                      */
genomestart  30
trait 1 0.1 0.8629321033059191 0.2702773324967134 0.0 0.9631073125074976 0.0 0.8196438534572835 0.0 
trait 2 0.2 0.0 0.0 0.0 0.0 0.0 0.0 0.0 
trait 3 0.3 0.0 0.0 0.0 0.0 0.0 0.0 0.0 
node 1 2 1 1
node 2 2 1 1
node 3 1 1 3
node 4 1 0 2
node 7 1 0 0
node 14 1 0 0
node 17 1 0 0
node 28 1 0 0
gene  1 1 4 7.441351982149981 0 1.0 7.441351982149981 1
gene  2 2 4 10.227739401204452 0 2.0 10.227739401204452 1
gene  3 3 4 -5.006713478285299 0 3.0 -5.006713478285299 1
gene  1 1 7 1.0213166961231586 0 8.0 1.0213166961231586 0
gene  1 7 4 1.5457848826046354 0 9.0 1.5457848826046354 1
gene  1 1 14 -0.9580937901034617 0 27.0 -0.9580937901034617 1
gene  1 14 4 2.003573601920891 0 28.0 2.003573601920891 1
gene  2 2 17 -1.4508167462402208 0 37.0 -1.4508167462402208 1
gene  2 17 4 -2.165344464219201 0 38.0 -2.165344464219201 1
gene  2 1 17 -4.522223287180076 0 54.0 -4.522223287180076 1
gene  1 1 28 1.8737852712653276 0 78.0 1.8737852712653276 1
gene  1 28 7 1.558195608301335 0 79.0 1.558195608301335 1
gene  3 17 7 -10.301372918776261 0 148.0 -10.301372918776261 1
genomeend 30
/* Organism # 031 Fitness:  8.998 Error:  1.000                      */
genomestart  31
trait 1 0.1 0.0 0.0 0.0 0.0 0.0 0.0 0.0 
trait 2 0.2 0.0 0.0 0.0 0.0 0.0 0.0 0.0 
trait 3 0.3 0.0 0.0 0.0 0.0 0.0 0.0 0.0 
node 1 2 1 1
node 2 2 1 1
node 3 1 1 3
node 4 1 0 2
node 7 1 0 0
node 14 1 0 0
node 17 1 0 0
node 28 1 0 0
gene  1 1 4 10.358956574426813 0 1.0 10.358956574426813 1
gene  2 2 4 8.496480462905918 0 2.0 8.496480462905918 1
gene  3 3 4 -4.461801294035034 0 3.0 -4.461801294035034 1
gene  1 1 7 0.5578977104974434 0 8.0 0.5578977104974434 0
gene  1 7 4 1.4019528214776007 0 9.0 1.4019528214776007 1
gene  1 1 14 1.5274362374154797 0 27.0 1.5274362374154797 1
gene  1 14 4 -0.958329884580582 0 28.0 -0.958329884580582 1
gene  2 2 17 1.1349221877323523 0 37.0 1.1349221877323523 1
gene  2 17 4 -3.285731003629797 0 38.0 -3.285731003629797 1
gene  2 1 17 -2.044678334839994 0 54.0 -2.044678334839994 1
gene  1 1 28 -1.684341405737296 0 78.0 -1.684341405737296 1
gene  1 28 7 2.6691875105955 0 79.0 2.6691875105955 1
gene  3 17 7 1.7039572287895777 0 148.0 1.7039572287895777 1
genomeend 31
/* Organism # 032 Fitness:  9.000 Error:  1.000                      */
genomestart  32
trait 1 0.1 0.0 0.0 0.0 0.0 0.0 0.0 0.0 
trait 2 0.2 0.0 0.0 0.0 0.0 0.0 0.0 0.0 
trait 3 0.3 0.0 0.0 0.0 0.0 0.0 0.0 0.0 
node 1 2 1 1
node 2 2 1 1
node 3 1 1 3
node 4 1 0 2
node 7 1 0 0
node 14 1 0 0
node 17 1 0 0
node 28 1 0 0
gene  1 1 4 10.061637358672353 0 1.0 10.061637358672353 1
gene  2 2 4 7.857835536145871 0 2.0 7.857835536145871 1
gene  3 3 4 -3.916125300319014 0 3.0 -3.916125300319014 1
gene  3 1 7 -1.1536142896652668 0 8.0 -1.1536142896652668 0
gene  1 7 4 0.8062658979122728 0 9.0 0.8062658979122728 1
gene  1 1 14 0.5682767277786578 0 27.0 0.5682767277786578 1
gene  1 14 4 0.8952397902774778 0 28.0 0.8952397902774778 1
gene  2 2 17 -1.2669003749997854 0 37.0 -1.2669003749997854 1
gene  2 17 4 -3.390434940007829 0 38.0 -3.390434940007829 1
gene  2 1 17 -1.2890025629095303 0 54.0 -1.2890025629095303 1
gene  1 1 28 -1.4726405473455084 0 78.0 -1.4726405473455084 1
gene  1 28 7 -0.034040005924266925 0 79.0 -0.034040005924266925 1
gene  3 17 7 0.6396953924664045 0 148.0 0.6396953924664045 1
genomeend 32
/* Organism # 033 Fitness:  9.000 Error:  1.000                      */
genomestart  33
trait 1 0.1 0.0 0.0 0.0 0.0 0.0 0.0 0.0 
trait 2 0.2 0.0 0.0 0.0 0.0 0.0 0.0 0.0 
trait 3 0.3 0.0 0.0 0.0 0.0 0.0 0.0 0.0 
node 1 2 1 1
node 2 2 1 1
node 3 1 1 3
node 4 1 0 2
node 7 1 0 0
node 14 1 0 0
node 17 1 0 0
node 28 1 0 0
gene  3 1 4 8.629000357344914 0 1.0 8.629000357344914 1
gene  2 2 4 8.481736922861218 0 2.0 8.481736922861218 1
gene  3 3 4 -4.369587100328156 0 3.0 -4.369587100328156 1
gene  1 1 7 0.7897858597827521 0 8.0 0.7897858597827521 0
gene  1 7 4 3.027919425352253 0 9.0 3.027919425352253 1
gene  1 1 14 1.2841199641903251 0 27.0 1.2841199641903251 1
gene  1 14 4 1.0367177333731181 0 28.0 1.0367177333731181 1
gene  2 2 17 -3.7326981029494153 0 37.0 -3.7326981029494153 1
gene  2 17 4 -4.850194581385939 0 38.0 -4.850194581385939 1
gene  2 1 17 -1.9356940574927477 0 54.0 -1.9356940574927477 1
gene  1 1 28 -0.45269664323746317 0 78.0 -0.45269664323746317 1
gene  1 28 7 0.08922316272864594 0 79.0 0.08922316272864594 1
gene  3 17 7 -8.045243091177356 0 148.0 -8.045243091177356 1
genomeend 33
/* Organism # 034 Fitness:  9.000 Error:  1.000                      */
genomestart  34
trait 1 0.1 0.0 0.0 0.0 0.0 0.0 0.0 0.0 
trait 2 0.2 0.0 0.0 0.0 0.0 0.0 0.0 0.0 
trait 3 0.3 0.0 0.0 0.0 0.0 0.0 0.0 0.0 
node 1 2 1 1
node 2 2 1 1
node 3 1 1 3
node 4 1 0 2
node 7 1 0 0
node 14 1 0 0
node 17 1 0 0
node 28 1 0 0
gene  1 1 4 7.4704769878409945 0 1.0 7.4704769878409945 1
gene  2 2 4 6.227513698482916 0 2.0 6.227513698482916 1
gene  3 3 4 -3.235845292718249 0 3.0 -3.235845292718249 1
gene  1 1 7 1.6272450024835672 0 8.0 1.6272450024835672 0
gene  1 7 4 4.310716419223128 0 9.0 4.310716419223128 1
gene  1 1 14 2.295073616995029 0 27.0 2.295073616995029 1
gene  1 14 4 -0.9167139802654739 0 28.0 -0.9167139802654739 1
gene  2 2 17 -2.7385698542450174 0 37.0 -2.7385698542450174 1
gene  2 17 4 -1.0875107448642911 0 38.0 -1.0875107448642911 1
gene  2 1 17 -3.077236595676667 0 54.0 -3.077236595676667 1
gene  1 1 28 -2.221996335297479 0 78.0 -2.221996335297479 1
gene  1 28 7 2.790207177033863 0 79.0 2.790207177033863 1
gene  3 17 7 -9.42083022146407 0 148.0 -9.42083022146407 1
genomeend 34
/* Organism # 035 Fitness:  3.393 Error:  2.158                      */
genomestart  35
trait 1 0.1 0.0 0.0 0.0 0.0 0.0 0.0 0.0 
trait 2 0.2 0.0 0.0 0.0 0.0 0.0 0.0 0.0 
trait 3 0.3 0.0 0.0 0.0 0.0 0.0 0.0 0.0 
node 1 2 1 1
node 2 2 1 1
node 3 1 1 3
node 4 1 0 2
node 7 1 0 0
node 14 1 0 0
node 17 1 0 0
node 28 1 0 0
gene  1 1 4 -1.7484930672891457 0 1.0 -1.7484930672891457 1
gene  2 2 4 8.618875288290473 0 2.0 8.618875288290473 1
gene  3 3 4 0.7781907833172776 0 3.0 0.7781907833172776 1
gene  1 1 7 -1.3598896433158305 0 8.0 -1.3598896433158305 0
gene  1 7 4 -0.7828921675664693 0 9.0 -0.7828921675664693 1
gene  1 1 14 -1.2995845050587906 0 27.0 -1.2995845050587906 1
gene  1 14 4 -0.8165987044945079 0 28.0 -0.8165987044945079 1
gene  2 2 17 -5.157468091484825 0 37.0 -5.157468091484825 1
gene  2 17 4 -1.416013246438133 0 38.0 -1.416013246438133 1
gene  2 1 17 -2.2516143063886744 0 54.0 -2.2516143063886744 1
gene  1 1 28 -2.0362920698009903 0 78.0 -2.0362920698009903 1
gene  1 28 7 1.558195608301335 0 79.0 1.558195608301335 1
gene  1 17 7 -9.256409300675903 0 148.0 -9.256409300675903 1
genomeend 35
/* Organism # 036 Fitness:  9.000 Error:  1.000                      */
genomestart  36
trait 1 0.1 0.0 0.0 0.0 0.0 0.0 0.0 0.0 
trait 2 0.2 0.0 0.0 0.0 0.0 0.0 0.0 0.0 
trait 3 0.3 0.0 0.0 0.0 0.0 0.0 0.0 0.0 
node 1 2 1 1
node 2 2 1 1
node 3 1 1 3
node 4 1 0 2
node 7 1 0 0
node 14 1 0 0
node 17 1 0 0
node 28 1 0 0
gene  1 1 4 8.196212633440304 0 1.0 8.196212633440304 1
gene  2 2 4 7.89195935237432 0 2.0 7.89195935237432 1
gene  3 3 4 -4.461801294035034 0 3.0 -4.461801294035034 1
gene  1 1 7 0.09343581026916303 0 8.0 0.09343581026916303 0
gene  1 7 4 2.551202153425636 0 9.0 2.551202153425636 1
gene  1 1 14 0.9011676029561831 0 27.0 0.9011676029561831 1
gene  1 14 4 0.9662131936415582 0 28.0 0.9662131936415582 1
gene  2 2 17 -3.0104350785755987 0 37.0 -3.0104350785755987 1
gene  2 17 4 -3.285731003629797 0 38.0 -3.285731003629797 1
gene  2 1 17 -2.044678334839994 0 54.0 -2.044678334839994 1
gene  1 1 28 -0.06760169885530543 0 78.0 -0.06760169885530543 1
gene  1 28 7 1.558195608301335 0 79.0 1.558195608301335 1
gene  3 17 7 -10.180321560710592 0 148.0 -10.180321560710592 1
genomeend 36
/* Organism # 037 Fitness:  9.000 Error:  1.000                      */
genomestart  37
trait 1 0.1 0.0 0.0 0.0 0.0 0.0 0.0 0.0 
trait 2 0.2 0.0 0.0 0.0 0.0 0.0 0.0 0.0 
trait 3 0.3 0.0 0.0 0.0 0.0 0.0 0.0 0.0 
node 1 2 1 1
node 2 2 1 1
node 3 1 1 3
node 4 1 0 2
node 7 1 0 0
node 14 1 0 0
node 17 1 0 0
node 28 1 0 0
gene  1 1 4 6.8471346303598555 0 1.0 6.8471346303598555 1
gene  2 2 4 7.322879182861347 0 2.0 7.322879182861347 1
gene  3 3 4 -6.764236348596956 0 3.0 -6.764236348596956 1
gene  1 1 7 -0.5053058548816601 0 8.0 -0.5053058548816601 0
gene  1 7 4 4.789892231946107 0 9.0 4.789892231946107 1
gene  1 1 14 2.5855733531718994 0 27.0 2.5855733531718994 1
gene  1 14 4 0.6363180653533598 0 28.0 0.6363180653533598 1
gene  2 2 17 -4.020547095252754 0 37.0 -4.020547095252754 1
gene  2 17 4 -5.324765084542584 0 38.0 -5.324765084542584 1
gene  2 1 17 -3.9471216559031284 0 54.0 -3.9471216559031284 1
gene  1 1 28 -0.8994425196146085 0 78.0 -0.8994425196146085 1
gene  1 28 7 1.572854244337483 0 79.0 1.572854244337483 1
gene  3 17 7 -12.073065568665422 0 148.0 -12.073065568665422 1
genomeend 37
/* Organism # 038 Fitness:  9.000 Error:  1.000                      */
genomestart  38
trait 1 0.1 0.0 0.0 0.0 0.0 0.0 0.0 0.0 
trait 2 0.2 0.0 0.0 0.0 0.0 0.0 0.0 0.0 
trait 3 0.3 0.0 0.0 0.0 0.0 0.0 0.0 0.0 
node 1 2 1 1
node 2 2 1 1
node 3 1 1 3
node 4 1 0 2
node 7 1 0 0
node 14 1 0 0
node 17 1 0 0
node 28 1 0 0
gene  1 1 4 7.385065404140208 0 1.0 7.385065404140208 1
gene  2 2 4 8.88426536517731 0 2.0 8.88426536517731 1
gene  3 3 4 -2.1671235704144802 0 3.0 -2.1671235704144802 1
gene  1 1 7 -0.2588285933151284 0 8.0 -0.2588285933151284 0
gene  1 7 4 3.3974660439510083 0 9.0 3.3974660439510083 1
gene  1 1 14 -0.45854997898790806 0 27.0 -0.45854997898790806 1
gene  1 14 4 -1.4595372190436748 0 28.0 -1.4595372190436748 1
gene  2 2 17 -1.3009219600990818 0 37.0 -1.3009219600990818 1
gene  2 17 4 -3.1936868090873016 0 38.0 -3.1936868090873016 1
gene  2 1 17 -1.9480946381741957 0 54.0 -1.9480946381741957 1
gene  1 1 28 0.07428617155268524 0 78.0 0.07428617155268524 1
gene  1 28 7 0.5016879617246321 0 79.0 0.5016879617246321 1
gene  3 17 7 -10.180321560710592 0 148.0 -10.180321560710592 1
genomeend 38
/*-------------------------------------------------------------------*/
/* Species # 005         : (size= 011) (AvfFit= 7.942) (Age= 24.000)  */
/*-------------------------------------------------------------------*/
/* Organism # 039 Fitness:  9.000 Error:  1.000                      */
genomestart  39
trait 1 0.00390625 0.0 0.5086472835778034 0.0 0.0 0.0 0.0 0.0 
trait 2 0.2 0.0 0.0 0.090960560818385 0.0 0.0 0.49427861223422004 0.0 
trait 3 0.28080549688176526 0.0 0.0 0.0 0.011769736973179318 0.0 0.0 0.2093694851390851 
node 1 1 1 1
node 2 1 1 1
node 3 1 1 3
node 4 1 0 2
node 17 1 0 0
gene  1 1 4 7.605476953383544 0 1.0 7.605476953383544 1
gene  2 2 4 6.880688637272377 0 2.0 6.880688637272377 1
gene  3 3 4 -1.3969657061877627 0 3.0 -1.3969657061877627 1
gene  2 2 17 -2.5898696837520467 0 37.0 -2.5898696837520467 1
gene  2 17 4 -2.9273460014779875 0 38.0 -2.9273460014779875 1
gene  1 1 17 -3.6032550471069333 0 80.0 -3.6032550471069333 1
gene  2 3 17 0.8533740875844427 0 219.0 0.8533740875844427 1
genomeend 39
/* Organism # 040 Fitness:  2.397 Error:  2.452                      */
genomestart  40
trait 1 0.00390625 0.0 0.5086472835778034 0.0 0.0 0.0 0.0 0.0 
trait 2 0.2 0.0 0.0 0.090960560818385 0.0 0.0 0.49427861223422004 0.0 
trait 3 0.28080549688176526 0.0 0.0 0.0 0.011769736973179318 0.0 0.0 0.2093694851390851 
node 1 1 1 1
node 2 1 1 1
node 3 1 1 3
node 4 1 0 2
node 17 1 0 0
gene  1 1 4 8.966915970298517 0 1.0 8.966915970298517 1
gene  2 2 4 -1.7495493367513106 0 2.0 -1.7495493367513106 1
gene  3 3 4 1.7885904337125103 0 3.0 1.7885904337125103 1
gene  2 2 17 -4.2964894544005015 0 37.0 -4.2964894544005015 1
gene  2 17 4 -2.9273460014779875 0 38.0 -2.9273460014779875 1
gene  1 1 17 -3.9582002459252323 0 80.0 -3.9582002459252323 1
gene  2 3 17 -1.4930606374569357 0 219.0 -1.4930606374569357 1
genomeend 40
/* Organism # 041 Fitness:  9.000 Error:  1.000                      */
genomestart  41
trait 1 0.00390625 0.0 0.5086472835778034 0.0 0.0 0.0 0.0 0.0 
trait 2 0.2 0.0 0.0 0.090960560818385 0.0 0.0 0.49427861223422004 0.0 
trait 3 0.31590618399198594 0.0 0.0 0.0 0.007356085608237074 0.0 0.0 0.07851355692715692 
node 1 1 1 1
node 2 1 1 1
node 3 1 1 3
node 4 1 0 2
node 17 1 0 0
gene  1 1 4 9.02537113420109 0 1.0 9.02537113420109 1
gene  2 2 4 6.116502248883803 0 2.0 6.116502248883803 1
gene  3 3 4 -1.8901708985753396 0 3.0 -1.8901708985753396 1
gene  2 2 17 -4.363371754654074 0 37.0 -4.363371754654074 1
gene  2 17 4 -3.679060823752547 0 38.0 -3.679060823752547 1
gene  1 1 17 -4.150921875047774 0 80.0 -4.150921875047774 1
gene  2 3 17 -0.48802736301792815 0 219.0 -0.48802736301792815 1
genomeend 41
/* Organism # 042 Fitness:  9.000 Error:  1.000                      */
genomestart  42
trait 1 0.00390625 0.0 0.5086472835778034 0.0 0.0 0.0 0.0 0.0 
trait 2 0.2 0.0 0.0 0.090960560818385 0.0 0.0 0.49427861223422004 0.0 
trait 3 0.28080549688176526 0.0 0.0 0.0 0.011769736973179318 0.0 0.0 0.2093694851390851 
node 1 2 1 1
node 2 1 1 1
node 3 1 1 3
node 4 1 0 2
node 17 1 0 0
gene  1 1 4 7.605476953383544 0 1.0 7.605476953383544 1
gene  2 2 4 6.880688637272377 0 2.0 6.880688637272377 1
gene  3 3 4 -1.3969657061877627 0 3.0 -1.3969657061877627 1
gene  2 2 17 -2.5898696837520467 0 37.0 -2.5898696837520467 1
gene  2 17 4 -2.9273460014779875 0 38.0 -2.9273460014779875 1
gene  1 1 17 -3.6032550471069333 0 80.0 -3.6032550471069333 1
gene  2 3 17 0.8533740875844427 0 219.0 0.8533740875844427 1
genomeend 42
/* Organism # 043 Fitness:  9.000 Error:  1.000                      */
genomestart  43
trait 1 0.00390625 0.0 0.5086472835778034 0.0 0.0 0.0 0.0 0.0 
trait 2 0.2 0.0 0.0 0.090960560818385 0.0 0.0 0.49427861223422004 0.0 
trait 3 0.2983558404368756 0.0 0.0 0.0 0.009562911290708196 0.0 0.0 0.14394152103312102 
node 1 1 1 1
node 2 1 1 1
node 3 1 1 3
node 4 1 0 2
node 17 1 0 0
gene  1 1 4 7.3486005203726785 0 1.0 7.3486005203726785 1
gene  2 2 4 6.880688637272377 0 2.0 6.880688637272377 1
gene  3 3 4 -1.6449972606659236 0 3.0 -1.6449972606659236 1
gene  2 2 17 -2.8168317599047947 0 37.0 -2.8168317599047947 1
gene  2 17 4 -2.411774735557166 0 38.0 -2.411774735557166 1
gene  1 1 17 -3.4566058672183435 0 80.0 -3.4566058672183435 1
gene  2 3 17 0.8533740875844427 0 219.0 0.8533740875844427 1
genomeend 43
/* Organism # 044 Fitness:  8.963 Error:  1.006                      */
genomestart  44
trait 1 0.00390625 0.0 0.5086472835778034 0.0 0.0 0.0 0.0 0.0 
trait 2 0.2 0.0 0.0 0.090960560818385 0.0 0.0 0.49427861223422004 0.0 
trait 3 0.28080549688176526 0.0 0.0 0.0 0.011769736973179318 0.0 0.0 0.2093694851390851 
node 1 1 1 1
node 2 1 1 1
node 3 1 1 3
node 4 1 0 2
node 17 1 0 0
gene  1 1 4 5.617755535377331 0 1.0 5.617755535377331 1
gene  2 2 4 4.58821082276179 0 2.0 4.58821082276179 1
gene  3 3 4 -3.5528771708181863 0 3.0 -3.5528771708181863 1
gene  2 2 17 -2.6800810332226455 0 37.0 -2.6800810332226455 1
gene  2 17 4 -3.315238675461475 0 38.0 -3.315238675461475 1
gene  1 1 17 -4.003043039387443 0 80.0 -4.003043039387443 1
gene  2 3 17 -0.3127720897633772 0 219.0 -0.3127720897633772 1
genomeend 44
/* Organism # 045 Fitness:  9.000 Error:  1.000                      */
genomestart  45
trait 1 0.00390625 0.0 0.5086472835778034 0.0 0.0 0.0 0.0 0.0 
trait 2 0.2 0.0 0.0 0.090960560818385 0.0 0.0 0.49427861223422004 0.0 
trait 3 0.2983558404368756 0.0 0.0 0.0 0.009562911290708196 0.0 0.0 0.14394152103312102 
node 1 1 1 1
node 2 1 1 1
node 3 1 1 3
node 4 1 0 2
node 17 1 0 0
gene  1 1 4 7.605476953383544 0 1.0 7.605476953383544 1
gene  2 2 4 6.880688637272377 0 2.0 6.880688637272377 1
gene  3 3 4 -1.3969657061877627 0 3.0 -1.3969657061877627 1
gene  2 2 17 -2.8168317599047947 0 37.0 -2.8168317599047947 1
gene  2 17 4 -2.411774735557166 0 38.0 -2.411774735557166 1
gene  1 1 17 -3.6032550471069333 0 80.0 -3.6032550471069333 1
gene  2 3 17 0.8533740875844427 0 219.0 0.8533740875844427 1
genomeend 45
/* Organism # 046 Fitness:  9.000 Error:  1.000                      */
genomestart  46
trait 1 0.00390625 0.0 0.5086472835778034 0.0 0.0 0.0 0.0 0.0 
trait 2 0.2 0.0 0.0 0.090960560818385 0.0 0.0 0.49427861223422004 0.0 
trait 3 0.2983558404368756 0.0 0.0 0.0 0.009562911290708196 0.0 0.0 0.14394152103312102 
node 1 1 1 1
node 2 1 1 1
node 3 1 1 3
node 4 1 0 2
node 17 1 0 0
gene  1 1 4 7.779501907749647 0 1.0 7.779501907749647 1
gene  2 2 4 7.1581411993422295 0 2.0 7.1581411993422295 1
gene  3 3 4 -1.6449972606659236 0 3.0 -1.6449972606659236 1
gene  2 2 17 -3.015955326781227 0 37.0 -3.015955326781227 1
gene  2 17 4 -3.14881199984365 0 38.0 -3.14881199984365 1
gene  1 1 17 -4.559806201438559 0 80.0 -4.559806201438559 1
gene  2 3 17 0.7959522635208167 0 219.0 0.7959522635208167 1
genomeend 46
/* Organism # 047 Fitness:  4.000 Error:  2.000                      */
genomestart  47
trait 1 0.00390625 0.0 0.5086472835778034 0.0 0.0 0.0 0.0 0.0 
trait 2 0.2 0.0 0.0 0.090960560818385 0.0 0.0 0.49427861223422004 0.0 
trait 3 0.28080549688176526 0.0 0.0 0.0 0.011769736973179318 0.0 0.0 0.2093694851390851 
node 1 1 1 1
node 2 1 1 1
node 3 1 1 3
node 4 1 0 2
node 17 1 0 0
gene  1 1 4 6.532156662609856 0 1.0 6.532156662609856 1
gene  2 2 4 0.8240722278708956 0 2.0 0.8240722278708956 1
gene  3 3 4 -3.1721106168303077 0 3.0 -3.1721106168303077 1
gene  2 2 17 -1.1299361473357488 0 37.0 -1.1299361473357488 1
gene  2 17 4 -0.0741998641172284 0 38.0 -0.0741998641172284 1
gene  1 1 17 -3.574878495752552 0 80.0 -3.574878495752552 1
gene  2 3 17 0.4959435877638522 0 219.0 0.4959435877638522 1
genomeend 47
/* Organism # 048 Fitness:  9.000 Error:  1.000                      */
genomestart  48
trait 1 0.00390625 0.0 0.5086472835778034 0.0 0.0 0.0 0.0 0.0 
trait 2 0.2 0.0 0.0 0.090960560818385 0.0 0.0 0.49427861223422004 0.0 
trait 3 0.28080549688176526 0.0 0.0 0.0 0.011769736973179318 0.0 0.0 0.2093694851390851 
node 1 1 1 1
node 2 1 1 1
node 3 1 1 3
node 4 1 0 2
node 17 1 0 0
gene  3 1 4 6.553891504795331 0 1.0 6.553891504795331 1
gene  2 2 4 6.880688637272377 0 2.0 6.880688637272377 1
gene  3 3 4 -2.94977954537271 0 3.0 -2.94977954537271 1
gene  2 2 17 -4.976541925995437 0 37.0 -4.976541925995437 1
gene  2 17 4 -3.171568022484301 0 38.0 -3.171568022484301 1
gene  1 1 17 -5.222912207380892 0 80.0 -5.222912207380892 1
gene  2 3 17 2.277526021939658 0 219.0 2.277526021939658 1
genomeend 48
/* Organism # 049 Fitness:  9.000 Error:  1.000                      */
genomestart  49
trait 1 0.00390625 0.0 0.5086472835778034 0.0 0.0 0.0 0.0 0.0 
trait 2 0.2 0.0 0.0 0.090960560818385 0.0 0.0 0.49427861223422004 0.0 
trait 3 0.2983558404368756 0.0 0.0 0.0 0.009562911290708196 0.0 0.0 0.14394152103312102 
node 1 1 1 1
node 2 1 1 1
node 3 1 1 3
node 4 1 0 2
node 17 2 0 0
gene  1 1 4 7.3486005203726785 0 1.0 7.3486005203726785 1
gene  2 2 4 6.547031245077642 0 2.0 6.547031245077642 1
gene  3 3 4 -1.6449972606659236 0 3.0 -1.6449972606659236 1
gene  2 2 17 -2.8168317599047947 0 37.0 -2.8168317599047947 1
gene  2 17 4 -2.411774735557166 0 38.0 -2.411774735557166 1
gene  1 1 17 -3.4566058672183435 0 80.0 -3.4566058672183435 1
gene  2 3 17 0.7959522635208167 0 219.0 0.7959522635208167 1
genomeend 49
/*-------------------------------------------------------------------*/
/* Species # 006         : (size= 009) (AvfFit= 7.077) (Age= 24.000)  */
/*-------------------------------------------------------------------*/
/* Organism # 050 Fitness:  9.000 Error:  1.000                      */
genomestart  50
trait 1 0.1 0.0 0.0 0.0 0.0 0.0 0.0 0.0 
trait 2 0.2 0.1545554094655182 0.0 0.0 0.0 0.0 0.0 0.0 
trait 3 0.3 0.0 0.0 0.0 0.0 0.0 0.0 0.0 
node 1 2 1 1
node 2 2 1 1
node 3 1 1 3
node 4 1 0 2
node 7 1 0 0
node 14 1 0 0
node 17 1 0 0
node 28 1 0 0
node 48 1 0 0
node 83 1 0 0
gene  1 1 4 3.666466855332013 0 1.0 3.666466855332013 1
gene  2 2 4 8.337694654279815 0 2.0 8.337694654279815 1
gene  3 3 4 -3.726122868661415 0 3.0 -3.726122868661415 1
gene  1 1 7 1.6488344783131827 0 8.0 1.6488344783131827 0
gene  1 7 4 -1.8531667991658765 0 9.0 -1.8531667991658765 0
gene  1 1 14 -5.087136555082259 0 27.0 -5.087136555082259 1
gene  1 14 4 -2.360456898748649 0 28.0 -2.360456898748649 1
gene  2 2 17 -1.4256820348009946 0 37.0 -1.4256820348009946 1
gene  1 17 4 -5.582588739160885 0 38.0 -5.582588739160885 1
gene  2 1 17 -14.697325798078055 0 54.0 -14.697325798078055 1
gene  1 1 28 -0.9639917537823983 0 78.0 -0.9639917537823983 1
gene  1 28 7 1.103491411795472 0 79.0 1.103491411795472 1
gene  1 1 48 2.020521081728867 0 154.0 2.020521081728867 1
gene  1 48 4 8.82900791026075 0 155.0 8.82900791026075 1
gene  3 48 28 -0.3163394914640469 0 180.0 -0.3163394914640469 1
gene  1 7 83 1.0 0 344.0 0.0 1
gene  1 83 4 -1.8531667991658765 0 345.0 0.0 1
genomeend 50
/* Organism # 051 Fitness:  8.921 Error:  1.013                      */
genomestart  51
trait 1 0.1 0.0 0.0 0.0 0.0 0.0 0.0 0.0 
trait 2 0.2 0.1545554094655182 0.0 0.0 0.0 0.0 0.0 0.0 
trait 3 0.3 0.0 0.0 0.0 0.0 0.0 0.0 0.0 
node 1 2 1 1
node 2 2 1 1
node 3 1 1 3
node 4 1 0 2
node 7 1 0 0
node 14 1 0 0
node 17 1 0 0
node 28 3 0 0
node 48 1 0 0
gene  1 1 4 4.358696926109224 0 1.0 4.358696926109224 1
gene  2 2 4 10.371728368821234 0 2.0 10.371728368821234 1
gene  3 3 4 -3.726122868661415 0 3.0 -3.726122868661415 1
gene  1 1 7 1.6488344783131827 0 8.0 1.6488344783131827 0
gene  1 7 4 0.06617079132121706 0 9.0 0.06617079132121706 1
gene  1 1 14 -5.906684371020908 0 27.0 -5.906684371020908 1
gene  1 14 4 -2.360456898748649 0 28.0 -2.360456898748649 1
gene  2 2 17 -2.6002718338008517 0 37.0 -2.6002718338008517 1
gene  1 17 4 0.6792231178991781 0 38.0 0.6792231178991781 1
gene  2 1 17 -16.273914597964282 0 54.0 -16.273914597964282 1
gene  1 1 28 1.3886999436536054 0 78.0 1.3886999436536054 1
gene  1 28 7 3.461582728488207 0 79.0 3.461582728488207 1
gene  1 1 48 -0.34798022571073206 0 154.0 -0.34798022571073206 1
gene  1 48 4 7.3098124890252585 0 155.0 7.3098124890252585 1
gene  3 48 28 -2.5798868698643345 0 180.0 -2.5798868698643345 1
genomeend 51
/* Organism # 052 Fitness:  9.000 Error:  1.000                      */
genomestart  52
trait 1 0.1 0.0 0.0 0.0 0.0 0.0 0.0 0.0 
trait 2 0.2 0.1545554094655182 0.0 0.0 0.0 0.0 0.0 0.0 
trait 3 0.3 0.0 0.0 0.0 0.0 0.0 0.0 0.0 
node 1 3 1 1
node 2 2 1 1
node 3 1 1 3
node 4 1 0 2
node 7 1 0 0
node 14 1 0 0
node 17 1 0 0
node 28 3 0 0
node 48 1 0 0
gene  1 1 4 4.043847136342719 0 1.0 4.043847136342719 1
gene  2 2 4 7.228220185591435 0 2.0 7.228220185591435 1
gene  3 3 4 -5.600431529347846 0 3.0 -5.600431529347846 1
gene  1 1 7 0.35354034011445346 0 8.0 0.35354034011445346 0
gene  1 7 4 -4.270447172348224 0 9.0 -4.270447172348224 1
gene  1 1 14 -2.9112849367896727 0 27.0 -2.9112849367896727 1
gene  1 14 4 -0.932508874680525 0 28.0 -0.932508874680525 1
gene  2 2 17 -3.349544854244024 0 37.0 -3.349544854244024 1
gene  1 17 4 -6.097896184633435 0 38.0 -6.097896184633435 1
gene  2 1 17 -14.42824517140394 0 54.0 -14.42824517140394 1
gene  1 1 28 -3.115432329298393 0 78.0 -3.115432329298393 1
gene  1 28 7 -0.893996747734985 0 79.0 -0.893996747734985 1
gene  1 1 48 2.5524596319648833 0 154.0 2.5524596319648833 1
gene  1 48 4 7.903162694116367 0 155.0 7.903162694116367 1
gene  3 48 28 0.5394401941079399 0 180.0 0.5394401941079399 1
genomeend 52
/* Organism # 053 Fitness:  7.867 Error:  1.195                      */
genomestart  53
trait 1 0.1 0.0 0.0 0.0 0.0 0.0 0.0 0.0 
trait 2 0.2 0.1545554094655182 0.0 0.0 0.0 0.0 0.0 0.0 
trait 3 0.3 0.0 0.0 0.0 0.0 0.0 0.0 0.0 
node 1 2 1 1
node 2 2 1 1
node 3 1 1 3
node 4 1 0 2
node 7 1 0 0
node 14 1 0 0
node 17 1 0 0
node 28 1 0 0
node 48 1 0 0
node 83 1 0 0
gene  1 1 4 4.102527524439181 0 1.0 4.102527524439181 1
gene  2 2 4 9.73757049810182 0 2.0 9.73757049810182 1
gene  3 3 4 -2.607902167784081 0 3.0 -2.607902167784081 1
gene  1 1 7 2.219853249855782 0 8.0 2.219853249855782 0
gene  1 7 4 0.04779190113171139 0 9.0 0.04779190113171139 0
gene  1 1 14 -5.2383520044720875 0 27.0 -5.2383520044720875 1
gene  1 14 4 -2.451714415496267 0 28.0 -2.451714415496267 1
gene  2 2 17 -0.2582047844712565 0 37.0 -0.2582047844712565 1
gene  1 17 4 -3.8630276384651534 0 38.0 -3.8630276384651534 1
gene  2 1 17 -14.646760276083496 0 54.0 -14.646760276083496 1
gene  1 1 28 -1.0717229065453362 0 78.0 -1.0717229065453362 1
gene  1 28 7 2.4759961303623985 0 79.0 2.4759961303623985 1
gene  1 1 48 2.5866710954895127 0 154.0 2.5866710954895127 1
gene  1 48 4 11.300818137811735 0 155.0 11.300818137811735 1
gene  3 48 28 -0.3163394914640469 0 180.0 -0.3163394914640469 1
gene  1 7 83 -0.47188937055378277 0 344.0 -0.47188937055378277 1
gene  1 83 4 -1.8531667991658765 0 345.0 -1.8531667991658765 1
genomeend 53
/* Organism # 054 Fitness:  8.998 Error:  1.000                      */
genomestart  54
trait 1 0.1 0.0 0.0 0.0 0.0 0.0 0.0 0.0 
trait 2 0.2 0.1545554094655182 0.0 0.0 0.0 0.0 0.0 0.0 
trait 3 0.3 0.0 0.0 0.0 0.0 0.0 0.0 0.0 
node 1 2 1 1
node 2 2 1 1
node 3 1 1 3
node 4 1 0 2
node 7 1 0 0
node 14 1 0 0
node 17 1 0 0
node 28 1 0 0
node 48 1 0 0
gene  1 1 4 6.111598969719614 0 1.0 6.111598969719614 1
gene  2 2 4 6.597690090607309 0 2.0 6.597690090607309 1
gene  3 3 4 -1.5831050946456653 0 3.0 -1.5831050946456653 1
gene  1 1 7 1.1453951853217283 0 8.0 1.1453951853217283 0
gene  1 7 4 0.18217179524161953 0 9.0 0.18217179524161953 1
gene  1 1 14 -5.996761031305247 0 27.0 -5.996761031305247 1
gene  1 14 4 -4.793911112473428 0 28.0 -4.793911112473428 1
gene  2 2 17 -2.237227907284276 0 37.0 -2.237227907284276 1
gene  1 17 4 -3.707080413113443 0 38.0 -3.707080413113443 1
gene  2 1 17 -0.0424847711827539 0 54.0 -0.0424847711827539 1
gene  1 1 28 -0.9639917537823983 0 78.0 -0.9639917537823983 1
gene  1 28 7 1.103491411795472 0 79.0 1.103491411795472 1
gene  1 1 48 2.860418113553811 0 154.0 2.860418113553811 1
gene  1 48 4 8.148288487977267 0 155.0 8.148288487977267 1
gene  3 48 28 -0.3163394914640469 0 180.0 -0.3163394914640469 1
genomeend 54
/* Organism # 055 Fitness:  4.000 Error:  2.000                      */
genomestart  55
trait 1 0.1 0.0 0.0 0.0 0.0 0.0 0.0 0.0 
trait 2 0.2 0.1545554094655182 0.0 0.0 0.0 0.0 0.0 0.0 
trait 3 0.3 0.0 0.0 0.0 0.0 0.0 0.0 0.0 
node 1 2 1 1
node 2 2 1 1
node 3 1 1 3
node 4 1 0 2
node 7 1 0 0
node 14 1 0 0
node 17 1 0 0
node 28 1 0 0
node 48 1 0 0
node 83 1 0 0
gene  1 1 4 1.8373365216899642 0 1.0 1.8373365216899642 1
gene  2 2 4 -2.103062926368006 0 2.0 -2.103062926368006 1
gene  3 3 4 -4.908812406459686 0 3.0 -4.908812406459686 1
gene  1 1 7 2.02382624241892 0 8.0 2.02382624241892 0
gene  1 7 4 -3.426400404278657 0 9.0 -3.426400404278657 0
gene  1 1 14 2.2969388211371617 0 27.0 2.2969388211371617 1
gene  1 14 4 -0.2993231768723579 0 28.0 -0.2993231768723579 1
gene  2 2 17 -3.6992892846483945 0 37.0 -3.6992892846483945 1
gene  1 17 4 -4.143951925796608 0 38.0 -4.143951925796608 1
gene  2 1 17 -16.234170443245592 0 54.0 -16.234170443245592 1
gene  1 1 28 -2.167916069253392 0 78.0 -2.167916069253392 1
gene  1 28 7 1.103491411795472 0 79.0 1.103491411795472 1
gene  1 1 48 2.9941881904057954 0 154.0 2.9941881904057954 1
gene  1 48 4 7.974416078545854 0 155.0 7.974416078545854 1
gene  3 48 28 0.7097292754747881 0 180.0 0.7097292754747881 1
gene  1 7 83 3.001760229045217 0 344.0 3.001760229045217 1
gene  1 83 4 -0.44554819917755006 0 345.0 -0.44554819917755006 1
genomeend 55
/* Organism # 056 Fitness:  9.000 Error:  1.000                      */
genomestart  56
trait 1 0.1 0.0 0.0 0.0 0.0 0.0 0.0 0.0 
trait 2 0.2 0.1545554094655182 0.0 0.0 0.0 0.0 0.0 0.0 
trait 3 0.3 0.0 0.0 0.0 0.0 0.0 0.0 0.0 
node 1 2 1 1
node 2 2 1 1
node 3 1 1 3
node 4 1 0 2
node 7 1 0 0
node 14 1 0 0
node 17 1 0 0
node 28 3 0 0
node 48 1 0 0
gene  1 1 4 2.458555228314954 0 1.0 2.458555228314954 1
gene  2 2 4 8.783453493803695 0 2.0 8.783453493803695 1
gene  3 3 4 -1.7269910690230947 0 3.0 -1.7269910690230947 1
gene  1 1 7 -0.843373544138093 0 8.0 -0.843373544138093 0
gene  1 7 4 -4.293687595807508 0 9.0 -4.293687595807508 1
gene  1 1 14 -3.244419550916339 0 27.0 -3.244419550916339 1
gene  1 14 4 -1.7938320032786217 0 28.0 -1.7938320032786217 1
gene  2 2 17 0.1075125268677588 0 37.0 0.1075125268677588 1
gene  1 17 4 -5.2331402200793775 0 38.0 -5.2331402200793775 1
gene  2 1 17 -15.300331019646645 0 54.0 -15.300331019646645 1
gene  1 1 28 -0.27160832436746885 0 78.0 -0.27160832436746885 1
gene  1 28 7 -0.18953491258833588 0 79.0 -0.18953491258833588 1
gene  1 1 48 0.09412686055115915 0 154.0 0.09412686055115915 1
gene  1 48 4 9.920810105608467 0 155.0 9.920810105608467 1
gene  3 48 28 -0.3163394914640469 0 180.0 -0.3163394914640469 1
genomeend 56
/* Organism # 057 Fitness:  5.905 Error:  1.570                      */
genomestart  57
trait 1 0.1 0.0 0.0 0.0 0.0 0.0 0.0 0.0 
trait 2 0.2 0.1545554094655182 0.0 0.0 0.0 0.0 0.0 0.0 
trait 3 0.3 0.0 0.0 0.0 0.0 0.0 0.0 0.0 
node 1 2 1 1
node 2 2 1 1
node 3 1 1 3
node 4 1 0 2
node 7 1 0 0
node 14 1 0 0
node 17 1 0 0
node 28 1 0 0
node 48 1 0 0
gene  1 1 4 3.165797366529083 0 1.0 3.165797366529083 1
gene  2 2 4 6.013794276430906 0 2.0 6.013794276430906 1
gene  3 3 4 -5.236019897583476 0 3.0 -5.236019897583476 1
gene  1 1 7 -0.8160880112992928 0 8.0 -0.8160880112992928 0
gene  1 7 4 -0.8930713199256739 0 9.0 -0.8930713199256739 1
gene  1 1 14 -7.162264574244356 0 27.0 -7.162264574244356 1
gene  1 14 4 -0.48776437730935673 0 28.0 -0.48776437730935673 1
gene  2 2 17 0.2598386725481372 0 37.0 0.2598386725481372 1
gene  1 17 4 -5.2333462480849295 0 38.0 -5.2333462480849295 1
gene  2 1 17 -15.348562392752802 0 54.0 -15.348562392752802 1
gene  1 1 28 -0.46318661847540743 0 78.0 -0.46318661847540743 1
gene  1 28 7 2.3355235312940104 0 79.0 2.3355235312940104 1
gene  1 1 48 1.2644731821084398 0 154.0 1.2644731821084398 1
gene  1 48 4 8.746145356818607 0 155.0 8.746145356818607 1
gene  3 48 28 -0.3163394914640469 0 180.0 -0.3163394914640469 1
genomeend 57
/* Organism # 058 Fitness:  1.004 Error:  2.998                      */
genomestart  58
trait 1 0.1 0.0 0.0 0.0 0.0 0.0 0.0 0.0 
trait 2 0.2 0.1545554094655182 0.0 0.0 0.0 0.0 0.0 0.0 
trait 3 0.3 0.0 0.0 0.0 0.0 0.0 0.0 0.0 
node 1 2 1 1
node 2 2 1 1
node 3 1 1 3
node 4 1 0 2
node 7 1 0 0
node 14 1 0 0
node 17 1 0 0
node 28 1 0 0
node 48 1 0 0
gene  1 1 4 1.2514289360363584 0 1.0 1.2514289360363584 1
gene  2 2 4 8.337694654279815 0 2.0 8.337694654279815 1
gene  3 3 4 -4.400946532400377 0 3.0 -4.400946532400377 1
gene  1 1 7 1.533187069385582 0 8.0 1.533187069385582 0
gene  1 7 4 -1.7946417760704567 0 9.0 -1.7946417760704567 1
gene  1 1 14 2.2282959564804306 0 27.0 2.2282959564804306 1
gene  1 14 4 -2.360456898748649 0 28.0 -2.360456898748649 1
gene  2 2 17 0.6899136109815046 0 37.0 0.6899136109815046 1
gene  1 17 4 -8.019380392388328 0 38.0 -8.019380392388328 1
gene  2 1 17 -16.545055383639525 0 54.0 -16.545055383639525 1
gene  1 1 28 -1.8898401519932027 0 78.0 -1.8898401519932027 1
gene  1 28 7 2.338756595834105 0 79.0 2.338756595834105 1
gene  1 1 48 -0.3165498316316975 0 154.0 -0.3165498316316975 1
gene  1 48 4 11.018136804795546 0 155.0 11.018136804795546 1
gene  3 48 28 1.8095051065410295 0 180.0 1.8095051065410295 1
genomeend 58
/*-------------------------------------------------------------------*/
/* Species # 008         : (size= 010) (AvfFit= 6.244) (Age= 22.000)  */
/*-------------------------------------------------------------------*/
/* Organism # 059 Fitness:  9.000 Error:  1.000                      */
genomestart  59
trait 1 0.1 0.0 0.10755806827590753 0.0 0.38221861890934605 0.0 0.0 0.0 
trait 2 0.2 0.0 0.0 0.0 0.0 0.0 0.0 0.0 
trait 3 0.3 0.0 0.0 0.0 0.0 0.0 0.0 0.0 
node 1 2 1 1
node 2 2 1 1
node 3 1 1 3
node 4 1 0 2
node 7 1 0 0
node 14 1 0 0
node 17 1 0 0
node 26 1 0 0
node 85 1 0 0
gene  1 1 4 2.536054973298345 0 1.0 2.536054973298345 1
gene  2 2 4 8.020332176928763 0 2.0 8.020332176928763 0
gene  3 3 4 -3.6565698160182274 0 3.0 -3.6565698160182274 1
gene  1 1 7 0.020278283497207283 0 8.0 0.020278283497207283 1
gene  1 7 4 -1.3770695262320403 0 9.0 -1.3770695262320403 1
gene  1 1 14 1.7095908955526982 0 27.0 1.7095908955526982 1
gene  1 14 4 -7.967907127180434 0 28.0 -7.967907127180434 1
gene  2 2 17 5.9211074083040085 0 37.0 5.9211074083040085 1
gene  2 17 4 5.970281700069792 0 38.0 5.970281700069792 1
gene  3 17 7 -6.482262240279337 0 58.0 -6.482262240279337 1
gene  2 2 26 3.897834147624355 0 72.0 3.897834147624355 1
gene  2 26 4 3.6772256738672233 0 73.0 3.6772256738672233 1
gene  2 1 26 -5.039069505392605 0 173.0 -5.039069505392605 1
gene  2 1 17 -0.5729682584055173 0 237.0 -0.5729682584055173 1
gene  1 2 7 2.4951917166525917 0 302.0 2.4951917166525917 0
gene  1 2 85 1.0 0 352.0 0.0 1
gene  1 85 7 2.4951917166525917 0 353.0 0.0 1
genomeend 59
/* Organism # 060 Fitness:  2.903 Error:  2.296                      */
genomestart  60
trait 1 0.1 0.0 0.10755806827590753 0.0 0.38221861890934605 0.0 0.0 0.0 
trait 2 0.2 0.0 0.0 0.0 0.0 0.0 0.0 0.0 
trait 3 0.3 0.0 0.0 0.0 0.0 0.0 0.0 0.0 
node 1 2 1 1
node 2 2 1 1
node 3 1 1 3
node 4 1 0 2
node 7 1 0 0
node 14 1 0 0
node 17 1 0 0
node 26 1 0 0
node 85 1 0 0
gene  1 1 4 2.8110170430714074 0 1.0 2.8110170430714074 1
gene  2 2 4 10.3157432942414 0 2.0 10.3157432942414 0
gene  3 3 4 -4.5963263811763895 0 3.0 -4.5963263811763895 1
gene  1 1 7 0.13750222432557158 0 8.0 0.13750222432557158 1
gene  1 7 4 -3.849917519979544 0 9.0 -3.849917519979544 1
gene  1 1 14 0.22108715102114163 0 27.0 0.22108715102114163 1
gene  1 14 4 -8.285242772034644 0 28.0 -8.285242772034644 1
gene  2 2 17 4.34507283094511 0 37.0 4.34507283094511 1
gene  2 17 4 5.16580935170804 0 38.0 5.16580935170804 1
gene  3 17 7 -5.507665657941194 0 58.0 -5.507665657941194 1
gene  2 2 26 5.181199896707378 0 72.0 5.181199896707378 1
gene  2 26 4 2.658997135048166 0 73.0 2.658997135048166 1
gene  2 1 26 -3.9502698397765696 0 173.0 -3.9502698397765696 1
gene  2 1 17 -1.2514341402999505 0 237.0 -1.2514341402999505 1
gene  1 2 7 2.4443901411454476 0 302.0 2.4443901411454476 0
gene  1 2 85 0.9238636437310066 0 352.0 0.9238636437310066 1
gene  1 85 7 -1.0574898425499408 0 353.0 -1.0574898425499408 1
genomeend 60
/* Organism # 061 Fitness:  8.948 Error:  1.009                      */
genomestart  61
trait 1 0.1 0.0 0.10755806827590753 0.0 0.38221861890934605 0.0 0.0 0.0 
trait 2 0.2 0.0 0.0 0.0 0.0 0.0 0.0 0.0 
trait 3 0.3 0.0 0.0 0.0 0.0 0.0 0.0 0.0 
node 1 2 1 1
node 2 2 1 1
node 3 1 1 3
node 4 1 0 2
node 7 1 0 0
node 14 1 0 0
node 17 1 0 0
node 26 1 0 0
gene  1 1 4 0.6845601035788154 0 1.0 0.6845601035788154 1
gene  2 2 4 7.872149195985429 0 2.0 7.872149195985429 0
gene  3 3 4 -3.6565698160182274 0 3.0 -3.6565698160182274 1
gene  1 1 7 1.5367684145397464 0 8.0 1.5367684145397464 1
gene  1 7 4 -2.786962161543235 0 9.0 -2.786962161543235 1
gene  1 1 14 0.4284604555441711 0 27.0 0.4284604555441711 1
gene  1 14 4 -7.967907127180434 0 28.0 -7.967907127180434 1
gene  2 2 17 6.216313211535557 0 37.0 6.216313211535557 1
gene  2 17 4 6.571524973064059 0 38.0 6.571524973064059 1
gene  3 17 7 -8.470483233739253 0 58.0 -8.470483233739253 1
gene  2 2 26 3.897834147624355 0 72.0 3.897834147624355 1
gene  2 26 4 2.037929717571674 0 73.0 2.037929717571674 1
gene  2 1 26 -3.4869907246515774 0 173.0 -3.4869907246515774 1
gene  2 1 17 0.02674885228376911 0 237.0 0.02674885228376911 1
gene  1 2 7 -1.9012942928464673 0 302.0 -1.9012942928464673 1
genomeend 61
/* Organism # 062 Fitness:  4.000 Error:  2.000                      */
genomestart  62
trait 1 0.1 0.0 0.10755806827590753 0.0 0.38221861890934605 0.0 0.0 0.0 
trait 2 0.2 0.0 0.0 0.0 0.0 0.0 0.0 0.0 
trait 3 0.3 0.0 0.0 0.0 0.0 0.0 0.0 0.0 
node 1 2 1 1
node 2 2 1 1
node 3 1 1 3
node 4 1 0 2
node 7 1 0 0
node 14 1 0 0
node 17 1 0 0
node 26 1 0 0
gene  1 1 4 1.4811992028735885 0 1.0 1.4811992028735885 1
gene  2 2 4 7.691803656515524 0 2.0 7.691803656515524 0
gene  3 3 4 -5.84305836626973 0 3.0 -5.84305836626973 1
gene  1 1 7 1.0267919412943705 0 8.0 1.0267919412943705 1
gene  1 7 4 -2.591928719345489 0 9.0 -2.591928719345489 1
gene  1 1 14 3.9581825452021437 0 27.0 3.9581825452021437 1
gene  1 14 4 -7.877406554393484 0 28.0 -7.877406554393484 1
gene  2 2 17 7.360541718321729 0 37.0 7.360541718321729 1
gene  2 17 4 3.8412096526041197 0 38.0 3.8412096526041197 1
gene  3 17 7 -8.06748033949658 0 58.0 -8.06748033949658 1
gene  2 2 26 4.5752786754933465 0 72.0 4.5752786754933465 1
gene  2 26 4 2.2238416423525416 0 73.0 2.2238416423525416 1
gene  2 1 26 -4.700801156209866 0 173.0 -4.700801156209866 1
gene  2 1 17 -1.9677952866509496 0 237.0 -1.9677952866509496 1
gene  1 2 7 0.4565098025053489 0 302.0 0.4565098025053489 1
genomeend 62
/* Organism # 063 Fitness:  4.000 Error:  2.000                      */
genomestart  63
trait 1 0.1 0.0 0.10755806827590753 0.0 0.38221861890934605 0.0 0.0 0.0 
trait 2 0.2 0.0 0.0 0.0 0.0 0.0 0.0 0.0 
trait 3 0.3 0.0 0.0 0.0 0.0 0.0 0.0 0.0 
node 1 2 1 1
node 2 2 1 1
node 3 1 1 3
node 4 1 0 2
node 7 1 0 0
node 14 1 0 0
node 17 1 0 0
node 26 1 0 0
node 85 1 0 0
gene  1 1 4 1.8022925246464254 0 1.0 1.8022925246464254 1
gene  2 2 4 -2.3578818482651114 0 2.0 -2.3578818482651114 0
gene  3 3 4 -3.6565698160182274 0 3.0 -3.6565698160182274 1
gene  1 1 7 -2.080279645155445 0 8.0 -2.080279645155445 1
gene  1 7 4 1.0100886113757044 0 9.0 1.0100886113757044 1
gene  1 1 14 0.760495926201924 0 27.0 0.760495926201924 1
gene  1 14 4 -6.632762480178695 0 28.0 -6.632762480178695 1
gene  2 2 17 7.905488196342683 0 37.0 7.905488196342683 1
gene  2 17 4 4.158594952921933 0 38.0 4.158594952921933 1
gene  3 17 7 -6.925870399460902 0 58.0 -6.925870399460902 1
gene  2 2 26 6.077451811510548 0 72.0 6.077451811510548 1
gene  2 26 4 0.836436300680633 0 73.0 0.836436300680633 1
gene  2 1 26 -6.010169719611286 0 173.0 -6.010169719611286 1
gene  2 1 17 -2.7424589221015636 0 237.0 -2.7424589221015636 1
gene  1 2 7 2.2280742634082578 0 302.0 2.2280742634082578 0
gene  1 2 85 -0.9739114672043918 0 352.0 -0.9739114672043918 1
gene  1 85 7 0.6604526760171516 0 353.0 0.6604526760171516 1
genomeend 63
/* Organism # 064 Fitness:  9.000 Error:  1.000                      */
genomestart  64
trait 1 0.1 0.0 0.10755806827590753 0.0 0.38221861890934605 0.0 0.0 0.0 
trait 2 0.2 0.0 0.0 0.0 0.0 0.0 0.0 0.0 
trait 3 0.3 0.0 0.0 0.0 0.0 0.0 0.0 0.0 
node 1 2 1 1
node 2 2 1 1
node 3 1 1 3
node 4 1 0 2
node 7 1 0 0
node 14 1 0 0
node 17 1 0 0
node 26 1 0 0
node 85 1 0 0
gene  1 1 4 2.536054973298345 0 1.0 2.536054973298345 1
gene  2 2 4 8.020332176928763 0 2.0 8.020332176928763 0
gene  3 3 4 -3.6565698160182274 0 3.0 -3.6565698160182274 1
gene  1 1 7 0.020278283497207283 0 8.0 0.020278283497207283 1
gene  1 7 4 -1.3770695262320403 0 9.0 -1.3770695262320403 1
gene  1 1 14 1.7095908955526982 0 27.0 1.7095908955526982 1
gene  1 14 4 -7.967907127180434 0 28.0 -7.967907127180434 1
gene  2 2 17 5.9211074083040085 0 37.0 5.9211074083040085 1
gene  2 17 4 5.970281700069792 0 38.0 5.970281700069792 1
gene  3 17 7 -6.482262240279337 0 58.0 -6.482262240279337 1
gene  2 2 26 3.897834147624355 0 72.0 3.897834147624355 1
gene  2 26 4 3.6772256738672233 0 73.0 3.6772256738672233 1
gene  2 1 26 -5.039069505392605 0 173.0 -5.039069505392605 1
gene  2 1 17 -0.5729682584055173 0 237.0 -0.5729682584055173 1
gene  1 2 7 2.4951917166525917 0 302.0 2.4951917166525917 0
gene  1 2 85 1.0 0 352.0 0.0 1
gene  1 85 7 2.4951917166525917 0 353.0 0.0 1
genomeend 64
/* Organism # 065 Fitness:  4.003 Error:  1.999                      */
genomestart  65
trait 1 0.1 0.0 0.10755806827590753 0.0 0.38221861890934605 0.0 0.0 0.0 
trait 2 0.2 0.0 0.0 0.0 0.0 0.0 0.0 0.0 
trait 3 0.3 0.0 0.0 0.0 0.0 0.0 0.0 0.0 
node 1 2 1 1
node 2 2 1 1
node 3 1 1 3
node 4 1 0 2
node 7 1 0 0
node 14 1 0 0
node 17 1 0 0
node 26 1 0 0
gene  1 1 4 1.6161467018143019 0 1.0 1.6161467018143019 1
gene  2 2 4 -1.1999999264635652 0 2.0 -1.1999999264635652 0
gene  3 3 4 -4.069953213153846 0 3.0 -4.069953213153846 1
gene  1 1 7 0.6695612379569365 0 8.0 0.6695612379569365 1
gene  1 7 4 -3.433998594694447 0 9.0 -3.433998594694447 1
gene  1 1 14 3.240748379639993 0 27.0 3.240748379639993 1
gene  1 14 4 -5.6715208227267375 0 28.0 -5.6715208227267375 1
gene  2 2 17 0.49066202718411916 0 37.0 0.49066202718411916 1
gene  2 17 4 5.957316653988515 0 38.0 5.957316653988515 1
gene  3 17 7 -6.632601758657776 0 58.0 -6.632601758657776 1
gene  2 2 26 -1.6600121767348206 0 72.0 -1.6600121767348206 1
gene  3 26 4 3.6772256738672233 0 73.0 3.6772256738672233 1
gene  2 1 26 -1.2502300063956664 0 173.0 -1.2502300063956664 1
gene  2 1 17 -2.451817470657551 0 237.0 -2.451817470657551 1
gene  1 2 7 1.7654112960437771 0 302.0 1.7654112960437771 1
genomeend 65
/* Organism # 066 Fitness:  7.795 Error:  1.208                      */
genomestart  66
trait 1 0.1 0.0 0.10755806827590753 0.0 0.38221861890934605 0.0 0.0 0.0 
trait 2 0.2 0.0 0.0 0.0 0.0 0.0 0.0 0.0 
trait 3 0.3 0.0 0.0 0.0 0.0 0.0 0.0 0.0 
node 1 2 1 1
node 2 2 1 1
node 3 1 1 3
node 4 1 0 2
node 7 1 0 0
node 14 1 0 0
node 17 1 0 0
node 26 1 0 0
node 85 1 0 0
gene  1 1 4 3.3799833974523783 0 1.0 3.3799833974523783 1
gene  2 2 4 5.6634360569613085 0 2.0 5.6634360569613085 0
gene  3 3 4 -3.3525502222768364 0 3.0 -3.3525502222768364 1
gene  1 1 7 1.4967961348455732 0 8.0 1.4967961348455732 1
gene  1 7 4 0.09554792770436094 0 9.0 0.09554792770436094 1
gene  1 1 14 1.2923170147784329 0 27.0 1.2923170147784329 1
gene  1 14 4 -6.4854661723179134 0 28.0 -6.4854661723179134 1
gene  2 2 17 3.9897766103896934 0 37.0 3.9897766103896934 1
gene  2 17 4 5.970281700069792 0 38.0 5.970281700069792 1
gene  3 17 7 -4.777468808510152 0 58.0 -4.777468808510152 1
gene  2 2 26 1.6999788585829063 0 72.0 1.6999788585829063 1
gene  2 26 4 6.095170025922357 0 73.0 6.095170025922357 1
gene  2 1 26 -3.6519124142298547 0 173.0 -3.6519124142298547 1
gene  2 1 17 -0.6176305296280713 0 237.0 -0.6176305296280713 1
gene  1 2 7 -1.6567289905833669 0 302.0 -1.6567289905833669 0
gene  1 2 85 1.0990804731944683 0 352.0 1.0990804731944683 1
gene  1 85 7 4.858083913584839 0 353.0 4.858083913584839 1
genomeend 66
/* Organism # 067 Fitness:  4.001 Error:  2.000                      */
genomestart  67
trait 1 0.1 0.0 0.10755806827590753 0.0 0.38221861890934605 0.0 0.0 0.0 
trait 2 0.2 0.0 0.0 0.0 0.0 0.0 0.0 0.0 
trait 3 0.3 0.0 0.0 0.0 0.0 0.0 0.0 0.0 
node 1 2 1 1
node 2 2 1 1
node 3 1 1 3
node 4 1 0 2
node 7 1 0 0
node 14 1 0 0
node 17 1 0 0
node 26 1 0 0
gene  1 1 4 1.1436328881318016 0 1.0 1.1436328881318016 1
gene  2 2 4 5.60584630802195 0 2.0 5.60584630802195 0
gene  3 3 4 -4.304029921705702 0 3.0 -4.304029921705702 1
gene  1 1 7 -2.350225050613394 0 8.0 -2.350225050613394 1
gene  1 7 4 0.2589329105885687 0 9.0 0.2589329105885687 1
gene  1 1 14 3.784559377366007 0 27.0 3.784559377366007 1
gene  1 14 4 -7.922353983804762 0 28.0 -7.922353983804762 1
gene  2 2 17 6.7083693136547415 0 37.0 6.7083693136547415 1
gene  2 17 4 4.20074896388732 0 38.0 4.20074896388732 1
gene  3 17 7 -4.17271127612709 0 58.0 -4.17271127612709 1
gene  2 2 26 1.5094724557678219 0 72.0 1.5094724557678219 1
gene  2 26 4 2.1556053256112637 0 73.0 2.1556053256112637 1
gene  2 1 26 -6.414651055922276 0 173.0 -6.414651055922276 1
gene  2 1 17 1.60646296465029 0 237.0 1.60646296465029 1
gene  1 2 7 4.211077816759099 0 302.0 4.211077816759099 1
genomeend 67
/* Organism # 068 Fitness:  8.795 Error:  1.034                      */
genomestart  68
trait 1 0.1 0.0 0.10755806827590753 0.0 0.38221861890934605 0.0 0.0 0.0 
trait 2 0.2 0.0 0.0 0.0 0.0 0.0 0.0 0.0 
trait 3 0.3 0.0 0.0 0.0 0.0 0.0 0.0 0.0 
node 1 2 1 1
node 2 2 1 1
node 3 1 1 3
node 4 1 0 2
node 7 1 0 0
node 14 1 0 0
node 17 1 0 0
node 26 1 0 0
node 85 1 0 0
gene  1 1 4 3.780833241746486 0 1.0 3.780833241746486 1
gene  2 2 4 10.258208509574382 0 2.0 10.258208509574382 0
gene  3 3 4 -5.103788333456864 0 3.0 -5.103788333456864 1
gene  1 1 7 -1.363426014568496 0 8.0 -1.363426014568496 1
gene  1 7 4 -3.8164619337324845 0 9.0 -3.8164619337324845 1
gene  1 1 14 0.46614855088534113 0 27.0 0.46614855088534113 1
gene  1 14 4 -10.068891724041475 0 28.0 -10.068891724041475 1
gene  2 2 17 7.404562290138914 0 37.0 7.404562290138914 1
gene  2 17 4 6.03457265741629 0 38.0 6.03457265741629 1
gene  3 17 7 -7.995046932754599 0 58.0 -7.995046932754599 1
gene  2 2 26 6.078625323765118 0 72.0 6.078625323765118 1
gene  2 26 4 4.780787443483801 0 73.0 4.780787443483801 1
gene  2 1 26 -6.440174629849763 0 173.0 -6.440174629849763 1
gene  2 1 17 1.1815438316260107 0 237.0 1.1815438316260107 1
gene  1 2 7 1.1108176067110642 0 302.0 1.1108176067110642 0
gene  1 2 85 1.0 0 352.0 1.0 1
gene  1 85 7 0.4805530399005528 0 353.0 0.4805530399005528 1
genomeend 68
/*-------------------------------------------------------------------*/
/* Species # 009         : (size= 007) (AvfFit= 8.136) (Age= 22.000)  */
/*-------------------------------------------------------------------*/
/* Organism # 069 Fitness:  9.000 Error:  1.000                      */
genomestart  69
trait 1 0.07500000000000001 0.2072284296513441 0.0 0.0 0.0 0.0 0.0 0.0 
trait 2 0.2 0.0 0.0 0.0 0.0 0.0 0.0 0.0 
trait 3 0.3 0.0 0.0 0.0 0.0 0.0 0.0 0.0 
node 1 2 1 1
node 2 2 1 1
node 3 1 1 3
node 4 1 0 2
node 7 1 0 0
node 14 1 0 0
node 26 1 0 0
gene  1 1 4 -3.013990750506502 0 1.0 -3.013990750506502 0
gene  2 2 4 0.26213817898464015 0 2.0 0.26213817898464015 0
gene  3 3 4 -8.131360508358144 0 3.0 -8.131360508358144 1
gene  1 1 7 1.0275061733349826 0 8.0 1.0275061733349826 0
gene  1 7 4 -1.2328526316045267 0 9.0 -1.2328526316045267 1
gene  1 1 14 4.6672804321578045 0 27.0 4.6672804321578045 1
gene  1 14 4 -1.4394826607717712 0 28.0 -1.4394826607717712 1
gene  2 3 7 2.754414271376783 0 53.0 2.754414271376783 1
gene  2 2 26 4.478556716946647 0 72.0 4.478556716946647 1
gene  2 26 4 12.496232821874209 0 73.0 12.496232821874209 1
gene  1 1 26 5.497909293988751 0 93.0 5.497909293988751 1
gene  1 3 14 -0.3184415727862212 0 199.0 -0.3184415727862212 1
genomeend 69
/* Organism # 070 Fitness:  9.000 Error:  1.000                      */
genomestart  70
trait 1 0.07500000000000001 0.2072284296513441 0.0 0.0 0.0 0.0 0.0 0.0 
trait 2 0.2 0.0 0.0 0.0 0.0 0.0 0.0 0.0 
trait 3 0.3 0.0 0.0 0.0 0.0 0.0 0.0 0.0 
node 1 2 1 1
node 2 2 1 1
node 3 1 1 3
node 4 1 0 2
node 7 1 0 0
node 14 1 0 0
node 26 1 0 0
gene  1 1 4 -4.846479740667169 0 1.0 -4.846479740667169 0
gene  2 2 4 -1.455601678820053 0 2.0 -1.455601678820053 0
gene  3 3 4 -7.749831845406519 0 3.0 -7.749831845406519 1
gene  1 1 7 3.4147719173757136 0 8.0 3.4147719173757136 0
gene  1 7 4 -0.8510889830927164 0 9.0 -0.8510889830927164 1
gene  1 1 14 2.4757092223479846 0 27.0 2.4757092223479846 1
gene  1 14 4 -0.07623577452739094 0 28.0 -0.07623577452739094 1
gene  2 3 7 4.544368699442016 0 53.0 4.544368699442016 1
gene  2 2 26 2.2941899802193038 0 72.0 2.2941899802193038 1
gene  2 26 4 11.558362980928612 0 73.0 11.558362980928612 1
gene  1 1 26 5.497909293988751 0 93.0 5.497909293988751 1
gene  1 3 14 1.9523493442412936 0 199.0 1.9523493442412936 1
genomeend 70
/* Organism # 071 Fitness:  7.956 Error:  1.179                      */
genomestart  71
trait 1 0.48461798458458055 0.0 0.0 0.0 0.0 0.0 0.05617002212713407 0.0 
trait 2 0.2 0.0 0.0 0.0 0.0 0.0 0.0 0.0 
trait 3 0.3 0.0 0.0 0.0 0.0 0.0 0.0 0.0 
node 1 2 1 1
node 2 2 1 1
node 3 1 1 3
node 4 1 0 2
node 7 1 0 0
node 14 2 0 0
node 26 1 0 0
gene  1 1 4 -2.292315738837532 0 1.0 -2.292315738837532 0
gene  2 2 4 -0.6173497136650654 0 2.0 -0.6173497136650654 0
gene  3 3 4 -4.605128486222452 0 3.0 -4.605128486222452 1
gene  1 1 7 0.5168825941176074 0 8.0 0.5168825941176074 0
gene  1 7 4 -4.051137800374253 0 9.0 -4.051137800374253 1
gene  1 1 14 8.778376923031624 0 27.0 8.778376923031624 1
gene  1 14 4 3.2190028823711057 0 28.0 3.2190028823711057 1
gene  2 3 7 1.3290298001326681 0 53.0 1.3290298001326681 1
gene  2 2 26 3.8455000593895297 0 72.0 3.8455000593895297 1
gene  2 26 4 8.94585345902873 0 73.0 8.94585345902873 1
gene  1 1 26 5.497909293988751 0 93.0 5.497909293988751 1
gene  1 3 14 -1.1108736839065345 0 199.0 -1.1108736839065345 1
genomeend 71
/* Organism # 072 Fitness:  9.000 Error:  1.000                      */
genomestart  72
trait 1 0.07500000000000001 0.2072284296513441 0.0 0.0 0.0 0.0 0.0 0.0 
trait 2 0.2 0.0 0.0 0.0 0.0 0.0 0.0 0.0 
trait 3 0.3 0.0 0.0 0.0 0.0 0.0 0.0 0.0 
node 1 2 1 1
node 2 2 1 1
node 3 1 1 3
node 4 1 0 2
node 7 1 0 0
node 14 1 0 0
node 26 1 0 0
gene  1 1 4 -0.6763932662988328 0 1.0 -0.6763932662988328 0
gene  2 2 4 2.157880125656202 0 2.0 2.157880125656202 0
gene  3 3 4 -8.8712790679651 0 3.0 -8.8712790679651 1
gene  1 1 7 1.6959781646499588 0 8.0 1.6959781646499588 0
gene  1 7 4 -0.5158030926022241 0 9.0 -0.5158030926022241 1
gene  1 1 14 6.450280783123895 0 27.0 6.450280783123895 1
gene  1 14 4 -0.0752160083875304 0 28.0 -0.0752160083875304 1
gene  2 3 7 2.4268500851564627 0 53.0 2.4268500851564627 1
gene  2 2 26 6.609255661993347 0 72.0 6.609255661993347 1
gene  2 26 4 12.083258021897828 0 73.0 12.083258021897828 1
gene  1 1 26 5.1725024730868 0 93.0 5.1725024730868 1
gene  1 3 14 -1.16337388767974 0 199.0 -1.16337388767974 1
genomeend 72
/* Organism # 073 Fitness:  8.995 Error:  1.001                      */
genomestart  73
trait 1 0.48461798458458055 0.0 0.0 0.0 0.0 0.0 0.05617002212713407 0.0 
trait 2 0.2 0.0 0.0 0.0 0.0 0.0 0.0 0.0 
trait 3 0.3 0.0 0.0 0.0 0.0 0.0 0.0 0.0 
node 1 2 1 1
node 2 2 1 1
node 3 1 1 3
node 4 1 0 2
node 7 1 0 0
node 14 1 0 0
node 26 1 0 0
gene  1 1 4 -3.1235559143916882 0 1.0 -3.1235559143916882 0
gene  2 2 4 -1.1320385539678672 0 2.0 -1.1320385539678672 0
gene  3 3 4 -7.296187177228093 0 3.0 -7.296187177228093 1
gene  1 1 7 3.7961884271595565 0 8.0 3.7961884271595565 0
gene  1 7 4 0.21498929201828698 0 9.0 0.21498929201828698 1
gene  1 1 14 6.737351475159087 0 27.0 6.737351475159087 1
gene  1 14 4 2.329494964828943 0 28.0 2.329494964828943 1
gene  2 3 7 0.9910380567828208 0 53.0 0.9910380567828208 1
gene  2 2 26 4.251435144940964 0 72.0 4.251435144940964 1
gene  2 26 4 6.424273971941049 0 73.0 6.424273971941049 1
gene  1 1 26 5.980498582863357 0 93.0 5.980498582863357 1
gene  1 3 14 0.9569025576040764 0 199.0 0.9569025576040764 1
genomeend 73
/* Organism # 074 Fitness:  8.996 Error:  1.001                      */
genomestart  74
trait 1 0.0 0.0 0.0 0.0 0.0 0.0 0.05617002212713407 0.0 
trait 2 0.2 0.0 0.0 0.0 0.0 0.0 0.0 0.0 
trait 3 0.3 0.0 0.0 0.0 0.0 0.0 0.0 0.0 
node 1 2 1 1
node 2 2 1 1
node 3 1 1 3
node 4 1 0 2
node 7 1 0 0
node 14 1 0 0
node 26 1 0 0
gene  1 1 4 -3.40960129980738 0 1.0 -3.40960129980738 0
gene  2 2 4 -2.2839913229910183 0 2.0 -2.2839913229910183 0
gene  3 3 4 -6.63932869060357 0 3.0 -6.63932869060357 1
gene  1 1 7 1.1448023898656217 0 8.0 1.1448023898656217 0
gene  1 7 4 -3.929635809301271 0 9.0 -3.929635809301271 1
gene  1 1 14 5.325012703849403 0 27.0 5.325012703849403 1
gene  1 14 4 2.468979865269503 0 28.0 2.468979865269503 1
gene  2 3 7 2.3308092903557105 0 53.0 2.3308092903557105 1
gene  2 2 26 5.496189792404948 0 72.0 5.496189792404948 1
gene  2 26 4 9.599843468551688 0 73.0 9.599843468551688 1
gene  1 1 26 7.443425685913397 0 93.0 7.443425685913397 1
gene  1 3 14 1.8619177605867108 0 199.0 1.8619177605867108 1
genomeend 74
/* Organism # 075 Fitness:  4.001 Error:  2.000                      */
genomestart  75
trait 1 0.48461798458458055 0.0 0.0 0.0 0.0 0.0 0.05617002212713407 0.0 
trait 2 0.2 0.0 0.0 0.0 0.0 0.0 0.0 0.0 
trait 3 0.3 0.0 0.0 0.0 0.0 0.0 0.0 0.0 
node 1 2 1 1
node 2 2 1 1
node 3 1 1 3
node 4 1 0 2
node 7 1 0 0
node 14 1 0 0
node 26 1 0 0
gene  1 1 4 -3.6709427535282266 0 1.0 -3.6709427535282266 0
gene  2 2 4 -3.4375694652550486 0 2.0 -3.4375694652550486 0
gene  3 3 4 -2.670087593033997 0 3.0 -2.670087593033997 1
gene  1 1 7 4.20603559192142 0 8.0 4.20603559192142 0
gene  1 7 4 -4.090340785254493 0 9.0 -4.090340785254493 1
gene  1 1 14 8.917713760720073 0 27.0 8.917713760720073 1
gene  1 14 4 -0.6694511173733153 0 28.0 -0.6694511173733153 1
gene  2 3 7 0.8348254961681683 0 53.0 0.8348254961681683 1
gene  2 2 26 5.048954324210914 0 72.0 5.048954324210914 1
gene  2 26 4 5.574991212397829 0 73.0 5.574991212397829 1
gene  1 1 26 4.240534399439176 0 93.0 4.240534399439176 1
gene  1 3 14 2.4439701731361483 0 199.0 2.4439701731361483 1
genomeend 75
/*-------------------------------------------------------------------*/
/* Species # 010         : (size= 009) (AvfFit= 7.333) (Age= 21.000)  */
/*-------------------------------------------------------------------*/
/* Organism # 076 Fitness:  9.000 Error:  1.000                      */
genomestart  76
trait 1 0.11002367167915897 0.016313322420038384 0.0 0.0 0.011060308754703343 0.014515605707494987 0.0 0.0 
trait 2 0.2 0.0 0.1885750971657665 0.0 0.0 0.0 0.0 0.016297946705203927 
trait 3 0.3 0.0 0.0 0.0 0.0 0.0 0.0 0.0 
node 1 1 1 1
node 2 1 1 1
node 3 1 1 3
node 4 1 0 2
node 7 2 0 0
node 11 1 0 0
node 31 1 0 0
gene  1 1 4 -7.639088189852384 0 1.0 -7.639088189852384 1
gene  2 2 4 -1.180848760031946 0 2.0 -1.180848760031946 1
gene  3 3 4 -7.265467321903721 0 3.0 -7.265467321903721 1
gene  2 1 7 -2.1615104487246812 0 8.0 -2.1615104487246812 1
gene  1 7 4 -2.7959991541680087 0 9.0 -2.7959991541680087 1
gene  2 2 11 6.466277131087693 0 19.0 6.466277131087693 1
gene  2 11 4 14.227963207555328 0 20.0 14.227963207555328 1
gene  1 3 11 -4.6465336358998135 0 60.0 -4.6465336358998135 1
gene  1 1 31 -4.077113576228719 0 88.0 -4.077113576228719 1
gene  1 31 7 -6.495363829081163 0 89.0 -6.495363829081163 1
gene  2 1 11 -5.099737614988055 0 118.0 -5.099737614988055 1
gene  1 31 11 0.1077910298879487 0 156.0 0.1077910298879487 1
gene  3 2 31 1.976311150544261 0 212.0 1.976311150544261 1
gene  3 11 7 -10.748308072870177 0 323.0 -10.748308072870177 1
genomeend 76
/* Organism # 077 Fitness:  9.000 Error:  1.000                      */
genomestart  77
trait 1 0.12004734335831793 0.03262664484007677 0.0 0.0 0.022120617509406686 0.029031211414989974 0.0 0.0 
trait 2 0.2 0.0 0.1885750971657665 0.0 0.0 0.0 0.0 0.016297946705203927 
trait 3 0.3 0.0 0.0 0.0 0.0 0.0 0.0 0.0 
node 1 1 1 1
node 2 1 1 1
node 3 1 1 3
node 4 1 0 2
node 7 2 0 0
node 11 1 0 0
node 31 1 0 0
gene  1 1 4 -6.474926179160416 0 1.0 -6.474926179160416 1
gene  2 2 4 -2.697732462785813 0 2.0 -2.697732462785813 0
gene  3 3 4 -4.693949188131985 0 3.0 -4.693949188131985 1
gene  2 1 7 -8.220988207806 0 8.0 -8.220988207806 1
gene  1 7 4 3.1648859316774844 0 9.0 3.1648859316774844 1
gene  2 2 11 3.9239633374166765 0 19.0 3.9239633374166765 1
gene  2 11 4 11.147130987765006 0 20.0 11.147130987765006 1
gene  1 3 11 -2.547940040080634 0 60.0 -2.547940040080634 1
gene  1 1 31 -5.78680345725842 0 88.0 -5.78680345725842 1
gene  1 31 7 -3.1461953769475697 0 89.0 -3.1461953769475697 1
gene  2 1 11 -4.258788625981382 0 118.0 -4.258788625981382 1
gene  1 31 11 -2.072754113087116 0 156.0 -2.072754113087116 1
gene  3 2 31 -1.820556793736982 0 212.0 -1.820556793736982 1
genomeend 77
/* Organism # 078 Fitness:  4.000 Error:  2.000                      */
genomestart  78
trait 1 0.12004734335831793 0.03262664484007677 0.0 0.0 0.022120617509406686 0.029031211414989974 0.0 0.0 
trait 2 0.2 0.0 0.1885750971657665 0.0 0.0 0.0 0.0 0.016297946705203927 
trait 3 0.3 0.0 0.0 0.0 0.0 0.0 0.0 0.0 
node 1 1 1 1
node 2 1 1 1
node 3 1 1 3
node 4 1 0 2
node 7 3 0 0
node 11 1 0 0
node 31 1 0 0
gene  1 1 4 -7.434880488455523 0 1.0 -7.434880488455523 1
gene  2 2 4 0.6446176012515908 0 2.0 0.6446176012515908 0
gene  3 3 4 -2.2296584852240287 0 3.0 -2.2296584852240287 1
gene  2 1 7 -2.2628569845828017 0 8.0 -2.2628569845828017 1
gene  1 7 4 -1.1974822079138239 0 9.0 -1.1974822079138239 1
gene  2 2 11 3.13768961310993 0 19.0 3.13768961310993 1
gene  2 11 4 -0.00940296824625153 0 20.0 -0.00940296824625153 1
gene  1 3 11 -3.4237782787212208 0 60.0 -3.4237782787212208 1
gene  1 1 31 -5.78680345725842 0 88.0 -5.78680345725842 1
gene  1 31 7 -5.501835552964722 0 89.0 -5.501835552964722 1
gene  2 1 11 -2.4547407028562036 0 118.0 -2.4547407028562036 1
gene  1 31 11 -0.5550173645367212 0 156.0 -0.5550173645367212 1
gene  3 2 31 0.19146829275571187 0 212.0 0.19146829275571187 1
genomeend 78
/* Organism # 079 Fitness:  9.000 Error:  1.000                      */
genomestart  79
trait 1 0.11002367167915897 0.016313322420038384 0.0 0.0 0.011060308754703343 0.014515605707494987 0.0 0.0 
trait 2 0.2 0.0 0.1885750971657665 0.0 0.0 0.0 0.0 0.016297946705203927 
trait 3 0.3 0.0 0.0 0.0 0.0 0.0 0.0 0.0 
node 1 1 1 1
node 2 1 1 1
node 3 1 1 3
node 4 1 0 2
node 7 2 0 0
node 11 1 0 0
node 31 1 0 0
node 86 1 0 0
gene  1 1 4 -7.639088189852384 0 1.0 -7.639088189852384 0
gene  2 2 4 -1.180848760031946 0 2.0 -1.180848760031946 1
gene  3 3 4 -7.265467321903721 0 3.0 -7.265467321903721 1
gene  2 1 7 -2.1615104487246812 0 8.0 -2.1615104487246812 1
gene  1 7 4 -2.7959991541680087 0 9.0 -2.7959991541680087 1
gene  2 2 11 6.466277131087693 0 19.0 6.466277131087693 1
gene  2 11 4 14.227963207555328 0 20.0 14.227963207555328 1
gene  1 3 11 -4.6465336358998135 0 60.0 -4.6465336358998135 1
gene  1 1 31 -4.077113576228719 0 88.0 -4.077113576228719 1
gene  1 31 7 -6.495363829081163 0 89.0 -6.495363829081163 1
gene  2 1 11 -5.099737614988055 0 118.0 -5.099737614988055 1
gene  1 31 11 0.1077910298879487 0 156.0 0.1077910298879487 1
gene  3 2 31 1.976311150544261 0 212.0 1.976311150544261 1
gene  3 11 7 -10.748308072870177 0 323.0 -10.748308072870177 1
gene  1 1 86 1.0 0 359.0 0.0 1
gene  1 86 4 -7.639088189852384 0 360.0 0.0 1
genomeend 79
/* Organism # 080 Fitness:  9.000 Error:  1.000                      */
genomestart  80
trait 1 0.12004734335831793 0.03262664484007677 0.0 0.0 0.022120617509406686 0.029031211414989974 0.0 0.0 
trait 2 0.2 0.0 0.1885750971657665 0.0 0.0 0.0 0.0 0.016297946705203927 
trait 3 0.3 0.0 0.0 0.0 0.0 0.0 0.0 0.0 
node 1 1 1 1
node 2 1 1 1
node 3 1 1 3
node 4 1 0 2
node 7 2 0 0
node 11 1 0 0
node 31 1 0 0
gene  1 1 4 -7.0437047859437465 0 1.0 -7.0437047859437465 1
gene  2 2 4 -1.493833896271532 0 2.0 -1.493833896271532 0
gene  3 3 4 -6.297733811318285 0 3.0 -6.297733811318285 1
gene  2 1 7 -6.768553495093537 0 8.0 -6.768553495093537 1
gene  1 7 4 4.085117504427357 0 9.0 4.085117504427357 1
gene  2 2 11 6.084345750878734 0 19.0 6.084345750878734 1
gene  2 11 4 9.921698873254897 0 20.0 9.921698873254897 1
gene  1 3 11 -1.9165956771592785 0 60.0 -1.9165956771592785 1
gene  1 1 31 -7.953291794925908 0 88.0 -7.953291794925908 1
gene  1 31 7 -3.893888139697542 0 89.0 -3.893888139697542 1
gene  2 1 11 -5.204954116882894 0 118.0 -5.204954116882894 1
gene  1 31 11 -0.8460566724878671 0 156.0 -0.8460566724878671 1
gene  3 2 31 -2.9727964292682345 0 212.0 -2.9727964292682345 1
genomeend 80
/* Organism # 081 Fitness:  8.996 Error:  1.001                      */
genomestart  81
trait 1 0.12004734335831793 0.03262664484007677 0.0 0.0 0.022120617509406686 0.029031211414989974 0.0 0.0 
trait 2 0.2 0.0 0.1885750971657665 0.0 0.0 0.0 0.0 0.016297946705203927 
trait 3 0.3 0.0 0.0 0.0 0.0 0.0 0.0 0.0 
node 1 1 1 1
node 2 1 1 1
node 3 1 1 3
node 4 1 0 2
node 7 2 0 0
node 11 1 0 0
node 31 1 0 0
gene  1 1 4 -7.8721573320928115 0 1.0 -7.8721573320928115 1
gene  2 2 4 -3.3647604052824938 0 2.0 -3.3647604052824938 0
gene  3 3 4 -3.74627987424067 0 3.0 -3.74627987424067 1
gene  2 1 7 -9.164026801009136 0 8.0 -9.164026801009136 1
gene  1 7 4 2.7804480787915566 0 9.0 2.7804480787915566 1
gene  2 2 11 2.361768268632087 0 19.0 2.361768268632087 1
gene  2 11 4 13.47621831070077 0 20.0 13.47621831070077 1
gene  1 3 11 -2.547940040080634 0 60.0 -2.547940040080634 1
gene  1 1 31 -5.145622897687 0 88.0 -5.145622897687 1
gene  1 31 7 -5.124411647600658 0 89.0 -5.124411647600658 1
gene  2 1 11 -2.1675049740846526 0 118.0 -2.1675049740846526 1
gene  1 31 11 -2.072754113087116 0 156.0 -2.072754113087116 1
gene  3 2 31 -3.073906782473596 0 212.0 -3.073906782473596 1
genomeend 81
/* Organism # 082 Fitness:  4.000 Error:  2.000                      */
genomestart  82
trait 1 0.12004734335831793 0.03262664484007677 0.0 0.0 0.022120617509406686 0.029031211414989974 0.0 0.0 
trait 2 0.2 0.0 0.1885750971657665 0.0 0.0 0.0 0.0 0.016297946705203927 
trait 3 0.3 0.0 0.0 0.0 0.0 0.0 0.0 0.0 
node 1 1 1 1
node 2 1 1 1
node 3 1 1 3
node 4 1 0 2
node 7 2 0 0
node 11 1 0 0
node 31 1 0 0
gene  1 1 4 -5.050838219251306 0 1.0 -5.050838219251306 1
gene  2 2 4 -4.4162087957651845 0 2.0 -4.4162087957651845 0
gene  3 3 4 -5.32207841064284 0 3.0 -5.32207841064284 1
gene  2 1 7 -5.961118611724369 0 8.0 -5.961118611724369 1
gene  1 7 4 4.757123624099519 0 9.0 4.757123624099519 1
gene  2 2 11 2.093353355571252 0 19.0 2.093353355571252 1
gene  2 11 4 12.457520006400287 0 20.0 12.457520006400287 1
gene  1 3 11 -1.706056277076839 0 60.0 -1.706056277076839 1
gene  1 1 31 -4.6318302046760165 0 88.0 -4.6318302046760165 1
gene  1 31 7 -1.2429297839162334 0 89.0 -1.2429297839162334 1
gene  2 1 11 -2.7783588138377295 0 118.0 -2.7783588138377295 1
gene  1 31 11 -3.245270653036015 0 156.0 -3.245270653036015 1
gene  3 2 31 0.3457218635529966 0 212.0 0.3457218635529966 1
genomeend 82
/* Organism # 083 Fitness:  9.000 Error:  1.000                      */
genomestart  83
trait 1 0.11002367167915897 0.016313322420038384 0.0 0.0 0.011060308754703343 0.014515605707494987 0.0 0.0 
trait 2 0.2 0.0 0.1885750971657665 0.0 0.0 0.0 0.0 0.016297946705203927 
trait 3 0.3 0.0 0.0 0.0 0.0 0.0 0.0 0.0 
node 1 1 1 1
node 2 1 1 1
node 3 1 1 3
node 4 1 0 2
node 7 2 0 0
node 11 1 0 0
node 31 1 0 0
gene  1 1 4 -9.756331650447818 0 1.0 -9.756331650447818 1
gene  2 2 4 -0.042963894977547046 0 2.0 -0.042963894977547046 1
gene  3 3 4 -4.855742672493556 0 3.0 -4.855742672493556 1
gene  2 1 7 -0.2376756295723934 0 8.0 -0.2376756295723934 1
gene  1 7 4 -4.790405564986155 0 9.0 -4.790405564986155 1
gene  2 2 11 8.289894682237811 0 19.0 8.289894682237811 1
gene  2 11 4 13.12922126720586 0 20.0 13.12922126720586 1
gene  1 3 11 -2.628393770623828 0 60.0 -2.628393770623828 1
gene  1 1 31 -1.660092508772633 0 88.0 -1.660092508772633 1
gene  1 31 7 -7.807072642296228 0 89.0 -7.807072642296228 1
gene  2 1 11 -5.403032623879316 0 118.0 -5.403032623879316 1
gene  1 31 11 -1.9407483770669103 0 156.0 -1.9407483770669103 1
gene  3 2 31 3.441490809425393 0 212.0 3.441490809425393 1
gene  3 11 7 -10.566106403990904 0 323.0 -10.566106403990904 1
genomeend 83
/* Organism # 084 Fitness:  4.000 Error:  2.000                      */
genomestart  84
trait 1 0.12004734335831793 0.03262664484007677 0.0 0.0 0.022120617509406686 0.029031211414989974 0.0 0.0 
trait 2 0.2 0.0 0.1885750971657665 0.0 0.0 0.0 0.0 0.016297946705203927 
trait 3 0.3 0.0 0.0 0.0 0.0 0.0 0.0 0.0 
node 1 1 1 1
node 2 1 1 1
node 3 1 1 3
node 4 1 0 2
node 7 2 0 0
node 11 1 0 0
node 31 1 0 0
gene  1 1 4 -8.861961992325849 0 1.0 -8.861961992325849 1
gene  2 2 4 -4.19270144810904 0 2.0 -4.19270144810904 0
gene  3 3 4 -4.407554060586854 0 3.0 -4.407554060586854 1
gene  2 1 7 -7.774274700719901 0 8.0 -7.774274700719901 1
gene  1 7 4 0.3252098551585539 0 9.0 0.3252098551585539 1
gene  2 2 11 0.8132346950684213 0 19.0 0.8132346950684213 1
gene  2 11 4 9.944915416771169 0 20.0 9.944915416771169 1
gene  1 3 11 -4.070459109074428 0 60.0 -4.070459109074428 1
gene  1 1 31 -3.41360474828949 0 88.0 -3.41360474828949 1
gene  1 31 7 -3.0840243494832276 0 89.0 -3.0840243494832276 1
gene  2 1 11 -6.707326727479464 0 118.0 -6.707326727479464 1
gene  1 31 11 -2.072754113087116 0 156.0 -2.072754113087116 1
gene  3 2 31 -2.250867242658036 0 212.0 -2.250867242658036 1
genomeend 84
/*-------------------------------------------------------------------*/
/* Species # 011         : (size= 012) (AvfFit= 8.034) (Age= 20.000)  */
/*-------------------------------------------------------------------*/
/* Organism # 085 Fitness:  9.000 Error:  1.000                      */
genomestart  85
trait 1 0.1 0.0 0.0 0.0 0.055398074479255544 0.0 0.0 0.12192827250494745 
trait 2 0.09375 0.38009042412031013 0.0 0.03312654059381397 0.0 0.0 0.0 0.02176789354007065 
trait 3 0.3 0.0 0.0 0.0 0.0 0.0 0.0 0.0 
node 1 2 1 1
node 2 2 1 1
node 3 1 1 3
node 4 1 0 2
node 7 2 0 0
node 14 1 0 0
node 34 1 0 0
node 39 1 0 0
gene  1 1 4 2.848221219132935 0 1.0 2.848221219132935 1
gene  2 2 4 7.172614246973804 0 2.0 7.172614246973804 1
gene  3 3 4 2.031375165992735 0 3.0 2.031375165992735 1
gene  1 1 7 -1.0188042536290633 0 8.0 -1.0188042536290633 1
gene  1 7 4 -2.122722205616883 0 9.0 -2.122722205616883 1
gene  1 1 14 -3.329653600944507 0 27.0 -3.329653600944507 1
gene  1 14 4 -6.903712982390677 0 28.0 -6.903712982390677 1
gene  2 2 34 1.373420649984409 0 97.0 1.373420649984409 1
gene  2 34 4 5.532587119478919 0 98.0 5.532587119478919 1
gene  1 7 39 3.5143547725017625 0 121.0 3.5143547725017625 1
gene  1 39 4 -4.583652448523479 0 122.0 -4.583652448523479 1
gene  2 14 39 4.505873237963202 0 262.0 4.505873237963202 1
genomeend 85
/* Organism # 086 Fitness:  9.000 Error:  1.000                      */
genomestart  86
trait 1 0.1 0.0 0.0 0.0 0.055398074479255544 0.0 0.0 0.12192827250494745 
trait 2 0.09375 0.38009042412031013 0.0 0.03312654059381397 0.0 0.0 0.0 0.02176789354007065 
trait 3 0.3 0.0 0.0 0.0 0.0 0.0 0.0 0.0 
node 1 2 1 1
node 2 2 1 1
node 3 1 1 3
node 4 1 0 2
node 7 2 0 0
node 14 1 0 0
node 34 1 0 0
node 39 1 0 0
gene  1 1 4 3.5778677827052805 0 1.0 3.5778677827052805 1
gene  2 2 4 7.7880203699725 0 2.0 7.7880203699725 1
gene  3 3 4 2.9911758994156283 0 3.0 2.9911758994156283 1
gene  1 1 7 -2.405674652245581 0 8.0 -2.405674652245581 1
gene  1 7 4 -1.4644574877026995 0 9.0 -1.4644574877026995 1
gene  1 1 14 -1.5715232453558352 0 27.0 -1.5715232453558352 1
gene  1 14 4 -6.34021357933653 0 28.0 -6.34021357933653 1
gene  2 2 34 1.373420649984409 0 97.0 1.373420649984409 1
gene  2 34 4 5.532587119478919 0 98.0 5.532587119478919 1
gene  1 7 39 3.5143547725017625 0 121.0 3.5143547725017625 1
gene  1 39 4 -4.583652448523479 0 122.0 -4.583652448523479 1
gene  2 14 39 4.505873237963202 0 262.0 4.505873237963202 1
genomeend 86
/* Organism # 087 Fitness:  9.000 Error:  1.000                      */
genomestart  87
trait 1 0.1 0.0 0.0 0.0 0.055398074479255544 0.0 0.0 0.12192827250494745 
trait 2 0.09375 0.38009042412031013 0.0 0.03312654059381397 0.0 0.0 0.0 0.02176789354007065 
trait 3 0.3 0.0 0.0 0.0 0.0 0.0 0.0 0.0 
node 1 2 1 1
node 2 2 1 1
node 3 1 1 3
node 4 1 0 2
node 7 3 0 0
node 14 1 0 0
node 34 1 0 0
node 39 1 0 0
gene  1 1 4 2.848221219132935 0 1.0 2.848221219132935 1
gene  2 2 4 7.172614246973804 0 2.0 7.172614246973804 1
gene  3 3 4 2.031375165992735 0 3.0 2.031375165992735 1
gene  1 1 7 -1.0188042536290633 0 8.0 -1.0188042536290633 1
gene  1 7 4 -2.122722205616883 0 9.0 -2.122722205616883 1
gene  1 1 14 -3.329653600944507 0 27.0 -3.329653600944507 1
gene  1 14 4 -6.903712982390677 0 28.0 -6.903712982390677 1
gene  2 2 34 1.373420649984409 0 97.0 1.373420649984409 1
gene  2 34 4 5.532587119478919 0 98.0 5.532587119478919 1
gene  1 7 39 3.5143547725017625 0 121.0 3.5143547725017625 1
gene  1 39 4 -4.583652448523479 0 122.0 -4.583652448523479 1
gene  2 14 39 4.505873237963202 0 262.0 4.505873237963202 1
genomeend 87
/* Organism # 088 Fitness:  4.076 Error:  1.981                      */
genomestart  88
trait 1 0.1 0.0 0.0 0.0 0.055398074479255544 0.0 0.0 0.12192827250494745 
trait 2 0.09375 0.38009042412031013 0.0 0.03312654059381397 0.0 0.0 0.0 0.02176789354007065 
trait 3 0.3 0.0 0.0 0.0 0.0 0.0 0.0 0.0 
node 1 2 1 1
node 2 2 1 1
node 3 1 1 3
node 4 1 0 2
node 7 2 0 0
node 14 1 0 0
node 34 1 0 0
node 39 1 0 0
gene  1 1 4 -0.16431993723505872 0 1.0 -0.16431993723505872 1
gene  2 2 4 5.633289725613145 0 2.0 5.633289725613145 1
gene  3 3 4 0.40206705764813777 0 3.0 0.40206705764813777 1
gene  1 1 7 -1.4378251343512582 0 8.0 -1.4378251343512582 1
gene  1 7 4 -2.208401615091992 0 9.0 -2.208401615091992 1
gene  1 1 14 -2.1255835155542755 0 27.0 -2.1255835155542755 1
gene  1 14 4 0.47314084229028636 0 28.0 0.47314084229028636 1
gene  2 2 34 1.6785177747485072 0 97.0 1.6785177747485072 1
gene  2 34 4 2.1890975193651183 0 98.0 2.1890975193651183 1
gene  1 7 39 0.6441693776852813 0 121.0 0.6441693776852813 1
gene  1 39 4 -4.258475947779774 0 122.0 -4.258475947779774 1
gene  2 14 39 0.24336895410233733 0 262.0 0.24336895410233733 1
genomeend 88
/* Organism # 089 Fitness:  9.000 Error:  1.000                      */
genomestart  89
trait 1 0.1 0.0 0.0 0.0 0.055398074479255544 0.0 0.0 0.12192827250494745 
trait 2 0.09375 0.38009042412031013 0.0 0.03312654059381397 0.0 0.0 0.0 0.02176789354007065 
trait 3 0.3 0.0 0.0 0.0 0.0 0.0 0.0 0.0 
node 1 2 1 1
node 2 2 1 1
node 3 1 1 3
node 4 1 0 2
node 7 2 0 0
node 14 1 0 0
node 34 1 0 0
node 39 1 0 0
gene  1 1 4 2.848221219132935 0 1.0 2.848221219132935 1
gene  2 2 4 7.172614246973804 0 2.0 7.172614246973804 1
gene  3 3 4 2.031375165992735 0 3.0 2.031375165992735 1
gene  1 1 7 -1.0188042536290633 0 8.0 -1.0188042536290633 1
gene  1 7 4 -2.122722205616883 0 9.0 -2.122722205616883 1
gene  1 1 14 -3.329653600944507 0 27.0 -3.329653600944507 1
gene  1 14 4 -6.903712982390677 0 28.0 -6.903712982390677 1
gene  2 2 34 1.373420649984409 0 97.0 1.373420649984409 1
gene  2 34 4 5.532587119478919 0 98.0 5.532587119478919 1
gene  1 7 39 3.5143547725017625 0 121.0 3.5143547725017625 1
gene  1 39 4 -4.583652448523479 0 122.0 -4.583652448523479 1
gene  2 14 39 4.505873237963202 0 262.0 4.505873237963202 1
genomeend 89
/* Organism # 090 Fitness:  9.000 Error:  1.000                      */
genomestart  90
trait 1 0.1 0.0 0.0 0.0 0.055398074479255544 0.0 0.0 0.12192827250494745 
trait 2 0.09375 0.0 0.0 0.03312654059381397 0.0 0.1899081558042508 0.0 0.02176789354007065 
trait 3 0.3 0.0 0.0 0.0 0.0 0.0 0.0 0.0 
node 1 2 1 1
node 2 2 1 1
node 3 1 1 3
node 4 1 0 2
node 7 2 0 0
node 14 1 0 0
node 34 1 0 0
node 39 1 0 0
gene  1 1 4 3.1682367933147413 0 1.0 3.1682367933147413 1
gene  2 2 4 6.8610761412988985 0 2.0 6.8610761412988985 1
gene  3 3 4 0.23292422710546257 0 3.0 0.23292422710546257 1
gene  1 1 7 -0.7806941484146279 0 8.0 -0.7806941484146279 1
gene  1 7 4 -0.20471784592577502 0 9.0 -0.20471784592577502 1
gene  1 1 14 -2.238785479914043 0 27.0 -2.238785479914043 1
gene  1 14 4 -5.7767141762823835 0 28.0 -5.7767141762823835 1
gene  2 2 34 1.298011485282852 0 97.0 1.298011485282852 1
gene  1 34 4 4.159874433340586 0 98.0 4.159874433340586 1
gene  1 7 39 0.35860972970745797 0 121.0 0.35860972970745797 1
gene  1 39 4 -2.653912406568594 0 122.0 -2.653912406568594 1
gene  2 14 39 6.360054313577079 0 262.0 6.360054313577079 1
genomeend 90
/* Organism # 091 Fitness:  9.000 Error:  1.000                      */
genomestart  91
trait 1 0.1 0.0 0.0 0.0 0.055398074479255544 0.0 0.0 0.12192827250494745 
trait 2 0.09375 0.38009042412031013 0.0 0.03312654059381397 0.0 0.0 0.0 0.02176789354007065 
trait 3 0.3 0.0 0.0 0.0 0.0 0.0 0.0 0.0 
node 1 2 1 1
node 2 2 1 1
node 3 1 1 3
node 4 1 0 2
node 7 2 0 0
node 14 1 0 0
node 34 1 0 0
node 39 1 0 0
gene  1 1 4 2.848221219132935 0 1.0 2.848221219132935 1
gene  2 2 4 7.172614246973804 0 2.0 7.172614246973804 1
gene  3 3 4 2.031375165992735 0 3.0 2.031375165992735 1
gene  1 1 7 -1.0188042536290633 0 8.0 -1.0188042536290633 1
gene  1 7 4 -2.122722205616883 0 9.0 -2.122722205616883 1
gene  1 1 14 -3.329653600944507 0 27.0 -3.329653600944507 1
gene  1 14 4 -6.903712982390677 0 28.0 -6.903712982390677 1
gene  2 2 34 1.6785177747485072 0 97.0 1.6785177747485072 1
gene  2 34 4 5.532587119478919 0 98.0 5.532587119478919 1
gene  1 7 39 3.191223602853122 0 121.0 3.191223602853122 1
gene  1 39 4 -4.424773345450876 0 122.0 -4.424773345450876 1
gene  2 14 39 4.505873237963202 0 262.0 4.505873237963202 1
genomeend 91
/* Organism # 092 Fitness:  8.979 Error:  1.004                      */
genomestart  92
trait 1 0.1 0.0 0.0 0.0 0.055398074479255544 0.0 0.0 0.12192827250494745 
trait 2 0.09375 0.38009042412031013 0.0 0.03312654059381397 0.0 0.0 0.0 0.02176789354007065 
trait 3 0.3 0.0 0.0 0.0 0.0 0.0 0.0 0.0 
node 1 2 1 1
node 2 2 1 1
node 3 1 1 3
node 4 1 0 2
node 7 2 0 0
node 14 1 0 0
node 34 1 0 0
node 39 1 0 0
gene  1 1 4 2.848221219132935 0 1.0 2.848221219132935 1
gene  2 2 4 7.750266455019337 0 2.0 7.750266455019337 1
gene  3 3 4 -0.5357088467120097 0 3.0 -0.5357088467120097 1
gene  1 1 7 -0.6741870424368013 0 8.0 -0.6741870424368013 1
gene  1 7 4 -2.122722205616883 0 9.0 -2.122722205616883 1
gene  1 1 14 -5.533588619561078 0 27.0 -5.533588619561078 1
gene  1 14 4 -5.819563171168724 0 28.0 -5.819563171168724 1
gene  2 2 34 0.7307831860009021 0 97.0 0.7307831860009021 1
gene  2 34 4 3.9638133918653606 0 98.0 3.9638133918653606 1
gene  1 7 39 1.291566964299062 0 121.0 1.291566964299062 1
gene  1 39 4 -5.501508678155942 0 122.0 -5.501508678155942 1
gene  2 14 39 2.0485866663742978 0 262.0 2.0485866663742978 1
genomeend 92
/* Organism # 093 Fitness:  9.000 Error:  1.000                      */
genomestart  93
trait 1 0.1 0.0 0.0 0.0 0.055398074479255544 0.0 0.0 0.12192827250494745 
trait 2 0.09375 0.38009042412031013 0.0 0.03312654059381397 0.0 0.0 0.0 0.02176789354007065 
trait 3 0.3 0.0 0.0 0.0 0.0 0.0 0.0 0.0 
node 1 2 1 1
node 2 2 1 1
node 3 1 1 3
node 4 1 0 2
node 7 2 0 0
node 14 1 0 0
node 34 1 0 0
node 39 1 0 0
gene  1 1 4 2.848221219132935 0 1.0 2.848221219132935 1
gene  2 2 4 7.172614246973804 0 2.0 7.172614246973804 1
gene  3 3 4 2.031375165992735 0 3.0 2.031375165992735 1
gene  1 1 7 -1.0188042536290633 0 8.0 -1.0188042536290633 1
gene  1 7 4 -2.208401615091992 0 9.0 -2.208401615091992 1
gene  1 1 14 -2.7532726862839745 0 27.0 -2.7532726862839745 1
gene  1 14 4 -6.903712982390677 0 28.0 -6.903712982390677 1
gene  2 2 34 1.373420649984409 0 97.0 1.373420649984409 1
gene  2 34 4 5.532587119478919 0 98.0 5.532587119478919 1
gene  1 7 39 3.5143547725017625 0 121.0 3.5143547725017625 1
gene  1 39 4 -4.583652448523479 0 122.0 -4.583652448523479 1
gene  2 14 39 4.505873237963202 0 262.0 4.505873237963202 1
genomeend 93
/* Organism # 094 Fitness:  8.559 Error:  1.074                      */
genomestart  94
trait 1 0.1 0.0 0.0 0.0 0.055398074479255544 0.0 0.0 0.12192827250494745 
trait 2 0.09375 0.38009042412031013 0.0 0.03312654059381397 0.0 0.0 0.0 0.02176789354007065 
trait 3 0.3 0.0 0.0 0.719210580317271 0.0 0.0 0.0 0.0 
node 1 2 1 1
node 2 2 1 1
node 3 1 1 3
node 4 1 0 2
node 7 2 0 0
node 14 1 0 0
node 34 1 0 0
node 39 1 0 0
gene  1 1 4 4.791359587440438 0 1.0 4.791359587440438 1
gene  2 2 4 8.418915055962309 0 2.0 8.418915055962309 1
gene  3 3 4 4.860941018267892 0 3.0 4.860941018267892 1
gene  1 1 7 -1.6092135771803375 0 8.0 -1.6092135771803375 1
gene  1 7 4 -1.510957075594655 0 9.0 -1.510957075594655 1
gene  1 1 14 -2.706156205675145 0 27.0 -2.706156205675145 1
gene  1 14 4 -3.227939162339431 0 28.0 -3.227939162339431 1
gene  2 2 34 -0.37492745153808005 0 97.0 -0.37492745153808005 1
gene  2 34 4 2.5164970818791454 0 98.0 2.5164970818791454 1
gene  1 7 39 3.6037745433004904 0 121.0 3.6037745433004904 1
gene  1 39 4 -4.341624646615324 0 122.0 -4.341624646615324 1
gene  2 14 39 -1.9890385638203003 0 262.0 -1.9890385638203003 1
genomeend 94
/* Organism # 095 Fitness:  3.684 Error:  2.080                      */
genomestart  95
trait 1 0.1 0.0 0.0 0.0 0.055398074479255544 0.0 0.0 0.12192827250494745 
