/* Species # 001         : (size= 006) (AvfFit= 6.863) (Age= 45.000)  */
/*-------------------------------------------------------------------*/
/* Organism # 000 Fitness:  9.000 Error:  1.000                      */
genomestart  0
trait 1 0.1 0.0 0.0 0.0 0.0 0.0 0.0 0.0 
trait 2 0.2 0.002330002528695428 0.0 0.0018890898720418077 0.0 0.0 0.0 0.011429781640158128 
trait 3 0.33015862004453994 0.03119496711044708 0.0 0.018609398942204904 0.0 0.0 0.0 0.03429646241963438 
node 1 1 1 1
node 2 1 1 1
node 3 1 1 3
node 4 1 0 2
gene  1 1 4 17.9247871423531 0 1.0 17.9247871423531 1
gene  2 2 4 -17.80440306093693 0 2.0 -17.80440306093693 1
gene  3 3 4 -7.799287499802663 0 3.0 -7.799287499802663 1
genomeend 0
/* Organism # 001 Fitness:  4.000 Error:  2.000                      */
genomestart  1
trait 1 0.1 0.0 0.0 0.0 0.0 0.0 0.0 0.0 
trait 2 0.2 0.002330002528695428 0.0 0.0018890898720418077 0.0 0.0 0.0 0.011429781640158128 
trait 3 0.33015862004453994 0.03119496711044708 0.0 0.018609398942204904 0.0 0.0 0.0 0.03429646241963438 
node 1 1 1 1
node 2 1 1 1
node 3 1 1 3
node 4 1 0 2
gene  1 1 4 0.7894769913989477 0 1.0 0.7894769913989477 1
gene  2 2 4 -16.083862955955937 0 2.0 -16.083862955955937 1
gene  3 3 4 -6.227533080044523 0 3.0 -6.227533080044523 1
genomeend 1
/* Organism # 002 Fitness:  9.000 Error:  1.000                      */
genomestart  2
trait 1 0.1 0.0 0.0 0.0 0.0 0.0 0.0 0.0 
trait 2 0.2 0.002330002528695428 0.0 0.0018890898720418077 0.0 0.0 0.0 0.011429781640158128 
trait 3 0.33015862004453994 0.03119496711044708 0.0 0.018609398942204904 0.0 0.0 0.0 0.03429646241963438 
node 1 1 1 1
node 2 1 1 1
node 3 1 1 3
node 4 3 0 2
gene  1 1 4 18.09630926437595 0 1.0 18.09630926437595 1
gene  2 2 4 -18.06794947964848 0 2.0 -18.06794947964848 1
gene  3 3 4 -8.290507405924942 0 3.0 -8.290507405924942 1
genomeend 2
/* Organism # 003 Fitness:  9.000 Error:  1.000                      */
genomestart  3
trait 1 0.1 0.0 0.0 0.0 0.0 0.0 0.0 0.0 
trait 2 0.2 0.002330002528695428 0.0 0.0018890898720418077 0.0 0.0 0.0 0.011429781640158128 
trait 3 0.33015862004453994 0.03119496711044708 0.0 0.018609398942204904 0.0 0.0 0.0 0.03429646241963438 
node 1 1 1 1
node 2 1 1 1
node 3 1 1 3
node 4 1 0 2
gene  1 1 4 17.9247871423531 0 1.0 17.9247871423531 1
gene  2 2 4 -17.80440306093693 0 2.0 -17.80440306093693 1
gene  3 3 4 -7.799287499802663 0 3.0 -7.799287499802663 1
genomeend 3
/* Organism # 004 Fitness:  9.000 Error:  1.000                      */
genomestart  4
trait 1 0.1 0.0 0.0 0.0 0.0 0.0 0.0 0.0 
trait 2 0.2 0.002330002528695428 0.0 0.0018890898720418077 0.0 0.0 0.0 0.011429781640158128 
trait 3 0.33015862004453994 0.03119496711044708 0.0 0.018609398942204904 0.0 0.0 0.0 0.03429646241963438 
node 1 1 1 1
node 2 1 1 1
node 3 1 1 3
node 4 1 0 2
gene  1 1 4 18.118467614894314 0 1.0 18.118467614894314 1
gene  2 2 4 -18.75771752563835 0 2.0 -18.75771752563835 1
gene  3 3 4 -5.612161551781224 0 3.0 -5.612161551781224 1
genomeend 4
/* Organism # 005 Fitness:  1.177 Error:  2.915                      */
genomestart  5
trait 1 0.1 0.0 0.0 0.0 0.0 0.0 0.0 0.0 
trait 2 0.2 0.002330002528695428 0.0 0.0018890898720418077 0.0 0.0 0.0 0.011429781640158128 
trait 3 0.33015862004453994 0.03119496711044708 0.0 0.018609398942204904 0.0 0.0 0.0 0.03429646241963438 
node 1 1 1 1
node 2 1 1 1
node 3 1 1 3
node 4 1 0 2
gene  1 1 4 20.779542507721285 0 1.0 20.779542507721285 1
gene  2 2 4 -20.752743521156987 0 2.0 -20.752743521156987 1
gene  3 3 4 0.6198439366302053 0 3.0 0.6198439366302053 1
genomeend 5
/*-------------------------------------------------------------------*/
/* Species # 002         : (size= 003) (AvfFit= 3.229) (Age= 42.000)  */
/*-------------------------------------------------------------------*/
/* Organism # 006 Fitness:  4.000 Error:  2.000                      */
genomestart  6
trait 1 0.08750000000000001 0.11197210561720429 0.0 0.020591699704072847 0.0 0.0 0.0 0.0 
trait 2 0.2 0.0 0.0 0.0 0.0 0.0 0.0 0.0 
trait 3 0.3 0.0 0.5648645619926869 0.0 0.0 0.7365003235522505 0.0 0.5546307328465123 
node 1 2 1 1
node 2 1 1 1
node 3 1 1 3
node 4 2 0 2
node 7 1 0 0
gene  1 1 4 -2.435812629583496 0 1.0 -2.435812629583496 1
gene  2 2 4 2.1553188691122998 0 2.0 2.1553188691122998 1
gene  3 3 4 -4.356617850468176 0 3.0 -4.356617850468176 1
gene  1 1 7 -0.9304256982571357 0 8.0 -0.9304256982571357 1
gene  1 7 4 -2.293615284770603 0 9.0 -2.293615284770603 1
gene  2 2 7 -1.185284529544151 0 12.0 -1.185284529544151 1
gene  2 3 7 1.7164572646239942 0 377.0 1.7164572646239942 1
genomeend 6
/* Organism # 007 Fitness:  4.000 Error:  2.000                      */
genomestart  7
trait 1 0.08750000000000001 0.11197210561720429 0.0 0.020591699704072847 0.0 0.0 0.0 0.0 
trait 2 0.2 0.0 0.0 0.0 0.0 0.0 0.0 0.0 
trait 3 0.3 0.0 0.5648645619926869 0.0 0.0 0.7365003235522505 0.0 0.5546307328465123 
node 1 2 1 1
node 2 2 1 1
node 3 1 1 3
node 4 2 0 2
node 7 1 0 0
gene  1 1 4 -3.0509237612511644 0 1.0 -3.0509237612511644 1
gene  2 2 4 -1.0101599845725888 0 2.0 -1.0101599845725888 1
gene  3 3 4 -2.920669877379905 0 3.0 -2.920669877379905 1
gene  1 1 7 -2.499536178413189 0 8.0 -2.499536178413189 1
gene  1 7 4 -3.690620884517954 0 9.0 -3.690620884517954 1
gene  2 2 7 -5.0399869500824295 0 12.0 -5.0399869500824295 1
gene  2 3 7 -3.6244845604289955 0 377.0 -3.6244845604289955 1
genomeend 7
/* Organism # 008 Fitness:  1.686 Error:  2.702                      */
genomestart  8
trait 1 0.08750000000000001 0.11197210561720429 0.0 0.020591699704072847 0.0 0.0 0.0 0.0 
trait 2 0.2 0.0 0.0 0.0 0.0 0.0 0.0 0.0 
trait 3 0.3 0.0 0.5648645619926869 0.0 0.0 0.7365003235522505 0.0 0.5546307328465123 
node 1 2 1 1
node 2 2 1 1
node 3 1 1 3
node 4 2 0 2
node 7 1 0 0
gene  1 1 4 -3.208351752062675 0 1.0 -3.208351752062675 1
gene  2 2 4 -1.1198516473377123 0 2.0 -1.1198516473377123 1
gene  3 3 4 0.18327633361096396 0 3.0 0.18327633361096396 1
gene  1 1 7 -3.2303816892899517 0 8.0 -3.2303816892899517 1
gene  1 7 4 -1.9452524255506123 0 9.0 -1.9452524255506123 1
gene  2 2 7 -3.8196083006326544 0 12.0 -3.8196083006326544 1
gene  2 3 7 -2.0549870203139755 0 377.0 -2.0549870203139755 1
genomeend 8
/*-------------------------------------------------------------------*/
/* Species # 003         : (size= 007) (AvfFit= 8.932) (Age= 41.000)  */
/*-------------------------------------------------------------------*/
/* Organism # 009 Fitness:  9.000 Error:  1.000                      */
genomestart  9
trait 1 0.059765625 0.0 0.2447144282528913 0.36770204626662106 0.0 0.0 0.0 0.0 
trait 2 0.2283819314751614 0.3379816281392346 0.0 0.0 0.04195801977960614 0.0 0.0 0.28602699072950205 
trait 3 0.36074421441722343 0.06283158075855975 0.0 0.0374822627113405 0.0 0.0 0.0 0.0690784811736666 
node 1 1 1 1
node 2 1 1 1
node 3 3 1 3
node 4 1 0 2
node 9 1 0 0
gene  3 1 4 -12.751230381810718 0 1.0 -12.751230381810718 1
gene  1 2 4 11.536596074420777 0 2.0 11.536596074420777 1
gene  3 3 4 -7.247245076885738 0 3.0 -7.247245076885738 1
gene  2 2 9 2.782547713262618 0 13.0 2.782547713262618 1
gene  2 9 4 5.281599383813485 0 14.0 5.281599383813485 1
gene  1 1 9 -4.429158244740634 0 41.0 -4.429158244740634 1
gene  3 3 9 -1.484241673291185 0 137.0 -1.484241673291185 1
genomeend 9
/* Organism # 010 Fitness:  8.521 Error:  1.081                      */
genomestart  10
trait 1 0.059765625 0.0 0.2447144282528913 0.36770204626662106 0.0 0.0 0.0 0.0 
trait 2 0.2283819314751614 0.3379816281392346 0.0 0.0 0.04195801977960614 0.0 0.0 0.28602699072950205 
trait 3 0.36074421441722343 0.06283158075855975 0.0 0.0374822627113405 0.0 0.0 0.0 0.0690784811736666 
node 1 1 1 1
node 2 1 1 1
node 3 3 1 3
node 4 1 0 2
node 9 1 0 0
gene  3 1 4 -13.805300180373768 0 1.0 -13.805300180373768 1
gene  1 2 4 11.536596074420777 0 2.0 11.536596074420777 1
gene  3 3 4 -6.038879005143318 0 3.0 -6.038879005143318 1
gene  2 2 9 -0.39717797355185824 0 13.0 -0.39717797355185824 1
gene  2 9 4 5.834631873188608 0 14.0 5.834631873188608 1
gene  1 1 9 -4.2322022680890745 0 41.0 -4.2322022680890745 1
gene  3 3 9 0.5998852151940892 0 137.0 0.5998852151940892 1
genomeend 10
/* Organism # 011 Fitness:  9.000 Error:  1.000                      */
genomestart  11
trait 1 0.059765625 0.0 0.2447144282528913 0.36770204626662106 0.0 0.0 0.0 0.0 
trait 2 0.2283819314751614 0.3379816281392346 0.0 0.0 0.04195801977960614 0.0 0.0 0.28602699072950205 
trait 3 0.36074421441722343 0.06283158075855975 0.0 0.0374822627113405 0.0 0.0 0.0 0.0690784811736666 
node 1 1 1 1
node 2 1 1 1
node 3 3 1 3
node 4 1 0 2
node 9 1 0 0
gene  3 1 4 -12.947587241960202 0 1.0 -12.947587241960202 1
gene  1 2 4 12.536592816914716 0 2.0 12.536592816914716 1
gene  3 3 4 -6.5126716858937375 0 3.0 -6.5126716858937375 1
gene  2 2 9 3.486861420664975 0 13.0 3.486861420664975 1
gene  2 9 4 7.073616788190463 0 14.0 7.073616788190463 1
gene  1 1 9 -5.137025410424694 0 41.0 -5.137025410424694 1
gene  3 3 9 -1.6976536306586771 0 137.0 -1.6976536306586771 1
genomeend 11
/* Organism # 012 Fitness:  9.000 Error:  1.000                      */
genomestart  12
trait 1 0.059765625 0.0 0.2447144282528913 0.36770204626662106 0.0 0.0 0.0 0.0 
trait 2 0.2283819314751614 0.3379816281392346 0.0 0.0 0.04195801977960614 0.0 0.0 0.28602699072950205 
trait 3 0.36074421441722343 0.06283158075855975 0.0 0.0374822627113405 0.0 0.0 0.0 0.0690784811736666 
node 1 1 1 1
node 2 1 1 1
node 3 3 1 3
node 4 1 0 2
node 9 1 0 0
gene  3 1 4 -11.38505410351982 0 1.0 -11.38505410351982 1
gene  1 2 4 9.264447620120375 0 2.0 9.264447620120375 1
gene  3 3 4 -7.787779948426643 0 3.0 -7.787779948426643 1
gene  2 2 9 2.9356698147769915 0 13.0 2.9356698147769915 1
gene  2 9 4 5.192206360337681 0 14.0 5.192206360337681 1
gene  1 1 9 -5.0835833897050575 0 41.0 -5.0835833897050575 1
gene  3 3 9 -1.3419729662550695 0 137.0 -1.3419729662550695 1
genomeend 12
/* Organism # 013 Fitness:  9.000 Error:  1.000                      */
genomestart  13
trait 1 0.059765625 0.0 0.2447144282528913 0.36770204626662106 0.0 0.0 0.0 0.0 
trait 2 0.2283819314751614 0.3379816281392346 0.0 0.0 0.04195801977960614 0.0 0.0 0.28602699072950205 
trait 3 0.36074421441722343 0.06283158075855975 0.0 0.0374822627113405 0.0 0.0 0.0 0.0690784811736666 
node 1 1 1 1
node 2 1 1 1
node 3 3 1 3
node 4 1 0 2
node 9 1 0 0
gene  3 1 4 -13.162407483458232 0 1.0 -13.162407483458232 1
gene  1 2 4 13.83720599644759 0 2.0 13.83720599644759 1
gene  3 3 4 -4.768480856713667 0 3.0 -4.768480856713667 1
gene  2 2 9 2.0388138348283777 0 13.0 2.0388138348283777 1
gene  2 9 4 3.6375893609119707 0 14.0 3.6375893609119707 1
gene  1 1 9 -2.4455201977270042 0 41.0 -2.4455201977270042 1
gene  3 3 9 -0.8032540568639678 0 137.0 -0.8032540568639678 1
genomeend 13
/* Organism # 014 Fitness:  9.000 Error:  1.000                      */
genomestart  14
trait 1 0.059765625 0.0 0.2447144282528913 0.36770204626662106 0.0 0.0 0.0 0.0 
trait 2 0.2283819314751614 0.3379816281392346 0.0 0.0 0.04195801977960614 0.0 0.0 0.28602699072950205 
trait 3 0.36074421441722343 0.06283158075855975 0.0 0.0374822627113405 0.0 0.0 0.0 0.0690784811736666 
node 1 1 1 1
node 2 1 1 1
node 3 3 1 3
node 4 1 0 2
node 9 1 0 0
gene  3 1 4 -12.467527927450439 0 1.0 -12.467527927450439 1
gene  1 2 4 10.656669409264246 0 2.0 10.656669409264246 1
gene  3 3 4 -5.640588534128782 0 3.0 -5.640588534128782 1
gene  2 2 9 3.7091281936551628 0 13.0 3.7091281936551628 1
gene  2 9 4 5.967620495790065 0 14.0 5.967620495790065 1
gene  1 1 9 -5.881871800989324 0 41.0 -5.881871800989324 1
gene  3 3 9 -0.3780876328490108 0 137.0 -0.3780876328490108 1
genomeend 14
/* Organism # 015 Fitness:  9.000 Error:  1.000                      */
genomestart  15
trait 1 0.059765625 0.0 0.2447144282528913 0.36770204626662106 0.0 0.0 0.0 0.0 
trait 2 0.2283819314751614 0.3379816281392346 0.0 0.0 0.04195801977960614 0.0 0.0 0.28602699072950205 
trait 3 0.36074421441722343 0.06283158075855975 0.0 0.0374822627113405 0.0 0.0 0.0 0.0690784811736666 
node 1 1 1 1
node 2 1 1 1
node 3 3 1 3
node 4 1 0 2
node 9 2 0 0
gene  3 1 4 -14.957986852752176 0 1.0 -14.957986852752176 1
gene  1 2 4 9.107918257686178 0 2.0 9.107918257686178 1
gene  3 3 4 -9.33161150799667 0 3.0 -9.33161150799667 1
gene  2 2 9 4.838245561126783 0 13.0 4.838245561126783 1
gene  2 9 4 2.8053808164004277 0 14.0 2.8053808164004277 1
gene  1 1 9 -6.3631896566410004 0 41.0 -6.3631896566410004 1
gene  3 3 9 0.8654473339052462 0 137.0 0.8654473339052462 1
genomeend 15
/*-------------------------------------------------------------------*/
/* Species # 004         : (size= 010) (AvfFit= 8.870) (Age= 40.000)  */
/*-------------------------------------------------------------------*/
/* Organism # 016 Fitness:  15.938 Error:  0.008                      */
/*  $  This organism is WINNER with genome_id  016 Species # 004 $   */
genomestart  16
trait 1 0.05690637560727929 0.0 0.0 0.5295203930149014 0.6874495760107049 0.2612176252586514 0.24942653363099265 0.0037586221827266564 
trait 2 0.2 0.0 0.0 0.0 0.0 0.0 0.0 0.0 
trait 3 0.3459898992173307 0.0 0.0 0.0 0.0 0.09782773495057207 0.08357976993086841 0.07101291069219386 
node 1 1 1 1
node 2 1 1 1
node 3 1 1 3
node 4 1 0 2
node 12 1 0 0
gene  1 1 4 -3.509496629447825 0 1.0 -3.509496629447825 1
gene  2 2 4 -4.373988878075861 0 2.0 -4.373988878075861 1
gene  3 3 4 -7.738090649081423 0 3.0 -7.738090649081423 1
gene  1 1 12 0.9945908294894134 0 21.0 0.9945908294894134 1
gene  1 12 4 13.388453675409265 0 22.0 13.388453675409265 1
gene  3 2 12 9.769858835992137 0 36.0 9.769858835992137 1
genomeend 16
/* Organism # 017 Fitness:  8.997 Error:  1.000                      */
genomestart  17
trait 1 0.05690637560727929 0.0 0.0 0.5295203930149014 0.6874495760107049 0.2612176252586514 0.24942653363099265 0.0037586221827266564 
trait 2 0.2 0.0 0.0 0.0 0.0 0.0 0.0 0.0 
trait 3 0.3459898992173307 0.0 0.0 0.0 0.0 0.09782773495057207 0.08357976993086841 0.07101291069219386 
node 1 1 1 1
node 2 1 1 1
node 3 1 1 3
node 4 1 0 2
node 12 1 0 0
gene  1 1 4 -4.128928219980604 0 1.0 -4.128928219980604 1
gene  2 2 4 -3.6478394222774253 0 2.0 -3.6478394222774253 1
gene  3 3 4 -9.133658272456442 0 3.0 -9.133658272456442 1
gene  1 1 12 -1.1116017752837521 0 21.0 -1.1116017752837521 1
gene  1 12 4 14.364956575840932 0 22.0 14.364956575840932 1
gene  3 2 12 10.267655226892995 0 36.0 10.267655226892995 1
genomeend 17
/* Organism # 018 Fitness:  4.009 Error:  1.998                      */
genomestart  18
trait 1 0.05690637560727929 0.0 0.0 0.5295203930149014 0.6874495760107049 0.2612176252586514 0.24942653363099265 0.0037586221827266564 
trait 2 0.2 0.0 0.0 0.0 0.0 0.0 0.0 0.0 
trait 3 0.3459898992173307 0.0 0.0 0.0 0.0 0.09782773495057207 0.08357976993086841 0.07101291069219386 
node 1 1 1 1
node 2 1 1 1
node 3 1 1 3
node 4 1 0 2
node 12 1 0 0
gene  1 1 4 -3.381605241069184 0 1.0 -3.381605241069184 1
gene  2 2 4 -4.1998398970952975 0 2.0 -4.1998398970952975 1
gene  3 3 4 -5.977728753573386 0 3.0 -5.977728753573386 1
gene  1 1 12 2.7471082378036287 0 21.0 2.7471082378036287 1
gene  1 12 4 14.888187321450973 0 22.0 14.888187321450973 1
gene  3 2 12 9.708252916878303 0 36.0 9.708252916878303 1
genomeend 18
/* Organism # 019 Fitness:  8.938 Error:  1.010                      */
genomestart  19
trait 1 0.05690637560727929 0.0 0.0 0.5295203930149014 0.6874495760107049 0.2612176252586514 0.24942653363099265 0.0037586221827266564 
trait 2 0.2 0.0 0.0 0.0 0.0 0.0 0.0 0.0 
trait 3 0.3459898992173307 0.0 0.0 0.0 0.0 0.09782773495057207 0.08357976993086841 0.07101291069219386 
node 1 1 1 1
node 2 1 1 1
node 3 1 1 3
node 4 1 0 2
node 12 1 0 0
gene  1 1 4 -2.0278583398370156 0 1.0 -2.0278583398370156 1
gene  2 2 4 -6.570523945467356 0 2.0 -6.570523945467356 1
gene  3 3 4 -9.709066512145716 0 3.0 -9.709066512145716 1
gene  1 1 12 1.8000799341293985 0 21.0 1.8000799341293985 1
gene  1 12 4 12.664891629044925 0 22.0 12.664891629044925 1
gene  3 2 12 9.159931221296326 0 36.0 9.159931221296326 1
genomeend 19
/* Organism # 020 Fitness:  15.938 Error:  0.008                      */
/*  $  This organism is WINNER with genome_id  020 Species # 004 $   */
genomestart  20
trait 1 0.05690637560727929 0.0 0.0 0.5295203930149014 0.6874495760107049 0.2612176252586514 0.24942653363099265 0.0037586221827266564 
trait 2 0.2 0.0 0.0 0.0 0.0 0.0 0.0 0.0 
trait 3 0.3459898992173307 0.0 0.0 0.0 0.0 0.09782773495057207 0.08357976993086841 0.07101291069219386 
node 1 1 1 1
node 2 1 1 1
node 3 1 1 3
node 4 1 0 2
node 12 1 0 0
gene  1 1 4 -3.509496629447825 0 1.0 -3.509496629447825 1
gene  2 2 4 -4.373988878075861 0 2.0 -4.373988878075861 1
gene  3 3 4 -7.738090649081423 0 3.0 -7.738090649081423 1
gene  1 1 12 0.9945908294894134 0 21.0 0.9945908294894134 1
gene  1 12 4 13.388453675409265 0 22.0 13.388453675409265 1
gene  3 2 12 9.769858835992137 0 36.0 9.769858835992137 1
genomeend 20
/* Organism # 021 Fitness:  15.938 Error:  0.008                      */
/*  $  This organism is WINNER with genome_id  021 Species # 004 $   */
genomestart  21
trait 1 0.05690637560727929 0.0 0.0 0.5295203930149014 0.6874495760107049 0.2612176252586514 0.24942653363099265 0.0037586221827266564 
trait 2 0.2 0.0 0.0 0.0 0.0 0.0 0.0 0.0 
trait 3 0.3459898992173307 0.0 0.0 0.0 0.0 0.09782773495057207 0.08357976993086841 0.07101291069219386 
node 1 1 1 1
node 2 1 1 1
node 3 1 1 3
node 4 1 0 2
node 12 1 0 0
gene  1 1 4 -3.509496629447825 0 1.0 -3.509496629447825 1
gene  2 2 4 -4.373988878075861 0 2.0 -4.373988878075861 1
gene  3 3 4 -7.738090649081423 0 3.0 -7.738090649081423 1
gene  1 1 12 0.9945908294894134 0 21.0 0.9945908294894134 1
gene  1 12 4 13.388453675409265 0 22.0 13.388453675409265 1
gene  3 2 12 9.769858835992137 0 36.0 9.769858835992137 1
genomeend 21
/* Organism # 022 Fitness:  4.000 Error:  2.000                      */
genomestart  22
trait 1 0.05690637560727929 0.0 0.0 0.5295203930149014 0.6874495760107049 0.2612176252586514 0.24942653363099265 0.0037586221827266564 
trait 2 0.2 0.0 0.0 0.0 0.0 0.0 0.0 0.0 
trait 3 0.3459898992173307 0.0 0.0 0.0 0.0 0.09782773495057207 0.08357976993086841 0.07101291069219386 
node 1 1 1 1
node 2 1 1 1
node 3 1 1 3
node 4 1 0 2
node 12 1 0 0
gene  1 1 4 -3.509496629447825 0 1.0 -3.509496629447825 1
gene  2 2 4 -4.474443630424837 0 2.0 -4.474443630424837 1
gene  3 3 4 -7.918686965787447 0 3.0 -7.918686965787447 1
gene  1 1 12 -0.5976759133555287 0 21.0 -0.5976759133555287 1
gene  1 12 4 0.702055938079895 0 22.0 0.702055938079895 1
gene  3 2 12 10.147905714206061 0 36.0 10.147905714206061 1
genomeend 22
/* Organism # 023 Fitness:  1.935 Error:  2.609                      */
genomestart  23
trait 1 0.05690637560727929 0.0 0.0 0.5295203930149014 0.6874495760107049 0.2612176252586514 0.24942653363099265 0.0037586221827266564 
trait 2 0.2 0.0 0.0 0.0 0.0 0.0 0.0 0.0 
trait 3 0.3459898992173307 0.0 0.0 0.0 0.0 0.09782773495057207 0.08357976993086841 0.07101291069219386 
node 1 1 1 1
node 2 1 1 1
node 3 1 1 3
node 4 1 0 2
node 12 1 0 0
gene  1 1 4 0.9831814067969924 0 1.0 0.9831814067969924 1
gene  2 2 4 -4.589420755783083 0 2.0 -4.589420755783083 1
gene  3 3 4 -8.37809564281729 0 3.0 -8.37809564281729 1
gene  1 1 12 -0.836780416483336 0 21.0 -0.836780416483336 1
gene  1 12 4 12.085187827667236 0 22.0 12.085187827667236 1
gene  3 2 12 11.216229413551645 0 36.0 11.216229413551645 1
genomeend 23
/* Organism # 024 Fitness:  4.000 Error:  2.000                      */
genomestart  24
trait 1 0.05690637560727929 0.0 0.0 0.5295203930149014 0.6874495760107049 0.2612176252586514 0.24942653363099265 0.0037586221827266564 
trait 2 0.2 0.0 0.0 0.0 0.0 0.0 0.0 0.0 
trait 3 0.3459898992173307 0.0 0.0 0.0 0.0 0.09782773495057207 0.08357976993086841 0.07101291069219386 
node 1 1 1 1
node 2 1 1 1
node 3 1 1 3
node 4 1 0 2
node 12 1 0 0
gene  1 1 4 -4.8706842537121275 0 1.0 -4.8706842537121275 1
gene  2 2 4 -6.016920043482039 0 2.0 -6.016920043482039 1
gene  3 3 4 -9.836315502249743 0 3.0 -9.836315502249743 1
gene  1 1 12 0.26659282554093344 0 21.0 0.26659282554093344 1
gene  1 12 4 10.937438262525804 0 22.0 10.937438262525804 1
gene  3 2 12 8.515700046507979 0 36.0 8.515700046507979 1
genomeend 24
/* Organism # 025 Fitness:  9.005 Error:  0.999                      */
genomestart  25
trait 1 0.05690637560727929 0.0 0.0 0.5295203930149014 0.6874495760107049 0.2612176252586514 0.24942653363099265 0.0037586221827266564 
trait 2 0.2 0.0 0.0 0.0 0.0 0.0 0.0 0.0 
trait 3 0.3459898992173307 0.0 0.0 0.0 0.0 0.09782773495057207 0.08357976993086841 0.07101291069219386 
node 1 1 1 1
node 2 1 1 1
node 3 1 1 3
node 4 1 0 2
node 12 1 0 0
gene  1 1 4 -5.676656214318473 0 1.0 -5.676656214318473 1
gene  2 2 4 -6.69702431383842 0 2.0 -6.69702431383842 1
gene  3 3 4 -5.58434726995729 0 3.0 -5.58434726995729 1
gene  1 1 12 1.3210933459178085 0 21.0 1.3210933459178085 1
gene  1 12 4 13.530039006179488 0 22.0 13.530039006179488 1
gene  3 2 12 11.894962901892105 0 36.0 11.894962901892105 1
genomeend 25
/*-------------------------------------------------------------------*/
/* Species # 005         : (size= 005) (AvfFit= 7.910) (Age= 38.000)  */
/*-------------------------------------------------------------------*/
/* Organism # 026 Fitness:  9.000 Error:  1.000                      */
genomestart  26
trait 1 0.06875 0.0 0.0 0.0 0.0 0.0 0.023801055305950197 0.0 
trait 2 0.1 0.1412634290958787 0.0 0.001363430081560609 0.0 0.0 0.09628740773493377 0.00824932066202717 
trait 3 0.35386636961471096 0.055717391114329676 0.2158623061422958 0.03323828345753185 0.0 0.0 0.0 0.04553304525815782 
node 1 1 1 1
node 2 1 1 1
node 3 1 1 3
node 4 1 0 2
node 27 1 0 0
gene  1 1 4 7.5551177036684605 0 1.0 7.5551177036684605 1
gene  2 2 4 6.08332978702332 0 2.0 6.08332978702332 1
gene  3 3 4 -7.144993952237107 0 3.0 -7.144993952237107 1
gene  1 1 27 1.5759357078818566 0 80.0 1.5759357078818566 1
gene  1 27 4 11.146751636532953 0 81.0 11.146751636532953 1
gene  3 2 27 3.7485639572187814 0 128.0 3.7485639572187814 1
gene  1 3 27 -1.905097659983015 0 221.0 -1.905097659983015 1
genomeend 26
/* Organism # 027 Fitness:  9.000 Error:  1.000                      */
genomestart  27
trait 1 0.06875 0.0 0.0 0.0 0.0 0.0 0.023801055305950197 0.0 
trait 2 0.1 0.1412634290958787 0.0 0.001363430081560609 0.0 0.0 0.09628740773493377 0.00824932066202717 
trait 3 0.35386636961471096 0.055717391114329676 0.2158623061422958 0.03323828345753185 0.0 0.0 0.0 0.04553304525815782 
node 1 1 1 1
node 2 1 1 1
node 3 1 1 3
node 4 2 0 2
node 27 1 0 0
gene  1 1 4 10.47922574011184 0 1.0 10.47922574011184 1
gene  2 2 4 9.633090189075734 0 2.0 9.633090189075734 1
gene  3 3 4 -10.635317385104983 0 3.0 -10.635317385104983 1
gene  1 1 27 1.2255108375516293 0 80.0 1.2255108375516293 1
gene  1 27 4 14.637942535726351 0 81.0 14.637942535726351 1
gene  3 2 27 5.794287471151757 0 128.0 5.794287471151757 1
gene  1 3 27 -0.11160666983213319 0 221.0 -0.11160666983213319 1
genomeend 27
/* Organism # 028 Fitness:  3.549 Error:  2.116                      */
genomestart  28
trait 1 0.06875 0.0 0.0 0.0 0.0 0.0 0.023801055305950197 0.0 
trait 2 0.1 0.1412634290958787 0.0 0.001363430081560609 0.0 0.0 0.09628740773493377 0.00824932066202717 
trait 3 0.35386636961471096 0.055717391114329676 0.2158623061422958 0.03323828345753185 0.0 0.0 0.0 0.04553304525815782 
node 1 1 1 1
node 2 1 1 1
node 3 1 1 3
node 4 1 0 2
node 27 1 0 0
gene  1 1 4 9.5780343447914 0 1.0 9.5780343447914 1
gene  2 2 4 8.261438529751246 0 2.0 8.261438529751246 1
gene  3 3 4 -9.185655514459363 0 3.0 -9.185655514459363 1
gene  1 1 27 1.7131391569395595 0 80.0 1.7131391569395595 1
gene  1 27 4 14.10844174304442 0 81.0 14.10844174304442 1
gene  3 2 27 1.1061347659678873 0 128.0 1.1061347659678873 1
gene  1 3 27 -4.325715629586441 0 221.0 -4.325715629586441 1
genomeend 28
/* Organism # 029 Fitness:  9.000 Error:  1.000                      */
genomestart  29
trait 1 0.06875 0.0 0.0 0.0 0.0 0.0 0.023801055305950197 0.0 
trait 2 0.1 0.1412634290958787 0.0 0.001363430081560609 0.0 0.0 0.09628740773493377 0.00824932066202717 
trait 3 0.35386636961471096 0.055717391114329676 0.2158623061422958 0.03323828345753185 0.0 0.0 0.0 0.04553304525815782 
node 1 1 1 1
node 2 1 1 1
node 3 1 1 3
node 4 1 0 2
node 27 1 0 0
gene  1 1 4 10.910017829090483 0 1.0 10.910017829090483 1
gene  2 2 4 10.073650330001591 0 2.0 10.073650330001591 1
gene  3 3 4 -5.613078810396166 0 3.0 -5.613078810396166 1
gene  1 1 27 3.8917378199718424 0 80.0 3.8917378199718424 1
gene  1 27 4 11.40113378936844 0 81.0 11.40113378936844 1
gene  3 2 27 4.459803676752785 0 128.0 4.459803676752785 1
gene  1 3 27 -3.0012682496513254 0 221.0 -3.0012682496513254 1
genomeend 29
/* Organism # 030 Fitness:  9.000 Error:  1.000                      */
genomestart  30
trait 1 0.06875 0.0 0.0 0.0 0.0 0.0 0.023801055305950197 0.0 
trait 2 0.1 0.1412634290958787 0.0 0.001363430081560609 0.0 0.0 0.09628740773493377 0.00824932066202717 
trait 3 0.35386636961471096 0.055717391114329676 0.2158623061422958 0.03323828345753185 0.0 0.0 0.0 0.04553304525815782 
node 1 1 1 1
node 2 1 1 1
node 3 1 1 3
node 4 2 0 2
node 27 1 0 0
gene  1 1 4 9.832348297441909 0 1.0 9.832348297441909 1
gene  2 2 4 -2.3287207266138217 0 2.0 -2.3287207266138217 1
gene  3 3 4 -7.012458832313644 0 3.0 -7.012458832313644 1
gene  1 1 27 3.2428030294939933 0 80.0 3.2428030294939933 1
gene  1 27 4 13.427119427423063 0 81.0 13.427119427423063 1
gene  3 2 27 5.763156224579487 0 128.0 5.763156224579487 1
gene  1 3 27 -1.131224455934432 0 221.0 -1.131224455934432 1
genomeend 30
/*-------------------------------------------------------------------*/
/* Species # 007         : (size= 004) (AvfFit= 5.713) (Age= 37.000)  */
/*-------------------------------------------------------------------*/
/* Organism # 031 Fitness:  9.000 Error:  1.000                      */
genomestart  31
trait 1 0.1 0.0 0.0 0.0 0.0 0.0 0.0 0.0 
trait 2 0.2 0.0 0.0 0.7440737178016813 0.0 0.0 0.8037938726771511 0.0 
trait 3 0.9906426405483666 0.0 0.0 0.0 0.0 0.9609433237283803 0.0 0.0 
node 1 1 1 1
node 2 1 1 1
node 3 3 1 3
node 4 2 0 2
node 18 1 0 0
node 99 1 0 0
gene  1 1 4 1.6486471969877516 0 1.0 1.6486471969877516 0
gene  1 2 4 9.821408091709467 0 2.0 9.821408091709467 1
gene  3 3 4 -4.399646685081198 0 3.0 -4.399646685081198 1
gene  2 2 18 -6.043530579466351 0 44.0 -6.043530579466351 1
gene  2 18 4 6.40704271432424 0 45.0 6.40704271432424 1
gene  2 1 18 1.3231177975830775 0 97.0 1.3231177975830775 1
gene  3 3 18 -1.0817218524694625 0 153.0 -1.0817218524694625 1
gene  1 1 99 0.9654653969911117 0 436.0 0.9654653969911117 1
gene  1 99 4 1.6304160917638872 0 437.0 1.6304160917638872 1
gene  2 2 99 4.077010017274589 0 492.0 4.077010017274589 1
genomeend 31
/* Organism # 032 Fitness:  4.000 Error:  2.000                      */
genomestart  32
trait 1 0.1 0.0 0.0 0.0 0.0 0.0 0.0 0.0 
trait 2 0.2 0.0 0.0 0.7440737178016813 0.0 0.0 0.8037938726771511 0.0 
trait 3 0.9906426405483666 0.0 0.0 0.0 0.0 0.9609433237283803 0.0 0.0 
node 1 1 1 1
node 2 3 1 1
node 3 3 1 3
node 4 2 0 2
node 18 1 0 0
node 99 1 0 0
gene  1 1 4 1.5416683863970144 0 1.0 1.5416683863970144 0
gene  1 2 4 8.172173194391233 0 2.0 8.172173194391233 1
gene  3 3 4 -6.174518722739235 0 3.0 -6.174518722739235 1
gene  2 2 18 -7.1151808339558436 0 44.0 -7.1151808339558436 1
gene  2 18 4 4.420152912426986 0 45.0 4.420152912426986 1
gene  2 1 18 -0.18315867208773318 0 97.0 -0.18315867208773318 1
gene  3 3 18 -1.0817218524694625 0 153.0 -1.0817218524694625 1
gene  1 1 99 1.7139628951123091 0 436.0 1.7139628951123091 1
gene  1 99 4 2.4084459793100095 0 437.0 2.4084459793100095 1
genomeend 32
/* Organism # 033 Fitness:  5.852 Error:  1.581                      */
genomestart  33
trait 1 0.1 0.0 0.0 0.0 0.0 0.0 0.0 0.0 
trait 2 0.2 0.0 0.0 0.7440737178016813 0.0 0.0 0.8037938726771511 0.0 
trait 3 0.9906426405483666 0.0 0.0 0.0 0.0 0.9609433237283803 0.0 0.0 
node 1 1 1 1
node 2 1 1 1
node 3 3 1 3
node 4 2 0 2
node 18 1 0 0
node 99 1 0 0
gene  1 1 4 0.04831015028605323 0 1.0 0.04831015028605323 0
gene  1 2 4 10.731733841300306 0 2.0 10.731733841300306 1
gene  3 3 4 -6.452974956481818 0 3.0 -6.452974956481818 1
gene  2 2 18 -7.889490921706739 0 44.0 -7.889490921706739 1
gene  2 18 4 6.588689465338563 0 45.0 6.588689465338563 1
gene  2 1 18 2.8543184223166156 0 97.0 2.8543184223166156 1
gene  3 3 18 -2.151486745249925 0 153.0 -2.151486745249925 1
gene  1 1 99 -1.1939371082412538 0 436.0 -1.1939371082412538 1
gene  1 99 4 -0.5164024871776551 0 437.0 -0.5164024871776551 1
genomeend 33
/* Organism # 034 Fitness:  4.000 Error:  2.000                      */
genomestart  34
trait 1 0.1 0.0 0.0 0.0 0.0 0.0 0.0 0.0 
trait 2 0.2 0.0 0.0 0.7440737178016813 0.0 0.0 0.8037938726771511 0.0 
trait 3 0.9906426405483666 0.0 0.0 0.0 0.0 0.9609433237283803 0.0 0.0 
node 1 1 1 1
node 2 1 1 1
node 3 3 1 3
node 4 2 0 2
node 18 1 0 0
node 99 1 0 0
gene  1 1 4 4.105772543127904 0 1.0 4.105772543127904 0
gene  1 2 4 9.433442058857883 0 2.0 9.433442058857883 1
gene  3 3 4 -6.798736874935294 0 3.0 -6.798736874935294 1
gene  2 2 18 -5.745491044501737 0 44.0 -5.745491044501737 1
gene  2 18 4 8.8135638211513 0 45.0 8.8135638211513 1
gene  2 1 18 -0.5922628386757847 0 97.0 -0.5922628386757847 1
gene  3 3 18 -0.6961090008479246 0 153.0 -0.6961090008479246 1
gene  1 1 99 -0.4510478543279669 0 436.0 -0.4510478543279669 1
gene  1 99 4 1.5042441662200994 0 437.0 1.5042441662200994 1
genomeend 34
/*-------------------------------------------------------------------*/
/* Species # 008         : (size= 006) (AvfFit= 4.743) (Age= 35.000)  */
/*-------------------------------------------------------------------*/
/* Organism # 035 Fitness:  9.000 Error:  1.000                      */
genomestart  35
trait 1 0.07500000000000001 0.0 0.0 0.0 0.0 0.05251382634298016 0.0 0.0 
trait 2 0.2 0.0 0.0 0.0 0.0 0.0 0.0 0.0 
trait 3 0.7593903095090313 0.10938488939320123 0.0 0.08651291291510643 0.0 0.49099957482746426 0.0 0.0 
node 1 2 1 1
node 2 1 1 1
node 3 2 1 3
node 4 1 0 2
node 18 1 0 0
node 25 1 0 0
node 47 1 0 0
gene  1 1 4 -0.07578103508843936 0 1.0 -0.07578103508843936 0
gene  2 2 4 4.551001006621803 0 2.0 4.551001006621803 1
gene  3 3 4 0.46723642868705983 0 3.0 0.46723642868705983 1
gene  2 2 18 0.389265637804032 0 44.0 0.389265637804032 1
gene  2 18 4 7.9696255178307425 0 45.0 7.9696255178307425 1
gene  3 1 18 -9.2982279669448 0 63.0 -9.2982279669448 1
gene  1 1 25 1.5197508214422961 0 69.0 1.5197508214422961 1
gene  1 25 4 -6.8629977053398346 0 70.0 -6.8629977053398346 1
gene  2 18 25 11.2034980562413 0 78.0 11.2034980562413 1
gene  1 1 47 1.005836287525248 0 180.0 1.005836287525248 1
gene  1 47 4 -1.7778488801199388 0 181.0 -1.7778488801199388 1
gene  1 25 47 -7.073977550311847 0 428.0 -7.073977550311847 1
gene  1 3 47 6.9551066518387845 0 474.0 6.9551066518387845 1
genomeend 35
/* Organism # 036 Fitness:  4.879 Error:  1.791                      */
genomestart  36
trait 1 0.07500000000000001 0.16718169784698345 0.0 0.7358914089172803 0.0 0.05251382634298016 0.0 0.014916554388082814 
trait 2 0.2 0.0 0.0 0.0 0.0 0.0 0.0 0.0 
trait 3 0.7593903095090313 0.10938488939320123 0.0 0.08651291291510643 0.0 0.49099957482746426 0.0 0.0 
node 1 2 1 1
node 2 1 1 1
node 3 1 1 3
node 4 1 0 2
node 18 1 0 0
node 25 1 0 0
node 47 1 0 0
gene  1 1 4 2.235837071463797 0 1.0 2.235837071463797 0
gene  2 2 4 -1.5655138571081728 0 2.0 -1.5655138571081728 1
gene  3 3 4 1.0855476916370046 0 3.0 1.0855476916370046 1
gene  2 2 18 0.9346156068601967 0 44.0 0.9346156068601967 1
gene  2 18 4 -0.5970538043763518 0 45.0 -0.5970538043763518 1
gene  3 1 18 -7.3330732357250294 0 63.0 -7.3330732357250294 1
gene  1 1 25 0.6320413591411606 0 69.0 0.6320413591411606 1
gene  1 25 4 -1.346044963171149 0 70.0 -1.346044963171149 1
gene  1 18 25 9.881257025357915 0 78.0 9.881257025357915 1
gene  1 1 47 1.005836287525248 0 180.0 1.005836287525248 1
gene  1 47 4 -1.2979324165065975 0 181.0 -1.2979324165065975 1
gene  1 25 47 -6.168044234680773 0 428.0 -6.168044234680773 1
genomeend 36
/* Organism # 037 Fitness:  4.000 Error:  2.000                      */
genomestart  37
trait 1 0.07500000000000001 0.16718169784698345 0.0 0.7358914089172803 0.0 0.05251382634298016 0.0 0.014916554388082814 
trait 2 0.2 0.0 0.0 0.0 0.0 0.0 0.0 0.0 
trait 3 0.7593903095090313 0.10938488939320123 0.0 0.08651291291510643 0.0 0.49099957482746426 0.0 0.0 
node 1 2 1 1
node 2 1 1 1
node 3 1 1 3
node 4 1 0 2
node 18 1 0 0
node 25 1 0 0
node 47 1 0 0
gene  1 1 4 -0.07578103508843936 0 1.0 -0.07578103508843936 0
gene  2 2 4 3.399376040369245 0 2.0 3.399376040369245 1
gene  3 3 4 2.9200093192642695 0 3.0 2.9200093192642695 1
gene  2 2 18 -0.4261631056493529 0 44.0 -0.4261631056493529 1
gene  2 18 4 8.908128933535517 0 45.0 8.908128933535517 1
gene  3 1 18 -11.011754612947621 0 63.0 -11.011754612947621 1
gene  1 1 25 -1.9655432374223858 0 69.0 -1.9655432374223858 1
gene  1 25 4 -2.1602154269645775 0 70.0 -2.1602154269645775 1
gene  1 18 25 8.749381247411236 0 78.0 8.749381247411236 1
gene  1 1 47 -0.42926526844804136 0 180.0 -0.42926526844804136 1
gene  1 47 4 0.6971015154419811 0 181.0 0.6971015154419811 1
gene  1 25 47 -5.849506814026966 0 428.0 -5.849506814026966 1
genomeend 37
/* Organism # 038 Fitness:  1.396 Error:  2.818                      */
genomestart  38
trait 1 0.07500000000000001 0.16718169784698345 0.0 0.7358914089172803 0.0 0.05251382634298016 0.0 0.014916554388082814 
trait 2 0.2 0.0 0.0 0.0 0.0 0.0 0.0 0.0 
trait 3 0.7593903095090313 0.10938488939320123 0.0 0.08651291291510643 0.0 0.49099957482746426 0.0 0.0 
node 1 2 1 1
node 2 1 1 1
node 3 1 1 3
node 4 1 0 2
node 18 1 0 0
node 25 1 0 0
node 47 1 0 0
gene  1 1 4 -2.3364947113967385 0 1.0 -2.3364947113967385 0
gene  2 2 4 5.0914210331812075 0 2.0 5.0914210331812075 1
gene  3 3 4 0.46723642868705983 0 3.0 0.46723642868705983 1
gene  2 2 18 1.0973487349105704 0 44.0 1.0973487349105704 1
gene  2 18 4 7.9696255178307425 0 45.0 7.9696255178307425 1
gene  3 1 18 -11.399903245816132 0 63.0 -11.399903245816132 1
gene  1 1 25 2.5777163625036716 0 69.0 2.5777163625036716 1
gene  1 25 4 -0.7730198620374112 0 70.0 -0.7730198620374112 1
gene  1 18 25 10.93996277780602 0 78.0 10.93996277780602 1
gene  1 1 47 2.414815642723063 0 180.0 2.414815642723063 1
gene  1 47 4 1.1807816554703692 0 181.0 1.1807816554703692 1
gene  1 25 47 -8.976348684290624 0 428.0 -8.976348684290624 1
genomeend 38
/* Organism # 039 Fitness:  4.654 Error:  1.843                      */
genomestart  39
trait 1 0.07500000000000001 0.16718169784698345 0.0 0.7358914089172803 0.0 0.05251382634298016 0.0 0.014916554388082814 
trait 2 0.2 0.0 0.0 0.0 0.0 0.0 0.0 0.0 
trait 3 0.7593903095090313 0.10938488939320123 0.0 0.08651291291510643 0.0 0.49099957482746426 0.0 0.0 
node 1 2 1 1
node 2 1 1 1
node 3 1 1 3
node 4 1 0 2
node 18 1 0 0
node 25 3 0 0
node 47 1 0 0
gene  1 1 4 1.0391902808429707 0 1.0 1.0391902808429707 0
gene  2 2 4 3.9570949010385674 0 2.0 3.9570949010385674 1
gene  3 3 4 -1.6633039833558945 0 3.0 -1.6633039833558945 1
gene  2 2 18 0.7412735424145793 0 44.0 0.7412735424145793 1
gene  2 18 4 6.786886216725275 0 45.0 6.786886216725275 1
gene  3 1 18 -9.228178671823974 0 63.0 -9.228178671823974 1
gene  1 1 25 -0.032556578384342005 0 69.0 -0.032556578384342005 1
gene  1 25 4 -9.249702842351423 0 70.0 -9.249702842351423 1
gene  1 18 25 13.048056143504393 0 78.0 13.048056143504393 1
gene  1 1 47 1.5848759485094486 0 180.0 1.5848759485094486 1
gene  1 47 4 -1.7778488801199388 0 181.0 -1.7778488801199388 1
gene  1 25 47 -2.185375266828554 0 428.0 -2.185375266828554 1
genomeend 39
/* Organism # 040 Fitness:  4.532 Error:  1.871                      */
genomestart  40
trait 1 0.07500000000000001 0.16718169784698345 0.0 0.7358914089172803 0.0 0.05251382634298016 0.0 0.014916554388082814 
trait 2 0.2 0.0 0.0 0.0 0.0 0.0 0.0 0.0 
trait 3 0.7593903095090313 0.10938488939320123 0.0 0.08651291291510643 0.0 0.49099957482746426 0.0 0.0 
node 1 2 1 1
node 2 1 1 1
node 3 1 1 3
node 4 1 0 2
node 18 1 0 0
node 25 1 0 0
node 47 1 0 0
gene  1 1 4 2.1088878138567995 0 1.0 2.1088878138567995 0
gene  2 2 4 3.5889684199912524 0 2.0 3.5889684199912524 1
gene  3 3 4 -0.5955340481213804 0 3.0 -0.5955340481213804 1
gene  2 2 18 -1.8726420513633315 0 44.0 -1.8726420513633315 1
gene  2 18 4 7.9696255178307425 0 45.0 7.9696255178307425 1
gene  3 1 18 -8.5995676417059 0 63.0 -8.5995676417059 1
gene  1 1 25 1.5197508214422961 0 69.0 1.5197508214422961 1
gene  1 25 4 -6.746746907564821 0 70.0 -6.746746907564821 1
gene  1 18 25 11.120935553169671 0 78.0 11.120935553169671 1
gene  1 1 47 2.0175171010672472 0 180.0 2.0175171010672472 1
gene  1 47 4 -0.6311630885563577 0 181.0 -0.6311630885563577 1
gene  1 25 47 -8.20961979147383 0 428.0 -8.20961979147383 1
genomeend 40
/*-------------------------------------------------------------------*/
/* Species # 009         : (size= 007) (AvfFit= 7.626) (Age= 34.000)  */
/*-------------------------------------------------------------------*/
/* Organism # 041 Fitness:  9.000 Error:  1.000                      */
genomestart  41
trait 1 0.08095703125 0.17058250465120967 0.0 0.03137016751792348 0.0 0.0 0.0 0.0 
trait 2 0.24344716250459295 0.0 0.03420370051487321 0.05329185178940672 0.0 0.04194257483884601 0.0 0.0 
trait 3 0.3 0.08272181738054382 0.2515412502623684 0.0 0.0 0.6192375517619333 0.2919406141810683 0.13865768321162808 
node 1 2 1 1
node 2 1 1 1
node 3 1 1 3
node 4 1 0 2
node 7 1 0 0
node 26 1 0 0
node 29 1 0 0
gene  1 1 4 2.1285024328825104 0 1.0 2.1285024328825104 0
gene  2 2 4 -6.470075506182673 0 2.0 -6.470075506182673 1
gene  3 3 4 -1.6021902771075844 0 3.0 -1.6021902771075844 1
gene  1 1 7 10.690967373618358 0 8.0 10.690967373618358 1
gene  1 7 4 6.752698641153664 0 9.0 6.752698641153664 1
gene  2 2 7 4.714414667760254 0 12.0 4.714414667760254 1
gene  2 3 7 -2.9455556772420466 0 64.0 -2.9455556772420466 1
gene  1 1 26 -5.358605093360015 0 73.0 -5.358605093360015 1
gene  1 26 4 -2.9162448787299553 0 74.0 -2.9162448787299553 1
gene  1 1 29 -3.823688105319439 0 90.0 -3.823688105319439 1
gene  1 29 7 0.7438009280492844 0 91.0 0.7438009280492844 1
gene  3 2 29 8.051385614684266 0 185.0 8.051385614684266 1
gene  3 29 4 -0.626258590883765 0 315.0 -0.626258590883765 1
gene  2 3 26 1.1554860259330355 0 337.0 1.1554860259330355 1
gene  1 29 26 8.628655206365409 0 357.0 8.628655206365409 1
genomeend 41
/* Organism # 042 Fitness:  9.000 Error:  1.000                      */
genomestart  42
trait 1 0.08095703125 0.17058250465120967 0.0 0.03137016751792348 0.0 0.0 0.0 0.0 
trait 2 0.24344716250459295 0.0 0.03420370051487321 0.05329185178940672 0.0 0.04194257483884601 0.0 0.0 
trait 3 0.3 0.08272181738054382 0.2515412502623684 0.0 0.0 0.6192375517619333 0.2919406141810683 0.13865768321162808 
node 1 2 1 1
node 2 1 1 1
node 3 1 1 3
node 4 1 0 2
node 7 1 0 0
node 26 1 0 0
node 29 1 0 0
gene  1 1 4 3.7093527746862582 0 1.0 3.7093527746862582 0
gene  2 2 4 -4.359218505942772 0 2.0 -4.359218505942772 1
gene  3 3 4 -0.3657676281698703 0 3.0 -0.3657676281698703 1
gene  1 1 7 9.344550144803929 0 8.0 9.344550144803929 1
gene  1 7 4 5.945359503692767 0 9.0 5.945359503692767 1
gene  2 2 7 -0.8153126237816066 0 12.0 -0.8153126237816066 1
gene  2 3 7 -3.7358127386030464 0 64.0 -3.7358127386030464 1
gene  1 1 26 -6.858874419494688 0 73.0 -6.858874419494688 1
gene  1 26 4 -3.4478194652870444 0 74.0 -3.4478194652870444 1
gene  1 1 29 -1.2309701852385926 0 90.0 -1.2309701852385926 1
gene  1 29 7 0.07398189385834286 0 91.0 0.07398189385834286 1
gene  3 2 29 8.458988371995884 0 185.0 8.458988371995884 1
gene  3 29 4 -1.9930685277426736 0 315.0 -1.9930685277426736 1
gene  2 3 26 0.8847746852613684 0 337.0 0.8847746852613684 1
gene  1 29 26 7.163538185434771 0 357.0 7.163538185434771 1
genomeend 42
/* Organism # 043 Fitness:  4.000 Error:  2.000                      */
genomestart  43
trait 1 0.08095703125 0.17058250465120967 0.0 0.03137016751792348 0.0 0.0 0.0 0.0 
trait 2 0.24344716250459295 0.0 0.03420370051487321 0.05329185178940672 0.0 0.04194257483884601 0.0 0.0 
trait 3 0.3 0.08272181738054382 0.2515412502623684 0.0 0.0 0.6192375517619333 0.2919406141810683 0.13865768321162808 
node 1 2 1 1
node 2 1 1 1
node 3 1 1 3
node 4 1 0 2
node 7 1 0 0
node 26 1 0 0
node 29 1 0 0
gene  1 1 4 2.4420835353184014 0 1.0 2.4420835353184014 0
gene  2 2 4 -0.4062503079169377 0 2.0 -0.4062503079169377 1
gene  3 3 4 -2.034090183530303 0 3.0 -2.034090183530303 1
gene  1 1 7 2.1417083333614646 0 8.0 2.1417083333614646 1
gene  1 7 4 6.68591492054354 0 9.0 6.68591492054354 1
gene  2 2 7 5.460718254043762 0 12.0 5.460718254043762 1
gene  2 3 7 -3.686564368687117 0 64.0 -3.686564368687117 1
gene  1 1 26 0.3915371697260822 0 73.0 0.3915371697260822 1
gene  1 26 4 -5.350936115951555 0 74.0 -5.350936115951555 1
gene  1 1 29 -5.600831030569822 0 90.0 -5.600831030569822 1
gene  1 29 7 2.660460920741031 0 91.0 2.660460920741031 1
gene  3 2 29 8.068300616469736 0 185.0 8.068300616469736 1
gene  3 29 4 -1.4969746541100926 0 315.0 -1.4969746541100926 1
gene  2 3 26 2.101619913648217 0 337.0 2.101619913648217 1
gene  1 29 26 6.147566194315224 0 357.0 6.147566194315224 1
genomeend 43
/* Organism # 044 Fitness:  8.998 Error:  1.000                      */
genomestart  44
trait 1 0.08095703125 0.17058250465120967 0.0 0.03137016751792348 0.0 0.0 0.0 0.0 
trait 2 0.24344716250459295 0.0 0.03420370051487321 0.05329185178940672 0.0 0.04194257483884601 0.0 0.0 
trait 3 0.3 0.08272181738054382 0.2515412502623684 0.0 0.0 0.6192375517619333 0.2919406141810683 0.13865768321162808 
node 1 2 1 1
node 2 1 1 1
node 3 1 1 3
node 4 1 0 2
node 7 1 0 0
node 26 1 0 0
node 29 1 0 0
gene  1 1 4 2.1285024328825104 0 1.0 2.1285024328825104 0
gene  2 2 4 -6.470075506182673 0 2.0 -6.470075506182673 1
gene  3 3 4 -1.6021902771075844 0 3.0 -1.6021902771075844 1
gene  1 1 7 10.690967373618358 0 8.0 10.690967373618358 1
gene  1 7 4 6.752698641153664 0 9.0 6.752698641153664 1
gene  2 2 7 4.714414667760254 0 12.0 4.714414667760254 1
gene  2 3 7 -2.9455556772420466 0 64.0 -2.9455556772420466 1
gene  1 1 26 -5.358605093360015 0 73.0 -5.358605093360015 1
gene  1 26 4 -2.9162448787299553 0 74.0 -2.9162448787299553 1
gene  1 1 29 -3.823688105319439 0 90.0 -3.823688105319439 1
gene  1 29 7 0.7438009280492844 0 91.0 0.7438009280492844 1
gene  3 2 29 8.051385614684266 0 185.0 8.051385614684266 1
gene  3 29 4 -0.626258590883765 0 315.0 -0.626258590883765 1
gene  2 3 26 1.1554860259330355 0 337.0 1.1554860259330355 1
gene  1 29 26 8.628655206365409 0 357.0 8.628655206365409 1
gene  2 3 29 4.24306259299576 0 488.0 4.24306259299576 1
genomeend 44
/* Organism # 045 Fitness:  4.381 Error:  1.907                      */
genomestart  45
trait 1 0.08095703125 0.17058250465120967 0.0 0.03137016751792348 0.0 0.0 0.0 0.0 
trait 2 0.24344716250459295 0.0 0.03420370051487321 0.05329185178940672 0.0 0.04194257483884601 0.0 0.0 
trait 3 0.3 0.03791186063676563 0.2515412502623684 0.0 0.9609991712910557 1.5666581650796463 0.0 0.13865768321162808 
node 1 2 1 1
node 2 1 1 1
node 3 1 1 3
node 4 1 0 2
node 7 1 0 0
node 26 1 0 0
node 29 1 0 0
gene  1 1 4 3.1553256544656754 0 1.0 3.1553256544656754 0
gene  2 2 4 -6.337783731784813 0 2.0 -6.337783731784813 1
gene  3 3 4 0.8560818371130237 0 3.0 0.8560818371130237 1
gene  1 1 7 10.819497877745272 0 8.0 10.819497877745272 1
gene  1 7 4 5.945359503692767 0 9.0 5.945359503692767 1
gene  2 2 7 1.6815430573548051 0 12.0 1.6815430573548051 1
gene  2 3 7 -4.111149002729445 0 64.0 -4.111149002729445 1
gene  1 1 26 -5.01633765117628 0 73.0 -5.01633765117628 1
gene  1 26 4 -5.096164205095706 0 74.0 -5.096164205095706 1
gene  1 1 29 -0.38362169381711375 0 90.0 -0.38362169381711375 1
gene  1 29 7 0.5748053329319711 0 91.0 0.5748053329319711 1
gene  3 2 29 -1.0837586309944944 0 185.0 -1.0837586309944944 1
gene  3 29 4 -1.5838869566796623 0 315.0 -1.5838869566796623 1
gene  2 3 26 -0.8440144560788599 0 337.0 -0.8440144560788599 1
gene  3 29 26 8.451338614933327 0 357.0 8.451338614933327 1
genomeend 45
/* Organism # 046 Fitness:  9.000 Error:  1.000                      */
genomestart  46
trait 1 0.08095703125 0.17058250465120967 0.0 0.03137016751792348 0.0 0.0 0.0 0.0 
trait 2 0.24344716250459295 0.0 0.03420370051487321 0.05329185178940672 0.0 0.04194257483884601 0.0 0.0 
trait 3 0.3 0.08272181738054382 0.2515412502623684 0.0 0.0 1.0700972659467651 0.2919406141810683 0.0 
node 1 2 1 1
node 2 1 1 1
node 3 1 1 3
node 4 2 0 2
node 7 1 0 0
node 26 1 0 0
node 29 1 0 0
gene  1 1 4 5.84888746853343 0 1.0 5.84888746853343 0
gene  2 2 4 -1.459784053283998 0 2.0 -1.459784053283998 1
gene  3 3 4 -1.4276565145137403 0 3.0 -1.4276565145137403 1
gene  1 1 7 11.70118770796389 0 8.0 11.70118770796389 1
gene  1 7 4 5.0808718096133765 0 9.0 5.0808718096133765 1
gene  2 2 7 0.513097467466834 0 12.0 0.513097467466834 1
gene  2 3 7 -1.6305645912074507 0 64.0 -1.6305645912074507 1
gene  1 1 26 -6.858874419494688 0 73.0 -6.858874419494688 1
gene  1 26 4 -5.770902372607751 0 74.0 -5.770902372607751 1
gene  1 1 29 -3.0666776579490964 0 90.0 -3.0666776579490964 1
gene  1 29 7 0.9168948227041319 0 91.0 0.9168948227041319 1
gene  3 2 29 9.699301438647913 0 185.0 9.699301438647913 1
gene  3 29 4 -1.3154071229391044 0 315.0 -1.3154071229391044 1
gene  2 3 26 0.8847746852613684 0 337.0 0.8847746852613684 1
gene  1 29 26 6.348598748894663 0 357.0 6.348598748894663 1
genomeend 46
/* Organism # 047 Fitness:  9.000 Error:  1.000                      */
genomestart  47
trait 1 0.08095703125 0.17058250465120967 0.0 0.03137016751792348 0.0 0.0 0.0 0.0 
trait 2 0.24344716250459295 0.0 0.03420370051487321 0.05329185178940672 0.0 0.04194257483884601 0.0 0.0 
trait 3 0.3 0.08272181738054382 0.2515412502623684 0.0 0.0 0.6192375517619333 0.2919406141810683 0.13865768321162808 
node 1 2 1 1
node 2 1 1 1
node 3 1 1 3
node 4 1 0 2
node 7 1 0 0
node 26 1 0 0
node 29 1 0 0
gene  1 1 4 3.811299127067782 0 1.0 3.811299127067782 0
gene  2 2 4 -4.216224465429089 0 2.0 -4.216224465429089 1
gene  3 3 4 -4.0279601059750885 0 3.0 -4.0279601059750885 1
gene  1 1 7 11.381112325817163 0 8.0 11.381112325817163 1
gene  1 7 4 7.844742762026757 0 9.0 7.844742762026757 1
gene  2 2 7 3.085645095915364 0 12.0 3.085645095915364 1
gene  2 3 7 -1.3578443330042302 0 64.0 -1.3578443330042302 1
gene  1 1 26 -4.290483826150821 0 73.0 -4.290483826150821 1
gene  1 26 4 -3.604483699031096 0 74.0 -3.604483699031096 1
gene  1 1 29 -5.763299751461011 0 90.0 -5.763299751461011 1
gene  1 29 7 -1.0665230314183614 0 91.0 -1.0665230314183614 1
gene  3 2 29 9.491679642632887 0 185.0 9.491679642632887 1
gene  3 29 4 -0.9997112484029282 0 315.0 -0.9997112484029282 1
gene  2 3 26 1.1554860259330355 0 337.0 1.1554860259330355 1
gene  1 29 26 8.628655206365409 0 357.0 8.628655206365409 1
genomeend 47
/*-------------------------------------------------------------------*/
/* Species # 010         : (size= 011) (AvfFit= 10.106) (Age= 33.000)  */
/*-------------------------------------------------------------------*/
/* Organism # 048 Fitness:  16.000 Error:  0.000                      */
/*  $  This organism is WINNER with genome_id  048 Species # 010 $   */
genomestart  48
trait 1 0.1 0.0 0.0 0.0 0.0 0.0 0.0 0.0 
trait 2 0.2 0.0 0.0 0.0 0.0 0.0 0.0 0.0 
trait 3 1.199151331198746 0.0 0.0 0.0 0.20841105937580062 0.0 0.0 0.30695160929369625 
node 1 3 1 1
node 2 1 1 1
node 3 1 1 3
node 4 1 0 2
node 27 1 0 0
gene  1 1 4 -5.5468477185582294 0 1.0 -5.5468477185582294 1
gene  2 2 4 -4.812627379041221 0 2.0 -4.812627379041221 1
gene  3 3 4 -12.807320810318163 0 3.0 -12.807320810318163 1
gene  3 1 27 5.867338304006946 0 80.0 5.867338304006946 1
gene  1 27 4 20.86237065013852 0 81.0 20.86237065013852 1
gene  2 3 27 -3.517758046128799 0 109.0 -3.517758046128799 1
gene  2 2 27 6.732303649876171 0 113.0 6.732303649876171 1
genomeend 48
/* Organism # 049 Fitness:  4.000 Error:  2.000                      */
genomestart  49
trait 1 0.1 0.0 0.0 0.0 0.0 0.0 0.0 0.0 
trait 2 0.2 0.0 0.0 0.0 0.0 0.0 0.0 0.0 
trait 3 1.199151331198746 0.0 0.0 0.0 0.20841105937580062 0.0 0.0 0.30695160929369625 
node 1 3 1 1
node 2 1 1 1
node 3 1 1 3
node 4 1 0 2
node 27 1 0 0
gene  1 1 4 -2.0324476351645036 0 1.0 -2.0324476351645036 1
gene  2 2 4 -4.812627379041221 0 2.0 -4.812627379041221 1
gene  3 3 4 -11.718470190752381 0 3.0 -11.718470190752381 1
gene  3 1 27 4.173508535995122 0 80.0 4.173508535995122 1
gene  1 27 4 -1.5945518815372381 0 81.0 -1.5945518815372381 1
gene  2 3 27 -1.8132871041044232 0 109.0 -1.8132871041044232 1
gene  2 2 27 9.034519623282534 0 113.0 9.034519623282534 1
genomeend 49
/* Organism # 050 Fitness:  16.000 Error:  0.000                      */
/*  $  This organism is WINNER with genome_id  050 Species # 010 $   */
genomestart  50
trait 1 0.1 0.0 0.0 0.0 0.0 0.0 0.0 0.0 
trait 2 0.2 0.0 0.0 0.0 0.0 0.0 0.0 0.0 
trait 3 1.199151331198746 0.0 0.0 0.0 0.20841105937580062 0.0 0.0 0.30695160929369625 
node 1 3 1 1
node 2 1 1 1
node 3 1 1 3
node 4 1 0 2
node 27 1 0 0
gene  1 1 4 -6.788392957720491 0 1.0 -6.788392957720491 1
gene  2 2 4 -5.0367141304675656 0 2.0 -5.0367141304675656 1
gene  3 3 4 -13.244731864708873 0 3.0 -13.244731864708873 1
gene  3 1 27 6.687296693499752 0 80.0 6.687296693499752 1
gene  1 27 4 22.026872005865787 0 81.0 22.026872005865787 1
gene  2 3 27 -4.380868781955438 0 109.0 -4.380868781955438 1
gene  2 2 27 7.568095222272868 0 113.0 7.568095222272868 1
genomeend 50
/* Organism # 051 Fitness:  4.000 Error:  2.000                      */
genomestart  51
trait 1 0.1 0.0 0.0 0.0 0.0 0.0 0.0 0.0 
trait 2 0.2 0.0 0.0 0.0 0.0 0.0 0.0 0.0 
trait 3 1.199151331198746 0.0 0.0 0.0 0.20841105937580062 0.0 0.0 0.30695160929369625 
node 1 3 1 1
node 2 1 1 1
node 3 1 1 3
node 4 1 0 2
node 27 1 0 0
gene  1 1 4 2.0386527038313855 0 1.0 2.0386527038313855 1
gene  2 2 4 2.377933441359215 0 2.0 2.377933441359215 1
gene  3 3 4 2.1520658649216506 0 3.0 2.1520658649216506 1
gene  3 1 27 8.563541701756575 0 80.0 8.563541701756575 1
gene  1 27 4 22.450966770264873 0 81.0 22.450966770264873 1
gene  2 3 27 -3.0004777804676626 0 109.0 -3.0004777804676626 1
gene  2 2 27 9.650354612792995 0 113.0 9.650354612792995 1
genomeend 51
/* Organism # 052 Fitness:  16.000 Error:  0.000                      */
/*  $  This organism is WINNER with genome_id  052 Species # 010 $   */
genomestart  52
trait 1 0.1 0.0 0.0 0.0 0.0 0.0 0.0 0.0 
trait 2 0.2 0.0 0.0 0.0 0.0 0.0 0.0 0.0 
trait 3 1.199151331198746 0.0 0.0 0.0 0.20841105937580062 0.0 0.0 0.30695160929369625 
node 1 3 1 1
node 2 1 1 1
node 3 1 1 3
node 4 1 0 2
node 27 1 0 0
gene  1 1 4 -6.16762033813936 0 1.0 -6.16762033813936 1
gene  2 2 4 -5.0367141304675656 0 2.0 -5.0367141304675656 1
gene  3 3 4 -13.244731864708873 0 3.0 -13.244731864708873 1
gene  3 1 27 6.687296693499752 0 80.0 6.687296693499752 1
gene  1 27 4 22.026872005865787 0 81.0 22.026872005865787 1
gene  2 3 27 -4.380868781955438 0 109.0 -4.380868781955438 1
gene  2 2 27 7.568095222272868 0 113.0 7.568095222272868 1
genomeend 52
/* Organism # 053 Fitness:  9.229 Error:  0.962                      */
genomestart  53
trait 1 0.1 0.0 0.0 0.0 0.0 0.0 0.0 0.0 
trait 2 0.2 0.0 0.0 0.0 0.0 0.0 0.0 0.0 
trait 3 1.199151331198746 0.0 0.0 0.0 0.20841105937580062 0.0 0.0 0.30695160929369625 
node 1 3 1 1
node 2 3 1 1
node 3 1 1 3
node 4 1 0 2
node 27 1 0 0
gene  1 1 4 -8.98261409555441 0 1.0 -8.98261409555441 1
gene  2 2 4 -7.1905399913194685 0 2.0 -7.1905399913194685 1
gene  3 3 4 -13.894221078814123 0 3.0 -13.894221078814123 1
gene  3 1 27 8.413748695473371 0 80.0 8.413748695473371 1
gene  1 27 4 22.238909317326613 0 81.0 22.238909317326613 1
gene  2 3 27 -4.229664771123407 0 109.0 -4.229664771123407 1
gene  2 2 27 5.886230804511285 0 113.0 5.886230804511285 1
genomeend 53
/* Organism # 054 Fitness:  9.001 Error:  1.000                      */
genomestart  54
trait 1 0.1 0.0 0.0 0.0 0.0 0.0 0.0 0.0 
trait 2 0.2 0.0 0.0 0.0 0.0 0.0 0.0 0.0 
trait 3 1.199151331198746 0.0 0.0 0.0 0.20841105937580062 0.0 0.0 0.30695160929369625 
node 1 3 1 1
node 2 1 1 1
node 3 1 1 3
node 4 1 0 2
node 27 1 0 0
gene  1 1 4 -7.860831494903158 0 1.0 -7.860831494903158 1
gene  2 2 4 -2.521920252612273 0 2.0 -2.521920252612273 1
gene  3 3 4 -14.910363019651387 0 3.0 -14.910363019651387 1
gene  3 1 27 8.397240307417277 0 80.0 8.397240307417277 1
gene  1 27 4 21.00963390780195 0 81.0 21.00963390780195 1
gene  2 3 27 -5.9977929166582715 0 109.0 -5.9977929166582715 1
gene  2 2 27 7.055540147011049 0 113.0 7.055540147011049 1
genomeend 54
/* Organism # 055 Fitness:  4.000 Error:  2.000                      */
genomestart  55
trait 1 0.1 0.0 0.0 0.0 0.0 0.0 0.0 0.0 
trait 2 0.2 0.0 0.0 0.0 0.0 0.0 0.0 0.0 
trait 3 1.199151331198746 0.0 0.0 0.0 0.0 0.0 0.9963023914678313 0.30695160929369625 
node 1 3 1 1
node 2 1 1 1
node 3 1 1 3
node 4 1 0 2
node 27 1 0 0
gene  1 1 4 -8.346618904217394 0 1.0 -8.346618904217394 1
gene  2 2 4 -7.076787035665019 0 2.0 -7.076787035665019 1
gene  3 3 4 -13.250480054737908 0 3.0 -13.250480054737908 1
gene  3 1 27 4.608779919090096 0 80.0 4.608779919090096 1
gene  1 27 4 -1.03119703953935 0 81.0 -1.03119703953935 1
gene  2 3 27 -3.621036814788071 0 109.0 -3.621036814788071 1
gene  2 2 27 1.1576627586237662 0 113.0 1.1576627586237662 1
genomeend 55
/* Organism # 056 Fitness:  8.997 Error:  1.001                      */
genomestart  56
trait 1 0.1 0.0 0.0 0.0 0.0 0.0 0.0 0.0 
trait 2 0.2 0.0 0.0 0.0 0.0 0.0 0.0 0.0 
trait 3 1.199151331198746 0.0 0.0 0.0 0.20841105937580062 0.0 0.0 0.30695160929369625 
node 1 3 1 1
node 2 1 1 1
node 3 1 1 3
node 4 1 0 2
node 27 1 0 0
gene  1 1 4 -3.7746310941775625 0 1.0 -3.7746310941775625 1
gene  2 2 4 -6.5144041105011325 0 2.0 -6.5144041105011325 1
gene  3 3 4 -14.067051874253682 0 3.0 -14.067051874253682 1
gene  3 1 27 8.470162623453117 0 80.0 8.470162623453117 1
gene  1 27 4 19.164809353011346 0 81.0 19.164809353011346 1
gene  2 3 27 -5.583642237484817 0 109.0 -5.583642237484817 1
gene  2 2 27 8.254635934995546 0 113.0 8.254635934995546 1
genomeend 56
/* Organism # 057 Fitness:  14.970 Error:  0.131                      */
/*  $  This organism is WINNER with genome_id  057 Species # 010 $   */
genomestart  57
trait 1 0.1 0.0 0.0 0.0 0.0 0.0 0.0 0.0 
trait 2 0.2 0.0 0.0 0.0 0.0 0.0 0.0 0.0 
trait 3 1.199151331198746 0.0 0.0 0.0 0.20841105937580062 0.0 0.0 0.30695160929369625 
node 1 3 1 1
node 2 1 1 1
node 3 3 1 3
node 4 1 0 2
node 27 1 0 0
gene  1 1 4 -8.154642312436193 0 1.0 -8.154642312436193 1
gene  2 2 4 -5.253162453021162 0 2.0 -5.253162453021162 1
gene  3 3 4 -14.628756335638997 0 3.0 -14.628756335638997 1
gene  3 1 27 6.517850148769393 0 80.0 6.517850148769393 1
gene  1 27 4 23.1677899906808 0 81.0 23.1677899906808 1
gene  2 3 27 -2.436576699554871 0 109.0 -2.436576699554871 1
gene  2 2 27 5.474233251841276 0 113.0 5.474233251841276 1
genomeend 57
/* Organism # 058 Fitness:  8.966 Error:  1.006                      */
genomestart  58
trait 1 0.1 0.0 0.0 0.0 0.0 0.0 0.0 0.0 
trait 2 0.2 0.0 0.0 0.6200591746923094 0.882518854224675 0.0 0.0 0.0 
trait 3 1.199151331198746 0.0 0.0 0.0 0.20841105937580062 0.0 0.0 0.30695160929369625 
node 1 3 1 1
node 2 1 1 1
node 3 1 1 3
node 4 1 0 2
node 27 1 0 0
gene  1 1 4 -6.229109393562876 0 1.0 -6.229109393562876 1
gene  2 2 4 -4.538354955631953 0 2.0 -4.538354955631953 1
gene  3 3 4 -12.891876729226095 0 3.0 -12.891876729226095 1
gene  3 1 27 6.147223711780345 0 80.0 6.147223711780345 1
gene  1 27 4 22.610639306047595 0 81.0 22.610639306047595 1
gene  2 3 27 1.427262751233365 0 109.0 1.427262751233365 1
gene  2 2 27 5.385817680174824 0 113.0 5.385817680174824 1
genomeend 58
/*-------------------------------------------------------------------*/
/* Species # 011         : (size= 006) (AvfFit= 8.089) (Age= 33.000)  */
/*-------------------------------------------------------------------*/
/* Organism # 059 Fitness:  9.000 Error:  1.000                      */
genomestart  59
trait 1 0.13758880872216217 0.0 0.0 0.0 0.0 0.0 0.0 0.23261439317019972 
trait 2 0.2 0.0 0.0 0.0 0.0 0.0 0.0 0.0 
trait 3 0.3 0.0 0.0 0.0 0.0 0.1999730630644102 0.0 0.0 
node 1 1 1 1
node 2 2 1 1
node 3 1 1 3
node 4 1 0 2
node 17 1 0 0
node 59 1 0 0
gene  1 1 4 -3.2307924362898373 0 1.0 -3.2307924362898373 0
gene  2 2 4 -1.8432601504783337 0 2.0 -1.8432601504783337 0
gene  3 3 4 -8.562885965429432 0 3.0 -8.562885965429432 1
gene  1 1 17 4.45749190115793 0 38.0 4.45749190115793 1
gene  1 17 4 18.37824763495799 0 39.0 18.37824763495799 1
gene  1 2 17 6.431084259670218 0 175.0 6.431084259670218 1
gene  2 2 59 -1.386343083105794 0 244.0 -1.386343083105794 1
gene  2 59 4 -9.5301136393932 0 245.0 -9.5301136393932 1
genomeend 59
/* Organism # 060 Fitness:  9.000 Error:  1.000                      */
genomestart  60
trait 1 0.13758880872216217 0.0 0.0 0.0 0.0 0.0 0.0 0.23261439317019972 
trait 2 0.2 0.0 0.0 0.0 0.0 0.0 0.0 0.0 
trait 3 0.3 0.0 0.0 0.0 0.0 0.1999730630644102 0.0 0.0 
node 1 1 1 1
node 2 2 1 1
node 3 1 1 3
node 4 1 0 2
node 17 1 0 0
node 59 1 0 0
gene  1 1 4 -3.2307924362898373 0 1.0 -3.2307924362898373 0
gene  2 2 4 -1.8432601504783337 0 2.0 -1.8432601504783337 0
gene  3 3 4 -8.562885965429432 0 3.0 -8.562885965429432 1
gene  1 1 17 4.45749190115793 0 38.0 4.45749190115793 1
gene  1 17 4 18.37824763495799 0 39.0 18.37824763495799 1
gene  1 2 17 6.431084259670218 0 175.0 6.431084259670218 1
gene  2 2 59 -1.386343083105794 0 244.0 -1.386343083105794 1
gene  2 59 4 -9.5301136393932 0 245.0 -9.5301136393932 1
genomeend 60
/* Organism # 061 Fitness:  8.539 Error:  1.078                      */
genomestart  61
trait 1 0.13758880872216217 0.0 0.0 0.0 0.0 0.0 0.0 0.23261439317019972 
trait 2 0.2 0.0 0.0 0.0 0.0 0.0 0.0 0.0 
trait 3 0.3 0.0 0.0 0.0 0.0 0.1999730630644102 0.0 0.0 
node 1 1 1 1
node 2 2 1 1
node 3 1 1 3
node 4 1 0 2
node 17 1 0 0
node 59 1 0 0
gene  1 1 4 -1.4519041653792475 0 1.0 -1.4519041653792475 0
gene  2 2 4 -1.6273211557268565 0 2.0 -1.6273211557268565 0
gene  3 3 4 -4.848503442678468 0 3.0 -4.848503442678468 1
gene  1 1 17 5.426177408984728 0 38.0 5.426177408984728 1
gene  1 17 4 18.79451426250533 0 39.0 18.79451426250533 1
gene  1 2 17 3.0305060936993367 0 175.0 3.0305060936993367 1
gene  2 2 59 -2.3792576544982666 0 244.0 -2.3792576544982666 1
gene  2 59 4 -10.101039227868164 0 245.0 -10.101039227868164 1
genomeend 61
/* Organism # 062 Fitness:  8.995 Error:  1.001                      */
genomestart  62
trait 1 0.13758880872216217 0.0 0.0 0.0 0.0 0.0 0.0 0.23261439317019972 
trait 2 0.2 0.0 0.0 0.0 0.0 0.0 0.0 0.0 
trait 3 0.3 0.0 0.24888622726767173 0.0 0.15872054446928208 0.1999730630644102 0.0 0.8019698735538734 
node 1 1 1 1
node 2 2 1 1
node 3 1 1 3
node 4 1 0 2
node 17 1 0 0
node 59 1 0 0
gene  1 1 4 -1.8084009054250283 0 1.0 -1.8084009054250283 0
gene  2 2 4 -2.6347760112490097 0 2.0 -2.6347760112490097 0
gene  3 3 4 -4.996030165311627 0 3.0 -4.996030165311627 1
gene  1 1 17 6.33044238382098 0 38.0 6.33044238382098 1
gene  1 17 4 17.749576473444638 0 39.0 17.749576473444638 1
gene  1 2 17 3.3016628773095045 0 175.0 3.3016628773095045 1
gene  2 2 59 -0.9065148967631058 0 244.0 -0.9065148967631058 1
gene  2 59 4 -10.601842679738537 0 245.0 -10.601842679738537 1
genomeend 62
/* Organism # 063 Fitness:  9.000 Error:  1.000                      */
genomestart  63
trait 1 0.13758880872216217 0.0 0.0 0.0 0.0 0.0 0.0 0.23261439317019972 
trait 2 0.2 0.0 0.0 0.0 0.0 0.0 0.0 0.0 
trait 3 0.3 0.0 0.0 0.0 0.0 0.1999730630644102 0.0 0.0 
node 1 1 1 1
node 2 2 1 1
node 3 1 1 3
node 4 1 0 2
node 17 1 0 0
node 59 1 0 0
gene  1 1 4 -3.2307924362898373 0 1.0 -3.2307924362898373 0
gene  2 2 4 -1.8432601504783337 0 2.0 -1.8432601504783337 0
gene  3 3 4 -8.562885965429432 0 3.0 -8.562885965429432 1
gene  1 1 17 4.45749190115793 0 38.0 4.45749190115793 1
gene  1 17 4 18.37824763495799 0 39.0 18.37824763495799 1
gene  1 2 17 6.431084259670218 0 175.0 6.431084259670218 1
gene  2 2 59 -1.386343083105794 0 244.0 -1.386343083105794 1
gene  2 59 4 -9.5301136393932 0 245.0 -9.5301136393932 1
genomeend 63
/* Organism # 064 Fitness:  4.000 Error:  2.000                      */
genomestart  64
trait 1 0.13758880872216217 0.0 0.0 0.0 0.0 0.0 0.0 0.23261439317019972 
trait 2 0.2 0.0 0.0 0.0 0.0 0.0 0.0 0.0 
trait 3 0.3 0.0 0.0 0.0 0.0 0.1999730630644102 0.0 0.0 
node 1 1 1 1
node 2 2 1 1
node 3 1 1 3
node 4 1 0 2
node 17 1 0 0
node 59 1 0 0
gene  1 1 4 -1.516142283320527 0 1.0 -1.516142283320527 0
gene  2 2 4 0.35784329853530883 0 2.0 0.35784329853530883 0
gene  3 3 4 1.6663836202837266 0 3.0 1.6663836202837266 1
gene  1 1 17 2.2701823965735084 0 38.0 2.2701823965735084 1
gene  1 17 4 16.878621822745252 0 39.0 16.878621822745252 1
gene  1 2 17 6.431084259670218 0 175.0 6.431084259670218 1
gene  2 2 59 -0.6629937359459821 0 244.0 -0.6629937359459821 1
gene  2 59 4 -11.564459701091414 0 245.0 -11.564459701091414 1
genomeend 64
/*-------------------------------------------------------------------*/
/* Species # 014         : (size= 005) (AvfFit= 6.066) (Age= 31.000)  */
/*-------------------------------------------------------------------*/
/* Organism # 065 Fitness:  4.042 Error:  1.990                      */
genomestart  65
trait 1 0.08007812500000001 0.17845554332741934 0.0 0.0328180214033661 0.0 0.0 0.0 0.0 
trait 2 0.0 0.0 0.02565277538615491 0.20631741608972873 0.0 0.03145693112913451 0.0 0.0 
trait 3 0.3 0.10919279894231783 0.21623721513782546 0.0 0.0 0.6664110019975407 0.15711390022015498 0.06932884160581404 
node 1 2 1 1
node 2 1 1 1
node 3 2 1 3
node 4 1 0 2
node 7 3 0 0
node 34 1 0 0
gene  3 1 4 -7.292127652379431 0 1.0 -7.292127652379431 0
gene  1 2 4 2.2271801162297633 0 2.0 2.2271801162297633 1
gene  3 3 4 -3.1616982791736037 0 3.0 -3.1616982791736037 1
gene  1 1 7 3.5983253860846753 0 8.0 3.5983253860846753 1
gene  2 7 4 6.6062825719147344 0 9.0 6.6062825719147344 1
gene  2 2 7 1.0913083439675746 0 12.0 1.0913083439675746 1
gene  2 3 7 -2.4268414860999643 0 64.0 -2.4268414860999643 1
gene  1 1 34 -0.7214416194050723 0 105.0 -0.7214416194050723 1
gene  1 34 7 -4.056102900455944 0 106.0 -4.056102900455944 1
gene  3 2 34 -3.410210429258448 0 144.0 -3.410210429258448 1
gene  2 34 4 -11.14211888816126 0 235.0 -11.14211888816126 1
genomeend 65
/* Organism # 066 Fitness:  8.999 Error:  1.000                      */
genomestart  66
trait 1 0.08007812500000001 0.17845554332741934 0.0 0.0328180214033661 0.0 0.0 0.0 0.0 
trait 2 0.0 0.0 0.02565277538615491 0.20631741608972873 0.0 0.03145693112913451 0.0 0.0 
trait 3 0.3 0.10919279894231783 0.21623721513782546 0.0 0.0 0.6664110019975407 0.15711390022015498 0.06932884160581404 
node 1 2 1 1
node 2 1 1 1
node 3 1 1 3
node 4 1 0 2
node 7 3 0 0
node 34 1 0 0
gene  1 1 4 -4.990458533726783 0 1.0 -4.990458533726783 0
gene  1 2 4 -1.5268828260583973 0 2.0 -1.5268828260583973 1
gene  3 3 4 -1.3927065230733522 0 3.0 -1.3927065230733522 1
gene  1 1 7 5.679742261288553 0 8.0 5.679742261288553 1
gene  2 7 4 6.483834269292634 0 9.0 6.483834269292634 1
gene  2 2 7 5.4154917229423365 0 12.0 5.4154917229423365 1
gene  2 3 7 0.39564766243160143 0 64.0 0.39564766243160143 1
gene  1 1 34 -0.15033417917965908 0 105.0 -0.15033417917965908 1
gene  1 34 7 -2.974650031222626 0 106.0 -2.974650031222626 1
gene  3 2 34 -4.839959867784438 0 144.0 -4.839959867784438 1
gene  2 34 4 -9.951730872167177 0 235.0 -9.951730872167177 1
genomeend 66
/* Organism # 067 Fitness:  7.288 Error:  1.300                      */
genomestart  67
trait 1 0.08007812500000001 0.17845554332741934 0.0 0.0328180214033661 0.0 0.0 0.0 0.0 
trait 2 0.0 0.0 0.02565277538615491 0.20631741608972873 0.0 0.03145693112913451 0.0 0.0 
trait 3 0.3 0.10919279894231783 0.21623721513782546 0.0 0.0 0.6664110019975407 0.15711390022015498 0.06932884160581404 
node 1 2 1 1
node 2 1 1 1
node 3 2 1 3
node 4 1 0 2
node 7 3 0 0
node 34 1 0 0
gene  3 1 4 -6.81443882539377 0 1.0 -6.81443882539377 0
gene  1 2 4 -0.5554286149457279 0 2.0 -0.5554286149457279 1
gene  3 3 4 -0.5194778756858569 0 3.0 -0.5194778756858569 1
gene  1 1 7 4.3207003945103075 0 8.0 4.3207003945103075 1
gene  2 7 4 0.7181268286586631 0 9.0 0.7181268286586631 1
gene  2 2 7 2.9332595048303545 0 12.0 2.9332595048303545 1
gene  2 3 7 -1.767648352271147 0 64.0 -1.767648352271147 1
gene  1 1 34 -1.2163219836093553 0 105.0 -1.2163219836093553 1
gene  1 34 7 0.02187930030086971 0 106.0 0.02187930030086971 1
gene  3 2 34 -4.0532858550897926 0 144.0 -4.0532858550897926 1
gene  2 34 4 -10.208671454754098 0 235.0 -10.208671454754098 1
genomeend 67
/* Organism # 068 Fitness:  9.000 Error:  1.000                      */
genomestart  68
trait 1 0.08007812500000001 0.17845554332741934 0.0 0.0328180214033661 0.0 0.0 0.0 0.0 
trait 2 0.0 0.0 0.02565277538615491 0.20631741608972873 0.0 0.03145693112913451 0.0 0.0 
trait 3 0.3 0.10919279894231783 0.21623721513782546 0.0 0.0 0.6664110019975407 0.15711390022015498 0.06932884160581404 
node 1 2 1 1
node 2 1 1 1
node 3 2 1 3
node 4 1 0 2
node 7 3 0 0
node 34 1 0 0
gene  3 1 4 -4.178878079061407 0 1.0 -4.178878079061407 0
gene  1 2 4 1.828958768126697 0 2.0 1.828958768126697 1
gene  3 3 4 -1.9082352124595552 0 3.0 -1.9082352124595552 1
gene  1 1 7 2.2820437895574406 0 8.0 2.2820437895574406 1
gene  2 7 4 8.022446371157985 0 9.0 8.022446371157985 1
gene  2 2 7 2.61110495772951 0 12.0 2.61110495772951 1
gene  2 3 7 -1.1275162629792428 0 64.0 -1.1275162629792428 1
gene  1 1 34 -1.4192765564518148 0 105.0 -1.4192765564518148 1
gene  1 34 7 -4.079302733036658 0 106.0 -4.079302733036658 1
gene  3 2 34 -3.8882182921175352 0 144.0 -3.8882182921175352 1
gene  2 34 4 -8.776232098873022 0 235.0 -8.776232098873022 1
genomeend 68
/* Organism # 069 Fitness:  1.000 Error:  3.000                      */
genomestart  69
trait 1 0.08007812500000001 0.17845554332741934 0.0 0.0328180214033661 0.0 0.0 0.0 0.0 
trait 2 0.0 0.0 0.02565277538615491 0.20631741608972873 0.0 0.03145693112913451 0.0 0.0 
trait 3 0.16630367946549257 0.10919279894231783 0.6950553254797139 0.0 0.8903329437785953 0.6664110019975407 0.15711390022015498 0.06932884160581404 
node 1 2 1 1
node 2 1 1 1
node 3 2 1 3
node 4 1 0 2
node 7 3 0 0
node 34 1 0 0
gene  3 1 4 -6.9025110807126575 0 1.0 -6.9025110807126575 0
gene  1 2 4 -1.9982883937931681 0 2.0 -1.9982883937931681 1
gene  3 3 4 -0.7473603323851243 0 3.0 -0.7473603323851243 1
gene  1 1 7 4.310278390298047 0 8.0 4.310278390298047 1
gene  2 7 4 9.228817913113785 0 9.0 9.228817913113785 1
gene  2 2 7 0.6314560308721622 0 12.0 0.6314560308721622 1
gene  2 3 7 1.6428758660224554 0 64.0 1.6428758660224554 1
gene  1 1 34 0.7589993014912431 0 105.0 0.7589993014912431 1
gene  1 34 7 -0.4180332572931551 0 106.0 -0.4180332572931551 1
gene  3 2 34 -3.410210429258448 0 144.0 -3.410210429258448 1
gene  2 34 4 -11.518637096636564 0 235.0 -11.518637096636564 1
genomeend 69
/*-------------------------------------------------------------------*/
/* Species # 016         : (size= 004) (AvfFit= 8.617) (Age= 30.000)  */
/*-------------------------------------------------------------------*/
/* Organism # 070 Fitness:  7.467 Error:  1.267                      */
genomestart  70
trait 1 0.07915039062500001 0.18676597304119621 0.0 0.03434631161577775 0.0 0.01964290855023909 0.0 0.0 
trait 2 0.2325853718784447 0.0 0.02565277538615491 0.039968888842055045 0.0 0.03145693112913451 0.0 0.0 
trait 3 0.3 0.0653502357306296 0.08715683671371535 0.22808661851128836 0.0 0.3452723060109913 0.16840750186746922 0.0 
node 1 2 1 1
node 2 1 1 1
node 3 1 1 3
node 4 3 0 2
node 7 2 0 0
node 36 1 0 0
gene  1 1 4 -1.7895881434307408 0 1.0 -1.7895881434307408 1
gene  2 2 4 -10.780207065921623 0 2.0 -10.780207065921623 1
gene  3 3 4 -4.114466871296283 0 3.0 -4.114466871296283 1
gene  1 1 7 11.651575977449001 0 8.0 11.651575977449001 1
gene  1 7 4 6.108670180821784 0 9.0 6.108670180821784 1
gene  2 2 7 -6.795739037522743 0 12.0 -6.795739037522743 1
gene  3 3 7 -8.245742943902227 0 64.0 -8.245742943902227 1
gene  2 2 36 10.460999878832098 0 114.0 10.460999878832098 1
gene  2 36 4 1.7573419340088892 0 115.0 1.7573419340088892 1
gene  3 3 36 -12.177834016366717 0 424.0 -12.177834016366717 1
genomeend 70
/* Organism # 071 Fitness:  9.000 Error:  1.000                      */
genomestart  71
trait 1 0.07915039062500001 0.18676597304119621 0.0 0.03434631161577775 0.0 0.01964290855023909 0.0 0.0 
trait 2 0.2325853718784447 0.0 0.02565277538615491 0.039968888842055045 0.0 0.03145693112913451 0.0 0.0 
trait 3 0.3 0.0653502357306296 0.08715683671371535 0.22808661851128836 0.0 0.3452723060109913 0.16840750186746922 0.0 
node 1 2 1 1
node 2 1 1 1
node 3 1 1 3
node 4 3 0 2
node 7 2 0 0
node 36 1 0 0
gene  1 1 4 0.09099349370604104 0 1.0 0.09099349370604104 1
gene  2 2 4 -9.507670478874168 0 2.0 -9.507670478874168 1
gene  3 3 4 -6.539810172851485 0 3.0 -6.539810172851485 1
gene  1 1 7 11.694595024921291 0 8.0 11.694595024921291 1
gene  1 7 4 10.757416620340633 0 9.0 10.757416620340633 1
gene  2 2 7 -1.4137400719951456 0 12.0 -1.4137400719951456 1
gene  2 3 7 -9.674336351273597 0 64.0 -9.674336351273597 1
gene  2 2 36 4.95526775256471 0 114.0 4.95526775256471 1
gene  2 36 4 -0.32895456047929295 0 115.0 -0.32895456047929295 1
gene  3 3 36 -9.242049864539824 0 424.0 -9.242049864539824 1
genomeend 71
/* Organism # 072 Fitness:  9.000 Error:  1.000                      */
genomestart  72
trait 1 0.07915039062500001 0.18676597304119621 0.0 0.03434631161577775 0.0 0.01964290855023909 0.0 0.0 
trait 2 0.2325853718784447 0.0 0.02565277538615491 0.039968888842055045 0.0 0.03145693112913451 0.0 0.0 
trait 3 0.3 0.0653502357306296 0.08715683671371535 0.22808661851128836 0.0 0.3452723060109913 0.16840750186746922 0.0 
node 1 2 1 1
node 2 1 1 1
node 3 1 1 3
node 4 3 0 2
node 7 2 0 0
node 36 1 0 0
gene  1 1 4 0.635678485321238 0 1.0 0.635678485321238 1
gene  2 2 4 -8.099392357850794 0 2.0 -8.099392357850794 1
gene  3 3 4 -5.498845096836233 0 3.0 -5.498845096836233 1
gene  1 1 7 10.761820800451137 0 8.0 10.761820800451137 1
gene  1 7 4 12.532350794864122 0 9.0 12.532350794864122 1
gene  2 2 7 -6.238526976823362 0 12.0 -6.238526976823362 1
gene  2 3 7 -8.346778247759046 0 64.0 -8.346778247759046 1
gene  2 2 36 9.556875577738852 0 114.0 9.556875577738852 1
gene  2 36 4 0.1067301161381281 0 115.0 0.1067301161381281 1
gene  3 3 36 -9.941591548732706 0 424.0 -9.941591548732706 1
genomeend 72
/* Organism # 073 Fitness:  9.000 Error:  1.000                      */
genomestart  73
trait 1 0.07915039062500001 0.18676597304119621 0.0 0.03434631161577775 0.0 0.01964290855023909 0.0 0.0 
trait 2 0.2325853718784447 0.0 0.02565277538615491 0.039968888842055045 0.0 0.03145693112913451 0.0 0.0 
trait 3 0.3 0.0653502357306296 0.08715683671371535 0.22808661851128836 0.0 0.3452723060109913 0.16840750186746922 0.0 
node 1 2 1 1
node 2 1 1 1
node 3 1 1 3
node 4 3 0 2
node 7 2 0 0
node 36 1 0 0
gene  1 1 4 0.33665233035062314 0 1.0 0.33665233035062314 1
gene  2 2 4 -11.726182342660474 0 2.0 -11.726182342660474 1
gene  3 3 4 -4.646679828230056 0 3.0 -4.646679828230056 1
gene  1 1 7 10.770737087874183 0 8.0 10.770737087874183 1
gene  1 7 4 15.086695159850624 0 9.0 15.086695159850624 1
gene  2 2 7 -3.966651384169754 0 12.0 -3.966651384169754 1
gene  2 3 7 -9.868770057477827 0 64.0 -9.868770057477827 1
gene  2 2 36 7.154820314181239 0 114.0 7.154820314181239 1
gene  2 36 4 -2.6654343140481513 0 115.0 -2.6654343140481513 1
gene  3 3 36 -9.001603836417715 0 424.0 -9.001603836417715 1
genomeend 73
/*-------------------------------------------------------------------*/
/* Species # 017         : (size= 007) (AvfFit= 8.236) (Age= 29.000)  */
/*-------------------------------------------------------------------*/
/* Organism # 074 Fitness:  9.000 Error:  1.000                      */
genomestart  74
trait 1 0.25367174063112496 0.06792372724096563 0.0 0.19276547629324284 0.0 0.048750027671035825 0.001001516964367476 0.0 
trait 2 0.2 0.0 0.0 0.0 0.0 0.0 0.0 0.0 
trait 3 0.013246439942365629 0.0 0.0 0.0 0.0 0.10132158262737821 0.0865647617141137 0.07354908607405791 
node 1 1 1 1
node 2 3 1 1
node 3 1 1 3
node 4 1 0 2
node 12 2 0 0
node 37 1 0 0
gene  1 1 4 6.680667933403724 0 1.0 6.680667933403724 1
gene  2 2 4 14.614626274569401 0 2.0 14.614626274569401 1
gene  3 3 4 0.6498123014505256 0 3.0 0.6498123014505256 1
gene  1 1 12 1.877222024374868 0 21.0 1.877222024374868 1
gene  1 12 4 -2.323064241013822 0 22.0 -2.323064241013822 1
gene  3 2 12 3.791413997273786 0 36.0 3.791413997273786 1
gene  1 3 12 2.3024558391333096 0 86.0 2.3024558391333096 1
gene  3 1 37 -6.668605960966181 0 117.0 -6.668605960966181 1
gene  1 37 4 -7.68335138536889 0 118.0 -7.68335138536889 1
gene  1 37 12 -0.13369159828795407 0 193.0 -0.13369159828795407 1
gene  1 2 37 -0.07242653821725731 0 259.0 -0.07242653821725731 1
genomeend 74
/* Organism # 075 Fitness:  4.030 Error:  1.993                      */
genomestart  75
trait 1 0.25367174063112496 0.06792372724096563 0.0 0.19276547629324284 0.0 0.048750027671035825 0.001001516964367476 0.0 
trait 2 0.2 0.0 0.0 0.0 0.0 0.0 0.0 0.0 
trait 3 0.0 0.0 0.0 0.790940542598959 0.646679463168441 0.0 0.0865647617141137 0.07354908607405791 
node 1 1 1 1
node 2 3 1 1
node 3 1 1 3
node 4 1 0 2
node 12 2 0 0
node 37 1 0 0
gene  1 1 4 7.664570883172741 0 1.0 7.664570883172741 1
gene  2 2 4 14.614626274569401 0 2.0 14.614626274569401 1
gene  3 3 4 -0.16618470772429583 0 3.0 -0.16618470772429583 1
gene  1 1 12 1.7823286522634627 0 21.0 1.7823286522634627 1
gene  1 12 4 -3.501810582608573 0 22.0 -3.501810582608573 1
gene  3 2 12 3.4875673920078167 0 36.0 3.4875673920078167 1
gene  1 3 12 -2.1038849198873946 0 86.0 -2.1038849198873946 1
gene  3 1 37 0.7202283531488365 0 117.0 0.7202283531488365 1
gene  1 37 4 2.3211511694300184 0 118.0 2.3211511694300184 1
gene  1 37 12 0.13400286345914925 0 193.0 0.13400286345914925 1
gene  1 2 37 -0.5288735376054885 0 259.0 -0.5288735376054885 1
genomeend 75
/* Organism # 076 Fitness:  8.747 Error:  1.042                      */
genomestart  76
trait 1 0.25367174063112496 0.06792372724096563 0.0 0.19276547629324284 0.0 0.048750027671035825 0.001001516964367476 0.0 
trait 2 0.2 0.0 0.0 0.0 0.0 0.0 0.0 0.0 
trait 3 0.013246439942365629 0.0 0.0 0.0 0.0 0.10132158262737821 0.0865647617141137 0.07354908607405791 
node 1 1 1 1
node 2 3 1 1
node 3 1 1 3
node 4 1 0 2
node 12 2 0 0
node 37 3 0 0
gene  1 1 4 7.44700342407063 0 1.0 7.44700342407063 1
gene  2 2 4 15.16498312354208 0 2.0 15.16498312354208 1
gene  3 3 4 1.5188405349954104 0 3.0 1.5188405349954104 1
gene  1 1 12 2.1711060766229573 0 21.0 2.1711060766229573 1
gene  1 12 4 -3.1331911773528955 0 22.0 -3.1331911773528955 1
gene  3 2 12 1.5904865545004063 0 36.0 1.5904865545004063 1
gene  1 3 12 -4.337018038209216 0 86.0 -4.337018038209216 1
gene  3 1 37 -8.612510902166314 0 117.0 -8.612510902166314 1
gene  1 37 4 -4.30383509480086 0 118.0 -4.30383509480086 1
gene  1 37 12 -2.280727067737681 0 193.0 -2.280727067737681 1
gene  1 2 37 0.19443297799837067 0 259.0 0.19443297799837067 1
genomeend 76
/* Organism # 077 Fitness:  8.880 Error:  1.020                      */
genomestart  77
trait 1 0.25367174063112496 0.06792372724096563 0.0 0.19276547629324284 0.0 0.048750027671035825 0.001001516964367476 0.0 
trait 2 0.2 0.0 0.0 0.0 0.0 0.0 0.0 0.0 
trait 3 0.013246439942365629 0.0 0.0 0.0 0.0 0.10132158262737821 0.0865647617141137 0.07354908607405791 
node 1 1 1 1
node 2 3 1 1
node 3 1 1 3
node 4 1 0 2
node 12 2 0 0
node 37 1 0 0
gene  1 1 4 6.157987511065141 0 1.0 6.157987511065141 1
gene  2 2 4 14.767100528435595 0 2.0 14.767100528435595 1
gene  3 3 4 1.8582913497291529 0 3.0 1.8582913497291529 1
gene  1 1 12 -1.066244340681572 0 21.0 -1.066244340681572 1
gene  1 12 4 0.13755367932635743 0 22.0 0.13755367932635743 1
gene  3 2 12 2.972275109107385 0 36.0 2.972275109107385 1
gene  1 3 12 -5.6315573514897785 0 86.0 -5.6315573514897785 1
gene  3 1 37 -6.127777609943232 0 117.0 -6.127777609943232 1
gene  1 37 4 -5.294721194873745 0 118.0 -5.294721194873745 1
gene  1 37 12 -4.321217607506723 0 193.0 -4.321217607506723 1
gene  1 2 37 -0.8666459181996315 0 259.0 -0.8666459181996315 1
genomeend 77
/* Organism # 078 Fitness:  9.000 Error:  1.000                      */
genomestart  78
trait 1 0.25367174063112496 0.06792372724096563 0.0 0.19276547629324284 0.0 0.048750027671035825 0.001001516964367476 0.0 
trait 2 0.2 0.0 0.0 0.0 0.0 0.0 0.0 0.0 
trait 3 0.013246439942365629 0.0 0.0 0.0 0.0 0.10132158262737821 0.0865647617141137 0.07354908607405791 
node 1 1 1 1
node 2 3 1 1
node 3 1 1 3
node 4 1 0 2
node 12 2 0 0
node 37 1 0 0
gene  1 1 4 6.680667933403724 0 1.0 6.680667933403724 1
gene  2 2 4 12.591492121492877 0 2.0 12.591492121492877 1
gene  3 3 4 -0.7288371841532016 0 3.0 -0.7288371841532016 1
gene  1 1 12 1.415260875987249 0 21.0 1.415260875987249 1
gene  1 12 4 -2.6196969221766646 0 22.0 -2.6196969221766646 1
gene  3 2 12 5.463440934465069 0 36.0 5.463440934465069 1
gene  1 3 12 2.3599975458217752 0 86.0 2.3599975458217752 1
gene  3 1 37 -6.135692315596029 0 117.0 -6.135692315596029 1
gene  1 37 4 -7.134080976248933 0 118.0 -7.134080976248933 1
gene  1 37 12 0.43411901019700494 0 193.0 0.43411901019700494 1
gene  1 2 37 -0.07242653821725731 0 259.0 -0.07242653821725731 1
genomeend 78
/* Organism # 079 Fitness:  9.000 Error:  1.000                      */
genomestart  79
trait 1 0.25367174063112496 0.06792372724096563 0.0 0.19276547629324284 0.0 0.048750027671035825 0.001001516964367476 0.0 
trait 2 0.2 0.0 0.0 0.0 0.0 0.0 0.0 0.0 
trait 3 0.013246439942365629 0.0 0.0 0.0 0.0 0.10132158262737821 0.0865647617141137 0.07354908607405791 
node 1 1 1 1
node 2 3 1 1
node 3 1 1 3
node 4 1 0 2
node 12 2 0 0
node 37 1 0 0
gene  1 1 4 4.919358853386306 0 1.0 4.919358853386306 1
gene  2 2 4 16.230171076382305 0 2.0 16.230171076382305 1
gene  3 3 4 2.5317694930741577 0 3.0 2.5317694930741577 1
gene  1 1 12 0.7009999256888086 0 21.0 0.7009999256888086 1
gene  1 12 4 -3.878163411728547 0 22.0 -3.878163411728547 1
gene  3 2 12 2.975142000028435 0 36.0 2.975142000028435 1
gene  1 3 12 4.307282499886278 0 86.0 4.307282499886278 1
gene  3 1 37 -5.687716720482294 0 117.0 -5.687716720482294 1
gene  1 37 4 -7.3963358517394004 0 118.0 -7.3963358517394004 1
gene  1 37 12 2.095492394030396 0 193.0 2.095492394030396 1
gene  1 2 37 -0.3161939176177256 0 259.0 -0.3161939176177256 1
genomeend 79
/* Organism # 080 Fitness:  8.996 Error:  1.001                      */
genomestart  80
trait 1 0.25367174063112496 0.06792372724096563 0.0 0.19276547629324284 0.0 0.048750027671035825 0.001001516964367476 0.0 
trait 2 0.2 0.0 0.0 0.0 0.0 0.0 0.0 0.0 
trait 3 0.013246439942365629 0.0 0.0 0.0 0.0 0.10132158262737821 0.0865647617141137 0.07354908607405791 
node 1 3 1 1
node 2 1 1 1
node 3 1 1 3
node 4 1 0 2
node 12 2 0 0
node 37 1 0 0
node 109 1 0 0
gene  1 1 4 1.0212324651684068 0 1.0 1.0212324651684068 1
gene  2 2 4 10.494627514813821 0 2.0 10.494627514813821 1
gene  3 3 4 1.5638160430121995 0 3.0 1.5638160430121995 1
gene  1 1 12 2.3211952701769496 0 21.0 2.3211952701769496 0
gene  1 12 4 -0.7578483673242138 0 22.0 -0.7578483673242138 1
gene  3 2 12 2.2876608489718993 0 36.0 2.2876608489718993 1
gene  1 3 12 1.929103369827583 0 86.0 1.929103369827583 1
gene  1 1 37 -1.4923685360852863 0 117.0 -1.4923685360852863 1
gene  1 37 4 -4.737702961665765 0 118.0 -4.737702961665765 1
gene  1 37 12 -1.2638740273988736 0 193.0 -1.2638740273988736 1
gene  1 2 37 -2.0053281994922116 0 259.0 -2.0053281994922116 1
gene  3 1 109 -1.569249607200451 0 482.0 -1.569249607200451 1
gene  1 109 12 -0.10701591447079573 0 483.0 -0.10701591447079573 1
genomeend 80
/*-------------------------------------------------------------------*/
/* Species # 018         : (size= 007) (AvfFit= 9.000) (Age= 29.000)  */
/*-------------------------------------------------------------------*/
/* Organism # 081 Fitness:  9.000 Error:  1.000                      */
genomestart  81
trait 1 0.097265625 0.0 0.0 0.0 0.0 0.0 0.0020825923392706423 0.0 
trait 2 0.2 0.002513616858402405 0.0 0.0020379583673929284 0.0 0.0 0.0 0.012330498128105372 
trait 3 0.35167479044603656 0.053450502245217954 0.0 0.031885967900551634 0.0 0.0 0.0 0.05876470826442323 
node 1 2 1 1
node 2 1 1 1
node 3 1 1 3
node 4 1 0 2
gene  2 1 4 17.499269194929283 0 1.0 17.499269194929283 1
gene  2 2 4 17.13468491741247 0 2.0 17.13468491741247 1
gene  3 3 4 -10.1287785208226 0 3.0 -10.1287785208226 1
genomeend 81
/* Organism # 082 Fitness:  9.000 Error:  1.000                      */
genomestart  82
trait 1 0.097265625 0.0 0.0 0.0 0.0 0.0 0.0020825923392706423 0.0 
trait 2 0.2 0.002513616858402405 0.0 0.0020379583673929284 0.0 0.0 0.0 0.012330498128105372 
trait 3 0.35167479044603656 0.053450502245217954 0.0 0.031885967900551634 0.0 0.0 0.0 0.05876470826442323 
node 1 1 1 1
node 2 1 1 1
node 3 1 1 3
node 4 1 0 2
gene  3 1 4 17.300305412824738 0 1.0 17.300305412824738 1
gene  2 2 4 16.23562842422754 0 2.0 16.23562842422754 1
gene  3 3 4 -9.876441209001719 0 3.0 -9.876441209001719 1
genomeend 82
/* Organism # 083 Fitness:  9.000 Error:  1.000                      */
genomestart  83
trait 1 0.097265625 0.0 0.0 0.0 0.0 0.0 0.0020825923392706423 0.0 
trait 2 0.2 0.002513616858402405 0.0 0.0020379583673929284 0.0 0.0 0.0 0.012330498128105372 
trait 3 0.35167479044603656 0.053450502245217954 0.0 0.031885967900551634 0.0 0.0 0.0 0.05876470826442323 
node 1 2 1 1
node 2 1 1 1
node 3 1 1 3
node 4 1 0 2
gene  3 1 4 15.535895693305303 0 1.0 15.535895693305303 1
gene  2 2 4 15.861656081044423 0 2.0 15.861656081044423 1
gene  3 3 4 -10.78988205245438 0 3.0 -10.78988205245438 1
genomeend 83
/* Organism # 084 Fitness:  9.000 Error:  1.000                      */
genomestart  84
trait 1 0.097265625 0.0 0.0 0.0 0.0 0.0 0.0020825923392706423 0.0 
trait 2 0.2 0.002513616858402405 0.0 0.0020379583673929284 0.0 0.0 0.0 0.012330498128105372 
trait 3 0.35167479044603656 0.053450502245217954 0.0 0.031885967900551634 0.0 0.0 0.0 0.05876470826442323 
node 1 2 1 1
node 2 1 1 1
node 3 1 1 3
node 4 1 0 2
gene  2 1 4 16.142923781967088 0 1.0 16.142923781967088 1
gene  2 2 4 15.844438987921839 0 2.0 15.844438987921839 1
gene  3 3 4 -9.110702393463821 0 3.0 -9.110702393463821 1
genomeend 84
/* Organism # 085 Fitness:  9.000 Error:  1.000                      */
genomestart  85
trait 1 0.097265625 0.0 0.0 0.0 0.0 0.0 0.0020825923392706423 0.0 
trait 2 0.2 0.002513616858402405 0.0 0.0020379583673929284 0.0 0.0 0.0 0.012330498128105372 
trait 3 0.35167479044603656 0.053450502245217954 0.0 0.031885967900551634 0.0 0.0 0.0 0.05876470826442323 
node 1 2 1 1
node 2 1 1 1
node 3 1 1 3
node 4 1 0 2
gene  2 1 4 16.41508996219981 0 1.0 16.41508996219981 1
gene  2 2 4 19.054317962383305 0 2.0 19.054317962383305 1
gene  3 3 4 -10.88125029584742 0 3.0 -10.88125029584742 1
genomeend 85
/* Organism # 086 Fitness:  9.000 Error:  1.000                      */
genomestart  86
trait 1 0.097265625 0.0 0.0 0.0 0.0 0.0 0.0020825923392706423 0.0 
trait 2 0.2 0.002513616858402405 0.0 0.0020379583673929284 0.0 0.0 0.0 0.012330498128105372 
trait 3 0.35167479044603656 0.053450502245217954 0.0 0.031885967900551634 0.0 0.0 0.0 0.05876470826442323 
node 1 2 1 1
node 2 1 1 1
node 3 1 1 3
node 4 1 0 2
gene  2 1 4 19.25285539093745 0 1.0 19.25285539093745 1
gene  2 2 4 18.928045497996216 0 2.0 18.928045497996216 1
gene  3 3 4 -10.214986049308493 0 3.0 -10.214986049308493 1
genomeend 86
/* Organism # 087 Fitness:  9.000 Error:  1.000                      */
genomestart  87
trait 1 0.097265625 0.0 0.0 0.0 0.0 0.0 0.0020825923392706423 0.0 
trait 2 0.2 0.002513616858402405 0.0 0.0020379583673929284 0.0 0.0 0.0 0.012330498128105372 
trait 3 0.35167479044603656 0.053450502245217954 0.0 0.031885967900551634 0.0 0.0 0.0 0.05876470826442323 
node 1 2 1 1
node 2 1 1 1
node 3 1 1 3
node 4 1 0 2
gene  2 1 4 17.35255305451478 0 1.0 17.35255305451478 1
gene  2 2 4 17.83710960477398 0 2.0 17.83710960477398 1
gene  3 3 4 -8.415893043164974 0 3.0 -8.415893043164974 1
genomeend 87
/*-------------------------------------------------------------------*/
/* Species # 019         : (size= 004) (AvfFit= 7.754) (Age= 28.000)  */
/*-------------------------------------------------------------------*/
/* Organism # 088 Fitness:  9.000 Error:  1.000                      */
genomestart  88
trait 1 0.0853515625 0.13121731127016129 0.0 0.024130898090710368 0.0 0.0 0.0 0.0 
trait 2 0.0 0.0 0.03420370051487321 0.0 0.0 0.04194257483884601 0.0 0.0 
trait 3 0.3 0.019853236171330516 0.4501264478379223 0.0 0.0 0.6568022356739168 0.028566163676391813 0.41597304963488424 
node 1 2 1 1
node 2 2 1 1
node 3 1 1 3
node 4 1 0 2
node 7 1 0 0
node 37 1 0 0
gene  1 1 4 5.354637350637351 0 1.0 5.354637350637351 1
gene  2 2 4 -4.212233633218721 0 2.0 -4.212233633218721 1
gene  3 3 4 -7.246524094963875 0 3.0 -7.246524094963875 1
gene  1 1 7 6.574720336130762 0 8.0 6.574720336130762 1
gene  1 7 4 6.942717126730813 0 9.0 6.942717126730813 1
gene  2 2 7 -5.5354201107795316 0 12.0 -5.5354201107795316 1
gene  2 3 7 -2.9426835989822933 0 64.0 -2.9426835989822933 1
gene  1 1 37 0.6759072829648847 0 117.0 0.6759072829648847 1
gene  1 37 4 0.6616038724642839 0 118.0 0.6616038724642839 1
gene  3 7 37 -7.6321871241075145 0 155.0 -7.6321871241075145 1
gene  3 3 37 -10.93993788749769 0 167.0 -10.93993788749769 1
gene  3 2 37 -12.113352958247045 0 222.0 -12.113352958247045 1
genomeend 88
/* Organism # 089 Fitness:  9.000 Error:  1.000                      */
genomestart  89
trait 1 0.0853515625 0.13121731127016129 0.0 0.024130898090710368 0.0 0.0 0.0 0.0 
trait 2 0.0 0.0 0.3491651378447591 0.4767100174836586 0.0 0.0 0.0 0.0 
trait 3 0.3 0.019853236171330516 0.4501264478379223 0.0 0.0 0.6568022356739168 0.028566163676391813 0.41597304963488424 
node 1 2 1 1
node 2 2 1 1
node 3 1 1 3
node 4 1 0 2
node 7 1 0 0
node 37 1 0 0
gene  1 1 4 5.354637350637351 0 1.0 5.354637350637351 1
gene  2 2 4 -4.212233633218721 0 2.0 -4.212233633218721 1
gene  3 3 4 -7.246524094963875 0 3.0 -7.246524094963875 1
gene  1 1 7 6.574720336130762 0 8.0 6.574720336130762 1
gene  1 7 4 6.942717126730813 0 9.0 6.942717126730813 1
gene  2 2 7 -5.5354201107795316 0 12.0 -5.5354201107795316 1
gene  2 3 7 -2.9426835989822933 0 64.0 -2.9426835989822933 1
gene  1 1 37 0.6759072829648847 0 117.0 0.6759072829648847 1
gene  1 37 4 0.6616038724642839 0 118.0 0.6616038724642839 1
gene  3 7 37 -7.6321871241075145 0 155.0 -7.6321871241075145 1
gene  3 3 37 -10.93993788749769 0 167.0 -10.93993788749769 1
gene  3 2 37 -12.113352958247045 0 222.0 -12.113352958247045 1
genomeend 89
/* Organism # 090 Fitness:  4.016 Error:  1.996                      */
genomestart  90
trait 1 0.0853515625 0.13121731127016129 0.10724798766856414 0.024130898090710368 0.6262411204924212 0.0 0.0 0.0 
trait 2 0.6241188610372219 0.0 0.03420370051487321 0.0 0.0 0.04194257483884601 0.0 0.46158968862353 
trait 3 0.3 0.019853236171330516 0.4501264478379223 0.0 0.0 0.6568022356739168 0.028566163676391813 0.41597304963488424 
node 1 2 1 1
node 2 2 1 1
node 3 1 1 3
node 4 1 0 2
node 7 1 0 0
node 37 1 0 0
gene  1 1 4 5.108255588648009 0 1.0 5.108255588648009 1
gene  2 2 4 -6.05940224614835 0 2.0 -6.05940224614835 1
gene  3 3 4 -3.283520914572059 0 3.0 -3.283520914572059 1
gene  1 1 7 2.1825596643410865 0 8.0 2.1825596643410865 1
gene  1 7 4 4.5161185530370265 0 9.0 4.5161185530370265 1
gene  2 2 7 -8.317492135858181 0 12.0 -8.317492135858181 1
gene  2 3 7 0.7371896412118066 0 64.0 0.7371896412118066 1
gene  1 1 37 -1.7354452728849186 0 117.0 -1.7354452728849186 1
gene  1 37 4 -0.10178162868977769 0 118.0 -0.10178162868977769 1
gene  3 7 37 -12.922999511625312 0 155.0 -12.922999511625312 1
gene  3 3 37 -10.773593196928655 0 167.0 -10.773593196928655 1
gene  3 2 37 3.8782433337740922 0 222.0 3.8782433337740922 1
genomeend 90
/* Organism # 091 Fitness:  8.998 Error:  1.000                      */
genomestart  91
trait 1 0.0853515625 0.13121731127016129 0.10724798766856414 0.024130898090710368 0.6262411204924212 0.0 0.0 0.0 
trait 2 0.6241188610372219 0.0 0.03420370051487321 0.0 0.0 0.04194257483884601 0.0 0.46158968862353 
trait 3 0.3 0.019853236171330516 0.4501264478379223 0.0 0.0 0.6568022356739168 0.028566163676391813 0.41597304963488424 
node 1 2 1 1
node 2 2 1 1
node 3 1 1 3
node 4 1 0 2
node 7 1 0 0
node 37 1 0 0
gene  1 1 4 8.24401566771066 0 1.0 8.24401566771066 1
gene  2 2 4 -4.779055023420798 0 2.0 -4.779055023420798 1
gene  3 3 4 -5.1072321971302745 0 3.0 -5.1072321971302745 1
gene  1 1 7 4.416752052091622 0 8.0 4.416752052091622 1
gene  1 7 4 5.9656100812779576 0 9.0 5.9656100812779576 1
gene  2 2 7 -7.819134841222939 0 12.0 -7.819134841222939 1
gene  2 3 7 -0.48492920148097585 0 64.0 -0.48492920148097585 1
gene  1 1 37 0.07509731555649307 0 117.0 0.07509731555649307 1
gene  1 37 4 4.0304286503754465 0 118.0 4.0304286503754465 1
gene  3 7 37 -9.829612051884013 0 155.0 -9.829612051884013 1
gene  3 3 37 -11.436502855614625 0 167.0 -11.436502855614625 1
gene  3 2 37 2.165681334808263 0 222.0 2.165681334808263 1
genomeend 91
/*-------------------------------------------------------------------*/
/* Species # 020         : (size= 005) (AvfFit= 5.031) (Age= 28.000)  */
/*-------------------------------------------------------------------*/
/* Organism # 092 Fitness:  6.180 Error:  1.514                      */
genomestart  92
trait 1 0.14499067500466 0.0 0.0 0.0 0.0 0.0 0.005823408060396792 0.01006003169575885 
trait 2 0.2 0.0024218096935489167 0.0 0.0019635241197173683 0.0 0.0 0.0 0.01188013988413175 
trait 3 0.3409167052452883 0.04232273467783251 0.0 0.02524768342137827 0.0 0.0 0.0 0.04653058534202881 
node 1 1 1 1
node 2 1 1 1
node 3 1 1 3
node 4 1 0 2
gene  1 1 4 4.108249747262862 0 1.0 4.108249747262862 1
gene  3 2 4 -6.224735952247914 0 2.0 -6.224735952247914 1
gene  3 3 4 0.011462133481805692 0 3.0 0.011462133481805692 1
genomeend 92
/* Organism # 093 Fitness:  2.018 Error:  2.579                      */
genomestart  93
trait 1 0.14499067500466 0.0 0.0 0.0 0.0 0.0 0.005823408060396792 0.01006003169575885 
trait 2 0.2 0.0024218096935489167 0.0 0.0019635241197173683 0.0 0.0 0.0 0.01188013988413175 
trait 3 0.3409167052452883 0.04232273467783251 0.0 0.02524768342137827 0.0 0.0 0.0 0.04653058534202881 
node 1 1 1 1
node 2 1 1 1
node 3 1 1 3
node 4 1 0 2
gene  1 1 4 7.560196782429235 0 1.0 7.560196782429235 1
gene  3 2 4 -4.633423371511498 0 2.0 -4.633423371511498 1
gene  3 3 4 0.06505699773245499 0 3.0 0.06505699773245499 1
genomeend 93
/* Organism # 094 Fitness:  8.988 Error:  1.002                      */
genomestart  94
trait 1 0.14499067500466 0.0 0.0 0.0 0.0 0.0 0.005823408060396792 0.01006003169575885 
trait 2 0.2 0.0024218096935489167 0.0 0.0019635241197173683 0.0 0.0 0.0 0.01188013988413175 
trait 3 0.3409167052452883 0.04232273467783251 0.0 0.02524768342137827 0.0 0.0 0.0 0.04653058534202881 
node 1 1 1 1
node 2 1 1 1
node 3 1 1 3
node 4 1 0 2
gene  1 1 4 4.338588076989813 0 1.0 4.338588076989813 1
gene  3 2 4 -5.576829491413032 0 2.0 -5.576829491413032 1
gene  3 3 4 -1.2698434539058452 0 3.0 -1.2698434539058452 1
genomeend 94
/* Organism # 095 Fitness:  3.968 Error:  2.008                      */
genomestart  95
trait 1 0.14499067500466 0.0 0.0 0.0 0.0 0.0 0.005823408060396792 0.01006003169575885 
trait 2 0.2 0.0024218096935489167 0.0 0.0019635241197173683 0.0 0.0 0.0 0.01188013988413175 
trait 3 0.3409167052452883 0.04232273467783251 0.0 0.02524768342137827 0.0 0.0 0.0 0.04653058534202881 
node 1 1 1 1
node 2 1 1 1
node 3 1 1 3
node 4 1 0 2
gene  1 1 4 2.7842243675397365 0 1.0 2.7842243675397365 1
gene  3 2 4 -0.006607047905054508 0 2.0 -0.006607047905054508 1
gene  3 3 4 -0.05666109044512896 0 3.0 -0.05666109044512896 1
genomeend 95
/* Organism # 096 Fitness:  4.000 Error:  2.000                      */
genomestart  96
trait 1 0.1 0.0 0.0 0.0 0.0 0.0 0.0 0.0 
trait 2 0.16671272743095383 0.0 0.0 0.0 0.0 0.12556021287145847 0.0 0.011429781640158128 
trait 3 0.33015862004453994 0.03119496711044708 0.0 0.018609398942204904 0.0 0.0 0.0 0.03429646241963438 
node 1 1 1 1
node 2 1 1 1
node 3 1 1 3
node 4 1 0 2
gene  1 1 4 23.18502399358918 0 1.0 23.18502399358918 1
gene  2 2 4 -1.6967938235359947 0 2.0 -1.6967938235359947 1
gene  3 3 4 -2.221623199453219 0 3.0 -2.221623199453219 1
genomeend 96
/*-------------------------------------------------------------------*/
/* Species # 023         : (size= 006) (AvfFit= 6.500) (Age= 26.000)  */
/*-------------------------------------------------------------------*/
/* Organism # 097 Fitness:  9.000 Error:  1.000                      */
genomestart  97
trait 1 0.6244092353419322 0.18676597304119621 0.0 0.0 0.0 0.0 0.2034185616344616 0.26456650164197393 
trait 2 0.2325853718784447 0.0 0.02565277538615491 0.2403165933703809 0.0 0.03145693112913451 0.0 0.0 
trait 3 0.3 0.1307004714612592 0.1743136734274307 0.0 0.0 0.6874777039807156 0.1880605775362461 0.0 
node 1 2 1 1
node 2 1 1 1
node 3 1 1 3
node 4 2 0 2
node 7 2 0 0
node 36 1 0 0
gene  1 1 4 -0.8636218784530483 0 1.0 -0.8636218784530483 0
gene  2 2 4 -0.08689467496621056 0 2.0 -0.08689467496621056 0
gene  3 3 4 4.567287403240639 0 3.0 4.567287403240639 1
gene  1 1 7 0.972519181703087 0 8.0 0.972519181703087 1
gene  1 7 4 -0.15873796316825506 0 9.0 -0.15873796316825506 1
gene  2 2 7 -2.052760778275177 0 12.0 -2.052760778275177 1
gene  1 3 7 -2.3592433694613755 0 64.0 -2.3592433694613755 1
gene  2 2 36 10.176333015485481 0 114.0 10.176333015485481 1
gene  2 36 4 -9.888995800278696 0 115.0 -9.888995800278696 1
gene  3 36 7 3.874224697213715 0 133.0 3.874224697213715 1
gene  2 3 36 4.579499239532044 0 200.0 4.579499239532044 1
gene  1 1 36 -6.503756238977297 0 252.0 -6.503756238977297 1
genomeend 97
/* Organism # 098 Fitness:  4.000 Error:  2.000                      */
genomestart  98
trait 1 1.417219939574007 0.5172499951131682 0.10467984822313259 0.9735457447811596 0.0 0.0 0.9668559539195541 0.0856894996949702 
trait 2 0.2325853718784447 0.0 0.02565277538615491 0.2403165933703809 0.0 0.03145693112913451 0.0 0.0 
trait 3 0.3 0.1307004714612592 0.1743136734274307 0.0 0.0 0.6874777039807156 0.1880605775362461 0.0 
node 1 2 1 1
node 2 1 1 1
node 3 1 1 3
node 4 2 0 2
node 7 2 0 0
node 36 1 0 0
gene  1 1 4 -3.276570692483739 0 1.0 -3.276570692483739 0
gene  2 2 4 -2.3372175121031495 0 2.0 -2.3372175121031495 0
gene  3 3 4 5.327932155231841 0 3.0 5.327932155231841 1
gene  1 1 7 -0.767808549018664 0 8.0 -0.767808549018664 1
gene  1 7 4 2.14032068165515 0 9.0 2.14032068165515 1
gene  2 2 7 -1.234794469864192 0 12.0 -1.234794469864192 1
gene  1 3 7 -1.5023369521813126 0 64.0 -1.5023369521813126 1
gene  2 2 36 11.977345452997119 0 114.0 11.977345452997119 1
gene  2 36 4 -12.352859234337636 0 115.0 -12.352859234337636 1
gene  3 36 7 1.8148892880109084 0 133.0 1.8148892880109084 1
gene  2 3 36 -2.269115059140322 0 200.0 -2.269115059140322 1
gene  1 1 36 -1.3118568533296495 0 252.0 -1.3118568533296495 1
genomeend 98
/* Organism # 099 Fitness:  4.000 Error:  2.000                      */
genomestart  99
trait 1 0.6244092353419322 0.18676597304119621 0.0 0.0 0.0 0.0 0.2034185616344616 0.26456650164197393 
trait 2 0.2325853718784447 0.0 0.02565277538615491 0.2403165933703809 0.0 0.03145693112913451 0.0 0.0 
trait 3 0.3 0.1307004714612592 0.1743136734274307 0.0 0.0 0.6874777039807156 0.1880605775362461 0.0 
node 1 2 1 1
node 2 1 1 1
node 3 1 1 3
node 4 2 0 2
node 7 2 0 0
node 36 1 0 0
gene  1 1 4 0.7441772117184129 0 1.0 0.7441772117184129 0
gene  2 2 4 0.5678293637240437 0 2.0 0.5678293637240437 0
gene  3 3 4 3.260138224580088 0 3.0 3.260138224580088 1
gene  1 1 7 0.13670104864513533 0 8.0 0.13670104864513533 1
gene  1 7 4 -2.29325539369509 0 9.0 -2.29325539369509 1
gene  2 2 7 -2.406874605211665 0 12.0 -2.406874605211665 1
gene  1 3 7 -1.3176894163288035 0 64.0 -1.3176894163288035 1
gene  2 2 36 -0.3312583035878669 0 114.0 -0.3312583035878669 1
gene  2 36 4 2.296914819466129 0 115.0 2.296914819466129 1
gene  3 36 7 0.9993924974298527 0 133.0 0.9993924974298527 1
gene  2 3 36 4.584769410676801 0 200.0 4.584769410676801 1
gene  1 1 36 -5.586819986474454 0 252.0 -5.586819986474454 1
genomeend 99
/* Organism # 100 Fitness:  9.000 Error:  1.000                      */
genomestart  100
trait 1 0.6244092353419322 0.18676597304119621 0.0 0.0 0.0 0.0 0.2034185616344616 0.26456650164197393 
trait 2 0.2325853718784447 0.0 0.02565277538615491 0.2403165933703809 0.0 0.03145693112913451 0.0 0.0 
trait 3 0.3 0.1307004714612592 0.1743136734274307 0.0 0.0 0.6874777039807156 0.1880605775362461 0.0 
node 1 2 1 1
node 2 1 1 1
node 3 2 1 3
node 4 2 0 2
node 7 2 0 0
node 36 1 0 0
gene  1 1 4 -3.7549744355322785 0 1.0 -3.7549744355322785 0
gene  2 2 4 -0.26337135285746305 0 2.0 -0.26337135285746305 0
gene  3 3 4 2.5555226276436858 0 3.0 2.5555226276436858 1
gene  1 1 7 0.023532264366221967 0 8.0 0.023532264366221967 1
gene  1 7 4 2.2482275075943434 0 9.0 2.2482275075943434 1
gene  2 2 7 -2.020651086515465 0 12.0 -2.020651086515465 1
gene  1 3 7 -1.9275598963092921 0 64.0 -1.9275598963092921 1
gene  2 2 36 8.572944202060016 0 114.0 8.572944202060016 1
gene  2 36 4 -7.73567390257052 0 115.0 -7.73567390257052 1
gene  3 36 7 -0.7768611327389525 0 133.0 -0.7768611327389525 1
gene  2 3 36 2.0066018675675634 0 200.0 2.0066018675675634 1
gene  1 1 36 -6.503756238977297 0 252.0 -6.503756238977297 1
genomeend 100
/* Organism # 101 Fitness:  4.000 Error:  2.000                      */
genomestart  101
trait 1 0.6244092353419322 0.18676597304119621 0.0 0.0 0.0 0.0 0.2034185616344616 0.26456650164197393 
trait 2 0.2325853718784447 0.0 0.02565277538615491 0.2403165933703809 0.0 0.03145693112913451 0.0 0.0 
trait 3 0.3 0.1307004714612592 0.1743136734274307 0.0 0.0 0.6874777039807156 0.1880605775362461 0.0 
node 1 2 1 1
node 2 1 1 1
node 3 1 1 3
node 4 2 0 2
node 7 2 0 0
node 36 1 0 0
gene  1 1 4 -4.258265202436147 0 1.0 -4.258265202436147 0
gene  2 2 4 1.1031217878161494 0 2.0 1.1031217878161494 0
gene  3 3 4 3.8778167039265643 0 3.0 3.8778167039265643 1
gene  1 1 7 2.567609964810531 0 8.0 2.567609964810531 1
gene  1 7 4 1.1758232922444076 0 9.0 1.1758232922444076 1
gene  2 2 7 -6.325154359747961 0 12.0 -6.325154359747961 1
gene  1 3 7 -5.801368260813433 0 64.0 -5.801368260813433 1
gene  2 2 36 10.227005719200871 0 114.0 10.227005719200871 1
gene  2 36 4 1.2337036811142774 0 115.0 1.2337036811142774 1
gene  3 36 7 -1.6064506829509175 0 133.0 -1.6064506829509175 1
gene  2 3 36 4.782071071357311 0 200.0 4.782071071357311 1
gene  1 1 36 -5.392656361949969 0 252.0 -5.392656361949969 1
genomeend 101
/* Organism # 102 Fitness:  9.000 Error:  1.000                      */
genomestart  102
trait 1 0.6244092353419322 0.18676597304119621 0.0 0.0 0.0 0.0 0.2034185616344616 0.26456650164197393 
trait 2 0.2325853718784447 0.0 0.02565277538615491 0.2403165933703809 0.0 0.03145693112913451 0.0 0.0 
trait 3 0.3 0.1307004714612592 0.1743136734274307 0.0 0.0 1.0245510201530021 0.1880605775362461 0.08087972583889613 
node 1 2 1 1
node 2 1 1 1
node 3 1 1 3
node 4 2 0 2
node 7 2 0 0
node 36 1 0 0
gene  1 1 4 -2.3446244446071534 0 1.0 -2.3446244446071534 0
gene  2 2 4 2.2457618720570736 0 2.0 2.2457618720570736 0
gene  3 3 4 2.255155212829514 0 3.0 2.255155212829514 1
gene  1 1 7 2.2468954470244156 0 8.0 2.2468954470244156 1
gene  1 7 4 1.1414208313264569 0 9.0 1.1414208313264569 1
gene  2 2 7 0.24929302708986567 0 12.0 0.24929302708986567 1
gene  1 3 7 -2.670598920826123 0 64.0 -2.670598920826123 1
gene  2 2 36 11.547700697474092 0 114.0 11.547700697474092 1
gene  2 36 4 -10.369490607162586 0 115.0 -10.369490607162586 1
gene  3 36 7 3.7777337300345812 0 133.0 3.7777337300345812 1
gene  2 3 36 4.579499239532044 0 200.0 4.579499239532044 1
gene  1 1 36 -8.911814604239261 0 252.0 -8.911814604239261 1
genomeend 102
/*-------------------------------------------------------------------*/
/* Species # 024         : (size= 006) (AvfFit= 5.756) (Age= 26.000)  */
/*-------------------------------------------------------------------*/
/* Organism # 103 Fitness:  14.368 Error:  0.209                      */
/*  $  This organism is WINNER with genome_id  103 Species # 024 $   */
genomestart  103
trait 1 0.1 0.0 0.0 0.0 0.0 0.0 0.0 0.0 
trait 2 0.2 0.0 0.0 0.0 0.0 0.0 0.0 0.0 
