/* Species # 001         : (size= 003) (AvfFit= 9.000) (Age= 68.000)  */
/*-------------------------------------------------------------------*/
/* Organism # 000 Fitness:  9.000 Error:  1.000                      */
genomestart  0
trait 1 0.1 0.8547064134552635 0.0037666697821318483 0.0 0.8618570098948919 0.34187400946385177 0.006918479051791198 0.0 
trait 2 0.2 0.0 0.0 0.05101173960322635 0.0 0.007846789930717466 0.0 0.0 
trait 3 0.3 0.0 0.0 0.2580144752699358 0.6361197515195025 0.0 0.18465139040562362 0.2727261732157803 
node 1 1 1 1
node 2 1 1 1
node 3 1 1 3
node 4 1 0 2
gene  1 1 4 -20.65438004108296 0 1.0 -20.65438004108296 1
gene  2 2 4 23.859934925628075 0 2.0 23.859934925628075 1
gene  2 3 4 -11.392099409438574 0 3.0 -11.392099409438574 1
genomeend 0
/* Organism # 001 Fitness:  9.000 Error:  1.000                      */
genomestart  1
trait 1 0.1 0.8547064134552635 0.0037666697821318483 0.0 0.8618570098948919 0.34187400946385177 0.006918479051791198 0.0 
trait 2 0.2 0.0 0.0 0.05101173960322635 0.0 0.007846789930717466 0.0 0.0 
trait 3 0.3 0.0 0.0 0.2580144752699358 0.6361197515195025 0.0 0.18465139040562362 0.2727261732157803 
node 1 1 1 1
node 2 1 1 1
node 3 1 1 3
node 4 1 0 2
gene  1 1 4 -21.972150632576117 0 1.0 -21.972150632576117 1
gene  2 2 4 22.365664414445202 0 2.0 22.365664414445202 1
gene  2 3 4 -11.275092465265004 0 3.0 -11.275092465265004 1
genomeend 1
/* Organism # 002 Fitness:  9.000 Error:  1.000                      */
genomestart  2
trait 1 0.1 0.8547064134552635 0.0037666697821318483 0.0 0.8618570098948919 0.34187400946385177 0.006918479051791198 0.0 
trait 2 0.2 0.0 0.0 0.05101173960322635 0.0 0.007846789930717466 0.0 0.0 
trait 3 0.3 0.0 0.0 0.2580144752699358 0.6361197515195025 0.0 0.18465139040562362 0.2727261732157803 
node 1 1 1 1
node 2 1 1 1
node 3 1 1 3
node 4 1 0 2
gene  1 1 4 -24.37262540969604 0 1.0 -24.37262540969604 1
gene  2 2 4 20.08325180341523 0 2.0 20.08325180341523 1
gene  2 3 4 -11.898953641222878 0 3.0 -11.898953641222878 1
genomeend 2
/*-------------------------------------------------------------------*/
/* Species # 002         : (size= 004) (AvfFit= 9.000) (Age= 66.000)  */
/*-------------------------------------------------------------------*/
/* Organism # 003 Fitness:  9.000 Error:  1.000                      */
genomestart  3
trait 1 0.1 0.0 0.0 0.0 0.0 0.0 0.0 0.0 
trait 2 0.3386966037068258 0.05166593596237018 0.0 0.07453471633608144 0.0 0.0 0.0 0.10825705328172042 
trait 3 0.3 0.0 0.0 0.0 0.0 0.0 0.0 0.0 
node 1 1 1 1
node 2 1 1 1
node 3 1 1 3
node 4 3 0 2
node 7 3 0 0
gene  1 1 4 -12.637651735432234 0 1.0 -12.637651735432234 1
gene  2 2 4 9.405867623965635 0 2.0 9.405867623965635 1
gene  1 3 4 -1.4590535356250944 0 3.0 -1.4590535356250944 1
gene  1 1 7 14.062177865217926 0 8.0 14.062177865217926 1
gene  1 7 4 -11.76979384788682 0 9.0 -11.76979384788682 1
gene  1 2 7 -13.049097550601566 0 24.0 -13.049097550601566 1
gene  3 3 7 2.28421597584659 0 53.0 2.28421597584659 1
genomeend 3
/* Organism # 004 Fitness:  9.000 Error:  1.000                      */
genomestart  4
trait 1 0.1 0.0 0.0 0.0 0.0 0.0 0.0 0.0 
trait 2 0.3386966037068258 0.05166593596237018 0.0 0.07453471633608144 0.0 0.0 0.0 0.10825705328172042 
trait 3 0.3 0.0 0.0 0.0 0.0 0.0 0.0 0.0 
node 1 1 1 1
node 2 1 1 1
node 3 1 1 3
node 4 3 0 2
node 7 3 0 0
gene  1 1 4 -12.637651735432234 0 1.0 -12.637651735432234 1
gene  2 2 4 9.405867623965635 0 2.0 9.405867623965635 1
gene  1 3 4 -1.4590535356250944 0 3.0 -1.4590535356250944 1
gene  1 1 7 14.062177865217926 0 8.0 14.062177865217926 1
gene  1 7 4 -11.76979384788682 0 9.0 -11.76979384788682 1
gene  1 2 7 -13.049097550601566 0 24.0 -13.049097550601566 1
gene  3 3 7 2.28421597584659 0 53.0 2.28421597584659 1
genomeend 4
/* Organism # 005 Fitness:  9.000 Error:  1.000                      */
genomestart  5
trait 1 0.1 0.0 0.0 0.0 0.0 0.0 0.0 0.0 
trait 2 0.3386966037068258 0.05166593596237018 0.0 0.07453471633608144 0.0 0.0 0.0 0.10825705328172042 
trait 3 0.3 0.0 0.0 0.0 0.0 0.0 0.0 0.0 
node 1 1 1 1
node 2 1 1 1
node 3 1 1 3
node 4 3 0 2
node 7 3 0 0
gene  1 1 4 -14.218864961076028 0 1.0 -14.218864961076028 1
gene  2 2 4 11.8642048103562 0 2.0 11.8642048103562 1
gene  1 3 4 -2.63035829978782 0 3.0 -2.63035829978782 1
gene  1 1 7 11.70180428065008 0 8.0 11.70180428065008 1
gene  1 7 4 -13.551920395053337 0 9.0 -13.551920395053337 1
gene  1 2 7 -14.550534152537756 0 24.0 -14.550534152537756 1
gene  3 3 7 0.7592609687772367 0 53.0 0.7592609687772367 1
genomeend 5
/* Organism # 006 Fitness:  9.000 Error:  1.000                      */
genomestart  6
trait 1 0.1 0.0 0.0 0.0 0.0 0.0 0.0 0.0 
trait 2 0.3386966037068258 0.05166593596237018 0.0 0.07453471633608144 0.0 0.0 0.0 0.10825705328172042 
trait 3 0.3 0.0 0.0 0.0 0.0 0.0 0.0 0.0 
node 1 1 1 1
node 2 1 1 1
node 3 1 1 3
node 4 3 0 2
node 7 3 0 0
gene  1 1 4 -12.50347710132153 0 1.0 -12.50347710132153 1
gene  2 2 4 8.869667208479697 0 2.0 8.869667208479697 1
gene  1 3 4 0.498476534891084 0 3.0 0.498476534891084 1
gene  1 1 7 13.74128897055173 0 8.0 13.74128897055173 1
gene  1 7 4 -10.625107883481217 0 9.0 -10.625107883481217 1
gene  1 2 7 -13.857503717254938 0 24.0 -13.857503717254938 1
gene  3 3 7 1.4990138465163043 0 53.0 1.4990138465163043 1
genomeend 6
/*-------------------------------------------------------------------*/
/* Species # 003         : (size= 002) (AvfFit= 4.187) (Age= 64.000)  */
/*-------------------------------------------------------------------*/
/* Organism # 007 Fitness:  4.011 Error:  1.997                      */
genomestart  7
trait 1 0.1 0.0 0.0 0.0 0.0 0.0 0.0 0.0 
trait 2 0.2 0.8949380476378068 0.0 0.8579370241627875 0.45000406625499134 0.14195893988809405 0.0 0.0 
trait 3 0.3 0.0 0.0 0.0 0.0 0.0 0.0 0.0 
node 1 3 1 1
node 2 1 1 1
node 3 2 1 3
node 4 2 0 2
node 7 2 0 0
node 11 1 0 0
node 208 1 0 0
node 215 1 0 0
node 252 1 0 0
gene  1 1 4 0.49908592148387365 0 1.0 0.49908592148387365 0
gene  3 2 4 7.678814969599001 0 2.0 7.678814969599001 1
gene  3 3 4 -5.202351277511972 0 3.0 -5.202351277511972 1
gene  1 1 7 -7.057001732651004 0 8.0 -7.057001732651004 1
gene  1 7 4 2.718865722644169 0 9.0 2.718865722644169 1
gene  2 2 11 -2.9708459256053006 0 19.0 -2.9708459256053006 1
gene  2 11 4 4.042496068670683 0 20.0 4.042496068670683 1
gene  1 3 11 -3.5725092254764883 0 60.0 -3.5725092254764883 1
gene  1 11 7 -0.3323304201170277 0 102.0 -0.3323304201170277 1
gene  1 3 7 7.252441121537373 0 197.0 7.252441121537373 1
gene  1 1 11 0.657672762994169 0 248.0 0.657672762994169 0
gene  1 2 7 -1.5919889452052185 0 263.0 -1.5919889452052185 1
gene  1 1 208 0.1977116624434201 0 917.0 0.1977116624434201 1
gene  1 208 4 3.4134084999899517 0 918.0 3.4134084999899517 1
gene  3 2 215 -0.036408165419818506 0 942.0 -0.036408165419818506 1
gene  3 215 4 3.9436189115367704 0 943.0 3.9436189115367704 1
gene  1 1 252 1.2699927739916528 0 1123.0 1.2699927739916528 1
gene  1 252 11 4.140225203527556 0 1124.0 4.140225203527556 1
genomeend 7
/* Organism # 008 Fitness:  4.362 Error:  1.911                      */
genomestart  8
trait 1 0.1 0.0 0.0 0.0 0.0 0.0 0.0 0.0 
trait 2 0.2 0.8949380476378068 0.0 0.8579370241627875 0.45000406625499134 0.14195893988809405 0.0 0.0 
trait 3 0.3 0.0 0.0 0.0 0.0 0.0 0.0 0.0 
node 1 3 1 1
node 2 1 1 1
node 3 2 1 3
node 4 2 0 2
node 7 2 0 0
node 11 1 0 0
node 208 1 0 0
node 215 1 0 0
node 252 1 0 0
gene  1 1 4 0.5635147787676407 0 1.0 0.5635147787676407 0
gene  3 2 4 7.678814969599001 0 2.0 7.678814969599001 1
gene  3 3 4 -4.671560041932211 0 3.0 -4.671560041932211 1
gene  1 1 7 -8.973080227271902 0 8.0 -8.973080227271902 1
gene  1 7 4 3.1596737612723835 0 9.0 3.1596737612723835 1
gene  2 2 11 -2.0088406047242313 0 19.0 -2.0088406047242313 1
gene  2 11 4 1.2188424680056835 0 20.0 1.2188424680056835 1
gene  1 3 11 -1.7410528904585796 0 60.0 -1.7410528904585796 1
gene  1 11 7 -1.3375055854964644 0 102.0 -1.3375055854964644 1
gene  1 3 7 -0.315187528458509 0 197.0 -0.315187528458509 1
gene  1 1 11 -2.3304252641657803 0 248.0 -2.3304252641657803 0
gene  1 2 7 1.5586246917667972 0 263.0 1.5586246917667972 1
gene  1 1 208 2.6442741928638176 0 917.0 2.6442741928638176 1
gene  1 208 4 2.4380005536165443 0 918.0 2.4380005536165443 1
gene  3 2 215 1.8901625156148918 0 942.0 1.8901625156148918 1
gene  3 215 4 3.528339378601547 0 943.0 3.528339378601547 1
gene  1 1 252 -0.5275389223949922 0 1123.0 -0.5275389223949922 1
gene  1 252 11 2.7856176048064323 0 1124.0 2.7856176048064323 1
genomeend 8
/*-------------------------------------------------------------------*/
/* Species # 004         : (size= 005) (AvfFit= 8.581) (Age= 63.000)  */
/*-------------------------------------------------------------------*/
/* Organism # 009 Fitness:  4.917 Error:  1.783                      */
genomestart  9
trait 1 0.0 0.0996959996336042 0.0 0.0 0.0 0.17980252092901416 0.0 0.0 
trait 2 0.2 0.0 0.0 0.0 0.0 0.0 0.0 0.0 
trait 3 0.3 0.0 0.0 0.8153466414577913 0.0 0.0 0.0 0.16360210646758178 
node 1 2 1 1
node 2 2 1 1
node 3 1 1 3
node 4 1 0 2
node 7 2 0 0
node 14 1 0 0
node 17 1 0 0
node 28 1 0 0
gene  1 1 4 -5.017493477735511 0 1.0 -5.017493477735511 1
gene  2 2 4 -5.157823213079986 0 2.0 -5.157823213079986 1
gene  3 3 4 -6.719125944015624 0 3.0 -6.719125944015624 1
gene  1 1 7 -1.608703256714281 0 8.0 -1.608703256714281 0
gene  1 7 4 8.079176260416506 0 9.0 8.079176260416506 1
gene  2 1 14 0.5017123189654087 0 27.0 0.5017123189654087 1
gene  1 14 4 3.6819720673136267 0 28.0 3.6819720673136267 1
gene  2 2 17 -0.07699104900705511 0 37.0 -0.07699104900705511 1
gene  2 17 4 5.359968035473921 0 38.0 5.359968035473921 1
gene  2 1 17 -1.5676826092590832 0 54.0 -1.5676826092590832 1
gene  3 1 28 2.1659676024275742 0 78.0 2.1659676024275742 1
gene  1 28 7 5.789464479864424 0 79.0 5.789464479864424 1
gene  3 17 7 -9.063543932953639 0 148.0 -9.063543932953639 1
genomeend 9
/* Organism # 010 Fitness:  8.447 Error:  1.094                      */
genomestart  10
trait 1 0.0 0.0996959996336042 0.0 0.0 0.0 0.17980252092901416 0.0 0.0 
trait 2 0.2 0.0 0.0 0.0 0.0 0.0 0.0 0.0 
trait 3 0.3 0.0 0.0 0.8153466414577913 0.0 0.0 0.0 0.16360210646758178 
node 1 2 1 1
node 2 2 1 1
node 3 1 1 3
node 4 1 0 2
node 7 2 0 0
node 14 1 0 0
node 17 1 0 0
node 28 1 0 0
gene  1 1 4 -0.2562727946928063 0 1.0 -0.2562727946928063 1
gene  2 2 4 -3.768392101581854 0 2.0 -3.768392101581854 1
gene  3 3 4 -2.5236547990997904 0 3.0 -2.5236547990997904 1
gene  1 1 7 -0.9798483102310346 0 8.0 -0.9798483102310346 0
gene  1 7 4 6.083876426358246 0 9.0 6.083876426358246 1
gene  2 1 14 0.24935228879902782 0 27.0 0.24935228879902782 1
gene  1 14 4 1.3403929572790814 0 28.0 1.3403929572790814 1
gene  2 2 17 -2.1268346282990525 0 37.0 -2.1268346282990525 1
gene  2 17 4 0.7474439761277962 0 38.0 0.7474439761277962 1
gene  2 1 17 -0.372252376626677 0 54.0 -0.372252376626677 1
gene  3 1 28 -3.624216711443335 0 78.0 -3.624216711443335 1
gene  1 28 7 7.575721858412874 0 79.0 7.575721858412874 1
gene  3 17 7 -13.818805655280768 0 148.0 -13.818805655280768 1
genomeend 10
/* Organism # 011 Fitness:  15.974 Error:  0.003                      */
/*  $  This organism is WINNER with genome_id  011 Species # 004 $   */
genomestart  11
trait 1 0.0 0.0996959996336042 0.0 0.0 0.0 0.17980252092901416 0.0 0.0 
trait 2 0.2 0.0 0.0 0.0 0.0 0.0 0.0 0.0 
trait 3 0.3 0.0 0.0 0.8153466414577913 0.0 0.0 0.0 0.16360210646758178 
node 1 2 1 1
node 2 2 1 1
node 3 1 1 3
node 4 1 0 2
node 7 2 0 0
node 14 1 0 0
node 17 1 0 0
node 28 1 0 0
gene  1 1 4 -3.0903078916247266 0 1.0 -3.0903078916247266 1
gene  2 2 4 -5.157823213079986 0 2.0 -5.157823213079986 1
gene  3 3 4 -4.859579692417565 0 3.0 -4.859579692417565 1
gene  1 1 7 -0.5740460205813958 0 8.0 -0.5740460205813958 0
gene  1 7 4 10.340168676627634 0 9.0 10.340168676627634 1
gene  2 1 14 -1.329781400174692 0 27.0 -1.329781400174692 1
gene  1 14 4 1.9358757964487059 0 28.0 1.9358757964487059 1
gene  2 2 17 -1.2967406221717095 0 37.0 -1.2967406221717095 1
gene  2 17 4 5.173870234060816 0 38.0 5.173870234060816 1
gene  2 1 17 -1.986216239839802 0 54.0 -1.986216239839802 1
gene  3 1 28 0.9073799414814679 0 78.0 0.9073799414814679 1
gene  1 28 7 3.3463613564081993 0 79.0 3.3463613564081993 1
gene  3 17 7 -9.930042946402299 0 148.0 -9.930042946402299 1
genomeend 11
/* Organism # 012 Fitness:  8.103 Error:  1.153                      */
genomestart  12
trait 1 0.0 0.0996959996336042 0.0 0.0 0.0 0.17980252092901416 0.0 0.0 
trait 2 0.0 0.0 0.0 0.0 0.0 0.4250884990315833 0.0 0.0 
trait 3 0.3 0.0 0.0 0.8153466414577913 0.0 0.0 0.0 0.16360210646758178 
node 1 2 1 1
node 2 2 1 1
node 3 1 1 3
node 4 1 0 2
node 7 2 0 0
node 14 1 0 0
node 17 1 0 0
node 28 1 0 0
gene  1 1 4 1.3305019401377163 0 1.0 1.3305019401377163 1
gene  2 2 4 -5.617391011993274 0 2.0 -5.617391011993274 1
gene  3 3 4 -6.939168497975544 0 3.0 -6.939168497975544 1
gene  1 1 7 -1.0647205178774366 0 8.0 -1.0647205178774366 0
gene  1 7 4 10.126126911732285 0 9.0 10.126126911732285 1
gene  2 1 14 1.4151762154318108 0 27.0 1.4151762154318108 1
gene  1 14 4 3.2351326736079886 0 28.0 3.2351326736079886 1
gene  2 2 17 -0.34432430169608375 0 37.0 -0.34432430169608375 1
gene  2 17 4 -0.5492022167461381 0 38.0 -0.5492022167461381 1
gene  2 1 17 -0.8500694997061695 0 54.0 -0.8500694997061695 1
gene  3 1 28 -1.814284579073339 0 78.0 -1.814284579073339 1
gene  1 28 7 5.240199504462623 0 79.0 5.240199504462623 1
gene  3 17 7 -13.550063242715211 0 148.0 -13.550063242715211 1
genomeend 12
/* Organism # 013 Fitness:  5.466 Error:  1.662                      */
genomestart  13
trait 1 0.0 0.0996959996336042 0.0 0.0 0.0 0.17980252092901416 0.0 0.0 
trait 2 0.2 0.0 0.0 0.0 0.0 0.0 0.0 0.0 
trait 3 0.3 0.0 0.0 0.8153466414577913 0.0 0.0 0.0 0.16360210646758178 
node 1 2 1 1
node 2 2 1 1
node 3 1 1 3
node 4 1 0 2
node 7 2 0 0
node 14 1 0 0
node 17 1 0 0
node 28 1 0 0
gene  1 1 4 0.9598498120257526 0 1.0 0.9598498120257526 1
gene  2 2 4 -6.47562156408108 0 2.0 -6.47562156408108 1
gene  3 3 4 -2.0430511107306204 0 3.0 -2.0430511107306204 1
gene  1 1 7 -2.7752582006603252 0 8.0 -2.7752582006603252 0
gene  1 7 4 6.697400047691786 0 9.0 6.697400047691786 1
gene  2 1 14 -0.16778606227343934 0 27.0 -0.16778606227343934 1
gene  1 14 4 3.3518603730472334 0 28.0 3.3518603730472334 1
gene  2 2 17 -0.07814640255857919 0 37.0 -0.07814640255857919 1
gene  2 17 4 -1.3739139755283385 0 38.0 -1.3739139755283385 1
gene  2 1 17 -0.4747640820819179 0 54.0 -0.4747640820819179 1
gene  3 1 28 -0.9676895950207575 0 78.0 -0.9676895950207575 1
gene  1 28 7 5.605310533735834 0 79.0 5.605310533735834 1
gene  3 17 7 -11.723173673547034 0 148.0 -11.723173673547034 1
genomeend 13
/*-------------------------------------------------------------------*/
/* Species # 005         : (size= 007) (AvfFit= 8.263) (Age= 62.000)  */
/*-------------------------------------------------------------------*/
/* Organism # 014 Fitness:  9.000 Error:  1.000                      */
genomestart  14
trait 1 0.17120803022471798 0.0 0.5086472835778034 0.0 0.0 0.3638895807397792 0.0 0.0 
trait 2 0.2 0.0 0.0 0.090960560818385 0.0 0.0 0.49427861223422004 0.0 
trait 3 0.2983558404368756 0.0 0.0 0.0 0.009562911290708196 0.0 0.0 0.14394152103312102 
node 1 1 1 1
node 2 1 1 1
node 3 1 1 3
node 4 1 0 2
node 17 1 0 0
node 233 1 0 0
gene  1 1 4 6.877681681588929 0 1.0 6.877681681588929 1
gene  2 2 4 16.719437574811973 0 2.0 16.719437574811973 1
gene  3 3 4 -1.532574824192316 0 3.0 -1.532574824192316 1
gene  2 2 17 -3.5776760067236992 0 37.0 -3.5776760067236992 1
gene  2 17 4 -10.46884332555788 0 38.0 -10.46884332555788 1
gene  1 1 17 -7.267371115514347 0 80.0 -7.267371115514347 1
gene  2 3 17 2.335204959198017 0 219.0 2.335204959198017 1
gene  1 1 233 1.1074228330671623 0 1035.0 1.1074228330671623 1
gene  1 233 4 8.403895411182335 0 1036.0 8.403895411182335 1
genomeend 14
/* Organism # 015 Fitness:  9.000 Error:  1.000                      */
genomestart  15
trait 1 0.17120803022471798 0.0 0.5086472835778034 0.0 0.0 0.3638895807397792 0.0 0.0 
trait 2 0.2 0.0 0.0 0.090960560818385 0.0 0.0 0.49427861223422004 0.0 
trait 3 0.2983558404368756 0.0 0.0 0.0 0.009562911290708196 0.0 0.0 0.14394152103312102 
node 1 1 1 1
node 2 1 1 1
node 3 1 1 3
node 4 1 0 2
node 17 1 0 0
node 233 1 0 0
gene  1 1 4 5.669128289487355 0 1.0 5.669128289487355 0
gene  2 2 4 16.083929570348417 0 2.0 16.083929570348417 1
gene  3 3 4 -2.7956046484543036 0 3.0 -2.7956046484543036 1
gene  2 2 17 -4.998067272109934 0 37.0 -4.998067272109934 1
gene  2 17 4 -8.709127711694824 0 38.0 -8.709127711694824 1
gene  1 1 17 -6.877635614567263 0 80.0 -6.877635614567263 1
gene  2 3 17 3.798499865129405 0 219.0 3.798499865129405 1
gene  1 1 233 1.434176679978915 0 1035.0 1.434176679978915 1
gene  1 233 4 8.933324061209966 0 1036.0 8.933324061209966 1
genomeend 15
/* Organism # 016 Fitness:  9.000 Error:  1.000                      */
genomestart  16
trait 1 0.17120803022471798 0.0 0.5086472835778034 0.0 0.0 0.3638895807397792 0.0 0.0 
trait 2 0.2 0.0 0.0 0.090960560818385 0.0 0.0 0.49427861223422004 0.0 
trait 3 0.2983558404368756 0.0 0.0 0.0 0.009562911290708196 0.0 0.0 0.14394152103312102 
node 1 1 1 1
node 2 1 1 1
node 3 1 1 3
node 4 1 0 2
node 17 1 0 0
node 233 1 0 0
gene  1 1 4 6.19772338529683 0 1.0 6.19772338529683 1
gene  2 2 4 16.18421572245151 0 2.0 16.18421572245151 1
gene  3 3 4 0.4335050979336428 0 3.0 0.4335050979336428 1
gene  2 2 17 -0.2740799217628951 0 37.0 -0.2740799217628951 1
gene  3 17 4 -7.640298006000789 0 38.0 -7.640298006000789 1
gene  1 1 17 -6.877635614567263 0 80.0 -6.877635614567263 1
gene  2 3 17 3.798499865129405 0 219.0 3.798499865129405 1
gene  1 1 233 1.434176679978915 0 1035.0 1.434176679978915 1
gene  1 233 4 8.933324061209966 0 1036.0 8.933324061209966 1
genomeend 16
/* Organism # 017 Fitness:  8.841 Error:  1.027                      */
genomestart  17
trait 1 0.17120803022471798 0.0 0.5086472835778034 0.0 0.0 0.3638895807397792 0.0 0.0 
trait 2 0.2 0.0 0.0 0.090960560818385 0.0 0.0 0.49427861223422004 0.0 
trait 3 0.2983558404368756 0.0 0.0 0.0 0.009562911290708196 0.0 0.0 0.14394152103312102 
node 1 1 1 1
node 2 1 1 1
node 3 1 1 3
node 4 1 0 2
node 17 1 0 0
gene  1 1 4 5.5766675286319005 0 1.0 5.5766675286319005 0
gene  2 2 4 16.429989244409796 0 2.0 16.429989244409796 1
gene  3 3 4 0.7305151848376212 0 3.0 0.7305151848376212 1
gene  2 2 17 -3.329517039202962 0 37.0 -3.329517039202962 1
gene  2 17 4 -8.827878797863358 0 38.0 -8.827878797863358 1
gene  1 1 17 -9.60930540912491 0 80.0 -9.60930540912491 1
gene  2 3 17 3.5185067350893564 0 219.0 3.5185067350893564 1
genomeend 17
/* Organism # 018 Fitness:  9.000 Error:  1.000                      */
genomestart  18
trait 1 0.17120803022471798 0.0 0.5086472835778034 0.0 0.0 0.3638895807397792 0.0 0.0 
trait 2 0.2 0.0 0.0 0.090960560818385 0.0 0.0 0.49427861223422004 0.0 
trait 3 0.2983558404368756 0.0 0.0 0.0 0.009562911290708196 0.0 0.0 0.14394152103312102 
node 1 1 1 1
node 2 1 1 1
node 3 1 1 3
node 4 1 0 2
node 17 1 0 0
node 233 1 0 0
gene  1 1 4 5.669128289487355 0 1.0 5.669128289487355 0
gene  2 2 4 16.719437574811973 0 2.0 16.719437574811973 1
gene  3 3 4 -1.532574824192316 0 3.0 -1.532574824192316 1
gene  2 2 17 -3.5776760067236992 0 37.0 -3.5776760067236992 1
gene  2 17 4 -10.46884332555788 0 38.0 -10.46884332555788 1
gene  1 1 17 -6.877635614567263 0 80.0 -6.877635614567263 1
gene  2 3 17 3.798499865129405 0 219.0 3.798499865129405 1
gene  1 1 233 1.1074228330671623 0 1035.0 1.1074228330671623 1
gene  1 233 4 8.933324061209966 0 1036.0 8.933324061209966 1
genomeend 18
/* Organism # 019 Fitness:  4.000 Error:  2.000                      */
genomestart  19
trait 1 0.17120803022471798 0.1450586020961157 0.3795744175286362 0.0 0.0 0.1819447903698896 0.0 0.0 
trait 2 0.2 0.0 0.0 0.090960560818385 0.0 0.0 0.49427861223422004 0.0 
trait 3 0.2983558404368756 0.0 0.0 0.0 0.009562911290708196 0.0 0.0 0.14394152103312102 
node 1 1 1 1
node 2 1 1 1
node 3 1 1 3
node 4 1 0 2
node 17 1 0 0
gene  1 1 4 8.06138403966736 0 1.0 8.06138403966736 0
gene  2 2 4 1.6654587803784602 0 2.0 1.6654587803784602 1
gene  3 3 4 -2.0460597737533073 0 3.0 -2.0460597737533073 1
gene  2 2 17 -2.9443139814899832 0 37.0 -2.9443139814899832 1
gene  2 17 4 -6.876341125801311 0 38.0 -6.876341125801311 1
gene  1 1 17 -10.045884014885218 0 80.0 -10.045884014885218 1
gene  2 3 17 -0.3159384878562052 0 219.0 -0.3159384878562052 1
genomeend 19
/* Organism # 020 Fitness:  9.000 Error:  1.000                      */
genomestart  20
trait 1 0.17120803022471798 0.0 0.5086472835778034 0.0 0.0 0.3638895807397792 0.0 0.0 
trait 2 0.2 0.0 0.0 0.090960560818385 0.0 0.0 0.49427861223422004 0.0 
trait 3 0.2983558404368756 0.0 0.0 0.0 0.009562911290708196 0.0 0.0 0.14394152103312102 
node 1 1 1 1
node 2 1 1 1
node 3 1 1 3
node 4 1 0 2
node 17 1 0 0
gene  1 1 4 6.5377025334428795 0 1.0 6.5377025334428795 1
gene  2 2 4 16.45182664863174 0 2.0 16.45182664863174 1
gene  3 3 4 -0.5495348631293366 0 3.0 -0.5495348631293366 1
gene  2 2 17 -1.925877964243297 0 37.0 -1.925877964243297 1
gene  3 17 4 -8.520155812932316 0 38.0 -8.520155812932316 1
gene  1 1 17 -10.179569879171371 0 80.0 -10.179569879171371 1
gene  2 3 17 2.9425864143680833 0 219.0 2.9425864143680833 1
genomeend 20
/*-------------------------------------------------------------------*/
/* Species # 006         : (size= 005) (AvfFit= 8.054) (Age= 62.000)  */
/*-------------------------------------------------------------------*/
/* Organism # 021 Fitness:  9.000 Error:  1.000                      */
genomestart  21
trait 1 0.1 0.2954401472863858 0.6962051656588925 0.7740980007128802 0.0 0.9601499573111927 0.0 0.0 
trait 2 0.7476831688323962 0.1545554094655182 0.0 0.7628308545096194 0.0 0.46690530368792726 0.055171032298881206 0.0 
trait 3 0.3 0.0 0.0 0.0 0.501051688414251 0.16421972382120997 0.0 0.0 
node 1 2 1 1
node 2 2 1 1
node 3 1 1 3
node 4 1 0 2
node 7 1 0 0
node 14 3 0 0
node 17 1 0 0
node 28 1 0 0
node 48 1 0 0
node 83 2 0 0
node 210 1 0 0
gene  1 1 4 17.056083348796907 0 1.0 17.056083348796907 1
gene  2 2 4 20.950823852552904 0 2.0 20.950823852552904 1
gene  3 3 4 -2.8876501682172075 0 3.0 -2.8876501682172075 1
gene  1 1 7 -0.927145499996971 0 8.0 -0.927145499996971 0
gene  1 7 4 7.264049937937434 0 9.0 7.264049937937434 0
gene  1 1 14 -3.585332372185758 0 27.0 -3.585332372185758 1
gene  1 14 4 -5.240726352653135 0 28.0 -5.240726352653135 1
gene  2 2 17 -4.626289836951136 0 37.0 -4.626289836951136 1
gene  1 17 4 -9.370056336078816 0 38.0 -9.370056336078816 1
gene  2 1 17 -23.355807103708702 0 54.0 -23.355807103708702 1
gene  1 1 28 2.892097829848515 0 78.0 2.892097829848515 1
gene  1 28 7 3.9279784347186966 0 79.0 3.9279784347186966 0
gene  1 1 48 2.761918626792256 0 154.0 2.761918626792256 1
gene  1 48 4 3.8849335116039043 0 155.0 3.8849335116039043 1
gene  3 48 28 -4.437735975881569 0 180.0 -4.437735975881569 1
gene  1 7 83 4.152878763685612 0 344.0 4.152878763685612 1
gene  1 83 4 -3.0590171713124743 0 345.0 -3.0590171713124743 1
gene  1 14 28 -1.540878084109689 0 777.0 -1.540878084109689 1
gene  1 28 210 -2.2574510875837825 0 924.0 -2.2574510875837825 1
gene  1 210 7 2.3501545069113723 0 925.0 2.3501545069113723 1
genomeend 21
/* Organism # 022 Fitness:  9.000 Error:  1.000                      */
genomestart  22
trait 1 0.1 0.2954401472863858 0.6962051656588925 0.7740980007128802 0.0 0.9601499573111927 0.0 0.0 
trait 2 0.7476831688323962 0.1545554094655182 0.0 0.7628308545096194 0.0 0.46690530368792726 0.055171032298881206 0.0 
trait 3 0.3 0.0 0.0 0.0 0.501051688414251 0.16421972382120997 0.0 0.0 
node 1 2 1 1
node 2 2 1 1
node 3 1 1 3
node 4 1 0 2
node 7 1 0 0
node 14 3 0 0
node 17 1 0 0
node 28 1 0 0
node 48 1 0 0
node 83 2 0 0
node 210 1 0 0
gene  1 1 4 13.575910603092044 0 1.0 13.575910603092044 1
gene  2 2 4 22.055349125389583 0 2.0 22.055349125389583 1
gene  3 3 4 -5.351981331119152 0 3.0 -5.351981331119152 1
gene  1 1 7 1.202863036545433 0 8.0 1.202863036545433 0
gene  1 7 4 7.222470417048355 0 9.0 7.222470417048355 0
gene  1 1 14 -4.198128410740021 0 27.0 -4.198128410740021 1
gene  1 14 4 -3.8508616777037235 0 28.0 -3.8508616777037235 1
gene  2 2 17 -4.387771263944397 0 37.0 -4.387771263944397 1
gene  1 17 4 -8.440878277296415 0 38.0 -8.440878277296415 1
gene  2 1 17 -24.328288533182736 0 54.0 -24.328288533182736 1
gene  1 1 28 -0.5082260194306685 0 78.0 -0.5082260194306685 1
gene  1 28 7 2.5489431987433173 0 79.0 2.5489431987433173 0
gene  1 1 48 1.7325744925946194 0 154.0 1.7325744925946194 1
gene  1 48 4 4.493259226433848 0 155.0 4.493259226433848 1
gene  3 48 28 -5.790425169758208 0 180.0 -5.790425169758208 1
gene  1 7 83 0.9061788133885977 0 344.0 0.9061788133885977 1
gene  1 83 4 -3.0765273728964004 0 345.0 -3.0765273728964004 1
gene  1 14 28 0.45750639309072194 0 777.0 0.45750639309072194 1
gene  1 28 210 -3.630627013656851 0 924.0 -3.630627013656851 1
gene  1 210 7 0.48057589146903723 0 925.0 0.48057589146903723 1
genomeend 22
/* Organism # 023 Fitness:  9.000 Error:  1.000                      */
genomestart  23
trait 1 0.1 0.2954401472863858 0.6962051656588925 0.7740980007128802 0.0 0.9601499573111927 0.0 0.0 
trait 2 0.7476831688323962 0.1545554094655182 0.0 0.7628308545096194 0.0 0.46690530368792726 0.055171032298881206 0.0 
trait 3 0.3 0.0 0.0 0.0 0.501051688414251 0.16421972382120997 0.0 0.0 
node 1 2 1 1
node 2 2 1 1
node 3 1 1 3
node 4 1 0 2
node 7 1 0 0
node 14 3 0 0
node 17 1 0 0
node 28 1 0 0
node 48 1 0 0
node 83 2 0 0
node 210 1 0 0
gene  1 1 4 14.962265234249765 0 1.0 14.962265234249765 1
gene  2 2 4 22.456642133761978 0 2.0 22.456642133761978 1
gene  3 3 4 -3.153389966199419 0 3.0 -3.153389966199419 1
gene  1 1 7 -0.4422201727845043 0 8.0 -0.4422201727845043 0
gene  1 7 4 6.346780215021069 0 9.0 6.346780215021069 0
gene  1 1 14 -4.351970507885695 0 27.0 -4.351970507885695 1
gene  1 14 4 -5.912198774835982 0 28.0 -5.912198774835982 1
gene  2 2 17 -5.953531678720983 0 37.0 -5.953531678720983 1
gene  1 17 4 -9.704548823716658 0 38.0 -9.704548823716658 1
gene  2 1 17 -22.777631579924016 0 54.0 -22.777631579924016 1
gene  1 1 28 0.8430662463188063 0 78.0 0.8430662463188063 1
gene  1 28 7 2.0843698026847006 0 79.0 2.0843698026847006 0
gene  1 1 48 3.244364569820166 0 154.0 3.244364569820166 1
gene  1 48 4 5.231370689699414 0 155.0 5.231370689699414 1
gene  3 48 28 -5.072130500175472 0 180.0 -5.072130500175472 1
gene  1 7 83 2.440020380100666 0 344.0 2.440020380100666 1
gene  1 83 4 -2.4031385727514714 0 345.0 -2.4031385727514714 1
gene  1 14 28 0.45750639309072194 0 777.0 0.45750639309072194 1
gene  1 28 210 -1.7508873103978058 0 924.0 -1.7508873103978058 1
gene  1 210 7 2.3501545069113723 0 925.0 2.3501545069113723 1
genomeend 23
/* Organism # 024 Fitness:  4.268 Error:  1.934                      */
genomestart  24
trait 1 0.1 0.2954401472863858 0.6962051656588925 0.7740980007128802 0.0 0.9601499573111927 0.0 0.0 
trait 2 0.7476831688323962 0.1545554094655182 0.0 0.7628308545096194 0.0 0.46690530368792726 0.055171032298881206 0.0 
trait 3 0.3 0.0 0.0 0.0 0.501051688414251 0.16421972382120997 0.0 0.0 
node 1 2 1 1
node 2 2 1 1
node 3 1 1 3
node 4 1 0 2
node 7 1 0 0
node 14 3 0 0
node 17 1 0 0
node 28 1 0 0
node 48 1 0 0
node 83 2 0 0
node 210 1 0 0
gene  1 1 4 16.16249731017036 0 1.0 16.16249731017036 1
gene  2 2 4 22.456642133761978 0 2.0 22.456642133761978 1
gene  3 3 4 0.6537747580411812 0 3.0 0.6537747580411812 1
gene  1 1 7 1.4985861528765496 0 8.0 1.4985861528765496 0
gene  1 7 4 8.753939262134624 0 9.0 8.753939262134624 0
gene  1 1 14 -5.057505747425796 0 27.0 -5.057505747425796 1
gene  1 14 4 -7.016232082089038 0 28.0 -7.016232082089038 1
gene  2 2 17 -3.925938567740919 0 37.0 -3.925938567740919 1
gene  1 17 4 0.12672309698991469 0 38.0 0.12672309698991469 1
gene  2 1 17 -22.97006185376269 0 54.0 -22.97006185376269 1
gene  1 1 28 2.1002580525128396 0 78.0 2.1002580525128396 1
gene  1 28 7 -1.4380258039988736 0 79.0 -1.4380258039988736 0
gene  1 1 48 3.244364569820166 0 154.0 3.244364569820166 1
gene  1 48 4 6.658153498306528 0 155.0 6.658153498306528 1
gene  3 48 28 -5.815684463147748 0 180.0 -5.815684463147748 1
gene  1 7 83 -2.3972626338462626 0 344.0 -2.3972626338462626 1
gene  1 83 4 -1.4129439140127795 0 345.0 -1.4129439140127795 1
gene  1 14 28 1.0173734612378762 0 777.0 1.0173734612378762 1
gene  1 28 210 2.2066622017134065 0 924.0 2.2066622017134065 1
gene  1 210 7 1.2822269056071476 0 925.0 1.2822269056071476 1
genomeend 24
/* Organism # 025 Fitness:  9.000 Error:  1.000                      */
genomestart  25
trait 1 0.1 0.2954401472863858 0.6962051656588925 0.7740980007128802 0.0 0.9601499573111927 0.0 0.0 
trait 2 0.7476831688323962 0.1545554094655182 0.0 0.7628308545096194 0.0 0.46690530368792726 0.055171032298881206 0.0 
trait 3 0.3 0.0 0.0 0.0 0.501051688414251 0.16421972382120997 0.0 0.0 
node 1 2 1 1
node 2 2 1 1
node 3 1 1 3
node 4 1 0 2
node 7 2 0 0
node 14 3 0 0
node 17 1 0 0
node 28 1 0 0
node 48 1 0 0
node 83 2 0 0
node 210 1 0 0
gene  1 1 4 13.183751220565073 0 1.0 13.183751220565073 1
gene  2 2 4 24.500190669449672 0 2.0 24.500190669449672 1
gene  3 3 4 -5.124035644897479 0 3.0 -5.124035644897479 1
gene  1 1 7 0.314063393157743 0 8.0 0.314063393157743 0
gene  1 7 4 8.281692510965657 0 9.0 8.281692510965657 0
gene  1 1 14 -4.351970507885695 0 27.0 -4.351970507885695 1
gene  1 14 4 -8.184141612491409 0 28.0 -8.184141612491409 1
gene  2 2 17 -7.320677196983059 0 37.0 -7.320677196983059 1
gene  1 17 4 0.001159329336603565 0 38.0 0.001159329336603565 1
gene  2 1 17 -23.9629801107699 0 54.0 -23.9629801107699 1
gene  1 1 28 -0.3609154056115058 0 78.0 -0.3609154056115058 1
gene  1 28 7 2.371376883799867 0 79.0 2.371376883799867 0
gene  1 1 48 2.3475462334301564 0 154.0 2.3475462334301564 1
gene  1 48 4 3.497194333722218 0 155.0 3.497194333722218 1
gene  3 48 28 -6.673969001031311 0 180.0 -6.673969001031311 1
gene  1 7 83 2.440020380100666 0 344.0 2.440020380100666 1
gene  1 83 4 -4.413199193505228 0 345.0 -4.413199193505228 1
gene  1 14 28 2.7501138763649813 0 777.0 2.7501138763649813 1
gene  1 28 210 -1.7508873103978058 0 924.0 -1.7508873103978058 1
gene  1 210 7 4.711109011509445 0 925.0 4.711109011509445 1
genomeend 25
/*-------------------------------------------------------------------*/
/* Species # 008         : (size= 003) (AvfFit= 7.332) (Age= 60.000)  */
/*-------------------------------------------------------------------*/
/* Organism # 026 Fitness:  8.995 Error:  1.001                      */
genomestart  26
trait 1 0.38814261839298536 0.0 0.9050006718919018 0.36384170006448224 0.935613007493204 0.0 0.0 0.0 
trait 2 0.0 0.0 0.5929322033646273 0.06819585184899224 0.0 0.0 0.0 0.0 
trait 3 0.3 0.22225896443068605 0.0 0.0 0.0 0.0 0.0 0.0 
node 1 2 1 1
node 2 2 1 1
node 3 1 1 3
node 4 1 0 2
node 7 1 0 0
node 14 2 0 0
node 17 1 0 0
node 26 1 0 0
node 85 1 0 0
node 122 1 0 0
node 138 1 0 0
node 198 1 0 0
node 234 1 0 0
gene  1 1 4 -3.0240484123231317 0 1.0 -3.0240484123231317 1
gene  2 2 4 3.2170378144780267 0 2.0 3.2170378144780267 1
gene  3 3 4 -5.915928663509678 0 3.0 -5.915928663509678 1
gene  1 1 7 2.0198367201368916 0 8.0 2.0198367201368916 1
gene  1 7 4 -2.39377746944797 0 9.0 -2.39377746944797 1
gene  1 1 14 4.014137689674425 0 27.0 4.014137689674425 1
gene  1 14 4 -16.845804377892556 0 28.0 -16.845804377892556 1
gene  2 2 17 5.779561930635155 0 37.0 5.779561930635155 1
gene  2 17 4 16.783091027823442 0 38.0 16.783091027823442 1
gene  3 17 7 1.297575235911792 0 58.0 1.297575235911792 0
gene  2 2 26 3.688483420951516 0 72.0 3.688483420951516 1
gene  2 26 4 6.276834114832145 0 73.0 6.276834114832145 1
gene  2 1 26 -3.8453779288715992 0 173.0 -3.8453779288715992 1
gene  2 1 17 -3.361001646184522 0 237.0 -3.361001646184522 0
gene  1 2 7 -4.309602041832232 0 302.0 -4.309602041832232 1
gene  1 2 85 7.53328825654923 0 352.0 7.53328825654923 1
gene  1 85 7 2.4830977488221393 0 353.0 2.4830977488221393 1
gene  1 3 85 -3.6157460963168573 0 446.0 -3.6157460963168573 1
gene  1 17 122 1.9987479487108346 0 547.0 1.9987479487108346 1
gene  3 122 7 0.8906338291030602 0 548.0 0.8906338291030602 1
gene  3 14 122 0.56093355423831 0 585.0 0.56093355423831 1
gene  1 7 138 -9.20081316185042 0 609.0 -9.20081316185042 1
gene  2 138 4 2.1583946595809635 0 610.0 2.1583946595809635 1
gene  2 1 198 1.1307029182393373 0 873.0 1.1307029182393373 1
gene  2 198 17 -4.9116521215760045 0 874.0 -4.9116521215760045 1
gene  2 2 234 1.7192036706759057 0 1038.0 1.7192036706759057 1
gene  2 234 26 4.648937453707758 0 1039.0 4.648937453707758 1
gene  2 3 122 -4.092657969080155 0 1084.0 -4.092657969080155 1
genomeend 26
/* Organism # 027 Fitness:  4.000 Error:  2.000                      */
genomestart  27
trait 1 0.38814261839298536 0.0 0.9050006718919018 0.36384170006448224 0.935613007493204 0.0 0.0 0.0 
trait 2 0.0 0.0 0.5929322033646273 0.06819585184899224 0.0 0.0 0.0 0.0 
trait 3 0.3 0.22225896443068605 0.0 0.0 0.0 0.0 0.0 0.0 
node 1 2 1 1
node 2 2 1 1
node 3 1 1 3
node 4 1 0 2
node 7 1 0 0
node 14 1 0 0
node 17 1 0 0
node 26 1 0 0
node 85 1 0 0
node 122 1 0 0
node 138 1 0 0
node 198 1 0 0
node 234 1 0 0
gene  1 1 4 1.5368326171877653 0 1.0 1.5368326171877653 1
gene  2 2 4 -1.792211295353566 0 2.0 -1.792211295353566 1
gene  3 3 4 -10.717589237212788 0 3.0 -10.717589237212788 1
gene  1 1 7 3.23480089983852 0 8.0 3.23480089983852 1
gene  1 7 4 2.9630095821345765 0 9.0 2.9630095821345765 0
gene  1 1 14 0.5946338656267219 0 27.0 0.5946338656267219 1
gene  1 14 4 -12.636536902382566 0 28.0 -12.636536902382566 1
gene  2 2 17 2.792957805665752 0 37.0 2.792957805665752 1
gene  2 17 4 17.87321320530532 0 38.0 17.87321320530532 1
gene  3 17 7 3.554613208099087 0 58.0 3.554613208099087 0
gene  2 2 26 2.7375996253453523 0 72.0 2.7375996253453523 1
gene  2 26 4 9.439578450046858 0 73.0 9.439578450046858 1
gene  2 1 26 -5.455716607725525 0 173.0 -5.455716607725525 1
gene  2 1 17 -2.595623793637396 0 237.0 -2.595623793637396 0
gene  1 2 7 -9.035871217285628 0 302.0 -9.035871217285628 1
gene  1 2 85 10.497538908141365 0 352.0 10.497538908141365 1
gene  1 85 7 0.40516261742159715 0 353.0 0.40516261742159715 1
gene  1 3 85 -8.672882752745057 0 446.0 -8.672882752745057 1
gene  1 17 122 -0.2422269657216547 0 547.0 -0.2422269657216547 1
gene  3 122 7 0.6887584225324486 0 548.0 0.6887584225324486 1
gene  3 14 122 1.3879749351924389 0 585.0 1.3879749351924389 1
gene  1 7 138 -12.050698012118797 0 609.0 -12.050698012118797 1
gene  2 138 4 2.2847402650020663 0 610.0 2.2847402650020663 1
gene  2 1 198 4.897781356794857 0 873.0 4.897781356794857 1
gene  2 198 17 -7.039343367594489 0 874.0 -7.039343367594489 1
gene  2 2 234 0.8900948669208466 0 1038.0 0.8900948669208466 1
gene  2 234 26 -1.4464405098873254 0 1039.0 -1.4464405098873254 1
gene  3 14 7 0.27619467551422305 0 1083.0 0.27619467551422305 1
genomeend 27
/* Organism # 028 Fitness:  9.000 Error:  1.000                      */
genomestart  28
trait 1 0.38814261839298536 0.0 0.9050006718919018 0.36384170006448224 0.935613007493204 0.0 0.0 0.0 
trait 2 0.0 0.0 0.5929322033646273 0.06819585184899224 0.0 0.0 0.0 0.0 
trait 3 0.3 0.22225896443068605 0.0 0.0 0.0 0.0 0.0 0.0 
node 1 2 1 1
node 2 2 1 1
node 3 1 1 3
node 4 1 0 2
node 7 1 0 0
node 14 1 0 0
node 17 1 0 0
node 26 1 0 0
node 85 1 0 0
node 122 1 0 0
node 138 1 0 0
node 198 1 0 0
node 234 1 0 0
gene  1 1 4 -1.1433385606934516 0 1.0 -1.1433385606934516 1
gene  2 2 4 1.027370730109229 0 2.0 1.027370730109229 1
gene  3 3 4 -8.369754955232894 0 3.0 -8.369754955232894 1
gene  1 1 7 4.0575574706687245 0 8.0 4.0575574706687245 1
gene  1 7 4 -1.903492503127173 0 9.0 -1.903492503127173 1
gene  1 1 14 2.728551188928267 0 27.0 2.728551188928267 1
gene  1 14 4 -14.825875097123841 0 28.0 -14.825875097123841 1
gene  2 2 17 4.539586442212627 0 37.0 4.539586442212627 1
gene  2 17 4 15.822196324682626 0 38.0 15.822196324682626 1
gene  3 17 7 3.5015251062070445 0 58.0 3.5015251062070445 0
gene  2 2 26 3.29682316680614 0 72.0 3.29682316680614 1
gene  2 26 4 7.85879496414465 0 73.0 7.85879496414465 1
gene  2 1 26 -4.025750364812868 0 173.0 -4.025750364812868 1
gene  2 1 17 -4.778324062990309 0 237.0 -4.778324062990309 0
gene  1 2 7 -4.819442988327367 0 302.0 -4.819442988327367 1
gene  1 2 85 8.255248187957154 0 352.0 8.255248187957154 1
gene  1 85 7 0.16299809869501125 0 353.0 0.16299809869501125 1
gene  1 3 85 -5.995191778211534 0 446.0 -5.995191778211534 1
gene  1 17 122 1.5741034388215684 0 547.0 1.5741034388215684 1
gene  3 122 7 2.030144060501676 0 548.0 2.030144060501676 1
gene  3 14 122 -0.008459292597865486 0 585.0 -0.008459292597865486 1
gene  1 7 138 -9.480805970082452 0 609.0 -9.480805970082452 1
gene  2 138 4 2.780758465460238 0 610.0 2.780758465460238 1
gene  2 1 198 2.6593391328976694 0 873.0 2.6593391328976694 1
gene  2 198 17 -7.039343367594489 0 874.0 -7.039343367594489 1
gene  2 2 234 1.7192036706759057 0 1038.0 1.7192036706759057 1
gene  2 234 26 4.648937453707758 0 1039.0 4.648937453707758 1
gene  2 3 122 -4.092657969080155 0 1084.0 -4.092657969080155 1
genomeend 28
/*-------------------------------------------------------------------*/
/* Species # 009         : (size= 003) (AvfFit= 7.333) (Age= 60.000)  */
/*-------------------------------------------------------------------*/
/* Organism # 029 Fitness:  9.000 Error:  1.000                      */
genomestart  29
trait 1 0.07500000000000001 0.2072284296513441 0.0 0.0 0.0 0.0 0.0 0.0 
trait 2 0.2 0.0 0.0 0.0 0.0 0.0 0.0 0.0 
trait 3 0.3 0.475715308707353 0.23456319870909614 0.35145865708632473 0.0 0.0 0.0 0.0 
node 1 2 1 1
node 2 2 1 1
node 3 3 1 3
node 4 1 0 2
node 7 2 0 0
node 14 1 0 0
node 26 1 0 0
node 99 2 0 0
node 152 1 0 0
node 223 1 0 0
gene  1 1 4 -1.529716091066359 0 1.0 -1.529716091066359 0
gene  2 2 4 -3.1973366471701414 0 2.0 -3.1973366471701414 1
gene  3 3 4 -8.787339452827911 0 3.0 -8.787339452827911 1
gene  1 1 7 2.379758487183869 0 8.0 2.379758487183869 0
gene  1 7 4 -1.9715944996298407 0 9.0 -1.9715944996298407 0
gene  1 1 14 2.045774575538331 0 27.0 2.045774575538331 1
gene  1 14 4 -1.8572617005652656 0 28.0 -1.8572617005652656 1
gene  1 3 7 3.5672664968312904 0 53.0 3.5672664968312904 1
gene  2 2 26 6.4242803158502975 0 72.0 6.4242803158502975 1
gene  2 26 4 15.551978214290541 0 73.0 15.551978214290541 1
gene  1 1 26 3.713426349830532 0 93.0 3.713426349830532 1
gene  1 3 14 4.768323625596357 0 199.0 4.768323625596357 1
gene  1 7 99 -3.586689743740328 0 409.0 -3.586689743740328 1
gene  1 99 4 -0.8671282686361015 0 410.0 -0.8671282686361015 1
gene  1 2 99 3.0819465908450616 0 626.0 3.0819465908450616 0
gene  1 2 152 3.112323452020052 0 664.0 3.112323452020052 0
gene  1 152 99 0.3772675439477142 0 665.0 0.3772675439477142 1
gene  3 14 152 -0.5267842018880062 0 760.0 -0.5267842018880062 1
gene  1 99 26 -1.0675598319250013 0 844.0 -1.0675598319250013 1
gene  1 2 223 2.1266002092910448 0 976.0 2.1266002092910448 1
gene  1 223 152 -0.9030115165991803 0 977.0 -0.9030115165991803 1
genomeend 29
/* Organism # 030 Fitness:  8.999 Error:  1.000                      */
genomestart  30
trait 1 0.07500000000000001 0.2072284296513441 0.0 0.0 0.0 0.0 0.0 0.0 
trait 2 0.2 0.0 0.0 0.0 0.0 0.0 0.0 0.0 
trait 3 0.3 0.475715308707353 0.23456319870909614 0.35145865708632473 0.0 0.0 0.0 0.0 
node 1 2 1 1
node 2 2 1 1
node 3 3 1 3
node 4 1 0 2
node 7 2 0 0
node 14 1 0 0
node 26 1 0 0
node 99 2 0 0
node 152 1 0 0
node 223 1 0 0
gene  1 1 4 -2.879187916923851 0 1.0 -2.879187916923851 0
gene  2 2 4 -3.830586734388206 0 2.0 -3.830586734388206 0
gene  3 3 4 -11.220711788493624 0 3.0 -11.220711788493624 1
gene  1 1 7 2.04621838640536 0 8.0 2.04621838640536 0
gene  1 7 4 -1.8843544530863345 0 9.0 -1.8843544530863345 0
gene  1 1 14 -0.24404142158100095 0 27.0 -0.24404142158100095 1
gene  1 14 4 -2.6451918120615625 0 28.0 -2.6451918120615625 1
gene  1 3 7 4.464798060463377 0 53.0 4.464798060463377 1
gene  2 2 26 8.825412974947472 0 72.0 8.825412974947472 1
gene  2 26 4 15.551978214290541 0 73.0 15.551978214290541 1
gene  1 1 26 3.713426349830532 0 93.0 3.713426349830532 1
gene  1 3 14 5.319353547510315 0 199.0 5.319353547510315 1
gene  1 7 99 -1.4964315703754796 0 409.0 -1.4964315703754796 1
gene  1 99 4 0.46759991558071445 0 410.0 0.46759991558071445 1
gene  1 2 99 3.4618088285954034 0 626.0 3.4618088285954034 0
gene  1 2 152 5.216308822390669 0 664.0 5.216308822390669 0
gene  1 152 99 0.09624195276547509 0 665.0 0.09624195276547509 1
gene  3 14 152 -2.6232235338966134 0 760.0 -2.6232235338966134 1
gene  1 99 26 -3.148886227831376 0 844.0 -3.148886227831376 1
gene  1 2 223 0.5802097585991013 0 976.0 0.5802097585991013 1
gene  1 223 152 -2.4347670969970423 0 977.0 -2.4347670969970423 1
genomeend 30
/* Organism # 031 Fitness:  4.000 Error:  2.000                      */
genomestart  31
trait 1 0.07500000000000001 0.2072284296513441 0.0 0.0 0.0 0.0 0.0 0.0 
trait 2 0.2 0.0 0.0 0.0 0.0 0.0 0.0 0.0 
trait 3 0.3 0.475715308707353 0.23456319870909614 0.35145865708632473 0.0 0.0 0.0 0.0 
node 1 2 1 1
node 2 2 1 1
node 3 3 1 3
node 4 1 0 2
node 7 2 0 0
node 14 1 0 0
node 26 1 0 0
node 99 2 0 0
node 152 1 0 0
node 223 1 0 0
gene  1 1 4 -2.0879025962861055 0 1.0 -2.0879025962861055 0
gene  2 2 4 -4.560247516907435 0 2.0 -4.560247516907435 0
gene  3 3 4 -9.030037978799516 0 3.0 -9.030037978799516 1
gene  1 1 7 -1.0841149487886304 0 8.0 -1.0841149487886304 0
gene  1 7 4 0.04929641346894753 0 9.0 0.04929641346894753 0
gene  1 1 14 0.3960449118049285 0 27.0 0.3960449118049285 1
gene  1 14 4 -2.847597464550124 0 28.0 -2.847597464550124 1
gene  1 3 7 5.669306750707127 0 53.0 5.669306750707127 1
gene  2 2 26 0.312212911342159 0 72.0 0.312212911342159 1
gene  2 26 4 16.957319917187974 0 73.0 16.957319917187974 1
gene  1 1 26 5.369012335348743 0 93.0 5.369012335348743 1
gene  1 3 14 2.922174041348366 0 199.0 2.922174041348366 1
gene  1 7 99 1.3453855569539994 0 409.0 1.3453855569539994 1
gene  1 99 4 -2.2352084987220175 0 410.0 -2.2352084987220175 1
gene  1 2 99 0.9666442147046284 0 626.0 0.9666442147046284 0
gene  1 2 152 3.186389944431988 0 664.0 3.186389944431988 0
gene  1 152 99 2.577368561179419 0 665.0 2.577368561179419 1
gene  3 14 152 0.8897002305761975 0 760.0 0.8897002305761975 1
gene  1 99 26 1.1587483098219378 0 844.0 1.1587483098219378 1
gene  1 2 223 0.3183240366985116 0 976.0 0.3183240366985116 1
gene  1 223 152 -1.9615288081931042 0 977.0 -1.9615288081931042 1
genomeend 31
/*-------------------------------------------------------------------*/
/* Species # 010         : (size= 001) (AvfFit= 3.946) (Age= 59.000)  */
/*-------------------------------------------------------------------*/
/* Organism # 032 Fitness:  3.946 Error:  2.014                      */
genomestart  32
trait 1 0.4266621292976458 0.397693221678857 0.0 0.0 0.0 0.8650077948916453 0.0 0.0 
trait 2 0.2 0.0 0.1885750971657665 0.0 0.0 0.0 0.0 0.016297946705203927 
trait 3 0.4412592127680745 0.0 0.0 0.0 0.0 0.0 0.10872669075621844 0.27272807340066474 
node 1 1 1 1
node 2 1 1 1
node 3 1 1 3
node 4 1 0 2
node 7 2 0 0
node 11 1 0 0
node 31 2 0 0
node 200 1 0 0
gene  1 1 4 -12.791522584408675 0 1.0 -12.791522584408675 1
gene  2 2 4 -4.310435907906265 0 2.0 -4.310435907906265 1
gene  3 3 4 -0.9145555713891933 0 3.0 -0.9145555713891933 1
gene  2 1 7 11.308263459875834 0 8.0 11.308263459875834 1
gene  1 7 4 -2.17909612713749 0 9.0 -2.17909612713749 1
gene  2 2 11 1.1196511760343557 0 19.0 1.1196511760343557 1
gene  2 11 4 23.489017673564348 0 20.0 23.489017673564348 1
gene  1 3 11 -7.825524659252359 0 60.0 -7.825524659252359 1
gene  3 1 31 0.6910515534079888 0 88.0 0.6910515534079888 0
gene  1 31 7 -1.8075520018265476 0 89.0 -1.8075520018265476 1
gene  1 1 11 0.21060993934138916 0 118.0 0.21060993934138916 1
gene  1 31 11 1.3036196952726526 0 156.0 1.3036196952726526 1
gene  3 2 31 -1.396907416042616 0 212.0 -1.396907416042616 1
gene  3 11 7 -1.6134212032761461 0 323.0 -1.6134212032761461 1
gene  3 31 4 0.04851827780490936 0 679.0 0.04851827780490936 1
gene  1 2 7 -3.201877301368447 0 804.0 -3.201877301368447 1
gene  1 1 200 -1.7986433336536511 0 885.0 -1.7986433336536511 1
gene  3 200 31 2.3935349158918555 0 886.0 2.3935349158918555 1
gene  1 3 31 -0.7000490890713159 0 988.0 -0.7000490890713159 1
genomeend 32
/*-------------------------------------------------------------------*/
/* Species # 011         : (size= 002) (AvfFit= 5.628) (Age= 58.000)  */
/*-------------------------------------------------------------------*/
/* Organism # 033 Fitness:  3.740 Error:  2.066                      */
genomestart  33
trait 1 0.1 0.40076632396076184 0.0 0.0 0.055398074479255544 0.0 0.0 0.0 
trait 2 0.09375 0.38009042412031013 0.0 0.03312654059381397 0.0 0.35037266087219354 0.0 0.0 
trait 3 0.18922734668377778 0.0 0.0 0.0 0.0 0.0 0.0 0.29941432001084967 
node 1 1 1 1
node 2 2 1 1
node 3 1 1 3
node 4 1 0 2
node 7 2 0 0
node 14 1 0 0
node 34 1 0 0
node 39 1 0 0
node 197 1 0 0
gene  1 1 4 0.7741046596111476 0 1.0 0.7741046596111476 0
gene  2 2 4 -1.3490619042248162 0 2.0 -1.3490619042248162 1
gene  3 3 4 -0.11187279121941357 0 3.0 -0.11187279121941357 1
gene  1 1 7 2.230249625135517 0 8.0 2.230249625135517 1
gene  1 7 4 -1.1519819815453394 0 9.0 -1.1519819815453394 1
gene  1 1 14 6.192133266651932 0 27.0 6.192133266651932 1
gene  1 14 4 1.8095650208317047 0 28.0 1.8095650208317047 1
gene  2 2 34 -0.27400351213810653 0 97.0 -0.27400351213810653 1
gene  2 34 4 -1.7131697996103008 0 98.0 -1.7131697996103008 1
gene  1 7 39 -8.028423709001432 0 121.0 -8.028423709001432 1
gene  1 39 4 -1.0265578366840074 0 122.0 -1.0265578366840074 1
gene  2 14 39 -1.9238172608796664 0 262.0 -1.9238172608796664 1
gene  3 1 34 -1.3022592456088251 0 805.0 -1.3022592456088251 1
gene  3 1 197 2.9635830233838036 0 870.0 2.9635830233838036 1
gene  1 197 4 4.038504556163433 0 871.0 4.038504556163433 1
gene  3 39 34 -7.989082909865182 0 983.0 -7.989082909865182 1
genomeend 33
/* Organism # 034 Fitness:  7.516 Error:  1.258                      */
genomestart  34
trait 1 0.1 0.40076632396076184 0.0 0.0 0.055398074479255544 0.0 0.0 0.0 
trait 2 0.09375 0.38009042412031013 0.0 0.03312654059381397 0.0 0.35037266087219354 0.0 0.0 
trait 3 0.18922734668377778 0.0 0.0 0.0 0.0 0.0 0.0 0.29941432001084967 
node 1 1 1 1
node 2 2 1 1
node 3 1 1 3
node 4 1 0 2
node 7 2 0 0
node 14 1 0 0
node 34 1 0 0
node 39 1 0 0
node 197 1 0 0
gene  1 1 4 10.292925202553244 0 1.0 10.292925202553244 0
gene  2 2 4 0.35986631683415093 0 2.0 0.35986631683415093 1
gene  3 3 4 -0.003582579271873998 0 3.0 -0.003582579271873998 1
gene  1 1 7 0.6157552865185006 0 8.0 0.6157552865185006 1
gene  1 7 4 -1.0064079818758158 0 9.0 -1.0064079818758158 1
gene  1 1 14 4.217786979630767 0 27.0 4.217786979630767 1
gene  1 14 4 -2.4643073888797837 0 28.0 -2.4643073888797837 1
gene  2 2 34 0.38606016588154835 0 97.0 0.38606016588154835 1
gene  2 34 4 2.162785156828106 0 98.0 2.162785156828106 1
gene  1 7 39 -6.935111581443817 0 121.0 -6.935111581443817 1
gene  1 39 4 -2.2130062332717957 0 122.0 -2.2130062332717957 1
gene  2 14 39 2.993226560302346 0 262.0 2.993226560302346 1
gene  3 1 34 -1.921699102815714 0 805.0 -1.921699102815714 1
gene  3 1 197 4.324764351953249 0 870.0 4.324764351953249 1
gene  1 197 4 1.8679852202644367 0 871.0 1.8679852202644367 1
gene  3 39 34 -5.874537441935871 0 983.0 -5.874537441935871 1
gene  1 197 7 5.869497127843405 0 1147.0 5.869497127843405 1
genomeend 34
/*-------------------------------------------------------------------*/
/* Species # 012         : (size= 002) (AvfFit= 6.618) (Age= 58.000)  */
/*-------------------------------------------------------------------*/
/* Organism # 035 Fitness:  5.872 Error:  1.577                      */
genomestart  35
trait 1 0.1 0.7607114810711857 0.0 0.0 0.9892163601020136 0.0 0.0 0.12192827250494745 
trait 2 0.0 0.33186038878118196 0.0 0.8604416000966132 0.34093378625424464 0.6058847818742431 0.3636127739504704 0.0 
trait 3 0.3 0.0 0.0 0.0 0.0 0.0 0.0 0.0 
node 1 2 1 1
node 2 2 1 1
node 3 1 1 3
node 4 3 0 2
node 7 1 0 0
node 14 2 0 0
node 17 1 0 0
node 34 1 0 0
node 96 1 0 0
gene  1 1 4 -1.980136421731351 0 1.0 -1.980136421731351 0
gene  2 2 4 7.7737758130890455 0 2.0 7.7737758130890455 1
gene  3 3 4 3.438900033779724 0 3.0 3.438900033779724 1
gene  1 1 7 -0.04905949516786856 0 8.0 -0.04905949516786856 1
gene  1 7 4 -4.032023891217667 0 9.0 -4.032023891217667 1
gene  1 1 14 -0.898137965291768 0 27.0 -0.898137965291768 1
gene  1 14 4 -0.1693502808028995 0 28.0 -0.1693502808028995 1
gene  2 2 17 -4.788264528398139 0 37.0 -4.788264528398139 1
gene  2 17 4 2.9813223304891117 0 38.0 2.9813223304891117 1
gene  3 17 7 3.87818658841935 0 58.0 3.87818658841935 1
gene  1 7 14 0.8670404430031782 0 68.0 0.8670404430031782 1
gene  1 2 34 3.5886536715799116 0 97.0 3.5886536715799116 1
gene  2 34 4 1.6241324894657159 0 98.0 1.6241324894657159 1
gene  3 17 34 2.5249086842944592 0 123.0 2.5249086842944592 1
gene  2 34 14 4.592204978300776 0 158.0 4.592204978300776 1
gene  2 34 7 0.6290139772219192 0 204.0 0.6290139772219192 1
gene  3 3 17 4.065187440058564 0 287.0 4.065187440058564 1
gene  1 1 96 -0.0983456540117249 0 398.0 -0.0983456540117249 1
gene  1 96 4 -7.575080299465029 0 399.0 -7.575080299465029 1
gene  3 96 17 -1.0045089056710546 0 984.0 -1.0045089056710546 1
gene  3 2 7 -1.0679292508652105 0 1079.0 0.0 1
genomeend 35
/* Organism # 036 Fitness:  7.364 Error:  1.286                      */
genomestart  36
trait 1 0.1 0.7607114810711857 0.0 0.0 0.9892163601020136 0.0 0.0 0.12192827250494745 
trait 2 0.0 0.33186038878118196 0.0 0.8604416000966132 0.34093378625424464 0.6058847818742431 0.3636127739504704 0.0 
trait 3 0.3 0.0 0.0 0.0 0.0 0.0 0.0 0.0 
node 1 2 1 1
node 2 2 1 1
node 3 1 1 3
node 4 3 0 2
node 7 1 0 0
node 14 2 0 0
node 17 1 0 0
node 34 1 0 0
node 96 1 0 0
gene  1 1 4 -2.0147722097075866 0 1.0 -2.0147722097075866 0
gene  2 2 4 8.724452703826561 0 2.0 8.724452703826561 1
gene  3 3 4 2.0918456594574977 0 3.0 2.0918456594574977 1
gene  1 1 7 0.8286932553665521 0 8.0 0.8286932553665521 1
gene  1 7 4 -3.4216390087870483 0 9.0 -3.4216390087870483 1
gene  1 1 14 -1.9885020369337505 0 27.0 -1.9885020369337505 1
gene  1 14 4 -1.2021343063150285 0 28.0 -1.2021343063150285 1
gene  2 2 17 -2.755909828352876 0 37.0 -2.755909828352876 1
gene  2 17 4 5.311383577657049 0 38.0 5.311383577657049 1
gene  3 17 7 1.5206124218379542 0 58.0 1.5206124218379542 1
gene  1 7 14 0.8822485408956272 0 68.0 0.8822485408956272 1
gene  1 2 34 4.5063431784117265 0 97.0 4.5063431784117265 1
gene  2 34 4 0.8225403063359086 0 98.0 0.8225403063359086 1
gene  3 17 34 3.7695941218532116 0 123.0 3.7695941218532116 1
gene  2 34 14 3.930526730518646 0 158.0 3.930526730518646 1
gene  2 34 7 2.3811147460708613 0 204.0 2.3811147460708613 1
gene  3 3 17 3.830523873379838 0 287.0 3.830523873379838 1
gene  1 1 96 -1.3765622031816174 0 398.0 -1.3765622031816174 1
gene  1 96 4 -7.575080299465029 0 399.0 -7.575080299465029 1
gene  3 96 17 0.9915982283129079 0 984.0 0.9915982283129079 1
gene  3 2 7 -2.5017679135029325 0 1079.0 -2.5017679135029325 1
genomeend 36
/*-------------------------------------------------------------------*/
/* Species # 014         : (size= 004) (AvfFit= 7.000) (Age= 56.000)  */
/*-------------------------------------------------------------------*/
/* Organism # 037 Fitness:  9.000 Error:  1.000                      */
genomestart  37
trait 1 0.1 0.0 0.0 0.0 0.055398074479255544 0.0 0.0 0.12192827250494745 
trait 2 1.6328207075195795 0.8740034532330729 0.0 0.05276591096484689 0.0 0.0 1.1117385883457818 0.0 
trait 3 0.7052654546411021 0.0 0.0 0.0 0.2706470845522379 0.1194839237839806 0.0 0.0 
node 1 1 1 1
node 2 2 1 1
node 3 3 1 3
node 4 1 0 2
node 7 1 0 0
node 14 1 0 0
node 34 1 0 0
gene  1 1 4 2.8756485249883412 0 1.0 2.8756485249883412 1
gene  2 2 4 3.0925758732537263 0 2.0 3.0925758732537263 1
gene  3 3 4 -6.864275086647127 0 3.0 -6.864275086647127 1
gene  1 1 7 -2.3038362899017235 0 8.0 -2.3038362899017235 1
gene  1 7 4 -3.1778222914877547 0 9.0 -3.1778222914877547 1
gene  1 1 14 2.579133372737468 0 27.0 2.579133372737468 1
gene  1 14 4 0.518818966728592 0 28.0 0.518818966728592 1
gene  2 2 34 12.64724167789035 0 97.0 12.64724167789035 1
gene  2 34 4 9.618011419961391 0 98.0 9.618011419961391 1
gene  1 2 7 3.082447337199807 0 302.0 3.082447337199807 1
gene  3 14 7 1.226207257632913 0 445.0 1.226207257632913 1
gene  1 2 14 -2.1265977920806263 0 646.0 -2.1265977920806263 1
gene  3 1 34 6.103899168424853 0 685.0 6.103899168424853 1
gene  2 7 34 -3.7904901866478777 0 707.0 -3.7904901866478777 1
gene  1 3 7 -1.4008112958084278 0 799.0 -1.4008112958084278 1
gene  2 3 14 3.9181925290123227 0 900.0 3.9181925290123227 1
genomeend 37
/* Organism # 038 Fitness:  9.000 Error:  1.000                      */
genomestart  38
trait 1 0.1 0.0 0.0 0.0 0.055398074479255544 0.0 0.0 0.12192827250494745 
trait 2 1.6328207075195795 0.8740034532330729 0.0 0.05276591096484689 0.0 0.0 1.1117385883457818 0.0 
trait 3 0.7052654546411021 0.0 0.0 0.0 0.2706470845522379 0.1194839237839806 0.0 0.0 
node 1 1 1 1
node 2 2 1 1
node 3 3 1 3
node 4 1 0 2
node 7 1 0 0
node 14 1 0 0
node 34 1 0 0
gene  1 1 4 3.1648525973197934 0 1.0 3.1648525973197934 1
gene  2 2 4 3.5846289063705292 0 2.0 3.5846289063705292 1
gene  3 3 4 -4.963263727558804 0 3.0 -4.963263727558804 1
gene  1 1 7 -1.7054337966303672 0 8.0 -1.7054337966303672 1
gene  1 7 4 -3.70092148950866 0 9.0 -3.70092148950866 1
gene  1 1 14 4.254245612857998 0 27.0 4.254245612857998 1
gene  1 14 4 0.25971283023348196 0 28.0 0.25971283023348196 1
gene  2 2 34 13.074019346704494 0 97.0 13.074019346704494 1
gene  2 34 4 8.548031741339772 0 98.0 8.548031741339772 1
gene  1 2 7 1.9028702274209626 0 302.0 1.9028702274209626 1
gene  3 14 7 3.08601994378473 0 445.0 3.08601994378473 1
gene  1 2 14 -0.1912051157700576 0 646.0 -0.1912051157700576 1
gene  3 1 34 4.079052448669942 0 685.0 4.079052448669942 1
gene  2 7 34 -3.6261503451292616 0 707.0 -3.6261503451292616 1
gene  1 3 7 -3.076234219576058 0 799.0 -3.076234219576058 1
gene  2 3 14 2.34153608408415 0 900.0 2.34153608408415 1
genomeend 38
/* Organism # 039 Fitness:  1.000 Error:  3.000                      */
genomestart  39
trait 1 0.1 0.0 0.0 0.0 0.055398074479255544 0.0 0.0 0.12192827250494745 
trait 2 1.6328207075195795 0.8740034532330729 0.0 0.05276591096484689 0.0 0.0 1.1117385883457818 0.0 
trait 3 0.7052654546411021 0.0 0.0 0.0 0.2706470845522379 0.1194839237839806 0.0 0.0 
node 1 1 1 1
node 2 2 1 1
node 3 3 1 3
node 4 1 0 2
node 7 1 0 0
node 14 1 0 0
node 34 1 0 0
gene  1 1 4 2.8756485249883412 0 1.0 2.8756485249883412 1
gene  2 2 4 3.0925758732537263 0 2.0 3.0925758732537263 1
gene  3 3 4 -6.864275086647127 0 3.0 -6.864275086647127 1
gene  1 1 7 -2.3038362899017235 0 8.0 -2.3038362899017235 1
gene  1 7 4 -3.1778222914877547 0 9.0 -3.1778222914877547 1
gene  1 1 14 2.579133372737468 0 27.0 2.579133372737468 1
gene  1 14 4 0.518818966728592 0 28.0 0.518818966728592 1
gene  2 2 34 12.64724167789035 0 97.0 12.64724167789035 1
gene  2 34 4 9.618011419961391 0 98.0 9.618011419961391 1
gene  1 2 7 3.082447337199807 0 302.0 3.082447337199807 1
gene  3 14 7 1.226207257632913 0 445.0 1.226207257632913 1
gene  1 2 14 -2.1265977920806263 0 646.0 -2.1265977920806263 1
gene  3 1 34 6.103899168424853 0 685.0 6.103899168424853 1
gene  2 7 34 -3.7904901866478777 0 707.0 -3.7904901866478777 1
gene  1 3 7 -1.4008112958084278 0 799.0 -1.4008112958084278 1
gene  2 3 14 3.9181925290123227 0 900.0 3.9181925290123227 1
gene  2 14 34 -9.424545897281888 0 1138.0 -9.424545897281888 1
genomeend 39
/* Organism # 040 Fitness:  9.000 Error:  1.000                      */
genomestart  40
trait 1 0.1 0.0 0.0 0.0 0.055398074479255544 0.0 0.0 0.12192827250494745 
trait 2 1.6328207075195795 0.8740034532330729 0.0 0.05276591096484689 0.0 0.0 1.1117385883457818 0.0 
trait 3 0.7052654546411021 0.0 0.0 0.0 0.2706470845522379 0.1194839237839806 0.0 0.0 
node 1 1 1 1
node 2 2 1 1
node 3 3 1 3
node 4 1 0 2
node 7 1 0 0
node 14 1 0 0
node 34 1 0 0
gene  1 1 4 2.8756485249883412 0 1.0 2.8756485249883412 1
gene  2 2 4 3.0925758732537263 0 2.0 3.0925758732537263 1
gene  3 3 4 -6.864275086647127 0 3.0 -6.864275086647127 1
gene  1 1 7 -2.3038362899017235 0 8.0 -2.3038362899017235 1
gene  1 7 4 -3.1778222914877547 0 9.0 -3.1778222914877547 1
gene  1 1 14 2.579133372737468 0 27.0 2.579133372737468 1
gene  1 14 4 0.518818966728592 0 28.0 0.518818966728592 1
gene  2 2 34 12.64724167789035 0 97.0 12.64724167789035 1
gene  2 34 4 9.618011419961391 0 98.0 9.618011419961391 1
gene  1 2 7 3.082447337199807 0 302.0 3.082447337199807 1
gene  3 14 7 1.226207257632913 0 445.0 1.226207257632913 1
gene  1 2 14 -2.1265977920806263 0 646.0 -2.1265977920806263 1
gene  3 1 34 6.103899168424853 0 685.0 6.103899168424853 1
gene  2 7 34 -3.7904901866478777 0 707.0 -3.7904901866478777 1
gene  1 3 7 -1.4008112958084278 0 799.0 -1.4008112958084278 1
gene  2 3 14 3.9181925290123227 0 900.0 3.9181925290123227 1
gene  3 3 34 -5.508614686495962 0 1133.0 0.0 1
genomeend 40
/*-------------------------------------------------------------------*/
/* Species # 015         : (size= 004) (AvfFit= 8.955) (Age= 55.000)  */
/*-------------------------------------------------------------------*/
/* Organism # 041 Fitness:  8.819 Error:  1.030                      */
genomestart  41
trait 1 0.1 0.0 0.0 0.0 0.0 0.0 0.0 0.0 
trait 2 1.0247826227428418 0.30651935219284276 0.0 0.09937962178144191 0.0 0.16763701104293527 0.39867617969017766 0.1387563345930259 
trait 3 0.49331176923233705 0.2163142808593559 0.0 0.0 0.0 0.0 0.0 0.0 
node 1 1 1 1
node 2 1 1 1
node 3 3 1 3
node 4 1 0 2
node 7 1 0 0
node 42 3 0 0
gene  1 1 4 14.16046474074674 0 1.0 14.16046474074674 1
gene  2 2 4 9.824206102034745 0 2.0 9.824206102034745 1
gene  3 3 4 2.275079431563611 0 3.0 2.275079431563611 1
gene  1 1 7 -11.34195197987937 0 8.0 -11.34195197987937 1
gene  1 7 4 -2.0908478498523095 0 9.0 -2.0908478498523095 1
gene  1 2 7 -2.3821061027916826 0 24.0 -2.3821061027916826 1
gene  2 3 7 9.019171622017943 0 53.0 9.019171622017943 1
gene  1 1 42 -8.274763987731763 0 132.0 -8.274763987731763 1
gene  1 42 4 -1.7764053515323885 0 133.0 -1.7764053515323885 1
gene  3 42 7 -2.9932360607695063 0 196.0 -2.9932360607695063 1
gene  2 2 42 0.688836474409048 0 1087.0 0.688836474409048 1
genomeend 41
/* Organism # 042 Fitness:  9.000 Error:  1.000                      */
genomestart  42
trait 1 0.1 0.0 0.0 0.0 0.0 0.0 0.0 0.0 
trait 2 1.0247826227428418 0.30651935219284276 0.0 0.09937962178144191 0.0 0.16763701104293527 0.39867617969017766 0.1387563345930259 
trait 3 0.49331176923233705 0.2163142808593559 0.0 0.0 0.0 0.0 0.0 0.0 
node 1 1 1 1
node 2 1 1 1
node 3 3 1 3
node 4 1 0 2
node 7 1 0 0
node 42 3 0 0
gene  1 1 4 15.34173404147564 0 1.0 15.34173404147564 1
gene  2 2 4 9.869368356583877 0 2.0 9.869368356583877 1
gene  3 3 4 -2.444704325412746 0 3.0 -2.444704325412746 1
gene  1 1 7 -12.180771332925246 0 8.0 -12.180771332925246 1
gene  1 7 4 -7.131345883499052 0 9.0 -7.131345883499052 1
gene  1 2 7 -8.908824428141864 0 24.0 -8.908824428141864 1
gene  2 3 7 8.172994150288698 0 53.0 8.172994150288698 1
gene  1 1 42 -3.6303730165632735 0 132.0 -3.6303730165632735 1
gene  1 42 4 -3.198411411742468 0 133.0 -3.198411411742468 1
gene  3 42 7 -4.810479726846698 0 196.0 -4.810479726846698 1
gene  2 2 42 1.2696244812871684 0 1087.0 1.2696244812871684 1
genomeend 42
/* Organism # 043 Fitness:  9.000 Error:  1.000                      */
genomestart  43
trait 1 0.1 0.0 0.0 0.0 0.0 0.0 0.0 0.0 
trait 2 1.0247826227428418 0.30651935219284276 0.0 0.09937962178144191 0.0 0.16763701104293527 0.39867617969017766 0.1387563345930259 
trait 3 0.49331176923233705 0.2163142808593559 0.0 0.0 0.0 0.0 0.0 0.0 
node 1 1 1 1
node 2 1 1 1
node 3 3 1 3
node 4 1 0 2
node 7 1 0 0
node 42 3 0 0
gene  1 1 4 16.582812077020133 0 1.0 16.582812077020133 1
gene  2 2 4 7.97925600137439 0 2.0 7.97925600137439 1
gene  3 3 4 -0.8265770503718135 0 3.0 -0.8265770503718135 1
gene  1 1 7 -9.848230649374052 0 8.0 -9.848230649374052 1
gene  1 7 4 -9.55799736219004 0 9.0 -9.55799736219004 1
gene  1 2 7 -8.9326192862201 0 24.0 -8.9326192862201 1
gene  2 3 7 7.61731504611556 0 53.0 7.61731504611556 1
gene  1 1 42 -5.848670338974588 0 132.0 -5.848670338974588 1
gene  1 42 4 -3.198411411742468 0 133.0 -3.198411411742468 1
gene  3 42 7 -2.9932360607695063 0 196.0 -2.9932360607695063 1
gene  2 2 42 0.8080152573324484 0 1087.0 0.8080152573324484 1
gene  1 3 42 2.4421364437770885 0 1137.0 2.4421364437770885 1
genomeend 43
/* Organism # 044 Fitness:  9.000 Error:  1.000                      */
genomestart  44
trait 1 0.1 0.0 0.0 0.0 0.0 0.0 0.0 0.0 
trait 2 1.0247826227428418 0.30651935219284276 0.0 0.09937962178144191 0.0 0.16763701104293527 0.39867617969017766 0.1387563345930259 
trait 3 0.49331176923233705 0.2163142808593559 0.0 0.0 0.0 0.0 0.0 0.0 
node 1 1 1 1
node 2 1 1 1
node 3 3 1 3
node 4 1 0 2
node 7 1 0 0
node 42 3 0 0
gene  1 1 4 18.612102014576127 0 1.0 18.612102014576127 1
gene  2 2 4 9.091695556625094 0 2.0 9.091695556625094 1
gene  3 3 4 -1.544082183303631 0 3.0 -1.544082183303631 1
gene  1 1 7 -9.669409059433084 0 8.0 -9.669409059433084 1
gene  1 7 4 -8.736891250483914 0 9.0 -8.736891250483914 1
gene  1 2 7 -7.324280249791315 0 24.0 -7.324280249791315 1
gene  2 3 7 6.289849146639706 0 53.0 6.289849146639706 1
gene  1 1 42 -7.673561867319442 0 132.0 -7.673561867319442 1
gene  1 42 4 -4.972437180349277 0 133.0 -4.972437180349277 1
gene  3 42 7 -0.7797831328250358 0 196.0 -0.7797831328250358 1
gene  2 2 42 -1.2888984209974632 0 1087.0 -1.2888984209974632 1
genomeend 44
/*-------------------------------------------------------------------*/
/* Species # 016         : (size= 003) (AvfFit= 4.000) (Age= 55.000)  */
/*-------------------------------------------------------------------*/
/* Organism # 045 Fitness:  4.000 Error:  2.000                      */
genomestart  45
trait 1 0.1 0.0 0.0 0.0 0.0 0.0 0.0 0.0 
trait 2 0.2 0.0 0.0 0.0 0.0 0.0 0.0 0.009840269708802371 
trait 3 0.3 0.0 0.0 0.0 0.0 0.0 0.0 0.0 
node 1 3 1 1
node 2 1 1 1
node 3 1 1 3
node 4 2 0 2
node 7 2 0 0
node 11 2 0 0
node 47 1 0 0
node 187 1 0 0
gene  1 1 4 5.726723404787345 0 1.0 5.726723404787345 0
gene  2 2 4 -3.7328221208855394 0 2.0 -3.7328221208855394 0
gene  3 3 4 5.922979152194575 0 3.0 5.922979152194575 1
gene  2 1 7 6.282008980738911 0 8.0 6.282008980738911 0
gene  3 7 4 8.709492940606793 0 9.0 8.709492940606793 1
gene  2 2 11 7.965591792738625 0 19.0 7.965591792738625 1
gene  1 11 4 1.59121448810064 0 20.0 1.59121448810064 1
gene  1 3 11 -1.2104977727912143 0 60.0 -1.2104977727912143 1
gene  2 7 11 8.615002757997745 0 116.0 8.615002757997745 1
gene  1 1 47 1.8762529484898924 0 151.0 1.8762529484898924 1
gene  1 47 7 -0.9699907207886671 0 152.0 -0.9699907207886671 1
gene  3 47 11 -4.03065940952616 0 429.0 -4.03065940952616 0
gene  1 47 4 -2.091445457129889 0 527.0 -2.091445457129889 1
gene  3 2 47 -1.1557778721045393 0 565.0 -1.1557778721045393 1
gene  2 2 7 1.2639167182504645 0 708.0 1.2639167182504645 1
gene  3 47 187 -8.06660988039846 0 824.0 -8.06660988039846 1
gene  3 187 11 2.318892114596295 0 825.0 2.318892114596295 1
gene  3 187 4 1.2745103473486987 0 1052.0 1.2745103473486987 1
genomeend 45
/* Organism # 046 Fitness:  4.000 Error:  2.000                      */
genomestart  46
trait 1 0.1 0.0 0.0 0.0 0.0 0.0 0.0 0.0 
trait 2 0.2 0.0 0.0 0.0 0.0 0.0 0.0 0.009840269708802371 
trait 3 0.3 0.0 0.0 0.0 0.0 0.0 0.0 0.0 
node 1 3 1 1
node 2 1 1 1
node 3 1 1 3
node 4 3 0 2
node 7 2 0 0
node 11 2 0 0
node 47 1 0 0
node 187 1 0 0
gene  1 1 4 7.159310105934205 0 1.0 7.159310105934205 0
gene  2 2 4 -2.718359124878067 0 2.0 -2.718359124878067 0
gene  3 3 4 4.109436753144884 0 3.0 4.109436753144884 1
gene  2 1 7 3.432678464900418 0 8.0 3.432678464900418 0
gene  3 7 4 8.011051799195602 0 9.0 8.011051799195602 1
gene  2 2 11 3.68491615271076 0 19.0 3.68491615271076 1
gene  1 11 4 -0.15870647689148143 0 20.0 -0.15870647689148143 1
gene  1 3 11 -3.485811006663 0 60.0 -3.485811006663 1
gene  2 7 11 8.24533133521485 0 116.0 8.24533133521485 1
gene  1 1 47 2.13767633151056 0 151.0 2.13767633151056 1
gene  1 47 7 -3.450075585311101 0 152.0 -3.450075585311101 1
gene  3 47 11 0.3948108946473696 0 429.0 0.3948108946473696 0
gene  1 47 4 0.3000114164376503 0 527.0 0.3000114164376503 1
gene  3 2 47 1.8948020069890925 0 565.0 1.8948020069890925 1
gene  2 2 7 -1.594906316667354 0 708.0 -1.594906316667354 1
gene  3 47 187 -5.236850010600403 0 824.0 -5.236850010600403 1
gene  3 187 11 -5.076662919068969 0 825.0 -5.076662919068969 1
gene  3 187 4 -1.067580206157768 0 1052.0 -1.067580206157768 1
genomeend 46
/* Organism # 047 Fitness:  4.000 Error:  2.000                      */
genomestart  47
trait 1 0.1 0.0 0.0 0.0 0.0 0.0 0.0 0.0 
trait 2 0.2 0.0 0.0 0.0 0.0 0.0 0.0 0.009840269708802371 
trait 3 0.3 0.0 0.0 0.0 0.0 0.0 0.0 0.0 
node 1 3 1 1
node 2 1 1 1
node 3 1 1 3
node 4 3 0 2
node 7 2 0 0
node 11 2 0 0
node 47 1 0 0
node 187 1 0 0
gene  1 1 4 4.592080984945783 0 1.0 4.592080984945783 0
gene  2 2 4 -4.5097929558377965 0 2.0 -4.5097929558377965 0
gene  3 3 4 5.239570550064283 0 3.0 5.239570550064283 1
gene  2 1 7 4.340826195563895 0 8.0 4.340826195563895 0
gene  3 7 4 6.709381984957901 0 9.0 6.709381984957901 1
gene  2 2 11 6.901006495552195 0 19.0 6.901006495552195 1
gene  1 11 4 -1.4989902587817736 0 20.0 -1.4989902587817736 1
gene  1 3 11 1.8752638271124655 0 60.0 1.8752638271124655 1
gene  2 7 11 7.794616968350963 0 116.0 7.794616968350963 1
gene  1 1 47 2.8691385191222887 0 151.0 2.8691385191222887 1
gene  1 47 7 0.9123836420570322 0 152.0 0.9123836420570322 1
gene  3 47 11 2.416175347745032 0 429.0 2.416175347745032 0
gene  1 47 4 1.3560944861685083 0 527.0 1.3560944861685083 1
gene  3 2 47 -0.5593634137168713 0 565.0 -0.5593634137168713 1
gene  2 2 7 2.3540617970671693 0 708.0 2.3540617970671693 1
gene  3 47 187 -7.961679648679752 0 824.0 -7.961679648679752 1
gene  3 187 11 -4.050998116748142 0 825.0 -4.050998116748142 1
gene  3 187 4 1.2745103473486987 0 1052.0 1.2745103473486987 1
genomeend 47
/*-------------------------------------------------------------------*/
/* Species # 017         : (size= 005) (AvfFit= 7.639) (Age= 55.000)  */
/*-------------------------------------------------------------------*/
/* Organism # 048 Fitness:  9.000 Error:  1.000                      */
genomestart  48
trait 1 0.0 0.0 0.0 0.0 0.055398074479255544 0.0 0.3568575379219483 0.12192827250494745 
trait 2 0.17500000000000002 0.03353619471315164 0.0 0.0 0.122845498985575 0.0 0.0 0.0 
trait 3 0.2829116187943524 0.2848498721046737 0.6147039796354924 0.0 0.7884341693559529 0.3153447806910977 0.7110590540879159 0.0 
node 1 2 1 1
node 2 2 1 1
node 3 2 1 3
node 4 1 0 2
node 7 1 0 0
node 14 1 0 0
node 17 2 0 0
node 28 1 0 0
node 44 3 0 0
node 47 1 0 0
node 58 1 0 0
node 89 1 0 0
gene  1 1 4 -15.526239949302758 0 1.0 -15.526239949302758 1
gene  2 2 4 6.206913605772899 0 2.0 6.206913605772899 1
gene  3 3 4 0.14625646729990227 0 3.0 0.14625646729990227 1
gene  1 1 7 5.928719872998233 0 8.0 5.928719872998233 1
gene  1 7 4 1.3178072947636361 0 9.0 1.3178072947636361 1
gene  1 1 14 0.8942866924108057 0 27.0 0.8942866924108057 1
gene  1 14 4 2.510449408542147 0 28.0 2.510449408542147 1
gene  2 2 17 -0.7202193834142425 0 37.0 -0.7202193834142425 1
gene  2 17 4 -0.8406588720326884 0 38.0 -0.8406588720326884 1
gene  2 1 17 -1.4110890370628746 0 54.0 -1.4110890370628746 1
gene  1 1 28 -1.8745972292903814 0 78.0 -1.8745972292903814 1
gene  1 28 7 4.616536508194386 0 79.0 4.616536508194386 1
gene  1 7 44 1.9648576763627477 0 138.0 1.9648576763627477 1
gene  3 44 4 -5.350415875214962 0 139.0 -5.350415875214962 1
gene  1 1 47 -0.4922661261447308 0 151.0 -0.4922661261447308 0
gene  1 47 7 -4.622287204574728 0 152.0 -4.622287204574728 1
gene  2 1 58 6.794422533087202 0 221.0 6.794422533087202 1
gene  2 58 17 0.08270420379545529 0 222.0 0.08270420379545529 1
gene  2 47 58 3.4719220466980234 0 279.0 3.4719220466980234 1
gene  2 2 28 0.5763652704815125 0 339.0 0.5763652704815125 1
gene  1 1 89 -1.026872597608278 0 366.0 -1.026872597608278 1
gene  1 89 47 -0.006393561350144572 0 367.0 -0.006393561350144572 1
gene  1 7 58 -0.8357651287487775 0 623.0 -0.8357651287487775 1
gene  2 28 47 -3.2791845339033836 0 743.0 -3.2791845339033836 1
gene  1 89 28 0.7806055250607689 0 921.0 0.7806055250607689 1
gene  1 7 17 0.7911926188542138 0 960.0 0.7911926188542138 1
genomeend 48
/* Organism # 049 Fitness:  4.000 Error:  2.000                      */
genomestart  49
trait 1 0.0 0.0 0.0 0.0 0.8230907184315082 0.0 0.3568575379219483 0.5736591860845964 
trait 2 0.17500000000000002 0.03353619471315164 0.0 0.0 0.122845498985575 0.0 0.0 0.0 
trait 3 0.2829116187943524 0.2848498721046737 0.6147039796354924 0.0 0.7884341693559529 0.3153447806910977 0.7110590540879159 0.0 
node 1 2 1 1
node 2 2 1 1
node 3 2 1 3
node 4 1 0 2
node 7 1 0 0
node 14 1 0 0
node 17 2 0 0
node 28 1 0 0
node 44 3 0 0
node 47 1 0 0
node 58 1 0 0
node 89 1 0 0
gene  1 1 4 -11.542811695856816 0 1.0 -11.542811695856816 1
gene  2 2 4 4.9200388048490105 0 2.0 4.9200388048490105 1
gene  3 3 4 1.59850903164565 0 3.0 1.59850903164565 1
gene  1 1 7 1.2163132337706928 0 8.0 1.2163132337706928 0
gene  1 7 4 0.5229367976512751 0 9.0 0.5229367976512751 1
gene  1 1 14 4.93479336645275 0 27.0 4.93479336645275 1
gene  1 14 4 1.7946915270180062 0 28.0 1.7946915270180062 1
gene  2 2 17 2.3997196148188102 0 37.0 2.3997196148188102 1
gene  2 17 4 -3.356628066155145 0 38.0 -3.356628066155145 1
gene  2 1 17 -1.579943641575539 0 54.0 -1.579943641575539 0
gene  1 1 28 2.522040542963881 0 78.0 2.522040542963881 1
gene  1 28 7 1.2442006475658174 0 79.0 1.2442006475658174 1
gene  1 7 44 5.455236069334566 0 138.0 5.455236069334566 1
gene  3 44 4 -6.684072200197974 0 139.0 -6.684072200197974 1
gene  1 1 47 0.3476220555743989 0 151.0 0.3476220555743989 0
gene  1 47 7 0.44671237859545215 0 152.0 0.44671237859545215 1
gene  2 1 58 6.46583217054164 0 221.0 6.46583217054164 1
gene  2 58 17 0.7075916998962608 0 222.0 0.7075916998962608 1
gene  2 47 58 2.194719037789607 0 279.0 2.194719037789607 1
gene  2 2 28 -2.192210505182079 0 339.0 -2.192210505182079 1
gene  1 1 89 -1.9410544238128682 0 366.0 -1.9410544238128682 1
gene  1 89 47 -1.5100913177475916 0 367.0 -1.5100913177475916 1
gene  1 7 58 -2.5222633081624717 0 623.0 -2.5222633081624717 1
gene  2 28 47 1.657576881732243 0 743.0 1.657576881732243 1
gene  1 89 28 1.9251035496917615 0 921.0 1.9251035496917615 1
gene  1 7 17 1.987599507858468 0 960.0 1.987599507858468 1
genomeend 49
/* Organism # 050 Fitness:  7.199 Error:  1.317                      */
genomestart  50
trait 1 0.0 0.0 0.0 0.0 0.055398074479255544 0.0 0.3568575379219483 0.12192827250494745 
trait 2 0.17500000000000002 0.03353619471315164 0.0 0.0 0.122845498985575 0.0 0.0 0.0 
trait 3 0.2829116187943524 0.2848498721046737 0.6147039796354924 0.0 0.7884341693559529 0.3153447806910977 0.7110590540879159 0.0 
node 1 2 1 1
node 2 2 1 1
node 3 2 1 3
node 4 1 0 2
node 7 1 0 0
node 14 1 0 0
node 17 2 0 0
node 28 1 0 0
node 44 3 0 0
node 47 1 0 0
node 58 1 0 0
node 89 1 0 0
gene  1 1 4 -12.579477092200381 0 1.0 -12.579477092200381 1
gene  2 2 4 7.985737398897928 0 2.0 7.985737398897928 1
gene  3 3 4 2.6410260970039587 0 3.0 2.6410260970039587 1
gene  1 1 7 6.702765685213453 0 8.0 6.702765685213453 0
gene  1 7 4 1.8017368543064884 0 9.0 1.8017368543064884 1
gene  1 1 14 1.2674043161761825 0 27.0 1.2674043161761825 1
gene  1 14 4 4.505769206727381 0 28.0 4.505769206727381 1
gene  2 2 17 0.3395658288455776 0 37.0 0.3395658288455776 1
gene  2 17 4 -0.9994843659278861 0 38.0 -0.9994843659278861 1
gene  2 1 17 -3.7899135095214787 0 54.0 -3.7899135095214787 0
gene  1 1 28 -1.6044656067755128 0 78.0 -1.6044656067755128 1
gene  1 28 7 2.083321204562315 0 79.0 2.083321204562315 1
gene  1 7 44 3.8265098727880154 0 138.0 3.8265098727880154 1
gene  3 44 4 -8.74430573743648 0 139.0 -8.74430573743648 1
gene  1 1 47 1.0113314830437898 0 151.0 1.0113314830437898 0
gene  1 47 7 -9.471659717825258 0 152.0 -9.471659717825258 1
gene  2 1 58 6.292821809101608 0 221.0 6.292821809101608 1
gene  2 58 17 1.5906100696452987 0 222.0 1.5906100696452987 1
gene  2 47 58 -0.59156425360706 0 279.0 -0.59156425360706 1
gene  2 2 28 -1.1580913290867947 0 339.0 -1.1580913290867947 1
gene  1 1 89 0.8635039650516745 0 366.0 0.8635039650516745 1
gene  1 89 47 1.1633290631298723 0 367.0 1.1633290631298723 1
gene  1 7 58 -2.1228513119996393 0 623.0 -2.1228513119996393 1
gene  2 28 47 -0.34382221810615177 0 743.0 -0.34382221810615177 1
gene  1 89 28 1.367608261300342 0 921.0 1.367608261300342 1
gene  1 7 17 2.035446671973084 0 960.0 2.035446671973084 1
genomeend 50
/* Organism # 051 Fitness:  8.999 Error:  1.000                      */
genomestart  51
trait 1 0.0 0.0 0.0 0.0 0.055398074479255544 0.0 0.3568575379219483 0.12192827250494745 
trait 2 0.17500000000000002 0.03353619471315164 0.0 0.0 0.122845498985575 0.0 0.0 0.0 
trait 3 0.2829116187943524 0.2848498721046737 0.6147039796354924 0.0 0.7884341693559529 0.3153447806910977 0.7110590540879159 0.0 
node 1 2 1 1
node 2 2 1 1
node 3 2 1 3
node 4 1 0 2
node 7 1 0 0
node 14 1 0 0
node 17 2 0 0
node 28 1 0 0
node 44 3 0 0
node 47 1 0 0
node 58 1 0 0
node 89 1 0 0
gene  1 1 4 -13.408860220173896 0 1.0 -13.408860220173896 1
gene  2 2 4 6.847412331839263 0 2.0 6.847412331839263 1
gene  3 3 4 1.8121226214301678 0 3.0 1.8121226214301678 1
gene  1 1 7 5.9324908191332 0 8.0 5.9324908191332 0
gene  1 7 4 -0.007302941820368725 0 9.0 -0.007302941820368725 1
gene  1 1 14 3.0550507373544766 0 27.0 3.0550507373544766 1
gene  1 14 4 2.603813210052361 0 28.0 2.603813210052361 1
gene  2 2 17 1.3770124960333188 0 37.0 1.3770124960333188 1
gene  2 17 4 -1.7560685364062705 0 38.0 -1.7560685364062705 1
gene  2 1 17 -3.0165069821004886 0 54.0 -3.0165069821004886 0
gene  1 1 28 0.24317317592934673 0 78.0 0.24317317592934673 1
gene  1 28 7 2.544536301511214 0 79.0 2.544536301511214 1
gene  1 7 44 3.2902184990565706 0 138.0 3.2902184990565706 1
gene  3 44 4 -6.38958874216279 0 139.0 -6.38958874216279 1
gene  1 1 47 0.3476220555743989 0 151.0 0.3476220555743989 0
gene  1 47 7 -7.030992323047423 0 152.0 -7.030992323047423 1
gene  2 1 58 4.513059702165612 0 221.0 4.513059702165612 1
gene  2 58 17 0.7075916998962608 0 222.0 0.7075916998962608 1
gene  2 47 58 1.7345658617512771 0 279.0 1.7345658617512771 1
gene  2 2 28 0.20267025913009418 0 339.0 0.20267025913009418 1
gene  1 1 89 0.5471787810759339 0 366.0 0.5471787810759339 1
gene  1 89 47 0.7284990334623866 0 367.0 0.7284990334623866 1
gene  1 7 58 -2.1228513119996393 0 623.0 -2.1228513119996393 1
gene  2 28 47 -3.2791845339033836 0 743.0 -3.2791845339033836 1
gene  1 89 28 0.7806055250607689 0 921.0 0.7806055250607689 1
gene  1 7 17 2.035446671973084 0 960.0 2.035446671973084 1
gene  3 58 44 -5.876667770723005 0 1141.0 -5.876667770723005 1
genomeend 51
/* Organism # 052 Fitness:  8.999 Error:  1.000                      */
genomestart  52
trait 1 0.0 0.0 0.0 0.0 0.055398074479255544 0.0 0.3568575379219483 0.12192827250494745 
trait 2 0.17500000000000002 0.03353619471315164 0.0 0.0 0.122845498985575 0.0 0.0 0.0 
trait 3 0.2829116187943524 0.2848498721046737 0.6147039796354924 0.0 0.7884341693559529 0.3153447806910977 0.7110590540879159 0.0 
node 1 2 1 1
node 2 2 1 1
node 3 2 1 3
node 4 1 0 2
node 7 1 0 0
node 14 1 0 0
node 17 2 0 0
node 28 1 0 0
node 44 3 0 0
node 47 1 0 0
node 58 1 0 0
node 89 1 0 0
gene  1 1 4 -13.408860220173896 0 1.0 -13.408860220173896 1
gene  2 2 4 6.847412331839263 0 2.0 6.847412331839263 1
gene  3 3 4 1.8121226214301678 0 3.0 1.8121226214301678 1
gene  1 1 7 5.9324908191332 0 8.0 5.9324908191332 0
gene  1 7 4 -0.007302941820368725 0 9.0 -0.007302941820368725 1
gene  1 1 14 3.0550507373544766 0 27.0 3.0550507373544766 1
gene  1 14 4 2.603813210052361 0 28.0 2.603813210052361 1
gene  2 2 17 1.3770124960333188 0 37.0 1.3770124960333188 1
gene  2 17 4 -1.7560685364062705 0 38.0 -1.7560685364062705 1
gene  2 1 17 -3.0165069821004886 0 54.0 -3.0165069821004886 0
gene  1 1 28 0.24317317592934673 0 78.0 0.24317317592934673 1
gene  1 28 7 2.544536301511214 0 79.0 2.544536301511214 1
gene  1 7 44 3.2902184990565706 0 138.0 3.2902184990565706 1
gene  3 44 4 -6.38958874216279 0 139.0 -6.38958874216279 1
gene  1 1 47 0.3476220555743989 0 151.0 0.3476220555743989 0
gene  1 47 7 -7.030992323047423 0 152.0 -7.030992323047423 1
gene  2 1 58 4.513059702165612 0 221.0 4.513059702165612 1
gene  2 58 17 0.7075916998962608 0 222.0 0.7075916998962608 1
gene  2 47 58 1.7345658617512771 0 279.0 1.7345658617512771 1
gene  2 2 28 0.20267025913009418 0 339.0 0.20267025913009418 1
gene  1 1 89 0.5471787810759339 0 366.0 0.5471787810759339 1
gene  1 89 47 0.7284990334623866 0 367.0 0.7284990334623866 1
gene  1 7 58 -2.1228513119996393 0 623.0 -2.1228513119996393 1
gene  2 28 47 -3.2791845339033836 0 743.0 -3.2791845339033836 1
gene  1 89 28 0.7806055250607689 0 921.0 0.7806055250607689 1
gene  1 7 17 2.035446671973084 0 960.0 2.035446671973084 1
gene  2 28 17 8.267626098689023 0 1142.0 8.267626098689023 1
genomeend 52
/*-------------------------------------------------------------------*/
/* Species # 018         : (size= 005) (AvfFit= 6.017) (Age= 55.000)  */
/*-------------------------------------------------------------------*/
/* Organism # 053 Fitness:  4.087 Error:  1.978                      */
genomestart  53
trait 1 0.1828018383578469 0.511646722685368 0.887916213060954 0.16740380527481824 0.0 0.8682455558581392 0.0 0.20858169628672263 
trait 2 0.2 0.0 0.0 0.0 0.0 0.0 0.0 0.011377811850802742 
trait 3 0.40500261316494196 0.5332891832981644 0.19951034042631954 0.0 0.0 0.2282007844791084 0.0 0.09301400611535382 
node 1 1 1 1
node 2 1 1 1
node 3 1 1 3
node 4 1 0 2
node 7 3 0 0
node 11 1 0 0
node 31 2 0 0
node 44 3 0 0
gene  1 1 4 -6.947640984907817 0 1.0 -6.947640984907817 1
gene  3 2 4 -0.5832982585490962 0 2.0 -0.5832982585490962 0
gene  3 3 4 16.45807783844829 0 3.0 16.45807783844829 1
gene  2 1 7 7.0831115726890355 0 8.0 7.0831115726890355 1
gene  1 7 4 3.8382041689468434 0 9.0 3.8382041689468434 1
gene  2 2 11 -4.590968145702155 0 19.0 -4.590968145702155 1
gene  2 11 4 -3.2971956197082544 0 20.0 -3.2971956197082544 1
gene  1 3 11 -7.743313714123046 0 60.0 -7.743313714123046 1
gene  3 1 31 0.2889127911862621 0 88.0 0.2889127911862621 1
gene  1 31 7 -11.872263019862713 0 89.0 -11.872263019862713 1
gene  1 7 44 -7.0958069811466 0 138.0 -7.0958069811466 1
gene  1 44 4 -18.662152519785092 0 139.0 -18.662152519785092 1
gene  3 2 44 -3.941466242840579 0 144.0 -3.941466242840579 1
gene  3 2 31 4.103651319738545 0 243.0 4.103651319738545 1
gene  2 31 44 4.446903780869191 0 332.0 4.446903780869191 1
gene  1 1 44 2.093670735991995 0 968.0 2.093670735991995 1
genomeend 53
/* Organism # 054 Fitness:  9.000 Error:  1.000                      */
genomestart  54
trait 1 0.1828018383578469 0.511646722685368 0.887916213060954 0.16740380527481824 0.0 0.8682455558581392 0.0 0.20858169628672263 
trait 2 0.2 0.0 0.0 0.0 0.0 0.0 0.0 0.011377811850802742 
trait 3 0.40500261316494196 0.5332891832981644 0.19951034042631954 0.0 0.0 0.2282007844791084 0.0 0.09301400611535382 
node 1 1 1 1
node 2 1 1 1
node 3 1 1 3
node 4 1 0 2
node 7 3 0 0
node 11 1 0 0
node 31 2 0 0
node 44 3 0 0
gene  3 1 4 0.3624608642654503 0 1.0 0.3624608642654503 1
gene  3 2 4 -1.967495460687868 0 2.0 -1.967495460687868 0
gene  3 3 4 15.954986654771831 0 3.0 15.954986654771831 1
gene  2 1 7 6.106243044420425 0 8.0 6.106243044420425 1
gene  1 7 4 3.0030962738630693 0 9.0 3.0030962738630693 1
gene  2 2 11 -2.4145780349056087 0 19.0 -2.4145780349056087 1
gene  2 11 4 -2.2695027638831062 0 20.0 -2.2695027638831062 1
gene  1 3 11 -7.485272711766224 0 60.0 -7.485272711766224 1
gene  3 1 31 -4.47626446356454 0 88.0 -4.47626446356454 1
gene  1 31 7 -14.99741348134093 0 89.0 -14.99741348134093 1
gene  1 7 44 -5.597636264185698 0 138.0 -5.597636264185698 1
gene  1 44 4 -21.418761223368175 0 139.0 -21.418761223368175 1
gene  3 2 44 -2.9709861733679936 0 144.0 -2.9709861733679936 1
gene  3 2 31 -0.8034119244907362 0 243.0 -0.8034119244907362 1
gene  2 31 44 4.015626934689681 0 332.0 4.015626934689681 1
gene  1 1 44 2.9599461357263004 0 968.0 2.9599461357263004 1
genomeend 54
/* Organism # 055 Fitness:  4.000 Error:  2.000                      */
genomestart  55
trait 1 0.1828018383578469 0.511646722685368 0.887916213060954 0.16740380527481824 0.0 0.8682455558581392 0.0 0.20858169628672263 
trait 2 0.2 0.0 0.0 0.0 0.0 0.0 0.0 0.011377811850802742 
trait 3 0.40500261316494196 0.5332891832981644 0.19951034042631954 0.0 0.0 0.2282007844791084 0.0 0.09301400611535382 
node 1 1 1 1
node 2 1 1 1
node 3 1 1 3
node 4 1 0 2
node 7 3 0 0
node 11 1 0 0
node 31 2 0 0
node 44 3 0 0
gene  1 1 4 -8.638072417808734 0 1.0 -8.638072417808734 1
gene  3 2 4 2.089969208805319 0 2.0 2.089969208805319 0
gene  3 3 4 16.601228392899046 0 3.0 16.601228392899046 1
gene  2 1 7 4.805811465317834 0 8.0 4.805811465317834 1
gene  1 7 4 2.6368410292151667 0 9.0 2.6368410292151667 1
gene  2 2 11 -3.7298793194192665 0 19.0 -3.7298793194192665 1
gene  2 11 4 -1.075427303743115 0 20.0 -1.075427303743115 1
gene  1 3 11 -7.25768430329774 0 60.0 -7.25768430329774 1
gene  3 1 31 -0.9209813625593508 0 88.0 -0.9209813625593508 1
gene  1 31 7 -15.042367569420282 0 89.0 -15.042367569420282 1
gene  1 7 44 -5.27706359912 0 138.0 -5.27706359912 1
gene  1 44 4 -22.52955348416268 0 139.0 -22.52955348416268 1
gene  3 2 44 -5.459419489353317 0 144.0 -5.459419489353317 1
gene  3 2 31 7.004009978452624 0 243.0 7.004009978452624 1
gene  2 31 44 -1.6146439888863147 0 332.0 -1.6146439888863147 1
gene  1 1 44 4.0733696544045355 0 968.0 4.0733696544045355 1
genomeend 55
/* Organism # 056 Fitness:  4.000 Error:  2.000                      */
genomestart  56
trait 1 0.1828018383578469 0.511646722685368 0.887916213060954 0.16740380527481824 0.0 0.8682455558581392 0.0 0.20858169628672263 
trait 2 0.2 0.0 0.0 0.0 0.0 0.0 0.0 0.011377811850802742 
trait 3 0.40500261316494196 0.5332891832981644 0.19951034042631954 0.0 0.0 0.2282007844791084 0.0 0.09301400611535382 
node 1 1 1 1
node 2 1 1 1
node 3 1 1 3
node 4 2 0 2
node 7 3 0 0
node 11 1 0 0
node 31 2 0 0
node 44 3 0 0
gene  1 1 4 -6.5359226864866695 0 1.0 -6.5359226864866695 1
gene  3 2 4 -0.6378165451183699 0 2.0 -0.6378165451183699 0
gene  3 3 4 14.77165407083746 0 3.0 14.77165407083746 1
gene  2 1 7 -1.641417427614751 0 8.0 -1.641417427614751 1
gene  1 7 4 0.45799671707860545 0 9.0 0.45799671707860545 1
gene  2 2 11 -1.7924272283613503 0 19.0 -1.7924272283613503 1
gene  2 11 4 -0.8074639450515697 0 20.0 -0.8074639450515697 1
gene  1 3 11 -2.2798366042143527 0 60.0 -2.2798366042143527 1
gene  3 1 31 1.9539454001573973 0 88.0 1.9539454001573973 1
gene  1 31 7 -1.2223639384579854 0 89.0 -1.2223639384579854 1
gene  1 7 44 -6.520017329831931 0 138.0 -6.520017329831931 1
gene  1 44 4 0.42337420813279847 0 139.0 0.42337420813279847 1
gene  3 2 44 -5.750318490076735 0 144.0 -5.750318490076735 1
gene  3 2 31 7.248559724009317 0 243.0 7.248559724009317 1
gene  2 31 44 5.880550311898592 0 332.0 5.880550311898592 1
gene  1 1 44 2.2008206894767515 0 968.0 2.2008206894767515 1
genomeend 56
/* Organism # 057 Fitness:  9.000 Error:  1.000                      */
genomestart  57
trait 1 0.1828018383578469 0.511646722685368 0.887916213060954 0.16740380527481824 0.0 0.8682455558581392 0.0 0.20858169628672263 
trait 2 0.2 0.0 0.0 0.0 0.0 0.0 0.0 0.011377811850802742 
trait 3 0.40500261316494196 0.5332891832981644 0.19951034042631954 0.0 0.0 0.2282007844791084 0.0 0.09301400611535382 
node 1 1 1 1
node 2 1 1 1
node 3 1 1 3
node 4 1 0 2
node 7 3 0 0
node 11 1 0 0
node 31 2 0 0
node 44 3 0 0
gene  1 1 4 -6.638304128078562 0 1.0 -6.638304128078562 1
gene  3 2 4 -0.8707153762524775 0 2.0 -0.8707153762524775 0
gene  3 3 4 15.019515114793741 0 3.0 15.019515114793741 1
gene  2 1 7 6.655502231428892 0 8.0 6.655502231428892 1
gene  1 7 4 2.5085525281401617 0 9.0 2.5085525281401617 1
gene  2 2 11 -1.7383036698287107 0 19.0 -1.7383036698287107 1
gene  2 11 4 -2.0878879399571897 0 20.0 -2.0878879399571897 1
gene  1 3 11 -4.837912075552596 0 60.0 -4.837912075552596 1
gene  3 1 31 -1.2860515640405294 0 88.0 -1.2860515640405294 1
gene  1 31 7 -14.882304816348583 0 89.0 -14.882304816348583 1
gene  1 7 44 -8.904573635777695 0 138.0 -8.904573635777695 1
gene  1 44 4 -22.239409493129333 0 139.0 -22.239409493129333 1
gene  3 2 44 -3.2582103318570255 0 144.0 -3.2582103318570255 1
gene  3 2 31 5.124173522774147 0 243.0 5.124173522774147 1
gene  2 31 44 1.2654580185812168 0 332.0 1.2654580185812168 1
gene  1 1 44 0.2264135695608731 0 968.0 0.2264135695608731 1
genomeend 57
/*-------------------------------------------------------------------*/
/* Species # 019         : (size= 004) (AvfFit= 4.649) (Age= 54.000)  */
/*-------------------------------------------------------------------*/
/* Organism # 058 Fitness:  9.000 Error:  1.000                      */
genomestart  58
trait 1 0.1 0.0 0.0 0.0 0.0 0.0 0.0 0.0 
trait 2 0.3441690202926753 0.0 0.3946786995305386 0.0 0.0 0.0 0.0 0.0 
trait 3 0.4418295441947806 0.0 0.2390733121078492 0.0 0.18581551989177447 0.0 0.0 0.347750848541753 
node 1 2 1 1
node 2 1 1 1
node 3 1 1 3
node 4 1 0 2
node 7 1 0 0
node 14 2 0 0
node 26 2 0 0
node 46 3 0 0
gene  1 1 4 -0.6264413215184785 0 1.0 -0.6264413215184785 1
gene  2 2 4 1.0288206438296232 0 2.0 1.0288206438296232 1
gene  3 3 4 5.915269993583059 0 3.0 5.915269993583059 1
gene  1 1 7 0.4049786246264034 0 8.0 0.4049786246264034 0
gene  1 7 4 3.7133271126568 0 9.0 3.7133271126568 0
gene  1 1 14 -3.034974425282304 0 27.0 -3.034974425282304 1
gene  3 14 4 -6.004220266572816 0 28.0 -6.004220266572816 1
gene  2 3 7 -0.18524785000315735 0 53.0 -0.18524785000315735 1
gene  3 2 26 -1.7263207374000153 0 72.0 -1.7263207374000153 1
gene  3 26 4 -4.686103577825795 0 73.0 -4.686103577825795 1
gene  1 7 46 -5.793788430641817 0 149.0 -5.793788430641817 1
gene  1 46 4 1.8366751260976195 0 150.0 1.8366751260976195 1
gene  2 14 46 -0.8741852209068046 0 340.0 -0.8741852209068046 1
gene  1 26 14 2.2851716119749677 0 1014.0 2.2851716119749677 1
genomeend 58
/* Organism # 059 Fitness:  4.000 Error:  2.000                      */
genomestart  59
trait 1 0.1 0.0 0.0 0.0 0.0 0.0 0.0 0.0 
trait 2 0.3441690202926753 0.0 0.3946786995305386 0.0 0.0 0.0 0.0 0.0 
trait 3 0.4418295441947806 0.0 0.2390733121078492 0.0 0.18581551989177447 0.0 0.0 0.347750848541753 
node 1 2 1 1
node 2 1 1 1
node 3 1 1 3
node 4 1 0 2
node 7 1 0 0
node 14 2 0 0
node 26 2 0 0
node 46 3 0 0
gene  1 1 4 1.3773284602734233 0 1.0 1.3773284602734233 1
gene  2 2 4 0.023492439591760117 0 2.0 0.023492439591760117 1
gene  3 3 4 7.996036607953911 0 3.0 7.996036607953911 1
gene  1 1 7 0.20329916690292382 0 8.0 0.20329916690292382 0
gene  1 7 4 4.146500043410388 0 9.0 4.146500043410388 0
gene  1 1 14 -3.6311486761656098 0 27.0 -3.6311486761656098 1
gene  3 14 4 -4.761818577394862 0 28.0 -4.761818577394862 1
gene  2 3 7 -0.13357562142218993 0 53.0 -0.13357562142218993 1
gene  3 2 26 0.8049296089971523 0 72.0 0.8049296089971523 1
gene  3 26 4 -3.239079886465818 0 73.0 -3.239079886465818 1
gene  1 7 46 -7.576921962840769 0 149.0 -7.576921962840769 1
gene  1 46 4 -0.16511820227254237 0 150.0 -0.16511820227254237 1
gene  2 14 46 -0.2230080701585968 0 340.0 -0.2230080701585968 1
gene  1 26 14 -0.6160760838624324 0 1014.0 -0.6160760838624324 1
genomeend 59
/* Organism # 060 Fitness:  4.000 Error:  2.000                      */
genomestart  60
trait 1 0.1 0.0 0.0 0.0 0.0 0.0 0.0 0.0 
trait 2 0.3441690202926753 0.0 0.3946786995305386 0.0 0.0 0.0 0.0 0.0 
trait 3 0.4418295441947806 0.0 0.2390733121078492 0.0 0.18581551989177447 0.0 0.0 0.347750848541753 
node 1 2 1 1
node 2 1 1 1
node 3 1 1 3
node 4 1 0 2
node 7 1 0 0
node 14 2 0 0
node 26 2 0 0
node 46 3 0 0
gene  1 1 4 2.314535610111752 0 1.0 2.314535610111752 1
gene  2 2 4 1.1255301315382114 0 2.0 1.1255301315382114 1
gene  3 3 4 8.016846874385267 0 3.0 8.016846874385267 1
gene  1 1 7 0.8487290877797499 0 8.0 0.8487290877797499 0
gene  1 7 4 -1.7901379425119621 0 9.0 -1.7901379425119621 0
gene  1 1 14 -4.923858683271781 0 27.0 -4.923858683271781 1
gene  3 14 4 -1.653734244043883 0 28.0 -1.653734244043883 1
gene  2 3 7 1.6166298515268573 0 53.0 1.6166298515268573 1
gene  3 2 26 -3.4078154918170815 0 72.0 -3.4078154918170815 1
gene  3 26 4 2.446392246619153 0 73.0 2.446392246619153 1
gene  1 7 46 -0.7671695283158106 0 149.0 -0.7671695283158106 1
gene  1 46 4 -1.0098567796956783 0 150.0 -1.0098567796956783 1
gene  2 14 46 1.3959439268335623 0 340.0 1.3959439268335623 1
gene  1 26 14 3.0572589796344616 0 1014.0 3.0572589796344616 1
genomeend 60
/* Organism # 061 Fitness:  1.595 Error:  2.737                      */
genomestart  61
trait 1 0.1 0.0 0.0 0.0 0.0 0.0 0.0 0.0 
trait 2 0.3441690202926753 0.0 0.3946786995305386 0.0 0.0 0.0 0.0 0.0 
trait 3 0.4418295441947806 0.0 0.2390733121078492 0.0 0.18581551989177447 0.0 0.0 0.347750848541753 
node 1 2 1 1
node 2 1 1 1
node 3 1 1 3
node 4 1 0 2
node 7 1 0 0
node 14 2 0 0
node 26 2 0 0
node 46 3 0 0
gene  1 1 4 0.2789449453028012 0 1.0 0.2789449453028012 1
gene  2 2 4 0.9405718201379023 0 2.0 0.9405718201379023 1
gene  3 3 4 -1.0094675745901838 0 3.0 -1.0094675745901838 1
gene  1 1 7 -1.6460492859229212 0 8.0 -1.6460492859229212 0
gene  1 7 4 5.735303889891384 0 9.0 5.735303889891384 0
gene  1 1 14 -5.223397827606553 0 27.0 -5.223397827606553 1
gene  3 14 4 -5.981115057194091 0 28.0 -5.981115057194091 1
gene  2 3 7 0.16888545610290517 0 53.0 0.16888545610290517 1
gene  3 2 26 -1.7958352378606912 0 72.0 -1.7958352378606912 1
gene  3 26 4 -6.159531299344463 0 73.0 -6.159531299344463 1
gene  1 7 46 -4.505798922008272 0 149.0 -4.505798922008272 1
gene  1 46 4 0.4412516654699181 0 150.0 0.4412516654699181 1
gene  2 14 46 2.838614844679322 0 340.0 2.838614844679322 1
gene  1 26 14 2.001516625512318 0 1014.0 2.001516625512318 1
genomeend 61
/*-------------------------------------------------------------------*/
/* Species # 020         : (size= 001) (AvfFit= 4.000) (Age= 54.000)  */
/*-------------------------------------------------------------------*/
/* Organism # 062 Fitness:  4.000 Error:  2.000                      */
genomestart  62
trait 1 0.0 0.0 0.29280296832858244 0.0 0.0 0.0 0.0 0.4621597911071781 
trait 2 0.0 0.0 0.0 0.0 0.0 0.0 0.0 0.0 
trait 3 0.3 0.09776743898881846 0.0 0.956242480509959 0.0 0.0 0.0 0.0 
node 1 1 1 1
node 2 2 1 1
node 3 1 1 3
node 4 1 0 2
node 7 1 0 0
node 14 1 0 0
node 17 2 0 0
node 34 1 0 0
node 51 3 0 0
node 192 1 0 0
gene  1 1 4 1.746409207930314 0 1.0 1.746409207930314 1
gene  2 2 4 0.05943586780801424 0 2.0 0.05943586780801424 1
gene  3 3 4 -0.19589711805108018 0 3.0 -0.19589711805108018 1
gene  1 1 7 5.571707810715855 0 8.0 5.571707810715855 1
gene  2 7 4 -0.12339574884588522 0 9.0 -0.12339574884588522 1
gene  1 1 14 0.21605677254170036 0 27.0 0.21605677254170036 1
gene  1 14 4 -11.795715432731294 0 28.0 -11.795715432731294 1
gene  2 2 17 -0.18468800194897078 0 37.0 -0.18468800194897078 1
gene  2 17 4 -7.240467702013532 0 38.0 -7.240467702013532 1
gene  3 17 7 -4.006330380950665 0 58.0 -4.006330380950665 1
gene  1 7 14 7.250143150301836 0 68.0 7.250143150301836 1
gene  2 2 34 10.437564811499996 0 97.0 10.437564811499996 1
gene  2 34 4 2.6342743055158655 0 98.0 2.6342743055158655 1
gene  3 17 34 -13.3096904269593 0 123.0 -13.3096904269593 1
gene  1 1 51 9.109874534695544 0 174.0 9.109874534695544 1
gene  1 51 7 1.2117730149343253 0 175.0 1.2117730149343253 1
gene  1 17 14 0.8491050231741637 0 207.0 0.8491050231741637 1
gene  3 3 34 -0.1390644699381896 0 256.0 -0.1390644699381896 1
gene  2 3 14 10.51327138818357 0 530.0 10.51327138818357 1
gene  1 2 14 -6.829374108917539 0 571.0 -6.829374108917539 1
gene  1 51 14 1.1429154275785725 0 732.0 1.1429154275785725 1
gene  2 34 192 -2.921900196220303 0 847.0 -2.921900196220303 1
gene  2 192 4 0.9162263231219496 0 848.0 0.9162263231219496 1
gene  2 17 51 -5.464195241812595 0 910.0 -5.464195241812595 1
gene  3 14 34 -11.942320537357901 0 1099.0 -11.942320537357901 1
genomeend 62
/*-------------------------------------------------------------------*/
/* Species # 021         : (size= 003) (AvfFit= 4.663) (Age= 52.000)  */
/*-------------------------------------------------------------------*/
/* Organism # 063 Fitness:  5.986 Error:  1.553                      */
genomestart  63
trait 1 0.1 0.2616840072624468 0.0 0.0 0.0 0.7964605151609201 0.0 0.4694541052776261 
trait 2 0.9039084783916191 0.20380623903196893 0.7381254544987707 0.0 0.0 0.12248780093489986 0.0 0.22048174782535357 
trait 3 0.8943547758789518 0.3488943880254036 0.0 0.0 0.0 0.0 0.07151499835272762 0.0470053359247129 
node 1 2 1 1
node 2 1 1 1
node 3 1 1 3
node 4 1 0 2
node 7 1 0 0
node 14 1 0 0
node 17 2 0 0
node 34 1 0 0
node 240 1 0 0
gene  2 1 4 -2.827728549536683 0 1.0 -2.827728549536683 1
gene  2 2 4 2.134251387033367 0 2.0 2.134251387033367 0
gene  3 3 4 -6.398817114995827 0 3.0 -6.398817114995827 1
gene  1 1 7 4.504251729438359 0 8.0 4.504251729438359 1
gene  1 7 4 -2.739915216693851 0 9.0 -2.739915216693851 1
gene  1 1 14 -1.6065042923663375 0 27.0 -1.6065042923663375 1
gene  1 14 4 -6.194319811759418 0 28.0 -6.194319811759418 0
gene  2 2 17 19.4714332675656 0 37.0 19.4714332675656 1
gene  2 17 4 6.705302140024738 0 38.0 6.705302140024738 1
gene  3 17 7 -0.3761429162634673 0 58.0 -0.3761429162634673 1
gene  1 7 14 0.7661355112864694 0 68.0 0.7661355112864694 1
gene  2 2 34 -1.2830567403923303 0 97.0 -1.2830567403923303 1
gene  2 34 4 4.943756437208549 0 98.0 4.943756437208549 1
gene  3 17 34 -0.11485896203062129 0 123.0 -0.11485896203062129 1
gene  3 1 17 5.057821373730405 0 159.0 5.057821373730405 1
gene  3 14 34 3.586033928474444 0 169.0 3.586033928474444 1
gene  2 1 34 3.0741102215172127 0 562.0 3.0741102215172127 1
gene  2 2 7 -3.064263985271711 0 780.0 -3.064263985271711 1
gene  1 3 14 -7.816212802309555 0 867.0 -7.816212802309555 1
gene  1 3 7 7.208690964779686 0 908.0 7.208690964779686 1
gene  3 17 14 4.579605882324704 0 959.0 4.579605882324704 1
gene  2 3 34 6.879075718028626 0 1053.0 6.879075718028626 1
gene  1 14 240 -0.5707168218925784 0 1068.0 -0.5707168218925784 1
gene  1 240 4 -5.107871661462623 0 1069.0 -5.107871661462623 1
genomeend 63
/* Organism # 064 Fitness:  4.000 Error:  2.000                      */
genomestart  64
trait 1 0.1 0.2616840072624468 0.0 0.0 0.0 0.7964605151609201 0.0 0.4694541052776261 
trait 2 0.9039084783916191 0.20380623903196893 0.7381254544987707 0.0 0.0 0.12248780093489986 0.0 0.22048174782535357 
trait 3 0.8943547758789518 0.3488943880254036 0.0 0.0 0.0 0.0 0.07151499835272762 0.0470053359247129 
node 1 2 1 1
node 2 1 1 1
node 3 1 1 3
node 4 1 0 2
node 7 1 0 0
node 14 1 0 0
node 17 2 0 0
node 34 1 0 0
node 240 1 0 0
gene  2 1 4 -3.121323541574282 0 1.0 -3.121323541574282 1
gene  2 2 4 4.258342418017417 0 2.0 4.258342418017417 1
gene  3 3 4 -7.292723511043744 0 3.0 -7.292723511043744 1
gene  1 1 7 2.0421744541819864 0 8.0 2.0421744541819864 1
gene  1 7 4 -1.3852517293161872 0 9.0 -1.3852517293161872 1
gene  1 1 14 -1.3789126808141818 0 27.0 -1.3789126808141818 1
gene  1 14 4 -6.997082806984327 0 28.0 -6.997082806984327 0
gene  2 2 17 16.891232724540505 0 37.0 16.891232724540505 1
gene  2 17 4 6.972171488631049 0 38.0 6.972171488631049 1
gene  3 17 7 3.5324933656621873 0 58.0 3.5324933656621873 1
gene  1 7 14 4.2280966387024925 0 68.0 4.2280966387024925 1
gene  2 2 34 -1.1629511423608418 0 97.0 -1.1629511423608418 1
gene  2 34 4 3.6409615290500073 0 98.0 3.6409615290500073 1
gene  3 17 34 3.952283971312966 0 123.0 3.952283971312966 1
gene  3 1 17 8.50150887241307 0 159.0 8.50150887241307 1
gene  3 14 34 7.01122478171804 0 169.0 7.01122478171804 1
gene  2 1 34 -1.1293936722601225 0 562.0 -1.1293936722601225 1
gene  2 2 7 -1.7345578595407587 0 780.0 -1.7345578595407587 1
gene  1 3 14 -9.983717019752786 0 867.0 -9.983717019752786 1
gene  1 3 7 7.831507551185515 0 908.0 7.831507551185515 1
gene  3 17 14 0.5539761471632512 0 959.0 0.5539761471632512 1
gene  2 3 34 2.4721442852715763 0 1053.0 2.4721442852715763 1
gene  1 14 240 1.947558565090244 0 1068.0 1.947558565090244 1
gene  1 240 4 -1.9964064169107458 0 1069.0 -1.9964064169107458 1
genomeend 64
/* Organism # 065 Fitness:  4.002 Error:  1.999                      */
genomestart  65
trait 1 0.1 0.2616840072624468 0.0 0.0 0.0 0.7964605151609201 0.0 0.4694541052776261 
trait 2 0.9039084783916191 0.20380623903196893 0.7381254544987707 0.0 0.0 0.12248780093489986 0.0 0.22048174782535357 
trait 3 0.8943547758789518 0.3488943880254036 0.0 0.0 0.0 0.0 0.07151499835272762 0.0470053359247129 
node 1 1 1 1
node 2 1 1 1
node 3 1 1 3
node 4 1 0 2
node 7 1 0 0
node 14 1 0 0
node 17 2 0 0
node 34 1 0 0
node 240 1 0 0
gene  2 1 4 -3.0859296460551473 0 1.0 -3.0859296460551473 1
gene  2 2 4 4.326396452364344 0 2.0 4.326396452364344 0
gene  3 3 4 -5.57652643460569 0 3.0 -5.57652643460569 1
gene  1 1 7 5.610994277082673 0 8.0 5.610994277082673 1
gene  1 7 4 -3.846817440447288 0 9.0 -3.846817440447288 1
gene  1 1 14 -1.6118532710725801 0 27.0 -1.6118532710725801 1
gene  1 14 4 -6.061895418386208 0 28.0 -6.061895418386208 0
gene  2 2 17 20.161995090004392 0 37.0 20.161995090004392 1
gene  2 17 4 6.217640816492024 0 38.0 6.217640816492024 1
gene  3 17 7 1.841564315065275 0 58.0 1.841564315065275 1
gene  1 7 14 2.232168588096941 0 68.0 2.232168588096941 1
gene  2 2 34 1.2833731393156094 0 97.0 1.2833731393156094 1
gene  2 34 4 3.961694966907113 0 98.0 3.961694966907113 1
gene  3 17 34 0.5417169516163605 0 123.0 0.5417169516163605 1
gene  3 1 17 8.485344162366212 0 159.0 8.485344162366212 1
gene  3 14 34 4.868979154543168 0 169.0 4.868979154543168 1
gene  2 1 34 1.9162001249654605 0 562.0 1.9162001249654605 1
gene  2 2 7 -0.4188441577098301 0 780.0 -0.4188441577098301 1
gene  1 3 14 -9.18473903841392 0 867.0 -9.18473903841392 1
gene  1 3 7 6.422640527053275 0 908.0 6.422640527053275 1
gene  3 17 14 2.4809546383123537 0 959.0 2.4809546383123537 1
gene  2 3 34 6.119892106126057 0 1053.0 6.119892106126057 1
gene  1 14 240 1.4789635165726345 0 1068.0 1.4789635165726345 1
gene  1 240 4 -4.559041287619479 0 1069.0 -4.559041287619479 1
genomeend 65
/*-------------------------------------------------------------------*/
/* Species # 022         : (size= 005) (AvfFit= 7.000) (Age= 50.000)  */
/*-------------------------------------------------------------------*/
/* Organism # 066 Fitness:  9.000 Error:  1.000                      */
genomestart  66
trait 1 0.1 0.6803860034403816 0.1924621814011147 0.4699962252700536 0.0 0.16962498034476925 0.0 1.7814974833902937 
trait 2 0.2 0.0 0.0 0.0 0.0 0.0 0.0 0.0 
trait 3 0.3 0.0 0.0 0.0 0.0 0.0 0.0 0.0 
node 1 2 1 1
node 2 2 1 1
node 3 1 1 3
node 4 1 0 2
node 7 1 0 0
node 14 1 0 0
node 17 1 0 0
node 28 1 0 0
node 62 1 0 0
node 147 1 0 0
node 235 1 0 0
gene  1 1 4 15.154384071844124 0 1.0 15.154384071844124 1
gene  2 2 4 22.088161380983774 0 2.0 22.088161380983774 1
gene  3 3 4 -7.111297019497512 0 3.0 -7.111297019497512 1
gene  1 1 7 7.361376200138523 0 8.0 7.361376200138523 1
gene  1 7 4 -1.2522472458439726 0 9.0 -1.2522472458439726 1
gene  2 1 14 -1.0530622769456879 0 27.0 -1.0530622769456879 1
gene  1 14 4 0.6932537854752628 0 28.0 0.6932537854752628 1
gene  2 2 17 2.691821636790433 0 37.0 2.691821636790433 1
gene  2 17 4 -0.13994192033339248 0 38.0 -0.13994192033339248 0
gene  2 1 17 3.5703639346225993 0 54.0 3.5703639346225993 1
gene  3 1 28 8.633709993189749 0 78.0 8.633709993189749 1
gene  1 28 7 11.503082213383053 0 79.0 11.503082213383053 1
gene  3 17 7 -8.30867795190339 0 148.0 -8.30867795190339 1
gene  1 3 7 6.853616406733433 0 197.0 6.853616406733433 1
gene  2 28 14 3.608962775736809 0 213.0 3.608962775736809 1
gene  1 1 62 -5.067888189111552 0 232.0 -5.067888189111552 1
gene  1 62 4 -15.928247033639497 0 233.0 -15.928247033639497 1
gene  2 14 7 -0.9672145570409902 0 493.0 -0.9672145570409902 1
gene  2 14 147 -1.826016466097263 0 647.0 -1.826016466097263 1
