/* Species # 005         : (size= 003) (AvfFit= 4.000) (Age= 77.000)  */
/*-------------------------------------------------------------------*/
/* Organism # 000 Fitness:  4.000 Error:  2.000                      */
genomestart  0
trait 1 0.06875 0.0 0.0 0.0 0.0 0.0 0.023801055305950197 0.0 
trait 2 0.1 0.1412634290958787 0.0 0.001363430081560609 0.0 0.0 0.9851503113260676 0.661528521616242 
trait 3 0.35386636961471096 0.055717391114329676 0.2158623061422958 0.03323828345753185 0.0 0.0 0.0 0.04553304525815782 
node 1 1 1 1
node 2 1 1 1
node 3 1 1 3
node 4 2 0 2
node 27 1 0 0
node 149 1 0 0
node 162 1 0 0
node 201 1 0 0
node 211 1 0 0
node 218 1 0 0
node 229 1 0 0
gene  1 1 4 1.9069520066883545 0 1.0 1.9069520066883545 1
gene  2 2 4 -0.5321261910523625 0 2.0 -0.5321261910523625 0
gene  3 3 4 5.539182872558754 0 3.0 5.539182872558754 1
gene  1 1 27 1.3107659188317626 0 80.0 1.3107659188317626 1
gene  1 27 4 -4.098613052690676 0 81.0 -4.098613052690676 1
gene  3 2 27 3.31498922568223 0 128.0 3.31498922568223 1
gene  3 3 27 2.8026164830726255 0 221.0 2.8026164830726255 1
gene  1 1 149 0.46783113773858354 0 673.0 0.46783113773858354 1
gene  1 149 4 -3.226462126597633 0 674.0 -3.226462126597633 1
gene  2 2 149 0.9520823478750805 0 701.0 0.9520823478750805 1
gene  2 2 162 0.37969913500390495 0 724.0 0.37969913500390495 1
gene  2 162 4 2.760561580156799 0 725.0 2.760561580156799 0
gene  2 162 149 3.0299473895883837 0 859.0 3.0299473895883837 1
gene  2 2 201 6.561082148822932 0 874.0 6.561082148822932 1
gene  2 201 4 -8.136624408526526 0 875.0 -8.136624408526526 1
gene  1 1 211 4.0298223763685215 0 921.0 4.0298223763685215 1
gene  1 211 149 4.567987860709836 0 922.0 4.567987860709836 0
gene  1 162 218 4.3511042881614514 0 947.0 4.3511042881614514 1
gene  2 218 4 2.8166914199910513 0 948.0 2.8166914199910513 1
gene  1 211 229 0.21540747988937597 0 991.0 0.21540747988937597 1
gene  1 229 149 0.2607149943719825 0 992.0 0.2607149943719825 1
gene  2 3 149 1.5222531725384125 0 1111.0 1.5222531725384125 1
gene  2 201 162 -9.904095216187452 0 1151.0 -9.904095216187452 1
genomeend 0
/* Organism # 001 Fitness:  4.000 Error:  2.000                      */
genomestart  1
trait 1 0.06875 0.0 0.0 0.0 0.0 0.0 0.023801055305950197 0.0 
trait 2 0.1 0.1412634290958787 0.0 0.001363430081560609 0.0 0.0 0.9851503113260676 0.661528521616242 
trait 3 0.35386636961471096 0.055717391114329676 0.2158623061422958 0.03323828345753185 0.0 0.0 0.0 0.04553304525815782 
node 1 1 1 1
node 2 1 1 1
node 3 1 1 3
node 4 2 0 2
node 27 1 0 0
node 149 1 0 0
node 162 1 0 0
node 201 1 0 0
node 211 1 0 0
node 218 1 0 0
node 229 1 0 0
gene  1 1 4 1.4944826369368647 0 1.0 1.4944826369368647 1
gene  2 2 4 -0.8086322702100868 0 2.0 -0.8086322702100868 1
gene  3 3 4 3.7690530829138242 0 3.0 3.7690530829138242 1
gene  1 1 27 -0.5126181153924925 0 80.0 -0.5126181153924925 1
gene  1 27 4 -6.355749968521954 0 81.0 -6.355749968521954 1
gene  3 2 27 2.8937884342253852 0 128.0 2.8937884342253852 1
gene  3 3 27 2.461755828442591 0 221.0 2.461755828442591 1
gene  1 1 149 0.35349226733515304 0 673.0 0.35349226733515304 1
gene  1 149 4 -1.1735170986366046 0 674.0 -1.1735170986366046 1
gene  2 2 149 0.7296645242418272 0 701.0 0.7296645242418272 1
gene  2 2 162 0.80944844596088 0 724.0 0.80944844596088 1
gene  2 162 4 -0.03171730378194337 0 725.0 -0.03171730378194337 0
gene  2 162 149 4.314574395318277 0 859.0 4.314574395318277 1
gene  2 2 201 7.210469026430502 0 874.0 7.210469026430502 1
gene  2 201 4 -4.458452655833163 0 875.0 -4.458452655833163 1
gene  1 1 211 6.804305848212726 0 921.0 6.804305848212726 1
gene  1 211 149 2.5701440913148685 0 922.0 2.5701440913148685 0
gene  1 162 218 3.9844735265232147 0 947.0 3.9844735265232147 1
gene  2 218 4 1.4942274855779272 0 948.0 1.4942274855779272 1
gene  1 211 229 0.5168645229372324 0 991.0 0.5168645229372324 1
gene  1 229 149 0.045197680000176876 0 992.0 0.045197680000176876 1
gene  2 3 149 -2.825974477805672 0 1111.0 -2.825974477805672 1
gene  2 201 162 -10.944809667222119 0 1151.0 -10.944809667222119 1
genomeend 1
/* Organism # 002 Fitness:  4.000 Error:  2.000                      */
genomestart  2
trait 1 0.06875 0.0 0.0 0.0 0.0 0.0 0.023801055305950197 0.0 
trait 2 0.1 0.1412634290958787 0.0 0.001363430081560609 0.0 0.0 0.9851503113260676 0.661528521616242 
trait 3 0.35386636961471096 1.0159496137448694 0.8296591421590434 0.03323828345753185 0.0 0.03067172874770574 0.7842890379958926 0.12535123080935073 
node 1 1 1 1
node 2 1 1 1
node 3 1 1 3
node 4 2 0 2
node 27 1 0 0
node 149 1 0 0
node 162 1 0 0
node 201 1 0 0
node 211 1 0 0
node 218 1 0 0
node 229 1 0 0
gene  1 1 4 0.7583079728700454 0 1.0 0.7583079728700454 1
gene  2 2 4 -1.1017803896652405 0 2.0 -1.1017803896652405 0
gene  3 3 4 3.159550188061725 0 3.0 3.159550188061725 1
gene  1 1 27 -3.470966719020435 0 80.0 -3.470966719020435 1
gene  1 27 4 -2.4964906650070553 0 81.0 -2.4964906650070553 1
gene  3 2 27 -0.02218243629099015 0 128.0 -0.02218243629099015 1
gene  3 3 27 2.518543859967891 0 221.0 2.518543859967891 1
gene  1 1 149 1.4382805387736464 0 673.0 1.4382805387736464 1
gene  1 149 4 -1.0429366246196707 0 674.0 -1.0429366246196707 1
gene  2 2 149 1.1376633799506943 0 701.0 1.1376633799506943 1
gene  2 2 162 2.281855667610593 0 724.0 2.281855667610593 1
gene  2 162 4 -0.02342414448465302 0 725.0 -0.02342414448465302 0
gene  2 162 149 1.3862046387736533 0 859.0 1.3862046387736533 1
gene  2 2 201 0.9178960058606295 0 874.0 0.9178960058606295 1
gene  2 201 4 -7.589300809250799 0 875.0 -7.589300809250799 1
gene  1 1 211 5.350727689288834 0 921.0 5.350727689288834 1
gene  1 211 149 1.822035419978598 0 922.0 1.822035419978598 0
gene  1 162 218 5.318205467143088 0 947.0 5.318205467143088 1
gene  2 218 4 -1.9518076940490134 0 948.0 -1.9518076940490134 1
gene  1 211 229 0.21540747988937597 0 991.0 0.21540747988937597 1
gene  1 229 149 1.249252310605076 0 992.0 1.249252310605076 1
gene  2 3 149 -0.7112579131278007 0 1111.0 -0.7112579131278007 1
gene  2 201 162 -8.87198673269799 0 1151.0 -8.87198673269799 1
genomeend 2
/*-------------------------------------------------------------------*/
/* Species # 008         : (size= 002) (AvfFit= 4.001) (Age= 74.000)  */
/*-------------------------------------------------------------------*/
/* Organism # 003 Fitness:  4.001 Error:  2.000                      */
genomestart  3
trait 1 0.9705231484165675 0.0 0.0 0.4496886226836102 0.06238223346322236 0.20026449725369408 0.0 0.0 
trait 2 0.0 0.3291122098781708 0.9455711414604356 1.3803467568087786 0.0 0.27706296753271353 0.0 0.0 
trait 3 0.7593903095090313 0.10938488939320123 0.0 0.08651291291510643 0.0 0.49099957482746426 0.0 0.0 
node 1 2 1 1
node 2 2 1 1
node 3 1 1 3
node 4 2 0 2
node 18 3 0 0
node 25 3 0 0
node 47 1 0 0
node 128 1 0 0
node 267 1 0 0
gene  1 1 4 -0.47915004094121993 0 1.0 -0.47915004094121993 1
gene  2 2 4 -1.803678966494092 0 2.0 -1.803678966494092 1
gene  3 3 4 4.842455900560174 0 3.0 4.842455900560174 1
gene  2 2 18 3.322196251360051 0 44.0 3.322196251360051 1
gene  2 18 4 2.557269646959218 0 45.0 2.557269646959218 1
gene  3 1 18 0.20628651062272363 0 63.0 0.20628651062272363 1
gene  1 1 25 2.570494502201144 0 69.0 2.570494502201144 1
gene  1 25 4 -3.377017341393246 0 70.0 -3.377017341393246 1
gene  2 18 25 4.458158970489022 0 78.0 4.458158970489022 1
gene  1 1 47 -6.338225217607377 0 180.0 -6.338225217607377 0
gene  1 47 4 -0.7422884217288712 0 181.0 -0.7422884217288712 1
gene  1 25 47 -3.724970699343295 0 428.0 -3.724970699343295 1
gene  1 3 47 1.5652612978477662 0 474.0 1.5652612978477662 1
gene  2 2 128 -3.712909141083247 0 575.0 -3.712909141083247 1
gene  2 128 4 1.5761918793446485 0 576.0 1.5761918793446485 1
gene  3 128 47 3.940477668693004 0 628.0 3.940477668693004 1
gene  2 1 128 -0.24082634260985608 0 694.0 -0.24082634260985608 1
gene  1 128 18 -0.6001173800346735 0 853.0 -0.6001173800346735 1
gene  2 3 18 3.061899675625468 0 873.0 3.061899675625468 1
gene  1 128 25 1.3030811705843113 0 918.0 1.3030811705843113 1
gene  1 1 267 2.3491561137867594 0 1171.0 2.3491561137867594 1
gene  1 267 47 -6.606463624962865 0 1172.0 -6.606463624962865 1
genomeend 3
/* Organism # 004 Fitness:  4.001 Error:  2.000                      */
genomestart  4
trait 1 0.9705231484165675 0.0 0.0 0.4496886226836102 0.06238223346322236 0.20026449725369408 0.0 0.0 
trait 2 0.0 0.3291122098781708 0.9455711414604356 1.3803467568087786 0.0 0.27706296753271353 0.0 0.0 
trait 3 0.7593903095090313 0.10938488939320123 0.0 0.08651291291510643 0.0 0.49099957482746426 0.0 0.0 
node 1 2 1 1
node 2 2 1 1
node 3 1 1 3
node 4 2 0 2
node 18 3 0 0
node 25 3 0 0
node 47 1 0 0
node 128 1 0 0
node 267 1 0 0
gene  1 1 4 -2.929867593902626 0 1.0 -2.929867593902626 1
gene  2 2 4 -2.3375081055766156 0 2.0 -2.3375081055766156 1
gene  3 3 4 6.173687752585293 0 3.0 6.173687752585293 1
gene  2 2 18 5.427841633852664 0 44.0 5.427841633852664 1
gene  2 18 4 3.7014304639287245 0 45.0 3.7014304639287245 1
gene  3 1 18 2.1909653088537513 0 63.0 2.1909653088537513 1
gene  1 1 25 3.661469860538843 0 69.0 3.661469860538843 1
gene  1 25 4 -2.9463403557605914 0 70.0 -2.9463403557605914 1
gene  2 18 25 6.26696819950601 0 78.0 6.26696819950601 1
gene  1 1 47 -7.442172677654526 0 180.0 -7.442172677654526 1
gene  2 47 4 -2.0319292817068586 0 181.0 -2.0319292817068586 1
gene  1 25 47 -1.9455508458966622 0 428.0 -1.9455508458966622 1
gene  1 3 47 2.279839417373415 0 474.0 2.279839417373415 1
gene  2 2 128 -5.770595228227597 0 575.0 -5.770595228227597 1
gene  2 128 4 2.3383608866069387 0 576.0 2.3383608866069387 1
gene  3 128 47 6.106783799839603 0 628.0 6.106783799839603 1
gene  2 1 128 -0.40800254154120386 0 694.0 -0.40800254154120386 1
gene  1 128 18 1.532014140339443 0 853.0 1.532014140339443 1
gene  2 3 18 3.061899675625468 0 873.0 3.061899675625468 1
gene  1 128 25 -1.0030294532457984 0 918.0 -1.0030294532457984 1
gene  1 1 267 1.0 0 1171.0 0.0 1
gene  1 267 47 -7.442172677654526 0 1172.0 0.0 1
genomeend 4
/*-------------------------------------------------------------------*/
/* Species # 009         : (size= 005) (AvfFit= 7.000) (Age= 73.000)  */
/*-------------------------------------------------------------------*/
/* Organism # 005 Fitness:  4.000 Error:  2.000                      */
genomestart  5
trait 1 0.08095703125 0.17058250465120967 0.0 0.03137016751792348 0.0 0.0 0.0 0.0 
trait 2 0.24344716250459295 0.0 0.03420370051487321 0.05329185178940672 0.0 0.04194257483884601 0.0 0.0 
trait 3 0.3 0.08272181738054382 0.2515412502623684 0.0 0.0 0.6192375517619333 0.2919406141810683 0.13865768321162808 
node 1 2 1 1
node 2 1 1 1
node 3 1 1 3
node 4 1 0 2
node 7 1 0 0
node 26 2 0 0
node 29 1 0 0
node 165 1 0 0
node 202 1 0 0
gene  3 1 4 1.896218630527681 0 1.0 1.896218630527681 1
gene  2 2 4 -15.963701397922316 0 2.0 -15.963701397922316 1
gene  3 3 4 -0.43430440223909905 0 3.0 -0.43430440223909905 1
gene  1 1 7 8.976268815833864 0 8.0 8.976268815833864 1
gene  1 7 4 21.64231683624114 0 9.0 21.64231683624114 1
gene  2 2 7 -4.896660427590037 0 12.0 -4.896660427590037 1
gene  2 3 7 -4.122511144642727 0 64.0 -4.122511144642727 1
gene  3 1 26 -6.437934662960434 0 73.0 -6.437934662960434 1
gene  1 26 4 4.099547903394647 0 74.0 4.099547903394647 1
gene  1 1 29 -0.5363907943231929 0 90.0 -0.5363907943231929 1
gene  1 29 7 -6.739292114800583 0 91.0 -6.739292114800583 1
gene  3 2 29 -13.022304662685265 0 185.0 -13.022304662685265 1
gene  3 29 4 -1.4199855390805691 0 315.0 -1.4199855390805691 1
gene  2 3 26 4.501703390556858 0 337.0 4.501703390556858 1
gene  1 29 26 1.4666774859818714 0 357.0 1.4666774859818714 1
gene  2 2 165 -9.349015552809263 0 731.0 -9.349015552809263 0
gene  2 165 7 -0.7770492504299691 0 732.0 -0.7770492504299691 1
gene  2 2 202 -6.177466637810132 0 882.0 -6.177466637810132 1
gene  2 202 165 -1.7954986254142762 0 883.0 -1.7954986254142762 1
genomeend 5
/* Organism # 006 Fitness:  9.000 Error:  1.000                      */
genomestart  6
trait 1 0.08095703125 0.17058250465120967 0.0 0.03137016751792348 0.0 0.0 0.0 0.0 
trait 2 0.24344716250459295 0.0 0.03420370051487321 0.05329185178940672 0.0 0.04194257483884601 0.0 0.0 
trait 3 0.3 0.08272181738054382 0.2515412502623684 0.0 0.0 0.6192375517619333 0.2919406141810683 0.13865768321162808 
node 1 2 1 1
node 2 1 1 1
node 3 1 1 3
node 4 1 0 2
node 7 1 0 0
node 26 2 0 0
node 29 1 0 0
node 165 1 0 0
node 202 1 0 0
gene  3 1 4 3.603756120385381 0 1.0 3.603756120385381 1
gene  2 2 4 -15.28974783927782 0 2.0 -15.28974783927782 1
gene  3 3 4 -16.07907657883902 0 3.0 -16.07907657883902 1
gene  1 1 7 11.465819937850798 0 8.0 11.465819937850798 1
gene  1 7 4 23.220022652997134 0 9.0 23.220022652997134 1
gene  2 2 7 -6.342099076119586 0 12.0 -6.342099076119586 1
gene  2 3 7 -6.943271683654598 0 64.0 -6.943271683654598 1
gene  3 1 26 -4.698104992117683 0 73.0 -4.698104992117683 1
gene  1 26 4 6.317643581492547 0 74.0 6.317643581492547 1
gene  1 1 29 -3.7058342959603774 0 90.0 -3.7058342959603774 1
gene  1 29 7 -4.946276205936085 0 91.0 -4.946276205936085 1
gene  3 2 29 -12.400629237181676 0 185.0 -12.400629237181676 1
gene  3 29 4 10.452479082995772 0 315.0 10.452479082995772 1
gene  2 3 26 3.844317666015015 0 337.0 3.844317666015015 1
gene  1 29 26 1.0835058519032097 0 357.0 1.0835058519032097 1
gene  2 2 165 -13.794603355669734 0 731.0 -13.794603355669734 0
gene  2 165 7 1.7592892130428206 0 732.0 1.7592892130428206 1
gene  2 2 202 -4.219654499543426 0 882.0 -4.219654499543426 1
gene  2 202 165 1.7047599489958611 0 883.0 1.7047599489958611 1
genomeend 6
/* Organism # 007 Fitness:  9.000 Error:  1.000                      */
genomestart  7
trait 1 0.08095703125 0.17058250465120967 0.0 0.03137016751792348 0.0 0.0 0.0 0.0 
trait 2 0.24344716250459295 0.0 0.03420370051487321 0.05329185178940672 0.0 0.04194257483884601 0.0 0.0 
trait 3 0.3 0.08272181738054382 0.2515412502623684 0.0 0.0 0.6192375517619333 0.2919406141810683 0.13865768321162808 
node 1 2 1 1
node 2 1 1 1
node 3 1 1 3
node 4 1 0 2
node 7 1 0 0
node 26 2 0 0
node 29 1 0 0
node 165 1 0 0
node 202 1 0 0
gene  3 1 4 7.323639215282678 0 1.0 7.323639215282678 1
gene  2 2 4 -17.418212344190287 0 2.0 -17.418212344190287 1
gene  3 3 4 -17.27243545244057 0 3.0 -17.27243545244057 1
gene  1 1 7 10.678000900180429 0 8.0 10.678000900180429 1
gene  1 7 4 16.357264929574374 0 9.0 16.357264929574374 1
gene  2 2 7 -7.3093790618247 0 12.0 -7.3093790618247 1
gene  2 3 7 -0.8535594651773741 0 64.0 -0.8535594651773741 1
gene  3 1 26 -7.468097644513504 0 73.0 -7.468097644513504 1
gene  1 26 4 0.2918815118603113 0 74.0 0.2918815118603113 1
gene  1 1 29 -2.3794145769813815 0 90.0 -2.3794145769813815 1
gene  1 29 7 -4.453538411304294 0 91.0 -4.453538411304294 1
gene  3 2 29 0.16876144300905116 0 185.0 0.16876144300905116 1
gene  3 29 4 11.507779087432016 0 315.0 11.507779087432016 1
gene  2 3 26 5.06358179395442 0 337.0 5.06358179395442 1
gene  1 29 26 -3.3426401404089106 0 357.0 -3.3426401404089106 1
gene  2 2 165 -12.1606947083787 0 731.0 -12.1606947083787 0
gene  2 165 7 -1.0182083335205556 0 732.0 -1.0182083335205556 1
gene  2 2 202 0.951458192898901 0 882.0 0.951458192898901 1
gene  2 202 165 0.3016778024819186 0 883.0 0.3016778024819186 1
genomeend 7
/* Organism # 008 Fitness:  9.000 Error:  1.000                      */
genomestart  8
trait 1 0.08095703125 0.17058250465120967 0.0 0.03137016751792348 0.0 0.0 0.0 0.0 
trait 2 0.24344716250459295 0.0 0.03420370051487321 0.05329185178940672 0.0 0.04194257483884601 0.0 0.0 
trait 3 0.3 0.08272181738054382 0.2515412502623684 0.0 0.0 0.6192375517619333 0.2919406141810683 0.13865768321162808 
node 1 2 1 1
node 2 1 1 1
node 3 1 1 3
node 4 1 0 2
node 7 1 0 0
node 26 2 0 0
node 29 1 0 0
node 165 1 0 0
node 202 1 0 0
gene  3 1 4 7.489809708258328 0 1.0 7.489809708258328 1
gene  2 2 4 -15.524703718563739 0 2.0 -15.524703718563739 1
gene  3 3 4 -18.556883090184673 0 3.0 -18.556883090184673 1
gene  1 1 7 8.836162879169455 0 8.0 8.836162879169455 1
gene  1 7 4 16.33588507835994 0 9.0 16.33588507835994 1
gene  2 2 7 -6.031158617388612 0 12.0 -6.031158617388612 1
gene  2 3 7 -3.324518254783608 0 64.0 -3.324518254783608 1
gene  3 1 26 -8.70905246523214 0 73.0 -8.70905246523214 1
gene  1 26 4 0.9228057091719659 0 74.0 0.9228057091719659 1
gene  1 1 29 -1.288344287760166 0 90.0 -1.288344287760166 1
gene  1 29 7 -1.1466952045145626 0 91.0 -1.1466952045145626 1
gene  3 2 29 -7.913842012613593 0 185.0 -7.913842012613593 1
gene  3 29 4 8.731344529926096 0 315.0 8.731344529926096 1
gene  2 3 26 6.941360002345251 0 337.0 6.941360002345251 1
gene  1 29 26 0.1410435220091495 0 357.0 0.1410435220091495 1
gene  2 2 165 -10.64111956690279 0 731.0 -10.64111956690279 0
gene  2 165 7 0.9990754566798179 0 732.0 0.9990754566798179 1
gene  2 2 202 -6.338971151956634 0 882.0 -6.338971151956634 1
gene  2 202 165 1.613881951924105 0 883.0 1.613881951924105 1
genomeend 8
/* Organism # 009 Fitness:  4.000 Error:  2.000                      */
genomestart  9
trait 1 0.08095703125 0.17058250465120967 0.0 0.03137016751792348 0.0 0.0 0.0 0.0 
trait 2 0.24344716250459295 0.0 0.03420370051487321 0.05329185178940672 0.0 0.04194257483884601 0.0 0.0 
trait 3 0.3 0.08272181738054382 0.2515412502623684 0.0 0.0 0.6192375517619333 0.2919406141810683 0.13865768321162808 
node 1 2 1 1
node 2 1 1 1
node 3 1 1 3
node 4 1 0 2
node 7 1 0 0
node 26 2 0 0
node 29 1 0 0
node 165 1 0 0
node 202 1 0 0
gene  3 1 4 7.633946108980691 0 1.0 7.633946108980691 1
gene  2 2 4 -0.02747024231984946 0 2.0 -0.02747024231984946 1
gene  3 3 4 -19.467602927535488 0 3.0 -19.467602927535488 1
gene  1 1 7 11.741441732528028 0 8.0 11.741441732528028 1
gene  1 7 4 16.490019973297194 0 9.0 16.490019973297194 1
gene  2 2 7 -3.5459423140381556 0 12.0 -3.5459423140381556 1
gene  2 3 7 -1.0457134651460338 0 64.0 -1.0457134651460338 1
gene  3 1 26 -5.648093236085149 0 73.0 -5.648093236085149 1
gene  1 26 4 1.934576588430304 0 74.0 1.934576588430304 1
gene  1 1 29 1.4025858768714647 0 90.0 1.4025858768714647 1
gene  1 29 7 -1.6841028645722735 0 91.0 -1.6841028645722735 1
gene  3 2 29 -10.262433180477226 0 185.0 -10.262433180477226 1
gene  3 29 4 11.361191074423447 0 315.0 11.361191074423447 1
gene  2 3 26 8.114567474665328 0 337.0 8.114567474665328 1
gene  1 29 26 -1.5685641260656626 0 357.0 -1.5685641260656626 1
gene  2 2 165 -12.171089607176752 0 731.0 -12.171089607176752 0
gene  2 165 7 1.1997021843727396 0 732.0 1.1997021843727396 1
gene  2 2 202 -2.966650135149689 0 882.0 -2.966650135149689 1
gene  2 202 165 -2.037160943015715 0 883.0 -2.037160943015715 1
genomeend 9
/*-------------------------------------------------------------------*/
/* Species # 010         : (size= 008) (AvfFit= 14.500) (Age= 72.000)  */
/*-------------------------------------------------------------------*/
/* Organism # 010 Fitness:  16.000 Error:  0.000                      */
/*  $  This organism is WINNER with genome_id  010 Species # 010 $   */
genomestart  10
trait 1 0.1 0.0 0.0 0.0 0.0 0.0 0.0 0.0 
trait 2 0.2 0.0 0.0 0.0 0.0 0.0 0.0 0.0 
trait 3 1.151261093921767 0.0 0.3757904518075883 0.5931851759569372 0.20136119511435402 0.0 0.0 0.09193199983138745 
node 1 3 1 1
node 2 1 1 1
node 3 3 1 3
node 4 1 0 2
node 27 1 0 0
gene  1 1 4 -10.245773982529332 0 1.0 -10.245773982529332 1
gene  2 2 4 -12.598770111525798 0 2.0 -12.598770111525798 1
gene  3 3 4 -6.771354310064494 0 3.0 -6.771354310064494 1
gene  3 1 27 6.731092654886878 0 80.0 6.731092654886878 1
gene  1 27 4 24.848020964052075 0 81.0 24.848020964052075 1
gene  2 3 27 -3.1731755365901755 0 109.0 -3.1731755365901755 1
gene  2 2 27 7.163582611199795 0 113.0 7.163582611199795 1
genomeend 10
/* Organism # 011 Fitness:  16.000 Error:  0.000                      */
/*  $  This organism is WINNER with genome_id  011 Species # 010 $   */
genomestart  11
trait 1 0.1 0.0 0.0 0.0 0.0 0.0 0.0 0.0 
trait 2 0.2 0.0 0.0 0.0 0.0 0.0 0.0 0.0 
trait 3 1.151261093921767 0.0 0.3757904518075883 0.5931851759569372 0.20136119511435402 0.0 0.0 0.09193199983138745 
node 1 3 1 1
node 2 1 1 1
node 3 3 1 3
node 4 1 0 2
node 27 1 0 0
gene  1 1 4 -8.886148627883601 0 1.0 -8.886148627883601 1
gene  2 2 4 -10.604280426957924 0 2.0 -10.604280426957924 1
gene  3 3 4 -7.9657843789167995 0 3.0 -7.9657843789167995 1
gene  3 1 27 6.727822999989299 0 80.0 6.727822999989299 1
gene  1 27 4 25.271552728515896 0 81.0 25.271552728515896 1
gene  2 3 27 -3.5126665430486606 0 109.0 -3.5126665430486606 1
gene  2 2 27 9.213806170625018 0 113.0 9.213806170625018 1
genomeend 11
/* Organism # 012 Fitness:  4.000 Error:  2.000                      */
genomestart  12
trait 1 0.1 0.0 0.0 0.0 0.0 0.0 0.0 0.0 
trait 2 0.2 0.0 0.0 0.0 0.0 0.0 0.0 0.0 
trait 3 1.151261093921767 0.0 0.3757904518075883 0.5931851759569372 0.20136119511435402 0.0 0.0 0.09193199983138745 
node 1 3 1 1
node 2 1 1 1
node 3 3 1 3
node 4 1 0 2
node 27 1 0 0
gene  1 1 4 -8.635333528666903 0 1.0 -8.635333528666903 1
gene  2 2 4 -11.82418871796792 0 2.0 -11.82418871796792 1
gene  3 3 4 -6.244174438599554 0 3.0 -6.244174438599554 1
gene  3 1 27 6.731092654886878 0 80.0 6.731092654886878 1
gene  1 27 4 2.126931487328368 0 81.0 2.126931487328368 1
gene  2 3 27 -3.9230363094778244 0 109.0 -3.9230363094778244 1
gene  2 2 27 0.6047376601083885 0 113.0 0.6047376601083885 1
genomeend 12
/* Organism # 013 Fitness:  16.000 Error:  0.000                      */
/*  $  This organism is WINNER with genome_id  013 Species # 010 $   */
genomestart  13
trait 1 0.1 0.0 0.0 0.0 0.0 0.0 0.0 0.0 
trait 2 0.2 0.0 0.0 0.0 0.0 0.0 0.0 0.0 
trait 3 1.151261093921767 0.0 0.3757904518075883 0.5931851759569372 0.20136119511435402 0.0 0.0 0.09193199983138745 
node 1 3 1 1
node 2 1 1 1
node 3 3 1 3
node 4 1 0 2
node 27 1 0 0
gene  1 1 4 -8.930065285548391 0 1.0 -8.930065285548391 1
gene  2 2 4 -14.676136697879322 0 2.0 -14.676136697879322 1
gene  3 3 4 -6.528977747098607 0 3.0 -6.528977747098607 1
gene  3 1 27 7.16857993031444 0 80.0 7.16857993031444 1
gene  1 27 4 26.13696693003992 0 81.0 26.13696693003992 1
gene  2 3 27 -2.1924447897058092 0 109.0 -2.1924447897058092 1
gene  2 2 27 7.021523339002706 0 113.0 7.021523339002706 1
genomeend 13
/* Organism # 014 Fitness:  16.000 Error:  0.000                      */
/*  $  This organism is WINNER with genome_id  014 Species # 010 $   */
genomestart  14
trait 1 0.1 0.0 0.0 0.0 0.0 0.0 0.0 0.0 
trait 2 0.2 0.0 0.0 0.0 0.0 0.0 0.0 0.0 
trait 3 1.151261093921767 0.0 0.3757904518075883 0.5931851759569372 0.20136119511435402 0.0 0.0 0.09193199983138745 
node 1 3 1 1
node 2 1 1 1
node 3 3 1 3
node 4 1 0 2
node 27 1 0 0
gene  1 1 4 -10.245773982529332 0 1.0 -10.245773982529332 1
gene  2 2 4 -12.598770111525798 0 2.0 -12.598770111525798 1
gene  3 3 4 -6.771354310064494 0 3.0 -6.771354310064494 1
gene  3 1 27 6.731092654886878 0 80.0 6.731092654886878 1
gene  1 27 4 24.848020964052075 0 81.0 24.848020964052075 1
gene  2 3 27 -3.1731755365901755 0 109.0 -3.1731755365901755 1
gene  2 2 27 7.163582611199795 0 113.0 7.163582611199795 1
genomeend 14
/* Organism # 015 Fitness:  16.000 Error:  0.000                      */
/*  $  This organism is WINNER with genome_id  015 Species # 010 $   */
genomestart  15
trait 1 0.1 0.0 0.0 0.0 0.0 0.0 0.0 0.0 
trait 2 0.2 0.0 0.0 0.0 0.0 0.0 0.0 0.0 
trait 3 1.151261093921767 0.0 0.3757904518075883 0.5931851759569372 0.20136119511435402 0.0 0.0 0.09193199983138745 
node 1 3 1 1
node 2 1 1 1
node 3 3 1 3
node 4 1 0 2
node 27 3 0 0
gene  1 1 4 -11.310213936444601 0 1.0 -11.310213936444601 1
gene  2 2 4 -10.639151363432328 0 2.0 -10.639151363432328 1
gene  3 3 4 -7.8763639317803085 0 3.0 -7.8763639317803085 1
gene  3 1 27 9.02004063227903 0 80.0 9.02004063227903 1
gene  1 27 4 23.086758041075488 0 81.0 23.086758041075488 1
gene  2 3 27 -4.691680519055393 0 109.0 -4.691680519055393 1
gene  2 2 27 5.737510943950537 0 113.0 5.737510943950537 1
genomeend 15
/* Organism # 016 Fitness:  16.000 Error:  0.000                      */
/*  $  This organism is WINNER with genome_id  016 Species # 010 $   */
genomestart  16
trait 1 0.1 0.0 0.0 0.0 0.0 0.0 0.0 0.0 
trait 2 0.2 0.0 0.0 0.0 0.0 0.0 0.0 0.0 
trait 3 1.151261093921767 0.0 0.3757904518075883 0.5931851759569372 0.20136119511435402 0.0 0.0 0.09193199983138745 
node 1 3 1 1
node 2 1 1 1
node 3 3 1 3
node 4 1 0 2
node 27 1 0 0
gene  1 1 4 -12.50098178088074 0 1.0 -12.50098178088074 1
gene  2 2 4 -10.84431830514453 0 2.0 -10.84431830514453 1
gene  3 3 4 -7.161861742469301 0 3.0 -7.161861742469301 1
gene  3 1 27 8.38281092211654 0 80.0 8.38281092211654 1
gene  1 27 4 24.671831355616593 0 81.0 24.671831355616593 1
gene  2 3 27 -5.16503399598515 0 109.0 -5.16503399598515 1
gene  2 2 27 6.2706883418410335 0 113.0 6.2706883418410335 1
genomeend 16
/* Organism # 017 Fitness:  16.000 Error:  0.000                      */
/*  $  This organism is WINNER with genome_id  017 Species # 010 $   */
genomestart  17
trait 1 0.1 0.0 0.0 0.0 0.0 0.0 0.0 0.0 
trait 2 0.2 0.0 0.0 0.0 0.0 0.0 0.0 0.0 
trait 3 1.151261093921767 0.0 0.3757904518075883 0.5931851759569372 0.20136119511435402 0.0 0.0 0.09193199983138745 
node 1 3 1 1
node 2 1 1 1
node 3 3 1 3
node 4 1 0 2
node 27 1 0 0
gene  1 1 4 -10.245773982529332 0 1.0 -10.245773982529332 1
gene  2 2 4 -12.598770111525798 0 2.0 -12.598770111525798 1
gene  3 3 4 -6.771354310064494 0 3.0 -6.771354310064494 1
gene  3 1 27 6.731092654886878 0 80.0 6.731092654886878 1
gene  1 27 4 24.848020964052075 0 81.0 24.848020964052075 1
gene  2 3 27 -3.1731755365901755 0 109.0 -3.1731755365901755 1
gene  2 2 27 7.163582611199795 0 113.0 7.163582611199795 1
genomeend 17
/*-------------------------------------------------------------------*/
/* Species # 011         : (size= 004) (AvfFit= 9.000) (Age= 72.000)  */
/*-------------------------------------------------------------------*/
/* Organism # 018 Fitness:  9.000 Error:  1.000                      */
genomestart  18
trait 1 0.13758880872216217 0.0 0.0 0.0 0.0 0.0 0.0 0.23261439317019972 
trait 2 0.2 0.2177678020902366 0.0 0.796866821784067 0.0 0.0 0.0 0.0 
trait 3 0.6647931693886189 0.0 0.0 0.11609151232060977 0.0 0.1999730630644102 0.018335650124731706 0.0 
node 1 2 1 1
node 2 2 1 1
node 3 1 1 3
node 4 3 0 2
node 17 1 0 0
node 59 1 0 0
gene  3 1 4 -2.81070348602584 0 1.0 -2.81070348602584 1
gene  3 2 4 6.458978714661137 0 2.0 6.458978714661137 1
gene  3 3 4 -8.305695786472192 0 3.0 -8.305695786472192 1
gene  2 1 17 4.997522072536925 0 38.0 4.997522072536925 1
gene  3 17 4 22.933261320858225 0 39.0 22.933261320858225 1
gene  1 2 17 19.37667670072085 0 175.0 19.37667670072085 1
gene  2 2 59 -5.782619882209359 0 244.0 -5.782619882209359 1
gene  1 59 4 -19.207685600119355 0 245.0 -19.207685600119355 1
gene  1 1 59 -6.498378056867995 0 850.0 -6.498378056867995 1
genomeend 18
/* Organism # 019 Fitness:  9.000 Error:  1.000                      */
genomestart  19
trait 1 0.13758880872216217 0.0 0.0 0.0 0.0 0.0 0.0 0.23261439317019972 
trait 2 0.2 0.2177678020902366 0.0 0.796866821784067 0.0 0.0 0.0 0.0 
trait 3 0.6647931693886189 0.0 0.0 0.11609151232060977 0.0 0.1999730630644102 0.018335650124731706 0.0 
node 1 2 1 1
node 2 2 1 1
node 3 1 1 3
node 4 3 0 2
node 17 1 0 0
node 59 1 0 0
gene  3 1 4 -5.9406589472431035 0 1.0 -5.9406589472431035 0
gene  3 2 4 6.815223200634716 0 2.0 6.815223200634716 1
gene  3 3 4 -11.782836272792105 0 3.0 -11.782836272792105 1
gene  2 1 17 4.738968565247599 0 38.0 4.738968565247599 1
gene  3 17 4 20.67926987258514 0 39.0 20.67926987258514 1
gene  1 2 17 21.480613508519028 0 175.0 21.480613508519028 1
gene  2 2 59 -4.725589822871046 0 244.0 -4.725589822871046 1
gene  1 59 4 -16.000634312181102 0 245.0 -16.000634312181102 1
gene  1 1 59 -5.1823936438320235 0 850.0 -5.1823936438320235 1
genomeend 19
/* Organism # 020 Fitness:  9.000 Error:  1.000                      */
genomestart  20
trait 1 0.13758880872216217 0.0 0.0 0.0 0.0 0.0 0.0 0.23261439317019972 
trait 2 0.2 0.2177678020902366 0.0 0.796866821784067 0.0 0.0 0.0 0.0 
trait 3 0.6647931693886189 0.0 0.0 0.11609151232060977 0.0 0.1999730630644102 0.018335650124731706 0.0 
node 1 2 1 1
node 2 2 1 1
node 3 1 1 3
node 4 3 0 2
node 17 1 0 0
node 59 1 0 0
gene  3 1 4 -4.062175120055067 0 1.0 -4.062175120055067 1
gene  3 2 4 7.226859180414531 0 2.0 7.226859180414531 1
gene  3 3 4 -12.076498968725819 0 3.0 -12.076498968725819 1
gene  2 1 17 8.160016374877372 0 38.0 8.160016374877372 1
gene  3 17 4 21.318901963176046 0 39.0 21.318901963176046 1
gene  1 2 17 18.71129421735549 0 175.0 18.71129421735549 1
gene  2 2 59 -1.3457818008637703 0 244.0 -1.3457818008637703 1
gene  1 59 4 -16.368619652751015 0 245.0 -16.368619652751015 1
gene  1 1 59 -8.068349926275333 0 850.0 -8.068349926275333 1
genomeend 20
/* Organism # 021 Fitness:  9.000 Error:  1.000                      */
genomestart  21
trait 1 0.13758880872216217 0.0 0.0 0.0 0.0 0.0 0.0 0.23261439317019972 
trait 2 0.2 0.2177678020902366 0.0 0.796866821784067 0.0 0.0 0.0 0.0 
trait 3 0.6647931693886189 0.0 0.0 0.11609151232060977 0.0 0.1999730630644102 0.018335650124731706 0.0 
node 1 2 1 1
node 2 2 1 1
node 3 1 1 3
node 4 3 0 2
node 17 1 0 0
node 59 1 0 0
gene  3 1 4 -4.963708977417349 0 1.0 -4.963708977417349 0
gene  3 2 4 6.44169010937854 0 2.0 6.44169010937854 0
gene  3 3 4 -11.245884550690251 0 3.0 -11.245884550690251 1
gene  2 1 17 7.885863641800226 0 38.0 7.885863641800226 1
gene  3 17 4 23.413603527000856 0 39.0 23.413603527000856 1
gene  1 2 17 18.91577218241805 0 175.0 18.91577218241805 1
gene  2 2 59 -6.806574195543176 0 244.0 -6.806574195543176 1
gene  1 59 4 -18.499718695734394 0 245.0 -18.499718695734394 1
gene  1 1 59 -8.102325900925742 0 850.0 -8.102325900925742 1
genomeend 21
/*-------------------------------------------------------------------*/
/* Species # 014         : (size= 004) (AvfFit= 8.113) (Age= 70.000)  */
/*-------------------------------------------------------------------*/
/* Organism # 022 Fitness:  4.000 Error:  2.000                      */
genomestart  22
trait 1 0.7967452314742557 0.17845554332741934 0.0 0.0328180214033661 0.0 0.0 0.0 0.0 
trait 2 0.0 0.0 0.0 0.20631741608972873 0.0 0.3897432748031502 0.0 0.7538324996060509 
trait 3 0.4699729905849149 0.2310849248346033 0.21623721513782546 0.8577324532130781 0.2277504798096388 0.0 0.021860793569105474 0.0 
node 1 1 1 1
node 2 1 1 1
node 3 3 1 3
node 4 1 0 2
node 7 3 0 0
node 34 1 0 0
node 112 3 0 0
gene  1 1 4 -5.949256011823313 0 1.0 -5.949256011823313 1
gene  1 2 4 0.3802244705774691 0 2.0 0.3802244705774691 1
gene  3 3 4 2.206678114530264 0 3.0 2.206678114530264 1
gene  1 1 7 8.67655276815095 0 8.0 8.67655276815095 1
gene  2 7 4 13.260764693533652 0 9.0 13.260764693533652 1
gene  2 2 7 10.054613935644673 0 12.0 10.054613935644673 1
gene  2 3 7 -0.4348591576674979 0 64.0 -0.4348591576674979 1
gene  1 1 34 -8.22131378737895 0 105.0 -8.22131378737895 1
gene  2 34 7 2.3222771765167445 0 106.0 2.3222771765167445 1
gene  3 2 34 0.13663022470944852 0 144.0 0.13663022470944852 1
gene  2 34 4 -18.91763199463551 0 235.0 -18.91763199463551 1
gene  1 2 112 6.465977197733418 0 497.0 6.465977197733418 1
gene  2 112 4 17.292880566081603 0 498.0 17.292880566081603 1
gene  2 3 34 -2.308070578468064 0 572.0 -2.308070578468064 1
gene  3 34 112 -2.408145030724673 0 609.0 -2.408145030724673 1
gene  1 3 112 0.4093373008290094 0 620.0 0.4093373008290094 1
gene  3 7 112 -1.01479306797973 0 670.0 -1.01479306797973 1
gene  2 1 112 -6.164795681952739 0 804.0 -6.164795681952739 1
genomeend 22
/* Organism # 023 Fitness:  4.013 Error:  1.997                      */
genomestart  23
trait 1 0.7967452314742557 0.17845554332741934 0.0 0.0328180214033661 0.0 0.0 0.0 0.0 
trait 2 0.0 0.0 0.0 0.40060360361658853 0.0 0.0 0.9896464716283385 0.0 
trait 3 0.4699729905849149 0.2310849248346033 0.21623721513782546 0.8577324532130781 0.2277504798096388 0.0 0.021860793569105474 0.0 
node 1 1 1 1
node 2 1 1 1
node 3 3 1 3
node 4 1 0 2
node 7 3 0 0
node 34 1 0 0
node 112 3 0 0
gene  1 1 4 -3.3138873652731053 0 1.0 -3.3138873652731053 1
gene  3 2 4 -0.6521901927546385 0 2.0 -0.6521901927546385 1
gene  3 3 4 4.432699827464451 0 3.0 4.432699827464451 1
gene  1 1 7 7.477628829394986 0 8.0 7.477628829394986 1
gene  2 7 4 16.51280401448964 0 9.0 16.51280401448964 1
gene  2 2 7 7.333735291424895 0 12.0 7.333735291424895 1
gene  2 3 7 4.834481098765089 0 64.0 4.834481098765089 1
gene  1 1 34 -4.535433199723022 0 105.0 -4.535433199723022 1
gene  1 34 7 -14.526073100555005 0 106.0 -14.526073100555005 1
gene  3 2 34 0.6075288115180268 0 144.0 0.6075288115180268 1
gene  2 34 4 -21.782800835313086 0 235.0 -21.782800835313086 1
gene  1 2 112 8.646846190450596 0 497.0 8.646846190450596 1
gene  2 112 4 16.84747450814343 0 498.0 16.84747450814343 1
gene  2 3 34 7.1005962387974595 0 572.0 7.1005962387974595 1
gene  3 34 112 -5.615874451159022 0 609.0 -5.615874451159022 1
gene  1 3 112 -1.3797906825572759 0 620.0 -1.3797906825572759 1
gene  3 7 112 -2.289172606061214 0 670.0 -2.289172606061214 1
gene  2 1 112 -0.748801673714084 0 804.0 -0.748801673714084 1
genomeend 23
/* Organism # 024 Fitness:  8.438 Error:  1.095                      */
genomestart  24
trait 1 0.7967452314742557 0.17845554332741934 0.0 0.0328180214033661 0.0 0.0 0.0 0.0 
trait 2 0.0 0.0 0.0 0.20631741608972873 0.0 0.3897432748031502 0.0 0.7538324996060509 
trait 3 0.4699729905849149 0.2310849248346033 0.21623721513782546 0.8577324532130781 0.2277504798096388 0.0 0.021860793569105474 0.0 
node 1 1 1 1
node 2 1 1 1
node 3 3 1 3
node 4 1 0 2
node 7 3 0 0
node 34 1 0 0
node 112 3 0 0
gene  1 1 4 -3.5796002195738463 0 1.0 -3.5796002195738463 1
gene  1 2 4 0.6044114867084782 0 2.0 0.6044114867084782 1
gene  3 3 4 5.436135687241595 0 3.0 5.436135687241595 1
gene  1 1 7 6.771587315906675 0 8.0 6.771587315906675 1
gene  2 7 4 14.455130052390784 0 9.0 14.455130052390784 1
gene  2 2 7 7.212223945537523 0 12.0 7.212223945537523 1
gene  2 3 7 7.982764677439069 0 64.0 7.982764677439069 1
gene  1 1 34 -7.520416550710367 0 105.0 -7.520416550710367 1
gene  1 34 7 -12.727694653337863 0 106.0 -12.727694653337863 1
gene  3 2 34 -0.39491486013153687 0 144.0 -0.39491486013153687 1
gene  2 34 4 -19.444158343391457 0 235.0 -19.444158343391457 1
gene  1 2 112 5.241464542509579 0 497.0 5.241464542509579 1
gene  2 112 4 14.49357416666238 0 498.0 14.49357416666238 1
gene  2 3 34 8.348764349534502 0 572.0 8.348764349534502 1
gene  3 34 112 -5.1009513040173555 0 609.0 -5.1009513040173555 1
gene  1 3 112 0.24795384828623646 0 620.0 0.24795384828623646 1
gene  3 7 112 -2.198651559937886 0 670.0 -2.198651559937886 1
gene  2 1 112 -4.202034461833657 0 804.0 -4.202034461833657 1
genomeend 24
/* Organism # 025 Fitness:  16.000 Error:  0.000                      */
/*  $  This organism is WINNER with genome_id  025 Species # 014 $   */
genomestart  25
trait 1 0.7967452314742557 0.17845554332741934 0.0 0.0328180214033661 0.0 0.0 0.0 0.0 
trait 2 0.0 0.0 0.0 0.20631741608972873 0.0 0.3897432748031502 0.0 0.7538324996060509 
trait 3 0.4699729905849149 0.2310849248346033 0.21623721513782546 0.8577324532130781 0.2277504798096388 0.0 0.021860793569105474 0.0 
node 1 1 1 1
node 2 1 1 1
node 3 3 1 3
node 4 1 0 2
node 7 3 0 0
node 34 1 0 0
node 112 3 0 0
gene  1 1 4 -3.6526472779355013 0 1.0 -3.6526472779355013 1
gene  1 2 4 1.0837534914628408 0 2.0 1.0837534914628408 1
gene  3 3 4 4.310229108001551 0 3.0 4.310229108001551 1
gene  1 1 7 -2.1501307898828417 0 8.0 -2.1501307898828417 1
gene  2 7 4 14.169072235890585 0 9.0 14.169072235890585 1
gene  2 2 7 9.529118807880064 0 12.0 9.529118807880064 1
gene  2 3 7 7.367426577098874 0 64.0 7.367426577098874 1
gene  1 1 34 -6.714891545640684 0 105.0 -6.714891545640684 1
gene  1 34 7 -12.996123975601035 0 106.0 -12.996123975601035 1
gene  3 2 34 1.0947796955590667 0 144.0 1.0947796955590667 1
gene  2 34 4 -20.29585991051328 0 235.0 -20.29585991051328 1
gene  1 2 112 7.693717106300799 0 497.0 7.693717106300799 1
gene  2 112 4 14.23424883491038 0 498.0 14.23424883491038 1
gene  2 3 34 6.199019712416362 0 572.0 6.199019712416362 1
gene  3 34 112 -4.995940081931679 0 609.0 -4.995940081931679 1
gene  1 3 112 -0.2884497307704498 0 620.0 -0.2884497307704498 1
gene  3 7 112 -0.8437516742821632 0 670.0 -0.8437516742821632 1
gene  2 1 112 -3.5770180891903123 0 804.0 -3.5770180891903123 1
genomeend 25
/*-------------------------------------------------------------------*/
/* Species # 016         : (size= 004) (AvfFit= 6.359) (Age= 69.000)  */
/*-------------------------------------------------------------------*/
/* Organism # 026 Fitness:  4.000 Error:  2.000                      */
genomestart  26
trait 1 0.07915039062500001 0.18676597304119621 0.0 0.03434631161577775 0.0 0.01964290855023909 0.0 0.0 
trait 2 0.0 0.0 0.0 0.22054537128060178 0.0 0.7550646294524289 0.0 0.0 
trait 3 0.3 0.0653502357306296 0.08715683671371535 0.22808661851128836 0.0 0.3452723060109913 0.16840750186746922 0.0 
node 1 2 1 1
node 2 1 1 1
node 3 1 1 3
node 4 3 0 2
node 7 3 0 0
node 36 1 0 0
node 158 1 0 0
node 215 1 0 0
gene  1 1 4 3.8820559389184153 0 1.0 3.8820559389184153 1
gene  2 2 4 1.2592487203744451 0 2.0 1.2592487203744451 1
gene  3 3 4 1.609073343944837 0 3.0 1.609073343944837 1
gene  3 1 7 14.667122947907107 0 8.0 14.667122947907107 1
gene  1 7 4 17.723772681994127 0 9.0 17.723772681994127 0
gene  3 2 7 -4.402607367890248 0 12.0 -4.402607367890248 1
gene  2 3 7 -0.9138838191377496 0 64.0 -0.9138838191377496 1
gene  2 2 36 21.339050525566044 0 114.0 21.339050525566044 1
gene  2 36 4 -5.5165708534265505 0 115.0 -5.5165708534265505 1
gene  3 3 36 -1.6108636933141742 0 424.0 -1.6108636933141742 1
gene  1 1 158 -6.352834992378308 0 707.0 -6.352834992378308 1
gene  1 158 4 -2.9536264910773777 0 708.0 -2.9536264910773777 1
gene  3 1 36 0.4123445817861557 0 844.0 0.4123445817861557 1
gene  1 7 215 11.334582508105198 0 933.0 11.334582508105198 1
gene  1 215 4 17.300395739751277 0 934.0 17.300395739751277 1
gene  1 7 158 10.699378351787274 0 985.0 10.699378351787274 1
gene  3 215 158 1.6919968811029138 0 1082.0 1.6919968811029138 1
genomeend 26
/* Organism # 027 Fitness:  3.448 Error:  2.143                      */
genomestart  27
trait 1 0.07915039062500001 0.18676597304119621 0.0 0.03434631161577775 0.0 0.01964290855023909 0.0 0.0 
trait 2 0.0 0.0 0.0 0.22054537128060178 0.0 0.7550646294524289 0.0 0.0 
trait 3 0.3 0.0653502357306296 0.08715683671371535 0.22808661851128836 0.0 0.3452723060109913 0.16840750186746922 0.0 
node 1 2 1 1
node 2 1 1 1
node 3 1 1 3
node 4 3 0 2
node 7 3 0 0
node 36 1 0 0
node 158 1 0 0
node 215 1 0 0
gene  1 1 4 2.953631039156861 0 1.0 2.953631039156861 1
gene  2 2 4 -1.6986501241215326 0 2.0 -1.6986501241215326 1
gene  3 3 4 -5.006719009908089 0 3.0 -5.006719009908089 1
gene  3 1 7 15.094569727676365 0 8.0 15.094569727676365 1
gene  1 7 4 16.850191385034243 0 9.0 16.850191385034243 0
gene  2 2 7 -1.5709870933073737 0 12.0 -1.5709870933073737 1
gene  2 3 7 -1.7583313530099045 0 64.0 -1.7583313530099045 1
gene  2 2 36 18.043714434514563 0 114.0 18.043714434514563 1
gene  2 36 4 -1.2106181273962846 0 115.0 -1.2106181273962846 1
gene  3 3 36 -0.3687362885179051 0 424.0 -0.3687362885179051 1
gene  1 1 158 -1.7743050443150221 0 707.0 -1.7743050443150221 1
gene  1 158 4 2.3932135951433073 0 708.0 2.3932135951433073 1
gene  3 1 36 0.10348672639361212 0 844.0 0.10348672639361212 1
gene  1 7 215 11.58990724380914 0 933.0 11.58990724380914 1
gene  1 215 4 16.531727745571825 0 934.0 16.531727745571825 1
gene  1 7 158 11.603189512892492 0 985.0 11.603189512892492 1
gene  3 215 158 -2.102832073896484 0 1082.0 -2.102832073896484 1
genomeend 27
/* Organism # 028 Fitness:  8.987 Error:  1.002                      */
genomestart  28
trait 1 0.07915039062500001 0.0 0.0 0.46014579092023333 0.0 0.01964290855023909 0.0 0.0 
trait 2 0.0 0.0 0.0 0.22054537128060178 0.0 0.7550646294524289 0.0 0.0 
trait 3 0.3 0.0653502357306296 0.08715683671371535 0.22808661851128836 0.0 0.3452723060109913 0.16840750186746922 0.0 
node 1 2 1 1
node 2 1 1 1
node 3 1 1 3
node 4 3 0 2
node 7 3 0 0
node 36 1 0 0
node 158 1 0 0
node 215 1 0 0
gene  1 1 4 1.9089718317693287 0 1.0 1.9089718317693287 1
gene  2 2 4 -16.92023214657604 0 2.0 -16.92023214657604 1
gene  3 3 4 -6.452535692438366 0 3.0 -6.452535692438366 1
gene  3 1 7 2.427943932363722 0 8.0 2.427943932363722 1
gene  1 7 4 17.290380280927547 0 9.0 17.290380280927547 0
gene  2 2 7 -0.48336085136061424 0 12.0 -0.48336085136061424 1
gene  2 3 7 -0.846871312912584 0 64.0 -0.846871312912584 1
gene  2 2 36 -2.433351150801653 0 114.0 -2.433351150801653 1
gene  2 36 4 -3.1135227562747416 0 115.0 -3.1135227562747416 1
gene  3 3 36 1.2182273366017706 0 424.0 1.2182273366017706 1
gene  1 1 158 -6.738085727398885 0 707.0 -6.738085727398885 1
gene  1 158 4 -1.1763006294212586 0 708.0 -1.1763006294212586 1
gene  3 1 36 -0.11379610387748063 0 844.0 -0.11379610387748063 1
gene  1 7 215 9.498801189231571 0 933.0 9.498801189231571 1
gene  1 215 4 14.147652511666985 0 934.0 14.147652511666985 1
gene  1 7 158 10.272342089898514 0 985.0 10.272342089898514 1
gene  3 215 158 1.9965183542050478 0 1082.0 1.9965183542050478 1
genomeend 28
/* Organism # 029 Fitness:  9.000 Error:  1.000                      */
genomestart  29
trait 1 0.07915039062500001 0.18676597304119621 0.0 0.03434631161577775 0.0 0.01964290855023909 0.0 0.0 
trait 2 0.0 0.0 0.0 0.22054537128060178 0.0 0.7550646294524289 0.0 0.0 
trait 3 0.3 0.0653502357306296 0.08715683671371535 0.22808661851128836 0.0 0.3452723060109913 0.16840750186746922 0.0 
node 1 2 1 1
node 2 1 1 1
node 3 1 1 3
node 4 3 0 2
node 7 3 0 0
node 36 1 0 0
node 158 1 0 0
node 215 1 0 0
gene  1 1 4 2.199406141603342 0 1.0 2.199406141603342 1
gene  2 2 4 -16.92023214657604 0 2.0 -16.92023214657604 1
gene  3 3 4 -6.452535692438366 0 3.0 -6.452535692438366 1
gene  3 1 7 17.009237059783807 0 8.0 17.009237059783807 1
gene  1 7 4 16.850191385034243 0 9.0 16.850191385034243 0
gene  2 2 7 -2.093206787620206 0 12.0 -2.093206787620206 1
gene  2 3 7 -1.638807444327102 0 64.0 -1.638807444327102 1
gene  2 2 36 19.26732692024028 0 114.0 19.26732692024028 1
gene  2 36 4 -3.1135227562747416 0 115.0 -3.1135227562747416 1
gene  3 3 36 0.8599726351710899 0 424.0 0.8599726351710899 1
gene  1 1 158 -5.493967149174872 0 707.0 -5.493967149174872 1
gene  1 158 4 -3.2216672362186456 0 708.0 -3.2216672362186456 1
gene  3 1 36 0.10348672639361212 0 844.0 0.10348672639361212 1
gene  1 7 215 9.498801189231571 0 933.0 9.498801189231571 1
gene  1 215 4 14.837362945936912 0 934.0 14.837362945936912 1
gene  1 7 158 9.160579032031627 0 985.0 9.160579032031627 1
gene  3 215 158 3.0390385692801765 0 1082.0 3.0390385692801765 1
genomeend 29
/*-------------------------------------------------------------------*/
/* Species # 017         : (size= 003) (AvfFit= 5.574) (Age= 68.000)  */
/*-------------------------------------------------------------------*/
/* Organism # 030 Fitness:  3.797 Error:  2.051                      */
genomestart  30
trait 1 0.519277221665123 0.06792372724096563 0.0 0.4826060874653464 0.0 0.048750027671035825 0.001001516964367476 0.0 
trait 2 0.2 0.0 0.3346577519059606 0.0 0.0 0.0 0.9028370149050807 0.0 
trait 3 0.013246439942365629 0.0 0.0 0.0 0.0 0.10132158262737821 0.0865647617141137 0.07354908607405791 
node 1 1 1 1
node 2 3 1 1
node 3 1 1 3
node 4 3 0 2
node 12 1 0 0
node 37 1 0 0
node 134 1 0 0
node 182 1 0 0
node 199 1 0 0
node 244 1 0 0
gene  1 1 4 -0.41726681573967417 0 1.0 -0.41726681573967417 1
gene  2 2 4 0.16200038582774012 0 2.0 0.16200038582774012 1
gene  1 3 4 -0.8122380144332224 0 3.0 -0.8122380144332224 1
gene  1 1 12 -1.4413836390874963 0 21.0 -1.4413836390874963 0
gene  1 12 4 -0.008048545200916024 0 22.0 -0.008048545200916024 1
gene  3 2 12 -5.09487290336036 0 36.0 -5.09487290336036 1
gene  1 3 12 -0.7092531210786829 0 86.0 -0.7092531210786829 1
gene  3 1 37 1.13422790223684 0 117.0 1.13422790223684 1
gene  1 37 4 1.692342247557742 0 118.0 1.692342247557742 1
gene  2 37 12 -3.2895830741004257 0 193.0 -3.2895830741004257 1
gene  1 2 37 5.65052079884624 0 259.0 5.65052079884624 1
gene  1 1 134 -2.7327607501672935 0 602.0 -2.7327607501672935 1
gene  1 134 4 3.800402761360587 0 603.0 3.800402761360587 1
gene  1 134 12 2.80241741788095 0 640.0 2.80241741788095 1
gene  1 1 182 4.323721846744737 0 784.0 4.323721846744737 1
gene  1 182 12 -1.094789916436659 0 785.0 -1.094789916436659 1
gene  1 182 199 1.806363313715422 0 857.0 1.806363313715422 1
gene  1 199 12 -2.1283131173498977 0 858.0 -2.1283131173498977 1
gene  1 182 244 -2.2494387614882365 0 1054.0 -2.2494387614882365 1
gene  1 244 199 -2.679942918794882 0 1055.0 -2.679942918794882 1
genomeend 30
/* Organism # 031 Fitness:  3.950 Error:  2.012                      */
genomestart  31
trait 1 0.519277221665123 0.06792372724096563 0.0 0.4826060874653464 0.0 0.048750027671035825 0.001001516964367476 0.0 
trait 2 0.2 0.0 0.3346577519059606 0.0 0.0 0.0 0.9028370149050807 0.0 
trait 3 0.013246439942365629 0.0 0.0 0.0 0.0 0.10132158262737821 0.0865647617141137 0.07354908607405791 
node 1 1 1 1
node 2 3 1 1
node 3 1 1 3
node 4 3 0 2
node 12 1 0 0
node 37 1 0 0
node 134 1 0 0
node 182 1 0 0
node 199 1 0 0
node 244 1 0 0
gene  1 1 4 -0.17018263621131746 0 1.0 -0.17018263621131746 1
gene  2 2 4 3.868832671678388 0 2.0 3.868832671678388 1
gene  1 3 4 -3.714259582196706 0 3.0 -3.714259582196706 1
gene  1 1 12 -4.733881956982508 0 21.0 -4.733881956982508 0
gene  1 12 4 -4.798871353598253 0 22.0 -4.798871353598253 1
gene  3 2 12 -5.185567404560365 0 36.0 -5.185567404560365 1
gene  1 3 12 2.1899486452026746 0 86.0 2.1899486452026746 1
gene  3 1 37 0.20200233486958408 0 117.0 0.20200233486958408 1
gene  1 37 4 2.4049144985588162 0 118.0 2.4049144985588162 1
gene  2 37 12 -5.977224323558162 0 193.0 -5.977224323558162 1
gene  1 2 37 5.893406714431505 0 259.0 5.893406714431505 1
gene  1 1 134 -3.2790315175905054 0 602.0 -3.2790315175905054 1
gene  1 134 4 3.2531644326189184 0 603.0 3.2531644326189184 1
gene  1 134 12 0.7833005082861544 0 640.0 0.7833005082861544 1
gene  1 1 182 3.014954936773245 0 784.0 3.014954936773245 1
gene  1 182 12 -2.2167457982536303 0 785.0 -2.2167457982536303 1
gene  1 182 199 -0.2808124863075614 0 857.0 -0.2808124863075614 1
gene  1 199 12 7.641479128471642 0 858.0 7.641479128471642 1
gene  1 182 244 2.0728318853809267 0 1054.0 2.0728318853809267 1
gene  1 244 199 -2.8721969057988934 0 1055.0 -2.8721969057988934 1
genomeend 31
/* Organism # 032 Fitness:  8.973 Error:  1.004                      */
genomestart  32
trait 1 0.519277221665123 0.06792372724096563 0.0 0.4826060874653464 0.0 0.048750027671035825 0.001001516964367476 0.0 
trait 2 0.2 0.0 0.3346577519059606 0.0 0.0 0.0 0.9028370149050807 0.0 
trait 3 0.013246439942365629 0.0 0.0 0.0 0.0 0.10132158262737821 0.0865647617141137 0.07354908607405791 
node 1 1 1 1
node 2 3 1 1
node 3 1 1 3
node 4 3 0 2
node 12 1 0 0
node 37 1 0 0
node 134 1 0 0
node 182 1 0 0
node 199 1 0 0
node 244 1 0 0
gene  1 1 4 -3.6478056344568253 0 1.0 -3.6478056344568253 1
gene  2 2 4 2.716318559471018 0 2.0 2.716318559471018 1
gene  1 3 4 -4.542783473516537 0 3.0 -4.542783473516537 1
gene  1 1 12 -5.118399288241502 0 21.0 -5.118399288241502 1
gene  1 12 4 -4.738234647877174 0 22.0 -4.738234647877174 1
gene  3 2 12 -1.583738342946169 0 36.0 -1.583738342946169 1
gene  1 3 12 -0.8412989211826793 0 86.0 -0.8412989211826793 1
gene  3 1 37 -0.8150013494701644 0 117.0 -0.8150013494701644 1
gene  1 37 4 2.7341432789948312 0 118.0 2.7341432789948312 1
gene  2 37 12 -6.626111804913096 0 193.0 -6.626111804913096 1
gene  1 2 37 4.990335981757117 0 259.0 4.990335981757117 1
gene  1 1 134 -6.703763373378978 0 602.0 -6.703763373378978 1
gene  1 134 4 0.3786416313893457 0 603.0 0.3786416313893457 1
gene  1 134 12 1.580024410254647 0 640.0 1.580024410254647 1
gene  1 1 182 4.334269138299751 0 784.0 4.334269138299751 1
gene  1 182 12 -0.8023399977046985 0 785.0 -0.8023399977046985 1
gene  1 182 199 3.8797209569839293 0 857.0 3.8797209569839293 1
gene  1 199 12 6.418969104714248 0 858.0 6.418969104714248 1
gene  1 182 244 1.5844719361784962 0 1054.0 1.5844719361784962 1
gene  1 244 199 -4.865980281992462 0 1055.0 -4.865980281992462 1
genomeend 32
/*-------------------------------------------------------------------*/
/* Species # 018         : (size= 005) (AvfFit= 9.000) (Age= 68.000)  */
/*-------------------------------------------------------------------*/
/* Organism # 033 Fitness:  9.000 Error:  1.000                      */
genomestart  33
trait 1 0.0 0.0 0.6536075785242846 0.0 0.21921345241673862 0.3767750124268312 0.21888240485455865 0.0 
trait 2 0.2 0.002513616858402405 0.0 0.0020379583673929284 0.0 0.0 0.0 0.012330498128105372 
trait 3 0.5643698803758531 0.053450502245217954 0.0 0.031885967900551634 0.0 0.06142622453377622 0.0 0.9100067616359031 
node 1 2 1 1
node 2 1 1 1
node 3 2 1 3
node 4 1 0 2
gene  1 1 4 21.389694068994043 0 1.0 21.389694068994043 1
gene  3 2 4 32.55203846055686 0 2.0 32.55203846055686 1
gene  1 3 4 -10.83158472509482 0 3.0 -10.83158472509482 1
genomeend 33
/* Organism # 034 Fitness:  9.000 Error:  1.000                      */
genomestart  34
trait 1 0.0 0.0 0.6536075785242846 0.0 0.21921345241673862 0.3767750124268312 0.21888240485455865 0.0 
trait 2 0.2 0.002513616858402405 0.0 0.0020379583673929284 0.0 0.0 0.0 0.012330498128105372 
trait 3 0.5643698803758531 0.053450502245217954 0.0 0.031885967900551634 0.0 0.06142622453377622 0.0 0.9100067616359031 
node 1 2 1 1
node 2 1 1 1
node 3 2 1 3
node 4 1 0 2
gene  1 1 4 25.441389308093854 0 1.0 25.441389308093854 1
gene  3 2 4 35.75796563733947 0 2.0 35.75796563733947 1
gene  1 3 4 -12.987978847846573 0 3.0 -12.987978847846573 1
genomeend 34
/* Organism # 035 Fitness:  9.000 Error:  1.000                      */
genomestart  35
trait 1 0.0 0.0 0.6536075785242846 0.0 0.21921345241673862 0.3767750124268312 0.21888240485455865 0.0 
trait 2 0.2 0.002513616858402405 0.0 0.0020379583673929284 0.0 0.0 0.0 0.012330498128105372 
trait 3 0.5643698803758531 0.053450502245217954 0.0 0.031885967900551634 0.0 0.06142622453377622 0.0 0.9100067616359031 
node 1 2 1 1
node 2 1 1 1
node 3 2 1 3
node 4 1 0 2
gene  1 1 4 24.805640802769013 0 1.0 24.805640802769013 1
gene  3 2 4 35.740167680153334 0 2.0 35.740167680153334 1
gene  1 3 4 -11.109580775725334 0 3.0 -11.109580775725334 1
genomeend 35
/* Organism # 036 Fitness:  9.000 Error:  1.000                      */
genomestart  36
trait 1 0.0 0.0 0.6536075785242846 0.0 0.21921345241673862 0.3767750124268312 0.21888240485455865 0.0 
trait 2 0.2 0.0 0.0 0.0020379583673929284 0.3327162475117691 0.0 0.0 0.5872795924141682 
trait 3 0.5643698803758531 0.053450502245217954 0.0 0.031885967900551634 0.0 0.06142622453377622 0.0 0.9100067616359031 
node 1 2 1 1
node 2 1 1 1
node 3 2 1 3
node 4 1 0 2
gene  1 1 4 21.015006767543984 0 1.0 21.015006767543984 1
gene  3 2 4 31.101568584684262 0 2.0 31.101568584684262 1
gene  1 3 4 -11.40501013898055 0 3.0 -11.40501013898055 1
genomeend 36
/* Organism # 037 Fitness:  9.000 Error:  1.000                      */
genomestart  37
trait 1 0.0 0.0 0.6536075785242846 0.0 0.21921345241673862 0.3767750124268312 0.21888240485455865 0.0 
trait 2 0.2 0.002513616858402405 0.0 0.0020379583673929284 0.0 0.0 0.0 0.012330498128105372 
trait 3 0.5643698803758531 0.053450502245217954 0.0 0.031885967900551634 0.0 0.06142622453377622 0.0 0.9100067616359031 
node 1 2 1 1
node 2 1 1 1
node 3 2 1 3
node 4 1 0 2
gene  1 1 4 19.265267380248076 0 1.0 19.265267380248076 1
gene  3 2 4 32.73419642974976 0 2.0 32.73419642974976 1
gene  1 3 4 -10.83252261598704 0 3.0 -10.83252261598704 1
genomeend 37
/*-------------------------------------------------------------------*/
/* Species # 019         : (size= 005) (AvfFit= 8.000) (Age= 67.000)  */
/*-------------------------------------------------------------------*/
/* Organism # 038 Fitness:  4.000 Error:  2.000                      */
genomestart  38
trait 1 0.0853515625 0.13121731127016129 0.0 0.024130898090710368 0.0 0.0 0.0 0.0 
trait 2 0.7318291397837294 0.0 0.030018305407581998 0.0 0.0 0.0 0.0 0.0 
trait 3 0.3 0.019853236171330516 0.4501264478379223 0.0 0.0 0.6568022356739168 0.028566163676391813 0.41597304963488424 
node 1 3 1 1
node 2 3 1 1
node 3 1 1 3
node 4 1 0 2
node 7 1 0 0
node 37 1 0 0
node 187 1 0 0
node 233 1 0 0
gene  1 1 4 1.5025963896914778 0 1.0 1.5025963896914778 0
gene  2 2 4 -10.668067678843514 0 2.0 -10.668067678843514 1
gene  3 3 4 -7.713086513447104 0 3.0 -7.713086513447104 1
gene  1 1 7 2.118447232922348 0 8.0 2.118447232922348 1
gene  3 7 4 -1.5460751824869354 0 9.0 -1.5460751824869354 1
gene  2 2 7 -2.423058547836627 0 12.0 -2.423058547836627 1
gene  2 3 7 -11.971630044845451 0 64.0 -11.971630044845451 1
gene  1 1 37 0.1199610033513297 0 117.0 0.1199610033513297 0
gene  1 37 4 1.3993280588738624 0 118.0 1.3993280588738624 1
gene  3 7 37 -1.0744973658961041 0 155.0 -1.0744973658961041 1
gene  3 3 37 5.850053008125128 0 167.0 5.850053008125128 1
gene  2 2 37 -5.890082383973699 0 222.0 -5.890082383973699 1
gene  3 1 187 -3.3368844773095643 0 807.0 -3.3368844773095643 1
gene  1 187 4 2.1393998029815773 0 808.0 2.1393998029815773 1
gene  2 7 187 2.6237390442269524 0 935.0 2.6237390442269524 1
gene  2 1 233 0.5267720940086683 0 1004.0 0.5267720940086683 1
gene  1 233 37 -6.157542501251852 0 1005.0 -6.157542501251852 1
gene  3 2 233 -1.4281710436038106 0 1039.0 -1.4281710436038106 1
gene  2 187 37 0.10310683727138148 0 1096.0 0.10310683727138148 1
genomeend 38
/* Organism # 039 Fitness:  9.000 Error:  1.000                      */
genomestart  39
trait 1 0.0853515625 0.13121731127016129 0.0 0.024130898090710368 0.0 0.0 0.0 0.0 
trait 2 0.7318291397837294 0.3245490479734989 0.030018305407581998 0.0522542106662498 0.0 0.0 0.0 0.0 
trait 3 0.3 0.019853236171330516 0.4501264478379223 0.0 0.0 0.6568022356739168 0.028566163676391813 0.41597304963488424 
node 1 3 1 1
node 2 2 1 1
node 3 1 1 3
node 4 1 0 2
node 7 1 0 0
node 37 1 0 0
node 187 1 0 0
node 233 1 0 0
gene  1 1 4 -0.7061782675341953 0 1.0 -0.7061782675341953 0
gene  2 2 4 -8.210454702211639 0 2.0 -8.210454702211639 1
gene  3 3 4 -8.758218651039705 0 3.0 -8.758218651039705 1
gene  1 1 7 13.990366190090876 0 8.0 13.990366190090876 1
gene  3 7 4 18.025767515257815 0 9.0 18.025767515257815 1
gene  1 2 7 -11.58206086764955 0 12.0 -11.58206086764955 1
gene  2 3 7 -9.721800528549037 0 64.0 -9.721800528549037 1
gene  1 1 37 -1.4837831691140466 0 117.0 -1.4837831691140466 0
gene  1 37 4 -0.3702868835265821 0 118.0 -0.3702868835265821 1
gene  3 7 37 -1.5611725087426365 0 155.0 -1.5611725087426365 1
gene  3 3 37 4.202142388507876 0 167.0 4.202142388507876 1
gene  2 2 37 -0.6598319275311565 0 222.0 -0.6598319275311565 1
gene  3 1 187 -1.787015607770267 0 807.0 -1.787015607770267 1
gene  1 187 4 1.6511827645364394 0 808.0 1.6511827645364394 1
gene  2 7 187 3.6519356281372373 0 935.0 3.6519356281372373 1
gene  2 1 233 3.910286832084271 0 1004.0 3.910286832084271 1
gene  1 233 37 -6.259370961561688 0 1005.0 -6.259370961561688 1
gene  3 2 233 -2.9947778279502937 0 1039.0 -2.9947778279502937 1
gene  2 187 37 4.992059895528964 0 1096.0 4.992059895528964 1
genomeend 39
/* Organism # 040 Fitness:  9.000 Error:  1.000                      */
genomestart  40
trait 1 0.0853515625 0.13121731127016129 0.0 0.024130898090710368 0.0 0.0 0.0 0.0 
trait 2 0.7318291397837294 0.0 0.030018305407581998 0.0 0.0 0.0 0.0 0.0 
trait 3 0.3 0.019853236171330516 0.4501264478379223 0.0 0.0 0.6568022356739168 0.028566163676391813 0.41597304963488424 
node 1 3 1 1
node 2 2 1 1
node 3 1 1 3
node 4 1 0 2
node 7 1 0 0
node 37 1 0 0
node 187 1 0 0
node 233 1 0 0
gene  1 1 4 1.7539990389121822 0 1.0 1.7539990389121822 0
gene  2 2 4 -12.999278726671527 0 2.0 -12.999278726671527 1
gene  3 3 4 -8.690663610343517 0 3.0 -8.690663610343517 1
gene  1 1 7 17.480599103116155 0 8.0 17.480599103116155 1
gene  3 7 4 14.888140417338874 0 9.0 14.888140417338874 1
gene  2 2 7 -11.151574395774407 0 12.0 -11.151574395774407 1
gene  2 3 7 -8.698318912782803 0 64.0 -8.698318912782803 1
gene  1 1 37 -1.0783985096585347 0 117.0 -1.0783985096585347 0
gene  1 37 4 3.607144012876925 0 118.0 3.607144012876925 1
gene  3 7 37 -0.5881967727197024 0 155.0 -0.5881967727197024 1
gene  3 3 37 5.116954757110457 0 167.0 5.116954757110457 1
gene  2 2 37 -4.428598053979131 0 222.0 -4.428598053979131 1
gene  3 1 187 -2.743029681841362 0 807.0 -2.743029681841362 1
gene  1 187 4 4.27484554716562 0 808.0 4.27484554716562 1
gene  2 7 187 6.735078191473069 0 935.0 6.735078191473069 1
gene  2 1 233 2.309692335008661 0 1004.0 2.309692335008661 1
gene  1 233 37 -6.244144357929495 0 1005.0 -6.244144357929495 1
gene  3 2 233 -1.0081161264338299 0 1039.0 -1.0081161264338299 1
gene  2 187 37 2.5584120196107696 0 1096.0 2.5584120196107696 1
genomeend 40
/* Organism # 041 Fitness:  9.000 Error:  1.000                      */
genomestart  41
trait 1 0.0853515625 0.13121731127016129 0.0 0.024130898090710368 0.0 0.0 0.0 0.0 
trait 2 0.7318291397837294 0.0 0.030018305407581998 0.0 0.0 0.0 0.0 0.0 
trait 3 0.3 0.019853236171330516 0.4501264478379223 0.0 0.0 0.6568022356739168 0.028566163676391813 0.41597304963488424 
node 1 3 1 1
node 2 2 1 1
node 3 1 1 3
node 4 1 0 2
node 7 1 0 0
node 37 1 0 0
node 187 1 0 0
node 233 1 0 0
node 269 1 0 0
gene  1 1 4 0.48101716623922985 0 1.0 0.48101716623922985 0
gene  2 2 4 -10.668067678843514 0 2.0 -10.668067678843514 1
gene  3 3 4 -9.476947102790735 0 3.0 -9.476947102790735 1
gene  1 1 7 16.434237117238126 0 8.0 16.434237117238126 1
gene  3 7 4 15.99135997811116 0 9.0 15.99135997811116 1
gene  2 2 7 -9.715603326927416 0 12.0 -9.715603326927416 0
gene  2 3 7 -9.895020356356913 0 64.0 -9.895020356356913 1
gene  1 1 37 -0.15650808074991657 0 117.0 -0.15650808074991657 0
gene  1 37 4 1.3993280588738624 0 118.0 1.3993280588738624 1
gene  3 7 37 -1.5611725087426365 0 155.0 -1.5611725087426365 1
gene  3 3 37 6.139472160766367 0 167.0 6.139472160766367 1
gene  2 2 37 -5.621525074895267 0 222.0 -5.621525074895267 1
gene  3 1 187 -1.787015607770267 0 807.0 -1.787015607770267 1
gene  1 187 4 3.8228567035017385 0 808.0 3.8228567035017385 1
gene  2 7 187 4.3310307928221095 0 935.0 4.3310307928221095 1
gene  2 1 233 1.4219939002746544 0 1004.0 1.4219939002746544 1
gene  1 233 37 -6.244144357929495 0 1005.0 -6.244144357929495 1
gene  3 2 233 -2.9846679996049574 0 1039.0 -2.9846679996049574 1
gene  2 187 37 2.5584120196107696 0 1096.0 2.5584120196107696 1
gene  2 2 269 1.0 0 1176.0 0.0 1
gene  2 269 7 -9.715603326927416 0 1177.0 0.0 1
genomeend 41
/* Organism # 042 Fitness:  8.999 Error:  1.000                      */
genomestart  42
trait 1 0.0853515625 0.13121731127016129 0.0 0.024130898090710368 0.0 0.0 0.0 0.0 
trait 2 0.7318291397837294 0.0 0.030018305407581998 0.0 0.0 0.0 0.0 0.0 
trait 3 0.3 0.019853236171330516 0.4501264478379223 0.0 0.0 0.6568022356739168 0.028566163676391813 0.41597304963488424 
node 1 3 1 1
node 2 2 1 1
node 3 1 1 3
node 4 1 0 2
node 7 1 0 0
node 37 1 0 0
node 187 1 0 0
node 233 1 0 0
gene  1 1 4 2.109068938112377 0 1.0 2.109068938112377 0
gene  2 2 4 0.6743635213428247 0 2.0 0.6743635213428247 1
gene  3 3 4 -8.117835026424512 0 3.0 -8.117835026424512 1
gene  1 1 7 17.321682914086953 0 8.0 17.321682914086953 1
gene  3 7 4 15.99135997811116 0 9.0 15.99135997811116 1
gene  2 2 7 -8.351717037185827 0 12.0 -8.351717037185827 1
gene  2 3 7 -9.895020356356913 0 64.0 -9.895020356356913 1
gene  1 1 37 -2.5022270080820466 0 117.0 -2.5022270080820466 0
gene  1 37 4 3.609962737198243 0 118.0 3.609962737198243 1
gene  3 7 37 -1.0450415117461418 0 155.0 -1.0450415117461418 1
gene  3 3 37 5.586325785050552 0 167.0 5.586325785050552 1
gene  2 2 37 -7.804376628546769 0 222.0 -7.804376628546769 1
gene  3 1 187 -1.7023193318590475 0 807.0 -1.7023193318590475 1
gene  1 187 4 5.306752152448784 0 808.0 5.306752152448784 1
gene  2 7 187 -0.9358076182297054 0 935.0 -0.9358076182297054 1
gene  2 1 233 2.7019495539327743 0 1004.0 2.7019495539327743 1
gene  1 233 37 -6.57167721864739 0 1005.0 -6.57167721864739 1
gene  3 2 233 -0.3817626526196938 0 1039.0 -0.3817626526196938 1
gene  2 187 37 5.018264981305307 0 1096.0 5.018264981305307 1
genomeend 42
/*-------------------------------------------------------------------*/
/* Species # 020         : (size= 004) (AvfFit= 5.007) (Age= 67.000)  */
/*-------------------------------------------------------------------*/
/* Organism # 043 Fitness:  8.077 Error:  1.158                      */
genomestart  43
trait 1 0.0 0.0 0.6536075785242846 0.0 0.21921345241673862 0.3767750124268312 0.21888240485455865 0.0 
trait 2 0.2 0.002513616858402405 0.0 0.0020379583673929284 0.0 0.0 0.0 0.012330498128105372 
trait 3 0.0 0.053450502245217954 0.6682116519813847 0.031885967900551634 0.0 0.06142622453377622 0.0 0.05876470826442323 
node 1 2 1 1
node 2 1 1 1
node 3 3 1 3
node 4 1 0 2
gene  1 1 4 20.481964324103053 0 1.0 20.481964324103053 1
gene  2 2 4 1.3421099507791074 0 2.0 1.3421099507791074 1
gene  1 3 4 -0.9906261613162815 0 3.0 -0.9906261613162815 1
genomeend 43
/* Organism # 044 Fitness:  4.292 Error:  1.928                      */
genomestart  44
trait 1 0.0 0.0 0.6536075785242846 0.0 0.21921345241673862 0.3767750124268312 0.21888240485455865 0.0 
trait 2 0.2 0.002513616858402405 0.0 0.0020379583673929284 0.0 0.0 0.0 0.012330498128105372 
trait 3 0.0 0.053450502245217954 0.6682116519813847 0.031885967900551634 0.0 0.06142622453377622 0.0 0.05876470826442323 
node 1 2 1 1
node 2 1 1 1
node 3 3 1 3
node 4 1 0 2
gene  1 1 4 21.75092998172711 0 1.0 21.75092998172711 1
gene  2 2 4 0.08751624218244314 0 2.0 0.08751624218244314 1
gene  1 3 4 -0.3116008702458334 0 3.0 -0.3116008702458334 1
genomeend 44
/* Organism # 045 Fitness:  6.247 Error:  1.501                      */
genomestart  45
trait 1 0.0 0.0 0.6536075785242846 0.0 0.21921345241673862 0.3767750124268312 0.21888240485455865 0.0 
trait 2 0.2 0.002513616858402405 0.0 0.0020379583673929284 0.0 0.0 0.0 0.012330498128105372 
trait 3 0.0 0.053450502245217954 0.6682116519813847 0.031885967900551634 0.0 0.06142622453377622 0.0 0.05876470826442323 
node 1 2 1 1
node 2 1 1 1
node 3 3 1 3
node 4 1 0 2
gene  1 1 4 19.738204394334385 0 1.0 19.738204394334385 1
gene  2 2 4 2.653212603852036 0 2.0 2.653212603852036 1
gene  1 3 4 -2.6537495034569405 0 3.0 -2.6537495034569405 1
genomeend 45
/* Organism # 046 Fitness:  1.413 Error:  2.811                      */
genomestart  46
trait 1 0.0 0.0 0.6536075785242846 0.0 0.21921345241673862 0.3767750124268312 0.21888240485455865 0.0 
trait 2 0.2 0.002513616858402405 0.0 0.0020379583673929284 0.0 0.0 0.0 0.012330498128105372 
trait 3 0.0 0.053450502245217954 0.6682116519813847 0.031885967900551634 0.0 0.06142622453377622 0.0 0.05876470826442323 
node 1 2 1 1
node 2 1 1 1
node 3 3 1 3
node 4 1 0 2
gene  1 1 4 1.7308396348500295 0 1.0 1.7308396348500295 1
gene  2 2 4 0.9314039710909934 0 2.0 0.9314039710909934 1
gene  1 3 4 -2.243975543136005 0 3.0 -2.243975543136005 1
genomeend 46
/*-------------------------------------------------------------------*/
/* Species # 023         : (size= 003) (AvfFit= 7.274) (Age= 65.000)  */
/*-------------------------------------------------------------------*/
/* Organism # 047 Fitness:  4.020 Error:  1.995                      */
genomestart  47
trait 1 0.6244092353419322 0.18676597304119621 0.0 0.0 0.0 0.0 0.0 1.0859980841985493 
trait 2 0.0 0.0 0.6386640856000645 0.8095873650195956 0.4692449137731377 0.0 0.33845644931395835 0.6128304678618065 
trait 3 0.3 0.1307004714612592 0.1743136734274307 0.0 0.0 0.6874777039807156 0.1880605775362461 0.0 
node 1 3 1 1
node 2 1 1 1
node 3 3 1 3
node 4 3 0 2
node 7 2 0 0
node 36 3 0 0
node 176 1 0 0
gene  3 1 4 7.651218416241953 0 1.0 7.651218416241953 1
gene  2 2 4 -3.6448877220101363 0 2.0 -3.6448877220101363 1
gene  3 3 4 -1.4791681173578826 0 3.0 -1.4791681173578826 1
gene  1 1 7 -2.5759478489929415 0 8.0 -2.5759478489929415 1
gene  1 7 4 4.572413157231145 0 9.0 4.572413157231145 1
gene  2 2 7 2.3096551927407876 0 12.0 2.3096551927407876 1
gene  2 3 7 4.463218884984199 0 64.0 4.463218884984199 1
gene  2 2 36 -0.5973338026501831 0 114.0 -0.5973338026501831 1
gene  2 36 4 -9.601356586509391 0 115.0 -9.601356586509391 1
gene  3 36 7 0.579542852175416 0 133.0 0.579542852175416 1
gene  2 3 36 1.1635323801880701 0 200.0 1.1635323801880701 1
gene  1 1 36 1.4333625821567684 0 252.0 1.4333625821567684 1
gene  1 1 176 2.2610460719177574 0 764.0 2.2610460719177574 1
gene  1 176 4 -2.21423652274832 0 765.0 -2.21423652274832 1
gene  2 7 176 2.534974145458815 0 865.0 2.534974145458815 1
gene  1 36 176 0.49837123232114644 0 890.0 0.49837123232114644 1
gene  2 2 176 -0.3771937859973021 0 1046.0 -0.3771937859973021 1
genomeend 47
/* Organism # 048 Fitness:  8.802 Error:  1.033                      */
genomestart  48
trait 1 0.6244092353419322 0.18676597304119621 0.0 0.4128523100608512 0.0 0.0 0.6183086088514828 2.0149360069881137 
trait 2 0.2325853718784447 0.0 0.6386640856000645 0.2403165933703809 0.4692449137731377 0.0 0.0 0.9744350084943001 
trait 3 0.3 0.1307004714612592 0.1743136734274307 0.0 0.0 0.6874777039807156 0.1880605775362461 0.0 
node 1 3 1 1
node 2 1 1 1
node 3 3 1 3
node 4 3 0 2
node 7 2 0 0
node 36 3 0 0
node 176 1 0 0
gene  3 1 4 8.290293960047498 0 1.0 8.290293960047498 1
gene  2 2 4 -2.3823103811307313 0 2.0 -2.3823103811307313 1
gene  3 3 4 -1.5377020836203572 0 3.0 -1.5377020836203572 1
gene  1 1 7 0.39155267412986133 0 8.0 0.39155267412986133 1
gene  1 7 4 1.31004485351797 0 9.0 1.31004485351797 1
gene  2 2 7 2.272198984924387 0 12.0 2.272198984924387 1
gene  2 3 7 2.719361824673091 0 64.0 2.719361824673091 1
gene  2 2 36 0.34884065813810344 0 114.0 0.34884065813810344 1
gene  2 36 4 -13.299344467524742 0 115.0 -13.299344467524742 1
gene  3 36 7 3.5595583826409345 0 133.0 3.5595583826409345 1
gene  2 3 36 1.2689527977046942 0 200.0 1.2689527977046942 1
gene  1 1 36 -1.1994374401428116 0 252.0 -1.1994374401428116 1
gene  1 1 176 -2.115815625430451 0 764.0 -2.115815625430451 1
gene  1 176 4 0.45648257455245367 0 765.0 0.45648257455245367 1
gene  2 7 176 2.534974145458815 0 865.0 2.534974145458815 1
gene  1 36 176 -0.043915652015153184 0 890.0 -0.043915652015153184 1
gene  2 2 176 1.7825148781420657 0 1046.0 1.7825148781420657 1
genomeend 48
/* Organism # 049 Fitness:  9.000 Error:  1.000                      */
genomestart  49
trait 1 0.6244092353419322 0.18676597304119621 0.0 0.0 0.0 0.0 0.0 1.0859980841985493 
trait 2 0.2325853718784447 0.0 0.6386640856000645 0.2403165933703809 0.4692449137731377 0.0 0.0 0.9744350084943001 
trait 3 0.3 0.1307004714612592 0.1743136734274307 0.0 0.0 0.6874777039807156 0.1880605775362461 0.0 
node 1 3 1 1
node 2 1 1 1
node 3 3 1 3
node 4 3 0 2
node 7 2 0 0
node 36 3 0 0
node 176 1 0 0
gene  3 1 4 8.030798647668494 0 1.0 8.030798647668494 1
gene  2 2 4 -2.1433392969936724 0 2.0 -2.1433392969936724 1
gene  3 3 4 -1.9896965301301666 0 3.0 -1.9896965301301666 1
gene  1 1 7 -1.8766201698109313 0 8.0 -1.8766201698109313 1
gene  1 7 4 1.8871254124073422 0 9.0 1.8871254124073422 1
gene  2 2 7 3.6018762836591875 0 12.0 3.6018762836591875 1
gene  2 3 7 4.616565656156473 0 64.0 4.616565656156473 1
gene  2 2 36 1.95585441188834 0 114.0 1.95585441188834 1
gene  2 36 4 -11.770090758008058 0 115.0 -11.770090758008058 1
gene  3 36 7 2.3608473184276626 0 133.0 2.3608473184276626 1
gene  2 3 36 -0.8217762755015683 0 200.0 -0.8217762755015683 1
gene  1 1 36 -0.6167517968669135 0 252.0 -0.6167517968669135 1
gene  1 1 176 -0.14222158224488268 0 764.0 -0.14222158224488268 1
gene  1 176 4 -3.6911848137148353 0 765.0 -3.6911848137148353 1
gene  2 7 176 2.33677649706951 0 865.0 2.33677649706951 1
gene  1 36 176 -1.5013401763936294 0 890.0 -1.5013401763936294 1
gene  2 2 176 -0.1908860843486565 0 1046.0 -0.1908860843486565 1
genomeend 49
/*-------------------------------------------------------------------*/
/* Species # 024         : (size= 004) (AvfFit= 2.858) (Age= 65.000)  */
/*-------------------------------------------------------------------*/
/* Organism # 050 Fitness:  4.000 Error:  2.000                      */
genomestart  50
trait 1 0.0 0.13764510123049556 0.0 0.0 0.8993233153112952 0.0 0.0 0.0 
trait 2 0.2 0.0 0.0 0.0 0.0 0.0 0.0 0.0 
trait 3 1.3505198581871123 0.5093048365791336 0.0 1.287597727711835 0.0 0.4995220146378667 0.0 0.9682790447428333 
node 1 1 1 1
node 2 2 1 1
node 3 1 1 3
node 4 1 0 2
node 27 1 0 0
node 43 1 0 0
gene  1 1 4 -1.2273059499394119 0 1.0 -1.2273059499394119 1
gene  2 2 4 6.440208226130521 0 2.0 6.440208226130521 1
gene  3 3 4 -0.9551494164617368 0 3.0 -0.9551494164617368 1
gene  1 1 27 4.153985469999489 0 80.0 4.153985469999489 1
gene  3 27 4 9.38298759260991 0 81.0 9.38298759260991 1
gene  2 3 27 0.8056781155749964 0 109.0 0.8056781155749964 1
gene  2 2 27 2.396063108888309 0 113.0 2.396063108888309 1
gene  2 2 43 1.174933061965459 0 157.0 1.174933061965459 1
gene  3 43 4 -5.226535576058749 0 158.0 -5.226535576058749 1
gene  3 3 43 -2.149594181887433 0 215.0 -2.149594181887433 1
gene  1 1 43 -1.6786439443706624 0 272.0 -1.6786439443706624 1
gene  2 27 43 1.876109257884753 0 290.0 1.876109257884753 1
genomeend 50
/* Organism # 051 Fitness:  4.001 Error:  2.000                      */
genomestart  51
trait 1 0.0 0.13764510123049556 0.0 0.0 0.8993233153112952 0.0 0.0 0.0 
trait 2 0.2 0.0 0.0 0.0 0.0 0.0 0.0 0.0 
trait 3 1.3505198581871123 0.5093048365791336 0.0 1.287597727711835 0.0 0.4995220146378667 0.0 0.9682790447428333 
node 1 1 1 1
node 2 3 1 1
node 3 1 1 3
node 4 1 0 2
node 27 1 0 0
node 43 1 0 0
gene  1 1 4 -5.158099543724417 0 1.0 -5.158099543724417 1
gene  2 2 4 -0.7745532741655701 0 2.0 -0.7745532741655701 1
gene  3 3 4 0.43954195108426664 0 3.0 0.43954195108426664 1
gene  1 1 27 0.7715311532165643 0 80.0 0.7715311532165643 1
gene  3 27 4 7.139647622883491 0 81.0 7.139647622883491 1
gene  2 3 27 0.5031102544861421 0 109.0 0.5031102544861421 1
gene  2 2 27 -0.0553391153150351 0 113.0 -0.0553391153150351 1
gene  2 2 43 0.4718150331207791 0 157.0 0.4718150331207791 1
gene  3 43 4 -1.0152008584897403 0 158.0 -1.0152008584897403 1
gene  3 3 43 -0.841095703008301 0 215.0 -0.841095703008301 1
gene  1 1 43 -1.600443440818522 0 272.0 -1.600443440818522 1
gene  2 27 43 -0.5188256060635088 0 290.0 -0.5188256060635088 1
genomeend 51
/* Organism # 052 Fitness:  2.426 Error:  2.442                      */
genomestart  52
trait 1 0.0 0.13764510123049556 0.0 0.0 0.8993233153112952 0.0 0.0 0.0 
trait 2 0.2 0.0 0.0 0.0 0.0 0.0 0.0 0.0 
trait 3 1.3505198581871123 0.5093048365791336 0.0 1.287597727711835 0.0 0.4995220146378667 0.0 0.9682790447428333 
node 1 1 1 1
node 2 3 1 1
node 3 1 1 3
node 4 1 0 2
node 27 1 0 0
node 43 1 0 0
gene  1 1 4 -3.817708726655969 0 1.0 -3.817708726655969 1
gene  2 2 4 4.021737130344434 0 2.0 4.021737130344434 1
gene  3 3 4 -1.4513093002741142 0 3.0 -1.4513093002741142 1
gene  1 1 27 2.5438197524352537 0 80.0 2.5438197524352537 1
gene  3 27 4 6.3689719429911955 0 81.0 6.3689719429911955 1
gene  2 3 27 1.48503606697482 0 109.0 1.48503606697482 1
gene  2 2 27 4.095641776111686 0 113.0 4.095641776111686 1
gene  2 2 43 -0.09694081293774959 0 157.0 -0.09694081293774959 1
gene  3 43 4 -1.0529814581368182 0 158.0 -1.0529814581368182 1
gene  3 3 43 1.7810679311528048 0 215.0 1.7810679311528048 1
gene  1 1 43 -1.6786439443706624 0 272.0 -1.6786439443706624 1
gene  2 27 43 2.3277653838494983 0 290.0 2.3277653838494983 1
genomeend 52
/* Organism # 053 Fitness:  1.004 Error:  2.998                      */
genomestart  53
trait 1 0.0 0.13764510123049556 0.0 0.0 0.8993233153112952 0.0 0.0 0.0 
trait 2 0.2 0.0 0.0 0.0 0.0 0.0 0.0 0.0 
trait 3 1.3505198581871123 0.5093048365791336 0.0 1.287597727711835 0.0 0.4995220146378667 0.0 0.9682790447428333 
node 1 1 1 1
node 2 3 1 1
node 3 1 1 3
node 4 1 0 2
node 27 1 0 0
node 43 1 0 0
gene  1 1 4 -3.0540315842952914 0 1.0 -3.0540315842952914 1
gene  2 2 4 4.662356879844425 0 2.0 4.662356879844425 1
gene  3 3 4 0.8064078834642802 0 3.0 0.8064078834642802 1
gene  1 1 27 3.126968805602357 0 80.0 3.126968805602357 1
gene  3 27 4 -0.8487600554813512 0 81.0 -0.8487600554813512 1
gene  2 3 27 0.8441545087474349 0 109.0 0.8441545087474349 1
gene  2 2 27 3.235429750732136 0 113.0 3.235429750732136 1
gene  2 2 43 -0.19014036981317917 0 157.0 -0.19014036981317917 1
gene  3 43 4 1.3031214697061748 0 158.0 1.3031214697061748 1
gene  3 3 43 0.04260351341090207 0 215.0 0.04260351341090207 1
gene  1 1 43 -2.065558260112953 0 272.0 -2.065558260112953 1
gene  2 27 43 2.3585284448766792 0 290.0 2.3585284448766792 1
genomeend 53
/*-------------------------------------------------------------------*/
/* Species # 025         : (size= 006) (AvfFit= 8.167) (Age= 65.000)  */
/*-------------------------------------------------------------------*/
/* Organism # 054 Fitness:  9.000 Error:  1.000                      */
genomestart  54
trait 1 0.8840272959659129 0.0 1.3579290274037175 0.5630203448559242 0.0 0.0 0.3000611335896256 0.6034990602745626 
trait 2 0.0 0.0 0.0 0.0 0.0 0.0 0.0 0.8880042084017186 
trait 3 0.33279162840142523 0.03391845409271829 0.0 0.020234098708277533 0.0 0.0 0.0 0.037290726481754424 
node 1 1 1 1
node 2 1 1 1
node 3 2 1 3
node 4 1 0 2
node 44 1 0 0
gene  1 1 4 1.8890739330848145 0 1.0 1.8890739330848145 0
gene  2 2 4 -10.126227889218256 0 2.0 -10.126227889218256 1
gene  2 3 4 -16.118518473843416 0 3.0 -16.118518473843416 1
gene  3 1 44 11.975668236885701 0 160.0 11.975668236885701 1
gene  3 44 4 27.874001599411134 0 161.0 27.874001599411134 1
gene  3 3 44 -7.344540976542908 0 179.0 -7.344540976542908 1
gene  1 2 44 -19.909427291425917 0 472.0 -19.909427291425917 1
genomeend 54
/* Organism # 055 Fitness:  9.000 Error:  1.000                      */
genomestart  55
trait 1 0.8840272959659129 0.0 1.3579290274037175 0.5630203448559242 0.0 0.0 0.3000611335896256 0.6034990602745626 
trait 2 0.0 0.0 0.0 0.0 0.0 0.0 0.0 0.8880042084017186 
trait 3 0.3095312679814723 0.03391845409271829 0.0 0.2139824529837444 0.4117208925389594 0.0 0.0 0.27631514628851167 
node 1 1 1 1
node 2 1 1 1
node 3 2 1 3
node 4 1 0 2
node 44 1 0 0
gene  1 1 4 3.353476340623821 0 1.0 3.353476340623821 0
gene  2 2 4 -11.855762880118906 0 2.0 -11.855762880118906 1
gene  2 3 4 -16.102159814031967 0 3.0 -16.102159814031967 1
gene  3 1 44 12.467270426148653 0 160.0 12.467270426148653 1
gene  3 44 4 25.97890202147233 0 161.0 25.97890202147233 1
gene  3 3 44 -6.0005034519319755 0 179.0 -6.0005034519319755 1
gene  1 2 44 -20.16745417338205 0 472.0 -20.16745417338205 1
genomeend 55
/* Organism # 056 Fitness:  9.000 Error:  1.000                      */
genomestart  56
trait 1 0.8840272959659129 0.0 1.3579290274037175 0.5630203448559242 0.0 0.0 0.3000611335896256 0.6034990602745626 
trait 2 0.0 0.0 0.0 0.0 0.0 0.0 0.0 0.8880042084017186 
trait 3 0.33279162840142523 0.03391845409271829 0.0 0.020234098708277533 0.0 0.0 0.0 0.037290726481754424 
node 1 1 1 1
node 2 1 1 1
node 3 2 1 3
node 4 1 0 2
node 44 1 0 0
gene  1 1 4 3.56754897032624 0 1.0 3.56754897032624 0
gene  2 2 4 -1.4799609836390397 0 2.0 -1.4799609836390397 1
gene  2 3 4 -15.885469658992362 0 3.0 -15.885469658992362 1
gene  3 1 44 12.631241411238083 0 160.0 12.631241411238083 1
gene  3 44 4 27.155028912596876 0 161.0 27.155028912596876 1
gene  3 3 44 -6.683853422233126 0 179.0 -6.683853422233126 1
gene  1 2 44 -18.690943690680236 0 472.0 -18.690943690680236 1
genomeend 56
/* Organism # 057 Fitness:  9.000 Error:  1.000                      */
genomestart  57
trait 1 0.8840272959659129 0.0 1.3579290274037175 0.5630203448559242 0.0 0.0 0.3000611335896256 0.6034990602745626 
trait 2 0.0 0.0 0.0 0.0 0.0 0.0 0.0 0.8880042084017186 
trait 3 0.33279162840142523 0.03391845409271829 0.0 0.020234098708277533 0.0 0.0 0.0 0.037290726481754424 
node 1 1 1 1
node 2 1 1 1
node 3 2 1 3
node 4 1 0 2
node 44 1 0 0
gene  1 1 4 1.8890739330848145 0 1.0 1.8890739330848145 1
gene  2 2 4 -10.126227889218256 0 2.0 -10.126227889218256 1
gene  2 3 4 -16.118518473843416 0 3.0 -16.118518473843416 1
gene  3 1 44 11.975668236885701 0 160.0 11.975668236885701 1
gene  3 44 4 27.874001599411134 0 161.0 27.874001599411134 1
gene  3 3 44 -7.344540976542908 0 179.0 -7.344540976542908 1
gene  1 2 44 -19.909427291425917 0 472.0 -19.909427291425917 1
genomeend 57
/* Organism # 058 Fitness:  9.000 Error:  1.000                      */
genomestart  58
trait 1 0.8840272959659129 0.0 1.3579290274037175 0.5630203448559242 0.0 0.0 0.3000611335896256 0.6034990602745626 
trait 2 0.0 0.0 0.0 0.0 0.0 0.0 0.0 0.8880042084017186 
trait 3 0.33279162840142523 0.03391845409271829 0.0 0.020234098708277533 0.0 0.0 0.0 0.037290726481754424 
node 1 1 1 1
node 2 1 1 1
node 3 2 1 3
node 4 1 0 2
node 44 1 0 0
gene  1 1 4 2.437049281038842 0 1.0 2.437049281038842 0
gene  2 2 4 -10.715414817277727 0 2.0 -10.715414817277727 1
gene  2 3 4 -18.075949616609744 0 3.0 -18.075949616609744 1
gene  3 1 44 11.358643817953599 0 160.0 11.358643817953599 1
gene  3 44 4 28.054032679060544 0 161.0 28.054032679060544 1
gene  3 3 44 -7.6889423758996385 0 179.0 -7.6889423758996385 1
gene  1 2 44 -17.843298013801434 0 472.0 -17.843298013801434 1
genomeend 58
/* Organism # 059 Fitness:  4.002 Error:  2.000                      */
genomestart  59
trait 1 0.8840272959659129 0.0 1.3579290274037175 0.5630203448559242 0.0 0.0 0.3000611335896256 0.6034990602745626 
trait 2 0.0 0.0 0.0 0.0 0.0 0.0 0.0 0.8880042084017186 
trait 3 0.33279162840142523 0.03391845409271829 0.0 0.020234098708277533 0.0 0.0 0.0 0.037290726481754424 
node 1 1 1 1
node 2 1 1 1
node 3 2 1 3
node 4 1 0 2
node 44 1 0 0
gene  1 1 4 2.3018635493465496 0 1.0 2.3018635493465496 0
gene  2 2 4 -10.126227889218256 0 2.0 -10.126227889218256 1
gene  2 3 4 -15.49182568864937 0 3.0 -15.49182568864937 1
gene  3 1 44 2.122707020509988 0 160.0 2.122707020509988 1
gene  3 44 4 27.182299574026757 0 161.0 27.182299574026757 1
gene  3 3 44 -1.3541960844873382 0 179.0 -1.3541960844873382 1
gene  1 2 44 0.7767380562440283 0 472.0 0.7767380562440283 1
genomeend 59
/*-------------------------------------------------------------------*/
/* Species # 026         : (size= 001) (AvfFit= 4.000) (Age= 64.000)  */
/*-------------------------------------------------------------------*/
/* Organism # 060 Fitness:  4.000 Error:  2.000                      */
genomestart  60
trait 1 0.0 0.4164991608900766 0.0 0.024130898090710368 0.0 0.0 0.0 0.0 
trait 2 0.24344716250459295 0.0 0.0 0.5136909437064322 0.0 0.23038413510262534 0.0 0.0 
trait 3 0.3 0.019853236171330516 0.4501264478379223 0.0 0.0 0.6568022356739168 0.028566163676391813 0.41597304963488424 
node 1 3 1 1
node 2 2 1 1
node 3 1 1 3
node 4 1 0 2
node 7 1 0 0
node 37 3 0 0
node 81 3 0 0
node 190 3 0 0
node 241 1 0 0
node 245 1 0 0
gene  1 1 4 -3.6326094221310523 0 1.0 -3.6326094221310523 1
gene  2 2 4 -0.553057168030244 0 2.0 -0.553057168030244 1
gene  1 3 4 -10.147425300443444 0 3.0 -10.147425300443444 1
gene  2 1 7 1.468054010344038 0 8.0 1.468054010344038 1
gene  1 7 4 20.602420836877336 0 9.0 20.602420836877336 1
gene  2 2 7 -1.417151999536933 0 12.0 -1.417151999536933 1
gene  2 1 37 5.695791920498852 0 117.0 5.695791920498852 0
gene  1 37 4 -1.826115969378861 0 118.0 -1.826115969378861 1
gene  2 3 37 -2.3486224692626605 0 190.0 -2.3486224692626605 1
gene  3 7 37 -2.732342998213589 0 250.0 -2.732342998213589 1
gene  1 1 81 7.433933546340411 0 354.0 7.433933546340411 1
gene  1 81 4 -5.239925173586686 0 355.0 -5.239925173586686 1
gene  2 3 7 -3.177785297893323 0 377.0 -3.177785297893323 1
gene  3 2 37 -13.660897928625669 0 407.0 -13.660897928625669 1
gene  2 37 81 -2.2947704665068605 0 531.0 -2.2947704665068605 1
gene  2 7 81 -1.618006061116837 0 721.0 -1.618006061116837 1
gene  3 1 190 6.152674542918156 0 819.0 6.152674542918156 1
gene  1 190 81 0.07485235186843753 0 820.0 0.07485235186843753 0
gene  2 7 190 -0.5606680821410273 0 968.0 -0.5606680821410273 1
gene  3 2 81 -1.5365433783903126 0 1023.0 -1.5365433783903126 1
gene  1 1 241 -3.1067214352802166 0 1040.0 -3.1067214352802166 1
gene  1 241 37 0.36979868594013887 0 1041.0 0.36979868594013887 1
gene  1 190 245 4.04380392132852 0 1060.0 4.04380392132852 1
gene  1 245 81 -0.9569580377181017 0 1061.0 -0.9569580377181017 1
gene  2 2 190 1.0460499227472497 0 1190.0 1.0460499227472497 1
genomeend 60
/*-------------------------------------------------------------------*/
/* Species # 027         : (size= 003) (AvfFit= 6.376) (Age= 63.000)  */
/*-------------------------------------------------------------------*/
/* Organism # 061 Fitness:  5.138 Error:  1.733                      */
genomestart  61
trait 1 0.08750000000000001 0.11197210561720429 0.0 1.0141595981327862 0.0 0.0 0.0 0.0 
trait 2 0.2 0.0 0.0 0.0 0.0 0.0 0.0 0.0 
trait 3 0.07049991630648073 0.0 0.5648645619926869 0.0 0.0 1.3869948938207721 0.0 0.5027773052376283 
node 1 2 1 1
node 2 3 1 1
node 3 2 1 3
node 4 1 0 2
node 7 1 0 0
node 44 1 0 0
gene  2 1 4 4.485428905086561 0 1.0 4.485428905086561 1
gene  2 2 4 1.8565686513495645 0 2.0 1.8565686513495645 1
gene  2 3 4 -2.792270883965655 0 3.0 -2.792270883965655 1
gene  1 1 7 0.4675373769461635 0 8.0 0.4675373769461635 1
gene  1 7 4 0.7331192737201278 0 9.0 0.7331192737201278 1
gene  2 2 7 -0.42476289429401226 0 12.0 -0.42476289429401226 1
gene  1 1 44 -4.602372857748428 0 160.0 -4.602372857748428 1
gene  1 44 4 -4.1176733124498135 0 161.0 -4.1176733124498135 1
gene  1 2 44 -2.9879621000894954 0 183.0 -2.9879621000894954 1
gene  3 44 7 -1.0843021052712105 0 367.0 -1.0843021052712105 1
gene  1 3 44 -0.4176172324357639 0 794.0 -0.4176172324357639 1
gene  3 3 7 1.549568498915963 0 1186.0 1.549568498915963 1
genomeend 61
/* Organism # 062 Fitness:  8.854 Error:  1.024                      */
genomestart  62
trait 1 0.08750000000000001 0.11197210561720429 0.0 1.0141595981327862 0.0 0.0 0.0 0.0 
trait 2 0.2 0.0 0.0 0.0 0.0 0.0 0.0 0.0 
trait 3 0.07049991630648073 0.0 0.5648645619926869 0.0 0.0 1.3869948938207721 0.0 0.5027773052376283 
node 1 2 1 1
node 2 3 1 1
node 3 2 1 3
node 4 1 0 2
node 7 1 0 0
node 44 1 0 0
node 270 1 0 0
gene  2 1 4 4.485428905086561 0 1.0 4.485428905086561 0
gene  2 2 4 1.8565686513495645 0 2.0 1.8565686513495645 1
gene  2 3 4 -2.792270883965655 0 3.0 -2.792270883965655 1
gene  1 1 7 0.4675373769461635 0 8.0 0.4675373769461635 1
gene  1 7 4 0.7331192737201278 0 9.0 0.7331192737201278 1
gene  2 2 7 -0.42476289429401226 0 12.0 -0.42476289429401226 1
gene  1 1 44 -4.602372857748428 0 160.0 -4.602372857748428 1
gene  1 44 4 -4.1176733124498135 0 161.0 -4.1176733124498135 1
gene  1 2 44 -2.9879621000894954 0 183.0 -2.9879621000894954 1
gene  3 44 7 -1.0843021052712105 0 367.0 -1.0843021052712105 1
gene  1 3 44 -0.4176172324357639 0 794.0 -0.4176172324357639 1
gene  2 1 270 1.0 0 1187.0 0.0 1
gene  2 270 4 4.485428905086561 0 1188.0 0.0 1
genomeend 62
/* Organism # 063 Fitness:  5.138 Error:  1.733                      */
genomestart  63
trait 1 0.08750000000000001 0.11197210561720429 0.0 1.0141595981327862 0.0 0.0 0.0 0.0 
trait 2 0.2 0.0 0.0 0.0 0.0 0.0 0.0 0.0 
trait 3 0.07049991630648073 0.0 0.5648645619926869 0.0 0.0 1.3869948938207721 0.0 0.5027773052376283 
node 1 2 1 1
node 2 3 1 1
node 3 2 1 3
node 4 1 0 2
node 7 1 0 0
node 44 1 0 0
gene  2 1 4 4.485428905086561 0 1.0 4.485428905086561 1
gene  2 2 4 1.8565686513495645 0 2.0 1.8565686513495645 1
gene  2 3 4 -2.792270883965655 0 3.0 -2.792270883965655 1
gene  1 1 7 0.4675373769461635 0 8.0 0.4675373769461635 1
gene  1 7 4 0.7331192737201278 0 9.0 0.7331192737201278 1
gene  2 2 7 -0.42476289429401226 0 12.0 -0.42476289429401226 1
gene  1 1 44 -4.602372857748428 0 160.0 -4.602372857748428 1
gene  1 44 4 -4.1176733124498135 0 161.0 -4.1176733124498135 1
gene  1 2 44 -2.9879621000894954 0 183.0 -2.9879621000894954 1
gene  3 44 7 -1.0843021052712105 0 367.0 -1.0843021052712105 1
gene  1 3 44 -0.4176172324357639 0 794.0 -0.4176172324357639 1
gene  3 3 7 1.549568498915963 0 1186.0 0.0 1
genomeend 63
/*-------------------------------------------------------------------*/
/* Species # 028         : (size= 002) (AvfFit= 3.287) (Age= 63.000)  */
/*-------------------------------------------------------------------*/
/* Organism # 064 Fitness:  3.998 Error:  2.000                      */
genomestart  64
trait 1 0.24752282297412978 0.0 0.0 0.6748884887868558 0.025071082154728298 0.004405795074528471 0.25232841527737 0.4736968391097336 
trait 2 0.2 0.0 0.0 0.0 0.0 0.0 0.0 0.0 
trait 3 0.34758106760543034 0.0 0.0 0.0 0.0 0.10121239988747802 0.08647148072088728 0.07346983059337467 
node 1 1 1 1
node 2 3 1 1
node 3 3 1 3
node 4 1 0 2
node 12 1 0 0
node 37 1 0 0
node 45 1 0 0
node 63 2 0 0
node 77 1 0 0
node 163 1 0 0
node 171 1 0 0
gene  1 1 4 0.5692306709710033 0 1.0 0.5692306709710033 0
gene  2 2 4 -0.16963393709720398 0 2.0 -0.16963393709720398 1
gene  3 3 4 -1.1532196319849248 0 3.0 -1.1532196319849248 1
gene  1 1 12 -2.092538557328285 0 21.0 -2.092538557328285 1
gene  1 12 4 1.206416384806357 0 22.0 1.206416384806357 1
gene  3 2 12 -2.7558810095687747 0 36.0 -2.7558810095687747 1
gene  1 3 12 -2.744180154684034 0 86.0 -2.744180154684034 1
gene  1 1 37 -3.6592391825645145 0 117.0 -3.6592391825645145 1
gene  1 37 4 0.952512109027873 0 118.0 0.952512109027873 1
gene  1 1 45 3.108845300537761 0 170.0 3.108845300537761 0
gene  1 45 4 -8.460901211602343 0 171.0 -8.460901211602343 1
gene  1 2 45 1.0744522456499852 0 184.0 1.0744522456499852 1
gene  3 37 45 -0.40647470821345677 0 229.0 -0.40647470821345677 1
gene  1 1 63 -1.9430420991550101 0 264.0 -1.9430420991550101 1
gene  1 63 4 0.2735985311654082 0 265.0 0.2735985311654082 1
gene  3 12 63 2.266829125243168 0 294.0 2.266829125243168 1
gene  1 1 77 0.30700492688859493 0 338.0 0.30700492688859493 1
gene  1 77 45 -9.483155148378113 0 339.0 -9.483155148378113 1
gene  3 12 45 0.26562399810524107 0 706.0 0.26562399810524107 1
gene  1 2 163 1.9722323973961564 0 726.0 1.9722323973961564 1
gene  1 163 45 1.216124273052705 0 727.0 1.216124273052705 1
gene  1 45 171 4.362743884926896 0 749.0 4.362743884926896 1
gene  1 171 4 -2.0301723869621595 0 750.0 -2.0301723869621595 1
gene  2 2 63 3.1291390649026214 0 880.0 3.1291390649026214 1
gene  1 12 163 2.2078268309183597 0 1037.0 2.2078268309183597 1
gene  1 63 45 4.572146495537085 0 1059.0 4.572146495537085 1
genomeend 64
/* Organism # 065 Fitness:  2.576 Error:  2.395                      */
genomestart  65
trait 1 0.24752282297412978 0.0 0.0 0.6748884887868558 0.025071082154728298 0.004405795074528471 0.25232841527737 0.4736968391097336 
trait 2 0.2 0.0 0.0 0.0 0.0 0.0 0.0 0.0 
trait 3 0.34758106760543034 0.0 0.0 0.0 0.0 0.10121239988747802 0.08647148072088728 0.07346983059337467 
node 1 1 1 1
node 2 3 1 1
node 3 3 1 3
node 4 1 0 2
node 12 1 0 0
node 37 1 0 0
node 45 1 0 0
node 63 2 0 0
node 77 1 0 0
node 163 1 0 0
node 171 1 0 0
gene  1 1 4 -1.07552488462135 0 1.0 -1.07552488462135 0
gene  2 2 4 -2.0231386809500433 0 2.0 -2.0231386809500433 1
gene  3 3 4 1.7205205445722718 0 3.0 1.7205205445722718 1
gene  1 1 12 -0.43526712171507675 0 21.0 -0.43526712171507675 1
gene  1 12 4 1.9852443200140846 0 22.0 1.9852443200140846 1
gene  3 2 12 -2.4274137618828657 0 36.0 -2.4274137618828657 1
gene  1 3 12 -2.6199373328625035 0 86.0 -2.6199373328625035 1
gene  1 1 37 -3.3891540211502287 0 117.0 -3.3891540211502287 1
gene  1 37 4 -0.19563680805547295 0 118.0 -0.19563680805547295 1
gene  1 1 45 1.7563360149995964 0 170.0 1.7563360149995964 0
gene  1 45 4 -1.2318725330088034 0 171.0 -1.2318725330088034 1
gene  1 2 45 2.5630986676816443 0 184.0 2.5630986676816443 1
gene  3 37 45 -10.32588064014632 0 229.0 -10.32588064014632 1
gene  1 1 63 -11.107964857796294 0 264.0 -11.107964857796294 1
gene  1 63 4 2.03931159898126 0 265.0 2.03931159898126 1
gene  3 12 63 1.545432386265745 0 294.0 1.545432386265745 1
gene  1 1 77 0.6341307883968546 0 338.0 0.6341307883968546 1
gene  1 77 45 -0.8481063144245935 0 339.0 -0.8481063144245935 1
gene  3 12 45 -2.27340117511389 0 706.0 -2.27340117511389 1
gene  1 2 163 0.5502124673837336 0 726.0 0.5502124673837336 1
gene  1 163 45 -2.1357005383565983 0 727.0 -2.1357005383565983 1
gene  1 45 171 4.800576677510459 0 749.0 4.800576677510459 1
gene  1 171 4 -5.445925070666692 0 750.0 -5.445925070666692 1
gene  2 2 63 -0.20021271309650723 0 880.0 -0.20021271309650723 1
gene  1 12 163 0.4788657499717712 0 1037.0 0.4788657499717712 1
gene  1 63 45 3.984874743734327 0 1059.0 3.984874743734327 1
genomeend 65
/*-------------------------------------------------------------------*/
/* Species # 031         : (size= 003) (AvfFit= 7.834) (Age= 58.000)  */
/*-------------------------------------------------------------------*/
/* Organism # 066 Fitness:  9.000 Error:  1.000                      */
genomestart  66
trait 1 0.0 0.0 1.1884728227178445 0.6492743348959318 1.352985718078272 0.5060014167811171 1.2304184416279376 0.8076904131955408 
trait 2 0.2 0.0 0.0 0.0 0.0 0.0 0.0 0.0 
trait 3 0.6376267350833316 0.170572472457022 0.8101470843395345 0.0 0.0 0.0 0.0 0.06629462485645231 
node 1 1 1 1
node 2 2 1 1
node 3 1 1 3
node 4 1 0 2
node 27 1 0 0
node 43 1 0 0
node 58 1 0 0
node 176 1 0 0
gene  1 1 4 2.0623541707770032 0 1.0 2.0623541707770032 1
gene  1 2 4 4.0143177942166925 0 2.0 4.0143177942166925 1
gene  3 3 4 -10.476988613323543 0 3.0 -10.476988613323543 1
gene  1 1 27 2.859022296103535 0 80.0 2.859022296103535 1
gene  1 27 4 -1.59716376335245 0 81.0 -1.59716376335245 1
gene  2 3 27 -17.566974077465165 0 109.0 -17.566974077465165 1
gene  2 2 27 -9.308854524635029 0 113.0 -9.308854524635029 1
gene  3 2 43 9.899048022599006 0 157.0 9.899048022599006 1
gene  2 43 4 10.990614708274217 0 158.0 10.990614708274217 1
gene  1 1 43 6.641191179467501 0 224.0 6.641191179467501 1
gene  1 1 58 -4.289460379647147 0 242.0 -4.289460379647147 1
gene  1 58 4 -9.814062638676697 0 243.0 -9.814062638676697 1
gene  1 58 43 -1.8945278319429655 0 273.0 -1.8945278319429655 1
gene  3 58 27 -2.023168670166179 0 463.0 -2.023168670166179 1
gene  1 1 176 4.979759680700142 0 764.0 4.979759680700142 1
gene  1 176 4 6.824642054225934 0 765.0 6.824642054225934 1
gene  3 43 27 0.46371870870316856 0 847.0 0.46371870870316856 1
gene  3 43 176 1.826081286052761 0 1062.0 1.826081286052761 1
genomeend 66
/* Organism # 067 Fitness:  5.501 Error:  1.655                      */
genomestart  67
trait 1 0.0 0.09101498754782988 1.1884728227178445 0.6492743348959318 2.1168378779791457 1.3000379766466557 1.4600515357934547 0.8076904131955408 
trait 2 0.2 0.0 0.0 0.0 0.0 0.0 0.0 0.0 
trait 3 0.6376267350833316 0.170572472457022 0.8101470843395345 0.0 0.0 0.0 0.0 0.06629462485645231 
node 1 1 1 1
node 2 2 1 1
node 3 1 1 3
node 4 1 0 2
node 27 1 0 0
node 43 1 0 0
node 58 1 0 0
node 176 1 0 0
node 264 1 0 0
gene  1 1 4 1.127450211273488 0 1.0 1.127450211273488 1
gene  1 2 4 2.3388384392933457 0 2.0 2.3388384392933457 1
gene  3 3 4 -13.02805930333474 0 3.0 -13.02805930333474 1
gene  1 1 27 1.6696235060642701 0 80.0 1.6696235060642701 1
gene  1 27 4 0.2016735422224718 0 81.0 0.2016735422224718 0
gene  2 3 27 -20.01954674192772 0 109.0 -20.01954674192772 1
gene  2 2 27 -7.014568750041669 0 113.0 -7.014568750041669 1
gene  3 2 43 2.185986718302402 0 157.0 2.185986718302402 1
gene  2 43 4 11.597636833360186 0 158.0 11.597636833360186 1
gene  1 1 43 3.1928838078673714 0 224.0 3.1928838078673714 1
gene  1 1 58 -3.5639721149700265 0 242.0 -3.5639721149700265 1
gene  1 58 4 -7.420142598668296 0 243.0 -7.420142598668296 1
gene  1 58 43 -0.23585052136860485 0 273.0 -0.23585052136860485 1
gene  3 58 27 -0.04861003248143403 0 463.0 -0.04861003248143403 1
gene  1 1 176 0.7586639465354219 0 764.0 0.7586639465354219 1
gene  1 176 4 8.84429680179665 0 765.0 8.84429680179665 1
gene  3 43 27 1.1774814247388594 0 847.0 1.1774814247388594 1
gene  3 43 176 -0.35133569687731653 0 1062.0 -0.35133569687731653 1
gene  1 27 264 0.9415886863771377 0 1160.0 0.9415886863771377 1
gene  1 264 4 2.6809596378769904 0 1161.0 2.6809596378769904 1
genomeend 67
/* Organism # 068 Fitness:  9.000 Error:  1.000                      */
genomestart  68
trait 1 0.0 0.09101498754782988 1.1884728227178445 0.6492743348959318 2.1168378779791457 1.3000379766466557 1.4600515357934547 0.8076904131955408 
trait 2 0.2 0.0 0.0 0.0 0.0 0.0 0.0 0.0 
trait 3 0.6376267350833316 0.170572472457022 0.8101470843395345 0.0 0.0 0.0 0.0 0.06629462485645231 
node 1 1 1 1
node 2 2 1 1
node 3 1 1 3
node 4 1 0 2
node 27 1 0 0
node 43 1 0 0
node 58 1 0 0
node 176 1 0 0
node 264 1 0 0
gene  1 1 4 0.9058553138371339 0 1.0 0.9058553138371339 1
gene  1 2 4 6.038307883113598 0 2.0 6.038307883113598 1
gene  3 3 4 -12.16387393509984 0 3.0 -12.16387393509984 1
gene  1 1 27 4.555295410822259 0 80.0 4.555295410822259 1
gene  1 27 4 0.8676932931093708 0 81.0 0.8676932931093708 0
gene  2 3 27 -22.252502715853186 0 109.0 -22.252502715853186 1
gene  2 2 27 -7.709446012585181 0 113.0 -7.709446012585181 1
gene  3 2 43 8.541621644539479 0 157.0 8.541621644539479 1
gene  2 43 4 14.141891104758216 0 158.0 14.141891104758216 1
gene  1 1 43 1.3470414209582562 0 224.0 1.3470414209582562 1
gene  1 1 58 -4.75210155464081 0 242.0 -4.75210155464081 1
gene  1 58 4 -6.592018460853529 0 243.0 -6.592018460853529 1
gene  1 58 43 -0.1727019038010975 0 273.0 -0.1727019038010975 1
gene  3 58 27 -2.510468095574482 0 463.0 -2.510468095574482 1
gene  1 1 176 5.9429085187883235 0 764.0 5.9429085187883235 1
gene  1 176 4 4.539930463473354 0 765.0 4.539930463473354 1
gene  3 43 27 4.793013534793321 0 847.0 4.793013534793321 1
gene  3 43 176 -0.23270310820311857 0 1062.0 -0.23270310820311857 1
gene  1 27 264 1.4461858131017054 0 1160.0 1.4461858131017054 1
gene  1 264 4 2.1435790439392077 0 1161.0 2.1435790439392077 1
genomeend 68
/*-------------------------------------------------------------------*/
/* Species # 033         : (size= 004) (AvfFit= 7.750) (Age= 55.000)  */
/*-------------------------------------------------------------------*/
/* Organism # 069 Fitness:  9.000 Error:  1.000                      */
genomestart  69
trait 1 0.08750000000000001 0.11197210561720429 0.0 0.0 0.0 0.0 0.0 0.0 
trait 2 0.2 0.0 0.0 0.0 0.0 0.0 0.0 0.0 
trait 3 0.42866775686272524 0.0 1.1070596384679887 0.0 0.43219372272579937 1.4000909286651555 0.796965795006854 0.0 
node 1 2 1 1
node 2 3 1 1
node 3 1 1 3
node 4 2 0 2
node 7 1 0 0
node 44 2 0 0
node 64 1 0 0
node 114 3 0 0
node 237 1 0 0
gene  1 1 4 -0.3979948652066956 0 1.0 -0.3979948652066956 0
gene  2 2 4 5.988507944402368 0 2.0 5.988507944402368 0
gene  3 3 4 0.3201762353085187 0 3.0 0.3201762353085187 1
gene  1 1 7 -1.2774650920265782 0 8.0 -1.2774650920265782 0
gene  1 7 4 -2.4002279795195682 0 9.0 -2.4002279795195682 1
gene  2 2 7 6.206529665543676 0 12.0 6.206529665543676 1
gene  1 1 44 -5.557963033589768 0 160.0 -5.557963033589768 1
gene  1 44 4 -9.546402601820999 0 161.0 -9.546402601820999 1
gene  1 2 44 -3.5788688314535633 0 183.0 -3.5788688314535633 1
gene  2 2 64 -0.957366353871298 0 268.0 -0.957366353871298 1
gene  2 64 4 0.07612395304675168 0 269.0 0.07612395304675168 1
gene  2 7 64 6.364545168285571 0 345.0 6.364545168285571 1
gene  1 1 114 5.2189074299913445 0 506.0 5.2189074299913445 1
gene  1 114 4 7.901810978327046 0 507.0 7.901810978327046 1
gene  1 2 114 4.927374424470628 0 541.0 4.927374424470628 1
gene  1 44 114 -2.0290821755633885 0 624.0 -2.0290821755633885 1
gene  2 3 7 0.28037247139690036 0 657.0 0.28037247139690036 1
gene  1 1 237 3.291401502050646 0 1029.0 3.291401502050646 1
gene  1 237 7 1.5544168350237675 0 1030.0 1.5544168350237675 1
gene  2 237 64 -1.8706829252549828 0 1051.0 -1.8706829252549828 1
gene  3 114 64 -7.182405919224643 0 1120.0 -7.182405919224643 1
genomeend 69
/* Organism # 070 Fitness:  4.000 Error:  2.000                      */
genomestart  70
trait 1 0.08750000000000001 0.11197210561720429 0.0 0.0 0.0 0.0 0.0 0.0 
trait 2 0.2 0.0 0.0 0.0 0.0 0.0 0.0 0.0 
trait 3 0.42866775686272524 0.0 1.1070596384679887 0.0 0.43219372272579937 1.4000909286651555 0.796965795006854 0.0 
node 1 2 1 1
node 2 3 1 1
node 3 1 1 3
node 4 2 0 2
node 7 1 0 0
node 44 2 0 0
node 64 1 0 0
node 114 3 0 0
node 237 1 0 0
gene  1 1 4 -0.6718791025747806 0 1.0 -0.6718791025747806 0
gene  2 2 4 4.562481055672981 0 2.0 4.562481055672981 0
gene  3 3 4 1.4421883517017695 0 3.0 1.4421883517017695 1
gene  1 1 7 -3.2108237646708333 0 8.0 -3.2108237646708333 0
gene  1 7 4 -2.8566368002396088 0 9.0 -2.8566368002396088 1
gene  2 2 7 6.157125097047285 0 12.0 6.157125097047285 1
gene  1 1 44 -6.444301126990947 0 160.0 -6.444301126990947 1
gene  1 44 4 -11.913831484329837 0 161.0 -11.913831484329837 1
gene  1 2 44 -1.2563254906216517 0 183.0 -1.2563254906216517 1
gene  2 2 64 0.008311214801350442 0 268.0 0.008311214801350442 1
gene  2 64 4 -2.003136411929858 0 269.0 -2.003136411929858 1
gene  2 7 64 5.048323513044384 0 345.0 5.048323513044384 1
gene  1 1 114 4.884120054077259 0 506.0 4.884120054077259 1
gene  1 114 4 7.4439287189082 0 507.0 7.4439287189082 1
gene  1 2 114 7.283052129499171 0 541.0 7.283052129499171 1
gene  1 44 114 -3.265737138697821 0 624.0 -3.265737138697821 1
gene  2 3 7 0.7503003226694167 0 657.0 0.7503003226694167 1
gene  1 1 237 3.291401502050646 0 1029.0 3.291401502050646 1
gene  1 237 7 1.5544168350237675 0 1030.0 1.5544168350237675 1
gene  2 237 64 -1.8706829252549828 0 1051.0 -1.8706829252549828 1
gene  3 114 64 -6.176928875634993 0 1120.0 -6.176928875634993 1
gene  1 3 44 8.21517455609779 0 1181.0 8.21517455609779 1
genomeend 70
/* Organism # 071 Fitness:  9.000 Error:  1.000                      */
genomestart  71
trait 1 0.08750000000000001 0.11197210561720429 0.0 0.0 0.0 0.0 0.0 0.0 
trait 2 0.2 0.0 0.0 0.0 0.0 0.0 0.0 0.0 
trait 3 0.42866775686272524 0.0 1.1070596384679887 0.0 0.43219372272579937 1.4000909286651555 0.796965795006854 0.0 
node 1 2 1 1
node 2 3 1 1
node 3 1 1 3
node 4 2 0 2
node 7 1 0 0
node 44 2 0 0
node 64 1 0 0
node 114 3 0 0
node 237 1 0 0
gene  1 1 4 1.6036709419477087 0 1.0 1.6036709419477087 0
gene  2 2 4 5.206363091095476 0 2.0 5.206363091095476 0
gene  3 3 4 0.20466782519980042 0 3.0 0.20466782519980042 1
gene  1 1 7 -3.195259487542338 0 8.0 -3.195259487542338 0
gene  1 7 4 -0.7184326408737816 0 9.0 -0.7184326408737816 1
gene  2 2 7 5.1465796671036745 0 12.0 5.1465796671036745 1
gene  1 1 44 -6.018590548738179 0 160.0 -6.018590548738179 1
gene  1 44 4 -13.141478204870394 0 161.0 -13.141478204870394 1
gene  1 2 44 -2.177827832789525 0 183.0 -2.177827832789525 1
gene  2 2 64 0.7969460166330371 0 268.0 0.7969460166330371 1
gene  2 64 4 -3.9279475163471096 0 269.0 -3.9279475163471096 1
gene  2 7 64 6.385528425524015 0 345.0 6.385528425524015 1
gene  1 1 114 7.3084630847389285 0 506.0 7.3084630847389285 1
gene  1 114 4 8.450128847155248 0 507.0 8.450128847155248 1
gene  1 2 114 9.638742403181375 0 541.0 9.638742403181375 1
gene  1 44 114 -2.606980384075674 0 624.0 -2.606980384075674 1
gene  2 3 7 -0.29352820064202945 0 657.0 -0.29352820064202945 1
gene  1 1 237 3.291401502050646 0 1029.0 3.291401502050646 1
gene  1 237 7 1.5544168350237675 0 1030.0 1.5544168350237675 1
gene  2 237 64 -0.8593557693762832 0 1051.0 -0.8593557693762832 1
gene  3 114 64 -5.829085743818951 0 1120.0 -5.829085743818951 1
genomeend 71
/* Organism # 072 Fitness:  9.000 Error:  1.000                      */
genomestart  72
trait 1 0.0 0.0 0.0 0.0 0.0 0.0 0.0 0.0 
trait 2 0.2 0.0 0.0 0.0 0.0 0.0 0.0 0.0 
trait 3 0.42866775686272524 0.0 1.1070596384679887 0.0 0.43219372272579937 1.4000909286651555 0.796965795006854 0.0 
node 1 2 1 1
node 2 3 1 1
node 3 1 1 3
node 4 2 0 2
node 7 1 0 0
node 44 2 0 0
node 64 1 0 0
node 114 3 0 0
node 237 1 0 0
gene  1 1 4 1.4651094857133746 0 1.0 1.4651094857133746 0
gene  2 2 4 6.057787716637363 0 2.0 6.057787716637363 0
gene  3 3 4 0.6374960958113932 0 3.0 0.6374960958113932 1
gene  1 1 7 -4.5531536364796 0 8.0 -4.5531536364796 0
gene  1 7 4 -3.1241156217954127 0 9.0 -3.1241156217954127 1
gene  2 2 7 0.6133248586634064 0 12.0 0.6133248586634064 1
gene  1 1 44 -7.3179486085311 0 160.0 -7.3179486085311 1
gene  1 44 4 -9.496191868407132 0 161.0 -9.496191868407132 1
