/* Species # 001         : (size= 011) (AvfFit= 8.566) (Age= 21.000)  */
/*-------------------------------------------------------------------*/
/* Organism # 000 Fitness:  9.000 Error:  1.000                      */
genomestart  0
trait 1 0.1 0.0 0.0 0.0 0.0 0.0 0.0 0.0 
trait 2 0.2 0.003728004045912685 0.0 0.003022543795266892 0.0 0.0 0.0 0.018287650624253006 
trait 3 0.32857881503040876 0.029560874921084345 0.0 0.017634579082561323 0.0 0.0 0.0 0.03249990398236236 
node 1 1 1 1
node 2 1 1 1
node 3 1 1 3
node 4 1 0 2
gene  1 1 4 12.71903436066283 0 1.0 12.71903436066283 1
gene  2 2 4 -15.625240082044513 0 2.0 -15.625240082044513 1
gene  3 3 4 -6.1255537405357625 0 3.0 -6.1255537405357625 1
genomeend 0
/* Organism # 001 Fitness:  9.000 Error:  1.000                      */
genomestart  1
trait 1 0.1 0.0 0.0 0.0 0.0 0.0 0.0 0.0 
trait 2 0.2 0.0018640020229563426 0.0 0.001511271897633446 0.0 0.0 0.0 0.009143825312126503 
trait 3 0.33068522171591697 0.03173966450690132 0.0 0.018934338895419428 0.0 0.0 0.0 0.034895315232058396 
node 1 1 1 1
node 2 1 1 1
node 3 1 1 3
node 4 1 0 2
gene  1 1 4 12.933963674913155 0 1.0 12.933963674913155 1
gene  2 2 4 -14.965733654344897 0 2.0 -14.965733654344897 1
gene  3 3 4 -5.889846209908079 0 3.0 -5.889846209908079 1
genomeend 1
/* Organism # 002 Fitness:  9.000 Error:  1.000                      */
genomestart  2
trait 1 0.1 0.0 0.0 0.0 0.0 0.0 0.0 0.0 
trait 2 0.2 0.002796003034434514 0.0 0.002266907846450169 0.0 0.0 0.0 0.013715737968189754 
trait 3 0.32963201837316286 0.03065026971399283 0.0 0.018284458988990376 0.0 0.0 0.0 0.03369760960721038 
node 1 1 1 1
node 2 1 1 1
node 3 1 1 3
node 4 1 0 2
gene  1 1 4 12.71903436066283 0 1.0 12.71903436066283 1
gene  2 2 4 -14.965733654344897 0 2.0 -14.965733654344897 1
gene  3 3 4 -5.889846209908079 0 3.0 -5.889846209908079 1
genomeend 2
/* Organism # 003 Fitness:  9.000 Error:  1.000                      */
genomestart  3
trait 1 0.1 0.0 0.0 0.0 0.0 0.0 0.0 0.0 
trait 2 0.2 0.003728004045912685 0.0 0.003022543795266892 0.0 0.0 0.0 0.018287650624253006 
trait 3 0.32857881503040876 0.029560874921084345 0.0 0.017634579082561323 0.0 0.0 0.0 0.03249990398236236 
node 1 1 1 1
node 2 1 1 1
node 3 1 1 3
node 4 1 0 2
gene  1 1 4 11.766262012544816 0 1.0 11.766262012544816 1
gene  2 2 4 -17.783221062366202 0 2.0 -17.783221062366202 1
gene  3 3 4 -3.6772763217948827 0 3.0 -3.6772763217948827 1
genomeend 3
/* Organism # 004 Fitness:  9.000 Error:  1.000                      */
genomestart  4
trait 1 0.1 0.0 0.0 0.0 0.0 0.0 0.0 0.0 
trait 2 0.2 0.002796003034434514 0.0 0.002266907846450169 0.0 0.0 0.0 0.013715737968189754 
trait 3 0.32963201837316286 0.03065026971399283 0.0 0.018284458988990376 0.0 0.0 0.0 0.03369760960721038 
node 1 1 1 1
node 2 1 1 1
node 3 1 1 3
node 4 1 0 2
gene  1 1 4 12.584019224115506 0 1.0 12.584019224115506 1
gene  2 2 4 -13.299147448512208 0 2.0 -13.299147448512208 1
gene  3 3 4 -7.655354358663352 0 3.0 -7.655354358663352 1
genomeend 4
/* Organism # 005 Fitness:  9.000 Error:  1.000                      */
genomestart  5
trait 1 0.1 0.0 0.0 0.0 0.0 0.0 0.0 0.0 
trait 2 0.2 9.320010114781713E-4 0.0 7.55635948816723E-4 0.0 0.0 0.0 0.0045719126560632515 
trait 3 0.3317384250586711 0.03282905929980981 0.0 0.01958421880184848 0.0 0.0 0.0 0.03609302085690641 
node 1 1 1 1
node 2 1 1 1
node 3 1 1 3
node 4 1 0 2
gene  1 1 4 12.933963674913155 0 1.0 12.933963674913155 1
gene  2 2 4 -13.552449681366712 0 2.0 -13.552449681366712 1
gene  3 3 4 -5.934283804459573 0 3.0 -5.934283804459573 1
genomeend 5
/* Organism # 006 Fitness:  4.223 Error:  1.945                      */
genomestart  6
trait 1 0.1 0.0 0.0 0.0 0.0 0.0 0.0 0.0 
trait 2 0.2 0.0018640020229563426 0.0 0.001511271897633446 0.0 0.0 0.0 0.009143825312126503 
trait 3 0.33068522171591697 0.03173966450690132 0.0 0.018934338895419428 0.0 0.0 0.0 0.034895315232058396 
node 1 1 1 1
node 2 1 1 1
node 3 1 1 3
node 4 1 0 2
node 45 1 0 0
gene  1 1 4 12.933963674913155 0 1.0 12.933963674913155 0
gene  2 2 4 -14.965733654344897 0 2.0 -14.965733654344897 1
gene  3 3 4 -5.889846209908079 0 3.0 -5.889846209908079 1
gene  1 1 45 1.0 0 170.0 0.0 1
gene  1 45 4 12.933963674913155 0 171.0 0.0 1
genomeend 6
/* Organism # 007 Fitness:  9.000 Error:  1.000                      */
genomestart  7
trait 1 0.1 0.0 0.0 0.0 0.0 0.0 0.0 0.0 
trait 2 0.2 0.0018640020229563426 0.0 0.001511271897633446 0.0 0.0 0.0 0.009143825312126503 
trait 3 0.33068522171591697 0.03173966450690132 0.0 0.018934338895419428 0.0 0.0 0.0 0.034895315232058396 
node 1 1 1 1
node 2 1 1 1
node 3 1 1 3
node 4 1 0 2
gene  1 1 4 12.74573776061337 0 1.0 12.74573776061337 1
gene  2 2 4 -14.575731619105351 0 2.0 -14.575731619105351 1
gene  3 3 4 -4.986805152923059 0 3.0 -4.986805152923059 1
genomeend 7
/* Organism # 008 Fitness:  9.000 Error:  1.000                      */
genomestart  8
trait 1 0.1 0.0 0.0 0.0 0.0 0.0 0.0 0.0 
trait 2 0.2 9.320010114781713E-4 0.0 7.55635948816723E-4 0.0 0.0 0.0 0.0045719126560632515 
trait 3 0.3317384250586711 0.03282905929980981 0.0 0.01958421880184848 0.0 0.0 0.0 0.03609302085690641 
node 1 1 1 1
node 2 1 1 1
node 3 1 1 3
node 4 1 0 2
gene  1 1 4 14.284236214485455 0 1.0 14.284236214485455 1
gene  2 2 4 -13.940358361821419 0 2.0 -13.940358361821419 1
gene  3 3 4 -7.09871191028872 0 3.0 -7.09871191028872 1
genomeend 8
/* Organism # 009 Fitness:  9.000 Error:  1.000                      */
genomestart  9
trait 1 0.1 0.0 0.0 0.0 0.0 0.0 0.0 0.0 
trait 2 0.2 0.0018640020229563426 0.0 0.001511271897633446 0.0 0.0 0.0 0.009143825312126503 
trait 3 0.33068522171591697 0.03173966450690132 0.0 0.018934338895419428 0.0 0.0 0.0 0.034895315232058396 
node 1 1 1 1
node 2 1 1 1
node 3 1 1 3
node 4 1 0 2
gene  1 1 4 15.295605553237879 0 1.0 15.295605553237879 1
gene  2 2 4 -12.819690269588756 0 2.0 -12.819690269588756 1
gene  3 3 4 -5.882570043475609 0 3.0 -5.882570043475609 1
genomeend 9
/* Organism # 010 Fitness:  9.000 Error:  1.000                      */
genomestart  10
trait 1 0.1 0.0 0.0 0.0 0.0 0.0 0.0 0.0 
trait 2 0.2 0.0018640020229563426 0.0 0.001511271897633446 0.0 0.0 0.0 0.009143825312126503 
trait 3 0.33068522171591697 0.03173966450690132 0.0 0.018934338895419428 0.0 0.0 0.0 0.034895315232058396 
node 1 1 1 1
node 2 1 1 1
node 3 1 1 3
node 4 1 0 2
gene  1 1 4 14.121399311680735 0 1.0 14.121399311680735 1
gene  2 2 4 -14.178854395124993 0 2.0 -14.178854395124993 1
gene  3 3 4 -5.843027780431281 0 3.0 -5.843027780431281 1
genomeend 10
/*-------------------------------------------------------------------*/
/* Species # 002         : (size= 008) (AvfFit= 6.960) (Age= 18.000)  */
/*-------------------------------------------------------------------*/
/* Organism # 011 Fitness:  11.193 Error:  0.654                      */
/*  $  This organism is WINNER with genome_id  011 Species # 002 $   */
genomestart  11
trait 1 0.08750000000000001 0.11197210561720429 0.0 0.020591699704072847 0.0 0.0 0.0 0.0 
trait 2 0.2 0.0 0.0 0.0 0.0 0.0 0.0 0.0 
trait 3 0.3 0.0 0.5648645619926869 0.0 0.0 0.7365003235522505 0.0 0.5546307328465123 
node 1 2 1 1
node 2 2 1 1
node 3 1 1 3
node 4 1 0 2
node 7 1 0 0
gene  1 1 4 -0.4262033991337788 0 1.0 -0.4262033991337788 1
gene  2 2 4 -0.9675809677319924 0 2.0 -0.9675809677319924 1
gene  3 3 4 -3.5324486222223603 0 3.0 -3.5324486222223603 1
gene  1 1 7 0.7829348774893747 0 8.0 0.7829348774893747 1
gene  1 7 4 4.7440336349415855 0 9.0 4.7440336349415855 1
gene  2 2 7 0.777342602259296 0 12.0 0.777342602259296 1
genomeend 11
/* Organism # 012 Fitness:  4.062 Error:  1.985                      */
genomestart  12
trait 1 0.08750000000000001 0.11197210561720429 0.0 0.020591699704072847 0.0 0.0 0.0 0.0 
trait 2 0.2 0.0 0.0 0.0 0.0 0.0 0.0 0.0 
trait 3 0.3 0.0 0.5648645619926869 0.0 0.0 0.7365003235522505 0.0 0.5546307328465123 
node 1 2 1 1
node 2 2 1 1
node 3 1 1 3
node 4 1 0 2
node 7 1 0 0
gene  1 1 4 1.105365054938929 0 1.0 1.105365054938929 1
gene  3 2 4 1.3670627232598895 0 2.0 1.3670627232598895 1
gene  3 3 4 -1.7163693137048397 0 3.0 -1.7163693137048397 1
gene  1 1 7 0.5385754001711097 0 8.0 0.5385754001711097 1
gene  1 7 4 5.000338713935066 0 9.0 5.000338713935066 1
gene  2 2 7 -0.18809138842138662 0 12.0 -0.18809138842138662 1
genomeend 12
/* Organism # 013 Fitness:  9.551 Error:  0.909                      */
genomestart  13
trait 1 0.08750000000000001 0.11197210561720429 0.0 0.020591699704072847 0.0 0.0 0.0 0.0 
trait 2 0.2 0.0 0.0 0.0 0.0 0.0 0.0 0.0 
trait 3 0.3 0.0 0.5648645619926869 0.0 0.0 0.7365003235522505 0.0 0.5546307328465123 
node 1 2 1 1
node 2 2 1 1
node 3 1 1 3
node 4 1 0 2
node 7 1 0 0
node 44 1 0 0
gene  1 1 4 -0.4262033991337788 0 1.0 -0.4262033991337788 0
gene  2 2 4 -0.9675809677319924 0 2.0 -0.9675809677319924 1
gene  3 3 4 -3.5324486222223603 0 3.0 -3.5324486222223603 1
gene  1 1 7 0.7829348774893747 0 8.0 0.7829348774893747 1
gene  1 7 4 4.7440336349415855 0 9.0 4.7440336349415855 1
gene  2 2 7 0.777342602259296 0 12.0 0.777342602259296 1
gene  1 1 44 1.0 0 160.0 0.0 1
gene  1 44 4 -0.4262033991337788 0 161.0 0.0 1
genomeend 13
/* Organism # 014 Fitness:  2.792 Error:  2.329                      */
genomestart  14
trait 1 0.08750000000000001 0.11197210561720429 0.0 0.020591699704072847 0.0 0.0 0.0 0.0 
trait 2 0.2 0.0 0.0 0.0 0.0 0.0 0.0 0.0 
trait 3 0.3 0.0 0.5648645619926869 0.0 0.0 0.7365003235522505 0.0 0.5546307328465123 
node 1 2 1 1
node 2 2 1 1
node 3 1 1 3
node 4 1 0 2
node 7 1 0 0
gene  1 1 4 -1.6063450542333193 0 1.0 -1.6063450542333193 1
gene  3 2 4 0.3219944978498046 0 2.0 0.3219944978498046 1
gene  3 3 4 -1.9577248794864628 0 3.0 -1.9577248794864628 1
gene  1 1 7 -1.42460394621971 0 8.0 -1.42460394621971 1
gene  1 7 4 7.295135737141553 0 9.0 7.295135737141553 1
gene  2 2 7 -0.2296275754613314 0 12.0 -0.2296275754613314 1
genomeend 14
/* Organism # 015 Fitness:  8.046 Error:  1.163                      */
genomestart  15
trait 1 0.08750000000000001 0.11197210561720429 0.0 0.020591699704072847 0.0 0.0 0.0 0.0 
trait 2 0.2 0.0 0.0 0.0 0.0 0.0 0.0 0.0 
trait 3 0.3 0.0 0.5648645619926869 0.0 0.0 0.7365003235522505 0.0 0.5546307328465123 
node 1 2 1 1
node 2 2 1 1
node 3 1 1 3
node 4 1 0 2
node 7 1 0 0
gene  1 1 4 1.1970488162134805 0 1.0 1.1970488162134805 1
gene  2 2 4 0.16377344289579487 0 2.0 0.16377344289579487 1
gene  3 3 4 -2.1911143643254447 0 3.0 -2.1911143643254447 1
gene  1 1 7 0.19765585595452007 0 8.0 0.19765585595452007 1
gene  1 7 4 3.7170772880240226 0 9.0 3.7170772880240226 1
gene  2 2 7 0.777342602259296 0 12.0 0.777342602259296 1
genomeend 15
/* Organism # 016 Fitness:  7.594 Error:  1.244                      */
genomestart  16
trait 1 0.08750000000000001 0.11197210561720429 0.0 0.020591699704072847 0.0 0.0 0.0 0.0 
trait 2 0.2 0.0 0.0 0.0 0.0 0.0 0.0 0.0 
trait 3 1.1391720787242923 0.8881888117363289 0.5648645619926869 0.0 0.0 0.874800488921819 0.17285030780895583 0.5546307328465123 
node 1 2 1 1
node 2 2 1 1
node 3 1 1 3
node 4 1 0 2
node 7 1 0 0
node 44 1 0 0
gene  1 1 4 -1.923135113156641 0 1.0 -1.923135113156641 1
gene  2 2 4 0.510616311883205 0 2.0 0.510616311883205 1
gene  3 3 4 -4.620830554864286 0 3.0 -4.620830554864286 1
gene  1 1 7 3.0539258015908395 0 8.0 3.0539258015908395 1
gene  1 7 4 6.717847452393622 0 9.0 6.717847452393622 1
gene  2 2 7 1.7555115371879906 0 12.0 1.7555115371879906 1
gene  1 1 44 -0.5798517589722594 0 160.0 -0.5798517589722594 1
gene  1 44 4 1.0936167798821927 0 161.0 1.0936167798821927 1
genomeend 16
/* Organism # 017 Fitness:  4.064 Error:  1.984                      */
genomestart  17
trait 1 0.08750000000000001 0.11197210561720429 0.0 0.020591699704072847 0.0 0.0 0.0 0.0 
trait 2 0.2 0.0 0.0 0.0 0.0 0.0 0.0 0.0 
trait 3 0.3 0.0 0.5648645619926869 0.0 0.0 0.7365003235522505 0.0 0.5546307328465123 
node 1 2 1 1
node 2 2 1 1
node 3 1 1 3
node 4 1 0 2
node 7 1 0 0
gene  1 1 4 -0.05369686968534626 0 1.0 -0.05369686968534626 1
gene  2 2 4 0.4557398646757369 0 2.0 0.4557398646757369 1
gene  3 3 4 -4.926208641741466 0 3.0 -4.926208641741466 1
gene  1 1 7 0.12616408239858445 0 8.0 0.12616408239858445 1
gene  1 7 4 6.3719573880964955 0 9.0 6.3719573880964955 1
gene  2 2 7 0.777342602259296 0 12.0 0.777342602259296 1
genomeend 17
/* Organism # 018 Fitness:  8.380 Error:  1.105                      */
genomestart  18
trait 1 0.08750000000000001 0.11197210561720429 0.0 0.020591699704072847 0.0 0.0 0.0 0.0 
trait 2 0.2 0.0 0.0 0.0 0.0 0.0 0.0 0.0 
trait 3 0.3 0.0 0.5648645619926869 0.0 0.0 0.7365003235522505 0.0 0.5546307328465123 
node 1 2 1 1
node 2 2 1 1
node 3 1 1 3
node 4 1 0 2
node 7 1 0 0
gene  1 1 4 -0.4262033991337788 0 1.0 -0.4262033991337788 0
gene  2 2 4 -0.9675809677319924 0 2.0 -0.9675809677319924 1
gene  3 3 4 -3.5324486222223603 0 3.0 -3.5324486222223603 1
gene  1 1 7 0.7829348774893747 0 8.0 0.7829348774893747 1
gene  1 7 4 4.7440336349415855 0 9.0 4.7440336349415855 1
gene  2 2 7 0.777342602259296 0 12.0 0.777342602259296 1
genomeend 18
/*-------------------------------------------------------------------*/
/* Species # 003         : (size= 013) (AvfFit= 8.999) (Age= 17.000)  */
/*-------------------------------------------------------------------*/
/* Organism # 019 Fitness:  9.000 Error:  1.000                      */
genomestart  19
trait 1 0.059765625 0.0 0.2447144282528913 0.36770204626662106 0.0 0.0 0.0 0.0 
trait 2 0.2283819314751614 0.3379816281392346 0.0 0.0 0.04195801977960614 0.0 0.0 0.28602699072950205 
trait 3 0.36074421441722343 0.06283158075855975 0.0 0.0374822627113405 0.0 0.0 0.0 0.0690784811736666 
node 1 1 1 1
node 2 1 1 1
node 3 3 1 3
node 4 1 0 2
node 9 1 0 0
gene  3 1 4 -12.18338991683779 0 1.0 -12.18338991683779 1
gene  1 2 4 11.49002616862484 0 2.0 11.49002616862484 1
gene  3 3 4 -6.250175688264784 0 3.0 -6.250175688264784 1
gene  2 2 9 2.114687964531875 0 13.0 2.114687964531875 1
gene  2 9 4 3.6183915277223546 0 14.0 3.6183915277223546 1
gene  1 1 9 -4.206017181937392 0 41.0 -4.206017181937392 1
gene  3 3 9 -5.545426248515542 0 137.0 -5.545426248515542 1
genomeend 19
/* Organism # 020 Fitness:  9.000 Error:  1.000                      */
genomestart  20
trait 1 0.059765625 0.0 0.2447144282528913 0.36770204626662106 0.0 0.0 0.0 0.0 
trait 2 0.2283819314751614 0.3379816281392346 0.0 0.0 0.04195801977960614 0.0 0.0 0.28602699072950205 
trait 3 0.36074421441722343 0.06283158075855975 0.0 0.0374822627113405 0.0 0.0 0.0 0.0690784811736666 
node 1 1 1 1
node 2 1 1 1
node 3 1 1 3
node 4 1 0 2
node 9 1 0 0
gene  3 1 4 -11.146721912508685 0 1.0 -11.146721912508685 1
gene  1 2 4 11.233961462784517 0 2.0 11.233961462784517 1
gene  3 3 4 -6.137872020128464 0 3.0 -6.137872020128464 1
gene  2 2 9 0.7138997642601144 0 13.0 0.7138997642601144 1
gene  2 9 4 2.165908157795205 0 14.0 2.165908157795205 1
gene  1 1 9 -3.975261092196133 0 41.0 -3.975261092196133 1
gene  3 3 9 -5.959634834872924 0 137.0 -5.959634834872924 1
genomeend 20
/* Organism # 021 Fitness:  9.000 Error:  1.000                      */
genomestart  21
trait 1 0.059765625 0.0 0.2447144282528913 0.36770204626662106 0.0 0.0 0.0 0.0 
trait 2 0.2283819314751614 0.3379816281392346 0.0 0.0 0.04195801977960614 0.0 0.0 0.28602699072950205 
trait 3 0.36074421441722343 0.06283158075855975 0.0 0.0374822627113405 0.0 0.0 0.0 0.0690784811736666 
node 1 1 1 1
node 2 1 1 1
node 3 1 1 3
node 4 1 0 2
node 9 1 0 0
gene  3 1 4 -9.498848002703332 0 1.0 -9.498848002703332 1
gene  1 2 4 9.453978464637078 0 2.0 9.453978464637078 1
gene  3 3 4 -6.345614235684174 0 3.0 -6.345614235684174 1
gene  2 2 9 -2.584012262026283 0 13.0 -2.584012262026283 1
gene  2 9 4 2.0392365973882502 0 14.0 2.0392365973882502 1
gene  1 1 9 -1.4088961906313033 0 41.0 -1.4088961906313033 1
gene  3 3 9 -4.845434615918274 0 137.0 -4.845434615918274 1
genomeend 21
/* Organism # 022 Fitness:  9.000 Error:  1.000                      */
genomestart  22
trait 1 0.059765625 0.0 0.2447144282528913 0.36770204626662106 0.0 0.0 0.0 0.0 
trait 2 0.2283819314751614 0.3379816281392346 0.0 0.0 0.04195801977960614 0.0 0.0 0.28602699072950205 
trait 3 0.36074421441722343 0.06283158075855975 0.0 0.0374822627113405 0.0 0.0 0.0 0.0690784811736666 
node 1 1 1 1
node 2 1 1 1
node 3 1 1 3
node 4 1 0 2
node 9 1 0 0
gene  3 1 4 -10.358049714039419 0 1.0 -10.358049714039419 1
gene  1 2 4 8.974531713250594 0 2.0 8.974531713250594 1
gene  3 3 4 -4.50042606416952 0 3.0 -4.50042606416952 1
gene  2 2 9 -1.00282904191558 0 13.0 -1.00282904191558 1
gene  2 9 4 3.389817212790949 0 14.0 3.389817212790949 1
gene  1 1 9 -5.243146639355766 0 41.0 -5.243146639355766 1
gene  3 3 9 -5.444056673067886 0 137.0 -5.444056673067886 1
genomeend 22
/* Organism # 023 Fitness:  9.000 Error:  1.000                      */
genomestart  23
trait 1 0.059765625 0.0 0.2447144282528913 0.36770204626662106 0.0 0.0 0.0 0.0 
trait 2 0.2283819314751614 0.3379816281392346 0.0 0.0 0.04195801977960614 0.0 0.0 0.28602699072950205 
trait 3 0.36074421441722343 0.06283158075855975 0.0 0.0374822627113405 0.0 0.0 0.0 0.0690784811736666 
node 1 1 1 1
node 2 1 1 1
node 3 1 1 3
node 4 1 0 2
node 9 1 0 0
gene  1 1 4 -11.293591268652102 0 1.0 -11.293591268652102 1
gene  1 2 4 9.566020747064483 0 2.0 9.566020747064483 1
gene  3 3 4 -6.817248044642495 0 3.0 -6.817248044642495 1
gene  2 2 9 -2.8594605212114477 0 13.0 -2.8594605212114477 1
gene  2 9 4 2.586790371720456 0 14.0 2.586790371720456 1
gene  1 1 9 -1.9448396750678831 0 41.0 -1.9448396750678831 1
gene  3 3 9 -2.7189650393146385 0 137.0 -2.7189650393146385 1
genomeend 23
/* Organism # 024 Fitness:  9.000 Error:  1.000                      */
genomestart  24
trait 1 0.059765625 0.0 0.2447144282528913 0.36770204626662106 0.0 0.0 0.0 0.0 
trait 2 0.2283819314751614 0.3379816281392346 0.0 0.0 0.04195801977960614 0.0 0.0 0.28602699072950205 
trait 3 0.0 0.0 0.0 0.0 0.0 0.0 0.9953177563664485 0.0690784811736666 
node 1 1 1 1
node 2 1 1 1
node 3 1 1 3
node 4 1 0 2
node 9 1 0 0
gene  3 1 4 -13.278271698530334 0 1.0 -13.278271698530334 1
gene  1 2 4 8.500627891263266 0 2.0 8.500627891263266 1
gene  3 3 4 -3.6077377219679545 0 3.0 -3.6077377219679545 1
gene  2 2 9 -1.8613832229570033 0 13.0 -1.8613832229570033 1
gene  2 9 4 1.0165258030950826 0 14.0 1.0165258030950826 1
gene  1 1 9 -1.071835707935465 0 41.0 -1.071835707935465 1
gene  3 3 9 -6.405812563296098 0 137.0 -6.405812563296098 1
genomeend 24
/* Organism # 025 Fitness:  8.989 Error:  1.002                      */
genomestart  25
trait 1 0.059765625 0.0 0.2447144282528913 0.36770204626662106 0.0 0.0 0.0 0.0 
trait 2 0.2283819314751614 0.3379816281392346 0.0 0.0 0.04195801977960614 0.0 0.0 0.28602699072950205 
trait 3 0.36074421441722343 0.06283158075855975 0.0 0.0374822627113405 0.0 0.0 0.0 0.0690784811736666 
node 1 1 1 1
node 2 1 1 1
node 3 1 1 3
node 4 1 0 2
node 9 1 0 0
gene  3 1 4 -11.944102937851941 0 1.0 -11.944102937851941 1
gene  1 2 4 9.631695926866623 0 2.0 9.631695926866623 1
gene  3 3 4 -8.360445286728881 0 3.0 -8.360445286728881 1
gene  2 2 9 -0.6868884360116461 0 13.0 -0.6868884360116461 1
gene  2 9 4 0.8073585133553947 0 14.0 0.8073585133553947 1
gene  1 1 9 -3.020109937305428 0 41.0 -3.020109937305428 1
gene  3 3 9 -5.1274857088402195 0 137.0 -5.1274857088402195 1
genomeend 25
/* Organism # 026 Fitness:  9.000 Error:  1.000                      */
genomestart  26
trait 1 0.059765625 0.0 0.2447144282528913 0.36770204626662106 0.0 0.0 0.0 0.0 
trait 2 0.2283819314751614 0.3379816281392346 0.0 0.0 0.04195801977960614 0.0 0.0 0.28602699072950205 
trait 3 0.36074421441722343 0.06283158075855975 0.0 0.0374822627113405 0.0 0.0 0.0 0.0690784811736666 
node 1 1 1 1
node 2 1 1 1
node 3 1 1 3
node 4 1 0 2
node 9 1 0 0
gene  3 1 4 -11.146721912508685 0 1.0 -11.146721912508685 1
gene  1 2 4 10.977896756944192 0 2.0 10.977896756944192 1
gene  3 3 4 -6.025568351992144 0 3.0 -6.025568351992144 1
gene  2 2 9 -0.6868884360116461 0 13.0 -0.6868884360116461 1
gene  2 9 4 1.9930312038148608 0 14.0 1.9930312038148608 1
gene  1 1 9 -1.1301777005430766 0 41.0 -1.1301777005430766 1
gene  3 3 9 -3.093406661701117 0 137.0 -3.093406661701117 1
genomeend 26
/* Organism # 027 Fitness:  9.000 Error:  1.000                      */
genomestart  27
trait 1 0.059765625 0.0 0.2447144282528913 0.36770204626662106 0.0 0.0 0.0 0.0 
trait 2 0.2283819314751614 0.3379816281392346 0.0 0.0 0.04195801977960614 0.0 0.0 0.28602699072950205 
trait 3 0.36074421441722343 0.06283158075855975 0.0 0.0374822627113405 0.0 0.0 0.0 0.0690784811736666 
node 1 1 1 1
node 2 1 1 1
node 3 1 1 3
node 4 1 0 2
node 9 1 0 0
gene  3 1 4 -9.964028174206765 0 1.0 -9.964028174206765 1
gene  1 2 4 11.279717829893974 0 2.0 11.279717829893974 1
gene  3 3 4 -7.587128462865268 0 3.0 -7.587128462865268 1
gene  2 2 9 -2.130136551321951 0 13.0 -2.130136551321951 1
gene  2 9 4 1.120057703016864 0 14.0 1.120057703016864 1
gene  1 1 9 -5.478235506842362 0 41.0 -5.478235506842362 1
gene  3 3 9 -7.689424147631831 0 137.0 -7.689424147631831 1
genomeend 27
/* Organism # 028 Fitness:  9.000 Error:  1.000                      */
genomestart  28
trait 1 0.059765625 0.0 0.2447144282528913 0.36770204626662106 0.0 0.0 0.0 0.0 
trait 2 0.2283819314751614 0.3379816281392346 0.0 0.0 0.04195801977960614 0.0 0.0 0.28602699072950205 
trait 3 0.36074421441722343 0.06283158075855975 0.0 0.0374822627113405 0.0 0.0 0.0 0.0690784811736666 
node 1 1 1 1
node 2 1 1 1
node 3 1 1 3
node 4 1 0 2
node 9 1 0 0
gene  3 1 4 -10.11005390817958 0 1.0 -10.11005390817958 1
gene  1 2 4 10.977896756944192 0 2.0 10.977896756944192 1
gene  3 3 4 -6.025568351992144 0 3.0 -6.025568351992144 1
gene  2 2 9 -0.6868884360116461 0 13.0 -0.6868884360116461 1
gene  2 9 4 1.9930312038148608 0 14.0 1.9930312038148608 1
gene  1 1 9 -1.1301777005430766 0 41.0 -1.1301777005430766 1
gene  3 3 9 -3.093406661701117 0 137.0 -3.093406661701117 1
genomeend 28
/* Organism # 029 Fitness:  9.000 Error:  1.000                      */
genomestart  29
trait 1 0.059765625 0.0 0.2447144282528913 0.36770204626662106 0.0 0.0 0.0 0.0 
trait 2 0.2283819314751614 0.3379816281392346 0.0 0.0 0.04195801977960614 0.0 0.0 0.28602699072950205 
trait 3 0.36074421441722343 0.06283158075855975 0.0 0.0374822627113405 0.0 0.0 0.0 0.0690784811736666 
node 1 1 1 1
node 2 1 1 1
node 3 3 1 3
node 4 1 0 2
node 9 1 0 0
gene  3 1 4 -10.11005390817958 0 1.0 -10.11005390817958 1
gene  1 2 4 11.233961462784517 0 2.0 11.233961462784517 1
gene  3 3 4 -6.250175688264784 0 3.0 -6.250175688264784 1
gene  2 2 9 2.114687964531875 0 13.0 2.114687964531875 1
gene  2 9 4 3.6183915277223546 0 14.0 3.6183915277223546 1
gene  1 1 9 -4.206017181937392 0 41.0 -4.206017181937392 1
gene  3 3 9 -5.545426248515542 0 137.0 -5.545426248515542 1
genomeend 29
/* Organism # 030 Fitness:  9.000 Error:  1.000                      */
genomestart  30
trait 1 0.059765625 0.0 0.2447144282528913 0.36770204626662106 0.0 0.0 0.0 0.0 
trait 2 0.2283819314751614 0.3379816281392346 0.0 0.0 0.04195801977960614 0.0 0.0 0.28602699072950205 
trait 3 0.36074421441722343 0.06283158075855975 0.0 0.0374822627113405 0.0 0.0 0.0 0.0690784811736666 
node 1 1 1 1
node 2 1 1 1
node 3 1 1 3
node 4 1 0 2
node 9 1 0 0
gene  3 1 4 -10.11005390817958 0 1.0 -10.11005390817958 1
gene  1 2 4 10.977896756944192 0 2.0 10.977896756944192 1
gene  3 3 4 -6.025568351992144 0 3.0 -6.025568351992144 1
gene  2 2 9 -0.6868884360116461 0 13.0 -0.6868884360116461 1
gene  2 9 4 0.7134247878680554 0 14.0 0.7134247878680554 1
gene  1 1 9 -3.7445050024548734 0 41.0 -3.7445050024548734 1
gene  3 3 9 -6.373843421230306 0 137.0 -6.373843421230306 1
genomeend 30
/* Organism # 031 Fitness:  8.996 Error:  1.001                      */
genomestart  31
trait 1 0.059765625 0.0 0.2447144282528913 0.36770204626662106 0.0 0.0 0.0 0.0 
trait 2 0.2283819314751614 0.3379816281392346 0.0 0.0 0.04195801977960614 0.0 0.0 0.28602699072950205 
trait 3 0.36074421441722343 0.06283158075855975 0.0 0.0374822627113405 0.0 0.0 0.0 0.0690784811736666 
node 1 1 1 1
node 2 1 1 1
node 3 1 1 3
node 4 1 0 2
node 9 1 0 0
gene  3 1 4 -9.745068390409424 0 1.0 -9.745068390409424 1
gene  1 2 4 8.762555176102353 0 2.0 8.762555176102353 1
gene  3 3 4 -7.26452122675939 0 3.0 -7.26452122675939 1
gene  2 2 9 -1.6649910759258806 0 13.0 -1.6649910759258806 1
gene  2 9 4 0.8738265390687144 0 14.0 0.8738265390687144 1
gene  1 1 9 -5.606625568222491 0 41.0 -5.606625568222491 1
gene  3 3 9 -4.813890233892456 0 137.0 -4.813890233892456 1
genomeend 31
/*-------------------------------------------------------------------*/
/* Species # 004         : (size= 015) (AvfFit= 8.322) (Age= 16.000)  */
/*-------------------------------------------------------------------*/
/* Organism # 032 Fitness:  15.702 Error:  0.037                      */
/*  $  This organism is WINNER with genome_id  032 Species # 004 $   */
genomestart  32
trait 1 0.05690637560727929 0.0 0.0 0.6901981866966608 0.8022746289513055 0.04609093525261569 9.468887663110683E-4 0.0 
trait 2 0.2 0.0 0.0 0.0 0.0 0.0 0.0 0.0 
trait 3 0.3459898992173307 0.0 0.0 0.0 0.0 0.09782773495057207 0.08357976993086841 0.07101291069219386 
node 1 1 1 1
node 2 1 1 1
node 3 1 1 3
node 4 1 0 2
node 12 1 0 0
gene  1 1 4 -2.103788642723866 0 1.0 -2.103788642723866 1
gene  2 2 4 -4.741132710619015 0 2.0 -4.741132710619015 1
gene  3 3 4 -7.162636220601226 0 3.0 -7.162636220601226 1
gene  1 1 12 1.0087209997043225 0 21.0 1.0087209997043225 1
gene  1 12 4 12.793038691020094 0 22.0 12.793038691020094 1
gene  3 2 12 9.769858835992137 0 36.0 9.769858835992137 1
genomeend 32
/* Organism # 033 Fitness:  4.000 Error:  2.000                      */
genomestart  33
trait 1 0.05690637560727929 0.0 0.0 0.6901981866966608 0.8022746289513055 0.04609093525261569 9.468887663110683E-4 0.0 
trait 2 0.2 0.4674259518654661 0.0 0.022859529244290244 0.0 0.8960993155593951 0.0 0.0 
trait 3 0.3459898992173307 0.0 0.0 0.0 0.0 0.09782773495057207 0.08357976993086841 0.07101291069219386 
node 1 1 1 1
node 2 1 1 1
node 3 2 1 3
node 4 1 0 2
node 12 1 0 0
gene  1 1 4 -5.395604398107694 0 1.0 -5.395604398107694 1
gene  2 2 4 -0.2293356056266299 0 2.0 -0.2293356056266299 1
gene  3 3 4 -5.91676123035555 0 3.0 -5.91676123035555 1
gene  1 1 12 -0.5251387362139106 0 21.0 -0.5251387362139106 1
gene  1 12 4 1.379025875396722 0 22.0 1.379025875396722 1
gene  3 2 12 10.617351767118974 0 36.0 10.617351767118974 1
genomeend 33
/* Organism # 034 Fitness:  13.424 Error:  0.336                      */
/*  $  This organism is WINNER with genome_id  034 Species # 004 $   */
genomestart  34
trait 1 0.05690637560727929 0.0 0.0 0.6901981866966608 0.8022746289513055 0.04609093525261569 9.468887663110683E-4 0.0 
trait 2 0.2 0.0 0.0 0.0 0.0 0.0 0.0 0.0 
trait 3 0.3459898992173307 0.0 0.0 0.0 0.0 0.09782773495057207 0.08357976993086841 0.07101291069219386 
node 1 1 1 1
node 2 1 1 1
node 3 1 1 3
node 4 1 0 2
node 12 1 0 0
gene  1 1 4 -5.351418422546103 0 1.0 -5.351418422546103 1
gene  2 2 4 -3.1134299181878893 0 2.0 -3.1134299181878893 1
gene  3 3 4 -7.453093924546184 0 3.0 -7.453093924546184 1
gene  1 1 12 1.0206367274432604 0 21.0 1.0206367274432604 1
gene  1 12 4 13.036876430768434 0 22.0 13.036876430768434 1
gene  3 2 12 10.253620121219924 0 36.0 10.253620121219924 1
genomeend 34
/* Organism # 035 Fitness:  15.702 Error:  0.037                      */
/*  $  This organism is WINNER with genome_id  035 Species # 004 $   */
genomestart  35
trait 1 0.05690637560727929 0.0 0.0 0.6901981866966608 0.8022746289513055 0.04609093525261569 9.468887663110683E-4 0.0 
trait 2 0.2 0.0 0.0 0.0 0.0 0.0 0.0 0.0 
trait 3 0.3459898992173307 0.0 0.0 0.0 0.0 0.09782773495057207 0.08357976993086841 0.07101291069219386 
node 1 1 1 1
node 2 1 1 1
node 3 1 1 3
node 4 1 0 2
node 12 1 0 0
gene  1 1 4 -2.103788642723866 0 1.0 -2.103788642723866 1
gene  2 2 4 -4.741132710619015 0 2.0 -4.741132710619015 1
gene  3 3 4 -7.162636220601226 0 3.0 -7.162636220601226 1
gene  1 1 12 1.0087209997043225 0 21.0 1.0087209997043225 1
gene  1 12 4 12.793038691020094 0 22.0 12.793038691020094 1
gene  3 2 12 9.769858835992137 0 36.0 9.769858835992137 1
genomeend 35
/* Organism # 036 Fitness:  8.805 Error:  1.033                      */
genomestart  36
trait 1 0.05690637560727929 0.0 0.0 0.6901981866966608 0.8022746289513055 0.04609093525261569 9.468887663110683E-4 0.0 
trait 2 0.2 0.0 0.0 0.0 0.0 0.0 0.0 0.0 
trait 3 0.3459898992173307 0.0 0.0 0.0 0.0 0.09782773495057207 0.08357976993086841 0.07101291069219386 
node 1 1 1 1
node 2 1 1 1
node 3 1 1 3
node 4 1 0 2
node 12 1 0 0
gene  1 1 4 -7.342019091973418 0 1.0 -7.342019091973418 1
gene  2 2 4 -3.976835776218566 0 2.0 -3.976835776218566 1
gene  3 3 4 -6.608997076043232 0 3.0 -6.608997076043232 1
gene  1 1 12 -0.8936790140693605 0 21.0 -0.8936790140693605 1
gene  1 12 4 11.809567391871978 0 22.0 11.809567391871978 1
gene  3 2 12 10.582302508554 0 36.0 10.582302508554 1
genomeend 36
/* Organism # 037 Fitness:  4.000 Error:  2.000                      */
genomestart  37
trait 1 0.05690637560727929 0.0 0.0 0.6901981866966608 0.8022746289513055 0.04609093525261569 9.468887663110683E-4 0.0 
trait 2 0.2 0.0 0.0 0.0 0.0 0.0 0.0 0.0 
trait 3 0.3459898992173307 0.0 0.0 0.0 0.0 0.09782773495057207 0.08357976993086841 0.07101291069219386 
node 1 1 1 1
node 2 1 1 1
node 3 1 1 3
node 4 1 0 2
node 12 1 0 0
gene  1 1 4 -5.351418422546103 0 1.0 -5.351418422546103 1
gene  2 2 4 -0.8391327837188132 0 2.0 -0.8391327837188132 1
gene  3 3 4 -0.9627518417012715 0 3.0 -0.9627518417012715 1
gene  1 1 12 2.628340380914135 0 21.0 2.628340380914135 1
gene  1 12 4 15.35684152309778 0 22.0 15.35684152309778 1
gene  3 2 12 8.494723687104743 0 36.0 8.494723687104743 1
genomeend 37
/* Organism # 038 Fitness:  2.613 Error:  2.384                      */
genomestart  38
trait 1 0.4208232539423341 0.0 0.0 0.6901981866966608 0.8022746289513055 0.9267693868949374 0.9294548499118281 0.0 
trait 2 0.2 0.0 0.0 0.0 0.0 0.0 0.0 0.0 
trait 3 0.3459898992173307 0.0 0.0 0.0 0.0 0.09782773495057207 0.08357976993086841 0.07101291069219386 
node 1 1 1 1
node 2 1 1 1
node 3 1 1 3
node 4 1 0 2
node 12 1 0 0
gene  1 1 4 -2.561635537046874 0 1.0 -2.561635537046874 1
gene  2 2 4 -4.741132710619015 0 2.0 -4.741132710619015 1
gene  3 3 4 -1.0868749262073494 0 3.0 -1.0868749262073494 1
gene  1 1 12 2.540524889892124 0 21.0 2.540524889892124 1
gene  1 12 4 1.9814896102937738 0 22.0 1.9814896102937738 1
gene  3 2 12 7.635245403890101 0 36.0 7.635245403890101 1
genomeend 38
/* Organism # 039 Fitness:  9.061 Error:  0.990                      */
genomestart  39
trait 1 0.05690637560727929 0.0 0.0 0.6901981866966608 0.8022746289513055 0.04609093525261569 9.468887663110683E-4 0.0 
trait 2 0.2 0.0 0.0 0.0 0.0 0.0 0.0 0.0 
trait 3 0.3459898992173307 0.0 0.0 0.0 0.0 0.09782773495057207 0.08357976993086841 0.07101291069219386 
node 1 1 1 1
node 2 1 1 1
node 3 1 1 3
node 4 1 0 2
node 12 1 0 0
gene  1 1 4 -1.908231188243255 0 1.0 -1.908231188243255 1
gene  2 2 4 -3.943820187741229 0 2.0 -3.943820187741229 1
gene  3 3 4 -8.518565433770767 0 3.0 -8.518565433770767 1
gene  1 1 12 2.7831316599973235 0 21.0 2.7831316599973235 1
gene  1 12 4 15.161387387215818 0 22.0 15.161387387215818 1
gene  3 2 12 10.668722341083773 0 36.0 10.668722341083773 1
genomeend 39
/* Organism # 040 Fitness:  4.000 Error:  2.000                      */
genomestart  40
trait 1 0.05690637560727929 0.0 0.0 0.6901981866966608 0.8022746289513055 0.04609093525261569 9.468887663110683E-4 0.0 
trait 2 0.2 0.0 0.0 0.0 0.0 0.0 0.0 0.0 
trait 3 0.3459898992173307 0.0 0.0 0.0 0.0 0.09782773495057207 0.08357976993086841 0.07101291069219386 
node 1 1 1 1
node 2 1 1 1
node 3 2 1 3
node 4 1 0 2
node 12 1 0 0
gene  1 1 4 -0.3565129166014941 0 1.0 -0.3565129166014941 1
gene  3 2 4 1.4202733545198534 0 2.0 1.4202733545198534 1
gene  3 3 4 -3.552664422110369 0 3.0 -3.552664422110369 1
gene  1 1 12 1.2892403094291927 0 21.0 1.2892403094291927 1
gene  1 12 4 11.144665542557114 0 22.0 11.144665542557114 1
gene  3 2 12 7.860894135511196 0 36.0 7.860894135511196 1
genomeend 40
/* Organism # 041 Fitness:  4.401 Error:  1.902                      */
genomestart  41
trait 1 0.05690637560727929 0.0 0.0 0.6901981866966608 0.8022746289513055 0.04609093525261569 9.468887663110683E-4 0.0 
trait 2 0.2 0.0 0.0 0.0 0.0 0.0 0.0 0.0 
trait 3 0.3459898992173307 0.0 0.0 0.0 0.0 0.09782773495057207 0.08357976993086841 0.07101291069219386 
node 1 1 1 1
node 2 1 1 1
node 3 1 1 3
node 4 1 0 2
node 12 1 0 0
gene  1 1 4 -2.9431526412384414 0 1.0 -2.9431526412384414 1
gene  3 2 4 -2.0215936667192542 0 2.0 -2.0215936667192542 1
gene  3 3 4 -8.775434592235985 0 3.0 -8.775434592235985 1
gene  1 1 12 0.7218414848459853 0 21.0 0.7218414848459853 1
gene  1 12 4 10.345479638285754 0 22.0 10.345479638285754 1
gene  3 2 12 7.641649187762642 0 36.0 7.641649187762642 1
genomeend 41
/* Organism # 042 Fitness:  13.424 Error:  0.336                      */
/*  $  This organism is WINNER with genome_id  042 Species # 004 $   */
genomestart  42
trait 1 0.05690637560727929 0.0 0.0 0.6901981866966608 0.8022746289513055 0.04609093525261569 9.468887663110683E-4 0.0 
trait 2 0.2 0.0 0.0 0.0 0.0 0.0 0.0 0.0 
trait 3 0.3459898992173307 0.0 0.0 0.0 0.0 0.09782773495057207 0.08357976993086841 0.07101291069219386 
node 1 1 1 1
node 2 1 1 1
node 3 1 1 3
node 4 1 0 2
node 12 1 0 0
gene  1 1 4 -5.351418422546103 0 1.0 -5.351418422546103 1
gene  2 2 4 -3.1134299181878893 0 2.0 -3.1134299181878893 1
gene  3 3 4 -7.453093924546184 0 3.0 -7.453093924546184 1
gene  1 1 12 1.0206367274432604 0 21.0 1.0206367274432604 1
gene  1 12 4 13.036876430768434 0 22.0 13.036876430768434 1
gene  3 2 12 10.737381406447714 0 36.0 10.737381406447714 1
genomeend 42
/* Organism # 043 Fitness:  8.989 Error:  1.002                      */
genomestart  43
trait 1 0.05690637560727929 0.0 0.0 0.6901981866966608 0.8022746289513055 0.04609093525261569 9.468887663110683E-4 0.0 
trait 2 0.2 0.0 0.0 0.0 0.0 0.0 0.0 0.0 
trait 3 0.3459898992173307 0.0 0.0 0.0 0.0 0.09782773495057207 0.08357976993086841 0.07101291069219386 
node 1 1 1 1
node 2 1 1 1
node 3 1 1 3
node 4 1 0 2
node 12 1 0 0
gene  1 1 4 -2.103788642723866 0 1.0 -2.103788642723866 1
gene  2 2 4 -4.741132710619015 0 2.0 -4.741132710619015 1
gene  3 3 4 -7.162636220601226 0 3.0 -7.162636220601226 1
gene  1 1 12 1.4486757330945021 0 21.0 1.4486757330945021 1
gene  1 12 4 10.482967058747883 0 22.0 10.482967058747883 1
gene  3 2 12 7.860894135511196 0 36.0 7.860894135511196 1
genomeend 43
/* Organism # 044 Fitness:  8.885 Error:  1.019                      */
genomestart  44
trait 1 0.05690637560727929 0.0 0.0 0.6901981866966608 0.8022746289513055 0.04609093525261569 9.468887663110683E-4 0.0 
trait 2 0.2 0.0 0.0 0.0 0.0 0.0 0.0 0.0 
trait 3 0.3459898992173307 0.0 0.0 0.0 0.0 0.09782773495057207 0.08357976993086841 0.07101291069219386 
node 1 1 1 1
node 2 1 1 1
node 3 1 1 3
node 4 1 0 2
node 12 1 0 0
gene  1 1 4 -7.574129479401556 0 1.0 -7.574129479401556 1
gene  2 2 4 -1.3139396187840222 0 2.0 -1.3139396187840222 1
gene  3 3 4 -7.259636599634295 0 3.0 -7.259636599634295 1
gene  1 1 12 -0.2645327984241932 0 21.0 -0.2645327984241932 1
gene  1 12 4 12.922327224795733 0 22.0 12.922327224795733 1
gene  3 2 12 9.810087485589857 0 36.0 9.810087485589857 1
genomeend 44
/* Organism # 045 Fitness:  4.000 Error:  2.000                      */
genomestart  45
trait 1 0.05690637560727929 0.0 0.0 0.6901981866966608 0.8022746289513055 0.04609093525261569 9.468887663110683E-4 0.0 
trait 2 0.2 0.0 0.0 0.0 0.0 0.0 0.0 0.0 
trait 3 0.3459898992173307 0.0 0.0 0.0 0.0 0.09782773495057207 0.08357976993086841 0.07101291069219386 
node 1 1 1 1
node 2 1 1 1
node 3 1 1 3
node 4 1 0 2
node 12 1 0 0
gene  1 1 4 -2.699961843762357 0 1.0 -2.699961843762357 1
gene  2 2 4 -4.491461477406734 0 2.0 -4.491461477406734 1
gene  3 3 4 -8.393972130263382 0 3.0 -8.393972130263382 1
gene  1 1 12 -0.8250056539737991 0 21.0 -0.8250056539737991 1
gene  1 12 4 10.780691696736127 0 22.0 10.780691696736127 1
gene  3 2 12 8.973508118959161 0 36.0 8.973508118959161 1
genomeend 45
/* Organism # 046 Fitness:  7.828 Error:  1.202                      */
genomestart  46
trait 1 0.05690637560727929 0.0 0.0 0.6901981866966608 0.8022746289513055 0.04609093525261569 9.468887663110683E-4 0.0 
trait 2 0.2 0.0 0.0 0.0 0.0 0.0 0.0 0.0 
trait 3 0.3459898992173307 0.0 0.0 0.0 0.0 0.09782773495057207 0.08357976993086841 0.07101291069219386 
node 1 3 1 1
node 2 1 1 1
node 3 1 1 3
node 4 1 0 2
node 12 1 0 0
gene  1 1 4 -5.803285910433559 0 1.0 -5.803285910433559 1
gene  2 2 4 -4.0510207531176325 0 2.0 -4.0510207531176325 1
gene  3 3 4 -5.636018024913254 0 3.0 -5.636018024913254 1
gene  1 1 12 1.3823432716789197 0 21.0 1.3823432716789197 1
gene  1 12 4 15.211603962276083 0 22.0 15.211603962276083 1
gene  3 2 12 12.684034803634557 0 36.0 12.684034803634557 1
genomeend 46
/*-------------------------------------------------------------------*/
/* Species # 005         : (size= 010) (AvfFit= 7.200) (Age= 14.000)  */
/*-------------------------------------------------------------------*/
/* Organism # 047 Fitness:  9.000 Error:  1.000                      */
genomestart  47
trait 1 0.06875 0.0 0.0 0.0 0.0 0.0 0.023801055305950197 0.0 
trait 2 0.1 0.1412634290958787 0.0 0.001363430081560609 0.0 0.0 0.09628740773493377 0.00824932066202717 
trait 3 0.35386636961471096 0.055717391114329676 0.2158623061422958 0.03323828345753185 0.0 0.0 0.0 0.04553304525815782 
node 1 1 1 1
node 2 1 1 1
node 3 1 1 3
node 4 1 0 2
node 27 1 0 0
gene  1 1 4 7.273430617746667 0 1.0 7.273430617746667 1
gene  2 2 4 6.744972452945968 0 2.0 6.744972452945968 1
gene  3 3 4 -10.589566158885964 0 3.0 -10.589566158885964 1
gene  1 1 27 2.306520190398955 0 80.0 2.306520190398955 1
gene  1 27 4 9.499764484718131 0 81.0 9.499764484718131 1
gene  3 2 27 7.691255788488076 0 128.0 7.691255788488076 1
genomeend 47
/* Organism # 048 Fitness:  9.000 Error:  1.000                      */
genomestart  48
trait 1 0.0625 0.0 0.0 0.0 0.0 0.0 0.028561266367140237 0.0 
trait 2 0.1 0.14108108107189385 0.0 0.0012155882654877718 0.0 0.0 0.09628740773493377 0.007354816011927839 
trait 3 0.3543467157338725 0.05621424346920348 0.0 0.033534681387828884 0.0 0.0 0.0 0.061803228763272246 
node 1 1 1 1
node 2 1 1 1
node 3 1 1 3
node 4 1 0 2
node 27 1 0 0
gene  1 1 4 6.482132937994088 0 1.0 6.482132937994088 1
gene  2 2 4 7.120035520201746 0 2.0 7.120035520201746 1
gene  3 3 4 -9.221933172258101 0 3.0 -9.221933172258101 1
gene  1 1 27 2.2814016131497628 0 80.0 2.2814016131497628 1
gene  1 27 4 8.591730150139751 0 81.0 8.591730150139751 1
gene  3 2 27 5.8988076904139515 0 128.0 5.8988076904139515 1
genomeend 48
/* Organism # 049 Fitness:  9.000 Error:  1.000                      */
genomestart  49
trait 1 0.0625 0.0 0.0 0.0 0.0 0.0 0.028561266367140237 0.0 
trait 2 0.15000000000000002 0.07129019352344024 0.0 0.0012155882654877718 0.0 0.0 0.048143703867466886 0.007354816011927839 
trait 3 0.3543467157338725 0.05621424346920348 0.0 0.033534681387828884 0.0 0.0 0.4007791577400934 0.061803228763272246 
node 1 1 1 1
node 2 1 1 1
node 3 1 1 3
node 4 1 0 2
node 27 1 0 0
gene  1 1 4 10.024657146937418 0 1.0 10.024657146937418 1
gene  2 2 4 7.83265548673555 0 2.0 7.83265548673555 1
gene  3 3 4 -9.221933172258101 0 3.0 -9.221933172258101 1
gene  1 1 27 2.3237958556916913 0 80.0 2.3237958556916913 1
gene  3 27 4 7.71126122945812 0 81.0 7.71126122945812 1
gene  3 2 27 4.077969736459234 0 128.0 4.077969736459234 1
genomeend 49
/* Organism # 050 Fitness:  9.000 Error:  1.000                      */
genomestart  50
trait 1 0.065625 0.0 0.0 0.0 0.0 0.0 0.026181160836545217 0.0 
trait 2 0.15000000000000002 0.07138136753543266 0.0 0.0012895091735241906 0.0 0.0 0.048143703867466886 0.007802068336977505 
trait 3 0.35410654267429176 0.05596581729176658 0.1079311530711479 0.03338648242268037 0.0 0.0 0.4007791577400934 0.05366813701071503 
node 1 1 1 1
node 2 1 1 1
node 3 1 1 3
node 4 1 0 2
node 27 1 0 0
gene  1 1 4 7.678655765015175 0 1.0 7.678655765015175 1
gene  2 2 4 6.830422511987859 0 2.0 6.830422511987859 1
gene  3 3 4 -10.01998711638316 0 3.0 -10.01998711638316 1
gene  1 1 27 1.8365203010820423 0 80.0 1.8365203010820423 1
gene  1 27 4 8.605512857088126 0 81.0 8.605512857088126 1
gene  3 2 27 5.792144763217695 0 128.0 5.792144763217695 1
genomeend 50
/* Organism # 051 Fitness:  1.000 Error:  3.000                      */
genomestart  51
trait 1 0.0625 0.0 0.0 0.0 0.0 0.0 0.028561266367140237 0.0 
trait 2 0.15000000000000002 0.07129019352344024 0.0 0.0012155882654877718 0.0 0.0 0.048143703867466886 0.007354816011927839 
trait 3 0.3543467157338725 0.05621424346920348 0.0 0.033534681387828884 0.0 0.0 0.4007791577400934 0.061803228763272246 
node 1 1 1 1
node 2 1 1 1
node 3 1 1 3
node 4 1 0 2
node 27 1 0 0
gene  1 1 4 5.847073641054417 0 1.0 5.847073641054417 1
gene  2 2 4 8.536008844999557 0 2.0 8.536008844999557 1
gene  3 3 4 -10.55434532245671 0 3.0 -10.55434532245671 1
gene  1 1 27 0.926955038787431 0 80.0 0.926955038787431 1
gene  1 27 4 0.28576026755456757 0 81.0 0.28576026755456757 1
gene  3 2 27 5.067717555324477 0 128.0 5.067717555324477 1
genomeend 51
/* Organism # 052 Fitness:  9.000 Error:  1.000                      */
genomestart  52
trait 1 0.065625 0.0 0.0 0.0 0.0 0.0 0.026181160836545217 0.0 
trait 2 0.1 0.14117225508388626 0.0 0.0012895091735241906 0.0 0.0 0.09628740773493377 0.007802068336977505 
trait 3 0.35410654267429176 0.05596581729176658 0.1079311530711479 0.03338648242268037 0.0 0.0 0.0 0.05366813701071503 
node 1 1 1 1
node 2 1 1 1
node 3 1 1 3
node 4 1 0 2
node 27 1 0 0
gene  1 1 4 6.877781777870378 0 1.0 6.877781777870378 1
gene  2 2 4 6.932503986573857 0 2.0 6.932503986573857 1
gene  3 3 4 -9.905749665572031 0 3.0 -9.905749665572031 1
gene  1 1 27 2.293960901774359 0 80.0 2.293960901774359 1
gene  1 27 4 9.04574731742894 0 81.0 9.04574731742894 1
gene  3 2 27 6.795031739451014 0 128.0 6.795031739451014 1
genomeend 52
/* Organism # 053 Fitness:  4.000 Error:  2.000                      */
genomestart  53
trait 1 0.0625 0.0 0.0 0.0 0.0 0.0 0.028561266367140237 0.0 
trait 2 0.1 0.14108108107189385 0.0 0.0012155882654877718 0.0 0.0 0.09628740773493377 0.007354816011927839 
trait 3 0.3543467157338725 0.05621424346920348 0.0 0.033534681387828884 0.0 0.0 0.0 0.061803228763272246 
node 1 1 1 1
node 2 1 1 1
node 3 1 1 3
node 4 1 0 2
node 27 1 0 0
gene  1 1 4 -0.6661132409762721 0 1.0 -0.6661132409762721 1
gene  2 2 4 5.686335339950747 0 2.0 5.686335339950747 1
gene  3 3 4 -10.670275859656542 0 3.0 -10.670275859656542 1
gene  1 1 27 -2.064308327616378 0 80.0 -2.064308327616378 1
gene  1 27 4 8.591730150139751 0 81.0 8.591730150139751 1
gene  3 2 27 -1.106791127575283 0 128.0 -1.106791127575283 1
genomeend 53
/* Organism # 054 Fitness:  4.000 Error:  2.000                      */
genomestart  54
trait 1 0.065625 0.0 0.0 0.0 0.0 0.0 0.026181160836545217 0.0 
trait 2 0.1 0.14117225508388626 0.0 0.0012895091735241906 0.0 0.0 0.09628740773493377 0.007802068336977505 
trait 3 0.35410654267429176 0.05596581729176658 0.1079311530711479 0.03338648242268037 0.0 0.0 0.0 0.05366813701071503 
node 1 1 1 1
node 2 1 1 1
node 3 1 1 3
node 4 1 0 2
node 27 1 0 0
gene  1 1 4 6.248293672126467 0 1.0 6.248293672126467 1
gene  2 2 4 6.744972452945968 0 2.0 6.744972452945968 1
gene  3 3 4 -1.4399901813573492 0 3.0 -1.4399901813573492 1
gene  1 1 27 3.2885492244393006 0 80.0 3.2885492244393006 1
gene  1 27 4 9.502617552783967 0 81.0 9.502617552783967 1
gene  3 2 27 6.308840946882135 0 128.0 6.308840946882135 1
genomeend 54
/* Organism # 055 Fitness:  9.000 Error:  1.000                      */
genomestart  55
trait 1 0.0625 0.0 0.0 0.0 0.0 0.0 0.028561266367140237 0.0 
trait 2 0.15000000000000002 0.07129019352344024 0.0 0.0012155882654877718 0.0 0.0 0.048143703867466886 0.007354816011927839 
trait 3 0.3543467157338725 0.05621424346920348 0.0 0.033534681387828884 0.0 0.0 0.4007791577400934 0.061803228763272246 
node 1 3 1 1
node 2 1 1 1
node 3 1 1 3
node 4 1 0 2
node 27 1 0 0
gene  1 1 4 8.850736305122062 0 1.0 8.850736305122062 1
gene  2 2 4 6.178949004345247 0 2.0 6.178949004345247 1
gene  3 3 4 -6.9147667651347735 0 3.0 -6.9147667651347735 1
gene  1 1 27 3.191918671425648 0 80.0 3.191918671425648 1
gene  1 27 4 8.535218516064468 0 81.0 8.535218516064468 1
gene  3 2 27 3.510968643218175 0 128.0 3.510968643218175 1
genomeend 55
/* Organism # 056 Fitness:  9.000 Error:  1.000                      */
genomestart  56
trait 1 0.0625 0.0 0.0 0.0 0.0 0.0 0.028561266367140237 0.0 
trait 2 0.2 0.0014993059749866234 0.0 0.0012155882654877718 0.0 0.0 0.0 0.007354816011927839 
trait 3 0.3543467157338725 0.05621424346920348 0.0 0.033534681387828884 0.0 0.0 0.8015583154801867 0.061803228763272246 
node 1 1 1 1
node 2 1 1 1
node 3 1 1 3
node 4 1 0 2
node 27 1 0 0
gene  1 1 4 8.083880912283682 0 1.0 8.083880912283682 1
gene  2 2 4 6.915872571029751 0 2.0 6.915872571029751 1
gene  3 3 4 -9.450408073880356 0 3.0 -9.450408073880356 1
gene  1 1 27 1.3665204117651295 0 80.0 1.3665204117651295 1
gene  1 27 4 7.71126122945812 0 81.0 7.71126122945812 1
gene  3 2 27 3.8930337379473134 0 128.0 3.8930337379473134 1
genomeend 56
/*-------------------------------------------------------------------*/
/* Species # 007         : (size= 010) (AvfFit= 6.468) (Age= 13.000)  */
/*-------------------------------------------------------------------*/
/* Organism # 057 Fitness:  9.000 Error:  1.000                      */
genomestart  57
trait 1 0.1 0.0 0.0 0.0 0.0 0.0 0.0 0.0 
trait 2 0.2 0.0 0.0 0.0 0.0 0.0 0.0 0.0 
trait 3 0.9906426405483666 0.0 0.0 0.0 0.0 0.9609433237283803 0.0 0.0 
node 1 1 1 1
node 2 1 1 1
node 3 1 1 3
node 4 1 0 2
node 18 1 0 0
gene  1 1 4 -6.372396382197686 0 1.0 -6.372396382197686 1
gene  1 2 4 -2.162138869398911 0 2.0 -2.162138869398911 0
gene  3 3 4 -7.929646239052311 0 3.0 -7.929646239052311 1
gene  2 2 18 2.682351645348293 0 44.0 2.682351645348293 1
gene  2 18 4 10.83178030500329 0 45.0 10.83178030500329 1
gene  2 1 18 -1.5678761071189091 0 97.0 -1.5678761071189091 1
genomeend 57
/* Organism # 058 Fitness:  9.000 Error:  1.000                      */
genomestart  58
trait 1 0.1 0.0 0.0 0.0 0.0 0.0 0.0 0.0 
trait 2 0.2 0.0 0.0 0.0 0.0 0.0 0.0 0.0 
trait 3 0.9906426405483666 0.0 0.0 0.0 0.0 0.9609433237283803 0.0 0.0 
node 1 1 1 1
node 2 1 1 1
node 3 1 1 3
node 4 1 0 2
node 18 1 0 0
gene  1 1 4 -6.632802461144201 0 1.0 -6.632802461144201 1
gene  1 2 4 0.35912591814965894 0 2.0 0.35912591814965894 0
gene  3 3 4 -5.44659786803774 0 3.0 -5.44659786803774 1
gene  2 2 18 3.885122152208386 0 44.0 3.885122152208386 1
gene  2 18 4 9.178628223055796 0 45.0 9.178628223055796 1
gene  2 1 18 2.456614586586382 0 97.0 2.456614586586382 1
gene  3 3 18 -0.3150307142701205 0 153.0 -0.3150307142701205 1
genomeend 58
/* Organism # 059 Fitness:  4.000 Error:  2.000                      */
genomestart  59
trait 1 0.1 0.0 0.0 0.0 0.0 0.0 0.0 0.0 
trait 2 0.2 0.0 0.0 0.0 0.0 0.0 0.0 0.0 
trait 3 0.9906426405483666 0.0 0.0 0.0 0.0 0.9609433237283803 0.0 0.0 
node 1 1 1 1
node 2 1 1 1
node 3 1 1 3
node 4 1 0 2
node 18 1 0 0
gene  1 1 4 -5.097142672150496 0 1.0 -5.097142672150496 1
gene  1 2 4 0.5209527244516963 0 2.0 0.5209527244516963 0
gene  3 3 4 -8.062032021709074 0 3.0 -8.062032021709074 1
gene  2 2 18 1.2351356870479897 0 44.0 1.2351356870479897 1
gene  2 18 4 8.914127687774275 0 45.0 8.914127687774275 1
gene  2 1 18 2.3889105619884603 0 97.0 2.3889105619884603 1
gene  3 3 18 -1.9170265077066584 0 153.0 -1.9170265077066584 1
genomeend 59
/* Organism # 060 Fitness:  4.000 Error:  2.000                      */
genomestart  60
trait 1 0.1 0.0 0.0 0.0 0.0 0.0 0.0 0.0 
trait 2 0.2 0.0 0.0 0.0 0.0 0.0 0.0 0.0 
trait 3 0.9906426405483666 0.0 0.0 0.0 0.0 0.9609433237283803 0.0 0.0 
node 1 1 1 1
node 2 1 1 1
node 3 1 1 3
node 4 1 0 2
node 18 1 0 0
gene  1 1 4 -6.342416283916913 0 1.0 -6.342416283916913 1
gene  1 2 4 -1.4361364254791469 0 2.0 -1.4361364254791469 0
gene  3 3 4 1.8423066569966815 0 3.0 1.8423066569966815 1
gene  2 2 18 1.1273376548714962 0 44.0 1.1273376548714962 1
gene  2 18 4 9.89934513054482 0 45.0 9.89934513054482 1
gene  2 1 18 -2.2184110356353344 0 97.0 -2.2184110356353344 1
genomeend 60
/* Organism # 061 Fitness:  4.005 Error:  1.999                      */
genomestart  61
trait 1 0.1 0.0 0.0 0.0 0.0 0.0 0.0 0.0 
trait 2 0.2 0.0 0.0 0.0 0.0 0.0 0.0 0.0 
trait 3 0.9906426405483666 0.0 0.0 0.0 0.0 0.9609433237283803 0.0 0.0 
node 1 1 1 1
node 2 1 1 1
node 3 1 1 3
node 4 1 0 2
node 18 1 0 0
gene  1 1 4 -6.469564820797433 0 1.0 -6.469564820797433 1
gene  1 2 4 -2.8545681417415745 0 2.0 -2.8545681417415745 0
gene  3 3 4 -9.186904791465995 0 3.0 -9.186904791465995 1
gene  2 2 18 3.9851849076938723 0 44.0 3.9851849076938723 1
gene  2 18 4 7.8359367233891755 0 45.0 7.8359367233891755 1
gene  2 1 18 1.4493766989295929 0 97.0 1.4493766989295929 1
genomeend 61
/* Organism # 062 Fitness:  4.000 Error:  2.000                      */
genomestart  62
trait 1 0.1 0.0 0.0 0.0 0.0 0.0 0.0 0.0 
trait 2 0.2 0.0 0.0 0.0 0.0 0.0 0.0 0.0 
trait 3 0.9906426405483666 0.0 0.0 0.0 0.0 0.9609433237283803 0.0 0.0 
node 1 1 1 1
node 2 1 1 1
node 3 1 1 3
node 4 1 0 2
node 18 1 0 0
gene  1 1 4 -6.845318760288615 0 1.0 -6.845318760288615 1
gene  1 2 4 0.04018027277930436 0 2.0 0.04018027277930436 0
gene  3 3 4 -6.376944042093498 0 3.0 -6.376944042093498 1
gene  2 2 18 1.614173759222325 0 44.0 1.614173759222325 1
gene  2 18 4 7.7526410286744785 0 45.0 7.7526410286744785 1
gene  2 1 18 1.0925544931406355 0 97.0 1.0925544931406355 1
gene  3 3 18 -3.248633071918999 0 153.0 -3.248633071918999 1
genomeend 62
/* Organism # 063 Fitness:  9.000 Error:  1.000                      */
genomestart  63
trait 1 0.1 0.0 0.0 0.0 0.0 0.0 0.0 0.0 
trait 2 0.2 0.0 0.0 0.0 0.0 0.0 0.0 0.0 
trait 3 0.9906426405483666 0.0 0.0 0.0 0.0 0.9609433237283803 0.0 0.0 
node 1 1 1 1
node 2 1 1 1
node 3 1 1 3
node 4 1 0 2
node 18 1 0 0
gene  1 1 4 -5.564819170156868 0 1.0 -5.564819170156868 1
gene  1 2 4 0.06818153549590034 0 2.0 0.06818153549590034 0
gene  3 3 4 -6.3415540754947415 0 3.0 -6.3415540754947415 1
gene  2 2 18 3.305164801623567 0 44.0 3.305164801623567 1
gene  2 18 4 8.730798256256193 0 45.0 8.730798256256193 1
gene  2 1 18 0.9126132300255045 0 97.0 0.9126132300255045 1
gene  3 3 18 -1.307951801577738 0 153.0 -1.307951801577738 1
genomeend 63
/* Organism # 064 Fitness:  8.677 Error:  1.054                      */
genomestart  64
trait 1 0.1 0.0 0.0 0.0 0.0 0.0 0.0 0.0 
trait 2 0.2 0.0 0.0 0.0 0.0 0.0 0.0 0.0 
trait 3 0.9906426405483666 0.0 0.0 0.0 0.0 0.9609433237283803 0.0 0.0 
node 1 1 1 1
node 2 1 1 1
node 3 1 1 3
node 4 1 0 2
node 18 1 0 0
gene  1 1 4 -4.943993106370513 0 1.0 -4.943993106370513 1
gene  1 2 4 -1.0570159402981036 0 2.0 -1.0570159402981036 0
gene  3 3 4 -7.097276968745352 0 3.0 -7.097276968745352 1
gene  2 2 18 2.682351645348293 0 44.0 2.682351645348293 1
gene  2 18 4 13.02305056614686 0 45.0 13.02305056614686 1
gene  2 1 18 1.2141189199859848 0 97.0 1.2141189199859848 1
genomeend 64
/* Organism # 065 Fitness:  9.000 Error:  1.000                      */
genomestart  65
trait 1 0.1 0.0 0.0 0.0 0.0 0.0 0.0 0.0 
trait 2 0.2 0.0 0.0 0.0 0.0 0.0 0.0 0.0 
trait 3 0.9906426405483666 0.0 0.0 0.0 0.0 0.9609433237283803 0.0 0.0 
node 1 1 1 1
node 2 1 1 1
node 3 1 1 3
node 4 1 0 2
node 18 1 0 0
gene  1 1 4 -5.410627514098664 0 1.0 -5.410627514098664 1
gene  1 2 4 0.04018027277930436 0 2.0 0.04018027277930436 0
gene  3 3 4 -6.3415540754947415 0 3.0 -6.3415540754947415 1
gene  2 2 18 2.9151155031339644 0 44.0 2.9151155031339644 1
gene  2 18 4 8.730798256256193 0 45.0 8.730798256256193 1
gene  2 1 18 0.9126132300255045 0 97.0 0.9126132300255045 1
gene  3 3 18 -1.307951801577738 0 153.0 -1.307951801577738 1
genomeend 65
/* Organism # 066 Fitness:  4.000 Error:  2.000                      */
genomestart  66
trait 1 0.1 0.0 0.0 0.0 0.0 0.0 0.0 0.0 
trait 2 0.2 0.0 0.0 0.0 0.0 0.0 0.0 0.0 
trait 3 0.9906426405483666 0.0 0.0 0.0 0.0 0.9609433237283803 0.0 0.0 
node 1 1 1 1
node 2 1 1 1
node 3 1 1 3
node 4 1 0 2
node 18 1 0 0
gene  1 1 4 -6.372396382197686 0 1.0 -6.372396382197686 1
gene  1 2 4 0.6192570542448472 0 2.0 0.6192570542448472 0
gene  3 3 4 -5.962140641873113 0 3.0 -5.962140641873113 1
gene  2 2 18 2.167034103128895 0 44.0 2.167034103128895 1
gene  2 18 4 1.96489107848945 0 45.0 1.96489107848945 1
gene  2 1 18 3.180752418412834 0 97.0 3.180752418412834 1
genomeend 66
/*-------------------------------------------------------------------*/
/* Species # 008         : (size= 010) (AvfFit= 7.043) (Age= 11.000)  */
/*-------------------------------------------------------------------*/
/* Organism # 067 Fitness:  9.000 Error:  1.000                      */
genomestart  67
trait 1 0.07500000000000001 0.0 0.0 0.0 0.0 0.05251382634298016 0.0 0.0 
trait 2 0.2 0.0 0.0 0.0 0.0 0.0 0.0 0.0 
trait 3 0.7593903095090313 0.10938488939320123 0.0 0.08651291291510643 0.0 0.49099957482746426 0.0 0.0 
node 1 2 1 1
node 2 1 1 1
node 3 1 1 3
node 4 1 0 2
node 18 1 0 0
node 25 1 0 0
gene  1 1 4 -1.625886215999 0 1.0 -1.625886215999 1
gene  2 2 4 3.7172452149125803 0 2.0 3.7172452149125803 1
gene  3 3 4 -1.0671597249629765 0 3.0 -1.0671597249629765 1
gene  2 2 18 1.902542260033298 0 44.0 1.902542260033298 1
gene  2 18 4 5.606084328910942 0 45.0 5.606084328910942 1
gene  3 1 18 -9.591470529053739 0 63.0 -9.591470529053739 1
gene  1 1 25 2.205833561312735 0 69.0 2.205833561312735 1
gene  1 25 4 -4.405919700897298 0 70.0 -4.405919700897298 1
gene  2 18 25 10.905484422318802 0 78.0 10.905484422318802 1
genomeend 67
/* Organism # 068 Fitness:  9.000 Error:  1.000                      */
genomestart  68
trait 1 0.07500000000000001 0.0 0.0 0.0 0.0 0.05251382634298016 0.0 0.0 
trait 2 0.2 0.0 0.0 0.0 0.0 0.0 0.0 0.0 
trait 3 0.7593903095090313 0.10938488939320123 0.0 0.08651291291510643 0.0 0.49099957482746426 0.0 0.0 
node 1 2 1 1
node 2 1 1 1
node 3 1 1 3
node 4 1 0 2
node 18 1 0 0
node 25 1 0 0
gene  1 1 4 -1.625886215999 0 1.0 -1.625886215999 1
gene  2 2 4 3.7172452149125803 0 2.0 3.7172452149125803 1
gene  3 3 4 -1.0671597249629765 0 3.0 -1.0671597249629765 1
gene  2 2 18 1.902542260033298 0 44.0 1.902542260033298 1
gene  2 18 4 5.606084328910942 0 45.0 5.606084328910942 1
gene  3 1 18 -9.591470529053739 0 63.0 -9.591470529053739 1
gene  1 1 25 2.205833561312735 0 69.0 2.205833561312735 1
gene  1 25 4 -4.405919700897298 0 70.0 -4.405919700897298 1
gene  2 18 25 10.905484422318802 0 78.0 10.905484422318802 1
genomeend 68
/* Organism # 069 Fitness:  4.000 Error:  2.000                      */
genomestart  69
trait 1 0.08750000000000001 0.0 0.0 0.0 0.0 0.02625691317149008 0.0 0.0 
trait 2 0.2 0.0 0.0 0.0 0.0 0.0 0.0 0.0 
trait 3 0.7593903095090313 0.10938488939320123 0.0 0.08651291291510643 0.0 0.49099957482746426 0.0 0.0 
node 1 2 1 1
node 2 1 1 1
node 3 1 1 3
node 4 2 0 2
node 18 1 0 0
node 25 1 0 0
gene  1 1 4 -3.431961796508846 0 1.0 -3.431961796508846 1
gene  2 2 4 -0.7160885082813156 0 2.0 -0.7160885082813156 1
gene  3 3 4 -4.24312537790224 0 3.0 -4.24312537790224 1
gene  2 2 18 4.8311622628929705 0 44.0 4.8311622628929705 1
gene  2 18 4 5.788805043384246 0 45.0 5.788805043384246 1
gene  3 1 18 -8.694967676990606 0 63.0 -8.694967676990606 1
gene  1 1 25 0.9925364044168623 0 69.0 0.9925364044168623 1
gene  1 25 4 -3.7614266404158303 0 70.0 -3.7614266404158303 1
gene  2 18 25 7.883248723801511 0 78.0 7.883248723801511 1
genomeend 69
/* Organism # 070 Fitness:  8.964 Error:  1.006                      */
genomestart  70
trait 1 0.07500000000000001 0.0 0.0 0.0 0.0 0.05251382634298016 0.0 0.0 
trait 2 0.2 0.0 0.0 0.0 0.0 0.0 0.0 0.0 
trait 3 0.7593903095090313 0.10938488939320123 0.0 0.08651291291510643 0.0 0.49099957482746426 0.0 0.0 
node 1 2 1 1
node 2 1 1 1
node 3 1 1 3
node 4 1 0 2
node 18 1 0 0
node 25 1 0 0
gene  1 1 4 -0.3775394142814128 0 1.0 -0.3775394142814128 1
gene  2 2 4 1.6640274400263357 0 2.0 1.6640274400263357 1
gene  3 3 4 1.0390725871262574 0 3.0 1.0390725871262574 1
gene  2 2 18 0.8475980602408311 0 44.0 0.8475980602408311 1
gene  2 18 4 5.469603242111857 0 45.0 5.469603242111857 1
gene  3 1 18 -7.876853242948475 0 63.0 -7.876853242948475 1
gene  1 1 25 3.7724391026161843 0 69.0 3.7724391026161843 1
gene  1 25 4 -4.814297225589832 0 70.0 -4.814297225589832 1
gene  2 18 25 12.997962951387997 0 78.0 12.997962951387997 1
genomeend 70
/* Organism # 071 Fitness:  3.982 Error:  2.004                      */
genomestart  71
trait 1 0.08750000000000001 0.0 0.0 0.0 0.0 0.02625691317149008 0.0 0.0 
trait 2 0.2 0.0 0.0 0.0 0.0 0.0 0.0 0.0 
trait 3 0.7593903095090313 0.10938488939320123 0.0 0.08651291291510643 0.0 0.49099957482746426 0.0 0.0 
node 1 2 1 1
node 2 1 1 1
node 3 1 1 3
node 4 1 0 2
node 18 1 0 0
node 25 1 0 0
gene  1 1 4 -2.5529856963871356 0 1.0 -2.5529856963871356 1
gene  2 2 4 1.557845828546879 0 2.0 1.557845828546879 1
gene  3 3 4 -3.523952284541555 0 3.0 -3.523952284541555 1
gene  2 2 18 -0.2917278457750422 0 44.0 -0.2917278457750422 1
gene  2 18 4 6.241249646062223 0 45.0 6.241249646062223 1
gene  3 1 18 -8.9366916707706 0 63.0 -8.9366916707706 1
gene  1 1 25 2.3453312021438197 0 69.0 2.3453312021438197 1
gene  1 25 4 -0.640294431631623 0 70.0 -0.640294431631623 1
gene  2 18 25 1.5081419201800201 0 78.0 1.5081419201800201 1
genomeend 71
/* Organism # 072 Fitness:  4.489 Error:  1.881                      */
genomestart  72
trait 1 0.07500000000000001 0.0 0.0 0.0 0.0 0.05251382634298016 0.0 0.0 
trait 2 0.2 0.0 0.0 0.0 0.0 0.0 0.0 0.0 
trait 3 0.7593903095090313 0.10938488939320123 0.0 0.08651291291510643 0.0 0.49099957482746426 0.0 0.0 
node 1 2 1 1
node 2 1 1 1
node 3 1 1 3
node 4 1 0 2
node 18 1 0 0
node 25 1 0 0
gene  1 1 4 0.3916770797241931 0 1.0 0.3916770797241931 1
gene  2 2 4 3.7172452149125803 0 2.0 3.7172452149125803 1
gene  3 3 4 0.9710561272902094 0 3.0 0.9710561272902094 1
gene  2 2 18 0.6997790374857498 0 44.0 0.6997790374857498 1
gene  2 18 4 3.7178256729381536 0 45.0 3.7178256729381536 1
gene  3 1 18 -11.409678900049855 0 63.0 -11.409678900049855 1
gene  1 1 25 -1.5386419210647766 0 69.0 -1.5386419210647766 1
gene  1 25 4 -2.425474237786329 0 70.0 -2.425474237786329 1
gene  2 18 25 10.905484422318802 0 78.0 10.905484422318802 1
genomeend 72
/* Organism # 073 Fitness:  9.000 Error:  1.000                      */
genomestart  73
trait 1 0.1 0.0 0.0 0.0 0.0 0.0 0.0 0.0 
trait 2 0.2 0.0 0.0 0.0 0.0 0.0 0.0 0.0 
trait 3 0.7593903095090313 0.10938488939320123 0.0 0.08651291291510643 0.0 0.49099957482746426 0.0 0.0 
node 1 2 1 1
node 2 1 1 1
node 3 1 1 3
node 4 1 0 2
node 18 1 0 0
node 25 1 0 0
gene  1 1 4 -2.909424188300433 0 1.0 -2.909424188300433 1
gene  2 2 4 3.1654905076068314 0 2.0 3.1654905076068314 1
gene  3 3 4 -4.94899543786617 0 3.0 -4.94899543786617 1
gene  2 2 18 4.444596151568752 0 44.0 4.444596151568752 1
gene  2 18 4 5.971525757857551 0 45.0 5.971525757857551 1
gene  3 1 18 -8.964652024710988 0 63.0 -8.964652024710988 1
gene  1 1 25 2.0363011317254123 0 69.0 2.0363011317254123 1
gene  1 25 4 -0.43730182657292205 0 70.0 -0.43730182657292205 1
gene  2 18 25 1.5081419201800201 0 78.0 1.5081419201800201 1
gene  1 3 25 -4.774389295313581 0 174.0 -4.774389295313581 1
genomeend 73
/* Organism # 074 Fitness:  9.000 Error:  1.000                      */
genomestart  74
trait 1 0.08750000000000001 0.0 0.0 0.0 0.0 0.02625691317149008 0.0 0.0 
trait 2 0.2 0.0 0.0 0.0 0.0 0.0 0.0 0.0 
trait 3 0.7593903095090313 0.10938488939320123 0.0 0.08651291291510643 0.0 0.49099957482746426 0.0 0.0 
node 1 2 1 1
node 2 1 1 1
node 3 1 1 3
node 4 1 0 2
node 18 1 0 0
node 25 1 0 0
gene  1 1 4 -2.2676552021497165 0 1.0 -2.2676552021497165 1
gene  2 2 4 3.441367861259706 0 2.0 3.441367861259706 1
gene  3 3 4 -3.0080775814145735 0 3.0 -3.0080775814145735 1
gene  2 2 18 3.1735692058010248 0 44.0 3.1735692058010248 1
gene  2 18 4 5.788805043384246 0 45.0 5.788805043384246 1
gene  3 1 18 -9.278061276882363 0 63.0 -9.278061276882363 1
gene  1 1 25 2.121067346519074 0 69.0 2.121067346519074 1
gene  1 25 4 -2.42161076373511 0 70.0 -2.42161076373511 1
gene  2 18 25 6.206813171249411 0 78.0 6.206813171249411 1
genomeend 74
/* Organism # 075 Fitness:  8.995 Error:  1.001                      */
genomestart  75
trait 1 0.1 0.0 0.0 0.0 0.0 0.0 0.0 0.0 
trait 2 0.2 0.0 0.0 0.0 0.0 0.0 0.0 0.0 
trait 3 0.7593903095090313 0.10938488939320123 0.0 0.08651291291510643 0.0 0.49099957482746426 0.0 0.0 
node 1 2 1 1
node 2 1 1 1
node 3 1 1 3
node 4 1 0 2
node 18 1 0 0
node 25 1 0 0
gene  1 1 4 -5.325941530758914 0 1.0 -5.325941530758914 1
gene  2 2 4 1.4593857701698003 0 2.0 1.4593857701698003 1
gene  3 3 4 -3.212050277595536 0 3.0 -3.212050277595536 1
gene  2 2 18 6.196953216665627 0 44.0 6.196953216665627 1
gene  2 18 4 5.321861800266327 0 45.0 5.321861800266327 1
gene  3 1 18 -8.21727866808012 0 63.0 -8.21727866808012 1
gene  1 1 25 -0.13532986296050353 0 69.0 -0.13532986296050353 1
gene  1 25 4 -0.9307014032421016 0 70.0 -0.9307014032421016 1
gene  2 18 25 1.3455827015773334 0 78.0 1.3455827015773334 1
genomeend 75
/* Organism # 076 Fitness:  4.000 Error:  2.000                      */
genomestart  76
trait 1 0.07500000000000001 0.0 0.0 0.0 0.0 0.05251382634298016 0.0 0.0 
trait 2 0.2 0.0 0.0 0.0 0.0 0.0 0.0 0.0 
trait 3 0.7593903095090313 0.10938488939320123 0.0 0.08651291291510643 0.0 0.49099957482746426 0.0 0.0 
node 1 2 1 1
node 2 1 1 1
node 3 1 1 3
node 4 1 0 2
node 18 1 0 0
node 25 1 0 0
gene  1 1 4 -0.3995731090656221 0 1.0 -0.3995731090656221 1
gene  2 2 4 -0.5641874173646366 0 2.0 -0.5641874173646366 1
gene  3 3 4 -2.3852709758870394 0 3.0 -2.3852709758870394 1
gene  2 2 18 -2.3131478046020626 0 44.0 -2.3131478046020626 1
gene  2 18 4 5.078786913919083 0 45.0 5.078786913919083 1
gene  3 1 18 -8.13520622327103 0 63.0 -8.13520622327103 1
gene  1 1 25 0.24118054886444762 0 69.0 0.24118054886444762 1
gene  1 25 4 -5.746856409128094 0 70.0 -5.746856409128094 1
gene  2 18 25 10.905484422318802 0 78.0 10.905484422318802 1
genomeend 76
/*-------------------------------------------------------------------*/
/* Species # 009         : (size= 015) (AvfFit= 7.989) (Age= 10.000)  */
/*-------------------------------------------------------------------*/
/* Organism # 077 Fitness:  9.006 Error:  0.999                      */
genomestart  77
trait 1 0.08095703125 0.17058250465120967 0.0 0.03137016751792348 0.0 0.0 0.0 0.0 
trait 2 0.24344716250459295 0.0 0.03420370051487321 0.05329185178940672 0.0 0.04194257483884601 0.0 0.0 
trait 3 0.3 0.08272181738054382 0.2515412502623684 0.0 0.0 0.6192375517619333 0.27272784393705696 0.13865768321162808 
node 1 2 1 1
node 2 1 1 1
node 3 1 1 3
node 4 1 0 2
node 7 1 0 0
node 26 1 0 0
node 29 1 0 0
gene  1 1 4 4.550933756110004 0 1.0 4.550933756110004 0
gene  2 2 4 -0.4024649235862445 0 2.0 -0.4024649235862445 1
gene  3 3 4 -2.6426685994754617 0 3.0 -2.6426685994754617 1
gene  1 1 7 5.776357163143322 0 8.0 5.776357163143322 1
gene  1 7 4 4.406451004693816 0 9.0 4.406451004693816 1
gene  2 2 7 4.7285732402482 0 12.0 4.7285732402482 1
gene  2 3 7 -4.220897085347797 0 64.0 -4.220897085347797 1
gene  1 1 26 -2.528306009569856 0 73.0 -2.528306009569856 1
gene  1 26 4 1.3578214845085914 0 74.0 1.3578214845085914 1
gene  1 1 29 0.9815752448326027 0 90.0 0.9815752448326027 1
gene  1 29 7 0.4748907750606943 0 91.0 0.4748907750606943 1
genomeend 77
/* Organism # 078 Fitness:  9.004 Error:  0.999                      */
genomestart  78
trait 1 0.08095703125 0.17058250465120967 0.0 0.03137016751792348 0.0 0.0 0.0 0.0 
trait 2 0.24344716250459295 0.0 0.03420370051487321 0.05329185178940672 0.0 0.04194257483884601 0.0 0.0 
trait 3 0.3 0.08272181738054382 0.2515412502623684 0.0 0.0 0.6192375517619333 0.3111533844250797 0.13865768321162808 
node 1 2 1 1
node 2 1 1 1
node 3 1 1 3
node 4 1 0 2
node 7 1 0 0
node 26 1 0 0
node 29 1 0 0
gene  1 1 4 4.550933756110004 0 1.0 4.550933756110004 0
gene  2 2 4 -0.4024649235862445 0 2.0 -0.4024649235862445 1
gene  3 3 4 -2.6426685994754617 0 3.0 -2.6426685994754617 1
gene  1 1 7 5.776357163143322 0 8.0 5.776357163143322 1
gene  1 7 4 4.406451004693816 0 9.0 4.406451004693816 1
gene  2 2 7 4.7285732402482 0 12.0 4.7285732402482 1
gene  2 3 7 -4.220897085347797 0 64.0 -4.220897085347797 1
gene  1 1 26 -2.528306009569856 0 73.0 -2.528306009569856 1
gene  1 26 4 0.5321831660512447 0 74.0 0.5321831660512447 1
gene  1 1 29 1.467432348542947 0 90.0 1.467432348542947 1
gene  1 29 7 1.3152173422680598 0 91.0 1.3152173422680598 1
genomeend 78
/* Organism # 079 Fitness:  4.002 Error:  1.999                      */
genomestart  79
trait 1 0.08095703125 0.17058250465120967 0.0 0.03137016751792348 0.0 0.0 0.0 0.0 
trait 2 0.24344716250459295 0.0 0.03420370051487321 0.05329185178940672 0.0 0.04194257483884601 0.0 0.0 
trait 3 0.3 0.08272181738054382 0.2515412502623684 0.0 0.0 0.6192375517619333 0.3495789249131025 0.13865768321162808 
node 1 2 1 1
node 2 1 1 1
node 3 1 1 3
node 4 1 0 2
node 7 1 0 0
node 26 1 0 0
node 29 1 0 0
gene  1 1 4 4.3343262772507085 0 1.0 4.3343262772507085 0
gene  2 2 4 0.3319319377986424 0 2.0 0.3319319377986424 1
gene  3 3 4 -2.6426685994754617 0 3.0 -2.6426685994754617 1
gene  1 1 7 2.249190585847271 0 8.0 2.249190585847271 1
gene  1 7 4 4.637174008216492 0 9.0 4.637174008216492 1
gene  2 2 7 -0.5552851466165778 0 12.0 -0.5552851466165778 1
gene  2 3 7 -3.001174198222338 0 64.0 -3.001174198222338 1
gene  1 1 26 -2.528306009569856 0 73.0 -2.528306009569856 1
gene  1 26 4 -0.4776815272838528 0 74.0 -0.4776815272838528 1
gene  1 1 29 1.4148594274586137 0 90.0 1.4148594274586137 1
gene  1 29 7 0.5270434365366696 0 91.0 0.5270434365366696 1
genomeend 79
/* Organism # 080 Fitness:  9.005 Error:  0.999                      */
genomestart  80
trait 1 0.08095703125 0.17058250465120967 0.0 0.03137016751792348 0.0 0.0 0.0 0.0 
trait 2 0.24344716250459295 0.0 0.03420370051487321 0.05329185178940672 0.0 0.04194257483884601 0.0 0.0 
trait 3 0.3 0.08272181738054382 0.2515412502623684 0.0 0.0 0.6192375517619333 0.3111533844250797 0.13865768321162808 
node 1 2 1 1
node 2 1 1 1
node 3 1 1 3
node 4 1 0 2
node 7 1 0 0
node 26 1 0 0
node 29 1 0 0
gene  1 1 4 4.550933756110004 0 1.0 4.550933756110004 0
gene  2 2 4 -0.4024649235862445 0 2.0 -0.4024649235862445 1
gene  3 3 4 -2.6426685994754617 0 3.0 -2.6426685994754617 1
gene  1 1 7 5.776357163143322 0 8.0 5.776357163143322 1
gene  1 7 4 4.406451004693816 0 9.0 4.406451004693816 1
gene  2 2 7 4.7285732402482 0 12.0 4.7285732402482 1
gene  2 3 7 -4.220897085347797 0 64.0 -4.220897085347797 1
gene  1 1 26 -2.528306009569856 0 73.0 -2.528306009569856 1
gene  1 26 4 0.945002325279918 0 74.0 0.945002325279918 1
gene  1 1 29 1.2245037966877748 0 90.0 1.2245037966877748 1
gene  1 29 7 0.895054058664377 0 91.0 0.895054058664377 1
genomeend 80
/* Organism # 081 Fitness:  9.004 Error:  0.999                      */
genomestart  81
trait 1 0.08095703125 0.17058250465120967 0.0 0.03137016751792348 0.0 0.0 0.0 0.0 
trait 2 0.24344716250459295 0.0 0.03420370051487321 0.05329185178940672 0.0 0.04194257483884601 0.0 0.0 
trait 3 0.3 0.08272181738054382 0.2515412502623684 0.0 0.0 0.6192375517619333 0.3495789249131025 0.13865768321162808 
node 1 2 1 1
node 2 1 1 1
node 3 1 1 3
node 4 1 0 2
node 7 1 0 0
node 26 1 0 0
node 29 1 0 0
gene  1 1 4 4.550933756110004 0 1.0 4.550933756110004 0
gene  2 2 4 -0.4024649235862445 0 2.0 -0.4024649235862445 1
gene  3 3 4 -2.6426685994754617 0 3.0 -2.6426685994754617 1
gene  1 1 7 5.776357163143322 0 8.0 5.776357163143322 1
gene  1 7 4 4.406451004693816 0 9.0 4.406451004693816 1
gene  2 2 7 4.7285732402482 0 12.0 4.7285732402482 1
gene  2 3 7 -4.220897085347797 0 64.0 -4.220897085347797 1
gene  1 1 26 -2.528306009569856 0 73.0 -2.528306009569856 1
gene  1 26 4 0.5321831660512447 0 74.0 0.5321831660512447 1
gene  1 1 29 1.467432348542947 0 90.0 1.467432348542947 1
gene  1 29 7 1.3152173422680598 0 91.0 1.3152173422680598 1
genomeend 81
/* Organism # 082 Fitness:  9.006 Error:  0.999                      */
genomestart  82
trait 1 0.08095703125 0.17058250465120967 0.0 0.03137016751792348 0.0 0.0 0.0 0.0 
trait 2 0.24344716250459295 0.0 0.03420370051487321 0.05329185178940672 0.0 0.04194257483884601 0.0 0.0 
trait 3 0.3 0.08272181738054382 0.2515412502623684 0.0 0.0 0.6192375517619333 0.3111533844250797 0.13865768321162808 
node 1 2 1 1
node 2 1 1 1
node 3 1 1 3
node 4 1 0 2
node 7 1 0 0
node 26 1 0 0
node 29 1 0 0
gene  1 1 4 4.550933756110004 0 1.0 4.550933756110004 0
gene  2 2 4 -0.4024649235862445 0 2.0 -0.4024649235862445 1
gene  3 3 4 -2.6426685994754617 0 3.0 -2.6426685994754617 1
gene  1 1 7 5.776357163143322 0 8.0 5.776357163143322 1
gene  1 7 4 4.406451004693816 0 9.0 4.406451004693816 1
gene  2 2 7 4.7285732402482 0 12.0 4.7285732402482 1
gene  2 3 7 -4.220897085347797 0 64.0 -4.220897085347797 1
gene  1 1 26 -2.528306009569856 0 73.0 -2.528306009569856 1
gene  1 26 4 1.3578214845085914 0 74.0 1.3578214845085914 1
gene  1 1 29 0.9815752448326027 0 90.0 0.9815752448326027 1
gene  1 29 7 0.4748907750606943 0 91.0 0.4748907750606943 1
genomeend 82
/* Organism # 083 Fitness:  9.000 Error:  1.000                      */
genomestart  83
trait 1 0.080224609375 0.1771433702147177 0.0 0.032576712422459 0.0 0.0 0.0 0.0 
trait 2 0.5827243602114539 0.0 0.01923958153961618 0.057455277710454125 0.025722652495712373 0.16857385890551438 0.0 0.0 
trait 3 0.3 0.09988659448700665 0.21706465346105694 0.0 0.0 0.6347225753574861 0.1437235109968463 0.08232799940690418 
node 1 2 1 1
node 2 1 1 1
node 3 1 1 3
node 4 1 0 2
node 7 1 0 0
node 29 1 0 0
gene  1 1 4 -1.620739268756196 0 1.0 -1.620739268756196 0
gene  2 2 4 -6.9073074043703215 0 2.0 -6.9073074043703215 1
gene  3 3 4 -2.2878124161519917 0 3.0 -2.2878124161519917 1
gene  1 1 7 3.637351703961172 0 8.0 3.637351703961172 1
gene  1 7 4 5.693159391598284 0 9.0 5.693159391598284 1
gene  2 2 7 2.182393357028913 0 12.0 2.182393357028913 1
gene  2 3 7 -3.2768071153176432 0 64.0 -3.2768071153176432 1
gene  1 1 29 0.9853405362438221 0 90.0 0.9853405362438221 1
gene  1 29 7 2.516445686041333 0 91.0 2.516445686041333 1
genomeend 83
/* Organism # 084 Fitness:  9.000 Error:  1.000                      */
genomestart  84
trait 1 0.08050537109375 0.1746283717487063 0.0 0.032114203542387046 0.0 0.0 0.0 0.0 
trait 2 0.24616261016113 0.0 0.036341431797052785 0.056622592526244644 0.0 0.044563985766273885 0.0 0.0 
trait 3 0.3 0.09306204455311179 0.23002785385835006 0.0 0.0 0.6275953403991514 0.21075497320913217 0.10399326240872106 
node 1 2 1 1
node 2 1 1 1
node 3 1 1 3
node 4 1 0 2
node 7 1 0 0
node 29 1 0 0
gene  1 1 4 -0.8452184780089187 0 1.0 -0.8452184780089187 0
gene  2 2 4 -9.328175550610723 0 2.0 -9.328175550610723 1
gene  3 3 4 -2.2878124161519917 0 3.0 -2.2878124161519917 1
gene  1 1 7 4.989435946251494 0 8.0 4.989435946251494 1
gene  1 7 4 4.701338132336657 0 9.0 4.701338132336657 1
gene  2 2 7 1.7057812713562097 0 12.0 1.7057812713562097 1
gene  2 3 7 -2.394557388792428 0 64.0 -2.394557388792428 1
gene  1 1 29 0.31821712848828104 0 90.0 0.31821712848828104 1
gene  1 29 7 0.7708250441497033 0 91.0 0.7708250441497033 1
genomeend 84
/* Organism # 085 Fitness:  8.810 Error:  1.032                      */
genomestart  85
trait 1 0.080224609375 0.1771433702147177 0.0 0.032576712422459 0.0 0.0 0.0 0.0 
trait 2 0.5827243602114539 0.0 0.01923958153961618 0.057455277710454125 0.025722652495712373 0.16857385890551438 0.0 0.0 
trait 3 0.3 0.09988659448700665 0.21706465346105694 0.0 0.0 0.6347225753574861 0.1437235109968463 0.08232799940690418 
node 1 2 1 1
node 2 1 1 1
node 3 1 1 3
node 4 1 0 2
node 7 1 0 0
node 29 1 0 0
gene  1 1 4 0.41756702679566526 0 1.0 0.41756702679566526 0
gene  2 2 4 -5.6292223758202455 0 2.0 -5.6292223758202455 1
gene  3 3 4 -0.8806391560999365 0 3.0 -0.8806391560999365 1
gene  1 1 7 2.83472454805315 0 8.0 2.83472454805315 1
gene  1 7 4 1.6975873805134394 0 9.0 1.6975873805134394 1
gene  2 2 7 -0.9726526786312093 0 12.0 -0.9726526786312093 1
gene  2 3 7 -3.2768071153176432 0 64.0 -3.2768071153176432 1
gene  1 1 29 2.1650284055693367 0 90.0 2.1650284055693367 1
gene  1 29 7 1.3999198987180097 0 91.0 1.3999198987180097 1
gene  2 2 29 0.42437843934399555 0 151.0 0.42437843934399555 1
gene  2 3 29 4.910179633117002 0 165.0 4.910179633117002 1
genomeend 85
/* Organism # 086 Fitness:  9.000 Error:  1.000                      */
genomestart  86
trait 1 0.0805908203125 0.1738629374329637 0.0 0.03197343997019124 0.0 0.0 0.0 0.0 
trait 2 0.41308576135802344 0.0 0.026721641027244697 0.05537356474993042 0.012861326247856186 0.10525821687218019 0.0 0.0 
trait 3 0.3 0.09130420593377524 0.23430295186171268 0.0 0.0 0.6269800635597097 0.20822567746695164 0.11049284130926612 
node 1 2 1 1
node 2 1 1 1
node 3 1 1 3
node 4 1 0 2
node 7 1 0 0
node 29 1 0 0
gene  1 1 4 3.067044485641766 0 1.0 3.067044485641766 0
gene  2 2 4 -1.749313365931453 0 2.0 -1.749313365931453 1
gene  3 3 4 -2.0553582352738644 0 3.0 -2.0553582352738644 1
gene  1 1 7 6.491486438547433 0 8.0 6.491486438547433 1
gene  1 7 4 6.655381704666466 0 9.0 6.655381704666466 1
gene  2 2 7 4.863286252645809 0 12.0 4.863286252645809 1
gene  2 3 7 -4.352490996480935 0 64.0 -4.352490996480935 1
gene  1 1 29 -0.3950680636358662 0 90.0 -0.3950680636358662 1
gene  1 29 7 3.6159852849908094 0 91.0 3.6159852849908094 1
genomeend 86
/* Organism # 087 Fitness:  8.999 Error:  1.000                      */
genomestart  87
trait 1 0.0805908203125 0.1738629374329637 0.0 0.03197343997019124 0.0 0.0 0.0 0.0 
trait 2 0.41308576135802344 0.0 0.026721641027244697 0.05537356474993042 0.012861326247856186 0.10525821687218019 0.0 0.0 
trait 3 0.3 0.09130420593377524 0.23430295186171268 0.0 0.0 0.6269800635597097 0.2466512179549744 0.11049284130926612 
node 1 2 1 1
node 2 1 1 1
node 3 1 1 3
node 4 1 0 2
node 7 1 0 0
node 29 1 0 0
gene  1 1 4 4.550933756110004 0 1.0 4.550933756110004 0
gene  2 2 4 -6.9073074043703215 0 2.0 -6.9073074043703215 1
gene  3 3 4 -2.6426685994754617 0 3.0 -2.6426685994754617 1
gene  1 1 7 3.637351703961172 0 8.0 3.637351703961172 1
gene  1 7 4 4.406451004693816 0 9.0 4.406451004693816 1
gene  2 2 7 2.182393357028913 0 12.0 2.182393357028913 1
gene  2 3 7 -4.220897085347797 0 64.0 -4.220897085347797 1
gene  1 1 29 1.467432348542947 0 90.0 1.467432348542947 1
gene  1 29 7 2.516445686041333 0 91.0 2.516445686041333 1
genomeend 87
/* Organism # 088 Fitness:  3.982 Error:  2.004                      */
genomestart  88
trait 1 0.080224609375 0.1771433702147177 0.0 0.032576712422459 0.0 0.0 0.0 0.0 
trait 2 0.5827243602114539 0.0 0.01923958153961618 0.057455277710454125 0.025722652495712373 0.16857385890551438 0.0 0.0 
trait 3 0.3 0.09988659448700665 0.21706465346105694 0.0 0.0 0.6347225753574861 0.1437235109968463 0.08232799940690418 
node 1 2 1 1
node 2 1 1 1
node 3 1 1 3
node 4 1 0 2
node 7 1 0 0
node 29 1 0 0
gene  1 1 4 0.27554324398858254 0 1.0 0.27554324398858254 0
gene  2 2 4 -2.4075379638779455 0 2.0 -2.4075379638779455 1
gene  3 3 4 -1.0957248695403918 0 3.0 -1.0957248695403918 1
gene  1 1 7 4.986673496602596 0 8.0 4.986673496602596 1
gene  1 7 4 5.574582319030926 0 9.0 5.574582319030926 1
gene  2 2 7 1.431253036789684 0 12.0 1.431253036789684 1
gene  2 3 7 -3.399913891147086 0 64.0 -3.399913891147086 1
gene  1 1 29 1.8124907942058226 0 90.0 1.8124907942058226 1
gene  1 29 7 2.516445686041333 0 91.0 2.516445686041333 1
gene  2 2 29 -1.2054346842633132 0 151.0 -1.2054346842633132 1
gene  2 3 29 -0.13955823037776843 0 165.0 -0.13955823037776843 1
genomeend 88
/* Organism # 089 Fitness:  8.998 Error:  1.000                      */
genomestart  89
trait 1 0.0805908203125 0.1738629374329637 0.0 0.03197343997019124 0.0 0.0 0.0 0.0 
trait 2 0.41308576135802344 0.0 0.026721641027244697 0.05537356474993042 0.012861326247856186 0.10525821687218019 0.0 0.0 
trait 3 0.3 0.09130420593377524 0.23430295186171268 0.0 0.0 0.6269800635597097 0.227438447710963 0.11049284130926612 
node 1 2 1 1
node 2 1 1 1
node 3 1 1 3
node 4 1 0 2
node 7 1 0 0
node 26 1 0 0
node 29 1 0 0
gene  1 1 4 -1.620739268756196 0 1.0 -1.620739268756196 0
gene  2 2 4 -6.9073074043703215 0 2.0 -6.9073074043703215 1
gene  3 3 4 -2.2878124161519917 0 3.0 -2.2878124161519917 1
gene  1 1 7 4.706854433552246 0 8.0 4.706854433552246 1
gene  1 7 4 4.406451004693816 0 9.0 4.406451004693816 1
gene  2 2 7 4.7285732402482 0 12.0 4.7285732402482 1
gene  2 3 7 -4.220897085347797 0 64.0 -4.220897085347797 1
gene  1 1 26 -2.528306009569856 0 73.0 -2.528306009569856 1
gene  1 26 4 1.3578214845085914 0 74.0 1.3578214845085914 1
gene  1 1 29 0.9815752448326027 0 90.0 0.9815752448326027 1
gene  1 29 7 0.4748907750606943 0 91.0 0.4748907750606943 1
genomeend 89
/* Organism # 090 Fitness:  4.024 Error:  1.994                      */
genomestart  90
trait 1 0.0805908203125 0.1738629374329637 0.5985799312806686 1.0051252173468057 0.0 0.0 0.0 0.0 
trait 2 0.41308576135802344 0.0 0.026721641027244697 0.05537356474993042 0.012861326247856186 0.10525821687218019 0.0 0.0 
trait 3 0.3 0.09130420593377524 0.23430295186171268 0.0 0.0 0.6269800635597097 0.20822567746695164 0.11049284130926612 
node 1 2 1 1
node 2 1 1 1
node 3 1 1 3
node 4 1 0 2
node 7 1 0 0
node 29 1 0 0
gene  1 1 4 1.1966120384270438 0 1.0 1.1966120384270438 1
gene  2 2 4 -4.972098735320355 0 2.0 -4.972098735320355 1
gene  3 3 4 -3.7250859044211735 0 3.0 -3.7250859044211735 1
gene  1 1 7 4.706854433552246 0 8.0 4.706854433552246 1
gene  1 7 4 1.5232029023241032 0 9.0 1.5232029023241032 1
gene  2 2 7 -1.1919829057130347 0 12.0 -1.1919829057130347 1
gene  2 3 7 -5.544828693460889 0 64.0 -5.544828693460889 1
gene  1 1 29 0.9834578905382124 0 90.0 0.9834578905382124 1
gene  1 29 7 1.6191438713819402 0 91.0 1.6191438713819402 1
genomeend 90
/* Organism # 091 Fitness:  9.000 Error:  1.000                      */
genomestart  91
trait 1 0.08095703125 0.17058250465120967 0.0 0.03137016751792348 0.0 0.0 0.0 0.0 
trait 2 0.24344716250459295 0.0 0.03420370051487321 0.05329185178940672 0.0 0.04194257483884601 0.0 0.0 
trait 3 0.3 0.08272181738054382 0.2515412502623684 0.0 0.0 0.6192375517619333 0.3495789249131025 0.13865768321162808 
node 1 2 1 1
node 2 1 1 1
node 3 1 1 3
node 4 1 0 2
node 7 1 0 0
node 26 1 0 0
node 29 1 0 0
gene  1 1 4 5.748154406722943 0 1.0 5.748154406722943 0
gene  2 2 4 0.18723505673857255 0 2.0 0.18723505673857255 1
gene  3 3 4 -1.9047890440692439 0 3.0 -1.9047890440692439 1
gene  1 1 7 4.193102793402648 0 8.0 4.193102793402648 1
gene  1 7 4 5.9343819438541425 0 9.0 5.9343819438541425 1
gene  2 2 7 4.453949568222826 0 12.0 4.453949568222826 1
gene  2 3 7 -3.1777772309786565 0 64.0 -3.1777772309786565 1
gene  1 1 26 -3.797534668158064 0 73.0 -3.797534668158064 1
gene  1 26 4 -0.19440605727803784 0 74.0 -0.19440605727803784 1
gene  1 1 29 3.11032789864013 0 90.0 3.11032789864013 1
gene  1 29 7 1.3152173422680598 0 91.0 1.3152173422680598 1
genomeend 91
/*-------------------------------------------------------------------*/
/* Species # 010         : (size= 010) (AvfFit= 5.615) (Age= 9.000)  */
/*-------------------------------------------------------------------*/
/* Organism # 092 Fitness:  9.000 Error:  1.000                      */
genomestart  92
trait 1 0.1 0.0 0.0 0.0 0.0 0.0 0.0 0.0 
trait 2 0.2 0.0 0.0 0.0 0.0 0.0 0.0 0.0 
trait 3 0.9774896173313197 0.0 0.0 0.0 0.0 0.0 0.0 0.30695160929369625 
node 1 3 1 1
node 2 1 1 1
node 3 1 1 3
node 4 1 0 2
node 27 1 0 0
gene  1 1 4 5.883822756130389 0 1.0 5.883822756130389 1
gene  2 2 4 1.5441664464555047 0 2.0 1.5441664464555047 1
gene  3 3 4 -1.9282097755334755 0 3.0 -1.9282097755334755 1
gene  1 1 27 2.2948128779455685 0 80.0 2.2948128779455685 1
gene  1 27 4 9.129911096185838 0 81.0 9.129911096185838 1
gene  2 3 27 -2.030080469284576 0 109.0 -2.030080469284576 1
gene  2 2 27 4.651095605023144 0 113.0 4.651095605023144 1
genomeend 92
/* Organism # 093 Fitness:  4.000 Error:  2.000                      */
genomestart  93
trait 1 0.1 0.0 0.0 0.0 0.0 0.0 0.0 0.0 
trait 2 0.2 0.0 0.0 0.0 0.0 0.0 0.0 0.0 
trait 3 0.9774896173313197 0.0 0.0 0.0 0.0 0.0 0.0 0.30695160929369625 
node 1 3 1 1
node 2 1 1 1
node 3 1 1 3
node 4 1 0 2
node 27 1 0 0
gene  1 1 4 2.2977998718171158 0 1.0 2.2977998718171158 1
gene  2 2 4 1.5441664464555047 0 2.0 1.5441664464555047 1
gene  3 3 4 2.4431877276637635 0 3.0 2.4431877276637635 1
gene  1 1 27 1.7439213699340441 0 80.0 1.7439213699340441 1
gene  1 27 4 0.9104898422566834 0 81.0 0.9104898422566834 1
gene  2 3 27 -1.1020418674019319 0 109.0 -1.1020418674019319 1
gene  2 2 27 0.15637010605144858 0 113.0 0.15637010605144858 1
genomeend 93
/* Organism # 094 Fitness:  4.000 Error:  2.000                      */
genomestart  94
trait 1 0.1 0.0 0.0 0.0 0.0 0.0 0.0 0.0 
trait 2 0.2 0.0 0.0 0.0 0.0 0.0 0.0 0.0 
trait 3 0.9774896173313197 0.0 0.0 0.0 0.0 0.0 0.0 0.30695160929369625 
node 1 3 1 1
node 2 1 1 1
node 3 1 1 3
node 4 1 0 2
node 27 1 0 0
gene  1 1 4 3.6692575314749925 0 1.0 3.6692575314749925 1
gene  2 2 4 2.8607480160385506 0 2.0 2.8607480160385506 1
gene  3 3 4 -2.667085515042266 0 3.0 -2.667085515042266 1
gene  1 1 27 1.9367954232587234 0 80.0 1.9367954232587234 1
gene  1 27 4 8.471972886115099 0 81.0 8.471972886115099 1
gene  2 3 27 0.3590838227007618 0 109.0 0.3590838227007618 1
gene  2 2 27 3.3339876538088076 0 113.0 3.3339876538088076 1
genomeend 94
/* Organism # 095 Fitness:  9.000 Error:  1.000                      */
genomestart  95
trait 1 0.1 0.0 0.0 0.0 0.0 0.0 0.0 0.0 
trait 2 0.2 0.0 0.0 0.0 0.0 0.0 0.0 0.0 
trait 3 0.9774896173313197 0.0 0.0 0.0 0.0 0.0 0.0 0.30695160929369625 
node 1 3 1 1
node 2 1 1 1
node 3 1 1 3
node 4 1 0 2
node 27 1 0 0
gene  1 1 4 6.131278056102688 0 1.0 6.131278056102688 1
gene  2 2 4 -0.6326485100335772 0 2.0 -0.6326485100335772 1
gene  3 3 4 -2.467967248844962 0 3.0 -2.467967248844962 1
gene  1 1 27 2.4834999536344116 0 80.0 2.4834999536344116 1
gene  1 27 4 10.492070594221703 0 81.0 10.492070594221703 1
gene  2 3 27 -1.060113285639875 0 109.0 -1.060113285639875 1
gene  2 2 27 5.685222304227162 0 113.0 5.685222304227162 1
genomeend 95
/* Organism # 096 Fitness:  4.001 Error:  2.000                      */
genomestart  96
trait 1 0.9915611125137862 0.0 0.0 0.0 0.03589007322484794 0.0 0.0 0.0 
trait 2 0.2 0.0 0.0 0.0 0.0 0.0 0.0 0.0 
trait 3 0.9774896173313197 0.0 0.0 0.0 0.0 0.0 0.0 0.30695160929369625 
node 1 3 1 1
node 2 1 1 1
node 3 1 1 3
node 4 1 0 2
node 27 1 0 0
gene  1 1 4 5.067676155820805 0 1.0 5.067676155820805 1
gene  2 2 4 1.4161094911587364 0 2.0 1.4161094911587364 1
gene  3 3 4 -16.510814798043132 0 3.0 -16.510814798043132 1
gene  1 1 27 3.5059370448535843 0 80.0 3.5059370448535843 1
gene  1 27 4 13.49029581183365 0 81.0 13.49029581183365 1
gene  2 3 27 5.310689563456569 0 109.0 5.310689563456569 1
gene  2 2 27 1.710109381979494 0 113.0 1.710109381979494 1
genomeend 96
/* Organism # 097 Fitness:  8.955 Error:  1.008                      */
genomestart  97
trait 1 0.1 0.0 0.0 0.0 0.0 0.0 0.0 0.0 
trait 2 0.2 0.0 0.0 0.0 0.0 0.0 0.0 0.0 
trait 3 0.9774896173313197 0.0 0.0 0.0 0.0 0.0 0.0 0.30695160929369625 
node 1 3 1 1
node 2 1 1 1
node 3 1 1 3
node 4 1 0 2
node 27 1 0 0
gene  1 1 4 6.061924028613042 0 1.0 6.061924028613042 1
gene  2 2 4 -0.22785245038334234 0 2.0 -0.22785245038334234 1
gene  3 3 4 -0.9899436085718165 0 3.0 -0.9899436085718165 1
gene  1 1 27 0.5964994088528197 0 80.0 0.5964994088528197 1
gene  1 27 4 10.593178224153624 0 81.0 10.593178224153624 1
gene  2 3 27 -2.8531988546003726 0 109.0 -2.8531988546003726 1
gene  2 2 27 4.160161820625786 0 113.0 4.160161820625786 1
genomeend 97
/* Organism # 098 Fitness:  5.141 Error:  1.733                      */
genomestart  98
trait 1 0.1 0.0 0.0 0.0 0.0 0.0 0.0 0.0 
trait 2 0.2 0.0 0.0 0.0 0.0 0.0 0.0 0.0 
trait 3 0.9774896173313197 0.0 0.0 0.0 0.0 0.0 0.0 0.30695160929369625 
node 1 3 1 1
node 2 1 1 1
node 3 1 1 3
node 4 1 0 2
node 27 1 0 0
gene  1 1 4 4.803866142507625 0 1.0 4.803866142507625 1
gene  2 2 4 3.7035443512363675 0 2.0 3.7035443512363675 1
gene  3 3 4 0.20469339902227635 0 3.0 0.20469339902227635 1
gene  1 1 27 1.6014431671203972 0 80.0 1.6014431671203972 1
gene  1 27 4 7.3639164356826665 0 81.0 7.3639164356826665 1
gene  2 3 27 -2.6180119880471358 0 109.0 -2.6180119880471358 1
gene  2 2 27 6.47332804279094 0 113.0 6.47332804279094 1
genomeend 98
/* Organism # 099 Fitness:  4.000 Error:  2.000                      */
genomestart  99
trait 1 0.1 0.0 0.0 0.0 0.0 0.0 0.0 0.0 
trait 2 0.2 0.0 0.0 0.0 0.0 0.0 0.0 0.0 
trait 3 0.9774896173313197 0.0 0.0 0.0 0.0 0.0 0.0 0.30695160929369625 
node 1 3 1 1
node 2 1 1 1
node 3 1 1 3
node 4 1 0 2
node 27 1 0 0
gene  1 1 4 7.564533171911949 0 1.0 7.564533171911949 1
gene  2 2 4 0.1921188384980823 0 2.0 0.1921188384980823 1
gene  3 3 4 -1.471592115684496 0 3.0 -1.471592115684496 1
gene  1 1 27 1.1860599107949652 0 80.0 1.1860599107949652 1
gene  1 27 4 9.964904960934543 0 81.0 9.964904960934543 1
gene  2 3 27 0.4859577282922095 0 109.0 0.4859577282922095 1
gene  2 2 27 2.374983484008613 0 113.0 2.374983484008613 1
genomeend 99
/* Organism # 100 Fitness:  4.000 Error:  2.000                      */
genomestart  100
trait 1 0.1 0.0 0.0 0.0 0.0 0.0 0.0 0.0 
trait 2 0.2 0.0 0.0 0.0 0.0 0.0 0.0 0.0 
trait 3 0.9774896173313197 0.0 0.0 0.0 0.0 0.0 0.0 0.30695160929369625 
node 1 3 1 1
node 2 1 1 1
node 3 1 1 3
node 4 1 0 2
node 27 1 0 0
gene  1 1 4 5.146431378880454 0 1.0 5.146431378880454 1
gene  2 2 4 3.2940614731608333 0 2.0 3.2940614731608333 1
gene  3 3 4 0.3252763374461587 0 3.0 0.3252763374461587 1
gene  1 1 27 0.2968071818293445 0 80.0 0.2968071818293445 1
gene  1 27 4 6.6680309185033995 0 81.0 6.6680309185033995 1
gene  2 3 27 0.052483843097625105 0 109.0 0.052483843097625105 1
gene  2 2 27 6.257910525615401 0 113.0 6.257910525615401 1
genomeend 100
/* Organism # 101 Fitness:  4.051 Error:  1.987                      */
genomestart  101
trait 1 0.1 0.0 0.0 0.0 0.0 0.0 0.0 0.0 
trait 2 0.2 0.0 0.0 0.0 0.0 0.0 0.0 0.0 
trait 3 0.9774896173313197 0.0 0.0 0.0 0.0 0.0 0.0 0.30695160929369625 
node 1 3 1 1
node 2 1 1 1
node 3 1 1 3
node 4 1 0 2
node 27 1 0 0
gene  1 1 4 3.8044708841603434 0 1.0 3.8044708841603434 1
gene  2 2 4 1.5628125148609118 0 2.0 1.5628125148609118 1
gene  3 3 4 -14.0197929732584 0 3.0 -14.0197929732584 1
gene  1 1 27 1.8881010684932789 0 80.0 1.8881010684932789 1
gene  1 27 4 11.591385239288009 0 81.0 11.591385239288009 1
gene  2 3 27 7.520849159393904 0 109.0 7.520849159393904 1
gene  2 2 27 2.5740371019648776 0 113.0 2.5740371019648776 1
genomeend 101
/*-------------------------------------------------------------------*/
/* Species # 011         : (size= 013) (AvfFit= 8.008) (Age= 9.000)  */
/*-------------------------------------------------------------------*/
/* Organism # 102 Fitness:  8.999 Error:  1.000                      */
genomestart  102
trait 1 0.13758880872216217 0.0 0.0 0.0 0.0 0.0 0.0 0.23261439317019972 
trait 2 0.2 0.0 0.0 0.0 0.0 0.0 0.0 0.0 
trait 3 0.3 0.0 0.0 0.0 0.0 0.1999730630644102 0.0 0.0 
node 1 1 1 1
node 2 2 1 1
node 3 1 1 3
node 4 1 0 2
node 17 1 0 0
gene  1 1 4 3.2347428924699977 0 1.0 3.2347428924699977 0
gene  2 2 4 -4.091501592686618 0 2.0 -4.091501592686618 1
gene  3 3 4 -6.211732676203133 0 3.0 -6.211732676203133 1
gene  1 1 17 4.045488263606237 0 38.0 4.045488263606237 1
gene  1 17 4 8.230939937369403 0 39.0 8.230939937369403 1
genomeend 102
/* Organism # 103 Fitness:  8.998 Error:  1.000                      */
genomestart  103
trait 1 0.13758880872216217 0.0 0.0 0.0 0.0 0.0 0.0 0.23261439317019972 
trait 2 0.2 0.0 0.0 0.0 0.0 0.0 0.0 0.0 
trait 3 0.3 0.0 0.0 0.0 0.0 0.1999730630644102 0.0 0.0 
node 1 1 1 1
node 2 2 1 1
node 3 2 1 3
node 4 1 0 2
node 17 1 0 0
gene  1 1 4 2.9233827695867367 0 1.0 2.9233827695867367 0
gene  2 2 4 -4.452837668394542 0 2.0 -4.452837668394542 1
gene  3 3 4 -6.569355873187284 0 3.0 -6.569355873187284 1
gene  1 1 17 5.395462643663958 0 38.0 5.395462643663958 1
gene  1 17 4 8.230939937369403 0 39.0 8.230939937369403 1
genomeend 103
/* Organism # 104 Fitness:  6.062 Error:  1.538                      */
genomestart  104
trait 1 0.13758880872216217 0.0 0.0 0.0 0.0 0.0 0.0 0.23261439317019972 
trait 2 0.2 0.0 0.0 0.0 0.0 0.0 0.0 0.0 
trait 3 0.3 0.0 0.0 0.0 0.0 0.1999730630644102 0.0 0.0 
node 1 1 1 1
node 2 2 1 1
node 3 1 1 3
node 4 1 0 2
node 17 1 0 0
gene  1 1 4 3.4509353699442116 0 1.0 3.4509353699442116 0
gene  2 2 4 -1.5684656521288085 0 2.0 -1.5684656521288085 1
gene  3 3 4 -8.178355325844526 0 3.0 -8.178355325844526 1
gene  1 1 17 0.9309731535294667 0 38.0 0.9309731535294667 1
gene  1 17 4 8.230939937369403 0 39.0 8.230939937369403 1
genomeend 104
/* Organism # 105 Fitness:  4.180 Error:  1.956                      */
genomestart  105
trait 1 0.13758880872216217 0.0 0.0 0.0 0.0 0.0 0.0 0.23261439317019972 
trait 2 0.2 0.0 0.0 0.0 0.0 0.0 0.0 0.0 
trait 3 0.3 0.0 0.0 0.0 0.0 0.1999730630644102 0.0 0.0 
node 1 1 1 1
node 2 2 1 1
node 3 1 1 3
node 4 1 0 2
node 17 1 0 0
gene  1 1 4 1.631817532503507 0 1.0 1.631817532503507 1
gene  2 2 4 -2.3303722728370984 0 2.0 -2.3303722728370984 1
gene  3 3 4 -8.433306466142367 0 3.0 -8.433306466142367 1
gene  1 1 17 2.8791923239782555 0 38.0 2.8791923239782555 1
gene  1 17 4 9.75495227624131 0 39.0 9.75495227624131 1
genomeend 105
/* Organism # 106 Fitness:  8.979 Error:  1.003                      */
genomestart  106
trait 1 0.13758880872216217 0.0 0.0 0.0 0.0 0.0 0.0 0.23261439317019972 
trait 2 0.2 0.0 0.0 0.0 0.0 0.0 0.0 0.0 
trait 3 0.3 0.0 0.0 0.0 0.0 0.1999730630644102 0.0 0.0 
node 1 1 1 1
node 2 2 1 1
node 3 1 1 3
node 4 1 0 2
node 17 1 0 0
gene  1 1 4 5.397407035780987 0 1.0 5.397407035780987 0
gene  2 2 4 -5.315860261442144 0 2.0 -5.315860261442144 1
gene  3 3 4 -6.549419623121136 0 3.0 -6.549419623121136 1
gene  1 1 17 4.595133356151775 0 38.0 4.595133356151775 1
gene  1 17 4 7.700543412302279 0 39.0 7.700543412302279 1
genomeend 106
/* Organism # 107 Fitness:  8.986 Error:  1.002                      */
genomestart  107
trait 1 0.13758880872216217 0.0 0.0 0.0 0.0 0.0 0.0 0.23261439317019972 
trait 2 0.2 0.0 0.0 0.0 0.0 0.0 0.0 0.0 
trait 3 0.3 0.0 0.0 0.0 0.0 0.1999730630644102 0.0 0.0 
node 1 1 1 1
node 2 2 1 1
node 3 1 1 3
node 4 1 0 2
node 17 1 0 0
gene  1 1 4 5.718941765968147 0 1.0 5.718941765968147 0
gene  2 2 4 -2.7441982640268523 0 2.0 -2.7441982640268523 1
gene  3 3 4 -5.749291213170469 0 3.0 -5.749291213170469 1
gene  1 1 17 4.392735932552356 0 38.0 4.392735932552356 1
gene  1 17 4 7.091346144823879 0 39.0 7.091346144823879 1
genomeend 107
/* Organism # 108 Fitness:  8.974 Error:  1.004                      */
genomestart  108
trait 1 0.13758880872216217 0.0 0.0 0.0 0.0 0.0 0.0 0.23261439317019972 
trait 2 0.2 0.0 0.0 0.0 0.0 0.0 0.0 0.0 
trait 3 0.3 0.0 0.0 0.0 0.0 0.1999730630644102 0.0 0.0 
node 1 1 1 1
node 2 2 1 1
node 3 1 1 3
node 4 1 0 2
node 17 1 0 0
gene  1 1 4 0.858812515005817 0 1.0 0.858812515005817 0
gene  2 2 4 -5.892566164442801 0 2.0 -5.892566164442801 1
gene  3 3 4 -5.534485740986244 0 3.0 -5.534485740986244 1
gene  1 1 17 1.8493797820361801 0 38.0 1.8493797820361801 1
gene  1 17 4 6.640261558486758 0 39.0 6.640261558486758 1
genomeend 108
/* Organism # 109 Fitness:  8.999 Error:  1.000                      */
genomestart  109
trait 1 0.13758880872216217 0.0 0.0 0.0 0.0 0.0 0.0 0.23261439317019972 
trait 2 0.2 0.0 0.0 0.0 0.0 0.0 0.0 0.0 
trait 3 0.3 0.0 0.0 0.0 0.0 0.1999730630644102 0.0 0.0 
node 1 1 1 1
node 2 2 1 1
node 3 1 1 3
node 4 1 0 2
node 17 1 0 0
gene  1 1 4 3.2347428924699977 0 1.0 3.2347428924699977 0
gene  2 2 4 -4.022673541415752 0 2.0 -4.022673541415752 1
gene  3 3 4 -6.384890192906315 0 3.0 -6.384890192906315 1
gene  1 1 17 2.96003147570561 0 38.0 2.96003147570561 1
gene  1 17 4 8.230939937369403 0 39.0 8.230939937369403 1
genomeend 109
/* Organism # 110 Fitness:  8.938 Error:  1.010                      */
genomestart  110
trait 1 0.13758880872216217 0.0 0.0 0.0 0.0 0.0 0.0 0.23261439317019972 
trait 2 0.2 0.0 0.0 0.0 0.0 0.0 0.0 0.0 
trait 3 0.3 0.0 0.0 0.0 0.0 0.1999730630644102 0.0 0.0 
node 1 1 1 1
node 2 2 1 1
node 3 1 1 3
node 4 1 0 2
node 17 1 0 0
gene  1 1 4 1.8939754175000938 0 1.0 1.8939754175000938 0
gene  2 2 4 2.146959015551428 0 2.0 2.146959015551428 1
gene  3 3 4 -6.211732676203133 0 3.0 -6.211732676203133 1
gene  1 1 17 4.045488263606237 0 38.0 4.045488263606237 1
gene  1 17 4 10.360297598925838 0 39.0 10.360297598925838 1
genomeend 110
/* Organism # 111 Fitness:  8.991 Error:  1.002                      */
genomestart  111
trait 1 0.13758880872216217 0.0 0.0 0.0 0.0 0.0 0.0 0.23261439317019972 
trait 2 0.2 0.0 0.0 0.0 0.0 0.0 0.0 0.0 
trait 3 0.3 0.0 0.0 0.0 0.0 0.1999730630644102 0.0 0.0 
node 1 1 1 1
node 2 2 1 1
node 3 1 1 3
node 4 1 0 2
node 17 1 0 0
gene  1 1 4 0.6956089746860643 0 1.0 0.6956089746860643 1
gene  2 2 4 -5.489000907725734 0 2.0 -5.489000907725734 1
gene  3 3 4 -6.384890192906315 0 3.0 -6.384890192906315 1
gene  1 1 17 0.33858733205693853 0 38.0 0.33858733205693853 1
gene  1 17 4 8.325405632672554 0 39.0 8.325405632672554 1
genomeend 111
/* Organism # 112 Fitness:  4.000 Error:  2.000                      */
genomestart  112
trait 1 0.13758880872216217 0.0 0.0 0.0 0.0 0.0 0.0 0.23261439317019972 
trait 2 0.2 0.0 0.0 0.0 0.0 0.0 0.0 0.0 
trait 3 0.3 0.0 0.0 0.0 0.0 0.1999730630644102 0.0 0.0 
node 1 1 1 1
node 2 2 1 1
node 3 1 1 3
node 4 1 0 2
node 17 1 0 0
gene  1 1 4 3.6855934780307806 0 1.0 3.6855934780307806 0
gene  2 2 4 -3.698682958279172 0 2.0 -3.698682958279172 1
gene  3 3 4 -7.960699364524259 0 3.0 -7.960699364524259 1
gene  1 1 17 2.9164298405114364 0 38.0 2.9164298405114364 1
gene  1 17 4 0.1954138974414263 0 39.0 0.1954138974414263 1
genomeend 112
/* Organism # 113 Fitness:  8.999 Error:  1.000                      */
genomestart  113
trait 1 0.13758880872216217 0.0 0.0 0.0 0.0 0.0 0.0 0.23261439317019972 
trait 2 0.2 0.0 0.0 0.0 0.0 0.0 0.0 0.0 
trait 3 0.3 0.0 0.0 0.0 0.0 0.1999730630644102 0.0 0.0 
node 1 1 1 1
node 2 2 1 1
node 3 1 1 3
node 4 1 0 2
node 17 1 0 0
gene  1 1 4 3.2347428924699977 0 1.0 3.2347428924699977 0
gene  2 2 4 -4.057087567051186 0 2.0 -4.057087567051186 1
gene  3 3 4 -6.211732676203133 0 3.0 -6.211732676203133 1
gene  1 1 17 4.045488263606237 0 38.0 4.045488263606237 1
gene  1 17 4 8.230939937369403 0 39.0 8.230939937369403 1
genomeend 113
/* Organism # 114 Fitness:  9.000 Error:  1.000                      */
genomestart  114
trait 1 0.13758880872216217 0.0 0.0 0.0 0.0 0.0 0.0 0.23261439317019972 
trait 2 0.2 0.0 0.0 0.0 0.0 0.0 0.0 0.0 
trait 3 0.3 0.0 0.0 0.0 0.0 0.1999730630644102 0.0 0.0 
node 1 1 1 1
node 2 2 1 1
node 3 1 1 3
node 4 1 0 2
node 17 1 0 0
gene  1 1 4 3.2347428924699977 0 1.0 3.2347428924699977 0
gene  2 2 4 -4.091501592686618 0 2.0 -4.091501592686618 1
gene  3 3 4 -6.211732676203133 0 3.0 -6.211732676203133 1
gene  1 1 17 4.045488263606237 0 38.0 4.045488263606237 1
gene  1 17 4 8.230939937369403 0 39.0 8.230939937369403 1
gene  1 2 17 6.390463487977919 0 175.0 6.390463487977919 1
genomeend 114
/*-------------------------------------------------------------------*/
/* Species # 013         : (size= 005) (AvfFit= 6.873) (Age= 7.000)  */
/*-------------------------------------------------------------------*/
/* Organism # 115 Fitness:  8.732 Error:  1.045                      */
genomestart  115
trait 1 0.08095703125 0.17058250465120967 0.0 0.03137016751792348 0.0 0.0 0.0 0.0 
trait 2 0.24344716250459295 0.0 0.03420370051487321 0.05329185178940672 0.0 0.04194257483884601 0.0 0.0 
trait 3 0.3 0.08272181738054382 0.2515412502623684 0.0 0.0 0.6192375517619333 0.3111533844250797 0.13865768321162808 
node 1 2 1 1
node 2 1 1 1
node 3 1 1 3
node 4 1 0 2
node 7 1 0 0
node 26 1 0 0
node 29 1 0 0
gene  1 1 4 4.799399473746229 0 1.0 4.799399473746229 0
gene  2 2 4 1.9112216110304097 0 2.0 1.9112216110304097 1
gene  3 3 4 -0.635562453550198 0 3.0 -0.635562453550198 1
gene  1 1 7 6.689604141302634 0 8.0 6.689604141302634 1
gene  1 7 4 5.91025217604481 0 9.0 5.91025217604481 1
gene  2 2 7 2.282836178955863 0 12.0 2.282836178955863 1
gene  2 3 7 -2.12954007033055 0 64.0 -2.12954007033055 1
gene  1 1 26 -4.879447287771367 0 73.0 -4.879447287771367 1
gene  1 26 4 0.029374588268854973 0 74.0 0.029374588268854973 1
gene  1 1 29 -1.3550830319658542 0 90.0 -1.3550830319658542 1
gene  1 29 7 0.4748907750606943 0 91.0 0.4748907750606943 1
genomeend 115
/* Organism # 116 Fitness:  9.000 Error:  1.000                      */
genomestart  116
trait 1 0.08095703125 0.17058250465120967 0.0 0.03137016751792348 0.0 0.0 0.0 0.0 
trait 2 0.24344716250459295 0.0 0.03420370051487321 0.05329185178940672 0.0 0.04194257483884601 0.0 0.0 
trait 3 0.3 0.08272181738054382 0.2515412502623684 0.0 0.0 0.6192375517619333 0.3495789249131025 0.13865768321162808 
node 1 2 1 1
node 2 1 1 1
node 3 1 1 3
node 4 1 0 2
node 7 1 0 0
node 26 1 0 0
node 29 1 0 0
gene  1 1 4 3.6621554427011027 0 1.0 3.6621554427011027 0
gene  2 2 4 -0.4024649235862445 0 2.0 -0.4024649235862445 1
gene  3 3 4 -2.6426685994754617 0 3.0 -2.6426685994754617 1
gene  1 1 7 5.776357163143322 0 8.0 5.776357163143322 1
gene  1 7 4 4.406451004693816 0 9.0 4.406451004693816 1
gene  2 2 7 4.7285732402482 0 12.0 4.7285732402482 1
gene  2 3 7 -4.220897085347797 0 64.0 -4.220897085347797 1
gene  1 1 26 -2.528306009569856 0 73.0 -2.528306009569856 1
gene  1 26 4 1.3578214845085914 0 74.0 1.3578214845085914 1
gene  1 1 29 0.9815752448326027 0 90.0 0.9815752448326027 1
gene  1 29 7 0.4748907750606943 0 91.0 0.4748907750606943 1
gene  1 7 26 3.995783714945075 0 168.0 3.995783714945075 1
genomeend 116
/* Organism # 117 Fitness:  4.000 Error:  2.000                      */
genomestart  117
trait 1 0.08095703125 0.17058250465120967 0.0 0.03137016751792348 0.0 0.0 0.0 0.0 
trait 2 0.24344716250459295 0.0 0.03420370051487321 0.05329185178940672 0.0 0.04194257483884601 0.0 0.0 
trait 3 0.3 0.08272181738054382 0.2515412502623684 0.0 0.0 0.6192375517619333 0.3111533844250797 0.13865768321162808 
node 1 2 1 1
node 2 1 1 1
node 3 1 1 3
node 4 1 0 2
node 7 1 0 0
node 26 1 0 0
node 29 1 0 0
gene  1 1 4 6.315267207533313 0 1.0 6.315267207533313 0
gene  2 2 4 -1.621215720850469 0 2.0 -1.621215720850469 1
gene  3 3 4 -3.62187636287851 0 3.0 -3.62187636287851 1
gene  1 1 7 -0.12879277477986117 0 8.0 -0.12879277477986117 1
gene  1 7 4 4.387133693305081 0 9.0 4.387133693305081 1
gene  2 2 7 -0.691386647235061 0 12.0 -0.691386647235061 1
gene  2 3 7 -6.032480483272137 0 64.0 -6.032480483272137 1
gene  1 1 26 -1.685977708037315 0 73.0 -1.685977708037315 1
gene  1 26 4 0.09318666977670392 0 74.0 0.09318666977670392 1
gene  1 1 29 1.415573462907683 0 90.0 1.415573462907683 1
gene  1 29 7 0.2698509390409288 0 91.0 0.2698509390409288 1
genomeend 117
/* Organism # 118 Fitness:  4.000 Error:  2.000                      */
genomestart  118
trait 1 0.08095703125 0.17058250465120967 0.0 0.03137016751792348 0.0 0.0 0.0 0.0 
trait 2 0.24344716250459295 0.0 0.03420370051487321 0.05329185178940672 0.0 0.04194257483884601 0.0 0.0 
trait 3 0.3 0.08272181738054382 0.2515412502623684 0.0 0.0 0.6192375517619333 0.27272784393705696 0.13865768321162808 
node 1 2 1 1
node 2 1 1 1
node 3 1 1 3
node 4 1 0 2
node 7 1 0 0
node 26 1 0 0
node 29 1 0 0
gene  1 1 4 4.550933756110004 0 1.0 4.550933756110004 0
gene  2 2 4 -0.4024649235862445 0 2.0 -0.4024649235862445 1
gene  3 3 4 -2.6426685994754617 0 3.0 -2.6426685994754617 1
gene  1 1 7 5.776357163143322 0 8.0 5.776357163143322 1
gene  1 7 4 4.406451004693816 0 9.0 4.406451004693816 1
gene  2 2 7 4.7285732402482 0 12.0 4.7285732402482 1
gene  2 3 7 -4.220897085347797 0 64.0 -4.220897085347797 1
gene  1 1 26 -2.528306009569856 0 73.0 -2.528306009569856 1
gene  1 26 4 1.3578214845085914 0 74.0 1.3578214845085914 1
gene  1 1 29 0.9815752448326027 0 90.0 0.9815752448326027 1
gene  1 29 7 0.4748907750606943 0 91.0 0.4748907750606943 1
gene  2 29 4 -7.672423311299175 0 169.0 -7.672423311299175 1
genomeend 118
/* Organism # 119 Fitness:  8.634 Error:  1.062                      */
genomestart  119
trait 1 0.08095703125 0.17058250465120967 0.0 0.03137016751792348 0.0 0.0 0.0 0.0 
trait 2 0.24344716250459295 0.0 0.03420370051487321 0.05329185178940672 0.0 0.04194257483884601 0.0 0.0 
trait 3 0.3 0.08272181738054382 0.2515412502623684 0.0 0.0 0.6192375517619333 0.33036615466909114 0.13865768321162808 
node 1 2 1 1
node 2 1 1 1
node 3 1 1 3
