/* Species # 003         : (size= 002) (AvfFit= 4.000) (Age= 77.000)  */
/*-------------------------------------------------------------------*/
/* Organism # 000 Fitness:  4.000 Error:  2.000                      */
genomestart  0
trait 1 0.1 0.0 0.8631007925986033 0.0 0.0 0.8072333922425772 0.0 0.0 
trait 2 0.2 0.8949380476378068 0.0 0.8579370241627875 0.45000406625499134 0.14195893988809405 0.0 0.0 
trait 3 0.3 0.0 0.0 0.0 0.0 0.0 0.0 0.0 
node 1 3 1 1
node 2 3 1 1
node 3 2 1 3
node 4 2 0 2
node 7 1 0 0
node 11 1 0 0
node 208 1 0 0
node 215 1 0 0
node 252 3 0 0
gene  1 1 4 -0.1686582996663364 0 1.0 -0.1686582996663364 0
gene  3 2 4 -4.000434138585053 0 2.0 -4.000434138585053 1
gene  3 3 4 -11.237375229611342 0 3.0 -11.237375229611342 1
gene  1 1 7 0.6999654159913158 0 8.0 0.6999654159913158 1
gene  1 7 4 -0.23212662430787412 0 9.0 -0.23212662430787412 1
gene  2 2 11 1.564575641893323 0 19.0 1.564575641893323 1
gene  2 11 4 -7.876378965936302 0 20.0 -7.876378965936302 1
gene  1 3 11 0.11484716740731593 0 60.0 0.11484716740731593 1
gene  1 11 7 2.651277374403544 0 102.0 2.651277374403544 1
gene  1 3 7 4.601823553585432 0 197.0 4.601823553585432 1
gene  1 1 11 4.850418846784153 0 248.0 4.850418846784153 1
gene  1 2 7 -0.41511530627656545 0 263.0 -0.41511530627656545 1
gene  2 1 208 1.1378170503054545 0 917.0 1.1378170503054545 1
gene  1 208 4 -1.3321598586593313 0 918.0 -1.3321598586593313 1
gene  3 2 215 4.2863832787270075 0 942.0 4.2863832787270075 1
gene  3 215 4 -1.4363125456832648 0 943.0 -1.4363125456832648 1
gene  1 1 252 2.209439363322461 0 1123.0 2.209439363322461 1
gene  1 252 11 4.915488514264913 0 1124.0 4.915488514264913 1
genomeend 0
/* Organism # 001 Fitness:  4.000 Error:  2.000                      */
genomestart  1
trait 1 0.1 0.0 0.8631007925986033 0.0 0.0 0.8072333922425772 0.0 0.0 
trait 2 0.2 0.8949380476378068 0.0 0.8579370241627875 0.45000406625499134 0.14195893988809405 0.0 0.0 
trait 3 0.3 0.0 0.0 0.0 0.0 0.0 0.0 0.0 
node 1 3 1 1
node 2 3 1 1
node 3 2 1 3
node 4 2 0 2
node 7 1 0 0
node 11 1 0 0
node 208 1 0 0
node 215 1 0 0
node 252 3 0 0
gene  1 1 4 2.388225266394902 0 1.0 2.388225266394902 0
gene  3 2 4 -2.4728499639554333 0 2.0 -2.4728499639554333 1
gene  3 3 4 -12.155455550004747 0 3.0 -12.155455550004747 1
gene  1 1 7 1.4409471925934891 0 8.0 1.4409471925934891 1
gene  1 7 4 0.12598616264271473 0 9.0 0.12598616264271473 1
gene  2 2 11 5.997571966977491 0 19.0 5.997571966977491 1
gene  2 11 4 0.45554808536825975 0 20.0 0.45554808536825975 1
gene  1 3 11 -2.6918260973079233 0 60.0 -2.6918260973079233 1
gene  1 11 7 0.17709534942027122 0 102.0 0.17709534942027122 1
gene  1 3 7 -0.6920079009362077 0 197.0 -0.6920079009362077 1
gene  1 1 11 5.3298567053652315 0 248.0 5.3298567053652315 1
gene  1 2 7 -0.4286574084458977 0 263.0 -0.4286574084458977 1
gene  2 1 208 1.204414110411565 0 917.0 1.204414110411565 1
gene  1 208 4 -2.887953091396795 0 918.0 -2.887953091396795 1
gene  3 2 215 7.9080598405159055 0 942.0 7.9080598405159055 1
gene  3 215 4 0.6091887389065095 0 943.0 0.6091887389065095 1
gene  1 1 252 -0.1802618690147148 0 1123.0 -0.1802618690147148 1
gene  1 252 11 3.5085454587870712 0 1124.0 3.5085454587870712 1
genomeend 1
/*-------------------------------------------------------------------*/
/* Species # 004         : (size= 002) (AvfFit= 4.321) (Age= 76.000)  */
/*-------------------------------------------------------------------*/
/* Organism # 002 Fitness:  4.641 Error:  1.846                      */
genomestart  2
trait 1 0.0 0.0996959996336042 0.0 0.0 0.0 0.17980252092901416 0.0 0.0 
trait 2 0.2 0.0 0.0 0.0 0.0 0.0 0.0 0.0 
trait 3 0.3 0.0 0.0 0.8153466414577913 0.0 0.0 0.0 0.16360210646758178 
node 1 2 1 1
node 2 2 1 1
node 3 1 1 3
node 4 2 0 2
node 7 2 0 0
node 14 1 0 0
node 17 1 0 0
node 28 1 0 0
gene  1 1 4 1.467243282711011 0 1.0 1.467243282711011 1
gene  2 2 4 -2.954329438396776 0 2.0 -2.954329438396776 1
gene  3 3 4 0.027885796393830597 0 3.0 0.027885796393830597 1
gene  1 1 7 6.1499791249679205 0 8.0 6.1499791249679205 1
gene  1 7 4 -1.5314626770120774 0 9.0 -1.5314626770120774 1
gene  2 1 14 -0.4366650001107793 0 27.0 -0.4366650001107793 1
gene  1 14 4 -2.8314584370216376 0 28.0 -2.8314584370216376 1
gene  2 2 17 3.5661616981696365 0 37.0 3.5661616981696365 1
gene  2 17 4 1.2659293646876077 0 38.0 1.2659293646876077 1
gene  2 1 17 -0.8349968410619375 0 54.0 -0.8349968410619375 1
gene  3 1 28 2.789980428416654 0 78.0 2.789980428416654 1
gene  1 28 7 2.171977181034242 0 79.0 2.171977181034242 1
gene  3 17 7 -1.2531142610407877 0 148.0 -1.2531142610407877 1
gene  1 3 7 -0.5652044700404646 0 1174.0 -0.5652044700404646 1
gene  2 17 28 -3.810864619661524 0 1261.0 -3.810864619661524 1
genomeend 2
/* Organism # 003 Fitness:  4.000 Error:  2.000                      */
genomestart  3
trait 1 0.0 0.0996959996336042 0.0 0.0 0.0 0.17980252092901416 0.0 0.0 
trait 2 0.2 0.0 0.0 0.0 0.0 0.0 0.0 0.0 
trait 3 0.3 0.0 0.0 0.8153466414577913 0.0 0.0 0.0 0.16360210646758178 
node 1 2 1 1
node 2 2 1 1
node 3 1 1 3
node 4 2 0 2
node 7 2 0 0
node 14 1 0 0
node 17 1 0 0
node 28 1 0 0
gene  1 1 4 1.2647185564228418 0 1.0 1.2647185564228418 1
gene  2 2 4 -2.34935287662979 0 2.0 -2.34935287662979 1
gene  3 3 4 -5.922389582812025 0 3.0 -5.922389582812025 1
gene  1 1 7 8.272071496812384 0 8.0 8.272071496812384 1
gene  1 7 4 0.5570111106098276 0 9.0 0.5570111106098276 1
gene  2 1 14 1.532172089553604 0 27.0 1.532172089553604 1
gene  1 14 4 -5.306891864830914 0 28.0 -5.306891864830914 1
gene  2 2 17 5.329376785935903 0 37.0 5.329376785935903 1
gene  2 17 4 2.266173093331166 0 38.0 2.266173093331166 1
gene  2 1 17 -0.9964894441486334 0 54.0 -0.9964894441486334 1
gene  3 1 28 4.717466418386281 0 78.0 4.717466418386281 1
gene  1 28 7 4.6337958163723805 0 79.0 4.6337958163723805 1
gene  3 17 7 -2.9270483262876703 0 148.0 -2.9270483262876703 1
gene  1 3 7 -3.3883522248807947 0 1174.0 -3.3883522248807947 1
gene  2 17 28 -2.6624073966474575 0 1261.0 -2.6624073966474575 1
genomeend 3
/*-------------------------------------------------------------------*/
/* Species # 005         : (size= 004) (AvfFit= 9.000) (Age= 75.000)  */
/*-------------------------------------------------------------------*/
/* Organism # 004 Fitness:  9.000 Error:  1.000                      */
genomestart  4
trait 1 0.17120803022471798 0.0 0.5086472835778034 0.0 0.0 0.3638895807397792 0.0 0.0 
trait 2 0.2 0.0 0.0 0.090960560818385 0.0 0.0 0.49427861223422004 0.0 
trait 3 0.2983558404368756 0.0 0.0 0.0 0.009562911290708196 0.0 0.0 0.14394152103312102 
node 1 1 1 1
node 2 1 1 1
node 3 1 1 3
node 4 1 0 2
node 17 1 0 0
node 233 1 0 0
gene  1 1 4 13.958044812741512 0 1.0 13.958044812741512 1
gene  2 2 4 17.51000808320228 0 2.0 17.51000808320228 1
gene  3 3 4 -4.528029429430161 0 3.0 -4.528029429430161 1
gene  2 2 17 -6.1762079489362165 0 37.0 -6.1762079489362165 1
gene  3 17 4 -11.28441458744149 0 38.0 -11.28441458744149 1
gene  1 1 17 -5.577030716024667 0 80.0 -5.577030716024667 1
gene  2 3 17 5.149575807210349 0 219.0 5.149575807210349 1
gene  1 1 233 3.7141910598887193 0 1035.0 3.7141910598887193 1
gene  2 233 4 9.86246523880007 0 1036.0 9.86246523880007 1
genomeend 4
/* Organism # 005 Fitness:  9.000 Error:  1.000                      */
genomestart  5
trait 1 0.17120803022471798 0.0 0.5086472835778034 0.0 0.0 0.3638895807397792 0.0 0.0 
trait 2 0.2 0.0 0.0 0.090960560818385 0.0 0.0 0.49427861223422004 0.0 
trait 3 0.2983558404368756 0.0 0.0 0.0 0.009562911290708196 0.0 0.0 0.14394152103312102 
node 1 1 1 1
node 2 1 1 1
node 3 1 1 3
node 4 1 0 2
node 17 1 0 0
node 233 1 0 0
gene  1 1 4 11.281413849365926 0 1.0 11.281413849365926 1
gene  2 2 4 20.448948537466116 0 2.0 20.448948537466116 1
gene  3 3 4 -8.021285773225664 0 3.0 -8.021285773225664 1
gene  2 2 17 -6.586526066842271 0 37.0 -6.586526066842271 1
gene  3 17 4 -9.44999997664497 0 38.0 -9.44999997664497 1
gene  1 1 17 -8.23033444645312 0 80.0 -8.23033444645312 1
gene  2 3 17 4.096510880760958 0 219.0 4.096510880760958 1
gene  1 1 233 3.4889197794718068 0 1035.0 3.4889197794718068 1
gene  2 233 4 9.761914262082666 0 1036.0 9.761914262082666 1
genomeend 5
/* Organism # 006 Fitness:  9.000 Error:  1.000                      */
genomestart  6
trait 1 0.17120803022471798 0.0 0.5086472835778034 0.0 0.0 0.3638895807397792 0.0 0.0 
trait 2 0.0 0.34872268703909837 0.9488037101781851 0.090960560818385 0.0 0.0 0.0 0.0 
trait 3 0.2983558404368756 0.0 0.0 0.0 0.009562911290708196 0.0 0.0 0.14394152103312102 
node 1 1 1 1
node 2 1 1 1
node 3 1 1 3
node 4 1 0 2
node 17 1 0 0
node 233 1 0 0
gene  1 1 4 10.548107651070389 0 1.0 10.548107651070389 1
gene  2 2 4 19.886854521838625 0 2.0 19.886854521838625 1
gene  3 3 4 -5.857445170725217 0 3.0 -5.857445170725217 1
gene  2 2 17 -7.625287861646031 0 37.0 -7.625287861646031 1
gene  3 17 4 -8.857553715546874 0 38.0 -8.857553715546874 1
gene  1 1 17 -9.291314407534637 0 80.0 -9.291314407534637 1
gene  2 3 17 5.856849190530218 0 219.0 5.856849190530218 1
gene  1 1 233 7.044873155163244 0 1035.0 7.044873155163244 1
gene  2 233 4 8.698835835225223 0 1036.0 8.698835835225223 1
genomeend 6
/* Organism # 007 Fitness:  9.000 Error:  1.000                      */
genomestart  7
trait 1 0.17120803022471798 0.0 0.5086472835778034 0.0 0.0 0.3638895807397792 0.0 0.0 
trait 2 0.2 0.0 0.0 0.090960560818385 0.0 0.0 0.49427861223422004 0.0 
trait 3 0.2983558404368756 0.0 0.0 0.0 0.009562911290708196 0.0 0.0 0.14394152103312102 
node 1 1 1 1
node 2 1 1 1
node 3 1 1 3
node 4 1 0 2
node 17 1 0 0
node 233 1 0 0
gene  1 1 4 10.030694880236043 0 1.0 10.030694880236043 1
gene  2 2 4 20.492961350595372 0 2.0 20.492961350595372 1
gene  3 3 4 -7.722335147230952 0 3.0 -7.722335147230952 1
gene  2 2 17 -8.352863321501744 0 37.0 -8.352863321501744 1
gene  3 17 4 -12.050030642482827 0 38.0 -12.050030642482827 1
gene  1 1 17 -6.687250286159882 0 80.0 -6.687250286159882 1
gene  2 3 17 5.7352744769413 0 219.0 5.7352744769413 1
gene  1 1 233 5.119660198608634 0 1035.0 5.119660198608634 1
gene  2 233 4 11.37462235013464 0 1036.0 11.37462235013464 1
genomeend 7
/*-------------------------------------------------------------------*/
/* Species # 006         : (size= 005) (AvfFit= 8.988) (Age= 75.000)  */
/*-------------------------------------------------------------------*/
/* Organism # 008 Fitness:  9.000 Error:  1.000                      */
genomestart  8
trait 1 0.1 0.2954401472863858 0.6962051656588925 0.7740980007128802 0.0 0.9601499573111927 0.0 0.0 
trait 2 0.0 0.2589796007649387 0.0 1.5057610182411896 0.0 0.20595313949351224 0.0 0.0 
trait 3 0.3 0.0 0.0 0.0 0.501051688414251 0.16421972382120997 0.0 0.0 
node 1 2 1 1
node 2 2 1 1
node 3 1 1 3
node 4 1 0 2
node 7 1 0 0
node 14 3 0 0
node 17 1 0 0
node 28 1 0 0
node 48 1 0 0
node 83 2 0 0
node 210 1 0 0
gene  1 1 4 18.668259291605178 0 1.0 18.668259291605178 1
gene  2 2 4 21.99370437385106 0 2.0 21.99370437385106 1
gene  3 3 4 -9.747350172171124 0 3.0 -9.747350172171124 1
gene  1 1 7 1.9159545705097274 0 8.0 1.9159545705097274 0
gene  1 7 4 -3.274003265350876 0 9.0 -3.274003265350876 1
gene  1 1 14 -1.8514492502330802 0 27.0 -1.8514492502330802 1
gene  1 14 4 1.4019377912838311 0 28.0 1.4019377912838311 1
gene  2 2 17 -2.7643602119841555 0 37.0 -2.7643602119841555 1
gene  1 17 4 -6.1961759016036595 0 38.0 -6.1961759016036595 1
gene  2 1 17 -21.656131874578406 0 54.0 -21.656131874578406 1
gene  1 1 28 -1.5114782234981758 0 78.0 -1.5114782234981758 1
gene  1 28 7 -2.719113882626563 0 79.0 -2.719113882626563 0
gene  1 1 48 -2.2899891791757963 0 154.0 -2.2899891791757963 1
gene  1 48 4 1.1191616158117879 0 155.0 1.1191616158117879 1
gene  3 48 28 4.674004973336781 0 180.0 4.674004973336781 1
gene  1 7 83 2.9946824822742286 0 344.0 2.9946824822742286 1
gene  1 83 4 -4.640666924847784 0 345.0 -4.640666924847784 1
gene  1 14 28 -0.7807475117920812 0 777.0 -0.7807475117920812 1
gene  1 28 210 -2.1105351541494715 0 924.0 -2.1105351541494715 1
gene  1 210 7 -2.4893641658609225 0 925.0 -2.4893641658609225 1
gene  1 2 28 -0.33186328608806465 0 1318.0 -0.33186328608806465 1
genomeend 8
/* Organism # 009 Fitness:  8.939 Error:  1.010                      */
genomestart  9
trait 1 0.1 0.2954401472863858 0.6962051656588925 0.7740980007128802 0.0 0.9601499573111927 0.0 0.0 
trait 2 0.7476831688323962 0.2589796007649387 0.0 0.7628308545096194 0.0 0.20595313949351224 0.0 0.0 
trait 3 0.3 0.0 0.0 0.0 0.501051688414251 0.16421972382120997 0.0 0.0 
node 1 2 1 1
node 2 2 1 1
node 3 1 1 3
node 4 1 0 2
node 7 1 0 0
node 14 3 0 0
node 17 1 0 0
node 28 1 0 0
node 48 1 0 0
node 83 2 0 0
node 210 1 0 0
gene  1 1 4 16.270504759151464 0 1.0 16.270504759151464 1
gene  2 2 4 23.887087010563338 0 2.0 23.887087010563338 1
gene  3 3 4 0.8859143392466851 0 3.0 0.8859143392466851 1
gene  1 1 7 0.364679962698351 0 8.0 0.364679962698351 0
gene  1 7 4 -3.0504820727274016 0 9.0 -3.0504820727274016 1
gene  1 1 14 0.7581908473303628 0 27.0 0.7581908473303628 1
gene  1 14 4 -0.5759245900045141 0 28.0 -0.5759245900045141 1
gene  2 2 17 -5.781164008213426 0 37.0 -5.781164008213426 1
gene  1 17 4 -1.757497191845202 0 38.0 -1.757497191845202 1
gene  2 1 17 -19.37154408711832 0 54.0 -19.37154408711832 1
gene  1 1 28 -1.1717752434615123 0 78.0 -1.1717752434615123 1
gene  1 28 7 -3.138024045172539 0 79.0 -3.138024045172539 0
gene  1 1 48 -2.1260008703298334 0 154.0 -2.1260008703298334 1
gene  1 48 4 0.8897074776374292 0 155.0 0.8897074776374292 1
gene  3 48 28 6.313458276333269 0 180.0 6.313458276333269 1
gene  1 7 83 -1.4690028823243295 0 344.0 -1.4690028823243295 1
gene  1 83 4 1.3011184603402275 0 345.0 1.3011184603402275 1
gene  1 14 28 -0.3431066607604733 0 777.0 -0.3431066607604733 1
gene  1 28 210 1.5684425504529076 0 924.0 1.5684425504529076 1
gene  1 210 7 -0.096527416740944 0 925.0 -0.096527416740944 1
gene  1 2 28 0.3301492850438967 0 1318.0 0.3301492850438967 1
genomeend 9
/* Organism # 010 Fitness:  9.000 Error:  1.000                      */
genomestart  10
trait 1 0.1 0.2954401472863858 0.6962051656588925 0.7740980007128802 0.0 0.9601499573111927 0.0 0.0 
trait 2 0.7476831688323962 0.2589796007649387 0.0 0.7628308545096194 0.0 0.20595313949351224 0.0 0.0 
trait 3 0.3 0.0 0.0 0.0 0.501051688414251 0.16421972382120997 0.0 0.0 
node 1 2 1 1
node 2 2 1 1
node 3 1 1 3
node 4 1 0 2
node 7 1 0 0
node 14 3 0 0
node 17 1 0 0
node 28 1 0 0
node 48 1 0 0
node 83 2 0 0
node 210 1 0 0
gene  1 1 4 16.25997716087305 0 1.0 16.25997716087305 1
gene  2 2 4 23.922802037131635 0 2.0 23.922802037131635 1
gene  3 3 4 -7.522346344516137 0 3.0 -7.522346344516137 1
gene  1 1 7 2.38682154998668 0 8.0 2.38682154998668 0
gene  1 7 4 -3.0271489927427653 0 9.0 -3.0271489927427653 1
gene  1 1 14 0.6192311629998746 0 27.0 0.6192311629998746 1
gene  1 14 4 0.9605492110404207 0 28.0 0.9605492110404207 1
gene  2 2 17 -3.891245869650321 0 37.0 -3.891245869650321 1
gene  1 17 4 -7.457552360445986 0 38.0 -7.457552360445986 1
gene  2 1 17 -19.37154408711832 0 54.0 -19.37154408711832 1
gene  1 1 28 -1.1717752434615123 0 78.0 -1.1717752434615123 1
gene  1 28 7 -1.244146100511072 0 79.0 -1.244146100511072 0
gene  1 1 48 -2.587093615600794 0 154.0 -2.587093615600794 1
gene  1 48 4 0.8897074776374292 0 155.0 0.8897074776374292 1
gene  3 48 28 4.822990065319784 0 180.0 4.822990065319784 1
gene  1 7 83 1.923010066252342 0 344.0 1.923010066252342 1
gene  1 83 4 -2.3303415142821047 0 345.0 -2.3303415142821047 1
gene  1 14 28 -0.7807475117920812 0 777.0 -0.7807475117920812 1
gene  1 28 210 1.3076794107099845 0 924.0 1.3076794107099845 1
gene  1 210 7 -2.4893641658609225 0 925.0 -2.4893641658609225 1
gene  1 2 28 -0.33186328608806465 0 1318.0 -0.33186328608806465 1
genomeend 10
/* Organism # 011 Fitness:  9.000 Error:  1.000                      */
genomestart  11
trait 1 0.1 0.2954401472863858 0.6962051656588925 0.7740980007128802 0.0 0.9601499573111927 0.0 0.0 
trait 2 0.7476831688323962 0.2589796007649387 0.0 0.7628308545096194 0.0 0.20595313949351224 0.0 0.0 
trait 3 0.3 0.0 0.0 0.0 0.501051688414251 0.16421972382120997 0.0 0.0 
node 1 2 1 1
node 2 2 1 1
node 3 1 1 3
node 4 1 0 2
node 7 1 0 0
node 14 3 0 0
node 17 1 0 0
node 28 1 0 0
node 48 1 0 0
node 83 2 0 0
node 210 1 0 0
node 304 1 0 0
gene  1 1 4 16.25997716087305 0 1.0 16.25997716087305 1
gene  2 2 4 23.922802037131635 0 2.0 23.922802037131635 1
gene  3 3 4 -7.522346344516137 0 3.0 -7.522346344516137 1
gene  1 1 7 2.38682154998668 0 8.0 2.38682154998668 0
gene  1 7 4 -3.0271489927427653 0 9.0 -3.0271489927427653 1
gene  1 1 14 0.6192311629998746 0 27.0 0.6192311629998746 1
gene  1 14 4 0.9605492110404207 0 28.0 0.9605492110404207 1
gene  2 2 17 -3.891245869650321 0 37.0 -3.891245869650321 1
gene  1 17 4 -7.457552360445986 0 38.0 -7.457552360445986 1
gene  2 1 17 -19.37154408711832 0 54.0 -19.37154408711832 1
gene  1 1 28 -1.1717752434615123 0 78.0 -1.1717752434615123 1
gene  1 28 7 -1.244146100511072 0 79.0 -1.244146100511072 0
gene  1 1 48 -2.587093615600794 0 154.0 -2.587093615600794 1
gene  1 48 4 0.8897074776374292 0 155.0 0.8897074776374292 1
gene  3 48 28 4.822990065319784 0 180.0 4.822990065319784 1
gene  1 7 83 1.923010066252342 0 344.0 1.923010066252342 0
gene  1 83 4 -2.3303415142821047 0 345.0 -2.3303415142821047 1
gene  1 14 28 -0.7807475117920812 0 777.0 -0.7807475117920812 1
gene  1 28 210 1.3076794107099845 0 924.0 1.3076794107099845 1
gene  1 210 7 -2.4893641658609225 0 925.0 -2.4893641658609225 1
gene  1 2 28 -0.33186328608806465 0 1318.0 -0.33186328608806465 1
gene  1 7 304 1.0 0 1405.0 0.0 1
gene  1 304 83 1.923010066252342 0 1406.0 0.0 1
genomeend 11
/* Organism # 012 Fitness:  9.000 Error:  1.000                      */
genomestart  12
trait 1 0.1 0.2954401472863858 0.6962051656588925 0.7740980007128802 0.0 0.9601499573111927 0.0 0.0 
trait 2 0.7476831688323962 0.2589796007649387 0.5917904823203218 0.7628308545096194 0.0 0.20595313949351224 0.0 0.0 
trait 3 0.3 0.0 0.0 0.0 0.501051688414251 0.16421972382120997 0.0 0.0 
node 1 2 1 1
node 2 2 1 1
node 3 1 1 3
node 4 1 0 2
node 7 1 0 0
node 14 3 0 0
node 17 1 0 0
node 28 1 0 0
node 48 1 0 0
node 83 2 0 0
node 210 1 0 0
gene  1 1 4 15.741639862935285 0 1.0 15.741639862935285 1
gene  2 2 4 23.81638613274623 0 2.0 23.81638613274623 1
gene  3 3 4 0.3707591237799815 0 3.0 0.3707591237799815 1
gene  1 1 7 2.635629963638615 0 8.0 2.635629963638615 1
gene  1 7 4 0.6647394171010435 0 9.0 0.6647394171010435 1
gene  1 1 14 1.377451448419221 0 27.0 1.377451448419221 1
gene  1 14 4 -0.5934670162176129 0 28.0 -0.5934670162176129 1
gene  2 2 17 -0.41323032921894515 0 37.0 -0.41323032921894515 1
gene  1 17 4 -5.8554207332027035 0 38.0 -5.8554207332027035 1
gene  2 1 17 -17.66846633541763 0 54.0 -17.66846633541763 1
gene  1 1 28 0.9336191518161592 0 78.0 0.9336191518161592 1
gene  1 28 7 -0.8156600384257409 0 79.0 -0.8156600384257409 0
gene  1 1 48 -0.3396823603703081 0 154.0 -0.3396823603703081 1
gene  1 48 4 0.5797401874396237 0 155.0 0.5797401874396237 1
gene  3 48 28 -1.394908657549031 0 180.0 -1.394908657549031 1
gene  1 7 83 0.02023082152436545 0 344.0 0.02023082152436545 1
gene  1 83 4 0.5762742953535596 0 345.0 0.5762742953535596 1
gene  1 14 28 -0.8544610726674335 0 777.0 -0.8544610726674335 1
gene  1 28 210 1.832111827379226 0 924.0 1.832111827379226 1
gene  1 210 7 -2.7026780204553007 0 925.0 -2.7026780204553007 1
gene  1 2 28 -0.18577932390910462 0 1318.0 -0.18577932390910462 1
genomeend 12
/*-------------------------------------------------------------------*/
/* Species # 008         : (size= 004) (AvfFit= 9.000) (Age= 73.000)  */
/*-------------------------------------------------------------------*/
/* Organism # 013 Fitness:  9.000 Error:  1.000                      */
genomestart  13
trait 1 0.38814261839298536 0.0 0.9050006718919018 0.36384170006448224 0.935613007493204 0.0 0.0 0.0 
trait 2 0.0 0.0 0.5929322033646273 0.34465957050889195 0.0 0.0 0.0 0.0 
trait 3 0.3 0.22225896443068605 0.0 0.0 0.0 0.0 0.0 0.0 
node 1 2 1 1
node 2 2 1 1
node 3 1 1 3
node 4 1 0 2
node 7 1 0 0
node 14 1 0 0
node 17 1 0 0
node 26 1 0 0
node 85 1 0 0
node 122 1 0 0
node 138 1 0 0
node 198 1 0 0
node 234 1 0 0
gene  1 1 4 -5.828414439869703 0 1.0 -5.828414439869703 1
gene  2 2 4 -1.2565483197213998 0 2.0 -1.2565483197213998 1
gene  2 3 4 -6.8478224183495 0 3.0 -6.8478224183495 1
gene  1 1 7 1.2535849288889225 0 8.0 1.2535849288889225 1
gene  1 7 4 -5.448618938899035 0 9.0 -5.448618938899035 1
gene  1 1 14 3.671701951829129 0 27.0 3.671701951829129 1
gene  1 14 4 -17.48862206285868 0 28.0 -17.48862206285868 1
gene  2 2 17 8.505031600377576 0 37.0 8.505031600377576 1
gene  2 17 4 19.013252861237792 0 38.0 19.013252861237792 1
gene  3 17 7 -1.9866029664101363 0 58.0 -1.9866029664101363 0
gene  2 2 26 2.627940229078776 0 72.0 2.627940229078776 1
gene  2 26 4 13.04894149632417 0 73.0 13.04894149632417 1
gene  2 1 26 1.0563143695274686 0 173.0 1.0563143695274686 1
gene  2 1 17 -7.469020065361065 0 237.0 -7.469020065361065 0
gene  1 2 7 -3.707608258272356 0 302.0 -3.707608258272356 1
gene  1 2 85 -7.88603539901629 0 352.0 -7.88603539901629 1
gene  3 85 7 0.6402764577221036 0 353.0 0.6402764577221036 1
gene  1 3 85 -7.044716251952986 0 446.0 -7.044716251952986 1
gene  1 17 122 -2.477468774696139 0 547.0 -2.477468774696139 1
gene  3 122 7 1.3672858598671196 0 548.0 1.3672858598671196 1
gene  3 14 122 -1.0470858224905708 0 585.0 -1.0470858224905708 1
gene  1 7 138 -15.531569750272524 0 609.0 -15.531569750272524 1
gene  2 138 4 1.971598991677036 0 610.0 1.971598991677036 1
gene  2 1 198 3.912526093896341 0 873.0 3.912526093896341 1
gene  2 198 17 -6.73842937282544 0 874.0 -6.73842937282544 1
gene  2 2 234 -2.18932757112869 0 1038.0 -2.18932757112869 1
gene  2 234 26 -0.9088382898036449 0 1039.0 -0.9088382898036449 1
gene  2 3 122 -3.0397109134574336 0 1084.0 -3.0397109134574336 1
gene  3 3 7 5.560043158275836 0 1201.0 5.560043158275836 1
gene  3 85 26 -4.310930932371423 0 1263.0 -4.310930932371423 1
gene  2 26 122 0.24133624825522837 0 1289.0 0.24133624825522837 1
genomeend 13
/* Organism # 014 Fitness:  9.000 Error:  1.000                      */
genomestart  14
trait 1 0.6382516416370997 0.9121255290513085 0.9050006718919018 0.0 0.22883041332487108 0.0 0.0 0.0 
trait 2 0.0 0.0 0.5929322033646273 0.34465957050889195 0.0 0.0 0.0 0.0 
trait 3 0.3 0.22225896443068605 0.0 0.0 0.0 0.0 0.0 0.0 
node 1 2 1 1
node 2 2 1 1
node 3 1 1 3
node 4 1 0 2
node 7 1 0 0
node 14 1 0 0
node 17 1 0 0
node 26 1 0 0
node 85 1 0 0
node 122 1 0 0
node 138 1 0 0
node 198 1 0 0
node 234 1 0 0
gene  1 1 4 -5.828414439869703 0 1.0 -5.828414439869703 1
gene  2 2 4 -1.2565483197213998 0 2.0 -1.2565483197213998 1
gene  2 3 4 -6.8478224183495 0 3.0 -6.8478224183495 1
gene  1 1 7 1.2535849288889225 0 8.0 1.2535849288889225 1
gene  1 7 4 -5.448618938899035 0 9.0 -5.448618938899035 1
gene  1 1 14 3.671701951829129 0 27.0 3.671701951829129 1
gene  1 14 4 -17.48862206285868 0 28.0 -17.48862206285868 1
gene  2 2 17 8.505031600377576 0 37.0 8.505031600377576 1
gene  2 17 4 19.013252861237792 0 38.0 19.013252861237792 1
gene  3 17 7 -1.9866029664101363 0 58.0 -1.9866029664101363 0
gene  2 2 26 2.627940229078776 0 72.0 2.627940229078776 1
gene  2 26 4 13.04894149632417 0 73.0 13.04894149632417 1
gene  2 1 26 1.0563143695274686 0 173.0 1.0563143695274686 1
gene  2 1 17 -7.469020065361065 0 237.0 -7.469020065361065 0
gene  1 2 7 -3.707608258272356 0 302.0 -3.707608258272356 1
gene  1 2 85 -7.88603539901629 0 352.0 -7.88603539901629 1
gene  3 85 7 0.6402764577221036 0 353.0 0.6402764577221036 1
gene  1 3 85 -7.044716251952986 0 446.0 -7.044716251952986 1
gene  1 17 122 -2.477468774696139 0 547.0 -2.477468774696139 1
gene  3 122 7 1.3672858598671196 0 548.0 1.3672858598671196 1
gene  3 14 122 -1.0470858224905708 0 585.0 -1.0470858224905708 1
gene  1 7 138 -15.531569750272524 0 609.0 -15.531569750272524 1
gene  2 138 4 1.971598991677036 0 610.0 1.971598991677036 1
gene  2 1 198 3.912526093896341 0 873.0 3.912526093896341 1
gene  1 198 17 -6.73842937282544 0 874.0 -6.73842937282544 1
gene  2 2 234 -2.18932757112869 0 1038.0 -2.18932757112869 1
gene  2 234 26 -0.9088382898036449 0 1039.0 -0.9088382898036449 1
gene  2 3 122 -3.0397109134574336 0 1084.0 -3.0397109134574336 1
gene  3 3 7 5.560043158275836 0 1201.0 5.560043158275836 1
gene  3 85 26 -4.310930932371423 0 1263.0 -4.310930932371423 1
gene  2 26 122 0.24133624825522837 0 1289.0 0.24133624825522837 1
genomeend 14
/* Organism # 015 Fitness:  9.000 Error:  1.000                      */
genomestart  15
trait 1 0.38814261839298536 0.0 0.9050006718919018 0.36384170006448224 0.935613007493204 0.0 0.0 0.0 
trait 2 0.0 0.0 0.5929322033646273 0.34465957050889195 0.0 0.0 0.0 0.0 
trait 3 0.0 0.0 0.3370874857663111 0.0 0.0 0.513913761176381 0.0 0.0 
node 1 2 1 1
node 2 2 1 1
node 3 1 1 3
node 4 1 0 2
node 7 1 0 0
node 14 1 0 0
node 17 1 0 0
node 26 1 0 0
node 85 1 0 0
node 122 1 0 0
node 138 1 0 0
node 198 1 0 0
node 234 1 0 0
gene  1 1 4 -7.788024522353074 0 1.0 -7.788024522353074 1
gene  2 2 4 -1.4628742316843586 0 2.0 -1.4628742316843586 1
gene  2 3 4 -8.941264478473219 0 3.0 -8.941264478473219 1
gene  1 1 7 3.341728149678006 0 8.0 3.341728149678006 1
gene  1 7 4 -6.341648311945147 0 9.0 -6.341648311945147 1
gene  1 1 14 2.852189456580665 0 27.0 2.852189456580665 1
gene  1 14 4 -16.284580328485738 0 28.0 -16.284580328485738 1
gene  2 2 17 7.81226886794229 0 37.0 7.81226886794229 1
gene  2 17 4 20.02653917334533 0 38.0 20.02653917334533 1
gene  3 17 7 -4.298579551419428 0 58.0 -4.298579551419428 1
gene  2 2 26 1.9978434308392117 0 72.0 1.9978434308392117 1
gene  2 26 4 11.709870269752269 0 73.0 11.709870269752269 1
gene  2 1 26 1.4342987232931375 0 173.0 1.4342987232931375 1
gene  2 1 17 -9.282037549023098 0 237.0 -9.282037549023098 0
gene  1 2 7 -3.798291638620642 0 302.0 -3.798291638620642 1
gene  1 2 85 -6.735468503145387 0 352.0 -6.735468503145387 1
gene  3 85 7 -1.0951204421423653 0 353.0 -1.0951204421423653 1
gene  1 3 85 -5.094417001126211 0 446.0 -5.094417001126211 1
gene  1 17 122 -0.44824573921471567 0 547.0 -0.44824573921471567 1
gene  3 122 7 0.5474015064720945 0 548.0 0.5474015064720945 1
gene  3 14 122 -2.2504045022637396 0 585.0 -2.2504045022637396 1
gene  1 7 138 -14.340363824275178 0 609.0 -14.340363824275178 1
gene  2 138 4 2.2043217216195234 0 610.0 2.2043217216195234 1
gene  2 1 198 5.541257430383914 0 873.0 5.541257430383914 1
gene  2 198 17 -4.561088925303245 0 874.0 -4.561088925303245 1
gene  2 2 234 -2.18932757112869 0 1038.0 -2.18932757112869 1
gene  2 234 26 -1.1552392116797627 0 1039.0 -1.1552392116797627 1
gene  2 3 122 -1.2891341116444277 0 1084.0 -1.2891341116444277 1
gene  3 3 7 6.409791384575631 0 1201.0 6.409791384575631 1
gene  3 85 26 1.8975235396365941 0 1263.0 1.8975235396365941 1
gene  2 26 122 2.264087516110847 0 1289.0 2.264087516110847 1
genomeend 15
/* Organism # 016 Fitness:  9.000 Error:  1.000                      */
genomestart  16
trait 1 0.38814261839298536 0.0 0.9050006718919018 0.36384170006448224 0.935613007493204 0.0 0.0 0.0 
trait 2 0.0 0.0 0.5929322033646273 0.34465957050889195 0.0 0.0 0.0 0.0 
trait 3 0.3 0.22225896443068605 0.0 0.0 0.0 0.0 0.0 0.0 
node 1 2 1 1
node 2 2 1 1
node 3 1 1 3
node 4 1 0 2
node 7 1 0 0
node 14 1 0 0
node 17 1 0 0
node 26 1 0 0
node 85 2 0 0
node 122 1 0 0
node 138 1 0 0
node 198 1 0 0
node 234 1 0 0
gene  1 1 4 -5.828414439869703 0 1.0 -5.828414439869703 1
gene  2 2 4 -1.2565483197213998 0 2.0 -1.2565483197213998 1
gene  2 3 4 -6.8478224183495 0 3.0 -6.8478224183495 1
gene  1 1 7 1.2535849288889225 0 8.0 1.2535849288889225 1
gene  1 7 4 -5.448618938899035 0 9.0 -5.448618938899035 1
gene  1 1 14 3.671701951829129 0 27.0 3.671701951829129 1
gene  1 14 4 -17.48862206285868 0 28.0 -17.48862206285868 1
gene  2 2 17 8.505031600377576 0 37.0 8.505031600377576 1
gene  2 17 4 19.013252861237792 0 38.0 19.013252861237792 1
gene  3 17 7 -1.9866029664101363 0 58.0 -1.9866029664101363 0
gene  2 2 26 2.627940229078776 0 72.0 2.627940229078776 1
gene  2 26 4 13.04894149632417 0 73.0 13.04894149632417 1
gene  2 1 26 1.0563143695274686 0 173.0 1.0563143695274686 1
gene  2 1 17 -7.469020065361065 0 237.0 -7.469020065361065 0
gene  1 2 7 -3.707608258272356 0 302.0 -3.707608258272356 1
gene  1 2 85 -7.88603539901629 0 352.0 -7.88603539901629 1
gene  3 85 7 0.6402764577221036 0 353.0 0.6402764577221036 1
gene  1 3 85 -7.044716251952986 0 446.0 -7.044716251952986 1
gene  1 17 122 -2.477468774696139 0 547.0 -2.477468774696139 1
gene  3 122 7 1.3672858598671196 0 548.0 1.3672858598671196 1
gene  3 14 122 -1.0470858224905708 0 585.0 -1.0470858224905708 1
gene  1 7 138 -15.531569750272524 0 609.0 -15.531569750272524 1
gene  2 138 4 1.971598991677036 0 610.0 1.971598991677036 1
gene  2 1 198 3.912526093896341 0 873.0 3.912526093896341 1
gene  2 198 17 -6.73842937282544 0 874.0 -6.73842937282544 1
gene  2 2 234 -2.18932757112869 0 1038.0 -2.18932757112869 1
gene  2 234 26 -0.9088382898036449 0 1039.0 -0.9088382898036449 1
gene  2 3 122 -3.0397109134574336 0 1084.0 -3.0397109134574336 1
gene  3 3 7 5.560043158275836 0 1201.0 5.560043158275836 1
gene  3 85 26 -4.310930932371423 0 1263.0 -4.310930932371423 1
gene  2 26 122 0.24133624825522837 0 1289.0 0.24133624825522837 1
genomeend 16
/*-------------------------------------------------------------------*/
/* Species # 009         : (size= 003) (AvfFit= 4.049) (Age= 73.000)  */
/*-------------------------------------------------------------------*/
/* Organism # 017 Fitness:  4.000 Error:  2.000                      */
genomestart  17
trait 1 0.2035563338502196 0.2072284296513441 0.0 0.0 0.0 0.0 0.0 0.0 
trait 2 0.2 0.0 0.0 0.0 0.0 0.0 0.0 0.0 
trait 3 0.3 0.475715308707353 0.23456319870909614 0.35145865708632473 0.0 0.0 0.0 0.0 
node 1 2 1 1
node 2 2 1 1
node 3 1 1 3
node 4 1 0 2
node 7 2 0 0
node 14 1 0 0
node 26 1 0 0
node 99 1 0 0
node 152 1 0 0
node 223 1 0 0
gene  1 1 4 -0.3545412403212831 0 1.0 -0.3545412403212831 0
gene  2 2 4 -3.6975997315795013 0 2.0 -3.6975997315795013 1
gene  3 3 4 -2.1447354260337983 0 3.0 -2.1447354260337983 1
gene  1 1 7 0.3229008598114347 0 8.0 0.3229008598114347 1
gene  1 7 4 4.382091462776533 0 9.0 4.382091462776533 1
gene  1 1 14 -1.9541602476729496 0 27.0 -1.9541602476729496 1
gene  1 14 4 -2.4347231152112263 0 28.0 -2.4347231152112263 1
gene  1 3 7 6.855857948864104 0 53.0 6.855857948864104 1
gene  2 2 26 1.212260277293344 0 72.0 1.212260277293344 1
gene  2 26 4 17.535097610376965 0 73.0 17.535097610376965 1
gene  1 1 26 10.572695558669004 0 93.0 10.572695558669004 1
gene  1 3 14 13.002144798032237 0 199.0 13.002144798032237 1
gene  1 7 99 2.6562332237883117 0 409.0 2.6562332237883117 1
gene  1 99 4 -7.566856135970243 0 410.0 -7.566856135970243 1
gene  1 2 99 -3.7702276931975636 0 626.0 -3.7702276931975636 1
gene  1 2 152 10.935816608542206 0 664.0 10.935816608542206 1
gene  1 152 99 6.2320375751231385 0 665.0 6.2320375751231385 1
gene  3 14 152 1.158375745624484 0 760.0 1.158375745624484 1
gene  1 99 26 -2.4089007927716137 0 844.0 -2.4089007927716137 1
gene  1 2 223 1.6680846284226083 0 976.0 1.6680846284226083 1
gene  1 223 152 -2.816548339337679 0 977.0 -2.816548339337679 1
gene  1 7 223 1.7818004619948211 0 1210.0 1.7818004619948211 1
gene  2 3 223 -0.5658786265775209 0 1364.0 -0.5658786265775209 1
genomeend 17
/* Organism # 018 Fitness:  4.148 Error:  1.963                      */
genomestart  18
trait 1 0.2035563338502196 0.2072284296513441 0.0 0.0 0.0 0.0 0.0 0.0 
trait 2 0.2 0.0 0.0 0.0 0.0 0.0 0.0 0.0 
trait 3 0.3 0.475715308707353 0.23456319870909614 0.35145865708632473 0.0 0.0 0.0 0.0 
node 1 2 1 1
node 2 2 1 1
node 3 3 1 3
node 4 1 0 2
node 7 2 0 0
node 14 1 0 0
node 26 1 0 0
node 99 1 0 0
node 152 1 0 0
node 223 1 0 0
gene  1 1 4 0.9817901562100142 0 1.0 0.9817901562100142 0
gene  2 2 4 -3.0408221728836375 0 2.0 -3.0408221728836375 1
gene  3 3 4 -13.939343479611908 0 3.0 -13.939343479611908 1
gene  1 1 7 3.125809446329277 0 8.0 3.125809446329277 1
gene  1 7 4 1.232384839141474 0 9.0 1.232384839141474 0
gene  1 1 14 1.062447779928267 0 27.0 1.062447779928267 1
gene  1 14 4 -0.2983493019679244 0 28.0 -0.2983493019679244 1
gene  1 3 7 7.329424898007365 0 53.0 7.329424898007365 1
gene  2 2 26 7.213596160916271 0 72.0 7.213596160916271 1
gene  2 26 4 20.16696934539759 0 73.0 20.16696934539759 1
gene  1 1 26 7.723537752950934 0 93.0 7.723537752950934 1
gene  1 3 14 11.619681290679505 0 199.0 11.619681290679505 1
gene  1 7 99 3.6781788960931325 0 409.0 3.6781788960931325 1
gene  1 99 4 -6.592609751963052 0 410.0 -6.592609751963052 1
gene  1 2 99 -5.656949318973361 0 626.0 -5.656949318973361 0
gene  1 2 152 9.015867285739647 0 664.0 9.015867285739647 1
gene  1 152 99 3.9046170156434137 0 665.0 3.9046170156434137 1
gene  3 14 152 2.4075091061095137 0 760.0 2.4075091061095137 1
gene  1 99 26 -3.8391412502328586 0 844.0 -3.8391412502328586 1
gene  1 2 223 1.593232227918866 0 976.0 1.593232227918866 1
gene  1 223 152 -2.816548339337679 0 977.0 -2.816548339337679 1
gene  1 7 223 3.148835355804339 0 1210.0 3.148835355804339 1
gene  2 3 223 9.937048060674515 0 1364.0 9.937048060674515 1
genomeend 18
/* Organism # 019 Fitness:  4.000 Error:  2.000                      */
genomestart  19
trait 1 0.2035563338502196 0.2072284296513441 0.0 0.0 0.0 0.0 0.0 0.0 
trait 2 0.2 0.0 0.0 0.0 0.0 0.0 0.0 0.0 
trait 3 0.3 0.475715308707353 0.23456319870909614 0.35145865708632473 0.0 0.0 0.0 0.0 
node 1 2 1 1
node 2 2 1 1
node 3 3 1 3
node 4 1 0 2
node 7 2 0 0
node 14 1 0 0
node 26 1 0 0
node 99 1 0 0
node 152 1 0 0
node 223 1 0 0
gene  1 1 4 -2.360236061955394 0 1.0 -2.360236061955394 0
gene  2 2 4 -2.8068801063093503 0 2.0 -2.8068801063093503 1
gene  3 3 4 -10.246950363841346 0 3.0 -10.246950363841346 1
gene  1 1 7 2.0323814877955524 0 8.0 2.0323814877955524 1
gene  1 7 4 1.548032045043924 0 9.0 1.548032045043924 0
gene  1 1 14 2.284629566985935 0 27.0 2.284629566985935 1
gene  1 14 4 -0.34840154589907013 0 28.0 -0.34840154589907013 1
gene  1 3 7 8.201456333606124 0 53.0 8.201456333606124 1
gene  2 2 26 7.133926836934023 0 72.0 7.133926836934023 1
gene  2 26 4 18.887644795523528 0 73.0 18.887644795523528 1
gene  1 1 26 10.034981043287129 0 93.0 10.034981043287129 1
gene  1 3 14 9.765777667728976 0 199.0 9.765777667728976 1
gene  1 7 99 1.0815770166263268 0 409.0 1.0815770166263268 1
gene  1 99 4 -10.708870828209157 0 410.0 -10.708870828209157 1
gene  1 2 99 -3.0777938677525554 0 626.0 -3.0777938677525554 0
gene  1 2 152 6.80344415021825 0 664.0 6.80344415021825 1
gene  1 152 99 4.918721007786075 0 665.0 4.918721007786075 1
gene  3 14 152 2.579875846287398 0 760.0 2.579875846287398 1
gene  1 99 26 -2.6989525106657566 0 844.0 -2.6989525106657566 1
gene  1 2 223 -3.658565583458932 0 976.0 -3.658565583458932 1
gene  1 223 152 -2.816548339337679 0 977.0 -2.816548339337679 1
gene  1 7 223 2.571316769557265 0 1210.0 2.571316769557265 1
gene  2 3 223 7.984822073271699 0 1364.0 7.984822073271699 1
genomeend 19
/*-------------------------------------------------------------------*/
/* Species # 010         : (size= 004) (AvfFit= 5.520) (Age= 72.000)  */
/*-------------------------------------------------------------------*/
/* Organism # 020 Fitness:  4.000 Error:  2.000                      */
genomestart  20
trait 1 0.4266621292976458 0.397693221678857 0.0 0.0 0.0 0.8650077948916453 0.0 0.0 
trait 2 0.2 0.0 0.1885750971657665 0.0 0.0 0.0 0.0 0.016297946705203927 
trait 3 0.4412592127680745 1.3427857116657835 0.0 1.6102681352883188 0.17433833633725282 0.33039620041437434 0.16262155870156947 0.7042283741126938 
node 1 1 1 1
node 2 1 1 1
node 3 2 1 3
node 4 1 0 2
node 7 2 0 0
node 11 1 0 0
node 31 2 0 0
node 200 1 0 0
gene  1 1 4 -1.3651131371184075 0 1.0 -1.3651131371184075 1
gene  2 2 4 -0.9926537123423627 0 2.0 -0.9926537123423627 1
gene  3 3 4 -5.024469500537067 0 3.0 -5.024469500537067 1
gene  2 1 7 -0.05906483569892562 0 8.0 -0.05906483569892562 1
gene  1 7 4 -0.2924359895457085 0 9.0 -0.2924359895457085 1
gene  2 2 11 1.441311466160783 0 19.0 1.441311466160783 1
gene  2 11 4 30.37628608576958 0 20.0 30.37628608576958 1
gene  1 3 11 -0.877575996224806 0 60.0 -0.877575996224806 1
gene  3 1 31 0.29361996731112255 0 88.0 0.29361996731112255 1
gene  1 31 7 -3.2953019175424396 0 89.0 -3.2953019175424396 1
gene  1 1 11 -7.311449821710596 0 118.0 -7.311449821710596 1
gene  1 31 11 -2.3451855725698896 0 156.0 -2.3451855725698896 1
gene  3 2 31 0.040325259899891275 0 212.0 0.040325259899891275 1
gene  3 11 7 8.215809495141404 0 323.0 8.215809495141404 1
gene  3 31 4 -0.7150228556680918 0 679.0 -0.7150228556680918 1
gene  1 2 7 1.9800226881861003 0 804.0 1.9800226881861003 1
gene  1 1 200 -1.5657742520179616 0 885.0 -1.5657742520179616 1
gene  2 200 31 0.10518063376074105 0 886.0 0.10518063376074105 1
gene  1 3 31 0.44798435076860543 0 988.0 0.44798435076860543 1
gene  3 3 7 3.389000240658008 0 1201.0 3.389000240658008 1
genomeend 20
/* Organism # 021 Fitness:  8.972 Error:  1.005                      */
genomestart  21
trait 1 0.4266621292976458 0.397693221678857 0.0 0.0 0.0 0.8650077948916453 0.0 0.0 
trait 2 0.2 0.0 0.1885750971657665 0.0 0.0 0.0 0.0 0.016297946705203927 
trait 3 0.4412592127680745 1.3427857116657835 0.0 1.6102681352883188 0.17433833633725282 0.33039620041437434 0.16262155870156947 0.7042283741126938 
node 1 1 1 1
node 2 1 1 1
node 3 1 1 3
node 4 1 0 2
node 7 2 0 0
node 11 1 0 0
node 31 2 0 0
node 200 1 0 0
gene  1 1 4 -0.9727726861544933 0 1.0 -0.9727726861544933 1
gene  2 2 4 0.04439151735222935 0 2.0 0.04439151735222935 1
gene  3 3 4 -2.8287458574219624 0 3.0 -2.8287458574219624 1
gene  2 1 7 -2.2579082620460786 0 8.0 -2.2579082620460786 1
gene  1 7 4 1.739058153983818 0 9.0 1.739058153983818 1
gene  2 2 11 3.090180827676292 0 19.0 3.090180827676292 1
gene  2 11 4 28.992577116237264 0 20.0 28.992577116237264 1
gene  1 3 11 -1.6311152085404832 0 60.0 -1.6311152085404832 1
gene  3 1 31 4.871164486885568 0 88.0 4.871164486885568 1
gene  1 31 7 -0.6026014765438334 0 89.0 -0.6026014765438334 1
gene  1 1 11 -7.341670316510717 0 118.0 -7.341670316510717 1
gene  1 31 11 -2.2703933297496484 0 156.0 -2.2703933297496484 1
gene  3 2 31 0.2769861753225742 0 212.0 0.2769861753225742 1
gene  3 11 7 6.198999967275562 0 323.0 6.198999967275562 1
gene  3 31 4 -1.056454431025649 0 679.0 -1.056454431025649 1
gene  1 2 7 -0.8470226574834155 0 804.0 -0.8470226574834155 1
gene  1 1 200 -0.7118482304942555 0 885.0 -0.7118482304942555 1
gene  2 200 31 -3.4343459664358433 0 886.0 -3.4343459664358433 1
gene  1 3 31 0.7638183572296606 0 988.0 0.7638183572296606 1
gene  3 3 7 3.4671704996254062 0 1201.0 3.4671704996254062 1
genomeend 21
/* Organism # 022 Fitness:  5.107 Error:  1.740                      */
genomestart  22
trait 1 0.4266621292976458 0.397693221678857 0.0 0.0 0.0 0.8650077948916453 0.0 0.0 
trait 2 0.2 0.0 0.1885750971657665 0.0 0.0 0.0 0.0 0.016297946705203927 
trait 3 0.4412592127680745 1.3427857116657835 0.0 1.6102681352883188 0.17433833633725282 0.33039620041437434 0.16262155870156947 0.7042283741126938 
node 1 1 1 1
node 2 1 1 1
node 3 1 1 3
node 4 1 0 2
node 7 2 0 0
node 11 1 0 0
node 31 2 0 0
node 200 1 0 0
gene  1 1 4 -2.6268900849594274 0 1.0 -2.6268900849594274 1
gene  2 2 4 -0.9343354210675816 0 2.0 -0.9343354210675816 1
gene  3 3 4 1.8170377150200285 0 3.0 1.8170377150200285 1
gene  2 1 7 -0.15437947781405525 0 8.0 -0.15437947781405525 1
gene  1 7 4 -0.055364264263220275 0 9.0 -0.055364264263220275 1
gene  2 2 11 1.2249985259831484 0 19.0 1.2249985259831484 1
gene  2 11 4 30.727712306424063 0 20.0 30.727712306424063 1
gene  1 3 11 -1.3821966247997 0 60.0 -1.3821966247997 1
gene  3 1 31 1.9049100464080642 0 88.0 1.9049100464080642 1
gene  1 31 7 -1.7982303967356192 0 89.0 -1.7982303967356192 1
gene  1 1 11 -9.517193636938009 0 118.0 -9.517193636938009 1
gene  1 31 11 -0.510990279847608 0 156.0 -0.510990279847608 1
gene  3 2 31 -0.04169231814676966 0 212.0 -0.04169231814676966 1
gene  3 11 7 8.215809495141404 0 323.0 8.215809495141404 1
gene  3 31 4 -2.0166866581205665 0 679.0 -2.0166866581205665 1
gene  1 2 7 4.253949423825433 0 804.0 4.253949423825433 1
gene  1 1 200 1.8242654715527806 0 885.0 1.8242654715527806 1
gene  2 200 31 -1.330923157766601 0 886.0 -1.330923157766601 1
gene  1 3 31 1.3880148387571336 0 988.0 1.3880148387571336 1
gene  3 3 7 -1.7359406137513778 0 1201.0 -1.7359406137513778 1
genomeend 22
/* Organism # 023 Fitness:  4.000 Error:  2.000                      */
genomestart  23
trait 1 0.4266621292976458 0.397693221678857 0.0 0.0 0.0 0.8650077948916453 0.0 0.0 
trait 2 0.2 0.0 0.1885750971657665 0.0 0.0 0.0 0.0 0.016297946705203927 
trait 3 0.4412592127680745 1.3427857116657835 0.0 1.6102681352883188 0.17433833633725282 0.33039620041437434 0.16262155870156947 0.7042283741126938 
node 1 1 1 1
node 2 1 1 1
node 3 1 1 3
node 4 1 0 2
node 7 2 0 0
node 11 1 0 0
node 31 2 0 0
node 200 1 0 0
node 307 1 0 0
gene  1 1 4 -0.8825819002737179 0 1.0 -0.8825819002737179 1
gene  2 2 4 -0.9926537123423627 0 2.0 -0.9926537123423627 1
gene  3 3 4 -5.024469500537067 0 3.0 -5.024469500537067 1
gene  2 1 7 -1.9103713613701134 0 8.0 -1.9103713613701134 1
gene  1 7 4 0.7165980184556779 0 9.0 0.7165980184556779 1
gene  2 2 11 3.342114951667924 0 19.0 3.342114951667924 1
gene  2 11 4 28.921829005494757 0 20.0 28.921829005494757 0
gene  1 3 11 -1.6311152085404832 0 60.0 -1.6311152085404832 1
gene  3 1 31 6.5880033737475845 0 88.0 6.5880033737475845 1
gene  1 31 7 -1.5073614665190027 0 89.0 -1.5073614665190027 1
gene  1 1 11 -8.674157763403707 0 118.0 -8.674157763403707 1
gene  1 31 11 -1.5487745123550825 0 156.0 -1.5487745123550825 1
gene  3 2 31 -2.185633092984579 0 212.0 -2.185633092984579 1
gene  3 11 7 8.215809495141404 0 323.0 8.215809495141404 1
gene  3 31 4 -1.1621128412428263 0 679.0 -1.1621128412428263 1
gene  1 2 7 3.612415921325246 0 804.0 3.612415921325246 1
gene  1 1 200 -0.23765384056926936 0 885.0 -0.23765384056926936 1
gene  2 200 31 -1.8536379074495843 0 886.0 -1.8536379074495843 1
gene  1 3 31 1.5554978068137044 0 988.0 1.5554978068137044 1
gene  3 3 7 2.665343595985182 0 1201.0 2.665343595985182 1
gene  2 11 307 1.0 0 1415.0 0.0 1
gene  2 307 4 28.921829005494757 0 1416.0 0.0 1
genomeend 23
/*-------------------------------------------------------------------*/
/* Species # 011         : (size= 005) (AvfFit= 8.000) (Age= 71.000)  */
/*-------------------------------------------------------------------*/
/* Organism # 024 Fitness:  9.000 Error:  1.000                      */
genomestart  24
trait 1 0.1 0.40076632396076184 0.0 0.0 0.055398074479255544 0.0 0.0 0.0 
trait 2 0.09375 0.38009042412031013 0.0 0.03312654059381397 0.0 0.35037266087219354 0.0 0.0 
trait 3 0.0 0.0 0.0 0.0 0.0 0.0838653972717951 0.0 0.637700790388616 
node 1 1 1 1
node 2 2 1 1
node 3 1 1 3
node 4 1 0 2
node 7 2 0 0
node 14 1 0 0
node 34 1 0 0
node 39 1 0 0
node 197 1 0 0
node 258 1 0 0
gene  1 1 4 9.775224203844562 0 1.0 9.775224203844562 1
gene  2 2 4 0.9294383737630012 0 2.0 0.9294383737630012 1
gene  3 3 4 -1.3005204373349581 0 3.0 -1.3005204373349581 1
gene  1 1 7 9.53962910637295 0 8.0 9.53962910637295 1
gene  1 7 4 -5.105542007275449 0 9.0 -5.105542007275449 1
gene  1 1 14 3.7608222463611387 0 27.0 3.7608222463611387 1
gene  1 14 4 0.11552590529983409 0 28.0 0.11552590529983409 1
gene  2 2 34 2.816486821228268 0 97.0 2.816486821228268 1
gene  3 34 4 8.714576920095809 0 98.0 8.714576920095809 1
gene  1 7 39 5.330135362948209 0 121.0 5.330135362948209 1
gene  1 39 4 -0.9396990747188272 0 122.0 -0.9396990747188272 1
gene  2 14 39 0.700127683738939 0 262.0 0.700127683738939 1
gene  3 1 34 0.4386482074766038 0 805.0 0.4386482074766038 1
gene  3 1 197 7.91886353427988 0 870.0 7.91886353427988 1
gene  1 197 4 5.398984465197646 0 871.0 5.398984465197646 1
gene  3 39 34 2.2050899679776466 0 983.0 2.2050899679776466 1
gene  1 197 7 1.4839185431419357 0 1147.0 1.4839185431419357 1
gene  2 2 258 -0.04572840988212146 0 1167.0 -0.04572840988212146 1
gene  2 258 4 -9.430306432620661E-4 0 1168.0 -9.430306432620661E-4 1
gene  1 258 39 -1.555577971455184 0 1242.0 -1.555577971455184 1
gene  3 3 34 -4.559634451689492 0 1283.0 -4.559634451689492 1
gene  3 2 39 -0.8252351368961641 0 1419.0 -0.8252351368961641 1
genomeend 24
/* Organism # 025 Fitness:  9.000 Error:  1.000                      */
genomestart  25
trait 1 0.1 0.40076632396076184 0.0 0.0 0.055398074479255544 0.0 0.0 0.0 
trait 2 0.09375 0.38009042412031013 0.0 0.03312654059381397 0.0 0.35037266087219354 0.0 0.0 
trait 3 0.0 0.0 0.0 0.0 0.0 0.0838653972717951 0.0 0.637700790388616 
node 1 1 1 1
node 2 2 1 1
node 3 1 1 3
node 4 1 0 2
node 7 2 0 0
node 14 1 0 0
node 34 1 0 0
node 39 1 0 0
node 197 1 0 0
node 258 1 0 0
gene  1 1 4 9.501728872953683 0 1.0 9.501728872953683 1
gene  2 2 4 -0.7588660094440267 0 2.0 -0.7588660094440267 1
gene  3 3 4 -0.9131826178372733 0 3.0 -0.9131826178372733 1
gene  1 1 7 -2.150131982681229 0 8.0 -2.150131982681229 1
gene  1 7 4 -3.8016339211324963 0 9.0 -3.8016339211324963 1
gene  1 1 14 5.133529701217844 0 27.0 5.133529701217844 1
gene  1 14 4 0.11552590529983409 0 28.0 0.11552590529983409 1
gene  2 2 34 3.4443180174085963 0 97.0 3.4443180174085963 1
gene  3 34 4 8.409373822750716 0 98.0 8.409373822750716 1
gene  1 7 39 3.3442149909615093 0 121.0 3.3442149909615093 1
gene  1 39 4 -1.2482488005664232 0 122.0 -1.2482488005664232 1
gene  2 14 39 -0.24026187489700168 0 262.0 -0.24026187489700168 1
gene  3 1 34 2.2930176620150595 0 805.0 2.2930176620150595 1
gene  3 1 197 6.146465379306084 0 870.0 6.146465379306084 1
gene  1 197 4 6.306240129988874 0 871.0 6.306240129988874 1
gene  3 39 34 2.2050899679776466 0 983.0 2.2050899679776466 1
gene  1 197 7 1.4839185431419357 0 1147.0 1.4839185431419357 1
gene  2 2 258 1.909076536114163 0 1167.0 1.909076536114163 1
gene  2 258 4 -2.0537190567003574 0 1168.0 -2.0537190567003574 1
gene  1 258 39 -1.050453582117365 0 1242.0 -1.050453582117365 1
gene  3 3 34 -3.6680273634916443 0 1283.0 -3.6680273634916443 1
genomeend 25
/* Organism # 026 Fitness:  9.000 Error:  1.000                      */
genomestart  26
trait 1 0.1 0.40076632396076184 0.0 0.0 0.055398074479255544 0.0 0.0 0.0 
trait 2 0.09375 0.38009042412031013 0.0 0.03312654059381397 0.0 0.35037266087219354 0.0 0.0 
trait 3 0.0 0.0 0.0 0.0 0.0 0.0838653972717951 0.0 0.637700790388616 
node 1 1 1 1
node 2 2 1 1
node 3 1 1 3
node 4 1 0 2
node 7 2 0 0
node 14 1 0 0
node 34 1 0 0
node 39 1 0 0
node 197 1 0 0
node 258 1 0 0
gene  1 1 4 12.167586270630652 0 1.0 12.167586270630652 1
gene  2 2 4 -1.0849846807863197 0 2.0 -1.0849846807863197 1
gene  3 3 4 -0.03976741888009383 0 3.0 -0.03976741888009383 1
gene  1 1 7 9.600486159756757 0 8.0 9.600486159756757 1
gene  1 7 4 -6.4216849287928355 0 9.0 -6.4216849287928355 1
gene  1 1 14 5.537929695276218 0 27.0 5.537929695276218 1
gene  1 14 4 2.1953685974454085 0 28.0 2.1953685974454085 1
gene  2 2 34 4.839601896053624 0 97.0 4.839601896053624 1
gene  3 34 4 10.161948437762504 0 98.0 10.161948437762504 1
gene  1 7 39 6.0573081657116 0 121.0 6.0573081657116 1
gene  1 39 4 -2.746518599372572 0 122.0 -2.746518599372572 1
gene  2 14 39 0.25138402760440276 0 262.0 0.25138402760440276 1
gene  3 1 34 0.9951295147520185 0 805.0 0.9951295147520185 1
gene  3 1 197 7.69458867889479 0 870.0 7.69458867889479 1
gene  1 197 4 5.644915888965696 0 871.0 5.644915888965696 1
gene  3 39 34 2.964408426597951 0 983.0 2.964408426597951 1
gene  1 197 7 3.0646434406737812 0 1147.0 3.0646434406737812 1
gene  2 2 258 0.7563590784724376 0 1167.0 0.7563590784724376 1
gene  2 258 4 -9.430306432620661E-4 0 1168.0 -9.430306432620661E-4 1
gene  1 258 39 -1.404204115044213 0 1242.0 -1.404204115044213 1
gene  3 3 34 -4.559634451689492 0 1283.0 -4.559634451689492 1
genomeend 26
/* Organism # 027 Fitness:  9.000 Error:  1.000                      */
genomestart  27
trait 1 0.1 0.40076632396076184 0.0 0.0 0.055398074479255544 0.0 0.0 0.0 
trait 2 0.09375 0.38009042412031013 0.0 0.03312654059381397 0.0 0.35037266087219354 0.0 0.0 
trait 3 0.0 0.0 0.0 0.0 0.0 0.0838653972717951 0.0 0.637700790388616 
node 1 1 1 1
node 2 2 1 1
node 3 1 1 3
node 4 1 0 2
node 7 2 0 0
node 14 1 0 0
node 34 1 0 0
node 39 1 0 0
node 197 1 0 0
node 258 1 0 0
gene  1 1 4 9.775224203844562 0 1.0 9.775224203844562 1
gene  2 2 4 0.9294383737630012 0 2.0 0.9294383737630012 1
gene  3 3 4 -1.3005204373349581 0 3.0 -1.3005204373349581 1
gene  1 1 7 9.53962910637295 0 8.0 9.53962910637295 1
gene  1 7 4 -5.105542007275449 0 9.0 -5.105542007275449 1
gene  1 1 14 3.7608222463611387 0 27.0 3.7608222463611387 1
gene  1 14 4 0.11552590529983409 0 28.0 0.11552590529983409 1
gene  2 2 34 2.816486821228268 0 97.0 2.816486821228268 1
gene  3 34 4 8.714576920095809 0 98.0 8.714576920095809 1
gene  1 7 39 5.330135362948209 0 121.0 5.330135362948209 1
gene  1 39 4 -0.9396990747188272 0 122.0 -0.9396990747188272 1
gene  2 14 39 0.700127683738939 0 262.0 0.700127683738939 1
gene  3 1 34 0.4386482074766038 0 805.0 0.4386482074766038 1
gene  3 1 197 7.91886353427988 0 870.0 7.91886353427988 1
gene  1 197 4 5.398984465197646 0 871.0 5.398984465197646 1
gene  3 39 34 2.2050899679776466 0 983.0 2.2050899679776466 1
gene  1 197 7 1.4839185431419357 0 1147.0 1.4839185431419357 1
gene  2 2 258 -0.04572840988212146 0 1167.0 -0.04572840988212146 1
gene  2 258 4 -9.430306432620661E-4 0 1168.0 -9.430306432620661E-4 1
gene  1 258 39 -1.555577971455184 0 1242.0 -1.555577971455184 1
gene  3 3 34 -4.559634451689492 0 1283.0 -4.559634451689492 1
genomeend 27
/* Organism # 028 Fitness:  4.000 Error:  2.000                      */
genomestart  28
trait 1 0.1 0.40076632396076184 0.0 0.0 0.055398074479255544 0.0 0.0 0.0 
trait 2 0.09375 0.38009042412031013 0.0 0.03312654059381397 0.0 0.35037266087219354 0.0 0.0 
trait 3 0.0 0.0 0.0 0.0 0.0 0.0838653972717951 0.0 0.637700790388616 
node 1 2 1 1
node 2 2 1 1
node 3 1 1 3
node 4 1 0 2
node 7 2 0 0
node 14 1 0 0
node 34 1 0 0
node 39 1 0 0
node 197 1 0 0
node 258 1 0 0
gene  1 1 4 0.6667589486104932 0 1.0 0.6667589486104932 1
gene  2 2 4 -0.09708033645664776 0 2.0 -0.09708033645664776 1
gene  3 3 4 -1.3927094022047215 0 3.0 -1.3927094022047215 1
gene  1 1 7 11.07032403505141 0 8.0 11.07032403505141 1
gene  1 7 4 -5.105542007275449 0 9.0 -5.105542007275449 1
gene  1 1 14 0.8146961352386142 0 27.0 0.8146961352386142 1
gene  1 14 4 1.0896028782315663 0 28.0 1.0896028782315663 1
gene  2 2 34 2.4014339302569785 0 97.0 2.4014339302569785 1
gene  3 34 4 7.643120031454925 0 98.0 7.643120031454925 1
gene  1 7 39 5.402776816996378 0 121.0 5.402776816996378 1
gene  1 39 4 -0.7982004474437415 0 122.0 -0.7982004474437415 1
gene  2 14 39 1.4127143177686874 0 262.0 1.4127143177686874 1
gene  3 1 34 0.5490398703580688 0 805.0 0.5490398703580688 1
gene  3 1 197 9.341491263546283 0 870.0 9.341491263546283 1
gene  1 197 4 5.959491459778627 0 871.0 5.959491459778627 1
gene  3 39 34 3.9486314405103156 0 983.0 3.9486314405103156 1
gene  1 197 7 3.464242066060285 0 1147.0 3.464242066060285 1
gene  2 2 258 -0.04572840988212146 0 1167.0 -0.04572840988212146 1
gene  2 258 4 0.03132989382131074 0 1168.0 0.03132989382131074 1
gene  1 258 39 0.7393148000004317 0 1242.0 0.7393148000004317 1
gene  3 3 34 -2.352634921048402 0 1283.0 -2.352634921048402 1
genomeend 28
/*-------------------------------------------------------------------*/
/* Species # 014         : (size= 003) (AvfFit= 3.001) (Age= 69.000)  */
/*-------------------------------------------------------------------*/
/* Organism # 029 Fitness:  4.000 Error:  2.000                      */
genomestart  29
trait 1 0.1 0.0 0.0 0.0 0.055398074479255544 0.0 0.0 0.12192827250494745 
trait 2 1.6328207075195795 0.8740034532330729 0.0 0.05276591096484689 0.0 0.0 1.1117385883457818 0.0 
trait 3 0.7052654546411021 0.0 0.0 0.0 0.2706470845522379 0.1194839237839806 0.0 0.0 
node 1 2 1 1
node 2 2 1 1
node 3 3 1 3
node 4 1 0 2
node 7 1 0 0
node 14 1 0 0
node 34 1 0 0
gene  1 1 4 8.83689052701831 0 1.0 8.83689052701831 1
gene  2 2 4 -0.36327292842672976 0 2.0 -0.36327292842672976 1
gene  3 3 4 -6.477472917072329 0 3.0 -6.477472917072329 1
gene  1 1 7 1.7731589221651196 0 8.0 1.7731589221651196 1
gene  1 7 4 0.2839802963443341 0 9.0 0.2839802963443341 1
gene  3 1 14 2.393735340024711 0 27.0 2.393735340024711 1
gene  1 14 4 -3.8151329993551153 0 28.0 -3.8151329993551153 1
gene  2 2 34 16.452649997667717 0 97.0 16.452649997667717 1
gene  2 34 4 4.859227816396055 0 98.0 4.859227816396055 1
gene  1 2 7 -2.5829540716298673 0 302.0 -2.5829540716298673 1
gene  3 14 7 -0.40968692589085487 0 445.0 -0.40968692589085487 1
gene  1 2 14 -2.1420320805466386 0 646.0 -2.1420320805466386 1
gene  3 1 34 4.060578179311778 0 685.0 4.060578179311778 1
gene  2 7 34 -0.07862548130833824 0 707.0 -0.07862548130833824 1
gene  1 3 7 2.1123941712254606 0 799.0 2.1123941712254606 1
gene  2 3 14 -2.18198296151268 0 900.0 -2.18198296151268 1
genomeend 29
/* Organism # 030 Fitness:  4.004 Error:  1.999                      */
genomestart  30
trait 1 0.1 0.0 0.0 0.0 0.055398074479255544 0.0 0.0 0.12192827250494745 
trait 2 1.6328207075195795 0.8740034532330729 0.0 0.05276591096484689 0.0 0.0 1.1117385883457818 0.0 
trait 3 0.7052654546411021 0.0 0.0 0.0 0.2706470845522379 0.1194839237839806 0.0 0.0 
node 1 2 1 1
node 2 2 1 1
node 3 3 1 3
node 4 1 0 2
node 7 1 0 0
node 14 1 0 0
node 34 1 0 0
gene  1 1 4 8.17311801045107 0 1.0 8.17311801045107 1
gene  2 2 4 0.9134107448987272 0 2.0 0.9134107448987272 1
gene  3 3 4 -5.886044895342263 0 3.0 -5.886044895342263 1
gene  1 1 7 1.0216189205425312 0 8.0 1.0216189205425312 1
gene  1 7 4 -0.30272916337423994 0 9.0 -0.30272916337423994 1
gene  3 1 14 3.570406949670665 0 27.0 3.570406949670665 1
gene  1 14 4 -4.64675493407219 0 28.0 -4.64675493407219 1
gene  2 2 34 15.614143808435132 0 97.0 15.614143808435132 1
gene  2 34 4 7.208074871038647 0 98.0 7.208074871038647 1
gene  1 2 7 -0.8473119044471491 0 302.0 -0.8473119044471491 1
gene  3 14 7 0.8713426274102529 0 445.0 0.8713426274102529 1
gene  1 2 14 -3.2082701749563123 0 646.0 -3.2082701749563123 1
gene  3 1 34 3.4351119018669953 0 685.0 3.4351119018669953 1
gene  2 7 34 -2.4879815513165973 0 707.0 -2.4879815513165973 1
gene  1 3 7 0.2557846550905457 0 799.0 0.2557846550905457 1
gene  2 3 14 -0.8280514249648021 0 900.0 -0.8280514249648021 1
gene  1 3 34 -1.2665739176414526 0 1424.0 -1.2665739176414526 1
genomeend 30
/* Organism # 031 Fitness:  1.000 Error:  3.000                      */
genomestart  31
trait 1 0.1 0.0 0.0 0.0 0.055398074479255544 0.0 0.0 0.12192827250494745 
trait 2 1.6328207075195795 0.8740034532330729 0.0 0.05276591096484689 0.0 0.0 1.1117385883457818 0.0 
trait 3 0.7052654546411021 0.0 0.0 0.0 0.2706470845522379 0.1194839237839806 0.0 0.0 
node 1 2 1 1
node 2 2 1 1
node 3 3 1 3
node 4 1 0 2
node 7 1 0 0
node 14 1 0 0
node 34 1 0 0
gene  1 1 4 8.2665290182038 0 1.0 8.2665290182038 1
gene  2 2 4 -1.3873638956881613 0 2.0 -1.3873638956881613 1
gene  3 3 4 -7.512757026529668 0 3.0 -7.512757026529668 1
gene  1 1 7 2.60926833676241 0 8.0 2.60926833676241 1
gene  1 7 4 -2.309662512277087 0 9.0 -2.309662512277087 1
gene  3 1 14 3.926257447041138 0 27.0 3.926257447041138 1
gene  1 14 4 -2.934564606998113 0 28.0 -2.934564606998113 1
gene  2 2 34 17.866995523454925 0 97.0 17.866995523454925 1
gene  2 34 4 6.056079576500439 0 98.0 6.056079576500439 1
gene  1 2 7 1.2102237119543693 0 302.0 1.2102237119543693 1
gene  3 14 7 -0.527242618622024 0 445.0 -0.527242618622024 1
gene  1 2 14 -2.4568756204439004 0 646.0 -2.4568756204439004 1
gene  3 1 34 1.0217608969953629 0 685.0 1.0217608969953629 1
gene  2 7 34 -4.806848448296888 0 707.0 -4.806848448296888 1
gene  1 3 7 1.1438278649991531 0 799.0 1.1438278649991531 1
gene  2 3 14 -1.7467053713764344 0 900.0 -1.7467053713764344 1
genomeend 31
/*-------------------------------------------------------------------*/
/* Species # 016         : (size= 002) (AvfFit= 4.006) (Age= 68.000)  */
/*-------------------------------------------------------------------*/
/* Organism # 032 Fitness:  4.000 Error:  2.000                      */
genomestart  32
trait 1 0.9743436504516108 0.0 0.45628336708804174 0.877781725578126 0.817304365886059 0.0 0.24564162156015712 0.1249788105771058 
trait 2 0.2 0.0 0.0 0.0 0.0 0.0 0.0 0.009840269708802371 
trait 3 0.3 0.0 0.0 0.0 0.0 0.0 0.0 0.0 
node 1 1 1 1
node 2 1 1 1
node 3 1 1 3
node 4 3 0 2
node 7 2 0 0
node 11 2 0 0
node 47 2 0 0
node 187 1 0 0
gene  1 1 4 -1.885772601814152 0 1.0 -1.885772601814152 1
gene  2 2 4 -2.4551250426132816 0 2.0 -2.4551250426132816 0
gene  3 3 4 0.6719086930729529 0 3.0 0.6719086930729529 1
gene  2 1 7 9.934960288655 0 8.0 9.934960288655 0
gene  3 7 4 0.27362489153694014 0 9.0 0.27362489153694014 1
gene  2 2 11 1.5391367310057713 0 19.0 1.5391367310057713 1
gene  1 11 4 1.7927739440846755 0 20.0 1.7927739440846755 1
gene  1 3 11 -4.600194590066156 0 60.0 -4.600194590066156 1
gene  2 7 11 2.0283105905554772 0 116.0 2.0283105905554772 1
gene  1 1 47 2.43198137311762 0 151.0 2.43198137311762 1
gene  1 47 7 2.497880758724057 0 152.0 2.497880758724057 1
gene  3 47 11 3.8994865266281233 0 429.0 3.8994865266281233 1
gene  1 47 4 3.7996579745487193 0 527.0 3.7996579745487193 1
gene  3 2 47 1.2778724455162214 0 565.0 1.2778724455162214 1
gene  2 2 7 4.505950680239125 0 708.0 4.505950680239125 1
gene  3 47 187 -0.18165257282996894 0 824.0 -0.18165257282996894 1
gene  3 187 11 0.30813561960946534 0 825.0 0.30813561960946534 1
gene  3 187 4 0.5772646964028745 0 1052.0 0.5772646964028745 1
genomeend 32
/* Organism # 033 Fitness:  4.012 Error:  1.997                      */
genomestart  33
trait 1 0.9743436504516108 0.0 0.45628336708804174 0.877781725578126 0.817304365886059 0.0 0.24564162156015712 0.1249788105771058 
trait 2 0.2 0.0 0.0 0.0 0.0 0.0 0.0 0.009840269708802371 
trait 3 0.3 0.0 0.0 0.0 0.0 0.0 0.0 0.0 
node 1 1 1 1
node 2 3 1 1
node 3 1 1 3
node 4 3 0 2
node 7 2 0 0
node 11 2 0 0
node 47 2 0 0
node 187 1 0 0
gene  1 1 4 -1.43634921768092 0 1.0 -1.43634921768092 1
gene  2 2 4 -4.0566270624876255 0 2.0 -4.0566270624876255 0
gene  3 3 4 -1.5183036621307475 0 3.0 -1.5183036621307475 1
gene  2 1 7 10.15928646749428 0 8.0 10.15928646749428 0
gene  3 7 4 0.7212134077467508 0 9.0 0.7212134077467508 1
gene  2 2 11 1.6506458797119994 0 19.0 1.6506458797119994 1
gene  1 11 4 0.04890515399781464 0 20.0 0.04890515399781464 1
gene  1 3 11 -7.057524546067587 0 60.0 -7.057524546067587 1
gene  2 7 11 9.343035960499424 0 116.0 9.343035960499424 1
gene  1 1 47 2.916543188658949 0 151.0 2.916543188658949 1
gene  1 47 7 -0.7588430650035369 0 152.0 -0.7588430650035369 1
gene  3 47 11 0.2671757521383191 0 429.0 0.2671757521383191 1
gene  1 47 4 -0.2814637053565769 0 527.0 -0.2814637053565769 1
gene  3 2 47 2.9953544588746714 0 565.0 2.9953544588746714 1
gene  2 2 7 4.742601013785034 0 708.0 4.742601013785034 1
gene  3 47 187 -0.335955099335277 0 824.0 -0.335955099335277 1
gene  3 187 11 1.7980751274741884 0 825.0 1.7980751274741884 1
gene  3 187 4 -0.9053242648773052 0 1052.0 -0.9053242648773052 1
genomeend 33
/*-------------------------------------------------------------------*/
/* Species # 017         : (size= 005) (AvfFit= 8.967) (Age= 68.000)  */
/*-------------------------------------------------------------------*/
/* Organism # 034 Fitness:  9.000 Error:  1.000                      */
genomestart  34
trait 1 0.0 0.0 0.0 0.0 0.055398074479255544 0.0 0.3568575379219483 0.12192827250494745 
trait 2 0.17500000000000002 0.03353619471315164 0.0 0.0 0.122845498985575 0.0 0.0 0.0 
trait 3 0.2829116187943524 0.2848498721046737 0.6147039796354924 0.0 0.7884341693559529 0.3153447806910977 0.7110590540879159 0.0 
node 1 3 1 1
node 2 2 1 1
node 3 2 1 3
node 4 1 0 2
node 7 1 0 0
node 14 1 0 0
node 17 2 0 0
node 28 1 0 0
node 44 3 0 0
node 47 1 0 0
node 58 1 0 0
node 89 1 0 0
node 282 1 0 0
node 294 1 0 0
gene  1 1 4 -12.494539823834598 0 1.0 -12.494539823834598 1
gene  2 2 4 6.546856296860896 0 2.0 6.546856296860896 1
gene  3 3 4 -0.933772230420929 0 3.0 -0.933772230420929 1
gene  1 1 7 2.5903121309950654 0 8.0 2.5903121309950654 0
gene  1 7 4 0.062421022769738155 0 9.0 0.062421022769738155 1
gene  1 1 14 6.4384506148421075 0 27.0 6.4384506148421075 1
gene  1 14 4 4.432174827499973 0 28.0 4.432174827499973 1
gene  2 2 17 2.6189867573893153 0 37.0 2.6189867573893153 1
gene  2 17 4 0.02728882514484443 0 38.0 0.02728882514484443 1
gene  1 1 17 0.4228024602683407 0 54.0 0.4228024602683407 1
gene  2 1 28 -5.725398826505527 0 78.0 -5.725398826505527 1
gene  1 28 7 11.549133572995096 0 79.0 11.549133572995096 1
gene  1 7 44 3.809697329229164 0 138.0 3.809697329229164 1
gene  3 44 4 -6.084411166726241 0 139.0 -6.084411166726241 1
gene  1 1 47 3.62778424947917 0 151.0 3.62778424947917 0
gene  1 47 7 -0.2248466428717577 0 152.0 -0.2248466428717577 1
gene  2 1 58 5.767421654944962 0 221.0 5.767421654944962 1
gene  2 58 17 -4.319320524800746 0 222.0 -4.319320524800746 1
gene  2 47 58 10.498487756793397 0 279.0 10.498487756793397 1
gene  2 2 28 -3.9192776392599136 0 339.0 -3.9192776392599136 1
gene  1 1 89 6.947406511031895 0 366.0 6.947406511031895 1
gene  1 89 47 2.8945960013309158 0 367.0 2.8945960013309158 1
gene  1 7 58 4.1131299607501965 0 623.0 4.1131299607501965 1
gene  2 28 47 -0.16488198234814422 0 743.0 -0.16488198234814422 1
gene  1 89 28 -5.263021783184658 0 921.0 -5.263021783184658 1
gene  1 7 17 -1.3901616690273786 0 960.0 -1.3901616690273786 0
gene  2 28 17 0.17365513924733622 0 1142.0 0.17365513924733622 1
gene  1 47 282 2.3310769468836323 0 1275.0 2.3310769468836323 1
gene  1 282 7 -0.41550761176894213 0 1276.0 -0.41550761176894213 1
gene  1 7 294 1.5412830250832337 0 1359.0 1.5412830250832337 1
gene  1 294 17 1.188164582257058 0 1360.0 1.188164582257058 1
gene  3 14 294 -4.264893988427997 0 1396.0 -4.264893988427997 1
gene  3 282 294 -7.379450024023688 0 1421.0 -7.379450024023688 1
genomeend 34
/* Organism # 035 Fitness:  8.999 Error:  1.000                      */
genomestart  35
trait 1 0.0 0.0 0.0 0.0 0.055398074479255544 0.0 0.3568575379219483 0.12192827250494745 
trait 2 0.17500000000000002 0.03353619471315164 0.0 0.0 0.122845498985575 0.0 0.0 0.0 
trait 3 0.2829116187943524 0.2848498721046737 0.6147039796354924 0.0 0.7884341693559529 0.3153447806910977 0.7110590540879159 0.0 
node 1 3 1 1
node 2 2 1 1
node 3 2 1 3
node 4 1 0 2
node 7 1 0 0
node 14 1 0 0
node 17 2 0 0
node 28 1 0 0
node 44 3 0 0
node 47 1 0 0
node 58 1 0 0
node 89 1 0 0
node 282 1 0 0
node 294 1 0 0
gene  1 1 4 -12.494539823834598 0 1.0 -12.494539823834598 1
gene  2 2 4 6.546856296860896 0 2.0 6.546856296860896 1
gene  3 3 4 -0.933772230420929 0 3.0 -0.933772230420929 1
gene  1 1 7 2.5903121309950654 0 8.0 2.5903121309950654 0
gene  1 7 4 0.062421022769738155 0 9.0 0.062421022769738155 1
gene  1 1 14 6.4384506148421075 0 27.0 6.4384506148421075 1
gene  1 14 4 4.432174827499973 0 28.0 4.432174827499973 1
gene  2 2 17 2.6189867573893153 0 37.0 2.6189867573893153 1
gene  2 17 4 0.02728882514484443 0 38.0 0.02728882514484443 1
gene  1 1 17 0.4228024602683407 0 54.0 0.4228024602683407 1
gene  2 1 28 -5.725398826505527 0 78.0 -5.725398826505527 1
gene  1 28 7 11.549133572995096 0 79.0 11.549133572995096 1
gene  1 7 44 3.809697329229164 0 138.0 3.809697329229164 1
gene  3 44 4 -6.084411166726241 0 139.0 -6.084411166726241 1
gene  1 1 47 3.62778424947917 0 151.0 3.62778424947917 0
gene  1 47 7 -0.2248466428717577 0 152.0 -0.2248466428717577 1
gene  2 1 58 5.767421654944962 0 221.0 5.767421654944962 1
gene  2 58 17 -4.319320524800746 0 222.0 -4.319320524800746 1
gene  2 47 58 10.498487756793397 0 279.0 10.498487756793397 1
gene  2 2 28 -3.9192776392599136 0 339.0 -3.9192776392599136 1
gene  1 1 89 6.947406511031895 0 366.0 6.947406511031895 1
gene  1 89 47 2.8945960013309158 0 367.0 2.8945960013309158 1
gene  1 7 58 4.1131299607501965 0 623.0 4.1131299607501965 1
gene  2 28 47 -0.16488198234814422 0 743.0 -0.16488198234814422 1
gene  1 89 28 -5.263021783184658 0 921.0 -5.263021783184658 1
gene  1 7 17 -1.3901616690273786 0 960.0 -1.3901616690273786 0
gene  2 28 17 0.17365513924733622 0 1142.0 0.17365513924733622 1
gene  1 47 282 2.3310769468836323 0 1275.0 2.3310769468836323 1
gene  1 282 7 -0.41550761176894213 0 1276.0 -0.41550761176894213 1
gene  1 7 294 1.5412830250832337 0 1359.0 1.5412830250832337 1
gene  1 294 17 1.188164582257058 0 1360.0 1.188164582257058 1
gene  3 14 294 -4.264893988427997 0 1396.0 -4.264893988427997 1
gene  3 3 7 -4.275484784496104 0 1422.0 -4.275484784496104 1
genomeend 35
/* Organism # 036 Fitness:  8.999 Error:  1.000                      */
genomestart  36
trait 1 0.0 0.0 0.0 0.0 0.055398074479255544 0.0 0.3568575379219483 0.12192827250494745 
trait 2 0.17500000000000002 0.03353619471315164 0.0 0.0 0.122845498985575 0.0 0.0 0.0 
trait 3 0.2829116187943524 0.2848498721046737 0.6147039796354924 0.0 0.7884341693559529 0.3153447806910977 0.7110590540879159 0.0 
node 1 3 1 1
node 2 2 1 1
node 3 2 1 3
node 4 1 0 2
node 7 1 0 0
node 14 1 0 0
node 17 2 0 0
node 28 1 0 0
node 44 3 0 0
node 47 1 0 0
node 58 1 0 0
node 89 1 0 0
node 282 1 0 0
node 294 1 0 0
gene  1 1 4 -10.720161661137292 0 1.0 -10.720161661137292 1
gene  2 2 4 8.595622916405084 0 2.0 8.595622916405084 1
gene  3 3 4 -1.2196227409938194 0 3.0 -1.2196227409938194 1
gene  1 1 7 3.3343779226634114 0 8.0 3.3343779226634114 0
gene  1 7 4 -1.989878225184508 0 9.0 -1.989878225184508 1
gene  1 1 14 6.683407306584528 0 27.0 6.683407306584528 1
gene  1 14 4 4.202365754840476 0 28.0 4.202365754840476 1
gene  2 2 17 2.2717877904422985 0 37.0 2.2717877904422985 1
gene  2 17 4 -1.078169622410072 0 38.0 -1.078169622410072 1
gene  1 1 17 -0.1394664991447424 0 54.0 -0.1394664991447424 1
gene  2 1 28 -7.308456829662884 0 78.0 -7.308456829662884 1
gene  1 28 7 9.81887640118192 0 79.0 9.81887640118192 1
gene  1 7 44 1.873226012185109 0 138.0 1.873226012185109 1
gene  3 44 4 -5.6394784855454985 0 139.0 -5.6394784855454985 1
gene  1 1 47 4.990215023822404 0 151.0 4.990215023822404 0
gene  1 47 7 -1.1121812970004872 0 152.0 -1.1121812970004872 1
gene  2 1 58 6.391714586516745 0 221.0 6.391714586516745 1
gene  2 58 17 -6.161634485425999 0 222.0 -6.161634485425999 1
gene  2 47 58 8.70559654218891 0 279.0 8.70559654218891 1
gene  2 2 28 -3.0644453972536088 0 339.0 -3.0644453972536088 1
gene  1 1 89 7.8031398532991245 0 366.0 7.8031398532991245 1
gene  1 89 47 1.400099428467112 0 367.0 1.400099428467112 1
gene  1 7 58 5.545434876501 0 623.0 5.545434876501 1
gene  2 28 47 0.6656066314982034 0 743.0 0.6656066314982034 1
gene  1 89 28 -5.946487427499466 0 921.0 -5.946487427499466 1
gene  1 7 17 0.7453855936943279 0 960.0 0.7453855936943279 0
gene  2 28 17 -1.898323276979825 0 1142.0 -1.898323276979825 1
gene  1 47 282 2.5522546873534746 0 1275.0 2.5522546873534746 1
gene  1 282 7 -2.5039416396417633 0 1276.0 -2.5039416396417633 1
gene  1 7 294 -0.401598359620203 0 1359.0 -0.401598359620203 1
gene  1 294 17 0.365237599908544 0 1360.0 0.365237599908544 1
gene  3 14 294 -4.393470918218303 0 1396.0 -4.393470918218303 1
genomeend 36
/* Organism # 037 Fitness:  8.844 Error:  1.026                      */
genomestart  37
trait 1 0.0 0.0 0.0 0.0 0.055398074479255544 0.0 0.3568575379219483 0.12192827250494745 
trait 2 0.17500000000000002 0.03353619471315164 0.0 0.0 0.122845498985575 0.0 0.0 0.0 
trait 3 0.2829116187943524 0.2848498721046737 0.6147039796354924 0.0 0.7884341693559529 0.3153447806910977 0.7110590540879159 0.0 
node 1 3 1 1
node 2 2 1 1
node 3 2 1 3
node 4 1 0 2
node 7 1 0 0
node 14 1 0 0
node 17 2 0 0
node 28 1 0 0
node 44 3 0 0
node 47 1 0 0
node 58 1 0 0
node 89 1 0 0
node 282 1 0 0
node 294 1 0 0
gene  1 1 4 -14.891670605673797 0 1.0 -14.891670605673797 1
gene  2 2 4 6.74859509784328 0 2.0 6.74859509784328 1
gene  3 3 4 -0.7907569117303042 0 3.0 -0.7907569117303042 1
gene  1 1 7 3.99323367466725 0 8.0 3.99323367466725 0
gene  1 7 4 1.750720811690762 0 9.0 1.750720811690762 1
gene  1 1 14 8.844478840313496 0 27.0 8.844478840313496 1
gene  1 14 4 3.9327096358995948 0 28.0 3.9327096358995948 1
gene  2 2 17 3.0331442695483717 0 37.0 3.0331442695483717 1
gene  2 17 4 0.03934167792916443 0 38.0 0.03934167792916443 1
gene  1 1 17 -1.7119237808672447 0 54.0 -1.7119237808672447 1
gene  2 1 28 -6.4616826597298544 0 78.0 -6.4616826597298544 1
gene  1 28 7 9.333900568980033 0 79.0 9.333900568980033 1
gene  1 7 44 3.367264728870026 0 138.0 3.367264728870026 1
gene  3 44 4 -3.630977891935798 0 139.0 -3.630977891935798 1
gene  1 1 47 4.493324837106044 0 151.0 4.493324837106044 0
gene  1 47 7 1.6623721237717464 0 152.0 1.6623721237717464 0
gene  2 1 58 7.229842707077119 0 221.0 7.229842707077119 1
gene  2 58 17 -5.95713657120491 0 222.0 -5.95713657120491 1
gene  2 47 58 11.154696597276956 0 279.0 11.154696597276956 1
gene  2 2 28 -4.255350691927502 0 339.0 -4.255350691927502 1
gene  1 1 89 9.035663647700211 0 366.0 9.035663647700211 1
gene  1 89 47 3.0755827252337853 0 367.0 3.0755827252337853 1
gene  1 7 58 5.854598288284598 0 623.0 5.854598288284598 1
gene  2 28 47 -2.4986365102439896 0 743.0 -2.4986365102439896 1
gene  1 89 28 -5.350369875195861 0 921.0 -5.350369875195861 1
gene  1 7 17 -1.9145214488867701 0 960.0 -1.9145214488867701 0
gene  2 28 17 0.17365513924733622 0 1142.0 0.17365513924733622 1
gene  1 47 282 1.9789322672954144 0 1275.0 1.9789322672954144 1
gene  1 282 7 0.8179650599675498 0 1276.0 0.8179650599675498 1
gene  1 7 294 0.5812389911470985 0 1359.0 0.5812389911470985 1
gene  1 294 17 -1.0907345394464742 0 1360.0 -1.0907345394464742 1
gene  3 44 294 3.7601477114642288 0 1397.0 3.7601477114642288 1
genomeend 37
/* Organism # 038 Fitness:  8.994 Error:  1.001                      */
genomestart  38
trait 1 0.0 0.0 0.0 0.0 0.055398074479255544 0.0 0.3568575379219483 0.12192827250494745 
trait 2 0.17500000000000002 0.03353619471315164 0.0 0.0 0.122845498985575 0.0 0.0 0.0 
trait 3 0.2829116187943524 0.2848498721046737 0.6147039796354924 0.0 0.7884341693559529 0.3153447806910977 0.7110590540879159 0.0 
node 1 3 1 1
node 2 2 1 1
node 3 2 1 3
node 4 1 0 2
node 7 1 0 0
node 14 1 0 0
node 17 2 0 0
node 28 1 0 0
node 44 3 0 0
node 47 1 0 0
node 58 1 0 0
node 89 1 0 0
node 282 1 0 0
node 294 1 0 0
gene  1 1 4 -12.494539823834598 0 1.0 -12.494539823834598 1
gene  2 2 4 6.546856296860896 0 2.0 6.546856296860896 1
gene  3 3 4 -0.933772230420929 0 3.0 -0.933772230420929 1
gene  1 1 7 2.5903121309950654 0 8.0 2.5903121309950654 0
gene  1 7 4 0.062421022769738155 0 9.0 0.062421022769738155 1
gene  1 1 14 6.4384506148421075 0 27.0 6.4384506148421075 1
gene  1 14 4 4.432174827499973 0 28.0 4.432174827499973 1
gene  2 2 17 2.6189867573893153 0 37.0 2.6189867573893153 1
gene  2 17 4 0.02728882514484443 0 38.0 0.02728882514484443 1
gene  1 1 17 0.4228024602683407 0 54.0 0.4228024602683407 1
gene  2 1 28 -5.725398826505527 0 78.0 -5.725398826505527 1
gene  1 28 7 11.549133572995096 0 79.0 11.549133572995096 1
gene  1 7 44 3.809697329229164 0 138.0 3.809697329229164 1
gene  3 44 4 -6.084411166726241 0 139.0 -6.084411166726241 1
gene  1 1 47 3.62778424947917 0 151.0 3.62778424947917 0
gene  1 47 7 -0.2248466428717577 0 152.0 -0.2248466428717577 0
gene  2 1 58 5.767421654944962 0 221.0 5.767421654944962 1
gene  2 58 17 -4.319320524800746 0 222.0 -4.319320524800746 1
gene  2 47 58 10.498487756793397 0 279.0 10.498487756793397 1
gene  2 2 28 -3.9192776392599136 0 339.0 -3.9192776392599136 1
gene  1 1 89 6.947406511031895 0 366.0 6.947406511031895 1
gene  1 89 47 2.8945960013309158 0 367.0 2.8945960013309158 1
gene  1 7 58 4.1131299607501965 0 623.0 4.1131299607501965 1
gene  2 28 47 -0.16488198234814422 0 743.0 -0.16488198234814422 1
gene  1 89 28 -5.263021783184658 0 921.0 -5.263021783184658 1
gene  1 7 17 -1.3901616690273786 0 960.0 -1.3901616690273786 0
gene  2 28 17 0.17365513924733622 0 1142.0 0.17365513924733622 1
gene  1 47 282 2.3310769468836323 0 1275.0 2.3310769468836323 1
gene  1 282 7 -0.41550761176894213 0 1276.0 -0.41550761176894213 1
gene  1 7 294 1.5412830250832337 0 1359.0 1.5412830250832337 1
gene  1 294 17 1.188164582257058 0 1360.0 1.188164582257058 1
gene  3 44 294 3.947235402394591 0 1397.0 3.947235402394591 1
gene  2 89 4 -1.9427475353562262 0 1423.0 -1.9427475353562262 1
genomeend 38
/*-------------------------------------------------------------------*/
/* Species # 018         : (size= 005) (AvfFit= 6.000) (Age= 68.000)  */
/*-------------------------------------------------------------------*/
/* Organism # 039 Fitness:  9.000 Error:  1.000                      */
genomestart  39
trait 1 0.1828018383578469 0.511646722685368 0.887916213060954 0.16740380527481824 0.0 0.8682455558581392 0.0 0.20858169628672263 
trait 2 0.12306487331993027 0.0 0.736851033127374 0.0 0.0 0.0 0.7009438431320765 0.011377811850802742 
trait 3 0.40500261316494196 0.5332891832981644 0.19951034042631954 0.0 0.0 0.2282007844791084 0.0 0.09301400611535382 
node 1 1 1 1
node 2 1 1 1
node 3 1 1 3
node 4 1 0 2
node 7 3 0 0
node 11 1 0 0
node 31 2 0 0
node 44 3 0 0
node 265 1 0 0
gene  3 1 4 -1.6128371205309706 0 1.0 -1.6128371205309706 1
gene  3 2 4 -0.31633895224528263 0 2.0 -0.31633895224528263 0
gene  3 3 4 16.542628509256595 0 3.0 16.542628509256595 1
gene  2 1 7 8.588644880801853 0 8.0 8.588644880801853 1
gene  1 7 4 2.6574687043627807 0 9.0 2.6574687043627807 1
gene  1 2 11 -1.5132058835801365 0 19.0 -1.5132058835801365 1
gene  2 11 4 0.27485269339139334 0 20.0 0.27485269339139334 0
gene  1 3 11 -6.997733990647571 0 60.0 -6.997733990647571 1
gene  3 1 31 -0.6780433440187086 0 88.0 -0.6780433440187086 1
gene  1 31 7 -2.205602224807767 0 89.0 -2.205602224807767 1
gene  1 7 44 -4.326895426082552 0 138.0 -4.326895426082552 1
gene  1 44 4 -26.718542720406706 0 139.0 -26.718542720406706 1
gene  3 2 44 2.141602595363753 0 144.0 2.141602595363753 1
gene  3 2 31 1.9037183292312183 0 243.0 1.9037183292312183 1
gene  2 31 44 3.3731762848743307 0 332.0 3.3731762848743307 1
gene  1 1 44 0.21174312446981292 0 968.0 0.21174312446981292 1
gene  2 11 265 1.0 0 1195.0 1.0 1
gene  2 265 4 -6.093118914443235 0 1196.0 -6.093118914443235 1
gene  1 11 31 3.9653836172689947 0 1327.0 3.9653836172689947 1
genomeend 39
/* Organism # 040 Fitness:  4.000 Error:  2.000                      */
genomestart  40
trait 1 0.1828018383578469 0.511646722685368 0.887916213060954 0.16740380527481824 0.0 0.8682455558581392 0.0 0.20858169628672263 
trait 2 0.2 0.0 0.0 0.0 0.0 0.0 0.0 0.011377811850802742 
trait 3 0.40500261316494196 0.5332891832981644 0.19951034042631954 0.0 0.0 0.2282007844791084 0.0 0.09301400611535382 
node 1 1 1 1
node 2 1 1 1
node 3 1 1 3
node 4 1 0 2
node 7 3 0 0
node 11 1 0 0
node 31 2 0 0
node 44 3 0 0
node 265 1 0 0
gene  3 1 4 2.2165587920858227 0 1.0 2.2165587920858227 1
gene  3 2 4 0.5565645615628638 0 2.0 0.5565645615628638 0
gene  3 3 4 15.71948516759566 0 3.0 15.71948516759566 1
gene  2 1 7 7.085832803331831 0 8.0 7.085832803331831 1
gene  1 7 4 5.336576847290848 0 9.0 5.336576847290848 1
gene  1 2 11 -4.7804122842360375 0 19.0 -4.7804122842360375 1
gene  2 11 4 -1.448772595502882 0 20.0 -1.448772595502882 0
gene  1 3 11 -7.278796894613062 0 60.0 -7.278796894613062 1
gene  3 1 31 -4.859016946349332 0 88.0 -4.859016946349332 1
gene  1 31 7 -9.655446889885749 0 89.0 -9.655446889885749 1
gene  1 7 44 -4.17958300596222 0 138.0 -4.17958300596222 1
gene  1 44 4 -26.034729686540537 0 139.0 -26.034729686540537 1
gene  3 2 44 -6.276850466948958 0 144.0 -6.276850466948958 1
gene  3 2 31 3.9153193212644335 0 243.0 3.9153193212644335 1
gene  2 31 44 7.037869203371166 0 332.0 7.037869203371166 1
gene  1 1 44 1.4923219453180023 0 968.0 1.4923219453180023 1
gene  2 11 265 1.8151900291506569 0 1195.0 1.8151900291506569 1
gene  2 265 4 -5.441331117298521 0 1196.0 -5.441331117298521 1
gene  1 11 31 -0.7841976989433563 0 1327.0 -0.7841976989433563 1
genomeend 40
/* Organism # 041 Fitness:  9.000 Error:  1.000                      */
genomestart  41
trait 1 0.1828018383578469 0.511646722685368 0.887916213060954 0.16740380527481824 0.0 0.8682455558581392 0.0 0.20858169628672263 
trait 2 0.2 0.0 0.0 0.0 0.0 0.0 0.0 0.011377811850802742 
trait 3 0.40500261316494196 0.5332891832981644 0.19951034042631954 0.0 0.0 0.2282007844791084 0.0 0.09301400611535382 
node 1 1 1 1
node 2 1 1 1
node 3 1 1 3
node 4 1 0 2
node 7 3 0 0
node 11 1 0 0
node 31 2 0 0
node 44 3 0 0
node 265 1 0 0
gene  3 1 4 2.0946846219296433 0 1.0 2.0946846219296433 1
gene  3 2 4 -1.0367834400636429 0 2.0 -1.0367834400636429 0
gene  3 3 4 15.292114247780642 0 3.0 15.292114247780642 1
gene  2 1 7 8.182948519394367 0 8.0 8.182948519394367 1
gene  1 7 4 5.856098149947581 0 9.0 5.856098149947581 1
gene  1 2 11 -3.3564390913521804 0 19.0 -3.3564390913521804 1
gene  2 11 4 -4.37622861095462 0 20.0 -4.37622861095462 0
gene  1 3 11 -8.629547720466313 0 60.0 -8.629547720466313 1
gene  3 1 31 -0.9704525231332437 0 88.0 -0.9704525231332437 1
gene  1 31 7 -11.32675798969704 0 89.0 -11.32675798969704 1
gene  1 7 44 -2.7761080853864497 0 138.0 -2.7761080853864497 1
gene  1 44 4 -22.437482451752533 0 139.0 -22.437482451752533 1
gene  3 2 44 -4.733527460759129 0 144.0 -4.733527460759129 1
gene  3 2 31 3.03661247557199 0 243.0 3.03661247557199 1
gene  2 31 44 3.0767750426255818 0 332.0 3.0767750426255818 1
gene  1 1 44 0.7303320258304078 0 968.0 0.7303320258304078 1
gene  2 11 265 1.39311025394281 0 1195.0 1.39311025394281 1
gene  2 265 4 -3.126326230203572 0 1196.0 -3.126326230203572 1
gene  1 11 31 3.548096108810004 0 1327.0 3.548096108810004 1
genomeend 41
/* Organism # 042 Fitness:  4.000 Error:  2.000                      */
genomestart  42
trait 1 0.1828018383578469 0.511646722685368 0.887916213060954 0.16740380527481824 0.0 0.8682455558581392 0.0 0.20858169628672263 
trait 2 0.2 0.0 0.0 0.0 0.0 0.0 0.0 0.011377811850802742 
trait 3 0.40500261316494196 0.5332891832981644 0.19951034042631954 0.0 0.0 0.2282007844791084 0.0 0.09301400611535382 
node 1 1 1 1
node 2 1 1 1
node 3 1 1 3
node 4 1 0 2
node 7 3 0 0
node 11 1 0 0
node 31 2 0 0
node 44 3 0 0
node 265 1 0 0
gene  3 1 4 -1.7119043227034603 0 1.0 -1.7119043227034603 1
gene  3 2 4 -0.09584941637561112 0 2.0 -0.09584941637561112 0
gene  3 3 4 16.932976294694203 0 3.0 16.932976294694203 1
gene  2 1 7 8.02258425845585 0 8.0 8.02258425845585 1
gene  1 7 4 3.9299124927187297 0 9.0 3.9299124927187297 1
gene  1 2 11 -2.659968467839876 0 19.0 -2.659968467839876 1
gene  2 11 4 0.7094514494727882 0 20.0 0.7094514494727882 0
gene  1 3 11 -5.79108391453992 0 60.0 -5.79108391453992 1
gene  3 1 31 0.7275334824973858 0 88.0 0.7275334824973858 1
gene  1 31 7 -15.037484657215213 0 89.0 -15.037484657215213 1
gene  1 7 44 -2.7490421168089436 0 138.0 -2.7490421168089436 1
gene  1 44 4 -26.82803393157655 0 139.0 -26.82803393157655 1
gene  3 2 44 -2.356397964733095 0 144.0 -2.356397964733095 1
gene  3 2 31 4.119060596805578 0 243.0 4.119060596805578 1
gene  2 31 44 4.175807230494885 0 332.0 4.175807230494885 1
gene  1 1 44 0.6847401984109593 0 968.0 0.6847401984109593 1
gene  2 11 265 0.07131395677346442 0 1195.0 0.07131395677346442 1
gene  2 265 4 -1.654613225741206 0 1196.0 -1.654613225741206 1
gene  1 11 31 0.5654696363477372 0 1327.0 0.5654696363477372 1
genomeend 42
/* Organism # 043 Fitness:  4.000 Error:  2.000                      */
genomestart  43
trait 1 0.1828018383578469 0.511646722685368 0.887916213060954 0.16740380527481824 0.0 0.8682455558581392 0.0 0.20858169628672263 
trait 2 0.2 0.0 0.0 0.0 0.0 0.0 0.0 0.011377811850802742 
trait 3 0.40500261316494196 0.5332891832981644 0.19951034042631954 0.0 0.0 0.2282007844791084 0.0 0.09301400611535382 
node 1 1 1 1
node 2 1 1 1
node 3 1 1 3
node 4 1 0 2
node 7 3 0 0
node 11 1 0 0
node 31 2 0 0
node 44 3 0 0
node 265 1 0 0
gene  3 1 4 0.4879337139953907 0 1.0 0.4879337139953907 1
gene  3 2 4 -0.3878386512786651 0 2.0 -0.3878386512786651 0
gene  3 3 4 17.113843457354488 0 3.0 17.113843457354488 1
gene  2 1 7 8.958665857986617 0 8.0 8.958665857986617 1
gene  1 7 4 2.4985855855959826 0 9.0 2.4985855855959826 1
gene  1 2 11 -4.61445803334208 0 19.0 -4.61445803334208 1
gene  2 11 4 -4.4917750845455835 0 20.0 -4.4917750845455835 0
gene  1 3 11 -5.228539793650233 0 60.0 -5.228539793650233 1
gene  3 1 31 -1.6802888304068588 0 88.0 -1.6802888304068588 1
gene  1 31 7 2.2972799032898674 0 89.0 2.2972799032898674 1
gene  1 7 44 -6.045059118710937 0 138.0 -6.045059118710937 1
gene  1 44 4 -24.13204928180606 0 139.0 -24.13204928180606 1
gene  3 2 44 1.8033249601911367 0 144.0 1.8033249601911367 1
gene  3 2 31 5.276084504438533 0 243.0 5.276084504438533 1
gene  2 31 44 2.489741584995647 0 332.0 2.489741584995647 1
gene  1 1 44 1.8145287469557936 0 968.0 1.8145287469557936 1
gene  2 11 265 0.8193083940429007 0 1195.0 0.8193083940429007 1
gene  2 265 4 -3.0706948056306738 0 1196.0 -3.0706948056306738 1
gene  1 11 31 2.239081374012441 0 1327.0 2.239081374012441 1
genomeend 43
/*-------------------------------------------------------------------*/
/* Species # 019         : (size= 004) (AvfFit= 5.233) (Age= 67.000)  */
/*-------------------------------------------------------------------*/
/* Organism # 044 Fitness:  4.000 Error:  2.000                      */
genomestart  44
trait 1 0.1 0.0 0.0 0.0 0.0 0.0 0.0 0.0 
trait 2 0.0 0.0 0.3946786995305386 0.47948433778996535 0.6011079566415327 0.0 0.0 0.0 
trait 3 1.0813878051946515 0.10467908842866291 0.0 0.0 1.0092979688855825 0.0 0.5938815450548843 0.0 
node 1 2 1 1
node 2 2 1 1
node 3 2 1 3
node 4 1 0 2
node 7 1 0 0
node 14 2 0 0
node 26 2 0 0
node 46 3 0 0
gene  1 1 4 0.4110463939482418 0 1.0 0.4110463939482418 1
gene  2 2 4 1.733643932149901 0 2.0 1.733643932149901 1
gene  3 3 4 7.807465641788237 0 3.0 7.807465641788237 1
gene  1 1 7 -3.8184892919370452 0 8.0 -3.8184892919370452 1
gene  1 7 4 -1.8369490177461114 0 9.0 -1.8369490177461114 1
gene  1 1 14 -2.326276416936519 0 27.0 -2.326276416936519 1
gene  3 14 4 -0.807224219143066 0 28.0 -0.807224219143066 1
gene  2 3 7 -1.592802092535191 0 53.0 -1.592802092535191 1
gene  3 2 26 0.4990161372277844 0 72.0 0.4990161372277844 1
gene  3 26 4 -2.031403836317441 0 73.0 -2.031403836317441 1
gene  1 7 46 1.010923856229709 0 149.0 1.010923856229709 1
gene  1 46 4 3.1387796902869214 0 150.0 3.1387796902869214 1
gene  2 14 46 -0.9743017570056136 0 340.0 -0.9743017570056136 1
gene  2 26 14 4.92293385200267 0 1014.0 4.92293385200267 1
genomeend 44
/* Organism # 045 Fitness:  4.000 Error:  2.000                      */
genomestart  45
trait 1 0.1 0.0 0.0 0.0 0.0 0.0 0.0 0.0 
trait 2 0.0 0.0 0.3946786995305386 0.47948433778996535 0.6011079566415327 0.0 0.0 0.0 
trait 3 1.0813878051946515 0.10467908842866291 0.0 0.0 1.0092979688855825 0.0 0.5938815450548843 0.0 
node 1 2 1 1
node 2 2 1 1
node 3 2 1 3
node 4 1 0 2
node 7 1 0 0
node 14 2 0 0
node 26 2 0 0
node 46 3 0 0
gene  1 1 4 0.8921348680390131 0 1.0 0.8921348680390131 1
gene  2 2 4 1.2917863167099068 0 2.0 1.2917863167099068 1
gene  3 3 4 8.299976480172653 0 3.0 8.299976480172653 1
gene  1 1 7 -1.981457485423881 0 8.0 -1.981457485423881 1
gene  1 7 4 -0.5379546274953317 0 9.0 -0.5379546274953317 1
gene  1 1 14 -1.3875360463219544 0 27.0 -1.3875360463219544 1
gene  3 14 4 -0.24027884869312555 0 28.0 -0.24027884869312555 1
gene  2 3 7 -1.5981924427769583 0 53.0 -1.5981924427769583 1
gene  3 2 26 -1.5802989522334439 0 72.0 -1.5802989522334439 1
gene  3 26 4 -9.43487299350916 0 73.0 -9.43487299350916 1
gene  1 7 46 -1.9213340476266565 0 149.0 -1.9213340476266565 1
gene  1 46 4 4.4891044260822754 0 150.0 4.4891044260822754 1
gene  2 14 46 0.5835995398453035 0 340.0 0.5835995398453035 1
gene  2 26 14 3.6519822892187017 0 1014.0 3.6519822892187017 1
genomeend 45
/* Organism # 046 Fitness:  8.906 Error:  1.016                      */
genomestart  46
trait 1 0.1 0.0 0.0 0.0 0.0 0.0 0.0 0.0 
trait 2 0.0 0.0 0.3946786995305386 0.47948433778996535 0.6011079566415327 0.0 0.0 0.0 
trait 3 1.0813878051946515 0.10467908842866291 0.0 0.0 1.0092979688855825 0.0 0.5938815450548843 0.0 
node 1 2 1 1
node 2 2 1 1
node 3 2 1 3
node 4 1 0 2
node 7 1 0 0
node 14 2 0 0
node 26 2 0 0
node 46 3 0 0
gene  1 1 4 -1.2783197185359292 0 1.0 -1.2783197185359292 1
gene  2 2 4 -2.062086013061763 0 2.0 -2.062086013061763 1
gene  3 3 4 3.6506551340618465 0 3.0 3.6506551340618465 1
gene  1 1 7 -5.224104604164507 0 8.0 -5.224104604164507 1
gene  1 7 4 -3.4664587583913224 0 9.0 -3.4664587583913224 1
gene  1 1 14 -2.326276416936519 0 27.0 -2.326276416936519 1
gene  3 14 4 1.3455704854917239 0 28.0 1.3455704854917239 1
gene  2 3 7 0.8882037003417481 0 53.0 0.8882037003417481 1
gene  3 2 26 0.7613949213195184 0 72.0 0.7613949213195184 1
gene  3 26 4 -7.612753794467373 0 73.0 -7.612753794467373 1
gene  1 7 46 -3.014321177577579 0 149.0 -3.014321177577579 1
gene  1 46 4 3.792857407994166 0 150.0 3.792857407994166 1
gene  2 14 46 0.11481840360742329 0 340.0 0.11481840360742329 1
gene  2 26 14 4.091100267304719 0 1014.0 4.091100267304719 1
genomeend 46
/* Organism # 047 Fitness:  4.025 Error:  1.994                      */
genomestart  47
trait 1 0.1 0.0 0.0 0.0 0.0 0.0 0.0 0.0 
trait 2 0.0 0.0 0.3946786995305386 0.47948433778996535 0.6011079566415327 0.0 0.0 0.0 
trait 3 1.0813878051946515 0.10467908842866291 0.0 0.0 1.0092979688855825 0.0 0.5938815450548843 0.0 
node 1 2 1 1
node 2 2 1 1
node 3 2 1 3
node 4 1 0 2
node 7 1 0 0
node 14 2 0 0
node 26 2 0 0
node 46 3 0 0
gene  1 1 4 -1.6429648156791559 0 1.0 -1.6429648156791559 1
gene  2 2 4 3.3677790180466447 0 2.0 3.3677790180466447 1
gene  3 3 4 3.92532412531299 0 3.0 3.92532412531299 1
gene  1 1 7 -3.629169422803312 0 8.0 -3.629169422803312 1
gene  1 7 4 -2.8063779348749893 0 9.0 -2.8063779348749893 1
gene  1 1 14 -2.45918349445278 0 27.0 -2.45918349445278 1
gene  3 14 4 -1.5179088172163104 0 28.0 -1.5179088172163104 1
gene  2 3 7 1.0841397640747057 0 53.0 1.0841397640747057 1
gene  3 2 26 1.9957631726261622 0 72.0 1.9957631726261622 1
gene  3 26 4 -9.55063723471274 0 73.0 -9.55063723471274 1
gene  1 7 46 -2.6701206651982217 0 149.0 -2.6701206651982217 1
gene  1 46 4 2.9239281491248708 0 150.0 2.9239281491248708 1
gene  2 14 46 -1.1951740788025222 0 340.0 -1.1951740788025222 1
gene  2 26 14 1.666086240893813 0 1014.0 1.666086240893813 1
genomeend 47
/*-------------------------------------------------------------------*/
/* Species # 021         : (size= 001) (AvfFit= 4.000) (Age= 65.000)  */
/*-------------------------------------------------------------------*/
/* Organism # 048 Fitness:  4.000 Error:  2.000                      */
genomestart  48
trait 1 0.1 0.2616840072624468 0.0 0.0 0.0 0.7964605151609201 0.0 0.4694541052776261 
trait 2 0.9039084783916191 0.20380623903196893 0.7381254544987707 0.0 0.0 0.12248780093489986 0.0 0.22048174782535357 
trait 3 0.8943547758789518 0.3488943880254036 0.0 0.0 0.0 0.0 0.0 0.0470053359247129 
node 1 2 1 1
node 2 3 1 1
node 3 1 1 3
node 4 1 0 2
node 7 1 0 0
node 14 1 0 0
node 17 2 0 0
node 34 1 0 0
node 240 1 0 0
gene  2 1 4 -7.559933015943255 0 1.0 -7.559933015943255 1
gene  2 2 4 7.981003131935054 0 2.0 7.981003131935054 1
gene  3 3 4 -6.370533838928624 0 3.0 -6.370533838928624 1
gene  1 1 7 -0.05166052541374899 0 8.0 -0.05166052541374899 1
gene  1 7 4 -2.791387826086149 0 9.0 -2.791387826086149 1
gene  1 1 14 -3.5445480914774157 0 27.0 -3.5445480914774157 1
gene  1 14 4 4.04877896086418 0 28.0 4.04877896086418 1
gene  2 2 17 -4.652774843635198 0 37.0 -4.652774843635198 1
gene  2 17 4 -2.5892830888172136 0 38.0 -2.5892830888172136 1
gene  3 17 7 3.2076022211474053 0 58.0 3.2076022211474053 1
gene  1 7 14 -1.5786429432572104 0 68.0 -1.5786429432572104 1
gene  2 2 34 1.4987233308501389 0 97.0 1.4987233308501389 1
gene  2 34 4 1.4233005668891958 0 98.0 1.4233005668891958 1
gene  3 17 34 0.9184670195598501 0 123.0 0.9184670195598501 1
gene  3 1 17 9.873854441739713 0 159.0 9.873854441739713 1
gene  3 14 34 3.1041370156223147 0 169.0 3.1041370156223147 1
gene  2 1 34 -4.751741234971067 0 562.0 -4.751741234971067 1
gene  2 2 7 7.722166183765726 0 780.0 7.722166183765726 1
gene  1 3 14 -10.465401267984616 0 867.0 -10.465401267984616 1
gene  1 3 7 2.4588981428634993 0 908.0 2.4588981428634993 1
gene  3 17 14 -1.159317548656503 0 959.0 -1.159317548656503 1
gene  2 3 34 -1.6537561402200207 0 1053.0 -1.6537561402200207 1
gene  1 14 240 -0.8737786027254477 0 1068.0 -0.8737786027254477 1
gene  1 240 4 -7.19578641999038 0 1069.0 -7.19578641999038 1
genomeend 48
/*-------------------------------------------------------------------*/
/* Species # 022         : (size= 005) (AvfFit= 7.605) (Age= 63.000)  */
/*-------------------------------------------------------------------*/
/* Organism # 049 Fitness:  9.000 Error:  1.000                      */
genomestart  49
trait 1 0.1 0.6803860034403816 0.1924621814011147 0.4699962252700536 0.0 0.16962498034476925 0.0 1.7814974833902937 
trait 2 0.2 0.0 0.0 0.0 0.0 0.0 0.0 0.0 
trait 3 1.1321445861284705 0.5557632227307898 0.0 0.0 0.3847344748037246 0.0 0.0 0.0 
node 1 2 1 1
node 2 2 1 1
node 3 1 1 3
node 4 1 0 2
node 7 1 0 0
node 14 1 0 0
node 17 1 0 0
node 28 1 0 0
node 62 1 0 0
node 147 1 0 0
node 235 1 0 0
gene  1 1 4 14.9220012256148 0 1.0 14.9220012256148 1
gene  2 2 4 17.362464290693538 0 2.0 17.362464290693538 1
gene  3 3 4 -0.48447939529919615 0 3.0 -0.48447939529919615 1
gene  1 1 7 13.19974467717828 0 8.0 13.19974467717828 1
gene  1 7 4 0.19976969295458735 0 9.0 0.19976969295458735 1
gene  2 1 14 0.058738318476897255 0 27.0 0.058738318476897255 1
gene  1 14 4 2.5639674488556325 0 28.0 2.5639674488556325 1
gene  2 2 17 8.62887163979767 0 37.0 8.62887163979767 1
gene  2 17 4 0.4436131334958575 0 38.0 0.4436131334958575 0
gene  2 1 17 -8.452047787981556 0 54.0 -8.452047787981556 1
gene  3 1 28 -2.455947990222929 0 78.0 -2.455947990222929 1
gene  1 28 7 14.86244698828147 0 79.0 14.86244698828147 1
gene  3 17 7 -0.5541883331934985 0 148.0 -0.5541883331934985 1
gene  2 3 7 -3.097776036081149 0 197.0 -3.097776036081149 1
gene  2 28 14 -4.8328591534933745 0 213.0 -4.8328591534933745 1
gene  1 1 62 -0.1706263051566384 0 232.0 -0.1706263051566384 1
gene  1 62 4 -12.674095078866952 0 233.0 -12.674095078866952 1
gene  2 14 7 3.283909237276373 0 493.0 3.283909237276373 1
gene  2 14 147 -1.6832176142685564 0 647.0 -1.6832176142685564 1
gene  2 147 7 -5.699875688867094 0 648.0 -5.699875688867094 1
gene  2 3 28 -2.022847475957897 0 962.0 -2.022847475957897 1
gene  2 17 235 1.2111499179066187 0 1040.0 1.2111499179066187 1
gene  2 235 4 0.8562163840674122 0 1041.0 0.8562163840674122 1
gene  3 235 28 2.8606955996136465 0 1085.0 2.8606955996136465 1
genomeend 49
/* Organism # 050 Fitness:  9.000 Error:  1.000                      */
genomestart  50
trait 1 0.1 0.6803860034403816 0.1924621814011147 0.4699962252700536 0.0 0.16962498034476925 0.0 1.7814974833902937 
trait 2 0.2 0.0 0.0 0.0 0.0 0.0 0.0 0.0 
trait 3 1.1321445861284705 0.5557632227307898 0.0 0.0 0.3847344748037246 0.0 0.0 0.0 
node 1 2 1 1
node 2 2 1 1
node 3 1 1 3
node 4 1 0 2
node 7 1 0 0
node 14 1 0 0
node 17 1 0 0
node 28 1 0 0
node 62 1 0 0
node 147 1 0 0
node 235 1 0 0
gene  1 1 4 13.98913881202478 0 1.0 13.98913881202478 1
gene  2 2 4 17.250495644536635 0 2.0 17.250495644536635 1
gene  3 3 4 -2.4157348109034222 0 3.0 -2.4157348109034222 1
gene  1 1 7 11.938140082345289 0 8.0 11.938140082345289 1
gene  1 7 4 -1.3977135297861996 0 9.0 -1.3977135297861996 1
gene  2 1 14 -0.10952497030704916 0 27.0 -0.10952497030704916 1
gene  1 14 4 2.044469594082815 0 28.0 2.044469594082815 1
gene  2 2 17 8.274991715867753 0 37.0 8.274991715867753 1
gene  2 17 4 -1.0353114325478892 0 38.0 -1.0353114325478892 0
gene  2 1 17 -9.708540865163004 0 54.0 -9.708540865163004 1
gene  3 1 28 -1.0684554016528043 0 78.0 -1.0684554016528043 1
gene  1 28 7 18.42641961540284 0 79.0 18.42641961540284 1
gene  3 17 7 -1.5162804293410062 0 148.0 -1.5162804293410062 1
gene  1 3 7 -0.023625160919420907 0 197.0 -0.023625160919420907 1
gene  2 28 14 1.7844802012432515 0 213.0 1.7844802012432515 1
gene  1 1 62 -18.714893441662756 0 232.0 -18.714893441662756 1
gene  1 62 4 -12.582947885754413 0 233.0 -12.582947885754413 1
gene  2 14 7 1.4823039875918935 0 493.0 1.4823039875918935 1
gene  2 14 147 -2.2957359788823575 0 647.0 -2.2957359788823575 1
gene  2 147 7 -5.94325996814017 0 648.0 -5.94325996814017 1
gene  2 3 28 0.245984527860178 0 962.0 0.245984527860178 1
gene  2 17 235 2.4728103152610506 0 1040.0 2.4728103152610506 1
gene  2 235 4 1.8831639178855317 0 1041.0 1.8831639178855317 1
gene  3 235 28 -1.2968415473574564 0 1085.0 -1.2968415473574564 1
genomeend 50
/* Organism # 051 Fitness:  3.913 Error:  2.022                      */
genomestart  51
trait 1 0.1 0.6803860034403816 0.1924621814011147 0.4699962252700536 0.0 0.16962498034476925 0.0 1.7814974833902937 
trait 2 0.2 0.0 0.0 0.0 0.0 0.0 0.0 0.0 
trait 3 1.1321445861284705 0.5557632227307898 0.0 0.0 0.3847344748037246 0.0 0.0 0.0 
node 1 2 1 1
node 2 2 1 1
node 3 1 1 3
node 4 1 0 2
node 7 1 0 0
node 14 1 0 0
node 17 1 0 0
node 28 1 0 0
node 62 1 0 0
node 147 1 0 0
node 235 1 0 0
gene  1 1 4 11.223743274244402 0 1.0 11.223743274244402 1
gene  2 2 4 -0.9236445505198149 0 2.0 -0.9236445505198149 1
gene  3 3 4 2.256807697397387 0 3.0 2.256807697397387 1
gene  1 1 7 9.85263140294008 0 8.0 9.85263140294008 1
gene  1 7 4 -1.3429065317204032 0 9.0 -1.3429065317204032 1
gene  2 1 14 2.344595692211559 0 27.0 2.344595692211559 1
gene  1 14 4 5.060892208591781 0 28.0 5.060892208591781 1
gene  2 2 17 5.922237486984624 0 37.0 5.922237486984624 1
gene  2 17 4 -1.7788987985339784 0 38.0 -1.7788987985339784 0
gene  2 1 17 -6.147775891887934 0 54.0 -6.147775891887934 1
gene  3 1 28 -3.9661716102084887 0 78.0 -3.9661716102084887 1
gene  1 28 7 17.374375184637497 0 79.0 17.374375184637497 1
gene  3 17 7 -2.8560527481151743 0 148.0 -2.8560527481151743 1
gene  1 3 7 0.646819416634386 0 197.0 0.646819416634386 1
gene  2 28 14 -4.178568754793883 0 213.0 -4.178568754793883 1
gene  1 1 62 -15.724375958602238 0 232.0 -15.724375958602238 1
gene  1 62 4 -11.018856011446942 0 233.0 -11.018856011446942 1
gene  2 14 7 1.4823039875918935 0 493.0 1.4823039875918935 1
gene  2 14 147 -0.8517339681772014 0 647.0 -0.8517339681772014 1
gene  2 147 7 -6.29214076893299 0 648.0 -6.29214076893299 1
gene  2 3 28 -3.395649403151275 0 962.0 -3.395649403151275 1
gene  2 17 235 -2.055801545169911 0 1040.0 -2.055801545169911 1
gene  2 235 4 -1.5004951732277498 0 1041.0 -1.5004951732277498 1
gene  3 235 28 4.989482158270545 0 1085.0 4.989482158270545 1
genomeend 51
/* Organism # 052 Fitness:  9.000 Error:  1.000                      */
genomestart  52
trait 1 0.1 0.6803860034403816 0.1924621814011147 0.4699962252700536 0.0 0.16962498034476925 0.0 1.7814974833902937 
trait 2 0.2 0.0 0.0 0.0 0.0 0.0 0.0 0.0 
trait 3 1.1321445861284705 0.5557632227307898 0.0 0.0 0.3847344748037246 0.0 0.0 0.0 
node 1 2 1 1
node 2 2 1 1
node 3 1 1 3
node 4 1 0 2
node 7 1 0 0
node 14 1 0 0
node 17 1 0 0
node 28 1 0 0
node 62 1 0 0
node 147 1 0 0
node 235 1 0 0
gene  1 1 4 13.496764980254056 0 1.0 13.496764980254056 1
gene  2 2 4 16.04845863894588 0 2.0 16.04845863894588 1
gene  3 3 4 -1.3605095744502431 0 3.0 -1.3605095744502431 1
gene  1 1 7 13.28887925273914 0 8.0 13.28887925273914 1
gene  1 7 4 -1.0845478366148695 0 9.0 -1.0845478366148695 1
gene  2 1 14 4.13880594576087 0 27.0 4.13880594576087 1
gene  1 14 4 4.825995567182465 0 28.0 4.825995567182465 1
gene  2 2 17 5.092714497440214 0 37.0 5.092714497440214 1
gene  2 17 4 0.6548324391538013 0 38.0 0.6548324391538013 0
gene  2 1 17 -0.8119157537484891 0 54.0 -0.8119157537484891 1
gene  3 1 28 0.24840615968939472 0 78.0 0.24840615968939472 1
gene  1 28 7 -0.1363466121084736 0 79.0 -0.1363466121084736 1
gene  3 17 7 -2.705934230619882 0 148.0 -2.705934230619882 1
gene  1 3 7 -1.4477985294399294 0 197.0 -1.4477985294399294 1
gene  2 28 14 -0.7831430792719102 0 213.0 -0.7831430792719102 1
gene  1 1 62 2.4000224408347566 0 232.0 2.4000224408347566 1
gene  1 62 4 -9.825965481468023 0 233.0 -9.825965481468023 1
gene  2 14 7 -0.9809539076991234 0 493.0 -0.9809539076991234 1
gene  2 14 147 -3.217658867569525 0 647.0 -3.217658867569525 1
gene  2 147 7 -2.3910394181919856 0 648.0 -2.3910394181919856 1
gene  2 3 28 -3.565989305222414 0 962.0 -3.565989305222414 1
gene  2 17 235 1.3926809894190373 0 1040.0 1.3926809894190373 1
gene  2 235 4 -1.8830869317661305 0 1041.0 -1.8830869317661305 1
gene  3 235 28 3.391107957160069 0 1085.0 3.391107957160069 1
genomeend 52
/* Organism # 053 Fitness:  7.110 Error:  1.334                      */
genomestart  53
trait 1 0.1 0.6803860034403816 0.1924621814011147 0.4699962252700536 0.0 0.16962498034476925 0.0 1.7814974833902937 
trait 2 0.2 0.0 0.0 0.0 0.0 0.0 0.0 0.0 
trait 3 1.1321445861284705 0.5557632227307898 0.0 0.0 0.3847344748037246 0.0 0.0 0.0 
node 1 2 1 1
node 2 2 1 1
node 3 1 1 3
node 4 1 0 2
node 7 1 0 0
node 14 1 0 0
node 17 1 0 0
node 28 1 0 0
node 62 1 0 0
node 147 1 0 0
node 235 2 0 0
gene  1 1 4 1.4993069629285447 0 1.0 1.4993069629285447 1
gene  2 2 4 18.954452398046854 0 2.0 18.954452398046854 1
gene  3 3 4 1.3482345923257721 0 3.0 1.3482345923257721 1
gene  1 1 7 9.416395001127999 0 8.0 9.416395001127999 1
gene  1 7 4 0.057968575857894056 0 9.0 0.057968575857894056 1
gene  2 1 14 1.7941085238317158 0 27.0 1.7941085238317158 1
gene  1 14 4 0.9056963170625008 0 28.0 0.9056963170625008 1
gene  2 2 17 6.351068409929936 0 37.0 6.351068409929936 1
gene  2 17 4 -2.7876597859551175 0 38.0 -2.7876597859551175 0
gene  2 1 17 -6.51530509753453 0 54.0 -6.51530509753453 1
gene  3 1 28 -0.35845636436753914 0 78.0 -0.35845636436753914 1
gene  1 28 7 13.795111374574786 0 79.0 13.795111374574786 1
gene  3 17 7 -2.833841255557929 0 148.0 -2.833841255557929 1
gene  1 3 7 -1.346337353812403 0 197.0 -1.346337353812403 1
gene  2 28 14 -6.789734777813239 0 213.0 -6.789734777813239 1
gene  1 1 62 -14.57435096907706 0 232.0 -14.57435096907706 1
gene  1 62 4 0.6699462428247377 0 233.0 0.6699462428247377 1
gene  2 14 7 1.4823039875918935 0 493.0 1.4823039875918935 1
gene  2 14 147 -1.7770482624421866 0 647.0 -1.7770482624421866 1
gene  2 147 7 -8.918200185718723 0 648.0 -8.918200185718723 1
gene  2 3 28 -3.565989305222414 0 962.0 -3.565989305222414 1
gene  2 17 235 2.9542208767087446 0 1040.0 2.9542208767087446 1
gene  2 235 4 -1.8830869317661305 0 1041.0 -1.8830869317661305 1
gene  3 235 28 3.904266922581093 0 1085.0 3.904266922581093 1
genomeend 53
/*-------------------------------------------------------------------*/
/* Species # 024         : (size= 005) (AvfFit= 7.047) (Age= 60.000)  */
/*-------------------------------------------------------------------*/
/* Organism # 054 Fitness:  9.000 Error:  1.000                      */
genomestart  54
trait 1 0.1 0.8547064134552635 0.0037666697821318483 0.0 0.8618570098948919 0.34187400946385177 0.006918479051791198 0.0 
trait 2 0.6044769326126544 0.0 0.0 0.05101173960322635 0.32333613690574825 0.7941849217942566 0.9042096501188198 0.0 
trait 3 0.3 0.3206620150460666 0.9694959501301346 0.685452531929088 0.0 0.0 0.0 0.34344746018298167 
node 1 1 1 1
node 2 1 1 1
node 3 3 1 3
node 4 3 0 2
gene  3 1 4 20.0253646650254 0 1.0 20.0253646650254 1
gene  2 2 4 -21.984257996823366 0 2.0 -21.984257996823366 1
gene  2 3 4 -10.964066002534503 0 3.0 -10.964066002534503 1
genomeend 54
/* Organism # 055 Fitness:  4.000 Error:  2.000                      */
genomestart  55
trait 1 0.1 0.8547064134552635 0.0037666697821318483 0.0 0.8618570098948919 0.34187400946385177 0.006918479051791198 0.0 
trait 2 0.29178519717137613 0.0 0.0 0.05101173960322635 0.0 0.007846789930717466 0.9042096501188198 0.40889499028511556 
trait 3 0.3 0.3206620150460666 0.9694959501301346 0.685452531929088 0.0 0.0 0.0 0.34344746018298167 
node 1 1 1 1
node 2 1 1 1
node 3 3 1 3
node 4 3 0 2
gene  3 1 4 19.645993768376123 0 1.0 19.645993768376123 1
gene  2 2 4 -1.9421944769447634 0 2.0 -1.9421944769447634 1
gene  2 3 4 -10.964066002534503 0 3.0 -10.964066002534503 1
genomeend 55
/* Organism # 056 Fitness:  9.000 Error:  1.000                      */
genomestart  56
