genomestart  155
trait 1 0.1 0.0 0.0 0.0 0.0 0.0 0.0 0.0 
trait 2 0.2 0.0 0.0 0.0 0.0 0.0 0.0 0.0 
trait 3 0.6376267350833316 0.0 0.0 0.0 0.0 0.0 0.0 0.06629462485645231 
node 1 1 1 1
node 2 1 1 1
node 3 1 1 3
node 4 1 0 2
node 27 1 0 0
node 43 1 0 0
node 58 1 0 0
node 72 1 0 0
node 103 1 0 0
gene  1 1 4 0.3825672134639444 0 1.0 0.3825672134639444 0
gene  2 2 4 3.066519895502328 0 2.0 3.066519895502328 0
gene  3 3 4 -1.3410645059673696 0 3.0 -1.3410645059673696 1
gene  2 1 27 -6.8974199608450455 0 80.0 -6.8974199608450455 1
gene  1 27 4 -3.1225860570746873 0 81.0 -3.1225860570746873 1
gene  2 3 27 5.539610834981332 0 109.0 5.539610834981332 1
gene  2 2 27 19.398172211548218 0 113.0 19.398172211548218 1
gene  2 2 43 2.8721590423824814 0 157.0 2.8721590423824814 1
gene  3 43 4 10.11373405139651 0 158.0 10.11373405139651 1
gene  1 1 43 1.271498506331402 0 224.0 1.271498506331402 1
gene  1 1 58 6.395469565010007 0 242.0 6.395469565010007 1
gene  1 58 4 1.5632440943334522 0 243.0 1.5632440943334522 0
gene  1 58 43 -9.861350681920314 0 288.0 -9.861350681920314 1
gene  1 1 72 1.31543315052872 0 318.0 1.31543315052872 1
gene  1 72 4 6.382603077324516 0 319.0 6.382603077324516 1
gene  3 27 72 -0.4112138426971901 0 411.0 -0.4112138426971901 1
gene  3 58 72 -0.8012391494888593 0 439.0 -0.8012391494888593 1
gene  1 58 103 -1.146488333082791 0 451.0 -1.146488333082791 1
gene  1 103 4 3.881614166243372 0 452.0 3.881614166243372 1
gene  2 2 58 -5.395957832135372 0 585.0 -5.395957832135372 1
gene  2 72 43 -0.7095252412213802 0 677.0 -0.7095252412213802 1
genomeend 155
