genomestart  165
trait 1 0.1 0.0 0.0 0.0 0.0 0.0 0.0 0.0 
trait 2 0.2 0.0 0.0 0.0 0.0 0.0 0.0 0.0 
trait 3 0.6376267350833316 0.0 0.0 0.0 0.0 0.0 0.0 0.06629462485645231 
node 1 1 1 1
node 2 1 1 1
node 3 1 1 3
node 4 1 0 2
node 27 1 0 0
node 43 1 0 0
node 58 1 0 0
node 72 1 0 0
node 103 1 0 0
gene  1 1 4 1.331438902071597 0 1.0 1.331438902071597 0
gene  2 2 4 -0.7554178074323346 0 2.0 -0.7554178074323346 0
gene  3 3 4 -0.7173309165164441 0 3.0 -0.7173309165164441 1
gene  1 1 27 -7.094054678805234 0 80.0 -7.094054678805234 1
gene  1 27 4 1.1300394048775786 0 81.0 1.1300394048775786 1
gene  2 3 27 -0.1605047208227739 0 109.0 -0.1605047208227739 1
gene  2 2 27 22.69242588806974 0 113.0 22.69242588806974 1
gene  2 2 43 4.731041765298398 0 157.0 4.731041765298398 1
gene  2 43 4 13.730234877511728 0 158.0 13.730234877511728 1
gene  1 1 43 -0.6804461643866242 0 224.0 -0.6804461643866242 1
gene  1 1 58 3.8781941469473704 0 242.0 3.8781941469473704 1
gene  1 58 4 0.5984097873786549 0 243.0 0.5984097873786549 0
gene  1 58 43 -8.965424263306746 0 288.0 -8.965424263306746 1
gene  1 1 72 0.792602273105453 0 318.0 0.792602273105453 1
gene  1 72 4 1.8676416727384813 0 319.0 1.8676416727384813 1
gene  3 27 72 -12.833325585688257 0 411.0 -12.833325585688257 1
gene  3 58 72 -0.5207425099360767 0 439.0 -0.5207425099360767 1
gene  1 58 103 1.595802058238526 0 451.0 1.595802058238526 1
gene  1 103 4 -0.7121034098461626 0 452.0 -0.7121034098461626 1
gene  2 2 58 -3.228586114259157 0 585.0 -3.228586114259157 1
genomeend 165
