genomestart  117
trait 1 0.0 0.4164991608900766 0.0 0.024130898090710368 0.0 0.0 0.0 0.0 
trait 2 0.24344716250459295 0.0 0.0 0.5136909437064322 0.0 0.23038413510262534 0.0 0.0 
trait 3 0.3 0.019853236171330516 0.4501264478379223 0.0 0.0 0.6568022356739168 0.028566163676391813 0.41597304963488424 
node 1 3 1 1
node 2 2 1 1
node 3 1 1 3
node 4 1 0 2
node 7 1 0 0
node 37 1 0 0
node 81 1 0 0
gene  1 1 4 -3.646347275984592 0 1.0 -3.646347275984592 0
gene  2 2 4 -1.7844154579563465 0 2.0 -1.7844154579563465 1
gene  1 3 4 -4.900085806993814 0 3.0 -4.900085806993814 1
gene  2 1 7 9.865704509537766 0 8.0 9.865704509537766 1
gene  1 7 4 8.879699062963063 0 9.0 8.879699062963063 1
gene  2 2 7 6.545080738023128 0 12.0 6.545080738023128 1
gene  1 1 37 2.4180624166939233 0 117.0 2.4180624166939233 1
gene  1 37 4 1.7050818119541968 0 118.0 1.7050818119541968 1
gene  2 3 37 -1.972095634264547 0 190.0 -1.972095634264547 1
gene  3 7 37 -4.462084025126603 0 250.0 -4.462084025126603 1
gene  1 1 81 3.7107012219286784 0 354.0 3.7107012219286784 1
gene  1 81 4 -2.2400007945931057 0 355.0 -2.2400007945931057 1
gene  2 3 7 -0.9367535507391012 0 377.0 -0.9367535507391012 1
gene  3 2 37 -6.290686140633198 0 407.0 -6.290686140633198 1
genomeend 117
