genomestart  65
trait 1 0.1828018383578469 0.511646722685368 0.887916213060954 0.16740380527481824 0.0 0.8682455558581392 0.0 0.20858169628672263 
trait 2 0.2 0.0 0.0 0.0 0.0 0.0 0.0 0.011377811850802742 
trait 3 0.09769716454952376 1.085976962053321 1.0049733941744627 0.2097817798809285 0.0 0.2282007844791084 0.0 0.09301400611535382 
node 1 1 1 1
node 2 1 1 1
node 3 1 1 3
node 4 1 0 2
node 7 3 0 0
node 11 1 0 0
node 31 2 0 0
node 44 3 0 0
gene  1 1 4 -5.725291552373615 0 1.0 -5.725291552373615 1
gene  3 2 4 0.753193033206573 0 2.0 0.753193033206573 0
gene  3 3 4 17.588928371256028 0 3.0 17.588928371256028 1
gene  2 1 7 6.486030994984233 0 8.0 6.486030994984233 1
gene  1 7 4 4.676951060005369 0 9.0 4.676951060005369 1
gene  2 2 11 -5.3030925086702245 0 19.0 -5.3030925086702245 1
gene  2 11 4 -0.36651270517167944 0 20.0 -0.36651270517167944 1
gene  1 3 11 -7.7192056720643105 0 60.0 -7.7192056720643105 1
gene  3 1 31 -3.211050916641611 0 88.0 -3.211050916641611 1
gene  1 31 7 -13.187781596522052 0 89.0 -13.187781596522052 1
gene  1 7 44 -5.317192666757506 0 138.0 -5.317192666757506 1
gene  1 44 4 -21.784874707625676 0 139.0 -21.784874707625676 1
gene  3 2 44 -3.3886287236658514 0 144.0 -3.3886287236658514 1
gene  3 2 31 3.424112320668656 0 243.0 3.424112320668656 1
gene  2 31 44 3.42688164990051 0 332.0 3.42688164990051 1
gene  1 1 44 2.7207707641128493 0 968.0 2.7207707641128493 1
genomeend 65
