genomestart  138
trait 1 0.24752282297412978 0.06580111076468545 0.0 0.20831024849334967 0.025071082154728298 0.0486669310329602 9.998098331782134E-4 0.0 
trait 2 0.2 0.0 0.0 0.0 0.0 0.0 0.0 0.0 
trait 3 0.34758106760543034 0.0 0.0 0.0 0.0 0.10121239988747802 0.08647148072088728 0.07346983059337467 
node 1 1 1 1
node 2 1 1 1
node 3 1 1 3
node 4 1 0 2
node 12 1 0 0
node 37 1 0 0
node 45 1 0 0
node 63 1 0 0
node 77 1 0 0
gene  1 1 4 0.35520497649493826 0 1.0 0.35520497649493826 0
gene  2 2 4 -0.6870639161310582 0 2.0 -0.6870639161310582 1
gene  3 3 4 -2.521584173197947 0 3.0 -2.521584173197947 1
gene  1 1 12 6.193770367335182 0 21.0 6.193770367335182 1
gene  1 12 4 4.592068711140296 0 22.0 4.592068711140296 1
gene  3 2 12 4.342499955869444 0 36.0 4.342499955869444 1
gene  1 3 12 -1.5980611068593322 0 86.0 -1.5980611068593322 1
gene  1 1 37 1.3771881076400319 0 117.0 1.3771881076400319 1
gene  1 37 4 -1.9567444987334472 0 118.0 -1.9567444987334472 1
gene  1 1 45 0.5256687601121015 0 170.0 0.5256687601121015 0
gene  1 45 4 0.5938008413272393 0 171.0 0.5938008413272393 1
gene  1 2 45 1.470495259212409 0 184.0 1.470495259212409 1
gene  3 37 45 -5.393069476206923 0 229.0 -5.393069476206923 1
gene  1 1 63 1.0 0 264.0 0.0 1
gene  1 63 4 0.35520497649493826 0 265.0 0.0 1
gene  3 12 63 0.9320811813900121 0 294.0 0.9320811813900121 1
gene  1 1 77 1.0 0 338.0 0.0 1
gene  1 77 45 0.5256687601121015 0 339.0 0.0 1
genomeend 138
