genomestart  47
trait 1 0.1828018383578469 0.511646722685368 0.887916213060954 0.16740380527481824 0.0 0.8682455558581392 0.0 0.20858169628672263 
trait 2 0.2 0.0 0.0 0.0 0.0 0.0 0.0 0.011377811850802742 
trait 3 0.40500261316494196 0.5332891832981644 0.19951034042631954 0.0 0.0 0.2282007844791084 0.0 0.09301400611535382 
node 1 1 1 1
node 2 1 1 1
node 3 1 1 3
node 4 1 0 2
node 7 3 0 0
node 11 1 0 0
node 31 2 0 0
node 44 3 0 0
node 265 1 0 0
gene  3 1 4 3.0727077294279246 0 1.0 3.0727077294279246 1
gene  3 2 4 0.4690407631854542 0 2.0 0.4690407631854542 0
gene  3 3 4 15.578516041618672 0 3.0 15.578516041618672 1
gene  2 1 7 5.423061991901937 0 8.0 5.423061991901937 1
gene  1 7 4 3.6568297127969895 0 9.0 3.6568297127969895 1
gene  2 2 11 -5.932972319674154 0 19.0 -5.932972319674154 1
gene  2 11 4 -1.9042329136570681 0 20.0 -1.9042329136570681 0
gene  1 3 11 -12.286315731541 0 60.0 -12.286315731541 1
gene  3 1 31 -2.638296369246528 0 88.0 -2.638296369246528 1
gene  1 31 7 -12.47950135468328 0 89.0 -12.47950135468328 1
gene  1 7 44 -7.334954324804352 0 138.0 -7.334954324804352 1
gene  1 44 4 -25.01786404298388 0 139.0 -25.01786404298388 1
gene  3 2 44 -2.989374444668027 0 144.0 -2.989374444668027 1
gene  3 2 31 4.613415490036598 0 243.0 4.613415490036598 1
gene  2 31 44 0.10844570788905816 0 332.0 0.10844570788905816 1
gene  1 1 44 5.652663710621566 0 968.0 5.652663710621566 1
gene  2 11 265 1.6020981408289972 0 1195.0 1.6020981408289972 1
gene  2 265 4 -3.1883055457360614 0 1196.0 -3.1883055457360614 1
gene  2 31 4 -2.392004567819788 0 1226.0 -2.392004567819788 1
genomeend 47
