genomestart  108
trait 1 0.5105389784656233 0.0 0.0 0.0 0.055398074479255544 0.0 0.13083314189030548 0.12192827250494745 
trait 2 0.17500000000000002 0.03353619471315164 0.0 0.36626530219910236 0.05845915468876921 0.0 0.0 0.0 
trait 3 0.3 0.0 0.0 0.0 0.0 0.0 0.0 0.0 
node 1 2 1 1
node 2 2 1 1
node 3 1 1 3
node 4 1 0 2
node 7 1 0 0
node 14 3 0 0
node 17 2 0 0
node 28 1 0 0
node 44 1 0 0
node 47 3 0 0
node 58 1 0 0
node 145 1 0 0
node 193 1 0 0
gene  1 1 4 -3.9470686433624405 0 1.0 -3.9470686433624405 1
gene  2 2 4 0.4580986296287204 0 2.0 0.4580986296287204 1
gene  3 3 4 0.9707486419992291 0 3.0 0.9707486419992291 1
gene  1 1 7 -2.202178651614874 0 8.0 -2.202178651614874 0
gene  1 7 4 9.543332934915 0 9.0 9.543332934915 1
gene  1 1 14 0.2223347354069352 0 27.0 0.2223347354069352 1
gene  1 14 4 0.6072708442733457 0 28.0 0.6072708442733457 1
gene  2 2 17 3.801780888381728 0 37.0 3.801780888381728 1
gene  2 17 4 4.734902336041086 0 38.0 4.734902336041086 1
gene  2 1 17 4.176567632196824 0 54.0 4.176567632196824 1
gene  2 1 28 4.647372078942001 0 78.0 4.647372078942001 1
gene  1 28 7 -4.005838553604416 0 79.0 -4.005838553604416 1
gene  1 7 44 -0.6984081617844238 0 138.0 -0.6984081617844238 1
gene  1 44 4 7.337750114471763 0 139.0 7.337750114471763 1
gene  1 1 47 -2.0672341805558454 0 151.0 -2.0672341805558454 1
gene  1 47 7 1.9286045894157415 0 152.0 1.9286045894157415 1
gene  2 1 58 -0.33279438224473407 0 221.0 -0.33279438224473407 1
gene  2 58 17 -2.951554719199022 0 222.0 -2.951554719199022 1
gene  2 47 58 -3.821197102939812 0 279.0 -3.821197102939812 1
gene  2 2 28 -13.723520978121584 0 339.0 -13.723520978121584 1
gene  2 2 145 6.472089248480616 0 633.0 6.472089248480616 1
gene  2 145 4 -12.465142580470767 0 634.0 -12.465142580470767 1
gene  3 1 44 5.047479695649303 0 728.0 5.047479695649303 1
gene  3 14 58 4.339411820132861 0 783.0 4.339411820132861 1
gene  1 1 193 3.3828792852018283 0 849.0 3.3828792852018283 1
gene  1 193 7 -1.2112429736309902 0 850.0 -1.2112429736309902 1
genomeend 108
