genomestart  157
trait 1 0.0853515625 0.13121731127016129 0.0 0.024130898090710368 0.0 0.0 0.0 0.0 
trait 2 0.0 0.0 0.03420370051487321 0.0 0.0 0.04194257483884601 0.0 0.0 
trait 3 0.2143355974348526 0.019853236171330516 0.4501264478379223 0.0 0.7172194053285394 0.17739462079985557 0.0 1.0580518625973219 
node 1 2 1 1
node 2 2 1 1
node 3 1 1 3
node 4 2 0 2
node 7 1 0 0
node 37 1 0 0
node 89 1 0 0
gene  1 1 4 -6.212605394425833 0 1.0 -6.212605394425833 0
gene  2 2 4 -5.840655125744709 0 2.0 -5.840655125744709 1
gene  3 3 4 -2.538368383746193 0 3.0 -2.538368383746193 1
gene  1 1 7 12.28084183577652 0 8.0 12.28084183577652 1
gene  1 7 4 7.995894426145257 0 9.0 7.995894426145257 1
gene  2 2 7 4.175064719843959 0 12.0 4.175064719843959 1
gene  2 3 7 -2.119093750321728 0 64.0 -2.119093750321728 1
gene  1 1 37 3.04261146793866 0 117.0 3.04261146793866 1
gene  1 37 4 1.2211703791803712 0 118.0 1.2211703791803712 1
gene  3 7 37 -4.011289750897539 0 155.0 -4.011289750897539 1
gene  3 3 37 -13.706118465423078 0 167.0 -13.706118465423078 1
gene  2 2 37 -3.234727597046746 0 222.0 -3.234727597046746 1
gene  1 1 89 -5.971670737022283 0 386.0 -5.971670737022283 1
gene  1 89 4 1.2787837987237538 0 387.0 1.2787837987237538 1
gene  3 3 89 3.234849540641494 0 432.0 3.234849540641494 1
gene  2 89 37 -0.3138695504452352 0 485.0 -0.3138695504452352 1
genomeend 157
