genomestart  0
trait 1 0.0 0.0 0.0 0.0 0.0 0.0 0.0 0.0 
node 1 1 1 1
node 2 1 1 1
node 3 1 1 1
node 4 1 1 1
node 5 1 1 1
node 6 1 1 1
node 7 1 1 1
node 8 1 1 1
node 9 1 1 1
node 10 1 1 3
node 11 1 0 0
node 12 1 0 0
node 13 1 0 0
node 14 1 0 0
node 15 1 0 0
node 16 1 0 0
node 17 1 0 0
node 18 1 0 0
node 19 1 0 0
node 20 1 0 0
node 21 1 0 0
node 22 1 0 0
node 51 1 0 2
node 52 1 0 2
node 53 1 0 2
node 54 1 0 2
node 55 1 0 2
node 56 1 0 2
node 57 1 0 2
node 58 1 0 2
node 59 1 0 2
node 60 1 0 2
node 61 1 0 0
node 62 1 0 0
node 63 1 0 0
node 64 1 0 0
node 65 1 0 0
node 66 1 0 0
node 67 1 0 0
node 68 1 0 0
node 69 1 0 0
node 70 1 0 0
node 71 1 0 0
node 72 1 0 0
node 73 1 0 0
node 74 1 0 0
node 75 1 0 0
node 76 1 0 0
node 77 1 0 0
node 78 1 0 0
node 79 1 0 0
node 80 1 0 0
node 81 1 0 0
node 82 1 0 0
node 83 1 0 0
node 84 1 0 0
node 85 1 0 0
node 86 1 0 0
node 87 1 0 0
node 88 1 0 0
node 89 1 0 0
node 90 1 0 0
node 91 1 0 0
node 92 1 0 0
node 93 1 0 0
node 94 1 0 0
node 95 1 0 0
node 96 1 0 0
node 97 1 0 0
node 98 1 0 0
node 99 1 0 0
node 100 1 0 0
node 101 1 0 0
node 102 1 0 0
node 103 1 0 0
node 104 1 0 0
node 105 1 0 0
node 106 1 0 0
node 107 1 0 0
node 108 1 0 0
node 109 1 0 0
node 110 1 0 0
node 111 1 0 0
node 112 1 0 0
node 113 1 0 0
node 114 1 0 0
node 115 1 0 0
node 116 1 0 0
node 117 1 0 0
node 118 1 0 0
node 119 1 0 0
node 120 1 0 0
node 121 1 0 0
node 122 1 0 0
node 123 1 0 0
node 124 1 0 0
node 125 1 0 0
node 126 1 0 0
node 127 1 0 0
gene  1 1 11 -0.7743468344236379 0 600.0 -0.7743468344236379 1
gene  1 7 11 -0.21438992682762606 0 606.0 -0.21438992682762606 1
gene  1 9 11 -0.22298091759722977 0 608.0 -0.22298091759722977 1
gene  1 10 11 1.800202461606295 0 609.0 1.800202461606295 1
gene  1 11 11 3.292367947635787 1 610.0 3.292367947635787 1
gene  1 18 11 0.8984628489021717 1 617.0 0.8984628489021717 1
gene  1 20 11 0.600959393626194 1 619.0 0.600959393626194 1
gene  1 21 11 1.3224882295249851 1 620.0 1.3224882295249851 1
gene  1 51 11 -0.7263097920856716 1 650.0 -0.7263097920856716 1
gene  1 55 11 1.0136601924734303 1 654.0 1.0136601924734303 1
gene  1 56 11 -0.7672553650248977 1 655.0 -0.7672553650248977 1
gene  1 58 11 0.5205116791445021 1 657.0 0.5205116791445021 0
gene  1 3 12 0.8096858239948809 0 662.0 0.8096858239948809 0
gene  1 5 12 -0.22053404422022505 0 664.0 -0.22053404422022505 1
gene  1 6 12 0.3776477836905498 0 665.0 0.3776477836905498 1
gene  1 7 12 0.4058493415244335 0 666.0 0.4058493415244335 1
gene  1 8 12 -0.8059207308933038 0 667.0 -0.8059207308933038 0
gene  1 14 12 0.054353136364007404 1 673.0 0.054353136364007404 1
gene  1 15 12 0.7737809530446418 1 674.0 0.7737809530446418 1
gene  1 17 12 -2.820849322614623 1 676.0 -2.820849322614623 0
gene  1 18 12 -0.33342506957294143 1 677.0 -0.33342506957294143 1
gene  1 20 12 0.34023652816959327 1 679.0 0.34023652816959327 1
gene  1 22 12 0.6559067044882683 1 681.0 0.6559067044882683 1
gene  1 54 12 0.09397799822770342 1 713.0 0.09397799822770342 1
gene  1 55 12 3.538964810793254 1 714.0 3.538964810793254 1
gene  1 57 12 -0.3750619620822423 1 716.0 -0.3750619620822423 1
gene  1 58 12 0.9583944007311954 1 717.0 0.9583944007311954 1
gene  1 60 12 -0.03666430234545809 1 719.0 -0.03666430234545809 0
gene  1 4 13 -2.199947357748577 0 723.0 -2.199947357748577 1
gene  1 8 13 -0.21979602440200194 0 727.0 -0.21979602440200194 1
gene  1 14 13 -0.2354575400812759 1 733.0 -0.2354575400812759 1
gene  1 16 13 0.9154333843506847 1 735.0 0.9154333843506847 1
gene  1 17 13 -0.4081703657324649 1 736.0 -0.4081703657324649 1
gene  1 18 13 2.6299240818201906 1 737.0 2.6299240818201906 0
gene  1 19 13 1.515726658049235 1 738.0 1.515726658049235 1
gene  1 20 13 2.0860126000676034 1 739.0 2.0860126000676034 1
gene  1 21 13 2.1076859971615427 1 740.0 2.1076859971615427 1
gene  1 54 13 -0.3677405668618168 1 773.0 -0.3677405668618168 1
gene  1 55 13 -2.240494207419036 1 774.0 -2.240494207419036 1
gene  1 56 13 -1.2395993536334986 1 775.0 -1.2395993536334986 1
gene  1 57 13 0.19281923763076175 1 776.0 0.19281923763076175 1
gene  1 58 13 -1.3043438551224265 1 777.0 -1.3043438551224265 1
gene  1 59 13 0.73894545808967 1 778.0 0.73894545808967 1
gene  1 60 13 -1.2909535793683182 1 779.0 -1.2909535793683182 1
gene  1 1 14 0.5034117718218465 0 780.0 0.5034117718218465 1
gene  1 2 14 1.7745317021160005 0 781.0 1.7745317021160005 1
gene  1 3 14 1.1425289849616398 0 782.0 1.1425289849616398 1
gene  1 5 14 -0.1863928550821861 0 784.0 -0.1863928550821861 1
gene  1 6 14 -0.06328365420872031 0 785.0 -0.06328365420872031 1
gene  1 10 14 0.32723942652332033 0 789.0 0.32723942652332033 1
gene  1 15 14 -2.2036646619170854 1 794.0 -2.2036646619170854 1
gene  1 22 14 -0.8556523314196036 1 801.0 -0.8556523314196036 1
gene  1 51 14 -0.11310478164225317 1 830.0 -0.11310478164225317 1
gene  1 52 14 0.062095851441200334 1 831.0 0.062095851441200334 1
gene  1 53 14 -0.3651533669780294 1 832.0 -0.3651533669780294 1
gene  1 57 14 -0.05154157191921564 1 836.0 -0.05154157191921564 1
gene  1 58 14 0.837132258392834 1 837.0 0.837132258392834 1
gene  1 59 14 -0.9912992210900328 1 838.0 -0.9912992210900328 1
gene  1 1 15 0.9074711612228556 0 840.0 0.9074711612228556 0
gene  1 2 15 -0.2241901656988285 0 841.0 -0.2241901656988285 1
gene  1 3 15 -1.178730062564442 0 842.0 -1.178730062564442 1
gene  1 6 15 0.7384453244739644 0 845.0 0.7384453244739644 1
gene  1 7 15 0.4602454504095731 0 846.0 0.4602454504095731 0
gene  1 8 15 1.2886331911659399 0 847.0 1.2886331911659399 0
gene  1 10 15 -0.2844605241779348 0 849.0 -0.2844605241779348 1
gene  1 11 15 0.6206883545957752 0 850.0 0.6206883545957752 1
gene  1 12 15 0.42765477475124886 0 851.0 0.42765477475124886 1
gene  1 13 15 1.3078000883280279 0 852.0 1.3078000883280279 1
gene  1 14 15 1.347492309691722 0 853.0 1.347492309691722 1
gene  1 15 15 -2.1531942993898414 1 854.0 -2.1531942993898414 1
gene  1 16 15 1.3491771168543822 1 855.0 1.3491771168543822 0
gene  1 20 15 -1.2531861366277324 1 859.0 -1.2531861366277324 1
gene  1 57 15 1.9344436103408316 1 896.0 1.9344436103408316 1
gene  1 59 15 -0.3592937099603309 1 898.0 -0.3592937099603309 1
gene  1 1 16 0.2549810383791301 0 900.0 0.2549810383791301 1
gene  1 2 16 0.0831491409461593 0 901.0 0.0831491409461593 0
gene  1 4 16 -0.08595842831878299 0 903.0 -0.08595842831878299 1
gene  1 5 16 -1.328156108020367 0 904.0 -1.328156108020367 1
gene  1 6 16 -0.9421416369908022 0 905.0 -0.9421416369908022 1
gene  1 7 16 -1.6126401277700793 0 906.0 -1.6126401277700793 1
gene  1 8 16 1.22813164258803 0 907.0 1.22813164258803 1
gene  1 10 16 0.5662098857513002 0 909.0 0.5662098857513002 1
gene  1 11 16 0.7623577742850333 0 910.0 0.7623577742850333 0
gene  1 14 16 0.20266103262337323 0 913.0 0.20266103262337323 0
gene  1 15 16 -1.2502230189216428 0 914.0 -1.2502230189216428 1
gene  1 21 16 -0.2724008373877015 1 920.0 -0.2724008373877015 1
gene  1 22 16 1.0468226695117429 1 921.0 1.0468226695117429 1
gene  1 52 16 0.6892374114875308 1 951.0 0.6892374114875308 0
gene  1 53 16 1.911122326764974 1 952.0 1.911122326764974 1
gene  1 59 16 -0.9128491905133997 1 958.0 -0.9128491905133997 0
gene  1 1 17 0.28463080808844465 0 960.0 0.28463080808844465 1
gene  1 2 17 -0.9161211734420827 0 961.0 -0.9161211734420827 1
gene  1 3 17 -0.017377343532928552 0 962.0 -0.017377343532928552 1
gene  1 4 17 -0.23965269887970206 0 963.0 -0.23965269887970206 1
gene  1 6 17 0.9080272709265657 0 965.0 0.9080272709265657 0
gene  1 8 17 2.206721883914907 0 967.0 2.206721883914907 1
gene  1 10 17 0.06567481216693324 0 969.0 0.06567481216693324 1
gene  1 11 17 0.14036294336053778 0 970.0 0.14036294336053778 1
gene  1 13 17 0.13959786599991156 0 972.0 0.13959786599991156 0
gene  1 15 17 -1.2441810002727967 0 974.0 -1.2441810002727967 1
gene  1 17 17 -1.1724047032849265 1 976.0 -1.1724047032849265 1
gene  1 18 17 0.2269335678481847 1 977.0 0.2269335678481847 1
gene  1 19 17 -0.8366873410791736 1 978.0 -0.8366873410791736 1
gene  1 20 17 -2.1497543148752816 1 979.0 -2.1497543148752816 1
gene  1 54 17 0.13610676938911395 1 1013.0 0.13610676938911395 1
gene  1 55 17 0.5971292406652796 1 1014.0 0.5971292406652796 1
gene  1 57 17 1.015546640000006 1 1016.0 1.015546640000006 1
gene  1 58 17 -0.09391639678852035 1 1017.0 -0.09391639678852035 1
gene  1 60 17 0.37606770759596253 1 1019.0 0.37606770759596253 1
gene  1 1 18 -0.8371996106968281 0 1020.0 -0.8371996106968281 1
gene  1 2 18 0.9783104295952051 0 1021.0 0.9783104295952051 1
gene  1 5 18 -0.4547869144745063 0 1024.0 -0.4547869144745063 1
gene  1 6 18 -0.5979497741727055 0 1025.0 -0.5979497741727055 0
gene  1 9 18 -0.6750020266087192 0 1028.0 -0.6750020266087192 1
gene  1 11 18 -1.4061695635696798 0 1030.0 -1.4061695635696798 1
gene  1 17 18 0.6443781852366535 0 1036.0 0.6443781852366535 1
gene  1 22 18 -0.05143731539763735 1 1041.0 -0.05143731539763735 1
gene  1 51 18 1.000258967950363 1 1070.0 1.000258967950363 1
gene  1 53 18 0.866118980318351 1 1072.0 0.866118980318351 0
gene  1 54 18 -0.4797349940706604 1 1073.0 -0.4797349940706604 1
gene  1 56 18 1.0420871737195527 1 1075.0 1.0420871737195527 1
gene  1 57 18 2.38218077081704 1 1076.0 2.38218077081704 1
gene  1 1 19 -0.2967884576673242 0 1080.0 -0.2967884576673242 1
gene  1 2 19 1.0112823249523446 0 1081.0 1.0112823249523446 1
gene  1 3 19 2.6057659769441495 0 1082.0 2.6057659769441495 1
gene  1 4 19 -0.00892427120935635 0 1083.0 -0.00892427120935635 1
gene  1 8 19 -1.8543955108006283 0 1087.0 -1.8543955108006283 1
gene  1 10 19 0.7547067131560947 0 1089.0 0.7547067131560947 1
gene  1 11 19 -0.5629200446703165 0 1090.0 -0.5629200446703165 1
gene  1 16 19 -1.2298922487360517 0 1095.0 -1.2298922487360517 1
gene  1 17 19 0.5868622629208814 0 1096.0 0.5868622629208814 1
gene  1 18 19 2.0945479879993902 0 1097.0 2.0945479879993902 1
gene  1 19 19 0.11329059847902931 1 1098.0 0.11329059847902931 0
gene  1 52 19 -1.0281775730729124 1 1131.0 -1.0281775730729124 1
gene  1 54 19 0.38604324150234404 1 1133.0 0.38604324150234404 1
gene  1 55 19 -0.5027875593793631 1 1134.0 -0.5027875593793631 1
gene  1 56 19 -0.672237103074099 1 1135.0 -0.672237103074099 0
gene  1 57 19 -0.1824966021183545 1 1136.0 -0.1824966021183545 1
gene  1 60 19 0.3641151937408392 1 1139.0 0.3641151937408392 1
gene  1 6 20 0.2900389932578147 0 1145.0 0.2900389932578147 1
gene  1 11 20 1.1138288640937555 0 1150.0 1.1138288640937555 1
gene  1 12 20 0.4137102016439729 0 1151.0 0.4137102016439729 1
gene  1 14 20 0.059554724033489964 0 1153.0 0.059554724033489964 1
gene  1 15 20 0.8489387906435261 0 1154.0 0.8489387906435261 1
gene  1 20 20 0.9280029165586887 1 1159.0 0.9280029165586887 1
gene  1 52 20 -0.17187792685456674 1 1191.0 -0.17187792685456674 1
gene  1 53 20 -0.5251125850108076 1 1192.0 -0.5251125850108076 1
gene  1 57 20 0.5744348506541881 1 1196.0 0.5744348506541881 1
gene  1 1 21 -1.3755168248824832 0 1200.0 -1.3755168248824832 1
gene  1 3 21 0.10324887355884974 0 1202.0 0.10324887355884974 0
gene  1 4 21 0.9364326982361779 0 1203.0 0.9364326982361779 1
gene  1 5 21 -2.820236512485628 0 1204.0 -2.820236512485628 1
gene  1 6 21 0.8418877390997082 0 1205.0 0.8418877390997082 1
gene  1 7 21 0.5371337314128006 0 1206.0 0.5371337314128006 1
gene  1 9 21 -0.4382638976131057 0 1208.0 -0.4382638976131057 0
gene  1 14 21 0.7408638484158763 0 1213.0 0.7408638484158763 0
gene  1 16 21 0.40450797405361816 0 1215.0 0.40450797405361816 0
gene  1 17 21 0.4506150792527936 0 1216.0 0.4506150792527936 1
gene  1 18 21 1.0036298275287145 0 1217.0 1.0036298275287145 1
gene  1 21 21 0.30249021399242587 1 1220.0 0.30249021399242587 1
gene  1 51 21 -1.9362358430808437 1 1250.0 -1.9362358430808437 1
gene  1 52 21 -0.8374971180461305 1 1251.0 -0.8374971180461305 1
gene  1 54 21 -1.5581799729918577 1 1253.0 -1.5581799729918577 1
gene  1 55 21 0.06882003918852456 1 1254.0 0.06882003918852456 1
gene  1 56 21 -0.8324795015887498 1 1255.0 -0.8324795015887498 1
gene  1 2 22 1.3159252060019082 0 1261.0 1.3159252060019082 1
gene  1 3 22 0.020777657686554554 0 1262.0 0.020777657686554554 1
gene  1 5 22 -0.5594920040728785 0 1264.0 -0.5594920040728785 1
gene  1 8 22 -2.10603773189207 0 1267.0 -2.10603773189207 1
gene  1 13 22 -0.4677488984349929 0 1272.0 -0.4677488984349929 1
gene  1 14 22 0.01850092664152226 0 1273.0 0.01850092664152226 1
gene  1 16 22 0.4587426562451105 0 1275.0 0.4587426562451105 1
gene  1 18 22 0.45327085529661193 0 1277.0 0.45327085529661193 1
gene  1 20 22 -0.21694965076650824 0 1279.0 -0.21694965076650824 1
gene  1 22 22 0.18787969284930472 1 1281.0 0.18787969284930472 1
gene  1 51 22 -0.052495329444185196 1 1310.0 -0.052495329444185196 1
gene  1 52 22 0.21009245056744108 1 1311.0 0.21009245056744108 1
gene  1 59 22 -0.18098077814789187 1 1318.0 -0.18098077814789187 0
gene  1 60 22 1.5219482632353258 1 1319.0 1.5219482632353258 0
gene  1 4 51 1.1791449368736708 0 3003.0 1.1791449368736708 1
gene  1 5 51 0.44794262225395337 0 3004.0 0.44794262225395337 1
gene  1 7 51 -1.4175536643709146 0 3006.0 -1.4175536643709146 1
gene  1 9 51 0.8666576462456903 0 3008.0 0.8666576462456903 0
gene  1 10 51 -0.23795981930702184 0 3009.0 -0.23795981930702184 1
gene  1 13 51 -0.6088986065019123 0 3012.0 -0.6088986065019123 1
gene  1 15 51 -0.4132233046284382 0 3014.0 -0.4132233046284382 1
gene  1 17 51 1.7863561148043896 0 3016.0 1.7863561148043896 1
gene  1 52 51 -0.3135518488284515 1 3051.0 -0.3135518488284515 1
gene  1 53 51 -0.73839209962831 1 3052.0 -0.73839209962831 0
gene  1 56 51 0.8494925776636445 1 3055.0 0.8494925776636445 0
gene  1 60 51 1.396975169986322 1 3059.0 1.396975169986322 0
gene  1 2 52 2.7561723904762236 0 3061.0 2.7561723904762236 1
gene  1 4 52 -0.020256809387287106 0 3063.0 -0.020256809387287106 0
gene  1 5 52 0.21762693868348337 0 3064.0 0.21762693868348337 1
gene  1 6 52 0.2529256952696912 0 3065.0 0.2529256952696912 0
gene  1 7 52 -0.28885827583721113 0 3066.0 -0.28885827583721113 1
gene  1 9 52 -1.6944525666230714 0 3068.0 -1.6944525666230714 1
gene  1 10 52 -0.7214724819223586 0 3069.0 -0.7214724819223586 1
gene  1 11 52 0.19135896082251191 0 3070.0 0.19135896082251191 1
gene  1 14 52 -1.32585601195513 0 3073.0 -1.32585601195513 1
gene  1 15 52 -0.34490927881645256 0 3074.0 -0.34490927881645256 1
gene  1 16 52 2.8283135671284905 0 3075.0 2.8283135671284905 1
gene  1 18 52 -0.7234216797360289 0 3077.0 -0.7234216797360289 1
gene  1 21 52 -0.14426796194409378 0 3080.0 -0.14426796194409378 1
gene  1 51 52 1.6229797237507906 0 3110.0 1.6229797237507906 1
gene  1 52 52 1.1712112800571484 1 3111.0 1.1712112800571484 1
gene  1 57 52 -0.9778069315864303 1 3116.0 -0.9778069315864303 1
gene  1 58 52 1.8384644195492064 1 3117.0 1.8384644195492064 0
gene  1 59 52 -3.1250379632985896 1 3118.0 -3.1250379632985896 1
gene  1 60 52 -1.3984331785982593 1 3119.0 -1.3984331785982593 1
gene  1 1 53 -0.41686829404405057 0 3120.0 -0.41686829404405057 1
gene  1 3 53 -0.4228461733747808 0 3122.0 -0.4228461733747808 1
gene  1 4 53 -0.7791083658537735 0 3123.0 -0.7791083658537735 1
gene  1 5 53 0.03213261792645774 0 3124.0 0.03213261792645774 1
gene  1 6 53 -0.6781344424358806 0 3125.0 -0.6781344424358806 1
gene  1 7 53 -0.6461684737700826 0 3126.0 -0.6461684737700826 1
gene  1 8 53 -0.32208121020579145 0 3127.0 -0.32208121020579145 0
gene  1 9 53 -0.9142605038215972 0 3128.0 -0.9142605038215972 1
gene  1 10 53 -0.08908995229551392 0 3129.0 -0.08908995229551392 1
gene  1 13 53 0.18483739882748346 0 3132.0 0.18483739882748346 0
gene  1 14 53 0.0029062231673915306 0 3133.0 0.0029062231673915306 1
gene  1 18 53 -0.46548241815276786 0 3137.0 -0.46548241815276786 1
gene  1 19 53 2.1860290618064795 0 3138.0 2.1860290618064795 1
gene  1 20 53 0.9196554451362029 0 3139.0 0.9196554451362029 1
gene  1 21 53 -0.26451985132818157 0 3140.0 -0.26451985132818157 1
gene  1 22 53 0.7405818296349198 0 3141.0 0.7405818296349198 1
gene  1 51 53 -1.5372634675902013 0 3170.0 -1.5372634675902013 1
gene  1 54 53 0.046419381327001685 1 3173.0 0.046419381327001685 0
gene  1 56 53 1.4842078644137895 1 3175.0 1.4842078644137895 1
gene  1 58 53 -0.4238461903489593 1 3177.0 -0.4238461903489593 1
gene  1 59 53 0.6921583298164861 1 3178.0 0.6921583298164861 1
gene  1 60 53 -0.9310364824177275 1 3179.0 -0.9310364824177275 1
gene  1 3 54 0.7851444013791415 0 3182.0 0.7851444013791415 1
gene  1 6 54 -0.7602934612783223 0 3185.0 -0.7602934612783223 0
gene  1 7 54 -0.5973253972348388 0 3186.0 -0.5973253972348388 1
gene  1 8 54 -1.5153673650459623 0 3187.0 -1.5153673650459623 1
gene  1 10 54 0.336633284511335 0 3189.0 0.336633284511335 1
gene  1 11 54 1.0858268145262833 0 3190.0 1.0858268145262833 1
gene  1 15 54 0.9323693383530298 0 3194.0 0.9323693383530298 0
gene  1 16 54 -0.3100724643104896 0 3195.0 -0.3100724643104896 1
gene  1 17 54 0.16251350518807603 0 3196.0 0.16251350518807603 0
gene  1 19 54 0.7192777072222712 0 3198.0 0.7192777072222712 1
gene  1 21 54 0.8461454885154505 0 3200.0 0.8461454885154505 1
gene  1 51 54 1.3861159319252114 0 3230.0 1.3861159319252114 1
gene  1 55 54 -0.9847398026068402 1 3234.0 -0.9847398026068402 1
gene  1 57 54 0.6632532067879638 1 3236.0 0.6632532067879638 0
gene  1 58 54 -0.5318953384517668 1 3237.0 -0.5318953384517668 1
gene  1 59 54 -0.7215818021097236 1 3238.0 -0.7215818021097236 1
gene  1 1 55 -2.563353051230232 0 3240.0 -2.563353051230232 1
gene  1 3 55 1.1161967664151886 0 3242.0 1.1161967664151886 1
gene  1 4 55 0.7534185462077274 0 3243.0 0.7534185462077274 0
gene  1 5 55 -0.05210503249244676 0 3244.0 -0.05210503249244676 1
gene  1 7 55 -1.0213386158845696 0 3246.0 -1.0213386158845696 1
gene  1 8 55 0.1805282624267594 0 3247.0 0.1805282624267594 1
gene  1 9 55 -1.2432652593535398 0 3248.0 -1.2432652593535398 1
gene  1 10 55 1.351586370339063 0 3249.0 1.351586370339063 1
gene  1 11 55 0.01173691827853321 0 3250.0 0.01173691827853321 1
gene  1 12 55 -0.6070257861388546 0 3251.0 -0.6070257861388546 0
gene  1 13 55 -0.4842065278742525 0 3252.0 -0.4842065278742525 1
gene  1 14 55 1.8250253904120983 0 3253.0 1.8250253904120983 1
gene  1 20 55 0.16896970530823097 0 3259.0 0.16896970530823097 1
gene  1 21 55 -0.07059537088595438 0 3260.0 -0.07059537088595438 0
gene  1 22 55 0.5059053385040956 0 3261.0 0.5059053385040956 0
gene  1 51 55 -0.004252333105794236 0 3290.0 -0.004252333105794236 1
gene  1 52 55 -1.544102741227795 0 3291.0 -1.544102741227795 1
gene  1 54 55 2.133921399110833 0 3293.0 2.133921399110833 1
gene  1 55 55 -0.38244649593124036 1 3294.0 -0.38244649593124036 1
gene  1 1 56 0.3972684566543307 0 3300.0 0.3972684566543307 1
gene  1 3 56 -1.4934793792984873 0 3302.0 -1.4934793792984873 0
gene  1 5 56 -1.4990450134797317 0 3304.0 -1.4990450134797317 1
gene  1 6 56 -0.6177157832768021 0 3305.0 -0.6177157832768021 1
gene  1 8 56 -0.38666631190228884 0 3307.0 -0.38666631190228884 1
gene  1 11 56 -0.3471837188293177 0 3310.0 -0.3471837188293177 1
gene  1 12 56 -2.483905225216507 0 3311.0 -2.483905225216507 1
gene  1 13 56 -1.660565153144144 0 3312.0 -1.660565153144144 1
gene  1 15 56 0.48919239236177237 0 3314.0 0.48919239236177237 1
gene  1 17 56 0.5908549129670881 0 3316.0 0.5908549129670881 0
gene  1 18 56 0.7157321846409306 0 3317.0 0.7157321846409306 1
gene  1 19 56 1.0992067289602943 0 3318.0 1.0992067289602943 1
gene  1 21 56 -0.20200676785312205 0 3320.0 -0.20200676785312205 1
gene  1 51 56 -1.1370708131954752 0 3350.0 -1.1370708131954752 1
gene  1 53 56 -0.005235116015180008 0 3352.0 -0.005235116015180008 1
gene  1 54 56 -0.06853664956764317 0 3353.0 -0.06853664956764317 1
gene  1 55 56 -1.1334886849527912 0 3354.0 -1.1334886849527912 0
gene  1 56 56 0.8581027903648825 1 3355.0 0.8581027903648825 1
gene  1 57 56 0.03940916616377921 1 3356.0 0.03940916616377921 1
gene  1 58 56 -0.4256029342169856 1 3357.0 -0.4256029342169856 1
gene  1 2 57 2.3579936482975214 0 3361.0 2.3579936482975214 1
gene  1 3 57 -0.9008417021571248 0 3362.0 -0.9008417021571248 1
gene  1 4 57 -0.596595191582884 0 3363.0 -0.596595191582884 0
gene  1 5 57 0.9008832604644258 0 3364.0 0.9008832604644258 0
gene  1 8 57 -0.70163649964161 0 3367.0 -0.70163649964161 1
gene  1 9 57 -0.55835495664939 0 3368.0 -0.55835495664939 1
gene  1 11 57 0.6552614486239072 0 3370.0 0.6552614486239072 0
gene  1 12 57 -0.26524490922337146 0 3371.0 -0.26524490922337146 1
gene  1 13 57 0.22377500435876937 0 3372.0 0.22377500435876937 0
gene  1 14 57 -0.39983175392240367 0 3373.0 -0.39983175392240367 1
gene  1 18 57 -0.32704620092866055 0 3377.0 -0.32704620092866055 1
gene  1 22 57 -0.33124649431315806 0 3381.0 -0.33124649431315806 0
gene  1 51 57 0.5840604525370544 0 3410.0 0.5840604525370544 1
gene  1 52 57 -0.5936549579657987 0 3411.0 -0.5936549579657987 1
gene  1 53 57 -0.3688232015987077 0 3412.0 -0.3688232015987077 1
gene  1 54 57 -0.49040313035007593 0 3413.0 -0.49040313035007593 1
gene  1 56 57 -0.39267035826154345 0 3415.0 -0.39267035826154345 1
gene  1 57 57 -1.1105839728211133 1 3416.0 -1.1105839728211133 1
gene  1 2 58 0.38070079649148336 0 3421.0 0.38070079649148336 1
gene  1 4 58 0.2688060426971556 0 3423.0 0.2688060426971556 0
gene  1 10 58 0.4849442296124344 0 3429.0 0.4849442296124344 1
gene  1 11 58 1.3532977793125316 0 3430.0 1.3532977793125316 0
gene  1 12 58 -1.3590952800172378 0 3431.0 -1.3590952800172378 1
gene  1 14 58 -1.5235986934314032 0 3433.0 -1.5235986934314032 1
gene  1 15 58 1.6180330196364323 0 3434.0 1.6180330196364323 1
gene  1 16 58 0.02186946733780762 0 3435.0 0.02186946733780762 1
gene  1 17 58 0.3582528437234415 0 3436.0 0.3582528437234415 1
gene  1 19 58 0.15885770965747686 0 3438.0 0.15885770965747686 1
gene  1 20 58 -0.7208700441833116 0 3439.0 -0.7208700441833116 1
gene  1 21 58 -0.5050896038042223 0 3440.0 -0.5050896038042223 1
gene  1 22 58 0.3336645260569254 0 3441.0 0.3336645260569254 1
gene  1 52 58 -0.9654262612467515 0 3471.0 -0.9654262612467515 1
gene  1 55 58 -0.10498902273770268 0 3474.0 -0.10498902273770268 1
gene  1 56 58 -0.3230163205792452 0 3475.0 -0.3230163205792452 0
gene  1 57 58 1.0628388423329973 0 3476.0 1.0628388423329973 1
gene  1 58 58 0.025770938717424398 1 3477.0 0.025770938717424398 1
gene  1 59 58 0.9721175790407177 1 3478.0 0.9721175790407177 1
gene  1 60 58 -2.488663200892839 1 3479.0 -2.488663200892839 0
gene  1 2 59 0.8567581414546896 0 3481.0 0.8567581414546896 1
gene  1 9 59 0.602642683418855 0 3488.0 0.602642683418855 1
gene  1 10 59 -0.6009357744169932 0 3489.0 -0.6009357744169932 1
gene  1 14 59 -1.3874053791332155 0 3493.0 -1.3874053791332155 1
gene  1 19 59 0.1398968027249122 0 3498.0 0.1398968027249122 0
gene  1 52 59 1.9046959230180154 0 3531.0 1.9046959230180154 1
gene  1 54 59 -1.4552085087253956 0 3533.0 -1.4552085087253956 1
gene  1 55 59 -0.6272191469467908 0 3534.0 -0.6272191469467908 1
gene  1 57 59 0.4394496453582383 0 3536.0 0.4394496453582383 1
gene  1 4 60 -1.471675599328223 0 3543.0 -1.471675599328223 1
gene  1 5 60 -1.3720092898214036 0 3544.0 -1.3720092898214036 1
gene  1 7 60 -0.17097310425442774 0 3546.0 -0.17097310425442774 0
gene  1 8 60 -3.5382542145917433 0 3547.0 -3.5382542145917433 1
gene  1 11 60 -2.9022945140177803 0 3550.0 -2.9022945140177803 1
gene  1 14 60 -1.01262907818286 0 3553.0 -1.01262907818286 1
gene  1 15 60 -1.1128219090922475 0 3554.0 -1.1128219090922475 1
gene  1 18 60 -0.0632179559045502 0 3557.0 -0.0632179559045502 0
gene  1 19 60 -0.4893718455648611 0 3558.0 -0.4893718455648611 0
gene  1 20 60 -0.7957213849831217 0 3559.0 -0.7957213849831217 1
gene  1 52 60 2.457832513821947 0 3591.0 2.457832513821947 1
gene  1 53 60 -1.2096214494156905 0 3592.0 -1.2096214494156905 1
gene  1 55 60 -3.0159879282255533 0 3594.0 -3.0159879282255533 1
gene  1 59 60 1.548887284637326 0 3598.0 1.548887284637326 1
gene  1 22 61 0.08392651800677836 0 3599.0 0.08392651800677836 1
gene  1 61 57 1.5610489515639487 0 3600.0 1.5610489515639487 1
gene  1 13 62 -1.3710698680340807 0 3601.0 -1.3710698680340807 1
gene  1 62 53 2.9386279397098773 0 3602.0 2.9386279397098773 1
gene  1 12 63 -0.1112304285574893 0 3603.0 -0.1112304285574893 1
gene  1 63 55 2.0933487971697557 0 3604.0 2.0933487971697557 1
gene  1 11 64 0.46001488958904924 0 3605.0 0.46001488958904924 1
gene  1 64 58 -0.8546728723160052 0 3606.0 -0.8546728723160052 1
gene  1 22 65 -0.6977487965804423 0 3607.0 -0.6977487965804423 1
gene  1 65 55 -0.26313174127015343 0 3608.0 -0.26313174127015343 1
gene  1 17 66 0.26867632997634483 1 3609.0 0.26867632997634483 1
gene  1 66 12 -0.19394117075786327 0 3610.0 -0.19394117075786327 1
gene  1 14 67 0.07540294327089506 0 3611.0 0.07540294327089506 1
gene  1 67 21 -0.16179838557224052 0 3612.0 -0.16179838557224052 1
gene  1 17 68 -0.265974145466624 0 3613.0 -0.265974145466624 1
gene  1 68 54 0.6836705617894012 0 3614.0 0.6836705617894012 1
gene  1 6 69 -1.5853646798046148 0 3615.0 -1.5853646798046148 1
gene  1 69 54 1.159855077802178 0 3616.0 1.159855077802178 1
gene  1 11 70 1.1407548587312117 0 3617.0 1.1407548587312117 1
gene  1 70 57 -0.21802667627019814 0 3618.0 -0.21802667627019814 1
gene  1 60 71 0.575945615774518 1 3619.0 0.575945615774518 1
gene  1 71 58 -0.4618128813854624 0 3620.0 -0.4618128813854624 1
gene  1 59 72 -0.8648716154658748 1 3621.0 -0.8648716154658748 1
gene  1 72 22 -1.1342549560592314 0 3622.0 -1.1342549560592314 1
gene  1 60 73 0.4016819172525946 1 3623.0 0.4016819172525946 1
gene  1 73 22 -0.02418493278412647 0 3624.0 -0.02418493278412647 1
gene  1 3 74 -0.7799917441469872 0 3625.0 -0.7799917441469872 1
gene  1 74 21 0.8847684312906484 0 3626.0 0.8847684312906484 0
gene  1 4 75 0.9048485756028882 0 3627.0 0.9048485756028882 1
gene  1 75 52 1.2205780487468663 0 3628.0 1.2205780487468663 1
gene  1 56 76 0.6333488344226033 1 3629.0 0.6333488344226033 1
gene  1 76 51 0.23849640442712935 0 3630.0 0.23849640442712935 0
gene  1 60 77 0.5045915667897577 1 3631.0 0.5045915667897577 1
gene  1 77 12 1.4301080834017061 0 3632.0 1.4301080834017061 1
gene  1 60 78 0.32177320375868906 1 3633.0 0.32177320375868906 0
gene  1 78 51 -0.3910784062262949 0 3634.0 -0.3910784062262949 1
gene  1 19 79 -1.0766867222407523 0 3635.0 -1.0766867222407523 1
gene  1 79 60 -1.7662314154516574 0 3636.0 -1.7662314154516574 1
gene  1 16 80 0.1708384395039733 1 3637.0 0.1708384395039733 1
gene  1 80 15 -1.5541735184313268 0 3638.0 -1.5541735184313268 1
gene  1 3 81 -0.49312155200090757 0 3639.0 -0.49312155200090757 0
gene  1 81 12 0.8513454193472092 0 3640.0 0.8513454193472092 1
gene  1 21 82 0.6444786486353836 0 3641.0 0.6444786486353836 1
gene  1 82 55 -0.045886347047044695 0 3642.0 -0.045886347047044695 1
gene  1 18 83 -0.17379075060471855 1 3643.0 -0.17379075060471855 1
gene  1 83 13 -0.1028326537709624 0 3644.0 -0.1028326537709624 1
gene  1 53 84 0.9971254040721778 1 3645.0 0.9971254040721778 1
gene  1 84 18 0.31202010765202587 0 3646.0 0.31202010765202587 1
gene  1 15 85 0.09739501500408265 0 3647.0 0.09739501500408265 1
gene  1 85 54 1.1934624129059932 0 3648.0 1.1934624129059932 0
gene  1 4 86 -0.009108364362272109 0 3649.0 -0.009108364362272109 1
gene  1 86 57 0.1809250625872334 0 3650.0 0.1809250625872334 1
gene  1 7 87 0.17137692349737635 0 3651.0 0.17137692349737635 1
gene  1 87 15 -0.7806325513342607 0 3652.0 -0.7806325513342607 1
gene  1 6 88 0.07403577557478444 0 3653.0 0.07403577557478444 1
gene  1 88 18 0.1623649422150542 0 3654.0 0.1623649422150542 1
gene  1 13 89 -0.3564479653620004 0 3655.0 -0.3564479653620004 1
gene  1 89 17 -0.34176918762525726 0 3656.0 -0.34176918762525726 1
gene  1 55 90 -0.004961654471974261 0 3657.0 -0.004961654471974261 1
gene  1 90 56 0.5601721960700778 0 3658.0 0.5601721960700778 1
gene  1 14 91 -0.30849852641957554 0 3659.0 -0.30849852641957554 1
gene  1 91 16 0.20853315126006247 0 3660.0 0.20853315126006247 1
gene  1 19 92 -1.2968254370256789 1 3661.0 -1.2968254370256789 1
gene  1 92 19 -0.20959157847494056 0 3662.0 -0.20959157847494056 1
gene  1 17 93 -0.22037632103543447 0 3663.0 -0.22037632103543447 1
gene  1 93 56 -0.5135731221966289 0 3664.0 -0.5135731221966289 1
gene  1 19 94 -0.01725632699243519 0 3665.0 -0.01725632699243519 0
gene  1 94 59 -1.1555489931974041 0 3666.0 -1.1555489931974041 1
gene  1 13 95 -2.116947016702406 0 3667.0 -2.116947016702406 1
gene  1 95 57 -0.7707884799639534 0 3668.0 -0.7707884799639534 1
gene  1 7 96 0.27709505948079455 0 3669.0 0.27709505948079455 1
gene  1 96 60 -0.37373866448771165 0 3670.0 -0.37373866448771165 1
gene  1 5 97 -0.19054948210210293 0 3671.0 -0.19054948210210293 1
gene  1 97 57 -0.17713904127939378 0 3672.0 -0.17713904127939378 1
gene  1 8 98 0.4179468211787495 0 3673.0 0.4179468211787495 1
gene  1 98 15 -0.1746751548020634 0 3674.0 -0.1746751548020634 1
gene  1 58 99 -0.005943519490642771 1 3675.0 -0.005943519490642771 1
gene  1 99 52 -0.08645994255308181 0 3676.0 -0.08645994255308181 1
gene  1 8 100 0.13669889123750678 0 3677.0 0.13669889123750678 1
gene  1 100 12 0.3150713791509278 0 3678.0 0.3150713791509278 1
gene  1 2 101 0.12708733512201892 0 3679.0 0.12708733512201892 1
gene  1 101 16 0.5308394856400667 0 3680.0 0.5308394856400667 1
gene  1 3 102 0.007182480463004645 0 3681.0 0.007182480463004645 1
gene  1 102 81 -0.07073677614082828 0 3682.0 -0.07073677614082828 1
gene  1 4 103 1.1318238486715189 0 3683.0 1.1318238486715189 1
gene  1 103 55 -0.5919465707837156 0 3684.0 -0.5919465707837156 1
gene  1 54 104 0.24282274383930563 1 3685.0 0.24282274383930563 1
gene  1 104 53 0.298492240234122 0 3686.0 0.298492240234122 1
gene  1 60 105 0.9440917769899958 1 3687.0 0.9440917769899958 1
gene  1 105 78 -0.2894403581876424 0 3688.0 -0.2894403581876424 1
gene  1 76 106 1.0317903561078272 0 3689.0 1.0317903561078272 1
gene  1 106 51 0.18728982770897923 0 3690.0 0.18728982770897923 1
gene  1 9 107 -0.15848707312763294 0 3691.0 -0.15848707312763294 1
gene  1 107 51 -1.0375958875556288 0 3692.0 -1.0375958875556288 1
gene  1 58 108 0.15584015924570432 1 3693.0 0.15584015924570432 1
gene  1 108 11 -0.7688795947790313 0 3694.0 -0.7688795947790313 1
gene  1 56 109 0.1801984699527382 0 3695.0 0.1801984699527382 1
gene  1 109 58 -0.9955725576185721 0 3696.0 -0.9955725576185721 1
gene  1 52 110 0.412449159573549 1 3697.0 0.412449159573549 1
gene  1 110 16 0.9574217156702849 0 3698.0 0.9574217156702849 1
gene  1 3 111 -0.362433023478612 0 3699.0 -0.362433023478612 1
gene  1 111 56 0.448176345914974 0 3700.0 0.448176345914974 1
gene  1 59 112 0.1934442341729347 1 3701.0 0.1934442341729347 1
gene  1 112 16 2.5206889914326323 0 3702.0 2.5206889914326323 1
gene  1 16 113 0.5977811182385889 0 3703.0 0.5977811182385889 1
gene  1 113 21 -0.3407767102818868 0 3704.0 -0.3407767102818868 1
gene  1 11 114 0.16355403631805615 0 3705.0 0.16355403631805615 1
gene  1 114 16 0.36210950908718287 0 3706.0 0.36210950908718287 1
gene  1 57 115 0.06698824076104881 1 3707.0 0.06698824076104881 1
gene  1 115 54 0.12337487487997256 0 3708.0 0.12337487487997256 1
gene  1 8 116 -0.6389034604309864 0 3709.0 -0.6389034604309864 1
gene  1 116 53 0.061127779628069125 0 3710.0 0.061127779628069125 1
gene  1 53 117 0.4513768394856369 1 3711.0 0.4513768394856369 1
gene  1 117 51 -0.7246666188627412 0 3712.0 -0.7246666188627412 1
gene  1 9 118 -0.06485861931974544 0 3713.0 -0.06485861931974544 1
gene  1 118 21 0.8143228122894695 0 3714.0 0.8143228122894695 1
gene  1 6 119 -0.005104231588092828 0 3715.0 -0.005104231588092828 1
gene  1 119 52 0.026880787157984733 0 3716.0 0.026880787157984733 1
gene  1 4 120 -0.2744598438953969 0 3717.0 -0.2744598438953969 1
gene  1 120 58 0.44258875828632704 0 3718.0 0.44258875828632704 1
gene  1 19 121 0.6296065594733702 0 3719.0 0.6296065594733702 1
gene  1 121 94 0.10541129289188841 0 3720.0 0.10541129289188841 1
gene  1 18 122 0.4065194518518149 0 3721.0 0.4065194518518149 1
gene  1 122 60 0.6047650161610613 0 3722.0 0.6047650161610613 1
gene  1 74 123 0.21218141555650025 0 3723.0 0.21218141555650025 1
gene  1 123 21 -0.9739864140347938 0 3724.0 -0.9739864140347938 1
gene  1 6 124 0.7595354828116068 0 3725.0 0.7595354828116068 1
gene  1 124 17 0.022830035536033244 0 3726.0 0.022830035536033244 1
gene  1 85 125 1.106222469899434 0 3727.0 1.106222469899434 1
gene  1 125 54 0.7195021099577494 0 3728.0 0.7195021099577494 1
gene  1 1 126 -0.2806533211668105 0 3729.0 -0.2806533211668105 1
gene  1 126 15 -0.8291042593823861 0 3730.0 -0.8291042593823861 1
gene  1 56 127 0.8352651869205197 1 3731.0 0.8352651869205197 1
gene  1 127 19 -0.8482565111869853 0 3732.0 -0.8482565111869853 1
genomeend 0
