genomestart  0
trait 1 0.0 0.0 0.0 0.0 0.0 0.0 0.0 0.0 
node 1 1 1 1
node 2 1 1 1
node 3 1 1 1
node 4 1 1 1
node 5 1 1 1
node 6 1 1 1
node 7 1 1 1
node 8 1 1 1
node 9 1 1 1
node 10 1 1 3
node 11 1 0 0
node 12 1 0 0
node 13 1 0 0
node 14 1 0 0
node 15 1 0 0
node 16 1 0 0
node 17 1 0 0
node 18 1 0 0
node 19 1 0 0
node 20 1 0 0
node 21 1 0 0
node 22 1 0 0
node 23 1 0 0
node 24 1 0 0
node 25 1 0 0
node 26 1 0 0
node 27 1 0 0
node 28 1 0 0
node 29 1 0 0
node 30 1 0 0
node 31 1 0 0
node 32 1 0 0
node 33 1 0 0
node 34 1 0 0
node 35 1 0 0
node 36 1 0 0
node 37 1 0 0
node 38 1 0 0
node 39 1 0 0
node 40 1 0 0
node 41 1 0 0
node 42 1 0 0
node 43 1 0 0
node 44 1 0 0
node 45 1 0 0
node 46 1 0 0
node 47 1 0 0
node 48 1 0 0
node 51 1 0 2
node 52 1 0 2
node 53 1 0 2
node 54 1 0 2
node 55 1 0 2
node 56 1 0 2
node 57 1 0 2
node 58 1 0 2
node 59 1 0 2
node 60 1 0 2
node 61 1 0 0
gene  1 1 11 -0.3542968144686206 0 600.0 -0.3542968144686206 1
gene  1 4 11 0.7511580034076624 0 603.0 0.7511580034076624 1
gene  1 7 11 0.5079939474594685 0 606.0 0.5079939474594685 1
gene  1 9 11 0.5606311887261963 0 608.0 0.5606311887261963 1
gene  1 11 11 -0.15091649990278777 1 610.0 -0.15091649990278777 1
gene  1 12 11 0.5832139664249145 1 611.0 0.5832139664249145 1
gene  1 14 11 -0.3583364257646772 1 613.0 -0.3583364257646772 1
gene  1 16 11 -0.5177968227627856 1 615.0 -0.5177968227627856 1
gene  1 17 11 0.2505436953472564 1 616.0 0.2505436953472564 1
gene  1 19 11 -0.6539085434785848 1 618.0 -0.6539085434785848 1
gene  1 21 11 0.46790070589284927 1 620.0 0.46790070589284927 1
gene  1 22 11 0.5243420759262719 1 621.0 0.5243420759262719 1
gene  1 23 11 0.28385448237709654 1 622.0 0.28385448237709654 1
gene  1 24 11 -0.2502143905796723 1 623.0 -0.2502143905796723 1
gene  1 25 11 0.225649133044628 1 624.0 0.225649133044628 1
gene  1 26 11 0.7799704030682005 1 625.0 0.7799704030682005 1
gene  1 32 11 0.9771376859992975 1 631.0 0.9771376859992975 1
gene  1 34 11 0.8150633709124678 1 633.0 0.8150633709124678 1
gene  1 36 11 -0.6926204071659514 1 635.0 -0.6926204071659514 1
gene  1 37 11 -0.6980854150084655 1 636.0 -0.6980854150084655 1
gene  1 42 11 0.11737726775597895 1 641.0 0.11737726775597895 1
gene  1 44 11 -0.2652523332416593 1 643.0 -0.2652523332416593 1
gene  1 51 11 0.975471791016514 1 650.0 0.975471791016514 1
gene  1 52 11 0.6545440988902458 1 651.0 0.6545440988902458 1
gene  1 53 11 -0.4498542785510248 1 652.0 -0.4498542785510248 1
gene  1 54 11 -0.326566517391613 1 653.0 -0.326566517391613 1
gene  1 58 11 -0.10981940020568592 1 657.0 -0.10981940020568592 1
gene  1 59 11 0.14717763727281163 1 658.0 0.14717763727281163 1
gene  1 60 11 -0.7241921823112971 1 659.0 -0.7241921823112971 1
gene  1 2 12 -0.1109230463413945 0 661.0 -0.1109230463413945 1
gene  1 3 12 -0.6176735012709799 0 662.0 -0.6176735012709799 1
gene  1 5 12 0.05837869630943028 0 664.0 0.05837869630943028 1
gene  1 6 12 -0.9879335839969601 0 665.0 -0.9879335839969601 1
gene  1 7 12 -1.0356472870765479 0 666.0 -1.0356472870765479 1
gene  1 8 12 -0.6541310545867315 0 667.0 -0.6541310545867315 1
gene  1 9 12 -0.8279493362016076 0 668.0 -0.8279493362016076 1
gene  1 11 12 0.6941879623381999 0 670.0 0.6941879623381999 1
gene  1 12 12 -0.1546608818286318 1 671.0 -0.1546608818286318 1
gene  1 15 12 0.17210323232436198 1 674.0 0.17210323232436198 1
gene  1 18 12 0.7808320431544705 1 677.0 0.7808320431544705 1
gene  1 19 12 0.28214124181176087 1 678.0 0.28214124181176087 1
gene  1 21 12 0.6680546999548211 1 680.0 0.6680546999548211 1
gene  1 23 12 0.47774566801213175 1 682.0 0.47774566801213175 1
gene  1 24 12 -0.3380172594773092 1 683.0 -0.3380172594773092 1
gene  1 27 12 -0.17234737677085057 1 686.0 -0.17234737677085057 1
gene  1 34 12 0.45524792896201116 1 693.0 0.45524792896201116 1
gene  1 35 12 -0.4625770291886513 1 694.0 -0.4625770291886513 1
gene  1 36 12 -0.47401329793266417 1 695.0 -0.47401329793266417 1
gene  1 37 12 0.10313934839889716 1 696.0 0.10313934839889716 1
gene  1 38 12 -0.5776688008429491 1 697.0 -0.5776688008429491 1
gene  1 39 12 0.3741629811798257 1 698.0 0.3741629811798257 1
gene  1 40 12 0.9503946491041004 1 699.0 0.9503946491041004 1
gene  1 41 12 -0.8416312798704383 1 700.0 -0.8416312798704383 1
gene  1 46 12 1.0168380919112256 1 705.0 1.0168380919112256 1
gene  1 48 12 -0.017668631487618214 1 707.0 -0.017668631487618214 1
gene  1 52 12 -0.17041168006981 1 711.0 -0.17041168006981 1
gene  1 53 12 0.8851364038266886 1 712.0 0.8851364038266886 1
gene  1 54 12 -0.602308443125389 1 713.0 -0.602308443125389 1
gene  1 55 12 0.9014393024410595 1 714.0 0.9014393024410595 1
gene  1 56 12 -0.04287577220795898 1 715.0 -0.04287577220795898 1
gene  1 57 12 0.4187206198313521 1 716.0 0.4187206198313521 1
gene  1 59 12 -0.8797531939429443 1 718.0 -0.8797531939429443 1
gene  1 1 13 -0.786150683340241 0 720.0 -0.786150683340241 1
gene  1 5 13 0.907362683662382 0 724.0 0.907362683662382 1
gene  1 8 13 0.17465436269117407 0 727.0 0.17465436269117407 1
gene  1 10 13 0.561782278074079 0 729.0 0.561782278074079 1
gene  1 11 13 0.28563455168296736 0 730.0 0.28563455168296736 1
gene  1 12 13 0.5799868982332846 0 731.0 0.5799868982332846 1
gene  1 13 13 0.8681807749572547 1 732.0 0.8681807749572547 1
gene  1 14 13 -0.010764873258965519 1 733.0 -0.010764873258965519 1
gene  1 15 13 0.2651374882783712 1 734.0 0.2651374882783712 1
gene  1 21 13 0.380637819808591 1 740.0 0.380637819808591 1
gene  1 22 13 0.00298792174140951 1 741.0 0.00298792174140951 1
gene  1 26 13 0.5065446542620463 1 745.0 0.5065446542620463 1
gene  1 27 13 0.17547107796383427 1 746.0 0.17547107796383427 1
gene  1 29 13 -0.034469975531211304 1 748.0 -0.034469975531211304 1
gene  1 30 13 -0.059274312314055444 1 749.0 -0.059274312314055444 1
gene  1 31 13 0.418949005519513 1 750.0 0.418949005519513 1
gene  1 32 13 0.7663035656587966 1 751.0 0.7663035656587966 1
gene  1 34 13 0.3539479675890812 1 753.0 0.3539479675890812 1
gene  1 35 13 0.6882992506743196 1 754.0 0.6882992506743196 1
gene  1 37 13 -0.5722577091252946 1 756.0 -0.5722577091252946 1
gene  1 43 13 -0.18024687371725912 1 762.0 -0.18024687371725912 1
gene  1 44 13 0.29510208915976543 1 763.0 0.29510208915976543 1
gene  1 45 13 -0.2621938842766883 1 764.0 -0.2621938842766883 1
gene  1 54 13 0.7879441072107705 1 773.0 0.7879441072107705 1
gene  1 56 13 0.3342007366402433 1 775.0 0.3342007366402433 1
gene  1 58 13 0.0891889673655673 1 777.0 0.0891889673655673 1
gene  1 59 13 0.21124730207898368 1 778.0 0.21124730207898368 1
gene  1 8 14 0.5320283865675087 0 787.0 0.5320283865675087 1
gene  1 12 14 1.0086546778734902 0 791.0 1.0086546778734902 1
gene  1 13 14 0.010448049687109277 0 792.0 0.010448049687109277 1
gene  1 15 14 0.9506065631220937 1 794.0 0.9506065631220937 1
gene  1 17 14 0.3983887985557514 1 796.0 0.3983887985557514 1
gene  1 19 14 0.7452122424136292 1 798.0 0.7452122424136292 1
gene  1 20 14 -0.9688692071484138 1 799.0 -0.9688692071484138 1
gene  1 21 14 0.8370686506691726 1 800.0 0.8370686506691726 1
gene  1 22 14 0.3387016592726718 1 801.0 0.3387016592726718 1
gene  1 26 14 -0.3991405660433277 1 805.0 -0.3991405660433277 1
gene  1 27 14 -0.7197931763328803 1 806.0 -0.7197931763328803 1
gene  1 30 14 -0.9034290723353671 1 809.0 -0.9034290723353671 1
gene  1 32 14 -0.8229008012830171 1 811.0 -0.8229008012830171 1
gene  1 34 14 0.6384527052562595 1 813.0 0.6384527052562595 1
gene  1 35 14 -0.6409259821925518 1 814.0 -0.6409259821925518 1
gene  1 36 14 0.717773451278455 1 815.0 0.717773451278455 1
gene  1 37 14 0.629448708620819 1 816.0 0.629448708620819 1
gene  1 41 14 -0.8871577575077403 1 820.0 -0.8871577575077403 1
gene  1 42 14 -0.009663614905903395 1 821.0 -0.009663614905903395 1
gene  1 43 14 0.7290969481187635 1 822.0 0.7290969481187635 1
gene  1 44 14 -0.8928094020728202 1 823.0 -0.8928094020728202 1
gene  1 46 14 0.7511372653284837 1 825.0 0.7511372653284837 1
gene  1 47 14 -0.1767722650595055 1 826.0 -0.1767722650595055 1
gene  1 48 14 -0.5339176151034695 1 827.0 -0.5339176151034695 1
gene  1 51 14 0.9302301072961765 1 830.0 0.9302301072961765 1
gene  1 53 14 -0.7057729833619216 1 832.0 -0.7057729833619216 1
gene  1 57 14 0.7075806832994768 1 836.0 0.7075806832994768 1
gene  1 58 14 0.09126148884437202 1 837.0 0.09126148884437202 1
gene  1 59 14 -0.7533316837873525 1 838.0 -0.7533316837873525 1
gene  1 2 15 -0.006029870524545556 0 841.0 -0.006029870524545556 1
gene  1 3 15 -0.6753321151671151 0 842.0 -0.6753321151671151 1
gene  1 6 15 -0.6468781722484047 0 845.0 -0.6468781722484047 1
gene  1 9 15 -0.15704153085450626 0 848.0 -0.15704153085450626 1
gene  1 12 15 0.09427303390187147 0 851.0 0.09427303390187147 1
gene  1 16 15 0.8260367692367551 1 855.0 0.8260367692367551 1
gene  1 17 15 -0.029535114307144106 1 856.0 -0.029535114307144106 1
gene  1 18 15 0.7832869501091932 1 857.0 0.7832869501091932 1
gene  1 19 15 0.5516326789928074 1 858.0 0.5516326789928074 1
gene  1 24 15 -0.5982129247031729 1 863.0 -0.5982129247031729 1
gene  1 25 15 0.6053513733647049 1 864.0 0.6053513733647049 1
gene  1 26 15 0.39993503365935984 1 865.0 0.39993503365935984 1
gene  1 29 15 0.3241830305693403 1 868.0 0.3241830305693403 1
gene  1 31 15 0.42555072017710244 1 870.0 0.42555072017710244 1
gene  1 32 15 0.8316078580611792 1 871.0 0.8316078580611792 1
gene  1 33 15 -0.625903935108607 1 872.0 -0.625903935108607 1
gene  1 35 15 0.2617804956060076 1 874.0 0.2617804956060076 1
gene  1 36 15 -0.30441032169391985 1 875.0 -0.30441032169391985 1
gene  1 38 15 -0.03077719805053758 1 877.0 -0.03077719805053758 1
gene  1 39 15 -1.0287248646040794 1 878.0 -1.0287248646040794 1
gene  1 41 15 -0.5799077107022397 1 880.0 -0.5799077107022397 1
gene  1 42 15 -0.4960313971814273 1 881.0 -0.4960313971814273 1
gene  1 43 15 0.06487520797479895 1 882.0 0.06487520797479895 1
gene  1 46 15 0.22730261472978464 1 885.0 0.22730261472978464 1
gene  1 54 15 0.26561146484152964 1 893.0 0.26561146484152964 1
gene  1 55 15 0.649049311819463 1 894.0 0.649049311819463 1
gene  1 56 15 0.026357565628275677 1 895.0 0.026357565628275677 1
gene  1 58 15 -0.9136344334753193 1 897.0 -0.9136344334753193 1
gene  1 1 16 0.4209236683427684 0 900.0 0.4209236683427684 1
gene  1 2 16 0.7906309267614973 0 901.0 0.7906309267614973 1
gene  1 7 16 -0.5376647903896832 0 906.0 -0.5376647903896832 1
gene  1 10 16 -0.8652279310965387 0 909.0 -0.8652279310965387 1
gene  1 12 16 -0.4089361346195082 0 911.0 -0.4089361346195082 1
gene  1 14 16 0.4238876796210685 0 913.0 0.4238876796210685 1
gene  1 15 16 0.4141276758690198 0 914.0 0.4141276758690198 1
gene  1 20 16 -0.15232364670129295 1 919.0 -0.15232364670129295 1
gene  1 21 16 -0.6945626969190132 1 920.0 -0.6945626969190132 1
gene  1 22 16 -0.5977873802686091 1 921.0 -0.5977873802686091 1
gene  1 23 16 -0.5836729667147138 1 922.0 -0.5836729667147138 1
gene  1 25 16 -0.7040677064021953 1 924.0 -0.7040677064021953 1
gene  1 28 16 0.9413700934741197 1 927.0 0.9413700934741197 1
gene  1 29 16 0.3950165100244034 1 928.0 0.3950165100244034 1
gene  1 31 16 0.25188681827983367 1 930.0 0.25188681827983367 1
gene  1 32 16 0.34476207748319976 1 931.0 0.34476207748319976 1
gene  1 33 16 -0.4173779799870516 1 932.0 -0.4173779799870516 1
gene  1 35 16 -0.6146782338340837 1 934.0 -0.6146782338340837 1
gene  1 38 16 0.674348904647768 1 937.0 0.674348904647768 1
gene  1 39 16 -0.4111899765479182 1 938.0 -0.4111899765479182 1
gene  1 40 16 -0.49502454870595625 1 939.0 -0.49502454870595625 1
gene  1 41 16 0.5497894323259849 1 940.0 0.5497894323259849 1
gene  1 44 16 -0.26577212428372665 1 943.0 -0.26577212428372665 1
gene  1 45 16 -0.4303151185185158 1 944.0 -0.4303151185185158 1
gene  1 46 16 -0.2297551797878905 1 945.0 -0.2297551797878905 1
gene  1 48 16 0.480341935619612 1 947.0 0.480341935619612 1
gene  1 52 16 0.08501664010370764 1 951.0 0.08501664010370764 1
gene  1 55 16 0.33042773588382035 1 954.0 0.33042773588382035 1
gene  1 57 16 -0.5436958038492362 1 956.0 -0.5436958038492362 1
gene  1 59 16 0.5034845200623217 1 958.0 0.5034845200623217 1
gene  1 3 17 -0.3442955050454234 0 962.0 -0.3442955050454234 1
gene  1 4 17 -0.041934943358717613 0 963.0 -0.041934943358717613 1
gene  1 9 17 0.034224113615614254 0 968.0 0.034224113615614254 1
gene  1 10 17 -0.3348458541121065 0 969.0 -0.3348458541121065 1
gene  1 11 17 -0.48033149609070797 0 970.0 -0.48033149609070797 1
gene  1 17 17 -0.6591662692671911 1 976.0 -0.6591662692671911 1
gene  1 18 17 0.6928846386694301 1 977.0 0.6928846386694301 1
gene  1 19 17 -0.7503690223113997 1 978.0 -0.7503690223113997 1
gene  1 20 17 -0.2935308910518506 1 979.0 -0.2935308910518506 1
gene  1 22 17 -0.7859024634480299 1 981.0 -0.7859024634480299 1
gene  1 23 17 0.6027526432585175 1 982.0 0.6027526432585175 1
gene  1 25 17 -0.8758363436063235 1 984.0 -0.8758363436063235 1
gene  1 29 17 0.6176485304733803 1 988.0 0.6176485304733803 1
gene  1 30 17 -0.014806579105209307 1 989.0 -0.014806579105209307 1
gene  1 31 17 0.5045203797161723 1 990.0 0.5045203797161723 1
gene  1 33 17 -0.685035085468194 1 992.0 -0.685035085468194 1
gene  1 34 17 -0.4187581816551652 1 993.0 -0.4187581816551652 1
gene  1 35 17 -0.12136754147497988 1 994.0 -0.12136754147497988 1
gene  1 37 17 0.23180273712991245 1 996.0 0.23180273712991245 1
gene  1 38 17 -0.4307081030948031 1 997.0 -0.4307081030948031 1
gene  1 44 17 -0.02099834996715899 1 1003.0 -0.02099834996715899 1
gene  1 45 17 -0.17158528686640007 1 1004.0 -0.17158528686640007 1
gene  1 48 17 -0.014933820817561108 1 1007.0 -0.014933820817561108 1
gene  1 52 17 -0.9313675643922528 1 1011.0 -0.9313675643922528 1
gene  1 53 17 0.21444737310417028 1 1012.0 0.21444737310417028 1
gene  1 55 17 0.9078444340401742 1 1014.0 0.9078444340401742 1
gene  1 57 17 0.4879999597782912 1 1016.0 0.4879999597782912 1
gene  1 60 17 0.580720990166704 1 1019.0 0.580720990166704 1
gene  1 3 18 -0.48487508392744694 0 1022.0 -0.48487508392744694 1
gene  1 7 18 0.2765284490911175 0 1026.0 0.2765284490911175 1
gene  1 11 18 0.588066484652748 0 1030.0 0.588066484652748 1
gene  1 12 18 -0.6700052038003527 0 1031.0 -0.6700052038003527 1
gene  1 14 18 -0.4291542222143443 0 1033.0 -0.4291542222143443 1
gene  1 16 18 0.22905824976332212 0 1035.0 0.22905824976332212 1
gene  1 28 18 -0.34794795601846523 1 1047.0 -0.34794795601846523 1
gene  1 29 18 -0.9387763869316851 1 1048.0 -0.9387763869316851 1
gene  1 36 18 0.34797606254472657 1 1055.0 0.34797606254472657 1
gene  1 38 18 0.7387761378732945 1 1057.0 0.7387761378732945 1
gene  1 39 18 -1.0279200662774401 1 1058.0 -1.0279200662774401 1
gene  1 40 18 0.9633814632696059 1 1059.0 0.9633814632696059 1
gene  1 41 18 -0.25529827972405206 1 1060.0 -0.25529827972405206 1
gene  1 45 18 -0.203677344118687 1 1064.0 -0.203677344118687 1
gene  1 46 18 0.27109040084828895 1 1065.0 0.27109040084828895 1
gene  1 53 18 -0.16979921214472937 1 1072.0 -0.16979921214472937 1
gene  1 60 18 -0.5412185837144156 1 1079.0 -0.5412185837144156 1
gene  1 1 19 0.17791423156180597 0 1080.0 0.17791423156180597 1
gene  1 2 19 0.28619439503920024 0 1081.0 0.28619439503920024 1
gene  1 4 19 -0.24420314268246923 0 1083.0 -0.24420314268246923 1
gene  1 5 19 0.6341657138880061 0 1084.0 0.6341657138880061 1
gene  1 6 19 0.4871307168212867 0 1085.0 0.4871307168212867 1
gene  1 7 19 0.5201861298305126 0 1086.0 0.5201861298305126 1
gene  1 9 19 0.2840273911480171 0 1088.0 0.2840273911480171 1
gene  1 13 19 -0.7389368174281516 0 1092.0 -0.7389368174281516 1
gene  1 14 19 -0.08665568719087936 0 1093.0 -0.08665568719087936 1
gene  1 15 19 0.024425744442084132 0 1094.0 0.024425744442084132 1
gene  1 16 19 -0.8532768210140685 0 1095.0 -0.8532768210140685 1
gene  1 19 19 0.984605870572571 1 1098.0 0.984605870572571 1
gene  1 20 19 -0.4626724531754443 1 1099.0 -0.4626724531754443 1
gene  1 24 19 -0.6770198217428053 1 1103.0 -0.6770198217428053 1
gene  1 25 19 0.43549774838143085 1 1104.0 0.43549774838143085 1
gene  1 27 19 -0.6443162702265581 1 1106.0 -0.6443162702265581 1
gene  1 29 19 -0.3617922783948297 1 1108.0 -0.3617922783948297 1
gene  1 33 19 -0.2604077977361031 1 1112.0 -0.2604077977361031 1
gene  1 35 19 -0.779991230408598 1 1114.0 -0.779991230408598 1
gene  1 39 19 0.9326391232470898 1 1118.0 0.9326391232470898 1
gene  1 40 19 0.01289188962163985 1 1119.0 0.01289188962163985 1
gene  1 42 19 -0.7376068904187522 1 1121.0 -0.7376068904187522 1
gene  1 44 19 0.027383935163120442 1 1123.0 0.027383935163120442 1
gene  1 52 19 0.18117449015174358 1 1131.0 0.18117449015174358 1
gene  1 54 19 0.5204673730306144 1 1133.0 0.5204673730306144 1
gene  1 56 19 -0.9325762834661078 1 1135.0 -0.9325762834661078 1
gene  1 58 19 -0.866786760333996 1 1137.0 -0.866786760333996 1
gene  1 60 19 -0.2294980845969528 1 1139.0 -0.2294980845969528 1
gene  1 1 20 -0.7544362825860698 0 1140.0 -0.7544362825860698 1
gene  1 2 20 -0.856046556678328 0 1141.0 -0.856046556678328 1
gene  1 6 20 -0.1758879474237557 0 1145.0 -0.1758879474237557 1
gene  1 7 20 0.3650546817515897 0 1146.0 0.3650546817515897 1
gene  1 8 20 0.501834565308274 0 1147.0 0.501834565308274 1
gene  1 9 20 0.16481133747781657 0 1148.0 0.16481133747781657 1
gene  1 10 20 0.3528482799231062 0 1149.0 0.3528482799231062 1
gene  1 11 20 -0.012172146242328763 0 1150.0 -0.012172146242328763 1
gene  1 15 20 -0.6467769978599173 0 1154.0 -0.6467769978599173 1
gene  1 16 20 0.7430849746268119 0 1155.0 0.7430849746268119 1
gene  1 17 20 0.7809548723768885 0 1156.0 0.7809548723768885 1
gene  1 23 20 0.43581923517695625 1 1162.0 0.43581923517695625 1
gene  1 24 20 -0.1473910234920538 1 1163.0 -0.1473910234920538 1
gene  1 29 20 -0.9623193422335783 1 1168.0 -0.9623193422335783 1
gene  1 30 20 -0.06636231790024921 1 1169.0 -0.06636231790024921 1
gene  1 31 20 -0.9770624134986186 1 1170.0 -0.9770624134986186 1
gene  1 32 20 -0.09153914755798916 1 1171.0 -0.09153914755798916 1
gene  1 34 20 -0.5596358192069569 1 1173.0 -0.5596358192069569 1
gene  1 35 20 0.386759528202893 1 1174.0 0.386759528202893 1
gene  1 39 20 -0.664740351623859 1 1178.0 -0.664740351623859 1
gene  1 40 20 -0.2646890977445492 1 1179.0 -0.2646890977445492 1
gene  1 41 20 -0.5608369769542285 1 1180.0 -0.5608369769542285 1
gene  1 42 20 -0.7996066006385438 1 1181.0 -0.7996066006385438 1
gene  1 43 20 0.4428253943479251 1 1182.0 0.4428253943479251 1
gene  1 44 20 0.45978944521431775 1 1183.0 0.45978944521431775 1
gene  1 45 20 -0.23104510973054304 1 1184.0 -0.23104510973054304 1
gene  1 46 20 -0.8588184461761633 1 1185.0 -0.8588184461761633 1
gene  1 52 20 -0.6192865848357734 1 1191.0 -0.6192865848357734 1
gene  1 53 20 0.015503471438566674 1 1192.0 0.015503471438566674 1
gene  1 54 20 -0.27383594975998243 1 1193.0 -0.27383594975998243 1
gene  1 55 20 -0.1904526519379598 1 1194.0 -0.1904526519379598 1
gene  1 56 20 -0.4718189565874625 1 1195.0 -0.4718189565874625 1
gene  1 57 20 0.9557476561684969 1 1196.0 0.9557476561684969 1
gene  1 59 20 0.22165362507920217 1 1198.0 0.22165362507920217 1
gene  1 2 21 -0.9525605798418646 0 1201.0 -0.9525605798418646 1
gene  1 5 21 0.5796497063307215 0 1204.0 0.5796497063307215 1
gene  1 9 21 0.6890333934034465 0 1208.0 0.6890333934034465 1
gene  1 17 21 0.7604796749482032 0 1216.0 0.7604796749482032 1
gene  1 18 21 0.795519958274476 0 1217.0 0.795519958274476 1
gene  1 19 21 0.045262334380574476 0 1218.0 0.045262334380574476 1
gene  1 20 21 0.8154192444655461 0 1219.0 0.8154192444655461 1
gene  1 23 21 -0.28810419340952614 1 1222.0 -0.28810419340952614 1
gene  1 25 21 0.8524992216874213 1 1224.0 0.8524992216874213 1
gene  1 27 21 0.7712618516475428 1 1226.0 0.7712618516475428 1
gene  1 28 21 -0.26008184367356946 1 1227.0 -0.26008184367356946 1
gene  1 29 21 0.7084153271731018 1 1228.0 0.7084153271731018 1
gene  1 31 21 0.11826876286237167 1 1230.0 0.11826876286237167 1
gene  1 37 21 -0.09600134221615775 1 1236.0 -0.09600134221615775 1
gene  1 38 21 -0.7748579576972099 1 1237.0 -0.7748579576972099 1
gene  1 39 21 -0.48528021944681227 1 1238.0 -0.48528021944681227 1
gene  1 43 21 0.0354628939995308 1 1242.0 0.0354628939995308 1
gene  1 44 21 -0.2860633460585063 1 1243.0 -0.2860633460585063 1
gene  1 47 21 0.9449612551697693 1 1246.0 0.9449612551697693 1
gene  1 53 21 -0.006167375290461614 1 1252.0 -0.006167375290461614 1
gene  1 55 21 -0.8395207537447053 1 1254.0 -0.8395207537447053 1
gene  1 57 21 -0.5853847627668197 1 1256.0 -0.5853847627668197 1
gene  1 60 21 -0.02641247583537212 1 1259.0 -0.02641247583537212 1
gene  1 1 22 -0.7429058125112471 0 1260.0 -0.7429058125112471 1
gene  1 6 22 0.9979971935997526 0 1265.0 0.9979971935997526 1
gene  1 9 22 -0.5338722129739921 0 1268.0 -0.5338722129739921 1
gene  1 10 22 -0.9246851194188874 0 1269.0 -0.9246851194188874 1
gene  1 17 22 0.17568185934017402 0 1276.0 0.17568185934017402 1
gene  1 18 22 -0.37439139852736725 0 1277.0 -0.37439139852736725 1
gene  1 19 22 -0.15120832625931385 0 1278.0 -0.15120832625931385 1
gene  1 21 22 -0.7270517122728144 0 1280.0 -0.7270517122728144 1
gene  1 23 22 0.8505348197299122 1 1282.0 0.8505348197299122 1
gene  1 24 22 -0.48181268582061865 1 1283.0 -0.48181268582061865 1
gene  1 25 22 -0.8963711882800948 1 1284.0 -0.8963711882800948 1
gene  1 26 22 0.3733910634800045 1 1285.0 0.3733910634800045 1
gene  1 29 22 -0.7466191532149486 1 1288.0 -0.7466191532149486 1
gene  1 31 22 -0.9012903681817623 1 1290.0 -0.9012903681817623 1
gene  1 32 22 -0.8562335732910181 1 1291.0 -0.8562335732910181 1
gene  1 37 22 0.11715240775404678 1 1296.0 0.11715240775404678 1
gene  1 45 22 -0.3734741832394405 1 1304.0 -0.3734741832394405 1
gene  1 47 22 0.1159867882218576 1 1306.0 0.1159867882218576 1
gene  1 51 22 -0.4204436367059817 1 1310.0 -0.4204436367059817 1
gene  1 52 22 -0.6494330736524089 1 1311.0 -0.6494330736524089 1
gene  1 57 22 -0.6003403645380947 1 1316.0 -0.6003403645380947 1
gene  1 58 22 -0.5447695287713299 1 1317.0 -0.5447695287713299 1
gene  1 59 22 0.6120442861971415 1 1318.0 0.6120442861971415 1
gene  1 1 23 -0.2752134726586204 0 1320.0 -0.2752134726586204 1
gene  1 3 23 0.5264645048519395 0 1322.0 0.5264645048519395 1
gene  1 5 23 0.014994298936535696 0 1324.0 0.014994298936535696 1
gene  1 6 23 -0.5366061934799354 0 1325.0 -0.5366061934799354 1
gene  1 7 23 -0.9161266472192348 0 1326.0 -0.9161266472192348 1
gene  1 11 23 0.2404261366964896 0 1330.0 0.2404261366964896 1
gene  1 12 23 -0.44309084634545304 0 1331.0 -0.44309084634545304 1
gene  1 13 23 -0.2219563600584833 0 1332.0 -0.2219563600584833 1
gene  1 14 23 0.8448013992802517 0 1333.0 0.8448013992802517 1
gene  1 15 23 -0.24872142522980117 0 1334.0 -0.24872142522980117 1
gene  1 18 23 -0.9498356150855448 0 1337.0 -0.9498356150855448 1
gene  1 21 23 -0.5660541437953968 0 1340.0 -0.5660541437953968 1
gene  1 23 23 -0.6346226593291031 1 1342.0 -0.6346226593291031 1
gene  1 24 23 -0.49693726482298184 1 1343.0 -0.49693726482298184 1
gene  1 26 23 0.9029130447668983 1 1345.0 0.9029130447668983 1
gene  1 28 23 0.686103968905566 1 1347.0 0.686103968905566 1
gene  1 30 23 0.8244990902256739 1 1349.0 0.8244990902256739 1
gene  1 31 23 0.7023938102520382 1 1350.0 0.7023938102520382 1
gene  1 35 23 0.6624491931933063 1 1354.0 0.6624491931933063 1
gene  1 38 23 0.9733745052209191 1 1357.0 0.9733745052209191 1
gene  1 40 23 0.37548549267437603 1 1359.0 0.37548549267437603 1
gene  1 41 23 -0.6223065732429045 1 1360.0 -0.6223065732429045 1
gene  1 45 23 -0.10820272818734333 1 1364.0 -0.10820272818734333 1
gene  1 46 23 0.10869581956353723 1 1365.0 0.10869581956353723 1
gene  1 51 23 -0.8310524399279369 1 1370.0 -0.8310524399279369 1
gene  1 52 23 -0.5205211475770944 1 1371.0 -0.5205211475770944 1
gene  1 53 23 -0.2635821314751004 1 1372.0 -0.2635821314751004 1
gene  1 55 23 -0.9551137936219563 1 1374.0 -0.9551137936219563 1
gene  1 56 23 -0.8540280380388988 1 1375.0 -0.8540280380388988 1
gene  1 58 23 0.37031756923959036 1 1377.0 0.37031756923959036 1
gene  1 59 23 -0.6617810226798628 1 1378.0 -0.6617810226798628 1
gene  1 1 24 0.20494403951018492 0 1380.0 0.20494403951018492 1
gene  1 4 24 0.2903846218236963 0 1383.0 0.2903846218236963 1
gene  1 5 24 0.18256930999425308 0 1384.0 0.18256930999425308 1
gene  1 6 24 0.7918614222402417 0 1385.0 0.7918614222402417 1
gene  1 7 24 -0.2561941049449987 0 1386.0 -0.2561941049449987 1
gene  1 8 24 -0.5375238672998885 0 1387.0 -0.5375238672998885 1
gene  1 9 24 -0.9759571427935928 0 1388.0 -0.9759571427935928 1
gene  1 14 24 0.5457582174922375 0 1393.0 0.5457582174922375 1
gene  1 17 24 -0.8425894708821487 0 1396.0 -0.8425894708821487 1
gene  1 18 24 -0.7893608699658631 0 1397.0 -0.7893608699658631 1
gene  1 19 24 -0.408780309186077 0 1398.0 -0.408780309186077 1
gene  1 20 24 -0.6990700168285717 0 1399.0 -0.6990700168285717 1
gene  1 22 24 0.20024712014763202 0 1401.0 0.20024712014763202 1
gene  1 23 24 -0.4737180817110874 0 1402.0 -0.4737180817110874 1
gene  1 24 24 0.5408093004359296 1 1403.0 0.5408093004359296 1
gene  1 26 24 0.513282635135378 1 1405.0 0.513282635135378 1
gene  1 28 24 -0.3360668449282851 1 1407.0 -0.3360668449282851 1
gene  1 33 24 0.39768173610165963 1 1412.0 0.39768173610165963 1
gene  1 39 24 -0.9518484319113114 1 1418.0 -0.9518484319113114 1
gene  1 41 24 -0.1525029893994525 1 1420.0 -0.1525029893994525 1
gene  1 44 24 -0.42617307332226595 1 1423.0 -0.42617307332226595 1
gene  1 45 24 0.17732454072149953 1 1424.0 0.17732454072149953 1
gene  1 46 24 -0.6104121456307435 1 1425.0 -0.6104121456307435 1
gene  1 51 24 -0.2066939876456877 1 1430.0 -0.2066939876456877 1
gene  1 52 24 0.6830388557426578 1 1431.0 0.6830388557426578 1
gene  1 54 24 -0.6106757028333206 1 1433.0 -0.6106757028333206 1
gene  1 55 24 -0.019396528243655387 1 1434.0 -0.019396528243655387 1
gene  1 56 24 -0.8776235236724677 1 1435.0 -0.8776235236724677 1
gene  1 57 24 -0.693170998491378 1 1436.0 -0.693170998491378 1
gene  1 58 24 -0.9339607996358099 1 1437.0 -0.9339607996358099 1
gene  1 59 24 0.41936022682635776 1 1438.0 0.41936022682635776 1
gene  1 60 24 -0.5901540657788278 1 1439.0 -0.5901540657788278 1
gene  1 5 25 -0.6820601133487267 0 1444.0 -0.6820601133487267 1
gene  1 8 25 -0.8526996214221949 0 1447.0 -0.8526996214221949 1
gene  1 10 25 0.49401823711779436 0 1449.0 0.49401823711779436 1
gene  1 12 25 -0.5206023214373241 0 1451.0 -0.5206023214373241 1
gene  1 13 25 -0.7889438232714455 0 1452.0 -0.7889438232714455 1
gene  1 14 25 0.5625837947756595 0 1453.0 0.5625837947756595 1
gene  1 15 25 -0.02838425213266914 0 1454.0 -0.02838425213266914 1
gene  1 17 25 -0.6195831246538024 0 1456.0 -0.6195831246538024 1
gene  1 21 25 -0.9933233886499696 0 1460.0 -0.9933233886499696 1
gene  1 26 25 -0.1742137577462472 1 1465.0 -0.1742137577462472 1
gene  1 28 25 0.948108699708788 1 1467.0 0.948108699708788 1
gene  1 29 25 -0.803683635608172 1 1468.0 -0.803683635608172 1
gene  1 30 25 0.6109833458987679 1 1469.0 0.6109833458987679 1
gene  1 31 25 0.1354522912142905 1 1470.0 0.1354522912142905 1
gene  1 33 25 0.2829419833066571 1 1472.0 0.2829419833066571 1
gene  1 36 25 -0.8347948195387889 1 1475.0 -0.8347948195387889 1
gene  1 38 25 0.6045596452708127 1 1477.0 0.6045596452708127 1
gene  1 39 25 0.5829453438195322 1 1478.0 0.5829453438195322 1
gene  1 40 25 0.726882277957504 1 1479.0 0.726882277957504 1
gene  1 41 25 0.2732953429208822 1 1480.0 0.2732953429208822 1
gene  1 44 25 0.9182917884085048 1 1483.0 0.9182917884085048 1
gene  1 45 25 0.4440906452010579 1 1484.0 0.4440906452010579 1
gene  1 46 25 0.11204784645809363 1 1485.0 0.11204784645809363 1
gene  1 47 25 0.9202302284756179 1 1486.0 0.9202302284756179 1
gene  1 53 25 -0.3666682568821261 1 1492.0 -0.3666682568821261 1
gene  1 55 25 0.8785714990691225 1 1494.0 0.8785714990691225 1
gene  1 56 25 -0.16995493520241 1 1495.0 -0.16995493520241 1
gene  1 58 25 0.9289481255428389 1 1497.0 0.9289481255428389 1
gene  1 60 25 -0.20068225323331168 1 1499.0 -0.20068225323331168 1
gene  1 4 26 -0.14870072731719752 0 1503.0 -0.14870072731719752 1
gene  1 6 26 0.6845640059003696 0 1505.0 0.6845640059003696 1
gene  1 8 26 0.41184130744781644 0 1507.0 0.41184130744781644 1
gene  1 11 26 0.8572708833367038 0 1510.0 0.8572708833367038 1
gene  1 12 26 0.0039963525880803985 0 1511.0 0.0039963525880803985 1
gene  1 15 26 -0.3880672224458714 0 1514.0 -0.3880672224458714 1
gene  1 17 26 0.30180911244669106 0 1516.0 0.30180911244669106 1
gene  1 18 26 0.03658719988485549 0 1517.0 0.03658719988485549 1
gene  1 19 26 -0.1491001947039738 0 1518.0 -0.1491001947039738 1
gene  1 21 26 -0.4033395213288247 0 1520.0 -0.4033395213288247 1
gene  1 28 26 0.8579358563188522 1 1527.0 0.8579358563188522 1
gene  1 29 26 0.707745363905705 1 1528.0 0.707745363905705 1
gene  1 30 26 0.00633396336673013 1 1529.0 0.00633396336673013 1
gene  1 31 26 0.8282366297164755 1 1530.0 0.8282366297164755 1
gene  1 32 26 -0.9830719852597963 1 1531.0 -0.9830719852597963 1
gene  1 33 26 -0.015451154748233076 1 1532.0 -0.015451154748233076 1
gene  1 37 26 0.12097274671508887 1 1536.0 0.12097274671508887 1
gene  1 38 26 -0.7975007473089155 1 1537.0 -0.7975007473089155 1
gene  1 39 26 0.65850646382164 1 1538.0 0.65850646382164 1
gene  1 40 26 0.7075246308024951 1 1539.0 0.7075246308024951 1
gene  1 41 26 0.04450985861137885 1 1540.0 0.04450985861137885 1
gene  1 44 26 0.9041094491471836 1 1543.0 0.9041094491471836 1
gene  1 46 26 -0.27964859727739266 1 1545.0 -0.27964859727739266 1
gene  1 48 26 0.48806374088000454 1 1547.0 0.48806374088000454 1
gene  1 51 26 0.3444811341622709 1 1550.0 0.3444811341622709 1
gene  1 54 26 -0.551224680896023 1 1553.0 -0.551224680896023 1
gene  1 55 26 0.08517647079963131 1 1554.0 0.08517647079963131 1
gene  1 57 26 -0.7018018230752677 1 1556.0 -0.7018018230752677 1
gene  1 58 26 -0.6219957559976615 1 1557.0 -0.6219957559976615 1
gene  1 1 27 -0.5016108126750707 0 1560.0 -0.5016108126750707 1
gene  1 3 27 -0.1834879497307994 0 1562.0 -0.1834879497307994 1
gene  1 4 27 -0.598133201582988 0 1563.0 -0.598133201582988 1
gene  1 5 27 -0.6708134205060838 0 1564.0 -0.6708134205060838 1
gene  1 8 27 0.7595475232864891 0 1567.0 0.7595475232864891 1
gene  1 11 27 0.5712463534668287 0 1570.0 0.5712463534668287 1
gene  1 12 27 -0.1828624189475574 0 1571.0 -0.1828624189475574 1
gene  1 13 27 -0.6025136282177487 0 1572.0 -0.6025136282177487 1
gene  1 17 27 0.25835000256450935 0 1576.0 0.25835000256450935 1
gene  1 18 27 -0.7247434080970416 0 1577.0 -0.7247434080970416 1
gene  1 19 27 -0.9605650819662289 0 1578.0 -0.9605650819662289 1
gene  1 21 27 -0.03194706421944227 0 1580.0 -0.03194706421944227 1
gene  1 24 27 -0.3132592647299529 0 1583.0 -0.3132592647299529 1
gene  1 27 27 -0.5270531838904723 1 1586.0 -0.5270531838904723 1
gene  1 29 27 -0.39965618956872867 1 1588.0 -0.39965618956872867 1
gene  1 30 27 -0.16689584225792664 1 1589.0 -0.16689584225792664 1
gene  1 32 27 0.5774340014764618 1 1591.0 0.5774340014764618 1
gene  1 33 27 -0.8961499525615434 1 1592.0 -0.8961499525615434 1
gene  1 38 27 0.6545687233323592 1 1597.0 0.6545687233323592 1
gene  1 39 27 -0.3310656642462276 1 1598.0 -0.3310656642462276 1
gene  1 42 27 0.8161579452805154 1 1601.0 0.8161579452805154 1
gene  1 45 27 0.5773466277549393 1 1604.0 0.5773466277549393 1
gene  1 46 27 -0.2505938373063332 1 1605.0 -0.2505938373063332 1
gene  1 47 27 -0.5657601879465403 1 1606.0 -0.5657601879465403 1
gene  1 51 27 -0.6445043648658143 1 1610.0 -0.6445043648658143 1
gene  1 53 27 0.4938802999561134 1 1612.0 0.4938802999561134 1
gene  1 56 27 -0.40134683159234685 1 1615.0 -0.40134683159234685 1
gene  1 60 27 0.22023369184428765 1 1619.0 0.22023369184428765 1
gene  1 4 28 -0.5525300341385823 0 1623.0 -0.5525300341385823 1
gene  1 7 28 -0.9344674708330444 0 1626.0 -0.9344674708330444 1
gene  1 8 28 -0.04868411415449192 0 1627.0 -0.04868411415449192 1
gene  1 10 28 -0.25903382209590486 0 1629.0 -0.25903382209590486 1
gene  1 15 28 -0.7230761464600837 0 1634.0 -0.7230761464600837 1
gene  1 17 28 0.7498179102339032 0 1636.0 0.7498179102339032 1
gene  1 19 28 -0.8068103897823099 0 1638.0 -0.8068103897823099 1
gene  1 20 28 0.39881924955910486 0 1639.0 0.39881924955910486 1
gene  1 21 28 -0.055292983260754956 0 1640.0 -0.055292983260754956 1
gene  1 23 28 -0.6885754410694019 0 1642.0 -0.6885754410694019 1
gene  1 25 28 -0.4138989692600259 0 1644.0 -0.4138989692600259 1
gene  1 26 28 -0.2331441779069905 0 1645.0 -0.2331441779069905 1
gene  1 27 28 0.5210106807077771 0 1646.0 0.5210106807077771 1
gene  1 28 28 0.7837648736338579 1 1647.0 0.7837648736338579 1
gene  1 29 28 0.1678995953916701 1 1648.0 0.1678995953916701 1
gene  1 30 28 0.6040235272832829 1 1649.0 0.6040235272832829 1
gene  1 32 28 0.8952184700751692 1 1651.0 0.8952184700751692 1
gene  1 33 28 0.01926485039339676 1 1652.0 0.01926485039339676 1
gene  1 36 28 0.7268884179170477 1 1655.0 0.7268884179170477 1
gene  1 37 28 -0.7605617802476184 1 1656.0 -0.7605617802476184 1
gene  1 39 28 -0.3533205048265696 1 1658.0 -0.3533205048265696 1
gene  1 42 28 -0.8108468269542524 1 1661.0 -0.8108468269542524 1
gene  1 44 28 0.1331716574736268 1 1663.0 0.1331716574736268 1
gene  1 45 28 0.92744525865084 1 1664.0 0.92744525865084 1
gene  1 46 28 -0.1001455517214392 1 1665.0 -0.1001455517214392 1
gene  1 53 28 0.7540038894261042 1 1672.0 0.7540038894261042 1
gene  1 54 28 -0.8142738216737575 1 1673.0 -0.8142738216737575 1
gene  1 57 28 0.3040928795653267 1 1676.0 0.3040928795653267 1
gene  1 58 28 0.620432060758032 1 1677.0 0.620432060758032 1
gene  1 60 28 0.7590102267842338 1 1679.0 0.7590102267842338 1
gene  1 1 29 0.07889920310323968 0 1680.0 0.07889920310323968 1
gene  1 3 29 0.6857627531702364 0 1682.0 0.6857627531702364 1
gene  1 4 29 -0.21052587475670778 0 1683.0 -0.21052587475670778 1
gene  1 5 29 -0.34827213307088467 0 1684.0 -0.34827213307088467 1
gene  1 6 29 0.1772801129353991 0 1685.0 0.1772801129353991 1
gene  1 8 29 0.5910701063281819 0 1687.0 0.5910701063281819 1
gene  1 10 29 0.6939547161495455 0 1689.0 0.6939547161495455 1
gene  1 11 29 0.7766466338408758 0 1690.0 0.7766466338408758 1
gene  1 12 29 -0.5658424339679621 0 1691.0 -0.5658424339679621 1
gene  1 13 29 -0.17262875269061984 0 1692.0 -0.17262875269061984 1
gene  1 15 29 -0.7461811612171753 0 1694.0 -0.7461811612171753 1
gene  1 16 29 0.9665986514040027 0 1695.0 0.9665986514040027 1
gene  1 17 29 -0.04390741879109739 0 1696.0 -0.04390741879109739 1
gene  1 18 29 -0.031080518154839025 0 1697.0 -0.031080518154839025 1
gene  1 19 29 0.4432366173094432 0 1698.0 0.4432366173094432 1
gene  1 20 29 0.12053892639134295 0 1699.0 0.12053892639134295 1
gene  1 21 29 0.28059166547970943 0 1700.0 0.28059166547970943 1
gene  1 22 29 0.05257052347272369 0 1701.0 0.05257052347272369 1
gene  1 32 29 0.8899515157237583 1 1711.0 0.8899515157237583 1
gene  1 33 29 -0.41513470049278156 1 1712.0 -0.41513470049278156 1
gene  1 35 29 -0.2112953259807465 1 1714.0 -0.2112953259807465 1
gene  1 38 29 -0.9772012150478535 1 1717.0 -0.9772012150478535 1
gene  1 39 29 0.7195778313707857 1 1718.0 0.7195778313707857 1
gene  1 45 29 -0.0038622722380132757 1 1724.0 -0.0038622722380132757 1
gene  1 47 29 0.2714060763889541 1 1726.0 0.2714060763889541 1
gene  1 48 29 0.9646514724292192 1 1727.0 0.9646514724292192 1
gene  1 53 29 -0.6256201219809772 1 1732.0 -0.6256201219809772 1
gene  1 55 29 0.810381831694175 1 1734.0 0.810381831694175 1
gene  1 56 29 0.01783866451299346 1 1735.0 0.01783866451299346 1
gene  1 58 29 -0.7483553971332214 1 1737.0 -0.7483553971332214 1
gene  1 60 29 0.25943545139612545 1 1739.0 0.25943545139612545 1
gene  1 3 30 0.8026882630551428 0 1742.0 0.8026882630551428 1
gene  1 6 30 0.3962818926432554 0 1745.0 0.3962818926432554 1
gene  1 10 30 0.01949359665685227 0 1749.0 0.01949359665685227 1
gene  1 11 30 0.5830791691023548 0 1750.0 0.5830791691023548 1
gene  1 13 30 -0.1638308873825587 0 1752.0 -0.1638308873825587 1
gene  1 14 30 -0.5705293199655457 0 1753.0 -0.5705293199655457 1
gene  1 15 30 0.2198543677461172 0 1754.0 0.2198543677461172 1
gene  1 16 30 0.8289817589881 0 1755.0 0.8289817589881 1
gene  1 17 30 -0.9118938728955684 0 1756.0 -0.9118938728955684 1
gene  1 18 30 -0.27192377322312056 0 1757.0 -0.27192377322312056 1
gene  1 22 30 0.41250054636671674 0 1761.0 0.41250054636671674 1
gene  1 25 30 -0.3626265841967865 0 1764.0 -0.3626265841967865 1
gene  1 26 30 -0.32982753365184014 0 1765.0 -0.32982753365184014 1
gene  1 29 30 -0.962886891890276 0 1768.0 -0.962886891890276 1
gene  1 30 30 -0.6779448134924321 1 1769.0 -0.6779448134924321 1
gene  1 32 30 -0.3193260496433502 1 1771.0 -0.3193260496433502 1
gene  1 35 30 0.9682533930608287 1 1774.0 0.9682533930608287 1
gene  1 37 30 0.4065995166851507 1 1776.0 0.4065995166851507 1
gene  1 38 30 0.6242096940485968 1 1777.0 0.6242096940485968 1
gene  1 40 30 -0.7266891963300788 1 1779.0 -0.7266891963300788 1
gene  1 42 30 -0.004731133163346138 1 1781.0 -0.004731133163346138 1
gene  1 45 30 0.6748356922185905 1 1784.0 0.6748356922185905 1
gene  1 46 30 -0.5544067048151431 1 1785.0 -0.5544067048151431 1
gene  1 47 30 0.9367722857682835 1 1786.0 0.9367722857682835 1
gene  1 48 30 0.3621052559892742 1 1787.0 0.3621052559892742 1
gene  1 51 30 0.6307303884263362 1 1790.0 0.6307303884263362 1
gene  1 54 30 0.6263309755730014 1 1793.0 0.6263309755730014 1
gene  1 56 30 -0.6147962148846443 1 1795.0 -0.6147962148846443 1
gene  1 59 30 0.29503376419045735 1 1798.0 0.29503376419045735 1
gene  1 60 30 0.5829910541079735 1 1799.0 0.5829910541079735 1
gene  1 1 31 -0.9463690118189843 0 1800.0 -0.9463690118189843 1
gene  1 2 31 0.22087721230975044 0 1801.0 0.22087721230975044 1
gene  1 4 31 0.13092917989807995 0 1803.0 0.13092917989807995 1
gene  1 5 31 -0.3261407884378796 0 1804.0 -0.3261407884378796 1
gene  1 7 31 0.5391658360950825 0 1806.0 0.5391658360950825 1
gene  1 9 31 0.015510410216668564 0 1808.0 0.015510410216668564 1
gene  1 11 31 0.43189371295716095 0 1810.0 0.43189371295716095 1
gene  1 15 31 -0.16129705929850624 0 1814.0 -0.16129705929850624 1
gene  1 19 31 -0.7701473594081869 0 1818.0 -0.7701473594081869 1
gene  1 22 31 0.5123543932282005 0 1821.0 0.5123543932282005 1
gene  1 26 31 -0.5720516277742252 0 1825.0 -0.5720516277742252 1
gene  1 29 31 -0.5032036960127557 0 1828.0 -0.5032036960127557 1
gene  1 30 31 0.22313127850576253 0 1829.0 0.22313127850576253 1
gene  1 32 31 -0.19380206018108656 1 1831.0 -0.19380206018108656 1
gene  1 33 31 0.8981454639671155 1 1832.0 0.8981454639671155 1
gene  1 35 31 -0.6609674016564945 1 1834.0 -0.6609674016564945 1
gene  1 38 31 0.3472671697964026 1 1837.0 0.3472671697964026 1
gene  1 39 31 -0.7752754196112199 1 1838.0 -0.7752754196112199 1
gene  1 41 31 0.8244916730749645 1 1840.0 0.8244916730749645 1
gene  1 43 31 -0.9732345940416157 1 1842.0 -0.9732345940416157 1
gene  1 44 31 -0.5544760441171336 1 1843.0 -0.5544760441171336 1
gene  1 45 31 0.48405718072772685 1 1844.0 0.48405718072772685 1
gene  1 46 31 -0.41929239765348664 1 1845.0 -0.41929239765348664 1
gene  1 48 31 -0.531852294935645 1 1847.0 -0.531852294935645 1
gene  1 51 31 0.12695579174347535 1 1850.0 0.12695579174347535 1
gene  1 52 31 0.03138248644351058 1 1851.0 0.03138248644351058 1
gene  1 57 31 -0.8628175828631296 1 1856.0 -0.8628175828631296 1
gene  1 59 31 -0.5784646398785996 1 1858.0 -0.5784646398785996 1
gene  1 2 32 -0.4534183688253791 0 1861.0 -0.4534183688253791 1
gene  1 3 32 -0.26365302078113095 0 1862.0 -0.26365302078113095 1
gene  1 4 32 0.2822246781012553 0 1863.0 0.2822246781012553 1
gene  1 7 32 -0.5951220037323487 0 1866.0 -0.5951220037323487 1
gene  1 8 32 -0.23223025545443327 0 1867.0 -0.23223025545443327 1
gene  1 9 32 -0.40618301649442806 0 1868.0 -0.40618301649442806 1
gene  1 10 32 0.27365403755451717 0 1869.0 0.27365403755451717 1
gene  1 12 32 0.5968908790900517 0 1871.0 0.5968908790900517 1
gene  1 14 32 0.8659207687702165 0 1873.0 0.8659207687702165 1
gene  1 15 32 0.6976065672985 0 1874.0 0.6976065672985 1
gene  1 16 32 0.4719435403929587 0 1875.0 0.4719435403929587 1
gene  1 18 32 0.6561464738280736 0 1877.0 0.6561464738280736 1
gene  1 19 32 -0.7129051907005647 0 1878.0 -0.7129051907005647 1
gene  1 22 32 -0.4270962640966315 0 1881.0 -0.4270962640966315 1
gene  1 24 32 -0.8047209706239705 0 1883.0 -0.8047209706239705 1
gene  1 26 32 0.7024058030890976 0 1885.0 0.7024058030890976 1
gene  1 30 32 -8.297722219349141E-4 0 1889.0 -8.297722219349141E-4 1
gene  1 32 32 0.061687367729295534 1 1891.0 0.061687367729295534 1
gene  1 33 32 0.024544390819367337 1 1892.0 0.024544390819367337 1
gene  1 38 32 0.740432439858385 1 1897.0 0.740432439858385 1
gene  1 40 32 -0.07111411745780381 1 1899.0 -0.07111411745780381 1
gene  1 41 32 -0.5490286295453803 1 1900.0 -0.5490286295453803 1
gene  1 42 32 0.5668728382014274 1 1901.0 0.5668728382014274 1
gene  1 45 32 -0.969173395893651 1 1904.0 -0.969173395893651 1
gene  1 46 32 0.6726939078505724 1 1905.0 0.6726939078505724 1
gene  1 47 32 0.16507098859738945 1 1906.0 0.16507098859738945 1
gene  1 48 32 -0.33567581103740607 1 1907.0 -0.33567581103740607 1
gene  1 51 32 -0.7582912610574206 1 1910.0 -0.7582912610574206 1
gene  1 53 32 -0.9638011421966995 1 1912.0 -0.9638011421966995 1
gene  1 54 32 -0.772452532814278 1 1913.0 -0.772452532814278 1
gene  1 56 32 0.4937914058637075 1 1915.0 0.4937914058637075 1
gene  1 57 32 -0.07595930449298127 1 1916.0 -0.07595930449298127 1
gene  1 58 32 -0.3434855341460432 1 1917.0 -0.3434855341460432 1
gene  1 59 32 0.519804946826165 1 1918.0 0.519804946826165 1
gene  1 1 33 0.9572472408736138 0 1920.0 0.9572472408736138 1
gene  1 5 33 0.21581286484534887 0 1924.0 0.21581286484534887 1
gene  1 9 33 -0.828697268900231 0 1928.0 -0.828697268900231 1
gene  1 12 33 0.0361085163226513 0 1931.0 0.0361085163226513 1
gene  1 17 33 0.011302075924671806 0 1936.0 0.011302075924671806 1
gene  1 18 33 0.8607182497138385 0 1937.0 0.8607182497138385 1
gene  1 19 33 -0.6018961672764273 0 1938.0 -0.6018961672764273 1
gene  1 20 33 0.6458715603976446 0 1939.0 0.6458715603976446 1
gene  1 21 33 -0.1142903912436668 0 1940.0 -0.1142903912436668 1
gene  1 23 33 0.5237050911497168 0 1942.0 0.5237050911497168 1
gene  1 24 33 0.11286019623321698 0 1943.0 0.11286019623321698 1
gene  1 28 33 -0.04365444453869535 0 1947.0 -0.04365444453869535 1
gene  1 29 33 -0.6574523261656601 0 1948.0 -0.6574523261656601 1
gene  1 33 33 0.2046361740664593 1 1952.0 0.2046361740664593 1
gene  1 34 33 0.6174141549832978 1 1953.0 0.6174141549832978 1
gene  1 44 33 -0.9086280250727544 1 1963.0 -0.9086280250727544 1
gene  1 46 33 -0.02546000725151277 1 1965.0 -0.02546000725151277 1
gene  1 47 33 0.9693910113559231 1 1966.0 0.9693910113559231 1
gene  1 51 33 -0.5748599258284848 1 1970.0 -0.5748599258284848 1
gene  1 53 33 -0.3571387275464756 1 1972.0 -0.3571387275464756 1
gene  1 54 33 -0.5833224516589868 1 1973.0 -0.5833224516589868 1
gene  1 55 33 0.6956692217438436 1 1974.0 0.6956692217438436 1
gene  1 56 33 0.67093034421419 1 1975.0 0.67093034421419 1
gene  1 57 33 -0.7211029538635585 1 1976.0 -0.7211029538635585 1
gene  1 59 33 -0.2908697872171608 1 1978.0 -0.2908697872171608 1
gene  1 60 33 -0.767025893498466 1 1979.0 -0.767025893498466 1
gene  1 1 34 0.8088179077461539 0 1980.0 0.8088179077461539 1
gene  1 2 34 -0.10578897771314055 0 1981.0 -0.10578897771314055 1
gene  1 4 34 -0.7035532193212852 0 1983.0 -0.7035532193212852 1
gene  1 7 34 -0.9466919897346405 0 1986.0 -0.9466919897346405 1
gene  1 8 34 0.8973218991897166 0 1987.0 0.8973218991897166 1
gene  1 10 34 0.5671559500857772 0 1989.0 0.5671559500857772 1
gene  1 13 34 0.05078634506864965 0 1992.0 0.05078634506864965 1
gene  1 14 34 -0.921312876623321 0 1993.0 -0.921312876623321 1
gene  1 15 34 -0.5529079211499459 0 1994.0 -0.5529079211499459 1
gene  1 20 34 0.8867207420014825 0 1999.0 0.8867207420014825 1
gene  1 21 34 -0.3278017872402271 0 2000.0 -0.3278017872402271 1
gene  1 22 34 0.29128206048135613 0 2001.0 0.29128206048135613 1
gene  1 24 34 -0.9062294258255383 0 2003.0 -0.9062294258255383 1
gene  1 26 34 -0.9520588511609382 0 2005.0 -0.9520588511609382 1
gene  1 27 34 -0.7593466394082515 0 2006.0 -0.7593466394082515 1
gene  1 31 34 -0.0919799924047231 0 2010.0 -0.0919799924047231 1
gene  1 32 34 0.7075806695678168 0 2011.0 0.7075806695678168 1
gene  1 33 34 0.3818040659970751 0 2012.0 0.3818040659970751 1
gene  1 34 34 -0.47592277666231675 1 2013.0 -0.47592277666231675 1
gene  1 35 34 -0.04078455623138617 1 2014.0 -0.04078455623138617 1
gene  1 37 34 -0.8743442324897057 1 2016.0 -0.8743442324897057 1
gene  1 38 34 -0.4826723542863749 1 2017.0 -0.4826723542863749 1
gene  1 39 34 0.408835330424448 1 2018.0 0.408835330424448 1
gene  1 40 34 0.7296288565191147 1 2019.0 0.7296288565191147 1
gene  1 41 34 0.7137617764874621 1 2020.0 0.7137617764874621 1
gene  1 43 34 -0.35149761726825446 1 2022.0 -0.35149761726825446 1
gene  1 44 34 -0.42376592407203467 1 2023.0 -0.42376592407203467 1
gene  1 47 34 -0.5000887453363579 1 2026.0 -0.5000887453363579 1
gene  1 53 34 -0.5954235005460286 1 2032.0 -0.5954235005460286 1
gene  1 54 34 -0.4677558170450359 1 2033.0 -0.4677558170450359 1
gene  1 59 34 0.8585957722213505 1 2038.0 0.8585957722213505 1
gene  1 60 34 -0.12103841445803896 1 2039.0 -0.12103841445803896 1
gene  1 1 35 -0.7355781420201848 0 2040.0 -0.7355781420201848 1
gene  1 2 35 -0.8600293644058679 0 2041.0 -0.8600293644058679 1
gene  1 3 35 0.3415695245680451 0 2042.0 0.3415695245680451 1
gene  1 7 35 1.001331167236881 0 2046.0 1.001331167236881 1
gene  1 8 35 -0.34615266315849114 0 2047.0 -0.34615266315849114 1
gene  1 9 35 0.23300245463996305 0 2048.0 0.23300245463996305 1
gene  1 10 35 0.06931402613038795 0 2049.0 0.06931402613038795 1
gene  1 13 35 0.013901159291513593 0 2052.0 0.013901159291513593 1
gene  1 15 35 0.36536073539019903 0 2054.0 0.36536073539019903 1
gene  1 16 35 0.223623821784372 0 2055.0 0.223623821784372 1
gene  1 20 35 -0.2736365506109864 0 2059.0 -0.2736365506109864 1
gene  1 21 35 -0.06415762806833405 0 2060.0 -0.06415762806833405 1
gene  1 24 35 -0.9136880807590545 0 2063.0 -0.9136880807590545 1
gene  1 25 35 -0.2589488918471481 0 2064.0 -0.2589488918471481 1
gene  1 26 35 -0.6152191006512316 0 2065.0 -0.6152191006512316 1
gene  1 27 35 0.0879478784281027 0 2066.0 0.0879478784281027 1
gene  1 29 35 -0.9432479079120597 0 2068.0 -0.9432479079120597 1
gene  1 30 35 0.7958982417700393 0 2069.0 0.7958982417700393 1
gene  1 31 35 0.7820994132186566 0 2070.0 0.7820994132186566 1
gene  1 32 35 -0.1956733877104565 0 2071.0 -0.1956733877104565 1
gene  1 36 35 -0.6018610360986593 1 2075.0 -0.6018610360986593 1
gene  1 38 35 -0.5527465120321545 1 2077.0 -0.5527465120321545 1
gene  1 39 35 -0.04736198338545692 1 2078.0 -0.04736198338545692 1
gene  1 40 35 0.6157361498638872 1 2079.0 0.6157361498638872 1
gene  1 43 35 0.8191620626881561 1 2082.0 0.8191620626881561 1
gene  1 44 35 0.8509046306310764 1 2083.0 0.8509046306310764 1
gene  1 47 35 0.4391759153620828 1 2086.0 0.4391759153620828 1
gene  1 48 35 -0.36585585562701517 1 2087.0 -0.36585585562701517 1
gene  1 51 35 -0.42069972793563815 1 2090.0 -0.42069972793563815 1
gene  1 54 35 -0.8088130149240629 1 2093.0 -0.8088130149240629 1
gene  1 56 35 0.5956691728957514 1 2095.0 0.5956691728957514 1
gene  1 60 35 0.8920363309689623 1 2099.0 0.8920363309689623 1
gene  1 1 36 -0.8713506869923751 0 2100.0 -0.8713506869923751 1
gene  1 2 36 -0.5640523193818846 0 2101.0 -0.5640523193818846 1
gene  1 3 36 0.05524459030617839 0 2102.0 0.05524459030617839 1
gene  1 6 36 0.4414139397005472 0 2105.0 0.4414139397005472 1
gene  1 7 36 -0.800349046291806 0 2106.0 -0.800349046291806 1
gene  1 8 36 0.92318646411851 0 2107.0 0.92318646411851 1
gene  1 11 36 0.6300129817639217 0 2110.0 0.6300129817639217 1
gene  1 12 36 0.03868732419129857 0 2111.0 0.03868732419129857 1
gene  1 13 36 -0.17102691551001548 0 2112.0 -0.17102691551001548 1
gene  1 14 36 -0.411078338813402 0 2113.0 -0.411078338813402 1
gene  1 17 36 0.14635389342437177 0 2116.0 0.14635389342437177 1
gene  1 21 36 -0.22043535001738146 0 2120.0 -0.22043535001738146 1
gene  1 24 36 0.8579601027936276 0 2123.0 0.8579601027936276 1
gene  1 28 36 -0.1039012531846866 0 2127.0 -0.1039012531846866 1
gene  1 30 36 0.7045538983888234 0 2129.0 0.7045538983888234 1
gene  1 31 36 -0.6222915989715991 0 2130.0 -0.6222915989715991 1
gene  1 33 36 -0.5288301416495124 0 2132.0 -0.5288301416495124 1
gene  1 34 36 -0.14219652520865864 0 2133.0 -0.14219652520865864 1
gene  1 35 36 0.34127760746632696 0 2134.0 0.34127760746632696 1
gene  1 37 36 -0.9012121895123232 1 2136.0 -0.9012121895123232 1
gene  1 39 36 -0.32077625438057056 1 2138.0 -0.32077625438057056 1
gene  1 40 36 0.4443477640977769 1 2139.0 0.4443477640977769 1
gene  1 42 36 0.6991459284726121 1 2141.0 0.6991459284726121 1
gene  1 44 36 -0.135031440104404 1 2143.0 -0.135031440104404 1
gene  1 54 36 0.7366219129776794 1 2153.0 0.7366219129776794 1
gene  1 59 36 -0.39257651465608784 1 2158.0 -0.39257651465608784 1
gene  1 60 36 -0.331461780130314 1 2159.0 -0.331461780130314 1
gene  1 1 37 0.4791709242160666 0 2160.0 0.4791709242160666 1
gene  1 2 37 -0.9257103244105727 0 2161.0 -0.9257103244105727 1
gene  1 4 37 -0.44995459788416636 0 2163.0 -0.44995459788416636 1
gene  1 6 37 0.05013859273926813 0 2165.0 0.05013859273926813 1
gene  1 11 37 0.7744696206167768 0 2170.0 0.7744696206167768 1
gene  1 12 37 -0.1338958481968806 0 2171.0 -0.1338958481968806 1
gene  1 14 37 -0.38163889096739473 0 2173.0 -0.38163889096739473 1
gene  1 15 37 0.6399105061528305 0 2174.0 0.6399105061528305 1
gene  1 16 37 -0.093395602789904 0 2175.0 -0.093395602789904 1
gene  1 17 37 0.1783922487614229 0 2176.0 0.1783922487614229 1
gene  1 18 37 -0.8769110199253292 0 2177.0 -0.8769110199253292 1
gene  1 20 37 0.07656885003443548 0 2179.0 0.07656885003443548 1
gene  1 21 37 -0.9444671840902892 0 2180.0 -0.9444671840902892 1
gene  1 26 37 -0.04133239049255588 0 2185.0 -0.04133239049255588 1
gene  1 27 37 -0.41373344557955155 0 2186.0 -0.41373344557955155 1
gene  1 29 37 -0.2446678648483358 0 2188.0 -0.2446678648483358 1
gene  1 30 37 -0.1984759228285624 0 2189.0 -0.1984759228285624 1
gene  1 34 37 -0.9456379877237389 0 2193.0 -0.9456379877237389 1
gene  1 38 37 0.5039121846126688 1 2197.0 0.5039121846126688 1
gene  1 40 37 -0.7421871053601549 1 2199.0 -0.7421871053601549 1
gene  1 42 37 0.5373150644976792 1 2201.0 0.5373150644976792 1
gene  1 43 37 0.04520656353909891 1 2202.0 0.04520656353909891 1
gene  1 44 37 -0.4205762091961827 1 2203.0 -0.4205762091961827 1
gene  1 45 37 -0.8792517131961164 1 2204.0 -0.8792517131961164 1
gene  1 46 37 0.013158752356296315 1 2205.0 0.013158752356296315 1
gene  1 48 37 0.20339534747584054 1 2207.0 0.20339534747584054 1
gene  1 54 37 0.001970514361022531 1 2213.0 0.001970514361022531 1
gene  1 55 37 0.3461044369824765 1 2214.0 0.3461044369824765 1
gene  1 57 37 -0.23516161021231793 1 2216.0 -0.23516161021231793 1
gene  1 59 37 -0.8086417344986455 1 2218.0 -0.8086417344986455 1
gene  1 3 38 0.11169625913008552 0 2222.0 0.11169625913008552 1
gene  1 5 38 0.7627881425690838 0 2224.0 0.7627881425690838 1
gene  1 7 38 -0.2202036772054585 0 2226.0 -0.2202036772054585 1
gene  1 10 38 0.11673110898688444 0 2229.0 0.11673110898688444 1
gene  1 12 38 0.4040542022141792 0 2231.0 0.4040542022141792 1
gene  1 13 38 0.9958658036259442 0 2232.0 0.9958658036259442 1
gene  1 14 38 -0.5536587143866485 0 2233.0 -0.5536587143866485 1
gene  1 15 38 0.8387179403777112 0 2234.0 0.8387179403777112 1
gene  1 24 38 0.9644341060817249 0 2243.0 0.9644341060817249 1
gene  1 25 38 0.13520340323031876 0 2244.0 0.13520340323031876 1
gene  1 26 38 -0.019145773545483715 0 2245.0 -0.019145773545483715 1
gene  1 27 38 -0.12937044088583471 0 2246.0 -0.12937044088583471 1
gene  1 31 38 0.9309967008562885 0 2250.0 0.9309967008562885 1
gene  1 32 38 -0.8833109625847915 0 2251.0 -0.8833109625847915 1
gene  1 36 38 -0.9227135574164073 0 2255.0 -0.9227135574164073 1
gene  1 40 38 0.1272505006655675 1 2259.0 0.1272505006655675 1
gene  1 41 38 -0.01320251998594689 1 2260.0 -0.01320251998594689 1
gene  1 44 38 0.6740130453234016 1 2263.0 0.6740130453234016 1
gene  1 45 38 -0.09597141515866887 1 2264.0 -0.09597141515866887 1
gene  1 47 38 0.1629951898964616 1 2266.0 0.1629951898964616 1
gene  1 57 38 0.6261951672075824 1 2276.0 0.6261951672075824 1
gene  1 59 38 0.5679256871918554 1 2278.0 0.5679256871918554 1
gene  1 60 38 -0.021069981667451887 1 2279.0 -0.021069981667451887 1
gene  1 1 39 0.6212533431803874 0 2280.0 0.6212533431803874 1
gene  1 6 39 -0.7351938479249001 0 2285.0 -0.7351938479249001 1
gene  1 7 39 0.6354423627882976 0 2286.0 0.6354423627882976 1
gene  1 9 39 0.5794876963595534 0 2288.0 0.5794876963595534 1
gene  1 10 39 0.690440686355207 0 2289.0 0.690440686355207 1
gene  1 13 39 0.5580590956784384 0 2292.0 0.5580590956784384 1
gene  1 16 39 -0.39419543273333957 0 2295.0 -0.39419543273333957 1
gene  1 20 39 0.08502795711304799 0 2299.0 0.08502795711304799 1
gene  1 22 39 0.7550855569242925 0 2301.0 0.7550855569242925 1
gene  1 24 39 -0.7984938181569484 0 2303.0 -0.7984938181569484 1
gene  1 25 39 -0.13118891053766696 0 2304.0 -0.13118891053766696 1
gene  1 26 39 0.8439904129217611 0 2305.0 0.8439904129217611 1
gene  1 31 39 -0.32742474137757704 0 2310.0 -0.32742474137757704 1
gene  1 33 39 -0.9286072754033274 0 2312.0 -0.9286072754033274 1
gene  1 35 39 0.5789872692510297 0 2314.0 0.5789872692510297 1
gene  1 36 39 -0.2058349602553092 0 2315.0 -0.2058349602553092 1
gene  1 38 39 0.08405294567701393 0 2317.0 0.08405294567701393 1
gene  1 40 39 -0.5932165149700989 1 2319.0 -0.5932165149700989 1
gene  1 41 39 0.6174821984624032 1 2320.0 0.6174821984624032 1
gene  1 48 39 0.8025543682934866 1 2327.0 0.8025543682934866 1
gene  1 53 39 -0.18531990381677 1 2332.0 -0.18531990381677 1
gene  1 54 39 0.11024221516122368 1 2333.0 0.11024221516122368 1
gene  1 55 39 0.3370708979632596 1 2334.0 0.3370708979632596 1
gene  1 57 39 -0.4172897936885622 1 2336.0 -0.4172897936885622 1
gene  1 58 39 0.20185062444252883 1 2337.0 0.20185062444252883 1
gene  1 59 39 0.5102292579434445 1 2338.0 0.5102292579434445 1
gene  1 1 40 0.27939874581590585 0 2340.0 0.27939874581590585 1
gene  1 2 40 -0.48267701436187616 0 2341.0 -0.48267701436187616 1
gene  1 5 40 0.8334758163027237 0 2344.0 0.8334758163027237 1
gene  1 11 40 -0.5907138529177702 0 2350.0 -0.5907138529177702 1
gene  1 12 40 -0.6312562512687776 0 2351.0 -0.6312562512687776 1
gene  1 13 40 0.7635957150888703 0 2352.0 0.7635957150888703 1
gene  1 14 40 -0.9487883003729898 0 2353.0 -0.9487883003729898 1
gene  1 15 40 -0.9875098704101014 0 2354.0 -0.9875098704101014 1
gene  1 16 40 0.52886097114036 0 2355.0 0.52886097114036 1
gene  1 17 40 -0.4871321743103991 0 2356.0 -0.4871321743103991 1
gene  1 18 40 0.6137342899297769 0 2357.0 0.6137342899297769 1
gene  1 21 40 0.717862034740006 0 2360.0 0.717862034740006 1
gene  1 24 40 0.04151823206950001 0 2363.0 0.04151823206950001 1
gene  1 28 40 -0.22684432166532478 0 2367.0 -0.22684432166532478 1
gene  1 30 40 -0.8875722107293852 0 2369.0 -0.8875722107293852 1
gene  1 41 40 -0.04172854761431439 1 2380.0 -0.04172854761431439 1
gene  1 44 40 -0.028370895995187717 1 2383.0 -0.028370895995187717 1
gene  1 46 40 -0.9305801599691376 1 2385.0 -0.9305801599691376 1
gene  1 47 40 0.9345099343276259 1 2386.0 0.9345099343276259 1
gene  1 51 40 -0.16721631940174997 1 2390.0 -0.16721631940174997 1
gene  1 52 40 -0.6933139921393534 1 2391.0 -0.6933139921393534 1
gene  1 53 40 0.5886444009563266 1 2392.0 0.5886444009563266 1
gene  1 54 40 -0.5891526813307219 1 2393.0 -0.5891526813307219 1
gene  1 55 40 0.13492788194466812 1 2394.0 0.13492788194466812 1
gene  1 56 40 0.8035143640617369 1 2395.0 0.8035143640617369 1
gene  1 57 40 -0.198275614314412 1 2396.0 -0.198275614314412 1
gene  1 4 41 0.6141029798340052 0 2403.0 0.6141029798340052 1
gene  1 8 41 0.013965396240650053 0 2407.0 0.013965396240650053 1
gene  1 14 41 0.5382846818215303 0 2413.0 0.5382846818215303 1
gene  1 15 41 -0.8175127066356298 0 2414.0 -0.8175127066356298 1
gene  1 16 41 -0.7704927426698606 0 2415.0 -0.7704927426698606 1
gene  1 17 41 -0.19185488567572884 0 2416.0 -0.19185488567572884 1
gene  1 20 41 -0.4883558090017586 0 2419.0 -0.4883558090017586 1
gene  1 21 41 -0.832162048433296 0 2420.0 -0.832162048433296 1
gene  1 22 41 0.9468563304662229 0 2421.0 0.9468563304662229 1
gene  1 23 41 0.5937851182380615 0 2422.0 0.5937851182380615 1
gene  1 24 41 0.4993953579667527 0 2423.0 0.4993953579667527 1
gene  1 25 41 0.022025159829895013 0 2424.0 0.022025159829895013 1
gene  1 26 41 0.3896057694042662 0 2425.0 0.3896057694042662 1
gene  1 27 41 0.02458591595539794 0 2426.0 0.02458591595539794 1
gene  1 28 41 -0.8577645588674455 0 2427.0 -0.8577645588674455 1
gene  1 31 41 0.036095890678874865 0 2430.0 0.036095890678874865 1
gene  1 32 41 -0.40592380244059134 0 2431.0 -0.40592380244059134 1
gene  1 33 41 0.8754936730466897 0 2432.0 0.8754936730466897 1
gene  1 34 41 -0.02724062816521905 0 2433.0 -0.02724062816521905 1
gene  1 37 41 0.178738757308806 0 2436.0 0.178738757308806 1
gene  1 41 41 -0.15291500376855144 1 2440.0 -0.15291500376855144 1
gene  1 42 41 0.6096554757621835 1 2441.0 0.6096554757621835 1
gene  1 45 41 -0.4869739701360921 1 2444.0 -0.4869739701360921 1
gene  1 48 41 0.9433977991919004 1 2447.0 0.9433977991919004 1
gene  1 51 41 -0.7471612965045271 1 2450.0 -0.7471612965045271 1
gene  1 52 41 -0.5012552396957216 1 2451.0 -0.5012552396957216 1
gene  1 54 41 -0.9427574009706771 1 2453.0 -0.9427574009706771 1
gene  1 58 41 -0.7607422816297268 1 2457.0 -0.7607422816297268 1
gene  1 2 42 -0.7845324603754077 0 2461.0 -0.7845324603754077 1
gene  1 4 42 -0.5690258195023717 0 2463.0 -0.5690258195023717 1
gene  1 7 42 -0.5221320507041468 0 2466.0 -0.5221320507041468 1
gene  1 9 42 0.825722779057803 0 2468.0 0.825722779057803 1
gene  1 12 42 -0.09693897983506641 0 2471.0 -0.09693897983506641 1
gene  1 16 42 0.8575785034236654 0 2475.0 0.8575785034236654 1
gene  1 17 42 -0.9709052670390239 0 2476.0 -0.9709052670390239 1
gene  1 20 42 0.5604132754888207 0 2479.0 0.5604132754888207 1
gene  1 24 42 0.3154943110074182 0 2483.0 0.3154943110074182 1
gene  1 25 42 -0.07057363785890608 0 2484.0 -0.07057363785890608 1
gene  1 26 42 -0.4755593389184332 0 2485.0 -0.4755593389184332 1
gene  1 31 42 -0.4790434358173288 0 2490.0 -0.4790434358173288 1
gene  1 35 42 0.6099373393873999 0 2494.0 0.6099373393873999 1
gene  1 37 42 -0.9915739699775244 0 2496.0 -0.9915739699775244 1
gene  1 41 42 -0.21485191830604133 0 2500.0 -0.21485191830604133 1
gene  1 42 42 0.12054737115144148 1 2501.0 0.12054737115144148 1
gene  1 43 42 0.6511725757296773 1 2502.0 0.6511725757296773 1
gene  1 44 42 0.8892893890976371 1 2503.0 0.8892893890976371 1
gene  1 46 42 -0.6509479363227583 1 2505.0 -0.6509479363227583 1
gene  1 47 42 -0.3027769329734232 1 2506.0 -0.3027769329734232 1
gene  1 52 42 -0.1993065936656323 1 2511.0 -0.1993065936656323 1
gene  1 53 42 -0.9113461842225922 1 2512.0 -0.9113461842225922 1
gene  1 54 42 0.6343505864685083 1 2513.0 0.6343505864685083 1
gene  1 56 42 0.8005024110375621 1 2515.0 0.8005024110375621 1
gene  1 57 42 -0.10934025914108181 1 2516.0 -0.10934025914108181 1
gene  1 59 42 -0.45867436307845477 1 2518.0 -0.45867436307845477 1
gene  1 2 43 -0.24820555241277387 0 2521.0 -0.24820555241277387 1
gene  1 4 43 -0.19752569638808445 0 2523.0 -0.19752569638808445 1
gene  1 5 43 0.4662199453496291 0 2524.0 0.4662199453496291 1
gene  1 6 43 0.8618510238641607 0 2525.0 0.8618510238641607 1
gene  1 8 43 0.6349044569606977 0 2527.0 0.6349044569606977 1
gene  1 9 43 0.2707333027620804 0 2528.0 0.2707333027620804 1
gene  1 10 43 0.5126808143648208 0 2529.0 0.5126808143648208 1
gene  1 11 43 0.04064614953119822 0 2530.0 0.04064614953119822 1
gene  1 14 43 -0.3053879250291708 0 2533.0 -0.3053879250291708 1
gene  1 15 43 0.04534659697334609 0 2534.0 0.04534659697334609 1
gene  1 16 43 -0.6616757993294903 0 2535.0 -0.6616757993294903 1
gene  1 25 43 -0.38299357590578587 0 2544.0 -0.38299357590578587 1
gene  1 28 43 -0.7173649544335632 0 2547.0 -0.7173649544335632 1
gene  1 31 43 0.05451233755094058 0 2550.0 0.05451233755094058 1
gene  1 32 43 -0.07872662145832622 0 2551.0 -0.07872662145832622 1
gene  1 33 43 0.6021338464406689 0 2552.0 0.6021338464406689 1
gene  1 35 43 -0.6773785542337621 0 2554.0 -0.6773785542337621 1
gene  1 37 43 -0.13860427848346024 0 2556.0 -0.13860427848346024 1
gene  1 40 43 -0.7003933253333104 0 2559.0 -0.7003933253333104 1
gene  1 43 43 -0.11016962341957026 1 2562.0 -0.11016962341957026 1
gene  1 46 43 -0.7893791117493733 1 2565.0 -0.7893791117493733 1
gene  1 47 43 0.92548733273358 1 2566.0 0.92548733273358 1
gene  1 48 43 0.6569931591510363 1 2567.0 0.6569931591510363 1
gene  1 52 43 -0.04423650754521871 1 2571.0 -0.04423650754521871 1
gene  1 54 43 0.06716851782339418 1 2573.0 0.06716851782339418 1
gene  1 56 43 0.07501102903332646 1 2575.0 0.07501102903332646 1
gene  1 57 43 -0.027600501017900184 1 2576.0 -0.027600501017900184 1
gene  1 58 43 0.8189435943937835 1 2577.0 0.8189435943937835 1
gene  1 60 43 0.4962634676962272 1 2579.0 0.4962634676962272 1
gene  1 2 44 -0.5148866416907993 0 2581.0 -0.5148866416907993 1
gene  1 3 44 -0.8650888277456908 0 2582.0 -0.8650888277456908 1
gene  1 4 44 0.35150485806863674 0 2583.0 0.35150485806863674 1
gene  1 6 44 -0.9009899332196353 0 2585.0 -0.9009899332196353 1
gene  1 8 44 0.5004972626211979 0 2587.0 0.5004972626211979 1
gene  1 9 44 -0.7873000695639275 0 2588.0 -0.7873000695639275 1
gene  1 10 44 -0.7536016884301467 0 2589.0 -0.7536016884301467 1
gene  1 13 44 0.4140762152732365 0 2592.0 0.4140762152732365 1
gene  1 14 44 0.23955188694770663 0 2593.0 0.23955188694770663 1
gene  1 16 44 0.16340596598048363 0 2595.0 0.16340596598048363 1
gene  1 20 44 0.06679657799481609 0 2599.0 0.06679657799481609 1
gene  1 21 44 0.6271623924931361 0 2600.0 0.6271623924931361 1
gene  1 23 44 -0.2551347704090161 0 2602.0 -0.2551347704090161 1
gene  1 24 44 0.8899303429860178 0 2603.0 0.8899303429860178 1
gene  1 27 44 -0.9363676598679782 0 2606.0 -0.9363676598679782 1
gene  1 28 44 -0.2661627996694973 0 2607.0 -0.2661627996694973 1
gene  1 32 44 0.24909910217393277 0 2611.0 0.24909910217393277 1
gene  1 33 44 0.03938364902783442 0 2612.0 0.03938364902783442 1
gene  1 36 44 0.5385287144587098 0 2615.0 0.5385287144587098 1
gene  1 37 44 -0.6402625255199215 0 2616.0 -0.6402625255199215 1
gene  1 38 44 0.016702086597598285 0 2617.0 0.016702086597598285 1
gene  1 40 44 -0.40533583032095355 0 2619.0 -0.40533583032095355 1
gene  1 41 44 -0.556590168600175 0 2620.0 -0.556590168600175 1
gene  1 44 44 0.024701649458036476 1 2623.0 0.024701649458036476 1
gene  1 45 44 -0.5639080542875483 1 2624.0 -0.5639080542875483 1
gene  1 47 44 0.016120998649726617 1 2626.0 0.016120998649726617 1
gene  1 48 44 0.02521087176441615 1 2627.0 0.02521087176441615 1
gene  1 52 44 0.9572377074639814 1 2631.0 0.9572377074639814 1
gene  1 55 44 -0.5908495050314966 1 2634.0 -0.5908495050314966 1
gene  1 56 44 -0.9712463791816132 1 2635.0 -0.9712463791816132 1
gene  1 57 44 0.9581137698656197 1 2636.0 0.9581137698656197 1
gene  1 58 44 -0.5104320501163634 1 2637.0 -0.5104320501163634 1
gene  1 59 44 0.006129461598689434 1 2638.0 0.006129461598689434 1
gene  1 3 45 -0.48018019595008576 0 2642.0 -0.48018019595008576 1
gene  1 4 45 -0.30714199200008035 0 2643.0 -0.30714199200008035 1
gene  1 6 45 -0.5977763883130846 0 2645.0 -0.5977763883130846 1
gene  1 7 45 -0.559355423102416 0 2646.0 -0.559355423102416 1
gene  1 10 45 0.7144515817706913 0 2649.0 0.7144515817706913 1
gene  1 11 45 -0.08301136533662667 0 2650.0 -0.08301136533662667 1
gene  1 12 45 0.1995467366145084 0 2651.0 0.1995467366145084 1
gene  1 13 45 0.942475616895541 0 2652.0 0.942475616895541 1
gene  1 14 45 -0.9896347922097125 0 2653.0 -0.9896347922097125 1
gene  1 16 45 -0.8682712319531712 0 2655.0 -0.8682712319531712 1
gene  1 17 45 -0.4104212540002309 0 2656.0 -0.4104212540002309 1
gene  1 19 45 0.34213513809920587 0 2658.0 0.34213513809920587 1
gene  1 23 45 0.9694194465804664 0 2662.0 0.9694194465804664 1
gene  1 28 45 -0.8517835483474531 0 2667.0 -0.8517835483474531 1
gene  1 29 45 0.030744783514852003 0 2668.0 0.030744783514852003 1
gene  1 30 45 0.619643121388982 0 2669.0 0.619643121388982 1
gene  1 33 45 -0.12241159967385715 0 2672.0 -0.12241159967385715 1
gene  1 34 45 0.0040224544400985305 0 2673.0 0.0040224544400985305 1
gene  1 35 45 0.9262258274257507 0 2674.0 0.9262258274257507 1
gene  1 39 45 -0.4631155743013342 0 2678.0 -0.4631155743013342 1
gene  1 40 45 0.518547137819664 0 2679.0 0.518547137819664 1
gene  1 41 45 0.49723714524466417 0 2680.0 0.49723714524466417 1
gene  1 44 45 0.688869472178015 0 2683.0 0.688869472178015 1
gene  1 48 45 -0.29725415569414493 1 2687.0 -0.29725415569414493 1
gene  1 52 45 0.548773414529563 1 2691.0 0.548773414529563 1
gene  1 54 45 -0.8673185604516196 1 2693.0 -0.8673185604516196 1
gene  1 55 45 0.23149019298673967 1 2694.0 0.23149019298673967 1
gene  1 60 45 0.5010751958059096 1 2699.0 0.5010751958059096 1
gene  1 1 46 0.2007945490209434 0 2700.0 0.2007945490209434 1
gene  1 2 46 0.37473352119046655 0 2701.0 0.37473352119046655 1
gene  1 3 46 -0.43369749071813984 0 2702.0 -0.43369749071813984 1
gene  1 5 46 -0.015295271309954455 0 2704.0 -0.015295271309954455 1
gene  1 6 46 0.3090612631511068 0 2705.0 0.3090612631511068 1
gene  1 16 46 -0.09327299835776541 0 2715.0 -0.09327299835776541 1
gene  1 17 46 -0.9583166772320758 0 2716.0 -0.9583166772320758 1
gene  1 22 46 0.2770596239042974 0 2721.0 0.2770596239042974 1
gene  1 23 46 0.6045009234861721 0 2722.0 0.6045009234861721 1
gene  1 24 46 0.03444264966424053 0 2723.0 0.03444264966424053 1
gene  1 25 46 -0.049819436551635427 0 2724.0 -0.049819436551635427 1
gene  1 27 46 0.06976131940277905 0 2726.0 0.06976131940277905 1
gene  1 31 46 -0.3020171393568213 0 2730.0 -0.3020171393568213 1
gene  1 32 46 0.23089549706888263 0 2731.0 0.23089549706888263 1
gene  1 34 46 -0.8104719096441849 0 2733.0 -0.8104719096441849 1
gene  1 35 46 -0.21523314992627385 0 2734.0 -0.21523314992627385 1
gene  1 36 46 0.8622225925890596 0 2735.0 0.8622225925890596 1
gene  1 37 46 -0.23982311538497642 0 2736.0 -0.23982311538497642 1
gene  1 38 46 -0.10069889170717772 0 2737.0 -0.10069889170717772 1
gene  1 41 46 -0.031233025134826287 0 2740.0 -0.031233025134826287 1
gene  1 42 46 -0.8463345706104924 0 2741.0 -0.8463345706104924 1
gene  1 43 46 0.2168508473293011 0 2742.0 0.2168508473293011 1
gene  1 45 46 0.6552635917026306 0 2744.0 0.6552635917026306 1
gene  1 47 46 0.6152695117711061 1 2746.0 0.6152695117711061 1
gene  1 51 46 -0.19862736239854759 1 2750.0 -0.19862736239854759 1
gene  1 55 46 -0.33162553139825346 1 2754.0 -0.33162553139825346 1
gene  1 57 46 -0.09790665627462813 1 2756.0 -0.09790665627462813 1
gene  1 58 46 0.41858832212192 1 2757.0 0.41858832212192 1
gene  1 1 47 -0.5810886580117779 0 2760.0 -0.5810886580117779 1
gene  1 3 47 -0.012072043059283874 0 2762.0 -0.012072043059283874 1
gene  1 4 47 -0.18613666153703912 0 2763.0 -0.18613666153703912 1
gene  1 5 47 -0.8760775077737603 0 2764.0 -0.8760775077737603 1
gene  1 7 47 -0.2607958337550498 0 2766.0 -0.2607958337550498 1
gene  1 8 47 -0.5156099497167154 0 2767.0 -0.5156099497167154 1
gene  1 10 47 0.9050060551870565 0 2769.0 0.9050060551870565 1
gene  1 11 47 0.1078151901765281 0 2770.0 0.1078151901765281 1
gene  1 12 47 -0.5777560479388748 0 2771.0 -0.5777560479388748 1
gene  1 13 47 -0.9615928298868905 0 2772.0 -0.9615928298868905 1
gene  1 14 47 0.11217208347462251 0 2773.0 0.11217208347462251 1
gene  1 16 47 0.16368609489678404 0 2775.0 0.16368609489678404 1
gene  1 18 47 0.4669230525945145 0 2777.0 0.4669230525945145 1
gene  1 26 47 -0.5129357726767031 0 2785.0 -0.5129357726767031 1
gene  1 28 47 -0.8328619335919949 0 2787.0 -0.8328619335919949 1
gene  1 29 47 0.5216008256088945 0 2788.0 0.5216008256088945 1
gene  1 30 47 0.7733872304605496 0 2789.0 0.7733872304605496 1
gene  1 32 47 -0.5682007582859672 0 2791.0 -0.5682007582859672 1
gene  1 33 47 0.9163777552921868 0 2792.0 0.9163777552921868 1
gene  1 34 47 0.951446639773981 0 2793.0 0.951446639773981 1
gene  1 38 47 -0.250823172086555 0 2797.0 -0.250823172086555 1
gene  1 40 47 0.1479631594712685 0 2799.0 0.1479631594712685 1
gene  1 41 47 -0.1682249825819088 0 2800.0 -0.1682249825819088 1
gene  1 46 47 -0.3237952811621041 0 2805.0 -0.3237952811621041 1
gene  1 51 47 0.4268510841507356 1 2810.0 0.4268510841507356 1
gene  1 52 47 -0.9423540260761821 1 2811.0 -0.9423540260761821 1
gene  1 53 47 -0.9325358291683543 1 2812.0 -0.9325358291683543 1
gene  1 56 47 0.32879599121844727 1 2815.0 0.32879599121844727 1
gene  1 57 47 0.2713263407281633 1 2816.0 0.2713263407281633 1
gene  1 59 47 -0.4960357274625431 1 2818.0 -0.4960357274625431 1
gene  1 1 48 0.11210057272841495 0 2820.0 0.11210057272841495 1
gene  1 2 48 0.4635795407604665 0 2821.0 0.4635795407604665 1
gene  1 4 48 0.9524001754694652 0 2823.0 0.9524001754694652 1
gene  1 5 48 -0.35534510570301175 0 2824.0 -0.35534510570301175 1
gene  1 6 48 -0.09619540148025901 0 2825.0 -0.09619540148025901 1
gene  1 9 48 0.002058057228383979 0 2828.0 0.002058057228383979 1
gene  1 12 48 0.01334635870737988 0 2831.0 0.01334635870737988 1
gene  1 13 48 -0.4690603623133839 0 2832.0 -0.4690603623133839 1
gene  1 14 48 -0.029055665174181178 0 2833.0 -0.029055665174181178 1
gene  1 15 48 -0.44794457758652884 0 2834.0 -0.44794457758652884 1
gene  1 18 48 0.7867257883604813 0 2837.0 0.7867257883604813 1
gene  1 19 48 -0.09535609516587074 0 2838.0 -0.09535609516587074 1
gene  1 20 48 -0.4696702229960435 0 2839.0 -0.4696702229960435 1
gene  1 22 48 -0.2668930616541824 0 2841.0 -0.2668930616541824 1
gene  1 23 48 -0.34966235049037125 0 2842.0 -0.34966235049037125 1
gene  1 26 48 0.4886743060223429 0 2845.0 0.4886743060223429 1
gene  1 29 48 0.6894505224999131 0 2848.0 0.6894505224999131 1
gene  1 30 48 0.19234163135011595 0 2849.0 0.19234163135011595 1
gene  1 31 48 -0.2682264102131625 0 2850.0 -0.2682264102131625 1
gene  1 32 48 -0.002401480081677795 0 2851.0 -0.002401480081677795 1
gene  1 33 48 0.16808940231579342 0 2852.0 0.16808940231579342 1
gene  1 37 48 0.7194478060987789 0 2856.0 0.7194478060987789 1
gene  1 39 48 0.39825163843002165 0 2858.0 0.39825163843002165 1
gene  1 40 48 -0.37024879428852164 0 2859.0 -0.37024879428852164 1
gene  1 41 48 -0.5651062816887172 0 2860.0 -0.5651062816887172 1
gene  1 43 48 0.47547775844143836 0 2862.0 0.47547775844143836 1
gene  1 44 48 0.8005291316547676 0 2863.0 0.8005291316547676 1
gene  1 48 48 0.7325813065172019 1 2867.0 0.7325813065172019 1
gene  1 52 48 0.9459620486289886 1 2871.0 0.9459620486289886 1
gene  1 53 48 0.06804843529659477 1 2872.0 0.06804843529659477 1
gene  1 54 48 -0.9420803145754725 1 2873.0 -0.9420803145754725 1
gene  1 55 48 -0.4171757980966045 1 2874.0 -0.4171757980966045 1
gene  1 57 48 0.7896329042127288 1 2876.0 0.7896329042127288 1
gene  1 1 51 -0.009485092723589467 0 3000.0 -0.009485092723589467 1
gene  1 3 51 -1.0387594218724083 0 3002.0 -1.0387594218724083 1
gene  1 4 51 0.0604094617087241 0 3003.0 0.0604094617087241 1
gene  1 6 51 0.6639786562324951 0 3005.0 0.6639786562324951 1
gene  1 8 51 -0.18724682635121342 0 3007.0 -0.18724682635121342 1
gene  1 9 51 0.8008378665775219 0 3008.0 0.8008378665775219 1
gene  1 14 51 -0.18300855847893127 0 3013.0 -0.18300855847893127 1
gene  1 15 51 -0.28744648650814475 0 3014.0 -0.28744648650814475 1
gene  1 17 51 0.5206087737495974 0 3016.0 0.5206087737495974 1
gene  1 18 51 0.4404281375799911 0 3017.0 0.4404281375799911 1
gene  1 19 51 -0.729760764874157 0 3018.0 -0.729760764874157 1
gene  1 20 51 0.9049119418893199 0 3019.0 0.9049119418893199 1
gene  1 21 51 -0.3571429516397058 0 3020.0 -0.3571429516397058 1
gene  1 23 51 -0.014285537600597123 0 3022.0 -0.014285537600597123 1
gene  1 24 51 -0.8063936536385374 0 3023.0 -0.8063936536385374 1
gene  1 30 51 0.4246526879368121 0 3029.0 0.4246526879368121 1
gene  1 32 51 0.33588951330844674 0 3031.0 0.33588951330844674 1
gene  1 33 51 -0.21123636945935717 0 3032.0 -0.21123636945935717 1
gene  1 35 51 -0.7254349892754558 0 3034.0 -0.7254349892754558 1
gene  1 36 51 0.6886004453481412 0 3035.0 0.6886004453481412 1
gene  1 37 51 3.1936819823345075E-4 0 3036.0 3.1936819823345075E-4 1
gene  1 39 51 -0.4837142836663727 0 3038.0 -0.4837142836663727 1
gene  1 41 51 0.45966094648145767 0 3040.0 0.45966094648145767 1
gene  1 42 51 0.004624685269443263 0 3041.0 0.004624685269443263 1
gene  1 43 51 -0.0051884838361469995 0 3042.0 -0.0051884838361469995 1
gene  1 44 51 -0.2740241546131446 0 3043.0 -0.2740241546131446 1
gene  1 45 51 0.5837338290490562 0 3044.0 0.5837338290490562 1
gene  1 47 51 0.04309634252753599 0 3046.0 0.04309634252753599 1
gene  1 52 51 -0.31808148111030254 1 3051.0 -0.31808148111030254 1
gene  1 54 51 0.2193958212603631 1 3053.0 0.2193958212603631 1
gene  1 55 51 -0.7798647345149888 1 3054.0 -0.7798647345149888 1
gene  1 58 51 -0.9751995022061496 1 3057.0 -0.9751995022061496 1
gene  1 59 51 -0.6388423966445417 1 3058.0 -0.6388423966445417 1
gene  1 1 52 -0.8028665786086943 0 3060.0 -0.8028665786086943 1
gene  1 2 52 0.03259580617790159 0 3061.0 0.03259580617790159 1
gene  1 3 52 -0.8556965591279729 0 3062.0 -0.8556965591279729 1
gene  1 4 52 0.11916145302487474 0 3063.0 0.11916145302487474 1
gene  1 5 52 -0.521407401815926 0 3064.0 -0.521407401815926 1
gene  1 6 52 -0.018828565326460593 0 3065.0 -0.018828565326460593 1
gene  1 7 52 0.958191071630193 0 3066.0 0.958191071630193 1
gene  1 8 52 0.6878400730125437 0 3067.0 0.6878400730125437 1
gene  1 10 52 0.6014041193730884 0 3069.0 0.6014041193730884 1
gene  1 11 52 0.9480786996082569 0 3070.0 0.9480786996082569 1
gene  1 13 52 -0.6684360758174922 0 3072.0 -0.6684360758174922 1
gene  1 15 52 0.2351490293165611 0 3074.0 0.2351490293165611 1
gene  1 19 52 -0.5734432869608963 0 3078.0 -0.5734432869608963 1
gene  1 20 52 -0.9548085969945195 0 3079.0 -0.9548085969945195 1
gene  1 21 52 0.11825506871406563 0 3080.0 0.11825506871406563 1
gene  1 23 52 0.034347661556483014 0 3082.0 0.034347661556483014 1
gene  1 25 52 -0.03755550580285628 0 3084.0 -0.03755550580285628 1
gene  1 26 52 -0.5744146962719432 0 3085.0 -0.5744146962719432 1
gene  1 27 52 0.11073851883318847 0 3086.0 0.11073851883318847 1
gene  1 30 52 0.16562529709330315 0 3089.0 0.16562529709330315 1
gene  1 32 52 -0.9597310625060551 0 3091.0 -0.9597310625060551 1
gene  1 35 52 0.2093150299996005 0 3094.0 0.2093150299996005 1
gene  1 36 52 -0.19805608223296178 0 3095.0 -0.19805608223296178 1
gene  1 37 52 0.7005079641472054 0 3096.0 0.7005079641472054 1
gene  1 38 52 0.5215015673794304 0 3097.0 0.5215015673794304 1
gene  1 39 52 0.9329987035341849 0 3098.0 0.9329987035341849 1
gene  1 41 52 -0.1633509615588642 0 3100.0 -0.1633509615588642 1
gene  1 44 52 -0.9039198635230625 0 3103.0 -0.9039198635230625 1
gene  1 47 52 0.3993498423690176 0 3106.0 0.3993498423690176 1
gene  1 55 52 0.0522741388926979 1 3114.0 0.0522741388926979 1
gene  1 58 52 -0.37622077680638033 1 3117.0 -0.37622077680638033 1
gene  1 59 52 -0.887993525108233 1 3118.0 -0.887993525108233 1
gene  1 60 52 -0.3381894001833312 1 3119.0 -0.3381894001833312 1
gene  1 1 53 0.2494430517270963 0 3120.0 0.2494430517270963 1
gene  1 2 53 0.2234895891678735 0 3121.0 0.2234895891678735 1
gene  1 3 53 -0.03136217094736983 0 3122.0 -0.03136217094736983 1
gene  1 4 53 0.7899387180280297 0 3123.0 0.7899387180280297 1
gene  1 10 53 -0.249143441439045 0 3129.0 -0.249143441439045 1
gene  1 14 53 0.619818471706477 0 3133.0 0.619818471706477 0
gene  1 15 53 0.39732925352677867 0 3134.0 0.39732925352677867 1
gene  1 21 53 0.6431533362392667 0 3140.0 0.6431533362392667 1
gene  1 26 53 0.10085638163623714 0 3145.0 0.10085638163623714 1
gene  1 29 53 0.4393184487981454 0 3148.0 0.4393184487981454 1
gene  1 30 53 0.9452551435681511 0 3149.0 0.9452551435681511 1
gene  1 31 53 -0.7295175757122895 0 3150.0 -0.7295175757122895 1
gene  1 32 53 -0.03743683130051834 0 3151.0 -0.03743683130051834 1
gene  1 34 53 -0.02128810553880739 0 3153.0 -0.02128810553880739 1
gene  1 35 53 0.3940678945132783 0 3154.0 0.3940678945132783 1
gene  1 38 53 -0.04164826376796388 0 3157.0 -0.04164826376796388 1
gene  1 40 53 -0.3255250471197072 0 3159.0 -0.3255250471197072 1
gene  1 42 53 0.8203447341262883 0 3161.0 0.8203447341262883 1
gene  1 45 53 -0.1286710738847161 0 3164.0 -0.1286710738847161 1
gene  1 46 53 -0.8704493434783658 0 3165.0 -0.8704493434783658 1
gene  1 48 53 -0.2884800656667828 0 3167.0 -0.2884800656667828 1
gene  1 51 53 -0.5419658530503502 0 3170.0 -0.5419658530503502 1
gene  1 52 53 0.47718690699712624 0 3171.0 0.47718690699712624 1
gene  1 53 53 0.6401635900598536 1 3172.0 0.6401635900598536 1
gene  1 54 53 -0.017402147916360088 1 3173.0 -0.017402147916360088 1
gene  1 55 53 0.015976456774171227 1 3174.0 0.015976456774171227 1
gene  1 56 53 0.009878112644272139 1 3175.0 0.009878112644272139 1
gene  1 58 53 0.7671741142735726 1 3177.0 0.7671741142735726 1
gene  1 60 53 -0.04106347481763982 1 3179.0 -0.04106347481763982 1
gene  1 2 54 0.27900965318203574 0 3181.0 0.27900965318203574 1
gene  1 4 54 -0.2800498666514196 0 3183.0 -0.2800498666514196 1
gene  1 5 54 -0.0021286282184133335 0 3184.0 -0.0021286282184133335 1
gene  1 7 54 -0.7591402482414904 0 3186.0 -0.7591402482414904 1
gene  1 9 54 0.027485855431684896 0 3188.0 0.027485855431684896 1
gene  1 10 54 -0.4825790455710245 0 3189.0 -0.4825790455710245 1
gene  1 11 54 -0.02103514667548708 0 3190.0 -0.02103514667548708 1
gene  1 14 54 0.11335366331714275 0 3193.0 0.11335366331714275 1
gene  1 15 54 -0.22416213992124223 0 3194.0 -0.22416213992124223 1
gene  1 17 54 -0.014326965017097657 0 3196.0 -0.014326965017097657 1
gene  1 18 54 -0.1424197293866225 0 3197.0 -0.1424197293866225 1
gene  1 19 54 0.00824459819749588 0 3198.0 0.00824459819749588 1
gene  1 21 54 0.554859752698131 0 3200.0 0.554859752698131 1
gene  1 22 54 -0.009388482722697655 0 3201.0 -0.009388482722697655 1
gene  1 26 54 0.26788656383260545 0 3205.0 0.26788656383260545 1
gene  1 28 54 -0.03267404402708235 0 3207.0 -0.03267404402708235 1
gene  1 29 54 -0.02139642646647648 0 3208.0 -0.02139642646647648 1
gene  1 30 54 -0.9223891502168945 0 3209.0 -0.9223891502168945 1
gene  1 31 54 0.027252276378828443 0 3210.0 0.027252276378828443 1
gene  1 32 54 -0.9821196818369414 0 3211.0 -0.9821196818369414 1
gene  1 33 54 0.3926811788862926 0 3212.0 0.3926811788862926 1
gene  1 38 54 -0.8605660348955254 0 3217.0 -0.8605660348955254 1
gene  1 40 54 0.014833942091728093 0 3219.0 0.014833942091728093 1
gene  1 41 54 -0.028673661355053243 0 3220.0 -0.028673661355053243 1
gene  1 43 54 0.1124686479378472 0 3222.0 0.1124686479378472 1
gene  1 44 54 0.5283539684052357 0 3223.0 0.5283539684052357 1
gene  1 45 54 0.7072464410296548 0 3224.0 0.7072464410296548 1
gene  1 48 54 0.007498036765599381 0 3227.0 0.007498036765599381 1
gene  1 54 54 0.3948234818671466 1 3233.0 0.3948234818671466 1
gene  1 55 54 -0.42922466721073643 1 3234.0 -0.42922466721073643 1
gene  1 58 54 0.9249872182462656 1 3237.0 0.9249872182462656 1
gene  1 60 54 -0.04328058622117495 1 3239.0 -0.04328058622117495 1
gene  1 2 55 -0.1743702763997717 0 3241.0 -0.1743702763997717 1
gene  1 4 55 0.18859948950261696 0 3243.0 0.18859948950261696 1
gene  1 6 55 0.34654138253209765 0 3245.0 0.34654138253209765 1
gene  1 9 55 -0.42370809536176857 0 3248.0 -0.42370809536176857 1
gene  1 10 55 -0.04129667320730317 0 3249.0 -0.04129667320730317 1
gene  1 12 55 0.5733401223930967 0 3251.0 0.5733401223930967 1
gene  1 13 55 0.44835764998176986 0 3252.0 0.44835764998176986 1
gene  1 14 55 -0.036941567351772245 0 3253.0 -0.036941567351772245 1
gene  1 15 55 0.008310280147493573 0 3254.0 0.008310280147493573 1
gene  1 16 55 -0.08334389556516619 0 3255.0 -0.08334389556516619 1
gene  1 24 55 0.6459931350342158 0 3263.0 0.6459931350342158 1
gene  1 25 55 -0.15313355799109762 0 3264.0 -0.15313355799109762 1
gene  1 26 55 0.03240767276940948 0 3265.0 0.03240767276940948 1
gene  1 28 55 -0.07199588430932448 0 3267.0 -0.07199588430932448 1
gene  1 29 55 -0.9591314456181196 0 3268.0 -0.9591314456181196 1
gene  1 31 55 0.8847874807662194 0 3270.0 0.8847874807662194 1
gene  1 32 55 0.0216735580933579 0 3271.0 0.0216735580933579 1
gene  1 34 55 -0.998120404520165 0 3273.0 -0.998120404520165 1
gene  1 37 55 0.7812055716730959 0 3276.0 0.7812055716730959 1
gene  1 38 55 0.205940661311581 0 3277.0 0.205940661311581 1
gene  1 41 55 -0.6390712017617587 0 3280.0 -0.6390712017617587 1
gene  1 42 55 0.27593536755906745 0 3281.0 0.27593536755906745 1
gene  1 43 55 0.5746064116686876 0 3282.0 0.5746064116686876 1
gene  1 45 55 -0.5951756081115275 0 3284.0 -0.5951756081115275 1
gene  1 46 55 0.30048816122160793 0 3285.0 0.30048816122160793 1
gene  1 47 55 0.8574391372980792 0 3286.0 0.8574391372980792 1
gene  1 52 55 0.5758434237926993 0 3291.0 0.5758434237926993 1
gene  1 55 55 -0.8025154062512855 1 3294.0 -0.8025154062512855 1
gene  1 59 55 0.3418771903090209 1 3298.0 0.3418771903090209 1
gene  1 60 55 -0.018192256881408794 1 3299.0 -0.018192256881408794 1
gene  1 1 56 0.5533046216220784 0 3300.0 0.5533046216220784 1
gene  1 2 56 -0.812312522764 0 3301.0 -0.812312522764 1
gene  1 5 56 0.2758387155760049 0 3304.0 0.2758387155760049 1
gene  1 7 56 0.00584350661443208 0 3306.0 0.00584350661443208 1
gene  1 9 56 -0.5434093869096626 0 3308.0 -0.5434093869096626 1
gene  1 10 56 0.34521724703245643 0 3309.0 0.34521724703245643 1
gene  1 12 56 -0.10398837132618288 0 3311.0 -0.10398837132618288 1
gene  1 14 56 0.01981834168452361 0 3313.0 0.01981834168452361 1
gene  1 16 56 0.45917142434200275 0 3315.0 0.45917142434200275 1
gene  1 17 56 0.7309476701888042 0 3316.0 0.7309476701888042 1
gene  1 22 56 0.8923195329657782 0 3321.0 0.8923195329657782 1
gene  1 23 56 -0.37552371650541405 0 3322.0 -0.37552371650541405 1
gene  1 28 56 -0.62488069973432 0 3327.0 -0.62488069973432 1
gene  1 29 56 -0.015436741552991127 0 3328.0 -0.015436741552991127 1
gene  1 30 56 0.8003641755012338 0 3329.0 0.8003641755012338 1
gene  1 31 56 -0.6481044451210927 0 3330.0 -0.6481044451210927 1
gene  1 32 56 0.9499105724672824 0 3331.0 0.9499105724672824 1
gene  1 35 56 -0.018194777685662442 0 3334.0 -0.018194777685662442 1
gene  1 37 56 0.9757324482210799 0 3336.0 0.9757324482210799 1
gene  1 41 56 0.915623779605279 0 3340.0 0.915623779605279 1
gene  1 45 56 -0.4083535161834909 0 3344.0 -0.4083535161834909 1
gene  1 53 56 -0.0044070297942795395 0 3352.0 -0.0044070297942795395 1
gene  1 54 56 0.033300318844965815 0 3353.0 0.033300318844965815 1
gene  1 55 56 0.5855934777818357 0 3354.0 0.5855934777818357 1
gene  1 57 56 0.8948935060240168 1 3356.0 0.8948935060240168 1
gene  1 58 56 -0.03664327469339443 1 3357.0 -0.03664327469339443 1
gene  1 60 56 -0.36133185373985083 1 3359.0 -0.36133185373985083 1
gene  1 1 57 -0.9989247370442588 0 3360.0 -0.9989247370442588 1
gene  1 4 57 0.22097676364114283 0 3363.0 0.22097676364114283 1
gene  1 9 57 -0.3735127428134481 0 3368.0 -0.3735127428134481 1
gene  1 12 57 0.12355176741091745 0 3371.0 0.12355176741091745 1
gene  1 14 57 0.3988840882283152 0 3373.0 0.3988840882283152 1
gene  1 16 57 0.7081203076968244 0 3375.0 0.7081203076968244 1
gene  1 19 57 0.4856639415802962 0 3378.0 0.4856639415802962 1
gene  1 20 57 -0.2994679194461016 0 3379.0 -0.2994679194461016 1
gene  1 22 57 0.9016795871152786 0 3381.0 0.9016795871152786 1
gene  1 29 57 0.9627348866705804 0 3388.0 0.9627348866705804 1
gene  1 33 57 -0.6589602271574595 0 3392.0 -0.6589602271574595 1
gene  1 35 57 -0.011565443672230771 0 3394.0 -0.011565443672230771 1
gene  1 37 57 0.013950757993706415 0 3396.0 0.013950757993706415 1
gene  1 38 57 0.5938933102877898 0 3397.0 0.5938933102877898 1
gene  1 39 57 0.8106190356910572 0 3398.0 0.8106190356910572 1
gene  1 40 57 -0.1390186471721202 0 3399.0 -0.1390186471721202 1
gene  1 42 57 0.43319629919212077 0 3401.0 0.43319629919212077 1
gene  1 43 57 -0.42050385361077036 0 3402.0 -0.42050385361077036 1
gene  1 46 57 0.05243513460348148 0 3405.0 0.05243513460348148 1
gene  1 48 57 0.7983014712301121 0 3407.0 0.7983014712301121 1
gene  1 52 57 -0.09706446726867725 0 3411.0 -0.09706446726867725 1
gene  1 57 57 0.6616023546796579 1 3416.0 0.6616023546796579 1
gene  1 58 57 -0.7305494782919962 1 3417.0 -0.7305494782919962 1
gene  1 59 57 -0.6009857547220578 1 3418.0 -0.6009857547220578 1
gene  1 60 57 0.8016072619479937 1 3419.0 0.8016072619479937 1
gene  1 1 58 -0.9055563048488965 0 3420.0 -0.9055563048488965 1
gene  1 2 58 -0.22176840606608783 0 3421.0 -0.22176840606608783 1
gene  1 3 58 -0.014316914906470964 0 3422.0 -0.014316914906470964 1
gene  1 5 58 0.021918492745845706 0 3424.0 0.021918492745845706 1
gene  1 6 58 0.41465171590130323 0 3425.0 0.41465171590130323 1
gene  1 8 58 -0.375938178560429 0 3427.0 -0.375938178560429 1
gene  1 10 58 0.9672046019509344 0 3429.0 0.9672046019509344 1
gene  1 11 58 0.650107636600276 0 3430.0 0.650107636600276 1
gene  1 14 58 0.03746788159094849 0 3433.0 0.03746788159094849 1
gene  1 15 58 1.0161284172230718 0 3434.0 1.0161284172230718 1
gene  1 23 58 0.5630310752700738 0 3442.0 0.5630310752700738 1
gene  1 25 58 -0.8685268640786273 0 3444.0 -0.8685268640786273 1
gene  1 28 58 -0.6945090421218811 0 3447.0 -0.6945090421218811 1
gene  1 30 58 -0.749880921574552 0 3449.0 -0.749880921574552 1
gene  1 32 58 -0.03734710208269372 0 3451.0 -0.03734710208269372 1
gene  1 33 58 -0.5049249285592351 0 3452.0 -0.5049249285592351 1
gene  1 34 58 0.04615405629405471 0 3453.0 0.04615405629405471 1
gene  1 35 58 0.07504929894498957 0 3454.0 0.07504929894498957 1
gene  1 36 58 0.6010865656723463 0 3455.0 0.6010865656723463 1
gene  1 37 58 -0.18139301182973772 0 3456.0 -0.18139301182973772 1
gene  1 38 58 -0.8813838687686515 0 3457.0 -0.8813838687686515 1
gene  1 39 58 -0.48316152100134524 0 3458.0 -0.48316152100134524 1
gene  1 42 58 -0.2221210184799879 0 3461.0 -0.2221210184799879 1
gene  1 44 58 0.937805807339763 0 3463.0 0.937805807339763 1
gene  1 47 58 -0.4002976444933777 0 3466.0 -0.4002976444933777 1
gene  1 51 58 -0.7799505121673128 0 3470.0 -0.7799505121673128 1
gene  1 54 58 0.32865529500377194 0 3473.0 0.32865529500377194 1
gene  1 56 58 -0.6408269830824388 0 3475.0 -0.6408269830824388 1
gene  1 57 58 -0.039907119207349614 0 3476.0 -0.039907119207349614 1
gene  1 1 59 0.95067896893955 0 3480.0 0.95067896893955 1
gene  1 11 59 0.7751034072795524 0 3490.0 0.7751034072795524 1
gene  1 12 59 -0.5089731740685188 0 3491.0 -0.5089731740685188 1
gene  1 13 59 0.0010728695372221326 0 3492.0 0.0010728695372221326 1
gene  1 15 59 0.15788755734191323 0 3494.0 0.15788755734191323 1
gene  1 19 59 0.49115684659084635 0 3498.0 0.49115684659084635 1
gene  1 22 59 -0.059815604657540655 0 3501.0 -0.059815604657540655 1
gene  1 23 59 -0.0733373922907804 0 3502.0 -0.0733373922907804 1
gene  1 25 59 -0.00651111045838232 0 3504.0 -0.00651111045838232 1
gene  1 28 59 -0.9272039790923642 0 3507.0 -0.9272039790923642 1
gene  1 29 59 0.5809670945497447 0 3508.0 0.5809670945497447 1
gene  1 30 59 0.03954050666018658 0 3509.0 0.03954050666018658 1
gene  1 32 59 0.21424042172224375 0 3511.0 0.21424042172224375 1
gene  1 33 59 0.009711290237193748 0 3512.0 0.009711290237193748 1
gene  1 34 59 0.34076811425706743 0 3513.0 0.34076811425706743 1
gene  1 37 59 -0.04491024902690833 0 3516.0 -0.04491024902690833 1
gene  1 41 59 -0.55463100426027 0 3520.0 -0.55463100426027 1
gene  1 42 59 -0.4296239217240928 0 3521.0 -0.4296239217240928 1
gene  1 43 59 0.838156449114982 0 3522.0 0.838156449114982 1
gene  1 44 59 0.24777071914404625 0 3523.0 0.24777071914404625 1
gene  1 45 59 0.6117499016851622 0 3524.0 0.6117499016851622 1
gene  1 53 59 -0.018219756445486516 0 3532.0 -0.018219756445486516 1
gene  1 54 59 -1.0121833202612598 0 3533.0 -1.0121833202612598 1
gene  1 55 59 0.8677835486391191 0 3534.0 0.8677835486391191 1
gene  1 59 59 -0.03097828019532902 1 3538.0 -0.03097828019532902 1
gene  1 60 59 0.6011827275805467 1 3539.0 0.6011827275805467 1
gene  1 1 60 -0.4619570068292703 0 3540.0 -0.4619570068292703 1
gene  1 2 60 -0.18014934583807288 0 3541.0 -0.18014934583807288 1
gene  1 3 60 0.613737515584604 0 3542.0 0.613737515584604 1
gene  1 5 60 -0.5073878357154434 0 3544.0 -0.5073878357154434 1
gene  1 6 60 -0.17229688674187144 0 3545.0 -0.17229688674187144 1
gene  1 7 60 0.4043956054928231 0 3546.0 0.4043956054928231 1
gene  1 9 60 -0.7180166965190194 0 3548.0 -0.7180166965190194 1
gene  1 10 60 0.011462477996094214 0 3549.0 0.011462477996094214 1
gene  1 11 60 -0.5930495853598101 0 3550.0 -0.5930495853598101 1
gene  1 12 60 -0.015781673341521765 0 3551.0 -0.015781673341521765 1
gene  1 13 60 0.5697161676860476 0 3552.0 0.5697161676860476 1
gene  1 17 60 0.031350052022437125 0 3556.0 0.031350052022437125 1
gene  1 18 60 -0.02548752593914305 0 3557.0 -0.02548752593914305 1
gene  1 19 60 -0.7579086403097086 0 3558.0 -0.7579086403097086 1
gene  1 20 60 -0.3855532227246491 0 3559.0 -0.3855532227246491 1
gene  1 21 60 0.32145132847324154 0 3560.0 0.32145132847324154 1
gene  1 24 60 0.023512487771508928 0 3563.0 0.023512487771508928 1
gene  1 27 60 -0.3143892949768353 0 3566.0 -0.3143892949768353 1
gene  1 30 60 0.031317088892403186 0 3569.0 0.031317088892403186 1
gene  1 31 60 -0.8787446485573202 0 3570.0 -0.8787446485573202 1
gene  1 32 60 -0.1436963549947036 0 3571.0 -0.1436963549947036 1
gene  1 34 60 0.4577285327330992 0 3573.0 0.4577285327330992 1
gene  1 35 60 -0.5359233800287327 0 3574.0 -0.5359233800287327 1
gene  1 40 60 -0.02701172079789186 0 3579.0 -0.02701172079789186 1
gene  1 41 60 -0.0027184251586895468 0 3580.0 -0.0027184251586895468 1
gene  1 44 60 0.9020416622317037 0 3583.0 0.9020416622317037 1
gene  1 45 60 0.7458598046512926 0 3584.0 0.7458598046512926 1
gene  1 46 60 -0.50116099551383 0 3585.0 -0.50116099551383 1
gene  1 47 60 -0.3729905421340001 0 3586.0 -0.3729905421340001 1
gene  1 52 60 0.02597145397514096 0 3591.0 0.02597145397514096 1
gene  1 55 60 0.02763630919425742 0 3594.0 0.02763630919425742 1
gene  1 57 60 -0.33726094337249607 0 3596.0 -0.33726094337249607 1
gene  1 14 61 1.0 0 3597.0 1.0 1
gene  1 61 53 -0.0011621940621721978 0 3598.0 -0.0011621940621721978 1
genomeend 0
