genomestart  0
trait 1 0.0 0.0 0.0 0.0 0.0 0.0 0.0 0.0 
node 1 1 1 1
node 2 1 1 1
node 3 1 1 1
node 4 1 1 1
node 5 1 1 1
node 6 1 1 1
node 7 1 1 1
node 8 1 1 1
node 9 1 1 1
node 10 1 1 3
node 11 1 0 0
node 12 1 0 0
node 13 1 0 0
node 14 1 0 0
node 15 1 0 0
node 16 1 0 0
node 17 1 0 0
node 18 1 0 0
node 19 1 0 0
node 20 1 0 0
node 21 1 0 0
node 22 1 0 0
node 23 1 0 0
node 24 1 0 0
node 25 1 0 0
node 26 1 0 0
node 27 1 0 0
node 28 1 0 0
node 29 1 0 0
node 30 1 0 0
node 31 1 0 0
node 32 1 0 0
node 33 1 0 0
node 34 1 0 0
node 35 1 0 0
node 36 1 0 0
node 37 1 0 0
node 38 1 0 0
node 39 1 0 0
node 40 1 0 0
node 41 1 0 0
node 42 1 0 0
node 43 1 0 0
node 44 1 0 0
node 45 1 0 0
node 46 1 0 0
node 47 1 0 0
node 51 1 0 2
node 52 1 0 2
node 53 1 0 2
node 54 1 0 2
node 55 1 0 2
node 56 1 0 2
node 57 1 0 2
node 58 1 0 2
node 59 1 0 2
node 60 1 0 2
node 61 1 0 0
node 62 1 0 0
node 63 1 0 0
node 64 1 0 0
node 65 1 0 0
node 66 1 0 0
gene  1 6 11 0.26485560100278377 0 605.0 0.26485560100278377 1
gene  1 10 11 -0.2213244565501456 0 609.0 -0.2213244565501456 1
gene  1 11 11 -0.03342352166482726 1 610.0 -0.03342352166482726 1
gene  1 13 11 -0.1436231554107401 1 612.0 -0.1436231554107401 1
gene  1 14 11 -0.08114684460967839 1 613.0 -0.08114684460967839 1
gene  1 15 11 1.745149688176921 1 614.0 1.745149688176921 1
gene  1 17 11 -0.2155987166646951 1 616.0 -0.2155987166646951 1
gene  1 22 11 -0.45318024755428665 1 621.0 -0.45318024755428665 1
gene  1 25 11 -0.5681857861854192 1 624.0 -0.5681857861854192 1
gene  1 27 11 1.3711656000621213 1 626.0 1.3711656000621213 1
gene  1 29 11 -0.31820652544156935 1 628.0 -0.31820652544156935 1
gene  1 32 11 -0.10111065278662983 1 631.0 -0.10111065278662983 1
gene  1 34 11 -1.0880615005759853 1 633.0 -1.0880615005759853 1
gene  1 35 11 0.3648576609962214 1 634.0 0.3648576609962214 1
gene  1 36 11 -0.3150268878096573 1 635.0 -0.3150268878096573 1
gene  1 37 11 0.9015043070024615 1 636.0 0.9015043070024615 1
gene  1 42 11 0.4111836139392609 1 641.0 0.4111836139392609 1
gene  1 44 11 0.041517150375533454 1 643.0 0.041517150375533454 1
gene  1 46 11 1.6236643618320434 1 645.0 1.6236643618320434 1
gene  1 52 11 -0.09765582198474167 1 651.0 -0.09765582198474167 1
gene  1 53 11 1.3155756015481326 1 652.0 1.3155756015481326 1
gene  1 55 11 -0.04967623587051992 1 654.0 -0.04967623587051992 1
gene  1 56 11 -0.5894087381536492 1 655.0 -0.5894087381536492 1
gene  1 58 11 1.0428987870774786 1 657.0 1.0428987870774786 1
gene  1 59 11 0.5963097203298097 1 658.0 0.5963097203298097 1
gene  1 60 11 1.206037106186755 1 659.0 1.206037106186755 1
gene  1 2 12 0.00491622089133111 0 661.0 0.00491622089133111 1
gene  1 3 12 1.7046381195769922 0 662.0 1.7046381195769922 1
gene  1 5 12 0.08849307170941347 0 664.0 0.08849307170941347 1
gene  1 8 12 -2.5660587772609302 0 667.0 -2.5660587772609302 1
gene  1 10 12 1.6114207252210708 0 669.0 1.6114207252210708 1
gene  1 11 12 0.5075861459211386 0 670.0 0.5075861459211386 1
gene  1 13 12 0.11281268201668217 1 672.0 0.11281268201668217 1
gene  1 14 12 0.30604453275041704 1 673.0 0.30604453275041704 1
gene  1 16 12 -0.6179232535655748 1 675.0 -0.6179232535655748 1
gene  1 18 12 -0.03236513942461198 1 677.0 -0.03236513942461198 1
gene  1 19 12 -0.9328086481628155 1 678.0 -0.9328086481628155 1
gene  1 21 12 0.039626348427445876 1 680.0 0.039626348427445876 1
gene  1 22 12 -0.08913455339308908 1 681.0 -0.08913455339308908 1
gene  1 23 12 -0.7104996046546252 1 682.0 -0.7104996046546252 1
gene  1 26 12 0.11333861427628306 1 685.0 0.11333861427628306 1
gene  1 28 12 -0.5705986099553829 1 687.0 -0.5705986099553829 1
gene  1 29 12 0.19957208201266696 1 688.0 0.19957208201266696 1
gene  1 30 12 -0.3629471838202558 1 689.0 -0.3629471838202558 1
gene  1 31 12 0.9268480131798088 1 690.0 0.9268480131798088 1
gene  1 35 12 1.3094785094282337 1 694.0 1.3094785094282337 1
gene  1 36 12 -0.058911670880241615 1 695.0 -0.058911670880241615 1
gene  1 37 12 -0.07545128215982809 1 696.0 -0.07545128215982809 1
gene  1 39 12 -0.24082189519358876 1 698.0 -0.24082189519358876 1
gene  1 40 12 -0.09289200175781098 1 699.0 -0.09289200175781098 1
gene  1 41 12 2.083943138270363 1 700.0 2.083943138270363 1
gene  1 44 12 -0.0023138801872027892 1 703.0 -0.0023138801872027892 1
gene  1 47 12 0.1198586631920042 1 706.0 0.1198586631920042 1
gene  1 52 12 1.2658909974887056 1 711.0 1.2658909974887056 1
gene  1 55 12 0.03918875794870222 1 714.0 0.03918875794870222 1
gene  1 56 12 -0.22255695686013283 1 715.0 -0.22255695686013283 1
gene  1 57 12 -0.6282252170542241 1 716.0 -0.6282252170542241 1
gene  1 58 12 1.8062704282680416E-4 1 717.0 1.8062704282680416E-4 1
gene  1 59 12 -0.22864716657121592 1 718.0 -0.22864716657121592 1
gene  1 1 13 -0.382963975840398 0 720.0 -0.382963975840398 1
gene  1 2 13 0.08725515102055431 0 721.0 0.08725515102055431 1
gene  1 3 13 0.8246920231350143 0 722.0 0.8246920231350143 1
gene  1 4 13 0.2427494351690921 0 723.0 0.2427494351690921 1
gene  1 6 13 0.8361232773555516 0 725.0 0.8361232773555516 1
gene  1 10 13 -0.08863557167346849 0 729.0 -0.08863557167346849 1
gene  1 11 13 0.5474315941377084 0 730.0 0.5474315941377084 1
gene  1 12 13 0.4775888500298545 0 731.0 0.4775888500298545 1
gene  1 13 13 0.06511392644038874 1 732.0 0.06511392644038874 1
gene  1 14 13 -0.032757868713596594 1 733.0 -0.032757868713596594 1
gene  1 18 13 -0.7251267494355034 1 737.0 -0.7251267494355034 1
gene  1 26 13 -0.08866286301118245 1 745.0 -0.08866286301118245 1
gene  1 29 13 -0.558059916956193 1 748.0 -0.558059916956193 1
gene  1 30 13 0.6390814544729483 1 749.0 0.6390814544729483 1
gene  1 33 13 0.6895871762016571 1 752.0 0.6895871762016571 1
gene  1 35 13 -1.0555427866587677 1 754.0 -1.0555427866587677 1
gene  1 36 13 -0.44480404525365247 1 755.0 -0.44480404525365247 1
gene  1 37 13 -0.28627875276419606 1 756.0 -0.28627875276419606 1
gene  1 40 13 0.33694261478444076 1 759.0 0.33694261478444076 1
gene  1 41 13 0.8940477479177034 1 760.0 0.8940477479177034 1
gene  1 44 13 0.45308356345575607 1 763.0 0.45308356345575607 1
gene  1 45 13 -0.07028567652054832 1 764.0 -0.07028567652054832 1
gene  1 47 13 0.09947394116456852 1 766.0 0.09947394116456852 1
gene  1 51 13 0.0025992998722572866 1 770.0 0.0025992998722572866 1
gene  1 54 13 -0.10112767573616213 1 773.0 -0.10112767573616213 1
gene  1 57 13 -2.349212648058065 1 776.0 -2.349212648058065 1
gene  1 58 13 -0.0218843319695833 1 777.0 -0.0218843319695833 1
gene  1 59 13 0.01081470388275427 1 778.0 0.01081470388275427 1
gene  1 60 13 0.49783718091125234 1 779.0 0.49783718091125234 1
gene  1 1 14 1.062445305181936 0 780.0 1.062445305181936 1
gene  1 2 14 0.26117631944609615 0 781.0 0.26117631944609615 1
gene  1 4 14 -0.053711176788060186 0 783.0 -0.053711176788060186 1
gene  1 5 14 -0.03439929778376866 0 784.0 -0.03439929778376866 1
gene  1 7 14 1.299276689502205 0 786.0 1.299276689502205 1
gene  1 9 14 -0.11862737161868193 0 788.0 -0.11862737161868193 1
gene  1 12 14 -0.282872840191434 0 791.0 -0.282872840191434 1
gene  1 13 14 0.10818864307082174 0 792.0 0.10818864307082174 1
gene  1 14 14 0.28739832751491656 1 793.0 0.28739832751491656 1
gene  1 15 14 -2.1017881081719425 1 794.0 -2.1017881081719425 1
gene  1 16 14 1.111830064024812 1 795.0 1.111830064024812 1
gene  1 17 14 -1.3595749686580476 1 796.0 -1.3595749686580476 1
gene  1 24 14 0.4383524078505788 1 803.0 0.4383524078505788 1
gene  1 25 14 -0.6954001000700198 1 804.0 -0.6954001000700198 1
gene  1 26 14 -0.6850344491199722 1 805.0 -0.6850344491199722 1
gene  1 29 14 -0.5154117589397939 1 808.0 -0.5154117589397939 1
gene  1 30 14 0.30117571145608557 1 809.0 0.30117571145608557 1
gene  1 31 14 -0.05801702136938069 1 810.0 -0.05801702136938069 1
gene  1 33 14 0.07931539092898046 1 812.0 0.07931539092898046 1
gene  1 36 14 -2.2889779336643246 1 815.0 -2.2889779336643246 1
gene  1 40 14 0.030189605964870983 1 819.0 0.030189605964870983 1
gene  1 41 14 0.09420567656561536 1 820.0 0.09420567656561536 1
gene  1 45 14 -0.40535692962492365 1 824.0 -0.40535692962492365 1
gene  1 46 14 -0.8198555393576618 1 825.0 -0.8198555393576618 1
gene  1 47 14 0.5966129286623699 1 826.0 0.5966129286623699 1
gene  1 51 14 -0.1112035004310998 1 830.0 -0.1112035004310998 1
gene  1 52 14 0.11388431164847587 1 831.0 0.11388431164847587 1
gene  1 54 14 0.7347173681949494 1 833.0 0.7347173681949494 1
gene  1 57 14 -0.2782926726475051 1 836.0 -0.2782926726475051 1
gene  1 60 14 -0.11293442330033546 1 839.0 -0.11293442330033546 1
gene  1 2 15 -0.9885934222769452 0 841.0 -0.9885934222769452 1
gene  1 9 15 0.30467219764693215 0 848.0 0.30467219764693215 1
gene  1 10 15 0.015487518241595822 0 849.0 0.015487518241595822 1
gene  1 13 15 -0.033931031491026685 0 852.0 -0.033931031491026685 1
gene  1 16 15 0.059350309936100756 1 855.0 0.059350309936100756 1
gene  1 23 15 -0.20938394656574807 1 862.0 -0.20938394656574807 1
gene  1 26 15 0.07430140173317977 1 865.0 0.07430140173317977 1
gene  1 27 15 1.0176608003258047 1 866.0 1.0176608003258047 1
gene  1 29 15 -0.9095492706911059 1 868.0 -0.9095492706911059 1
gene  1 35 15 0.7607786070186191 1 874.0 0.7607786070186191 1
gene  1 39 15 0.0012863611420402018 1 878.0 0.0012863611420402018 1
gene  1 40 15 -0.8515904171550835 1 879.0 -0.8515904171550835 1
gene  1 42 15 -0.7330593356985816 1 881.0 -0.7330593356985816 1
gene  1 45 15 -0.9257097351952196 1 884.0 -0.9257097351952196 1
gene  1 52 15 -0.09938483414416932 1 891.0 -0.09938483414416932 1
gene  1 54 15 0.354752096926451 1 893.0 0.354752096926451 1
gene  1 58 15 -1.0715266097674894 1 897.0 -1.0715266097674894 1
gene  1 60 15 0.0631789922359854 1 899.0 0.0631789922359854 1
gene  1 4 16 -0.0034471851912511405 0 903.0 -0.0034471851912511405 1
gene  1 5 16 -0.7713210423941889 0 904.0 -0.7713210423941889 1
gene  1 6 16 0.3025919101662064 0 905.0 0.3025919101662064 1
gene  1 7 16 -0.09619584549939325 0 906.0 -0.09619584549939325 1
gene  1 8 16 0.43936948869684145 0 907.0 0.43936948869684145 1
gene  1 10 16 -0.9452432796543577 0 909.0 -0.9452432796543577 1
gene  1 11 16 -1.088426878528006 0 910.0 -1.088426878528006 1
gene  1 14 16 -0.7480375019470618 0 913.0 -0.7480375019470618 1
gene  1 16 16 -1.1190997865510557 1 915.0 -1.1190997865510557 1
gene  1 19 16 -0.49822568539023 1 918.0 -0.49822568539023 1
gene  1 22 16 -0.8790903881929529 1 921.0 -0.8790903881929529 1
gene  1 23 16 -1.5288400958464414 1 922.0 -1.5288400958464414 1
gene  1 24 16 0.6267088213412215 1 923.0 0.6267088213412215 1
gene  1 25 16 0.09029825512423674 1 924.0 0.09029825512423674 1
gene  1 30 16 -0.7800025860249327 1 929.0 -0.7800025860249327 1
gene  1 33 16 0.9606877677455805 1 932.0 0.9606877677455805 1
gene  1 34 16 0.8480339728332935 1 933.0 0.8480339728332935 1
gene  1 36 16 -0.46059362516641167 1 935.0 -0.46059362516641167 1
gene  1 38 16 2.3084372570555907 1 937.0 2.3084372570555907 1
gene  1 39 16 -0.5876318749762351 1 938.0 -0.5876318749762351 1
gene  1 41 16 0.18568952914756331 1 940.0 0.18568952914756331 1
gene  1 44 16 0.09683808082249683 1 943.0 0.09683808082249683 1
gene  1 45 16 0.7673671306641805 1 944.0 0.7673671306641805 1
gene  1 53 16 -0.2146312759376564 1 952.0 -0.2146312759376564 1
gene  1 54 16 -1.1260799553762069 1 953.0 -1.1260799553762069 1
gene  1 55 16 -0.2639392939687548 1 954.0 -0.2639392939687548 1
gene  1 56 16 0.39382369656751137 1 955.0 0.39382369656751137 1
gene  1 57 16 -0.7677493103223235 1 956.0 -0.7677493103223235 1
gene  1 58 16 -1.4107174477241333 1 957.0 -1.4107174477241333 1
gene  1 1 17 -0.4315101427457011 0 960.0 -0.4315101427457011 1
gene  1 3 17 0.10190124219194263 0 962.0 0.10190124219194263 1
gene  1 4 17 0.6791561473778512 0 963.0 0.6791561473778512 1
gene  1 6 17 0.9298562075852437 0 965.0 0.9298562075852437 1
gene  1 7 17 0.38270294056697785 0 966.0 0.38270294056697785 1
gene  1 8 17 -1.141927728359885 0 967.0 -1.141927728359885 1
gene  1 16 17 0.2882100644920275 0 975.0 0.2882100644920275 1
gene  1 17 17 0.10930887104929567 1 976.0 0.10930887104929567 1
gene  1 24 17 -0.47276226650391484 1 983.0 -0.47276226650391484 1
gene  1 25 17 0.017410927987099974 1 984.0 0.017410927987099974 1
gene  1 28 17 1.7484273557373857 1 987.0 1.7484273557373857 1
gene  1 30 17 -0.9913088888504732 1 989.0 -0.9913088888504732 1
gene  1 31 17 -0.2764003042340333 1 990.0 -0.2764003042340333 1
gene  1 32 17 -0.9987277407362504 1 991.0 -0.9987277407362504 1
gene  1 33 17 0.5421403404431632 1 992.0 0.5421403404431632 1
gene  1 35 17 -1.9233809666093382 1 994.0 -1.9233809666093382 1
gene  1 40 17 0.23554255472461794 1 999.0 0.23554255472461794 1
gene  1 43 17 -0.050638982859865504 1 1002.0 -0.050638982859865504 1
gene  1 47 17 0.04292755573478892 1 1006.0 0.04292755573478892 1
gene  1 52 17 0.8980686196269552 1 1011.0 0.8980686196269552 1
gene  1 53 17 -0.8855587360122728 1 1012.0 -0.8855587360122728 1
gene  1 57 17 -1.5972896350352026 1 1016.0 -1.5972896350352026 1
gene  1 58 17 0.06916580582750835 1 1017.0 0.06916580582750835 1
gene  1 59 17 -1.8917738976774052 1 1018.0 -1.8917738976774052 1
gene  1 2 18 0.6451744840643276 0 1021.0 0.6451744840643276 1
gene  1 11 18 -0.7459069087667055 0 1030.0 -0.7459069087667055 1
gene  1 12 18 -0.1249965345726314 0 1031.0 -0.1249965345726314 1
gene  1 13 18 -1.082370768373497 0 1032.0 -1.082370768373497 1
gene  1 15 18 1.3700279898671601 0 1034.0 1.3700279898671601 1
gene  1 16 18 0.3063136813867952 0 1035.0 0.3063136813867952 1
gene  1 17 18 1.3650066877294498 0 1036.0 1.3650066877294498 1
gene  1 21 18 0.30792877216374254 1 1040.0 0.30792877216374254 1
gene  1 22 18 -1.2169715155092593 1 1041.0 -1.2169715155092593 1
gene  1 24 18 -0.4231689845291666 1 1043.0 -0.4231689845291666 1
gene  1 25 18 -0.1610081125300333 1 1044.0 -0.1610081125300333 1
gene  1 28 18 -0.34220048246086904 1 1047.0 -0.34220048246086904 1
gene  1 31 18 -0.32299824977013275 1 1050.0 -0.32299824977013275 1
gene  1 33 18 -0.4800718333100684 1 1052.0 -0.4800718333100684 1
gene  1 35 18 -0.2657557715911042 1 1054.0 -0.2657557715911042 1
gene  1 36 18 0.09186689222693471 1 1055.0 0.09186689222693471 1
gene  1 37 18 0.6289784918365531 1 1056.0 0.6289784918365531 1
gene  1 42 18 -1.474511850652613 1 1061.0 -1.474511850652613 1
gene  1 43 18 0.36806967180644173 1 1062.0 0.36806967180644173 1
gene  1 44 18 -0.34912266857420154 1 1063.0 -0.34912266857420154 1
gene  1 45 18 -0.0341293364438874 1 1064.0 -0.0341293364438874 1
gene  1 46 18 0.5708726982639867 1 1065.0 0.5708726982639867 1
gene  1 47 18 0.06638769206250744 1 1066.0 0.06638769206250744 1
gene  1 51 18 -0.007881560451755386 1 1070.0 -0.007881560451755386 1
gene  1 52 18 0.6285718919031555 1 1071.0 0.6285718919031555 1
gene  1 53 18 -0.09873346789355932 1 1072.0 -0.09873346789355932 1
gene  1 55 18 -0.042528196177266 1 1074.0 -0.042528196177266 1
gene  1 57 18 -0.07486059754159252 1 1076.0 -0.07486059754159252 1
gene  1 58 18 0.00994981836429457 1 1077.0 0.00994981836429457 1
gene  1 59 18 0.4838742878626725 1 1078.0 0.4838742878626725 1
gene  1 3 19 -0.981334154932316 0 1082.0 -0.981334154932316 1
gene  1 4 19 -0.010111138939730922 0 1083.0 -0.010111138939730922 1
gene  1 5 19 1.0154821550378763 0 1084.0 1.0154821550378763 1
gene  1 6 19 0.06750445136203725 0 1085.0 0.06750445136203725 1
gene  1 7 19 -0.6158981401485117 0 1086.0 -0.6158981401485117 1
gene  1 9 19 -1.93190697672618 0 1088.0 -1.93190697672618 1
gene  1 10 19 0.5878816593920169 0 1089.0 0.5878816593920169 1
gene  1 11 19 0.4987694365845506 0 1090.0 0.4987694365845506 1
gene  1 12 19 -0.883070929641124 0 1091.0 -0.883070929641124 1
gene  1 15 19 0.44024657664769207 0 1094.0 0.44024657664769207 1
gene  1 16 19 0.6160566563313753 0 1095.0 0.6160566563313753 1
gene  1 17 19 -0.759011549416392 0 1096.0 -0.759011549416392 1
gene  1 19 19 -1.3432988711632208 1 1098.0 -1.3432988711632208 1
gene  1 23 19 -0.1082633117854047 1 1102.0 -0.1082633117854047 1
gene  1 25 19 -0.30113106594413797 1 1104.0 -0.30113106594413797 1
gene  1 26 19 -6.845433971358131E-4 1 1105.0 -6.845433971358131E-4 1
gene  1 27 19 1.2911129538579074 1 1106.0 1.2911129538579074 1
gene  1 28 19 0.5258434809708941 1 1107.0 0.5258434809708941 1
gene  1 29 19 -0.25907431904898226 1 1108.0 -0.25907431904898226 1
gene  1 34 19 0.10273586569292324 1 1113.0 0.10273586569292324 1
gene  1 35 19 0.058076918117021814 1 1114.0 0.058076918117021814 1
gene  1 41 19 -0.10325401015946313 1 1120.0 -0.10325401015946313 1
gene  1 43 19 -0.5185954291671762 1 1122.0 -0.5185954291671762 1
gene  1 53 19 1.1735404517936625 1 1132.0 1.1735404517936625 1
gene  1 54 19 -0.36487476378062267 1 1133.0 -0.36487476378062267 1
gene  1 57 19 0.6940278342024271 1 1136.0 0.6940278342024271 1
gene  1 58 19 0.5170113902514907 1 1137.0 0.5170113902514907 1
gene  1 2 20 -0.601565630232134 0 1141.0 -0.601565630232134 1
gene  1 3 20 0.4137135431609118 0 1142.0 0.4137135431609118 1
gene  1 4 20 1.3520695145136157 0 1143.0 1.3520695145136157 1
gene  1 7 20 -1.4902260688465525 0 1146.0 -1.4902260688465525 1
gene  1 10 20 -0.4297218749897231 0 1149.0 -0.4297218749897231 1
gene  1 11 20 0.3825327555870411 0 1150.0 0.3825327555870411 1
gene  1 13 20 -0.33212710792347855 0 1152.0 -0.33212710792347855 1
gene  1 14 20 -0.3087757618232426 0 1153.0 -0.3087757618232426 1
gene  1 17 20 0.8213731526077724 0 1156.0 0.8213731526077724 1
gene  1 18 20 -1.3600203593070204 0 1157.0 -1.3600203593070204 1
gene  1 21 20 -0.8867132236662811 1 1160.0 -0.8867132236662811 1
gene  1 23 20 -0.06762114159539034 1 1162.0 -0.06762114159539034 1
gene  1 26 20 0.07743289087526442 1 1165.0 0.07743289087526442 1
gene  1 27 20 -0.6188076581218734 1 1166.0 -0.6188076581218734 1
gene  1 29 20 -0.044296513807193585 1 1168.0 -0.044296513807193585 1
gene  1 32 20 -0.087981991745682 1 1171.0 -0.087981991745682 1
gene  1 33 20 -0.3730687333399724 1 1172.0 -0.3730687333399724 1
gene  1 34 20 -0.5755471481479243 1 1173.0 -0.5755471481479243 1
gene  1 41 20 1.1669310263698878 1 1180.0 1.1669310263698878 1
gene  1 42 20 -0.25681064650498536 1 1181.0 -0.25681064650498536 1
gene  1 46 20 1.206277085411069 1 1185.0 1.206277085411069 1
gene  1 47 20 -0.7787678691079808 1 1186.0 -0.7787678691079808 1
gene  1 55 20 -0.6410211055450449 1 1194.0 -0.6410211055450449 1
gene  1 57 20 0.31951085826615133 1 1196.0 0.31951085826615133 1
gene  1 58 20 0.9073447182110698 1 1197.0 0.9073447182110698 1
gene  1 1 21 0.4843730628558484 0 1200.0 0.4843730628558484 1
gene  1 2 21 0.10737090576952833 0 1201.0 0.10737090576952833 1
gene  1 3 21 0.2645632397544868 0 1202.0 0.2645632397544868 1
gene  1 5 21 -0.22921314644852925 0 1204.0 -0.22921314644852925 1
gene  1 6 21 -0.9471969844004108 0 1205.0 -0.9471969844004108 1
gene  1 15 21 1.1578105743003269 0 1214.0 1.1578105743003269 1
gene  1 17 21 0.9319443149325908 0 1216.0 0.9319443149325908 1
gene  1 18 21 0.6120158492021062 0 1217.0 0.6120158492021062 1
gene  1 19 21 0.07599922194592908 0 1218.0 0.07599922194592908 1
gene  1 20 21 0.4608299424895017 0 1219.0 0.4608299424895017 1
gene  1 24 21 -0.9416865402995734 1 1223.0 -0.9416865402995734 1
gene  1 25 21 3.30365713614229 1 1224.0 3.30365713614229 1
gene  1 26 21 0.5005381619884429 1 1225.0 0.5005381619884429 1
gene  1 27 21 -0.6549253408711768 1 1226.0 -0.6549253408711768 1
gene  1 28 21 0.1354818001367783 1 1227.0 0.1354818001367783 1
gene  1 31 21 0.5823805689119909 1 1230.0 0.5823805689119909 1
gene  1 32 21 -0.09424654570650647 1 1231.0 -0.09424654570650647 1
gene  1 33 21 -0.0343691813839023 1 1232.0 -0.0343691813839023 1
gene  1 37 21 1.252639725768418 1 1236.0 1.252639725768418 1
gene  1 38 21 0.04600097980796851 1 1237.0 0.04600097980796851 1
gene  1 42 21 0.03516942468311541 1 1241.0 0.03516942468311541 1
gene  1 54 21 0.22209056804519883 1 1253.0 0.22209056804519883 1
gene  1 55 21 0.8889059953724643 1 1254.0 0.8889059953724643 1
gene  1 56 21 -0.6524952268036034 1 1255.0 -0.6524952268036034 1
gene  1 57 21 -0.10678099881975166 1 1256.0 -0.10678099881975166 1
gene  1 58 21 -1.071650157252633 1 1257.0 -1.071650157252633 1
gene  1 59 21 0.6348690910222309 1 1258.0 0.6348690910222309 1
gene  1 1 22 -2.2287671251265353 0 1260.0 -2.2287671251265353 1
gene  1 5 22 -0.2633384747780144 0 1264.0 -0.2633384747780144 1
gene  1 6 22 -0.8727243975112846 0 1265.0 -0.8727243975112846 1
gene  1 7 22 -0.05152341733471153 0 1266.0 -0.05152341733471153 1
gene  1 8 22 0.08897098796652375 0 1267.0 0.08897098796652375 1
gene  1 9 22 -0.7782679915933881 0 1268.0 -0.7782679915933881 1
gene  1 10 22 -0.33366686809688617 0 1269.0 -0.33366686809688617 1
gene  1 12 22 1.709668661699883 0 1271.0 1.709668661699883 1
gene  1 14 22 -0.7309508918915879 0 1273.0 -0.7309508918915879 1
gene  1 16 22 1.0111886476029621 0 1275.0 1.0111886476029621 1
gene  1 21 22 -0.5751903534993736 0 1280.0 -0.5751903534993736 1
gene  1 22 22 0.25896317572532096 1 1281.0 0.25896317572532096 1
gene  1 23 22 -0.6409470671036999 1 1282.0 -0.6409470671036999 1
gene  1 24 22 0.7836261456945584 1 1283.0 0.7836261456945584 1
gene  1 25 22 -0.13925395407734642 1 1284.0 -0.13925395407734642 1
gene  1 26 22 0.7423972132542686 1 1285.0 0.7423972132542686 1
gene  1 33 22 1.0319707762484993 1 1292.0 1.0319707762484993 1
gene  1 35 22 -0.25829532589761595 1 1294.0 -0.25829532589761595 1
gene  1 36 22 0.09981908825778919 1 1295.0 0.09981908825778919 1
gene  1 37 22 -0.1317081075252074 1 1296.0 -0.1317081075252074 1
gene  1 39 22 0.12270910233209185 1 1298.0 0.12270910233209185 1
gene  1 42 22 0.7427287570848099 1 1301.0 0.7427287570848099 1
gene  1 43 22 0.7712490168329376 1 1302.0 0.7712490168329376 1
gene  1 47 22 -0.09548939201008085 1 1306.0 -0.09548939201008085 1
gene  1 53 22 -0.9796469635243087 1 1312.0 -0.9796469635243087 1
gene  1 54 22 -0.12016527070389497 1 1313.0 -0.12016527070389497 1
gene  1 55 22 1.6207465904267373 1 1314.0 1.6207465904267373 1
gene  1 58 22 -1.2069511327580216 1 1317.0 -1.2069511327580216 1
gene  1 1 23 0.9591812769753854 0 1320.0 0.9591812769753854 1
gene  1 5 23 0.6219997573024283 0 1324.0 0.6219997573024283 1
gene  1 6 23 -0.6608096600551188 0 1325.0 -0.6608096600551188 1
gene  1 9 23 -0.034901306535664284 0 1328.0 -0.034901306535664284 1
gene  1 10 23 1.9593563222663872 0 1329.0 1.9593563222663872 1
gene  1 19 23 0.9635415812445801 0 1338.0 0.9635415812445801 1
gene  1 23 23 -0.09868103979196233 1 1342.0 -0.09868103979196233 1
gene  1 25 23 -0.16911056089657917 1 1344.0 -0.16911056089657917 1
gene  1 27 23 0.058843420337273945 1 1346.0 0.058843420337273945 1
gene  1 29 23 0.6560381724893181 1 1348.0 0.6560381724893181 1
gene  1 30 23 0.01961642855482896 1 1349.0 0.01961642855482896 1
gene  1 31 23 -0.3035130822545985 1 1350.0 -0.3035130822545985 1
gene  1 34 23 0.303730050765078 1 1353.0 0.303730050765078 1
gene  1 37 23 1.2840832817482284 1 1356.0 1.2840832817482284 1
gene  1 39 23 1.4167971523770508 1 1358.0 1.4167971523770508 1
gene  1 40 23 -0.11494764739959694 1 1359.0 -0.11494764739959694 1
gene  1 41 23 0.6167641064043712 1 1360.0 0.6167641064043712 1
gene  1 43 23 0.031612690110847226 1 1362.0 0.031612690110847226 1
gene  1 45 23 0.10645244400047228 1 1364.0 0.10645244400047228 1
gene  1 51 23 1.04061088558836 1 1370.0 1.04061088558836 1
gene  1 53 23 0.6223563652614836 1 1372.0 0.6223563652614836 1
gene  1 55 23 -1.0062504174119382 1 1374.0 -1.0062504174119382 1
gene  1 56 23 -1.4585924585483594 1 1375.0 -1.4585924585483594 1
gene  1 57 23 -0.6578989544311652 1 1376.0 -0.6578989544311652 1
gene  1 58 23 -0.09949629496669393 1 1377.0 -0.09949629496669393 1
gene  1 1 24 -0.0587075947781865 0 1380.0 -0.0587075947781865 1
gene  1 2 24 0.3274246529004961 0 1381.0 0.3274246529004961 1
gene  1 5 24 -0.06998671837180404 0 1384.0 -0.06998671837180404 1
gene  1 6 24 -0.48286490347928224 0 1385.0 -0.48286490347928224 1
gene  1 7 24 0.05369570082785847 0 1386.0 0.05369570082785847 1
gene  1 8 24 -0.9875994638069449 0 1387.0 -0.9875994638069449 1
gene  1 10 24 -0.1175367087744095 0 1389.0 -0.1175367087744095 1
gene  1 11 24 -0.9879868716970618 0 1390.0 -0.9879868716970618 1
gene  1 12 24 1.1512015536479716 0 1391.0 1.1512015536479716 1
gene  1 14 24 0.09788556639582732 0 1393.0 0.09788556639582732 1
gene  1 19 24 -0.5477579310733851 0 1398.0 -0.5477579310733851 1
gene  1 20 24 -0.5214310934579395 0 1399.0 -0.5214310934579395 1
gene  1 21 24 -0.12103553263130058 0 1400.0 -0.12103553263130058 1
gene  1 22 24 -1.8205340587339445 0 1401.0 -1.8205340587339445 1
gene  1 24 24 0.8632420165714983 1 1403.0 0.8632420165714983 1
gene  1 26 24 0.06436135890729983 1 1405.0 0.06436135890729983 1
gene  1 28 24 -0.4282055791179226 1 1407.0 -0.4282055791179226 1
gene  1 29 24 0.018673945762704324 1 1408.0 0.018673945762704324 1
gene  1 30 24 -0.02581425728514539 1 1409.0 -0.02581425728514539 1
gene  1 33 24 -1.1809258287180038 1 1412.0 -1.1809258287180038 1
gene  1 34 24 0.05954878239881918 1 1413.0 0.05954878239881918 1
gene  1 35 24 -0.409024825771708 1 1414.0 -0.409024825771708 1
gene  1 41 24 0.41067431418563305 1 1420.0 0.41067431418563305 1
gene  1 43 24 0.8625581528428445 1 1422.0 0.8625581528428445 1
gene  1 46 24 0.11310289797867967 1 1425.0 0.11310289797867967 1
gene  1 54 24 -0.07958595337812226 1 1433.0 -0.07958595337812226 1
gene  1 55 24 -0.060905550055906414 1 1434.0 -0.060905550055906414 1
gene  1 57 24 1.725255000060212 1 1436.0 1.725255000060212 1
gene  1 58 24 0.13109242701852244 1 1437.0 0.13109242701852244 1
gene  1 60 24 0.03179464327446859 1 1439.0 0.03179464327446859 1
gene  1 1 25 0.2282645974729938 0 1440.0 0.2282645974729938 1
gene  1 2 25 0.04516626370390182 0 1441.0 0.04516626370390182 1
gene  1 3 25 0.004952867853146067 0 1442.0 0.004952867853146067 1
gene  1 4 25 -0.3269329889912532 0 1443.0 -0.3269329889912532 1
gene  1 9 25 0.030541588915689376 0 1448.0 0.030541588915689376 1
gene  1 11 25 0.9921561635736865 0 1450.0 0.9921561635736865 1
gene  1 12 25 0.75571219305876 0 1451.0 0.75571219305876 1
gene  1 13 25 -0.08092889673835359 0 1452.0 -0.08092889673835359 1
gene  1 14 25 1.3440214553244343 0 1453.0 1.3440214553244343 1
gene  1 18 25 -0.20267825983982718 0 1457.0 -0.20267825983982718 1
gene  1 19 25 0.6478737990910657 0 1458.0 0.6478737990910657 1
gene  1 20 25 0.06476503330935368 0 1459.0 0.06476503330935368 1
gene  1 21 25 -0.059488565729619705 0 1460.0 -0.059488565729619705 1
gene  1 22 25 0.07677005252941603 0 1461.0 0.07677005252941603 1
gene  1 23 25 0.21077477539628908 0 1462.0 0.21077477539628908 1
gene  1 24 25 0.8442805605940067 0 1463.0 0.8442805605940067 1
gene  1 25 25 0.7775415643690069 1 1464.0 0.7775415643690069 1
gene  1 29 25 -0.34783569444405693 1 1468.0 -0.34783569444405693 1
gene  1 30 25 0.28276891085052724 1 1469.0 0.28276891085052724 1
gene  1 31 25 -0.10798383002349358 1 1470.0 -0.10798383002349358 1
gene  1 33 25 0.812537895646785 1 1472.0 0.812537895646785 1
gene  1 34 25 0.020739854052158606 1 1473.0 0.020739854052158606 1
gene  1 35 25 -0.5793560277739281 1 1474.0 -0.5793560277739281 1
gene  1 36 25 -0.4479092353784656 1 1475.0 -0.4479092353784656 1
gene  1 43 25 -1.2114452120539885 1 1482.0 -1.2114452120539885 1
gene  1 45 25 -1.4590940136650803 1 1484.0 -1.4590940136650803 1
gene  1 46 25 0.7585618527829902 1 1485.0 0.7585618527829902 1
gene  1 52 25 0.07348637416027248 1 1491.0 0.07348637416027248 1
gene  1 53 25 0.32400136043199623 1 1492.0 0.32400136043199623 1
gene  1 57 25 0.04768356352155534 1 1496.0 0.04768356352155534 1
gene  1 58 25 -0.817682745942654 1 1497.0 -0.817682745942654 1
gene  1 60 25 0.49354460283020274 1 1499.0 0.49354460283020274 1
gene  1 1 26 -0.09099680190474828 0 1500.0 -0.09099680190474828 1
gene  1 2 26 -2.2605253309458706 0 1501.0 -2.2605253309458706 1
gene  1 3 26 -0.2204533374358167 0 1502.0 -0.2204533374358167 1
gene  1 4 26 -0.6561524078616728 0 1503.0 -0.6561524078616728 1
gene  1 8 26 -0.5947739203341122 0 1507.0 -0.5947739203341122 1
gene  1 9 26 -0.4344622965561098 0 1508.0 -0.4344622965561098 1
gene  1 10 26 -0.5196451763949043 0 1509.0 -0.5196451763949043 1
gene  1 12 26 2.4664530899272554 0 1511.0 2.4664530899272554 1
gene  1 13 26 -0.09929547495945105 0 1512.0 -0.09929547495945105 1
gene  1 14 26 2.562262690301271 0 1513.0 2.562262690301271 1
gene  1 16 26 -0.0036095582986161575 0 1515.0 -0.0036095582986161575 1
gene  1 17 26 2.1370305481837892 0 1516.0 2.1370305481837892 1
gene  1 19 26 -0.8321299993416615 0 1518.0 -0.8321299993416615 1
gene  1 21 26 0.6110060463479514 0 1520.0 0.6110060463479514 1
gene  1 22 26 -0.9146109396271339 0 1521.0 -0.9146109396271339 1
gene  1 25 26 0.01592881119515269 0 1524.0 0.01592881119515269 1
gene  1 26 26 0.2368949131442279 1 1525.0 0.2368949131442279 1
gene  1 27 26 0.006890990172687626 1 1526.0 0.006890990172687626 1
gene  1 28 26 -1.0478497248425591 1 1527.0 -1.0478497248425591 1
gene  1 29 26 0.6922614064374242 1 1528.0 0.6922614064374242 1
gene  1 32 26 0.5968413489078408 1 1531.0 0.5968413489078408 1
gene  1 36 26 -0.07062286560188438 1 1535.0 -0.07062286560188438 1
gene  1 38 26 0.12291622610716653 1 1537.0 0.12291622610716653 1
gene  1 40 26 -0.24498562355535064 1 1539.0 -0.24498562355535064 1
gene  1 44 26 0.23930929965373737 1 1543.0 0.23930929965373737 1
gene  1 47 26 0.889097997067643 1 1546.0 0.889097997067643 1
gene  1 51 26 0.8277002414709426 1 1550.0 0.8277002414709426 1
gene  1 54 26 -0.2727593829763618 1 1553.0 -0.2727593829763618 1
gene  1 55 26 0.21262135706147425 1 1554.0 0.21262135706147425 1
gene  1 59 26 -1.2626693907121456 1 1558.0 -1.2626693907121456 1
gene  1 60 26 0.4210738539518838 1 1559.0 0.4210738539518838 1
gene  1 1 27 0.3333460574894364 0 1560.0 0.3333460574894364 1
gene  1 4 27 0.5847479404908372 0 1563.0 0.5847479404908372 1
gene  1 5 27 1.8709015022663777 0 1564.0 1.8709015022663777 1
gene  1 8 27 0.07389018223617541 0 1567.0 0.07389018223617541 1
gene  1 11 27 -1.0777622305484649 0 1570.0 -1.0777622305484649 1
gene  1 12 27 0.0641676012347191 0 1571.0 0.0641676012347191 1
gene  1 13 27 -0.3659877719492586 0 1572.0 -0.3659877719492586 1
gene  1 14 27 -0.22028118456255363 0 1573.0 -0.22028118456255363 1
gene  1 15 27 -0.8315798628535198 0 1574.0 -0.8315798628535198 1
gene  1 16 27 0.84770525328301 0 1575.0 0.84770525328301 1
gene  1 17 27 -0.6071867858884353 0 1576.0 -0.6071867858884353 1
gene  1 19 27 0.31075037695286006 0 1578.0 0.31075037695286006 1
gene  1 20 27 -0.149951572928773 0 1579.0 -0.149951572928773 1
gene  1 21 27 0.17234065481307065 0 1580.0 0.17234065481307065 1
gene  1 24 27 -0.057912582548961804 0 1583.0 -0.057912582548961804 1
gene  1 25 27 -0.46495964142007057 0 1584.0 -0.46495964142007057 1
gene  1 27 27 -0.6956563365137431 1 1586.0 -0.6956563365137431 1
gene  1 29 27 -1.156946862110129 1 1588.0 -1.156946862110129 1
gene  1 30 27 1.4442577614133483 1 1589.0 1.4442577614133483 1
gene  1 31 27 -0.7841813068757124 1 1590.0 -0.7841813068757124 1
gene  1 33 27 0.11525644881525356 1 1592.0 0.11525644881525356 1
gene  1 38 27 1.100288774437485 1 1597.0 1.100288774437485 1
gene  1 39 27 0.09376745796693227 1 1598.0 0.09376745796693227 1
gene  1 45 27 0.48226924151976214 1 1604.0 0.48226924151976214 1
gene  1 54 27 -0.4647997321703994 1 1613.0 -0.4647997321703994 1
gene  1 57 27 1.1852039222187813 1 1616.0 1.1852039222187813 1
gene  1 60 27 -0.06730871659047068 1 1619.0 -0.06730871659047068 1
gene  1 1 28 -0.13180171421283546 0 1620.0 -0.13180171421283546 1
gene  1 2 28 0.03344239982339506 0 1621.0 0.03344239982339506 1
gene  1 8 28 -0.4701896004811681 0 1627.0 -0.4701896004811681 1
gene  1 9 28 0.3450293995519706 0 1628.0 0.3450293995519706 1
gene  1 11 28 -0.12915485453379777 0 1630.0 -0.12915485453379777 1
gene  1 20 28 1.591303673339117 0 1639.0 1.591303673339117 1
gene  1 21 28 -0.07248777960467875 0 1640.0 -0.07248777960467875 1
gene  1 24 28 -0.879055781389725 0 1643.0 -0.879055781389725 1
gene  1 25 28 0.08538048022034465 0 1644.0 0.08538048022034465 1
gene  1 26 28 0.10726757581506256 0 1645.0 0.10726757581506256 1
gene  1 27 28 -0.03989989147941028 0 1646.0 -0.03989989147941028 1
gene  1 29 28 -0.11379988884136547 1 1648.0 -0.11379988884136547 1
gene  1 31 28 -0.3338128677413411 1 1650.0 -0.3338128677413411 1
gene  1 33 28 0.8136814134499193 1 1652.0 0.8136814134499193 1
gene  1 40 28 1.931287412831792 1 1659.0 1.931287412831792 1
gene  1 43 28 0.2720519124034895 1 1662.0 0.2720519124034895 1
gene  1 45 28 1.0239984867523306 1 1664.0 1.0239984867523306 1
gene  1 46 28 0.6688302468997872 1 1665.0 0.6688302468997872 1
gene  1 52 28 0.9652403951956027 1 1671.0 0.9652403951956027 1
gene  1 58 28 -0.6376417154898864 1 1677.0 -0.6376417154898864 1
gene  1 2 29 -0.16085382675249338 0 1681.0 -0.16085382675249338 1
gene  1 4 29 -0.35581998763366335 0 1683.0 -0.35581998763366335 1
gene  1 5 29 -0.6656277599017519 0 1684.0 -0.6656277599017519 1
gene  1 6 29 0.039113096291640496 0 1685.0 0.039113096291640496 1
gene  1 9 29 0.0364635608010917 0 1688.0 0.0364635608010917 1
gene  1 10 29 -0.031217084217958584 0 1689.0 -0.031217084217958584 1
gene  1 11 29 0.8871401769453316 0 1690.0 0.8871401769453316 1
gene  1 12 29 -0.07588832609759484 0 1691.0 -0.07588832609759484 1
gene  1 13 29 0.393236600001648 0 1692.0 0.393236600001648 1
gene  1 14 29 -0.04637602164061777 0 1693.0 -0.04637602164061777 1
gene  1 15 29 -0.2968350180968555 0 1694.0 -0.2968350180968555 1
gene  1 16 29 0.6348644467974515 0 1695.0 0.6348644467974515 1
gene  1 18 29 -0.8059370547491405 0 1697.0 -0.8059370547491405 1
gene  1 19 29 -0.24311128328260667 0 1698.0 -0.24311128328260667 1
gene  1 22 29 -0.15595553236890186 0 1701.0 -0.15595553236890186 1
gene  1 23 29 -0.5469765810439466 0 1702.0 -0.5469765810439466 1
gene  1 24 29 0.053007757252497525 0 1703.0 0.053007757252497525 1
gene  1 29 29 0.08713496662832806 1 1708.0 0.08713496662832806 1
gene  1 32 29 -0.6151173530580727 1 1711.0 -0.6151173530580727 1
gene  1 37 29 0.6803269293499821 1 1716.0 0.6803269293499821 1
gene  1 39 29 0.061334239308223355 1 1718.0 0.061334239308223355 1
gene  1 41 29 -1.443252980950831 1 1720.0 -1.443252980950831 1
gene  1 42 29 -0.07771320075546494 1 1721.0 -0.07771320075546494 1
gene  1 43 29 0.9203589045413505 1 1722.0 0.9203589045413505 1
gene  1 46 29 0.07296623807483671 1 1725.0 0.07296623807483671 1
gene  1 51 29 -0.006965236675509052 1 1730.0 -0.006965236675509052 1
gene  1 53 29 -0.03002245278003471 1 1732.0 -0.03002245278003471 1
gene  1 57 29 -0.040592112606673655 1 1736.0 -0.040592112606673655 1
gene  1 60 29 -0.1423956000349601 1 1739.0 -0.1423956000349601 1
gene  1 1 30 0.10408279251475129 0 1740.0 0.10408279251475129 1
gene  1 2 30 -0.8058274884848531 0 1741.0 -0.8058274884848531 1
gene  1 6 30 -0.26775165992226446 0 1745.0 -0.26775165992226446 1
gene  1 9 30 0.8862492434221797 0 1748.0 0.8862492434221797 1
gene  1 10 30 -0.06788625328949756 0 1749.0 -0.06788625328949756 1
gene  1 13 30 -0.004799450576772994 0 1752.0 -0.004799450576772994 1
gene  1 14 30 0.06341969583734289 0 1753.0 0.06341969583734289 1
gene  1 15 30 -0.10847888354389248 0 1754.0 -0.10847888354389248 1
gene  1 16 30 -0.40053325139732093 0 1755.0 -0.40053325139732093 1
gene  1 20 30 0.5538632921143453 0 1759.0 0.5538632921143453 1
gene  1 21 30 0.093465472064255 0 1760.0 0.093465472064255 1
gene  1 22 30 0.40458864204405914 0 1761.0 0.40458864204405914 1
gene  1 25 30 0.45263155732349375 0 1764.0 0.45263155732349375 1
gene  1 26 30 0.06674398135927688 0 1765.0 0.06674398135927688 1
gene  1 27 30 0.8997983749337098 0 1766.0 0.8997983749337098 1
gene  1 28 30 -0.08650969844885167 0 1767.0 -0.08650969844885167 1
gene  1 29 30 -0.0959522209712423 0 1768.0 -0.0959522209712423 1
gene  1 33 30 -0.4765682391967434 1 1772.0 -0.4765682391967434 1
gene  1 34 30 -1.1425001739902554 1 1773.0 -1.1425001739902554 1
gene  1 35 30 -1.421879623989753 1 1774.0 -1.421879623989753 1
gene  1 38 30 0.039546322434933216 1 1777.0 0.039546322434933216 1
gene  1 40 30 -0.16827660082639528 1 1779.0 -0.16827660082639528 1
gene  1 41 30 0.6683484293960403 1 1780.0 0.6683484293960403 1
gene  1 43 30 -0.5040813522007788 1 1782.0 -0.5040813522007788 1
gene  1 45 30 -0.5437293128578912 1 1784.0 -0.5437293128578912 1
gene  1 46 30 0.057391630781264136 1 1785.0 0.057391630781264136 1
gene  1 47 30 -0.42648196807736694 1 1786.0 -0.42648196807736694 1
gene  1 52 30 0.4384623235344157 1 1791.0 0.4384623235344157 1
gene  1 53 30 0.3738790258974688 1 1792.0 0.3738790258974688 1
gene  1 54 30 0.9434085182841384 1 1793.0 0.9434085182841384 1
gene  1 55 30 -0.01731326693249359 1 1794.0 -0.01731326693249359 1
gene  1 58 30 -1.4007555373098242 1 1797.0 -1.4007555373098242 1
gene  1 2 31 0.05069517240194517 0 1801.0 0.05069517240194517 1
gene  1 4 31 0.20033667751048684 0 1803.0 0.20033667751048684 1
gene  1 5 31 -0.0346031817554668 0 1804.0 -0.0346031817554668 1
gene  1 7 31 -0.5819416411729592 0 1806.0 -0.5819416411729592 1
gene  1 8 31 -0.10507124172100905 0 1807.0 -0.10507124172100905 1
gene  1 9 31 -0.2696215904893237 0 1808.0 -0.2696215904893237 1
gene  1 14 31 -1.126262713177881 0 1813.0 -1.126262713177881 1
gene  1 16 31 0.32750062455775564 0 1815.0 0.32750062455775564 1
gene  1 17 31 -1.2878983714362897 0 1816.0 -1.2878983714362897 1
gene  1 18 31 0.44332847896463917 0 1817.0 0.44332847896463917 1
gene  1 21 31 0.05925049831799715 0 1820.0 0.05925049831799715 1
gene  1 22 31 0.04834649104492783 0 1821.0 0.04834649104492783 1
gene  1 23 31 -0.2244900905027173 0 1822.0 -0.2244900905027173 1
gene  1 24 31 -0.035373348797871254 0 1823.0 -0.035373348797871254 1
gene  1 26 31 0.030382889214367492 0 1825.0 0.030382889214367492 1
gene  1 30 31 0.48570752842732556 0 1829.0 0.48570752842732556 1
gene  1 32 31 0.602556516232054 1 1831.0 0.602556516232054 1
gene  1 33 31 -0.13934341274719483 1 1832.0 -0.13934341274719483 1
gene  1 35 31 0.7663768668275599 1 1834.0 0.7663768668275599 1
gene  1 37 31 0.1627066005192913 1 1836.0 0.1627066005192913 1
gene  1 38 31 -1.4605150065961559 1 1837.0 -1.4605150065961559 1
gene  1 40 31 0.6939991515528289 1 1839.0 0.6939991515528289 1
gene  1 43 31 0.02631929057255595 1 1842.0 0.02631929057255595 1
gene  1 46 31 -0.5015271443950645 1 1845.0 -0.5015271443950645 1
gene  1 47 31 -0.07278287637213463 1 1846.0 -0.07278287637213463 1
gene  1 51 31 0.5823188955225006 1 1850.0 0.5823188955225006 1
gene  1 53 31 0.34585256746461 1 1852.0 0.34585256746461 1
gene  1 54 31 0.06637142803023724 1 1853.0 0.06637142803023724 1
gene  1 55 31 0.7484236616793524 1 1854.0 0.7484236616793524 1
gene  1 57 31 -0.5543680797417853 1 1856.0 -0.5543680797417853 1
gene  1 59 31 -0.4185762670008111 1 1858.0 -0.4185762670008111 1
gene  1 1 32 -0.313677441896076 0 1860.0 -0.313677441896076 1
gene  1 3 32 0.07532874375194633 0 1862.0 0.07532874375194633 1
gene  1 5 32 0.47619366348924314 0 1864.0 0.47619366348924314 1
gene  1 6 32 -1.2846123007770458 0 1865.0 -1.2846123007770458 1
gene  1 8 32 -0.7466177272043936 0 1867.0 -0.7466177272043936 1
gene  1 9 32 -1.9697108695199643 0 1868.0 -1.9697108695199643 1
gene  1 13 32 0.06726191876187054 0 1872.0 0.06726191876187054 1
gene  1 14 32 -0.5132097224059168 0 1873.0 -0.5132097224059168 1
gene  1 18 32 1.0816800372258148 0 1877.0 1.0816800372258148 1
gene  1 19 32 -0.5485713039587972 0 1878.0 -0.5485713039587972 1
gene  1 21 32 -0.619241452598986 0 1880.0 -0.619241452598986 1
gene  1 22 32 -0.10474123224034132 0 1881.0 -0.10474123224034132 1
gene  1 24 32 -0.9213601795717821 0 1883.0 -0.9213601795717821 1
gene  1 25 32 1.8677054525835113 0 1884.0 1.8677054525835113 1
gene  1 26 32 0.8503733866498505 0 1885.0 0.8503733866498505 1
gene  1 27 32 -0.6550866456315885 0 1886.0 -0.6550866456315885 1
gene  1 32 32 -0.08747868628964411 1 1891.0 -0.08747868628964411 1
gene  1 34 32 -0.14058577618296605 1 1893.0 -0.14058577618296605 1
gene  1 35 32 0.07855651540433795 1 1894.0 0.07855651540433795 1
gene  1 42 32 0.33221186608722797 1 1901.0 0.33221186608722797 1
gene  1 51 32 -1.0730263026526554 1 1910.0 -1.0730263026526554 1
gene  1 52 32 0.1696658368874498 1 1911.0 0.1696658368874498 1
gene  1 53 32 0.42752337240788024 1 1912.0 0.42752337240788024 1
gene  1 1 33 0.07000633300606122 0 1920.0 0.07000633300606122 1
gene  1 2 33 1.644540453782998 0 1921.0 1.644540453782998 1
gene  1 3 33 -0.013567541713448282 0 1922.0 -0.013567541713448282 1
gene  1 4 33 -0.7886412071908848 0 1923.0 -0.7886412071908848 1
gene  1 5 33 0.40305378476347375 0 1924.0 0.40305378476347375 1
gene  1 7 33 0.4862788852034844 0 1926.0 0.4862788852034844 1
gene  1 8 33 -0.5149316049570329 0 1927.0 -0.5149316049570329 1
gene  1 10 33 0.08753669043984222 0 1929.0 0.08753669043984222 1
gene  1 14 33 -0.4440411999998688 0 1933.0 -0.4440411999998688 1
gene  1 17 33 -1.49501423482791 0 1936.0 -1.49501423482791 1
gene  1 20 33 1.2631100471042356 0 1939.0 1.2631100471042356 1
gene  1 23 33 2.820366118399527 0 1942.0 2.820366118399527 1
gene  1 28 33 -0.24930589202554088 0 1947.0 -0.24930589202554088 1
gene  1 29 33 -1.0422070151132488 0 1948.0 -1.0422070151132488 1
gene  1 30 33 -1.0283678190017496 0 1949.0 -1.0283678190017496 1
gene  1 31 33 -0.490281315322843 0 1950.0 -0.490281315322843 1
gene  1 32 33 -0.504160367581564 0 1951.0 -0.504160367581564 1
gene  1 34 33 0.08979659489229891 1 1953.0 0.08979659489229891 1
gene  1 35 33 -1.29010017007537 1 1954.0 -1.29010017007537 1
gene  1 37 33 2.0066937113938277 1 1956.0 2.0066937113938277 1
gene  1 39 33 2.074263509870712 1 1958.0 2.074263509870712 1
gene  1 40 33 -1.0585149404391914 1 1959.0 -1.0585149404391914 1
gene  1 41 33 -0.4842488832735268 1 1960.0 -0.4842488832735268 1
gene  1 43 33 -0.13607656798374257 1 1962.0 -0.13607656798374257 1
gene  1 44 33 -0.10904869742520959 1 1963.0 -0.10904869742520959 1
gene  1 45 33 -0.9111967442241411 1 1964.0 -0.9111967442241411 1
gene  1 46 33 1.409846354601863 1 1965.0 1.409846354601863 1
gene  1 54 33 0.43975878492425985 1 1973.0 0.43975878492425985 1
gene  1 55 33 -0.11119058587643033 1 1974.0 -0.11119058587643033 1
gene  1 57 33 0.6886712780304319 1 1976.0 0.6886712780304319 1
gene  1 58 33 -0.07538929087100738 1 1977.0 -0.07538929087100738 1
gene  1 60 33 -0.5729217409569474 1 1979.0 -0.5729217409569474 1
gene  1 2 34 -1.3459016254593574 0 1981.0 -1.3459016254593574 1
gene  1 4 34 0.05771023689259312 0 1983.0 0.05771023689259312 1
gene  1 6 34 -0.08571065479937925 0 1985.0 -0.08571065479937925 1
gene  1 8 34 -0.04058045365244805 0 1987.0 -0.04058045365244805 1
gene  1 9 34 0.6910674838138675 0 1988.0 0.6910674838138675 1
gene  1 10 34 -0.3499285416750207 0 1989.0 -0.3499285416750207 1
gene  1 12 34 0.042132842292250956 0 1991.0 0.042132842292250956 1
gene  1 15 34 -1.4480758160553295 0 1994.0 -1.4480758160553295 1
gene  1 24 34 1.2952481067563584 0 2003.0 1.2952481067563584 1
gene  1 25 34 0.2469577123928542 0 2004.0 0.2469577123928542 1
gene  1 28 34 -0.9031027026927415 0 2007.0 -0.9031027026927415 1
gene  1 31 34 -0.7242134470992323 0 2010.0 -0.7242134470992323 1
gene  1 33 34 0.5119752085697032 0 2012.0 0.5119752085697032 1
gene  1 34 34 -2.3119791609803815 1 2013.0 -2.3119791609803815 1
gene  1 36 34 1.5805224497880912 1 2015.0 1.5805224497880912 1
gene  1 37 34 -0.03469353486084317 1 2016.0 -0.03469353486084317 1
gene  1 39 34 -0.29939285946699185 1 2018.0 -0.29939285946699185 1
gene  1 42 34 -0.04092872472591197 1 2021.0 -0.04092872472591197 1
gene  1 43 34 0.5492916751246743 1 2022.0 0.5492916751246743 1
gene  1 45 34 -0.04644793488317252 1 2024.0 -0.04644793488317252 1
gene  1 47 34 -0.14682050723437495 1 2026.0 -0.14682050723437495 1
gene  1 51 34 -0.8249003731811609 1 2030.0 -0.8249003731811609 1
gene  1 55 34 -0.09072939503912664 1 2034.0 -0.09072939503912664 1
gene  1 57 34 0.3365285876252063 1 2036.0 0.3365285876252063 1
gene  1 60 34 -0.004302115532371453 1 2039.0 -0.004302115532371453 1
gene  1 1 35 -0.5419759605894748 0 2040.0 -0.5419759605894748 1
gene  1 2 35 0.6586793270932075 0 2041.0 0.6586793270932075 1
gene  1 3 35 -0.07616401226728986 0 2042.0 -0.07616401226728986 1
gene  1 11 35 0.3859659859849364 0 2050.0 0.3859659859849364 1
gene  1 14 35 0.6717414600569849 0 2053.0 0.6717414600569849 1
gene  1 17 35 -1.2469058575877137 0 2056.0 -1.2469058575877137 1
gene  1 25 35 -0.9376052986219953 0 2064.0 -0.9376052986219953 1
gene  1 26 35 1.400066758273809 0 2065.0 1.400066758273809 1
gene  1 28 35 0.07334527375900314 0 2067.0 0.07334527375900314 1
gene  1 31 35 0.34489554981747 0 2070.0 0.34489554981747 1
gene  1 32 35 -0.031971386265298704 0 2071.0 -0.031971386265298704 1
gene  1 33 35 0.39516823998645034 0 2072.0 0.39516823998645034 1
gene  1 36 35 -1.1799037017818716 1 2075.0 -1.1799037017818716 1
gene  1 37 35 -0.8069632447391423 1 2076.0 -0.8069632447391423 1
gene  1 39 35 -0.6986016492750143 1 2078.0 -0.6986016492750143 1
gene  1 40 35 -0.4048271435916856 1 2079.0 -0.4048271435916856 1
gene  1 41 35 0.8032959893757116 1 2080.0 0.8032959893757116 1
gene  1 43 35 0.05818471592648395 1 2082.0 0.05818471592648395 1
gene  1 44 35 0.07039896779626491 1 2083.0 0.07039896779626491 1
gene  1 51 35 0.11388176286007852 1 2090.0 0.11388176286007852 1
gene  1 52 35 -0.1231067888405399 1 2091.0 -0.1231067888405399 1
gene  1 56 35 -0.305888293090661 1 2095.0 -0.305888293090661 1
gene  1 57 35 -0.2537109858006775 1 2096.0 -0.2537109858006775 1
gene  1 59 35 -0.542147478599213 1 2098.0 -0.542147478599213 1
gene  1 60 35 -0.0890614578244646 1 2099.0 -0.0890614578244646 1
gene  1 3 36 0.5426711619883582 0 2102.0 0.5426711619883582 1
gene  1 4 36 -1.0481148118943169 0 2103.0 -1.0481148118943169 1
gene  1 8 36 0.2629908984275887 0 2107.0 0.2629908984275887 1
gene  1 9 36 0.08151482950617235 0 2108.0 0.08151482950617235 1
gene  1 10 36 0.01209667892772374 0 2109.0 0.01209667892772374 1
gene  1 11 36 -0.4202234366666462 0 2110.0 -0.4202234366666462 1
gene  1 14 36 0.028711493557155902 0 2113.0 0.028711493557155902 1
gene  1 17 36 -0.44176681278673957 0 2116.0 -0.44176681278673957 1
gene  1 18 36 -0.31853540880684583 0 2117.0 -0.31853540880684583 1
gene  1 19 36 -1.4397221826945013 0 2118.0 -1.4397221826945013 1
gene  1 21 36 0.5696395214263795 0 2120.0 0.5696395214263795 1
gene  1 24 36 0.7676276365328885 0 2123.0 0.7676276365328885 1
gene  1 25 36 -0.32140569704892474 0 2124.0 -0.32140569704892474 1
gene  1 28 36 -0.028096368850314683 0 2127.0 -0.028096368850314683 1
gene  1 29 36 0.49168194776552904 0 2128.0 0.49168194776552904 1
gene  1 30 36 0.05978888347676154 0 2129.0 0.05978888347676154 1
gene  1 31 36 1.566079070303074 0 2130.0 1.566079070303074 1
gene  1 32 36 0.4576123617679472 0 2131.0 0.4576123617679472 0
gene  1 34 36 1.0645551661902193 0 2133.0 1.0645551661902193 1
gene  1 36 36 -1.1591492595976636 1 2135.0 -1.1591492595976636 1
gene  1 37 36 -0.5757583568905383 1 2136.0 -0.5757583568905383 1
gene  1 39 36 -0.024898088585231102 1 2138.0 -0.024898088585231102 1
gene  1 40 36 -0.8290771965574768 1 2139.0 -0.8290771965574768 1
gene  1 42 36 -0.5057236266399818 1 2141.0 -0.5057236266399818 1
gene  1 46 36 -0.6104622312873753 1 2145.0 -0.6104622312873753 1
gene  1 51 36 0.11052360763237293 1 2150.0 0.11052360763237293 1
gene  1 57 36 -1.4920115235596019 1 2156.0 -1.4920115235596019 1
gene  1 58 36 -0.062242163726089324 1 2157.0 -0.062242163726089324 1
gene  1 60 36 -0.3832865541233442 1 2159.0 -0.3832865541233442 1
gene  1 1 37 0.053680448106153356 0 2160.0 0.053680448106153356 1
gene  1 3 37 -0.7683329170101467 0 2162.0 -0.7683329170101467 1
gene  1 6 37 0.06697306055971797 0 2165.0 0.06697306055971797 1
gene  1 7 37 -1.6117350050675832 0 2166.0 -1.6117350050675832 1
gene  1 8 37 0.34013924529445116 0 2167.0 0.34013924529445116 1
gene  1 10 37 0.020789117002435787 0 2169.0 0.020789117002435787 1
gene  1 17 37 -0.10729867116563979 0 2176.0 -0.10729867116563979 1
gene  1 19 37 0.3462394485936034 0 2178.0 0.3462394485936034 1
gene  1 20 37 -0.6430886010686758 0 2179.0 -0.6430886010686758 1
gene  1 21 37 -0.825453069825304 0 2180.0 -0.825453069825304 1
gene  1 26 37 0.346413026802472 0 2185.0 0.346413026802472 1
gene  1 28 37 -0.3680107928584039 0 2187.0 -0.3680107928584039 1
gene  1 29 37 -0.5823455230466626 0 2188.0 -0.5823455230466626 1
gene  1 32 37 -0.19990612571020322 0 2191.0 -0.19990612571020322 1
gene  1 35 37 0.10253136954636916 0 2194.0 0.10253136954636916 1
gene  1 38 37 -2.219771839120948 1 2197.0 -2.219771839120948 1
gene  1 44 37 1.034830640149008 1 2203.0 1.034830640149008 1
gene  1 46 37 -1.0185793568343475 1 2205.0 -1.0185793568343475 1
gene  1 47 37 0.7753325144456366 1 2206.0 0.7753325144456366 1
gene  1 58 37 -0.8966606779408217 1 2217.0 -0.8966606779408217 1
gene  1 2 38 1.771640565961793 0 2221.0 1.771640565961793 1
gene  1 5 38 -0.04804413561769527 0 2224.0 -0.04804413561769527 1
gene  1 6 38 1.3573249447822588 0 2225.0 1.3573249447822588 1
gene  1 7 38 -0.48835183640271373 0 2226.0 -0.48835183640271373 1
gene  1 8 38 -0.22607540769403892 0 2227.0 -0.22607540769403892 1
gene  1 11 38 0.10064331437548192 0 2230.0 0.10064331437548192 1
gene  1 12 38 -0.27808350438758855 0 2231.0 -0.27808350438758855 1
gene  1 13 38 0.09451531640383884 0 2232.0 0.09451531640383884 1
gene  1 18 38 -0.00919533955984769 0 2237.0 -0.00919533955984769 1
gene  1 20 38 0.537116786922764 0 2239.0 0.537116786922764 1
gene  1 22 38 -1.4135432084045882 0 2241.0 -1.4135432084045882 1
gene  1 28 38 0.7836536806469399 0 2247.0 0.7836536806469399 1
gene  1 31 38 0.2919173482603929 0 2250.0 0.2919173482603929 1
gene  1 32 38 -0.04558081483507 0 2251.0 -0.04558081483507 1
gene  1 35 38 0.05844559740043096 0 2254.0 0.05844559740043096 1
gene  1 38 38 -0.5692482602822645 1 2257.0 -0.5692482602822645 1
gene  1 42 38 -0.010898371050409403 1 2261.0 -0.010898371050409403 1
gene  1 43 38 -1.4714706045242145 1 2262.0 -1.4714706045242145 1
gene  1 45 38 0.3911742661089906 1 2264.0 0.3911742661089906 1
gene  1 46 38 0.46161726923193547 1 2265.0 0.46161726923193547 1
gene  1 47 38 -0.2873252937623966 1 2266.0 -0.2873252937623966 1
gene  1 53 38 -1.0140674145116984 1 2272.0 -1.0140674145116984 1
gene  1 54 38 0.25317378838855287 1 2273.0 0.25317378838855287 1
gene  1 55 38 -0.7488518749605527 1 2274.0 -0.7488518749605527 1
gene  1 58 38 -0.4778409179277032 1 2277.0 -0.4778409179277032 1
gene  1 2 39 1.9000533842273988 0 2281.0 1.9000533842273988 1
gene  1 6 39 0.11850811939441773 0 2285.0 0.11850811939441773 1
gene  1 9 39 0.5958505158428964 0 2288.0 0.5958505158428964 1
gene  1 10 39 -1.1336764920373927 0 2289.0 -1.1336764920373927 1
gene  1 12 39 -0.25798149327126113 0 2291.0 -0.25798149327126113 1
gene  1 13 39 -0.669273357481578 0 2292.0 -0.669273357481578 1
gene  1 14 39 -1.0481285978188688 0 2293.0 -1.0481285978188688 1
gene  1 16 39 -0.11695777107441291 0 2295.0 -0.11695777107441291 1
gene  1 17 39 -0.029210297518242525 0 2296.0 -0.029210297518242525 1
gene  1 18 39 -1.7951860914998836 0 2297.0 -1.7951860914998836 1
gene  1 19 39 -0.9082251620037339 0 2298.0 -0.9082251620037339 1
gene  1 20 39 0.36422483527097543 0 2299.0 0.36422483527097543 1
gene  1 21 39 0.08296477816899184 0 2300.0 0.08296477816899184 1
gene  1 24 39 0.0033179550419687297 0 2303.0 0.0033179550419687297 1
gene  1 25 39 -0.04259650222489725 0 2304.0 -0.04259650222489725 1
gene  1 28 39 0.18119728768865762 0 2307.0 0.18119728768865762 1
gene  1 30 39 0.06629496272436193 0 2309.0 0.06629496272436193 1
gene  1 31 39 -0.8546708958006008 0 2310.0 -0.8546708958006008 1
gene  1 35 39 -0.039019516602466636 0 2314.0 -0.039019516602466636 1
gene  1 36 39 -2.7335528347414084 0 2315.0 -2.7335528347414084 1
gene  1 38 39 1.7188628443404754 0 2317.0 1.7188628443404754 1
gene  1 41 39 0.12173541881156023 1 2320.0 0.12173541881156023 1
gene  1 43 39 0.05301768739884864 1 2322.0 0.05301768739884864 1
gene  1 44 39 0.22244699863355982 1 2323.0 0.22244699863355982 1
gene  1 45 39 -0.014477846455259938 1 2324.0 -0.014477846455259938 1
gene  1 46 39 -0.9600468092181805 1 2325.0 -0.9600468092181805 1
gene  1 47 39 -1.529796265117173 1 2326.0 -1.529796265117173 1
gene  1 54 39 -0.6883417990693306 1 2333.0 -0.6883417990693306 1
gene  1 56 39 0.3092144288354775 1 2335.0 0.3092144288354775 1
gene  1 57 39 0.02264605351348541 1 2336.0 0.02264605351348541 1
gene  1 59 39 0.47201607173209387 1 2338.0 0.47201607173209387 1
gene  1 60 39 -0.15353592373233058 1 2339.0 -0.15353592373233058 1
gene  1 2 40 -0.4469710051789316 0 2341.0 -0.4469710051789316 1
gene  1 4 40 -1.431783911149781 0 2343.0 -1.431783911149781 1
gene  1 6 40 1.0472451840107584 0 2345.0 1.0472451840107584 1
gene  1 9 40 0.4909366460609257 0 2348.0 0.4909366460609257 1
gene  1 11 40 0.6285020782029154 0 2350.0 0.6285020782029154 1
gene  1 15 40 0.5309199935831805 0 2354.0 0.5309199935831805 1
gene  1 16 40 -1.657203227390107 0 2355.0 -1.657203227390107 1
gene  1 18 40 -0.5205347673021581 0 2357.0 -0.5205347673021581 1
gene  1 20 40 -2.2606272826372207 0 2359.0 -2.2606272826372207 1
gene  1 23 40 -0.11070823317801741 0 2362.0 -0.11070823317801741 1
gene  1 25 40 -0.06586902778498095 0 2364.0 -0.06586902778498095 1
gene  1 26 40 -0.1191957638865042 0 2365.0 -0.1191957638865042 1
gene  1 28 40 1.2619239426855686 0 2367.0 1.2619239426855686 1
gene  1 29 40 -0.48796792941438044 0 2368.0 -0.48796792941438044 1
gene  1 32 40 -0.08861691853077837 0 2371.0 -0.08861691853077837 1
gene  1 34 40 -1.2017620108443179 0 2373.0 -1.2017620108443179 1
gene  1 35 40 0.35255463549949706 0 2374.0 0.35255463549949706 1
gene  1 38 40 0.19532998124965506 0 2377.0 0.19532998124965506 1
gene  1 41 40 -0.2696542690385266 1 2380.0 -0.2696542690385266 1
gene  1 43 40 0.6846117438149733 1 2382.0 0.6846117438149733 1
gene  1 44 40 1.5114062480786385 1 2383.0 1.5114062480786385 1
gene  1 47 40 0.02677886751521145 1 2386.0 0.02677886751521145 1
gene  1 52 40 -0.8241239938758226 1 2391.0 -0.8241239938758226 1
gene  1 54 40 0.16108961461820184 1 2393.0 0.16108961461820184 1
gene  1 56 40 -0.7813011903129313 1 2395.0 -0.7813011903129313 1
gene  1 57 40 -0.45676467646168856 1 2396.0 -0.45676467646168856 1
gene  1 59 40 1.5705063307948417 1 2398.0 1.5705063307948417 1
gene  1 3 41 0.1452215873607237 0 2402.0 0.1452215873607237 1
gene  1 5 41 -0.24887750849324153 0 2404.0 -0.24887750849324153 1
gene  1 6 41 0.27246544161765923 0 2405.0 0.27246544161765923 1
gene  1 8 41 1.1621889599303732 0 2407.0 1.1621889599303732 1
gene  1 10 41 0.04172362542226106 0 2409.0 0.04172362542226106 1
gene  1 11 41 0.5315391109470576 0 2410.0 0.5315391109470576 1
gene  1 12 41 -0.9274729489055409 0 2411.0 -0.9274729489055409 1
gene  1 18 41 0.06712567225930416 0 2417.0 0.06712567225930416 0
gene  1 19 41 -0.7772211155678277 0 2418.0 -0.7772211155678277 1
gene  1 20 41 -1.1086045280801378 0 2419.0 -1.1086045280801378 1
gene  1 21 41 0.7063333217211017 0 2420.0 0.7063333217211017 1
gene  1 22 41 -1.9515055078750467 0 2421.0 -1.9515055078750467 1
gene  1 23 41 -0.3126476788567846 0 2422.0 -0.3126476788567846 1
gene  1 25 41 -1.41894117749375 0 2424.0 -1.41894117749375 1
gene  1 26 41 0.5917765665706679 0 2425.0 0.5917765665706679 1
gene  1 29 41 -0.014513136810985296 0 2428.0 -0.014513136810985296 1
gene  1 30 41 0.11704344920505144 0 2429.0 0.11704344920505144 1
gene  1 32 41 -0.07348329652986009 0 2431.0 -0.07348329652986009 1
gene  1 36 41 -2.1044534465567053 0 2435.0 -2.1044534465567053 1
gene  1 38 41 -0.05432036827878703 0 2437.0 -0.05432036827878703 1
gene  1 42 41 0.6116067594948101 1 2441.0 0.6116067594948101 1
gene  1 43 41 0.44634703239737894 1 2442.0 0.44634703239737894 1
gene  1 44 41 0.7291747702841587 1 2443.0 0.7291747702841587 1
gene  1 47 41 0.01798394123297429 1 2446.0 0.01798394123297429 1
gene  1 52 41 -0.2124241868964302 1 2451.0 -0.2124241868964302 1
gene  1 56 41 -0.013552163110875471 1 2455.0 -0.013552163110875471 1
gene  1 57 41 -1.768897697891614 1 2456.0 -1.768897697891614 1
gene  1 58 41 -0.020245121441606187 1 2457.0 -0.020245121441606187 1
gene  1 60 41 0.2384879430258859 1 2459.0 0.2384879430258859 1
gene  1 1 42 -0.9407062153896848 0 2460.0 -0.9407062153896848 1
gene  1 2 42 1.4043969101849425 0 2461.0 1.4043969101849425 1
gene  1 4 42 -0.4883794659840487 0 2463.0 -0.4883794659840487 1
gene  1 5 42 -0.48929929278058454 0 2464.0 -0.48929929278058454 1
gene  1 6 42 -0.41899019203153787 0 2465.0 -0.41899019203153787 0
gene  1 7 42 0.7189347411916239 0 2466.0 0.7189347411916239 1
gene  1 8 42 1.4044080615806382 0 2467.0 1.4044080615806382 1
gene  1 9 42 0.46921544400352727 0 2468.0 0.46921544400352727 1
gene  1 10 42 -0.9750241402031833 0 2469.0 -0.9750241402031833 1
gene  1 11 42 0.18562453977520194 0 2470.0 0.18562453977520194 1
gene  1 12 42 -0.04674779226028851 0 2471.0 -0.04674779226028851 1
gene  1 13 42 0.3535620165195485 0 2472.0 0.3535620165195485 1
gene  1 17 42 -0.09383462862921726 0 2476.0 -0.09383462862921726 1
gene  1 18 42 -0.5953062577997088 0 2477.0 -0.5953062577997088 1
gene  1 19 42 -0.036597109725484626 0 2478.0 -0.036597109725484626 1
gene  1 22 42 -0.6786644169695929 0 2481.0 -0.6786644169695929 1
gene  1 23 42 -0.5373355187107729 0 2482.0 -0.5373355187107729 1
gene  1 24 42 0.16055637847173054 0 2483.0 0.16055637847173054 1
gene  1 25 42 -0.2685759433389762 0 2484.0 -0.2685759433389762 1
gene  1 26 42 0.07867851945130082 0 2485.0 0.07867851945130082 1
gene  1 27 42 0.5082600818932598 0 2486.0 0.5082600818932598 1
gene  1 31 42 -0.06356026048828348 0 2490.0 -0.06356026048828348 1
gene  1 32 42 -0.174911054466937 0 2491.0 -0.174911054466937 1
gene  1 34 42 0.8275885329259333 0 2493.0 0.8275885329259333 1
gene  1 35 42 2.020728841301128 0 2494.0 2.020728841301128 1
gene  1 37 42 -0.061849517918414545 0 2496.0 -0.061849517918414545 1
gene  1 39 42 -0.551135298852753 0 2498.0 -0.551135298852753 1
gene  1 42 42 -3.679502166289759E-4 1 2501.0 -3.679502166289759E-4 1
gene  1 44 42 -0.2804745863923377 1 2503.0 -0.2804745863923377 1
gene  1 45 42 0.08810135339713562 1 2504.0 0.08810135339713562 1
gene  1 46 42 0.21091715114894838 1 2505.0 0.21091715114894838 1
gene  1 52 42 0.8504000540940352 1 2511.0 0.8504000540940352 1
gene  1 54 42 0.48805281170873205 1 2513.0 0.48805281170873205 1
gene  1 55 42 -0.8876709753143934 1 2514.0 -0.8876709753143934 1
gene  1 56 42 -0.38133208090590404 1 2515.0 -0.38133208090590404 1
gene  1 57 42 0.43192261010550964 1 2516.0 0.43192261010550964 1
gene  1 58 42 -0.11038038650625384 1 2517.0 -0.11038038650625384 1
gene  1 60 42 0.08433728919794777 1 2519.0 0.08433728919794777 1
gene  1 1 43 -0.017989432586583885 0 2520.0 -0.017989432586583885 1
gene  1 3 43 -0.04025889070917601 0 2522.0 -0.04025889070917601 1
gene  1 7 43 0.7679101753280099 0 2526.0 0.7679101753280099 1
gene  1 8 43 0.7833242767024216 0 2527.0 0.7833242767024216 1
gene  1 9 43 -0.6005311092501742 0 2528.0 -0.6005311092501742 1
gene  1 11 43 -0.24336598778456608 0 2530.0 -0.24336598778456608 1
gene  1 17 43 0.0675292782679308 0 2536.0 0.0675292782679308 1
gene  1 21 43 -0.0253218254156818 0 2540.0 -0.0253218254156818 1
gene  1 22 43 -0.10208477737311028 0 2541.0 -0.10208477737311028 1
gene  1 24 43 0.9560161811044978 0 2543.0 0.9560161811044978 1
gene  1 26 43 2.037016750997535 0 2545.0 2.037016750997535 1
gene  1 29 43 0.7037325786461635 0 2548.0 0.7037325786461635 1
gene  1 30 43 -0.025938043597108752 0 2549.0 -0.025938043597108752 1
gene  1 31 43 -0.37235203764938163 0 2550.0 -0.37235203764938163 1
gene  1 32 43 -0.09116237472095673 0 2551.0 -0.09116237472095673 1
gene  1 34 43 -0.5594925979169522 0 2553.0 -0.5594925979169522 1
gene  1 38 43 1.0936577735960353 0 2557.0 1.0936577735960353 1
gene  1 43 43 -0.03188650228902919 1 2562.0 -0.03188650228902919 1
gene  1 45 43 -0.08598508868747648 1 2564.0 -0.08598508868747648 1
gene  1 47 43 0.38757636844130944 1 2566.0 0.38757636844130944 1
gene  1 51 43 0.12147952099547893 1 2570.0 0.12147952099547893 1
gene  1 52 43 -0.2736705558064698 1 2571.0 -0.2736705558064698 1
gene  1 54 43 0.5629115075872321 1 2573.0 0.5629115075872321 1
gene  1 56 43 -0.217186367795629 1 2575.0 -0.217186367795629 1
gene  1 57 43 0.02951891547967753 1 2576.0 0.02951891547967753 1
gene  1 60 43 0.6140393506733945 1 2579.0 0.6140393506733945 1
gene  1 1 44 0.9233099708694993 0 2580.0 0.9233099708694993 1
gene  1 2 44 0.061744325579877 0 2581.0 0.061744325579877 1
gene  1 4 44 0.17868248862997418 0 2583.0 0.17868248862997418 1
gene  1 10 44 -0.6830697137154018 0 2589.0 -0.6830697137154018 1
gene  1 13 44 -0.09293663071688349 0 2592.0 -0.09293663071688349 1
gene  1 16 44 -0.8768219867464058 0 2595.0 -0.8768219867464058 1
gene  1 18 44 -0.04294743848372147 0 2597.0 -0.04294743848372147 1
gene  1 20 44 -0.08195848894980318 0 2599.0 -0.08195848894980318 1
gene  1 21 44 0.3547818755761419 0 2600.0 0.3547818755761419 1
gene  1 23 44 0.6518120777419405 0 2602.0 0.6518120777419405 1
gene  1 25 44 0.2433029928473749 0 2604.0 0.2433029928473749 1
gene  1 27 44 -0.18161870732417223 0 2606.0 -0.18161870732417223 1
gene  1 31 44 1.073254302089855 0 2610.0 1.073254302089855 1
gene  1 38 44 -0.1399005013482001 0 2617.0 -0.1399005013482001 1
gene  1 39 44 -0.10702178857834009 0 2618.0 -0.10702178857834009 1
gene  1 44 44 0.030637798423740783 1 2623.0 0.030637798423740783 1
gene  1 45 44 -1.4415680415894807 1 2624.0 -1.4415680415894807 1
gene  1 46 44 0.5164206787539776 1 2625.0 0.5164206787539776 1
gene  1 47 44 -0.4970435652277191 1 2626.0 -0.4970435652277191 1
gene  1 51 44 -2.0396914156128636 1 2630.0 -2.0396914156128636 1
gene  1 52 44 -0.6233604077551674 1 2631.0 -0.6233604077551674 1
gene  1 54 44 -0.0016883771104442419 1 2633.0 -0.0016883771104442419 0
gene  1 55 44 -1.6600422469562528 1 2634.0 -1.6600422469562528 1
gene  1 56 44 1.964528334050255 1 2635.0 1.964528334050255 1
gene  1 1 45 0.10922029407807828 0 2640.0 0.10922029407807828 1
gene  1 3 45 -0.09327558150181967 0 2642.0 -0.09327558150181967 1
gene  1 4 45 -0.3828043297794481 0 2643.0 -0.3828043297794481 0
gene  1 5 45 0.29094950290857086 0 2644.0 0.29094950290857086 1
gene  1 7 45 3.470221638845713 0 2646.0 3.470221638845713 1
gene  1 10 45 -0.06649488928826867 0 2649.0 -0.06649488928826867 1
gene  1 12 45 -0.07152102385575738 0 2651.0 -0.07152102385575738 1
gene  1 15 45 -0.0729333263287994 0 2654.0 -0.0729333263287994 1
gene  1 16 45 0.6278026762730322 0 2655.0 0.6278026762730322 1
gene  1 17 45 -1.6766780496133753 0 2656.0 -1.6766780496133753 1
gene  1 19 45 0.2073519261093498 0 2658.0 0.2073519261093498 1
gene  1 20 45 0.6040337464752511 0 2659.0 0.6040337464752511 1
gene  1 21 45 -0.49164037322737286 0 2660.0 -0.49164037322737286 1
gene  1 22 45 0.370836827645487 0 2661.0 0.370836827645487 1
gene  1 24 45 -0.044270974916743186 0 2663.0 -0.044270974916743186 1
gene  1 27 45 -1.226333971905773 0 2666.0 -1.226333971905773 1
gene  1 30 45 -0.21789678112339336 0 2669.0 -0.21789678112339336 1
gene  1 32 45 -0.7591336138129973 0 2671.0 -0.7591336138129973 1
gene  1 34 45 0.48003069542492105 0 2673.0 0.48003069542492105 1
gene  1 35 45 1.4062854151761863 0 2674.0 1.4062854151761863 1
gene  1 38 45 0.6866971333093377 0 2677.0 0.6866971333093377 1
gene  1 44 45 -0.7431030197966868 0 2683.0 -0.7431030197966868 1
gene  1 46 45 0.5993663544549178 1 2685.0 0.5993663544549178 1
gene  1 47 45 -0.10948383573970864 1 2686.0 -0.10948383573970864 1
gene  1 51 45 -0.4378033060137094 1 2690.0 -0.4378033060137094 1
gene  1 52 45 0.31387473897016616 1 2691.0 0.31387473897016616 0
gene  1 53 45 0.8714518892165606 1 2692.0 0.8714518892165606 1
gene  1 54 45 0.789196937681487 1 2693.0 0.789196937681487 1
gene  1 55 45 -0.16477163274743284 1 2694.0 -0.16477163274743284 1
gene  1 58 45 1.3727512464088731 1 2697.0 1.3727512464088731 1
gene  1 60 45 0.05787050882602403 1 2699.0 0.05787050882602403 1
gene  1 2 46 0.7374105179752426 0 2701.0 0.7374105179752426 1
gene  1 3 46 -1.0684644753580959 0 2702.0 -1.0684644753580959 1
gene  1 5 46 -0.14474319879525832 0 2704.0 -0.14474319879525832 1
gene  1 11 46 -0.19997759683218014 0 2710.0 -0.19997759683218014 1
gene  1 13 46 0.48404807144174417 0 2712.0 0.48404807144174417 1
gene  1 17 46 -0.014677481495113928 0 2716.0 -0.014677481495113928 1
gene  1 18 46 -0.08074731431604708 0 2717.0 -0.08074731431604708 1
gene  1 21 46 1.0640398662433608 0 2720.0 1.0640398662433608 1
gene  1 22 46 -0.2835505550849885 0 2721.0 -0.2835505550849885 1
gene  1 23 46 1.4579333235237069 0 2722.0 1.4579333235237069 1
gene  1 24 46 1.2862470693006727 0 2723.0 1.2862470693006727 1
gene  1 26 46 0.04186996560768159 0 2725.0 0.04186996560768159 1
gene  1 27 46 0.22804615908383152 0 2726.0 0.22804615908383152 1
gene  1 28 46 0.0018764832671266168 0 2727.0 0.0018764832671266168 1
gene  1 32 46 0.3365418264007579 0 2731.0 0.3365418264007579 1
gene  1 33 46 -0.7901632724623191 0 2732.0 -0.7901632724623191 1
gene  1 35 46 -1.0292966593047426 0 2734.0 -1.0292966593047426 1
gene  1 36 46 0.5961768549269564 0 2735.0 0.5961768549269564 1
gene  1 41 46 -0.43925548752682736 0 2740.0 -0.43925548752682736 1
gene  1 44 46 0.032372779330921 0 2743.0 0.032372779330921 1
gene  1 47 46 0.4273018308193461 1 2746.0 0.4273018308193461 1
gene  1 52 46 0.07265469934150816 1 2751.0 0.07265469934150816 1
gene  1 53 46 0.052194388405390556 1 2752.0 0.052194388405390556 1
gene  1 54 46 0.23328277885726484 1 2753.0 0.23328277885726484 1
gene  1 57 46 -0.015666270204078285 1 2756.0 -0.015666270204078285 1
gene  1 58 46 0.47942325634798044 1 2757.0 0.47942325634798044 1
gene  1 60 46 0.9387590716758456 1 2759.0 0.9387590716758456 1
gene  1 1 47 0.8274484359416379 0 2760.0 0.8274484359416379 1
gene  1 3 47 0.5143297643623655 0 2762.0 0.5143297643623655 1
gene  1 4 47 0.013916684833617264 0 2763.0 0.013916684833617264 1
gene  1 5 47 0.4697797685415349 0 2764.0 0.4697797685415349 1
gene  1 10 47 0.057105115476395234 0 2769.0 0.057105115476395234 1
gene  1 14 47 0.15311773483863278 0 2773.0 0.15311773483863278 1
gene  1 15 47 -0.12713559223164697 0 2774.0 -0.12713559223164697 1
gene  1 17 47 3.0528237824584536 0 2776.0 3.0528237824584536 1
gene  1 19 47 -0.4947244605820358 0 2778.0 -0.4947244605820358 1
gene  1 20 47 -0.9569093213065212 0 2779.0 -0.9569093213065212 1
gene  1 21 47 -0.15377253858487389 0 2780.0 -0.15377253858487389 1
gene  1 22 47 0.04102498657517043 0 2781.0 0.04102498657517043 1
gene  1 23 47 0.9176857084087552 0 2782.0 0.9176857084087552 1
gene  1 24 47 -0.14491795855706924 0 2783.0 -0.14491795855706924 1
gene  1 25 47 0.7664569358471676 0 2784.0 0.7664569358471676 1
gene  1 26 47 -1.5362045819694696 0 2785.0 -1.5362045819694696 1
gene  1 27 47 -0.33191862743815126 0 2786.0 -0.33191862743815126 1
gene  1 30 47 -0.6054159867830831 0 2789.0 -0.6054159867830831 1
gene  1 32 47 0.2526787120532634 0 2791.0 0.2526787120532634 1
gene  1 37 47 -0.11370680443979322 0 2796.0 -0.11370680443979322 1
gene  1 41 47 -0.1482476821940357 0 2800.0 -0.1482476821940357 1
gene  1 45 47 -0.7561998548333723 0 2804.0 -0.7561998548333723 1
gene  1 46 47 -0.8181729214609306 0 2805.0 -0.8181729214609306 1
gene  1 47 47 -1.5627816985418694 1 2806.0 -1.5627816985418694 1
gene  1 52 47 0.05499969092909707 1 2811.0 0.05499969092909707 1
gene  1 54 47 0.32302540992419554 1 2813.0 0.32302540992419554 1
gene  1 55 47 0.013203784152256856 1 2814.0 0.013203784152256856 1
gene  1 58 47 1.3175522021376675 1 2817.0 1.3175522021376675 1
gene  1 59 47 0.6256594195416295 1 2818.0 0.6256594195416295 1
gene  1 60 47 -1.73052997072764 1 2819.0 -1.73052997072764 1
gene  1 2 51 1.2044982122757695 0 3001.0 1.2044982122757695 1
gene  1 4 51 -1.1156573879065124 0 3003.0 -1.1156573879065124 1
gene  1 7 51 0.06266247256782954 0 3006.0 0.06266247256782954 1
gene  1 8 51 0.0670965796300863 0 3007.0 0.0670965796300863 1
gene  1 9 51 0.7119200622343141 0 3008.0 0.7119200622343141 1
gene  1 15 51 0.07750997374989405 0 3014.0 0.07750997374989405 1
gene  1 16 51 -0.3769899907646201 0 3015.0 -0.3769899907646201 1
gene  1 17 51 0.5354991001263363 0 3016.0 0.5354991001263363 1
gene  1 18 51 0.1850415145656072 0 3017.0 0.1850415145656072 1
gene  1 21 51 -0.6776893410539048 0 3020.0 -0.6776893410539048 1
gene  1 26 51 -0.09646930884083242 0 3025.0 -0.09646930884083242 1
gene  1 28 51 -0.941948428226577 0 3027.0 -0.941948428226577 1
gene  1 29 51 0.40495522119621047 0 3028.0 0.40495522119621047 1
gene  1 30 51 0.31554973830291094 0 3029.0 0.31554973830291094 1
gene  1 32 51 -0.30675010383299983 0 3031.0 -0.30675010383299983 1
gene  1 33 51 -0.20333686380807325 0 3032.0 -0.20333686380807325 1
gene  1 35 51 0.1092053325103053 0 3034.0 0.1092053325103053 1
gene  1 36 51 -0.6838784806909073 0 3035.0 -0.6838784806909073 1
gene  1 39 51 0.09756109998313503 0 3038.0 0.09756109998313503 1
gene  1 42 51 -0.1310567357962057 0 3041.0 -0.1310567357962057 1
gene  1 44 51 0.24237053388290253 0 3043.0 0.24237053388290253 1
gene  1 51 51 1.1869636243613813 1 3050.0 1.1869636243613813 1
gene  1 53 51 -0.19604759542209718 1 3052.0 -0.19604759542209718 1
gene  1 54 51 -1.5875057709503373 1 3053.0 -1.5875057709503373 1
gene  1 55 51 0.8664320464747677 1 3054.0 0.8664320464747677 1
gene  1 56 51 0.03482732947228197 1 3055.0 0.03482732947228197 1
gene  1 58 51 -1.1959141736670424 1 3057.0 -1.1959141736670424 1
gene  1 60 51 -0.10846238410457312 1 3059.0 -0.10846238410457312 1
gene  1 1 52 0.7350052694106192 0 3060.0 0.7350052694106192 1
gene  1 2 52 0.151334695061 0 3061.0 0.151334695061 1
gene  1 3 52 -0.049179071441367454 0 3062.0 -0.049179071441367454 1
gene  1 5 52 1.4480073336117587 0 3064.0 1.4480073336117587 1
gene  1 6 52 -0.04704248926519438 0 3065.0 -0.04704248926519438 1
gene  1 9 52 0.034044483496054816 0 3068.0 0.034044483496054816 1
gene  1 10 52 -0.7792833710784947 0 3069.0 -0.7792833710784947 1
gene  1 11 52 0.10435281436160344 0 3070.0 0.10435281436160344 1
gene  1 12 52 0.4572340150702 0 3071.0 0.4572340150702 1
gene  1 13 52 -0.13813534356211207 0 3072.0 -0.13813534356211207 1
gene  1 17 52 -0.08993465165522162 0 3076.0 -0.08993465165522162 1
gene  1 19 52 0.07774144631086513 0 3078.0 0.07774144631086513 1
gene  1 23 52 0.261129016692962 0 3082.0 0.261129016692962 1
gene  1 24 52 -1.0154310598806713 0 3083.0 -1.0154310598806713 1
gene  1 25 52 0.021337622000990975 0 3084.0 0.021337622000990975 1
gene  1 26 52 0.025663145436246742 0 3085.0 0.025663145436246742 1
gene  1 34 52 -0.007661286907931213 0 3093.0 -0.007661286907931213 1
gene  1 35 52 -0.18783942149065802 0 3094.0 -0.18783942149065802 1
gene  1 38 52 -0.04559278303663322 0 3097.0 -0.04559278303663322 1
gene  1 39 52 -1.4395783822570736 0 3098.0 -1.4395783822570736 1
gene  1 41 52 0.8208588094412503 0 3100.0 0.8208588094412503 1
gene  1 42 52 -1.0858318471965274 0 3101.0 -1.0858318471965274 1
gene  1 46 52 0.11664914699417064 0 3105.0 0.11664914699417064 1
gene  1 47 52 0.12036595611769413 0 3106.0 0.12036595611769413 1
gene  1 52 52 0.22669525818332942 1 3111.0 0.22669525818332942 1
gene  1 54 52 -0.8857129676786953 1 3113.0 -0.8857129676786953 1
gene  1 55 52 0.846963426981015 1 3114.0 0.846963426981015 1
gene  1 59 52 -0.9020434235481127 1 3118.0 -0.9020434235481127 1
gene  1 60 52 -1.0555637830935356 1 3119.0 -1.0555637830935356 1
gene  1 1 53 -0.40262648689291053 0 3120.0 -0.40262648689291053 1
gene  1 2 53 1.6040025794942092 0 3121.0 1.6040025794942092 1
gene  1 3 53 0.7912493660605586 0 3122.0 0.7912493660605586 1
gene  1 4 53 1.2066279663603527 0 3123.0 1.2066279663603527 1
gene  1 5 53 -0.020817105522131223 0 3124.0 -0.020817105522131223 1
gene  1 6 53 -1.4876752877722839 0 3125.0 -1.4876752877722839 1
gene  1 7 53 0.02156319933798633 0 3126.0 0.02156319933798633 1
gene  1 8 53 -0.2750408586120855 0 3127.0 -0.2750408586120855 1
gene  1 9 53 -0.5080902541332355 0 3128.0 -0.5080902541332355 1
gene  1 11 53 1.112108146144423 0 3130.0 1.112108146144423 1
gene  1 12 53 -0.0032206142574832466 0 3131.0 -0.0032206142574832466 1
gene  1 13 53 -0.006081276629735422 0 3132.0 -0.006081276629735422 1
gene  1 16 53 1.551776438494493 0 3135.0 1.551776438494493 1
gene  1 18 53 -0.1606950580640154 0 3137.0 -0.1606950580640154 1
gene  1 19 53 0.39781537798775324 0 3138.0 0.39781537798775324 1
gene  1 20 53 -0.12295567377428819 0 3139.0 -0.12295567377428819 1
gene  1 22 53 0.0883945601152348 0 3141.0 0.0883945601152348 1
gene  1 24 53 -0.5483584727217977 0 3143.0 -0.5483584727217977 1
gene  1 25 53 -0.5682762819228873 0 3144.0 -0.5682762819228873 1
gene  1 28 53 0.07818932842450682 0 3147.0 0.07818932842450682 1
gene  1 30 53 0.4225006536217736 0 3149.0 0.4225006536217736 1
gene  1 32 53 1.0859484131571082 0 3151.0 1.0859484131571082 1
gene  1 35 53 -0.026548727343941373 0 3154.0 -0.026548727343941373 1
gene  1 37 53 -0.3950726965503008 0 3156.0 -0.3950726965503008 1
gene  1 38 53 -1.043603988805827 0 3157.0 -1.043603988805827 1
gene  1 39 53 -0.2503322346936549 0 3158.0 -0.2503322346936549 1
gene  1 42 53 0.3647232022457536 0 3161.0 0.3647232022457536 1
gene  1 43 53 -0.13465851901564427 0 3162.0 -0.13465851901564427 1
gene  1 44 53 0.07343905717635234 0 3163.0 0.07343905717635234 1
gene  1 45 53 0.37188610122021337 0 3164.0 0.37188610122021337 1
gene  1 47 53 -0.05845481122801754 0 3166.0 -0.05845481122801754 1
gene  1 55 53 0.01842336036647852 1 3174.0 0.01842336036647852 1
gene  1 56 53 0.051406857971743596 1 3175.0 0.051406857971743596 1
gene  1 2 54 -1.4118146242210399 0 3181.0 -1.4118146242210399 1
gene  1 3 54 -0.398072816365448 0 3182.0 -0.398072816365448 1
gene  1 4 54 1.5598537186101158 0 3183.0 1.5598537186101158 1
gene  1 7 54 0.31194909097644 0 3186.0 0.31194909097644 1
gene  1 9 54 -0.017646076242469652 0 3188.0 -0.017646076242469652 1
gene  1 10 54 1.1603282174868563 0 3189.0 1.1603282174868563 1
gene  1 11 54 0.7866293419418356 0 3190.0 0.7866293419418356 1
gene  1 12 54 0.446614877336155 0 3191.0 0.446614877336155 1
gene  1 13 54 0.5872110414671063 0 3192.0 0.5872110414671063 1
gene  1 15 54 0.09658954014444843 0 3194.0 0.09658954014444843 1
gene  1 16 54 0.02643938338768705 0 3195.0 0.02643938338768705 1
gene  1 18 54 -0.37155344060403767 0 3197.0 -0.37155344060403767 1
gene  1 20 54 -0.996877218141485 0 3199.0 -0.996877218141485 1
gene  1 21 54 0.7084216425988915 0 3200.0 0.7084216425988915 1
gene  1 22 54 -0.2334385472872257 0 3201.0 -0.2334385472872257 1
gene  1 23 54 0.38221227302271876 0 3202.0 0.38221227302271876 1
gene  1 24 54 0.44256096116018256 0 3203.0 0.44256096116018256 1
gene  1 25 54 -0.29423853661294685 0 3204.0 -0.29423853661294685 1
gene  1 26 54 -0.10271173146461496 0 3205.0 -0.10271173146461496 1
gene  1 27 54 -0.6056895551792938 0 3206.0 -0.6056895551792938 1
gene  1 28 54 -2.500437415085 0 3207.0 -2.500437415085 1
gene  1 29 54 0.7621877497522874 0 3208.0 0.7621877497522874 1
gene  1 31 54 0.19497861008117134 0 3210.0 0.19497861008117134 1
gene  1 34 54 0.0945445741471807 0 3213.0 0.0945445741471807 1
gene  1 35 54 -0.4605859767630863 0 3214.0 -0.4605859767630863 1
gene  1 37 54 0.15596680167952748 0 3216.0 0.15596680167952748 1
gene  1 39 54 -0.12647342922142293 0 3218.0 -0.12647342922142293 1
gene  1 43 54 0.015737117239208488 0 3222.0 0.015737117239208488 1
gene  1 47 54 -0.6144163558167268 0 3226.0 -0.6144163558167268 1
gene  1 52 54 0.9419411699861467 0 3231.0 0.9419411699861467 1
gene  1 53 54 -0.16895726827222257 0 3232.0 -0.16895726827222257 1
gene  1 54 54 1.0391183422730408 1 3233.0 1.0391183422730408 1
gene  1 55 54 -0.37578467793357906 1 3234.0 -0.37578467793357906 1
gene  1 58 54 -0.639498827291079 1 3237.0 -0.639498827291079 1
gene  1 1 55 0.27888015993503323 0 3240.0 0.27888015993503323 1
gene  1 3 55 0.09212466604283417 0 3242.0 0.09212466604283417 1
gene  1 5 55 -0.15703547862053813 0 3244.0 -0.15703547862053813 1
gene  1 6 55 0.0266773713300365 0 3245.0 0.0266773713300365 1
gene  1 7 55 -0.4444284158878662 0 3246.0 -0.4444284158878662 1
gene  1 8 55 0.07854030174404285 0 3247.0 0.07854030174404285 1
gene  1 10 55 -1.0172663684104926 0 3249.0 -1.0172663684104926 1
gene  1 12 55 -3.0255567663202276 0 3251.0 -3.0255567663202276 1
gene  1 13 55 0.7554472432892915 0 3252.0 0.7554472432892915 1
gene  1 18 55 0.02173270728360088 0 3257.0 0.02173270728360088 1
gene  1 21 55 -1.4433049025450035 0 3260.0 -1.4433049025450035 1
gene  1 22 55 0.05501334200129467 0 3261.0 0.05501334200129467 1
gene  1 23 55 0.13959709084913782 0 3262.0 0.13959709084913782 1
gene  1 27 55 0.10194581362602977 0 3266.0 0.10194581362602977 1
gene  1 32 55 1.002576639417958 0 3271.0 1.002576639417958 1
gene  1 38 55 1.5804809029795766 0 3277.0 1.5804809029795766 1
gene  1 39 55 0.03771735840055225 0 3278.0 0.03771735840055225 1
gene  1 41 55 0.4035381462459339 0 3280.0 0.4035381462459339 1
gene  1 42 55 -0.095577903517682 0 3281.0 -0.095577903517682 1
gene  1 43 55 -0.0027858108909218134 0 3282.0 -0.0027858108909218134 1
gene  1 45 55 -0.8839860562098557 0 3284.0 -0.8839860562098557 1
gene  1 47 55 0.3564618507405342 0 3286.0 0.3564618507405342 1
gene  1 55 55 0.5430313301427261 1 3294.0 0.5430313301427261 1
gene  1 59 55 0.9496779189391882 1 3298.0 0.9496779189391882 1
gene  1 2 56 -0.23779001638885205 0 3301.0 -0.23779001638885205 1
gene  1 3 56 0.38423866234684645 0 3302.0 0.38423866234684645 1
gene  1 5 56 0.14174848474763455 0 3304.0 0.14174848474763455 1
gene  1 10 56 0.926519066044786 0 3309.0 0.926519066044786 1
gene  1 11 56 -0.9254334644911517 0 3310.0 -0.9254334644911517 1
gene  1 13 56 0.04918896547963995 0 3312.0 0.04918896547963995 1
gene  1 14 56 -0.919172718678186 0 3313.0 -0.919172718678186 1
gene  1 15 56 -0.5408897575123355 0 3314.0 -0.5408897575123355 1
gene  1 17 56 -0.6389792883659023 0 3316.0 -0.6389792883659023 1
gene  1 18 56 0.15966783382831645 0 3317.0 0.15966783382831645 1
gene  1 19 56 -0.10510743397862252 0 3318.0 -0.10510743397862252 1
gene  1 22 56 -0.052331290666915366 0 3321.0 -0.052331290666915366 1
gene  1 23 56 -0.29739089981180444 0 3322.0 -0.29739089981180444 1
gene  1 24 56 -0.8183029916091897 0 3323.0 -0.8183029916091897 1
gene  1 25 56 1.3042799847355335 0 3324.0 1.3042799847355335 1
gene  1 27 56 -0.6027141367287783 0 3326.0 -0.6027141367287783 1
gene  1 28 56 -1.4184876243236408 0 3327.0 -1.4184876243236408 1
gene  1 35 56 -1.2676690607635637 0 3334.0 -1.2676690607635637 1
gene  1 38 56 -0.6270062380110235 0 3337.0 -0.6270062380110235 1
gene  1 41 56 -0.057220386599505686 0 3340.0 -0.057220386599505686 1
gene  1 42 56 0.08968919606234328 0 3341.0 0.08968919606234328 1
gene  1 44 56 0.9718128634696447 0 3343.0 0.9718128634696447 1
gene  1 46 56 -0.24205107689722205 0 3345.0 -0.24205107689722205 1
gene  1 53 56 -0.45840830165187785 0 3352.0 -0.45840830165187785 1
gene  1 54 56 0.3461687278937699 0 3353.0 0.3461687278937699 1
gene  1 55 56 -1.3260997179514507 0 3354.0 -1.3260997179514507 1
gene  1 57 56 -0.3466245426275283 1 3356.0 -0.3466245426275283 1
gene  1 58 56 0.078822509932069 1 3357.0 0.078822509932069 1
gene  1 59 56 -0.48990642712747745 1 3358.0 -0.48990642712747745 1
gene  1 60 56 -0.19248527476199417 1 3359.0 -0.19248527476199417 1
gene  1 1 57 -0.4956591396580239 0 3360.0 -0.4956591396580239 1
gene  1 3 57 0.028518077484371546 0 3362.0 0.028518077484371546 1
gene  1 4 57 0.04255745607244204 0 3363.0 0.04255745607244204 1
gene  1 5 57 -0.06843014498369346 0 3364.0 -0.06843014498369346 1
gene  1 6 57 0.30601083866982315 0 3365.0 0.30601083866982315 1
gene  1 8 57 0.007124986706172037 0 3367.0 0.007124986706172037 1
gene  1 10 57 0.469944207700043 0 3369.0 0.469944207700043 1
gene  1 11 57 0.8718216491951911 0 3370.0 0.8718216491951911 1
gene  1 12 57 -0.196513475862195 0 3371.0 -0.196513475862195 1
gene  1 16 57 0.27895680693405756 0 3375.0 0.27895680693405756 1
gene  1 20 57 -1.379127336827286 0 3379.0 -1.379127336827286 1
gene  1 22 57 0.10589276078627041 0 3381.0 0.10589276078627041 1
gene  1 24 57 -0.0911099024556014 0 3383.0 -0.0911099024556014 1
gene  1 26 57 0.5958434249359303 0 3385.0 0.5958434249359303 1
gene  1 32 57 -0.07001606610420126 0 3391.0 -0.07001606610420126 1
gene  1 34 57 -0.017280358454688866 0 3393.0 -0.017280358454688866 1
gene  1 37 57 -0.03499046152468714 0 3396.0 -0.03499046152468714 1
gene  1 38 57 0.6900270430872846 0 3397.0 0.6900270430872846 1
gene  1 40 57 0.1969235151013603 0 3399.0 0.1969235151013603 1
gene  1 41 57 -0.3693614409509833 0 3400.0 -0.3693614409509833 1
gene  1 42 57 0.20718364209887138 0 3401.0 0.20718364209887138 1
gene  1 43 57 0.04428796197878322 0 3402.0 0.04428796197878322 1
gene  1 45 57 0.4192184398944424 0 3404.0 0.4192184398944424 1
gene  1 47 57 0.08316716342125569 0 3406.0 0.08316716342125569 1
gene  1 56 57 0.5485945916548882 0 3415.0 0.5485945916548882 1
gene  1 58 57 -0.22959228211457472 1 3417.0 -0.22959228211457472 1
gene  1 59 57 0.4388080636273908 1 3418.0 0.4388080636273908 1
gene  1 60 57 2.0373162567430256 1 3419.0 2.0373162567430256 1
gene  1 1 58 0.061879196637291446 0 3420.0 0.061879196637291446 1
gene  1 2 58 -0.18948444408192078 0 3421.0 -0.18948444408192078 1
gene  1 5 58 -0.35683430241236536 0 3424.0 -0.35683430241236536 1
gene  1 8 58 0.1793363744910609 0 3427.0 0.1793363744910609 1
gene  1 11 58 -0.7242843160728968 0 3430.0 -0.7242843160728968 1
gene  1 13 58 -0.42280210495852594 0 3432.0 -0.42280210495852594 1
gene  1 14 58 0.49509700408299373 0 3433.0 0.49509700408299373 1
gene  1 15 58 1.3864070183858144 0 3434.0 1.3864070183858144 1
gene  1 17 58 -0.06019642669779322 0 3436.0 -0.06019642669779322 1
gene  1 18 58 0.560192184392005 0 3437.0 0.560192184392005 1
gene  1 19 58 -0.07018698334801486 0 3438.0 -0.07018698334801486 1
gene  1 22 58 -0.10117317009752667 0 3441.0 -0.10117317009752667 1
gene  1 25 58 -0.3618797474002339 0 3444.0 -0.3618797474002339 1
gene  1 29 58 0.03247626893336023 0 3448.0 0.03247626893336023 1
gene  1 30 58 -0.02381546841041673 0 3449.0 -0.02381546841041673 1
gene  1 32 58 0.01991292020302312 0 3451.0 0.01991292020302312 1
gene  1 33 58 0.43427638538239827 0 3452.0 0.43427638538239827 1
gene  1 34 58 0.7595155324067776 0 3453.0 0.7595155324067776 1
gene  1 36 58 0.0015976782057874686 0 3455.0 0.0015976782057874686 1
gene  1 40 58 0.5463449891648942 0 3459.0 0.5463449891648942 1
gene  1 41 58 0.08514829528535033 0 3460.0 0.08514829528535033 1
gene  1 42 58 -0.39702356246533804 0 3461.0 -0.39702356246533804 1
gene  1 45 58 2.25631846024882 0 3464.0 2.25631846024882 1
gene  1 46 58 -0.15712281003583187 0 3465.0 -0.15712281003583187 1
gene  1 52 58 0.08140164683598194 0 3471.0 0.08140164683598194 1
gene  1 56 58 -0.39357855880424175 0 3475.0 -0.39357855880424175 1
gene  1 58 58 -0.20278795116584974 1 3477.0 -0.20278795116584974 1
gene  1 59 58 -0.05439090808409898 1 3478.0 -0.05439090808409898 1
gene  1 60 58 0.0492058469828161 1 3479.0 0.0492058469828161 1
gene  1 1 59 -0.558328768854678 0 3480.0 -0.558328768854678 1
gene  1 3 59 -0.08294172398461817 0 3482.0 -0.08294172398461817 1
gene  1 4 59 0.0733366775586742 0 3483.0 0.0733366775586742 1
gene  1 5 59 -0.07940706410577185 0 3484.0 -0.07940706410577185 1
gene  1 6 59 -0.7952092301756407 0 3485.0 -0.7952092301756407 1
gene  1 7 59 0.040805500131260955 0 3486.0 0.040805500131260955 1
gene  1 8 59 -0.8667226441978788 0 3487.0 -0.8667226441978788 1
gene  1 9 59 -0.7551827080794258 0 3488.0 -0.7551827080794258 1
gene  1 11 59 0.5650375793967212 0 3490.0 0.5650375793967212 1
gene  1 12 59 -0.049763776614331165 0 3491.0 -0.049763776614331165 1
gene  1 13 59 -0.10304226786614164 0 3492.0 -0.10304226786614164 1
gene  1 14 59 -0.2607625316484916 0 3493.0 -0.2607625316484916 1
gene  1 15 59 -1.3526249667195585 0 3494.0 -1.3526249667195585 1
gene  1 17 59 0.0021278284020011806 0 3496.0 0.0021278284020011806 1
gene  1 18 59 -0.5434744600473431 0 3497.0 -0.5434744600473431 1
gene  1 21 59 -0.0029306387061576677 0 3500.0 -0.0029306387061576677 1
gene  1 22 59 1.0802646983827315 0 3501.0 1.0802646983827315 1
gene  1 23 59 0.961620507689636 0 3502.0 0.961620507689636 1
gene  1 28 59 0.33484369005351455 0 3507.0 0.33484369005351455 1
gene  1 30 59 -0.06742724223332908 0 3509.0 -0.06742724223332908 1
gene  1 33 59 -0.13520015669382252 0 3512.0 -0.13520015669382252 1
gene  1 34 59 -0.01637521365941339 0 3513.0 -0.01637521365941339 1
gene  1 35 59 0.2833565692995828 0 3514.0 0.2833565692995828 1
gene  1 37 59 0.02914715881722655 0 3516.0 0.02914715881722655 1
gene  1 38 59 -0.16555170444035577 0 3517.0 -0.16555170444035577 1
gene  1 41 59 0.2426163159531011 0 3520.0 0.2426163159531011 1
gene  1 46 59 -0.4438382403478548 0 3525.0 -0.4438382403478548 1
gene  1 47 59 0.20709056317335134 0 3526.0 0.20709056317335134 1
gene  1 51 59 -0.23951364979916703 0 3530.0 -0.23951364979916703 1
gene  1 52 59 -0.8989555996381638 0 3531.0 -0.8989555996381638 1
gene  1 54 59 0.3353306794197801 0 3533.0 0.3353306794197801 1
gene  1 55 59 0.006285454093479795 0 3534.0 0.006285454093479795 1
gene  1 56 59 0.8715503846644705 0 3535.0 0.8715503846644705 1
gene  1 1 60 3.401257601153645 0 3540.0 3.401257601153645 1
gene  1 2 60 0.7460420892738915 0 3541.0 0.7460420892738915 1
gene  1 3 60 0.4398739174586039 0 3542.0 0.4398739174586039 1
gene  1 12 60 0.008393112777134509 0 3551.0 0.008393112777134509 1
gene  1 16 60 0.38747096270293 0 3555.0 0.38747096270293 1
gene  1 18 60 0.02417614022963032 0 3557.0 0.02417614022963032 1
gene  1 20 60 0.4124102885332182 0 3559.0 0.4124102885332182 1
gene  1 22 60 -1.2125465898643029 0 3561.0 -1.2125465898643029 1
gene  1 23 60 -0.01840000884902937 0 3562.0 -0.01840000884902937 1
gene  1 24 60 0.1461010132687388 0 3563.0 0.1461010132687388 1
gene  1 25 60 -0.4832893563620263 0 3564.0 -0.4832893563620263 1
gene  1 26 60 0.2615044696820888 0 3565.0 0.2615044696820888 1
gene  1 28 60 -0.5380584892251602 0 3567.0 -0.5380584892251602 1
gene  1 32 60 -0.808139354500583 0 3571.0 -0.808139354500583 1
gene  1 33 60 -0.08997366597668485 0 3572.0 -0.08997366597668485 1
gene  1 34 60 -0.6358647876344917 0 3573.0 -0.6358647876344917 1
gene  1 36 60 1.1724695060176622 0 3575.0 1.1724695060176622 1
gene  1 39 60 1.9594258636208228 0 3578.0 1.9594258636208228 1
gene  1 41 60 0.15889834878484782 0 3580.0 0.15889834878484782 1
gene  1 51 60 0.8331629891697582 0 3590.0 0.8331629891697582 1
gene  1 52 60 0.15394830214874758 0 3591.0 0.15394830214874758 1
gene  1 53 60 -0.0062922381482429235 0 3592.0 -0.0062922381482429235 1
gene  1 54 60 0.21394806881585343 0 3593.0 0.21394806881585343 1
gene  1 55 60 0.2061383832061644 0 3594.0 0.2061383832061644 1
gene  1 57 60 0.5632552574719527 0 3596.0 0.5632552574719527 1
gene  1 58 60 1.8714422608097134 0 3597.0 1.8714422608097134 1
gene  1 18 61 0.8547985116340943 0 3598.0 0.8547985116340943 1
gene  1 61 41 -0.19640757633477263 0 3599.0 -0.19640757633477263 1
gene  1 4 62 1.1717230032576023 0 3600.0 1.1717230032576023 1
gene  1 62 45 0.09701431472896443 0 3601.0 0.09701431472896443 1
gene  1 32 63 1.0894285626775229 0 3602.0 1.0894285626775229 1
gene  1 63 36 0.7311495505418432 0 3603.0 0.7311495505418432 1
gene  1 6 64 1.3024194937051552 0 3604.0 1.3024194937051552 1
gene  1 64 42 0.6654617455980666 0 3605.0 0.6654617455980666 1
gene  1 52 65 1.3686158555953776 1 3606.0 1.3686158555953776 1
gene  1 65 45 0.06193607382141347 0 3607.0 0.06193607382141347 1
gene  1 54 66 0.11888790182873925 1 3608.0 0.11888790182873925 1
gene  1 66 44 -0.08553389804071498 0 3609.0 -0.08553389804071498 1
genomeend 0
