genomestart  0
trait 1 0.0 0.0 0.0 0.0 0.0 0.0 0.0 0.0 
node 1 1 1 1
node 2 1 1 1
node 3 1 1 1
node 4 1 1 1
node 5 1 1 1
node 6 1 1 1
node 7 1 1 1
node 8 1 1 1
node 9 1 1 1
node 10 1 1 3
node 11 1 0 0
node 12 1 0 0
node 13 1 0 0
node 14 1 0 0
node 15 1 0 0
node 16 1 0 0
node 17 1 0 0
node 18 1 0 0
node 19 1 0 0
node 20 1 0 0
node 21 1 0 0
node 22 1 0 0
node 23 1 0 0
node 24 1 0 0
node 25 1 0 0
node 26 1 0 0
node 27 1 0 0
node 28 1 0 0
node 29 1 0 0
node 30 1 0 0
node 31 1 0 0
node 32 1 0 0
node 33 1 0 0
node 34 1 0 0
node 35 1 0 0
node 36 1 0 0
node 37 1 0 0
node 38 1 0 0
node 39 1 0 0
node 40 1 0 0
node 41 1 0 0
node 51 1 0 2
node 52 1 0 2
node 53 1 0 2
node 54 1 0 2
node 55 1 0 2
node 56 1 0 2
node 57 1 0 2
node 58 1 0 2
node 59 1 0 2
node 60 1 0 2
node 61 1 0 0
node 62 1 0 0
gene  1 2 11 0.498511373816734 0 601.0 0.498511373816734 1
gene  1 3 11 -0.5578647019048595 0 602.0 -0.5578647019048595 1
gene  1 5 11 0.1669440030299741 0 604.0 0.1669440030299741 1
gene  1 6 11 0.5085285843250295 0 605.0 0.5085285843250295 1
gene  1 7 11 -0.38553513594131894 0 606.0 -0.38553513594131894 1
gene  1 8 11 0.6995540452541462 0 607.0 0.6995540452541462 1
gene  1 9 11 0.5969854263010664 0 608.0 0.5969854263010664 1
gene  1 12 11 0.30483571240086127 1 611.0 0.30483571240086127 1
gene  1 15 11 -0.19039249103281794 1 614.0 -0.19039249103281794 1
gene  1 17 11 -0.5713861224725829 1 616.0 -0.5713861224725829 1
gene  1 18 11 0.14994500941044653 1 617.0 0.14994500941044653 1
gene  1 22 11 0.0945362227323305 1 621.0 0.0945362227323305 1
gene  1 23 11 0.8215591654391373 1 622.0 0.8215591654391373 1
gene  1 25 11 0.5284178549854734 1 624.0 0.5284178549854734 1
gene  1 26 11 0.8831211070889207 1 625.0 0.8831211070889207 1
gene  1 27 11 0.9963042460566669 1 626.0 0.9963042460566669 1
gene  1 29 11 0.9757852661996966 1 628.0 0.9757852661996966 1
gene  1 31 11 -0.6829547551471623 1 630.0 -0.6829547551471623 1
gene  1 32 11 0.30248757886050465 1 631.0 0.30248757886050465 1
gene  1 35 11 -0.19858234279045073 1 634.0 -0.19858234279045073 1
gene  1 39 11 -0.024613808466148884 1 638.0 -0.024613808466148884 1
gene  1 40 11 0.6644904956638727 1 639.0 0.6644904956638727 1
gene  1 41 11 -0.09724112470441205 1 640.0 -0.09724112470441205 1
gene  1 51 11 0.019849810128954305 1 650.0 0.019849810128954305 1
gene  1 52 11 -0.4677584273712947 1 651.0 -0.4677584273712947 1
gene  1 53 11 0.29231032767312315 1 652.0 0.29231032767312315 1
gene  1 55 11 -0.5845568817435316 1 654.0 -0.5845568817435316 1
gene  1 56 11 -0.2958823961755592 1 655.0 -0.2958823961755592 1
gene  1 57 11 -0.9606388767616538 1 656.0 -0.9606388767616538 1
gene  1 58 11 -0.45713286856204266 1 657.0 -0.45713286856204266 1
gene  1 59 11 0.820935821019273 1 658.0 0.820935821019273 1
gene  1 60 11 -0.024927673839841152 1 659.0 -0.024927673839841152 1
gene  1 1 12 -0.10965760945353697 0 660.0 -0.10965760945353697 1
gene  1 2 12 -0.12901344258507091 0 661.0 -0.12901344258507091 1
gene  1 3 12 -0.10948774037395628 0 662.0 -0.10948774037395628 1
gene  1 4 12 -0.005215032083995541 0 663.0 -0.005215032083995541 1
gene  1 5 12 0.8555904017198933 0 664.0 0.8555904017198933 1
gene  1 6 12 0.7136106888833106 0 665.0 0.7136106888833106 1
gene  1 8 12 -0.1918411307747139 0 667.0 -0.1918411307747139 1
gene  1 10 12 -0.5864084120104374 0 669.0 -0.5864084120104374 1
gene  1 11 12 0.16086559263108072 0 670.0 0.16086559263108072 1
gene  1 13 12 -0.020091804436000796 1 672.0 -0.020091804436000796 1
gene  1 15 12 -0.15794189492928995 1 674.0 -0.15794189492928995 1
gene  1 17 12 -0.8928892274179205 1 676.0 -0.8928892274179205 1
gene  1 18 12 0.805235962448145 1 677.0 0.805235962448145 1
gene  1 19 12 0.03153860175383254 1 678.0 0.03153860175383254 1
gene  1 20 12 0.7873147162059284 1 679.0 0.7873147162059284 1
gene  1 22 12 0.2718683215734833 1 681.0 0.2718683215734833 1
gene  1 28 12 -0.8360533413056959 1 687.0 -0.8360533413056959 1
gene  1 29 12 -0.07706378376424915 1 688.0 -0.07706378376424915 1
gene  1 34 12 1.0633757882690318 1 693.0 1.0633757882690318 1
gene  1 35 12 -0.7204004905005882 1 694.0 -0.7204004905005882 1
gene  1 37 12 0.19105599311244656 1 696.0 0.19105599311244656 1
gene  1 39 12 0.008895908194533675 1 698.0 0.008895908194533675 1
gene  1 40 12 -0.5181723944938355 1 699.0 -0.5181723944938355 1
gene  1 51 12 -0.03495389300369968 1 710.0 -0.03495389300369968 1
gene  1 53 12 -0.8888771969855719 1 712.0 -0.8888771969855719 1
gene  1 54 12 0.06272217487286237 1 713.0 0.06272217487286237 1
gene  1 56 12 -0.13409716328932333 1 715.0 -0.13409716328932333 1
gene  1 58 12 -0.5345772771429881 1 717.0 -0.5345772771429881 1
gene  1 1 13 0.9159724857064522 0 720.0 0.9159724857064522 1
gene  1 4 13 0.062461666143129924 0 723.0 0.062461666143129924 1
gene  1 5 13 0.13871738682753504 0 724.0 0.13871738682753504 1
gene  1 7 13 0.1771358691085398 0 726.0 0.1771358691085398 1
gene  1 8 13 0.7756755035297115 0 727.0 0.7756755035297115 1
gene  1 9 13 -0.056860039802121835 0 728.0 -0.056860039802121835 1
gene  1 10 13 -1.0136573666451976 0 729.0 -1.0136573666451976 1
gene  1 11 13 -0.20737476004918426 0 730.0 -0.20737476004918426 1
gene  1 13 13 0.9785424748392147 1 732.0 0.9785424748392147 1
gene  1 14 13 0.44576263805677807 1 733.0 0.44576263805677807 1
gene  1 17 13 0.13559386546371432 1 736.0 0.13559386546371432 1
gene  1 19 13 0.811017683927047 1 738.0 0.811017683927047 1
gene  1 20 13 0.8066242723856918 1 739.0 0.8066242723856918 1
gene  1 21 13 0.17600835152727048 1 740.0 0.17600835152727048 1
gene  1 22 13 0.7953567817058597 1 741.0 0.7953567817058597 1
gene  1 24 13 0.7764262595864204 1 743.0 0.7764262595864204 1
gene  1 31 13 0.8064829389049063 1 750.0 0.8064829389049063 1
gene  1 33 13 -0.04322104478603388 1 752.0 -0.04322104478603388 1
gene  1 37 13 0.3081481681387489 1 756.0 0.3081481681387489 1
gene  1 38 13 -0.37974008158768646 1 757.0 -0.37974008158768646 1
gene  1 39 13 0.11767443137233727 1 758.0 0.11767443137233727 1
gene  1 40 13 -0.2607438687874641 1 759.0 -0.2607438687874641 1
gene  1 41 13 0.34791799991645034 1 760.0 0.34791799991645034 1
gene  1 53 13 -0.7834428017622493 1 772.0 -0.7834428017622493 1
gene  1 54 13 -0.17328938645217729 1 773.0 -0.17328938645217729 1
gene  1 56 13 0.8679990877733235 1 775.0 0.8679990877733235 1
gene  1 57 13 -0.35322602503237216 1 776.0 -0.35322602503237216 1
gene  1 58 13 0.16862035676312245 1 777.0 0.16862035676312245 1
gene  1 3 14 -0.4976270209682243 0 782.0 -0.4976270209682243 1
gene  1 6 14 0.17608456814017337 0 785.0 0.17608456814017337 1
gene  1 7 14 0.07335749771289146 0 786.0 0.07335749771289146 1
gene  1 9 14 -0.6882967961873067 0 788.0 -0.6882967961873067 1
gene  1 10 14 -0.7643388571986021 0 789.0 -0.7643388571986021 1
gene  1 11 14 -0.7656006683883936 0 790.0 -0.7656006683883936 1
gene  1 12 14 0.9368035652325548 0 791.0 0.9368035652325548 1
gene  1 15 14 0.8604196925179506 1 794.0 0.8604196925179506 1
gene  1 17 14 0.34113060029464287 1 796.0 0.34113060029464287 1
gene  1 19 14 -0.7369454151135064 1 798.0 -0.7369454151135064 1
gene  1 24 14 0.11989929947802523 1 803.0 0.11989929947802523 1
gene  1 25 14 0.9511082695898443 1 804.0 0.9511082695898443 1
gene  1 26 14 -0.4960594401761508 1 805.0 -0.4960594401761508 1
gene  1 30 14 0.511100139438902 1 809.0 0.511100139438902 1
gene  1 31 14 -0.736919984765291 1 810.0 -0.736919984765291 1
gene  1 33 14 0.2644060926096019 1 812.0 0.2644060926096019 1
gene  1 37 14 0.6268357318964459 1 816.0 0.6268357318964459 1
gene  1 40 14 0.9875487028406889 1 819.0 0.9875487028406889 1
gene  1 51 14 0.032223419918158414 1 830.0 0.032223419918158414 1
gene  1 59 14 0.8503533702777526 1 838.0 0.8503533702777526 1
gene  1 6 15 1.0928093415437135 0 845.0 1.0928093415437135 1
gene  1 9 15 1.1362272110142957 0 848.0 1.1362272110142957 1
gene  1 10 15 -0.8595080449138705 0 849.0 -0.8595080449138705 1
gene  1 12 15 0.16334473962422769 0 851.0 0.16334473962422769 1
gene  1 14 15 -0.6483740609464957 0 853.0 -0.6483740609464957 1
gene  1 17 15 -0.4339710065775649 1 856.0 -0.4339710065775649 1
gene  1 24 15 0.19110525567730358 1 863.0 0.19110525567730358 1
gene  1 25 15 0.08240491580745304 1 864.0 0.08240491580745304 1
gene  1 27 15 0.0646962929302928 1 866.0 0.0646962929302928 1
gene  1 28 15 -0.12264554771602851 1 867.0 -0.12264554771602851 1
gene  1 29 15 0.9714628826705143 1 868.0 0.9714628826705143 1
gene  1 30 15 0.6679047555332469 1 869.0 0.6679047555332469 1
gene  1 31 15 -0.8138206187110615 1 870.0 -0.8138206187110615 1
gene  1 32 15 0.16225163817743607 1 871.0 0.16225163817743607 1
gene  1 33 15 -0.038675433756255775 1 872.0 -0.038675433756255775 1
gene  1 34 15 -0.1248065915536044 1 873.0 -0.1248065915536044 1
gene  1 37 15 0.7929133049344889 1 876.0 0.7929133049344889 1
gene  1 38 15 0.518916266950281 1 877.0 0.518916266950281 1
gene  1 39 15 0.5785818620029697 1 878.0 0.5785818620029697 1
gene  1 40 15 -0.793414213659309 1 879.0 -0.793414213659309 1
gene  1 41 15 0.27690281565798736 1 880.0 0.27690281565798736 1
gene  1 51 15 -0.9287405000445695 1 890.0 -0.9287405000445695 1
gene  1 52 15 0.9403881277073505 1 891.0 0.9403881277073505 1
gene  1 53 15 0.42441735227373795 1 892.0 0.42441735227373795 1
gene  1 56 15 -0.23278479456539158 1 895.0 -0.23278479456539158 1
gene  1 57 15 -0.020015208063154405 1 896.0 -0.020015208063154405 1
gene  1 58 15 0.3416096925561875 1 897.0 0.3416096925561875 1
gene  1 59 15 0.13770887483243133 1 898.0 0.13770887483243133 1
gene  1 1 16 0.5161281371320201 0 900.0 0.5161281371320201 1
gene  1 2 16 -0.1157886205210289 0 901.0 -0.1157886205210289 1
gene  1 3 16 -0.10824838602378672 0 902.0 -0.10824838602378672 1
gene  1 8 16 -0.10709159807571987 0 907.0 -0.10709159807571987 1
gene  1 11 16 -0.44696878393867284 0 910.0 -0.44696878393867284 1
gene  1 12 16 0.07133077407086541 0 911.0 0.07133077407086541 1
gene  1 14 16 1.1381969212901966 0 913.0 1.1381969212901966 1
gene  1 15 16 -0.46881073219180985 0 914.0 -0.46881073219180985 1
gene  1 16 16 0.13489812206244622 1 915.0 0.13489812206244622 1
gene  1 17 16 -0.2453561926621602 1 916.0 -0.2453561926621602 1
gene  1 27 16 -0.4844758312170065 1 926.0 -0.4844758312170065 1
gene  1 28 16 0.3357840201358291 1 927.0 0.3357840201358291 1
gene  1 29 16 -0.18682954172581695 1 928.0 -0.18682954172581695 1
gene  1 32 16 0.04687477405441866 1 931.0 0.04687477405441866 1
gene  1 33 16 -0.07175762255638403 1 932.0 -0.07175762255638403 1
gene  1 34 16 -0.008143337629434226 1 933.0 -0.008143337629434226 1
gene  1 35 16 -0.02474842354119923 1 934.0 -0.02474842354119923 1
gene  1 36 16 0.2875455264458836 1 935.0 0.2875455264458836 1
gene  1 37 16 0.04321616098365916 1 936.0 0.04321616098365916 1
gene  1 38 16 0.15536209118014685 1 937.0 0.15536209118014685 1
gene  1 40 16 -0.09805599356222644 1 939.0 -0.09805599356222644 1
gene  1 52 16 -0.8469430786053791 1 951.0 -0.8469430786053791 1
gene  1 54 16 -0.99251554784042 1 953.0 -0.99251554784042 1
gene  1 56 16 0.21806621676447488 1 955.0 0.21806621676447488 1
gene  1 57 16 0.039101525972368975 1 956.0 0.039101525972368975 1
gene  1 58 16 -0.4106298100285077 1 957.0 -0.4106298100285077 1
gene  1 60 16 0.22252238550530365 1 959.0 0.22252238550530365 1
gene  1 1 17 0.7051958879341046 0 960.0 0.7051958879341046 1
gene  1 2 17 -0.12990383953637935 0 961.0 -0.12990383953637935 1
gene  1 3 17 0.1625452735838506 0 962.0 0.1625452735838506 1
gene  1 4 17 0.3526733907230206 0 963.0 0.3526733907230206 1
gene  1 5 17 0.028097504414027776 0 964.0 0.028097504414027776 1
gene  1 6 17 0.16787951207484542 0 965.0 0.16787951207484542 1
gene  1 11 17 -1.0477292626584231 0 970.0 -1.0477292626584231 1
gene  1 16 17 0.038554892174204575 0 975.0 0.038554892174204575 1
gene  1 18 17 -0.1195410390301103 1 977.0 -0.1195410390301103 1
gene  1 19 17 -0.7577785831025903 1 978.0 -0.7577785831025903 1
gene  1 20 17 0.31180706501607325 1 979.0 0.31180706501607325 1
gene  1 22 17 -0.08664194738002459 1 981.0 -0.08664194738002459 1
gene  1 23 17 0.9403736523785435 1 982.0 0.9403736523785435 1
gene  1 24 17 -0.04584171017309746 1 983.0 -0.04584171017309746 1
gene  1 25 17 0.6587532669311249 1 984.0 0.6587532669311249 1
gene  1 26 17 0.03975804652155282 1 985.0 0.03975804652155282 1
gene  1 28 17 0.7775940371127535 1 987.0 0.7775940371127535 1
gene  1 32 17 -0.5400417770866713 1 991.0 -0.5400417770866713 1
gene  1 34 17 -0.6760958423805832 1 993.0 -0.6760958423805832 1
gene  1 36 17 -0.3537390806081763 1 995.0 -0.3537390806081763 1
gene  1 39 17 -0.013895060122771849 1 998.0 -0.013895060122771849 1
gene  1 40 17 0.25781724461186156 1 999.0 0.25781724461186156 1
gene  1 41 17 0.19604355386726396 1 1000.0 0.19604355386726396 1
gene  1 53 17 -0.6267183511433599 1 1012.0 -0.6267183511433599 1
gene  1 54 17 -0.13032813464216036 1 1013.0 -0.13032813464216036 1
gene  1 55 17 0.3025100886549563 1 1014.0 0.3025100886549563 1
gene  1 56 17 -0.5862901181261867 1 1015.0 -0.5862901181261867 1
gene  1 57 17 -0.11293383064546214 1 1016.0 -0.11293383064546214 1
gene  1 58 17 0.9024499127673794 1 1017.0 0.9024499127673794 1
gene  1 1 18 0.12983208908417998 0 1020.0 0.12983208908417998 1
gene  1 5 18 0.2780456738130206 0 1024.0 0.2780456738130206 1
gene  1 10 18 -0.1386948736619997 0 1029.0 -0.1386948736619997 1
gene  1 12 18 0.005578371458347726 0 1031.0 0.005578371458347726 1
gene  1 14 18 -0.6860082369478367 0 1033.0 -0.6860082369478367 1
gene  1 15 18 -0.1196228329864331 0 1034.0 -0.1196228329864331 1
gene  1 17 18 0.8928736375315905 0 1036.0 0.8928736375315905 1
gene  1 23 18 -0.07710868004143738 1 1042.0 -0.07710868004143738 1
gene  1 24 18 0.5520197147913101 1 1043.0 0.5520197147913101 1
gene  1 25 18 0.8036334388967457 1 1044.0 0.8036334388967457 1
gene  1 26 18 -0.23827245886084092 1 1045.0 -0.23827245886084092 1
gene  1 27 18 -0.2987082092450756 1 1046.0 -0.2987082092450756 1
gene  1 30 18 0.5230887713207996 1 1049.0 0.5230887713207996 1
gene  1 31 18 -1.029005763158518 1 1050.0 -1.029005763158518 1
gene  1 32 18 -0.32633976580672197 1 1051.0 -0.32633976580672197 1
gene  1 33 18 -0.13815269393004798 1 1052.0 -0.13815269393004798 1
gene  1 34 18 0.9985006902754117 1 1053.0 0.9985006902754117 1
gene  1 35 18 -0.20080535734200308 1 1054.0 -0.20080535734200308 1
gene  1 38 18 0.2965567402390176 1 1057.0 0.2965567402390176 1
gene  1 51 18 -0.5849278073660752 1 1070.0 -0.5849278073660752 1
gene  1 52 18 0.43624207230643697 1 1071.0 0.43624207230643697 1
gene  1 55 18 0.4455316918526901 1 1074.0 0.4455316918526901 1
gene  1 56 18 0.2643921357150105 1 1075.0 0.2643921357150105 1
gene  1 1 19 -0.1546560412474729 0 1080.0 -0.1546560412474729 1
gene  1 3 19 0.9489324595905182 0 1082.0 0.9489324595905182 1
gene  1 4 19 -0.8212937246251518 0 1083.0 -0.8212937246251518 1
gene  1 6 19 -0.006543164295197745 0 1085.0 -0.006543164295197745 1
gene  1 7 19 -0.19275929896384414 0 1086.0 -0.19275929896384414 1
gene  1 8 19 0.5177982848323289 0 1087.0 0.5177982848323289 1
gene  1 9 19 -0.166925446121924 0 1088.0 -0.166925446121924 1
gene  1 10 19 -0.12854935951804683 0 1089.0 -0.12854935951804683 1
gene  1 12 19 -7.871343041250921E-4 0 1091.0 -7.871343041250921E-4 1
gene  1 13 19 -0.3295869443261746 0 1092.0 -0.3295869443261746 1
gene  1 15 19 -0.6019445785445775 0 1094.0 -0.6019445785445775 1
gene  1 16 19 -0.9667258836337682 0 1095.0 -0.9667258836337682 1
gene  1 19 19 0.15136358559397095 1 1098.0 0.15136358559397095 1
gene  1 23 19 0.13543156976090542 1 1102.0 0.13543156976090542 1
gene  1 27 19 -0.6798552487221776 1 1106.0 -0.6798552487221776 1
gene  1 29 19 0.09789978927344152 1 1108.0 0.09789978927344152 1
gene  1 30 19 0.36673007299430016 1 1109.0 0.36673007299430016 1
gene  1 33 19 0.08055300658938397 1 1112.0 0.08055300658938397 1
gene  1 38 19 -0.3393173662469558 1 1117.0 -0.3393173662469558 1
gene  1 52 19 1.021607149586086 1 1131.0 1.021607149586086 1
gene  1 53 19 0.7722610543348036 1 1132.0 0.7722610543348036 1
gene  1 54 19 0.7413136520080604 1 1133.0 0.7413136520080604 1
gene  1 56 19 0.09641294807495651 1 1135.0 0.09641294807495651 1
gene  1 57 19 0.8695932054708893 1 1136.0 0.8695932054708893 1
gene  1 60 19 -0.6088933208715397 1 1139.0 -0.6088933208715397 1
gene  1 1 20 0.8150204055348083 0 1140.0 0.8150204055348083 1
gene  1 7 20 -0.25366287838264745 0 1146.0 -0.25366287838264745 1
gene  1 8 20 0.21684589794368675 0 1147.0 0.21684589794368675 1
gene  1 9 20 0.10547281633648764 0 1148.0 0.10547281633648764 1
gene  1 15 20 0.25526565866132683 0 1154.0 0.25526565866132683 1
gene  1 19 20 0.44212368533568536 0 1158.0 0.44212368533568536 1
gene  1 20 20 -0.08664129348237107 1 1159.0 -0.08664129348237107 1
gene  1 21 20 0.32380666091688687 1 1160.0 0.32380666091688687 1
gene  1 22 20 0.14946741830685548 1 1161.0 0.14946741830685548 1
gene  1 23 20 -0.8045796609538961 1 1162.0 -0.8045796609538961 1
gene  1 24 20 0.06105814602924273 1 1163.0 0.06105814602924273 1
gene  1 25 20 -0.6805422494922225 1 1164.0 -0.6805422494922225 1
gene  1 26 20 -0.23404063176901252 1 1165.0 -0.23404063176901252 1
gene  1 30 20 -0.5957048185993723 1 1169.0 -0.5957048185993723 1
gene  1 33 20 -0.0034506425006233937 1 1172.0 -0.0034506425006233937 1
gene  1 36 20 -0.6440520261123833 1 1175.0 -0.6440520261123833 1
gene  1 37 20 -0.324652276340083 1 1176.0 -0.324652276340083 1
gene  1 38 20 -0.6754573545814251 1 1177.0 -0.6754573545814251 1
gene  1 39 20 0.7793043258135871 1 1178.0 0.7793043258135871 1
gene  1 54 20 -0.14543449731365726 1 1193.0 -0.14543449731365726 1
gene  1 55 20 -0.5158020896030593 1 1194.0 -0.5158020896030593 1
gene  1 3 21 -0.7169711354569506 0 1202.0 -0.7169711354569506 1
gene  1 5 21 0.368383368914756 0 1204.0 0.368383368914756 1
gene  1 6 21 0.220985363844395 0 1205.0 0.220985363844395 1
gene  1 7 21 0.23439856495537256 0 1206.0 0.23439856495537256 1
gene  1 9 21 -0.8960132816402038 0 1208.0 -0.8960132816402038 1
gene  1 14 21 0.08460058767204373 0 1213.0 0.08460058767204373 1
gene  1 16 21 -0.07013691566082772 0 1215.0 -0.07013691566082772 1
gene  1 19 21 -0.1914376561184032 0 1218.0 -0.1914376561184032 1
gene  1 20 21 -0.07697747677770281 0 1219.0 -0.07697747677770281 1
gene  1 21 21 0.14313485730920567 1 1220.0 0.14313485730920567 1
gene  1 22 21 0.5136840680378238 1 1221.0 0.5136840680378238 1
gene  1 23 21 -0.765181564534239 1 1222.0 -0.765181564534239 1
gene  1 24 21 0.012347690275849725 1 1223.0 0.012347690275849725 1
gene  1 27 21 -0.6647429487521247 1 1226.0 -0.6647429487521247 1
gene  1 33 21 -0.8659291124331939 1 1232.0 -0.8659291124331939 1
gene  1 37 21 -0.8528263002977186 1 1236.0 -0.8528263002977186 1
gene  1 40 21 0.7828935944087486 1 1239.0 0.7828935944087486 1
gene  1 51 21 0.7631988630562806 1 1250.0 0.7631988630562806 1
gene  1 53 21 0.2247295089767115 1 1252.0 0.2247295089767115 1
gene  1 55 21 -0.19603271163334413 1 1254.0 -0.19603271163334413 1
gene  1 56 21 0.02324932811076555 1 1255.0 0.02324932811076555 1
gene  1 57 21 0.08593405697123314 1 1256.0 0.08593405697123314 1
gene  1 58 21 -0.14656725486118144 1 1257.0 -0.14656725486118144 1
gene  1 59 21 0.7860353888608682 1 1258.0 0.7860353888608682 1
gene  1 60 21 -0.8610570493481129 1 1259.0 -0.8610570493481129 1
gene  1 2 22 -0.42687558443155554 0 1261.0 -0.42687558443155554 1
gene  1 3 22 -0.08923407371845439 0 1262.0 -0.08923407371845439 1
gene  1 4 22 0.4378242716267944 0 1263.0 0.4378242716267944 1
gene  1 5 22 -0.5819126201623621 0 1264.0 -0.5819126201623621 1
gene  1 8 22 0.20795059069007352 0 1267.0 0.20795059069007352 1
gene  1 12 22 -0.061662769183708235 0 1271.0 -0.061662769183708235 1
gene  1 15 22 -0.5427391195728913 0 1274.0 -0.5427391195728913 1
gene  1 17 22 -0.4476048537136518 0 1276.0 -0.4476048537136518 1
gene  1 18 22 0.17617030577053294 0 1277.0 0.17617030577053294 1
gene  1 21 22 -0.3850765757527131 0 1280.0 -0.3850765757527131 1
gene  1 22 22 0.11023036113507538 1 1281.0 0.11023036113507538 1
gene  1 23 22 0.044676746813197 1 1282.0 0.044676746813197 1
gene  1 25 22 0.2702212461096017 1 1284.0 0.2702212461096017 1
gene  1 27 22 -0.7786659618401668 1 1286.0 -0.7786659618401668 1
gene  1 28 22 -0.48522679814393704 1 1287.0 -0.48522679814393704 1
gene  1 30 22 -0.7967010298942214 1 1289.0 -0.7967010298942214 1
gene  1 31 22 -0.10354286298975557 1 1290.0 -0.10354286298975557 1
gene  1 33 22 0.6674441523938938 1 1292.0 0.6674441523938938 1
gene  1 35 22 -0.4179358633795142 1 1294.0 -0.4179358633795142 1
gene  1 36 22 -0.06702584666877626 1 1295.0 -0.06702584666877626 1
gene  1 37 22 0.42520977989211706 1 1296.0 0.42520977989211706 1
gene  1 39 22 0.7911700137006806 1 1298.0 0.7911700137006806 1
gene  1 51 22 -0.16203412389607583 1 1310.0 -0.16203412389607583 1
gene  1 53 22 -0.3554900519237266 1 1312.0 -0.3554900519237266 1
gene  1 54 22 0.4991986630664854 1 1313.0 0.4991986630664854 1
gene  1 55 22 0.8942579233388244 1 1314.0 0.8942579233388244 1
gene  1 56 22 -0.13122133142368272 1 1315.0 -0.13122133142368272 1
gene  1 57 22 -0.11111769641187268 1 1316.0 -0.11111769641187268 1
gene  1 60 22 0.3925191658451504 1 1319.0 0.3925191658451504 1
gene  1 2 23 0.08773857009267519 0 1321.0 0.08773857009267519 1
gene  1 4 23 0.5896247808592452 0 1323.0 0.5896247808592452 1
gene  1 5 23 0.4580164820795003 0 1324.0 0.4580164820795003 1
gene  1 6 23 -1.039474446409526 0 1325.0 -1.039474446409526 1
gene  1 7 23 -0.1609377157251333 0 1326.0 -0.1609377157251333 1
gene  1 8 23 0.1045597143471774 0 1327.0 0.1045597143471774 1
gene  1 9 23 0.13611686215184352 0 1328.0 0.13611686215184352 1
gene  1 12 23 0.15855767941515683 0 1331.0 0.15855767941515683 1
gene  1 13 23 -0.2718540196331434 0 1332.0 -0.2718540196331434 1
gene  1 15 23 0.09122267194365805 0 1334.0 0.09122267194365805 1
gene  1 16 23 1.1684002837422063 0 1335.0 1.1684002837422063 1
gene  1 18 23 0.11756460707845161 0 1337.0 0.11756460707845161 1
gene  1 20 23 -0.05015240292492363 0 1339.0 -0.05015240292492363 1
gene  1 23 23 0.8056772346618268 1 1342.0 0.8056772346618268 1
gene  1 24 23 -0.7092989933550744 1 1343.0 -0.7092989933550744 1
gene  1 25 23 0.6188353175023716 1 1344.0 0.6188353175023716 1
gene  1 27 23 0.05555715517771474 1 1346.0 0.05555715517771474 1
gene  1 28 23 -0.0996891297099523 1 1347.0 -0.0996891297099523 1
gene  1 31 23 0.7094409716117673 1 1350.0 0.7094409716117673 1
gene  1 32 23 -0.20942219146227684 1 1351.0 -0.20942219146227684 1
gene  1 33 23 0.3329125819456058 1 1352.0 0.3329125819456058 1
gene  1 34 23 0.14071996836603484 1 1353.0 0.14071996836603484 1
gene  1 35 23 -0.9757539897415056 1 1354.0 -0.9757539897415056 1
gene  1 37 23 -0.6443568230743035 1 1356.0 -0.6443568230743035 1
gene  1 41 23 0.04974898500180547 1 1360.0 0.04974898500180547 1
gene  1 51 23 0.4638147466596984 1 1370.0 0.4638147466596984 1
gene  1 52 23 -0.0526444900663077 1 1371.0 -0.0526444900663077 1
gene  1 57 23 -1.0789160280031174 1 1376.0 -1.0789160280031174 1
gene  1 2 24 -0.005985351362794458 0 1381.0 -0.005985351362794458 1
gene  1 7 24 -0.8151959863447604 0 1386.0 -0.8151959863447604 1
gene  1 8 24 -0.5416036889278885 0 1387.0 -0.5416036889278885 1
gene  1 13 24 -0.8109563558300512 0 1392.0 -0.8109563558300512 1
gene  1 16 24 0.010574177080481261 0 1395.0 0.010574177080481261 1
gene  1 17 24 0.7539391254843416 0 1396.0 0.7539391254843416 1
gene  1 19 24 -0.08440116732118769 0 1398.0 -0.08440116732118769 1
gene  1 20 24 -0.07839466658107774 0 1399.0 -0.07839466658107774 1
gene  1 21 24 -0.8960150965309074 0 1400.0 -0.8960150965309074 1
gene  1 24 24 -0.3434629893768474 1 1403.0 -0.3434629893768474 1
gene  1 27 24 -0.12444093848414303 1 1406.0 -0.12444093848414303 1
gene  1 29 24 -0.6606024922581599 1 1408.0 -0.6606024922581599 1
gene  1 30 24 0.012436661218422152 1 1409.0 0.012436661218422152 1
gene  1 32 24 -0.5041610664632691 1 1411.0 -0.5041610664632691 1
gene  1 34 24 0.08836161802769842 1 1413.0 0.08836161802769842 1
gene  1 35 24 -0.39313337232644735 1 1414.0 -0.39313337232644735 1
gene  1 37 24 -0.4654262585890593 1 1416.0 -0.4654262585890593 1
gene  1 38 24 -0.17845668620100938 1 1417.0 -0.17845668620100938 1
gene  1 39 24 -0.8100049284969941 1 1418.0 -0.8100049284969941 1
gene  1 52 24 0.07063780826313544 1 1431.0 0.07063780826313544 1
gene  1 53 24 0.03717952160426836 1 1432.0 0.03717952160426836 1
gene  1 54 24 0.7528837158311523 1 1433.0 0.7528837158311523 1
gene  1 58 24 0.12731623239703813 1 1437.0 0.12731623239703813 1
gene  1 2 25 0.6999846481009155 0 1441.0 0.6999846481009155 1
gene  1 3 25 -0.06761296624548806 0 1442.0 -0.06761296624548806 1
gene  1 4 25 0.17537930267567786 0 1443.0 0.17537930267567786 1
gene  1 5 25 0.08427514149040316 0 1444.0 0.08427514149040316 1
gene  1 6 25 -0.1991993713746135 0 1445.0 -0.1991993713746135 1
gene  1 7 25 -0.19530314020089215 0 1446.0 -0.19530314020089215 1
gene  1 9 25 -0.0613555989187233 0 1448.0 -0.0613555989187233 1
gene  1 10 25 0.41437717438934457 0 1449.0 0.41437717438934457 1
gene  1 13 25 0.7135101797568062 0 1452.0 0.7135101797568062 1
gene  1 18 25 0.05806557584976807 0 1457.0 0.05806557584976807 1
gene  1 19 25 -0.3813607383052421 0 1458.0 -0.3813607383052421 1
gene  1 26 25 -0.43997219812573735 1 1465.0 -0.43997219812573735 1
gene  1 27 25 0.12921665993311326 1 1466.0 0.12921665993311326 1
gene  1 35 25 -0.2853639729064268 1 1474.0 -0.2853639729064268 1
gene  1 37 25 0.04943250449323777 1 1476.0 0.04943250449323777 1
gene  1 38 25 0.4715204454963928 1 1477.0 0.4715204454963928 1
gene  1 39 25 -0.1806419556126666 1 1478.0 -0.1806419556126666 1
gene  1 40 25 -0.05204982852181872 1 1479.0 -0.05204982852181872 1
gene  1 51 25 -0.44397456787010897 1 1490.0 -0.44397456787010897 1
gene  1 52 25 -0.3749358779189303 1 1491.0 -0.3749358779189303 1
gene  1 53 25 0.0732245928973845 1 1492.0 0.0732245928973845 1
gene  1 57 25 0.16298793893165123 1 1496.0 0.16298793893165123 1
gene  1 59 25 0.40804211913277416 1 1498.0 0.40804211913277416 1
gene  1 60 25 0.24697388011088578 1 1499.0 0.24697388011088578 1
gene  1 4 26 -0.027472564631818287 0 1503.0 -0.027472564631818287 1
gene  1 5 26 0.55052949000442 0 1504.0 0.55052949000442 1
gene  1 10 26 0.10492044784343428 0 1509.0 0.10492044784343428 1
gene  1 12 26 -0.4602668401102458 0 1511.0 -0.4602668401102458 1
gene  1 13 26 -0.5956171686833298 0 1512.0 -0.5956171686833298 1
gene  1 17 26 0.9956412816018556 0 1516.0 0.9956412816018556 1
gene  1 18 26 -0.700731402667836 0 1517.0 -0.700731402667836 1
gene  1 19 26 -0.7925928483697035 0 1518.0 -0.7925928483697035 1
gene  1 21 26 0.6274323815754557 0 1520.0 0.6274323815754557 1
gene  1 22 26 -0.46889501151948093 0 1521.0 -0.46889501151948093 1
gene  1 23 26 -1.058049245927102 0 1522.0 -1.058049245927102 1
gene  1 24 26 0.011860967743467218 0 1523.0 0.011860967743467218 1
gene  1 25 26 0.4036210417097493 0 1524.0 0.4036210417097493 1
gene  1 26 26 -1.0726811903604707 1 1525.0 -1.0726811903604707 1
gene  1 29 26 0.006892723462049222 1 1528.0 0.006892723462049222 1
gene  1 30 26 -0.13314792644061846 1 1529.0 -0.13314792644061846 1
gene  1 31 26 0.1603930287554328 1 1530.0 0.1603930287554328 1
gene  1 33 26 0.8392577694680045 1 1532.0 0.8392577694680045 1
gene  1 37 26 0.1649665020874356 1 1536.0 0.1649665020874356 1
gene  1 38 26 0.5078224727981491 1 1537.0 0.5078224727981491 1
gene  1 40 26 1.039477722110896 1 1539.0 1.039477722110896 1
gene  1 52 26 -0.12682309958186339 1 1551.0 -0.12682309958186339 1
gene  1 58 26 -0.18109935827290574 1 1557.0 -0.18109935827290574 1
gene  1 2 27 -0.02867563323553189 0 1561.0 -0.02867563323553189 1
gene  1 7 27 -0.02950840197294402 0 1566.0 -0.02950840197294402 1
gene  1 8 27 0.11469964290510574 0 1567.0 0.11469964290510574 1
gene  1 9 27 0.5175009015605335 0 1568.0 0.5175009015605335 1
gene  1 10 27 0.014840257517574786 0 1569.0 0.014840257517574786 1
gene  1 12 27 0.5032508886375062 0 1571.0 0.5032508886375062 1
gene  1 13 27 0.23073250874050247 0 1572.0 0.23073250874050247 1
gene  1 15 27 0.11215239702228771 0 1574.0 0.11215239702228771 1
gene  1 16 27 -0.32095769548458236 0 1575.0 -0.32095769548458236 1
gene  1 19 27 -0.033807364456162343 0 1578.0 -0.033807364456162343 1
gene  1 20 27 -0.008157809705114372 0 1579.0 -0.008157809705114372 1
gene  1 22 27 -0.2881244828598931 0 1581.0 -0.2881244828598931 1
gene  1 25 27 -0.154834883200412 0 1584.0 -0.154834883200412 1
gene  1 28 27 0.021539559238211818 1 1587.0 0.021539559238211818 1
gene  1 31 27 0.18728868984988523 1 1590.0 0.18728868984988523 1
gene  1 33 27 -0.07522569354469033 1 1592.0 -0.07522569354469033 1
gene  1 34 27 0.10108481306461224 1 1593.0 0.10108481306461224 1
gene  1 35 27 0.6653813649173892 1 1594.0 0.6653813649173892 1
gene  1 36 27 0.09552562990405686 1 1595.0 0.09552562990405686 1
gene  1 37 27 -0.4754842721601756 1 1596.0 -0.4754842721601756 1
gene  1 38 27 0.42101848194998776 1 1597.0 0.42101848194998776 1
gene  1 39 27 0.04020727853140779 1 1598.0 0.04020727853140779 1
gene  1 51 27 -0.046687844285933665 1 1610.0 -0.046687844285933665 1
gene  1 52 27 0.5340070974715195 1 1611.0 0.5340070974715195 1
gene  1 53 27 -0.07892197845518104 1 1612.0 -0.07892197845518104 1
gene  1 55 27 0.24092606942668612 1 1614.0 0.24092606942668612 1
gene  1 56 27 0.4003570756955299 1 1615.0 0.4003570756955299 1
gene  1 57 27 -0.11402092074571504 1 1616.0 -0.11402092074571504 1
gene  1 58 27 0.6742421998258473 1 1617.0 0.6742421998258473 1
gene  1 59 27 0.14895154691105508 1 1618.0 0.14895154691105508 1
gene  1 60 27 -0.08510408506141905 1 1619.0 -0.08510408506141905 1
gene  1 1 28 -0.20553873208418255 0 1620.0 -0.20553873208418255 1
gene  1 3 28 0.11451263455445534 0 1622.0 0.11451263455445534 1
gene  1 6 28 0.30453838735319516 0 1625.0 0.30453838735319516 1
gene  1 7 28 -0.16463584879004745 0 1626.0 -0.16463584879004745 1
gene  1 8 28 -0.02392586288335563 0 1627.0 -0.02392586288335563 1
gene  1 9 28 0.947413729496048 0 1628.0 0.947413729496048 1
gene  1 10 28 -0.12355798662753809 0 1629.0 -0.12355798662753809 1
gene  1 14 28 -0.16852965360894967 0 1633.0 -0.16852965360894967 1
gene  1 15 28 -0.8415871126415688 0 1634.0 -0.8415871126415688 1
gene  1 17 28 -0.2045299954878477 0 1636.0 -0.2045299954878477 1
gene  1 18 28 -0.39497385739886204 0 1637.0 -0.39497385739886204 1
gene  1 21 28 -0.22048830316245852 0 1640.0 -0.22048830316245852 1
gene  1 22 28 0.9742990304489848 0 1641.0 0.9742990304489848 1
gene  1 26 28 0.2953364628757356 0 1645.0 0.2953364628757356 1
gene  1 27 28 -0.5490654165715849 0 1646.0 -0.5490654165715849 1
gene  1 28 28 -0.526639658587201 1 1647.0 -0.526639658587201 1
gene  1 29 28 -0.18962990169141952 1 1648.0 -0.18962990169141952 1
gene  1 32 28 -0.3709351221877667 1 1651.0 -0.3709351221877667 1
gene  1 33 28 -0.05896279494178324 1 1652.0 -0.05896279494178324 1
gene  1 36 28 -0.3388957354889285 1 1655.0 -0.3388957354889285 1
gene  1 37 28 0.16955099403815727 1 1656.0 0.16955099403815727 1
gene  1 38 28 -0.5125476697193834 1 1657.0 -0.5125476697193834 1
gene  1 51 28 0.002469146641122748 1 1670.0 0.002469146641122748 1
gene  1 52 28 -1.0714089535703961 1 1671.0 -1.0714089535703961 1
gene  1 53 28 0.1614105519639993 1 1672.0 0.1614105519639993 1
gene  1 54 28 -0.8456978110517124 1 1673.0 -0.8456978110517124 1
gene  1 55 28 -0.2856800897342907 1 1674.0 -0.2856800897342907 1
gene  1 56 28 -0.02816469574167859 1 1675.0 -0.02816469574167859 1
gene  1 57 28 0.02534038849721664 1 1676.0 0.02534038849721664 1
gene  1 58 28 0.6160878470967549 1 1677.0 0.6160878470967549 1
gene  1 60 28 -0.1776184183293065 1 1679.0 -0.1776184183293065 1
gene  1 1 29 -0.04300213385315897 0 1680.0 -0.04300213385315897 1
gene  1 2 29 0.9472247510431053 0 1681.0 0.9472247510431053 1
gene  1 5 29 -0.13563835388702786 0 1684.0 -0.13563835388702786 1
gene  1 6 29 0.13088767555401648 0 1685.0 0.13088767555401648 1
gene  1 8 29 0.011348997057508498 0 1687.0 0.011348997057508498 1
gene  1 9 29 0.8257468568391803 0 1688.0 0.8257468568391803 1
gene  1 11 29 0.8519854020944629 0 1690.0 0.8519854020944629 1
gene  1 12 29 0.6049618017423047 0 1691.0 0.6049618017423047 1
gene  1 13 29 -0.030784337967018564 0 1692.0 -0.030784337967018564 1
gene  1 20 29 -0.14241057694521742 0 1699.0 -0.14241057694521742 1
gene  1 22 29 -0.4255613995001927 0 1701.0 -0.4255613995001927 1
gene  1 24 29 0.1626777246759895 0 1703.0 0.1626777246759895 1
gene  1 25 29 0.431387813499352 0 1704.0 0.431387813499352 1
gene  1 26 29 0.7518714011908256 0 1705.0 0.7518714011908256 1
gene  1 28 29 0.1032961886695191 0 1707.0 0.1032961886695191 1
gene  1 31 29 0.1471711672601273 1 1710.0 0.1471711672601273 1
gene  1 32 29 0.01885456946427393 1 1711.0 0.01885456946427393 1
gene  1 33 29 0.27162771009466513 1 1712.0 0.27162771009466513 1
gene  1 34 29 0.3043679735931191 1 1713.0 0.3043679735931191 1
gene  1 36 29 -0.8885212223356947 1 1715.0 -0.8885212223356947 1
gene  1 51 29 0.19257892672144072 1 1730.0 0.19257892672144072 1
gene  1 53 29 0.16563527242532555 1 1732.0 0.16563527242532555 1
gene  1 55 29 0.47135368967677455 1 1734.0 0.47135368967677455 1
gene  1 57 29 -1.0866597266603506 1 1736.0 -1.0866597266603506 1
gene  1 1 30 0.16622370585862944 0 1740.0 0.16622370585862944 1
gene  1 2 30 0.9001357583111582 0 1741.0 0.9001357583111582 1
gene  1 3 30 -0.07956997467511426 0 1742.0 -0.07956997467511426 1
gene  1 5 30 -0.8080705468637688 0 1744.0 -0.8080705468637688 1
gene  1 6 30 0.649670683296705 0 1745.0 0.649670683296705 1
gene  1 8 30 -0.9223454329647759 0 1747.0 -0.9223454329647759 1
gene  1 9 30 -0.5566622032271704 0 1748.0 -0.5566622032271704 1
gene  1 14 30 -0.0692049392738344 0 1753.0 -0.0692049392738344 1
gene  1 15 30 -0.035545024552395874 0 1754.0 -0.035545024552395874 1
gene  1 18 30 0.01931739306797664 0 1757.0 0.01931739306797664 1
gene  1 20 30 -0.21740955437039922 0 1759.0 -0.21740955437039922 1
gene  1 21 30 0.6147540828581267 0 1760.0 0.6147540828581267 1
gene  1 22 30 0.10525509592107445 0 1761.0 0.10525509592107445 1
gene  1 23 30 -0.07659208122068753 0 1762.0 -0.07659208122068753 1
gene  1 25 30 -0.25747527456194563 0 1764.0 -0.25747527456194563 1
gene  1 27 30 -0.15164004524064617 0 1766.0 -0.15164004524064617 1
gene  1 28 30 0.5072833427335681 0 1767.0 0.5072833427335681 1
gene  1 32 30 0.641645868887709 1 1771.0 0.641645868887709 1
gene  1 35 30 -0.08813919730422672 1 1774.0 -0.08813919730422672 1
gene  1 37 30 -0.030966004043311342 1 1776.0 -0.030966004043311342 1
gene  1 38 30 -0.31073652974918853 1 1777.0 -0.31073652974918853 1
gene  1 39 30 -0.3273544622012199 1 1778.0 -0.3273544622012199 1
gene  1 40 30 0.7766823937501497 1 1779.0 0.7766823937501497 1
gene  1 51 30 -0.14410842879822783 1 1790.0 -0.14410842879822783 1
gene  1 53 30 -0.08484958269255984 1 1792.0 -0.08484958269255984 1
gene  1 54 30 -0.21885721811814168 1 1793.0 -0.21885721811814168 1
gene  1 55 30 0.5388310032621544 1 1794.0 0.5388310032621544 1
gene  1 56 30 -0.9763532883411529 1 1795.0 -0.9763532883411529 1
gene  1 57 30 -0.8303765157645846 1 1796.0 -0.8303765157645846 1
gene  1 60 30 -0.16081991688675726 1 1799.0 -0.16081991688675726 1
gene  1 7 31 -0.9445665194937153 0 1806.0 -0.9445665194937153 1
gene  1 8 31 -0.13594385966301867 0 1807.0 -0.13594385966301867 1
gene  1 10 31 -0.005000295717632053 0 1809.0 -0.005000295717632053 1
gene  1 11 31 0.43040963739102533 0 1810.0 0.43040963739102533 1
gene  1 16 31 0.23190801870818245 0 1815.0 0.23190801870818245 1
gene  1 18 31 -0.7129788036178383 0 1817.0 -0.7129788036178383 1
gene  1 20 31 -0.2245060016058762 0 1819.0 -0.2245060016058762 1
gene  1 21 31 1.038571241848053 0 1820.0 1.038571241848053 1
gene  1 25 31 -0.9042899188296323 0 1824.0 -0.9042899188296323 1
gene  1 26 31 -0.11116249052179739 0 1825.0 -0.11116249052179739 1
gene  1 27 31 -0.9375486601907328 0 1826.0 -0.9375486601907328 1
gene  1 28 31 -0.1663831219742176 0 1827.0 -0.1663831219742176 1
gene  1 31 31 -0.07465729696637403 1 1830.0 -0.07465729696637403 1
gene  1 37 31 -0.10715912262607502 1 1836.0 -0.10715912262607502 1
gene  1 38 31 0.5010067473500732 1 1837.0 0.5010067473500732 1
gene  1 40 31 0.11936611458052614 1 1839.0 0.11936611458052614 1
gene  1 41 31 0.13653936840841713 1 1840.0 0.13653936840841713 1
gene  1 52 31 0.7523410848022244 1 1851.0 0.7523410848022244 1
gene  1 53 31 -0.44370292632500996 1 1852.0 -0.44370292632500996 1
gene  1 55 31 0.18538099388273993 1 1854.0 0.18538099388273993 1
gene  1 56 31 0.16765202802414053 1 1855.0 0.16765202802414053 1
gene  1 58 31 -0.21747124779959692 1 1857.0 -0.21747124779959692 1
gene  1 59 31 -0.0796312559677381 1 1858.0 -0.0796312559677381 1
gene  1 1 32 -0.11923676705789303 0 1860.0 -0.11923676705789303 1
gene  1 2 32 0.5942291681323079 0 1861.0 0.5942291681323079 1
gene  1 3 32 -0.1319058253784322 0 1862.0 -0.1319058253784322 1
gene  1 5 32 0.007418608766919721 0 1864.0 0.007418608766919721 1
gene  1 7 32 0.17259846274322646 0 1866.0 0.17259846274322646 1
gene  1 13 32 0.7419681176730506 0 1872.0 0.7419681176730506 1
gene  1 16 32 0.5021576719795172 0 1875.0 0.5021576719795172 1
gene  1 17 32 -0.1595699438806232 0 1876.0 -0.1595699438806232 1
gene  1 19 32 0.41863408716245065 0 1878.0 0.41863408716245065 1
gene  1 21 32 0.118885327849619 0 1880.0 0.118885327849619 1
gene  1 22 32 -0.1694419354472527 0 1881.0 -0.1694419354472527 1
gene  1 23 32 0.8292510124477213 0 1882.0 0.8292510124477213 1
gene  1 24 32 -0.2764707561441933 0 1883.0 -0.2764707561441933 1
gene  1 25 32 -0.16355431188751696 0 1884.0 -0.16355431188751696 1
gene  1 27 32 -0.9483598740203529 0 1886.0 -0.9483598740203529 1
gene  1 29 32 1.045755748378414 0 1888.0 1.045755748378414 1
gene  1 32 32 -0.9121377344231902 1 1891.0 -0.9121377344231902 1
gene  1 33 32 -0.8172623979047245 1 1892.0 -0.8172623979047245 1
gene  1 34 32 -0.2246254128946531 1 1893.0 -0.2246254128946531 1
gene  1 37 32 -0.363021376447926 1 1896.0 -0.363021376447926 1
gene  1 38 32 -0.48166787504709263 1 1897.0 -0.48166787504709263 1
gene  1 51 32 -0.1196690911274219 1 1910.0 -0.1196690911274219 1
gene  1 54 32 -0.24614784376440157 1 1913.0 -0.24614784376440157 1
gene  1 56 32 0.5753304120197794 1 1915.0 0.5753304120197794 1
gene  1 57 32 0.0033762415319744258 1 1916.0 0.0033762415319744258 1
gene  1 59 32 -0.11564050809500159 1 1918.0 -0.11564050809500159 1
gene  1 1 33 0.003528754021394097 0 1920.0 0.003528754021394097 1
gene  1 3 33 0.7062334815150325 0 1922.0 0.7062334815150325 1
gene  1 4 33 -0.3377602696063575 0 1923.0 -0.3377602696063575 1
gene  1 5 33 -0.8645859427294456 0 1924.0 -0.8645859427294456 1
gene  1 6 33 0.04849181065043272 0 1925.0 0.04849181065043272 1
gene  1 8 33 -0.7293770124273597 0 1927.0 -0.7293770124273597 1
gene  1 12 33 0.28601370345978067 0 1931.0 0.28601370345978067 1
gene  1 17 33 -0.8022739447515962 0 1936.0 -0.8022739447515962 1
gene  1 18 33 -0.09939998741770723 0 1937.0 -0.09939998741770723 1
gene  1 19 33 0.29384595371666056 0 1938.0 0.29384595371666056 1
gene  1 20 33 0.024560622108520586 0 1939.0 0.024560622108520586 0
gene  1 22 33 -0.3354942119388922 0 1941.0 -0.3354942119388922 1
gene  1 23 33 0.0443945630845204 0 1942.0 0.0443945630845204 1
gene  1 24 33 0.41533436185128547 0 1943.0 0.41533436185128547 1
gene  1 26 33 0.3460207808598742 0 1945.0 0.3460207808598742 1
gene  1 28 33 -0.6429071613666815 0 1947.0 -0.6429071613666815 1
gene  1 29 33 0.03767461401449142 0 1948.0 0.03767461401449142 1
gene  1 30 33 0.7161194161558047 0 1949.0 0.7161194161558047 1
gene  1 32 33 0.8196281951807919 0 1951.0 0.8196281951807919 1
gene  1 34 33 1.0998221238941277 1 1953.0 1.0998221238941277 1
gene  1 36 33 -0.5753982145176437 1 1955.0 -0.5753982145176437 1
gene  1 37 33 -0.11426997901317765 1 1956.0 -0.11426997901317765 1
gene  1 39 33 -0.15256447261207984 1 1958.0 -0.15256447261207984 1
gene  1 40 33 -0.15300153686144377 1 1959.0 -0.15300153686144377 1
gene  1 53 33 -0.7918701671984091 1 1972.0 -0.7918701671984091 1
gene  1 55 33 -0.21296195030460668 1 1974.0 -0.21296195030460668 1
gene  1 56 33 -0.01901623842907538 1 1975.0 -0.01901623842907538 1
gene  1 1 34 0.19326912693413442 0 1980.0 0.19326912693413442 1
gene  1 3 34 0.09746781502247756 0 1982.0 0.09746781502247756 1
gene  1 4 34 0.026340056103758204 0 1983.0 0.026340056103758204 1
gene  1 6 34 -0.6271519457670359 0 1985.0 -0.6271519457670359 1
gene  1 9 34 0.47774506165954245 0 1988.0 0.47774506165954245 1
gene  1 11 34 0.11742766674433947 0 1990.0 0.11742766674433947 1
gene  1 12 34 0.7737511734904912 0 1991.0 0.7737511734904912 1
gene  1 13 34 -0.7025139722736337 0 1992.0 -0.7025139722736337 1
gene  1 15 34 -0.3949214761626369 0 1994.0 -0.3949214761626369 1
gene  1 16 34 -0.21045242672302317 0 1995.0 -0.21045242672302317 1
gene  1 17 34 -1.0390964735113877 0 1996.0 -1.0390964735113877 1
gene  1 18 34 -0.8141349505598342 0 1997.0 -0.8141349505598342 1
gene  1 23 34 -0.6125501387035139 0 2002.0 -0.6125501387035139 1
gene  1 26 34 -0.09427692570406163 0 2005.0 -0.09427692570406163 1
gene  1 27 34 -0.0016662099441384717 0 2006.0 -0.0016662099441384717 1
gene  1 29 34 0.3713269606311299 0 2008.0 0.3713269606311299 1
gene  1 30 34 -0.649286391961918 0 2009.0 -0.649286391961918 1
gene  1 33 34 0.16037528217196917 0 2012.0 0.16037528217196917 1
gene  1 34 34 -0.039971976076457444 1 2013.0 -0.039971976076457444 1
gene  1 39 34 -0.18911059180627154 1 2018.0 -0.18911059180627154 1
gene  1 40 34 0.6107170224922861 1 2019.0 0.6107170224922861 1
gene  1 41 34 0.46267240060631454 1 2020.0 0.46267240060631454 1
gene  1 55 34 -0.558162461514989 1 2034.0 -0.558162461514989 1
gene  1 56 34 0.006931001085440952 1 2035.0 0.006931001085440952 1
gene  1 58 34 1.0321999791100556 1 2037.0 1.0321999791100556 1
gene  1 1 35 0.7208503512178646 0 2040.0 0.7208503512178646 1
gene  1 2 35 0.06451414879446168 0 2041.0 0.06451414879446168 1
gene  1 4 35 -0.04437558906919233 0 2043.0 -0.04437558906919233 1
gene  1 5 35 0.6883658802826581 0 2044.0 0.6883658802826581 1
gene  1 9 35 0.9127770839546684 0 2048.0 0.9127770839546684 1
gene  1 10 35 -0.02009882214865749 0 2049.0 -0.02009882214865749 1
gene  1 12 35 -0.5188065567426766 0 2051.0 -0.5188065567426766 1
gene  1 13 35 0.27852659129152235 0 2052.0 0.27852659129152235 1
gene  1 14 35 -0.7215687088721601 0 2053.0 -0.7215687088721601 1
gene  1 16 35 -0.16977427418998442 0 2055.0 -0.16977427418998442 1
gene  1 18 35 1.0855073516002933 0 2057.0 1.0855073516002933 1
gene  1 19 35 0.04577381005137109 0 2058.0 0.04577381005137109 1
gene  1 20 35 -0.8462208948577544 0 2059.0 -0.8462208948577544 1
gene  1 21 35 0.22632435980228813 0 2060.0 0.22632435980228813 1
gene  1 22 35 0.29884157424301716 0 2061.0 0.29884157424301716 1
gene  1 27 35 0.7847766000440036 0 2066.0 0.7847766000440036 1
gene  1 31 35 0.1602947507081891 0 2070.0 0.1602947507081891 1
gene  1 33 35 0.0677158214744173 0 2072.0 0.0677158214744173 1
gene  1 35 35 -0.13032916147885795 1 2074.0 -0.13032916147885795 1
gene  1 36 35 -0.10402690099547694 1 2075.0 -0.10402690099547694 1
gene  1 38 35 -0.1091910729831006 1 2077.0 -0.1091910729831006 1
gene  1 40 35 -0.7458365594006242 1 2079.0 -0.7458365594006242 1
gene  1 41 35 -0.10273865829655579 1 2080.0 -0.10273865829655579 1
gene  1 54 35 -0.08761933989644564 1 2093.0 -0.08761933989644564 1
gene  1 55 35 0.614920900926449 1 2094.0 0.614920900926449 1
gene  1 56 35 0.9267712963866827 1 2095.0 0.9267712963866827 1
gene  1 58 35 0.09740995993659077 1 2097.0 0.09740995993659077 1
gene  1 60 35 -0.4942981017924427 1 2099.0 -0.4942981017924427 1
gene  1 3 36 0.2770031951452464 0 2102.0 0.2770031951452464 1
gene  1 4 36 0.038439064041847396 0 2103.0 0.038439064041847396 1
gene  1 6 36 -0.29436200919793754 0 2105.0 -0.29436200919793754 1
gene  1 12 36 -0.7196880997512869 0 2111.0 -0.7196880997512869 1
gene  1 16 36 0.043727099044101284 0 2115.0 0.043727099044101284 1
gene  1 19 36 -0.4199242435171572 0 2118.0 -0.4199242435171572 1
gene  1 20 36 0.0036592999005751192 0 2119.0 0.0036592999005751192 1
gene  1 21 36 -0.2629927336871545 0 2120.0 -0.2629927336871545 1
gene  1 24 36 -0.2150793636947651 0 2123.0 -0.2150793636947651 1
gene  1 25 36 -0.22794436750623331 0 2124.0 -0.22794436750623331 1
gene  1 29 36 0.4680147582353421 0 2128.0 0.4680147582353421 1
gene  1 34 36 0.606672165362656 0 2133.0 0.606672165362656 1
gene  1 35 36 0.18898435930681415 0 2134.0 0.18898435930681415 1
gene  1 36 36 -0.6331168017697466 1 2135.0 -0.6331168017697466 1
gene  1 37 36 0.46243690194539333 1 2136.0 0.46243690194539333 1
gene  1 40 36 -0.01438267606897325 1 2139.0 -0.01438267606897325 1
gene  1 51 36 -0.0734774855208401 1 2150.0 -0.0734774855208401 1
gene  1 52 36 0.6737001274339631 1 2151.0 0.6737001274339631 1
gene  1 53 36 -0.6584358275725013 1 2152.0 -0.6584358275725013 1
gene  1 54 36 0.4348097420393952 1 2153.0 0.4348097420393952 1
gene  1 56 36 0.5231098787397462 1 2155.0 0.5231098787397462 1
gene  1 59 36 -0.4403429388262018 1 2158.0 -0.4403429388262018 1
gene  1 1 37 -0.29280383176009367 0 2160.0 -0.29280383176009367 1
gene  1 5 37 0.13299656828388634 0 2164.0 0.13299656828388634 1
gene  1 6 37 0.446835097873702 0 2165.0 0.446835097873702 1
gene  1 10 37 -0.3341068112213065 0 2169.0 -0.3341068112213065 1
gene  1 13 37 -0.2620099777914394 0 2172.0 -0.2620099777914394 1
gene  1 20 37 0.46497286806391325 0 2179.0 0.46497286806391325 1
gene  1 21 37 -0.8469426057200258 0 2180.0 -0.8469426057200258 1
gene  1 22 37 0.7485303853746722 0 2181.0 0.7485303853746722 1
gene  1 23 37 -0.6789255025886616 0 2182.0 -0.6789255025886616 1
gene  1 24 37 -0.11718080274078754 0 2183.0 -0.11718080274078754 1
gene  1 28 37 -0.13467104850335712 0 2187.0 -0.13467104850335712 1
gene  1 33 37 -0.8634681432137746 0 2192.0 -0.8634681432137746 1
gene  1 34 37 -0.08179204719725273 0 2193.0 -0.08179204719725273 1
gene  1 35 37 -0.14040356333086126 0 2194.0 -0.14040356333086126 1
gene  1 36 37 0.013075280192692015 0 2195.0 0.013075280192692015 1
gene  1 41 37 -0.42221125659010084 1 2200.0 -0.42221125659010084 1
gene  1 53 37 0.24728032377774053 1 2212.0 0.24728032377774053 1
gene  1 54 37 0.9731864581635329 1 2213.0 0.9731864581635329 1
gene  1 55 37 -0.08336664289199713 1 2214.0 -0.08336664289199713 1
gene  1 57 37 0.8340866637661117 1 2216.0 0.8340866637661117 1
gene  1 58 37 0.3221684957397737 1 2217.0 0.3221684957397737 1
gene  1 59 37 0.12128249003520988 1 2218.0 0.12128249003520988 1
gene  1 1 38 -0.10860637634122396 0 2220.0 -0.10860637634122396 1
gene  1 2 38 0.3959779482552689 0 2221.0 0.3959779482552689 1
gene  1 3 38 0.27005576558606026 0 2222.0 0.27005576558606026 1
gene  1 4 38 -0.85417401503677 0 2223.0 -0.85417401503677 1
gene  1 5 38 -0.029285870658012865 0 2224.0 -0.029285870658012865 1
gene  1 6 38 0.08664216472241877 0 2225.0 0.08664216472241877 1
gene  1 7 38 0.1565785355485111 0 2226.0 0.1565785355485111 1
gene  1 8 38 -0.8470030348762974 0 2227.0 -0.8470030348762974 1
gene  1 9 38 -0.267798870822076 0 2228.0 -0.267798870822076 1
gene  1 10 38 0.11737842812764811 0 2229.0 0.11737842812764811 1
gene  1 12 38 0.39789415882193635 0 2231.0 0.39789415882193635 1
gene  1 13 38 -0.895714894482082 0 2232.0 -0.895714894482082 1
gene  1 15 38 0.5022049773573323 0 2234.0 0.5022049773573323 1
gene  1 17 38 -0.3825609327785007 0 2236.0 -0.3825609327785007 1
gene  1 18 38 -0.563298101688278 0 2237.0 -0.563298101688278 1
gene  1 20 38 -0.7607009969041466 0 2239.0 -0.7607009969041466 1
gene  1 27 38 0.4026610632115739 0 2246.0 0.4026610632115739 1
gene  1 28 38 -0.23069145892578446 0 2247.0 -0.23069145892578446 1
gene  1 30 38 -0.018846336725843904 0 2249.0 -0.018846336725843904 1
gene  1 33 38 -0.08764226192527562 0 2252.0 -0.08764226192527562 1
gene  1 35 38 -0.12702902825968074 0 2254.0 -0.12702902825968074 1
gene  1 37 38 0.8139601414967416 0 2256.0 0.8139601414967416 1
gene  1 39 38 0.19338487762874196 1 2258.0 0.19338487762874196 1
gene  1 41 38 0.027036025259983443 1 2260.0 0.027036025259983443 1
gene  1 53 38 0.05040010867026401 1 2272.0 0.05040010867026401 1
gene  1 55 38 -0.14900766471870086 1 2274.0 -0.14900766471870086 1
gene  1 56 38 -0.16101724661966166 1 2275.0 -0.16101724661966166 1
gene  1 59 38 0.6326258821676324 1 2278.0 0.6326258821676324 1
gene  1 2 39 -0.3277830038258698 0 2281.0 -0.3277830038258698 1
gene  1 4 39 -0.6739809942509282 0 2283.0 -0.6739809942509282 1
gene  1 6 39 0.09647905722728371 0 2285.0 0.09647905722728371 1
gene  1 7 39 -0.020964831096528365 0 2286.0 -0.020964831096528365 1
gene  1 9 39 0.7483041124208438 0 2288.0 0.7483041124208438 1
gene  1 11 39 0.574625007054275 0 2290.0 0.574625007054275 1
gene  1 14 39 0.4933974898570763 0 2293.0 0.4933974898570763 1
gene  1 15 39 -0.6667940927253087 0 2294.0 -0.6667940927253087 1
gene  1 16 39 -0.15481964112540758 0 2295.0 -0.15481964112540758 1
gene  1 18 39 0.6242186155847468 0 2297.0 0.6242186155847468 1
gene  1 19 39 -0.20524265682530854 0 2298.0 -0.20524265682530854 1
gene  1 20 39 -1.077184978240908 0 2299.0 -1.077184978240908 1
gene  1 21 39 -0.5876110264951998 0 2300.0 -0.5876110264951998 1
gene  1 22 39 -0.22778741104332964 0 2301.0 -0.22778741104332964 1
gene  1 23 39 -0.09620823591833622 0 2302.0 -0.09620823591833622 1
gene  1 24 39 -0.1145064652321249 0 2303.0 -0.1145064652321249 1
gene  1 25 39 0.2595954953614751 0 2304.0 0.2595954953614751 1
gene  1 26 39 -0.5862404264154649 0 2305.0 -0.5862404264154649 1
gene  1 27 39 0.5329054548681001 0 2306.0 0.5329054548681001 1
gene  1 31 39 -0.3600424583545613 0 2310.0 -0.3600424583545613 1
gene  1 52 39 0.2667223487739311 1 2331.0 0.2667223487739311 1
gene  1 53 39 -0.42182835788242906 1 2332.0 -0.42182835788242906 1
gene  1 54 39 -0.03490121786069493 1 2333.0 -0.03490121786069493 1
gene  1 57 39 0.36650934643912825 1 2336.0 0.36650934643912825 1
gene  1 58 39 0.06749408884738188 1 2337.0 0.06749408884738188 1
gene  1 3 40 -0.8581439095447146 0 2342.0 -0.8581439095447146 1
gene  1 5 40 0.0703076738718141 0 2344.0 0.0703076738718141 1
gene  1 6 40 -0.31722270649714607 0 2345.0 -0.31722270649714607 1
gene  1 8 40 -0.7078096292687419 0 2347.0 -0.7078096292687419 1
gene  1 9 40 0.1806555233057466 0 2348.0 0.1806555233057466 1
gene  1 10 40 -0.10757382996315623 0 2349.0 -0.10757382996315623 1
gene  1 12 40 0.16546124336569118 0 2351.0 0.16546124336569118 1
gene  1 17 40 -0.1705192770322477 0 2356.0 -0.1705192770322477 1
gene  1 18 40 -0.17448897396146124 0 2357.0 -0.17448897396146124 1
gene  1 19 40 0.14238649226921504 0 2358.0 0.14238649226921504 1
gene  1 20 40 -0.193490558155476 0 2359.0 -0.193490558155476 1
gene  1 21 40 -0.8043805256040837 0 2360.0 -0.8043805256040837 1
gene  1 22 40 0.0978749988353388 0 2361.0 0.0978749988353388 1
gene  1 27 40 -0.8829133884626126 0 2366.0 -0.8829133884626126 1
gene  1 30 40 0.04268529041217664 0 2369.0 0.04268529041217664 1
gene  1 31 40 0.3122767159691483 0 2370.0 0.3122767159691483 1
gene  1 32 40 0.012619603021052868 0 2371.0 0.012619603021052868 1
gene  1 33 40 0.9359868765855673 0 2372.0 0.9359868765855673 1
gene  1 35 40 0.049253668111224 0 2374.0 0.049253668111224 1
gene  1 37 40 -0.39856511675299694 0 2376.0 -0.39856511675299694 1
gene  1 38 40 -0.02579496498238086 0 2377.0 -0.02579496498238086 1
gene  1 39 40 0.19555349442171055 0 2378.0 0.19555349442171055 1
gene  1 41 40 0.05183415591794316 1 2380.0 0.05183415591794316 1
gene  1 51 40 -0.7270823244607053 1 2390.0 -0.7270823244607053 1
gene  1 56 40 0.09248057714092295 1 2395.0 0.09248057714092295 1
gene  1 58 40 0.07904900053747355 1 2397.0 0.07904900053747355 1
gene  1 60 40 -0.442064582852834 1 2399.0 -0.442064582852834 1
gene  1 3 41 -0.7049064640272475 0 2402.0 -0.7049064640272475 1
gene  1 8 41 0.024665674003138904 0 2407.0 0.024665674003138904 1
gene  1 9 41 -0.1495214070344317 0 2408.0 -0.1495214070344317 1
gene  1 10 41 0.2985980619553651 0 2409.0 0.2985980619553651 1
gene  1 11 41 0.08580094371361549 0 2410.0 0.08580094371361549 1
gene  1 17 41 0.14038394800595774 0 2416.0 0.14038394800595774 1
gene  1 20 41 -0.6016810120867331 0 2419.0 -0.6016810120867331 1
gene  1 21 41 0.10137929839579517 0 2420.0 0.10137929839579517 1
gene  1 25 41 -0.04862132404714298 0 2424.0 -0.04862132404714298 1
gene  1 30 41 0.46690800092079143 0 2429.0 0.46690800092079143 1
gene  1 31 41 -0.8954088790978216 0 2430.0 -0.8954088790978216 1
gene  1 33 41 -0.07024552973958086 0 2432.0 -0.07024552973958086 1
gene  1 35 41 0.8804301986155106 0 2434.0 0.8804301986155106 1
gene  1 36 41 -0.16699902224249608 0 2435.0 -0.16699902224249608 1
gene  1 38 41 0.4142282616280826 0 2437.0 0.4142282616280826 1
gene  1 39 41 0.11156156034680102 0 2438.0 0.11156156034680102 1
gene  1 40 41 -0.8417325318488429 0 2439.0 -0.8417325318488429 1
gene  1 51 41 -0.05573115253051754 1 2450.0 -0.05573115253051754 1
gene  1 54 41 -0.9526139496835815 1 2453.0 -0.9526139496835815 1
gene  1 55 41 0.5696204272974474 1 2454.0 0.5696204272974474 1
gene  1 58 41 -0.8524656611963368 1 2457.0 -0.8524656611963368 1
gene  1 59 41 0.2431509671901015 1 2458.0 0.2431509671901015 1
gene  1 60 41 -0.018004711940423822 1 2459.0 -0.018004711940423822 1
gene  1 2 51 -0.6407931935135994 0 3001.0 -0.6407931935135994 1
gene  1 6 51 0.7542731216304193 0 3005.0 0.7542731216304193 1
gene  1 8 51 0.638534572159517 0 3007.0 0.638534572159517 1
gene  1 10 51 -0.17377181507776793 0 3009.0 -0.17377181507776793 1
gene  1 12 51 -0.6500985958320858 0 3011.0 -0.6500985958320858 1
gene  1 13 51 -0.033232575759984735 0 3012.0 -0.033232575759984735 1
gene  1 14 51 -0.04141165639107464 0 3013.0 -0.04141165639107464 1
gene  1 16 51 -0.1188030939081034 0 3015.0 -0.1188030939081034 1
gene  1 19 51 0.6673626790963545 0 3018.0 0.6673626790963545 1
gene  1 20 51 0.6014478865504107 0 3019.0 0.6014478865504107 0
gene  1 23 51 -0.007449472153186115 0 3022.0 -0.007449472153186115 1
gene  1 24 51 0.7140898001671032 0 3023.0 0.7140898001671032 1
gene  1 26 51 0.6839140352871479 0 3025.0 0.6839140352871479 1
gene  1 28 51 -0.004659113291637179 0 3027.0 -0.004659113291637179 1
gene  1 29 51 -0.7478657805525986 0 3028.0 -0.7478657805525986 1
gene  1 33 51 -0.05980923568971485 0 3032.0 -0.05980923568971485 1
gene  1 35 51 -0.15938170291820547 0 3034.0 -0.15938170291820547 1
gene  1 36 51 -0.6640128325886381 0 3035.0 -0.6640128325886381 1
gene  1 38 51 -0.09837426107866591 0 3037.0 -0.09837426107866591 1
gene  1 39 51 0.03826167898145634 0 3038.0 0.03826167898145634 1
gene  1 40 51 -0.5952962675866353 0 3039.0 -0.5952962675866353 1
gene  1 41 51 -0.13573475574083285 0 3040.0 -0.13573475574083285 1
gene  1 53 51 0.1180050351640956 1 3052.0 0.1180050351640956 1
gene  1 54 51 0.9534140944460938 1 3053.0 0.9534140944460938 1
gene  1 55 51 -0.1603317693415662 1 3054.0 -0.1603317693415662 1
gene  1 56 51 -0.42106435469023606 1 3055.0 -0.42106435469023606 1
gene  1 2 52 -0.7571628588502711 0 3061.0 -0.7571628588502711 1
gene  1 6 52 0.5368574649223485 0 3065.0 0.5368574649223485 1
gene  1 8 52 0.8178559769674373 0 3067.0 0.8178559769674373 1
gene  1 9 52 0.10247241348037521 0 3068.0 0.10247241348037521 1
gene  1 12 52 -0.07311493586398493 0 3071.0 -0.07311493586398493 1
gene  1 18 52 -0.15797695764133313 0 3077.0 -0.15797695764133313 1
gene  1 19 52 -1.0189094258122395 0 3078.0 -1.0189094258122395 1
gene  1 20 52 -0.8864099124014618 0 3079.0 -0.8864099124014618 1
gene  1 21 52 0.9122676015349703 0 3080.0 0.9122676015349703 1
gene  1 24 52 0.13372772754140508 0 3083.0 0.13372772754140508 1
gene  1 25 52 0.11950711909059526 0 3084.0 0.11950711909059526 1
gene  1 27 52 -0.13640161126923706 0 3086.0 -0.13640161126923706 1
gene  1 28 52 0.7794338535994015 0 3087.0 0.7794338535994015 1
gene  1 29 52 -0.8638771307558128 0 3088.0 -0.8638771307558128 1
gene  1 30 52 -0.6025453337111697 0 3089.0 -0.6025453337111697 1
gene  1 32 52 -0.04367525144999242 0 3091.0 -0.04367525144999242 1
gene  1 33 52 0.7863630988047416 0 3092.0 0.7863630988047416 1
gene  1 35 52 0.8956668766157192 0 3094.0 0.8956668766157192 1
gene  1 36 52 -0.14847626464024474 0 3095.0 -0.14847626464024474 1
gene  1 40 52 0.15600761780439823 0 3099.0 0.15600761780439823 1
gene  1 41 52 0.5119260201331339 0 3100.0 0.5119260201331339 1
gene  1 51 52 -0.13063483912849289 0 3110.0 -0.13063483912849289 1
gene  1 52 52 -0.5515358436784266 1 3111.0 -0.5515358436784266 1
gene  1 54 52 0.1997784045833849 1 3113.0 0.1997784045833849 1
gene  1 55 52 0.14612387678806746 1 3114.0 0.14612387678806746 1
gene  1 57 52 -0.03032289875664525 1 3116.0 -0.03032289875664525 1
gene  1 58 52 0.17771280381109575 1 3117.0 0.17771280381109575 1
gene  1 59 52 -0.04114374869506125 1 3118.0 -0.04114374869506125 1
gene  1 2 53 -0.002351434887424583 0 3121.0 -0.002351434887424583 1
gene  1 3 53 0.07485718162073854 0 3122.0 0.07485718162073854 1
gene  1 4 53 0.21663832098051516 0 3123.0 0.21663832098051516 1
gene  1 5 53 1.1121180761920517 0 3124.0 1.1121180761920517 1
gene  1 8 53 0.02632764929881799 0 3127.0 0.02632764929881799 1
gene  1 9 53 1.0320728954596243 0 3128.0 1.0320728954596243 1
gene  1 12 53 0.15564168977093903 0 3131.0 0.15564168977093903 1
gene  1 17 53 -0.004168591057710044 0 3136.0 -0.004168591057710044 1
gene  1 19 53 -0.33047296544682336 0 3138.0 -0.33047296544682336 1
gene  1 21 53 0.009919394777680696 0 3140.0 0.009919394777680696 1
gene  1 22 53 -0.6930547142917592 0 3141.0 -0.6930547142917592 1
gene  1 24 53 -0.07372436815380135 0 3143.0 -0.07372436815380135 1
gene  1 25 53 0.11544259959920365 0 3144.0 0.11544259959920365 1
gene  1 28 53 0.5252392055522002 0 3147.0 0.5252392055522002 1
gene  1 29 53 -0.9349154375033163 0 3148.0 -0.9349154375033163 1
gene  1 30 53 -0.8133880563282759 0 3149.0 -0.8133880563282759 1
gene  1 31 53 0.5323673707587395 0 3150.0 0.5323673707587395 1
gene  1 32 53 0.5694010586078777 0 3151.0 0.5694010586078777 1
gene  1 33 53 0.5375600963622723 0 3152.0 0.5375600963622723 1
gene  1 34 53 -0.12191086545753556 0 3153.0 -0.12191086545753556 1
gene  1 37 53 -0.06838475652767904 0 3156.0 -0.06838475652767904 1
gene  1 38 53 0.13307162764448155 0 3157.0 0.13307162764448155 1
gene  1 51 53 -0.008750783775309984 0 3170.0 -0.008750783775309984 1
gene  1 52 53 0.04235366504129372 0 3171.0 0.04235366504129372 1
gene  1 53 53 -0.1104905184028711 1 3172.0 -0.1104905184028711 1
gene  1 54 53 -0.13866921194179205 1 3173.0 -0.13866921194179205 1
gene  1 57 53 -0.0958858855735422 1 3176.0 -0.0958858855735422 1
gene  1 58 53 0.6412419763613236 1 3177.0 0.6412419763613236 1
gene  1 59 53 -0.9394950991908231 1 3178.0 -0.9394950991908231 1
gene  1 4 54 0.10768413984212571 0 3183.0 0.10768413984212571 1
gene  1 5 54 -0.41120438315707186 0 3184.0 -0.41120438315707186 1
gene  1 7 54 -0.22621342420802693 0 3186.0 -0.22621342420802693 1
gene  1 11 54 0.11042297330940837 0 3190.0 0.11042297330940837 1
gene  1 14 54 -0.22479129551288357 0 3193.0 -0.22479129551288357 1
gene  1 17 54 -0.08833529083531384 0 3196.0 -0.08833529083531384 1
gene  1 18 54 -0.13313695133842213 0 3197.0 -0.13313695133842213 1
gene  1 20 54 -0.1466253304905469 0 3199.0 -0.1466253304905469 1
gene  1 21 54 0.06865095884102242 0 3200.0 0.06865095884102242 1
gene  1 22 54 0.6319250800886128 0 3201.0 0.6319250800886128 1
gene  1 23 54 -0.09583159069289728 0 3202.0 -0.09583159069289728 1
gene  1 24 54 -0.03335524403317025 0 3203.0 -0.03335524403317025 1
gene  1 25 54 -0.7748168561813349 0 3204.0 -0.7748168561813349 1
gene  1 26 54 0.1248950758235233 0 3205.0 0.1248950758235233 1
gene  1 28 54 0.14672618288341838 0 3207.0 0.14672618288341838 1
gene  1 29 54 -0.15181706691146984 0 3208.0 -0.15181706691146984 1
gene  1 30 54 0.17664658530803531 0 3209.0 0.17664658530803531 1
gene  1 32 54 0.18688068884258785 0 3211.0 0.18688068884258785 1
gene  1 33 54 -0.1286491508115305 0 3212.0 -0.1286491508115305 1
gene  1 34 54 0.9190344701597041 0 3213.0 0.9190344701597041 1
gene  1 35 54 0.04408617547156243 0 3214.0 0.04408617547156243 1
gene  1 36 54 0.29793352082096075 0 3215.0 0.29793352082096075 1
gene  1 38 54 -0.11428151181190296 0 3217.0 -0.11428151181190296 1
gene  1 39 54 -0.4441264047135185 0 3218.0 -0.4441264047135185 1
gene  1 51 54 0.3162816953711043 0 3230.0 0.3162816953711043 1
gene  1 54 54 0.1084592522009554 1 3233.0 0.1084592522009554 1
gene  1 56 54 -0.0248745581133252 1 3235.0 -0.0248745581133252 1
gene  1 58 54 -0.025956251598475304 1 3237.0 -0.025956251598475304 1
gene  1 2 55 0.32306621455218576 0 3241.0 0.32306621455218576 1
gene  1 3 55 -0.2606499016504651 0 3242.0 -0.2606499016504651 1
gene  1 4 55 0.22429003486387955 0 3243.0 0.22429003486387955 1
gene  1 8 55 -0.04980183668172065 0 3247.0 -0.04980183668172065 1
gene  1 17 55 0.134800457632822 0 3256.0 0.134800457632822 1
gene  1 18 55 -0.5715085590044564 0 3257.0 -0.5715085590044564 1
gene  1 20 55 -0.17292420036801182 0 3259.0 -0.17292420036801182 1
gene  1 22 55 -0.9687637794876746 0 3261.0 -0.9687637794876746 1
gene  1 28 55 -0.17231160949081992 0 3267.0 -0.17231160949081992 1
gene  1 29 55 -0.6534953075871084 0 3268.0 -0.6534953075871084 1
gene  1 32 55 0.7249826456956687 0 3271.0 0.7249826456956687 1
gene  1 34 55 -0.8305568907904678 0 3273.0 -0.8305568907904678 1
gene  1 35 55 -0.048260550204367376 0 3274.0 -0.048260550204367376 1
gene  1 36 55 0.2587897773781707 0 3275.0 0.2587897773781707 1
gene  1 37 55 -0.21085199663520976 0 3276.0 -0.21085199663520976 1
gene  1 51 55 -0.0013390199220172283 0 3290.0 -0.0013390199220172283 1
gene  1 52 55 1.088544955716105 0 3291.0 1.088544955716105 1
gene  1 53 55 -0.5938589648144452 0 3292.0 -0.5938589648144452 1
gene  1 54 55 0.022225533584107386 0 3293.0 0.022225533584107386 1
gene  1 55 55 -0.7613308188174995 1 3294.0 -0.7613308188174995 1
gene  1 56 55 0.11852286961482221 1 3295.0 0.11852286961482221 1
gene  1 57 55 0.0029892458724655275 1 3296.0 0.0029892458724655275 1
gene  1 58 55 -0.35857092190215833 1 3297.0 -0.35857092190215833 1
gene  1 60 55 -0.8406570443259445 1 3299.0 -0.8406570443259445 1
gene  1 2 56 -0.1462212773668629 0 3301.0 -0.1462212773668629 1
gene  1 4 56 -0.06542669617425458 0 3303.0 -0.06542669617425458 1
gene  1 7 56 -0.8940007370239924 0 3306.0 -0.8940007370239924 1
gene  1 10 56 -0.13130233929245896 0 3309.0 -0.13130233929245896 1
gene  1 11 56 0.8896808311195871 0 3310.0 0.8896808311195871 1
gene  1 12 56 -0.9237313468925844 0 3311.0 -0.9237313468925844 1
gene  1 17 56 -0.08087095581559234 0 3316.0 -0.08087095581559234 1
gene  1 18 56 0.42160848172279675 0 3317.0 0.42160848172279675 1
gene  1 19 56 -0.5325698796682884 0 3318.0 -0.5325698796682884 1
gene  1 20 56 0.6651792898763582 0 3319.0 0.6651792898763582 1
gene  1 22 56 -0.34215572683493745 0 3321.0 -0.34215572683493745 1
gene  1 26 56 0.03158713094934709 0 3325.0 0.03158713094934709 1
gene  1 27 56 0.09235746587841034 0 3326.0 0.09235746587841034 1
gene  1 28 56 -0.1481827689075692 0 3327.0 -0.1481827689075692 1
gene  1 29 56 -0.09362047612698256 0 3328.0 -0.09362047612698256 1
gene  1 30 56 -0.16696790724961452 0 3329.0 -0.16696790724961452 1
gene  1 34 56 0.05241933130249472 0 3333.0 0.05241933130249472 1
gene  1 37 56 -0.13549615549371544 0 3336.0 -0.13549615549371544 1
gene  1 40 56 -0.0734908412389043 0 3339.0 -0.0734908412389043 1
gene  1 41 56 -0.08178926195648632 0 3340.0 -0.08178926195648632 1
gene  1 55 56 0.08767851512167521 0 3354.0 0.08767851512167521 1
gene  1 60 56 -0.03795402790248444 1 3359.0 -0.03795402790248444 1
gene  1 1 57 -0.7130409779476491 0 3360.0 -0.7130409779476491 1
gene  1 2 57 -0.9330635902000333 0 3361.0 -0.9330635902000333 1
gene  1 3 57 0.37718549557647657 0 3362.0 0.37718549557647657 1
gene  1 4 57 0.0324282071874385 0 3363.0 0.0324282071874385 1
gene  1 5 57 0.7720214008145386 0 3364.0 0.7720214008145386 1
gene  1 6 57 -0.3800839323714438 0 3365.0 -0.3800839323714438 1
gene  1 7 57 0.2683577161975405 0 3366.0 0.2683577161975405 1
gene  1 8 57 0.008701389412295264 0 3367.0 0.008701389412295264 1
gene  1 9 57 0.33996274128432336 0 3368.0 0.33996274128432336 1
gene  1 10 57 -0.24174823287962277 0 3369.0 -0.24174823287962277 1
gene  1 11 57 -0.7356755724124739 0 3370.0 -0.7356755724124739 1
gene  1 14 57 0.7508224168730346 0 3373.0 0.7508224168730346 1
gene  1 17 57 -0.507364775353699 0 3376.0 -0.507364775353699 1
gene  1 18 57 0.9466301462921684 0 3377.0 0.9466301462921684 1
gene  1 19 57 -0.17876982644075276 0 3378.0 -0.17876982644075276 1
gene  1 21 57 -0.5508011624045341 0 3380.0 -0.5508011624045341 1
gene  1 22 57 0.0013748515979292528 0 3381.0 0.0013748515979292528 1
gene  1 26 57 0.1275505949710009 0 3385.0 0.1275505949710009 1
gene  1 27 57 -1.1689800487529016 0 3386.0 -1.1689800487529016 1
gene  1 29 57 -0.38420063513056474 0 3388.0 -0.38420063513056474 1
gene  1 30 57 0.018995697003306465 0 3389.0 0.018995697003306465 1
gene  1 31 57 -0.11576099504943849 0 3390.0 -0.11576099504943849 1
gene  1 33 57 -0.6109319073511073 0 3392.0 -0.6109319073511073 1
gene  1 34 57 -0.8499577345078317 0 3393.0 -0.8499577345078317 1
gene  1 35 57 -0.03868980696189897 0 3394.0 -0.03868980696189897 1
gene  1 36 57 -0.7184213682400081 0 3395.0 -0.7184213682400081 1
gene  1 37 57 0.7021695200700738 0 3396.0 0.7021695200700738 1
gene  1 38 57 0.019367183620269374 0 3397.0 0.019367183620269374 1
gene  1 39 57 0.8458491603518755 0 3398.0 0.8458491603518755 1
gene  1 40 57 -0.9745601130994387 0 3399.0 -0.9745601130994387 1
gene  1 41 57 0.7061516368848669 0 3400.0 0.7061516368848669 1
gene  1 52 57 -0.04163201037916024 0 3411.0 -0.04163201037916024 1
gene  1 54 57 -0.10913118226510102 0 3413.0 -0.10913118226510102 1
gene  1 56 57 0.6273810662281314 0 3415.0 0.6273810662281314 1
gene  1 58 57 -0.9461000193792515 1 3417.0 -0.9461000193792515 1
gene  1 60 57 -0.2620525220301213 1 3419.0 -0.2620525220301213 1
gene  1 2 58 0.9036527693050965 0 3421.0 0.9036527693050965 1
gene  1 3 58 0.6870504974832858 0 3422.0 0.6870504974832858 1
gene  1 4 58 0.13678064867841763 0 3423.0 0.13678064867841763 1
gene  1 5 58 -1.0559914671853627 0 3424.0 -1.0559914671853627 1
gene  1 6 58 -0.023350352619427348 0 3425.0 -0.023350352619427348 1
gene  1 8 58 0.11552275936514778 0 3427.0 0.11552275936514778 1
gene  1 12 58 0.2369587926020309 0 3431.0 0.2369587926020309 1
gene  1 19 58 0.150442061432605 0 3438.0 0.150442061432605 1
gene  1 20 58 -0.07090003352292629 0 3439.0 -0.07090003352292629 1
gene  1 21 58 -0.003136527910535751 0 3440.0 -0.003136527910535751 1
gene  1 23 58 -0.05732222499513751 0 3442.0 -0.05732222499513751 1
gene  1 25 58 0.1267779831141417 0 3444.0 0.1267779831141417 1
gene  1 27 58 0.07597592469395884 0 3446.0 0.07597592469395884 1
gene  1 28 58 0.06471599611076692 0 3447.0 0.06471599611076692 1
gene  1 29 58 -0.6334141188582696 0 3448.0 -0.6334141188582696 1
gene  1 30 58 -0.15042394960216157 0 3449.0 -0.15042394960216157 1
gene  1 31 58 0.13386839844913773 0 3450.0 0.13386839844913773 1
gene  1 32 58 -0.9817972686749589 0 3451.0 -0.9817972686749589 1
gene  1 33 58 -0.49605470054046663 0 3452.0 -0.49605470054046663 1
gene  1 35 58 -0.4031678727562954 0 3454.0 -0.4031678727562954 1
gene  1 36 58 0.15103230589972932 0 3455.0 0.15103230589972932 1
gene  1 39 58 0.0831829772040127 0 3458.0 0.0831829772040127 1
gene  1 40 58 0.11809921054057411 0 3459.0 0.11809921054057411 1
gene  1 51 58 -0.10391214462429663 0 3470.0 -0.10391214462429663 1
gene  1 53 58 0.5266466020811977 0 3472.0 0.5266466020811977 1
gene  1 55 58 -0.1868742513270908 0 3474.0 -0.1868742513270908 1
gene  1 58 58 0.8848106481588298 1 3477.0 0.8848106481588298 1
gene  1 59 58 -0.07712091976532236 1 3478.0 -0.07712091976532236 1
gene  1 60 58 0.028388289310365633 1 3479.0 0.028388289310365633 1
gene  1 2 59 -0.24370362260069195 0 3481.0 -0.24370362260069195 1
gene  1 3 59 -0.0986538715238044 0 3482.0 -0.0986538715238044 1
gene  1 4 59 0.062099310118578124 0 3483.0 0.062099310118578124 1
gene  1 7 59 -0.7199402504022985 0 3486.0 -0.7199402504022985 1
gene  1 8 59 -0.14757575475424975 0 3487.0 -0.14757575475424975 1
gene  1 9 59 -0.7668569082601822 0 3488.0 -0.7668569082601822 1
gene  1 11 59 0.7318809909750554 0 3490.0 0.7318809909750554 1
gene  1 12 59 0.15024054676786142 0 3491.0 0.15024054676786142 1
gene  1 14 59 -0.7482838212972384 0 3493.0 -0.7482838212972384 1
gene  1 15 59 -0.354940008180185 0 3494.0 -0.354940008180185 1
gene  1 22 59 -0.11914529838246411 0 3501.0 -0.11914529838246411 1
gene  1 23 59 1.0240175998734902 0 3502.0 1.0240175998734902 1
gene  1 24 59 -0.9097988428468695 0 3503.0 -0.9097988428468695 1
gene  1 25 59 0.10262987860768431 0 3504.0 0.10262987860768431 1
gene  1 27 59 0.2082283090045438 0 3506.0 0.2082283090045438 1
gene  1 30 59 0.8492843225386484 0 3509.0 0.8492843225386484 1
gene  1 32 59 -0.7721217038407686 0 3511.0 -0.7721217038407686 1
gene  1 36 59 0.10047923725603461 0 3515.0 0.10047923725603461 1
gene  1 38 59 0.20700166230782646 0 3517.0 0.20700166230782646 1
gene  1 40 59 -0.13890114701354514 0 3519.0 -0.13890114701354514 1
gene  1 41 59 0.1038737402668981 0 3520.0 0.1038737402668981 1
gene  1 51 59 0.002667927914321022 0 3530.0 0.002667927914321022 1
gene  1 52 59 0.5961179841504047 0 3531.0 0.5961179841504047 1
gene  1 54 59 0.5260740320686459 0 3533.0 0.5260740320686459 1
gene  1 55 59 -0.05887546655354561 0 3534.0 -0.05887546655354561 1
gene  1 59 59 -1.047055579170049 1 3538.0 -1.047055579170049 1
gene  1 2 60 -0.4845501527881779 0 3541.0 -0.4845501527881779 1
gene  1 4 60 -0.5121897504932693 0 3543.0 -0.5121897504932693 1
gene  1 5 60 -0.7589621340940962 0 3544.0 -0.7589621340940962 1
gene  1 7 60 0.0512277073480006 0 3546.0 0.0512277073480006 1
gene  1 10 60 0.4082710258157603 0 3549.0 0.4082710258157603 1
gene  1 12 60 -0.7872558141503255 0 3551.0 -0.7872558141503255 1
gene  1 13 60 -0.1761225213819915 0 3552.0 -0.1761225213819915 1
gene  1 14 60 0.4735583886473279 0 3553.0 0.4735583886473279 1
gene  1 17 60 0.6511108357894573 0 3556.0 0.6511108357894573 1
gene  1 22 60 -0.10370923232944035 0 3561.0 -0.10370923232944035 1
gene  1 24 60 1.0413324165334377 0 3563.0 1.0413324165334377 1
gene  1 26 60 -0.9374837577650664 0 3565.0 -0.9374837577650664 1
gene  1 27 60 0.15748843486293843 0 3566.0 0.15748843486293843 1
gene  1 30 60 0.0010960712400815975 0 3569.0 0.0010960712400815975 1
gene  1 31 60 0.14566762793529325 0 3570.0 0.14566762793529325 1
gene  1 33 60 0.2952980005062217 0 3572.0 0.2952980005062217 1
gene  1 34 60 0.47423502010133123 0 3573.0 0.47423502010133123 1
gene  1 35 60 0.12579653311965455 0 3574.0 0.12579653311965455 1
gene  1 37 60 -1.053605643557042 0 3576.0 -1.053605643557042 1
gene  1 40 60 -0.11213626904298249 0 3579.0 -0.11213626904298249 1
gene  1 41 60 0.13851908704611077 0 3580.0 0.13851908704611077 1
gene  1 51 60 -0.10902968044316105 0 3590.0 -0.10902968044316105 1
gene  1 52 60 -0.07810587294298389 0 3591.0 -0.07810587294298389 1
gene  1 54 60 -0.12618030451997828 0 3593.0 -0.12618030451997828 1
gene  1 55 60 -0.03575310427537562 0 3594.0 -0.03575310427537562 1
gene  1 59 60 -0.15788146557854468 0 3598.0 -0.15788146557854468 1
gene  1 20 61 1.032078686584386 0 3599.0 1.032078686584386 1
gene  1 61 51 0.6529182823129195 0 3600.0 0.6529182823129195 1
gene  1 20 62 -0.0281017997934731 0 3601.0 -0.0281017997934731 1
gene  1 62 33 0.06981399607201597 0 3602.0 0.06981399607201597 1
genomeend 0
