genomestart  0
trait 1 0.0 0.0 0.0 0.0 0.0 0.0 0.0 0.0 
node 1 1 1 1
node 2 1 1 1
node 3 1 1 1
node 4 1 1 1
node 5 1 1 1
node 6 1 1 1
node 7 1 1 1
node 8 1 1 1
node 9 1 1 1
node 10 1 1 1
node 11 1 1 3
node 12 1 0 0
node 13 1 0 0
node 14 1 0 0
node 15 1 0 0
node 16 1 0 0
node 17 1 0 0
node 18 1 0 0
node 19 1 0 0
node 20 1 0 0
node 21 1 0 0
node 22 1 0 0
node 23 1 0 0
node 24 1 0 0
node 25 1 0 0
node 26 1 0 0
node 27 1 0 0
node 28 1 0 0
node 29 1 0 0
node 52 1 0 2
node 53 1 0 2
node 54 1 0 2
node 55 1 0 2
node 56 1 0 2
node 57 1 0 2
node 58 1 0 2
node 59 1 0 2
node 60 1 0 2
node 61 1 0 2
node 62 1 0 0
node 63 1 0 0
node 64 1 0 0
gene  1 1 12 -0.5734567352588708 0 671.0 -0.5734567352588708 1
gene  1 2 12 0.1310659752066877 0 672.0 0.1310659752066877 1
gene  1 4 12 0.1242477514614436 0 674.0 0.1242477514614436 1
gene  1 5 12 0.38114868722347084 0 675.0 0.38114868722347084 1
gene  1 8 12 -1.1513692340924844 0 678.0 -1.1513692340924844 1
gene  1 12 12 -0.17581894907564266 1 682.0 -0.17581894907564266 1
gene  1 15 12 0.18845144962909077 1 685.0 0.18845144962909077 1
gene  1 18 12 0.4413213762661202 1 688.0 0.4413213762661202 1
gene  1 19 12 0.2594052159983889 1 689.0 0.2594052159983889 1
gene  1 21 12 0.997066955820223 1 691.0 0.997066955820223 1
gene  1 23 12 -0.8519632922903612 1 693.0 -0.8519632922903612 1
gene  1 26 12 -0.5104894805581993 1 696.0 -0.5104894805581993 1
gene  1 28 12 0.17181539917862682 1 698.0 0.17181539917862682 1
gene  1 29 12 -0.6815339312749882 1 699.0 -0.6815339312749882 1
gene  1 52 12 0.027579684551696848 1 722.0 0.027579684551696848 1
gene  1 56 12 0.0036607281838818098 1 726.0 0.0036607281838818098 1
gene  1 57 12 0.5692530906049307 1 727.0 0.5692530906049307 1
gene  1 58 12 0.11326942872705484 1 728.0 0.11326942872705484 1
gene  1 60 12 0.1764208400306494 1 730.0 0.1764208400306494 1
gene  1 61 12 -0.07040352839544031 1 731.0 -0.07040352839544031 1
gene  1 2 13 1.1819949383443322 0 733.0 1.1819949383443322 1
gene  1 6 13 -0.1798496346628155 0 737.0 -0.1798496346628155 1
gene  1 8 13 0.08676799712283519 0 739.0 0.08676799712283519 1
gene  1 13 13 -0.2900136771854436 1 744.0 -0.2900136771854436 1
gene  1 16 13 -0.25109414900106186 1 747.0 -0.25109414900106186 1
gene  1 17 13 0.8086770692830598 1 748.0 0.8086770692830598 1
gene  1 18 13 -0.11567362847793503 1 749.0 -0.11567362847793503 1
gene  1 21 13 0.7891678614411622 1 752.0 0.7891678614411622 1
gene  1 22 13 -0.47689849116247574 1 753.0 -0.47689849116247574 1
gene  1 23 13 1.1102826342739445 1 754.0 1.1102826342739445 1
gene  1 27 13 0.644956495694339 1 758.0 0.644956495694339 1
gene  1 54 13 -0.09582133211542282 1 785.0 -0.09582133211542282 1
gene  1 59 13 0.611541029118527 1 790.0 0.611541029118527 1
gene  1 60 13 0.5526247510377944 1 791.0 0.5526247510377944 1
gene  1 1 14 -0.5074248778872663 0 793.0 -0.5074248778872663 1
gene  1 3 14 -1.2631415003079023 0 795.0 -1.2631415003079023 1
gene  1 4 14 -0.7890985640220947 0 796.0 -0.7890985640220947 1
gene  1 10 14 0.03329196002228821 0 802.0 0.03329196002228821 1
gene  1 17 14 0.5266340118545145 1 809.0 0.5266340118545145 1
gene  1 18 14 -0.4673658271007656 1 810.0 -0.4673658271007656 1
gene  1 20 14 0.24954828745873925 1 812.0 0.24954828745873925 1
gene  1 25 14 0.07891165104519504 1 817.0 0.07891165104519504 1
gene  1 26 14 -1.3810279467309259 1 818.0 -1.3810279467309259 1
gene  1 27 14 -0.46008313277210683 1 819.0 -0.46008313277210683 1
gene  1 53 14 -0.2758495919673907 1 845.0 -0.2758495919673907 1
gene  1 56 14 0.14253109303561434 1 848.0 0.14253109303561434 1
gene  1 61 14 -0.5144502239397077 1 853.0 -0.5144502239397077 1
gene  1 1 15 -0.32986648928737605 0 854.0 -0.32986648928737605 1
gene  1 4 15 -0.030003761998290912 0 857.0 -0.030003761998290912 1
gene  1 5 15 -0.0698692241109698 0 858.0 -0.0698692241109698 1
gene  1 7 15 0.46150073122746815 0 860.0 0.46150073122746815 1
gene  1 8 15 -0.17787164842449063 0 861.0 -0.17787164842449063 1
gene  1 9 15 0.02413600246060051 0 862.0 0.02413600246060051 1
gene  1 10 15 1.455829253325493 0 863.0 1.455829253325493 1
gene  1 11 15 -0.6397367243147069 0 864.0 -0.6397367243147069 1
gene  1 15 15 -0.15197807075965342 1 868.0 -0.15197807075965342 1
gene  1 16 15 0.3390119768632056 1 869.0 0.3390119768632056 1
gene  1 17 15 -0.6140047073176158 1 870.0 -0.6140047073176158 1
gene  1 19 15 0.8982902214485715 1 872.0 0.8982902214485715 1
gene  1 20 15 -0.04314371343697809 1 873.0 -0.04314371343697809 1
gene  1 21 15 0.36138414564400967 1 874.0 0.36138414564400967 1
gene  1 29 15 0.4890454262846218 1 882.0 0.4890454262846218 1
gene  1 54 15 0.36171898477344844 1 907.0 0.36171898477344844 1
gene  1 2 16 -0.08385131176750636 0 916.0 -0.08385131176750636 1
gene  1 6 16 0.18266335160946176 0 920.0 0.18266335160946176 1
gene  1 10 16 0.29575468114499565 0 924.0 0.29575468114499565 1
gene  1 11 16 1.2418559470894142 0 925.0 1.2418559470894142 1
gene  1 14 16 -0.4472895884128482 0 928.0 -0.4472895884128482 1
gene  1 24 16 -0.7250119053921333 1 938.0 -0.7250119053921333 1
gene  1 27 16 -0.4505760018176002 1 941.0 -0.4505760018176002 1
gene  1 28 16 0.36266576253454375 1 942.0 0.36266576253454375 1
gene  1 29 16 0.6751534883503117 1 943.0 0.6751534883503117 1
gene  1 54 16 -0.5665869101580038 1 968.0 -0.5665869101580038 1
gene  1 55 16 -0.5378911353017939 1 969.0 -0.5378911353017939 1
gene  1 56 16 -0.27935942606191855 1 970.0 -0.27935942606191855 1
gene  1 57 16 0.3159818164885251 1 971.0 0.3159818164885251 1
gene  1 1 17 -0.5671866012745839 0 976.0 -0.5671866012745839 1
gene  1 2 17 0.7280114003513309 0 977.0 0.7280114003513309 1
gene  1 3 17 -0.1335321742194151 0 978.0 -0.1335321742194151 1
gene  1 4 17 0.901744294239915 0 979.0 0.901744294239915 1
gene  1 5 17 -0.9476376501291556 0 980.0 -0.9476376501291556 1
gene  1 6 17 1.1180424241387823 0 981.0 1.1180424241387823 1
gene  1 11 17 -0.8817078372805318 0 986.0 -0.8817078372805318 1
gene  1 12 17 -1.1708513914763286 0 987.0 -1.1708513914763286 1
gene  1 14 17 -0.7699374197121299 0 989.0 -0.7699374197121299 1
gene  1 15 17 -1.0401601272053902 0 990.0 -1.0401601272053902 1
gene  1 19 17 0.11545106046740289 1 994.0 0.11545106046740289 1
gene  1 23 17 0.5755087581782546 1 998.0 0.5755087581782546 1
gene  1 26 17 -0.5834915798805713 1 1001.0 -0.5834915798805713 1
gene  1 28 17 -0.3811272585010117 1 1003.0 -0.3811272585010117 1
gene  1 52 17 -1.050611517890972 1 1027.0 -1.050611517890972 1
gene  1 53 17 0.3190178720073626 1 1028.0 0.3190178720073626 1
gene  1 55 17 0.1382229144799141 1 1030.0 0.1382229144799141 1
gene  1 56 17 0.03280249889994625 1 1031.0 0.03280249889994625 1
gene  1 57 17 0.9559864506670814 1 1032.0 0.9559864506670814 1
gene  1 58 17 -0.44965765526474094 1 1033.0 -0.44965765526474094 1
gene  1 60 17 -0.7737274012601022 1 1035.0 -0.7737274012601022 1
gene  1 61 17 -0.5196733530015871 1 1036.0 -0.5196733530015871 1
gene  1 2 18 0.2056838694556766 0 1038.0 0.2056838694556766 1
gene  1 3 18 -0.40670113743279557 0 1039.0 -0.40670113743279557 1
gene  1 5 18 0.4418889822894194 0 1041.0 0.4418889822894194 1
gene  1 7 18 0.05777077930467367 0 1043.0 0.05777077930467367 1
gene  1 8 18 -1.2464939171701246 0 1044.0 -1.2464939171701246 1
gene  1 10 18 -0.6052756405896529 0 1046.0 -0.6052756405896529 1
gene  1 11 18 -0.060500968847900176 0 1047.0 -0.060500968847900176 1
gene  1 13 18 -1.25010013447472 0 1049.0 -1.25010013447472 1
gene  1 14 18 -1.3492126552442538 0 1050.0 -1.3492126552442538 1
gene  1 15 18 -0.49718290203534554 0 1051.0 -0.49718290203534554 1
gene  1 16 18 -0.3096173529488556 0 1052.0 -0.3096173529488556 1
gene  1 18 18 -0.09876910293175648 1 1054.0 -0.09876910293175648 1
gene  1 19 18 1.144574317650457 1 1055.0 1.144574317650457 1
gene  1 20 18 -0.8100114576441442 1 1056.0 -0.8100114576441442 1
gene  1 21 18 0.5725882436423919 1 1057.0 0.5725882436423919 1
gene  1 22 18 -0.02621626694680179 1 1058.0 -0.02621626694680179 1
gene  1 25 18 -0.7458655461676567 1 1061.0 -0.7458655461676567 1
gene  1 27 18 -0.2114299898180687 1 1063.0 -0.2114299898180687 1
gene  1 53 18 -0.233076199846343 1 1089.0 -0.233076199846343 1
gene  1 55 18 -0.002222689225380492 1 1091.0 -0.002222689225380492 1
gene  1 56 18 -0.013994261160786767 1 1092.0 -0.013994261160786767 1
gene  1 57 18 -0.6851757529657844 1 1093.0 -0.6851757529657844 1
gene  1 58 18 1.0867625182147755 1 1094.0 1.0867625182147755 1
gene  1 60 18 0.19232342635812946 1 1096.0 0.19232342635812946 1
gene  1 61 18 -0.37126583736264274 1 1097.0 -0.37126583736264274 1
gene  1 1 19 -0.16653588107630185 0 1098.0 -0.16653588107630185 1
gene  1 5 19 0.5063590370470986 0 1102.0 0.5063590370470986 1
gene  1 6 19 -0.05105706132631746 0 1103.0 -0.05105706132631746 1
gene  1 7 19 -0.06879889993902584 0 1104.0 -0.06879889993902584 1
gene  1 9 19 -0.17296993323492646 0 1106.0 -0.17296993323492646 1
gene  1 10 19 0.23061881858063366 0 1107.0 0.23061881858063366 1
gene  1 11 19 -0.2061671134292641 0 1108.0 -0.2061671134292641 1
gene  1 12 19 1.3914647293054958 0 1109.0 1.3914647293054958 1
gene  1 19 19 -0.2079290089041671 1 1116.0 -0.2079290089041671 1
gene  1 24 19 -0.8286645870668375 1 1121.0 -0.8286645870668375 1
gene  1 25 19 -0.011743780886221633 1 1122.0 -0.011743780886221633 1
gene  1 26 19 0.292811651735123 1 1123.0 0.292811651735123 1
gene  1 52 19 -0.1125839002503119 1 1149.0 -0.1125839002503119 1
gene  1 54 19 -0.043263489714130306 1 1151.0 -0.043263489714130306 1
gene  1 58 19 -0.30429572350292755 1 1155.0 -0.30429572350292755 1
gene  1 60 19 0.37225659554792095 1 1157.0 0.37225659554792095 1
gene  1 61 19 -0.511139314335973 1 1158.0 -0.511139314335973 1
gene  1 1 20 0.10038329397829632 0 1159.0 0.10038329397829632 1
gene  1 5 20 -0.016255712327936548 0 1163.0 -0.016255712327936548 1
gene  1 7 20 0.1453288647344455 0 1165.0 0.1453288647344455 1
gene  1 8 20 0.1377711582535537 0 1166.0 0.1377711582535537 1
gene  1 10 20 0.47924608750764824 0 1168.0 0.47924608750764824 1
gene  1 11 20 1.3628711788018157 0 1169.0 1.3628711788018157 1
gene  1 14 20 -0.1876595909963646 0 1172.0 -0.1876595909963646 1
gene  1 22 20 -0.788710479752864 1 1180.0 -0.788710479752864 1
gene  1 23 20 -0.9347300205259237 1 1181.0 -0.9347300205259237 1
gene  1 24 20 0.7445663270677997 1 1182.0 0.7445663270677997 1
gene  1 58 20 -0.3436543803174156 1 1216.0 -0.3436543803174156 1
gene  1 60 20 -1.3286032556148677 1 1218.0 -1.3286032556148677 1
gene  1 3 21 -0.19134054499561737 0 1222.0 -0.19134054499561737 1
gene  1 4 21 0.2694081971761656 0 1223.0 0.2694081971761656 1
gene  1 5 21 0.48273607512598843 0 1224.0 0.48273607512598843 1
gene  1 6 21 0.19320785038435312 0 1225.0 0.19320785038435312 1
gene  1 8 21 -0.17476720694267436 0 1227.0 -0.17476720694267436 1
gene  1 10 21 -0.7263108815658964 0 1229.0 -0.7263108815658964 1
gene  1 11 21 0.03424236672519944 0 1230.0 0.03424236672519944 1
gene  1 12 21 0.7739229616032719 0 1231.0 0.7739229616032719 1
gene  1 14 21 -0.43820284862817355 0 1233.0 -0.43820284862817355 1
gene  1 16 21 0.38260107612973293 0 1235.0 0.38260107612973293 1
gene  1 23 21 0.5760483484825414 1 1242.0 0.5760483484825414 1
gene  1 25 21 0.7003744079476318 1 1244.0 0.7003744079476318 1
gene  1 26 21 0.12009574803677157 1 1245.0 0.12009574803677157 1
gene  1 54 21 0.10931074054739695 1 1273.0 0.10931074054739695 1
gene  1 56 21 0.06245339938340924 1 1275.0 0.06245339938340924 1
gene  1 57 21 -0.7088432796114732 1 1276.0 -0.7088432796114732 1
gene  1 2 22 -0.20921073256896497 0 1282.0 -0.20921073256896497 1
gene  1 3 22 -0.5882747229784135 0 1283.0 -0.5882747229784135 1
gene  1 5 22 -0.5703603609606984 0 1285.0 -0.5703603609606984 1
gene  1 7 22 0.34196119565526334 0 1287.0 0.34196119565526334 1
gene  1 8 22 -0.0988148993250539 0 1288.0 -0.0988148993250539 1
gene  1 9 22 -0.5967235167146114 0 1289.0 -0.5967235167146114 1
gene  1 10 22 0.376781455103569 0 1290.0 0.376781455103569 1
gene  1 11 22 0.12226867245413994 0 1291.0 0.12226867245413994 1
gene  1 12 22 -0.7490040565025752 0 1292.0 -0.7490040565025752 1
gene  1 15 22 0.702918962537912 0 1295.0 0.702918962537912 1
gene  1 19 22 0.15841698744507884 0 1299.0 0.15841698744507884 1
gene  1 20 22 1.2075974552257254 0 1300.0 1.2075974552257254 1
gene  1 21 22 -1.2098963201171948 0 1301.0 -1.2098963201171948 1
gene  1 22 22 0.40159553391207536 1 1302.0 0.40159553391207536 1
gene  1 23 22 1.1000321714067276 1 1303.0 1.1000321714067276 1
gene  1 24 22 -0.038275272201956076 1 1304.0 -0.038275272201956076 1
gene  1 25 22 0.18602339163414677 1 1305.0 0.18602339163414677 1
gene  1 26 22 -0.3950865027257827 1 1306.0 -0.3950865027257827 1
gene  1 27 22 0.6241905544665047 1 1307.0 0.6241905544665047 1
gene  1 29 22 -0.1511216290105184 1 1309.0 -0.1511216290105184 1
gene  1 53 22 -0.504127037588286 1 1333.0 -0.504127037588286 1
gene  1 55 22 -0.7569622000672397 1 1335.0 -0.7569622000672397 1
gene  1 56 22 1.005834864223186 1 1336.0 1.005834864223186 1
gene  1 58 22 1.2403380765851748 1 1338.0 1.2403380765851748 1
gene  1 60 22 -0.5433048590950231 1 1340.0 -0.5433048590950231 1
gene  1 61 22 -0.6102057399129728 1 1341.0 -0.6102057399129728 1
gene  1 1 23 -0.13929019871134837 0 1342.0 -0.13929019871134837 1
gene  1 3 23 -0.09771053688600924 0 1344.0 -0.09771053688600924 1
gene  1 8 23 -1.2387207728571736 0 1349.0 -1.2387207728571736 1
gene  1 9 23 -0.12152490351798564 0 1350.0 -0.12152490351798564 1
gene  1 11 23 0.12227559929079727 0 1352.0 0.12227559929079727 1
gene  1 13 23 -0.008834182497003407 0 1354.0 -0.008834182497003407 1
gene  1 15 23 -0.23087361958770544 0 1356.0 -0.23087361958770544 1
gene  1 16 23 0.2789519747485236 0 1357.0 0.2789519747485236 1
gene  1 18 23 0.10821916489433633 0 1359.0 0.10821916489433633 1
gene  1 20 23 0.16451122285296546 0 1361.0 0.16451122285296546 1
gene  1 21 23 0.1580600409819144 0 1362.0 0.1580600409819144 1
gene  1 23 23 0.13572243990181088 1 1364.0 0.13572243990181088 1
gene  1 24 23 -0.18989315767867543 1 1365.0 -0.18989315767867543 1
gene  1 26 23 0.9523653441216021 1 1367.0 0.9523653441216021 1
gene  1 28 23 0.1382815881063469 1 1369.0 0.1382815881063469 1
gene  1 29 23 0.6766974507437709 1 1370.0 0.6766974507437709 1
gene  1 52 23 -0.7495474257147916 1 1393.0 -0.7495474257147916 1
gene  1 53 23 1.0652525983199246 1 1394.0 1.0652525983199246 1
gene  1 54 23 0.699757933021684 1 1395.0 0.699757933021684 1
gene  1 55 23 -0.275948256762234 1 1396.0 -0.275948256762234 1
gene  1 58 23 0.18814843811693086 1 1399.0 0.18814843811693086 1
gene  1 60 23 0.13272345971436728 1 1401.0 0.13272345971436728 1
gene  1 2 24 0.05026926510896303 0 1404.0 0.05026926510896303 1
gene  1 3 24 -0.3447979699498187 0 1405.0 -0.3447979699498187 1
gene  1 7 24 -0.09041275464252146 0 1409.0 -0.09041275464252146 1
gene  1 8 24 -0.06029778110013814 0 1410.0 -0.06029778110013814 1
gene  1 9 24 -0.5469505400542902 0 1411.0 -0.5469505400542902 1
gene  1 11 24 -0.7889628507277161 0 1413.0 -0.7889628507277161 1
gene  1 12 24 0.09586119002725958 0 1414.0 0.09586119002725958 1
gene  1 14 24 -0.1746065196467116 0 1416.0 -0.1746065196467116 1
gene  1 15 24 0.21467665580223427 0 1417.0 0.21467665580223427 1
gene  1 16 24 0.6716744178554198 0 1418.0 0.6716744178554198 1
gene  1 17 24 -0.1247366747951601 0 1419.0 -0.1247366747951601 1
gene  1 18 24 1.801865994790874 0 1420.0 1.801865994790874 1
gene  1 20 24 -0.2512045587307339 0 1422.0 -0.2512045587307339 1
gene  1 21 24 -0.09725616891206566 0 1423.0 -0.09725616891206566 1
gene  1 24 24 0.4571491999122903 1 1426.0 0.4571491999122903 1
gene  1 52 24 -0.19709758898420698 1 1454.0 -0.19709758898420698 1
gene  1 53 24 0.15251863085767858 1 1455.0 0.15251863085767858 1
gene  1 58 24 -0.378081719569534 1 1460.0 -0.378081719569534 1
gene  1 60 24 -0.060713946954754044 1 1462.0 -0.060713946954754044 1
gene  1 1 25 -1.160072550061452 0 1464.0 -1.160072550061452 1
gene  1 2 25 0.32022044913025516 0 1465.0 0.32022044913025516 1
gene  1 4 25 0.00499257185586055 0 1467.0 0.00499257185586055 1
gene  1 5 25 0.1327560750255648 0 1468.0 0.1327560750255648 1
gene  1 9 25 1.021262025631078 0 1472.0 1.021262025631078 1
gene  1 13 25 -1.026151854817361 0 1476.0 -1.026151854817361 1
gene  1 14 25 -0.34863197175497657 0 1477.0 -0.34863197175497657 1
gene  1 17 25 0.13640197034643328 0 1480.0 0.13640197034643328 1
gene  1 18 25 -1.2411594441711233 0 1481.0 -1.2411594441711233 1
gene  1 20 25 0.23230765452855795 0 1483.0 0.23230765452855795 1
gene  1 21 25 0.06721550016448058 0 1484.0 0.06721550016448058 1
gene  1 29 25 1.3309794777338202 1 1492.0 1.3309794777338202 1
gene  1 52 25 -0.267700729330575 1 1515.0 -0.267700729330575 1
gene  1 53 25 0.21949325741967823 1 1516.0 0.21949325741967823 1
gene  1 54 25 -0.9331334605049335 1 1517.0 -0.9331334605049335 1
gene  1 57 25 -0.12449599215460172 1 1520.0 -0.12449599215460172 1
gene  1 58 25 -1.1874227580604682 1 1521.0 -1.1874227580604682 1
gene  1 60 25 0.8775545843082755 1 1523.0 0.8775545843082755 1
gene  1 61 25 0.389782508268226 1 1524.0 0.389782508268226 1
gene  1 1 26 0.1517251397292731 0 1525.0 0.1517251397292731 1
gene  1 2 26 0.404667950984181 0 1526.0 0.404667950984181 1
gene  1 5 26 -0.16348434947055807 0 1529.0 -0.16348434947055807 1
gene  1 7 26 7.329800350211674E-4 0 1531.0 7.329800350211674E-4 1
gene  1 8 26 -0.5923887790667779 0 1532.0 -0.5923887790667779 1
gene  1 9 26 -1.1571412142357795 0 1533.0 -1.1571412142357795 1
gene  1 10 26 1.4101495605732435 0 1534.0 1.4101495605732435 1
gene  1 12 26 -0.18459165431607344 0 1536.0 -0.18459165431607344 1
gene  1 13 26 0.2462415119391997 0 1537.0 0.2462415119391997 1
gene  1 16 26 -0.3815464403792222 0 1540.0 -0.3815464403792222 1
gene  1 17 26 -0.010420468636140757 0 1541.0 -0.010420468636140757 1
gene  1 19 26 -0.08183853825607823 0 1543.0 -0.08183853825607823 1
gene  1 20 26 0.9171260823377587 0 1544.0 0.9171260823377587 1
gene  1 26 26 0.3552474666695117 1 1550.0 0.3552474666695117 1
gene  1 27 26 0.8829275423470884 1 1551.0 0.8829275423470884 1
gene  1 52 26 0.16357130819151694 1 1576.0 0.16357130819151694 1
gene  1 54 26 0.23596585319311156 1 1578.0 0.23596585319311156 1
gene  1 55 26 -0.1754277225156081 1 1579.0 -0.1754277225156081 1
gene  1 58 26 0.030422540168688398 1 1582.0 0.030422540168688398 1
gene  1 59 26 -0.4648042361414421 1 1583.0 -0.4648042361414421 1
gene  1 61 26 -0.38544833773448 1 1585.0 -0.38544833773448 1
gene  1 1 27 -0.4243196912061346 0 1586.0 -0.4243196912061346 1
gene  1 7 27 0.19491187710251398 0 1592.0 0.19491187710251398 1
gene  1 8 27 -1.2276240659012239 0 1593.0 -1.2276240659012239 1
gene  1 9 27 -0.06314032314377359 0 1594.0 -0.06314032314377359 1
gene  1 11 27 0.20462119938946483 0 1596.0 0.20462119938946483 1
gene  1 12 27 0.18673823286641777 0 1597.0 0.18673823286641777 1
gene  1 13 27 0.19177366696104162 0 1598.0 0.19177366696104162 1
gene  1 14 27 0.13495856887060442 0 1599.0 0.13495856887060442 1
gene  1 17 27 -0.1242560260852452 0 1602.0 -0.1242560260852452 1
gene  1 18 27 -0.2499194543898758 0 1603.0 -0.2499194543898758 1
gene  1 19 27 -0.12608795178464985 0 1604.0 -0.12608795178464985 1
gene  1 24 27 1.78808942455542 0 1609.0 1.78808942455542 1
gene  1 26 27 -0.2493899301877333 0 1611.0 -0.2493899301877333 1
gene  1 27 27 -0.08742476231374678 1 1612.0 -0.08742476231374678 1
gene  1 55 27 0.559101752438141 1 1640.0 0.559101752438141 1
gene  1 60 27 -0.5020810624656556 1 1645.0 -0.5020810624656556 1
gene  1 61 27 -0.08523106222278791 1 1646.0 -0.08523106222278791 1
gene  1 3 28 -0.18487794777455668 0 1649.0 -0.18487794777455668 1
gene  1 4 28 -0.35262952341442 0 1650.0 -0.35262952341442 1
gene  1 5 28 0.06360655539816519 0 1651.0 0.06360655539816519 1
gene  1 6 28 -0.06184687013239624 0 1652.0 -0.06184687013239624 1
gene  1 7 28 -0.7587338329823533 0 1653.0 -0.7587338329823533 1
gene  1 8 28 0.49961172943586685 0 1654.0 0.49961172943586685 1
gene  1 9 28 0.8443771151201616 0 1655.0 0.8443771151201616 1
gene  1 10 28 -0.3689034868141354 0 1656.0 -0.3689034868141354 1
gene  1 11 28 -0.6766721196906393 0 1657.0 -0.6766721196906393 1
gene  1 12 28 -0.8703327581354406 0 1658.0 -0.8703327581354406 1
gene  1 14 28 0.11894716711453013 0 1660.0 0.11894716711453013 1
gene  1 16 28 0.7112799075072249 0 1662.0 0.7112799075072249 1
gene  1 18 28 0.1496746066946722 0 1664.0 0.1496746066946722 1
gene  1 19 28 -0.602029136405468 0 1665.0 -0.602029136405468 1
gene  1 24 28 0.6382196796520323 0 1670.0 0.6382196796520323 1
gene  1 25 28 -0.08226262306870484 0 1671.0 -0.08226262306870484 1
gene  1 26 28 0.04592363577433081 0 1672.0 0.04592363577433081 1
gene  1 29 28 1.435637126053369 1 1675.0 1.435637126053369 1
gene  1 56 28 -0.7167469312123291 1 1702.0 -0.7167469312123291 1
gene  1 58 28 0.18807850042687935 1 1704.0 0.18807850042687935 1
gene  1 60 28 -0.015543691663093356 1 1706.0 -0.015543691663093356 1
gene  1 61 28 0.2816297352813723 1 1707.0 0.2816297352813723 1
gene  1 3 29 -0.4010829591047952 0 1710.0 -0.4010829591047952 1
gene  1 4 29 -0.030285675562861797 0 1711.0 -0.030285675562861797 1
gene  1 5 29 0.6703192944150567 0 1712.0 0.6703192944150567 1
gene  1 7 29 -0.9599338738556896 0 1714.0 -0.9599338738556896 1
gene  1 10 29 0.1824712197610394 0 1717.0 0.1824712197610394 1
gene  1 12 29 -1.2654230236560033 0 1719.0 -1.2654230236560033 1
gene  1 14 29 0.17611808052225583 0 1721.0 0.17611808052225583 1
gene  1 15 29 0.10804331650370705 0 1722.0 0.10804331650370705 1
gene  1 16 29 0.10262424174458079 0 1723.0 0.10262424174458079 1
gene  1 19 29 -0.186045865027428 0 1726.0 -0.186045865027428 1
gene  1 20 29 -0.5157617785764924 0 1727.0 -0.5157617785764924 1
gene  1 22 29 0.0986070244873791 0 1729.0 0.0986070244873791 1
gene  1 23 29 0.09566706716126042 0 1730.0 0.09566706716126042 1
gene  1 26 29 0.06620681350101426 0 1733.0 0.06620681350101426 1
gene  1 27 29 -1.3693723165376814 0 1734.0 -1.3693723165376814 1
gene  1 28 29 -0.4348847245838529 0 1735.0 -0.4348847245838529 1
gene  1 29 29 -1.507057333015635 1 1736.0 -1.507057333015635 1
gene  1 52 29 -0.601661370187508 1 1759.0 -0.601661370187508 1
gene  1 53 29 0.19915085381294068 1 1760.0 0.19915085381294068 1
gene  1 54 29 0.4244170208570701 1 1761.0 0.4244170208570701 1
gene  1 57 29 0.018549431105770592 1 1764.0 0.018549431105770592 1
gene  1 59 29 -0.9145368517938902 1 1766.0 -0.9145368517938902 1
gene  1 2 52 -0.4442396667205968 0 3112.0 -0.4442396667205968 0
gene  1 6 52 -0.7256353474271503 0 3116.0 -0.7256353474271503 1
gene  1 8 52 0.5447542448767972 0 3118.0 0.5447542448767972 1
gene  1 10 52 -0.15682669031759683 0 3120.0 -0.15682669031759683 1
gene  1 12 52 0.7123450645987671 0 3122.0 0.7123450645987671 1
gene  1 13 52 0.5573834680735239 0 3123.0 0.5573834680735239 1
gene  1 14 52 -1.0759589468714394 0 3124.0 -1.0759589468714394 1
gene  1 16 52 0.37454463304881175 0 3126.0 0.37454463304881175 1
gene  1 18 52 -0.18719382285366531 0 3128.0 -0.18719382285366531 1
gene  1 22 52 0.10977625411351555 0 3132.0 0.10977625411351555 1
gene  1 23 52 -0.44022299622673483 0 3133.0 -0.44022299622673483 1
gene  1 25 52 -0.17161586144372704 0 3135.0 -0.17161586144372704 1
gene  1 29 52 -0.8372203707112212 0 3139.0 -0.8372203707112212 1
gene  1 52 52 0.705464571219439 1 3162.0 0.705464571219439 1
gene  1 54 52 -1.2705641176186473 1 3164.0 -1.2705641176186473 1
gene  1 55 52 0.12436500744238618 1 3165.0 0.12436500744238618 1
gene  1 56 52 -0.6770509776577909 1 3166.0 -0.6770509776577909 0
gene  1 57 52 -0.2589370811367997 1 3167.0 -0.2589370811367997 1
gene  1 59 52 -0.303180988955682 1 3169.0 -0.303180988955682 1
gene  1 61 52 0.09399940618308268 1 3171.0 0.09399940618308268 1
gene  1 4 53 0.4629247000084438 0 3175.0 0.4629247000084438 1
gene  1 5 53 0.20544800670098093 0 3176.0 0.20544800670098093 1
gene  1 6 53 -0.38277564478560344 0 3177.0 -0.38277564478560344 1
gene  1 7 53 -0.3627541047284905 0 3178.0 -0.3627541047284905 1
gene  1 9 53 0.0028758537470664064 0 3180.0 0.0028758537470664064 1
gene  1 11 53 -0.46404029425104243 0 3182.0 -0.46404029425104243 1
gene  1 13 53 -0.05472112376197419 0 3184.0 -0.05472112376197419 1
gene  1 14 53 -0.4308741270674496 0 3185.0 -0.4308741270674496 1
gene  1 15 53 -1.1467409889555535 0 3186.0 -1.1467409889555535 1
gene  1 16 53 -0.17579172865906406 0 3187.0 -0.17579172865906406 1
gene  1 17 53 0.004589581833519987 0 3188.0 0.004589581833519987 1
gene  1 18 53 0.01119234890676328 0 3189.0 0.01119234890676328 1
gene  1 19 53 -0.9889885317736368 0 3190.0 -0.9889885317736368 1
gene  1 22 53 -1.009819934790243 0 3193.0 -1.009819934790243 1
gene  1 24 53 -0.15663981558125217 0 3195.0 -0.15663981558125217 1
gene  1 26 53 -0.6858826691505634 0 3197.0 -0.6858826691505634 1
gene  1 52 53 -0.06094069454437757 0 3223.0 -0.06094069454437757 1
gene  1 55 53 -0.8713991448252716 1 3226.0 -0.8713991448252716 1
gene  1 57 53 -0.41770825318229166 1 3228.0 -0.41770825318229166 1
gene  1 59 53 0.07996122694149338 1 3230.0 0.07996122694149338 1
gene  1 61 53 -0.15733327430480268 1 3232.0 -0.15733327430480268 1
gene  1 1 54 0.1661195122743114 0 3233.0 0.1661195122743114 1
gene  1 3 54 0.008314387864372386 0 3235.0 0.008314387864372386 1
gene  1 4 54 -0.560863046528582 0 3236.0 -0.560863046528582 1
gene  1 6 54 0.30872154246368483 0 3238.0 0.30872154246368483 1
gene  1 12 54 -0.064840172948889 0 3244.0 -0.064840172948889 1
gene  1 13 54 0.2620184399141254 0 3245.0 0.2620184399141254 1
gene  1 17 54 -0.09782370291608236 0 3249.0 -0.09782370291608236 1
gene  1 20 54 0.2943256740195855 0 3252.0 0.2943256740195855 1
gene  1 21 54 -0.30412573524047637 0 3253.0 -0.30412573524047637 1
gene  1 23 54 -0.19405970629699787 0 3255.0 -0.19405970629699787 1
gene  1 24 54 -0.7640679189634055 0 3256.0 -0.7640679189634055 1
gene  1 27 54 0.14664630820020697 0 3259.0 0.14664630820020697 1
gene  1 28 54 -0.049090433688104285 0 3260.0 -0.049090433688104285 1
gene  1 29 54 0.22624661002315996 0 3261.0 0.22624661002315996 1
gene  1 54 54 -0.7867206553720227 1 3286.0 -0.7867206553720227 1
gene  1 55 54 0.8434481952089465 1 3287.0 0.8434481952089465 1
gene  1 59 54 0.3100735206431341 1 3291.0 0.3100735206431341 1
gene  1 60 54 1.0499664675120721 1 3292.0 1.0499664675120721 1
gene  1 1 55 0.4525095678454056 0 3294.0 0.4525095678454056 1
gene  1 6 55 -0.7969899240903321 0 3299.0 -0.7969899240903321 1
gene  1 9 55 -0.38780375671461587 0 3302.0 -0.38780375671461587 1
gene  1 12 55 0.8009424530545987 0 3305.0 0.8009424530545987 1
gene  1 13 55 -0.35185107706339386 0 3306.0 -0.35185107706339386 1
gene  1 17 55 0.9189722796619466 0 3310.0 0.9189722796619466 1
gene  1 19 55 0.045059300332052715 0 3312.0 0.045059300332052715 1
gene  1 22 55 -0.3266003944990907 0 3315.0 -0.3266003944990907 1
gene  1 23 55 -0.20162988146461483 0 3316.0 -0.20162988146461483 1
gene  1 26 55 0.007829623531828506 0 3319.0 0.007829623531828506 1
gene  1 52 55 -0.3473344382916487 0 3345.0 -0.3473344382916487 1
gene  1 53 55 0.8862723484697974 0 3346.0 0.8862723484697974 1
gene  1 58 55 0.8213560272047659 1 3351.0 0.8213560272047659 1
gene  1 59 55 0.10089089820634557 1 3352.0 0.10089089820634557 1
gene  1 60 55 0.9889263064388243 1 3353.0 0.9889263064388243 1
gene  1 3 56 1.0420338298116603 0 3357.0 1.0420338298116603 1
gene  1 6 56 -0.15885058318749487 0 3360.0 -0.15885058318749487 1
gene  1 7 56 0.05097070907434583 0 3361.0 0.05097070907434583 1
gene  1 9 56 -0.6129269373037809 0 3363.0 -0.6129269373037809 1
gene  1 11 56 0.39004655587620235 0 3365.0 0.39004655587620235 1
gene  1 12 56 0.3907121260918091 0 3366.0 0.3907121260918091 1
gene  1 14 56 -0.9990764388655538 0 3368.0 -0.9990764388655538 1
gene  1 15 56 0.5564535248835003 0 3369.0 0.5564535248835003 1
gene  1 17 56 0.8806315259783575 0 3371.0 0.8806315259783575 1
gene  1 19 56 0.34046545206082574 0 3373.0 0.34046545206082574 1
gene  1 21 56 -0.5334278404205588 0 3375.0 -0.5334278404205588 1
gene  1 22 56 0.8078379877523906 0 3376.0 0.8078379877523906 1
gene  1 24 56 0.039832997817359744 0 3378.0 0.039832997817359744 1
gene  1 26 56 0.4865680279048125 0 3380.0 0.4865680279048125 1
gene  1 28 56 0.048243722268539194 0 3382.0 0.048243722268539194 1
gene  1 29 56 0.06202391475126357 0 3383.0 0.06202391475126357 1
gene  1 53 56 -0.5927095964815837 0 3407.0 -0.5927095964815837 1
gene  1 54 56 0.18642942059085815 0 3408.0 0.18642942059085815 1
gene  1 55 56 0.6089134834135066 0 3409.0 0.6089134834135066 1
gene  1 56 56 -0.232824041606704 1 3410.0 -0.232824041606704 1
gene  1 60 56 -0.26779216571677034 1 3414.0 -0.26779216571677034 1
gene  1 2 57 -0.8560831759923249 0 3417.0 -0.8560831759923249 1
gene  1 3 57 -0.1765846136580829 0 3418.0 -0.1765846136580829 1
gene  1 5 57 -0.20633380227612386 0 3420.0 -0.20633380227612386 1
gene  1 6 57 -0.02007145142871404 0 3421.0 -0.02007145142871404 1
gene  1 7 57 0.1783734549106782 0 3422.0 0.1783734549106782 1
gene  1 14 57 -0.20974659633989157 0 3429.0 -0.20974659633989157 1
gene  1 15 57 0.5526113449262695 0 3430.0 0.5526113449262695 1
gene  1 17 57 1.1319465251439547 0 3432.0 1.1319465251439547 1
gene  1 18 57 -0.6047051899903292 0 3433.0 -0.6047051899903292 0
gene  1 19 57 2.1722326140994898E-4 0 3434.0 2.1722326140994898E-4 1
gene  1 20 57 -0.1341460415614924 0 3435.0 -0.1341460415614924 1
gene  1 22 57 -0.1963373320167134 0 3437.0 -0.1963373320167134 1
gene  1 23 57 -0.9087673527381718 0 3438.0 -0.9087673527381718 1
gene  1 24 57 0.061888513005990825 0 3439.0 0.061888513005990825 1
gene  1 28 57 -0.030827517552383187 0 3443.0 -0.030827517552383187 1
gene  1 29 57 -0.08333522633591373 0 3444.0 -0.08333522633591373 1
gene  1 57 57 0.337994470893488 1 3472.0 0.337994470893488 1
gene  1 58 57 -0.36518535749826386 1 3473.0 -0.36518535749826386 1
gene  1 60 57 0.06664490728099316 1 3475.0 0.06664490728099316 1
gene  1 61 57 -0.4842980378825481 1 3476.0 -0.4842980378825481 1
gene  1 2 58 0.5064269658799756 0 3478.0 0.5064269658799756 1
gene  1 3 58 0.764281293949298 0 3479.0 0.764281293949298 1
gene  1 9 58 0.14143775012687482 0 3485.0 0.14143775012687482 1
gene  1 12 58 0.0019360388459810918 0 3488.0 0.0019360388459810918 1
gene  1 14 58 -0.07330113346135038 0 3490.0 -0.07330113346135038 1
gene  1 16 58 -0.08924698871775052 0 3492.0 -0.08924698871775052 1
gene  1 19 58 -0.008334940857222722 0 3495.0 -0.008334940857222722 1
gene  1 21 58 0.37624133846373814 0 3497.0 0.37624133846373814 1
gene  1 24 58 0.5554087845405744 0 3500.0 0.5554087845405744 1
gene  1 52 58 -0.22292369561997566 0 3528.0 -0.22292369561997566 1
gene  1 53 58 -0.5899880189877446 0 3529.0 -0.5899880189877446 1
gene  1 59 58 0.096217196286855 1 3535.0 0.096217196286855 1
gene  1 60 58 -0.43533201014227696 1 3536.0 -0.43533201014227696 1
gene  1 61 58 0.3523902925371787 1 3537.0 0.3523902925371787 1
gene  1 3 59 0.3148005233479597 0 3540.0 0.3148005233479597 1
gene  1 6 59 -1.1645459015990274 0 3543.0 -1.1645459015990274 1
gene  1 13 59 0.604233097222877 0 3550.0 0.604233097222877 1
gene  1 14 59 -0.13495321706018149 0 3551.0 -0.13495321706018149 1
gene  1 15 59 -0.31078532799829717 0 3552.0 -0.31078532799829717 1
gene  1 17 59 1.0021395212601165 0 3554.0 1.0021395212601165 1
gene  1 19 59 -0.12184481416755988 0 3556.0 -0.12184481416755988 1
gene  1 20 59 0.023274603688229215 0 3557.0 0.023274603688229215 1
gene  1 22 59 0.34033645531811896 0 3559.0 0.34033645531811896 1
gene  1 23 59 -0.5817382813759315 0 3560.0 -0.5817382813759315 1
gene  1 25 59 0.2760880934670533 0 3562.0 0.2760880934670533 1
gene  1 26 59 -0.1471004592962538 0 3563.0 -0.1471004592962538 1
gene  1 27 59 0.11552390373183115 0 3564.0 0.11552390373183115 1
gene  1 28 59 0.4327029967679484 0 3565.0 0.4327029967679484 1
gene  1 29 59 0.612437782835405 0 3566.0 0.612437782835405 1
gene  1 55 59 0.520434602243516 0 3592.0 0.520434602243516 1
gene  1 56 59 -0.08190720146965487 0 3593.0 -0.08190720146965487 1
gene  1 59 59 0.262240432826788 1 3596.0 0.262240432826788 1
gene  1 61 59 0.21290206449102222 1 3598.0 0.21290206449102222 1
gene  1 1 60 0.09125887441162708 0 3599.0 0.09125887441162708 1
gene  1 4 60 -0.14278656824990427 0 3602.0 -0.14278656824990427 1
gene  1 8 60 0.5414057461693971 0 3606.0 0.5414057461693971 1
gene  1 13 60 0.13260446835238188 0 3611.0 0.13260446835238188 1
gene  1 14 60 -0.3925221319374856 0 3612.0 -0.3925221319374856 1
gene  1 15 60 0.8815784549538466 0 3613.0 0.8815784549538466 1
gene  1 18 60 0.12821026629368681 0 3616.0 0.12821026629368681 1
gene  1 21 60 0.14359484379736787 0 3619.0 0.14359484379736787 1
gene  1 24 60 -0.38997545089502994 0 3622.0 -0.38997545089502994 1
gene  1 25 60 0.043797117626054864 0 3623.0 0.043797117626054864 1
gene  1 27 60 -0.22081977382367868 0 3625.0 -0.22081977382367868 1
gene  1 53 60 0.04821913280952584 0 3651.0 0.04821913280952584 1
gene  1 55 60 0.1698829385609021 0 3653.0 0.1698829385609021 1
gene  1 59 60 0.17444513261030808 0 3657.0 0.17444513261030808 1
gene  1 60 60 0.2863245129566652 1 3658.0 0.2863245129566652 1
gene  1 4 61 0.1452620798573294 0 3663.0 0.1452620798573294 1
gene  1 5 61 0.01466378721885099 0 3664.0 0.01466378721885099 1
gene  1 7 61 -0.01992448600925357 0 3666.0 -0.01992448600925357 1
gene  1 9 61 -0.8939748504774161 0 3668.0 -0.8939748504774161 1
gene  1 11 61 1.3020369908765415 0 3670.0 1.3020369908765415 1
gene  1 12 61 -0.7122682313627093 0 3671.0 -0.7122682313627093 1
gene  1 13 61 0.4320116175298253 0 3672.0 0.4320116175298253 1
gene  1 14 61 -0.17958939890242076 0 3673.0 -0.17958939890242076 1
gene  1 16 61 0.8719995218899054 0 3675.0 0.8719995218899054 1
gene  1 19 61 0.9997497839414219 0 3678.0 0.9997497839414219 1
gene  1 21 61 0.12015156790670661 0 3680.0 0.12015156790670661 1
gene  1 22 61 0.16609641942789133 0 3681.0 0.16609641942789133 1
gene  1 24 61 0.03882974267616242 0 3683.0 0.03882974267616242 1
gene  1 26 61 -0.10948400266959835 0 3685.0 -0.10948400266959835 1
gene  1 27 61 -0.2430968648720671 0 3686.0 -0.2430968648720671 1
gene  1 28 61 0.3463705443021893 0 3687.0 0.3463705443021893 1
gene  1 29 61 -0.0775038832975765 0 3688.0 -0.0775038832975765 1
gene  1 53 61 1.340268275066321 0 3712.0 1.340268275066321 1
gene  1 54 61 0.6234801496171112 0 3713.0 0.6234801496171112 1
gene  1 55 61 -0.6202078607070234 0 3714.0 -0.6202078607070234 1
gene  1 57 61 0.6633897055372445 0 3716.0 0.6633897055372445 1
gene  1 56 62 0.7551212401732013 1 3717.0 0.7551212401732013 1
gene  1 62 52 -0.9750226549460863 0 3718.0 -0.9750226549460863 1
gene  1 18 63 0.018323141601846112 0 3719.0 0.018323141601846112 1
gene  1 63 57 0.0676683708546979 0 3720.0 0.0676683708546979 1
gene  1 2 64 1.2069479185172134 0 3721.0 1.2069479185172134 1
gene  1 64 52 0.07590054068641096 0 3722.0 0.07590054068641096 1
genomeend 0
