genomestart  0
trait 1 0.0 0.0 0.0 0.0 0.0 0.0 0.0 0.0 
node 1 1 1 1
node 2 1 1 1
node 3 1 1 1
node 4 1 1 1
node 5 1 1 1
node 6 1 1 1
node 7 1 1 1
node 8 1 1 1
node 9 1 1 1
node 10 1 1 1
node 11 1 1 3
node 12 1 0 0
node 13 1 0 0
node 14 1 0 0
node 15 1 0 0
node 16 1 0 0
node 17 1 0 0
node 18 1 0 0
node 19 1 0 0
node 20 1 0 0
node 21 1 0 0
node 22 1 0 0
node 23 1 0 0
node 24 1 0 0
node 25 1 0 0
node 26 1 0 0
node 27 1 0 0
node 28 1 0 0
node 29 1 0 0
node 30 1 0 0
node 31 1 0 0
node 32 1 0 0
node 33 1 0 0
node 34 1 0 0
node 35 1 0 0
node 36 1 0 0
node 37 1 0 0
node 52 1 0 2
node 53 1 0 2
node 54 1 0 2
node 55 1 0 2
node 56 1 0 2
node 57 1 0 2
node 58 1 0 2
node 59 1 0 2
node 60 1 0 2
node 61 1 0 2
node 62 1 0 0
node 63 1 0 0
node 64 1 0 0
node 65 1 0 0
node 66 1 0 0
node 67 1 0 0
node 68 1 0 0
node 69 1 0 0
node 70 1 0 0
node 71 1 0 0
node 72 1 0 0
node 73 1 0 0
node 74 1 0 0
node 75 1 0 0
node 76 1 0 0
node 77 1 0 0
node 78 1 0 0
node 79 1 0 0
node 80 1 0 0
node 81 1 0 0
node 82 1 0 0
node 83 1 0 0
node 84 1 0 0
node 85 1 0 0
node 86 1 0 0
node 87 1 0 0
node 88 1 0 0
node 89 1 0 0
node 90 1 0 0
node 91 1 0 0
gene  1 2 12 0.5308902951098431 0 672.0 0.5308902951098431 1
gene  1 3 12 -0.3674766265053897 0 673.0 -0.3674766265053897 1
gene  1 5 12 0.16510818805446736 0 675.0 0.16510818805446736 1
gene  1 7 12 -1.4279330852950114 0 677.0 -1.4279330852950114 1
gene  1 8 12 -0.3945119986890978 0 678.0 -0.3945119986890978 1
gene  1 13 12 -0.37313512879308797 1 683.0 -0.37313512879308797 1
gene  1 14 12 0.573251835966335 1 684.0 0.573251835966335 1
gene  1 16 12 -0.1314597113362901 1 686.0 -0.1314597113362901 1
gene  1 17 12 1.2948194799758082 1 687.0 1.2948194799758082 1
gene  1 19 12 -0.1853951534874601 1 689.0 -0.1853951534874601 1
gene  1 20 12 1.6448626026650741 1 690.0 1.6448626026650741 1
gene  1 21 12 0.17817070428290813 1 691.0 0.17817070428290813 1
gene  1 22 12 -0.25515255337079246 1 692.0 -0.25515255337079246 1
gene  1 23 12 0.38910666909787195 1 693.0 0.38910666909787195 1
gene  1 24 12 0.08990799379355498 1 694.0 0.08990799379355498 1
gene  1 25 12 -0.06296090323105441 1 695.0 -0.06296090323105441 1
gene  1 28 12 -0.6052099885353802 1 698.0 -0.6052099885353802 1
gene  1 29 12 -0.15370523326956748 1 699.0 -0.15370523326956748 1
gene  1 31 12 -0.14147479213381584 1 701.0 -0.14147479213381584 1
gene  1 32 12 0.4231574704734753 1 702.0 0.4231574704734753 1
gene  1 33 12 -0.8783570521428994 1 703.0 -0.8783570521428994 1
gene  1 35 12 -0.7827804225313183 1 705.0 -0.7827804225313183 1
gene  1 53 12 0.2578173352218774 1 723.0 0.2578173352218774 1
gene  1 54 12 -1.1642008804084971 1 724.0 -1.1642008804084971 0
gene  1 55 12 0.6582649325743215 1 725.0 0.6582649325743215 1
gene  1 58 12 -0.7803256221137165 1 728.0 -0.7803256221137165 1
gene  1 61 12 0.17362476260931595 1 731.0 0.17362476260931595 1
gene  1 2 13 0.17601813396326962 0 733.0 0.17601813396326962 1
gene  1 4 13 0.5093342319754648 0 735.0 0.5093342319754648 1
gene  1 5 13 1.6825013786072207 0 736.0 1.6825013786072207 1
gene  1 8 13 0.35183960741057135 0 739.0 0.35183960741057135 1
gene  1 11 13 0.7608089986552198 0 742.0 0.7608089986552198 1
gene  1 13 13 -0.08160761121491011 1 744.0 -0.08160761121491011 1
gene  1 15 13 -0.8259368915990097 1 746.0 -0.8259368915990097 1
gene  1 16 13 -0.5443853518473737 1 747.0 -0.5443853518473737 1
gene  1 17 13 -0.8654283443419113 1 748.0 -0.8654283443419113 1
gene  1 20 13 -0.26245347883718256 1 751.0 -0.26245347883718256 1
gene  1 21 13 0.5309098325742263 1 752.0 0.5309098325742263 1
gene  1 24 13 0.5648568785384048 1 755.0 0.5648568785384048 1
gene  1 31 13 0.16465160754721747 1 762.0 0.16465160754721747 1
gene  1 33 13 -0.39094307846385573 1 764.0 -0.39094307846385573 1
gene  1 34 13 0.04420864098600306 1 765.0 0.04420864098600306 1
gene  1 52 13 0.16032565615807823 1 783.0 0.16032565615807823 1
gene  1 61 13 -0.42955849757488423 1 792.0 -0.42955849757488423 1
gene  1 8 14 0.056214612869777594 0 800.0 0.056214612869777594 1
gene  1 9 14 0.056970484090583945 0 801.0 0.056970484090583945 1
gene  1 10 14 -0.5579608614738865 0 802.0 -0.5579608614738865 1
gene  1 15 14 -0.017149074469289483 1 807.0 -0.017149074469289483 1
gene  1 16 14 0.019871551732611254 1 808.0 0.019871551732611254 1
gene  1 18 14 0.2859311329806707 1 810.0 0.2859311329806707 1
gene  1 20 14 1.0953164737856544 1 812.0 1.0953164737856544 1
gene  1 21 14 -0.5009870204092453 1 813.0 -0.5009870204092453 1
gene  1 22 14 -0.08097010730579646 1 814.0 -0.08097010730579646 1
gene  1 23 14 -0.5663769491974563 1 815.0 -0.5663769491974563 1
gene  1 24 14 0.7056866833939796 1 816.0 0.7056866833939796 1
gene  1 27 14 -0.6575452379947904 1 819.0 -0.6575452379947904 1
gene  1 28 14 -0.3076203771563826 1 820.0 -0.3076203771563826 0
gene  1 30 14 0.44369874475148974 1 822.0 0.44369874475148974 1
gene  1 32 14 -0.45560434173537445 1 824.0 -0.45560434173537445 1
gene  1 53 14 -0.7552867484807071 1 845.0 -0.7552867484807071 1
gene  1 54 14 0.46110239937050157 1 846.0 0.46110239937050157 1
gene  1 55 14 0.07966935232326278 1 847.0 0.07966935232326278 1
gene  1 56 14 -0.2430131305296254 1 848.0 -0.2430131305296254 1
gene  1 58 14 -0.296344140525177 1 850.0 -0.296344140525177 1
gene  1 59 14 0.5329627907901981 1 851.0 0.5329627907901981 1
gene  1 60 14 0.12590408383044688 1 852.0 0.12590408383044688 1
gene  1 1 15 -0.11507989533994184 0 854.0 -0.11507989533994184 1
gene  1 2 15 0.8903687827982495 0 855.0 0.8903687827982495 1
gene  1 3 15 -0.16646945106739702 0 856.0 -0.16646945106739702 1
gene  1 7 15 0.635692506267386 0 860.0 0.635692506267386 1
gene  1 8 15 0.6901650855905639 0 861.0 0.6901650855905639 1
gene  1 10 15 -0.5668399637925929 0 863.0 -0.5668399637925929 1
gene  1 11 15 -0.43994309519291797 0 864.0 -0.43994309519291797 1
gene  1 12 15 -0.19189108073070676 0 865.0 -0.19189108073070676 1
gene  1 13 15 -0.07419410205059485 0 866.0 -0.07419410205059485 1
gene  1 14 15 -0.138504319627119 0 867.0 -0.138504319627119 1
gene  1 15 15 0.017568000606714096 1 868.0 0.017568000606714096 1
gene  1 16 15 0.12359658768972731 1 869.0 0.12359658768972731 1
gene  1 17 15 -0.40045096294025434 1 870.0 -0.40045096294025434 1
gene  1 19 15 0.5911194631024705 1 872.0 0.5911194631024705 1
gene  1 20 15 0.5440595810533363 1 873.0 0.5440595810533363 1
gene  1 21 15 0.05358264964268669 1 874.0 0.05358264964268669 1
gene  1 27 15 0.5456330958679578 1 880.0 0.5456330958679578 1
gene  1 28 15 0.3063811765935448 1 881.0 0.3063811765935448 1
gene  1 29 15 -0.1070139498797457 1 882.0 -0.1070139498797457 1
gene  1 32 15 0.44861642709521876 1 885.0 0.44861642709521876 0
gene  1 33 15 -0.6510471369213613 1 886.0 -0.6510471369213613 1
gene  1 34 15 -0.6718191306360836 1 887.0 -0.6718191306360836 1
gene  1 35 15 0.17742287266035645 1 888.0 0.17742287266035645 1
gene  1 52 15 -0.24610461695781677 1 905.0 -0.24610461695781677 1
gene  1 54 15 0.283610140403374 1 907.0 0.283610140403374 0
gene  1 55 15 -0.2194073563721139 1 908.0 -0.2194073563721139 1
gene  1 57 15 0.08850603171089465 1 910.0 0.08850603171089465 1
gene  1 59 15 0.06026780795778394 1 912.0 0.06026780795778394 1
gene  1 60 15 0.12374243819070513 1 913.0 0.12374243819070513 1
gene  1 1 16 -0.08671359302898647 0 915.0 -0.08671359302898647 1
gene  1 3 16 0.002406869696375021 0 917.0 0.002406869696375021 1
gene  1 4 16 0.34985530566123835 0 918.0 0.34985530566123835 1
gene  1 9 16 0.09447942637575601 0 923.0 0.09447942637575601 1
gene  1 13 16 1.631410624597151 0 927.0 1.631410624597151 1
gene  1 14 16 -0.12809488863761598 0 928.0 -0.12809488863761598 1
gene  1 15 16 -0.2175766694300734 0 929.0 -0.2175766694300734 1
gene  1 22 16 0.2402731640321537 1 936.0 0.2402731640321537 1
gene  1 25 16 0.27263327530192216 1 939.0 0.27263327530192216 1
gene  1 26 16 -0.29089123536915096 1 940.0 -0.29089123536915096 1
gene  1 27 16 0.754947829400697 1 941.0 0.754947829400697 1
gene  1 29 16 -0.336332923158184 1 943.0 -0.336332923158184 1
gene  1 30 16 0.6293727439760489 1 944.0 0.6293727439760489 1
gene  1 32 16 -0.028399375752743806 1 946.0 -0.028399375752743806 1
gene  1 33 16 0.16758476770176628 1 947.0 0.16758476770176628 1
gene  1 34 16 0.24687090483419433 1 948.0 0.24687090483419433 1
gene  1 35 16 -0.44925996859228456 1 949.0 -0.44925996859228456 1
gene  1 53 16 0.2943281249160666 1 967.0 0.2943281249160666 1
gene  1 54 16 -0.6069053643550808 1 968.0 -0.6069053643550808 1
gene  1 55 16 -0.22271475167157181 1 969.0 -0.22271475167157181 1
gene  1 56 16 -0.81196762281847 1 970.0 -0.81196762281847 0
gene  1 58 16 0.07834989828419289 1 972.0 0.07834989828419289 1
gene  1 59 16 -0.5889086817848608 1 973.0 -0.5889086817848608 1
gene  1 60 16 -0.41891021010366714 1 974.0 -0.41891021010366714 1
gene  1 61 16 -0.16650524472225853 1 975.0 -0.16650524472225853 1
gene  1 2 17 0.3898519337760388 0 977.0 0.3898519337760388 1
gene  1 5 17 -0.3340930670912636 0 980.0 -0.3340930670912636 1
gene  1 6 17 -0.14028726576543926 0 981.0 -0.14028726576543926 1
gene  1 9 17 -0.65969387264024 0 984.0 -0.65969387264024 1
gene  1 10 17 0.28255878788084215 0 985.0 0.28255878788084215 1
gene  1 11 17 0.3027382612943945 0 986.0 0.3027382612943945 1
gene  1 16 17 0.7310353146366305 0 991.0 0.7310353146366305 1
gene  1 18 17 -0.487789941548361 1 993.0 -0.487789941548361 1
gene  1 20 17 0.09681252770969238 1 995.0 0.09681252770969238 1
gene  1 24 17 -0.6597752519758979 1 999.0 -0.6597752519758979 1
gene  1 25 17 0.7367193665095619 1 1000.0 0.7367193665095619 1
gene  1 27 17 0.0040857867249032825 1 1002.0 0.0040857867249032825 1
gene  1 28 17 -0.20767044536832455 1 1003.0 -0.20767044536832455 1
gene  1 30 17 0.06682761296452899 1 1005.0 0.06682761296452899 1
gene  1 31 17 0.1055445451752744 1 1006.0 0.1055445451752744 1
gene  1 33 17 0.33737073907586423 1 1008.0 0.33737073907586423 1
gene  1 34 17 0.11410584731519849 1 1009.0 0.11410584731519849 1
gene  1 35 17 -0.14092442241176673 1 1010.0 -0.14092442241176673 1
gene  1 37 17 0.20956899997500278 1 1012.0 0.20956899997500278 1
gene  1 52 17 0.17485142206586773 1 1027.0 0.17485142206586773 1
gene  1 55 17 0.4374383672845525 1 1030.0 0.4374383672845525 1
gene  1 57 17 -0.3501120059906462 1 1032.0 -0.3501120059906462 1
gene  1 58 17 -0.7572225349894117 1 1033.0 -0.7572225349894117 1
gene  1 59 17 -0.04879006555236676 1 1034.0 -0.04879006555236676 1
gene  1 3 18 0.07924930690436637 0 1039.0 0.07924930690436637 1
gene  1 11 18 1.0351891207771724 0 1047.0 1.0351891207771724 1
gene  1 13 18 0.2444881367624145 0 1049.0 0.2444881367624145 1
gene  1 16 18 -0.3727174308176688 0 1052.0 -0.3727174308176688 1
gene  1 18 18 -0.4749612011942992 1 1054.0 -0.4749612011942992 1
gene  1 19 18 -0.4193049416939557 1 1055.0 -0.4193049416939557 1
gene  1 20 18 0.07312473379233479 1 1056.0 0.07312473379233479 1
gene  1 21 18 -0.19003218893648072 1 1057.0 -0.19003218893648072 1
gene  1 23 18 0.214040525973289 1 1059.0 0.214040525973289 1
gene  1 24 18 -0.3180783770232383 1 1060.0 -0.3180783770232383 1
gene  1 26 18 -0.9034065778956699 1 1062.0 -0.9034065778956699 1
gene  1 27 18 0.2577765759736755 1 1063.0 0.2577765759736755 1
gene  1 30 18 0.0943047189973655 1 1066.0 0.0943047189973655 1
gene  1 31 18 0.3970381823097734 1 1067.0 0.3970381823097734 1
gene  1 33 18 0.2224452453325269 1 1069.0 0.2224452453325269 1
gene  1 34 18 -0.03911702861042171 1 1070.0 -0.03911702861042171 1
gene  1 36 18 -0.08526465807619768 1 1072.0 -0.08526465807619768 1
gene  1 37 18 0.14123771016675452 1 1073.0 0.14123771016675452 1
gene  1 52 18 0.9090942554055889 1 1088.0 0.9090942554055889 1
gene  1 54 18 -0.3409846071475501 1 1090.0 -0.3409846071475501 1
gene  1 55 18 0.22456789755987325 1 1091.0 0.22456789755987325 1
gene  1 56 18 -0.02469195929197393 1 1092.0 -0.02469195929197393 1
gene  1 57 18 -0.37821013710511064 1 1093.0 -0.37821013710511064 1
gene  1 60 18 0.6345548586706304 1 1096.0 0.6345548586706304 1
gene  1 61 18 -0.24878378037362542 1 1097.0 -0.24878378037362542 1
gene  1 1 19 -0.050314767831020804 0 1098.0 -0.050314767831020804 1
gene  1 2 19 2.1840930690949376 0 1099.0 2.1840930690949376 1
gene  1 3 19 0.9954444854901212 0 1100.0 0.9954444854901212 1
gene  1 7 19 0.14544870185680195 0 1104.0 0.14544870185680195 1
gene  1 8 19 0.22706013459536206 0 1105.0 0.22706013459536206 1
gene  1 11 19 0.15505166919463886 0 1108.0 0.15505166919463886 1
gene  1 12 19 -0.0849461099092819 0 1109.0 -0.0849461099092819 1
gene  1 16 19 0.33002913900461767 0 1113.0 0.33002913900461767 1
gene  1 17 19 0.17069105854520916 0 1114.0 0.17069105854520916 1
gene  1 19 19 -0.009111362529014599 1 1116.0 -0.009111362529014599 1
gene  1 23 19 0.7732167299102501 1 1120.0 0.7732167299102501 1
gene  1 25 19 0.25882724299208426 1 1122.0 0.25882724299208426 1
gene  1 27 19 0.12891925410173305 1 1124.0 0.12891925410173305 1
gene  1 28 19 -0.206631513155163 1 1125.0 -0.206631513155163 1
gene  1 29 19 0.4518543350960434 1 1126.0 0.4518543350960434 1
gene  1 30 19 0.0672517563161672 1 1127.0 0.0672517563161672 1
gene  1 31 19 0.11239477099409884 1 1128.0 0.11239477099409884 1
gene  1 32 19 0.1202356142782936 1 1129.0 0.1202356142782936 1
gene  1 35 19 -0.13955937787221426 1 1132.0 -0.13955937787221426 1
gene  1 36 19 0.31962511971767493 1 1133.0 0.31962511971767493 1
gene  1 53 19 2.5884633872519838 1 1150.0 2.5884633872519838 1
gene  1 55 19 1.184089584445055 1 1152.0 1.184089584445055 1
gene  1 57 19 -0.6466196833757578 1 1154.0 -0.6466196833757578 1
gene  1 58 19 -0.3310744807258737 1 1155.0 -0.3310744807258737 1
gene  1 60 19 -0.08235099989722189 1 1157.0 -0.08235099989722189 1
gene  1 61 19 1.110004608153376 1 1158.0 1.110004608153376 1
gene  1 1 20 0.4929616981585032 0 1159.0 0.4929616981585032 1
gene  1 5 20 -0.47771208238509844 0 1163.0 -0.47771208238509844 1
gene  1 6 20 -0.6726804515754016 0 1164.0 -0.6726804515754016 1
gene  1 8 20 -0.4639688203807914 0 1166.0 -0.4639688203807914 1
gene  1 10 20 0.06551901604178023 0 1168.0 0.06551901604178023 1
gene  1 12 20 -1.3036721769793493 0 1170.0 -1.3036721769793493 1
gene  1 15 20 -0.5057260262717944 0 1173.0 -0.5057260262717944 1
gene  1 16 20 1.1668990974993343 0 1174.0 1.1668990974993343 1
gene  1 17 20 -0.007725755313222893 0 1175.0 -0.007725755313222893 1
gene  1 18 20 -0.6285539431385895 0 1176.0 -0.6285539431385895 1
gene  1 20 20 -0.058679131182559956 1 1178.0 -0.058679131182559956 1
gene  1 25 20 0.9444593817249948 1 1183.0 0.9444593817249948 1
gene  1 27 20 0.7785061566758664 1 1185.0 0.7785061566758664 1
gene  1 30 20 0.2649119166348472 1 1188.0 0.2649119166348472 1
gene  1 31 20 0.8109562168572445 1 1189.0 0.8109562168572445 1
gene  1 33 20 1.3599763628577175 1 1191.0 1.3599763628577175 1
gene  1 34 20 -0.21194941660988814 1 1192.0 -0.21194941660988814 1
gene  1 37 20 0.1388157550302268 1 1195.0 0.1388157550302268 1
gene  1 53 20 0.08501615283492886 1 1211.0 0.08501615283492886 1
gene  1 54 20 0.15694165323227235 1 1212.0 0.15694165323227235 1
gene  1 55 20 -0.6352127037132418 1 1213.0 -0.6352127037132418 1
gene  1 56 20 0.06125035599500034 1 1214.0 0.06125035599500034 1
gene  1 57 20 0.0971587320943817 1 1215.0 0.0971587320943817 1
gene  1 59 20 -1.7384088410693885 1 1217.0 -1.7384088410693885 1
gene  1 60 20 0.00826332040508553 1 1218.0 0.00826332040508553 1
gene  1 61 20 0.25275968252191994 1 1219.0 0.25275968252191994 1
gene  1 1 21 -0.03451498937859071 0 1220.0 -0.03451498937859071 1
gene  1 2 21 0.5278148872166661 0 1221.0 0.5278148872166661 1
gene  1 4 21 0.13526817902291646 0 1223.0 0.13526817902291646 1
gene  1 7 21 -0.1011815973971146 0 1226.0 -0.1011815973971146 1
gene  1 8 21 0.1552972271759144 0 1227.0 0.1552972271759144 1
gene  1 9 21 -0.8041236519935249 0 1228.0 -0.8041236519935249 1
gene  1 14 21 0.1707604354353176 0 1233.0 0.1707604354353176 1
gene  1 16 21 0.8669682740868969 0 1235.0 0.8669682740868969 0
gene  1 18 21 -1.7242215306638935 0 1237.0 -1.7242215306638935 1
gene  1 20 21 -0.1996217926397225 0 1239.0 -0.1996217926397225 1
gene  1 25 21 -0.27971172350165313 1 1244.0 -0.27971172350165313 1
gene  1 28 21 0.10585950787936049 1 1247.0 0.10585950787936049 1
gene  1 29 21 1.0879072306441462 1 1248.0 1.0879072306441462 1
gene  1 32 21 0.2631176283045838 1 1251.0 0.2631176283045838 1
gene  1 33 21 -0.14995622492731966 1 1252.0 -0.14995622492731966 1
gene  1 34 21 -0.09753259212415039 1 1253.0 -0.09753259212415039 1
gene  1 37 21 -0.29537166342029475 1 1256.0 -0.29537166342029475 1
gene  1 52 21 0.2922792553059469 1 1271.0 0.2922792553059469 1
gene  1 53 21 0.06302185168244756 1 1272.0 0.06302185168244756 1
gene  1 1 22 -1.0663978279332171 0 1281.0 -1.0663978279332171 1
gene  1 2 22 -0.3387548201792142 0 1282.0 -0.3387548201792142 1
gene  1 4 22 0.26708689941644315 0 1284.0 0.26708689941644315 1
gene  1 5 22 -0.4171871545938126 0 1285.0 -0.4171871545938126 1
gene  1 6 22 0.0901872387466752 0 1286.0 0.0901872387466752 1
gene  1 7 22 -0.1909734735575591 0 1287.0 -0.1909734735575591 1
gene  1 8 22 0.3336231314309171 0 1288.0 0.3336231314309171 1
gene  1 9 22 -0.01984416116253966 0 1289.0 -0.01984416116253966 1
gene  1 10 22 1.265597874370847 0 1290.0 1.265597874370847 1
gene  1 13 22 0.07333738307292564 0 1293.0 0.07333738307292564 1
gene  1 14 22 -0.9001429409109766 0 1294.0 -0.9001429409109766 1
gene  1 15 22 -0.10531787017913619 0 1295.0 -0.10531787017913619 1
gene  1 17 22 0.5079476598085552 0 1297.0 0.5079476598085552 1
gene  1 23 22 0.006155396153727525 1 1303.0 0.006155396153727525 1
gene  1 24 22 -0.8456124664068014 1 1304.0 -0.8456124664068014 1
gene  1 29 22 -0.026529861158761867 1 1309.0 -0.026529861158761867 0
gene  1 32 22 0.14695527249930251 1 1312.0 0.14695527249930251 1
gene  1 37 22 -2.8524978156275482 1 1317.0 -2.8524978156275482 1
gene  1 52 22 -0.009275126983152526 1 1332.0 -0.009275126983152526 1
gene  1 53 22 -0.13549790358858826 1 1333.0 -0.13549790358858826 1
gene  1 54 22 -0.0934228146740239 1 1334.0 -0.0934228146740239 1
gene  1 56 22 0.5004397899662245 1 1336.0 0.5004397899662245 1
gene  1 58 22 0.36075303458787267 1 1338.0 0.36075303458787267 1
gene  1 59 22 -0.6636682732083645 1 1339.0 -0.6636682732083645 1
gene  1 2 23 -0.48767600560885804 0 1343.0 -0.48767600560885804 1
gene  1 3 23 0.015340107527614538 0 1344.0 0.015340107527614538 1
gene  1 5 23 0.029207336779288343 0 1346.0 0.029207336779288343 1
gene  1 10 23 -0.5149646714280502 0 1351.0 -0.5149646714280502 1
gene  1 15 23 -0.13958588450607023 0 1356.0 -0.13958588450607023 1
gene  1 16 23 0.05264448628157442 0 1357.0 0.05264448628157442 0
gene  1 18 23 0.42865957412821243 0 1359.0 0.42865957412821243 1
gene  1 19 23 -0.2714200598526508 0 1360.0 -0.2714200598526508 1
gene  1 23 23 -0.66242342654285 1 1364.0 -0.66242342654285 1
gene  1 26 23 -0.32735343479490486 1 1367.0 -0.32735343479490486 1
gene  1 28 23 -1.2343504757436232 1 1369.0 -1.2343504757436232 1
gene  1 29 23 0.5005870846731797 1 1370.0 0.5005870846731797 1
gene  1 31 23 0.7048346478019665 1 1372.0 0.7048346478019665 1
gene  1 32 23 -0.33829205416740055 1 1373.0 -0.33829205416740055 1
gene  1 35 23 0.31275408257712123 1 1376.0 0.31275408257712123 0
gene  1 36 23 0.37501852485621534 1 1377.0 0.37501852485621534 0
gene  1 57 23 0.08186245829102112 1 1398.0 0.08186245829102112 1
gene  1 59 23 0.08640917651794582 1 1400.0 0.08640917651794582 1
gene  1 1 24 0.3427771384219541 0 1403.0 0.3427771384219541 1
gene  1 2 24 0.5607874982210386 0 1404.0 0.5607874982210386 1
gene  1 3 24 -0.6587461654546721 0 1405.0 -0.6587461654546721 1
gene  1 4 24 -0.5482526565967926 0 1406.0 -0.5482526565967926 1
gene  1 5 24 0.19829060456488268 0 1407.0 0.19829060456488268 1
gene  1 8 24 -0.005316673048386755 0 1410.0 -0.005316673048386755 1
gene  1 11 24 -0.3158099549748502 0 1413.0 -0.3158099549748502 1
gene  1 12 24 -0.32828735319301816 0 1414.0 -0.32828735319301816 1
gene  1 15 24 0.4142319107951503 0 1417.0 0.4142319107951503 1
gene  1 16 24 -0.4539907715553811 0 1418.0 -0.4539907715553811 1
gene  1 17 24 -0.3083024175837697 0 1419.0 -0.3083024175837697 1
gene  1 18 24 -0.29001837490205373 0 1420.0 -0.29001837490205373 1
gene  1 20 24 0.11432943295311965 0 1422.0 0.11432943295311965 1
gene  1 21 24 -0.9133768572471304 0 1423.0 -0.9133768572471304 1
gene  1 24 24 0.13944991812542376 1 1426.0 0.13944991812542376 1
gene  1 31 24 -0.1931527959385692 1 1433.0 -0.1931527959385692 1
gene  1 35 24 0.33352436925423945 1 1437.0 0.33352436925423945 1
gene  1 36 24 -0.3547469327383322 1 1438.0 -0.3547469327383322 1
gene  1 37 24 1.2058861790455548 1 1439.0 1.2058861790455548 1
gene  1 52 24 0.4033617555494788 1 1454.0 0.4033617555494788 1
gene  1 54 24 0.6476154673444698 1 1456.0 0.6476154673444698 1
gene  1 56 24 0.5558644781949653 1 1458.0 0.5558644781949653 1
gene  1 57 24 -0.031057069706311877 1 1459.0 -0.031057069706311877 1
gene  1 58 24 -0.5348292339832317 1 1460.0 -0.5348292339832317 1
gene  1 59 24 -0.3273826316607142 1 1461.0 -0.3273826316607142 1
gene  1 1 25 0.21001391054048416 0 1464.0 0.21001391054048416 1
gene  1 2 25 0.4352219337715534 0 1465.0 0.4352219337715534 1
gene  1 3 25 -0.7101461903648386 0 1466.0 -0.7101461903648386 1
gene  1 4 25 0.12437864998924376 0 1467.0 0.12437864998924376 1
gene  1 5 25 0.173968116693179 0 1468.0 0.173968116693179 1
gene  1 6 25 -0.014466093812387226 0 1469.0 -0.014466093812387226 1
gene  1 7 25 -0.6436534624246684 0 1470.0 -0.6436534624246684 1
gene  1 10 25 1.4387661358599255 0 1473.0 1.4387661358599255 1
gene  1 13 25 0.11645938553997033 0 1476.0 0.11645938553997033 1
gene  1 14 25 -0.5046140999574789 0 1477.0 -0.5046140999574789 1
gene  1 16 25 0.007100078509144335 0 1479.0 0.007100078509144335 1
gene  1 18 25 0.24764283278353008 0 1481.0 0.24764283278353008 1
gene  1 21 25 -0.12271017572857926 0 1484.0 -0.12271017572857926 1
gene  1 22 25 -0.4725738449700846 0 1485.0 -0.4725738449700846 1
gene  1 23 25 -0.060424829220954324 0 1486.0 -0.060424829220954324 1
gene  1 26 25 -0.26039471614409526 1 1489.0 -0.26039471614409526 1
gene  1 29 25 0.48993324905859315 1 1492.0 0.48993324905859315 1
gene  1 30 25 0.012253528837749916 1 1493.0 0.012253528837749916 1
gene  1 34 25 -0.3406186008132339 1 1497.0 -0.3406186008132339 1
gene  1 53 25 -0.25456080130365133 1 1516.0 -0.25456080130365133 1
gene  1 54 25 -0.021649827271772948 1 1517.0 -0.021649827271772948 1
gene  1 55 25 -0.5122390097133861 1 1518.0 -0.5122390097133861 1
gene  1 57 25 0.5675797105141426 1 1520.0 0.5675797105141426 1
gene  1 59 25 0.03793500672350154 1 1522.0 0.03793500672350154 1
gene  1 60 25 -0.03360911832804914 1 1523.0 -0.03360911832804914 1
gene  1 61 25 -0.4530995838757487 1 1524.0 -0.4530995838757487 1
gene  1 2 26 -0.6421938565843218 0 1526.0 -0.6421938565843218 0
gene  1 5 26 0.1658396923274215 0 1529.0 0.1658396923274215 1
gene  1 6 26 -0.04111853940378134 0 1530.0 -0.04111853940378134 1
gene  1 7 26 -0.2750345384306474 0 1531.0 -0.2750345384306474 1
gene  1 9 26 -1.1108143267400044 0 1533.0 -1.1108143267400044 1
gene  1 10 26 0.553787757753903 0 1534.0 0.553787757753903 1
gene  1 15 26 -0.7551851901580751 0 1539.0 -0.7551851901580751 1
gene  1 16 26 -0.6332981968206689 0 1540.0 -0.6332981968206689 1
gene  1 19 26 0.43404868445463624 0 1543.0 0.43404868445463624 1
gene  1 20 26 0.3059257440569619 0 1544.0 0.3059257440569619 1
gene  1 24 26 0.06636468344080909 0 1548.0 0.06636468344080909 1
gene  1 25 26 -0.3477267261757817 0 1549.0 -0.3477267261757817 1
gene  1 28 26 0.8575312834973248 1 1552.0 0.8575312834973248 1
gene  1 29 26 0.4916222863750919 1 1553.0 0.4916222863750919 1
gene  1 32 26 -0.35528147095846524 1 1556.0 -0.35528147095846524 1
gene  1 33 26 0.12399219821006263 1 1557.0 0.12399219821006263 1
gene  1 35 26 -0.1553459400749152 1 1559.0 -0.1553459400749152 1
gene  1 36 26 0.717406485876005 1 1560.0 0.717406485876005 1
gene  1 52 26 0.164319557584046 1 1576.0 0.164319557584046 1
gene  1 53 26 -0.3447753627974373 1 1577.0 -0.3447753627974373 1
gene  1 55 26 -0.013849993789815896 1 1579.0 -0.013849993789815896 1
gene  1 56 26 0.2477124340303275 1 1580.0 0.2477124340303275 1
gene  1 57 26 -0.05321519272642277 1 1581.0 -0.05321519272642277 1
gene  1 60 26 0.3521122593587371 1 1584.0 0.3521122593587371 1
gene  1 61 26 -0.009222323829824509 1 1585.0 -0.009222323829824509 1
gene  1 3 27 0.7696256001703015 0 1588.0 0.7696256001703015 1
gene  1 4 27 0.3214134516948151 0 1589.0 0.3214134516948151 0
gene  1 5 27 0.06976641379479226 0 1590.0 0.06976641379479226 1
gene  1 7 27 -0.13978326062376514 0 1592.0 -0.13978326062376514 1
gene  1 12 27 0.27513662234247094 0 1597.0 0.27513662234247094 1
gene  1 14 27 0.21637160107259315 0 1599.0 0.21637160107259315 1
gene  1 17 27 0.1590677546207349 0 1602.0 0.1590677546207349 1
gene  1 20 27 -0.9058878399026289 0 1605.0 -0.9058878399026289 1
gene  1 21 27 -0.5776737744178493 0 1606.0 -0.5776737744178493 1
gene  1 22 27 -0.37497495001503606 0 1607.0 -0.37497495001503606 1
gene  1 25 27 -0.1733819036577875 0 1610.0 -0.1733819036577875 1
gene  1 28 27 0.9965359844119839 1 1613.0 0.9965359844119839 1
gene  1 29 27 -0.41976216231151864 1 1614.0 -0.41976216231151864 1
gene  1 31 27 -0.02787016945566345 1 1616.0 -0.02787016945566345 1
gene  1 33 27 -0.8922758476380552 1 1618.0 -0.8922758476380552 1
gene  1 34 27 -0.21861887326105114 1 1619.0 -0.21861887326105114 1
gene  1 35 27 0.11419660376442736 1 1620.0 0.11419660376442736 1
gene  1 36 27 0.7892350304512592 1 1621.0 0.7892350304512592 1
gene  1 37 27 -0.36339458246111256 1 1622.0 -0.36339458246111256 1
gene  1 54 27 0.773464551449385 1 1639.0 0.773464551449385 1
gene  1 55 27 0.5317052159244848 1 1640.0 0.5317052159244848 1
gene  1 56 27 -1.1962771829558074 1 1641.0 -1.1962771829558074 1
gene  1 58 27 -0.14337072204637158 1 1643.0 -0.14337072204637158 1
gene  1 61 27 -0.17025750806007475 1 1646.0 -0.17025750806007475 1
gene  1 1 28 0.8589822079454192 0 1647.0 0.8589822079454192 1
gene  1 2 28 0.1535269488934063 0 1648.0 0.1535269488934063 1
gene  1 4 28 0.0786850851417846 0 1650.0 0.0786850851417846 1
gene  1 7 28 0.10642527859539194 0 1653.0 0.10642527859539194 1
gene  1 8 28 -0.45761027569954604 0 1654.0 -0.45761027569954604 1
gene  1 9 28 0.03190962281682756 0 1655.0 0.03190962281682756 1
gene  1 10 28 -0.6136379938421492 0 1656.0 -0.6136379938421492 1
gene  1 11 28 -0.12155343472355948 0 1657.0 -0.12155343472355948 1
gene  1 12 28 0.42158601146319197 0 1658.0 0.42158601146319197 1
gene  1 14 28 0.19335098377069487 0 1660.0 0.19335098377069487 1
gene  1 15 28 -0.08700861303530431 0 1661.0 -0.08700861303530431 1
gene  1 16 28 -0.8041956040966614 0 1662.0 -0.8041956040966614 1
gene  1 25 28 -0.031631701660250755 0 1671.0 -0.031631701660250755 1
gene  1 27 28 -0.9282273657395269 0 1673.0 -0.9282273657395269 1
gene  1 31 28 0.7971916581774863 1 1677.0 0.7971916581774863 0
gene  1 32 28 -0.4038947767984677 1 1678.0 -0.4038947767984677 1
gene  1 34 28 0.751814129332971 1 1680.0 0.751814129332971 1
gene  1 35 28 0.1254447595287237 1 1681.0 0.1254447595287237 1
gene  1 37 28 0.25556038185744295 1 1683.0 0.25556038185744295 1
gene  1 54 28 0.30517083406332896 1 1700.0 0.30517083406332896 1
gene  1 55 28 0.2368924734042401 1 1701.0 0.2368924734042401 1
gene  1 58 28 -0.15372332971503033 1 1704.0 -0.15372332971503033 1
gene  1 59 28 -0.36500458722397633 1 1705.0 -0.36500458722397633 1
gene  1 60 28 1.578034919795276 1 1706.0 1.578034919795276 1
gene  1 61 28 0.42542020086479193 1 1707.0 0.42542020086479193 1
gene  1 2 29 -0.24530360601418566 0 1709.0 -0.24530360601418566 1
gene  1 3 29 -0.1766668137276464 0 1710.0 -0.1766668137276464 1
gene  1 5 29 0.6555491596335649 0 1712.0 0.6555491596335649 0
gene  1 6 29 -0.788954575142654 0 1713.0 -0.788954575142654 1
gene  1 7 29 0.23948197945330518 0 1714.0 0.23948197945330518 1
gene  1 8 29 0.48374895295782133 0 1715.0 0.48374895295782133 1
gene  1 11 29 -0.8200075271279601 0 1718.0 -0.8200075271279601 1
gene  1 12 29 0.1493582747173018 0 1719.0 0.1493582747173018 1
gene  1 13 29 -0.39065329914912794 0 1720.0 -0.39065329914912794 1
gene  1 14 29 -0.1588332289542547 0 1721.0 -0.1588332289542547 1
gene  1 16 29 1.2031337985618187 0 1723.0 1.2031337985618187 1
gene  1 17 29 0.19514271478756814 0 1724.0 0.19514271478756814 1
gene  1 18 29 0.3547345748923374 0 1725.0 0.3547345748923374 1
gene  1 20 29 0.02231439762072976 0 1727.0 0.02231439762072976 1
gene  1 21 29 0.1525705158971263 0 1728.0 0.1525705158971263 1
gene  1 22 29 -0.41957931287666633 0 1729.0 -0.41957931287666633 1
gene  1 23 29 -0.29138297740398356 0 1730.0 -0.29138297740398356 1
gene  1 24 29 -0.17706594406583986 0 1731.0 -0.17706594406583986 1
gene  1 27 29 -0.4285778261012545 0 1734.0 -0.4285778261012545 1
gene  1 28 29 -0.50765804292045 0 1735.0 -0.50765804292045 1
gene  1 30 29 1.5080012528087015 1 1737.0 1.5080012528087015 0
gene  1 31 29 0.7846843167219132 1 1738.0 0.7846843167219132 1
gene  1 32 29 -0.6254804620468615 1 1739.0 -0.6254804620468615 1
gene  1 37 29 -0.09490471331601004 1 1744.0 -0.09490471331601004 1
gene  1 52 29 0.6719866188259467 1 1759.0 0.6719866188259467 1
gene  1 55 29 -0.2755930628240223 1 1762.0 -0.2755930628240223 1
gene  1 56 29 -0.17604939931934135 1 1763.0 -0.17604939931934135 1
gene  1 57 29 -0.15484667324868828 1 1764.0 -0.15484667324868828 1
gene  1 58 29 -0.792563263381012 1 1765.0 -0.792563263381012 1
gene  1 2 30 2.3585167347576976 0 1770.0 2.3585167347576976 1
gene  1 3 30 0.40033359460556345 0 1771.0 0.40033359460556345 1
gene  1 9 30 1.3260618910903221 0 1777.0 1.3260618910903221 1
gene  1 10 30 -0.0235027699410843 0 1778.0 -0.0235027699410843 1
gene  1 14 30 -0.17100430373655812 0 1782.0 -0.17100430373655812 0
gene  1 20 30 0.13964620651193416 0 1788.0 0.13964620651193416 1
gene  1 21 30 -2.5524807321065315 0 1789.0 -2.5524807321065315 1
gene  1 22 30 0.5911593364411893 0 1790.0 0.5911593364411893 1
gene  1 23 30 0.05263827678063643 0 1791.0 0.05263827678063643 1
gene  1 25 30 0.2632023930048206 0 1793.0 0.2632023930048206 1
gene  1 26 30 0.9901529787394211 0 1794.0 0.9901529787394211 1
gene  1 28 30 -0.06553263569793225 0 1796.0 -0.06553263569793225 1
gene  1 30 30 -0.3548068926076845 1 1798.0 -0.3548068926076845 1
gene  1 31 30 0.07791633966192522 1 1799.0 0.07791633966192522 1
gene  1 32 30 0.08367402006130048 1 1800.0 0.08367402006130048 1
gene  1 33 30 0.15656987728273403 1 1801.0 0.15656987728273403 1
gene  1 37 30 0.4845299753304556 1 1805.0 0.4845299753304556 1
gene  1 52 30 1.6079990051947106 1 1820.0 1.6079990051947106 1
gene  1 54 30 0.29845792172063446 1 1822.0 0.29845792172063446 1
gene  1 59 30 -0.22137543621319566 1 1827.0 -0.22137543621319566 1
gene  1 1 31 -0.9769833227977677 0 1830.0 -0.9769833227977677 1
gene  1 6 31 -0.2058848391219687 0 1835.0 -0.2058848391219687 1
gene  1 7 31 1.9931534168527436 0 1836.0 1.9931534168527436 1
gene  1 8 31 0.01651163517253529 0 1837.0 0.01651163517253529 1
gene  1 11 31 -0.04566158263503141 0 1840.0 -0.04566158263503141 1
gene  1 13 31 -0.2066239751781457 0 1842.0 -0.2066239751781457 1
gene  1 15 31 -1.654237194498071 0 1844.0 -1.654237194498071 1
gene  1 16 31 0.2776049226220597 0 1845.0 0.2776049226220597 1
gene  1 18 31 -0.4463069065189167 0 1847.0 -0.4463069065189167 1
gene  1 19 31 0.14439873517556726 0 1848.0 0.14439873517556726 1
gene  1 20 31 -0.05290871546415538 0 1849.0 -0.05290871546415538 1
gene  1 22 31 -0.07145809724248425 0 1851.0 -0.07145809724248425 0
gene  1 23 31 -0.42021901811600626 0 1852.0 -0.42021901811600626 1
gene  1 25 31 -0.26134728591557327 0 1854.0 -0.26134728591557327 1
gene  1 27 31 -0.7300369485840945 0 1856.0 -0.7300369485840945 1
gene  1 29 31 -0.11901877277086298 0 1858.0 -0.11901877277086298 1
gene  1 30 31 -0.003054474898979897 0 1859.0 -0.003054474898979897 1
gene  1 31 31 0.4891764469341203 1 1860.0 0.4891764469341203 1
gene  1 32 31 0.30848902869060346 1 1861.0 0.30848902869060346 1
gene  1 35 31 0.17818017719814871 1 1864.0 0.17818017719814871 1
gene  1 37 31 0.42397133118614166 1 1866.0 0.42397133118614166 1
gene  1 52 31 0.2544386670706166 1 1881.0 0.2544386670706166 1
gene  1 57 31 -0.02913517191037291 1 1886.0 -0.02913517191037291 1
gene  1 59 31 -0.46019606533504753 1 1888.0 -0.46019606533504753 1
gene  1 61 31 0.09285685429010182 1 1890.0 0.09285685429010182 1
gene  1 1 32 0.8020965231176045 0 1891.0 0.8020965231176045 1
gene  1 2 32 0.05746773763333411 0 1892.0 0.05746773763333411 1
gene  1 4 32 0.19881635890178545 0 1894.0 0.19881635890178545 1
gene  1 6 32 -0.5285022963606048 0 1896.0 -0.5285022963606048 1
gene  1 8 32 -0.09790663574824846 0 1898.0 -0.09790663574824846 1
gene  1 10 32 0.13149963849844587 0 1900.0 0.13149963849844587 1
gene  1 12 32 0.4388748604516387 0 1902.0 0.4388748604516387 0
gene  1 13 32 0.4314062727162906 0 1903.0 0.4314062727162906 1
gene  1 14 32 0.13155824432061836 0 1904.0 0.13155824432061836 1
gene  1 15 32 -0.2595128243077529 0 1905.0 -0.2595128243077529 1
gene  1 16 32 0.04758118729833022 0 1906.0 0.04758118729833022 1
gene  1 18 32 -0.38518495341308484 0 1908.0 -0.38518495341308484 1
gene  1 21 32 0.00794634429883756 0 1911.0 0.00794634429883756 1
gene  1 22 32 0.09278579864655548 0 1912.0 0.09278579864655548 1
gene  1 23 32 0.16219859520845492 0 1913.0 0.16219859520845492 0
gene  1 26 32 -0.6932386936449448 0 1916.0 -0.6932386936449448 1
gene  1 28 32 -0.08285414953110123 0 1918.0 -0.08285414953110123 1
gene  1 29 32 -0.4218051308840285 0 1919.0 -0.4218051308840285 1
gene  1 31 32 0.1385644551338775 0 1921.0 0.1385644551338775 1
gene  1 36 32 -0.022907684461431408 1 1926.0 -0.022907684461431408 1
gene  1 37 32 -0.18432187851393314 1 1927.0 -0.18432187851393314 1
gene  1 52 32 -0.05236640096623968 1 1942.0 -0.05236640096623968 1
gene  1 53 32 0.08144548287969369 1 1943.0 0.08144548287969369 1
gene  1 54 32 0.010649707078124383 1 1944.0 0.010649707078124383 1
gene  1 55 32 -0.15686130863502556 1 1945.0 -0.15686130863502556 1
gene  1 58 32 0.3238059678978271 1 1948.0 0.3238059678978271 1
gene  1 60 32 -0.5687674405978796 1 1950.0 -0.5687674405978796 1
gene  1 1 33 0.7834933762666276 0 1952.0 0.7834933762666276 1
gene  1 2 33 -0.1429102682035431 0 1953.0 -0.1429102682035431 1
gene  1 3 33 0.4958865203935039 0 1954.0 0.4958865203935039 1
gene  1 4 33 -0.2497500852611114 0 1955.0 -0.2497500852611114 1
gene  1 8 33 -0.48939215561522886 0 1959.0 -0.48939215561522886 1
gene  1 10 33 -0.4027872351729941 0 1961.0 -0.4027872351729941 1
gene  1 12 33 -0.10481648394001203 0 1963.0 -0.10481648394001203 1
gene  1 13 33 -0.2025126752511934 0 1964.0 -0.2025126752511934 1
gene  1 15 33 -0.42449679982291305 0 1966.0 -0.42449679982291305 1
gene  1 16 33 0.2625169358586285 0 1967.0 0.2625169358586285 1
gene  1 18 33 -1.1264872746831598 0 1969.0 -1.1264872746831598 1
gene  1 19 33 0.39322861540443044 0 1970.0 0.39322861540443044 1
gene  1 24 33 0.13561035283630418 0 1975.0 0.13561035283630418 1
gene  1 27 33 -0.17780803626829106 0 1978.0 -0.17780803626829106 1
gene  1 32 33 0.5368310610465423 0 1983.0 0.5368310610465423 1
gene  1 33 33 1.0713888434058965 1 1984.0 1.0713888434058965 1
gene  1 34 33 0.364110446936243 1 1985.0 0.364110446936243 1
gene  1 35 33 -0.8679593270271351 1 1986.0 -0.8679593270271351 1
gene  1 36 33 0.575714884034525 1 1987.0 0.575714884034525 1
gene  1 37 33 -0.43090742888848554 1 1988.0 -0.43090742888848554 1
gene  1 55 33 0.03164395118689219 1 2006.0 0.03164395118689219 1
gene  1 56 33 0.6287485740453977 1 2007.0 0.6287485740453977 1
gene  1 57 33 -1.0567499218041085 1 2008.0 -1.0567499218041085 1
gene  1 59 33 0.21613742680573272 1 2010.0 0.21613742680573272 1
gene  1 2 34 -0.43781363848141097 0 2014.0 -0.43781363848141097 1
gene  1 7 34 -0.09289834641044831 0 2019.0 -0.09289834641044831 1
gene  1 8 34 0.46918139645313184 0 2020.0 0.46918139645313184 1
gene  1 9 34 0.7505896010285367 0 2021.0 0.7505896010285367 0
gene  1 10 34 -0.47180857317746083 0 2022.0 -0.47180857317746083 1
gene  1 11 34 -0.34751400975744756 0 2023.0 -0.34751400975744756 1
gene  1 12 34 0.11889944909863172 0 2024.0 0.11889944909863172 1
gene  1 16 34 -0.48476540296009973 0 2028.0 -0.48476540296009973 1
gene  1 17 34 0.2529449730176639 0 2029.0 0.2529449730176639 1
gene  1 19 34 -0.052150519609017815 0 2031.0 -0.052150519609017815 1
gene  1 20 34 0.18814970220064473 0 2032.0 0.18814970220064473 1
gene  1 21 34 0.17503399742511955 0 2033.0 0.17503399742511955 1
gene  1 22 34 0.4240534870592389 0 2034.0 0.4240534870592389 1
gene  1 23 34 0.10190222638334563 0 2035.0 0.10190222638334563 1
gene  1 24 34 0.13432609462368214 0 2036.0 0.13432609462368214 1
gene  1 26 34 0.022732933539337075 0 2038.0 0.022732933539337075 0
gene  1 28 34 -0.059974530951745784 0 2040.0 -0.059974530951745784 1
gene  1 29 34 -0.5310935337433969 0 2041.0 -0.5310935337433969 1
gene  1 30 34 -0.011303006049142028 0 2042.0 -0.011303006049142028 1
gene  1 32 34 0.02249880954656389 0 2044.0 0.02249880954656389 0
gene  1 33 34 0.40965620403615577 0 2045.0 0.40965620403615577 1
gene  1 36 34 0.314501267559275 1 2048.0 0.314501267559275 1
gene  1 53 34 0.4779882397717514 1 2065.0 0.4779882397717514 1
gene  1 54 34 -0.27355287562847247 1 2066.0 -0.27355287562847247 1
gene  1 55 34 -0.37984836629153457 1 2067.0 -0.37984836629153457 1
gene  1 58 34 0.13191719760886633 1 2070.0 0.13191719760886633 1
gene  1 60 34 -1.6368717926940153 1 2072.0 -1.6368717926940153 1
gene  1 7 35 -0.13956496209012484 0 2080.0 -0.13956496209012484 1
gene  1 8 35 -0.02106298875049333 0 2081.0 -0.02106298875049333 1
gene  1 9 35 0.07290179323547574 0 2082.0 0.07290179323547574 1
gene  1 12 35 -0.2849532346042545 0 2085.0 -0.2849532346042545 1
gene  1 13 35 -0.7289090946530331 0 2086.0 -0.7289090946530331 1
gene  1 17 35 -0.08404595909455259 0 2090.0 -0.08404595909455259 1
gene  1 19 35 -0.3186819435187069 0 2092.0 -0.3186819435187069 1
gene  1 20 35 -0.2063289179658333 0 2093.0 -0.2063289179658333 1
gene  1 22 35 -0.5633604354875619 0 2095.0 -0.5633604354875619 1
gene  1 25 35 -0.1905672134235734 0 2098.0 -0.1905672134235734 0
gene  1 26 35 0.3884533148055257 0 2099.0 0.3884533148055257 1
gene  1 27 35 -0.08937368942261913 0 2100.0 -0.08937368942261913 1
gene  1 28 35 -0.0391284739040982 0 2101.0 -0.0391284739040982 1
gene  1 30 35 0.2240387054947014 0 2103.0 0.2240387054947014 1
gene  1 31 35 -0.07750461471901071 0 2104.0 -0.07750461471901071 1
gene  1 32 35 -0.010476668535858047 0 2105.0 -0.010476668535858047 1
gene  1 33 35 -0.14028197285759803 0 2106.0 -0.14028197285759803 1
gene  1 35 35 0.721257336019556 1 2108.0 0.721257336019556 1
gene  1 36 35 0.53196166678211 1 2109.0 0.53196166678211 1
gene  1 53 35 -0.13523772544199708 1 2126.0 -0.13523772544199708 1
gene  1 55 35 -0.3468300777077633 1 2128.0 -0.3468300777077633 1
gene  1 56 35 -0.3718318163985792 1 2129.0 -0.3718318163985792 1
gene  1 4 36 -0.23299294528701653 0 2138.0 -0.23299294528701653 1
gene  1 9 36 -0.0804410306524643 0 2143.0 -0.0804410306524643 1
gene  1 10 36 -0.23043933078823403 0 2144.0 -0.23043933078823403 1
gene  1 12 36 -0.23146003007443658 0 2146.0 -0.23146003007443658 1
gene  1 15 36 0.49806157362483094 0 2149.0 0.49806157362483094 1
gene  1 20 36 -0.05916360446856932 0 2154.0 -0.05916360446856932 1
gene  1 21 36 -2.8668349967585485 0 2155.0 -2.8668349967585485 1
gene  1 24 36 0.10760784071274013 0 2158.0 0.10760784071274013 1
gene  1 26 36 -0.2659604083858118 0 2160.0 -0.2659604083858118 1
gene  1 27 36 -0.03197862534264481 0 2161.0 -0.03197862534264481 1
gene  1 28 36 0.24022242389995307 0 2162.0 0.24022242389995307 1
gene  1 30 36 -0.005293820875797265 0 2164.0 -0.005293820875797265 1
gene  1 32 36 0.3818691575990558 0 2166.0 0.3818691575990558 0
gene  1 35 36 0.29231325298714006 0 2169.0 0.29231325298714006 1
gene  1 36 36 -0.43126911856344186 1 2170.0 -0.43126911856344186 1
gene  1 52 36 2.150012873490833 1 2186.0 2.150012873490833 1
gene  1 53 36 -0.18467307788958123 1 2187.0 -0.18467307788958123 0
gene  1 57 36 -0.34764342180300817 1 2191.0 -0.34764342180300817 1
gene  1 60 36 -0.17902566731115338 1 2194.0 -0.17902566731115338 1
gene  1 3 37 0.4879121315762024 0 2198.0 0.4879121315762024 1
gene  1 5 37 0.1271365791727514 0 2200.0 0.1271365791727514 1
gene  1 7 37 -0.6718518951381365 0 2202.0 -0.6718518951381365 1
gene  1 8 37 0.016750033763297423 0 2203.0 0.016750033763297423 1
gene  1 11 37 -0.4962538933026577 0 2206.0 -0.4962538933026577 1
gene  1 12 37 1.9227582157352856 0 2207.0 1.9227582157352856 1
gene  1 13 37 0.024985393292572655 0 2208.0 0.024985393292572655 1
gene  1 14 37 -0.5064907112588463 0 2209.0 -0.5064907112588463 0
gene  1 15 37 0.027337383252448312 0 2210.0 0.027337383252448312 1
gene  1 17 37 -0.026339809836990538 0 2212.0 -0.026339809836990538 1
gene  1 18 37 -0.6901735481366426 0 2213.0 -0.6901735481366426 1
gene  1 22 37 -0.28715668267786226 0 2217.0 -0.28715668267786226 1
gene  1 23 37 -0.6085288009714969 0 2218.0 -0.6085288009714969 1
gene  1 24 37 0.4115752745380532 0 2219.0 0.4115752745380532 1
gene  1 29 37 -2.3696158610205127 0 2224.0 -2.3696158610205127 1
gene  1 31 37 0.37185526788127793 0 2226.0 0.37185526788127793 1
gene  1 33 37 -0.01721183978936644 0 2228.0 -0.01721183978936644 1
gene  1 34 37 -0.15836929509555586 0 2229.0 -0.15836929509555586 1
gene  1 36 37 -0.2316580504748258 0 2231.0 -0.2316580504748258 1
gene  1 37 37 -0.6625285786969042 1 2232.0 -0.6625285786969042 1
gene  1 53 37 -0.654333775915467 1 2248.0 -0.654333775915467 1
gene  1 54 37 -0.9147195076664308 1 2249.0 -0.9147195076664308 1
gene  1 56 37 0.4720833889783338 1 2251.0 0.4720833889783338 1
gene  1 57 37 -0.3393770286044991 1 2252.0 -0.3393770286044991 1
gene  1 59 37 0.6099818663879034 1 2254.0 0.6099818663879034 1
gene  1 61 37 -0.4466624248670784 1 2256.0 -0.4466624248670784 1
gene  1 1 52 0.06528569347289842 0 3111.0 0.06528569347289842 1
gene  1 2 52 0.059567055537883065 0 3112.0 0.059567055537883065 1
gene  1 3 52 -3.295645781516739 0 3113.0 -3.295645781516739 1
gene  1 4 52 -0.027327371714922846 0 3114.0 -0.027327371714922846 1
gene  1 6 52 -0.5589558348332513 0 3116.0 -0.5589558348332513 1
gene  1 8 52 0.37190772318760945 0 3118.0 0.37190772318760945 1
gene  1 9 52 -0.15972339442980174 0 3119.0 -0.15972339442980174 1
gene  1 11 52 0.05454378841963112 0 3121.0 0.05454378841963112 1
gene  1 13 52 -0.17494040994370172 0 3123.0 -0.17494040994370172 1
gene  1 14 52 -0.0037728818471084724 0 3124.0 -0.0037728818471084724 1
gene  1 16 52 0.3101702540046784 0 3126.0 0.3101702540046784 1
gene  1 19 52 -0.026581583642292572 0 3129.0 -0.026581583642292572 1
gene  1 22 52 0.2535457705921992 0 3132.0 0.2535457705921992 1
gene  1 24 52 -0.5993677160092152 0 3134.0 -0.5993677160092152 1
gene  1 26 52 1.549315066489747 0 3136.0 1.549315066489747 1
gene  1 28 52 0.12947198213912506 0 3138.0 0.12947198213912506 1
gene  1 33 52 0.6747809884375676 0 3143.0 0.6747809884375676 1
gene  1 35 52 0.18671460925251449 0 3145.0 0.18671460925251449 1
gene  1 36 52 0.13838738116663946 0 3146.0 0.13838738116663946 1
gene  1 53 52 0.37712262411488034 1 3163.0 0.37712262411488034 1
gene  1 55 52 0.11483271100812989 1 3165.0 0.11483271100812989 1
gene  1 57 52 0.7504851698134138 1 3167.0 0.7504851698134138 1
gene  1 59 52 0.4337934643066371 1 3169.0 0.4337934643066371 1
gene  1 1 53 0.5855183031907463 0 3172.0 0.5855183031907463 1
gene  1 4 53 -0.3144756513543393 0 3175.0 -0.3144756513543393 1
gene  1 6 53 -0.33239167953555265 0 3177.0 -0.33239167953555265 1
gene  1 9 53 -0.11997007013316997 0 3180.0 -0.11997007013316997 1
gene  1 10 53 -1.182696786540736 0 3181.0 -1.182696786540736 1
gene  1 12 53 -0.06052865720759766 0 3183.0 -0.06052865720759766 1
gene  1 16 53 -0.051705790800049084 0 3187.0 -0.051705790800049084 1
gene  1 17 53 0.03048066977320703 0 3188.0 0.03048066977320703 1
gene  1 18 53 0.5791715332086466 0 3189.0 0.5791715332086466 1
gene  1 19 53 0.9891353537892369 0 3190.0 0.9891353537892369 0
gene  1 20 53 -0.2413346697995754 0 3191.0 -0.2413346697995754 1
gene  1 21 53 0.20034501334582805 0 3192.0 0.20034501334582805 1
gene  1 22 53 -0.03851630660958844 0 3193.0 -0.03851630660958844 1
gene  1 23 53 0.9560159639854914 0 3194.0 0.9560159639854914 1
gene  1 25 53 0.05570234824449699 0 3196.0 0.05570234824449699 1
gene  1 27 53 -0.4325211730077949 0 3198.0 -0.4325211730077949 0
gene  1 28 53 0.13691433220791857 0 3199.0 0.13691433220791857 1
gene  1 30 53 -3.085349484669339 0 3201.0 -3.085349484669339 1
gene  1 32 53 0.20014207282331958 0 3203.0 0.20014207282331958 1
gene  1 34 53 -0.12411090243269383 0 3205.0 -0.12411090243269383 1
gene  1 35 53 -0.012721002202999765 0 3206.0 -0.012721002202999765 1
gene  1 36 53 0.23692239369218196 0 3207.0 0.23692239369218196 1
gene  1 52 53 -2.003402952265146 0 3223.0 -2.003402952265146 1
gene  1 58 53 0.022346538657391116 1 3229.0 0.022346538657391116 1
gene  1 59 53 -1.0849570505416481 1 3230.0 -1.0849570505416481 1
gene  1 61 53 -0.10873744946369045 1 3232.0 -0.10873744946369045 1
gene  1 1 54 -1.8569041178814985 0 3233.0 -1.8569041178814985 1
gene  1 3 54 0.4543850271806706 0 3235.0 0.4543850271806706 1
gene  1 5 54 -0.19991817859830197 0 3237.0 -0.19991817859830197 1
gene  1 7 54 0.03349180278913483 0 3239.0 0.03349180278913483 1
gene  1 8 54 -0.40917791555927835 0 3240.0 -0.40917791555927835 1
gene  1 9 54 0.5009231650071211 0 3241.0 0.5009231650071211 1
gene  1 11 54 0.5387120018287977 0 3243.0 0.5387120018287977 1
gene  1 14 54 0.648776654161577 0 3246.0 0.648776654161577 1
gene  1 15 54 -0.12707258372953809 0 3247.0 -0.12707258372953809 1
gene  1 16 54 0.03392050047426419 0 3248.0 0.03392050047426419 1
gene  1 17 54 0.5119235733260681 0 3249.0 0.5119235733260681 1
gene  1 21 54 0.0895359176172486 0 3253.0 0.0895359176172486 1
gene  1 22 54 -0.7234576554061743 0 3254.0 -0.7234576554061743 1
gene  1 23 54 -0.8006185934655666 0 3255.0 -0.8006185934655666 1
gene  1 25 54 -0.2207201162201537 0 3257.0 -0.2207201162201537 1
gene  1 26 54 0.03785788495852164 0 3258.0 0.03785788495852164 1
gene  1 29 54 -0.39866482254370017 0 3261.0 -0.39866482254370017 1
gene  1 32 54 0.4849719844877506 0 3264.0 0.4849719844877506 1
gene  1 33 54 0.9118362141354062 0 3265.0 0.9118362141354062 1
gene  1 35 54 -0.1956716076486768 0 3267.0 -0.1956716076486768 1
gene  1 36 54 -2.1179677279454134 0 3268.0 -2.1179677279454134 1
gene  1 53 54 0.29181623513180266 0 3285.0 0.29181623513180266 1
gene  1 54 54 -0.19999175260015967 1 3286.0 -0.19999175260015967 1
gene  1 55 54 0.8206993808965399 1 3287.0 0.8206993808965399 1
gene  1 57 54 0.08866402744604504 1 3289.0 0.08866402744604504 1
gene  1 58 54 -0.4980772098432026 1 3290.0 -0.4980772098432026 1
gene  1 59 54 0.14868060132168093 1 3291.0 0.14868060132168093 1
gene  1 60 54 -0.07811313692005481 1 3292.0 -0.07811313692005481 1
gene  1 2 55 -0.3954293534063589 0 3295.0 -0.3954293534063589 1
gene  1 8 55 0.9942071512475638 0 3301.0 0.9942071512475638 1
gene  1 10 55 -2.0861990210150902 0 3303.0 -2.0861990210150902 1
gene  1 14 55 0.22309758368000146 0 3307.0 0.22309758368000146 1
gene  1 15 55 -0.9713770963536335 0 3308.0 -0.9713770963536335 1
gene  1 16 55 0.2879500162430414 0 3309.0 0.2879500162430414 0
gene  1 17 55 -0.040613069740572445 0 3310.0 -0.040613069740572445 1
gene  1 19 55 0.09646494946373002 0 3312.0 0.09646494946373002 1
gene  1 20 55 0.043877308245097155 0 3313.0 0.043877308245097155 1
gene  1 24 55 0.20938674481809816 0 3317.0 0.20938674481809816 1
gene  1 25 55 0.7134539807154608 0 3318.0 0.7134539807154608 1
gene  1 26 55 -0.23761691662559833 0 3319.0 -0.23761691662559833 1
gene  1 28 55 -0.02668213671130866 0 3321.0 -0.02668213671130866 1
gene  1 29 55 0.8480616444778214 0 3322.0 0.8480616444778214 1
gene  1 31 55 -0.7323521156184958 0 3324.0 -0.7323521156184958 1
gene  1 32 55 0.5644995318209644 0 3325.0 0.5644995318209644 1
gene  1 34 55 -0.2601704655374707 0 3327.0 -0.2601704655374707 1
gene  1 35 55 -0.42290549502723024 0 3328.0 -0.42290549502723024 1
gene  1 53 55 0.20588230566539856 0 3346.0 0.20588230566539856 1
gene  1 54 55 0.308830942099755 0 3347.0 0.308830942099755 1
gene  1 55 55 -0.33436440746969665 1 3348.0 -0.33436440746969665 1
gene  1 56 55 0.42746697117855276 1 3349.0 0.42746697117855276 1
gene  1 58 55 0.05744773745398909 1 3351.0 0.05744773745398909 1
gene  1 59 55 -0.03985940213748134 1 3352.0 -0.03985940213748134 1
gene  1 61 55 -1.4819337490793068 1 3354.0 -1.4819337490793068 1
gene  1 1 56 0.4886534965952643 0 3355.0 0.4886534965952643 1
gene  1 3 56 0.04207633464489452 0 3357.0 0.04207633464489452 1
gene  1 5 56 -0.28732124980959406 0 3359.0 -0.28732124980959406 1
gene  1 7 56 0.19101832614142594 0 3361.0 0.19101832614142594 1
gene  1 8 56 0.23884949608354455 0 3362.0 0.23884949608354455 1
gene  1 10 56 0.6234583397860738 0 3364.0 0.6234583397860738 1
gene  1 11 56 0.7378899290152007 0 3365.0 0.7378899290152007 1
gene  1 12 56 -1.7222960892205297 0 3366.0 -1.7222960892205297 1
gene  1 14 56 0.1601516205165991 0 3368.0 0.1601516205165991 1
gene  1 15 56 0.07716555025408127 0 3369.0 0.07716555025408127 1
gene  1 16 56 0.5856450069792151 0 3370.0 0.5856450069792151 1
gene  1 17 56 0.7115302248373432 0 3371.0 0.7115302248373432 1
gene  1 18 56 -0.2104943451076966 0 3372.0 -0.2104943451076966 1
gene  1 22 56 0.7916385721553189 0 3376.0 0.7916385721553189 1
gene  1 25 56 1.392082305791643 0 3379.0 1.392082305791643 1
gene  1 26 56 -0.8962051193144884 0 3380.0 -0.8962051193144884 1
gene  1 28 56 0.2551481325931618 0 3382.0 0.2551481325931618 1
gene  1 29 56 0.18741677642624763 0 3383.0 0.18741677642624763 1
gene  1 30 56 -0.08089297960287187 0 3384.0 -0.08089297960287187 1
gene  1 31 56 0.49074149561461194 0 3385.0 0.49074149561461194 1
gene  1 32 56 -0.09237558680778331 0 3386.0 -0.09237558680778331 1
gene  1 33 56 0.07969412586184679 0 3387.0 0.07969412586184679 1
gene  1 35 56 -0.0892228185490842 0 3389.0 -0.0892228185490842 1
gene  1 37 56 -0.034501782397062156 0 3391.0 -0.034501782397062156 1
gene  1 52 56 -0.11177264891544712 0 3406.0 -0.11177264891544712 1
gene  1 53 56 0.5624987876714617 0 3407.0 0.5624987876714617 1
gene  1 54 56 -0.9831941137359532 0 3408.0 -0.9831941137359532 1
gene  1 57 56 0.14130696320514538 1 3411.0 0.14130696320514538 1
gene  1 59 56 0.734781431164611 1 3413.0 0.734781431164611 1
gene  1 60 56 -1.0041455618950517 1 3414.0 -1.0041455618950517 1
gene  1 1 57 0.15191079457376044 0 3416.0 0.15191079457376044 1
gene  1 3 57 0.3041524066625385 0 3418.0 0.3041524066625385 1
gene  1 4 57 -0.08132597687779468 0 3419.0 -0.08132597687779468 1
gene  1 5 57 -1.3798477120190138 0 3420.0 -1.3798477120190138 1
gene  1 6 57 -0.1228979822719688 0 3421.0 -0.1228979822719688 1
gene  1 7 57 0.026900074820707758 0 3422.0 0.026900074820707758 1
gene  1 8 57 0.19234789543418918 0 3423.0 0.19234789543418918 1
gene  1 9 57 -0.004728922253595556 0 3424.0 -0.004728922253595556 1
gene  1 10 57 -0.30504964640033816 0 3425.0 -0.30504964640033816 1
gene  1 13 57 0.044056541698150216 0 3428.0 0.044056541698150216 1
gene  1 15 57 -0.33748891414219334 0 3430.0 -0.33748891414219334 1
gene  1 16 57 0.05244166147555405 0 3431.0 0.05244166147555405 1
gene  1 17 57 -0.5202597863588293 0 3432.0 -0.5202597863588293 1
gene  1 22 57 0.6753659077110519 0 3437.0 0.6753659077110519 1
gene  1 24 57 -0.023689480050293327 0 3439.0 -0.023689480050293327 1
gene  1 27 57 -0.004188978159022444 0 3442.0 -0.004188978159022444 1
gene  1 29 57 -0.2501348728511535 0 3444.0 -0.2501348728511535 1
gene  1 30 57 0.9448332165831472 0 3445.0 0.9448332165831472 1
gene  1 31 57 0.824154316421916 0 3446.0 0.824154316421916 1
gene  1 32 57 -0.33400300435551566 0 3447.0 -0.33400300435551566 1
gene  1 33 57 0.21529840953544044 0 3448.0 0.21529840953544044 1
gene  1 34 57 -0.15838758659686 0 3449.0 -0.15838758659686 1
gene  1 35 57 -0.15270999905125662 0 3450.0 -0.15270999905125662 1
gene  1 37 57 0.0751184925516074 0 3452.0 0.0751184925516074 1
gene  1 52 57 0.7075927041958305 0 3467.0 0.7075927041958305 1
gene  1 53 57 0.1948242174702472 0 3468.0 0.1948242174702472 1
gene  1 58 57 -0.3378882159689807 1 3473.0 -0.3378882159689807 1
gene  1 61 57 0.040019937428922986 1 3476.0 0.040019937428922986 1
gene  1 2 58 -0.2518506462161003 0 3478.0 -0.2518506462161003 1
gene  1 4 58 -0.00828262423538928 0 3480.0 -0.00828262423538928 1
gene  1 5 58 -0.03419577442634536 0 3481.0 -0.03419577442634536 1
gene  1 7 58 -0.4405902612594462 0 3483.0 -0.4405902612594462 1
gene  1 8 58 0.8587178295058006 0 3484.0 0.8587178295058006 1
gene  1 11 58 -2.3690684736652132 0 3487.0 -2.3690684736652132 1
gene  1 14 58 -0.5450926357217988 0 3490.0 -0.5450926357217988 1
gene  1 15 58 -0.22048955619807306 0 3491.0 -0.22048955619807306 1
gene  1 21 58 0.9977551416870233 0 3497.0 0.9977551416870233 1
gene  1 24 58 0.18257718656906236 0 3500.0 0.18257718656906236 0
gene  1 25 58 0.325507164802411 0 3501.0 0.325507164802411 1
gene  1 26 58 -0.4980861448420386 0 3502.0 -0.4980861448420386 1
gene  1 27 58 -0.16147133234232644 0 3503.0 -0.16147133234232644 1
gene  1 28 58 -0.1817447613711037 0 3504.0 -0.1817447613711037 1
gene  1 31 58 0.12866956576579985 0 3507.0 0.12866956576579985 1
gene  1 33 58 0.022764155132888462 0 3509.0 0.022764155132888462 1
gene  1 35 58 -0.3146405225545696 0 3511.0 -0.3146405225545696 1
gene  1 37 58 -0.4586065777521523 0 3513.0 -0.4586065777521523 1
gene  1 52 58 0.46146097890469007 0 3528.0 0.46146097890469007 1
gene  1 53 58 0.23429748158931346 0 3529.0 0.23429748158931346 1
gene  1 60 58 0.004708919960650582 1 3536.0 0.004708919960650582 1
gene  1 2 59 -0.9105202745242211 0 3539.0 -0.9105202745242211 1
gene  1 3 59 -0.09851208193108862 0 3540.0 -0.09851208193108862 1
gene  1 5 59 0.9272223672765715 0 3542.0 0.9272223672765715 1
gene  1 7 59 -0.9293228216142358 0 3544.0 -0.9293228216142358 1
gene  1 8 59 0.3594365431461275 0 3545.0 0.3594365431461275 1
gene  1 11 59 -0.10281920840556312 0 3548.0 -0.10281920840556312 1
gene  1 13 59 0.5195332284610656 0 3550.0 0.5195332284610656 1
gene  1 14 59 0.7517037094731418 0 3551.0 0.7517037094731418 1
gene  1 22 59 -0.3117881605467852 0 3559.0 -0.3117881605467852 1
gene  1 23 59 0.17186956486491434 0 3560.0 0.17186956486491434 1
gene  1 24 59 0.06267742726884434 0 3561.0 0.06267742726884434 1
gene  1 25 59 -0.5450840123741206 0 3562.0 -0.5450840123741206 1
gene  1 26 59 -0.2678679280229367 0 3563.0 -0.2678679280229367 1
gene  1 29 59 0.452804616780916 0 3566.0 0.452804616780916 1
gene  1 30 59 0.06829061219229687 0 3567.0 0.06829061219229687 1
gene  1 32 59 -0.6738647378854594 0 3569.0 -0.6738647378854594 1
gene  1 34 59 0.48520393931149697 0 3571.0 0.48520393931149697 1
gene  1 35 59 0.03921189191547023 0 3572.0 0.03921189191547023 1
gene  1 52 59 -0.24789326583802337 0 3589.0 -0.24789326583802337 1
gene  1 53 59 -0.18145742533097012 0 3590.0 -0.18145742533097012 1
gene  1 54 59 0.01898658878713466 0 3591.0 0.01898658878713466 1
gene  1 57 59 -0.01409240139173344 0 3594.0 -0.01409240139173344 1
gene  1 60 59 -0.3552190292294999 1 3597.0 -0.3552190292294999 1
gene  1 61 59 -1.2708853445306338 1 3598.0 -1.2708853445306338 1
gene  1 1 60 -0.0038014261197752666 0 3599.0 -0.0038014261197752666 1
gene  1 2 60 0.22791146842817991 0 3600.0 0.22791146842817991 1
gene  1 6 60 0.01828808259799361 0 3604.0 0.01828808259799361 1
gene  1 8 60 0.19486241571557758 0 3606.0 0.19486241571557758 1
gene  1 10 60 -0.18544930979792223 0 3608.0 -0.18544930979792223 1
gene  1 11 60 -0.01824426577812556 0 3609.0 -0.01824426577812556 1
gene  1 12 60 -0.056389131431936856 0 3610.0 -0.056389131431936856 1
gene  1 13 60 -0.48936068408401223 0 3611.0 -0.48936068408401223 1
gene  1 15 60 -0.39039814595620254 0 3613.0 -0.39039814595620254 1
gene  1 16 60 -0.9083460850441202 0 3614.0 -0.9083460850441202 1
gene  1 17 60 0.2910107610923345 0 3615.0 0.2910107610923345 1
gene  1 18 60 -0.027074062980179506 0 3616.0 -0.027074062980179506 1
gene  1 19 60 -0.2846650456503814 0 3617.0 -0.2846650456503814 1
gene  1 20 60 -0.18387305673250076 0 3618.0 -0.18387305673250076 1
gene  1 22 60 -1.0984011023140285 0 3620.0 -1.0984011023140285 1
gene  1 23 60 0.3511552041847518 0 3621.0 0.3511552041847518 1
gene  1 24 60 0.3646683806500173 0 3622.0 0.3646683806500173 1
gene  1 25 60 -0.11410869955886235 0 3623.0 -0.11410869955886235 1
gene  1 26 60 0.016416504127388848 0 3624.0 0.016416504127388848 1
gene  1 27 60 0.28270611203739304 0 3625.0 0.28270611203739304 1
gene  1 32 60 0.6258516830522295 0 3630.0 0.6258516830522295 1
gene  1 34 60 -0.4104554952027049 0 3632.0 -0.4104554952027049 1
gene  1 36 60 0.6107549642940807 0 3634.0 0.6107549642940807 1
gene  1 56 60 -0.05737262615680027 0 3654.0 -0.05737262615680027 1
gene  1 57 60 -0.7589857384442402 0 3655.0 -0.7589857384442402 1
gene  1 5 61 0.05320610065931691 0 3664.0 0.05320610065931691 1
gene  1 6 61 -0.3598510515859061 0 3665.0 -0.3598510515859061 1
gene  1 7 61 0.8838834444268158 0 3666.0 0.8838834444268158 1
gene  1 9 61 -0.22951423937660362 0 3668.0 -0.22951423937660362 1
gene  1 10 61 -0.21666116878378966 0 3669.0 -0.21666116878378966 1
gene  1 12 61 0.04570112180435019 0 3671.0 0.04570112180435019 1
gene  1 14 61 0.16035404627117186 0 3673.0 0.16035404627117186 1
gene  1 16 61 -0.5589746824432147 0 3675.0 -0.5589746824432147 1
gene  1 17 61 0.33691036684958015 0 3676.0 0.33691036684958015 1
gene  1 19 61 0.304478813856059 0 3678.0 0.304478813856059 1
gene  1 20 61 0.539691594433897 0 3679.0 0.539691594433897 1
gene  1 21 61 -0.5102308609345028 0 3680.0 -0.5102308609345028 1
gene  1 23 61 -0.13941686590417304 0 3682.0 -0.13941686590417304 1
gene  1 27 61 -0.43384091838869093 0 3686.0 -0.43384091838869093 1
gene  1 32 61 -0.8613219184775047 0 3691.0 -0.8613219184775047 1
gene  1 35 61 -1.0272411660494156 0 3694.0 -1.0272411660494156 1
gene  1 36 61 -0.14512192523016476 0 3695.0 -0.14512192523016476 1
gene  1 37 61 0.17511438977393035 0 3696.0 0.17511438977393035 1
gene  1 52 61 0.4682672131300808 0 3711.0 0.4682672131300808 1
gene  1 53 61 0.42703494637693445 0 3712.0 0.42703494637693445 1
gene  1 56 61 0.917674333231512 0 3715.0 0.917674333231512 1
gene  1 57 61 0.2330084790853534 0 3716.0 0.2330084790853534 1
gene  1 58 61 -0.05039446173549156 0 3717.0 -0.05039446173549156 1
gene  1 59 61 0.38564370212443905 0 3718.0 0.38564370212443905 1
gene  1 54 62 -0.15165797821295188 1 3719.0 -0.15165797821295188 1
gene  1 62 12 -0.33923917124282554 0 3720.0 -0.33923917124282554 1
gene  1 36 63 0.5844255099745025 1 3721.0 0.5844255099745025 1
gene  1 63 23 0.008599071938584342 0 3722.0 0.008599071938584342 1
gene  1 16 64 -0.05790139074347697 0 3723.0 -0.05790139074347697 1
gene  1 64 55 0.06225822215995187 0 3724.0 0.06225822215995187 1
gene  1 26 65 -0.08970481390169267 0 3725.0 -0.08970481390169267 1
gene  1 65 34 -0.24396545298091854 0 3726.0 -0.24396545298091854 1
gene  1 14 66 0.06689148007771244 0 3727.0 0.06689148007771244 1
gene  1 66 37 -0.5097737939713107 0 3728.0 -0.5097737939713107 1
gene  1 30 67 -0.31378203577570773 1 3729.0 -0.31378203577570773 1
gene  1 67 29 -0.9308256680990112 0 3730.0 -0.9308256680990112 1
gene  1 16 68 0.024939492452232388 0 3731.0 0.024939492452232388 1
gene  1 68 21 -0.05344343953672491 0 3732.0 -0.05344343953672491 1
gene  1 25 69 -0.3781111988123366 0 3733.0 -0.3781111988123366 1
gene  1 69 35 -0.39224465228230426 0 3734.0 -0.39224465228230426 1
gene  1 53 70 0.032192147510322754 1 3735.0 0.032192147510322754 1
gene  1 70 36 0.24623843123623168 0 3736.0 0.24623843123623168 1
gene  1 23 71 -0.005858474937134731 0 3737.0 -0.005858474937134731 1
gene  1 71 32 -0.3478453740176847 0 3738.0 -0.3478453740176847 1
gene  1 24 72 -0.2323339925444332 0 3739.0 -0.2323339925444332 1
gene  1 72 58 -0.062465255624400154 0 3740.0 -0.062465255624400154 1
gene  1 12 73 -0.03963544224826049 0 3741.0 -0.03963544224826049 1
gene  1 73 32 0.21599178126878038 0 3742.0 0.21599178126878038 1
gene  1 16 74 0.07311882664365567 0 3743.0 0.07311882664365567 1
gene  1 74 23 0.030096692445251372 0 3744.0 0.030096692445251372 1
gene  1 32 75 -0.07228473766976316 0 3745.0 -0.07228473766976316 1
gene  1 75 34 1.319360223692823 0 3746.0 1.319360223692823 1
gene  1 32 76 0.1133174022724656 0 3747.0 0.1133174022724656 1
gene  1 76 36 -0.3855710253964962 0 3748.0 -0.3855710253964962 1
gene  1 29 77 0.04252824533265876 1 3749.0 0.04252824533265876 1
gene  1 77 22 0.8374599050290285 0 3750.0 0.8374599050290285 1
gene  1 28 78 0.38041869411936247 1 3751.0 0.38041869411936247 1
gene  1 78 14 -0.5395218095451133 0 3752.0 -0.5395218095451133 1
gene  1 22 79 0.2532648714721861 0 3753.0 0.2532648714721861 1
gene  1 79 31 -0.5195144277369201 0 3754.0 -0.5195144277369201 1
gene  1 56 80 -0.0159736971728431 1 3755.0 -0.0159736971728431 1
gene  1 80 16 -0.26318962006605345 0 3756.0 -0.26318962006605345 1
gene  1 2 81 -0.002866361062837412 0 3757.0 -0.002866361062837412 1
gene  1 81 26 0.3133817812439184 0 3758.0 0.3133817812439184 1
gene  1 5 82 0.687481276080591 0 3759.0 0.687481276080591 1
gene  1 82 29 0.4063480743311828 0 3760.0 0.4063480743311828 1
gene  1 32 83 0.09830682373310848 1 3761.0 0.09830682373310848 1
gene  1 83 15 0.6443031160146934 0 3762.0 0.6443031160146934 1
gene  1 9 84 -0.02189261601637637 0 3763.0 -0.02189261601637637 1
gene  1 84 34 -0.007452695209530158 0 3764.0 -0.007452695209530158 1
gene  1 4 85 -0.6478330491133235 0 3765.0 -0.6478330491133235 1
gene  1 85 27 -0.42183524512876175 0 3766.0 -0.42183524512876175 1
gene  1 54 86 -0.5668317985964649 1 3767.0 -0.5668317985964649 1
gene  1 86 15 -0.06463754695069743 0 3768.0 -0.06463754695069743 1
gene  1 31 87 0.8783678249798768 1 3769.0 0.8783678249798768 1
gene  1 87 28 0.07433310529759127 0 3770.0 0.07433310529759127 1
gene  1 14 88 -0.342467041898149 0 3771.0 -0.342467041898149 1
gene  1 88 30 -0.20758838210870154 0 3772.0 -0.20758838210870154 1
gene  1 19 89 -0.03586066291360416 0 3773.0 -0.03586066291360416 1
gene  1 89 53 -0.034248614008148284 0 3774.0 -0.034248614008148284 1
gene  1 35 90 0.0352464447388685 1 3775.0 0.0352464447388685 1
gene  1 90 23 0.1904199405627038 0 3776.0 0.1904199405627038 1
gene  1 27 91 1.0 0 3777.0 1.0 1
gene  1 91 53 -0.39524309427941423 0 3778.0 -0.39524309427941423 1
genomeend 0
