genomestart  1
trait 1 0.0 0.0 0.0 0.0 0.0 0.0 0.0 0.0 
node 1 1 1 1
node 2 1 1 1
node 3 1 1 1
node 4 1 1 1
node 5 1 1 1
node 6 1 1 1
node 7 1 1 1
node 8 1 1 1
node 9 1 1 1
node 10 1 1 3
node 11 1 0 0
node 12 1 0 0
node 13 1 0 0
node 14 1 0 0
node 15 1 0 0
node 16 1 0 0
node 17 1 0 0
node 18 1 0 0
node 19 1 0 0
node 51 1 0 2
node 52 1 0 2
node 53 1 0 2
node 54 1 0 2
node 55 1 0 2
node 56 1 0 2
node 57 1 0 2
node 58 1 0 2
node 59 1 0 2
node 60 1 0 2
gene  1 2 11 0.1052658722642722 0 601.0 0.1052658722642722 1
gene  1 7 11 0.41013411892838403 0 606.0 0.41013411892838403 1
gene  1 9 11 -0.9075933977951587 0 608.0 -0.9075933977951587 1
gene  1 13 11 0.9403672760674433 1 612.0 0.9403672760674433 1
gene  1 14 11 0.2964023646777174 1 613.0 0.2964023646777174 1
gene  1 15 11 0.9459649977241988 1 614.0 0.9459649977241988 1
gene  1 18 11 -0.3488884323713589 1 617.0 -0.3488884323713589 1
gene  1 19 11 0.907820118232703 1 618.0 0.907820118232703 1
gene  1 52 11 -0.6902419534732769 1 651.0 -0.6902419534732769 1
gene  1 53 11 0.17684957564046322 1 652.0 0.17684957564046322 1
gene  1 54 11 0.2421884933454327 1 653.0 0.2421884933454327 1
gene  1 55 11 -0.9637197411764639 1 654.0 -0.9637197411764639 1
gene  1 56 11 0.2635051140067297 1 655.0 0.2635051140067297 1
gene  1 57 11 0.6063623375091979 1 656.0 0.6063623375091979 1
gene  1 58 11 0.4132688097698637 1 657.0 0.4132688097698637 1
gene  1 60 11 -0.6249639374956453 1 659.0 -0.6249639374956453 1
gene  1 1 12 0.46735910324955054 0 660.0 0.46735910324955054 1
gene  1 3 12 -0.516558525067609 0 662.0 -0.516558525067609 1
gene  1 4 12 0.8272899161930045 0 663.0 0.8272899161930045 1
gene  1 6 12 0.977141118838016 0 665.0 0.977141118838016 1
gene  1 7 12 0.5646684427735316 0 666.0 0.5646684427735316 1
gene  1 8 12 0.3207879100906674 0 667.0 0.3207879100906674 1
gene  1 14 12 -0.6788716961879677 1 673.0 -0.6788716961879677 1
gene  1 19 12 -0.232191948182082 1 678.0 -0.232191948182082 1
gene  1 51 12 -0.37103278120073235 1 710.0 -0.37103278120073235 1
gene  1 55 12 -0.9177839742887512 1 714.0 -0.9177839742887512 1
gene  1 58 12 -0.9125211115158596 1 717.0 -0.9125211115158596 1
gene  1 60 12 -0.30122012834361067 1 719.0 -0.30122012834361067 1
gene  1 2 13 -0.49778527661296135 0 721.0 -0.49778527661296135 1
gene  1 4 13 0.33365814367891344 0 723.0 0.33365814367891344 1
gene  1 8 13 0.44079285259544476 0 727.0 0.44079285259544476 1
gene  1 9 13 -0.6568083919539421 0 728.0 -0.6568083919539421 1
gene  1 12 13 0.543165914887554 0 731.0 0.543165914887554 1
gene  1 15 13 -0.7659773972008429 1 734.0 -0.7659773972008429 1
gene  1 16 13 0.7115842784008379 1 735.0 0.7115842784008379 1
gene  1 19 13 0.44291511891468405 1 738.0 0.44291511891468405 1
gene  1 51 13 0.24754430239165537 1 770.0 0.24754430239165537 1
gene  1 53 13 -0.02212881531259514 1 772.0 -0.02212881531259514 1
gene  1 54 13 0.4836571245162281 1 773.0 0.4836571245162281 1
gene  1 55 13 0.9958133566024583 1 774.0 0.9958133566024583 1
gene  1 56 13 -0.8075408690405335 1 775.0 -0.8075408690405335 1
gene  1 57 13 0.4455271127744751 1 776.0 0.4455271127744751 1
gene  1 60 13 0.986971920944033 1 779.0 0.986971920944033 1
gene  1 3 14 -0.4566292685521882 0 782.0 -0.4566292685521882 1
gene  1 4 14 -0.329253511529055 0 783.0 -0.329253511529055 1
gene  1 5 14 -0.21762833311195617 0 784.0 -0.21762833311195617 1
gene  1 6 14 0.09222435712112953 0 785.0 0.09222435712112953 1
gene  1 7 14 0.696749262690909 0 786.0 0.696749262690909 1
gene  1 9 14 0.648984939370273 0 788.0 0.648984939370273 1
gene  1 12 14 0.4277753731858355 0 791.0 0.4277753731858355 1
gene  1 16 14 -0.6969695929909986 1 795.0 -0.6969695929909986 1
gene  1 19 14 0.2254909696347418 1 798.0 0.2254909696347418 1
gene  1 51 14 0.42670396700503077 1 830.0 0.42670396700503077 1
gene  1 52 14 -0.3300958967445923 1 831.0 -0.3300958967445923 1
gene  1 57 14 0.49316732624065585 1 836.0 0.49316732624065585 1
gene  1 58 14 0.41062937489071405 1 837.0 0.41062937489071405 1
gene  1 3 15 0.8481569906777409 0 842.0 0.8481569906777409 1
gene  1 4 15 0.6173524398676128 0 843.0 0.6173524398676128 1
gene  1 7 15 -0.3365108501006707 0 846.0 -0.3365108501006707 1
gene  1 9 15 0.19418082446175045 0 848.0 0.19418082446175045 1
gene  1 11 15 -0.39064447031186456 0 850.0 -0.39064447031186456 1
gene  1 14 15 -0.49303338442996814 0 853.0 -0.49303338442996814 1
gene  1 15 15 -0.04952525183002465 1 854.0 -0.04952525183002465 1
gene  1 16 15 -0.42768435361171486 1 855.0 -0.42768435361171486 1
gene  1 17 15 -0.7089370898897555 1 856.0 -0.7089370898897555 1
gene  1 19 15 -0.5191750344275056 1 858.0 -0.5191750344275056 1
gene  1 53 15 0.10051647511648931 1 892.0 0.10051647511648931 1
gene  1 54 15 0.054373522543111674 1 893.0 0.054373522543111674 1
gene  1 55 15 -0.6849464550803736 1 894.0 -0.6849464550803736 1
gene  1 56 15 -0.15939476539772524 1 895.0 -0.15939476539772524 1
gene  1 58 15 0.8857797516137978 1 897.0 0.8857797516137978 1
gene  1 60 15 0.12326448179449434 1 899.0 0.12326448179449434 1
gene  1 1 16 0.3202827768955576 0 900.0 0.3202827768955576 1
gene  1 2 16 -0.17224572315332565 0 901.0 -0.17224572315332565 1
gene  1 4 16 -0.46416946624762867 0 903.0 -0.46416946624762867 1
gene  1 6 16 -0.1973391309807938 0 905.0 -0.1973391309807938 1
gene  1 9 16 -0.30679548782943933 0 908.0 -0.30679548782943933 1
gene  1 10 16 -0.3839994436304035 0 909.0 -0.3839994436304035 1
gene  1 11 16 -0.446697661863119 0 910.0 -0.446697661863119 1
gene  1 13 16 0.20158664172001595 0 912.0 0.20158664172001595 1
gene  1 16 16 0.5180489482529063 1 915.0 0.5180489482529063 1
gene  1 19 16 -0.2739286708304227 1 918.0 -0.2739286708304227 1
gene  1 52 16 -0.2091482129475012 1 951.0 -0.2091482129475012 1
gene  1 53 16 0.40547498324636844 1 952.0 0.40547498324636844 1
gene  1 54 16 -0.1652538656618313 1 953.0 -0.1652538656618313 1
gene  1 56 16 0.4275717004919911 1 955.0 0.4275717004919911 1
gene  1 57 16 0.7870286250617635 1 956.0 0.7870286250617635 1
gene  1 2 17 -0.7291171373589111 0 961.0 -0.7291171373589111 1
gene  1 5 17 0.15465083168193205 0 964.0 0.15465083168193205 1
gene  1 6 17 -0.48966645239255313 0 965.0 -0.48966645239255313 1
gene  1 7 17 0.3281602466318886 0 966.0 0.3281602466318886 1
gene  1 9 17 -0.255516295724343 0 968.0 -0.255516295724343 1
gene  1 10 17 -0.07929681836756175 0 969.0 -0.07929681836756175 1
gene  1 13 17 -0.3106709874762329 0 972.0 -0.3106709874762329 1
gene  1 15 17 0.1518415900333916 0 974.0 0.1518415900333916 1
gene  1 52 17 -0.9972324200016938 1 1011.0 -0.9972324200016938 1
gene  1 55 17 -0.9455828568009127 1 1014.0 -0.9455828568009127 1
gene  1 57 17 -0.6081415093544706 1 1016.0 -0.6081415093544706 1
gene  1 58 17 0.6121897434456727 1 1017.0 0.6121897434456727 1
gene  1 59 17 -0.050899445052418835 1 1018.0 -0.050899445052418835 1
gene  1 3 18 -0.9519321373514755 0 1022.0 -0.9519321373514755 1
gene  1 4 18 0.5326928882441029 0 1023.0 0.5326928882441029 1
gene  1 5 18 -0.6387295295308043 0 1024.0 -0.6387295295308043 1
gene  1 6 18 -0.1454017052399338 0 1025.0 -0.1454017052399338 1
gene  1 7 18 0.5416881446060363 0 1026.0 0.5416881446060363 1
gene  1 8 18 0.9606750227833637 0 1027.0 0.9606750227833637 1
gene  1 9 18 0.06569141419681057 0 1028.0 0.06569141419681057 1
gene  1 11 18 -0.789229125150951 0 1030.0 -0.789229125150951 1
gene  1 12 18 -0.2912713201032546 0 1031.0 -0.2912713201032546 1
gene  1 13 18 -0.3517839788354836 0 1032.0 -0.3517839788354836 1
gene  1 17 18 0.4333069603226771 0 1036.0 0.4333069603226771 1
gene  1 19 18 -0.21148693729553436 1 1038.0 -0.21148693729553436 1
gene  1 53 18 0.5747072869253093 1 1072.0 0.5747072869253093 1
gene  1 56 18 0.376194968919648 1 1075.0 0.376194968919648 1
gene  1 57 18 0.6045346267692989 1 1076.0 0.6045346267692989 1
gene  1 59 18 0.7030269122033238 1 1078.0 0.7030269122033238 1
gene  1 1 19 0.08242803155822276 0 1080.0 0.08242803155822276 1
gene  1 3 19 0.795928457261155 0 1082.0 0.795928457261155 1
gene  1 7 19 0.2783698342216805 0 1086.0 0.2783698342216805 1
gene  1 8 19 -0.8548571731683029 0 1087.0 -0.8548571731683029 1
gene  1 9 19 0.2410168057529517 0 1088.0 0.2410168057529517 1
gene  1 10 19 0.8893942701822412 0 1089.0 0.8893942701822412 1
gene  1 11 19 0.769821543867672 0 1090.0 0.769821543867672 1
gene  1 12 19 0.28791485868589095 0 1091.0 0.28791485868589095 1
gene  1 13 19 0.06587712577833471 0 1092.0 0.06587712577833471 1
gene  1 14 19 -0.9436279193230586 0 1093.0 -0.9436279193230586 1
gene  1 16 19 0.47478359009970195 0 1095.0 0.47478359009970195 1
gene  1 19 19 -0.4208657919573384 1 1098.0 -0.4208657919573384 1
gene  1 51 19 0.5246012986165616 1 1130.0 0.5246012986165616 1
gene  1 53 19 0.45973877635215243 1 1132.0 0.45973877635215243 1
gene  1 55 19 0.43777305003742595 1 1134.0 0.43777305003742595 1
gene  1 56 19 -0.4521154019899082 1 1135.0 -0.4521154019899082 1
gene  1 59 19 0.7484160883271587 1 1138.0 0.7484160883271587 1
gene  1 60 19 0.9745100381302175 1 1139.0 0.9745100381302175 1
gene  1 1 51 0.81860908515584 0 3000.0 0.81860908515584 1
gene  1 2 51 0.2818409823871668 0 3001.0 0.2818409823871668 1
gene  1 5 51 -0.415185675602314 0 3004.0 -0.415185675602314 1
gene  1 7 51 -0.09277432149997111 0 3006.0 -0.09277432149997111 1
gene  1 8 51 0.7216973147287811 0 3007.0 0.7216973147287811 1
gene  1 9 51 -0.48462419022312175 0 3008.0 -0.48462419022312175 1
gene  1 16 51 0.9621273775731809 0 3015.0 0.9621273775731809 1
gene  1 19 51 0.045866057688748074 0 3018.0 0.045866057688748074 1
gene  1 51 51 0.454172959046218 1 3050.0 0.454172959046218 1
gene  1 52 51 0.500090891192204 1 3051.0 0.500090891192204 1
gene  1 53 51 -0.45108680489821085 1 3052.0 -0.45108680489821085 1
gene  1 55 51 0.9827206625798949 1 3054.0 0.9827206625798949 1
gene  1 56 51 -0.44662528071404584 1 3055.0 -0.44662528071404584 1
gene  1 58 51 -0.9466397485644208 1 3057.0 -0.9466397485644208 1
gene  1 59 51 0.4947494706993105 1 3058.0 0.4947494706993105 1
gene  1 3 52 -0.20053065302500672 0 3062.0 -0.20053065302500672 1
gene  1 6 52 -0.6667330049055642 0 3065.0 -0.6667330049055642 1
gene  1 7 52 0.812526906460698 0 3066.0 0.812526906460698 1
gene  1 8 52 0.6087267404677672 0 3067.0 0.6087267404677672 1
gene  1 11 52 -0.616629429188853 0 3070.0 -0.616629429188853 1
gene  1 12 52 0.7305184427858327 0 3071.0 0.7305184427858327 1
gene  1 16 52 0.3418105816645457 0 3075.0 0.3418105816645457 1
gene  1 18 52 0.24162051185972977 0 3077.0 0.24162051185972977 1
gene  1 19 52 -0.2546822263591033 0 3078.0 -0.2546822263591033 1
gene  1 52 52 -0.15108533357907117 1 3111.0 -0.15108533357907117 1
gene  1 53 52 -0.7343598810619859 1 3112.0 -0.7343598810619859 1
gene  1 56 52 -0.9718824630330428 1 3115.0 -0.9718824630330428 1
gene  1 57 52 -0.19542243651669 1 3116.0 -0.19542243651669 1
gene  1 58 52 0.3280239952210967 1 3117.0 0.3280239952210967 1
gene  1 2 53 0.5155860032136965 0 3121.0 0.5155860032136965 1
gene  1 3 53 0.4748681404400372 0 3122.0 0.4748681404400372 1
gene  1 4 53 0.9510555809632952 0 3123.0 0.9510555809632952 1
gene  1 6 53 -0.2739049005571407 0 3125.0 -0.2739049005571407 1
gene  1 10 53 -0.2209256553553377 0 3129.0 -0.2209256553553377 1
gene  1 11 53 0.7436299027405266 0 3130.0 0.7436299027405266 1
gene  1 12 53 -0.2359153730562915 0 3131.0 -0.2359153730562915 1
gene  1 13 53 0.483573266488343 0 3132.0 0.483573266488343 1
gene  1 15 53 0.17243460865946159 0 3134.0 0.17243460865946159 1
gene  1 16 53 0.18977494086586844 0 3135.0 0.18977494086586844 1
gene  1 17 53 -0.5937228716730907 0 3136.0 -0.5937228716730907 1
gene  1 19 53 0.29780636062428967 0 3138.0 0.29780636062428967 1
gene  1 53 53 -0.8120477323828019 1 3172.0 -0.8120477323828019 1
gene  1 57 53 -0.012572854200256334 1 3176.0 -0.012572854200256334 1
gene  1 60 53 0.8204711930961699 1 3179.0 0.8204711930961699 1
gene  1 3 54 -0.10018916543400624 0 3182.0 -0.10018916543400624 1
gene  1 5 54 0.6819202252724357 0 3184.0 0.6819202252724357 1
gene  1 9 54 -0.07125855675756398 0 3188.0 -0.07125855675756398 1
gene  1 11 54 -0.9050130268879523 0 3190.0 -0.9050130268879523 1
gene  1 12 54 -0.4540580740851513 0 3191.0 -0.4540580740851513 1
gene  1 13 54 0.5124470036298967 0 3192.0 0.5124470036298967 1
gene  1 14 54 -0.2523300334114469 0 3193.0 -0.2523300334114469 1
gene  1 15 54 -0.6572166124115547 0 3194.0 -0.6572166124115547 1
gene  1 16 54 0.058689071859895026 0 3195.0 0.058689071859895026 1
gene  1 17 54 -0.4706017546068654 0 3196.0 -0.4706017546068654 1
gene  1 51 54 0.42516195220636366 0 3230.0 0.42516195220636366 1
gene  1 53 54 -0.9633036070359638 0 3232.0 -0.9633036070359638 1
gene  1 54 54 0.13857633935374114 1 3233.0 0.13857633935374114 1
gene  1 55 54 -0.8345590671446235 1 3234.0 -0.8345590671446235 1
gene  1 57 54 0.8193867362771927 1 3236.0 0.8193867362771927 1
gene  1 3 55 0.9037942368278298 0 3242.0 0.9037942368278298 1
gene  1 9 55 -0.5190395917701555 0 3248.0 -0.5190395917701555 1
gene  1 10 55 -0.7664502976687326 0 3249.0 -0.7664502976687326 1
gene  1 14 55 0.4395580949806729 0 3253.0 0.4395580949806729 1
gene  1 15 55 -0.7923334264697901 0 3254.0 -0.7923334264697901 1
gene  1 16 55 0.3622732502737749 0 3255.0 0.3622732502737749 1
gene  1 18 55 0.4467222154937073 0 3257.0 0.4467222154937073 1
gene  1 51 55 -0.7192998945538651 0 3290.0 -0.7192998945538651 1
gene  1 53 55 -0.5914114067023036 0 3292.0 -0.5914114067023036 1
gene  1 55 55 -0.0014404729488375345 1 3294.0 -0.0014404729488375345 1
gene  1 56 55 -0.2759528773712392 1 3295.0 -0.2759528773712392 1
gene  1 57 55 0.38053039764101626 1 3296.0 0.38053039764101626 1
gene  1 3 56 0.4783482957377285 0 3302.0 0.4783482957377285 1
gene  1 4 56 0.912026515708443 0 3303.0 0.912026515708443 1
gene  1 6 56 0.7300502012404665 0 3305.0 0.7300502012404665 1
gene  1 8 56 0.634878292194923 0 3307.0 0.634878292194923 1
gene  1 9 56 0.46348678281005995 0 3308.0 0.46348678281005995 1
gene  1 11 56 -0.9792843110385842 0 3310.0 -0.9792843110385842 1
gene  1 12 56 -0.5312995091274026 0 3311.0 -0.5312995091274026 1
gene  1 13 56 0.7848985481804267 0 3312.0 0.7848985481804267 1
gene  1 14 56 -0.5908058050231745 0 3313.0 -0.5908058050231745 1
gene  1 15 56 -0.47248448970332324 0 3314.0 -0.47248448970332324 1
gene  1 16 56 -0.2514053644033779 0 3315.0 -0.2514053644033779 1
gene  1 18 56 -0.6523429157038088 0 3317.0 -0.6523429157038088 1
gene  1 51 56 -0.11448396098781077 0 3350.0 -0.11448396098781077 1
gene  1 52 56 0.6194601356128477 0 3351.0 0.6194601356128477 1
gene  1 53 56 -0.14602574242273925 0 3352.0 -0.14602574242273925 1
gene  1 54 56 -0.38911710377388764 0 3353.0 -0.38911710377388764 1
gene  1 57 56 -0.17553007461702286 1 3356.0 -0.17553007461702286 1
gene  1 58 56 -0.22161577968242618 1 3357.0 -0.22161577968242618 1
gene  1 59 56 -0.7077396744017324 1 3358.0 -0.7077396744017324 1
gene  1 1 57 -0.2826046295100304 0 3360.0 -0.2826046295100304 1
gene  1 2 57 -0.47956084520921616 0 3361.0 -0.47956084520921616 1
gene  1 8 57 -0.17753825833395898 0 3367.0 -0.17753825833395898 1
gene  1 11 57 0.06221078289240067 0 3370.0 0.06221078289240067 1
gene  1 12 57 0.4290818416497162 0 3371.0 0.4290818416497162 1
gene  1 13 57 0.6761203875110271 0 3372.0 0.6761203875110271 1
gene  1 18 57 -0.14435746037687658 0 3377.0 -0.14435746037687658 1
gene  1 51 57 0.28867252112302144 0 3410.0 0.28867252112302144 1
gene  1 53 57 0.2546793051599643 0 3412.0 0.2546793051599643 1
gene  1 57 57 -0.9844524775071428 1 3416.0 -0.9844524775071428 1
gene  1 58 57 -0.39619500388780604 1 3417.0 -0.39619500388780604 1
gene  1 60 57 -0.060806481773975296 1 3419.0 -0.060806481773975296 1
gene  1 2 58 -0.0598366729118357 0 3421.0 -0.0598366729118357 1
gene  1 4 58 -0.8200826605929156 0 3423.0 -0.8200826605929156 1
gene  1 5 58 -0.508911432188406 0 3424.0 -0.508911432188406 1
gene  1 6 58 0.6395256247290276 0 3425.0 0.6395256247290276 1
gene  1 9 58 0.1568939528507869 0 3428.0 0.1568939528507869 1
gene  1 14 58 -0.017544293183196613 0 3433.0 -0.017544293183196613 1
gene  1 16 58 0.06480531428557779 0 3435.0 0.06480531428557779 1
gene  1 19 58 0.33890012263052716 0 3438.0 0.33890012263052716 1
gene  1 54 58 -0.977182285972602 0 3473.0 -0.977182285972602 1
gene  1 56 58 0.7805659450854002 0 3475.0 0.7805659450854002 1
gene  1 57 58 0.6191839452871709 0 3476.0 0.6191839452871709 1
gene  1 3 59 0.6861373259621234 0 3482.0 0.6861373259621234 1
gene  1 4 59 0.31891929387548557 0 3483.0 0.31891929387548557 1
gene  1 6 59 0.8323813724771051 0 3485.0 0.8323813724771051 1
gene  1 7 59 -0.6764523393061355 0 3486.0 -0.6764523393061355 1
gene  1 11 59 -0.8336898567120292 0 3490.0 -0.8336898567120292 1
gene  1 12 59 0.8749443907293697 0 3491.0 0.8749443907293697 1
gene  1 14 59 -0.7927508669577058 0 3493.0 -0.7927508669577058 1
gene  1 17 59 0.09455824339476582 0 3496.0 0.09455824339476582 1
gene  1 19 59 0.505629382212039 0 3498.0 0.505629382212039 1
gene  1 51 59 0.3637976425283165 0 3530.0 0.3637976425283165 1
gene  1 52 59 -0.5288987897323837 0 3531.0 -0.5288987897323837 1
gene  1 54 59 -0.8656730200868825 0 3533.0 -0.8656730200868825 1
gene  1 57 59 -0.19267832674106644 0 3536.0 -0.19267832674106644 1
gene  1 58 59 0.1421686997629179 0 3537.0 0.1421686997629179 1
gene  1 60 59 -0.8658505759513523 1 3539.0 -0.8658505759513523 1
gene  1 4 60 -0.5346361242224765 0 3543.0 -0.5346361242224765 1
gene  1 6 60 -0.19390200107230615 0 3545.0 -0.19390200107230615 1
gene  1 12 60 -0.6140176411645482 0 3551.0 -0.6140176411645482 1
gene  1 13 60 -0.39544700876479855 0 3552.0 -0.39544700876479855 1
gene  1 15 60 -0.026078888877246853 0 3554.0 -0.026078888877246853 1
gene  1 51 60 0.8530669229275869 0 3590.0 0.8530669229275869 1
gene  1 52 60 0.19376602071676974 0 3591.0 0.19376602071676974 1
gene  1 54 60 0.2873489471247095 0 3593.0 0.2873489471247095 1
gene  1 55 60 -0.5017789403638842 0 3594.0 -0.5017789403638842 1
gene  1 57 60 -0.29098337785747175 0 3596.0 -0.29098337785747175 1
gene  1 59 60 -0.009320161782047642 0 3598.0 -0.009320161782047642 1
genomeend 1
