genomestart  0
trait 1 0.0 0.0 0.0 0.0 0.0 0.0 0.0 0.0 
node 1 1 1 1
node 2 1 1 1
node 3 1 1 1
node 4 1 1 1
node 5 1 1 1
node 6 1 1 1
node 7 1 1 1
node 8 1 1 1
node 9 1 1 1
node 10 1 1 3
node 11 1 0 0
node 12 1 0 0
node 13 1 0 0
node 14 1 0 0
node 15 1 0 0
node 16 1 0 0
node 17 1 0 0
node 18 1 0 0
node 19 1 0 0
node 20 1 0 0
node 21 1 0 0
node 22 1 0 0
node 23 1 0 0
node 24 1 0 0
node 25 1 0 0
node 26 1 0 0
node 27 1 0 0
node 28 1 0 0
node 29 1 0 0
node 51 1 0 2
node 52 1 0 2
node 53 1 0 2
node 54 1 0 2
node 55 1 0 2
node 56 1 0 2
node 57 1 0 2
node 58 1 0 2
node 59 1 0 2
node 60 1 0 2
gene  1 2 11 -0.05835400961408199 0 601.0 -0.05835400961408199 1
gene  1 3 11 0.6846504351218631 0 602.0 0.6846504351218631 1
gene  1 4 11 0.640346810190413 0 603.0 0.640346810190413 1
gene  1 5 11 0.4087487072397836 0 604.0 0.4087487072397836 1
gene  1 6 11 0.5946388145780261 0 605.0 0.5946388145780261 1
gene  1 7 11 -0.41918981675702893 0 606.0 -0.41918981675702893 1
gene  1 9 11 0.46490466781514195 0 608.0 0.46490466781514195 1
gene  1 10 11 0.025978784387498455 0 609.0 0.025978784387498455 1
gene  1 11 11 0.37050177236406057 1 610.0 0.37050177236406057 1
gene  1 13 11 -0.5698109362817889 1 612.0 -0.5698109362817889 1
gene  1 14 11 -0.37729171297882824 1 613.0 -0.37729171297882824 1
gene  1 17 11 0.4364000189891898 1 616.0 0.4364000189891898 1
gene  1 18 11 0.5567229498081987 1 617.0 0.5567229498081987 1
gene  1 20 11 -0.07667125897761673 1 619.0 -0.07667125897761673 1
gene  1 22 11 0.42385184539747167 1 621.0 0.42385184539747167 1
gene  1 23 11 0.7088700519246066 1 622.0 0.7088700519246066 1
gene  1 24 11 0.6120197835958072 1 623.0 0.6120197835958072 1
gene  1 25 11 0.44135637699235164 1 624.0 0.44135637699235164 1
gene  1 27 11 -0.8001612179084328 1 626.0 -0.8001612179084328 1
gene  1 28 11 0.30774685458888973 1 627.0 0.30774685458888973 1
gene  1 52 11 -0.5706036884544311 1 651.0 -0.5706036884544311 1
gene  1 55 11 -0.4048487499886777 1 654.0 -0.4048487499886777 1
gene  1 59 11 0.41672960381348456 1 658.0 0.41672960381348456 1
gene  1 4 12 -0.461675566152144 0 663.0 -0.461675566152144 1
gene  1 7 12 -0.16881690320785114 0 666.0 -0.16881690320785114 1
gene  1 8 12 -0.31013328914187177 0 667.0 -0.31013328914187177 1
gene  1 9 12 0.4496884284636792 0 668.0 0.4496884284636792 1
gene  1 11 12 0.7939040595469743 0 670.0 0.7939040595469743 1
gene  1 12 12 -0.6295039574090227 1 671.0 -0.6295039574090227 1
gene  1 14 12 -0.06870120486438025 1 673.0 -0.06870120486438025 1
gene  1 16 12 -0.4813384574875347 1 675.0 -0.4813384574875347 1
gene  1 17 12 -0.995604364804195 1 676.0 -0.995604364804195 1
gene  1 18 12 -0.5218656228552714 1 677.0 -0.5218656228552714 1
gene  1 19 12 -0.7464549555687816 1 678.0 -0.7464549555687816 1
gene  1 20 12 0.743330977343884 1 679.0 0.743330977343884 1
gene  1 21 12 0.0328018462151316 1 680.0 0.0328018462151316 1
gene  1 22 12 -0.048294081950226 1 681.0 -0.048294081950226 1
gene  1 24 12 0.14095080466762744 1 683.0 0.14095080466762744 1
gene  1 25 12 -0.41556817581250716 1 684.0 -0.41556817581250716 1
gene  1 27 12 0.6402900746939542 1 686.0 0.6402900746939542 1
gene  1 28 12 0.19156951086966212 1 687.0 0.19156951086966212 1
gene  1 29 12 0.5778000565416969 1 688.0 0.5778000565416969 1
gene  1 51 12 0.21229378107278918 1 710.0 0.21229378107278918 1
gene  1 52 12 0.9975296159614861 1 711.0 0.9975296159614861 1
gene  1 55 12 0.24616625759907917 1 714.0 0.24616625759907917 1
gene  1 56 12 -0.2330182429840153 1 715.0 -0.2330182429840153 1
gene  1 60 12 -0.5808424494983428 1 719.0 -0.5808424494983428 1
gene  1 3 13 0.4365650831600104 0 722.0 0.4365650831600104 1
gene  1 5 13 0.5134914874448494 0 724.0 0.5134914874448494 1
gene  1 6 13 0.048170652004764336 0 725.0 0.048170652004764336 1
gene  1 7 13 0.6475416287317262 0 726.0 0.6475416287317262 1
gene  1 8 13 0.5943921370368651 0 727.0 0.5943921370368651 1
gene  1 12 13 -0.06677024399147702 0 731.0 -0.06677024399147702 1
gene  1 14 13 -0.18869624384824824 1 733.0 -0.18869624384824824 1
gene  1 16 13 0.6406003298197737 1 735.0 0.6406003298197737 1
gene  1 18 13 -0.4952840161612434 1 737.0 -0.4952840161612434 1
gene  1 20 13 0.987966223295245 1 739.0 0.987966223295245 1
gene  1 23 13 -0.6795575242628918 1 742.0 -0.6795575242628918 1
gene  1 24 13 -0.3946394715835567 1 743.0 -0.3946394715835567 1
gene  1 25 13 0.8950416586117679 1 744.0 0.8950416586117679 1
gene  1 51 13 -0.894446765909987 1 770.0 -0.894446765909987 1
gene  1 54 13 -0.49749348537245797 1 773.0 -0.49749348537245797 1
gene  1 55 13 0.8608589953916221 1 774.0 0.8608589953916221 1
gene  1 56 13 0.7110333477104637 1 775.0 0.7110333477104637 1
gene  1 58 13 -0.7517836496940683 1 777.0 -0.7517836496940683 1
gene  1 59 13 -0.9011564931525933 1 778.0 -0.9011564931525933 1
gene  1 60 13 -0.3976092286036724 1 779.0 -0.3976092286036724 1
gene  1 1 14 0.2306829481596686 0 780.0 0.2306829481596686 1
gene  1 3 14 -0.30273428164987914 0 782.0 -0.30273428164987914 1
gene  1 6 14 -0.019170956688855267 0 785.0 -0.019170956688855267 1
gene  1 7 14 0.25712892094835826 0 786.0 0.25712892094835826 1
gene  1 9 14 -0.8775714786641068 0 788.0 -0.8775714786641068 1
gene  1 10 14 0.11954522688353275 0 789.0 0.11954522688353275 1
gene  1 11 14 -0.8059238167275248 0 790.0 -0.8059238167275248 1
gene  1 14 14 -0.7960943459327375 1 793.0 -0.7960943459327375 1
gene  1 16 14 -0.818731144543427 1 795.0 -0.818731144543427 1
gene  1 18 14 0.5426135399509111 1 797.0 0.5426135399509111 1
gene  1 21 14 -0.014313393225420468 1 800.0 -0.014313393225420468 1
gene  1 23 14 -0.8729295709785032 1 802.0 -0.8729295709785032 1
gene  1 25 14 -0.4286016554247989 1 804.0 -0.4286016554247989 1
gene  1 26 14 -0.13545803594663275 1 805.0 -0.13545803594663275 1
gene  1 29 14 0.15675503630397603 1 808.0 0.15675503630397603 1
gene  1 51 14 -0.9279742210778368 1 830.0 -0.9279742210778368 1
gene  1 52 14 -0.2534343502964991 1 831.0 -0.2534343502964991 1
gene  1 54 14 -0.842993856101178 1 833.0 -0.842993856101178 1
gene  1 55 14 0.8478486294535102 1 834.0 0.8478486294535102 1
gene  1 56 14 -0.8198798874524522 1 835.0 -0.8198798874524522 1
gene  1 58 14 0.4229878462027542 1 837.0 0.4229878462027542 1
gene  1 60 14 0.6632462758226821 1 839.0 0.6632462758226821 1
gene  1 1 15 0.9960164265121146 0 840.0 0.9960164265121146 1
gene  1 3 15 -0.48117211578493824 0 842.0 -0.48117211578493824 1
gene  1 6 15 0.5718566960860039 0 845.0 0.5718566960860039 1
gene  1 7 15 -0.2547334924712842 0 846.0 -0.2547334924712842 1
gene  1 9 15 -0.07324786651050774 0 848.0 -0.07324786651050774 1
gene  1 11 15 -0.39781426247609586 0 850.0 -0.39781426247609586 1
gene  1 13 15 -0.007781481946282254 0 852.0 -0.007781481946282254 1
gene  1 16 15 0.7225238572189653 1 855.0 0.7225238572189653 1
gene  1 21 15 -0.9123533718241695 1 860.0 -0.9123533718241695 1
gene  1 22 15 -0.27375269251396916 1 861.0 -0.27375269251396916 1
gene  1 24 15 -0.7052498007357751 1 863.0 -0.7052498007357751 1
gene  1 25 15 0.6220261787415657 1 864.0 0.6220261787415657 1
gene  1 26 15 0.9147106599623887 1 865.0 0.9147106599623887 1
gene  1 28 15 0.6456019348452081 1 867.0 0.6456019348452081 1
gene  1 29 15 -0.4254347710888544 1 868.0 -0.4254347710888544 1
gene  1 54 15 0.5543852353990283 1 893.0 0.5543852353990283 1
gene  1 55 15 0.1876459132123317 1 894.0 0.1876459132123317 1
gene  1 56 15 0.7205055103105388 1 895.0 0.7205055103105388 1
gene  1 60 15 0.9432233268461614 1 899.0 0.9432233268461614 1
gene  1 2 16 0.2112746109830117 0 901.0 0.2112746109830117 1
gene  1 3 16 -0.4429579085758817 0 902.0 -0.4429579085758817 1
gene  1 4 16 0.04932327606837916 0 903.0 0.04932327606837916 1
gene  1 5 16 0.6833342310795 0 904.0 0.6833342310795 1
gene  1 7 16 0.2671365152779903 0 906.0 0.2671365152779903 1
gene  1 8 16 0.6846763357667036 0 907.0 0.6846763357667036 1
gene  1 9 16 -0.46706337064889514 0 908.0 -0.46706337064889514 1
gene  1 10 16 0.5742587098746897 0 909.0 0.5742587098746897 1
gene  1 13 16 0.5676106653170375 0 912.0 0.5676106653170375 1
gene  1 15 16 0.9873275167708995 0 914.0 0.9873275167708995 1
gene  1 16 16 0.8541842299805029 1 915.0 0.8541842299805029 1
gene  1 22 16 0.27429547471250604 1 921.0 0.27429547471250604 1
gene  1 23 16 0.8750023488050007 1 922.0 0.8750023488050007 1
gene  1 24 16 -0.44251942916641296 1 923.0 -0.44251942916641296 1
gene  1 25 16 -0.9392058405484955 1 924.0 -0.9392058405484955 1
gene  1 51 16 0.12099222509031671 1 950.0 0.12099222509031671 1
gene  1 54 16 -0.30301143854056567 1 953.0 -0.30301143854056567 1
gene  1 57 16 0.5426865539971427 1 956.0 0.5426865539971427 1
gene  1 58 16 0.49002554671870757 1 957.0 0.49002554671870757 1
gene  1 59 16 -0.8259190081966455 1 958.0 -0.8259190081966455 1
gene  1 2 17 0.0983082677216951 0 961.0 0.0983082677216951 1
gene  1 5 17 0.5218613087173014 0 964.0 0.5218613087173014 1
gene  1 7 17 0.6653492098892254 0 966.0 0.6653492098892254 1
gene  1 10 17 -0.5623268852812451 0 969.0 -0.5623268852812451 1
gene  1 11 17 0.7474992801982457 0 970.0 0.7474992801982457 1
gene  1 12 17 -0.11424518847839238 0 971.0 -0.11424518847839238 1
gene  1 13 17 -0.027510802420685154 0 972.0 -0.027510802420685154 1
gene  1 14 17 -0.26471342833753064 0 973.0 -0.26471342833753064 1
gene  1 16 17 -0.4430526756392765 0 975.0 -0.4430526756392765 1
gene  1 17 17 0.686397718369449 1 976.0 0.686397718369449 1
gene  1 18 17 0.1843265293210944 1 977.0 0.1843265293210944 1
gene  1 19 17 -0.6268153102324046 1 978.0 -0.6268153102324046 1
gene  1 20 17 0.7162024845956971 1 979.0 0.7162024845956971 1
gene  1 22 17 0.09667685593752051 1 981.0 0.09667685593752051 1
gene  1 23 17 0.3330536446075427 1 982.0 0.3330536446075427 1
gene  1 24 17 0.007651090672002203 1 983.0 0.007651090672002203 1
gene  1 25 17 -0.82094570561542 1 984.0 -0.82094570561542 1
gene  1 27 17 -0.019158532183860988 1 986.0 -0.019158532183860988 1
gene  1 28 17 0.14841242306485414 1 987.0 0.14841242306485414 1
gene  1 52 17 -0.6528884516540535 1 1011.0 -0.6528884516540535 1
gene  1 58 17 0.060093338437766985 1 1017.0 0.060093338437766985 1
gene  1 59 17 0.9060205809088304 1 1018.0 0.9060205809088304 1
gene  1 1 18 0.6852706372597278 0 1020.0 0.6852706372597278 1
gene  1 3 18 -0.8393289743503484 0 1022.0 -0.8393289743503484 1
gene  1 4 18 0.3079076755583836 0 1023.0 0.3079076755583836 1
gene  1 5 18 -0.5540497750777916 0 1024.0 -0.5540497750777916 1
gene  1 6 18 -0.8731491931953324 0 1025.0 -0.8731491931953324 1
gene  1 9 18 -0.6413880881526525 0 1028.0 -0.6413880881526525 1
gene  1 11 18 0.17700834287691258 0 1030.0 0.17700834287691258 1
gene  1 12 18 -0.1736606436147865 0 1031.0 -0.1736606436147865 1
gene  1 15 18 0.05422373425947935 0 1034.0 0.05422373425947935 1
gene  1 16 18 0.49716474866169347 0 1035.0 0.49716474866169347 1
gene  1 17 18 -0.5696824900145132 0 1036.0 -0.5696824900145132 1
gene  1 19 18 -0.45310078816768495 1 1038.0 -0.45310078816768495 1
gene  1 20 18 -0.07088176406740765 1 1039.0 -0.07088176406740765 1
gene  1 21 18 0.9744932809079119 1 1040.0 0.9744932809079119 1
gene  1 22 18 -0.2620951495418078 1 1041.0 -0.2620951495418078 1
gene  1 25 18 -0.8712497236311014 1 1044.0 -0.8712497236311014 1
gene  1 26 18 -0.026942000261660826 1 1045.0 -0.026942000261660826 1
gene  1 51 18 0.5700668576887424 1 1070.0 0.5700668576887424 1
gene  1 55 18 0.007636452328254939 1 1074.0 0.007636452328254939 1
gene  1 56 18 -0.17884835395032306 1 1075.0 -0.17884835395032306 1
gene  1 1 19 -0.8340116415712818 0 1080.0 -0.8340116415712818 1
gene  1 3 19 -0.8425148563391848 0 1082.0 -0.8425148563391848 1
gene  1 4 19 -0.7731193416726352 0 1083.0 -0.7731193416726352 1
gene  1 5 19 0.7637619728098494 0 1084.0 0.7637619728098494 1
gene  1 6 19 -0.4886891365326639 0 1085.0 -0.4886891365326639 1
gene  1 7 19 -0.11777411797455162 0 1086.0 -0.11777411797455162 1
gene  1 8 19 0.795976408376878 0 1087.0 0.795976408376878 1
gene  1 9 19 -0.49898585914275984 0 1088.0 -0.49898585914275984 1
gene  1 10 19 0.106830377784778 0 1089.0 0.106830377784778 1
gene  1 11 19 -0.7061632848850347 0 1090.0 -0.7061632848850347 1
gene  1 12 19 0.3761037399798447 0 1091.0 0.3761037399798447 1
gene  1 17 19 0.5849322188782523 0 1096.0 0.5849322188782523 1
gene  1 19 19 0.6391700167366051 1 1098.0 0.6391700167366051 1
gene  1 20 19 0.43856899690777784 1 1099.0 0.43856899690777784 1
gene  1 21 19 -0.693535594482043 1 1100.0 -0.693535594482043 1
gene  1 22 19 -0.01685039156596213 1 1101.0 -0.01685039156596213 1
gene  1 23 19 -0.9013956268834773 1 1102.0 -0.9013956268834773 1
gene  1 24 19 0.12677977712775557 1 1103.0 0.12677977712775557 1
gene  1 26 19 -0.5205613768083297 1 1105.0 -0.5205613768083297 1
gene  1 27 19 -0.2951586596354817 1 1106.0 -0.2951586596354817 1
gene  1 29 19 -0.7363461665782862 1 1108.0 -0.7363461665782862 1
gene  1 52 19 0.6523262030342744 1 1131.0 0.6523262030342744 1
gene  1 53 19 0.8189392195477923 1 1132.0 0.8189392195477923 1
gene  1 57 19 -0.24651587484859538 1 1136.0 -0.24651587484859538 1
gene  1 59 19 -0.3732635954506106 1 1138.0 -0.3732635954506106 1
gene  1 1 20 0.020651746480983002 0 1140.0 0.020651746480983002 1
gene  1 2 20 -0.7711230607159623 0 1141.0 -0.7711230607159623 1
gene  1 3 20 -0.716515891190866 0 1142.0 -0.716515891190866 1
gene  1 5 20 -0.11775572463931794 0 1144.0 -0.11775572463931794 1
gene  1 7 20 0.2238659488969159 0 1146.0 0.2238659488969159 1
gene  1 9 20 -0.4773763289983741 0 1148.0 -0.4773763289983741 1
gene  1 10 20 0.04520620916698592 0 1149.0 0.04520620916698592 1
gene  1 13 20 -0.5769940462718041 0 1152.0 -0.5769940462718041 1
gene  1 15 20 0.8359177284703947 0 1154.0 0.8359177284703947 1
gene  1 19 20 0.0936487303447675 0 1158.0 0.0936487303447675 1
gene  1 21 20 0.7428460216658127 1 1160.0 0.7428460216658127 1
gene  1 23 20 -0.5502114908472411 1 1162.0 -0.5502114908472411 1
gene  1 25 20 -0.2283393316991058 1 1164.0 -0.2283393316991058 1
gene  1 26 20 -0.6203682067594969 1 1165.0 -0.6203682067594969 1
gene  1 29 20 0.47843711958561475 1 1168.0 0.47843711958561475 1
gene  1 51 20 -0.26919492476465323 1 1190.0 -0.26919492476465323 1
gene  1 52 20 -0.31169907893807824 1 1191.0 -0.31169907893807824 1
gene  1 53 20 0.4589515666080992 1 1192.0 0.4589515666080992 1
gene  1 55 20 -0.19496555513160585 1 1194.0 -0.19496555513160585 1
gene  1 60 20 0.8034759883910212 1 1199.0 0.8034759883910212 1
gene  1 5 21 -0.0558808826155317 0 1204.0 -0.0558808826155317 1
gene  1 6 21 0.6068376932383485 0 1205.0 0.6068376932383485 1
gene  1 7 21 0.9247409231681913 0 1206.0 0.9247409231681913 1
gene  1 8 21 0.518475600071284 0 1207.0 0.518475600071284 1
gene  1 9 21 -0.35897853246465494 0 1208.0 -0.35897853246465494 1
gene  1 12 21 0.3860525625406138 0 1211.0 0.3860525625406138 1
gene  1 16 21 0.23184637310722978 0 1215.0 0.23184637310722978 1
gene  1 18 21 -0.5319892515685433 0 1217.0 -0.5319892515685433 1
gene  1 20 21 -0.3670210579828277 0 1219.0 -0.3670210579828277 1
gene  1 22 21 0.61444815319709 1 1221.0 0.61444815319709 1
gene  1 25 21 -0.42702404134015903 1 1224.0 -0.42702404134015903 1
gene  1 27 21 0.11702923292322664 1 1226.0 0.11702923292322664 1
gene  1 28 21 -0.2013790177319854 1 1227.0 -0.2013790177319854 1
gene  1 51 21 0.39942192413625366 1 1250.0 0.39942192413625366 1
gene  1 53 21 -0.03819916649214938 1 1252.0 -0.03819916649214938 1
gene  1 55 21 -0.08095265037161359 1 1254.0 -0.08095265037161359 1
gene  1 56 21 0.44335982133467877 1 1255.0 0.44335982133467877 1
gene  1 57 21 -0.3245944192037289 1 1256.0 -0.3245944192037289 1
gene  1 59 21 0.9665518811274082 1 1258.0 0.9665518811274082 1
gene  1 60 21 -0.8676661082883358 1 1259.0 -0.8676661082883358 1
gene  1 1 22 0.23137841892017985 0 1260.0 0.23137841892017985 1
gene  1 3 22 0.820953962062901 0 1262.0 0.820953962062901 1
gene  1 5 22 -0.28720807773635915 0 1264.0 -0.28720807773635915 1
gene  1 7 22 0.7090467621923385 0 1266.0 0.7090467621923385 1
gene  1 9 22 0.6297591995217461 0 1268.0 0.6297591995217461 1
gene  1 11 22 0.37259242860522923 0 1270.0 0.37259242860522923 1
gene  1 12 22 -0.47325129719841763 0 1271.0 -0.47325129719841763 1
gene  1 13 22 0.7429717816976567 0 1272.0 0.7429717816976567 1
gene  1 18 22 -0.073628880673412 0 1277.0 -0.073628880673412 1
gene  1 21 22 -0.8574594288320535 0 1280.0 -0.8574594288320535 1
gene  1 25 22 0.6242356841214713 1 1284.0 0.6242356841214713 1
gene  1 28 22 0.9397897179871723 1 1287.0 0.9397897179871723 1
gene  1 29 22 -0.3348219613017278 1 1288.0 -0.3348219613017278 1
gene  1 57 22 -0.5165284216191364 1 1316.0 -0.5165284216191364 1
gene  1 58 22 -0.9924662426213879 1 1317.0 -0.9924662426213879 1
gene  1 3 23 0.679864959799484 0 1322.0 0.679864959799484 1
gene  1 4 23 0.10193252535995545 0 1323.0 0.10193252535995545 1
gene  1 5 23 0.5782501749333439 0 1324.0 0.5782501749333439 1
gene  1 8 23 -0.1331378478467955 0 1327.0 -0.1331378478467955 1
gene  1 12 23 -0.31701784923654164 0 1331.0 -0.31701784923654164 1
gene  1 13 23 -0.04567981956694245 0 1332.0 -0.04567981956694245 1
gene  1 15 23 -0.533892057949368 0 1334.0 -0.533892057949368 1
gene  1 20 23 -0.5034974646176372 0 1339.0 -0.5034974646176372 1
gene  1 21 23 0.38318195623773377 0 1340.0 0.38318195623773377 1
gene  1 22 23 -0.13005750576983732 0 1341.0 -0.13005750576983732 1
gene  1 24 23 0.1049283135538368 1 1343.0 0.1049283135538368 1
gene  1 25 23 -0.4313978407414719 1 1344.0 -0.4313978407414719 1
gene  1 27 23 0.7471973432394549 1 1346.0 0.7471973432394549 1
gene  1 28 23 0.021123729458176865 1 1347.0 0.021123729458176865 1
gene  1 29 23 0.5045326509559205 1 1348.0 0.5045326509559205 1
gene  1 51 23 -0.4292019490278697 1 1370.0 -0.4292019490278697 1
gene  1 53 23 0.9660157836813855 1 1372.0 0.9660157836813855 1
gene  1 54 23 -0.18896192565451875 1 1373.0 -0.18896192565451875 1
gene  1 55 23 -0.1567828003365137 1 1374.0 -0.1567828003365137 1
gene  1 56 23 0.6936102195901254 1 1375.0 0.6936102195901254 1
gene  1 57 23 -0.8622523534572989 1 1376.0 -0.8622523534572989 1
gene  1 59 23 0.7538657881924136 1 1378.0 0.7538657881924136 1
gene  1 2 24 -0.38164134884732015 0 1381.0 -0.38164134884732015 1
gene  1 3 24 -0.8886243349703101 0 1382.0 -0.8886243349703101 1
gene  1 5 24 -0.5523902200781726 0 1384.0 -0.5523902200781726 1
gene  1 8 24 -0.21412509106508593 0 1387.0 -0.21412509106508593 1
gene  1 10 24 0.010233985087262809 0 1389.0 0.010233985087262809 1
gene  1 11 24 -0.5249141424283278 0 1390.0 -0.5249141424283278 1
gene  1 12 24 -0.43132141505404986 0 1391.0 -0.43132141505404986 1
gene  1 13 24 0.9382302912697107 0 1392.0 0.9382302912697107 1
gene  1 14 24 -0.5893758229209142 0 1393.0 -0.5893758229209142 1
gene  1 15 24 0.2260761048003015 0 1394.0 0.2260761048003015 1
gene  1 16 24 -0.10944954173666388 0 1395.0 -0.10944954173666388 1
gene  1 17 24 -0.09656938356725475 0 1396.0 -0.09656938356725475 1
gene  1 22 24 0.9395566855365355 0 1401.0 0.9395566855365355 1
gene  1 23 24 -0.19679767688607497 0 1402.0 -0.19679767688607497 1
gene  1 25 24 0.7883304560003741 1 1404.0 0.7883304560003741 1
gene  1 28 24 -0.5438297548501074 1 1407.0 -0.5438297548501074 1
gene  1 29 24 0.8164090605435887 1 1408.0 0.8164090605435887 1
gene  1 52 24 0.3002754114791121 1 1431.0 0.3002754114791121 1
gene  1 53 24 -0.7616974434989402 1 1432.0 -0.7616974434989402 1
gene  1 54 24 0.8997880021092741 1 1433.0 0.8997880021092741 1
gene  1 1 25 0.30865083960217965 0 1440.0 0.30865083960217965 1
gene  1 2 25 0.31726315356453294 0 1441.0 0.31726315356453294 1
gene  1 3 25 0.524497528744465 0 1442.0 0.524497528744465 1
gene  1 4 25 0.6787884618714515 0 1443.0 0.6787884618714515 1
gene  1 6 25 -0.19909692708876991 0 1445.0 -0.19909692708876991 1
gene  1 8 25 -0.43610446872143693 0 1447.0 -0.43610446872143693 1
gene  1 9 25 -0.6689194519993883 0 1448.0 -0.6689194519993883 1
gene  1 10 25 -0.11217698813292953 0 1449.0 -0.11217698813292953 1
gene  1 12 25 -0.6799183899847119 0 1451.0 -0.6799183899847119 1
gene  1 20 25 0.5356654660460358 0 1459.0 0.5356654660460358 1
gene  1 21 25 -0.3208607820379108 0 1460.0 -0.3208607820379108 1
gene  1 23 25 0.22783535322699677 0 1462.0 0.22783535322699677 1
gene  1 25 25 -0.7061236240870272 1 1464.0 -0.7061236240870272 1
gene  1 28 25 0.8292372969902924 1 1467.0 0.8292372969902924 1
gene  1 29 25 0.2222748471447824 1 1468.0 0.2222748471447824 1
gene  1 52 25 0.5907029426402997 1 1491.0 0.5907029426402997 1
gene  1 53 25 0.5963434783789296 1 1492.0 0.5963434783789296 1
gene  1 58 25 0.37960463280916523 1 1497.0 0.37960463280916523 1
gene  1 60 25 -0.7656478175926771 1 1499.0 -0.7656478175926771 1
gene  1 2 26 -0.7710944857183171 0 1501.0 -0.7710944857183171 1
gene  1 3 26 0.7483985253899895 0 1502.0 0.7483985253899895 1
gene  1 4 26 0.550335891457767 0 1503.0 0.550335891457767 1
gene  1 7 26 0.8296459497352658 0 1506.0 0.8296459497352658 1
gene  1 8 26 0.3564200832144294 0 1507.0 0.3564200832144294 1
gene  1 10 26 0.07666271989673956 0 1509.0 0.07666271989673956 1
gene  1 12 26 -0.7870746105377027 0 1511.0 -0.7870746105377027 1
gene  1 13 26 0.3147809549982509 0 1512.0 0.3147809549982509 1
gene  1 14 26 0.028660105456748797 0 1513.0 0.028660105456748797 1
gene  1 16 26 0.8436412996267206 0 1515.0 0.8436412996267206 1
gene  1 18 26 -0.12070800348521893 0 1517.0 -0.12070800348521893 1
gene  1 19 26 0.9216837304065588 0 1518.0 0.9216837304065588 1
gene  1 21 26 0.6260838447020451 0 1520.0 0.6260838447020451 1
gene  1 23 26 -0.34105084767494753 0 1522.0 -0.34105084767494753 1
gene  1 25 26 0.3316405247372817 0 1524.0 0.3316405247372817 1
gene  1 52 26 -0.2110398803100102 1 1551.0 -0.2110398803100102 1
gene  1 53 26 0.03405070499865592 1 1552.0 0.03405070499865592 1
gene  1 54 26 -0.564507005525863 1 1553.0 -0.564507005525863 1
gene  1 56 26 -0.9252652563399757 1 1555.0 -0.9252652563399757 1
gene  1 58 26 -0.014090775345419582 1 1557.0 -0.014090775345419582 1
gene  1 59 26 -0.406490521499981 1 1558.0 -0.406490521499981 1
gene  1 60 26 0.85603643434992 1 1559.0 0.85603643434992 1
gene  1 2 27 -0.5417369817705622 0 1561.0 -0.5417369817705622 1
gene  1 3 27 0.17837929312293954 0 1562.0 0.17837929312293954 1
gene  1 5 27 -0.41639421171957813 0 1564.0 -0.41639421171957813 1
gene  1 6 27 -0.9922660561581376 0 1565.0 -0.9922660561581376 1
gene  1 8 27 0.4913155782051398 0 1567.0 0.4913155782051398 1
gene  1 11 27 0.7095336064493265 0 1570.0 0.7095336064493265 1
gene  1 12 27 0.6393052553822758 0 1571.0 0.6393052553822758 1
gene  1 14 27 -0.4524015041244456 0 1573.0 -0.4524015041244456 1
gene  1 17 27 -0.08725003741985216 0 1576.0 -0.08725003741985216 1
gene  1 19 27 0.05262601368738129 0 1578.0 0.05262601368738129 1
gene  1 20 27 0.5667047384632675 0 1579.0 0.5667047384632675 1
gene  1 24 27 -0.484969090595073 0 1583.0 -0.484969090595073 1
gene  1 25 27 -0.893168886351254 0 1584.0 -0.893168886351254 1
gene  1 26 27 -0.41417871606378687 0 1585.0 -0.41417871606378687 1
gene  1 27 27 0.26402382664917856 1 1586.0 0.26402382664917856 1
gene  1 28 27 0.028607437914516365 1 1587.0 0.028607437914516365 1
gene  1 29 27 -0.947366285507254 1 1588.0 -0.947366285507254 1
gene  1 52 27 -0.198256448118469 1 1611.0 -0.198256448118469 1
gene  1 54 27 0.0778685209194927 1 1613.0 0.0778685209194927 1
gene  1 55 27 -0.7496897094571531 1 1614.0 -0.7496897094571531 1
gene  1 58 27 -0.24273110064060233 1 1617.0 -0.24273110064060233 1
gene  1 60 27 -0.2791973098927548 1 1619.0 -0.2791973098927548 1
gene  1 1 28 -0.6653462842005603 0 1620.0 -0.6653462842005603 1
gene  1 4 28 0.2048291793647501 0 1623.0 0.2048291793647501 1
gene  1 9 28 0.9832423097840334 0 1628.0 0.9832423097840334 1
gene  1 11 28 0.5931819320447188 0 1630.0 0.5931819320447188 1
gene  1 12 28 0.6809648556518486 0 1631.0 0.6809648556518486 1
gene  1 16 28 0.9828530456746631 0 1635.0 0.9828530456746631 1
gene  1 17 28 0.3952058922922693 0 1636.0 0.3952058922922693 1
gene  1 19 28 -0.4566859939994614 0 1638.0 -0.4566859939994614 1
gene  1 21 28 -0.7886231820913829 0 1640.0 -0.7886231820913829 1
gene  1 24 28 -0.23896862792488216 0 1643.0 -0.23896862792488216 1
gene  1 26 28 0.617368424899772 0 1645.0 0.617368424899772 1
gene  1 29 28 0.8394458490002438 1 1648.0 0.8394458490002438 1
gene  1 52 28 -0.9523057567138079 1 1671.0 -0.9523057567138079 1
gene  1 53 28 0.21082146861244178 1 1672.0 0.21082146861244178 1
gene  1 54 28 0.636719557019302 1 1673.0 0.636719557019302 1
gene  1 55 28 0.18230213861306654 1 1674.0 0.18230213861306654 1
gene  1 58 28 0.7431683444368093 1 1677.0 0.7431683444368093 1
gene  1 59 28 -0.5560569719419552 1 1678.0 -0.5560569719419552 1
gene  1 60 28 0.5685706233537117 1 1679.0 0.5685706233537117 1
gene  1 1 29 -0.07746348826239657 0 1680.0 -0.07746348826239657 1
gene  1 6 29 0.33608538423581324 0 1685.0 0.33608538423581324 1
gene  1 8 29 -0.9248234579570318 0 1687.0 -0.9248234579570318 1
gene  1 9 29 0.22712961136914034 0 1688.0 0.22712961136914034 1
gene  1 10 29 0.4635137007541451 0 1689.0 0.4635137007541451 1
gene  1 12 29 -0.9681144949086922 0 1691.0 -0.9681144949086922 1
gene  1 15 29 -0.3762449721748359 0 1694.0 -0.3762449721748359 1
gene  1 16 29 -0.8074153158223645 0 1695.0 -0.8074153158223645 1
gene  1 20 29 -0.8449113858178702 0 1699.0 -0.8449113858178702 1
gene  1 21 29 0.5167886894649094 0 1700.0 0.5167886894649094 1
gene  1 22 29 -0.6599751214200366 0 1701.0 -0.6599751214200366 1
gene  1 23 29 -0.24647256458741795 0 1702.0 -0.24647256458741795 1
gene  1 24 29 0.2627155435180225 0 1703.0 0.2627155435180225 1
gene  1 25 29 0.009121028102245132 0 1704.0 0.009121028102245132 1
gene  1 26 29 -0.15411934764003854 0 1705.0 -0.15411934764003854 1
gene  1 27 29 0.0813515802537299 0 1706.0 0.0813515802537299 1
gene  1 53 29 -0.32860025762952194 1 1732.0 -0.32860025762952194 1
gene  1 54 29 0.8835160068228812 1 1733.0 0.8835160068228812 1
gene  1 56 29 -0.3175582621536476 1 1735.0 -0.3175582621536476 1
gene  1 59 29 0.23745249941451008 1 1738.0 0.23745249941451008 1
gene  1 1 51 0.01856541272706258 0 3000.0 0.01856541272706258 1
gene  1 2 51 0.6466262952226549 0 3001.0 0.6466262952226549 1
gene  1 3 51 0.8633723369423951 0 3002.0 0.8633723369423951 1
gene  1 4 51 -0.5122456676541643 0 3003.0 -0.5122456676541643 1
gene  1 5 51 0.20864148693189732 0 3004.0 0.20864148693189732 1
gene  1 7 51 -0.7551387695955989 0 3006.0 -0.7551387695955989 1
gene  1 10 51 0.7728830314022949 0 3009.0 0.7728830314022949 1
gene  1 11 51 0.6490664448676211 0 3010.0 0.6490664448676211 1
gene  1 12 51 0.14674422659846964 0 3011.0 0.14674422659846964 1
gene  1 13 51 0.5274692509858471 0 3012.0 0.5274692509858471 1
gene  1 15 51 0.5758903433413294 0 3014.0 0.5758903433413294 1
gene  1 16 51 0.8910335075515305 0 3015.0 0.8910335075515305 1
gene  1 18 51 0.38894453654482586 0 3017.0 0.38894453654482586 1
gene  1 21 51 -0.18070839006160822 0 3020.0 -0.18070839006160822 1
gene  1 22 51 0.647976805810763 0 3021.0 0.647976805810763 1
gene  1 28 51 -0.06790845462470763 0 3027.0 -0.06790845462470763 1
gene  1 29 51 0.8029475139973764 0 3028.0 0.8029475139973764 1
gene  1 52 51 -0.5815879670082877 1 3051.0 -0.5815879670082877 1
gene  1 55 51 0.2931173340323383 1 3054.0 0.2931173340323383 1
gene  1 57 51 -0.3850365593142505 1 3056.0 -0.3850365593142505 1
gene  1 59 51 0.3465579872782082 1 3058.0 0.3465579872782082 1
gene  1 60 51 0.4937993525022544 1 3059.0 0.4937993525022544 1
gene  1 5 52 -0.05900558649700027 0 3064.0 -0.05900558649700027 1
gene  1 6 52 0.6738896703428817 0 3065.0 0.6738896703428817 1
gene  1 8 52 0.6762653622736475 0 3067.0 0.6762653622736475 1
gene  1 10 52 -0.35413607453331264 0 3069.0 -0.35413607453331264 1
gene  1 11 52 0.5900868947921543 0 3070.0 0.5900868947921543 1
gene  1 12 52 0.4330572043458272 0 3071.0 0.4330572043458272 1
gene  1 17 52 0.6145949227787961 0 3076.0 0.6145949227787961 1
gene  1 18 52 0.3824742035569314 0 3077.0 0.3824742035569314 1
gene  1 19 52 -0.672747752907692 0 3078.0 -0.672747752907692 1
gene  1 20 52 -0.2760562116945763 0 3079.0 -0.2760562116945763 1
gene  1 22 52 -0.910211025620328 0 3081.0 -0.910211025620328 1
gene  1 23 52 -0.9507401229086303 0 3082.0 -0.9507401229086303 1
gene  1 25 52 -0.3288064459713884 0 3084.0 -0.3288064459713884 1
gene  1 26 52 -0.6316896887806176 0 3085.0 -0.6316896887806176 1
gene  1 27 52 0.03945875502567353 0 3086.0 0.03945875502567353 1
gene  1 28 52 -0.03831694855075474 0 3087.0 -0.03831694855075474 1
gene  1 51 52 0.5246046090771678 0 3110.0 0.5246046090771678 1
gene  1 52 52 -0.6718832508044849 1 3111.0 -0.6718832508044849 1
gene  1 53 52 0.42150869057506035 1 3112.0 0.42150869057506035 1
gene  1 58 52 -0.579754244134032 1 3117.0 -0.579754244134032 1
gene  1 59 52 0.48771610806464394 1 3118.0 0.48771610806464394 1
gene  1 1 53 0.4133534332370664 0 3120.0 0.4133534332370664 1
gene  1 3 53 0.9228127238589976 0 3122.0 0.9228127238589976 1
gene  1 5 53 0.9684882173040625 0 3124.0 0.9684882173040625 1
gene  1 6 53 -0.7625454639207343 0 3125.0 -0.7625454639207343 1
gene  1 7 53 -0.9298676128696048 0 3126.0 -0.9298676128696048 1
gene  1 9 53 -0.9033535948870118 0 3128.0 -0.9033535948870118 1
gene  1 10 53 0.6802510883599777 0 3129.0 0.6802510883599777 1
gene  1 13 53 0.03773343727416556 0 3132.0 0.03773343727416556 1
gene  1 15 53 -0.2823756863115028 0 3134.0 -0.2823756863115028 1
gene  1 16 53 -0.9722127944382328 0 3135.0 -0.9722127944382328 1
gene  1 19 53 0.29401442714372483 0 3138.0 0.29401442714372483 1
gene  1 20 53 0.7870499559431491 0 3139.0 0.7870499559431491 1
gene  1 21 53 -0.5204377932407361 0 3140.0 -0.5204377932407361 1
gene  1 22 53 0.660208204636693 0 3141.0 0.660208204636693 1
gene  1 23 53 -0.3481208580236941 0 3142.0 -0.3481208580236941 1
gene  1 24 53 0.7729349853065933 0 3143.0 0.7729349853065933 1
gene  1 26 53 -0.3100203098421961 0 3145.0 -0.3100203098421961 1
gene  1 27 53 0.1415502485285125 0 3146.0 0.1415502485285125 1
gene  1 28 53 -0.8155299316547735 0 3147.0 -0.8155299316547735 1
gene  1 29 53 0.15652368797621785 0 3148.0 0.15652368797621785 1
gene  1 51 53 0.014144536357970527 0 3170.0 0.014144536357970527 1
gene  1 53 53 -0.1253006296485255 1 3172.0 -0.1253006296485255 1
gene  1 54 53 0.21503306173186432 1 3173.0 0.21503306173186432 1
gene  1 55 53 0.07521372069663546 1 3174.0 0.07521372069663546 1
gene  1 56 53 0.4926807495801566 1 3175.0 0.4926807495801566 1
gene  1 58 53 0.9434264719720503 1 3177.0 0.9434264719720503 1
gene  1 60 53 -0.8044498095497243 1 3179.0 -0.8044498095497243 1
gene  1 1 54 -0.12082752737496161 0 3180.0 -0.12082752737496161 1
gene  1 2 54 0.32879121128670286 0 3181.0 0.32879121128670286 1
gene  1 3 54 -0.45984232259740965 0 3182.0 -0.45984232259740965 1
gene  1 5 54 -0.09614848204950555 0 3184.0 -0.09614848204950555 1
gene  1 8 54 -0.7572915959337132 0 3187.0 -0.7572915959337132 1
gene  1 10 54 0.449524761020504 0 3189.0 0.449524761020504 1
gene  1 14 54 -0.660309756830666 0 3193.0 -0.660309756830666 1
gene  1 17 54 -0.37305804692159616 0 3196.0 -0.37305804692159616 1
gene  1 18 54 -0.7324752574298037 0 3197.0 -0.7324752574298037 1
gene  1 20 54 -0.238608147061099 0 3199.0 -0.238608147061099 1
gene  1 21 54 0.02458411949569006 0 3200.0 0.02458411949569006 1
gene  1 26 54 0.6023516103181338 0 3205.0 0.6023516103181338 1
gene  1 29 54 0.3872544256248791 0 3208.0 0.3872544256248791 1
gene  1 51 54 0.7766989238862799 0 3230.0 0.7766989238862799 1
gene  1 60 54 -0.06979965047413339 1 3239.0 -0.06979965047413339 1
gene  1 2 55 0.3912544975265524 0 3241.0 0.3912544975265524 1
gene  1 5 55 -0.16571778722656727 0 3244.0 -0.16571778722656727 1
gene  1 10 55 0.05877043813185867 0 3249.0 0.05877043813185867 1
gene  1 16 55 0.7496810652176357 0 3255.0 0.7496810652176357 1
gene  1 19 55 -0.5114065657120972 0 3258.0 -0.5114065657120972 1
gene  1 20 55 0.8503163007137121 0 3259.0 0.8503163007137121 1
gene  1 22 55 0.18477173446426398 0 3261.0 0.18477173446426398 1
gene  1 27 55 -0.8315516096799094 0 3266.0 -0.8315516096799094 1
gene  1 28 55 -0.25071086155553246 0 3267.0 -0.25071086155553246 1
gene  1 54 55 -0.1481466726495897 0 3293.0 -0.1481466726495897 1
gene  1 56 55 -0.08750421281244758 1 3295.0 -0.08750421281244758 1
gene  1 58 55 0.5079379426305719 1 3297.0 0.5079379426305719 1
gene  1 59 55 -0.009822508467424496 1 3298.0 -0.009822508467424496 1
gene  1 2 56 0.34980903868158797 0 3301.0 0.34980903868158797 1
gene  1 4 56 -0.32441387587328263 0 3303.0 -0.32441387587328263 1
gene  1 5 56 -0.5593907137891905 0 3304.0 -0.5593907137891905 1
gene  1 7 56 -0.32894463948451647 0 3306.0 -0.32894463948451647 1
gene  1 12 56 -0.2776135123389263 0 3311.0 -0.2776135123389263 1
gene  1 13 56 0.5257213498739775 0 3312.0 0.5257213498739775 1
gene  1 15 56 -0.5193592261737099 0 3314.0 -0.5193592261737099 1
gene  1 17 56 0.9533470484258023 0 3316.0 0.9533470484258023 1
gene  1 18 56 0.5894318783355169 0 3317.0 0.5894318783355169 1
gene  1 19 56 -0.9523846225157977 0 3318.0 -0.9523846225157977 1
gene  1 21 56 -0.8218705499342183 0 3320.0 -0.8218705499342183 1
gene  1 22 56 -0.7763270475638278 0 3321.0 -0.7763270475638278 1
gene  1 23 56 0.4591760214709988 0 3322.0 0.4591760214709988 1
gene  1 24 56 -0.20056841185343677 0 3323.0 -0.20056841185343677 1
gene  1 25 56 -0.5815284758924822 0 3324.0 -0.5815284758924822 1
gene  1 28 56 -0.04888946593069665 0 3327.0 -0.04888946593069665 1
gene  1 54 56 0.5125851476312719 0 3353.0 0.5125851476312719 1
gene  1 55 56 0.8057141470162588 0 3354.0 0.8057141470162588 1
gene  1 56 56 0.878008767452215 1 3355.0 0.878008767452215 1
gene  1 58 56 0.23829944396893243 1 3357.0 0.23829944396893243 1
gene  1 59 56 -0.7524453144600057 1 3358.0 -0.7524453144600057 1
gene  1 60 56 0.4944703351725308 1 3359.0 0.4944703351725308 1
gene  1 2 57 0.5306940488814276 0 3361.0 0.5306940488814276 1
gene  1 4 57 0.33430770593757886 0 3363.0 0.33430770593757886 1
gene  1 8 57 -0.7021511395613268 0 3367.0 -0.7021511395613268 1
gene  1 9 57 -0.23654103735010512 0 3368.0 -0.23654103735010512 1
gene  1 11 57 -0.8621587377852657 0 3370.0 -0.8621587377852657 1
gene  1 12 57 -0.33307986975166115 0 3371.0 -0.33307986975166115 1
gene  1 15 57 -0.5691234414759522 0 3374.0 -0.5691234414759522 1
gene  1 20 57 -0.42519515866939994 0 3379.0 -0.42519515866939994 1
gene  1 23 57 0.7925391503124903 0 3382.0 0.7925391503124903 1
gene  1 26 57 0.5248765962519385 0 3385.0 0.5248765962519385 1
gene  1 27 57 -0.3653741810183265 0 3386.0 -0.3653741810183265 1
gene  1 29 57 -0.3133853702313836 0 3388.0 -0.3133853702313836 1
gene  1 51 57 -0.3829521542357648 0 3410.0 -0.3829521542357648 1
gene  1 52 57 0.13189992614086954 0 3411.0 0.13189992614086954 1
gene  1 54 57 0.4036839286200514 0 3413.0 0.4036839286200514 1
gene  1 55 57 0.8351612786056793 0 3414.0 0.8351612786056793 1
gene  1 57 57 0.1794663744604197 1 3416.0 0.1794663744604197 1
gene  1 60 57 0.7063871034945186 1 3419.0 0.7063871034945186 1
gene  1 2 58 0.743531035017004 0 3421.0 0.743531035017004 1
gene  1 3 58 -0.7167074823410592 0 3422.0 -0.7167074823410592 1
gene  1 4 58 -0.09597450973462929 0 3423.0 -0.09597450973462929 1
gene  1 5 58 0.5343190962886308 0 3424.0 0.5343190962886308 1
gene  1 6 58 0.11706233859631632 0 3425.0 0.11706233859631632 1
gene  1 9 58 0.12965376215576807 0 3428.0 0.12965376215576807 1
gene  1 12 58 0.2328278069120322 0 3431.0 0.2328278069120322 1
gene  1 13 58 -0.48470932974186764 0 3432.0 -0.48470932974186764 1
gene  1 15 58 0.7948719949939115 0 3434.0 0.7948719949939115 1
gene  1 19 58 0.34742320490363077 0 3438.0 0.34742320490363077 1
gene  1 20 58 0.7483120694183233 0 3439.0 0.7483120694183233 1
gene  1 23 58 0.2954223962243061 0 3442.0 0.2954223962243061 1
gene  1 25 58 0.2238878335020429 0 3444.0 0.2238878335020429 1
gene  1 26 58 -0.9538119672788176 0 3445.0 -0.9538119672788176 1
gene  1 28 58 0.3938839013507579 0 3447.0 0.3938839013507579 1
gene  1 51 58 -0.05028496647053449 0 3470.0 -0.05028496647053449 1
gene  1 55 58 -0.10185177466326956 0 3474.0 -0.10185177466326956 1
gene  1 56 58 0.12661654266025546 0 3475.0 0.12661654266025546 1
gene  1 59 58 -0.47533517849848805 1 3478.0 -0.47533517849848805 1
gene  1 1 59 0.5447142259774317 0 3480.0 0.5447142259774317 1
gene  1 4 59 0.658200696853993 0 3483.0 0.658200696853993 1
gene  1 5 59 -0.6171957934146439 0 3484.0 -0.6171957934146439 1
gene  1 6 59 -0.11637556217487555 0 3485.0 -0.11637556217487555 1
gene  1 9 59 -0.6833974792997367 0 3488.0 -0.6833974792997367 1
gene  1 10 59 -0.14995871547805006 0 3489.0 -0.14995871547805006 1
gene  1 13 59 0.9930109281689297 0 3492.0 0.9930109281689297 1
gene  1 14 59 0.756059483220138 0 3493.0 0.756059483220138 1
gene  1 15 59 0.938279765816776 0 3494.0 0.938279765816776 1
gene  1 16 59 -0.1107651605027391 0 3495.0 -0.1107651605027391 1
gene  1 18 59 -0.9624332634056698 0 3497.0 -0.9624332634056698 1
gene  1 23 59 0.7064453349289165 0 3502.0 0.7064453349289165 1
gene  1 24 59 -0.012201410359075626 0 3503.0 -0.012201410359075626 1
gene  1 27 59 0.41548970423288567 0 3506.0 0.41548970423288567 1
gene  1 28 59 0.6018308030281861 0 3507.0 0.6018308030281861 1
gene  1 53 59 -0.40315317838519615 0 3532.0 -0.40315317838519615 1
gene  1 54 59 0.10629255701928608 0 3533.0 0.10629255701928608 1
gene  1 55 59 0.24300061078125468 0 3534.0 0.24300061078125468 1
gene  1 57 59 0.7308973057886339 0 3536.0 0.7308973057886339 1
gene  1 2 60 0.19224585164350727 0 3541.0 0.19224585164350727 1
gene  1 5 60 0.8403743945910565 0 3544.0 0.8403743945910565 1
gene  1 6 60 -0.08340703729018772 0 3545.0 -0.08340703729018772 1
gene  1 7 60 0.6945053557912747 0 3546.0 0.6945053557912747 1
gene  1 8 60 0.27713493758388597 0 3547.0 0.27713493758388597 1
gene  1 10 60 -0.7972049586799311 0 3549.0 -0.7972049586799311 1
gene  1 11 60 0.8882183303643637 0 3550.0 0.8882183303643637 1
gene  1 14 60 0.3035552237732507 0 3553.0 0.3035552237732507 1
gene  1 15 60 0.8859240452827396 0 3554.0 0.8859240452827396 1
gene  1 16 60 0.584889280426718 0 3555.0 0.584889280426718 1
gene  1 18 60 0.6939530750744842 0 3557.0 0.6939530750744842 1
gene  1 21 60 0.5432366462802514 0 3560.0 0.5432366462802514 1
gene  1 25 60 -0.07153388093876822 0 3564.0 -0.07153388093876822 1
gene  1 26 60 0.07796617713894072 0 3565.0 0.07796617713894072 1
gene  1 27 60 0.750265338080793 0 3566.0 0.750265338080793 1
gene  1 29 60 0.9890795236617675 0 3568.0 0.9890795236617675 1
gene  1 51 60 0.5047726069383645 0 3590.0 0.5047726069383645 1
gene  1 52 60 -0.3067856371748632 0 3591.0 -0.3067856371748632 1
gene  1 55 60 0.5879872319324267 0 3594.0 0.5879872319324267 1
gene  1 56 60 -0.2777746653924593 0 3595.0 -0.2777746653924593 1
gene  1 60 60 -0.5167591937785599 1 3599.0 -0.5167591937785599 1
genomeend 0
