genomestart  0
trait 1 0.0 0.0 0.0 0.0 0.0 0.0 0.0 0.0 
node 1 1 1 1
node 2 1 1 1
node 3 1 1 1
node 4 1 1 1
node 5 1 1 1
node 6 1 1 1
node 7 1 1 1
node 8 1 1 1
node 9 1 1 1
node 10 1 1 3
node 11 1 0 0
node 12 1 0 0
node 13 1 0 0
node 14 1 0 0
node 15 1 0 0
node 16 1 0 0
node 17 1 0 0
node 18 1 0 0
node 19 1 0 0
node 20 1 0 0
node 21 1 0 0
node 51 1 0 2
node 52 1 0 2
node 53 1 0 2
node 54 1 0 2
node 55 1 0 2
node 56 1 0 2
node 57 1 0 2
node 58 1 0 2
node 59 1 0 2
node 60 1 0 2
gene  1 1 11 0.6732067418497595 0 600.0 0.6732067418497595 1
gene  1 2 11 0.5555733420899918 0 601.0 0.5555733420899918 1
gene  1 3 11 0.844212041167036 0 602.0 0.844212041167036 1
gene  1 5 11 -0.24474498016984614 0 604.0 -0.24474498016984614 1
gene  1 6 11 0.9789373532968271 0 605.0 0.9789373532968271 1
gene  1 7 11 0.9506521224622998 0 606.0 0.9506521224622998 1
gene  1 9 11 0.6564097672990844 0 608.0 0.6564097672990844 1
gene  1 10 11 -0.21033289877219075 0 609.0 -0.21033289877219075 1
gene  1 13 11 0.43507394463835336 1 612.0 0.43507394463835336 1
gene  1 15 11 0.960176706152051 1 614.0 0.960176706152051 1
gene  1 17 11 0.9037156956760906 1 616.0 0.9037156956760906 1
gene  1 19 11 -0.7877093380268382 1 618.0 -0.7877093380268382 1
gene  1 20 11 -0.761880039414051 1 619.0 -0.761880039414051 1
gene  1 21 11 -0.3726579255392388 1 620.0 -0.3726579255392388 1
gene  1 51 11 0.8890666168146346 1 650.0 0.8890666168146346 1
gene  1 52 11 0.7952465201822395 1 651.0 0.7952465201822395 1
gene  1 55 11 -0.353353762010999 1 654.0 -0.353353762010999 1
gene  1 56 11 -0.6131262446268688 1 655.0 -0.6131262446268688 1
gene  1 57 11 0.22516475117328638 1 656.0 0.22516475117328638 1
gene  1 58 11 0.3911267855817173 1 657.0 0.3911267855817173 1
gene  1 59 11 -0.23644486343966065 1 658.0 -0.23644486343966065 1
gene  1 1 12 0.2723576081350929 0 660.0 0.2723576081350929 1
gene  1 2 12 0.10622456030171057 0 661.0 0.10622456030171057 1
gene  1 3 12 -0.4745561866046061 0 662.0 -0.4745561866046061 1
gene  1 8 12 0.43293871459846434 0 667.0 0.43293871459846434 1
gene  1 9 12 0.9601584208150288 0 668.0 0.9601584208150288 1
gene  1 10 12 -0.7502157180666467 0 669.0 -0.7502157180666467 1
gene  1 11 12 0.26390810167397305 0 670.0 0.26390810167397305 1
gene  1 14 12 -0.2662046170027631 1 673.0 -0.2662046170027631 1
gene  1 15 12 -0.11523738104898129 1 674.0 -0.11523738104898129 1
gene  1 18 12 0.8212036181315051 1 677.0 0.8212036181315051 1
gene  1 19 12 0.6255657880732926 1 678.0 0.6255657880732926 1
gene  1 51 12 0.7107340062568517 1 710.0 0.7107340062568517 1
gene  1 53 12 0.7450319310815854 1 712.0 0.7450319310815854 1
gene  1 54 12 0.7903489224141181 1 713.0 0.7903489224141181 1
gene  1 58 12 -0.41166855093915833 1 717.0 -0.41166855093915833 1
gene  1 59 12 -0.5662365908908568 1 718.0 -0.5662365908908568 1
gene  1 60 12 0.7856114430812808 1 719.0 0.7856114430812808 1
gene  1 2 13 -0.321298794134675 0 721.0 -0.321298794134675 1
gene  1 3 13 0.49299504189819876 0 722.0 0.49299504189819876 1
gene  1 4 13 0.9494300602082462 0 723.0 0.9494300602082462 1
gene  1 8 13 -0.6583955137366434 0 727.0 -0.6583955137366434 1
gene  1 10 13 -0.5751841330156044 0 729.0 -0.5751841330156044 1
gene  1 11 13 -0.7872192554095426 0 730.0 -0.7872192554095426 1
gene  1 13 13 -0.40684445661211865 1 732.0 -0.40684445661211865 1
gene  1 16 13 0.5602220862150065 1 735.0 0.5602220862150065 1
gene  1 21 13 0.3232090623394748 1 740.0 0.3232090623394748 1
gene  1 51 13 0.05950861058905399 1 770.0 0.05950861058905399 1
gene  1 52 13 -0.35412616032101585 1 771.0 -0.35412616032101585 1
gene  1 54 13 0.31897407691699786 1 773.0 0.31897407691699786 1
gene  1 55 13 0.47872988710869513 1 774.0 0.47872988710869513 1
gene  1 56 13 -0.7730332456784782 1 775.0 -0.7730332456784782 1
gene  1 58 13 -0.706509907906639 1 777.0 -0.706509907906639 1
gene  1 59 13 -0.15059296036522507 1 778.0 -0.15059296036522507 1
gene  1 60 13 0.9604984828435688 1 779.0 0.9604984828435688 1
gene  1 1 14 0.6869257131600852 0 780.0 0.6869257131600852 1
gene  1 3 14 -0.5682443929913152 0 782.0 -0.5682443929913152 1
gene  1 5 14 0.09631995615883615 0 784.0 0.09631995615883615 1
gene  1 7 14 -0.06599200021957385 0 786.0 -0.06599200021957385 1
gene  1 13 14 0.11845896290198554 0 792.0 0.11845896290198554 1
gene  1 14 14 0.9545952265559218 1 793.0 0.9545952265559218 1
gene  1 16 14 -0.14223035213217694 1 795.0 -0.14223035213217694 1
gene  1 18 14 0.9569409415403811 1 797.0 0.9569409415403811 1
gene  1 20 14 -0.9189486618224812 1 799.0 -0.9189486618224812 1
gene  1 21 14 -0.4092743010916926 1 800.0 -0.4092743010916926 1
gene  1 53 14 -0.2267588983233637 1 832.0 -0.2267588983233637 1
gene  1 56 14 -0.673655983614826 1 835.0 -0.673655983614826 1
gene  1 58 14 0.8577733188174751 1 837.0 0.8577733188174751 1
gene  1 59 14 -0.40529483620225903 1 838.0 -0.40529483620225903 1
gene  1 1 15 -0.33552408303343073 0 840.0 -0.33552408303343073 1
gene  1 3 15 0.8327637394427606 0 842.0 0.8327637394427606 1
gene  1 4 15 0.5989445995565463 0 843.0 0.5989445995565463 1
gene  1 5 15 -0.8527411137877643 0 844.0 -0.8527411137877643 1
gene  1 8 15 -0.3352933980499223 0 847.0 -0.3352933980499223 1
gene  1 9 15 -0.9035968422154073 0 848.0 -0.9035968422154073 1
gene  1 10 15 0.10723737503891895 0 849.0 0.10723737503891895 1
gene  1 11 15 0.3290598754636339 0 850.0 0.3290598754636339 1
gene  1 12 15 -0.8887088996979763 0 851.0 -0.8887088996979763 1
gene  1 15 15 0.577719580224162 1 854.0 0.577719580224162 1
gene  1 18 15 0.6877592327339065 1 857.0 0.6877592327339065 1
gene  1 19 15 -0.6643909754458522 1 858.0 -0.6643909754458522 1
gene  1 51 15 0.856108347191586 1 890.0 0.856108347191586 1
gene  1 54 15 0.166759178863785 1 893.0 0.166759178863785 1
gene  1 56 15 -0.9801378313497089 1 895.0 -0.9801378313497089 1
gene  1 57 15 0.7961969584793495 1 896.0 0.7961969584793495 1
gene  1 58 15 -0.7775036470626517 1 897.0 -0.7775036470626517 1
gene  1 59 15 -0.405580316644529 1 898.0 -0.405580316644529 1
gene  1 1 16 0.8667375270644854 0 900.0 0.8667375270644854 1
gene  1 4 16 -0.8159389588512529 0 903.0 -0.8159389588512529 1
gene  1 5 16 0.9429573550733413 0 904.0 0.9429573550733413 1
gene  1 6 16 0.26748930167122853 0 905.0 0.26748930167122853 1
gene  1 8 16 0.16836754571580592 0 907.0 0.16836754571580592 1
gene  1 10 16 -0.4995685705886944 0 909.0 -0.4995685705886944 1
gene  1 12 16 -0.9190543905320767 0 911.0 -0.9190543905320767 1
gene  1 16 16 -0.9790602204305466 1 915.0 -0.9790602204305466 1
gene  1 18 16 -0.1800710056270125 1 917.0 -0.1800710056270125 1
gene  1 20 16 -0.39882669818573724 1 919.0 -0.39882669818573724 1
gene  1 53 16 0.2780904717402466 1 952.0 0.2780904717402466 1
gene  1 54 16 -0.9646900883898752 1 953.0 -0.9646900883898752 1
gene  1 56 16 -0.0174191701545775 1 955.0 -0.0174191701545775 1
gene  1 57 16 0.4992989973097598 1 956.0 0.4992989973097598 1
gene  1 58 16 -0.35956484182452497 1 957.0 -0.35956484182452497 1
gene  1 59 16 -0.8623402395368905 1 958.0 -0.8623402395368905 1
gene  1 1 17 0.6082868685937021 0 960.0 0.6082868685937021 1
gene  1 3 17 0.1732883316388497 0 962.0 0.1732883316388497 1
gene  1 4 17 0.7245171559694111 0 963.0 0.7245171559694111 1
gene  1 6 17 -0.48620875005703534 0 965.0 -0.48620875005703534 1
gene  1 8 17 -0.1687357839714726 0 967.0 -0.1687357839714726 1
gene  1 13 17 -0.49211666377588725 0 972.0 -0.49211666377588725 1
gene  1 15 17 0.19550528531021039 0 974.0 0.19550528531021039 1
gene  1 16 17 0.9202789979275472 0 975.0 0.9202789979275472 1
gene  1 18 17 -0.5711396023981365 1 977.0 -0.5711396023981365 1
gene  1 19 17 0.15662482065072925 1 978.0 0.15662482065072925 1
gene  1 20 17 0.02128077399611472 1 979.0 0.02128077399611472 1
gene  1 21 17 -0.1066562081577852 1 980.0 -0.1066562081577852 1
gene  1 51 17 -0.05918298696138591 1 1010.0 -0.05918298696138591 1
gene  1 53 17 -0.27143985369284274 1 1012.0 -0.27143985369284274 1
gene  1 54 17 -0.3875496374506452 1 1013.0 -0.3875496374506452 1
gene  1 57 17 0.9390603714215261 1 1016.0 0.9390603714215261 1
gene  1 59 17 0.9333605101773629 1 1018.0 0.9333605101773629 1
gene  1 60 17 -0.7649383427614023 1 1019.0 -0.7649383427614023 1
gene  1 1 18 0.6950541241623518 0 1020.0 0.6950541241623518 1
gene  1 2 18 -0.12639635828676543 0 1021.0 -0.12639635828676543 1
gene  1 4 18 -0.7519772517840816 0 1023.0 -0.7519772517840816 1
gene  1 5 18 0.45153954632259585 0 1024.0 0.45153954632259585 1
gene  1 6 18 0.33439708119504097 0 1025.0 0.33439708119504097 1
gene  1 7 18 0.8924412493383506 0 1026.0 0.8924412493383506 1
gene  1 9 18 -0.13066679130963932 0 1028.0 -0.13066679130963932 1
gene  1 10 18 -0.9766802484658446 0 1029.0 -0.9766802484658446 1
gene  1 11 18 -0.053748220239173916 0 1030.0 -0.053748220239173916 1
gene  1 12 18 0.9107321761160777 0 1031.0 0.9107321761160777 1
gene  1 13 18 0.7267253821599168 0 1032.0 0.7267253821599168 1
gene  1 14 18 0.2800898864272908 0 1033.0 0.2800898864272908 1
gene  1 16 18 -3.936400736102019E-4 0 1035.0 -3.936400736102019E-4 1
gene  1 18 18 -0.02092762363805245 1 1037.0 -0.02092762363805245 1
gene  1 19 18 0.5461261624138546 1 1038.0 0.5461261624138546 1
gene  1 20 18 0.7842170309677609 1 1039.0 0.7842170309677609 1
gene  1 51 18 -0.5389589959151726 1 1070.0 -0.5389589959151726 1
gene  1 52 18 -0.06335473969545558 1 1071.0 -0.06335473969545558 1
gene  1 53 18 -0.37830053115949225 1 1072.0 -0.37830053115949225 1
gene  1 56 18 0.45814291496736725 1 1075.0 0.45814291496736725 1
gene  1 57 18 -0.5363755185916173 1 1076.0 -0.5363755185916173 1
gene  1 60 18 0.22812079585027123 1 1079.0 0.22812079585027123 1
gene  1 3 19 0.24841901724594417 0 1082.0 0.24841901724594417 1
gene  1 5 19 0.8412211015610161 0 1084.0 0.8412211015610161 1
gene  1 8 19 0.8439598324694025 0 1087.0 0.8439598324694025 1
gene  1 12 19 0.3169107510199929 0 1091.0 0.3169107510199929 1
gene  1 14 19 0.06510058211491798 0 1093.0 0.06510058211491798 1
gene  1 21 19 0.3250410830534599 1 1100.0 0.3250410830534599 1
gene  1 51 19 -0.6974156094063974 1 1130.0 -0.6974156094063974 1
gene  1 52 19 -0.22913962823429868 1 1131.0 -0.22913962823429868 1
gene  1 53 19 -0.653735131016113 1 1132.0 -0.653735131016113 1
gene  1 54 19 -0.699043957017211 1 1133.0 -0.699043957017211 1
gene  1 55 19 -0.05258080297552725 1 1134.0 -0.05258080297552725 1
gene  1 56 19 -0.3260824002719013 1 1135.0 -0.3260824002719013 1
gene  1 57 19 0.6068045749448404 1 1136.0 0.6068045749448404 1
gene  1 3 20 -0.5480075412086254 0 1142.0 -0.5480075412086254 1
gene  1 5 20 0.9441606077444257 0 1144.0 0.9441606077444257 1
gene  1 6 20 0.4104391508879459 0 1145.0 0.4104391508879459 1
gene  1 9 20 -0.5919871476535638 0 1148.0 -0.5919871476535638 1
gene  1 10 20 -0.3543316831637183 0 1149.0 -0.3543316831637183 1
gene  1 11 20 -0.6216972860383517 0 1150.0 -0.6216972860383517 1
gene  1 14 20 0.24486319979203253 0 1153.0 0.24486319979203253 1
gene  1 15 20 0.1600635395589488 0 1154.0 0.1600635395589488 1
gene  1 16 20 0.5821308364520543 0 1155.0 0.5821308364520543 1
gene  1 17 20 -0.9162049827780516 0 1156.0 -0.9162049827780516 1
gene  1 18 20 -0.4785094427478035 0 1157.0 -0.4785094427478035 1
gene  1 21 20 -0.6457188146836136 1 1160.0 -0.6457188146836136 1
gene  1 51 20 0.0029934421477640916 1 1190.0 0.0029934421477640916 1
gene  1 52 20 0.31618495964261195 1 1191.0 0.31618495964261195 1
gene  1 55 20 0.7597522480714788 1 1194.0 0.7597522480714788 1
gene  1 58 20 0.39763251750791073 1 1197.0 0.39763251750791073 1
gene  1 59 20 0.6361869544282464 1 1198.0 0.6361869544282464 1
gene  1 3 21 0.9864560430518865 0 1202.0 0.9864560430518865 1
gene  1 7 21 0.686853066416435 0 1206.0 0.686853066416435 1
gene  1 12 21 0.4865308234522391 0 1211.0 0.4865308234522391 1
gene  1 13 21 -0.9122358881519956 0 1212.0 -0.9122358881519956 1
gene  1 15 21 -0.2100796277672704 0 1214.0 -0.2100796277672704 1
gene  1 16 21 0.13437801193150756 0 1215.0 0.13437801193150756 1
gene  1 20 21 -0.8822704598518425 0 1219.0 -0.8822704598518425 1
gene  1 53 21 -0.6932184323405278 1 1252.0 -0.6932184323405278 1
gene  1 55 21 -0.8447012005037923 1 1254.0 -0.8447012005037923 1
gene  1 56 21 -0.7363033369261923 1 1255.0 -0.7363033369261923 1
gene  1 57 21 0.25904221551646833 1 1256.0 0.25904221551646833 1
gene  1 3 51 -0.1827276057417575 0 3002.0 -0.1827276057417575 1
gene  1 4 51 0.591313970084924 0 3003.0 0.591313970084924 1
gene  1 6 51 -0.798602672401018 0 3005.0 -0.798602672401018 1
gene  1 8 51 0.461305305229716 0 3007.0 0.461305305229716 1
gene  1 10 51 -0.29201701926412604 0 3009.0 -0.29201701926412604 1
gene  1 11 51 0.5165972355949182 0 3010.0 0.5165972355949182 1
gene  1 13 51 -0.3431595813232441 0 3012.0 -0.3431595813232441 1
gene  1 16 51 0.8563517914062452 0 3015.0 0.8563517914062452 1
gene  1 17 51 -0.8770594398221918 0 3016.0 -0.8770594398221918 1
gene  1 18 51 -0.04978569615701489 0 3017.0 -0.04978569615701489 1
gene  1 52 51 -0.08644640127351699 1 3051.0 -0.08644640127351699 1
gene  1 53 51 -0.41108170503296604 1 3052.0 -0.41108170503296604 1
gene  1 55 51 -0.2766323582560445 1 3054.0 -0.2766323582560445 1
gene  1 56 51 -0.9010588845126748 1 3055.0 -0.9010588845126748 1
gene  1 60 51 0.9627800890906177 1 3059.0 0.9627800890906177 1
gene  1 1 52 0.19365760352694994 0 3060.0 0.19365760352694994 1
gene  1 2 52 -0.5385177495678966 0 3061.0 -0.5385177495678966 1
gene  1 5 52 0.1896448013127615 0 3064.0 0.1896448013127615 1
gene  1 8 52 -0.8922099157091654 0 3067.0 -0.8922099157091654 1
gene  1 9 52 -0.9325794217851817 0 3068.0 -0.9325794217851817 1
gene  1 10 52 -0.5657561380814196 0 3069.0 -0.5657561380814196 1
gene  1 11 52 0.8045317345432907 0 3070.0 0.8045317345432907 1
gene  1 12 52 0.24318687478622603 0 3071.0 0.24318687478622603 1
gene  1 14 52 0.3181393017691838 0 3073.0 0.3181393017691838 1
gene  1 19 52 -0.515790003502056 0 3078.0 -0.515790003502056 1
gene  1 20 52 -0.2865698588225922 0 3079.0 -0.2865698588225922 1
gene  1 21 52 0.27296377437885977 0 3080.0 0.27296377437885977 1
gene  1 51 52 0.44031024981789035 0 3110.0 0.44031024981789035 1
gene  1 55 52 0.18230788944364262 1 3114.0 0.18230788944364262 1
gene  1 56 52 -0.5648922851313054 1 3115.0 -0.5648922851313054 1
gene  1 57 52 -0.463900804717019 1 3116.0 -0.463900804717019 1
gene  1 58 52 -0.3934027918312367 1 3117.0 -0.3934027918312367 1
gene  1 1 53 -0.744572699308806 0 3120.0 -0.744572699308806 1
gene  1 2 53 -0.8094366729114079 0 3121.0 -0.8094366729114079 1
gene  1 3 53 -0.378110464840965 0 3122.0 -0.378110464840965 1
gene  1 4 53 0.8961722418540559 0 3123.0 0.8961722418540559 1
gene  1 5 53 0.3157745896000037 0 3124.0 0.3157745896000037 1
gene  1 7 53 0.690726184357807 0 3126.0 0.690726184357807 1
gene  1 10 53 -0.48964008062579467 0 3129.0 -0.48964008062579467 1
gene  1 13 53 -0.26573183593260985 0 3132.0 -0.26573183593260985 1
gene  1 14 53 0.716153826833842 0 3133.0 0.716153826833842 1
gene  1 16 53 -0.04316510324299139 0 3135.0 -0.04316510324299139 1
gene  1 18 53 -0.533015514096642 0 3137.0 -0.533015514096642 1
gene  1 19 53 0.21825983599184706 0 3138.0 0.21825983599184706 1
gene  1 51 53 -0.06583318889831735 0 3170.0 -0.06583318889831735 1
gene  1 52 53 -0.493492846781067 0 3171.0 -0.493492846781067 1
gene  1 54 53 0.6366778414015783 1 3173.0 0.6366778414015783 1
gene  1 57 53 0.4570871715272813 1 3176.0 0.4570871715272813 1
gene  1 1 54 -0.2858933734595407 0 3180.0 -0.2858933734595407 1
gene  1 6 54 -0.0856627799476607 0 3185.0 -0.0856627799476607 1
gene  1 7 54 0.8437425496685426 0 3186.0 0.8437425496685426 1
gene  1 8 54 -0.54169889335617 0 3187.0 -0.54169889335617 1
gene  1 11 54 -0.735512040001647 0 3190.0 -0.735512040001647 1
gene  1 12 54 -0.46059310416429367 0 3191.0 -0.46059310416429367 1
gene  1 13 54 -0.3115706263187299 0 3192.0 -0.3115706263187299 1
gene  1 14 54 -0.036238389452842745 0 3193.0 -0.036238389452842745 1
gene  1 17 54 -0.741127396364533 0 3196.0 -0.741127396364533 1
gene  1 19 54 0.24666707360740847 0 3198.0 0.24666707360740847 1
gene  1 21 54 0.3237160266130792 0 3200.0 0.3237160266130792 1
gene  1 54 54 -0.8243963793311944 1 3233.0 -0.8243963793311944 1
gene  1 56 54 0.10562280328495766 1 3235.0 0.10562280328495766 1
gene  1 60 54 -0.10661379177509411 1 3239.0 -0.10661379177509411 1
gene  1 2 55 -0.3376315771136462 0 3241.0 -0.3376315771136462 1
gene  1 3 55 -0.8946094338503762 0 3242.0 -0.8946094338503762 1
gene  1 5 55 -0.15837158680909502 0 3244.0 -0.15837158680909502 1
gene  1 10 55 0.3499199758271292 0 3249.0 0.3499199758271292 1
gene  1 12 55 -0.2706749914688852 0 3251.0 -0.2706749914688852 1
gene  1 13 55 -0.9751640798967863 0 3252.0 -0.9751640798967863 1
gene  1 14 55 0.02942202814708328 0 3253.0 0.02942202814708328 1
gene  1 18 55 -0.24803150955757125 0 3257.0 -0.24803150955757125 1
gene  1 19 55 -0.5339377087796243 0 3258.0 -0.5339377087796243 1
gene  1 20 55 -0.49736377635198425 0 3259.0 -0.49736377635198425 1
gene  1 21 55 0.5338034978752867 0 3260.0 0.5338034978752867 1
gene  1 57 55 -0.6324926651654281 1 3296.0 -0.6324926651654281 1
gene  1 59 55 -0.4435697209032222 1 3298.0 -0.4435697209032222 1
gene  1 1 56 0.3349964402291432 0 3300.0 0.3349964402291432 1
gene  1 8 56 0.9374375444934927 0 3307.0 0.9374375444934927 1
gene  1 9 56 -0.07341517809168363 0 3308.0 -0.07341517809168363 1
gene  1 10 56 -0.35482398588212405 0 3309.0 -0.35482398588212405 1
gene  1 14 56 0.19295100033024604 0 3313.0 0.19295100033024604 1
gene  1 15 56 0.46885255975603757 0 3314.0 0.46885255975603757 1
gene  1 16 56 -0.8462099687678629 0 3315.0 -0.8462099687678629 1
gene  1 17 56 -0.5040924965111807 0 3316.0 -0.5040924965111807 1
gene  1 18 56 -0.964353108594604 0 3317.0 -0.964353108594604 1
gene  1 19 56 -0.437121634212025 0 3318.0 -0.437121634212025 1
gene  1 20 56 -0.026675058092154758 0 3319.0 -0.026675058092154758 1
gene  1 21 56 0.23473101447963274 0 3320.0 0.23473101447963274 1
gene  1 52 56 0.6457810236053029 0 3351.0 0.6457810236053029 1
gene  1 53 56 0.33432965599717224 0 3352.0 0.33432965599717224 1
gene  1 55 56 0.7960072829523269 0 3354.0 0.7960072829523269 1
gene  1 56 56 0.19632277204156134 1 3355.0 0.19632277204156134 1
gene  1 60 56 0.7801164686191564 1 3359.0 0.7801164686191564 1
gene  1 2 57 0.13046915426544758 0 3361.0 0.13046915426544758 1
gene  1 5 57 -0.3851635612783769 0 3364.0 -0.3851635612783769 1
gene  1 7 57 0.7139375864552235 0 3366.0 0.7139375864552235 1
gene  1 8 57 0.9068885446488587 0 3367.0 0.9068885446488587 1
gene  1 10 57 0.8218792822313404 0 3369.0 0.8218792822313404 1
gene  1 11 57 -0.8986858276997388 0 3370.0 -0.8986858276997388 1
gene  1 14 57 0.8405060023031574 0 3373.0 0.8405060023031574 1
gene  1 18 57 -0.1454654036148082 0 3377.0 -0.1454654036148082 1
gene  1 19 57 0.05496588588095286 0 3378.0 0.05496588588095286 1
gene  1 20 57 -0.49744141834288946 0 3379.0 -0.49744141834288946 1
gene  1 51 57 0.44512300543593364 0 3410.0 0.44512300543593364 1
gene  1 52 57 -0.056394837423267785 0 3411.0 -0.056394837423267785 1
gene  1 53 57 0.6206382883912294 0 3412.0 0.6206382883912294 1
gene  1 54 57 0.41291416023022365 0 3413.0 0.41291416023022365 1
gene  1 55 57 0.9132743596399759 0 3414.0 0.9132743596399759 1
gene  1 56 57 -0.04422655241588802 0 3415.0 -0.04422655241588802 1
gene  1 58 57 0.779208659692874 1 3417.0 0.779208659692874 1
gene  1 59 57 0.9472796046046928 1 3418.0 0.9472796046046928 1
gene  1 1 58 0.7988683630011402 0 3420.0 0.7988683630011402 1
gene  1 2 58 -0.23926945555942913 0 3421.0 -0.23926945555942913 1
gene  1 5 58 0.6298380321161778 0 3424.0 0.6298380321161778 1
gene  1 8 58 -0.7774576716301336 0 3427.0 -0.7774576716301336 1
gene  1 10 58 -0.7766569707932145 0 3429.0 -0.7766569707932145 1
gene  1 12 58 0.46833446000709056 0 3431.0 0.46833446000709056 1
gene  1 17 58 -0.15426495494552717 0 3436.0 -0.15426495494552717 1
gene  1 19 58 0.4309767151556295 0 3438.0 0.4309767151556295 1
gene  1 51 58 0.9981199456967862 0 3470.0 0.9981199456967862 1
gene  1 53 58 -0.27234020116761015 0 3472.0 -0.27234020116761015 1
gene  1 54 58 0.6346869896241768 0 3473.0 0.6346869896241768 1
gene  1 55 58 0.9994996870540513 0 3474.0 0.9994996870540513 1
gene  1 56 58 -0.002016046604470856 0 3475.0 -0.002016046604470856 1
gene  1 1 59 0.11285268554087824 0 3480.0 0.11285268554087824 1
gene  1 2 59 -0.03531728641243437 0 3481.0 -0.03531728641243437 1
gene  1 3 59 0.8743276409578743 0 3482.0 0.8743276409578743 1
gene  1 4 59 0.5173019460958804 0 3483.0 0.5173019460958804 1
gene  1 5 59 0.8256942131616762 0 3484.0 0.8256942131616762 1
gene  1 7 59 0.7332233086864709 0 3486.0 0.7332233086864709 1
gene  1 8 59 0.2585510924161498 0 3487.0 0.2585510924161498 1
gene  1 11 59 -0.21258419872487944 0 3490.0 -0.21258419872487944 1
gene  1 13 59 -0.9075781067668902 0 3492.0 -0.9075781067668902 1
gene  1 17 59 0.9453631545540722 0 3496.0 0.9453631545540722 1
gene  1 21 59 0.2735886988170958 0 3500.0 0.2735886988170958 1
gene  1 52 59 -0.8811800569108196 0 3531.0 -0.8811800569108196 1
gene  1 53 59 0.47555931909989524 0 3532.0 0.47555931909989524 1
gene  1 57 59 0.0059280043463179055 0 3536.0 0.0059280043463179055 1
gene  1 60 59 -0.8338284199745554 1 3539.0 -0.8338284199745554 1
gene  1 1 60 -0.9395682204471654 0 3540.0 -0.9395682204471654 1
gene  1 3 60 0.3175708004651321 0 3542.0 0.3175708004651321 1
gene  1 4 60 -0.6537184424148341 0 3543.0 -0.6537184424148341 1
gene  1 5 60 0.9215409999862078 0 3544.0 0.9215409999862078 1
gene  1 6 60 0.9917410197664271 0 3545.0 0.9917410197664271 1
gene  1 7 60 0.6884490585072303 0 3546.0 0.6884490585072303 1
gene  1 11 60 0.9677412053004714 0 3550.0 0.9677412053004714 1
gene  1 16 60 -0.12411222223682394 0 3555.0 -0.12411222223682394 1
gene  1 17 60 0.651821957483996 0 3556.0 0.651821957483996 1
gene  1 19 60 -0.717022534530887 0 3558.0 -0.717022534530887 1
gene  1 21 60 -0.9867988106885204 0 3560.0 -0.9867988106885204 1
gene  1 52 60 0.0752625131157647 0 3591.0 0.0752625131157647 1
gene  1 55 60 -0.6982677913409235 0 3594.0 -0.6982677913409235 1
gene  1 56 60 -0.02780107756069039 0 3595.0 -0.02780107756069039 1
gene  1 58 60 -0.2337252080454233 0 3597.0 -0.2337252080454233 1
gene  1 60 60 0.9089816562320697 1 3599.0 0.9089816562320697 1
genomeend 0
