genomestart  2
trait 1 0.0 0.0 0.0 0.0 0.0 0.0 0.0 0.0 
node 1 1 1 1
node 2 1 1 1
node 3 1 1 1
node 4 1 1 1
node 5 1 1 1
node 6 1 1 1
node 7 1 1 1
node 8 1 1 1
node 9 1 1 1
node 10 1 1 3
node 11 1 0 0
node 12 1 0 0
node 13 1 0 0
node 14 1 0 0
node 15 1 0 0
node 16 1 0 0
node 17 1 0 0
node 18 1 0 0
node 19 1 0 0
node 20 1 0 0
node 21 1 0 0
node 22 1 0 0
node 23 1 0 0
node 24 1 0 0
node 25 1 0 0
node 26 1 0 0
node 27 1 0 0
node 28 1 0 0
node 29 1 0 0
node 30 1 0 0
node 31 1 0 0
node 32 1 0 0
node 33 1 0 0
node 34 1 0 0
node 35 1 0 0
node 36 1 0 0
node 37 1 0 0
node 51 1 0 2
node 52 1 0 2
node 53 1 0 2
node 54 1 0 2
node 55 1 0 2
node 56 1 0 2
node 57 1 0 2
node 58 1 0 2
node 59 1 0 2
node 60 1 0 2
gene  1 1 11 0.4409210342357618 0 600.0 0.4409210342357618 1
gene  1 4 11 0.9622583990950265 0 603.0 0.9622583990950265 1
gene  1 5 11 0.8466409925733077 0 604.0 0.8466409925733077 1
gene  1 6 11 -0.17942797271809807 0 605.0 -0.17942797271809807 1
gene  1 7 11 -0.8521028652830526 0 606.0 -0.8521028652830526 1
gene  1 9 11 -0.32992443714823905 0 608.0 -0.32992443714823905 1
gene  1 10 11 0.4993338386462697 0 609.0 0.4993338386462697 1
gene  1 11 11 -0.11525492969274043 1 610.0 -0.11525492969274043 1
gene  1 16 11 -0.07050656467661853 1 615.0 -0.07050656467661853 1
gene  1 17 11 0.09289839396658683 1 616.0 0.09289839396658683 1
gene  1 21 11 -0.5394269333939149 1 620.0 -0.5394269333939149 1
gene  1 24 11 0.8014316597761555 1 623.0 0.8014316597761555 1
gene  1 25 11 -0.745049103102171 1 624.0 -0.745049103102171 1
gene  1 27 11 0.5948646063620364 1 626.0 0.5948646063620364 1
gene  1 28 11 -0.8494953657011808 1 627.0 -0.8494953657011808 1
gene  1 30 11 -0.039633304186099894 1 629.0 -0.039633304186099894 1
gene  1 31 11 0.10261606085287867 1 630.0 0.10261606085287867 1
gene  1 32 11 0.7622397696640043 1 631.0 0.7622397696640043 1
gene  1 37 11 -0.6916389800819471 1 636.0 -0.6916389800819471 1
gene  1 51 11 -0.8638782543602793 1 650.0 -0.8638782543602793 1
gene  1 54 11 0.15742374602647113 1 653.0 0.15742374602647113 1
gene  1 57 11 -0.1915568996201965 1 656.0 -0.1915568996201965 1
gene  1 58 11 -0.2606160021091122 1 657.0 -0.2606160021091122 1
gene  1 1 12 -0.704092057601762 0 660.0 -0.704092057601762 1
gene  1 4 12 0.9232574182768092 0 663.0 0.9232574182768092 1
gene  1 5 12 -0.46447663594603916 0 664.0 -0.46447663594603916 1
gene  1 7 12 0.1050552626223692 0 666.0 0.1050552626223692 1
gene  1 8 12 -0.7542828219324453 0 667.0 -0.7542828219324453 1
gene  1 10 12 -0.6441596481574574 0 669.0 -0.6441596481574574 1
gene  1 11 12 -0.006989804012268341 0 670.0 -0.006989804012268341 1
gene  1 14 12 0.5670118838647449 1 673.0 0.5670118838647449 1
gene  1 15 12 0.7585836790577161 1 674.0 0.7585836790577161 1
gene  1 16 12 -0.17677515816832368 1 675.0 -0.17677515816832368 1
gene  1 17 12 -0.9956264316806118 1 676.0 -0.9956264316806118 1
gene  1 18 12 -0.01200639544488602 1 677.0 -0.01200639544488602 1
gene  1 21 12 0.726212259888222 1 680.0 0.726212259888222 1
gene  1 24 12 -0.18724198351553334 1 683.0 -0.18724198351553334 1
gene  1 26 12 0.5179899675561156 1 685.0 0.5179899675561156 1
gene  1 27 12 -0.7342250711589293 1 686.0 -0.7342250711589293 1
gene  1 28 12 0.6314450583395046 1 687.0 0.6314450583395046 1
gene  1 30 12 -0.29556852690577773 1 689.0 -0.29556852690577773 1
gene  1 31 12 0.04366263781566271 1 690.0 0.04366263781566271 1
gene  1 32 12 0.32651604314462646 1 691.0 0.32651604314462646 1
gene  1 35 12 -0.5651695453065924 1 694.0 -0.5651695453065924 1
gene  1 36 12 0.5985518640251819 1 695.0 0.5985518640251819 1
gene  1 51 12 0.927333966911627 1 710.0 0.927333966911627 1
gene  1 52 12 0.7883243622967193 1 711.0 0.7883243622967193 1
gene  1 53 12 0.3704989338630926 1 712.0 0.3704989338630926 1
gene  1 54 12 -0.6255404711040592 1 713.0 -0.6255404711040592 1
gene  1 56 12 -0.11861457800672826 1 715.0 -0.11861457800672826 1
gene  1 59 12 0.22727919278922515 1 718.0 0.22727919278922515 1
gene  1 1 13 0.7282264383879574 0 720.0 0.7282264383879574 1
gene  1 4 13 -0.0861746878838423 0 723.0 -0.0861746878838423 1
gene  1 5 13 -0.009013369458953147 0 724.0 -0.009013369458953147 1
gene  1 7 13 -0.19665728120148618 0 726.0 -0.19665728120148618 1
gene  1 11 13 -0.3423488233992167 0 730.0 -0.3423488233992167 1
gene  1 12 13 -0.2214654270346349 0 731.0 -0.2214654270346349 1
gene  1 13 13 -0.7194535783317936 1 732.0 -0.7194535783317936 1
gene  1 15 13 -0.2406603555065161 1 734.0 -0.2406603555065161 1
gene  1 16 13 -0.11716359763138418 1 735.0 -0.11716359763138418 1
gene  1 19 13 -0.9943961907592872 1 738.0 -0.9943961907592872 1
gene  1 20 13 -0.4818361980503313 1 739.0 -0.4818361980503313 1
gene  1 21 13 -0.3159897929546013 1 740.0 -0.3159897929546013 1
gene  1 22 13 0.4930838567975009 1 741.0 0.4930838567975009 1
gene  1 23 13 0.18822247864965092 1 742.0 0.18822247864965092 1
gene  1 24 13 0.7527505542193724 1 743.0 0.7527505542193724 1
gene  1 25 13 -0.3795895865805965 1 744.0 -0.3795895865805965 1
gene  1 27 13 -0.8177297479678716 1 746.0 -0.8177297479678716 1
gene  1 28 13 -0.013742844385599806 1 747.0 -0.013742844385599806 1
gene  1 30 13 0.5205874701360343 1 749.0 0.5205874701360343 1
gene  1 31 13 -0.5210400954716428 1 750.0 -0.5210400954716428 1
gene  1 32 13 0.3433366816962836 1 751.0 0.3433366816962836 1
gene  1 34 13 -0.46434712944153034 1 753.0 -0.46434712944153034 1
gene  1 35 13 0.9300024430519748 1 754.0 0.9300024430519748 1
gene  1 52 13 0.7506790020460385 1 771.0 0.7506790020460385 1
gene  1 54 13 -0.15423230551665812 1 773.0 -0.15423230551665812 1
gene  1 55 13 0.16230519584070857 1 774.0 0.16230519584070857 1
gene  1 57 13 -0.8977600214359609 1 776.0 -0.8977600214359609 1
gene  1 58 13 -0.5922334276766468 1 777.0 -0.5922334276766468 1
gene  1 59 13 -0.7041141335181015 1 778.0 -0.7041141335181015 1
gene  1 1 14 0.1836138422835607 0 780.0 0.1836138422835607 1
gene  1 5 14 -0.17619030179041728 0 784.0 -0.17619030179041728 1
gene  1 10 14 0.36707872024282684 0 789.0 0.36707872024282684 1
gene  1 11 14 0.2690234590812145 0 790.0 0.2690234590812145 1
gene  1 13 14 0.5632164231582778 0 792.0 0.5632164231582778 1
gene  1 14 14 0.2264063793379536 1 793.0 0.2264063793379536 1
gene  1 16 14 0.8760753611382569 1 795.0 0.8760753611382569 1
gene  1 17 14 0.2570468138438815 1 796.0 0.2570468138438815 1
gene  1 19 14 -0.20836860494220988 1 798.0 -0.20836860494220988 1
gene  1 20 14 0.9815449163721541 1 799.0 0.9815449163721541 1
gene  1 21 14 -0.6985349052693027 1 800.0 -0.6985349052693027 1
gene  1 25 14 0.1405479303342918 1 804.0 0.1405479303342918 1
gene  1 26 14 -0.4855402822795183 1 805.0 -0.4855402822795183 1
gene  1 27 14 0.845951011095334 1 806.0 0.845951011095334 1
gene  1 28 14 -0.6348607580176507 1 807.0 -0.6348607580176507 1
gene  1 31 14 -0.6436806280717643 1 810.0 -0.6436806280717643 1
gene  1 32 14 -0.10508880404083432 1 811.0 -0.10508880404083432 1
gene  1 33 14 -0.12166073000452515 1 812.0 -0.12166073000452515 1
gene  1 34 14 -0.7528099303219292 1 813.0 -0.7528099303219292 1
gene  1 35 14 -0.501469365892341 1 814.0 -0.501469365892341 1
gene  1 36 14 0.2769562533602221 1 815.0 0.2769562533602221 1
gene  1 37 14 0.057842071843548504 1 816.0 0.057842071843548504 1
gene  1 51 14 -0.874506405597643 1 830.0 -0.874506405597643 1
gene  1 52 14 -0.5531592486864637 1 831.0 -0.5531592486864637 1
gene  1 55 14 0.7281556981139091 1 834.0 0.7281556981139091 1
gene  1 56 14 -0.2580121847205328 1 835.0 -0.2580121847205328 1
gene  1 58 14 0.2140679831445299 1 837.0 0.2140679831445299 1
gene  1 1 15 -0.5099944906775415 0 840.0 -0.5099944906775415 1
gene  1 2 15 -0.6965119467723487 0 841.0 -0.6965119467723487 1
gene  1 3 15 -0.676709807424677 0 842.0 -0.676709807424677 1
gene  1 5 15 -0.780115562981842 0 844.0 -0.780115562981842 1
gene  1 6 15 -0.48612380848028647 0 845.0 -0.48612380848028647 1
gene  1 7 15 -0.6920820855674858 0 846.0 -0.6920820855674858 1
gene  1 8 15 0.6115912543296809 0 847.0 0.6115912543296809 1
gene  1 12 15 -0.3640262581145107 0 851.0 -0.3640262581145107 1
gene  1 13 15 0.2628652250120078 0 852.0 0.2628652250120078 1
gene  1 14 15 -0.7543459806554614 0 853.0 -0.7543459806554614 1
gene  1 15 15 -0.2152388565972827 1 854.0 -0.2152388565972827 1
gene  1 18 15 -0.6984526960046781 1 857.0 -0.6984526960046781 1
gene  1 19 15 0.40488219156721217 1 858.0 0.40488219156721217 1
gene  1 20 15 0.345446303006239 1 859.0 0.345446303006239 1
gene  1 24 15 -0.17679855358676133 1 863.0 -0.17679855358676133 1
gene  1 29 15 -0.18061627430614746 1 868.0 -0.18061627430614746 1
gene  1 31 15 0.3175912325623077 1 870.0 0.3175912325623077 1
gene  1 32 15 -0.48266711736626455 1 871.0 -0.48266711736626455 1
gene  1 33 15 -0.4672500168192587 1 872.0 -0.4672500168192587 1
gene  1 35 15 -0.38482733664024527 1 874.0 -0.38482733664024527 1
gene  1 36 15 0.3558767181444955 1 875.0 0.3558767181444955 1
gene  1 51 15 0.4115407663900075 1 890.0 0.4115407663900075 1
gene  1 56 15 -0.8108846814531431 1 895.0 -0.8108846814531431 1
gene  1 1 16 0.14659581970249802 0 900.0 0.14659581970249802 1
gene  1 2 16 0.31434590192563294 0 901.0 0.31434590192563294 1
gene  1 4 16 0.09840836951643639 0 903.0 0.09840836951643639 1
gene  1 5 16 0.7935265378528644 0 904.0 0.7935265378528644 1
gene  1 8 16 -0.9789560613449658 0 907.0 -0.9789560613449658 1
gene  1 9 16 -0.37020642262971193 0 908.0 -0.37020642262971193 1
gene  1 12 16 0.23125160875568462 0 911.0 0.23125160875568462 1
gene  1 15 16 -0.9961526357788542 0 914.0 -0.9961526357788542 1
gene  1 18 16 -0.9069966279502953 1 917.0 -0.9069966279502953 1
gene  1 19 16 -0.5545514158213954 1 918.0 -0.5545514158213954 1
gene  1 20 16 -0.7728576104450305 1 919.0 -0.7728576104450305 1
gene  1 21 16 0.04870894451819041 1 920.0 0.04870894451819041 1
gene  1 22 16 0.8901920967985668 1 921.0 0.8901920967985668 1
gene  1 23 16 0.5114353896923366 1 922.0 0.5114353896923366 1
gene  1 24 16 0.5329433386094654 1 923.0 0.5329433386094654 1
gene  1 27 16 -0.12779583515938409 1 926.0 -0.12779583515938409 1
gene  1 29 16 0.9894890215903959 1 928.0 0.9894890215903959 1
gene  1 30 16 0.0035293052101634803 1 929.0 0.0035293052101634803 1
gene  1 31 16 0.6971991873605339 1 930.0 0.6971991873605339 1
gene  1 34 16 -0.8151211961475058 1 933.0 -0.8151211961475058 1
gene  1 35 16 -0.4570820628442491 1 934.0 -0.4570820628442491 1
gene  1 37 16 -0.8471465071794018 1 936.0 -0.8471465071794018 1
gene  1 51 16 -0.8621310479316976 1 950.0 -0.8621310479316976 1
gene  1 52 16 0.8296607975196815 1 951.0 0.8296607975196815 1
gene  1 53 16 0.345689290207313 1 952.0 0.345689290207313 1
gene  1 56 16 -0.6386949398565152 1 955.0 -0.6386949398565152 1
gene  1 60 16 -0.3252831694337194 1 959.0 -0.3252831694337194 1
gene  1 1 17 0.4306806342438263 0 960.0 0.4306806342438263 1
gene  1 3 17 0.8995302070779222 0 962.0 0.8995302070779222 1
gene  1 4 17 0.37167554201668607 0 963.0 0.37167554201668607 1
gene  1 5 17 0.23047909587364623 0 964.0 0.23047909587364623 1
gene  1 7 17 -0.04338706600993547 0 966.0 -0.04338706600993547 1
gene  1 10 17 -0.48413137444801024 0 969.0 -0.48413137444801024 1
gene  1 11 17 0.362625596314039 0 970.0 0.362625596314039 1
gene  1 12 17 0.5860728947382394 0 971.0 0.5860728947382394 1
gene  1 13 17 -0.2130824610518719 0 972.0 -0.2130824610518719 1
gene  1 16 17 -0.7039201618411925 0 975.0 -0.7039201618411925 1
gene  1 17 17 0.5021875489544783 1 976.0 0.5021875489544783 1
gene  1 18 17 0.18917485238855092 1 977.0 0.18917485238855092 1
gene  1 19 17 0.4732916570283131 1 978.0 0.4732916570283131 1
gene  1 20 17 -0.4470697241242696 1 979.0 -0.4470697241242696 1
gene  1 22 17 -0.8419338124752167 1 981.0 -0.8419338124752167 1
gene  1 23 17 0.48810295367425205 1 982.0 0.48810295367425205 1
gene  1 24 17 0.29123942534178326 1 983.0 0.29123942534178326 1
gene  1 25 17 -0.17236501240878443 1 984.0 -0.17236501240878443 1
gene  1 26 17 0.7087341218518626 1 985.0 0.7087341218518626 1
gene  1 28 17 -0.39598207618845505 1 987.0 -0.39598207618845505 1
gene  1 30 17 -0.40002886763835654 1 989.0 -0.40002886763835654 1
gene  1 31 17 -0.8334751992508574 1 990.0 -0.8334751992508574 1
gene  1 35 17 0.6182285687313799 1 994.0 0.6182285687313799 1
gene  1 51 17 -0.8869135052486632 1 1010.0 -0.8869135052486632 1
gene  1 53 17 0.5574956149242568 1 1012.0 0.5574956149242568 1
gene  1 55 17 0.42682675520746427 1 1014.0 0.42682675520746427 1
gene  1 56 17 0.12115625068354696 1 1015.0 0.12115625068354696 1
gene  1 58 17 -0.8282877674945488 1 1017.0 -0.8282877674945488 1
gene  1 4 18 0.9004703445498146 0 1023.0 0.9004703445498146 1
gene  1 6 18 -0.4895314809530472 0 1025.0 -0.4895314809530472 1
gene  1 9 18 -0.6665492010443413 0 1028.0 -0.6665492010443413 1
gene  1 11 18 -0.25380933474858824 0 1030.0 -0.25380933474858824 1
gene  1 12 18 -0.45042300181211425 0 1031.0 -0.45042300181211425 1
gene  1 13 18 0.6871660767626657 0 1032.0 0.6871660767626657 1
gene  1 14 18 0.5816745976898059 0 1033.0 0.5816745976898059 1
gene  1 16 18 -0.09621317090744663 0 1035.0 -0.09621317090744663 1
gene  1 18 18 -0.12941495868707997 1 1037.0 -0.12941495868707997 1
gene  1 20 18 -0.3756346861263459 1 1039.0 -0.3756346861263459 1
gene  1 21 18 -0.2495079004117272 1 1040.0 -0.2495079004117272 1
gene  1 25 18 0.07042460843225373 1 1044.0 0.07042460843225373 1
gene  1 26 18 -0.5680478242971303 1 1045.0 -0.5680478242971303 1
gene  1 27 18 0.13925449647324017 1 1046.0 0.13925449647324017 1
gene  1 30 18 -0.5817351096372475 1 1049.0 -0.5817351096372475 1
gene  1 32 18 -0.8303679114691489 1 1051.0 -0.8303679114691489 1
gene  1 34 18 -0.5306512663247055 1 1053.0 -0.5306512663247055 1
gene  1 35 18 0.4753441229787102 1 1054.0 0.4753441229787102 1
gene  1 51 18 0.4319785555971216 1 1070.0 0.4319785555971216 1
gene  1 52 18 0.9784576228329978 1 1071.0 0.9784576228329978 1
gene  1 54 18 -0.49514374743468603 1 1073.0 -0.49514374743468603 1
gene  1 55 18 -0.17510053254926672 1 1074.0 -0.17510053254926672 1
gene  1 59 18 -0.8351547238470843 1 1078.0 -0.8351547238470843 1
gene  1 2 19 0.8580840606671463 0 1081.0 0.8580840606671463 1
gene  1 4 19 -0.6505600904522535 0 1083.0 -0.6505600904522535 1
gene  1 7 19 -0.4369275331427277 0 1086.0 -0.4369275331427277 1
gene  1 10 19 -0.9815210614777535 0 1089.0 -0.9815210614777535 1
gene  1 12 19 -0.03757218008677432 0 1091.0 -0.03757218008677432 1
gene  1 14 19 0.705766771069366 0 1093.0 0.705766771069366 1
gene  1 15 19 -0.22151189078567401 0 1094.0 -0.22151189078567401 1
gene  1 16 19 -0.8968384007924355 0 1095.0 -0.8968384007924355 1
gene  1 17 19 0.8399742934466847 0 1096.0 0.8399742934466847 1
gene  1 18 19 0.6268583124296803 0 1097.0 0.6268583124296803 1
gene  1 21 19 -0.932089561098255 1 1100.0 -0.932089561098255 1
gene  1 22 19 -0.5838319231051249 1 1101.0 -0.5838319231051249 1
gene  1 23 19 0.38684537919445516 1 1102.0 0.38684537919445516 1
gene  1 24 19 -0.9734970163008428 1 1103.0 -0.9734970163008428 1
gene  1 25 19 -0.7771368147913446 1 1104.0 -0.7771368147913446 1
gene  1 26 19 0.23731534720757486 1 1105.0 0.23731534720757486 1
gene  1 27 19 0.21541682157503983 1 1106.0 0.21541682157503983 1
gene  1 30 19 0.41824957418488473 1 1109.0 0.41824957418488473 1
gene  1 34 19 -0.4791670367530394 1 1113.0 -0.4791670367530394 1
gene  1 35 19 0.3503635289382061 1 1114.0 0.3503635289382061 1
gene  1 36 19 -0.2662740316953277 1 1115.0 -0.2662740316953277 1
gene  1 37 19 -0.3868907044608142 1 1116.0 -0.3868907044608142 1
gene  1 51 19 -0.649796693617164 1 1130.0 -0.649796693617164 1
gene  1 53 19 -0.5280686188539572 1 1132.0 -0.5280686188539572 1
gene  1 55 19 0.7010768950408605 1 1134.0 0.7010768950408605 1
gene  1 56 19 -0.42766087100118977 1 1135.0 -0.42766087100118977 1
gene  1 57 19 0.7095208744396991 1 1136.0 0.7095208744396991 1
gene  1 60 19 0.4868558754969473 1 1139.0 0.4868558754969473 1
gene  1 3 20 0.734735332293361 0 1142.0 0.734735332293361 1
gene  1 4 20 0.8264351404049882 0 1143.0 0.8264351404049882 1
gene  1 8 20 -0.7268438052172972 0 1147.0 -0.7268438052172972 1
gene  1 12 20 0.581109324629267 0 1151.0 0.581109324629267 1
gene  1 17 20 0.2008329741765984 0 1156.0 0.2008329741765984 1
gene  1 18 20 -0.35240916809401746 0 1157.0 -0.35240916809401746 1
gene  1 20 20 -0.7560484795292179 1 1159.0 -0.7560484795292179 1
gene  1 23 20 -0.7268762320295359 1 1162.0 -0.7268762320295359 1
gene  1 25 20 -0.5194295159619213 1 1164.0 -0.5194295159619213 1
gene  1 32 20 -0.6118386105856226 1 1171.0 -0.6118386105856226 1
gene  1 33 20 -0.9208470640980569 1 1172.0 -0.9208470640980569 1
gene  1 35 20 -0.41847247133685395 1 1174.0 -0.41847247133685395 1
gene  1 36 20 0.8184831047001875 1 1175.0 0.8184831047001875 1
gene  1 51 20 -0.869054804840321 1 1190.0 -0.869054804840321 1
gene  1 53 20 -0.6116872061996023 1 1192.0 -0.6116872061996023 1
gene  1 54 20 0.713563969469173 1 1193.0 0.713563969469173 1
gene  1 55 20 -0.24921550144956628 1 1194.0 -0.24921550144956628 1
gene  1 58 20 -0.9747758804657156 1 1197.0 -0.9747758804657156 1
gene  1 60 20 0.2112299052528721 1 1199.0 0.2112299052528721 1
gene  1 1 21 0.32328908628712816 0 1200.0 0.32328908628712816 1
gene  1 4 21 0.7163654832320911 0 1203.0 0.7163654832320911 1
gene  1 5 21 0.12886420624153683 0 1204.0 0.12886420624153683 1
gene  1 7 21 -0.9434735006340971 0 1206.0 -0.9434735006340971 1
gene  1 8 21 0.9356287681147621 0 1207.0 0.9356287681147621 1
gene  1 10 21 -0.8603833922974232 0 1209.0 -0.8603833922974232 1
gene  1 12 21 0.052249215127164406 0 1211.0 0.052249215127164406 1
gene  1 19 21 0.9495542487597823 0 1218.0 0.9495542487597823 1
gene  1 22 21 0.4438146543697773 1 1221.0 0.4438146543697773 1
gene  1 23 21 0.8335339402419563 1 1222.0 0.8335339402419563 1
gene  1 24 21 -0.0017168497681220307 1 1223.0 -0.0017168497681220307 1
gene  1 26 21 0.9541685571198184 1 1225.0 0.9541685571198184 1
gene  1 30 21 -0.09025260025576498 1 1229.0 -0.09025260025576498 1
gene  1 32 21 0.2182900910504878 1 1231.0 0.2182900910504878 1
gene  1 35 21 0.229514149080699 1 1234.0 0.229514149080699 1
gene  1 36 21 0.8119650556014187 1 1235.0 0.8119650556014187 1
gene  1 37 21 0.5852715329608734 1 1236.0 0.5852715329608734 1
gene  1 51 21 -0.9663879949196118 1 1250.0 -0.9663879949196118 1
gene  1 52 21 -0.5619566019237525 1 1251.0 -0.5619566019237525 1
gene  1 53 21 0.4586561978089223 1 1252.0 0.4586561978089223 1
gene  1 55 21 -0.8558973202236073 1 1254.0 -0.8558973202236073 1
gene  1 59 21 -0.9719174916031429 1 1258.0 -0.9719174916031429 1
gene  1 60 21 -0.8890575532238809 1 1259.0 -0.8890575532238809 1
gene  1 3 22 -0.9668801281648638 0 1262.0 -0.9668801281648638 1
gene  1 6 22 0.23158868968696722 0 1265.0 0.23158868968696722 1
gene  1 9 22 -0.4226643331426537 0 1268.0 -0.4226643331426537 1
gene  1 10 22 -0.45910137466297163 0 1269.0 -0.45910137466297163 1
gene  1 13 22 0.38626409313331256 0 1272.0 0.38626409313331256 1
gene  1 15 22 0.012120623509018102 0 1274.0 0.012120623509018102 1
gene  1 18 22 0.350795347854159 0 1277.0 0.350795347854159 1
gene  1 20 22 0.9434056751320725 0 1279.0 0.9434056751320725 1
gene  1 22 22 -0.17933012453654307 1 1281.0 -0.17933012453654307 1
gene  1 26 22 0.5900993166296383 1 1285.0 0.5900993166296383 1
gene  1 27 22 -0.386454379910818 1 1286.0 -0.386454379910818 1
gene  1 28 22 0.5594884661683247 1 1287.0 0.5594884661683247 1
gene  1 29 22 0.432854728280475 1 1288.0 0.432854728280475 1
gene  1 30 22 -0.6413559279211626 1 1289.0 -0.6413559279211626 1
gene  1 31 22 -0.024863883029211165 1 1290.0 -0.024863883029211165 1
gene  1 35 22 0.9445778593017987 1 1294.0 0.9445778593017987 1
gene  1 36 22 -0.6954241398172825 1 1295.0 -0.6954241398172825 1
gene  1 37 22 0.5469831513271216 1 1296.0 0.5469831513271216 1
gene  1 51 22 -0.27742072370790327 1 1310.0 -0.27742072370790327 1
gene  1 52 22 0.581848193517139 1 1311.0 0.581848193517139 1
gene  1 53 22 0.5679779897655185 1 1312.0 0.5679779897655185 1
gene  1 55 22 0.7892118980308808 1 1314.0 0.7892118980308808 1
gene  1 57 22 -0.2777336686945193 1 1316.0 -0.2777336686945193 1
gene  1 59 22 0.07179141619476659 1 1318.0 0.07179141619476659 1
gene  1 60 22 -0.8412368390587776 1 1319.0 -0.8412368390587776 1
gene  1 2 23 -0.8597168422051085 0 1321.0 -0.8597168422051085 1
gene  1 5 23 0.7516428316829049 0 1324.0 0.7516428316829049 1
gene  1 6 23 -0.38046120490968194 0 1325.0 -0.38046120490968194 1
gene  1 7 23 -0.5525721499148656 0 1326.0 -0.5525721499148656 1
gene  1 9 23 -0.44519994573156885 0 1328.0 -0.44519994573156885 1
gene  1 11 23 0.5924335769357657 0 1330.0 0.5924335769357657 1
gene  1 15 23 0.9015617419310296 0 1334.0 0.9015617419310296 1
gene  1 16 23 0.32998241064073974 0 1335.0 0.32998241064073974 1
gene  1 18 23 0.6950223742419946 0 1337.0 0.6950223742419946 1
gene  1 24 23 -0.5745300097318392 1 1343.0 -0.5745300097318392 1
gene  1 25 23 0.05397003416800705 1 1344.0 0.05397003416800705 1
gene  1 26 23 -0.5416461541495897 1 1345.0 -0.5416461541495897 1
gene  1 29 23 -0.03489927996997233 1 1348.0 -0.03489927996997233 1
gene  1 31 23 0.3161200840865648 1 1350.0 0.3161200840865648 1
gene  1 32 23 -0.5606313655127906 1 1351.0 -0.5606313655127906 1
gene  1 33 23 -0.29966243517096447 1 1352.0 -0.29966243517096447 1
gene  1 34 23 -0.7467801664249765 1 1353.0 -0.7467801664249765 1
gene  1 35 23 0.39799813240569804 1 1354.0 0.39799813240569804 1
gene  1 37 23 -0.17607870881162435 1 1356.0 -0.17607870881162435 1
gene  1 54 23 0.2340701731645366 1 1373.0 0.2340701731645366 1
gene  1 55 23 -0.7874202439464271 1 1374.0 -0.7874202439464271 1
gene  1 56 23 -0.35635408675450353 1 1375.0 -0.35635408675450353 1
gene  1 57 23 0.6521999121542726 1 1376.0 0.6521999121542726 1
gene  1 59 23 -0.10044360496771099 1 1378.0 -0.10044360496771099 1
gene  1 1 24 0.6381000254871165 0 1380.0 0.6381000254871165 1
gene  1 2 24 0.4946134926497654 0 1381.0 0.4946134926497654 1
gene  1 3 24 0.15628870421839114 0 1382.0 0.15628870421839114 1
gene  1 4 24 0.8880480782100157 0 1383.0 0.8880480782100157 1
gene  1 6 24 0.3586289455516187 0 1385.0 0.3586289455516187 1
gene  1 7 24 0.8664344720938854 0 1386.0 0.8664344720938854 1
gene  1 11 24 -0.22971676146160291 0 1390.0 -0.22971676146160291 1
gene  1 12 24 -0.8168425516012544 0 1391.0 -0.8168425516012544 1
gene  1 13 24 -0.12521922859582568 0 1392.0 -0.12521922859582568 1
gene  1 14 24 0.7406657769738387 0 1393.0 0.7406657769738387 1
gene  1 16 24 -0.0444835514543247 0 1395.0 -0.0444835514543247 1
gene  1 18 24 -0.8460397663012117 0 1397.0 -0.8460397663012117 1
gene  1 19 24 -0.9509471872100981 0 1398.0 -0.9509471872100981 1
gene  1 23 24 0.6009099212315128 0 1402.0 0.6009099212315128 1
gene  1 26 24 0.07003679544307728 1 1405.0 0.07003679544307728 1
gene  1 27 24 -0.44436492482386847 1 1406.0 -0.44436492482386847 1
gene  1 30 24 0.7781246972526973 1 1409.0 0.7781246972526973 1
gene  1 32 24 -0.5981395583202043 1 1411.0 -0.5981395583202043 1
gene  1 34 24 -0.9925883725369136 1 1413.0 -0.9925883725369136 1
gene  1 36 24 0.006847067015410713 1 1415.0 0.006847067015410713 1
gene  1 37 24 -0.8746435208021691 1 1416.0 -0.8746435208021691 1
gene  1 52 24 -0.06477381422072825 1 1431.0 -0.06477381422072825 1
gene  1 53 24 0.5690289660819493 1 1432.0 0.5690289660819493 1
gene  1 54 24 -0.5435661632488071 1 1433.0 -0.5435661632488071 1
gene  1 55 24 0.31377123903002446 1 1434.0 0.31377123903002446 1
gene  1 57 24 0.5223116196770144 1 1436.0 0.5223116196770144 1
gene  1 58 24 -0.07969472789803722 1 1437.0 -0.07969472789803722 1
gene  1 59 24 -0.9452722025249468 1 1438.0 -0.9452722025249468 1
gene  1 60 24 0.04338284885405863 1 1439.0 0.04338284885405863 1
gene  1 1 25 0.7409797246297155 0 1440.0 0.7409797246297155 1
gene  1 5 25 0.7477662137734995 0 1444.0 0.7477662137734995 1
gene  1 6 25 0.06657192653515709 0 1445.0 0.06657192653515709 1
gene  1 9 25 0.602495939660011 0 1448.0 0.602495939660011 1
gene  1 10 25 0.11720904191399106 0 1449.0 0.11720904191399106 1
gene  1 15 25 -0.29395511861157364 0 1454.0 -0.29395511861157364 1
gene  1 22 25 0.11120298409623697 0 1461.0 0.11120298409623697 1
gene  1 23 25 0.28840320080872106 0 1462.0 0.28840320080872106 1
gene  1 24 25 -0.5607975422173073 0 1463.0 -0.5607975422173073 1
gene  1 25 25 -0.11621444528640523 1 1464.0 -0.11621444528640523 1
gene  1 26 25 0.8919163096490945 1 1465.0 0.8919163096490945 1
gene  1 33 25 -0.5567041143511477 1 1472.0 -0.5567041143511477 1
gene  1 34 25 0.4754212332671057 1 1473.0 0.4754212332671057 1
gene  1 36 25 -0.1452159014947879 1 1475.0 -0.1452159014947879 1
gene  1 51 25 -0.7401743349798245 1 1490.0 -0.7401743349798245 1
gene  1 52 25 0.611040548526538 1 1491.0 0.611040548526538 1
gene  1 54 25 -0.38016357757828834 1 1493.0 -0.38016357757828834 1
gene  1 57 25 -0.4938775052298119 1 1496.0 -0.4938775052298119 1
gene  1 2 26 -0.413126119433322 0 1501.0 -0.413126119433322 1
gene  1 3 26 0.6431296467121622 0 1502.0 0.6431296467121622 1
gene  1 4 26 -0.4717665595611029 0 1503.0 -0.4717665595611029 1
gene  1 5 26 -0.6567709669817975 0 1504.0 -0.6567709669817975 1
gene  1 6 26 0.7764010333997511 0 1505.0 0.7764010333997511 1
gene  1 9 26 -0.5724232401179687 0 1508.0 -0.5724232401179687 1
gene  1 12 26 -0.5425602950110789 0 1511.0 -0.5425602950110789 1
gene  1 13 26 -0.3331439161583244 0 1512.0 -0.3331439161583244 1
gene  1 14 26 0.3048004072833137 0 1513.0 0.3048004072833137 1
gene  1 19 26 -0.6359485098410252 0 1518.0 -0.6359485098410252 1
gene  1 21 26 0.3320719818135285 0 1520.0 0.3320719818135285 1
gene  1 22 26 -0.35278277291674354 0 1521.0 -0.35278277291674354 1
gene  1 24 26 0.24697184472864198 0 1523.0 0.24697184472864198 1
gene  1 25 26 -0.9420100593308923 0 1524.0 -0.9420100593308923 1
gene  1 27 26 -0.6450945859293267 1 1526.0 -0.6450945859293267 1
gene  1 31 26 -0.6311201558691936 1 1530.0 -0.6311201558691936 1
gene  1 32 26 -0.3370038989284647 1 1531.0 -0.3370038989284647 1
gene  1 33 26 0.4477514442925292 1 1532.0 0.4477514442925292 1
gene  1 34 26 -0.5688321809159718 1 1533.0 -0.5688321809159718 1
gene  1 35 26 0.3198317303854622 1 1534.0 0.3198317303854622 1
gene  1 36 26 0.132340473808778 1 1535.0 0.132340473808778 1
gene  1 52 26 0.4932466615391755 1 1551.0 0.4932466615391755 1
gene  1 56 26 0.3793257381497337 1 1555.0 0.3793257381497337 1
gene  1 57 26 0.1495248033717892 1 1556.0 0.1495248033717892 1
gene  1 58 26 -0.8246139084793895 1 1557.0 -0.8246139084793895 1
gene  1 2 27 -0.43885740505815984 0 1561.0 -0.43885740505815984 1
gene  1 4 27 -0.3647723919864172 0 1563.0 -0.3647723919864172 1
gene  1 6 27 -0.4767183083045351 0 1565.0 -0.4767183083045351 1
gene  1 7 27 -0.8534442700688748 0 1566.0 -0.8534442700688748 1
gene  1 8 27 0.4449675347660388 0 1567.0 0.4449675347660388 1
gene  1 9 27 -0.7920281287480881 0 1568.0 -0.7920281287480881 1
gene  1 13 27 -0.38975616969502647 0 1572.0 -0.38975616969502647 1
gene  1 14 27 -0.9828306828668779 0 1573.0 -0.9828306828668779 1
gene  1 15 27 -0.5126771053584972 0 1574.0 -0.5126771053584972 1
gene  1 16 27 -0.6933467029402284 0 1575.0 -0.6933467029402284 1
gene  1 17 27 -0.8360569757037236 0 1576.0 -0.8360569757037236 1
gene  1 18 27 0.03972682314950149 0 1577.0 0.03972682314950149 1
gene  1 20 27 -0.5012711535508517 0 1579.0 -0.5012711535508517 1
gene  1 21 27 0.5034547740414022 0 1580.0 0.5034547740414022 1
gene  1 22 27 -0.5915357928585807 0 1581.0 -0.5915357928585807 1
gene  1 23 27 -0.11338077535410973 0 1582.0 -0.11338077535410973 1
gene  1 27 27 0.555811681141907 1 1586.0 0.555811681141907 1
gene  1 29 27 -0.8919619061153112 1 1588.0 -0.8919619061153112 1
gene  1 33 27 0.7843647161757159 1 1592.0 0.7843647161757159 1
gene  1 34 27 0.2550355249893639 1 1593.0 0.2550355249893639 1
gene  1 35 27 0.740448881662016 1 1594.0 0.740448881662016 1
gene  1 36 27 -0.3318027661372097 1 1595.0 -0.3318027661372097 1
gene  1 37 27 0.9385688847710767 1 1596.0 0.9385688847710767 1
gene  1 51 27 -0.1680140940153796 1 1610.0 -0.1680140940153796 1
gene  1 53 27 -0.3762982314418408 1 1612.0 -0.3762982314418408 1
gene  1 54 27 0.0492243700724051 1 1613.0 0.0492243700724051 1
gene  1 55 27 0.2442610861628588 1 1614.0 0.2442610861628588 1
gene  1 56 27 -0.8398115742747474 1 1615.0 -0.8398115742747474 1
gene  1 57 27 0.7451484596837568 1 1616.0 0.7451484596837568 1
gene  1 5 28 0.40246245847949946 0 1624.0 0.40246245847949946 1
gene  1 6 28 0.16345193184676887 0 1625.0 0.16345193184676887 1
gene  1 7 28 0.826715149942059 0 1626.0 0.826715149942059 1
gene  1 8 28 -0.23189090680247848 0 1627.0 -0.23189090680247848 1
gene  1 9 28 -0.4317651620787374 0 1628.0 -0.4317651620787374 1
gene  1 13 28 -0.01306082804024078 0 1632.0 -0.01306082804024078 1
gene  1 16 28 0.9781835735889773 0 1635.0 0.9781835735889773 1
gene  1 17 28 -0.35130517491857816 0 1636.0 -0.35130517491857816 1
gene  1 18 28 0.16926654309968325 0 1637.0 0.16926654309968325 1
gene  1 20 28 -0.846596723716707 0 1639.0 -0.846596723716707 1
gene  1 21 28 0.7876196031049794 0 1640.0 0.7876196031049794 1
gene  1 24 28 -0.32249244167020674 0 1643.0 -0.32249244167020674 1
gene  1 30 28 -0.2592070982956681 1 1649.0 -0.2592070982956681 1
gene  1 31 28 -0.5964540840532356 1 1650.0 -0.5964540840532356 1
gene  1 32 28 -0.5175229428950454 1 1651.0 -0.5175229428950454 1
gene  1 33 28 -0.2224755206524479 1 1652.0 -0.2224755206524479 1
gene  1 36 28 -0.8423371231010616 1 1655.0 -0.8423371231010616 1
gene  1 37 28 -0.9002292794637785 1 1656.0 -0.9002292794637785 1
gene  1 55 28 -0.49394718977199903 1 1674.0 -0.49394718977199903 1
gene  1 57 28 -0.2468275851466465 1 1676.0 -0.2468275851466465 1
gene  1 60 28 -0.4375943080554433 1 1679.0 -0.4375943080554433 1
gene  1 1 29 0.4741335115928277 0 1680.0 0.4741335115928277 1
gene  1 4 29 -0.9557131843235301 0 1683.0 -0.9557131843235301 1
gene  1 5 29 -0.129058937097436 0 1684.0 -0.129058937097436 1
gene  1 6 29 -0.5032621909520865 0 1685.0 -0.5032621909520865 1
gene  1 9 29 0.018560877188043 0 1688.0 0.018560877188043 1
gene  1 10 29 -0.020332780748902324 0 1689.0 -0.020332780748902324 1
gene  1 11 29 -0.39317667349950636 0 1690.0 -0.39317667349950636 1
gene  1 12 29 -0.3821134745783993 0 1691.0 -0.3821134745783993 1
gene  1 13 29 -0.9461410607647533 0 1692.0 -0.9461410607647533 1
gene  1 14 29 -0.3678314834794303 0 1693.0 -0.3678314834794303 1
gene  1 15 29 0.32849573966322076 0 1694.0 0.32849573966322076 1
gene  1 16 29 0.6932152518561934 0 1695.0 0.6932152518561934 1
gene  1 17 29 0.2590178327000141 0 1696.0 0.2590178327000141 1
gene  1 18 29 0.30675742768461733 0 1697.0 0.30675742768461733 1
gene  1 20 29 -0.547463981481665 0 1699.0 -0.547463981481665 1
gene  1 25 29 -0.7991933258293217 0 1704.0 -0.7991933258293217 1
gene  1 29 29 -0.5143722259145053 1 1708.0 -0.5143722259145053 1
gene  1 30 29 -0.8691354532539565 1 1709.0 -0.8691354532539565 1
gene  1 32 29 0.802880094742889 1 1711.0 0.802880094742889 1
gene  1 33 29 -0.4832653126701387 1 1712.0 -0.4832653126701387 1
gene  1 37 29 0.39695553524511007 1 1716.0 0.39695553524511007 1
gene  1 53 29 0.3628515950195468 1 1732.0 0.3628515950195468 1
gene  1 54 29 0.6592220838630276 1 1733.0 0.6592220838630276 1
gene  1 60 29 -0.2560767307597326 1 1739.0 -0.2560767307597326 1
gene  1 1 30 -0.15308869213435117 0 1740.0 -0.15308869213435117 1
gene  1 2 30 0.5051942791627838 0 1741.0 0.5051942791627838 1
gene  1 5 30 0.31452917718524886 0 1744.0 0.31452917718524886 1
gene  1 11 30 0.978506333843801 0 1750.0 0.978506333843801 1
gene  1 12 30 -0.2675712923416427 0 1751.0 -0.2675712923416427 1
gene  1 13 30 -0.46866313924235126 0 1752.0 -0.46866313924235126 1
gene  1 20 30 -0.706930059918765 0 1759.0 -0.706930059918765 1
gene  1 22 30 -0.5427179675363276 0 1761.0 -0.5427179675363276 1
gene  1 28 30 0.8154549377712722 0 1767.0 0.8154549377712722 1
gene  1 29 30 -0.22269761038008573 0 1768.0 -0.22269761038008573 1
gene  1 31 30 -0.28790033762391454 1 1770.0 -0.28790033762391454 1
gene  1 32 30 -0.8687691952391122 1 1771.0 -0.8687691952391122 1
gene  1 33 30 -0.9737695832534748 1 1772.0 -0.9737695832534748 1
gene  1 35 30 0.7700527763395278 1 1774.0 0.7700527763395278 1
gene  1 36 30 0.9489497584241047 1 1775.0 0.9489497584241047 1
gene  1 37 30 0.22636503041008882 1 1776.0 0.22636503041008882 1
gene  1 51 30 0.11002808078570014 1 1790.0 0.11002808078570014 1
gene  1 54 30 -0.8059216686415476 1 1793.0 -0.8059216686415476 1
gene  1 55 30 0.41785073851676147 1 1794.0 0.41785073851676147 1
gene  1 56 30 0.01856093511742596 1 1795.0 0.01856093511742596 1
gene  1 58 30 -0.5975226842412614 1 1797.0 -0.5975226842412614 1
gene  1 1 31 -0.007700458127023024 0 1800.0 -0.007700458127023024 1
gene  1 3 31 0.5347614030495813 0 1802.0 0.5347614030495813 1
gene  1 5 31 0.41344500387394656 0 1804.0 0.41344500387394656 1
gene  1 6 31 -0.26179475431133425 0 1805.0 -0.26179475431133425 1
gene  1 7 31 -0.3640273421253979 0 1806.0 -0.3640273421253979 1
gene  1 8 31 -0.6395845214091053 0 1807.0 -0.6395845214091053 1
gene  1 9 31 0.18750970209181672 0 1808.0 0.18750970209181672 1
gene  1 11 31 -0.9048081909558964 0 1810.0 -0.9048081909558964 1
gene  1 12 31 0.4282756939219665 0 1811.0 0.4282756939219665 1
gene  1 14 31 -0.4834255462748016 0 1813.0 -0.4834255462748016 1
gene  1 16 31 -0.56637823048591 0 1815.0 -0.56637823048591 1
gene  1 19 31 -0.2467621575875153 0 1818.0 -0.2467621575875153 1
gene  1 20 31 0.12330977641035357 0 1819.0 0.12330977641035357 1
gene  1 22 31 0.6747346314418438 0 1821.0 0.6747346314418438 1
gene  1 24 31 0.7899761149588017 0 1823.0 0.7899761149588017 1
gene  1 25 31 0.48049437818330787 0 1824.0 0.48049437818330787 1
gene  1 26 31 0.20464608795444061 0 1825.0 0.20464608795444061 1
gene  1 28 31 0.41217584368254356 0 1827.0 0.41217584368254356 1
gene  1 29 31 -0.2747047537399654 0 1828.0 -0.2747047537399654 1
gene  1 31 31 -0.3572754986994242 1 1830.0 -0.3572754986994242 1
gene  1 33 31 -0.9162149279902737 1 1832.0 -0.9162149279902737 1
gene  1 36 31 -0.7908780411331965 1 1835.0 -0.7908780411331965 1
gene  1 51 31 0.13862461141300508 1 1850.0 0.13862461141300508 1
gene  1 52 31 -0.7695834572316773 1 1851.0 -0.7695834572316773 1
gene  1 53 31 -0.9390677728657563 1 1852.0 -0.9390677728657563 1
gene  1 54 31 -0.11777305640409363 1 1853.0 -0.11777305640409363 1
gene  1 55 31 -0.15041450846270288 1 1854.0 -0.15041450846270288 1
gene  1 56 31 0.41714671254724967 1 1855.0 0.41714671254724967 1
gene  1 57 31 0.8653833085103027 1 1856.0 0.8653833085103027 1
gene  1 58 31 -0.6783841945626038 1 1857.0 -0.6783841945626038 1
gene  1 60 31 -0.8716317943014029 1 1859.0 -0.8716317943014029 1
gene  1 1 32 0.6350113632507464 0 1860.0 0.6350113632507464 1
gene  1 5 32 0.039122343451119646 0 1864.0 0.039122343451119646 1
gene  1 7 32 -0.17672748174691322 0 1866.0 -0.17672748174691322 1
gene  1 8 32 0.5066303474519435 0 1867.0 0.5066303474519435 1
gene  1 9 32 -0.4213452636147046 0 1868.0 -0.4213452636147046 1
gene  1 10 32 -0.3361771189653121 0 1869.0 -0.3361771189653121 1
gene  1 11 32 0.4588487489113475 0 1870.0 0.4588487489113475 1
gene  1 12 32 0.2368404138086655 0 1871.0 0.2368404138086655 1
gene  1 13 32 0.2697425764321256 0 1872.0 0.2697425764321256 1
gene  1 15 32 -0.9407350675043189 0 1874.0 -0.9407350675043189 1
gene  1 16 32 0.13772354305993584 0 1875.0 0.13772354305993584 1
gene  1 17 32 -0.18680084540223874 0 1876.0 -0.18680084540223874 1
gene  1 18 32 -0.5244136523450578 0 1877.0 -0.5244136523450578 1
gene  1 19 32 0.2750914852606653 0 1878.0 0.2750914852606653 1
gene  1 21 32 0.7934656641749328 0 1880.0 0.7934656641749328 1
gene  1 23 32 -0.5985517771185127 0 1882.0 -0.5985517771185127 1
gene  1 25 32 -0.6221864933132437 0 1884.0 -0.6221864933132437 1
gene  1 28 32 0.30592915335544335 0 1887.0 0.30592915335544335 1
gene  1 30 32 0.6305569271102087 0 1889.0 0.6305569271102087 1
gene  1 31 32 -0.8383178201740062 0 1890.0 -0.8383178201740062 1
gene  1 32 32 -0.04493666833965926 1 1891.0 -0.04493666833965926 1
gene  1 33 32 -0.5641465549111272 1 1892.0 -0.5641465549111272 1
gene  1 51 32 -0.8575423954139859 1 1910.0 -0.8575423954139859 1
gene  1 52 32 0.9437809872731083 1 1911.0 0.9437809872731083 1
gene  1 53 32 0.9090022194232384 1 1912.0 0.9090022194232384 1
gene  1 54 32 -0.44504172954094123 1 1913.0 -0.44504172954094123 1
gene  1 55 32 0.8106210830293529 1 1914.0 0.8106210830293529 1
gene  1 57 32 -0.0699810015071779 1 1916.0 -0.0699810015071779 1
gene  1 58 32 -0.49030536856027307 1 1917.0 -0.49030536856027307 1
gene  1 59 32 -0.002801878618540199 1 1918.0 -0.002801878618540199 1
gene  1 60 32 -0.588964823810409 1 1919.0 -0.588964823810409 1
gene  1 1 33 -0.2946832187225923 0 1920.0 -0.2946832187225923 1
gene  1 4 33 -0.29814634547652785 0 1923.0 -0.29814634547652785 1
gene  1 6 33 0.3039468995494473 0 1925.0 0.3039468995494473 1
gene  1 8 33 0.9964564637684405 0 1927.0 0.9964564637684405 1
gene  1 9 33 0.2969904504494568 0 1928.0 0.2969904504494568 1
gene  1 12 33 -0.5366824743868628 0 1931.0 -0.5366824743868628 1
gene  1 13 33 0.9791304622316844 0 1932.0 0.9791304622316844 1
gene  1 14 33 0.10376989288689487 0 1933.0 0.10376989288689487 1
gene  1 16 33 0.7824913939203143 0 1935.0 0.7824913939203143 1
gene  1 18 33 -0.44755831793033674 0 1937.0 -0.44755831793033674 1
gene  1 19 33 0.4164021579325552 0 1938.0 0.4164021579325552 1
gene  1 20 33 -0.14010249466725522 0 1939.0 -0.14010249466725522 1
gene  1 23 33 -0.6601547436509683 0 1942.0 -0.6601547436509683 1
gene  1 27 33 -0.42348886594935276 0 1946.0 -0.42348886594935276 1
gene  1 29 33 0.8109347946702461 0 1948.0 0.8109347946702461 1
gene  1 31 33 0.5010849925538655 0 1950.0 0.5010849925538655 1
gene  1 32 33 0.7056884429561558 0 1951.0 0.7056884429561558 1
gene  1 35 33 0.281166814895077 1 1954.0 0.281166814895077 1
gene  1 51 33 0.24995394085038491 1 1970.0 0.24995394085038491 1
gene  1 52 33 0.8959689687043199 1 1971.0 0.8959689687043199 1
gene  1 53 33 0.20776125420131097 1 1972.0 0.20776125420131097 1
gene  1 60 33 0.3398953971497428 1 1979.0 0.3398953971497428 1
gene  1 1 34 0.1251821980795902 0 1980.0 0.1251821980795902 1
gene  1 4 34 -0.45254590822057383 0 1983.0 -0.45254590822057383 1
gene  1 5 34 -0.18127092583980797 0 1984.0 -0.18127092583980797 1
gene  1 8 34 0.17393934181873405 0 1987.0 0.17393934181873405 1
gene  1 9 34 0.3709096361102805 0 1988.0 0.3709096361102805 1
gene  1 11 34 -0.5236698429045729 0 1990.0 -0.5236698429045729 1
gene  1 12 34 0.5490620880961564 0 1991.0 0.5490620880961564 1
gene  1 15 34 0.09271834856301886 0 1994.0 0.09271834856301886 1
gene  1 17 34 -0.5005830508553694 0 1996.0 -0.5005830508553694 1
gene  1 18 34 0.9879053335120724 0 1997.0 0.9879053335120724 1
gene  1 19 34 0.0028424328343571448 0 1998.0 0.0028424328343571448 1
gene  1 21 34 0.6014866343024176 0 2000.0 0.6014866343024176 1
gene  1 30 34 -0.8197021818781965 0 2009.0 -0.8197021818781965 1
gene  1 31 34 -0.6737391542129915 0 2010.0 -0.6737391542129915 1
gene  1 32 34 0.42758751848582977 0 2011.0 0.42758751848582977 1
gene  1 34 34 0.6507806865678377 1 2013.0 0.6507806865678377 1
gene  1 36 34 -0.9233296729930361 1 2015.0 -0.9233296729930361 1
gene  1 37 34 0.7488966293681395 1 2016.0 0.7488966293681395 1
gene  1 51 34 0.04290889041268242 1 2030.0 0.04290889041268242 1
gene  1 52 34 -0.2872724143673605 1 2031.0 -0.2872724143673605 1
gene  1 53 34 0.02254504233291532 1 2032.0 0.02254504233291532 1
gene  1 57 34 0.26237521103440986 1 2036.0 0.26237521103440986 1
gene  1 58 34 -0.12050639984534728 1 2037.0 -0.12050639984534728 1
gene  1 2 35 0.06021526323883719 0 2041.0 0.06021526323883719 1
gene  1 4 35 -0.39995995979059606 0 2043.0 -0.39995995979059606 1
gene  1 5 35 0.6875182291156998 0 2044.0 0.6875182291156998 1
gene  1 6 35 -0.9791303809072289 0 2045.0 -0.9791303809072289 1
gene  1 7 35 0.9517680385187232 0 2046.0 0.9517680385187232 1
gene  1 8 35 -0.468594885605327 0 2047.0 -0.468594885605327 1
gene  1 12 35 -0.142336123452646 0 2051.0 -0.142336123452646 1
gene  1 15 35 -0.2470107861722558 0 2054.0 -0.2470107861722558 1
gene  1 16 35 -0.7183506942722752 0 2055.0 -0.7183506942722752 1
gene  1 17 35 -0.33400419585107144 0 2056.0 -0.33400419585107144 1
gene  1 18 35 0.7327562955721809 0 2057.0 0.7327562955721809 1
gene  1 21 35 -0.2854169420730748 0 2060.0 -0.2854169420730748 1
gene  1 23 35 -0.9329307351490358 0 2062.0 -0.9329307351490358 1
gene  1 26 35 -0.25390958032272437 0 2065.0 -0.25390958032272437 1
gene  1 28 35 -0.12183566546319691 0 2067.0 -0.12183566546319691 1
gene  1 32 35 -0.4642099106722738 0 2071.0 -0.4642099106722738 1
gene  1 34 35 0.08073414807967505 0 2073.0 0.08073414807967505 1
gene  1 37 35 -0.0045198701053504875 1 2076.0 -0.0045198701053504875 1
gene  1 54 35 0.34136435445272195 1 2093.0 0.34136435445272195 1
gene  1 55 35 0.30863845253842714 1 2094.0 0.30863845253842714 1
gene  1 56 35 0.20617312736844573 1 2095.0 0.20617312736844573 1
gene  1 57 35 0.4343102315660482 1 2096.0 0.4343102315660482 1
gene  1 58 35 0.07176578566782277 1 2097.0 0.07176578566782277 1
gene  1 2 36 0.6432763919006635 0 2101.0 0.6432763919006635 1
gene  1 3 36 -0.5565094712107516 0 2102.0 -0.5565094712107516 1
gene  1 4 36 -0.684813542078906 0 2103.0 -0.684813542078906 1
gene  1 7 36 0.08367053586551232 0 2106.0 0.08367053586551232 1
gene  1 8 36 0.8503518755338106 0 2107.0 0.8503518755338106 1
gene  1 9 36 -0.6845309775714778 0 2108.0 -0.6845309775714778 1
gene  1 10 36 0.9388250787268105 0 2109.0 0.9388250787268105 1
gene  1 11 36 0.39379781855406315 0 2110.0 0.39379781855406315 1
gene  1 16 36 0.4515955047277952 0 2115.0 0.4515955047277952 1
gene  1 19 36 -0.6217834717187941 0 2118.0 -0.6217834717187941 1
gene  1 22 36 -0.6085948733684947 0 2121.0 -0.6085948733684947 1
gene  1 23 36 -0.49448418786484805 0 2122.0 -0.49448418786484805 1
gene  1 28 36 0.9903317683888132 0 2127.0 0.9903317683888132 1
gene  1 29 36 0.1260246927822517 0 2128.0 0.1260246927822517 1
gene  1 30 36 0.5737144532532786 0 2129.0 0.5737144532532786 1
gene  1 32 36 -0.9978919941828868 0 2131.0 -0.9978919941828868 1
gene  1 36 36 -0.8184259828428715 1 2135.0 -0.8184259828428715 1
gene  1 37 36 -0.048776754778769416 1 2136.0 -0.048776754778769416 1
gene  1 51 36 -0.12850307956256068 1 2150.0 -0.12850307956256068 1
gene  1 52 36 0.3420258008324354 1 2151.0 0.3420258008324354 1
gene  1 55 36 0.9248223670865535 1 2154.0 0.9248223670865535 1
gene  1 57 36 0.5152497639920923 1 2156.0 0.5152497639920923 1
gene  1 59 36 0.3941458438063177 1 2158.0 0.3941458438063177 1
gene  1 2 37 -0.15747028082785408 0 2161.0 -0.15747028082785408 1
gene  1 3 37 0.5320886094397651 0 2162.0 0.5320886094397651 1
gene  1 4 37 -0.6104698929384059 0 2163.0 -0.6104698929384059 1
gene  1 5 37 0.018391125997856528 0 2164.0 0.018391125997856528 1
gene  1 7 37 0.23440491038010858 0 2166.0 0.23440491038010858 1
gene  1 8 37 -0.34731346710688105 0 2167.0 -0.34731346710688105 1
gene  1 17 37 0.4200202050770273 0 2176.0 0.4200202050770273 1
gene  1 19 37 -0.43640821314225187 0 2178.0 -0.43640821314225187 1
gene  1 21 37 0.17398515477916643 0 2180.0 0.17398515477916643 1
gene  1 26 37 0.20595710226658648 0 2185.0 0.20595710226658648 1
gene  1 33 37 0.6761198290406675 0 2192.0 0.6761198290406675 1
gene  1 34 37 0.9459485520388922 0 2193.0 0.9459485520388922 1
gene  1 35 37 0.0935233418773842 0 2194.0 0.0935233418773842 1
gene  1 37 37 0.37327361624807887 1 2196.0 0.37327361624807887 1
gene  1 51 37 0.5514274756786957 1 2210.0 0.5514274756786957 1
gene  1 52 37 -0.4881256362484959 1 2211.0 -0.4881256362484959 1
gene  1 53 37 0.6898429680647622 1 2212.0 0.6898429680647622 1
gene  1 56 37 0.05853280963359064 1 2215.0 0.05853280963359064 1
gene  1 59 37 -0.7624348954744485 1 2218.0 -0.7624348954744485 1
gene  1 60 37 0.6861890881358372 1 2219.0 0.6861890881358372 1
gene  1 2 51 -0.48038124694866446 0 3001.0 -0.48038124694866446 1
gene  1 6 51 -0.20265842983126714 0 3005.0 -0.20265842983126714 1
gene  1 8 51 0.576967865749257 0 3007.0 0.576967865749257 1
gene  1 9 51 0.227250026517282 0 3008.0 0.227250026517282 1
gene  1 10 51 0.7396169365852387 0 3009.0 0.7396169365852387 1
gene  1 11 51 -0.37964338118643415 0 3010.0 -0.37964338118643415 1
gene  1 13 51 -0.34836199866901185 0 3012.0 -0.34836199866901185 1
gene  1 22 51 -0.659024421475533 0 3021.0 -0.659024421475533 1
gene  1 23 51 -0.053616613205632935 0 3022.0 -0.053616613205632935 1
gene  1 24 51 0.6251435755286837 0 3023.0 0.6251435755286837 1
gene  1 28 51 0.15142858248560398 0 3027.0 0.15142858248560398 1
gene  1 30 51 -0.682683480832394 0 3029.0 -0.682683480832394 1
gene  1 32 51 -0.22421206866205623 0 3031.0 -0.22421206866205623 1
gene  1 33 51 0.20031292573487713 0 3032.0 0.20031292573487713 1
gene  1 34 51 0.09835224992615188 0 3033.0 0.09835224992615188 1
gene  1 36 51 -0.8555909272171911 0 3035.0 -0.8555909272171911 1
gene  1 37 51 -0.5847089849881324 0 3036.0 -0.5847089849881324 1
gene  1 53 51 -0.10291537104516135 1 3052.0 -0.10291537104516135 1
gene  1 55 51 -0.13901341432495729 1 3054.0 -0.13901341432495729 1
gene  1 56 51 -0.560200623508978 1 3055.0 -0.560200623508978 1
gene  1 58 51 -0.43112004916068547 1 3057.0 -0.43112004916068547 1
gene  1 59 51 -0.548108946715471 1 3058.0 -0.548108946715471 1
gene  1 1 52 0.0696365103631702 0 3060.0 0.0696365103631702 1
gene  1 7 52 -0.16819137665735473 0 3066.0 -0.16819137665735473 1
gene  1 8 52 -0.9386307221262946 0 3067.0 -0.9386307221262946 1
gene  1 10 52 0.5144844747251961 0 3069.0 0.5144844747251961 1
gene  1 12 52 0.10272704008988442 0 3071.0 0.10272704008988442 1
gene  1 13 52 0.536912334328626 0 3072.0 0.536912334328626 1
gene  1 14 52 0.5061292419101063 0 3073.0 0.5061292419101063 1
gene  1 15 52 -0.7527794645536202 0 3074.0 -0.7527794645536202 1
gene  1 18 52 0.5034556077804405 0 3077.0 0.5034556077804405 1
gene  1 19 52 -0.557659082738421 0 3078.0 -0.557659082738421 1
gene  1 22 52 -0.2578301627897487 0 3081.0 -0.2578301627897487 1
gene  1 25 52 0.7103711977628188 0 3084.0 0.7103711977628188 1
gene  1 26 52 -0.3333262017207016 0 3085.0 -0.3333262017207016 1
gene  1 31 52 0.15583166563738404 0 3090.0 0.15583166563738404 1
gene  1 32 52 0.40783154653945175 0 3091.0 0.40783154653945175 1
gene  1 36 52 -0.568751240601342 0 3095.0 -0.568751240601342 1
gene  1 52 52 0.418354640023895 1 3111.0 0.418354640023895 1
gene  1 55 52 0.3796469169445773 1 3114.0 0.3796469169445773 1
gene  1 57 52 -0.26028282523403146 1 3116.0 -0.26028282523403146 1
gene  1 58 52 -0.8176434392733 1 3117.0 -0.8176434392733 1
gene  1 59 52 0.9801854553694619 1 3118.0 0.9801854553694619 1
gene  1 60 52 -0.4491739999890111 1 3119.0 -0.4491739999890111 1
gene  1 2 53 -0.8459938003881254 0 3121.0 -0.8459938003881254 1
gene  1 3 53 -0.4015680270491496 0 3122.0 -0.4015680270491496 1
gene  1 9 53 -0.4355642845889687 0 3128.0 -0.4355642845889687 1
gene  1 10 53 0.547789694440301 0 3129.0 0.547789694440301 1
gene  1 11 53 -0.07894832801553697 0 3130.0 -0.07894832801553697 1
gene  1 12 53 0.7351714235443779 0 3131.0 0.7351714235443779 1
gene  1 15 53 -0.23021367214432986 0 3134.0 -0.23021367214432986 1
gene  1 17 53 0.8848429074340702 0 3136.0 0.8848429074340702 1
gene  1 18 53 -0.018338778375324716 0 3137.0 -0.018338778375324716 1
gene  1 19 53 -0.6646055510868755 0 3138.0 -0.6646055510868755 1
gene  1 21 53 0.07215663788370952 0 3140.0 0.07215663788370952 1
gene  1 23 53 0.03688256626506636 0 3142.0 0.03688256626506636 1
gene  1 24 53 -0.43032213333260694 0 3143.0 -0.43032213333260694 1
gene  1 26 53 0.4850960208203494 0 3145.0 0.4850960208203494 1
gene  1 29 53 -0.9584970371544542 0 3148.0 -0.9584970371544542 1
gene  1 30 53 -0.6651243512594384 0 3149.0 -0.6651243512594384 1
gene  1 33 53 0.6175069016272419 0 3152.0 0.6175069016272419 1
gene  1 35 53 -0.25040751452006094 0 3154.0 -0.25040751452006094 1
gene  1 36 53 -0.13707654475841646 0 3155.0 -0.13707654475841646 1
gene  1 37 53 -0.5231647190496164 0 3156.0 -0.5231647190496164 1
gene  1 53 53 -0.10387298549767454 1 3172.0 -0.10387298549767454 1
gene  1 54 53 0.028390144438416587 1 3173.0 0.028390144438416587 1
gene  1 57 53 -0.845632907550914 1 3176.0 -0.845632907550914 1
gene  1 60 53 -0.8099313460985254 1 3179.0 -0.8099313460985254 1
gene  1 3 54 -0.5809463669992778 0 3182.0 -0.5809463669992778 1
gene  1 4 54 -0.27774522061128215 0 3183.0 -0.27774522061128215 1
gene  1 5 54 0.8583143765297885 0 3184.0 0.8583143765297885 1
gene  1 6 54 -0.7214917082623289 0 3185.0 -0.7214917082623289 1
gene  1 8 54 -0.8120083257991555 0 3187.0 -0.8120083257991555 1
gene  1 11 54 -0.8135260893761028 0 3190.0 -0.8135260893761028 1
gene  1 13 54 0.6217586231514988 0 3192.0 0.6217586231514988 1
gene  1 15 54 -0.8290123648304629 0 3194.0 -0.8290123648304629 1
gene  1 19 54 -0.4012061967685173 0 3198.0 -0.4012061967685173 1
gene  1 20 54 -0.67101073997008 0 3199.0 -0.67101073997008 1
gene  1 21 54 -0.9563988547737753 0 3200.0 -0.9563988547737753 1
gene  1 23 54 0.21062623662595403 0 3202.0 0.21062623662595403 1
gene  1 24 54 0.33181161221847866 0 3203.0 0.33181161221847866 1
gene  1 27 54 0.7071434453048329 0 3206.0 0.7071434453048329 1
gene  1 33 54 0.8560675049646423 0 3212.0 0.8560675049646423 1
gene  1 34 54 -0.12835618899155365 0 3213.0 -0.12835618899155365 1
gene  1 35 54 0.5025831740690034 0 3214.0 0.5025831740690034 1
gene  1 37 54 -0.7428113614829681 0 3216.0 -0.7428113614829681 1
gene  1 51 54 0.060054446173193776 0 3230.0 0.060054446173193776 1
gene  1 52 54 -0.23807148590304017 0 3231.0 -0.23807148590304017 1
gene  1 53 54 0.6051470149005557 0 3232.0 0.6051470149005557 1
gene  1 54 54 0.05424635968796354 1 3233.0 0.05424635968796354 1
gene  1 55 54 -0.5631440461416001 1 3234.0 -0.5631440461416001 1
gene  1 56 54 -0.6055970182084034 1 3235.0 -0.6055970182084034 1
gene  1 57 54 -0.22229980490133328 1 3236.0 -0.22229980490133328 1
gene  1 59 54 0.7836415617655786 1 3238.0 0.7836415617655786 1
gene  1 1 55 0.6342798883240301 0 3240.0 0.6342798883240301 1
gene  1 2 55 0.16481707713343952 0 3241.0 0.16481707713343952 1
gene  1 5 55 -0.04282835123162765 0 3244.0 -0.04282835123162765 1
gene  1 8 55 -0.4328403024110298 0 3247.0 -0.4328403024110298 1
gene  1 10 55 -0.8437393720047662 0 3249.0 -0.8437393720047662 1
gene  1 12 55 -0.1675433830867008 0 3251.0 -0.1675433830867008 1
gene  1 15 55 -0.31036798579766867 0 3254.0 -0.31036798579766867 1
gene  1 17 55 0.7142654981477502 0 3256.0 0.7142654981477502 1
gene  1 18 55 -0.9592703111331591 0 3257.0 -0.9592703111331591 1
gene  1 19 55 0.848062898026643 0 3258.0 0.848062898026643 1
gene  1 20 55 0.7014011725194915 0 3259.0 0.7014011725194915 1
gene  1 22 55 -0.20405277023016044 0 3261.0 -0.20405277023016044 1
gene  1 23 55 -0.8176462569111337 0 3262.0 -0.8176462569111337 1
gene  1 27 55 -0.15002527624996886 0 3266.0 -0.15002527624996886 1
gene  1 33 55 0.5820182768765988 0 3272.0 0.5820182768765988 1
gene  1 53 55 -0.1269517663560783 0 3292.0 -0.1269517663560783 1
gene  1 54 55 -0.6605180854260917 0 3293.0 -0.6605180854260917 1
gene  1 59 55 -0.36643114162338364 1 3298.0 -0.36643114162338364 1
gene  1 60 55 0.26768776985361964 1 3299.0 0.26768776985361964 1
gene  1 2 56 0.21366396413490096 0 3301.0 0.21366396413490096 1
gene  1 3 56 0.24012349485943807 0 3302.0 0.24012349485943807 1
gene  1 7 56 -0.8360733946213839 0 3306.0 -0.8360733946213839 1
gene  1 10 56 0.420052604770736 0 3309.0 0.420052604770736 1
gene  1 11 56 0.530959348163092 0 3310.0 0.530959348163092 1
gene  1 12 56 -0.8460924581547968 0 3311.0 -0.8460924581547968 1
gene  1 13 56 -0.06737248398678963 0 3312.0 -0.06737248398678963 1
gene  1 14 56 0.8965971374498489 0 3313.0 0.8965971374498489 1
gene  1 16 56 -0.9746067713866194 0 3315.0 -0.9746067713866194 1
gene  1 19 56 0.42085692312415157 0 3318.0 0.42085692312415157 1
gene  1 20 56 0.4530156912297584 0 3319.0 0.4530156912297584 1
gene  1 21 56 -0.23170358864355445 0 3320.0 -0.23170358864355445 1
gene  1 26 56 0.3256818842286826 0 3325.0 0.3256818842286826 1
gene  1 28 56 -0.056511616071612036 0 3327.0 -0.056511616071612036 1
gene  1 29 56 0.9604174368890256 0 3328.0 0.9604174368890256 1
gene  1 30 56 0.9018028758424692 0 3329.0 0.9018028758424692 1
gene  1 33 56 0.3523785536704285 0 3332.0 0.3523785536704285 1
gene  1 37 56 0.385734705252037 0 3336.0 0.385734705252037 1
gene  1 51 56 -0.1823960799262957 0 3350.0 -0.1823960799262957 1
gene  1 52 56 0.7155612039977527 0 3351.0 0.7155612039977527 1
gene  1 55 56 0.9516150487434377 0 3354.0 0.9516150487434377 1
gene  1 56 56 0.9757852026829865 1 3355.0 0.9757852026829865 1
gene  1 57 56 0.9926194829980061 1 3356.0 0.9926194829980061 1
gene  1 58 56 0.09674406356496412 1 3357.0 0.09674406356496412 1
gene  1 1 57 -0.18643922550469572 0 3360.0 -0.18643922550469572 1
gene  1 2 57 -0.6367526741042645 0 3361.0 -0.6367526741042645 1
gene  1 3 57 -0.8386905205086993 0 3362.0 -0.8386905205086993 1
gene  1 4 57 0.8888534479250155 0 3363.0 0.8888534479250155 1
gene  1 6 57 0.8148194564404191 0 3365.0 0.8148194564404191 1
gene  1 11 57 -0.18911914071060543 0 3370.0 -0.18911914071060543 1
gene  1 12 57 -0.7239814289463335 0 3371.0 -0.7239814289463335 1
gene  1 15 57 0.2250055757269689 0 3374.0 0.2250055757269689 1
gene  1 17 57 0.41055376381068087 0 3376.0 0.41055376381068087 1
gene  1 19 57 -0.3741552531524527 0 3378.0 -0.3741552531524527 1
gene  1 21 57 -0.9636164027299841 0 3380.0 -0.9636164027299841 1
gene  1 22 57 0.263844474745757 0 3381.0 0.263844474745757 1
gene  1 25 57 0.9448098845250731 0 3384.0 0.9448098845250731 1
gene  1 28 57 -0.20343880803933656 0 3387.0 -0.20343880803933656 1
gene  1 30 57 -0.37085240322973256 0 3389.0 -0.37085240322973256 1
gene  1 31 57 0.4044853748643088 0 3390.0 0.4044853748643088 1
gene  1 32 57 -0.08366953581526249 0 3391.0 -0.08366953581526249 1
gene  1 33 57 0.6474561072372186 0 3392.0 0.6474561072372186 1
gene  1 37 57 0.14240084911986217 0 3396.0 0.14240084911986217 1
gene  1 53 57 0.34434012564318384 0 3412.0 0.34434012564318384 1
gene  1 54 57 -0.928808615524468 0 3413.0 -0.928808615524468 1
gene  1 55 57 0.47130056827379374 0 3414.0 0.47130056827379374 1
gene  1 58 57 0.10422753303637478 1 3417.0 0.10422753303637478 1
gene  1 11 58 0.8388589254657086 0 3430.0 0.8388589254657086 1
gene  1 13 58 -0.31030185871280214 0 3432.0 -0.31030185871280214 1
gene  1 14 58 0.5982717572925063 0 3433.0 0.5982717572925063 1
gene  1 18 58 0.3766946228503397 0 3437.0 0.3766946228503397 1
gene  1 22 58 0.7392676249668836 0 3441.0 0.7392676249668836 1
gene  1 23 58 -0.4670592182963603 0 3442.0 -0.4670592182963603 1
gene  1 26 58 0.2769259189011043 0 3445.0 0.2769259189011043 1
gene  1 27 58 -0.8775783582698992 0 3446.0 -0.8775783582698992 1
gene  1 29 58 -0.22270121436199897 0 3448.0 -0.22270121436199897 1
gene  1 31 58 0.315534012370133 0 3450.0 0.315534012370133 1
gene  1 35 58 -0.7479408675234726 0 3454.0 -0.7479408675234726 1
gene  1 36 58 0.34588788211003996 0 3455.0 0.34588788211003996 1
gene  1 37 58 -0.6600222076695793 0 3456.0 -0.6600222076695793 1
gene  1 53 58 0.9144046247741262 0 3472.0 0.9144046247741262 1
gene  1 54 58 0.05500624130050247 0 3473.0 0.05500624130050247 1
gene  1 58 58 -0.9152864572619237 1 3477.0 -0.9152864572619237 1
gene  1 59 58 0.2832294842590509 1 3478.0 0.2832294842590509 1
gene  1 1 59 -0.9446207393388697 0 3480.0 -0.9446207393388697 1
gene  1 3 59 -0.16669040729320483 0 3482.0 -0.16669040729320483 1
gene  1 6 59 0.35440479352627896 0 3485.0 0.35440479352627896 1
gene  1 11 59 -0.38175072261391163 0 3490.0 -0.38175072261391163 1
gene  1 14 59 -0.412591032141265 0 3493.0 -0.412591032141265 1
gene  1 17 59 -0.018590762863289534 0 3496.0 -0.018590762863289534 1
gene  1 19 59 -0.3179492773635434 0 3498.0 -0.3179492773635434 1
gene  1 21 59 0.7619805049767762 0 3500.0 0.7619805049767762 1
gene  1 22 59 0.5808169504312783 0 3501.0 0.5808169504312783 1
gene  1 24 59 -0.3386492810703424 0 3503.0 -0.3386492810703424 1
gene  1 26 59 0.6971244990727582 0 3505.0 0.6971244990727582 1
gene  1 30 59 -0.4059682324420604 0 3509.0 -0.4059682324420604 1
gene  1 32 59 0.6757672471510648 0 3511.0 0.6757672471510648 1
gene  1 33 59 0.8717834583013833 0 3512.0 0.8717834583013833 1
gene  1 34 59 0.03477110579511211 0 3513.0 0.03477110579511211 1
gene  1 36 59 -0.8438386076031916 0 3515.0 -0.8438386076031916 1
gene  1 51 59 -0.9174365349685702 0 3530.0 -0.9174365349685702 1
gene  1 53 59 0.6082992055298463 0 3532.0 0.6082992055298463 1
gene  1 56 59 -0.07839536366470967 0 3535.0 -0.07839536366470967 1
gene  1 58 59 -0.5628803139964682 0 3537.0 -0.5628803139964682 1
gene  1 3 60 -0.16840654815182254 0 3542.0 -0.16840654815182254 1
gene  1 4 60 -0.8761400991310475 0 3543.0 -0.8761400991310475 1
gene  1 5 60 -0.7159486227201094 0 3544.0 -0.7159486227201094 1
gene  1 7 60 -0.5886813039130434 0 3546.0 -0.5886813039130434 1
gene  1 8 60 -0.18127833260526927 0 3547.0 -0.18127833260526927 1
gene  1 12 60 0.2589912356548304 0 3551.0 0.2589912356548304 1
gene  1 14 60 0.5921809286150983 0 3553.0 0.5921809286150983 1
gene  1 15 60 0.13651088569396908 0 3554.0 0.13651088569396908 1
gene  1 19 60 0.3103866250746321 0 3558.0 0.3103866250746321 1
gene  1 20 60 0.6265689789896262 0 3559.0 0.6265689789896262 1
gene  1 22 60 0.6894050046379497 0 3561.0 0.6894050046379497 1
gene  1 23 60 0.3125117429181462 0 3562.0 0.3125117429181462 1
gene  1 25 60 0.28443985745718525 0 3564.0 0.28443985745718525 1
gene  1 28 60 -0.5329458319700267 0 3567.0 -0.5329458319700267 1
gene  1 29 60 0.6116955061892284 0 3568.0 0.6116955061892284 1
gene  1 31 60 0.284210833823373 0 3570.0 0.284210833823373 1
gene  1 33 60 -0.4582198518697239 0 3572.0 -0.4582198518697239 1
gene  1 35 60 0.5732045841904709 0 3574.0 0.5732045841904709 1
gene  1 36 60 0.5064222509083601 0 3575.0 0.5064222509083601 1
gene  1 37 60 0.10029843377105363 0 3576.0 0.10029843377105363 1
gene  1 52 60 0.9801717866195995 0 3591.0 0.9801717866195995 1
gene  1 54 60 -0.2546932734344435 0 3593.0 -0.2546932734344435 1
gene  1 55 60 -0.7464577038714281 0 3594.0 -0.7464577038714281 1
gene  1 59 60 0.554350546475013 0 3598.0 0.554350546475013 1
gene  1 60 60 -0.744435356074246 1 3599.0 -0.744435356074246 1
genomeend 2
