genomestart  1
trait 1 0.0 0.0 0.0 0.0 0.0 0.0 0.0 0.0 
node 1 1 1 1
node 2 1 1 1
node 3 1 1 1
node 4 1 1 1
node 5 1 1 1
node 6 1 1 1
node 7 1 1 1
node 8 1 1 1
node 9 1 1 1
node 10 1 1 3
node 11 1 0 0
node 12 1 0 0
node 13 1 0 0
node 14 1 0 0
node 15 1 0 0
node 16 1 0 0
node 17 1 0 0
node 18 1 0 0
node 19 1 0 0
node 20 1 0 0
node 21 1 0 0
node 22 1 0 0
node 23 1 0 0
node 24 1 0 0
node 25 1 0 0
node 26 1 0 0
node 27 1 0 0
node 28 1 0 0
node 29 1 0 0
node 30 1 0 0
node 31 1 0 0
node 32 1 0 0
node 33 1 0 0
node 34 1 0 0
node 35 1 0 0
node 36 1 0 0
node 37 1 0 0
node 38 1 0 0
node 39 1 0 0
node 40 1 0 0
node 41 1 0 0
node 42 1 0 0
node 43 1 0 0
node 44 1 0 0
node 45 1 0 0
node 46 1 0 0
node 47 1 0 0
node 51 1 0 2
node 52 1 0 2
node 53 1 0 2
node 54 1 0 2
node 55 1 0 2
node 56 1 0 2
node 57 1 0 2
node 58 1 0 2
node 59 1 0 2
node 60 1 0 2
gene  1 1 11 -0.28176871913048673 0 600.0 -0.28176871913048673 1
gene  1 3 11 0.13152183639174608 0 602.0 0.13152183639174608 1
gene  1 6 11 -0.22395238114727245 0 605.0 -0.22395238114727245 1
gene  1 7 11 -0.8568694520911937 0 606.0 -0.8568694520911937 1
gene  1 8 11 0.7726277587839779 0 607.0 0.7726277587839779 1
gene  1 9 11 0.3068409744904008 0 608.0 0.3068409744904008 1
gene  1 13 11 0.32525183456897544 1 612.0 0.32525183456897544 1
gene  1 17 11 -0.08595010811021941 1 616.0 -0.08595010811021941 1
gene  1 25 11 0.2639719712581172 1 624.0 0.2639719712581172 1
gene  1 26 11 0.34876224847101467 1 625.0 0.34876224847101467 1
gene  1 27 11 -0.9177290192512283 1 626.0 -0.9177290192512283 1
gene  1 28 11 -0.8863927441025142 1 627.0 -0.8863927441025142 1
gene  1 29 11 -0.4339633676439403 1 628.0 -0.4339633676439403 1
gene  1 31 11 0.12158607264893062 1 630.0 0.12158607264893062 1
gene  1 33 11 -0.37541039805082144 1 632.0 -0.37541039805082144 1
gene  1 36 11 0.12852958856827723 1 635.0 0.12852958856827723 1
gene  1 37 11 -0.7952812971889104 1 636.0 -0.7952812971889104 1
gene  1 38 11 0.021260952920920673 1 637.0 0.021260952920920673 1
gene  1 39 11 0.6843151504202832 1 638.0 0.6843151504202832 1
gene  1 41 11 -0.3223124795678255 1 640.0 -0.3223124795678255 1
gene  1 42 11 0.5803113988461837 1 641.0 0.5803113988461837 1
gene  1 45 11 0.07917409904572237 1 644.0 0.07917409904572237 1
gene  1 46 11 -0.014251071982676833 1 645.0 -0.014251071982676833 1
gene  1 47 11 -0.7541034323188436 1 646.0 -0.7541034323188436 1
gene  1 51 11 -0.9515913543298697 1 650.0 -0.9515913543298697 1
gene  1 54 11 0.7230611540600705 1 653.0 0.7230611540600705 1
gene  1 57 11 0.6256586286512817 1 656.0 0.6256586286512817 1
gene  1 58 11 -0.7991748607830653 1 657.0 -0.7991748607830653 1
gene  1 60 11 0.8964937359532698 1 659.0 0.8964937359532698 1
gene  1 2 12 -0.44164446499376864 0 661.0 -0.44164446499376864 1
gene  1 4 12 -0.592295207857566 0 663.0 -0.592295207857566 1
gene  1 5 12 0.034727904267888854 0 664.0 0.034727904267888854 1
gene  1 7 12 0.48503004594071264 0 666.0 0.48503004594071264 1
gene  1 10 12 -0.5218236857160483 0 669.0 -0.5218236857160483 1
gene  1 11 12 -0.27653527704031844 0 670.0 -0.27653527704031844 1
gene  1 15 12 0.17429757177993044 1 674.0 0.17429757177993044 1
gene  1 18 12 0.11059721928456123 1 677.0 0.11059721928456123 1
gene  1 23 12 -0.2938787936651964 1 682.0 -0.2938787936651964 1
gene  1 24 12 0.9778138755333193 1 683.0 0.9778138755333193 1
gene  1 25 12 -0.7045251317929105 1 684.0 -0.7045251317929105 1
gene  1 27 12 0.4550282227764635 1 686.0 0.4550282227764635 1
gene  1 30 12 0.21342907249648047 1 689.0 0.21342907249648047 1
gene  1 32 12 -0.7692742624849757 1 691.0 -0.7692742624849757 1
gene  1 34 12 -0.4538536050920712 1 693.0 -0.4538536050920712 1
gene  1 36 12 -0.6403961706516481 1 695.0 -0.6403961706516481 1
gene  1 38 12 -0.45792517892914364 1 697.0 -0.45792517892914364 1
gene  1 39 12 -0.31037309602147034 1 698.0 -0.31037309602147034 1
gene  1 42 12 0.3560310502232875 1 701.0 0.3560310502232875 1
gene  1 45 12 -0.8789790817116572 1 704.0 -0.8789790817116572 1
gene  1 56 12 0.14621069400672704 1 715.0 0.14621069400672704 1
gene  1 58 12 -0.67581036719723 1 717.0 -0.67581036719723 1
gene  1 59 12 -0.007553236464860502 1 718.0 -0.007553236464860502 1
gene  1 4 13 -0.7973131050164571 0 723.0 -0.7973131050164571 1
gene  1 5 13 -0.47502683198999607 0 724.0 -0.47502683198999607 1
gene  1 6 13 0.7598160083171377 0 725.0 0.7598160083171377 1
gene  1 7 13 0.5473797628331653 0 726.0 0.5473797628331653 1
gene  1 10 13 -0.9874172559969491 0 729.0 -0.9874172559969491 1
gene  1 11 13 -0.9759750198998961 0 730.0 -0.9759750198998961 1
gene  1 12 13 0.12005083915668813 0 731.0 0.12005083915668813 1
gene  1 17 13 0.12133201002437377 1 736.0 0.12133201002437377 1
gene  1 19 13 0.5845079436018504 1 738.0 0.5845079436018504 1
gene  1 20 13 -0.24699912733618368 1 739.0 -0.24699912733618368 1
gene  1 21 13 -0.7220478900836367 1 740.0 -0.7220478900836367 1
gene  1 22 13 -0.1163139353400503 1 741.0 -0.1163139353400503 1
gene  1 23 13 -0.2516560308607342 1 742.0 -0.2516560308607342 1
gene  1 24 13 0.21737891129304254 1 743.0 0.21737891129304254 1
gene  1 28 13 -0.6724884402356762 1 747.0 -0.6724884402356762 1
gene  1 29 13 0.26655423897129993 1 748.0 0.26655423897129993 1
gene  1 30 13 -0.6930692778538542 1 749.0 -0.6930692778538542 1
gene  1 31 13 -0.6248884408276455 1 750.0 -0.6248884408276455 1
gene  1 33 13 -0.911310317954748 1 752.0 -0.911310317954748 1
gene  1 37 13 0.12298808140335193 1 756.0 0.12298808140335193 1
gene  1 38 13 -0.15357870553570485 1 757.0 -0.15357870553570485 1
gene  1 47 13 0.575398409871975 1 766.0 0.575398409871975 1
gene  1 54 13 -0.9266890650460173 1 773.0 -0.9266890650460173 1
gene  1 55 13 0.6370931391476099 1 774.0 0.6370931391476099 1
gene  1 59 13 -0.5864136838847323 1 778.0 -0.5864136838847323 1
gene  1 1 14 0.022885408315997946 0 780.0 0.022885408315997946 1
gene  1 4 14 0.8057010237061916 0 783.0 0.8057010237061916 1
gene  1 5 14 -0.3132576321090267 0 784.0 -0.3132576321090267 1
gene  1 8 14 0.6877878717420578 0 787.0 0.6877878717420578 1
gene  1 10 14 -0.7525368592269073 0 789.0 -0.7525368592269073 1
gene  1 13 14 0.5137264962729066 0 792.0 0.5137264962729066 1
gene  1 14 14 -0.5222502203321169 1 793.0 -0.5222502203321169 1
gene  1 17 14 0.567882540756261 1 796.0 0.567882540756261 1
gene  1 18 14 -0.019253697156618843 1 797.0 -0.019253697156618843 1
gene  1 23 14 -0.8685164755991343 1 802.0 -0.8685164755991343 1
gene  1 27 14 -0.8076236497753171 1 806.0 -0.8076236497753171 1
gene  1 29 14 0.8255743786022823 1 808.0 0.8255743786022823 1
gene  1 30 14 0.733084694873657 1 809.0 0.733084694873657 1
gene  1 32 14 -0.6358327700073818 1 811.0 -0.6358327700073818 1
gene  1 36 14 -0.943828275779973 1 815.0 -0.943828275779973 1
gene  1 37 14 -0.4501575660826076 1 816.0 -0.4501575660826076 1
gene  1 38 14 -0.8835751913011678 1 817.0 -0.8835751913011678 1
gene  1 40 14 -0.9025642788648925 1 819.0 -0.9025642788648925 1
gene  1 42 14 0.878229245887946 1 821.0 0.878229245887946 1
gene  1 43 14 -0.6281754535541543 1 822.0 -0.6281754535541543 1
gene  1 44 14 0.44515753342151376 1 823.0 0.44515753342151376 1
gene  1 45 14 -0.9944777588715856 1 824.0 -0.9944777588715856 1
gene  1 47 14 -0.6897733551621398 1 826.0 -0.6897733551621398 1
gene  1 52 14 -0.8875002232440621 1 831.0 -0.8875002232440621 1
gene  1 55 14 -0.04090099094582278 1 834.0 -0.04090099094582278 1
gene  1 59 14 0.797912860837112 1 838.0 0.797912860837112 1
gene  1 60 14 0.1772806846871543 1 839.0 0.1772806846871543 1
gene  1 6 15 -0.37354923549890495 0 845.0 -0.37354923549890495 1
gene  1 8 15 0.1944024231819217 0 847.0 0.1944024231819217 1
gene  1 11 15 0.25078686542230166 0 850.0 0.25078686542230166 1
gene  1 12 15 -0.4246536552534802 0 851.0 -0.4246536552534802 1
gene  1 13 15 -0.5929522675941729 0 852.0 -0.5929522675941729 1
gene  1 15 15 0.6484369061172737 1 854.0 0.6484369061172737 1
gene  1 16 15 0.8056165697444492 1 855.0 0.8056165697444492 1
gene  1 18 15 0.624992367372181 1 857.0 0.624992367372181 1
gene  1 21 15 0.9564007607635852 1 860.0 0.9564007607635852 1
gene  1 23 15 -0.3501771342935366 1 862.0 -0.3501771342935366 1
gene  1 25 15 0.8876511832204584 1 864.0 0.8876511832204584 1
gene  1 28 15 -0.9488436507766993 1 867.0 -0.9488436507766993 1
gene  1 35 15 -0.5425175772156309 1 874.0 -0.5425175772156309 1
gene  1 36 15 0.7191812413321409 1 875.0 0.7191812413321409 1
gene  1 39 15 0.31077403485678246 1 878.0 0.31077403485678246 1
gene  1 41 15 -0.35363178286916674 1 880.0 -0.35363178286916674 1
gene  1 42 15 0.9354524926912766 1 881.0 0.9354524926912766 1
gene  1 43 15 -0.4456708283089159 1 882.0 -0.4456708283089159 1
gene  1 51 15 0.5430795171198086 1 890.0 0.5430795171198086 1
gene  1 53 15 -0.9136342466636833 1 892.0 -0.9136342466636833 1
gene  1 54 15 -0.8669784460869225 1 893.0 -0.8669784460869225 1
gene  1 55 15 0.5794715808624783 1 894.0 0.5794715808624783 1
gene  1 56 15 0.887848406286815 1 895.0 0.887848406286815 1
gene  1 58 15 -0.6364667981261524 1 897.0 -0.6364667981261524 1
gene  1 59 15 0.9349601163466288 1 898.0 0.9349601163466288 1
gene  1 3 16 -0.12784862012258535 0 902.0 -0.12784862012258535 1
gene  1 4 16 0.5532872412334622 0 903.0 0.5532872412334622 1
gene  1 7 16 0.37859093968690416 0 906.0 0.37859093968690416 1
gene  1 8 16 0.4493823612356348 0 907.0 0.4493823612356348 1
gene  1 9 16 0.8936864680175447 0 908.0 0.8936864680175447 1
gene  1 10 16 0.19949812714728832 0 909.0 0.19949812714728832 1
gene  1 11 16 0.6063943870351348 0 910.0 0.6063943870351348 1
gene  1 12 16 0.6592317693557724 0 911.0 0.6592317693557724 1
gene  1 13 16 0.26126668406143627 0 912.0 0.26126668406143627 1
gene  1 15 16 -0.5817122633161701 0 914.0 -0.5817122633161701 1
gene  1 17 16 0.5203334369587618 1 916.0 0.5203334369587618 1
gene  1 18 16 -0.28236779156371683 1 917.0 -0.28236779156371683 1
gene  1 19 16 -0.029386909977572317 1 918.0 -0.029386909977572317 1
gene  1 20 16 0.04723766416682884 1 919.0 0.04723766416682884 1
gene  1 24 16 0.7887564215860878 1 923.0 0.7887564215860878 1
gene  1 26 16 0.5494177427132502 1 925.0 0.5494177427132502 1
gene  1 34 16 -0.9517188099179563 1 933.0 -0.9517188099179563 1
gene  1 37 16 0.8165933728544092 1 936.0 0.8165933728544092 1
gene  1 38 16 0.5685119806029775 1 937.0 0.5685119806029775 1
gene  1 39 16 0.39438041469189533 1 938.0 0.39438041469189533 1
gene  1 41 16 0.16997163639694712 1 940.0 0.16997163639694712 1
gene  1 45 16 0.5980670789144843 1 944.0 0.5980670789144843 1
gene  1 46 16 0.036324650545405124 1 945.0 0.036324650545405124 1
gene  1 53 16 -0.10109411698460558 1 952.0 -0.10109411698460558 1
gene  1 54 16 0.31133881941733454 1 953.0 0.31133881941733454 1
gene  1 55 16 -0.2949419604620199 1 954.0 -0.2949419604620199 1
gene  1 56 16 0.6551072653299655 1 955.0 0.6551072653299655 1
gene  1 57 16 0.6274644695824708 1 956.0 0.6274644695824708 1
gene  1 58 16 -0.3094591293424964 1 957.0 -0.3094591293424964 1
gene  1 60 16 0.4957806940262318 1 959.0 0.4957806940262318 1
gene  1 2 17 -0.3616637976469097 0 961.0 -0.3616637976469097 1
gene  1 4 17 -0.06917285120534389 0 963.0 -0.06917285120534389 1
gene  1 5 17 -0.4361978568149931 0 964.0 -0.4361978568149931 1
gene  1 7 17 -0.454683182033072 0 966.0 -0.454683182033072 1
gene  1 8 17 -0.7172816381452346 0 967.0 -0.7172816381452346 1
gene  1 10 17 0.7416959077341704 0 969.0 0.7416959077341704 1
gene  1 18 17 0.08529857944398112 1 977.0 0.08529857944398112 1
gene  1 21 17 0.2189843739526386 1 980.0 0.2189843739526386 1
gene  1 22 17 0.41305760109219014 1 981.0 0.41305760109219014 1
gene  1 27 17 0.21342779025700864 1 986.0 0.21342779025700864 1
gene  1 28 17 0.3105994957834117 1 987.0 0.3105994957834117 1
gene  1 29 17 -0.029438026377760607 1 988.0 -0.029438026377760607 1
gene  1 36 17 -0.8918622321197012 1 995.0 -0.8918622321197012 1
gene  1 37 17 -0.23245776423646658 1 996.0 -0.23245776423646658 1
gene  1 39 17 0.3201509593967826 1 998.0 0.3201509593967826 1
gene  1 40 17 -0.6699222551794102 1 999.0 -0.6699222551794102 1
gene  1 41 17 -0.9349103904968679 1 1000.0 -0.9349103904968679 1
gene  1 45 17 0.8834343437573514 1 1004.0 0.8834343437573514 1
gene  1 51 17 0.18918949921613992 1 1010.0 0.18918949921613992 1
gene  1 55 17 -0.881862952924311 1 1014.0 -0.881862952924311 1
gene  1 56 17 0.9811366979550616 1 1015.0 0.9811366979550616 1
gene  1 59 17 -0.8766400758428036 1 1018.0 -0.8766400758428036 1
gene  1 60 17 -0.15237038587465535 1 1019.0 -0.15237038587465535 1
gene  1 2 18 -0.5690331927051986 0 1021.0 -0.5690331927051986 1
gene  1 3 18 0.4920119859421158 0 1022.0 0.4920119859421158 1
gene  1 5 18 0.6059783230865403 0 1024.0 0.6059783230865403 1
gene  1 6 18 -0.43866115257007643 0 1025.0 -0.43866115257007643 1
gene  1 8 18 -0.32165919884145444 0 1027.0 -0.32165919884145444 1
gene  1 9 18 0.5549950098342639 0 1028.0 0.5549950098342639 1
gene  1 11 18 0.37248025314651967 0 1030.0 0.37248025314651967 1
gene  1 12 18 0.7374549389890904 0 1031.0 0.7374549389890904 1
gene  1 16 18 0.7897281054562119 0 1035.0 0.7897281054562119 1
gene  1 17 18 0.019281134472563854 0 1036.0 0.019281134472563854 1
gene  1 20 18 0.9209968266024586 1 1039.0 0.9209968266024586 1
gene  1 25 18 -0.8452514691925413 1 1044.0 -0.8452514691925413 1
gene  1 28 18 -0.8733092593022702 1 1047.0 -0.8733092593022702 1
gene  1 30 18 0.08355141406534417 1 1049.0 0.08355141406534417 1
gene  1 34 18 -0.5051421472923467 1 1053.0 -0.5051421472923467 1
gene  1 36 18 -0.6990256015084525 1 1055.0 -0.6990256015084525 1
gene  1 37 18 -0.2961994041878988 1 1056.0 -0.2961994041878988 1
gene  1 44 18 0.38457918337414254 1 1063.0 0.38457918337414254 1
gene  1 52 18 -0.013872790404298785 1 1071.0 -0.013872790404298785 1
gene  1 53 18 0.012387224458432766 1 1072.0 0.012387224458432766 1
gene  1 54 18 -0.3462930182397497 1 1073.0 -0.3462930182397497 1
gene  1 57 18 -0.16723314753273277 1 1076.0 -0.16723314753273277 1
gene  1 58 18 -0.05626495637185103 1 1077.0 -0.05626495637185103 1
gene  1 60 18 0.7979303886015346 1 1079.0 0.7979303886015346 1
gene  1 1 19 0.8441440974736365 0 1080.0 0.8441440974736365 1
gene  1 2 19 -0.12191194212417578 0 1081.0 -0.12191194212417578 1
gene  1 3 19 0.2124114906212562 0 1082.0 0.2124114906212562 1
gene  1 5 19 0.684754085381661 0 1084.0 0.684754085381661 1
gene  1 11 19 0.41698156311624757 0 1090.0 0.41698156311624757 1
gene  1 16 19 0.44792302484774005 0 1095.0 0.44792302484774005 1
gene  1 17 19 -0.18059620530287657 0 1096.0 -0.18059620530287657 1
gene  1 20 19 0.6718603576753432 1 1099.0 0.6718603576753432 1
gene  1 21 19 0.07010265188220954 1 1100.0 0.07010265188220954 1
gene  1 24 19 -0.805814257374093 1 1103.0 -0.805814257374093 1
gene  1 25 19 0.1560859909515041 1 1104.0 0.1560859909515041 1
gene  1 26 19 0.6407260205828128 1 1105.0 0.6407260205828128 1
gene  1 29 19 -0.756602230094316 1 1108.0 -0.756602230094316 1
gene  1 31 19 0.14509546125748252 1 1110.0 0.14509546125748252 1
gene  1 33 19 0.19645535190664054 1 1112.0 0.19645535190664054 1
gene  1 36 19 0.9754030499825012 1 1115.0 0.9754030499825012 1
gene  1 37 19 0.029685411836072095 1 1116.0 0.029685411836072095 1
gene  1 38 19 0.1949391349350139 1 1117.0 0.1949391349350139 1
gene  1 39 19 -0.40314596799799773 1 1118.0 -0.40314596799799773 1
gene  1 40 19 0.19450638754503335 1 1119.0 0.19450638754503335 1
gene  1 41 19 -0.033613180299493894 1 1120.0 -0.033613180299493894 1
gene  1 51 19 0.3649865504630848 1 1130.0 0.3649865504630848 1
gene  1 55 19 0.6791578347051431 1 1134.0 0.6791578347051431 1
gene  1 57 19 -0.8217476469284081 1 1136.0 -0.8217476469284081 1
gene  1 59 19 -0.6482796726009236 1 1138.0 -0.6482796726009236 1
gene  1 2 20 -0.27384829435475333 0 1141.0 -0.27384829435475333 1
gene  1 7 20 0.41794215596975215 0 1146.0 0.41794215596975215 1
gene  1 9 20 0.34249609333293707 0 1148.0 0.34249609333293707 1
gene  1 10 20 -0.8815216066469788 0 1149.0 -0.8815216066469788 1
gene  1 12 20 0.3786906131819603 0 1151.0 0.3786906131819603 1
gene  1 13 20 0.4076619902417581 0 1152.0 0.4076619902417581 1
gene  1 14 20 -0.09229608041790294 0 1153.0 -0.09229608041790294 1
gene  1 16 20 0.9198996955994896 0 1155.0 0.9198996955994896 1
gene  1 18 20 -0.666729453039281 0 1157.0 -0.666729453039281 1
gene  1 19 20 0.2763265633191476 0 1158.0 0.2763265633191476 1
gene  1 23 20 0.17531813059426282 1 1162.0 0.17531813059426282 1
gene  1 25 20 -0.1546248748359954 1 1164.0 -0.1546248748359954 1
gene  1 26 20 -0.956677070879419 1 1165.0 -0.956677070879419 1
gene  1 28 20 -0.09458409374659438 1 1167.0 -0.09458409374659438 1
gene  1 32 20 0.9392222100878288 1 1171.0 0.9392222100878288 1
gene  1 33 20 0.03066324599490966 1 1172.0 0.03066324599490966 1
gene  1 34 20 -0.5852406875586474 1 1173.0 -0.5852406875586474 1
gene  1 35 20 -0.04124625433852702 1 1174.0 -0.04124625433852702 1
gene  1 37 20 0.35759215405394307 1 1176.0 0.35759215405394307 1
gene  1 38 20 0.4943489586329328 1 1177.0 0.4943489586329328 1
gene  1 39 20 0.5825730415277599 1 1178.0 0.5825730415277599 1
gene  1 40 20 0.9283594888999372 1 1179.0 0.9283594888999372 1
gene  1 41 20 0.6585611879042498 1 1180.0 0.6585611879042498 1
gene  1 42 20 -0.8929478780603007 1 1181.0 -0.8929478780603007 1
gene  1 43 20 0.5049093785130054 1 1182.0 0.5049093785130054 1
gene  1 44 20 0.5936567676136776 1 1183.0 0.5936567676136776 1
gene  1 45 20 0.25196664507209543 1 1184.0 0.25196664507209543 1
gene  1 56 20 0.3978043474377866 1 1195.0 0.3978043474377866 1
gene  1 58 20 0.9481588197356667 1 1197.0 0.9481588197356667 1
gene  1 4 21 -0.7737108620300911 0 1203.0 -0.7737108620300911 1
gene  1 5 21 0.05769997920446135 0 1204.0 0.05769997920446135 1
gene  1 6 21 -0.8546008168452822 0 1205.0 -0.8546008168452822 1
gene  1 7 21 0.14049020243864696 0 1206.0 0.14049020243864696 1
gene  1 9 21 -0.7556382233767921 0 1208.0 -0.7556382233767921 1
gene  1 11 21 0.6320801198106574 0 1210.0 0.6320801198106574 1
gene  1 16 21 0.6178742313059972 0 1215.0 0.6178742313059972 1
gene  1 18 21 0.5543746619702553 0 1217.0 0.5543746619702553 1
gene  1 20 21 -0.4127173935547289 0 1219.0 -0.4127173935547289 1
gene  1 21 21 0.4811784885959379 1 1220.0 0.4811784885959379 1
gene  1 22 21 0.5946464843583557 1 1221.0 0.5946464843583557 1
gene  1 23 21 -0.010412331724475088 1 1222.0 -0.010412331724475088 1
gene  1 30 21 0.8131058781528969 1 1229.0 0.8131058781528969 1
gene  1 31 21 -0.8910372916786131 1 1230.0 -0.8910372916786131 1
gene  1 32 21 -0.8305957978814595 1 1231.0 -0.8305957978814595 1
gene  1 34 21 0.5097391962579098 1 1233.0 0.5097391962579098 1
gene  1 36 21 -0.4636609785524852 1 1235.0 -0.4636609785524852 1
gene  1 37 21 0.7925007714367484 1 1236.0 0.7925007714367484 1
gene  1 38 21 0.43275632937104846 1 1237.0 0.43275632937104846 1
gene  1 41 21 -0.94392328750784 1 1240.0 -0.94392328750784 1
gene  1 42 21 0.03476420330882912 1 1241.0 0.03476420330882912 1
gene  1 43 21 0.20764992381125824 1 1242.0 0.20764992381125824 1
gene  1 44 21 -0.08079028448193704 1 1243.0 -0.08079028448193704 1
gene  1 45 21 0.7279310779017312 1 1244.0 0.7279310779017312 1
gene  1 51 21 -0.5884592156327229 1 1250.0 -0.5884592156327229 1
gene  1 52 21 0.8371940441534861 1 1251.0 0.8371940441534861 1
gene  1 53 21 -0.46431506249259114 1 1252.0 -0.46431506249259114 1
gene  1 54 21 0.2917630341126858 1 1253.0 0.2917630341126858 1
gene  1 55 21 -0.4919612674308269 1 1254.0 -0.4919612674308269 1
gene  1 57 21 0.2821060027393122 1 1256.0 0.2821060027393122 1
gene  1 58 21 -0.5608429242139656 1 1257.0 -0.5608429242139656 1
gene  1 2 22 0.6803870379568655 0 1261.0 0.6803870379568655 1
gene  1 3 22 -0.2918771686808138 0 1262.0 -0.2918771686808138 1
gene  1 6 22 0.23364278354841284 0 1265.0 0.23364278354841284 1
gene  1 11 22 -0.08623918903661143 0 1270.0 -0.08623918903661143 1
gene  1 13 22 -0.35217873962530366 0 1272.0 -0.35217873962530366 1
gene  1 14 22 0.41085848459075447 0 1273.0 0.41085848459075447 1
gene  1 15 22 -0.9958952920548927 0 1274.0 -0.9958952920548927 1
gene  1 16 22 0.7902291985097498 0 1275.0 0.7902291985097498 1
gene  1 17 22 0.6576214876810729 0 1276.0 0.6576214876810729 1
gene  1 18 22 0.026842723227440524 0 1277.0 0.026842723227440524 1
gene  1 20 22 -0.7532638019261555 0 1279.0 -0.7532638019261555 1
gene  1 21 22 -0.6007724473812597 0 1280.0 -0.6007724473812597 1
gene  1 22 22 -0.618817097691229 1 1281.0 -0.618817097691229 1
gene  1 27 22 0.43383825080277416 1 1286.0 0.43383825080277416 1
gene  1 29 22 -0.6877331373940159 1 1288.0 -0.6877331373940159 1
gene  1 35 22 -0.24482932180953954 1 1294.0 -0.24482932180953954 1
gene  1 39 22 -0.13457357668847847 1 1298.0 -0.13457357668847847 1
gene  1 40 22 0.45007350930940626 1 1299.0 0.45007350930940626 1
gene  1 43 22 0.060377991802623265 1 1302.0 0.060377991802623265 1
gene  1 44 22 -0.6753040624525436 1 1303.0 -0.6753040624525436 1
gene  1 45 22 -0.8955072999679129 1 1304.0 -0.8955072999679129 1
gene  1 46 22 -0.5313297320078207 1 1305.0 -0.5313297320078207 1
gene  1 51 22 -0.6678885898071744 1 1310.0 -0.6678885898071744 1
gene  1 54 22 -0.9352677133875232 1 1313.0 -0.9352677133875232 1
gene  1 58 22 -0.32064034823612175 1 1317.0 -0.32064034823612175 1
gene  1 59 22 0.5208557728726462 1 1318.0 0.5208557728726462 1
gene  1 2 23 0.18467250071490893 0 1321.0 0.18467250071490893 1
gene  1 5 23 -0.4958259469518267 0 1324.0 -0.4958259469518267 1
gene  1 7 23 0.1051751868002 0 1326.0 0.1051751868002 1
gene  1 10 23 -0.8882412526653062 0 1329.0 -0.8882412526653062 1
gene  1 12 23 -0.11773683792957956 0 1331.0 -0.11773683792957956 1
gene  1 17 23 0.35246009997325467 0 1336.0 0.35246009997325467 1
gene  1 18 23 0.3041547577045606 0 1337.0 0.3041547577045606 1
gene  1 19 23 -0.7031988573409516 0 1338.0 -0.7031988573409516 1
gene  1 20 23 -0.7954369995094911 0 1339.0 -0.7954369995094911 1
gene  1 24 23 0.4799649763685937 1 1343.0 0.4799649763685937 1
gene  1 31 23 0.7461047606636073 1 1350.0 0.7461047606636073 1
gene  1 32 23 -0.8909453213988047 1 1351.0 -0.8909453213988047 1
gene  1 33 23 0.6395200969303164 1 1352.0 0.6395200969303164 1
gene  1 34 23 0.5862457844937936 1 1353.0 0.5862457844937936 1
gene  1 36 23 0.3739202439180779 1 1355.0 0.3739202439180779 1
gene  1 37 23 0.8177211240819281 1 1356.0 0.8177211240819281 1
gene  1 38 23 -0.1367965109183059 1 1357.0 -0.1367965109183059 1
gene  1 40 23 -0.4125967045058897 1 1359.0 -0.4125967045058897 1
gene  1 42 23 -0.4184901029761934 1 1361.0 -0.4184901029761934 1
gene  1 43 23 -0.3612698853791565 1 1362.0 -0.3612698853791565 1
gene  1 44 23 -0.4332151661894027 1 1363.0 -0.4332151661894027 1
gene  1 47 23 0.279428209686465 1 1366.0 0.279428209686465 1
gene  1 51 23 0.11701408188287044 1 1370.0 0.11701408188287044 1
gene  1 52 23 0.09450657933069251 1 1371.0 0.09450657933069251 1
gene  1 53 23 0.3669519527148528 1 1372.0 0.3669519527148528 1
gene  1 56 23 0.8328680447505311 1 1375.0 0.8328680447505311 1
gene  1 58 23 -0.6576977916355995 1 1377.0 -0.6576977916355995 1
gene  1 60 23 0.42320777760068073 1 1379.0 0.42320777760068073 1
gene  1 4 24 -0.38306998703518125 0 1383.0 -0.38306998703518125 1
gene  1 5 24 -0.4047418696015921 0 1384.0 -0.4047418696015921 1
gene  1 6 24 0.7524241168316024 0 1385.0 0.7524241168316024 1
gene  1 7 24 -0.7018041144203652 0 1386.0 -0.7018041144203652 1
gene  1 9 24 -0.021979283565998098 0 1388.0 -0.021979283565998098 1
gene  1 11 24 0.43602535959710975 0 1390.0 0.43602535959710975 1
gene  1 13 24 -0.46788565417522665 0 1392.0 -0.46788565417522665 1
gene  1 15 24 0.8460638419839398 0 1394.0 0.8460638419839398 1
gene  1 16 24 -0.2357853341425744 0 1395.0 -0.2357853341425744 1
gene  1 18 24 0.6462095609599631 0 1397.0 0.6462095609599631 1
gene  1 21 24 0.8641842111793101 0 1400.0 0.8641842111793101 1
gene  1 24 24 -0.46782362745718 1 1403.0 -0.46782362745718 1
gene  1 28 24 -0.39602661017958074 1 1407.0 -0.39602661017958074 1
gene  1 31 24 0.15676611357643622 1 1410.0 0.15676611357643622 1
gene  1 33 24 -0.4506007770603039 1 1412.0 -0.4506007770603039 1
gene  1 35 24 0.38451665028098425 1 1414.0 0.38451665028098425 1
gene  1 36 24 0.5454821683163243 1 1415.0 0.5454821683163243 1
gene  1 37 24 0.4290485655676579 1 1416.0 0.4290485655676579 1
gene  1 38 24 0.2455260765720051 1 1417.0 0.2455260765720051 1
gene  1 41 24 -0.6740169573900958 1 1420.0 -0.6740169573900958 1
gene  1 42 24 0.7947880715686175 1 1421.0 0.7947880715686175 1
gene  1 44 24 -0.47290161184479473 1 1423.0 -0.47290161184479473 1
gene  1 46 24 0.2677062776168516 1 1425.0 0.2677062776168516 1
gene  1 51 24 -0.531580447874202 1 1430.0 -0.531580447874202 1
gene  1 52 24 0.14750907657766987 1 1431.0 0.14750907657766987 1
gene  1 56 24 -0.37373028182907675 1 1435.0 -0.37373028182907675 1
gene  1 57 24 -0.9571664006340819 1 1436.0 -0.9571664006340819 1
gene  1 59 24 -0.6781133965163042 1 1438.0 -0.6781133965163042 1
gene  1 60 24 -0.877922076378665 1 1439.0 -0.877922076378665 1
gene  1 2 25 0.30893906374817337 0 1441.0 0.30893906374817337 1
gene  1 3 25 -0.3664625804158259 0 1442.0 -0.3664625804158259 1
gene  1 4 25 -0.21470982370164227 0 1443.0 -0.21470982370164227 1
gene  1 5 25 -0.6038083131913784 0 1444.0 -0.6038083131913784 1
gene  1 6 25 -0.14999263404710106 0 1445.0 -0.14999263404710106 1
gene  1 8 25 -0.9381992510669741 0 1447.0 -0.9381992510669741 1
gene  1 9 25 0.7238133099276051 0 1448.0 0.7238133099276051 1
gene  1 11 25 0.6586208584590426 0 1450.0 0.6586208584590426 1
gene  1 14 25 0.7287614448426786 0 1453.0 0.7287614448426786 1
gene  1 15 25 -0.42681577829539186 0 1454.0 -0.42681577829539186 1
gene  1 16 25 -0.29829816898865713 0 1455.0 -0.29829816898865713 1
gene  1 19 25 -0.33697281528015144 0 1458.0 -0.33697281528015144 1
gene  1 20 25 -0.375550324116405 0 1459.0 -0.375550324116405 1
gene  1 21 25 0.5871665259657072 0 1460.0 0.5871665259657072 1
gene  1 22 25 -0.6114254741572603 0 1461.0 -0.6114254741572603 1
gene  1 24 25 0.17482699309666894 0 1463.0 0.17482699309666894 1
gene  1 27 25 0.3849039185704257 1 1466.0 0.3849039185704257 1
gene  1 29 25 0.8669221310208184 1 1468.0 0.8669221310208184 1
gene  1 34 25 -0.307578096270576 1 1473.0 -0.307578096270576 1
gene  1 36 25 -0.03829124205643619 1 1475.0 -0.03829124205643619 1
gene  1 37 25 -0.34194295266960617 1 1476.0 -0.34194295266960617 1
gene  1 38 25 -0.653729412166492 1 1477.0 -0.653729412166492 1
gene  1 39 25 -0.9398668792451289 1 1478.0 -0.9398668792451289 1
gene  1 41 25 -0.3866319865904808 1 1480.0 -0.3866319865904808 1
gene  1 43 25 -0.43899586045469474 1 1482.0 -0.43899586045469474 1
gene  1 46 25 0.9626642492841135 1 1485.0 0.9626642492841135 1
gene  1 47 25 -0.5594405102780048 1 1486.0 -0.5594405102780048 1
gene  1 54 25 0.3969912677776182 1 1493.0 0.3969912677776182 1
gene  1 55 25 -0.9564067307435125 1 1494.0 -0.9564067307435125 1
gene  1 58 25 0.5479662708958484 1 1497.0 0.5479662708958484 1
gene  1 2 26 -0.3853266520019405 0 1501.0 -0.3853266520019405 1
gene  1 7 26 0.4881808548109917 0 1506.0 0.4881808548109917 1
gene  1 9 26 -0.3837580566087706 0 1508.0 -0.3837580566087706 1
gene  1 10 26 0.7003913114562907 0 1509.0 0.7003913114562907 1
gene  1 12 26 0.8749464671313099 0 1511.0 0.8749464671313099 1
gene  1 15 26 -0.2535561596421304 0 1514.0 -0.2535561596421304 1
gene  1 16 26 0.36385021496062353 0 1515.0 0.36385021496062353 1
gene  1 17 26 0.7846735603847153 0 1516.0 0.7846735603847153 1
gene  1 18 26 -0.955528065991279 0 1517.0 -0.955528065991279 1
gene  1 19 26 -0.5499455467262234 0 1518.0 -0.5499455467262234 1
gene  1 21 26 -0.8815146347881263 0 1520.0 -0.8815146347881263 1
gene  1 22 26 0.38934176684626876 0 1521.0 0.38934176684626876 1
gene  1 25 26 -0.25631340083750176 0 1524.0 -0.25631340083750176 1
gene  1 27 26 -0.9294034405845034 1 1526.0 -0.9294034405845034 1
gene  1 28 26 -0.2569606877608974 1 1527.0 -0.2569606877608974 1
gene  1 29 26 0.7341482804917409 1 1528.0 0.7341482804917409 1
gene  1 31 26 -0.3509064365262806 1 1530.0 -0.3509064365262806 1
gene  1 34 26 0.22851957871566764 1 1533.0 0.22851957871566764 1
gene  1 35 26 -0.3874996391262735 1 1534.0 -0.3874996391262735 1
gene  1 38 26 0.31118415052888615 1 1537.0 0.31118415052888615 1
gene  1 40 26 0.33791622641721 1 1539.0 0.33791622641721 1
gene  1 42 26 -0.7283784398954936 1 1541.0 -0.7283784398954936 1
gene  1 45 26 0.8951620868069916 1 1544.0 0.8951620868069916 1
gene  1 46 26 -0.14878144992882125 1 1545.0 -0.14878144992882125 1
gene  1 51 26 0.475151958977871 1 1550.0 0.475151958977871 1
gene  1 52 26 -0.19612496883244634 1 1551.0 -0.19612496883244634 1
gene  1 53 26 -0.9483091174992878 1 1552.0 -0.9483091174992878 1
gene  1 60 26 -0.27883763590617305 1 1559.0 -0.27883763590617305 1
gene  1 4 27 0.06635017909471697 0 1563.0 0.06635017909471697 1
gene  1 6 27 0.44242963767872057 0 1565.0 0.44242963767872057 1
gene  1 7 27 -0.3345917727350982 0 1566.0 -0.3345917727350982 1
gene  1 8 27 -0.07639423954994451 0 1567.0 -0.07639423954994451 1
gene  1 13 27 0.7674511367724081 0 1572.0 0.7674511367724081 1
gene  1 15 27 0.9508114804870765 0 1574.0 0.9508114804870765 1
gene  1 16 27 0.15666860506414326 0 1575.0 0.15666860506414326 1
gene  1 19 27 0.9152108533222763 0 1578.0 0.9152108533222763 1
gene  1 23 27 -0.9288613832781356 0 1582.0 -0.9288613832781356 1
gene  1 24 27 -0.12449698686351673 0 1583.0 -0.12449698686351673 1
gene  1 26 27 0.32145766510217955 0 1585.0 0.32145766510217955 1
gene  1 27 27 0.75659963329937 1 1586.0 0.75659963329937 1
gene  1 28 27 0.3773917157009611 1 1587.0 0.3773917157009611 1
gene  1 29 27 -0.7708678536571709 1 1588.0 -0.7708678536571709 1
gene  1 30 27 0.8032576974808285 1 1589.0 0.8032576974808285 1
gene  1 32 27 -0.7447239949610941 1 1591.0 -0.7447239949610941 1
gene  1 35 27 0.13245798224380068 1 1594.0 0.13245798224380068 1
gene  1 36 27 0.41605813356921384 1 1595.0 0.41605813356921384 1
gene  1 37 27 -0.7200835003105139 1 1596.0 -0.7200835003105139 1
gene  1 38 27 0.925574198020487 1 1597.0 0.925574198020487 1
gene  1 40 27 -0.27087998383695866 1 1599.0 -0.27087998383695866 1
gene  1 42 27 -0.7732528984029994 1 1601.0 -0.7732528984029994 1
gene  1 43 27 -0.2946524694257958 1 1602.0 -0.2946524694257958 1
gene  1 46 27 0.8164556357422866 1 1605.0 0.8164556357422866 1
gene  1 52 27 -0.43777319302999973 1 1611.0 -0.43777319302999973 1
gene  1 55 27 -0.33494165143665444 1 1614.0 -0.33494165143665444 1
gene  1 56 27 -0.2346448346118859 1 1615.0 -0.2346448346118859 1
gene  1 58 27 -0.6274760289489267 1 1617.0 -0.6274760289489267 1
gene  1 59 27 -0.14155115799313633 1 1618.0 -0.14155115799313633 1
gene  1 6 28 0.3258944625550181 0 1625.0 0.3258944625550181 1
gene  1 7 28 0.40351765111200744 0 1626.0 0.40351765111200744 1
gene  1 8 28 0.5474825485365342 0 1627.0 0.5474825485365342 1
gene  1 11 28 0.8722589008080551 0 1630.0 0.8722589008080551 1
gene  1 12 28 0.6409305961723318 0 1631.0 0.6409305961723318 1
gene  1 13 28 -0.5400435542330607 0 1632.0 -0.5400435542330607 1
gene  1 15 28 0.14734640796890974 0 1634.0 0.14734640796890974 1
gene  1 18 28 0.5070374709631175 0 1637.0 0.5070374709631175 1
gene  1 20 28 -0.44749201179716935 0 1639.0 -0.44749201179716935 1
gene  1 22 28 0.3830002705792894 0 1641.0 0.3830002705792894 1
gene  1 24 28 -0.7884569323553041 0 1643.0 -0.7884569323553041 1
gene  1 25 28 -0.28654659320650455 0 1644.0 -0.28654659320650455 1
gene  1 26 28 -0.7023435749659999 0 1645.0 -0.7023435749659999 1
gene  1 28 28 0.7625645102562107 1 1647.0 0.7625645102562107 1
gene  1 33 28 -0.040684539129430375 1 1652.0 -0.040684539129430375 1
gene  1 36 28 0.5930900731426815 1 1655.0 0.5930900731426815 1
gene  1 40 28 -0.3059990616030597 1 1659.0 -0.3059990616030597 1
gene  1 41 28 -0.9118471525832235 1 1660.0 -0.9118471525832235 1
gene  1 42 28 0.770692841384909 1 1661.0 0.770692841384909 1
gene  1 43 28 0.6758201272052338 1 1662.0 0.6758201272052338 1
gene  1 46 28 -0.18619460338217286 1 1665.0 -0.18619460338217286 1
gene  1 52 28 0.544902754499175 1 1671.0 0.544902754499175 1
gene  1 53 28 0.43898604622935355 1 1672.0 0.43898604622935355 1
gene  1 54 28 0.5509351829172352 1 1673.0 0.5509351829172352 1
gene  1 55 28 -0.4982496121730129 1 1674.0 -0.4982496121730129 1
gene  1 57 28 -0.7400886266659966 1 1676.0 -0.7400886266659966 1
gene  1 58 28 0.595008773562227 1 1677.0 0.595008773562227 1
gene  1 59 28 -0.3648024365234178 1 1678.0 -0.3648024365234178 1
gene  1 3 29 0.8876972599873455 0 1682.0 0.8876972599873455 1
gene  1 9 29 -0.6928451894857863 0 1688.0 -0.6928451894857863 1
gene  1 11 29 -0.8583875947551808 0 1690.0 -0.8583875947551808 1
gene  1 12 29 0.21437613177304993 0 1691.0 0.21437613177304993 1
gene  1 13 29 -0.458232381005211 0 1692.0 -0.458232381005211 1
gene  1 15 29 -0.27720133383950374 0 1694.0 -0.27720133383950374 1
gene  1 17 29 0.2673015354342032 0 1696.0 0.2673015354342032 1
gene  1 18 29 -0.5504665709560631 0 1697.0 -0.5504665709560631 1
gene  1 19 29 -0.6017923311022436 0 1698.0 -0.6017923311022436 1
gene  1 20 29 0.6323362755771574 0 1699.0 0.6323362755771574 1
gene  1 21 29 0.6301615731561351 0 1700.0 0.6301615731561351 1
gene  1 22 29 0.9830371917188676 0 1701.0 0.9830371917188676 1
gene  1 23 29 -0.1003056188278878 0 1702.0 -0.1003056188278878 1
gene  1 24 29 0.705483522301957 0 1703.0 0.705483522301957 1
gene  1 25 29 0.9743020722708616 0 1704.0 0.9743020722708616 1
gene  1 26 29 0.3108388313457555 0 1705.0 0.3108388313457555 1
gene  1 28 29 0.12004291869088746 0 1707.0 0.12004291869088746 1
gene  1 32 29 0.6058518392009862 1 1711.0 0.6058518392009862 1
gene  1 33 29 -0.8071561618625124 1 1712.0 -0.8071561618625124 1
gene  1 34 29 0.5167770394781362 1 1713.0 0.5167770394781362 1
gene  1 35 29 0.6561842293682733 1 1714.0 0.6561842293682733 1
gene  1 42 29 -0.5109458234769456 1 1721.0 -0.5109458234769456 1
gene  1 44 29 0.3251905299918997 1 1723.0 0.3251905299918997 1
gene  1 45 29 -0.02126961061687005 1 1724.0 -0.02126961061687005 1
gene  1 46 29 0.21065389818460867 1 1725.0 0.21065389818460867 1
gene  1 54 29 -0.7059511867161082 1 1733.0 -0.7059511867161082 1
gene  1 55 29 0.9793779137402341 1 1734.0 0.9793779137402341 1
gene  1 58 29 -0.7436825779777329 1 1737.0 -0.7436825779777329 1
gene  1 59 29 -0.6108200451574525 1 1738.0 -0.6108200451574525 1
gene  1 3 30 -0.6023417783091963 0 1742.0 -0.6023417783091963 1
gene  1 5 30 0.6607248917805089 0 1744.0 0.6607248917805089 1
gene  1 6 30 0.17130585764784756 0 1745.0 0.17130585764784756 1
gene  1 7 30 0.8075381154366236 0 1746.0 0.8075381154366236 1
gene  1 9 30 0.48157278776075574 0 1748.0 0.48157278776075574 1
gene  1 10 30 -0.8547654962749607 0 1749.0 -0.8547654962749607 1
gene  1 13 30 0.22018706447477476 0 1752.0 0.22018706447477476 1
gene  1 15 30 -0.6823350975417765 0 1754.0 -0.6823350975417765 1
gene  1 17 30 0.4360318980059765 0 1756.0 0.4360318980059765 1
gene  1 19 30 -0.25126358737643584 0 1758.0 -0.25126358737643584 1
gene  1 20 30 -0.8458060436726779 0 1759.0 -0.8458060436726779 1
gene  1 23 30 0.5962643342851637 0 1762.0 0.5962643342851637 1
gene  1 27 30 -0.9590835993214497 0 1766.0 -0.9590835993214497 1
gene  1 29 30 0.7278045483964718 0 1768.0 0.7278045483964718 1
gene  1 30 30 0.13673898354307956 1 1769.0 0.13673898354307956 1
gene  1 33 30 0.9249571851397298 1 1772.0 0.9249571851397298 1
gene  1 35 30 -0.7801956990035862 1 1774.0 -0.7801956990035862 1
gene  1 36 30 0.2685396229283601 1 1775.0 0.2685396229283601 1
gene  1 37 30 -0.6231971702223288 1 1776.0 -0.6231971702223288 1
gene  1 43 30 0.7403872465036256 1 1782.0 0.7403872465036256 1
gene  1 47 30 0.495288341056381 1 1786.0 0.495288341056381 1
gene  1 52 30 0.0689855179533132 1 1791.0 0.0689855179533132 1
gene  1 54 30 0.23608098457325344 1 1793.0 0.23608098457325344 1
gene  1 60 30 0.26144515830538306 1 1799.0 0.26144515830538306 1
gene  1 2 31 -0.936476682266005 0 1801.0 -0.936476682266005 1
gene  1 4 31 -0.8232693715367126 0 1803.0 -0.8232693715367126 1
gene  1 5 31 -0.3517806884048138 0 1804.0 -0.3517806884048138 1
gene  1 6 31 0.6410728870492093 0 1805.0 0.6410728870492093 1
gene  1 7 31 -0.9235495147640302 0 1806.0 -0.9235495147640302 1
gene  1 8 31 0.42220776674302274 0 1807.0 0.42220776674302274 1
gene  1 11 31 0.6035808664776691 0 1810.0 0.6035808664776691 1
gene  1 12 31 0.07278179322372413 0 1811.0 0.07278179322372413 1
gene  1 13 31 0.3904648125236254 0 1812.0 0.3904648125236254 1
gene  1 15 31 0.11165692452240716 0 1814.0 0.11165692452240716 1
gene  1 22 31 -0.19175206422403546 0 1821.0 -0.19175206422403546 1
gene  1 23 31 0.36609774671336526 0 1822.0 0.36609774671336526 1
gene  1 24 31 -0.9668647857461582 0 1823.0 -0.9668647857461582 1
gene  1 25 31 0.5950846057294154 0 1824.0 0.5950846057294154 1
gene  1 27 31 -0.7001899906080431 0 1826.0 -0.7001899906080431 1
gene  1 28 31 -0.887949697761675 0 1827.0 -0.887949697761675 1
gene  1 29 31 -0.9844923908442982 0 1828.0 -0.9844923908442982 1
gene  1 31 31 -0.8085804351720388 1 1830.0 -0.8085804351720388 1
gene  1 33 31 0.4561066170130056 1 1832.0 0.4561066170130056 1
gene  1 34 31 -0.7212131950517021 1 1833.0 -0.7212131950517021 1
gene  1 37 31 -0.873193216395348 1 1836.0 -0.873193216395348 1
gene  1 38 31 0.768705760274911 1 1837.0 0.768705760274911 1
gene  1 39 31 -0.13848619269851326 1 1838.0 -0.13848619269851326 1
gene  1 40 31 0.7253960196715771 1 1839.0 0.7253960196715771 1
gene  1 41 31 0.797038429694717 1 1840.0 0.797038429694717 1
gene  1 43 31 -0.28372418374713215 1 1842.0 -0.28372418374713215 1
gene  1 44 31 -0.1478621183018779 1 1843.0 -0.1478621183018779 1
gene  1 46 31 -0.867531513961208 1 1845.0 -0.867531513961208 1
gene  1 47 31 0.6785178339024076 1 1846.0 0.6785178339024076 1
gene  1 54 31 -0.6387654529351227 1 1853.0 -0.6387654529351227 1
gene  1 55 31 -0.5508926715859153 1 1854.0 -0.5508926715859153 1
gene  1 56 31 -0.24032977959885882 1 1855.0 -0.24032977959885882 1
gene  1 58 31 0.9726080547342386 1 1857.0 0.9726080547342386 1
gene  1 1 32 -0.9991461746717429 0 1860.0 -0.9991461746717429 1
gene  1 2 32 -0.6740364367531078 0 1861.0 -0.6740364367531078 1
gene  1 3 32 0.9130033483801662 0 1862.0 0.9130033483801662 1
gene  1 5 32 0.4220764870226039 0 1864.0 0.4220764870226039 1
gene  1 7 32 -0.02906503984332931 0 1866.0 -0.02906503984332931 1
gene  1 8 32 0.4665452725494721 0 1867.0 0.4665452725494721 1
gene  1 10 32 0.528285703215764 0 1869.0 0.528285703215764 1
gene  1 11 32 0.7742726761430011 0 1870.0 0.7742726761430011 1
gene  1 12 32 -0.5727478662789449 0 1871.0 -0.5727478662789449 1
gene  1 13 32 -0.018575923349445023 0 1872.0 -0.018575923349445023 1
gene  1 14 32 -0.024220821275866666 0 1873.0 -0.024220821275866666 1
gene  1 16 32 0.025888881594150037 0 1875.0 0.025888881594150037 1
gene  1 17 32 0.5912519410874639 0 1876.0 0.5912519410874639 1
gene  1 19 32 0.39941522381287786 0 1878.0 0.39941522381287786 1
gene  1 21 32 -0.22542644047373273 0 1880.0 -0.22542644047373273 1
gene  1 25 32 -0.12812791135031054 0 1884.0 -0.12812791135031054 1
gene  1 29 32 -0.46183913192464565 0 1888.0 -0.46183913192464565 1
gene  1 30 32 -0.6769389336465614 0 1889.0 -0.6769389336465614 1
gene  1 33 32 -0.31669454954915366 1 1892.0 -0.31669454954915366 1
gene  1 34 32 -0.407152875595735 1 1893.0 -0.407152875595735 1
gene  1 36 32 0.22125717421739755 1 1895.0 0.22125717421739755 1
gene  1 38 32 0.35517567781352877 1 1897.0 0.35517567781352877 1
gene  1 39 32 -0.42984502894947774 1 1898.0 -0.42984502894947774 1
gene  1 42 32 0.8947459839236378 1 1901.0 0.8947459839236378 1
gene  1 44 32 -0.03446825040511092 1 1903.0 -0.03446825040511092 1
gene  1 46 32 0.8942956768512841 1 1905.0 0.8942956768512841 1
gene  1 47 32 0.08741679765899679 1 1906.0 0.08741679765899679 1
gene  1 53 32 -0.7172780238981818 1 1912.0 -0.7172780238981818 1
gene  1 54 32 0.6832455156792118 1 1913.0 0.6832455156792118 1
gene  1 55 32 -0.687934389236712 1 1914.0 -0.687934389236712 1
gene  1 58 32 0.9456678509787992 1 1917.0 0.9456678509787992 1
gene  1 59 32 -0.037269820178583046 1 1918.0 -0.037269820178583046 1
gene  1 3 33 -0.953412937989106 0 1922.0 -0.953412937989106 1
gene  1 4 33 0.20731414534544002 0 1923.0 0.20731414534544002 1
gene  1 5 33 0.8529369272476626 0 1924.0 0.8529369272476626 1
gene  1 8 33 -0.39527051042697137 0 1927.0 -0.39527051042697137 1
gene  1 12 33 0.6359946560151672 0 1931.0 0.6359946560151672 1
gene  1 13 33 -0.6803367611653338 0 1932.0 -0.6803367611653338 1
gene  1 15 33 -0.4230480266518324 0 1934.0 -0.4230480266518324 1
gene  1 16 33 0.7591164962119243 0 1935.0 0.7591164962119243 1
gene  1 20 33 0.2987054454965604 0 1939.0 0.2987054454965604 1
gene  1 21 33 0.9662594116259311 0 1940.0 0.9662594116259311 1
gene  1 22 33 0.14933981437994848 0 1941.0 0.14933981437994848 1
gene  1 27 33 0.9858776980507659 0 1946.0 0.9858776980507659 1
gene  1 30 33 0.8044699392795412 0 1949.0 0.8044699392795412 1
gene  1 31 33 -0.3816770641008628 0 1950.0 -0.3816770641008628 1
gene  1 33 33 -0.13217750947586904 1 1952.0 -0.13217750947586904 1
gene  1 34 33 0.5563276363108784 1 1953.0 0.5563276363108784 1
gene  1 35 33 -0.6992909125953843 1 1954.0 -0.6992909125953843 1
gene  1 36 33 0.40964117025860425 1 1955.0 0.40964117025860425 1
gene  1 37 33 0.1374314465763985 1 1956.0 0.1374314465763985 1
gene  1 39 33 0.4043473474189435 1 1958.0 0.4043473474189435 1
gene  1 40 33 -0.4309642877834572 1 1959.0 -0.4309642877834572 1
gene  1 41 33 -0.11853775082473472 1 1960.0 -0.11853775082473472 1
gene  1 42 33 0.3682359398177738 1 1961.0 0.3682359398177738 1
gene  1 45 33 -0.970425259563433 1 1964.0 -0.970425259563433 1
gene  1 46 33 -0.9328951369742581 1 1965.0 -0.9328951369742581 1
gene  1 51 33 0.9779027656025077 1 1970.0 0.9779027656025077 1
gene  1 53 33 0.7371002081551461 1 1972.0 0.7371002081551461 1
gene  1 54 33 -0.529850353340291 1 1973.0 -0.529850353340291 1
gene  1 55 33 -0.37552319656661426 1 1974.0 -0.37552319656661426 1
gene  1 56 33 0.6911102247075004 1 1975.0 0.6911102247075004 1
gene  1 4 34 0.83673276169901 0 1983.0 0.83673276169901 1
gene  1 5 34 -0.6372012096151994 0 1984.0 -0.6372012096151994 1
gene  1 6 34 -0.9854038752413573 0 1985.0 -0.9854038752413573 1
gene  1 8 34 0.8856521744035907 0 1987.0 0.8856521744035907 1
gene  1 10 34 0.2892366396396403 0 1989.0 0.2892366396396403 1
gene  1 19 34 -0.6785624027759473 0 1998.0 -0.6785624027759473 1
gene  1 24 34 -0.3144772893941 0 2003.0 -0.3144772893941 1
gene  1 25 34 -0.5857328604555007 0 2004.0 -0.5857328604555007 1
gene  1 27 34 -0.8149888586379432 0 2006.0 -0.8149888586379432 1
gene  1 30 34 -0.005189111776967681 0 2009.0 -0.005189111776967681 1
gene  1 31 34 -0.43703324869216653 0 2010.0 -0.43703324869216653 1
gene  1 32 34 0.5236936516500251 0 2011.0 0.5236936516500251 1
gene  1 33 34 -0.6117580594889223 0 2012.0 -0.6117580594889223 1
gene  1 34 34 0.645094324926922 1 2013.0 0.645094324926922 1
gene  1 38 34 0.4087554637496744 1 2017.0 0.4087554637496744 1
gene  1 41 34 0.5703148357140206 1 2020.0 0.5703148357140206 1
gene  1 42 34 0.42554203378415145 1 2021.0 0.42554203378415145 1
gene  1 44 34 -0.8446379641423449 1 2023.0 -0.8446379641423449 1
gene  1 45 34 -0.26229618930390763 1 2024.0 -0.26229618930390763 1
gene  1 47 34 -0.03262637409853464 1 2026.0 -0.03262637409853464 1
gene  1 55 34 -0.7781987946747941 1 2034.0 -0.7781987946747941 1
gene  1 56 34 -0.607406985334262 1 2035.0 -0.607406985334262 1
gene  1 59 34 -0.5802545120856042 1 2038.0 -0.5802545120856042 1
gene  1 2 35 0.7941975435321488 0 2041.0 0.7941975435321488 1
gene  1 5 35 0.9910508632652195 0 2044.0 0.9910508632652195 1
gene  1 6 35 0.3836267002822732 0 2045.0 0.3836267002822732 1
gene  1 7 35 -0.6942479425247413 0 2046.0 -0.6942479425247413 1
gene  1 10 35 -0.37903403957001647 0 2049.0 -0.37903403957001647 1
gene  1 12 35 -0.0029910312999813504 0 2051.0 -0.0029910312999813504 1
gene  1 16 35 0.2655412580355291 0 2055.0 0.2655412580355291 1
gene  1 17 35 -0.14489128370313986 0 2056.0 -0.14489128370313986 1
gene  1 18 35 0.9876377081357663 0 2057.0 0.9876377081357663 1
gene  1 19 35 0.16780969164858628 0 2058.0 0.16780969164858628 1
gene  1 20 35 -0.5925294796521287 0 2059.0 -0.5925294796521287 1
gene  1 23 35 0.7107184682671545 0 2062.0 0.7107184682671545 1
gene  1 24 35 0.4732978657406841 0 2063.0 0.4732978657406841 1
gene  1 25 35 0.666974528750072 0 2064.0 0.666974528750072 1
gene  1 29 35 0.12843941093090439 0 2068.0 0.12843941093090439 1
gene  1 30 35 0.005065803855618722 0 2069.0 0.005065803855618722 1
gene  1 31 35 0.5484793843731448 0 2070.0 0.5484793843731448 1
gene  1 32 35 -0.3762768098428637 0 2071.0 -0.3762768098428637 1
gene  1 40 35 0.7913616955484871 1 2079.0 0.7913616955484871 1
gene  1 43 35 0.951217855509347 1 2082.0 0.951217855509347 1
gene  1 44 35 0.2948222316233796 1 2083.0 0.2948222316233796 1
gene  1 46 35 0.7598388147469664 1 2085.0 0.7598388147469664 1
gene  1 51 35 -0.8758291479492081 1 2090.0 -0.8758291479492081 1
gene  1 57 35 0.9021155819765946 1 2096.0 0.9021155819765946 1
gene  1 2 36 0.2147149352263381 0 2101.0 0.2147149352263381 1
gene  1 3 36 -0.9620572645549711 0 2102.0 -0.9620572645549711 1
gene  1 5 36 -0.37660709691435423 0 2104.0 -0.37660709691435423 1
gene  1 7 36 0.46792594313810487 0 2106.0 0.46792594313810487 1
gene  1 8 36 0.6359709839282589 0 2107.0 0.6359709839282589 1
gene  1 9 36 -0.8531142108500233 0 2108.0 -0.8531142108500233 1
gene  1 10 36 0.20358722139729524 0 2109.0 0.20358722139729524 1
gene  1 11 36 0.37094188918146287 0 2110.0 0.37094188918146287 1
gene  1 14 36 -0.6515174644907449 0 2113.0 -0.6515174644907449 1
gene  1 16 36 0.5295701322908627 0 2115.0 0.5295701322908627 1
gene  1 17 36 -0.054946671688169135 0 2116.0 -0.054946671688169135 1
gene  1 18 36 -0.6526551656948882 0 2117.0 -0.6526551656948882 1
gene  1 21 36 -0.9402696723386977 0 2120.0 -0.9402696723386977 1
gene  1 23 36 0.147992956409306 0 2122.0 0.147992956409306 1
gene  1 24 36 0.5111945732176804 0 2123.0 0.5111945732176804 1
gene  1 25 36 -0.024341478738653 0 2124.0 -0.024341478738653 1
gene  1 26 36 -0.6299605828356306 0 2125.0 -0.6299605828356306 1
gene  1 28 36 0.9931698489255183 0 2127.0 0.9931698489255183 1
gene  1 29 36 0.5308801549324772 0 2128.0 0.5308801549324772 1
gene  1 30 36 0.9639010617119237 0 2129.0 0.9639010617119237 1
gene  1 32 36 0.7934368431053732 0 2131.0 0.7934368431053732 1
gene  1 33 36 0.1666754658531615 0 2132.0 0.1666754658531615 1
gene  1 36 36 0.2088404129489625 1 2135.0 0.2088404129489625 1
gene  1 37 36 0.623677994038623 1 2136.0 0.623677994038623 1
gene  1 38 36 0.542023778412134 1 2137.0 0.542023778412134 1
gene  1 39 36 -0.08677991898526538 1 2138.0 -0.08677991898526538 1
gene  1 42 36 0.1235516665988361 1 2141.0 0.1235516665988361 1
gene  1 45 36 -0.7040724839045888 1 2144.0 -0.7040724839045888 1
gene  1 52 36 -0.9275657559293073 1 2151.0 -0.9275657559293073 1
gene  1 54 36 0.27410085960597463 1 2153.0 0.27410085960597463 1
gene  1 55 36 0.3094279267375637 1 2154.0 0.3094279267375637 1
gene  1 57 36 -0.06537919654247015 1 2156.0 -0.06537919654247015 1
gene  1 59 36 0.7826145082861232 1 2158.0 0.7826145082861232 1
gene  1 6 37 0.3631361545694969 0 2165.0 0.3631361545694969 1
gene  1 10 37 -0.2851607103817544 0 2169.0 -0.2851607103817544 1
gene  1 11 37 0.06671923680101544 0 2170.0 0.06671923680101544 1
gene  1 19 37 0.11928493025129083 0 2178.0 0.11928493025129083 1
gene  1 25 37 -0.4288349207476111 0 2184.0 -0.4288349207476111 1
gene  1 33 37 0.327179554996725 0 2192.0 0.327179554996725 1
gene  1 35 37 -0.9293476909531888 0 2194.0 -0.9293476909531888 1
gene  1 37 37 0.03422100700870745 1 2196.0 0.03422100700870745 1
gene  1 41 37 0.09752630205098134 1 2200.0 0.09752630205098134 1
gene  1 42 37 -0.45916093106974043 1 2201.0 -0.45916093106974043 1
gene  1 45 37 -0.9870521402124736 1 2204.0 -0.9870521402124736 1
gene  1 46 37 -0.10198464971463794 1 2205.0 -0.10198464971463794 1
gene  1 51 37 0.36755274145892325 1 2210.0 0.36755274145892325 1
gene  1 53 37 0.32973531897634767 1 2212.0 0.32973531897634767 1
gene  1 56 37 -0.5957244287528064 1 2215.0 -0.5957244287528064 1
gene  1 1 38 -0.7134429918181424 0 2220.0 -0.7134429918181424 1
gene  1 3 38 -0.988451299962382 0 2222.0 -0.988451299962382 1
gene  1 5 38 0.1510183250580679 0 2224.0 0.1510183250580679 1
gene  1 6 38 -0.9862764109476636 0 2225.0 -0.9862764109476636 1
gene  1 7 38 0.5702035006512803 0 2226.0 0.5702035006512803 1
gene  1 8 38 0.8269674161384338 0 2227.0 0.8269674161384338 1
gene  1 9 38 0.2845825202173209 0 2228.0 0.2845825202173209 1
gene  1 13 38 -0.14054556175877886 0 2232.0 -0.14054556175877886 1
gene  1 20 38 0.7810294103748664 0 2239.0 0.7810294103748664 1
gene  1 24 38 -0.11892284308592949 0 2243.0 -0.11892284308592949 1
gene  1 25 38 -0.487621841942915 0 2244.0 -0.487621841942915 1
gene  1 26 38 -0.2012366164723286 0 2245.0 -0.2012366164723286 1
gene  1 27 38 -0.5310276639283189 0 2246.0 -0.5310276639283189 1
gene  1 28 38 0.4002201522192992 0 2247.0 0.4002201522192992 1
gene  1 29 38 -0.6033511144592602 0 2248.0 -0.6033511144592602 1
gene  1 30 38 -0.2686851928509346 0 2249.0 -0.2686851928509346 1
gene  1 34 38 0.7781860024905584 0 2253.0 0.7781860024905584 1
gene  1 35 38 0.3071509752019599 0 2254.0 0.3071509752019599 1
gene  1 36 38 0.9135089429925783 0 2255.0 0.9135089429925783 1
gene  1 37 38 -0.13559707906293994 0 2256.0 -0.13559707906293994 1
gene  1 39 38 0.6528625325116285 1 2258.0 0.6528625325116285 1
gene  1 40 38 -0.21166116476752683 1 2259.0 -0.21166116476752683 1
gene  1 45 38 -0.01895361005137519 1 2264.0 -0.01895361005137519 1
gene  1 46 38 0.4340778009944406 1 2265.0 0.4340778009944406 1
gene  1 52 38 0.33179778159252227 1 2271.0 0.33179778159252227 1
gene  1 55 38 -0.73416449855159 1 2274.0 -0.73416449855159 1
gene  1 56 38 0.012889481305643935 1 2275.0 0.012889481305643935 1
gene  1 58 38 0.3572590140736541 1 2277.0 0.3572590140736541 1
gene  1 59 38 -0.8761951192533529 1 2278.0 -0.8761951192533529 1
gene  1 2 39 -0.7746150098265665 0 2281.0 -0.7746150098265665 1
gene  1 3 39 0.6307445597240212 0 2282.0 0.6307445597240212 1
gene  1 5 39 -0.0325657942276224 0 2284.0 -0.0325657942276224 1
gene  1 6 39 -0.46984473043357233 0 2285.0 -0.46984473043357233 1
gene  1 8 39 0.5884456396954738 0 2287.0 0.5884456396954738 1
gene  1 9 39 0.756021241862719 0 2288.0 0.756021241862719 1
gene  1 10 39 0.3989417419854304 0 2289.0 0.3989417419854304 1
gene  1 14 39 0.3839727465869207 0 2293.0 0.3839727465869207 1
gene  1 16 39 0.1711377597247855 0 2295.0 0.1711377597247855 1
gene  1 21 39 -0.12181877411492781 0 2300.0 -0.12181877411492781 1
gene  1 22 39 -0.13181929055885 0 2301.0 -0.13181929055885 1
gene  1 24 39 0.9056712010709415 0 2303.0 0.9056712010709415 1
gene  1 27 39 0.41395028823210345 0 2306.0 0.41395028823210345 1
gene  1 28 39 0.7468109089574452 0 2307.0 0.7468109089574452 1
gene  1 29 39 0.49483207729539236 0 2308.0 0.49483207729539236 1
gene  1 30 39 -0.08098127971975422 0 2309.0 -0.08098127971975422 1
gene  1 33 39 -0.060937733866902266 0 2312.0 -0.060937733866902266 1
gene  1 37 39 -0.7902644564120883 0 2316.0 -0.7902644564120883 1
gene  1 38 39 0.6256266341078318 0 2317.0 0.6256266341078318 1
gene  1 40 39 -0.9859032445929575 1 2319.0 -0.9859032445929575 1
gene  1 41 39 0.8879234700606674 1 2320.0 0.8879234700606674 1
gene  1 42 39 -0.29558462191571633 1 2321.0 -0.29558462191571633 1
gene  1 44 39 0.5059324100507527 1 2323.0 0.5059324100507527 1
gene  1 45 39 -0.002114960672208066 1 2324.0 -0.002114960672208066 1
gene  1 47 39 -0.9885456407312936 1 2326.0 -0.9885456407312936 1
gene  1 51 39 0.14263062573603313 1 2330.0 0.14263062573603313 1
gene  1 53 39 -0.9664558587753608 1 2332.0 -0.9664558587753608 1
gene  1 57 39 -0.2516898547952905 1 2336.0 -0.2516898547952905 1
gene  1 1 40 -0.8887089594243242 0 2340.0 -0.8887089594243242 1
gene  1 2 40 -0.356792592875822 0 2341.0 -0.356792592875822 1
gene  1 4 40 -0.45021484769645925 0 2343.0 -0.45021484769645925 1
gene  1 6 40 -0.558686190546241 0 2345.0 -0.558686190546241 1
gene  1 7 40 -0.013483335043433797 0 2346.0 -0.013483335043433797 1
gene  1 8 40 0.37306564317519464 0 2347.0 0.37306564317519464 1
gene  1 9 40 0.7405387032842076 0 2348.0 0.7405387032842076 1
gene  1 10 40 -0.5365779153129917 0 2349.0 -0.5365779153129917 1
gene  1 11 40 -0.9412911946813848 0 2350.0 -0.9412911946813848 1
gene  1 14 40 -0.5559822095845682 0 2353.0 -0.5559822095845682 1
gene  1 23 40 -0.46091488379624945 0 2362.0 -0.46091488379624945 1
gene  1 24 40 0.2399329349508812 0 2363.0 0.2399329349508812 1
gene  1 30 40 0.8375959286238145 0 2369.0 0.8375959286238145 1
gene  1 32 40 -0.09552721287296995 0 2371.0 -0.09552721287296995 1
gene  1 35 40 0.30383060466051937 0 2374.0 0.30383060466051937 1
gene  1 36 40 -0.2167126321995695 0 2375.0 -0.2167126321995695 1
gene  1 37 40 -0.44959670320575074 0 2376.0 -0.44959670320575074 1
gene  1 40 40 -0.6836950472756111 1 2379.0 -0.6836950472756111 1
gene  1 41 40 0.7472752687481821 1 2380.0 0.7472752687481821 1
gene  1 46 40 -0.31363815992473554 1 2385.0 -0.31363815992473554 1
gene  1 47 40 -0.34687408157759414 1 2386.0 -0.34687408157759414 1
gene  1 52 40 0.20916081538269138 1 2391.0 0.20916081538269138 1
gene  1 55 40 -0.4950513686431266 1 2394.0 -0.4950513686431266 1
gene  1 56 40 -0.640188572656153 1 2395.0 -0.640188572656153 1
gene  1 57 40 0.5396209269035585 1 2396.0 0.5396209269035585 1
gene  1 58 40 -0.15601282294582774 1 2397.0 -0.15601282294582774 1
gene  1 60 40 -0.22677655755170245 1 2399.0 -0.22677655755170245 1
gene  1 1 41 0.21528391099564548 0 2400.0 0.21528391099564548 1
gene  1 3 41 0.8220092736742484 0 2402.0 0.8220092736742484 1
gene  1 4 41 -0.7583879858552536 0 2403.0 -0.7583879858552536 1
gene  1 5 41 -0.0836129632976903 0 2404.0 -0.0836129632976903 1
gene  1 6 41 -0.8922591187967845 0 2405.0 -0.8922591187967845 1
gene  1 9 41 -0.8462357742362816 0 2408.0 -0.8462357742362816 1
gene  1 11 41 -0.03229810573328118 0 2410.0 -0.03229810573328118 1
gene  1 12 41 0.9363680173133527 0 2411.0 0.9363680173133527 1
gene  1 13 41 -0.6794207168786803 0 2412.0 -0.6794207168786803 1
gene  1 14 41 -0.0025876061047429566 0 2413.0 -0.0025876061047429566 1
gene  1 15 41 0.09944170707881572 0 2414.0 0.09944170707881572 1
gene  1 16 41 0.0955923910179255 0 2415.0 0.0955923910179255 1
gene  1 21 41 0.9017447641353354 0 2420.0 0.9017447641353354 1
gene  1 24 41 0.17907239408256515 0 2423.0 0.17907239408256515 1
gene  1 25 41 0.2402456710798957 0 2424.0 0.2402456710798957 1
gene  1 31 41 0.11243873381077474 0 2430.0 0.11243873381077474 1
gene  1 32 41 0.24994027608489966 0 2431.0 0.24994027608489966 1
gene  1 34 41 0.7142423820041709 0 2433.0 0.7142423820041709 1
gene  1 35 41 0.6040310627650214 0 2434.0 0.6040310627650214 1
gene  1 37 41 -0.4900092217450557 0 2436.0 -0.4900092217450557 1
gene  1 38 41 0.46136378123843236 0 2437.0 0.46136378123843236 1
gene  1 39 41 0.6991621987227904 0 2438.0 0.6991621987227904 1
gene  1 40 41 -0.6866808715204279 0 2439.0 -0.6866808715204279 1
gene  1 43 41 0.9552456949124817 1 2442.0 0.9552456949124817 1
gene  1 53 41 -0.607697583028247 1 2452.0 -0.607697583028247 1
gene  1 54 41 -0.8862493501548108 1 2453.0 -0.8862493501548108 1
gene  1 58 41 -0.518513216329459 1 2457.0 -0.518513216329459 1
gene  1 60 41 0.8305187441001786 1 2459.0 0.8305187441001786 1
gene  1 3 42 -0.02084135842813717 0 2462.0 -0.02084135842813717 1
gene  1 6 42 -0.02805878622648761 0 2465.0 -0.02805878622648761 1
gene  1 7 42 0.929611473712849 0 2466.0 0.929611473712849 1
gene  1 8 42 -0.5632416949451234 0 2467.0 -0.5632416949451234 1
gene  1 10 42 -0.17443639916971987 0 2469.0 -0.17443639916971987 1
gene  1 11 42 -0.4989632755100495 0 2470.0 -0.4989632755100495 1
gene  1 14 42 -0.4533951668447558 0 2473.0 -0.4533951668447558 1
gene  1 15 42 0.6142334519522765 0 2474.0 0.6142334519522765 1
gene  1 17 42 -0.11653620580530655 0 2476.0 -0.11653620580530655 1
gene  1 18 42 0.5949520851041433 0 2477.0 0.5949520851041433 1
gene  1 19 42 0.05285995888233708 0 2478.0 0.05285995888233708 1
gene  1 20 42 -0.33622282674531534 0 2479.0 -0.33622282674531534 1
gene  1 22 42 -0.6912296319544778 0 2481.0 -0.6912296319544778 1
gene  1 23 42 0.30615756158060115 0 2482.0 0.30615756158060115 1
gene  1 24 42 -0.30318425253839876 0 2483.0 -0.30318425253839876 1
gene  1 25 42 -0.779737120789576 0 2484.0 -0.779737120789576 1
gene  1 29 42 -0.024956732089107425 0 2488.0 -0.024956732089107425 1
gene  1 31 42 0.5048253606759439 0 2490.0 0.5048253606759439 1
gene  1 33 42 0.31917360183715393 0 2492.0 0.31917360183715393 1
gene  1 37 42 0.3034419150366642 0 2496.0 0.3034419150366642 1
gene  1 41 42 -0.9276541521101378 0 2500.0 -0.9276541521101378 1
gene  1 43 42 0.07674365898660984 1 2502.0 0.07674365898660984 1
gene  1 44 42 -0.19055032929833626 1 2503.0 -0.19055032929833626 1
gene  1 47 42 -0.6204571901354687 1 2506.0 -0.6204571901354687 1
gene  1 58 42 -0.6699208676267349 1 2517.0 -0.6699208676267349 1
gene  1 59 42 0.2819946699315855 1 2518.0 0.2819946699315855 1
gene  1 1 43 0.08102962782160461 0 2520.0 0.08102962782160461 1
gene  1 9 43 -0.3338106747483339 0 2528.0 -0.3338106747483339 1
gene  1 10 43 -0.35467742614950226 0 2529.0 -0.35467742614950226 1
gene  1 13 43 -0.5935103008180567 0 2532.0 -0.5935103008180567 1
gene  1 14 43 0.29145916254404935 0 2533.0 0.29145916254404935 1
gene  1 15 43 -0.877412748867342 0 2534.0 -0.877412748867342 1
gene  1 16 43 -0.9742477187742822 0 2535.0 -0.9742477187742822 1
gene  1 18 43 0.00840931713766313 0 2537.0 0.00840931713766313 1
gene  1 20 43 -0.30042342487919194 0 2539.0 -0.30042342487919194 1
gene  1 21 43 0.030039650939346574 0 2540.0 0.030039650939346574 1
gene  1 22 43 0.5097409464490783 0 2541.0 0.5097409464490783 1
gene  1 23 43 -0.7334374126110463 0 2542.0 -0.7334374126110463 1
gene  1 24 43 -0.129380873432417 0 2543.0 -0.129380873432417 1
gene  1 29 43 -0.17695710475626425 0 2548.0 -0.17695710475626425 1
gene  1 36 43 -0.7267505374994158 0 2555.0 -0.7267505374994158 1
gene  1 37 43 0.63488120372019 0 2556.0 0.63488120372019 1
gene  1 38 43 -0.8697479849162281 0 2557.0 -0.8697479849162281 1
gene  1 39 43 0.2970423648103542 0 2558.0 0.2970423648103542 1
gene  1 40 43 -0.8967832828931237 0 2559.0 -0.8967832828931237 1
gene  1 42 43 -0.6348026638905396 0 2561.0 -0.6348026638905396 1
gene  1 43 43 -0.1268732384052137 1 2562.0 -0.1268732384052137 1
gene  1 47 43 0.21448536512083716 1 2566.0 0.21448536512083716 1
gene  1 53 43 0.633934803863051 1 2572.0 0.633934803863051 1
gene  1 54 43 0.595949774038667 1 2573.0 0.595949774038667 1
gene  1 57 43 0.7354430553290131 1 2576.0 0.7354430553290131 1
gene  1 58 43 -0.10715581105818617 1 2577.0 -0.10715581105818617 1
gene  1 60 43 -0.5969540154094816 1 2579.0 -0.5969540154094816 1
gene  1 1 44 0.23071384424587016 0 2580.0 0.23071384424587016 1
gene  1 6 44 0.8717845276359608 0 2585.0 0.8717845276359608 1
gene  1 8 44 0.1641790347086728 0 2587.0 0.1641790347086728 1
gene  1 9 44 0.5431867663500608 0 2588.0 0.5431867663500608 1
gene  1 11 44 0.30537827863287126 0 2590.0 0.30537827863287126 1
gene  1 12 44 -0.6044125174560369 0 2591.0 -0.6044125174560369 1
gene  1 13 44 -0.8607064014821811 0 2592.0 -0.8607064014821811 1
gene  1 16 44 -0.31752622807492326 0 2595.0 -0.31752622807492326 1
gene  1 18 44 0.29686316395137213 0 2597.0 0.29686316395137213 1
gene  1 20 44 0.6930163201490845 0 2599.0 0.6930163201490845 1
gene  1 25 44 -0.7177111709699614 0 2604.0 -0.7177111709699614 1
gene  1 31 44 -0.8603714385178822 0 2610.0 -0.8603714385178822 1
gene  1 33 44 -0.6493166361897176 0 2612.0 -0.6493166361897176 1
gene  1 34 44 -0.760279668949666 0 2613.0 -0.760279668949666 1
gene  1 35 44 0.9601770785643888 0 2614.0 0.9601770785643888 1
gene  1 37 44 0.377024853339361 0 2616.0 0.377024853339361 1
gene  1 38 44 0.6232144887550892 0 2617.0 0.6232144887550892 1
gene  1 39 44 -0.7472314290140853 0 2618.0 -0.7472314290140853 1
gene  1 41 44 0.9214373641880358 0 2620.0 0.9214373641880358 1
gene  1 45 44 -0.9396414424543011 1 2624.0 -0.9396414424543011 1
gene  1 52 44 0.22795433769420825 1 2631.0 0.22795433769420825 1
gene  1 57 44 0.232369006767 1 2636.0 0.232369006767 1
gene  1 59 44 0.7797077350263069 1 2638.0 0.7797077350263069 1
gene  1 2 45 -0.11384416928178476 0 2641.0 -0.11384416928178476 1
gene  1 5 45 -0.9749981572795239 0 2644.0 -0.9749981572795239 1
gene  1 6 45 -0.8930881528521679 0 2645.0 -0.8930881528521679 1
gene  1 8 45 -0.5919491940399088 0 2647.0 -0.5919491940399088 1
gene  1 9 45 -0.696891142331464 0 2648.0 -0.696891142331464 1
gene  1 11 45 0.8240269984603737 0 2650.0 0.8240269984603737 1
gene  1 15 45 -0.24487503106577346 0 2654.0 -0.24487503106577346 1
gene  1 17 45 -0.11888764364193005 0 2656.0 -0.11888764364193005 1
gene  1 18 45 -0.4136372368165201 0 2657.0 -0.4136372368165201 1
gene  1 22 45 0.15780217074790026 0 2661.0 0.15780217074790026 1
gene  1 23 45 0.1735266789095382 0 2662.0 0.1735266789095382 1
gene  1 25 45 0.5439683170114602 0 2664.0 0.5439683170114602 1
gene  1 28 45 -0.8906729732147757 0 2667.0 -0.8906729732147757 1
gene  1 29 45 0.3978281834624162 0 2668.0 0.3978281834624162 1
gene  1 30 45 -0.5269974977892147 0 2669.0 -0.5269974977892147 1
gene  1 31 45 0.4807751321454319 0 2670.0 0.4807751321454319 1
gene  1 32 45 -0.4775164162019886 0 2671.0 -0.4775164162019886 1
gene  1 34 45 -0.7447127712349503 0 2673.0 -0.7447127712349503 1
gene  1 35 45 0.739329176051251 0 2674.0 0.739329176051251 1
gene  1 36 45 -0.1624112438093388 0 2675.0 -0.1624112438093388 1
gene  1 37 45 -0.4255262462500464 0 2676.0 -0.4255262462500464 1
gene  1 43 45 -0.823417957410706 0 2682.0 -0.823417957410706 1
gene  1 44 45 -0.6868938184528345 0 2683.0 -0.6868938184528345 1
gene  1 45 45 0.1088066630454575 1 2684.0 0.1088066630454575 1
gene  1 46 45 -0.5986129408033533 1 2685.0 -0.5986129408033533 1
gene  1 47 45 -0.8603711402963303 1 2686.0 -0.8603711402963303 1
gene  1 51 45 0.5286203685901495 1 2690.0 0.5286203685901495 1
gene  1 54 45 -0.9920560400064785 1 2693.0 -0.9920560400064785 1
gene  1 55 45 -0.6625508854451814 1 2694.0 -0.6625508854451814 1
gene  1 58 45 0.5895082631096158 1 2697.0 0.5895082631096158 1
gene  1 59 45 0.4431190504031487 1 2698.0 0.4431190504031487 1
gene  1 1 46 0.6557332925294925 0 2700.0 0.6557332925294925 1
gene  1 2 46 -0.5788008424128775 0 2701.0 -0.5788008424128775 1
gene  1 6 46 0.8474773914518242 0 2705.0 0.8474773914518242 1
gene  1 10 46 -0.9671705762184432 0 2709.0 -0.9671705762184432 1
gene  1 11 46 0.003593908130257617 0 2710.0 0.003593908130257617 1
gene  1 13 46 -0.07069189276847787 0 2712.0 -0.07069189276847787 1
gene  1 19 46 -0.7910444532302694 0 2718.0 -0.7910444532302694 1
gene  1 22 46 -0.0667946728007287 0 2721.0 -0.0667946728007287 1
gene  1 23 46 -0.6399499580270701 0 2722.0 -0.6399499580270701 1
gene  1 24 46 0.5003985368105514 0 2723.0 0.5003985368105514 1
gene  1 25 46 -0.665686945886943 0 2724.0 -0.665686945886943 1
gene  1 26 46 0.3733086096757072 0 2725.0 0.3733086096757072 1
gene  1 27 46 -0.02395027430416019 0 2726.0 -0.02395027430416019 1
gene  1 30 46 0.6195827759428139 0 2729.0 0.6195827759428139 1
gene  1 32 46 0.9337913317719002 0 2731.0 0.9337913317719002 1
gene  1 33 46 -0.9160670911309691 0 2732.0 -0.9160670911309691 1
gene  1 36 46 0.470558782934935 0 2735.0 0.470558782934935 1
gene  1 39 46 -0.8694189730654331 0 2738.0 -0.8694189730654331 1
gene  1 45 46 0.4910081732267445 0 2744.0 0.4910081732267445 1
gene  1 51 46 0.6389472728468288 1 2750.0 0.6389472728468288 1
gene  1 53 46 -0.4916113838679018 1 2752.0 -0.4916113838679018 1
gene  1 54 46 0.10092924194326836 1 2753.0 0.10092924194326836 1
gene  1 55 46 -0.3642710511822863 1 2754.0 -0.3642710511822863 1
gene  1 58 46 0.4414878062409008 1 2757.0 0.4414878062409008 1
gene  1 59 46 0.7922347783392005 1 2758.0 0.7922347783392005 1
gene  1 1 47 -0.6674473790095573 0 2760.0 -0.6674473790095573 1
gene  1 2 47 -0.19572486160362668 0 2761.0 -0.19572486160362668 1
gene  1 7 47 0.11466942052737983 0 2766.0 0.11466942052737983 1
gene  1 11 47 -0.21429410417380768 0 2770.0 -0.21429410417380768 1
gene  1 12 47 0.07029708592141481 0 2771.0 0.07029708592141481 1
gene  1 13 47 -0.5211894275815425 0 2772.0 -0.5211894275815425 1
gene  1 14 47 -0.5067669640476629 0 2773.0 -0.5067669640476629 1
gene  1 15 47 -0.21443838739810894 0 2774.0 -0.21443838739810894 1
gene  1 16 47 -0.5884831509717351 0 2775.0 -0.5884831509717351 1
gene  1 19 47 0.1945305077202948 0 2778.0 0.1945305077202948 1
gene  1 20 47 0.4520177955406318 0 2779.0 0.4520177955406318 1
gene  1 23 47 0.1666480429423356 0 2782.0 0.1666480429423356 1
gene  1 24 47 -0.3248012990534973 0 2783.0 -0.3248012990534973 1
gene  1 29 47 0.6820262178484143 0 2788.0 0.6820262178484143 1
gene  1 30 47 -0.30392252121599483 0 2789.0 -0.30392252121599483 1
gene  1 31 47 -0.1467463892403127 0 2790.0 -0.1467463892403127 1
gene  1 32 47 0.6950903068136218 0 2791.0 0.6950903068136218 1
gene  1 34 47 0.5419756743626122 0 2793.0 0.5419756743626122 1
gene  1 39 47 -0.45007741295506387 0 2798.0 -0.45007741295506387 1
gene  1 40 47 0.5697808728081091 0 2799.0 0.5697808728081091 1
gene  1 41 47 0.7745756534385931 0 2800.0 0.7745756534385931 1
gene  1 43 47 -0.4497537527922634 0 2802.0 -0.4497537527922634 1
gene  1 45 47 0.5451676261886502 0 2804.0 0.5451676261886502 1
gene  1 46 47 -0.4630486100203982 0 2805.0 -0.4630486100203982 1
gene  1 51 47 0.9049591773673507 1 2810.0 0.9049591773673507 1
gene  1 56 47 0.15949422830400106 1 2815.0 0.15949422830400106 1
gene  1 58 47 -0.7161344171826263 1 2817.0 -0.7161344171826263 1
gene  1 59 47 -0.5422492364474095 1 2818.0 -0.5422492364474095 1
gene  1 1 51 0.22703561792970306 0 3000.0 0.22703561792970306 1
gene  1 6 51 -0.8896880088226318 0 3005.0 -0.8896880088226318 1
gene  1 8 51 -0.9859489345679953 0 3007.0 -0.9859489345679953 1
gene  1 9 51 0.06208524215541611 0 3008.0 0.06208524215541611 1
gene  1 10 51 0.11448878988769695 0 3009.0 0.11448878988769695 1
gene  1 11 51 0.6571872980194493 0 3010.0 0.6571872980194493 1
gene  1 19 51 0.18164054186991363 0 3018.0 0.18164054186991363 1
gene  1 20 51 0.5037588068499428 0 3019.0 0.5037588068499428 1
gene  1 22 51 0.9828296738518318 0 3021.0 0.9828296738518318 1
gene  1 23 51 0.9852642975523526 0 3022.0 0.9852642975523526 1
gene  1 24 51 0.6743691533438226 0 3023.0 0.6743691533438226 1
gene  1 25 51 0.08027520459844262 0 3024.0 0.08027520459844262 1
gene  1 27 51 0.38025855750288584 0 3026.0 0.38025855750288584 1
gene  1 31 51 0.3962090927902895 0 3030.0 0.3962090927902895 1
gene  1 32 51 -0.21490779114533698 0 3031.0 -0.21490779114533698 1
gene  1 33 51 -0.24816942439330647 0 3032.0 -0.24816942439330647 1
gene  1 36 51 -0.24100702010908925 0 3035.0 -0.24100702010908925 1
gene  1 38 51 0.9340698647106471 0 3037.0 0.9340698647106471 1
gene  1 39 51 -0.6317971563649335 0 3038.0 -0.6317971563649335 1
gene  1 41 51 0.5450134784675285 0 3040.0 0.5450134784675285 1
gene  1 44 51 -0.41226445388894795 0 3043.0 -0.41226445388894795 1
gene  1 45 51 0.21201147465450554 0 3044.0 0.21201147465450554 1
gene  1 46 51 0.24090328692052432 0 3045.0 0.24090328692052432 1
gene  1 47 51 0.18150202928777248 0 3046.0 0.18150202928777248 1
gene  1 52 51 0.12831289577747573 1 3051.0 0.12831289577747573 1
gene  1 58 51 0.7517539273964349 1 3057.0 0.7517539273964349 1
gene  1 60 51 0.9477896364462562 1 3059.0 0.9477896364462562 1
gene  1 4 52 -0.6325912514702294 0 3063.0 -0.6325912514702294 1
gene  1 5 52 0.6845536653803574 0 3064.0 0.6845536653803574 1
gene  1 6 52 -0.5868695876478146 0 3065.0 -0.5868695876478146 1
gene  1 7 52 -0.41620933095889323 0 3066.0 -0.41620933095889323 1
gene  1 8 52 -0.64349594748381 0 3067.0 -0.64349594748381 1
gene  1 11 52 -0.703654665793571 0 3070.0 -0.703654665793571 1
gene  1 13 52 -0.6914752011153659 0 3072.0 -0.6914752011153659 1
gene  1 14 52 -0.5195180419788644 0 3073.0 -0.5195180419788644 1
gene  1 15 52 -0.41461944513570204 0 3074.0 -0.41461944513570204 1
gene  1 17 52 0.7393986011394132 0 3076.0 0.7393986011394132 1
gene  1 19 52 0.02202372438291167 0 3078.0 0.02202372438291167 1
gene  1 22 52 0.013659387178995619 0 3081.0 0.013659387178995619 1
gene  1 24 52 -0.4978670166008913 0 3083.0 -0.4978670166008913 1
gene  1 25 52 -0.5436658390489051 0 3084.0 -0.5436658390489051 1
gene  1 27 52 -0.12033580826357781 0 3086.0 -0.12033580826357781 1
gene  1 28 52 0.8817156485355939 0 3087.0 0.8817156485355939 1
gene  1 29 52 0.040312871917247306 0 3088.0 0.040312871917247306 1
gene  1 31 52 0.7504099652391997 0 3090.0 0.7504099652391997 1
gene  1 34 52 -0.9154374483787271 0 3093.0 -0.9154374483787271 1
gene  1 35 52 -0.7463554835445304 0 3094.0 -0.7463554835445304 1
gene  1 37 52 0.2867676700355499 0 3096.0 0.2867676700355499 1
gene  1 39 52 0.4889267434288691 0 3098.0 0.4889267434288691 1
gene  1 40 52 -0.7217896608281756 0 3099.0 -0.7217896608281756 1
gene  1 51 52 0.7577290436066539 0 3110.0 0.7577290436066539 1
gene  1 53 52 0.7092189939674856 1 3112.0 0.7092189939674856 1
gene  1 54 52 0.11799540376227269 1 3113.0 0.11799540376227269 1
gene  1 56 52 -0.4005857369402931 1 3115.0 -0.4005857369402931 1
gene  1 57 52 -0.30471847556360465 1 3116.0 -0.30471847556360465 1
gene  1 1 53 -0.19905294881345392 0 3120.0 -0.19905294881345392 1
gene  1 2 53 0.822784541773324 0 3121.0 0.822784541773324 1
gene  1 5 53 0.21430251013292057 0 3124.0 0.21430251013292057 1
gene  1 10 53 0.1155794974258989 0 3129.0 0.1155794974258989 1
gene  1 11 53 0.5399509589324502 0 3130.0 0.5399509589324502 1
gene  1 12 53 0.7973288052732388 0 3131.0 0.7973288052732388 1
gene  1 13 53 0.3448509794131559 0 3132.0 0.3448509794131559 1
gene  1 16 53 -0.8929174249992505 0 3135.0 -0.8929174249992505 1
gene  1 18 53 -0.8998067433951356 0 3137.0 -0.8998067433951356 1
gene  1 24 53 0.5658469276166567 0 3143.0 0.5658469276166567 1
gene  1 25 53 0.19157960214787373 0 3144.0 0.19157960214787373 1
gene  1 26 53 -0.6350090338771215 0 3145.0 -0.6350090338771215 1
gene  1 27 53 -0.5352125636164039 0 3146.0 -0.5352125636164039 1
gene  1 28 53 0.2045027485617007 0 3147.0 0.2045027485617007 1
gene  1 30 53 0.04301879107330442 0 3149.0 0.04301879107330442 1
gene  1 31 53 -0.5324698756253458 0 3150.0 -0.5324698756253458 1
gene  1 32 53 0.9101848369752014 0 3151.0 0.9101848369752014 1
gene  1 35 53 0.6991079731606582 0 3154.0 0.6991079731606582 1
gene  1 37 53 -0.19846626658154887 0 3156.0 -0.19846626658154887 1
gene  1 39 53 -0.5823074366073903 0 3158.0 -0.5823074366073903 1
gene  1 41 53 0.28187793273783623 0 3160.0 0.28187793273783623 1
gene  1 42 53 0.9107946008084856 0 3161.0 0.9107946008084856 1
gene  1 45 53 -0.07202976886314794 0 3164.0 -0.07202976886314794 1
gene  1 47 53 -0.351000084171472 0 3166.0 -0.351000084171472 1
gene  1 51 53 -0.711982800917819 0 3170.0 -0.711982800917819 1
gene  1 53 53 0.977295998837838 1 3172.0 0.977295998837838 1
gene  1 55 53 -0.7591658480091904 1 3174.0 -0.7591658480091904 1
gene  1 56 53 0.1492856947913037 1 3175.0 0.1492856947913037 1
gene  1 3 54 -0.8071162573387836 0 3182.0 -0.8071162573387836 1
gene  1 5 54 0.917984299419059 0 3184.0 0.917984299419059 1
gene  1 6 54 -0.29755694050089143 0 3185.0 -0.29755694050089143 1
gene  1 8 54 -0.9930876019112633 0 3187.0 -0.9930876019112633 1
gene  1 9 54 -0.08043807789349289 0 3188.0 -0.08043807789349289 1
gene  1 11 54 -0.5614174925641187 0 3190.0 -0.5614174925641187 1
gene  1 12 54 0.7707082172657367 0 3191.0 0.7707082172657367 1
gene  1 14 54 -0.34108238478799224 0 3193.0 -0.34108238478799224 1
gene  1 17 54 0.13752813082938853 0 3196.0 0.13752813082938853 1
gene  1 19 54 -0.10942018319339952 0 3198.0 -0.10942018319339952 1
gene  1 22 54 0.1411435164128918 0 3201.0 0.1411435164128918 1
gene  1 23 54 -0.6778339410567943 0 3202.0 -0.6778339410567943 1
gene  1 25 54 0.3216276625002433 0 3204.0 0.3216276625002433 1
gene  1 26 54 -0.9856026927425794 0 3205.0 -0.9856026927425794 1
gene  1 27 54 -0.46464114318286254 0 3206.0 -0.46464114318286254 1
gene  1 28 54 0.4945595458050608 0 3207.0 0.4945595458050608 1
gene  1 30 54 0.5779862657577919 0 3209.0 0.5779862657577919 1
gene  1 32 54 -0.4920364808139214 0 3211.0 -0.4920364808139214 1
gene  1 34 54 -0.9285486642340055 0 3213.0 -0.9285486642340055 1
gene  1 37 54 0.2842201469067991 0 3216.0 0.2842201469067991 1
gene  1 42 54 -0.10742344729442199 0 3221.0 -0.10742344729442199 1
gene  1 43 54 -0.97824239454838 0 3222.0 -0.97824239454838 1
gene  1 46 54 -0.023706341598275227 0 3225.0 -0.023706341598275227 1
gene  1 53 54 -0.4748649466244955 0 3232.0 -0.4748649466244955 1
gene  1 58 54 -0.5403508036802798 1 3237.0 -0.5403508036802798 1
gene  1 59 54 -0.08378412418089265 1 3238.0 -0.08378412418089265 1
gene  1 1 55 -0.44561384535895243 0 3240.0 -0.44561384535895243 1
gene  1 3 55 0.17052385543099835 0 3242.0 0.17052385543099835 1
gene  1 5 55 0.4613201056000801 0 3244.0 0.4613201056000801 1
gene  1 6 55 -0.3810372842438775 0 3245.0 -0.3810372842438775 1
gene  1 7 55 -0.9178003069763065 0 3246.0 -0.9178003069763065 1
gene  1 8 55 -0.5323079435304697 0 3247.0 -0.5323079435304697 1
gene  1 9 55 0.909454929625406 0 3248.0 0.909454929625406 1
gene  1 13 55 -0.7589445070362291 0 3252.0 -0.7589445070362291 1
gene  1 17 55 -0.7273759360865312 0 3256.0 -0.7273759360865312 1
gene  1 21 55 0.22800908831950062 0 3260.0 0.22800908831950062 1
gene  1 25 55 0.15255089066498584 0 3264.0 0.15255089066498584 1
gene  1 27 55 -0.8519650023813161 0 3266.0 -0.8519650023813161 1
gene  1 28 55 0.09480999257939782 0 3267.0 0.09480999257939782 1
gene  1 29 55 0.7050164713137785 0 3268.0 0.7050164713137785 1
gene  1 32 55 -0.43473403530744326 0 3271.0 -0.43473403530744326 1
gene  1 34 55 -0.04055347677760235 0 3273.0 -0.04055347677760235 1
gene  1 38 55 -0.599317586109341 0 3277.0 -0.599317586109341 1
gene  1 39 55 0.9317981715837298 0 3278.0 0.9317981715837298 1
gene  1 40 55 -0.3037586242729161 0 3279.0 -0.3037586242729161 1
gene  1 42 55 0.1993017730046106 0 3281.0 0.1993017730046106 1
gene  1 43 55 -0.3269515808509108 0 3282.0 -0.3269515808509108 1
gene  1 45 55 0.5249130449088389 0 3284.0 0.5249130449088389 1
gene  1 46 55 -0.48059744165289175 0 3285.0 -0.48059744165289175 1
gene  1 52 55 -0.7246705124975599 0 3291.0 -0.7246705124975599 1
gene  1 53 55 0.5765591801971566 0 3292.0 0.5765591801971566 1
gene  1 55 55 0.8832796899243791 1 3294.0 0.8832796899243791 1
gene  1 59 55 -0.4090911900093104 1 3298.0 -0.4090911900093104 1
gene  1 60 55 0.07371938701814307 1 3299.0 0.07371938701814307 1
gene  1 1 56 -0.27203038887673414 0 3300.0 -0.27203038887673414 1
gene  1 4 56 -0.6253679043409833 0 3303.0 -0.6253679043409833 1
gene  1 6 56 0.6571188504050579 0 3305.0 0.6571188504050579 1
gene  1 13 56 0.33548616702279277 0 3312.0 0.33548616702279277 1
gene  1 17 56 0.40746081193708317 0 3316.0 0.40746081193708317 1
gene  1 18 56 -0.5386021087008255 0 3317.0 -0.5386021087008255 1
gene  1 19 56 0.1949414872900359 0 3318.0 0.1949414872900359 1
gene  1 20 56 -0.34411039162169554 0 3319.0 -0.34411039162169554 1
gene  1 23 56 0.16157835955067257 0 3322.0 0.16157835955067257 1
gene  1 24 56 -0.6584576102241742 0 3323.0 -0.6584576102241742 1
gene  1 25 56 -0.3848478921824404 0 3324.0 -0.3848478921824404 1
gene  1 26 56 0.7432684068967077 0 3325.0 0.7432684068967077 1
gene  1 27 56 0.8225171940548145 0 3326.0 0.8225171940548145 1
gene  1 28 56 -0.4867480289221636 0 3327.0 -0.4867480289221636 1
gene  1 29 56 0.8346541563435452 0 3328.0 0.8346541563435452 1
gene  1 33 56 0.8001772261279797 0 3332.0 0.8001772261279797 1
gene  1 34 56 0.47411547330070036 0 3333.0 0.47411547330070036 1
gene  1 35 56 0.7080782510114813 0 3334.0 0.7080782510114813 1
gene  1 37 56 -0.32352186450294984 0 3336.0 -0.32352186450294984 1
gene  1 38 56 0.8289064255183511 0 3337.0 0.8289064255183511 1
gene  1 39 56 0.9175916598116926 0 3338.0 0.9175916598116926 1
gene  1 40 56 -0.7783791819476331 0 3339.0 -0.7783791819476331 1
gene  1 41 56 0.9513727246726155 0 3340.0 0.9513727246726155 1
gene  1 47 56 -0.8609543254490377 0 3346.0 -0.8609543254490377 1
gene  1 52 56 0.4918194251785881 0 3351.0 0.4918194251785881 1
gene  1 55 56 0.13223195980709235 0 3354.0 0.13223195980709235 1
gene  1 57 56 -0.8141832777909335 1 3356.0 -0.8141832777909335 1
gene  1 58 56 -0.8493183690865241 1 3357.0 -0.8493183690865241 1
gene  1 1 57 -0.062450394088715444 0 3360.0 -0.062450394088715444 1
gene  1 2 57 0.4130876665685469 0 3361.0 0.4130876665685469 1
gene  1 5 57 0.6098019567758517 0 3364.0 0.6098019567758517 1
gene  1 6 57 -0.7233145002520617 0 3365.0 -0.7233145002520617 1
gene  1 8 57 0.27267801148302084 0 3367.0 0.27267801148302084 1
gene  1 9 57 -0.48362629530481294 0 3368.0 -0.48362629530481294 1
gene  1 10 57 -0.04768540357733375 0 3369.0 -0.04768540357733375 1
gene  1 12 57 0.14724699398333907 0 3371.0 0.14724699398333907 1
gene  1 13 57 0.2812213139617592 0 3372.0 0.2812213139617592 1
gene  1 20 57 0.1678843136239948 0 3379.0 0.1678843136239948 1
gene  1 25 57 -0.1080126309996563 0 3384.0 -0.1080126309996563 1
gene  1 28 57 0.8581439853832854 0 3387.0 0.8581439853832854 1
gene  1 30 57 -0.2977370143765531 0 3389.0 -0.2977370143765531 1
gene  1 31 57 -0.8422963407776273 0 3390.0 -0.8422963407776273 1
gene  1 35 57 0.5797944532699655 0 3394.0 0.5797944532699655 1
gene  1 37 57 -0.056975357528061155 0 3396.0 -0.056975357528061155 1
gene  1 42 57 0.7008165621731496 0 3401.0 0.7008165621731496 1
gene  1 43 57 0.49370011935418734 0 3402.0 0.49370011935418734 1
gene  1 47 57 0.8345165016675803 0 3406.0 0.8345165016675803 1
gene  1 54 57 0.9542531888441333 0 3413.0 0.9542531888441333 1
gene  1 55 57 -0.8743456890820769 0 3414.0 -0.8743456890820769 1
gene  1 56 57 0.5472793256222134 0 3415.0 0.5472793256222134 1
gene  1 58 57 -0.06407391895847292 1 3417.0 -0.06407391895847292 1
gene  1 59 57 -0.2842522481632048 1 3418.0 -0.2842522481632048 1
gene  1 1 58 0.9065215649716718 0 3420.0 0.9065215649716718 1
gene  1 2 58 -0.21937249120195268 0 3421.0 -0.21937249120195268 1
gene  1 3 58 -0.7536917202989811 0 3422.0 -0.7536917202989811 1
gene  1 18 58 0.3212232217429769 0 3437.0 0.3212232217429769 1
gene  1 19 58 0.2913411584201472 0 3438.0 0.2913411584201472 1
gene  1 20 58 -0.9364421592379535 0 3439.0 -0.9364421592379535 1
gene  1 21 58 0.6684625939190312 0 3440.0 0.6684625939190312 1
gene  1 22 58 -0.6842250503678635 0 3441.0 -0.6842250503678635 1
gene  1 23 58 0.8808674108551751 0 3442.0 0.8808674108551751 1
gene  1 24 58 0.28403263178130245 0 3443.0 0.28403263178130245 1
gene  1 25 58 0.22423971678889887 0 3444.0 0.22423971678889887 1
gene  1 26 58 0.392271029982903 0 3445.0 0.392271029982903 1
gene  1 27 58 -0.7309018503547783 0 3446.0 -0.7309018503547783 1
gene  1 28 58 0.2943827419339058 0 3447.0 0.2943827419339058 1
gene  1 30 58 0.5799351545761036 0 3449.0 0.5799351545761036 1
gene  1 31 58 -0.2254354135735711 0 3450.0 -0.2254354135735711 1
gene  1 32 58 0.6325677632721378 0 3451.0 0.6325677632721378 1
gene  1 34 58 0.669006594363946 0 3453.0 0.669006594363946 1
gene  1 36 58 -0.8407068177361646 0 3455.0 -0.8407068177361646 1
gene  1 39 58 0.31684850019012534 0 3458.0 0.31684850019012534 1
gene  1 40 58 0.04433915699748325 0 3459.0 0.04433915699748325 1
gene  1 42 58 -0.767895730766444 0 3461.0 -0.767895730766444 1
gene  1 44 58 0.2838598729245243 0 3463.0 0.2838598729245243 1
gene  1 46 58 0.010940974626262645 0 3465.0 0.010940974626262645 1
gene  1 51 58 0.6467151233036268 0 3470.0 0.6467151233036268 1
gene  1 55 58 0.11928699392655684 0 3474.0 0.11928699392655684 1
gene  1 57 58 -0.8172050373691006 0 3476.0 -0.8172050373691006 1
gene  1 58 58 -0.7000739162890165 1 3477.0 -0.7000739162890165 1
gene  1 59 58 0.6953858971889741 1 3478.0 0.6953858971889741 1
gene  1 2 59 -0.5368141990402241 0 3481.0 -0.5368141990402241 1
gene  1 4 59 0.9306451978610073 0 3483.0 0.9306451978610073 1
gene  1 6 59 -0.5293841420685758 0 3485.0 -0.5293841420685758 1
gene  1 7 59 -0.9055959300048088 0 3486.0 -0.9055959300048088 1
gene  1 9 59 -0.1323282553031374 0 3488.0 -0.1323282553031374 1
gene  1 10 59 -0.10531793233808018 0 3489.0 -0.10531793233808018 1
gene  1 12 59 -0.33222745017657174 0 3491.0 -0.33222745017657174 1
gene  1 16 59 -0.4645787968468482 0 3495.0 -0.4645787968468482 1
gene  1 17 59 0.025108757132727755 0 3496.0 0.025108757132727755 1
gene  1 18 59 0.07199341995035435 0 3497.0 0.07199341995035435 1
gene  1 24 59 -0.8293368559307106 0 3503.0 -0.8293368559307106 1
gene  1 25 59 -0.4413973124474354 0 3504.0 -0.4413973124474354 1
gene  1 26 59 -0.04836334442033319 0 3505.0 -0.04836334442033319 1
gene  1 27 59 0.9547794481437522 0 3506.0 0.9547794481437522 1
gene  1 29 59 0.25642384927540585 0 3508.0 0.25642384927540585 1
gene  1 30 59 0.8921216412588115 0 3509.0 0.8921216412588115 1
gene  1 35 59 -0.4029460039905599 0 3514.0 -0.4029460039905599 1
gene  1 36 59 0.3625558191895132 0 3515.0 0.3625558191895132 1
gene  1 37 59 0.04950793118748509 0 3516.0 0.04950793118748509 1
gene  1 38 59 -0.18774292607706144 0 3517.0 -0.18774292607706144 1
gene  1 40 59 0.9016354116565402 0 3519.0 0.9016354116565402 1
gene  1 44 59 -0.9858648567362568 0 3523.0 -0.9858648567362568 1
gene  1 45 59 -0.7462101123379564 0 3524.0 -0.7462101123379564 1
gene  1 47 59 0.9141543324845077 0 3526.0 0.9141543324845077 1
gene  1 56 59 -0.06497865309394157 0 3535.0 -0.06497865309394157 1
gene  1 57 59 0.48001090063438 0 3536.0 0.48001090063438 1
gene  1 58 59 -0.6954075683023918 0 3537.0 -0.6954075683023918 1
gene  1 60 59 -0.2964093243336908 1 3539.0 -0.2964093243336908 1
gene  1 2 60 0.9858826051745445 0 3541.0 0.9858826051745445 1
gene  1 3 60 -0.04653435414484797 0 3542.0 -0.04653435414484797 1
gene  1 6 60 0.7072168831024346 0 3545.0 0.7072168831024346 1
gene  1 7 60 -0.7186428742662182 0 3546.0 -0.7186428742662182 1
gene  1 9 60 0.17345959373754383 0 3548.0 0.17345959373754383 1
gene  1 11 60 0.5175631194306043 0 3550.0 0.5175631194306043 1
gene  1 14 60 0.22982111037717 0 3553.0 0.22982111037717 1
gene  1 18 60 0.0787379730006641 0 3557.0 0.0787379730006641 1
gene  1 26 60 -0.8501105131901341 0 3565.0 -0.8501105131901341 1
gene  1 27 60 0.17522211581498381 0 3566.0 0.17522211581498381 1
gene  1 28 60 0.6781267961287377 0 3567.0 0.6781267961287377 1
gene  1 30 60 0.5121435943282435 0 3569.0 0.5121435943282435 1
gene  1 31 60 0.726843072752874 0 3570.0 0.726843072752874 1
gene  1 33 60 -0.4475867756658847 0 3572.0 -0.4475867756658847 1
gene  1 36 60 -0.9399525738691246 0 3575.0 -0.9399525738691246 1
gene  1 37 60 0.3181725164379541 0 3576.0 0.3181725164379541 1
gene  1 39 60 -0.6721310191024975 0 3578.0 -0.6721310191024975 1
gene  1 40 60 0.8817642114553591 0 3579.0 0.8817642114553591 1
gene  1 42 60 0.9861043897486301 0 3581.0 0.9861043897486301 1
gene  1 43 60 -0.6474844861838197 0 3582.0 -0.6474844861838197 1
gene  1 44 60 -0.9553558036198775 0 3583.0 -0.9553558036198775 1
gene  1 51 60 -0.9436159873399563 0 3590.0 -0.9436159873399563 1
gene  1 52 60 0.6583553007272634 0 3591.0 0.6583553007272634 1
gene  1 55 60 -0.8810148808157949 0 3594.0 -0.8810148808157949 1
gene  1 57 60 -0.6575425871212236 0 3596.0 -0.6575425871212236 1
gene  1 59 60 0.6943110984906498 0 3598.0 0.6943110984906498 1
gene  1 60 60 -0.710466224298397 1 3599.0 -0.710466224298397 1
genomeend 1
