genomestart  1
trait 1 0.0 0.0 0.0 0.0 0.0 0.0 0.0 0.0 
node 1 1 1 1
node 2 1 1 1
node 3 1 1 1
node 4 1 1 1
node 5 1 1 1
node 6 1 1 1
node 7 1 1 1
node 8 1 1 1
node 9 1 1 1
node 10 1 1 3
node 11 1 0 0
node 12 1 0 0
node 13 1 0 0
node 14 1 0 0
node 15 1 0 0
node 16 1 0 0
node 17 1 0 0
node 18 1 0 0
node 19 1 0 0
node 20 1 0 0
node 21 1 0 0
node 22 1 0 0
node 23 1 0 0
node 24 1 0 0
node 25 1 0 0
node 26 1 0 0
node 27 1 0 0
node 28 1 0 0
node 29 1 0 0
node 30 1 0 0
node 31 1 0 0
node 32 1 0 0
node 33 1 0 0
node 34 1 0 0
node 35 1 0 0
node 36 1 0 0
node 37 1 0 0
node 38 1 0 0
node 39 1 0 0
node 51 1 0 2
node 52 1 0 2
node 53 1 0 2
node 54 1 0 2
node 55 1 0 2
node 56 1 0 2
node 57 1 0 2
node 58 1 0 2
node 59 1 0 2
node 60 1 0 2
gene  1 1 11 -0.21485854550658634 0 600.0 -0.21485854550658634 1
gene  1 6 11 -0.9270591016137473 0 605.0 -0.9270591016137473 1
gene  1 7 11 -0.5370227138614144 0 606.0 -0.5370227138614144 1
gene  1 8 11 0.2964671861266116 0 607.0 0.2964671861266116 1
gene  1 9 11 0.490987950747818 0 608.0 0.490987950747818 1
gene  1 10 11 -0.8607663034281376 0 609.0 -0.8607663034281376 1
gene  1 11 11 -0.9430449463954133 1 610.0 -0.9430449463954133 1
gene  1 12 11 -0.7426352832886685 1 611.0 -0.7426352832886685 1
gene  1 13 11 -0.8242016686489073 1 612.0 -0.8242016686489073 1
gene  1 15 11 -0.5819599585798404 1 614.0 -0.5819599585798404 1
gene  1 18 11 -0.7655487382490944 1 617.0 -0.7655487382490944 1
gene  1 19 11 0.019187760481493732 1 618.0 0.019187760481493732 1
gene  1 21 11 -0.5300169079006489 1 620.0 -0.5300169079006489 1
gene  1 22 11 0.5839521630898394 1 621.0 0.5839521630898394 1
gene  1 26 11 0.9079835149183874 1 625.0 0.9079835149183874 1
gene  1 27 11 -0.6796906712593906 1 626.0 -0.6796906712593906 1
gene  1 28 11 0.26083031487171426 1 627.0 0.26083031487171426 1
gene  1 29 11 0.2382112744988365 1 628.0 0.2382112744988365 1
gene  1 30 11 -0.10929807344104436 1 629.0 -0.10929807344104436 1
gene  1 31 11 -0.1867982686104407 1 630.0 -0.1867982686104407 1
gene  1 35 11 -0.43199506604784377 1 634.0 -0.43199506604784377 1
gene  1 36 11 0.4437379893128386 1 635.0 0.4437379893128386 1
gene  1 37 11 0.2182964697632771 1 636.0 0.2182964697632771 1
gene  1 38 11 -0.5814242561962648 1 637.0 -0.5814242561962648 1
gene  1 39 11 -0.9210321919984237 1 638.0 -0.9210321919984237 1
gene  1 52 11 0.09158442313429449 1 651.0 0.09158442313429449 1
gene  1 53 11 -0.03545418054695337 1 652.0 -0.03545418054695337 1
gene  1 55 11 -0.6236764838189802 1 654.0 -0.6236764838189802 1
gene  1 56 11 0.5013169415456743 1 655.0 0.5013169415456743 1
gene  1 57 11 -0.2951749352253876 1 656.0 -0.2951749352253876 1
gene  1 59 11 0.6290399747665457 1 658.0 0.6290399747665457 1
gene  1 60 11 -0.9086599522033703 1 659.0 -0.9086599522033703 1
gene  1 1 12 -0.7087063884113621 0 660.0 -0.7087063884113621 1
gene  1 4 12 -0.760690033994952 0 663.0 -0.760690033994952 1
gene  1 5 12 0.911574327289461 0 664.0 0.911574327289461 1
gene  1 7 12 0.0653443809830414 0 666.0 0.0653443809830414 1
gene  1 8 12 0.9118434171933257 0 667.0 0.9118434171933257 1
gene  1 11 12 0.4439501880946153 0 670.0 0.4439501880946153 1
gene  1 13 12 0.17083109855377265 1 672.0 0.17083109855377265 1
gene  1 14 12 -0.6867806705136621 1 673.0 -0.6867806705136621 1
gene  1 15 12 -0.10120057740265886 1 674.0 -0.10120057740265886 1
gene  1 17 12 0.2424273943106363 1 676.0 0.2424273943106363 1
gene  1 21 12 -0.3283592838448013 1 680.0 -0.3283592838448013 1
gene  1 22 12 -0.7449201793038837 1 681.0 -0.7449201793038837 1
gene  1 23 12 -0.33710112276240034 1 682.0 -0.33710112276240034 1
gene  1 24 12 0.4940429396357794 1 683.0 0.4940429396357794 1
gene  1 30 12 -0.8863409271363902 1 689.0 -0.8863409271363902 1
gene  1 31 12 0.7773977749996834 1 690.0 0.7773977749996834 1
gene  1 32 12 -0.3336413692903005 1 691.0 -0.3336413692903005 1
gene  1 34 12 -0.4484702773749094 1 693.0 -0.4484702773749094 1
gene  1 39 12 0.8058621339238397 1 698.0 0.8058621339238397 1
gene  1 52 12 -0.44551743948643585 1 711.0 -0.44551743948643585 1
gene  1 54 12 0.4061738955744211 1 713.0 0.4061738955744211 1
gene  1 56 12 0.20132849188386814 1 715.0 0.20132849188386814 1
gene  1 57 12 -0.21858325016169344 1 716.0 -0.21858325016169344 1
gene  1 58 12 -0.2353370540589247 1 717.0 -0.2353370540589247 1
gene  1 59 12 -0.999212489763317 1 718.0 -0.999212489763317 1
gene  1 60 12 0.2558643146978743 1 719.0 0.2558643146978743 1
gene  1 4 13 0.7384522774479859 0 723.0 0.7384522774479859 1
gene  1 5 13 0.17456665890446565 0 724.0 0.17456665890446565 1
gene  1 6 13 -0.4355732008430505 0 725.0 -0.4355732008430505 1
gene  1 7 13 0.42880287704002407 0 726.0 0.42880287704002407 1
gene  1 9 13 0.8364903824710327 0 728.0 0.8364903824710327 1
gene  1 10 13 0.7687332179506864 0 729.0 0.7687332179506864 1
gene  1 11 13 -0.004437389523529234 0 730.0 -0.004437389523529234 1
gene  1 14 13 -0.13469376229903463 1 733.0 -0.13469376229903463 1
gene  1 16 13 0.9426399567638307 1 735.0 0.9426399567638307 1
gene  1 17 13 0.7068550969654096 1 736.0 0.7068550969654096 1
gene  1 18 13 0.3258512265987641 1 737.0 0.3258512265987641 1
gene  1 22 13 0.6633587514907394 1 741.0 0.6633587514907394 1
gene  1 23 13 0.6139325042217537 1 742.0 0.6139325042217537 1
gene  1 26 13 -0.7702196258254016 1 745.0 -0.7702196258254016 1
gene  1 29 13 -0.3038739670629188 1 748.0 -0.3038739670629188 1
gene  1 31 13 0.2644079812579462 1 750.0 0.2644079812579462 1
gene  1 32 13 -0.7744053309452179 1 751.0 -0.7744053309452179 1
gene  1 35 13 -0.30265060706493174 1 754.0 -0.30265060706493174 1
gene  1 36 13 0.2939462117218705 1 755.0 0.2939462117218705 1
gene  1 37 13 -0.1370505413643669 1 756.0 -0.1370505413643669 1
gene  1 38 13 -0.002750245023199094 1 757.0 -0.002750245023199094 1
gene  1 39 13 0.3061462525738693 1 758.0 0.3061462525738693 1
gene  1 51 13 -0.16773120580291867 1 770.0 -0.16773120580291867 1
gene  1 54 13 0.6177812322132241 1 773.0 0.6177812322132241 1
gene  1 55 13 0.4789659957876994 1 774.0 0.4789659957876994 1
gene  1 6 14 0.9355959750983299 0 785.0 0.9355959750983299 1
gene  1 9 14 0.2382269362212731 0 788.0 0.2382269362212731 1
gene  1 12 14 -0.3975448960951322 0 791.0 -0.3975448960951322 1
gene  1 14 14 -0.15853490174422802 1 793.0 -0.15853490174422802 1
gene  1 17 14 -0.8384526946110831 1 796.0 -0.8384526946110831 1
gene  1 19 14 0.9087687069703523 1 798.0 0.9087687069703523 1
gene  1 20 14 -0.7776119529398259 1 799.0 -0.7776119529398259 1
gene  1 21 14 -0.22595450314315524 1 800.0 -0.22595450314315524 1
gene  1 22 14 -0.3621301475543386 1 801.0 -0.3621301475543386 1
gene  1 23 14 -0.0029292946848094026 1 802.0 -0.0029292946848094026 1
gene  1 24 14 0.19296050873635628 1 803.0 0.19296050873635628 1
gene  1 25 14 -0.8898044455962308 1 804.0 -0.8898044455962308 1
gene  1 27 14 -0.31027012705250523 1 806.0 -0.31027012705250523 1
gene  1 28 14 0.011441562389580162 1 807.0 0.011441562389580162 1
gene  1 30 14 0.25615033720197333 1 809.0 0.25615033720197333 1
gene  1 35 14 -0.1667684453061038 1 814.0 -0.1667684453061038 1
gene  1 36 14 -0.3300133095762876 1 815.0 -0.3300133095762876 1
gene  1 39 14 -0.6221546772630618 1 818.0 -0.6221546772630618 1
gene  1 52 14 -0.7755586762544044 1 831.0 -0.7755586762544044 1
gene  1 56 14 0.8068872656535035 1 835.0 0.8068872656535035 1
gene  1 1 15 0.5515198271148726 0 840.0 0.5515198271148726 1
gene  1 2 15 0.46660521876763505 0 841.0 0.46660521876763505 1
gene  1 4 15 -0.8108765366349764 0 843.0 -0.8108765366349764 1
gene  1 6 15 -0.8283924237544927 0 845.0 -0.8283924237544927 1
gene  1 9 15 -0.15810328507674276 0 848.0 -0.15810328507674276 1
gene  1 10 15 -0.7808263353416453 0 849.0 -0.7808263353416453 1
gene  1 11 15 0.18675440278346556 0 850.0 0.18675440278346556 1
gene  1 12 15 -0.9462405158280407 0 851.0 -0.9462405158280407 1
gene  1 13 15 -0.7547222645538559 0 852.0 -0.7547222645538559 1
gene  1 16 15 -0.8191956124576113 1 855.0 -0.8191956124576113 1
gene  1 19 15 0.6926333491341246 1 858.0 0.6926333491341246 1
gene  1 20 15 0.22928270206675605 1 859.0 0.22928270206675605 1
gene  1 21 15 -0.8228503127673304 1 860.0 -0.8228503127673304 1
gene  1 23 15 0.23097677116636084 1 862.0 0.23097677116636084 1
gene  1 25 15 -0.762675024544007 1 864.0 -0.762675024544007 1
gene  1 27 15 -0.6390930151372112 1 866.0 -0.6390930151372112 1
gene  1 28 15 0.033925552903861456 1 867.0 0.033925552903861456 1
gene  1 30 15 0.9841522240642483 1 869.0 0.9841522240642483 1
gene  1 32 15 0.9232516352966049 1 871.0 0.9232516352966049 1
gene  1 36 15 0.26794217745324944 1 875.0 0.26794217745324944 1
gene  1 38 15 0.5590484817163227 1 877.0 0.5590484817163227 1
gene  1 39 15 0.746465091204428 1 878.0 0.746465091204428 1
gene  1 51 15 0.9950017751208876 1 890.0 0.9950017751208876 1
gene  1 53 15 0.48021714534355897 1 892.0 0.48021714534355897 1
gene  1 54 15 -0.8111075797921213 1 893.0 -0.8111075797921213 1
gene  1 55 15 -0.2774529694827371 1 894.0 -0.2774529694827371 1
gene  1 59 15 -0.5796882415307001 1 898.0 -0.5796882415307001 1
gene  1 60 15 0.19360421123314786 1 899.0 0.19360421123314786 1
gene  1 1 16 0.8232017095172635 0 900.0 0.8232017095172635 1
gene  1 4 16 0.3877007798541595 0 903.0 0.3877007798541595 1
gene  1 5 16 -0.9960868808632375 0 904.0 -0.9960868808632375 1
gene  1 7 16 -0.933298665194628 0 906.0 -0.933298665194628 1
gene  1 8 16 -0.9746012730728615 0 907.0 -0.9746012730728615 1
gene  1 13 16 0.3444811107232063 0 912.0 0.3444811107232063 1
gene  1 16 16 -0.6603296281833816 1 915.0 -0.6603296281833816 1
gene  1 17 16 0.3209814149792085 1 916.0 0.3209814149792085 1
gene  1 20 16 0.27743282735379315 1 919.0 0.27743282735379315 1
gene  1 22 16 0.38017578776695105 1 921.0 0.38017578776695105 1
gene  1 25 16 -0.15034727110938673 1 924.0 -0.15034727110938673 1
gene  1 27 16 0.383786415838107 1 926.0 0.383786415838107 1
gene  1 28 16 0.42303798682815763 1 927.0 0.42303798682815763 1
gene  1 30 16 -0.7470465004364585 1 929.0 -0.7470465004364585 1
gene  1 36 16 -0.42649714044315123 1 935.0 -0.42649714044315123 1
gene  1 37 16 -0.5973258948255493 1 936.0 -0.5973258948255493 1
gene  1 39 16 -0.23018457926043367 1 938.0 -0.23018457926043367 1
gene  1 53 16 -0.78658467276883 1 952.0 -0.78658467276883 1
gene  1 54 16 0.08569310964615107 1 953.0 0.08569310964615107 1
gene  1 55 16 -0.31826914851588906 1 954.0 -0.31826914851588906 1
gene  1 56 16 -0.7459991176485433 1 955.0 -0.7459991176485433 1
gene  1 59 16 0.893234501468052 1 958.0 0.893234501468052 1
gene  1 60 16 -0.14832254469833672 1 959.0 -0.14832254469833672 1
gene  1 3 17 0.17008524286159343 0 962.0 0.17008524286159343 1
gene  1 7 17 -0.7170315947412664 0 966.0 -0.7170315947412664 1
gene  1 8 17 0.3720376402634471 0 967.0 0.3720376402634471 1
gene  1 9 17 0.8692577844916992 0 968.0 0.8692577844916992 1
gene  1 14 17 -0.7713396781003289 0 973.0 -0.7713396781003289 1
gene  1 15 17 -0.39901156189889697 0 974.0 -0.39901156189889697 1
gene  1 17 17 -0.7608580523996169 1 976.0 -0.7608580523996169 1
gene  1 18 17 0.9390455156057141 1 977.0 0.9390455156057141 1
gene  1 22 17 0.7372287533099134 1 981.0 0.7372287533099134 1
gene  1 24 17 0.12074260991468244 1 983.0 0.12074260991468244 1
gene  1 27 17 -0.6253494410113475 1 986.0 -0.6253494410113475 1
gene  1 33 17 0.3209533187568979 1 992.0 0.3209533187568979 1
gene  1 34 17 -0.2365713671475388 1 993.0 -0.2365713671475388 1
gene  1 36 17 0.8057175899227866 1 995.0 0.8057175899227866 1
gene  1 39 17 -0.47563916790023886 1 998.0 -0.47563916790023886 1
gene  1 51 17 0.8354170221585624 1 1010.0 0.8354170221585624 1
gene  1 52 17 -0.18985667057477074 1 1011.0 -0.18985667057477074 1
gene  1 54 17 -0.9143030630549734 1 1013.0 -0.9143030630549734 1
gene  1 55 17 0.8066122219459946 1 1014.0 0.8066122219459946 1
gene  1 56 17 0.5463833231424308 1 1015.0 0.5463833231424308 1
gene  1 58 17 0.887645743685377 1 1017.0 0.887645743685377 1
gene  1 60 17 -0.36399557385274806 1 1019.0 -0.36399557385274806 1
gene  1 1 18 -0.2593485000274709 0 1020.0 -0.2593485000274709 1
gene  1 2 18 -0.4742763044147176 0 1021.0 -0.4742763044147176 1
gene  1 6 18 -0.8779944433618659 0 1025.0 -0.8779944433618659 1
gene  1 10 18 -0.7639273810216236 0 1029.0 -0.7639273810216236 1
gene  1 12 18 0.14223798442568902 0 1031.0 0.14223798442568902 1
gene  1 15 18 0.217403289265916 0 1034.0 0.217403289265916 1
gene  1 16 18 -0.19883411852654054 0 1035.0 -0.19883411852654054 1
gene  1 17 18 -0.34550272041585006 0 1036.0 -0.34550272041585006 1
gene  1 19 18 -0.5609825823640904 1 1038.0 -0.5609825823640904 1
gene  1 20 18 0.6265008246786946 1 1039.0 0.6265008246786946 1
gene  1 23 18 0.7455135168733532 1 1042.0 0.7455135168733532 1
gene  1 26 18 -0.8511621994473227 1 1045.0 -0.8511621994473227 1
gene  1 27 18 -0.8833824842361199 1 1046.0 -0.8833824842361199 1
gene  1 28 18 0.774125535409103 1 1047.0 0.774125535409103 1
gene  1 29 18 0.8909500219708532 1 1048.0 0.8909500219708532 1
gene  1 31 18 -0.15955673422520233 1 1050.0 -0.15955673422520233 1
gene  1 34 18 -0.3256602831284501 1 1053.0 -0.3256602831284501 1
gene  1 35 18 -0.4794123603502738 1 1054.0 -0.4794123603502738 1
gene  1 39 18 -0.5889085491512824 1 1058.0 -0.5889085491512824 1
gene  1 51 18 -0.8640003718244984 1 1070.0 -0.8640003718244984 1
gene  1 54 18 0.8821388180762212 1 1073.0 0.8821388180762212 1
gene  1 55 18 -0.5864248631391499 1 1074.0 -0.5864248631391499 1
gene  1 58 18 -0.5595536766784049 1 1077.0 -0.5595536766784049 1
gene  1 4 19 0.40246841219177276 0 1083.0 0.40246841219177276 1
gene  1 5 19 -0.3412713607405331 0 1084.0 -0.3412713607405331 1
gene  1 7 19 0.9073546444718005 0 1086.0 0.9073546444718005 1
gene  1 11 19 0.7972003529538196 0 1090.0 0.7972003529538196 1
gene  1 13 19 -0.6664971047694521 0 1092.0 -0.6664971047694521 1
gene  1 18 19 -0.6221159696104689 0 1097.0 -0.6221159696104689 1
gene  1 20 19 -0.19600732870665272 1 1099.0 -0.19600732870665272 1
gene  1 21 19 0.36660346057071835 1 1100.0 0.36660346057071835 1
gene  1 27 19 -0.5323825144524749 1 1106.0 -0.5323825144524749 1
gene  1 30 19 0.4320116206230067 1 1109.0 0.4320116206230067 1
gene  1 36 19 -0.037541008611267856 1 1115.0 -0.037541008611267856 1
gene  1 38 19 -0.12652335762521238 1 1117.0 -0.12652335762521238 1
gene  1 39 19 0.18469964702089137 1 1118.0 0.18469964702089137 1
gene  1 51 19 0.26599356552368814 1 1130.0 0.26599356552368814 1
gene  1 53 19 -0.06186397568498403 1 1132.0 -0.06186397568498403 1
gene  1 54 19 0.7949133743272305 1 1133.0 0.7949133743272305 1
gene  1 55 19 -0.8973797225783592 1 1134.0 -0.8973797225783592 1
gene  1 3 20 -0.940790821551575 0 1142.0 -0.940790821551575 1
gene  1 4 20 0.20440310431167874 0 1143.0 0.20440310431167874 1
gene  1 5 20 0.3529942426289895 0 1144.0 0.3529942426289895 1
gene  1 10 20 -0.5437716863258821 0 1149.0 -0.5437716863258821 1
gene  1 11 20 -0.25237120884054987 0 1150.0 -0.25237120884054987 1
gene  1 12 20 0.7524377012063905 0 1151.0 0.7524377012063905 1
gene  1 13 20 -0.6766900763018642 0 1152.0 -0.6766900763018642 1
gene  1 14 20 0.20103744105095023 0 1153.0 0.20103744105095023 1
gene  1 16 20 0.45910093522317885 0 1155.0 0.45910093522317885 1
gene  1 17 20 -0.8905548977911983 0 1156.0 -0.8905548977911983 1
gene  1 18 20 0.031248937091038487 0 1157.0 0.031248937091038487 1
gene  1 19 20 0.957014789222688 0 1158.0 0.957014789222688 1
gene  1 22 20 0.2877068971063219 1 1161.0 0.2877068971063219 1
gene  1 29 20 -0.2670905084277072 1 1168.0 -0.2670905084277072 1
gene  1 31 20 0.5130861761406749 1 1170.0 0.5130861761406749 1
gene  1 33 20 0.31484305358680176 1 1172.0 0.31484305358680176 1
gene  1 34 20 -0.12328399641310939 1 1173.0 -0.12328399641310939 1
gene  1 36 20 -0.47611854089916583 1 1175.0 -0.47611854089916583 1
gene  1 54 20 -0.06357314773511524 1 1193.0 -0.06357314773511524 1
gene  1 60 20 0.30205879910855127 1 1199.0 0.30205879910855127 1
gene  1 1 21 -0.23636586579816188 0 1200.0 -0.23636586579816188 1
gene  1 2 21 0.12746515122649715 0 1201.0 0.12746515122649715 1
gene  1 3 21 -0.5011217335128827 0 1202.0 -0.5011217335128827 1
gene  1 4 21 -0.6407980001934253 0 1203.0 -0.6407980001934253 1
gene  1 11 21 2.40250416193466E-4 0 1210.0 2.40250416193466E-4 1
gene  1 12 21 -0.5605421480548216 0 1211.0 -0.5605421480548216 1
gene  1 13 21 0.35584099430150484 0 1212.0 0.35584099430150484 1
gene  1 14 21 0.7228138445960436 0 1213.0 0.7228138445960436 1
gene  1 18 21 0.41277757515788116 0 1217.0 0.41277757515788116 1
gene  1 20 21 0.05609382061554935 0 1219.0 0.05609382061554935 1
gene  1 24 21 -0.6774888347268095 1 1223.0 -0.6774888347268095 1
gene  1 25 21 -0.9902466906094863 1 1224.0 -0.9902466906094863 1
gene  1 28 21 0.1334690564476937 1 1227.0 0.1334690564476937 1
gene  1 29 21 0.2821712867107796 1 1228.0 0.2821712867107796 1
gene  1 31 21 -0.501515677001543 1 1230.0 -0.501515677001543 1
gene  1 32 21 0.9678469681945547 1 1231.0 0.9678469681945547 1
gene  1 34 21 -0.12442539047851231 1 1233.0 -0.12442539047851231 1
gene  1 36 21 0.4551137628133216 1 1235.0 0.4551137628133216 1
gene  1 38 21 0.17566896442030977 1 1237.0 0.17566896442030977 1
gene  1 39 21 0.1764097570361134 1 1238.0 0.1764097570361134 1
gene  1 54 21 -0.711936295258397 1 1253.0 -0.711936295258397 1
gene  1 55 21 0.44072023051231435 1 1254.0 0.44072023051231435 1
gene  1 56 21 0.19375461481730716 1 1255.0 0.19375461481730716 1
gene  1 58 21 0.5166660667805815 1 1257.0 0.5166660667805815 1
gene  1 60 21 -0.0028695102382980675 1 1259.0 -0.0028695102382980675 1
gene  1 4 22 0.5122077616919795 0 1263.0 0.5122077616919795 1
gene  1 6 22 0.7734565525506516 0 1265.0 0.7734565525506516 1
gene  1 7 22 -0.2182955946358136 0 1266.0 -0.2182955946358136 1
gene  1 11 22 -0.55961389947682 0 1270.0 -0.55961389947682 1
gene  1 13 22 0.32642039515074317 0 1272.0 0.32642039515074317 1
gene  1 16 22 -0.918200979547478 0 1275.0 -0.918200979547478 1
gene  1 17 22 -0.8549651647228654 0 1276.0 -0.8549651647228654 1
gene  1 20 22 -0.6922311234322494 0 1279.0 -0.6922311234322494 1
gene  1 21 22 -0.593895473681592 0 1280.0 -0.593895473681592 1
gene  1 22 22 -0.6823964808112959 1 1281.0 -0.6823964808112959 1
gene  1 23 22 -0.222610805515143 1 1282.0 -0.222610805515143 1
gene  1 25 22 -0.7226383244320022 1 1284.0 -0.7226383244320022 1
gene  1 26 22 0.9770070476374826 1 1285.0 0.9770070476374826 1
gene  1 28 22 0.425332458706425 1 1287.0 0.425332458706425 1
gene  1 29 22 0.5382043373192991 1 1288.0 0.5382043373192991 1
gene  1 30 22 -0.8405414530558395 1 1289.0 -0.8405414530558395 1
gene  1 31 22 -0.6380587025633377 1 1290.0 -0.6380587025633377 1
gene  1 32 22 -0.8988067339367436 1 1291.0 -0.8988067339367436 1
gene  1 33 22 0.6479841781372212 1 1292.0 0.6479841781372212 1
gene  1 37 22 0.35388672104329133 1 1296.0 0.35388672104329133 1
gene  1 38 22 0.11983838502368893 1 1297.0 0.11983838502368893 1
gene  1 52 22 0.5212772898724545 1 1311.0 0.5212772898724545 1
gene  1 55 22 -0.9299687108814556 1 1314.0 -0.9299687108814556 1
gene  1 57 22 -0.05908645579621852 1 1316.0 -0.05908645579621852 1
gene  1 58 22 0.5280924079359649 1 1317.0 0.5280924079359649 1
gene  1 59 22 -0.39797244742946336 1 1318.0 -0.39797244742946336 1
gene  1 1 23 -0.7622649080973525 0 1320.0 -0.7622649080973525 1
gene  1 3 23 -0.36137090478320144 0 1322.0 -0.36137090478320144 1
gene  1 6 23 -0.3113227479064796 0 1325.0 -0.3113227479064796 1
gene  1 8 23 0.8497960916727959 0 1327.0 0.8497960916727959 1
gene  1 10 23 0.7173706975211117 0 1329.0 0.7173706975211117 1
gene  1 11 23 -0.5783542932116864 0 1330.0 -0.5783542932116864 1
gene  1 14 23 -0.9203304550467184 0 1333.0 -0.9203304550467184 1
gene  1 15 23 0.008760638566866374 0 1334.0 0.008760638566866374 1
gene  1 16 23 0.6788509326083385 0 1335.0 0.6788509326083385 1
gene  1 17 23 -0.3972008595978065 0 1336.0 -0.3972008595978065 1
gene  1 19 23 -0.7594639118961816 0 1338.0 -0.7594639118961816 1
gene  1 21 23 -0.5656682905834916 0 1340.0 -0.5656682905834916 1
gene  1 22 23 -0.49033043614281036 0 1341.0 -0.49033043614281036 1
gene  1 23 23 -0.7364195634310771 1 1342.0 -0.7364195634310771 1
gene  1 27 23 0.7044029064018944 1 1346.0 0.7044029064018944 1
gene  1 28 23 -0.9553198013244539 1 1347.0 -0.9553198013244539 1
gene  1 32 23 -0.40194831454424707 1 1351.0 -0.40194831454424707 1
gene  1 33 23 -0.7179709067621322 1 1352.0 -0.7179709067621322 1
gene  1 35 23 0.007716437407558341 1 1354.0 0.007716437407558341 1
gene  1 39 23 0.12100935894963816 1 1358.0 0.12100935894963816 1
gene  1 52 23 0.8248891158566727 1 1371.0 0.8248891158566727 1
gene  1 53 23 0.1865742094662256 1 1372.0 0.1865742094662256 1
gene  1 54 23 0.20294001221194635 1 1373.0 0.20294001221194635 1
gene  1 56 23 0.7956918410142234 1 1375.0 0.7956918410142234 1
gene  1 57 23 0.8233583473428157 1 1376.0 0.8233583473428157 1
gene  1 58 23 -0.2452735063101682 1 1377.0 -0.2452735063101682 1
gene  1 1 24 -0.06947583060565299 0 1380.0 -0.06947583060565299 1
gene  1 3 24 -0.8010857773737973 0 1382.0 -0.8010857773737973 1
gene  1 4 24 0.43278091268789065 0 1383.0 0.43278091268789065 1
gene  1 7 24 -0.8057421314688586 0 1386.0 -0.8057421314688586 1
gene  1 10 24 0.3625451742411502 0 1389.0 0.3625451742411502 1
gene  1 12 24 0.8240787545371513 0 1391.0 0.8240787545371513 1
gene  1 20 24 0.5948339395488833 0 1399.0 0.5948339395488833 1
gene  1 24 24 0.7966471829512429 1 1403.0 0.7966471829512429 1
gene  1 25 24 0.7324114631593488 1 1404.0 0.7324114631593488 1
gene  1 27 24 0.15498248950060312 1 1406.0 0.15498248950060312 1
gene  1 28 24 -0.030308888556495606 1 1407.0 -0.030308888556495606 1
gene  1 30 24 -0.723691186550344 1 1409.0 -0.723691186550344 1
gene  1 32 24 0.5522174947138256 1 1411.0 0.5522174947138256 1
gene  1 34 24 -0.9341698085342788 1 1413.0 -0.9341698085342788 1
gene  1 35 24 0.25024229290456146 1 1414.0 0.25024229290456146 1
gene  1 36 24 0.9426161749584466 1 1415.0 0.9426161749584466 1
gene  1 37 24 -0.6004828470575295 1 1416.0 -0.6004828470575295 1
gene  1 38 24 0.06901727840593885 1 1417.0 0.06901727840593885 1
gene  1 51 24 -0.639141080143253 1 1430.0 -0.639141080143253 1
gene  1 52 24 -0.6752820140839172 1 1431.0 -0.6752820140839172 1
gene  1 53 24 -0.16841211162473946 1 1432.0 -0.16841211162473946 1
gene  1 54 24 0.46534905497372514 1 1433.0 0.46534905497372514 1
gene  1 55 24 0.870716657336549 1 1434.0 0.870716657336549 1
gene  1 56 24 -0.27458177722177546 1 1435.0 -0.27458177722177546 1
gene  1 57 24 0.008862514466775995 1 1436.0 0.008862514466775995 1
gene  1 60 24 0.927085606896065 1 1439.0 0.927085606896065 1
gene  1 2 25 0.059962715555632484 0 1441.0 0.059962715555632484 1
gene  1 3 25 -0.003970867549535462 0 1442.0 -0.003970867549535462 1
gene  1 6 25 -0.04768428798256796 0 1445.0 -0.04768428798256796 1
gene  1 14 25 -0.6717679710401667 0 1453.0 -0.6717679710401667 1
gene  1 15 25 0.9736741673119031 0 1454.0 0.9736741673119031 1
gene  1 17 25 0.04117615727806201 0 1456.0 0.04117615727806201 1
gene  1 19 25 -0.23312193299650164 0 1458.0 -0.23312193299650164 1
gene  1 20 25 -0.09215776081485227 0 1459.0 -0.09215776081485227 1
gene  1 23 25 -0.25699157185912214 0 1462.0 -0.25699157185912214 1
gene  1 25 25 -0.11450907442698899 1 1464.0 -0.11450907442698899 1
gene  1 27 25 0.708371224786822 1 1466.0 0.708371224786822 1
gene  1 30 25 -0.1661806734539052 1 1469.0 -0.1661806734539052 1
gene  1 31 25 0.1630234899465529 1 1470.0 0.1630234899465529 1
gene  1 32 25 0.1272913478705875 1 1471.0 0.1272913478705875 1
gene  1 34 25 0.4189190738688757 1 1473.0 0.4189190738688757 1
gene  1 35 25 0.8269405802768882 1 1474.0 0.8269405802768882 1
gene  1 51 25 -0.3571830208172857 1 1490.0 -0.3571830208172857 1
gene  1 54 25 -0.9862590557184348 1 1493.0 -0.9862590557184348 1
gene  1 56 25 -0.6820231800516718 1 1495.0 -0.6820231800516718 1
gene  1 1 26 -0.996104483724146 0 1500.0 -0.996104483724146 1
gene  1 2 26 0.40307998584598104 0 1501.0 0.40307998584598104 1
gene  1 3 26 0.21034770113972678 0 1502.0 0.21034770113972678 1
gene  1 4 26 -0.382059962663038 0 1503.0 -0.382059962663038 1
gene  1 6 26 -0.7492536070970346 0 1505.0 -0.7492536070970346 1
gene  1 8 26 0.902522090106026 0 1507.0 0.902522090106026 1
gene  1 9 26 0.5157730063525692 0 1508.0 0.5157730063525692 1
gene  1 10 26 0.6533033545957245 0 1509.0 0.6533033545957245 1
gene  1 12 26 0.909281961173208 0 1511.0 0.909281961173208 1
gene  1 14 26 0.5726523504284415 0 1513.0 0.5726523504284415 1
gene  1 15 26 0.6324675812218038 0 1514.0 0.6324675812218038 1
gene  1 17 26 0.8711883820512366 0 1516.0 0.8711883820512366 1
gene  1 19 26 0.9889596757061437 0 1518.0 0.9889596757061437 1
gene  1 20 26 -0.8971203133104486 0 1519.0 -0.8971203133104486 1
gene  1 21 26 0.9582572892390064 0 1520.0 0.9582572892390064 1
gene  1 22 26 0.803833970801101 0 1521.0 0.803833970801101 1
gene  1 23 26 0.8585847060757271 0 1522.0 0.8585847060757271 1
gene  1 28 26 0.21845971995147206 1 1527.0 0.21845971995147206 1
gene  1 29 26 0.07507142913305598 1 1528.0 0.07507142913305598 1
gene  1 30 26 0.04649155875657829 1 1529.0 0.04649155875657829 1
gene  1 32 26 -0.37832835917973895 1 1531.0 -0.37832835917973895 1
gene  1 57 26 -0.06290468793237403 1 1556.0 -0.06290468793237403 1
gene  1 60 26 0.5822714962602512 1 1559.0 0.5822714962602512 1
gene  1 2 27 -0.6509736356779064 0 1561.0 -0.6509736356779064 1
gene  1 3 27 0.8834136698930424 0 1562.0 0.8834136698930424 1
gene  1 5 27 0.1584831251205413 0 1564.0 0.1584831251205413 1
gene  1 7 27 -0.514015450408877 0 1566.0 -0.514015450408877 1
gene  1 8 27 -0.8076918149779779 0 1567.0 -0.8076918149779779 1
gene  1 9 27 -0.26650015738795096 0 1568.0 -0.26650015738795096 1
gene  1 10 27 -0.5585074631477577 0 1569.0 -0.5585074631477577 1
gene  1 11 27 0.8404884973061963 0 1570.0 0.8404884973061963 1
gene  1 12 27 0.7867686231653513 0 1571.0 0.7867686231653513 1
gene  1 15 27 0.185314082045687 0 1574.0 0.185314082045687 1
gene  1 17 27 0.7860512226031491 0 1576.0 0.7860512226031491 1
gene  1 20 27 0.16874095099162 0 1579.0 0.16874095099162 1
gene  1 21 27 -0.20322747995663704 0 1580.0 -0.20322747995663704 1
gene  1 22 27 0.9012581670673568 0 1581.0 0.9012581670673568 1
gene  1 24 27 -0.22553477444716463 0 1583.0 -0.22553477444716463 1
gene  1 25 27 0.8915677874505471 0 1584.0 0.8915677874505471 1
gene  1 26 27 0.25532923534426877 0 1585.0 0.25532923534426877 1
gene  1 30 27 0.4899379163513218 1 1589.0 0.4899379163513218 1
gene  1 31 27 0.5944050021133013 1 1590.0 0.5944050021133013 1
gene  1 32 27 0.23800784995238378 1 1591.0 0.23800784995238378 1
gene  1 35 27 0.4699086944327556 1 1594.0 0.4699086944327556 1
gene  1 37 27 -0.7676030829870809 1 1596.0 -0.7676030829870809 1
gene  1 52 27 0.20471327937671624 1 1611.0 0.20471327937671624 1
gene  1 54 27 0.1841711685048556 1 1613.0 0.1841711685048556 1
gene  1 55 27 -0.8586394792383222 1 1614.0 -0.8586394792383222 1
gene  1 57 27 0.6556502439409215 1 1616.0 0.6556502439409215 1
gene  1 58 27 -0.5791817401325632 1 1617.0 -0.5791817401325632 1
gene  1 60 27 -0.13763538860192814 1 1619.0 -0.13763538860192814 1
gene  1 2 28 0.28846709621679734 0 1621.0 0.28846709621679734 1
gene  1 4 28 -0.8126663131989378 0 1623.0 -0.8126663131989378 1
gene  1 5 28 0.511483500104528 0 1624.0 0.511483500104528 1
gene  1 6 28 0.033876385295447786 0 1625.0 0.033876385295447786 1
gene  1 10 28 -0.4513165924506608 0 1629.0 -0.4513165924506608 1
gene  1 11 28 0.950990505559249 0 1630.0 0.950990505559249 1
gene  1 12 28 -0.7827035394926916 0 1631.0 -0.7827035394926916 1
gene  1 14 28 0.7222756769159775 0 1633.0 0.7222756769159775 1
gene  1 16 28 -0.5953007373197148 0 1635.0 -0.5953007373197148 1
gene  1 17 28 0.12028555428720389 0 1636.0 0.12028555428720389 1
gene  1 20 28 -0.8764296588112473 0 1639.0 -0.8764296588112473 1
gene  1 21 28 0.6872210771146481 0 1640.0 0.6872210771146481 1
gene  1 22 28 -0.27409441065890194 0 1641.0 -0.27409441065890194 1
gene  1 24 28 -0.478862957744125 0 1643.0 -0.478862957744125 1
gene  1 26 28 -0.3191514894493894 0 1645.0 -0.3191514894493894 1
gene  1 27 28 0.5835964764594712 0 1646.0 0.5835964764594712 1
gene  1 30 28 -0.7643485762776703 1 1649.0 -0.7643485762776703 1
gene  1 32 28 -0.3261052784052524 1 1651.0 -0.3261052784052524 1
gene  1 34 28 -0.8405054058095146 1 1653.0 -0.8405054058095146 1
gene  1 38 28 -0.27433543663301585 1 1657.0 -0.27433543663301585 1
gene  1 51 28 -0.5838127575960421 1 1670.0 -0.5838127575960421 1
gene  1 52 28 -0.8747457168286437 1 1671.0 -0.8747457168286437 1
gene  1 57 28 -0.7636513432132293 1 1676.0 -0.7636513432132293 1
gene  1 58 28 -0.9713516433866601 1 1677.0 -0.9713516433866601 1
gene  1 59 28 0.1654115746958127 1 1678.0 0.1654115746958127 1
gene  1 60 28 -0.8853548834882561 1 1679.0 -0.8853548834882561 1
gene  1 2 29 0.748335670044991 0 1681.0 0.748335670044991 1
gene  1 3 29 -0.302599229274749 0 1682.0 -0.302599229274749 1
gene  1 4 29 0.26445253796789525 0 1683.0 0.26445253796789525 1
gene  1 7 29 0.6493707398938282 0 1686.0 0.6493707398938282 1
gene  1 8 29 0.8009924869162377 0 1687.0 0.8009924869162377 1
gene  1 10 29 -0.18166902336953827 0 1689.0 -0.18166902336953827 1
gene  1 14 29 -0.016370743395731302 0 1693.0 -0.016370743395731302 1
gene  1 15 29 0.22049513200348236 0 1694.0 0.22049513200348236 1
gene  1 16 29 -0.9049449104654482 0 1695.0 -0.9049449104654482 1
gene  1 17 29 -0.9384847973577561 0 1696.0 -0.9384847973577561 1
gene  1 18 29 -0.7492641135836985 0 1697.0 -0.7492641135836985 1
gene  1 19 29 0.3832420193495425 0 1698.0 0.3832420193495425 1
gene  1 20 29 -0.5111462877801435 0 1699.0 -0.5111462877801435 1
gene  1 21 29 0.398487092227473 0 1700.0 0.398487092227473 1
gene  1 22 29 0.07663434471975228 0 1701.0 0.07663434471975228 1
gene  1 24 29 0.7847134073895865 0 1703.0 0.7847134073895865 1
gene  1 25 29 0.752082372646728 0 1704.0 0.752082372646728 1
gene  1 26 29 -0.26322460525846736 0 1705.0 -0.26322460525846736 1
gene  1 30 29 0.4482945000789096 1 1709.0 0.4482945000789096 1
gene  1 33 29 -0.4110228749774928 1 1712.0 -0.4110228749774928 1
gene  1 36 29 -0.6189468172388237 1 1715.0 -0.6189468172388237 1
gene  1 39 29 0.9594235994216125 1 1718.0 0.9594235994216125 1
gene  1 51 29 0.07778026098701318 1 1730.0 0.07778026098701318 1
gene  1 54 29 -0.17978701739174852 1 1733.0 -0.17978701739174852 1
gene  1 55 29 0.4798854835293529 1 1734.0 0.4798854835293529 1
gene  1 58 29 0.9701683290666354 1 1737.0 0.9701683290666354 1
gene  1 59 29 -0.9586264442496187 1 1738.0 -0.9586264442496187 1
gene  1 60 29 -0.658237515688639 1 1739.0 -0.658237515688639 1
gene  1 1 30 0.45424048648857807 0 1740.0 0.45424048648857807 1
gene  1 2 30 -0.8464601977063174 0 1741.0 -0.8464601977063174 1
gene  1 3 30 0.8547417830383724 0 1742.0 0.8547417830383724 1
gene  1 4 30 0.6631228195412902 0 1743.0 0.6631228195412902 1
gene  1 8 30 0.017942339176372335 0 1747.0 0.017942339176372335 1
gene  1 9 30 -0.5976708142750186 0 1748.0 -0.5976708142750186 1
gene  1 13 30 -0.6364006924869909 0 1752.0 -0.6364006924869909 1
gene  1 15 30 0.9108956718237747 0 1754.0 0.9108956718237747 1
gene  1 16 30 -0.2565077595983034 0 1755.0 -0.2565077595983034 1
gene  1 17 30 -0.8746799434624154 0 1756.0 -0.8746799434624154 1
gene  1 19 30 -0.9270178732145675 0 1758.0 -0.9270178732145675 1
gene  1 26 30 -0.6688205976379457 0 1765.0 -0.6688205976379457 1
gene  1 27 30 -0.8468852932626085 0 1766.0 -0.8468852932626085 1
gene  1 29 30 0.3610793716772698 0 1768.0 0.3610793716772698 1
gene  1 33 30 0.6301999360572365 1 1772.0 0.6301999360572365 1
gene  1 35 30 -0.01056409411835213 1 1774.0 -0.01056409411835213 1
gene  1 36 30 0.8144046373033367 1 1775.0 0.8144046373033367 1
gene  1 37 30 -0.5688943982659076 1 1776.0 -0.5688943982659076 1
gene  1 38 30 -0.7842722096765056 1 1777.0 -0.7842722096765056 1
gene  1 39 30 -0.35139677496213073 1 1778.0 -0.35139677496213073 1
gene  1 52 30 0.5374672702399825 1 1791.0 0.5374672702399825 1
gene  1 54 30 0.9608648729701283 1 1793.0 0.9608648729701283 1
gene  1 57 30 0.21463149261053027 1 1796.0 0.21463149261053027 1
gene  1 59 30 -0.27307148628097755 1 1798.0 -0.27307148628097755 1
gene  1 1 31 -0.2558676539138601 0 1800.0 -0.2558676539138601 1
gene  1 4 31 -0.07835024566905102 0 1803.0 -0.07835024566905102 1
gene  1 5 31 -0.3543175037797056 0 1804.0 -0.3543175037797056 1
gene  1 6 31 -0.6383438673466474 0 1805.0 -0.6383438673466474 1
gene  1 10 31 -0.35864300587999076 0 1809.0 -0.35864300587999076 1
gene  1 11 31 -0.4011678658229283 0 1810.0 -0.4011678658229283 1
gene  1 13 31 0.2209529688039329 0 1812.0 0.2209529688039329 1
gene  1 14 31 0.8284487677721258 0 1813.0 0.8284487677721258 1
gene  1 16 31 0.09837043703701098 0 1815.0 0.09837043703701098 1
gene  1 21 31 -0.683805912425148 0 1820.0 -0.683805912425148 1
gene  1 22 31 -0.07386509834366917 0 1821.0 -0.07386509834366917 1
gene  1 27 31 0.8489903618349781 0 1826.0 0.8489903618349781 1
gene  1 30 31 0.6994979309925546 0 1829.0 0.6994979309925546 1
gene  1 33 31 -0.8540075742199831 1 1832.0 -0.8540075742199831 1
gene  1 36 31 -0.5383431516605502 1 1835.0 -0.5383431516605502 1
gene  1 38 31 -0.572869594036968 1 1837.0 -0.572869594036968 1
gene  1 51 31 -0.4316163193431177 1 1850.0 -0.4316163193431177 1
gene  1 52 31 -0.4991204800723509 1 1851.0 -0.4991204800723509 1
gene  1 54 31 -0.6435518708907068 1 1853.0 -0.6435518708907068 1
gene  1 57 31 0.6021645603769977 1 1856.0 0.6021645603769977 1
gene  1 58 31 -0.42193744432786384 1 1857.0 -0.42193744432786384 1
gene  1 60 31 0.9491282135019007 1 1859.0 0.9491282135019007 1
gene  1 1 32 0.0549285555099881 0 1860.0 0.0549285555099881 1
gene  1 4 32 -0.01027099527123454 0 1863.0 -0.01027099527123454 1
gene  1 5 32 -0.3363957718663815 0 1864.0 -0.3363957718663815 1
gene  1 6 32 -0.8610989690100981 0 1865.0 -0.8610989690100981 1
gene  1 7 32 0.928640200918309 0 1866.0 0.928640200918309 1
gene  1 8 32 -0.49395538104267733 0 1867.0 -0.49395538104267733 1
gene  1 9 32 0.6018696428448542 0 1868.0 0.6018696428448542 1
gene  1 10 32 -0.5579334264222101 0 1869.0 -0.5579334264222101 1
gene  1 11 32 -0.02193300635444584 0 1870.0 -0.02193300635444584 1
gene  1 12 32 -0.4419972406018998 0 1871.0 -0.4419972406018998 1
gene  1 13 32 -0.3435336769404733 0 1872.0 -0.3435336769404733 1
gene  1 16 32 0.6366891875010324 0 1875.0 0.6366891875010324 1
gene  1 19 32 0.5654185334277118 0 1878.0 0.5654185334277118 1
gene  1 21 32 -0.8794015075412894 0 1880.0 -0.8794015075412894 1
gene  1 24 32 0.42618510226964823 0 1883.0 0.42618510226964823 1
gene  1 27 32 -0.17218637313762053 0 1886.0 -0.17218637313762053 1
gene  1 29 32 0.657326788646477 0 1888.0 0.657326788646477 1
gene  1 31 32 -0.7372248556994674 0 1890.0 -0.7372248556994674 1
gene  1 33 32 0.905795831330348 1 1892.0 0.905795831330348 1
gene  1 35 32 0.2557275356495926 1 1894.0 0.2557275356495926 1
gene  1 37 32 -0.6507139353747009 1 1896.0 -0.6507139353747009 1
gene  1 38 32 0.03823012481282262 1 1897.0 0.03823012481282262 1
gene  1 51 32 0.29115746192550296 1 1910.0 0.29115746192550296 1
gene  1 54 32 0.35412953302085415 1 1913.0 0.35412953302085415 1
gene  1 57 32 0.8571079059351252 1 1916.0 0.8571079059351252 1
gene  1 59 32 -0.28509007846888723 1 1918.0 -0.28509007846888723 1
gene  1 1 33 0.49332035132801877 0 1920.0 0.49332035132801877 1
gene  1 3 33 -0.7002819210496749 0 1922.0 -0.7002819210496749 1
gene  1 8 33 -0.42805995922226536 0 1927.0 -0.42805995922226536 1
gene  1 9 33 -0.04480488328450216 0 1928.0 -0.04480488328450216 1
gene  1 12 33 0.3949588420297194 0 1931.0 0.3949588420297194 1
gene  1 13 33 -0.45440494225096484 0 1932.0 -0.45440494225096484 1
gene  1 16 33 -0.15285766686285818 0 1935.0 -0.15285766686285818 1
gene  1 20 33 0.6913548055157411 0 1939.0 0.6913548055157411 1
gene  1 21 33 0.0295841013406396 0 1940.0 0.0295841013406396 1
gene  1 22 33 0.9482423331958711 0 1941.0 0.9482423331958711 1
gene  1 23 33 0.13894658523013592 0 1942.0 0.13894658523013592 1
gene  1 24 33 0.7962322302559044 0 1943.0 0.7962322302559044 1
gene  1 25 33 -0.3328045835283814 0 1944.0 -0.3328045835283814 1
gene  1 31 33 0.8576317724486445 0 1950.0 0.8576317724486445 1
gene  1 33 33 0.5434694258562368 1 1952.0 0.5434694258562368 1
gene  1 34 33 0.33811040053036046 1 1953.0 0.33811040053036046 1
gene  1 35 33 0.9601100746624965 1 1954.0 0.9601100746624965 1
gene  1 36 33 -0.47916041926499753 1 1955.0 -0.47916041926499753 1
gene  1 37 33 0.18121141871151691 1 1956.0 0.18121141871151691 1
gene  1 51 33 0.8801140307506273 1 1970.0 0.8801140307506273 1
gene  1 55 33 -0.3878119583383761 1 1974.0 -0.3878119583383761 1
gene  1 57 33 0.4227252826946658 1 1976.0 0.4227252826946658 1
gene  1 59 33 -0.5369572495888186 1 1978.0 -0.5369572495888186 1
gene  1 1 34 -0.07443358480720963 0 1980.0 -0.07443358480720963 1
gene  1 5 34 -0.2900670166479108 0 1984.0 -0.2900670166479108 1
gene  1 7 34 -0.40444174864193283 0 1986.0 -0.40444174864193283 1
gene  1 9 34 -0.40901433915246144 0 1988.0 -0.40901433915246144 1
gene  1 10 34 -0.28472366414375105 0 1989.0 -0.28472366414375105 1
gene  1 13 34 -0.36397787312856444 0 1992.0 -0.36397787312856444 1
gene  1 15 34 0.5360172682439082 0 1994.0 0.5360172682439082 1
gene  1 18 34 -0.6650098753531396 0 1997.0 -0.6650098753531396 1
gene  1 19 34 -0.049071955082151675 0 1998.0 -0.049071955082151675 1
gene  1 20 34 -0.4396074218838022 0 1999.0 -0.4396074218838022 1
gene  1 25 34 0.5818451140342165 0 2004.0 0.5818451140342165 1
gene  1 26 34 0.8199705109523793 0 2005.0 0.8199705109523793 1
gene  1 27 34 -0.3694216626750215 0 2006.0 -0.3694216626750215 1
gene  1 29 34 0.9297510632889049 0 2008.0 0.9297510632889049 1
gene  1 32 34 -0.2899649573635167 0 2011.0 -0.2899649573635167 1
gene  1 33 34 0.8784618042437664 0 2012.0 0.8784618042437664 1
gene  1 38 34 -0.03315129104556447 1 2017.0 -0.03315129104556447 1
gene  1 52 34 0.7472359377218329 1 2031.0 0.7472359377218329 1
gene  1 53 34 -0.7158456949662914 1 2032.0 -0.7158456949662914 1
gene  1 54 34 0.004899666651538737 1 2033.0 0.004899666651538737 1
gene  1 56 34 0.021916332756347412 1 2035.0 0.021916332756347412 1
gene  1 1 35 0.5314941302520775 0 2040.0 0.5314941302520775 1
gene  1 2 35 0.7387117255922617 0 2041.0 0.7387117255922617 1
gene  1 3 35 0.5961126777108828 0 2042.0 0.5961126777108828 1
gene  1 4 35 -0.5115604294958771 0 2043.0 -0.5115604294958771 1
gene  1 6 35 -0.9016949761999603 0 2045.0 -0.9016949761999603 1
gene  1 7 35 -0.9307697925008045 0 2046.0 -0.9307697925008045 1
gene  1 9 35 -0.5842819538923022 0 2048.0 -0.5842819538923022 1
gene  1 11 35 -0.5315132094650012 0 2050.0 -0.5315132094650012 1
gene  1 19 35 -0.9957017582825402 0 2058.0 -0.9957017582825402 1
gene  1 21 35 0.9639896599901787 0 2060.0 0.9639896599901787 1
gene  1 23 35 -0.7623327816698259 0 2062.0 -0.7623327816698259 1
gene  1 33 35 -0.34608413559502904 0 2072.0 -0.34608413559502904 1
gene  1 34 35 0.5018002399383651 0 2073.0 0.5018002399383651 1
gene  1 35 35 -0.6327107846076836 1 2074.0 -0.6327107846076836 1
gene  1 36 35 -0.422894065945269 1 2075.0 -0.422894065945269 1
gene  1 39 35 -0.4037872613852431 1 2078.0 -0.4037872613852431 1
gene  1 51 35 -0.9671609783321087 1 2090.0 -0.9671609783321087 1
gene  1 52 35 0.8108304824894048 1 2091.0 0.8108304824894048 1
gene  1 53 35 -0.07065067596343444 1 2092.0 -0.07065067596343444 1
gene  1 54 35 0.9315177396911524 1 2093.0 0.9315177396911524 1
gene  1 56 35 0.3313533867388586 1 2095.0 0.3313533867388586 1
gene  1 57 35 0.6490871615524634 1 2096.0 0.6490871615524634 1
gene  1 7 36 -0.7002315278383462 0 2106.0 -0.7002315278383462 1
gene  1 9 36 -0.132149806434118 0 2108.0 -0.132149806434118 1
gene  1 10 36 0.32731057072409053 0 2109.0 0.32731057072409053 1
gene  1 12 36 -0.622278093204785 0 2111.0 -0.622278093204785 1
gene  1 13 36 0.5310271429606943 0 2112.0 0.5310271429606943 1
gene  1 14 36 -0.4779118489806765 0 2113.0 -0.4779118489806765 1
gene  1 16 36 0.7927053513961684 0 2115.0 0.7927053513961684 1
gene  1 17 36 0.6513058128463466 0 2116.0 0.6513058128463466 1
gene  1 19 36 0.9192065383627187 0 2118.0 0.9192065383627187 1
gene  1 20 36 -0.825571829871052 0 2119.0 -0.825571829871052 1
gene  1 27 36 0.7028759346829005 0 2126.0 0.7028759346829005 1
gene  1 28 36 -0.11577205294082482 0 2127.0 -0.11577205294082482 1
gene  1 32 36 -0.7977766506405825 0 2131.0 -0.7977766506405825 1
gene  1 36 36 0.3577595626654946 1 2135.0 0.3577595626654946 1
gene  1 39 36 0.26773815655134947 1 2138.0 0.26773815655134947 1
gene  1 52 36 -0.7263439777444386 1 2151.0 -0.7263439777444386 1
gene  1 53 36 -0.6592427518671499 1 2152.0 -0.6592427518671499 1
gene  1 54 36 0.5692641758400636 1 2153.0 0.5692641758400636 1
gene  1 55 36 -0.10942720320041521 1 2154.0 -0.10942720320041521 1
gene  1 56 36 0.7010987753024722 1 2155.0 0.7010987753024722 1
gene  1 58 36 -0.1331063128864719 1 2157.0 -0.1331063128864719 1
gene  1 59 36 0.35635221291267183 1 2158.0 0.35635221291267183 1
gene  1 60 36 -0.9689792366827061 1 2159.0 -0.9689792366827061 1
gene  1 3 37 -0.6671664020821523 0 2162.0 -0.6671664020821523 1
gene  1 4 37 0.322272026540672 0 2163.0 0.322272026540672 1
gene  1 6 37 -0.4664042099289307 0 2165.0 -0.4664042099289307 1
gene  1 9 37 -0.6778276803838277 0 2168.0 -0.6778276803838277 1
gene  1 10 37 -0.04078274962441497 0 2169.0 -0.04078274962441497 1
gene  1 15 37 0.5579992670206212 0 2174.0 0.5579992670206212 1
gene  1 16 37 0.1566943013675125 0 2175.0 0.1566943013675125 1
gene  1 17 37 0.10625691346864508 0 2176.0 0.10625691346864508 1
gene  1 19 37 0.09974458806053399 0 2178.0 0.09974458806053399 1
gene  1 23 37 0.28127029387618474 0 2182.0 0.28127029387618474 1
gene  1 25 37 0.474037634921324 0 2184.0 0.474037634921324 1
gene  1 26 37 0.28361068466323147 0 2185.0 0.28361068466323147 1
gene  1 27 37 -0.49851735755690674 0 2186.0 -0.49851735755690674 1
gene  1 28 37 -0.6376776646886331 0 2187.0 -0.6376776646886331 1
gene  1 32 37 -0.47728181173493844 0 2191.0 -0.47728181173493844 1
gene  1 34 37 0.9257513938799904 0 2193.0 0.9257513938799904 1
gene  1 52 37 -0.9560471103822198 1 2211.0 -0.9560471103822198 1
gene  1 53 37 -0.7208530739185922 1 2212.0 -0.7208530739185922 1
gene  1 54 37 0.40507325967154106 1 2213.0 0.40507325967154106 1
gene  1 55 37 -0.7401429724461738 1 2214.0 -0.7401429724461738 1
gene  1 57 37 -0.30971136459749016 1 2216.0 -0.30971136459749016 1
gene  1 58 37 -0.46313844793260417 1 2217.0 -0.46313844793260417 1
gene  1 59 37 0.9617126136974338 1 2218.0 0.9617126136974338 1
gene  1 60 37 0.378490964745712 1 2219.0 0.378490964745712 1
gene  1 1 38 0.03772159652902096 0 2220.0 0.03772159652902096 1
gene  1 2 38 0.058083507754375985 0 2221.0 0.058083507754375985 1
gene  1 3 38 0.8208272844168566 0 2222.0 0.8208272844168566 1
gene  1 6 38 0.02600307646766531 0 2225.0 0.02600307646766531 1
gene  1 8 38 0.8404531866547762 0 2227.0 0.8404531866547762 1
gene  1 11 38 -0.7232622212271839 0 2230.0 -0.7232622212271839 1
gene  1 12 38 0.1935114142386236 0 2231.0 0.1935114142386236 1
gene  1 14 38 -0.844287929185743 0 2233.0 -0.844287929185743 1
gene  1 20 38 0.4942902352679067 0 2239.0 0.4942902352679067 1
gene  1 21 38 0.1490289055354186 0 2240.0 0.1490289055354186 1
gene  1 23 38 0.9848631775455758 0 2242.0 0.9848631775455758 1
gene  1 24 38 0.7953233000115019 0 2243.0 0.7953233000115019 1
gene  1 25 38 0.17717245822130123 0 2244.0 0.17717245822130123 1
gene  1 26 38 0.3137540377667857 0 2245.0 0.3137540377667857 1
gene  1 31 38 0.07771594078973032 0 2250.0 0.07771594078973032 1
gene  1 32 38 0.4748048507406901 0 2251.0 0.4748048507406901 1
gene  1 33 38 0.9625324499417366 0 2252.0 0.9625324499417366 1
gene  1 35 38 -0.5227343442416434 0 2254.0 -0.5227343442416434 1
gene  1 36 38 -0.5889120185458415 0 2255.0 -0.5889120185458415 1
gene  1 37 38 0.16691480707576412 0 2256.0 0.16691480707576412 1
gene  1 54 38 -0.5090040740689232 1 2273.0 -0.5090040740689232 1
gene  1 55 38 0.699682529408239 1 2274.0 0.699682529408239 1
gene  1 58 38 -0.29268498165131507 1 2277.0 -0.29268498165131507 1
gene  1 1 39 0.3258864113614828 0 2280.0 0.3258864113614828 1
gene  1 6 39 -0.8803299364887617 0 2285.0 -0.8803299364887617 1
gene  1 7 39 0.6391652546884043 0 2286.0 0.6391652546884043 1
gene  1 8 39 0.5954471338384486 0 2287.0 0.5954471338384486 1
gene  1 10 39 0.5038146449977444 0 2289.0 0.5038146449977444 1
gene  1 11 39 -0.32833719763162883 0 2290.0 -0.32833719763162883 1
gene  1 12 39 -0.2376411651411675 0 2291.0 -0.2376411651411675 1
gene  1 14 39 -0.5712530993066655 0 2293.0 -0.5712530993066655 1
gene  1 22 39 -0.5244875570010082 0 2301.0 -0.5244875570010082 1
gene  1 24 39 0.09860062044065998 0 2303.0 0.09860062044065998 1
gene  1 25 39 0.6413027085804737 0 2304.0 0.6413027085804737 1
gene  1 26 39 0.2690261799637823 0 2305.0 0.2690261799637823 1
gene  1 28 39 -0.5794650275060641 0 2307.0 -0.5794650275060641 1
gene  1 30 39 -0.38225779087825495 0 2309.0 -0.38225779087825495 1
gene  1 32 39 -0.8715641470049019 0 2311.0 -0.8715641470049019 1
gene  1 39 39 -0.2197708990068994 1 2318.0 -0.2197708990068994 1
gene  1 51 39 -0.2594744652640797 1 2330.0 -0.2594744652640797 1
gene  1 54 39 -0.3690500966400577 1 2333.0 -0.3690500966400577 1
gene  1 57 39 -0.26395908330335904 1 2336.0 -0.26395908330335904 1
gene  1 58 39 0.2898029510032314 1 2337.0 0.2898029510032314 1
gene  1 60 39 -0.180054381886682 1 2339.0 -0.180054381886682 1
gene  1 2 51 -0.5585701831698474 0 3001.0 -0.5585701831698474 1
gene  1 3 51 0.04298626674031936 0 3002.0 0.04298626674031936 1
gene  1 5 51 -0.5267334846562327 0 3004.0 -0.5267334846562327 1
gene  1 6 51 -0.39826925646841616 0 3005.0 -0.39826925646841616 1
gene  1 9 51 0.583320051560392 0 3008.0 0.583320051560392 1
gene  1 11 51 0.47301377229940067 0 3010.0 0.47301377229940067 1
gene  1 12 51 0.75764952302375 0 3011.0 0.75764952302375 1
gene  1 13 51 -0.8146209346785591 0 3012.0 -0.8146209346785591 1
gene  1 14 51 0.4848091529945582 0 3013.0 0.4848091529945582 1
gene  1 15 51 -0.30204469134910095 0 3014.0 -0.30204469134910095 1
gene  1 16 51 -0.5496143437506267 0 3015.0 -0.5496143437506267 1
gene  1 18 51 -0.012755650210092506 0 3017.0 -0.012755650210092506 1
gene  1 19 51 -0.7807152809789668 0 3018.0 -0.7807152809789668 1
gene  1 20 51 0.0386516770386941 0 3019.0 0.0386516770386941 1
gene  1 21 51 0.9041196693566276 0 3020.0 0.9041196693566276 1
gene  1 23 51 -0.795339057048546 0 3022.0 -0.795339057048546 1
gene  1 26 51 -0.5571314648733631 0 3025.0 -0.5571314648733631 1
gene  1 27 51 0.9697777534690964 0 3026.0 0.9697777534690964 1
gene  1 28 51 -0.19918555498253876 0 3027.0 -0.19918555498253876 1
gene  1 29 51 0.048057323129990115 0 3028.0 0.048057323129990115 1
gene  1 34 51 0.9270420595808905 0 3033.0 0.9270420595808905 1
gene  1 36 51 -0.5948203643855698 0 3035.0 -0.5948203643855698 1
gene  1 38 51 0.4320222418038199 0 3037.0 0.4320222418038199 1
gene  1 39 51 0.5099797751111314 0 3038.0 0.5099797751111314 1
gene  1 51 51 -0.3982014015688673 1 3050.0 -0.3982014015688673 1
gene  1 52 51 -0.2852842838880383 1 3051.0 -0.2852842838880383 1
gene  1 56 51 0.5650192919267253 1 3055.0 0.5650192919267253 1
gene  1 57 51 0.7867464855718854 1 3056.0 0.7867464855718854 1
gene  1 58 51 -0.2961928353163835 1 3057.0 -0.2961928353163835 1
gene  1 2 52 0.8045038531907002 0 3061.0 0.8045038531907002 1
gene  1 4 52 0.5986632572847799 0 3063.0 0.5986632572847799 1
gene  1 5 52 -0.23685647880038818 0 3064.0 -0.23685647880038818 1
gene  1 6 52 -0.3691620756811056 0 3065.0 -0.3691620756811056 1
gene  1 8 52 -0.7730644544229758 0 3067.0 -0.7730644544229758 1
gene  1 14 52 -0.044029776141450316 0 3073.0 -0.044029776141450316 1
gene  1 16 52 0.6487353025628175 0 3075.0 0.6487353025628175 1
gene  1 18 52 -0.9589626489737268 0 3077.0 -0.9589626489737268 1
gene  1 21 52 -0.03654456920665039 0 3080.0 -0.03654456920665039 1
gene  1 24 52 -0.4488539124940094 0 3083.0 -0.4488539124940094 1
gene  1 26 52 0.34963731965459743 0 3085.0 0.34963731965459743 1
gene  1 29 52 0.7305106615811299 0 3088.0 0.7305106615811299 1
gene  1 30 52 0.08637078128935871 0 3089.0 0.08637078128935871 1
gene  1 33 52 -0.045829172660677986 0 3092.0 -0.045829172660677986 1
gene  1 35 52 -0.223548266212387 0 3094.0 -0.223548266212387 1
gene  1 37 52 -0.4001855652958459 0 3096.0 -0.4001855652958459 1
gene  1 38 52 0.4646273361171622 0 3097.0 0.4646273361171622 1
gene  1 39 52 0.9875709358110529 0 3098.0 0.9875709358110529 1
gene  1 52 52 0.22522649189330213 1 3111.0 0.22522649189330213 1
gene  1 53 52 0.3601720375838193 1 3112.0 0.3601720375838193 1
gene  1 55 52 0.32165628920421196 1 3114.0 0.32165628920421196 1
gene  1 56 52 -0.8543341089136907 1 3115.0 -0.8543341089136907 1
gene  1 59 52 -0.25686860305115944 1 3118.0 -0.25686860305115944 1
gene  1 1 53 0.6456298882816345 0 3120.0 0.6456298882816345 1
gene  1 2 53 -0.7226721556281721 0 3121.0 -0.7226721556281721 1
gene  1 3 53 0.559695069350864 0 3122.0 0.559695069350864 1
gene  1 5 53 -0.6024864248648812 0 3124.0 -0.6024864248648812 1
gene  1 7 53 0.5942922951445248 0 3126.0 0.5942922951445248 1
gene  1 9 53 -0.7572139921671432 0 3128.0 -0.7572139921671432 1
gene  1 13 53 0.624474783042212 0 3132.0 0.624474783042212 1
gene  1 18 53 -0.607197641916195 0 3137.0 -0.607197641916195 1
gene  1 19 53 0.4841932072999148 0 3138.0 0.4841932072999148 1
gene  1 20 53 -0.19326567316829213 0 3139.0 -0.19326567316829213 1
gene  1 21 53 0.275542071186783 0 3140.0 0.275542071186783 1
gene  1 22 53 0.5428933833374002 0 3141.0 0.5428933833374002 1
gene  1 23 53 0.757249681464894 0 3142.0 0.757249681464894 1
gene  1 24 53 -0.14586031153611623 0 3143.0 -0.14586031153611623 1
gene  1 25 53 -0.48602144963620464 0 3144.0 -0.48602144963620464 1
gene  1 26 53 -0.9511607193836666 0 3145.0 -0.9511607193836666 1
gene  1 27 53 -0.4187894169733226 0 3146.0 -0.4187894169733226 1
gene  1 28 53 -0.6668934654976528 0 3147.0 -0.6668934654976528 1
gene  1 33 53 -0.9859399434380337 0 3152.0 -0.9859399434380337 1
gene  1 34 53 0.5162895536558549 0 3153.0 0.5162895536558549 1
gene  1 37 53 -0.2921076419555344 0 3156.0 -0.2921076419555344 1
gene  1 51 53 -0.08702223285993382 0 3170.0 -0.08702223285993382 1
gene  1 53 53 0.31345822825195757 1 3172.0 0.31345822825195757 1
gene  1 56 53 -0.2474393575547329 1 3175.0 -0.2474393575547329 1
gene  1 57 53 -0.8709217692170114 1 3176.0 -0.8709217692170114 1
gene  1 60 53 0.4896186489845359 1 3179.0 0.4896186489845359 1
gene  1 1 54 -0.06939512771087797 0 3180.0 -0.06939512771087797 1
gene  1 2 54 0.4757143752160182 0 3181.0 0.4757143752160182 1
gene  1 4 54 0.09121066316677418 0 3183.0 0.09121066316677418 1
gene  1 8 54 0.6178463437366589 0 3187.0 0.6178463437366589 1
gene  1 9 54 -0.9014973215708147 0 3188.0 -0.9014973215708147 1
gene  1 11 54 -0.6695036561519009 0 3190.0 -0.6695036561519009 1
gene  1 12 54 0.899287185720943 0 3191.0 0.899287185720943 1
gene  1 17 54 0.4154847957235238 0 3196.0 0.4154847957235238 1
gene  1 20 54 -0.14642952294524325 0 3199.0 -0.14642952294524325 1
gene  1 21 54 0.0948690421947137 0 3200.0 0.0948690421947137 1
gene  1 23 54 -0.6588502986972543 0 3202.0 -0.6588502986972543 1
gene  1 24 54 -0.9959553691788288 0 3203.0 -0.9959553691788288 1
gene  1 25 54 -0.06024161079653201 0 3204.0 -0.06024161079653201 1
gene  1 30 54 -0.8862653442099968 0 3209.0 -0.8862653442099968 1
gene  1 32 54 0.27185924188171606 0 3211.0 0.27185924188171606 1
gene  1 33 54 -0.19730396603100764 0 3212.0 -0.19730396603100764 1
gene  1 35 54 -0.7824589250119038 0 3214.0 -0.7824589250119038 1
gene  1 36 54 -0.6200875611799836 0 3215.0 -0.6200875611799836 1
gene  1 39 54 0.11390592631062257 0 3218.0 0.11390592631062257 1
gene  1 53 54 -0.6982357100821496 0 3232.0 -0.6982357100821496 1
gene  1 55 54 0.5121668035078925 1 3234.0 0.5121668035078925 1
gene  1 57 54 -0.20746632540483212 1 3236.0 -0.20746632540483212 1
gene  1 58 54 0.1537479253252777 1 3237.0 0.1537479253252777 1
gene  1 2 55 -0.48562379036150993 0 3241.0 -0.48562379036150993 1
gene  1 3 55 -0.28062327803948117 0 3242.0 -0.28062327803948117 1
gene  1 4 55 0.03575868020961992 0 3243.0 0.03575868020961992 1
gene  1 8 55 0.7600902286613634 0 3247.0 0.7600902286613634 1
gene  1 9 55 0.9305476156004677 0 3248.0 0.9305476156004677 1
gene  1 11 55 -0.4350093156513928 0 3250.0 -0.4350093156513928 1
gene  1 13 55 0.21706340153240744 0 3252.0 0.21706340153240744 1
gene  1 14 55 0.9397367370697869 0 3253.0 0.9397367370697869 1
gene  1 18 55 -0.8605497692484964 0 3257.0 -0.8605497692484964 1
gene  1 19 55 0.7997671034026723 0 3258.0 0.7997671034026723 1
gene  1 20 55 0.4579631387763925 0 3259.0 0.4579631387763925 1
gene  1 21 55 -0.014907016756015579 0 3260.0 -0.014907016756015579 1
gene  1 22 55 0.4325067298286499 0 3261.0 0.4325067298286499 1
gene  1 28 55 -0.050309298397872904 0 3267.0 -0.050309298397872904 1
gene  1 29 55 -0.09306478664624274 0 3268.0 -0.09306478664624274 1
gene  1 30 55 -0.8707485137912593 0 3269.0 -0.8707485137912593 1
gene  1 33 55 -0.7947325714626694 0 3272.0 -0.7947325714626694 1
gene  1 35 55 0.26030865688674887 0 3274.0 0.26030865688674887 1
gene  1 38 55 0.8556605630348358 0 3277.0 0.8556605630348358 1
gene  1 54 55 0.8956549055503038 0 3293.0 0.8956549055503038 1
gene  1 56 55 -0.06949436548281807 1 3295.0 -0.06949436548281807 1
gene  1 57 55 0.8067726077256373 1 3296.0 0.8067726077256373 1
gene  1 58 55 -0.8562197733160136 1 3297.0 -0.8562197733160136 1
gene  1 59 55 0.027593515607999164 1 3298.0 0.027593515607999164 1
gene  1 1 56 0.03821198385647506 0 3300.0 0.03821198385647506 1
gene  1 3 56 0.8220246599391559 0 3302.0 0.8220246599391559 1
gene  1 6 56 0.3520817487881457 0 3305.0 0.3520817487881457 1
gene  1 7 56 0.011787410632480455 0 3306.0 0.011787410632480455 1
gene  1 11 56 -0.6308110665177415 0 3310.0 -0.6308110665177415 1
gene  1 14 56 0.45078003165078895 0 3313.0 0.45078003165078895 1
gene  1 18 56 0.30265782835822386 0 3317.0 0.30265782835822386 1
gene  1 19 56 -0.09320444620624979 0 3318.0 -0.09320444620624979 1
gene  1 21 56 -0.3269427136916154 0 3320.0 -0.3269427136916154 1
gene  1 22 56 -0.13281677775458156 0 3321.0 -0.13281677775458156 1
gene  1 25 56 0.48105079001366313 0 3324.0 0.48105079001366313 1
gene  1 26 56 -0.1076658944838026 0 3325.0 -0.1076658944838026 1
gene  1 27 56 -0.398396301426838 0 3326.0 -0.398396301426838 1
gene  1 30 56 -0.6132850829742857 0 3329.0 -0.6132850829742857 1
gene  1 33 56 0.3570188789183052 0 3332.0 0.3570188789183052 1
gene  1 36 56 0.9161648050178701 0 3335.0 0.9161648050178701 1
gene  1 37 56 -0.446710036737476 0 3336.0 -0.446710036737476 1
gene  1 38 56 -0.056315168221102274 0 3337.0 -0.056315168221102274 1
gene  1 39 56 0.8637835874741752 0 3338.0 0.8637835874741752 1
gene  1 53 56 0.6382191772510655 0 3352.0 0.6382191772510655 1
gene  1 55 56 0.41479434846514274 0 3354.0 0.41479434846514274 1
gene  1 56 56 -0.47300693405071625 1 3355.0 -0.47300693405071625 1
gene  1 59 56 -0.03281190059872807 1 3358.0 -0.03281190059872807 1
gene  1 1 57 -0.39368864397891434 0 3360.0 -0.39368864397891434 1
gene  1 9 57 0.5327752326755806 0 3368.0 0.5327752326755806 1
gene  1 12 57 0.18871326737148764 0 3371.0 0.18871326737148764 1
gene  1 14 57 0.8312779154303421 0 3373.0 0.8312779154303421 1
gene  1 17 57 -0.6422497239939948 0 3376.0 -0.6422497239939948 1
gene  1 18 57 -0.9620550072078645 0 3377.0 -0.9620550072078645 1
gene  1 21 57 0.5802381887611265 0 3380.0 0.5802381887611265 1
gene  1 23 57 -0.1056842119352378 0 3382.0 -0.1056842119352378 1
gene  1 24 57 0.521311101221369 0 3383.0 0.521311101221369 1
gene  1 25 57 -0.05297489318535897 0 3384.0 -0.05297489318535897 1
gene  1 26 57 -0.17151734340049762 0 3385.0 -0.17151734340049762 1
gene  1 29 57 0.5457320060290649 0 3388.0 0.5457320060290649 1
gene  1 31 57 0.30410284161562917 0 3390.0 0.30410284161562917 1
gene  1 35 57 -0.5650148962884757 0 3394.0 -0.5650148962884757 1
gene  1 36 57 -0.04375170206775936 0 3395.0 -0.04375170206775936 1
gene  1 38 57 -0.9929789649115902 0 3397.0 -0.9929789649115902 1
gene  1 39 57 0.6294009496521468 0 3398.0 0.6294009496521468 1
gene  1 51 57 0.20812983365387683 0 3410.0 0.20812983365387683 1
gene  1 52 57 0.5969329908284864 0 3411.0 0.5969329908284864 1
gene  1 54 57 0.1714977042394874 0 3413.0 0.1714977042394874 1
gene  1 55 57 -0.064142025727988 0 3414.0 -0.064142025727988 1
gene  1 56 57 -0.8529133527515439 0 3415.0 -0.8529133527515439 1
gene  1 57 57 -0.9952049599168877 1 3416.0 -0.9952049599168877 1
gene  1 58 57 -0.18940416794762627 1 3417.0 -0.18940416794762627 1
gene  1 60 57 -0.8432076972654858 1 3419.0 -0.8432076972654858 1
gene  1 3 58 0.48850285278696826 0 3422.0 0.48850285278696826 1
gene  1 4 58 0.18640013912995623 0 3423.0 0.18640013912995623 1
gene  1 5 58 0.6118955090211541 0 3424.0 0.6118955090211541 1
gene  1 6 58 -0.9519501925251338 0 3425.0 -0.9519501925251338 1
gene  1 7 58 0.8525544566604187 0 3426.0 0.8525544566604187 1
gene  1 8 58 0.5511036681627264 0 3427.0 0.5511036681627264 1
gene  1 10 58 -0.9338311295359454 0 3429.0 -0.9338311295359454 1
gene  1 11 58 0.6635074320891762 0 3430.0 0.6635074320891762 1
gene  1 13 58 -0.8486770150715072 0 3432.0 -0.8486770150715072 1
gene  1 14 58 0.9003273326262451 0 3433.0 0.9003273326262451 1
gene  1 15 58 -0.2627882850287294 0 3434.0 -0.2627882850287294 1
gene  1 17 58 -0.9734031921450977 0 3436.0 -0.9734031921450977 1
gene  1 18 58 -0.7442348810287326 0 3437.0 -0.7442348810287326 1
gene  1 21 58 -0.3918013872614913 0 3440.0 -0.3918013872614913 1
gene  1 23 58 0.5761864178687405 0 3442.0 0.5761864178687405 1
gene  1 24 58 0.2690133347594321 0 3443.0 0.2690133347594321 1
gene  1 25 58 0.40560926718770063 0 3444.0 0.40560926718770063 1
gene  1 26 58 -0.708364419518998 0 3445.0 -0.708364419518998 1
gene  1 27 58 -0.13713173946795776 0 3446.0 -0.13713173946795776 1
gene  1 29 58 0.8837378637337246 0 3448.0 0.8837378637337246 1
gene  1 30 58 -0.7884145471755442 0 3449.0 -0.7884145471755442 1
gene  1 31 58 0.5701754750328 0 3450.0 0.5701754750328 1
gene  1 34 58 0.37609576281333046 0 3453.0 0.37609576281333046 1
gene  1 37 58 -0.6895679749061797 0 3456.0 -0.6895679749061797 1
gene  1 51 58 0.7257466850906142 0 3470.0 0.7257466850906142 1
gene  1 53 58 -0.9145928412082224 0 3472.0 -0.9145928412082224 1
gene  1 55 58 -0.5867889470093324 0 3474.0 -0.5867889470093324 1
gene  1 57 58 0.5234648344013995 0 3476.0 0.5234648344013995 1
gene  1 58 58 0.026615565201735247 1 3477.0 0.026615565201735247 1
gene  1 60 58 -0.24953351288108916 1 3479.0 -0.24953351288108916 1
gene  1 2 59 -0.19638465576448216 0 3481.0 -0.19638465576448216 1
gene  1 3 59 -0.39073650491451306 0 3482.0 -0.39073650491451306 1
gene  1 5 59 0.6469756309610628 0 3484.0 0.6469756309610628 1
gene  1 6 59 0.1908006983040943 0 3485.0 0.1908006983040943 1
gene  1 8 59 -0.6887173399562532 0 3487.0 -0.6887173399562532 1
gene  1 11 59 -0.08245106908143363 0 3490.0 -0.08245106908143363 1
gene  1 13 59 0.474292080549079 0 3492.0 0.474292080549079 1
gene  1 18 59 -0.7509691044369656 0 3497.0 -0.7509691044369656 1
gene  1 22 59 0.7547348112183635 0 3501.0 0.7547348112183635 1
gene  1 25 59 0.04577099727904843 0 3504.0 0.04577099727904843 1
gene  1 27 59 0.17980707192803502 0 3506.0 0.17980707192803502 1
gene  1 29 59 0.8235499785397059 0 3508.0 0.8235499785397059 1
gene  1 33 59 0.17220682993265057 0 3512.0 0.17220682993265057 1
gene  1 37 59 0.18972547697334197 0 3516.0 0.18972547697334197 1
gene  1 38 59 0.8564218743236618 0 3517.0 0.8564218743236618 1
gene  1 51 59 -0.564799423059478 0 3530.0 -0.564799423059478 1
gene  1 53 59 0.7657415090393325 0 3532.0 0.7657415090393325 1
gene  1 54 59 -0.35001821292405466 0 3533.0 -0.35001821292405466 1
gene  1 56 59 -0.349583738946162 0 3535.0 -0.349583738946162 1
gene  1 59 59 -0.12703117456495883 1 3538.0 -0.12703117456495883 1
gene  1 2 60 0.5421672551139227 0 3541.0 0.5421672551139227 1
gene  1 4 60 -0.6025360119662833 0 3543.0 -0.6025360119662833 1
gene  1 6 60 -0.4883283424224676 0 3545.0 -0.4883283424224676 1
gene  1 7 60 0.8488810086803438 0 3546.0 0.8488810086803438 1
gene  1 8 60 0.44331214157115906 0 3547.0 0.44331214157115906 1
gene  1 10 60 -0.6556940407679543 0 3549.0 -0.6556940407679543 1
gene  1 12 60 -0.8776278765652941 0 3551.0 -0.8776278765652941 1
gene  1 20 60 0.5137406902156011 0 3559.0 0.5137406902156011 1
gene  1 22 60 -0.8005349548928715 0 3561.0 -0.8005349548928715 1
gene  1 24 60 0.4879143018264879 0 3563.0 0.4879143018264879 1
gene  1 25 60 -0.6747489406063679 0 3564.0 -0.6747489406063679 1
gene  1 26 60 -0.3985148962562636 0 3565.0 -0.3985148962562636 1
gene  1 27 60 0.4397911939902893 0 3566.0 0.4397911939902893 1
gene  1 30 60 -0.9715501423553599 0 3569.0 -0.9715501423553599 1
gene  1 33 60 -0.3541311286830099 0 3572.0 -0.3541311286830099 1
gene  1 34 60 0.3488049089924533 0 3573.0 0.3488049089924533 1
gene  1 36 60 0.8836873573903206 0 3575.0 0.8836873573903206 1
gene  1 37 60 0.8534797167712773 0 3576.0 0.8534797167712773 1
gene  1 52 60 0.9894246706190059 0 3591.0 0.9894246706190059 1
gene  1 53 60 -0.12831526047463748 0 3592.0 -0.12831526047463748 1
gene  1 57 60 0.3733926711102774 0 3596.0 0.3733926711102774 1
gene  1 58 60 0.4823091085402671 0 3597.0 0.4823091085402671 1
genomeend 1
