genomestart  0
trait 1 0.0 0.0 0.0 0.0 0.0 0.0 0.0 0.0 
node 1 1 1 1
node 2 1 1 1
node 3 1 1 1
node 4 1 1 1
node 5 1 1 1
node 6 1 1 1
node 7 1 1 1
node 8 1 1 1
node 9 1 1 1
node 10 1 1 3
node 11 1 0 0
node 12 1 0 0
node 13 1 0 0
node 14 1 0 0
node 15 1 0 0
node 16 1 0 0
node 17 1 0 0
node 18 1 0 0
node 19 1 0 0
node 20 1 0 0
node 21 1 0 0
node 22 1 0 0
node 23 1 0 0
node 24 1 0 0
node 25 1 0 0
node 26 1 0 0
node 27 1 0 0
node 28 1 0 0
node 29 1 0 0
node 30 1 0 0
node 31 1 0 0
node 32 1 0 0
node 33 1 0 0
node 34 1 0 0
node 35 1 0 0
node 36 1 0 0
node 37 1 0 0
node 38 1 0 0
node 39 1 0 0
node 40 1 0 0
node 51 1 0 2
node 52 1 0 2
node 53 1 0 2
node 54 1 0 2
node 55 1 0 2
node 56 1 0 2
node 57 1 0 2
node 58 1 0 2
node 59 1 0 2
node 60 1 0 2
gene  1 1 11 -0.7369501295775956 0 600.0 -0.7369501295775956 1
gene  1 5 11 -0.908689205583557 0 604.0 -0.908689205583557 1
gene  1 6 11 0.2858731743386693 0 605.0 0.2858731743386693 1
gene  1 7 11 -0.45704355449703515 0 606.0 -0.45704355449703515 1
gene  1 11 11 -0.8502642373112479 1 610.0 -0.8502642373112479 1
gene  1 12 11 -0.5504875934791186 1 611.0 -0.5504875934791186 1
gene  1 13 11 -0.5197173620416702 1 612.0 -0.5197173620416702 1
gene  1 14 11 0.24284361459565396 1 613.0 0.24284361459565396 1
gene  1 15 11 -0.33541208717609505 1 614.0 -0.33541208717609505 1
gene  1 19 11 -0.8434049062605178 1 618.0 -0.8434049062605178 1
gene  1 20 11 -0.24297311280750844 1 619.0 -0.24297311280750844 1
gene  1 22 11 -0.046004217056062946 1 621.0 -0.046004217056062946 1
gene  1 24 11 -0.29936131187956827 1 623.0 -0.29936131187956827 1
gene  1 25 11 0.9115942134237507 1 624.0 0.9115942134237507 1
gene  1 27 11 -0.28244716889974475 1 626.0 -0.28244716889974475 1
gene  1 28 11 -0.16899492759417634 1 627.0 -0.16899492759417634 1
gene  1 29 11 -0.3961514499628578 1 628.0 -0.3961514499628578 1
gene  1 32 11 0.9394059306721544 1 631.0 0.9394059306721544 1
gene  1 35 11 0.6415625584210832 1 634.0 0.6415625584210832 1
gene  1 37 11 0.0366675803449219 1 636.0 0.0366675803449219 1
gene  1 38 11 0.03411995975825455 1 637.0 0.03411995975825455 1
gene  1 40 11 0.7521269889452583 1 639.0 0.7521269889452583 1
gene  1 52 11 -0.37524398780208945 1 651.0 -0.37524398780208945 1
gene  1 54 11 -0.4763476085610733 1 653.0 -0.4763476085610733 1
gene  1 55 11 -0.5788963351319719 1 654.0 -0.5788963351319719 1
gene  1 58 11 -0.028320269087731553 1 657.0 -0.028320269087731553 1
gene  1 59 11 0.6403321172575903 1 658.0 0.6403321172575903 1
gene  1 3 12 0.8916968087605522 0 662.0 0.8916968087605522 1
gene  1 4 12 -0.36886291602393984 0 663.0 -0.36886291602393984 1
gene  1 5 12 -0.36346181575279335 0 664.0 -0.36346181575279335 1
gene  1 8 12 0.3330530504531092 0 667.0 0.3330530504531092 1
gene  1 9 12 0.5361155182645935 0 668.0 0.5361155182645935 1
gene  1 10 12 -0.7634715229576662 0 669.0 -0.7634715229576662 1
gene  1 12 12 -0.5389309099510807 1 671.0 -0.5389309099510807 1
gene  1 14 12 -0.06329956015886029 1 673.0 -0.06329956015886029 1
gene  1 15 12 -0.8462632421279872 1 674.0 -0.8462632421279872 1
gene  1 16 12 0.9287567298101559 1 675.0 0.9287567298101559 1
gene  1 18 12 -0.19954857366470236 1 677.0 -0.19954857366470236 1
gene  1 19 12 -0.8668822482677633 1 678.0 -0.8668822482677633 1
gene  1 20 12 0.9226074117210132 1 679.0 0.9226074117210132 1
gene  1 21 12 -0.2311383542274995 1 680.0 -0.2311383542274995 1
gene  1 22 12 -0.7663529204755198 1 681.0 -0.7663529204755198 1
gene  1 23 12 0.8037081578491719 1 682.0 0.8037081578491719 1
gene  1 24 12 -0.3247706294980568 1 683.0 -0.3247706294980568 1
gene  1 25 12 0.48457166249775285 1 684.0 0.48457166249775285 1
gene  1 26 12 -0.7280912590930684 1 685.0 -0.7280912590930684 1
gene  1 29 12 0.7611433766841477 1 688.0 0.7611433766841477 1
gene  1 30 12 0.9522183332661288 1 689.0 0.9522183332661288 1
gene  1 31 12 -0.5735741159355326 1 690.0 -0.5735741159355326 1
gene  1 33 12 -0.49331960637873706 1 692.0 -0.49331960637873706 1
gene  1 34 12 0.5035912682148409 1 693.0 0.5035912682148409 1
gene  1 35 12 -0.7072697054787811 1 694.0 -0.7072697054787811 1
gene  1 36 12 -0.27379377875681643 1 695.0 -0.27379377875681643 1
gene  1 39 12 -0.13272342118616254 1 698.0 -0.13272342118616254 1
gene  1 40 12 0.45442043639760665 1 699.0 0.45442043639760665 1
gene  1 54 12 -0.17365875436992373 1 713.0 -0.17365875436992373 1
gene  1 55 12 -0.20262890432010727 1 714.0 -0.20262890432010727 1
gene  1 56 12 -0.5953830599626319 1 715.0 -0.5953830599626319 1
gene  1 57 12 -0.33453406609767733 1 716.0 -0.33453406609767733 1
gene  1 58 12 0.7104252582807721 1 717.0 0.7104252582807721 1
gene  1 59 12 0.46687186082356935 1 718.0 0.46687186082356935 1
gene  1 7 13 0.19964413210674758 0 726.0 0.19964413210674758 1
gene  1 8 13 -0.6296838398122911 0 727.0 -0.6296838398122911 1
gene  1 10 13 -0.16266226201661316 0 729.0 -0.16266226201661316 1
gene  1 14 13 -0.6162251018906093 1 733.0 -0.6162251018906093 1
gene  1 18 13 0.34484215190092193 1 737.0 0.34484215190092193 1
gene  1 23 13 -0.7295777880889835 1 742.0 -0.7295777880889835 1
gene  1 24 13 -0.06684321322087894 1 743.0 -0.06684321322087894 1
gene  1 25 13 -0.2664837840242744 1 744.0 -0.2664837840242744 1
gene  1 27 13 0.7895629493429336 1 746.0 0.7895629493429336 1
gene  1 29 13 0.3362593856233437 1 748.0 0.3362593856233437 1
gene  1 31 13 0.5027332917964203 1 750.0 0.5027332917964203 1
gene  1 32 13 0.20174110398117284 1 751.0 0.20174110398117284 1
gene  1 34 13 -0.42996943647909613 1 753.0 -0.42996943647909613 1
gene  1 37 13 -0.5343751804628208 1 756.0 -0.5343751804628208 1
gene  1 52 13 -0.07426010984857234 1 771.0 -0.07426010984857234 1
gene  1 53 13 -0.8005584622792294 1 772.0 -0.8005584622792294 1
gene  1 54 13 0.08193524756493176 1 773.0 0.08193524756493176 1
gene  1 55 13 0.4558989004653369 1 774.0 0.4558989004653369 1
gene  1 56 13 0.3305662605621261 1 775.0 0.3305662605621261 1
gene  1 57 13 0.32794725743384456 1 776.0 0.32794725743384456 1
gene  1 59 13 -0.2266153023639802 1 778.0 -0.2266153023639802 1
gene  1 60 13 0.25762072937145986 1 779.0 0.25762072937145986 1
gene  1 2 14 -0.9425431305488023 0 781.0 -0.9425431305488023 1
gene  1 4 14 -0.4863908382672274 0 783.0 -0.4863908382672274 1
gene  1 7 14 0.2833517156404991 0 786.0 0.2833517156404991 1
gene  1 8 14 0.7090894229956334 0 787.0 0.7090894229956334 1
gene  1 10 14 0.29058823202851725 0 789.0 0.29058823202851725 1
gene  1 11 14 -0.7900387401968841 0 790.0 -0.7900387401968841 1
gene  1 14 14 -0.5985264832343745 1 793.0 -0.5985264832343745 1
gene  1 17 14 0.9064427981146657 1 796.0 0.9064427981146657 1
gene  1 18 14 -0.6916442023287727 1 797.0 -0.6916442023287727 1
gene  1 22 14 0.9035395034705289 1 801.0 0.9035395034705289 1
gene  1 23 14 -0.7155788038877015 1 802.0 -0.7155788038877015 1
gene  1 25 14 0.8752761910497484 1 804.0 0.8752761910497484 1
gene  1 29 14 0.17764709729235628 1 808.0 0.17764709729235628 1
gene  1 32 14 -0.32953683908847176 1 811.0 -0.32953683908847176 1
gene  1 37 14 0.4607231237977145 1 816.0 0.4607231237977145 1
gene  1 38 14 -0.29185884443172105 1 817.0 -0.29185884443172105 1
gene  1 39 14 0.6475963434910303 1 818.0 0.6475963434910303 1
gene  1 52 14 -0.41729719798178244 1 831.0 -0.41729719798178244 1
gene  1 54 14 -0.1411300949468387 1 833.0 -0.1411300949468387 1
gene  1 57 14 -0.47196422842325736 1 836.0 -0.47196422842325736 1
gene  1 59 14 -0.9501879888660633 1 838.0 -0.9501879888660633 1
gene  1 3 15 -0.9518058349489663 0 842.0 -0.9518058349489663 1
gene  1 4 15 0.5170369123792836 0 843.0 0.5170369123792836 1
gene  1 5 15 -0.6825593668450817 0 844.0 -0.6825593668450817 1
gene  1 10 15 0.3463365236998447 0 849.0 0.3463365236998447 1
gene  1 12 15 0.8423770114986779 0 851.0 0.8423770114986779 1
gene  1 13 15 0.8453807070964119 0 852.0 0.8453807070964119 1
gene  1 16 15 0.8027021070526542 1 855.0 0.8027021070526542 1
gene  1 18 15 0.16833079623498415 1 857.0 0.16833079623498415 1
gene  1 19 15 0.10866075814147458 1 858.0 0.10866075814147458 1
gene  1 20 15 0.9784201509294552 1 859.0 0.9784201509294552 1
gene  1 21 15 -0.2721998069039092 1 860.0 -0.2721998069039092 1
gene  1 22 15 -0.886584286562317 1 861.0 -0.886584286562317 1
gene  1 26 15 0.3280579345749538 1 865.0 0.3280579345749538 1
gene  1 29 15 0.37412012679274176 1 868.0 0.37412012679274176 1
gene  1 31 15 -0.042740511065966214 1 870.0 -0.042740511065966214 1
gene  1 32 15 -0.25208164529960253 1 871.0 -0.25208164529960253 1
gene  1 33 15 -0.5020160598265655 1 872.0 -0.5020160598265655 1
gene  1 35 15 -0.6828939442994011 1 874.0 -0.6828939442994011 1
gene  1 36 15 -0.1060439975656865 1 875.0 -0.1060439975656865 1
gene  1 40 15 0.47320045526408616 1 879.0 0.47320045526408616 1
gene  1 51 15 -0.38138510064089626 1 890.0 -0.38138510064089626 1
gene  1 55 15 -0.92407159404572 1 894.0 -0.92407159404572 1
gene  1 59 15 -0.8836976854633051 1 898.0 -0.8836976854633051 1
gene  1 60 15 0.2644821162339205 1 899.0 0.2644821162339205 1
gene  1 1 16 -0.29675314823064625 0 900.0 -0.29675314823064625 1
gene  1 4 16 -0.8710109711322345 0 903.0 -0.8710109711322345 1
gene  1 6 16 -0.887216779327566 0 905.0 -0.887216779327566 1
gene  1 7 16 -0.0613959851671505 0 906.0 -0.0613959851671505 1
gene  1 10 16 -0.5241220930120414 0 909.0 -0.5241220930120414 1
gene  1 13 16 0.20128876208787616 0 912.0 0.20128876208787616 1
gene  1 14 16 0.2048521196436497 0 913.0 0.2048521196436497 1
gene  1 18 16 -0.20281995653552332 1 917.0 -0.20281995653552332 1
gene  1 19 16 0.9069609213714199 1 918.0 0.9069609213714199 1
gene  1 20 16 0.9224665901637434 1 919.0 0.9224665901637434 1
gene  1 23 16 -0.4509872242853521 1 922.0 -0.4509872242853521 1
gene  1 25 16 0.6498562356001673 1 924.0 0.6498562356001673 1
gene  1 27 16 -0.5020036812634063 1 926.0 -0.5020036812634063 1
gene  1 28 16 -0.09847368591781047 1 927.0 -0.09847368591781047 1
gene  1 29 16 -0.27872312816897693 1 928.0 -0.27872312816897693 1
gene  1 31 16 0.028095066937009472 1 930.0 0.028095066937009472 1
gene  1 34 16 0.2394296765373104 1 933.0 0.2394296765373104 1
gene  1 35 16 0.6299995946888488 1 934.0 0.6299995946888488 1
gene  1 36 16 0.6574184677313689 1 935.0 0.6574184677313689 1
gene  1 37 16 -0.8772908149658643 1 936.0 -0.8772908149658643 1
gene  1 38 16 0.23143898178947286 1 937.0 0.23143898178947286 1
gene  1 39 16 -0.7971420722313965 1 938.0 -0.7971420722313965 1
gene  1 40 16 -0.15238732635907282 1 939.0 -0.15238732635907282 1
gene  1 53 16 -0.8787556851772953 1 952.0 -0.8787556851772953 1
gene  1 55 16 -0.3417554498686437 1 954.0 -0.3417554498686437 1
gene  1 56 16 0.07598170810101523 1 955.0 0.07598170810101523 1
gene  1 57 16 0.008383554755455824 1 956.0 0.008383554755455824 1
gene  1 58 16 0.15211524357552042 1 957.0 0.15211524357552042 1
gene  1 3 17 -0.7791671739868571 0 962.0 -0.7791671739868571 1
gene  1 5 17 0.8741957073725025 0 964.0 0.8741957073725025 1
gene  1 6 17 -0.07352009186481978 0 965.0 -0.07352009186481978 1
gene  1 11 17 -0.09928886695325134 0 970.0 -0.09928886695325134 1
gene  1 12 17 0.8096391303717978 0 971.0 0.8096391303717978 1
gene  1 13 17 0.8851028402462403 0 972.0 0.8851028402462403 1
gene  1 14 17 0.4443614391787165 0 973.0 0.4443614391787165 1
gene  1 15 17 0.5889151460761973 0 974.0 0.5889151460761973 1
gene  1 16 17 0.624468594235012 0 975.0 0.624468594235012 1
gene  1 18 17 0.684843942617686 1 977.0 0.684843942617686 1
gene  1 20 17 -0.15143811726368228 1 979.0 -0.15143811726368228 1
gene  1 21 17 -0.8675709605297581 1 980.0 -0.8675709605297581 1
gene  1 22 17 0.05893987470099704 1 981.0 0.05893987470099704 1
gene  1 23 17 0.5533169594323737 1 982.0 0.5533169594323737 1
gene  1 24 17 -0.5195907908300236 1 983.0 -0.5195907908300236 1
gene  1 26 17 0.5380397188110477 1 985.0 0.5380397188110477 1
gene  1 27 17 -0.2513863145473112 1 986.0 -0.2513863145473112 1
gene  1 28 17 0.7049490822920939 1 987.0 0.7049490822920939 1
gene  1 32 17 -0.8584601842890283 1 991.0 -0.8584601842890283 1
gene  1 36 17 0.32695273998592844 1 995.0 0.32695273998592844 1
gene  1 37 17 -0.6627702798444595 1 996.0 -0.6627702798444595 1
gene  1 38 17 -0.6987210590890758 1 997.0 -0.6987210590890758 1
gene  1 39 17 -0.4910736012285708 1 998.0 -0.4910736012285708 1
gene  1 40 17 0.47611610493523715 1 999.0 0.47611610493523715 1
gene  1 51 17 0.7600146433218876 1 1010.0 0.7600146433218876 1
gene  1 54 17 0.6457536107281383 1 1013.0 0.6457536107281383 1
gene  1 57 17 0.4856902958189496 1 1016.0 0.4856902958189496 1
gene  1 58 17 -0.21987546202684105 1 1017.0 -0.21987546202684105 1
gene  1 59 17 0.39239642876090075 1 1018.0 0.39239642876090075 1
gene  1 60 17 0.4442978563417861 1 1019.0 0.4442978563417861 1
gene  1 1 18 -0.7875847287841702 0 1020.0 -0.7875847287841702 1
gene  1 2 18 0.47547166092520754 0 1021.0 0.47547166092520754 1
gene  1 3 18 -0.6712621816025063 0 1022.0 -0.6712621816025063 1
gene  1 5 18 0.002579797976814291 0 1024.0 0.002579797976814291 1
gene  1 7 18 -0.26986866166296064 0 1026.0 -0.26986866166296064 1
gene  1 9 18 -0.07938336570582083 0 1028.0 -0.07938336570582083 1
gene  1 10 18 -0.3829330343192493 0 1029.0 -0.3829330343192493 1
gene  1 11 18 0.7254601663366335 0 1030.0 0.7254601663366335 1
gene  1 12 18 -0.8492572840542504 0 1031.0 -0.8492572840542504 1
gene  1 14 18 0.38939662914512363 0 1033.0 0.38939662914512363 1
gene  1 15 18 0.4285993366586148 0 1034.0 0.4285993366586148 1
gene  1 16 18 -0.2664749971148693 0 1035.0 -0.2664749971148693 1
gene  1 17 18 -0.6042228376019828 0 1036.0 -0.6042228376019828 1
gene  1 20 18 0.06321911129909585 1 1039.0 0.06321911129909585 1
gene  1 23 18 -0.9707998171921337 1 1042.0 -0.9707998171921337 1
gene  1 24 18 -0.1170932434797608 1 1043.0 -0.1170932434797608 1
gene  1 26 18 -0.4464780323734677 1 1045.0 -0.4464780323734677 1
gene  1 27 18 0.27787481652260115 1 1046.0 0.27787481652260115 1
gene  1 28 18 0.2731511513247147 1 1047.0 0.2731511513247147 1
gene  1 30 18 -0.3139090369710352 1 1049.0 -0.3139090369710352 1
gene  1 32 18 -0.5362919981155835 1 1051.0 -0.5362919981155835 1
gene  1 33 18 -0.5122587760516678 1 1052.0 -0.5122587760516678 1
gene  1 34 18 0.21963283956639323 1 1053.0 0.21963283956639323 1
gene  1 35 18 -0.7952987869796165 1 1054.0 -0.7952987869796165 1
gene  1 39 18 0.29874105514158056 1 1058.0 0.29874105514158056 1
gene  1 40 18 -0.4548552641942831 1 1059.0 -0.4548552641942831 1
gene  1 52 18 0.1850981279719024 1 1071.0 0.1850981279719024 1
gene  1 53 18 -0.49451230122597467 1 1072.0 -0.49451230122597467 1
gene  1 54 18 0.6394857424921306 1 1073.0 0.6394857424921306 1
gene  1 1 19 0.2808630952331653 0 1080.0 0.2808630952331653 1
gene  1 2 19 -0.9648199639642498 0 1081.0 -0.9648199639642498 1
gene  1 5 19 -0.4883024570355946 0 1084.0 -0.4883024570355946 1
gene  1 6 19 0.11977191122939024 0 1085.0 0.11977191122939024 1
gene  1 7 19 -0.863333338791925 0 1086.0 -0.863333338791925 1
gene  1 8 19 0.4446993820386884 0 1087.0 0.4446993820386884 1
gene  1 9 19 -0.6604769013208863 0 1088.0 -0.6604769013208863 1
gene  1 13 19 -0.32267782278296864 0 1092.0 -0.32267782278296864 1
gene  1 14 19 -0.8212924764691574 0 1093.0 -0.8212924764691574 1
gene  1 15 19 0.36405680431995413 0 1094.0 0.36405680431995413 1
gene  1 16 19 -0.7289940750790688 0 1095.0 -0.7289940750790688 1
gene  1 17 19 0.1146485806492249 0 1096.0 0.1146485806492249 1
gene  1 20 19 -0.27845464640957285 1 1099.0 -0.27845464640957285 1
gene  1 21 19 0.07035366860196646 1 1100.0 0.07035366860196646 1
gene  1 22 19 -0.8236251009508624 1 1101.0 -0.8236251009508624 1
gene  1 28 19 -0.7134246211216327 1 1107.0 -0.7134246211216327 1
gene  1 31 19 -0.9076529715947936 1 1110.0 -0.9076529715947936 1
gene  1 32 19 -0.4422962346533241 1 1111.0 -0.4422962346533241 1
gene  1 33 19 -0.39832824300359515 1 1112.0 -0.39832824300359515 1
gene  1 36 19 -0.447809628341464 1 1115.0 -0.447809628341464 1
gene  1 52 19 -0.10155096162318566 1 1131.0 -0.10155096162318566 1
gene  1 55 19 0.9389657935163361 1 1134.0 0.9389657935163361 1
gene  1 56 19 -0.2872825892137416 1 1135.0 -0.2872825892137416 1
gene  1 60 19 0.4154365882662123 1 1139.0 0.4154365882662123 1
gene  1 1 20 -0.7569113965110861 0 1140.0 -0.7569113965110861 1
gene  1 3 20 -0.9641903615957785 0 1142.0 -0.9641903615957785 1
gene  1 10 20 -0.4443200363957548 0 1149.0 -0.4443200363957548 1
gene  1 11 20 -0.2877538645182799 0 1150.0 -0.2877538645182799 1
gene  1 12 20 -0.23946224769097757 0 1151.0 -0.23946224769097757 1
gene  1 13 20 0.7854873666909984 0 1152.0 0.7854873666909984 1
gene  1 16 20 0.9799770627568312 0 1155.0 0.9799770627568312 1
gene  1 18 20 -0.6997211501683318 0 1157.0 -0.6997211501683318 1
gene  1 21 20 0.14533746350066512 1 1160.0 0.14533746350066512 1
gene  1 23 20 -0.15560133915013197 1 1162.0 -0.15560133915013197 1
gene  1 25 20 -0.7756290283557098 1 1164.0 -0.7756290283557098 1
gene  1 26 20 -0.7149003127590778 1 1165.0 -0.7149003127590778 1
gene  1 27 20 0.7636943997689143 1 1166.0 0.7636943997689143 1
gene  1 29 20 0.5138520324279081 1 1168.0 0.5138520324279081 1
gene  1 31 20 -0.3166148794136511 1 1170.0 -0.3166148794136511 1
gene  1 33 20 -0.04135295204844536 1 1172.0 -0.04135295204844536 1
gene  1 37 20 0.9283015759698415 1 1176.0 0.9283015759698415 1
gene  1 53 20 -0.3279832589494406 1 1192.0 -0.3279832589494406 1
gene  1 54 20 0.66173218844366 1 1193.0 0.66173218844366 1
gene  1 58 20 -0.053490814335508174 1 1197.0 -0.053490814335508174 1
gene  1 1 21 0.7129074530441046 0 1200.0 0.7129074530441046 1
gene  1 2 21 0.330627636023075 0 1201.0 0.330627636023075 1
gene  1 5 21 0.2301718216703893 0 1204.0 0.2301718216703893 1
gene  1 6 21 0.3601179834507897 0 1205.0 0.3601179834507897 1
gene  1 11 21 -0.14967695508099732 0 1210.0 -0.14967695508099732 1
gene  1 12 21 -0.33541409031763203 0 1211.0 -0.33541409031763203 1
gene  1 13 21 0.5234443362733764 0 1212.0 0.5234443362733764 1
gene  1 14 21 -0.0565819000979082 0 1213.0 -0.0565819000979082 1
gene  1 19 21 0.5399247648052113 0 1218.0 0.5399247648052113 1
gene  1 21 21 0.13555850032004557 1 1220.0 0.13555850032004557 1
gene  1 22 21 -0.05306678263208131 1 1221.0 -0.05306678263208131 1
gene  1 25 21 0.863316227103722 1 1224.0 0.863316227103722 1
gene  1 27 21 -0.6741653027235573 1 1226.0 -0.6741653027235573 1
gene  1 29 21 0.013783660677925358 1 1228.0 0.013783660677925358 1
gene  1 30 21 -0.7680522913784281 1 1229.0 -0.7680522913784281 1
gene  1 32 21 -0.8350868152145798 1 1231.0 -0.8350868152145798 1
gene  1 33 21 -0.3108982111859956 1 1232.0 -0.3108982111859956 1
gene  1 34 21 -0.36977324964684066 1 1233.0 -0.36977324964684066 1
gene  1 37 21 -0.6822696685879039 1 1236.0 -0.6822696685879039 1
gene  1 38 21 -0.022796784017245275 1 1237.0 -0.022796784017245275 1
gene  1 40 21 0.9916851977606274 1 1239.0 0.9916851977606274 1
gene  1 51 21 -0.31511942348452926 1 1250.0 -0.31511942348452926 1
gene  1 53 21 0.31258717011902526 1 1252.0 0.31258717011902526 1
gene  1 56 21 0.4774921463704913 1 1255.0 0.4774921463704913 1
gene  1 57 21 -0.8394606562632951 1 1256.0 -0.8394606562632951 1
gene  1 58 21 -0.13278479405944044 1 1257.0 -0.13278479405944044 1
gene  1 59 21 0.9358279693788787 1 1258.0 0.9358279693788787 1
gene  1 60 21 0.9458384867954842 1 1259.0 0.9458384867954842 1
gene  1 1 22 0.5275333476967744 0 1260.0 0.5275333476967744 1
gene  1 2 22 0.7572590443859586 0 1261.0 0.7572590443859586 1
gene  1 3 22 -0.64676661863594 0 1262.0 -0.64676661863594 1
gene  1 6 22 0.9562882532491174 0 1265.0 0.9562882532491174 1
gene  1 8 22 -0.4826415155040147 0 1267.0 -0.4826415155040147 1
gene  1 9 22 0.8335106790735715 0 1268.0 0.8335106790735715 1
gene  1 12 22 0.20087916296262265 0 1271.0 0.20087916296262265 1
gene  1 13 22 0.22077835906952636 0 1272.0 0.22077835906952636 1
gene  1 19 22 -0.4453480830383266 0 1278.0 -0.4453480830383266 1
gene  1 21 22 -0.06005490495085497 0 1280.0 -0.06005490495085497 1
gene  1 22 22 -0.7138968816285669 1 1281.0 -0.7138968816285669 1
gene  1 24 22 -0.16031603853699417 1 1283.0 -0.16031603853699417 1
gene  1 26 22 0.3380168592484164 1 1285.0 0.3380168592484164 1
gene  1 29 22 -0.9383937319700082 1 1288.0 -0.9383937319700082 1
gene  1 33 22 0.38434878127875605 1 1292.0 0.38434878127875605 1
gene  1 35 22 0.233328704271332 1 1294.0 0.233328704271332 1
gene  1 36 22 0.5519761844803104 1 1295.0 0.5519761844803104 1
gene  1 38 22 0.4340226525689842 1 1297.0 0.4340226525689842 1
gene  1 39 22 -0.5335320744265576 1 1298.0 -0.5335320744265576 1
gene  1 40 22 0.7291472004153345 1 1299.0 0.7291472004153345 1
gene  1 51 22 -0.06301114190784596 1 1310.0 -0.06301114190784596 1
gene  1 52 22 0.5213043482720138 1 1311.0 0.5213043482720138 1
gene  1 54 22 0.8074170922858209 1 1313.0 0.8074170922858209 1
gene  1 55 22 0.958313406451164 1 1314.0 0.958313406451164 1
gene  1 57 22 0.5041631178519499 1 1316.0 0.5041631178519499 1
gene  1 58 22 0.9258218736220193 1 1317.0 0.9258218736220193 1
gene  1 59 22 -0.35394657897329207 1 1318.0 -0.35394657897329207 1
gene  1 60 22 -0.7962788974730086 1 1319.0 -0.7962788974730086 1
gene  1 2 23 -0.4874621067511373 0 1321.0 -0.4874621067511373 1
gene  1 3 23 -0.30525736775638324 0 1322.0 -0.30525736775638324 1
gene  1 5 23 0.03346963656389279 0 1324.0 0.03346963656389279 1
gene  1 6 23 0.3340923980708873 0 1325.0 0.3340923980708873 1
gene  1 7 23 0.07655789116523481 0 1326.0 0.07655789116523481 1
gene  1 8 23 0.5071842635900815 0 1327.0 0.5071842635900815 1
gene  1 9 23 0.20548323211946595 0 1328.0 0.20548323211946595 1
gene  1 10 23 -0.7723379400855459 0 1329.0 -0.7723379400855459 1
gene  1 12 23 -0.6095066102817186 0 1331.0 -0.6095066102817186 1
gene  1 13 23 -0.7150781989648688 0 1332.0 -0.7150781989648688 1
gene  1 17 23 -0.686630605836471 0 1336.0 -0.686630605836471 1
gene  1 18 23 -0.523232906694884 0 1337.0 -0.523232906694884 1
gene  1 20 23 0.7788437489817998 0 1339.0 0.7788437489817998 1
gene  1 21 23 -0.21988043649669176 0 1340.0 -0.21988043649669176 1
gene  1 22 23 -0.027598672128905877 0 1341.0 -0.027598672128905877 1
gene  1 23 23 -0.9176534892998375 1 1342.0 -0.9176534892998375 1
gene  1 24 23 0.45254000933118843 1 1343.0 0.45254000933118843 1
gene  1 28 23 -0.13300394937480442 1 1347.0 -0.13300394937480442 1
gene  1 29 23 -0.10410940575995009 1 1348.0 -0.10410940575995009 1
gene  1 30 23 0.6530247841738709 1 1349.0 0.6530247841738709 1
gene  1 31 23 -0.6068764207699773 1 1350.0 -0.6068764207699773 1
gene  1 32 23 -0.6590439905487611 1 1351.0 -0.6590439905487611 1
gene  1 33 23 -0.06293469748018454 1 1352.0 -0.06293469748018454 1
gene  1 39 23 0.6654718372251794 1 1358.0 0.6654718372251794 1
gene  1 40 23 0.6174468333297924 1 1359.0 0.6174468333297924 1
gene  1 51 23 -0.06580766781166725 1 1370.0 -0.06580766781166725 1
gene  1 53 23 -0.17047538370144344 1 1372.0 -0.17047538370144344 1
gene  1 54 23 -0.013226423489562489 1 1373.0 -0.013226423489562489 1
gene  1 58 23 0.17853162868742778 1 1377.0 0.17853162868742778 1
gene  1 59 23 -0.39064690170922056 1 1378.0 -0.39064690170922056 1
gene  1 1 24 -0.9510021865170285 0 1380.0 -0.9510021865170285 1
gene  1 3 24 0.4627499862886806 0 1382.0 0.4627499862886806 1
gene  1 4 24 -0.18949657312600054 0 1383.0 -0.18949657312600054 1
gene  1 9 24 0.29238445591219775 0 1388.0 0.29238445591219775 1
gene  1 10 24 -0.905606694935961 0 1389.0 -0.905606694935961 1
gene  1 11 24 -0.16596671994066492 0 1390.0 -0.16596671994066492 1
gene  1 12 24 0.9395341389811422 0 1391.0 0.9395341389811422 1
gene  1 18 24 -0.5561480437822836 0 1397.0 -0.5561480437822836 1
gene  1 19 24 -0.9120720868625181 0 1398.0 -0.9120720868625181 1
gene  1 20 24 0.2948797763269523 0 1399.0 0.2948797763269523 1
gene  1 21 24 -0.9532425163793734 0 1400.0 -0.9532425163793734 1
gene  1 22 24 -0.2648405837416167 0 1401.0 -0.2648405837416167 1
gene  1 28 24 -0.3204434971772835 1 1407.0 -0.3204434971772835 1
gene  1 30 24 -0.9940177861460788 1 1409.0 -0.9940177861460788 1
gene  1 31 24 -0.5278610946901234 1 1410.0 -0.5278610946901234 1
gene  1 32 24 0.9183123259595636 1 1411.0 0.9183123259595636 1
gene  1 33 24 0.588625852138817 1 1412.0 0.588625852138817 1
gene  1 36 24 -0.0538577712870244 1 1415.0 -0.0538577712870244 1
gene  1 37 24 -0.6314583418089009 1 1416.0 -0.6314583418089009 1
gene  1 40 24 0.08397761748045818 1 1419.0 0.08397761748045818 1
gene  1 51 24 0.7158077391952691 1 1430.0 0.7158077391952691 1
gene  1 55 24 -0.37869196916370484 1 1434.0 -0.37869196916370484 1
gene  1 56 24 -0.7573821293225409 1 1435.0 -0.7573821293225409 1
gene  1 57 24 -0.946924830221314 1 1436.0 -0.946924830221314 1
gene  1 59 24 -0.5072254655244737 1 1438.0 -0.5072254655244737 1
gene  1 3 25 0.49633032097755436 0 1442.0 0.49633032097755436 1
gene  1 4 25 0.0955909134959202 0 1443.0 0.0955909134959202 1
gene  1 6 25 0.2616657954485212 0 1445.0 0.2616657954485212 1
gene  1 7 25 0.9794346948956999 0 1446.0 0.9794346948956999 1
gene  1 9 25 -0.957406096547185 0 1448.0 -0.957406096547185 1
gene  1 11 25 -0.022219575094502897 0 1450.0 -0.022219575094502897 1
gene  1 12 25 -0.23160106550524528 0 1451.0 -0.23160106550524528 1
gene  1 15 25 0.7379205768142986 0 1454.0 0.7379205768142986 1
gene  1 17 25 -0.7186074723932271 0 1456.0 -0.7186074723932271 1
gene  1 18 25 0.195404650504293 0 1457.0 0.195404650504293 1
gene  1 19 25 -0.21795187982338637 0 1458.0 -0.21795187982338637 1
gene  1 22 25 -0.5349945681064907 0 1461.0 -0.5349945681064907 1
gene  1 25 25 -0.2634944403826198 1 1464.0 -0.2634944403826198 1
gene  1 27 25 -0.23288238053985255 1 1466.0 -0.23288238053985255 1
gene  1 30 25 -0.5411205712097159 1 1469.0 -0.5411205712097159 1
gene  1 31 25 0.16131922907340945 1 1470.0 0.16131922907340945 1
gene  1 33 25 -0.8501529596715318 1 1472.0 -0.8501529596715318 1
gene  1 34 25 0.02443662349490283 1 1473.0 0.02443662349490283 1
gene  1 36 25 0.03984844709329016 1 1475.0 0.03984844709329016 1
gene  1 40 25 -0.4142648527401983 1 1479.0 -0.4142648527401983 1
gene  1 54 25 0.4971415118090837 1 1493.0 0.4971415118090837 1
gene  1 56 25 -0.6735472600388714 1 1495.0 -0.6735472600388714 1
gene  1 57 25 -0.22468807460353757 1 1496.0 -0.22468807460353757 1
gene  1 58 25 -0.8052049307674601 1 1497.0 -0.8052049307674601 1
gene  1 60 25 -0.03522233358631177 1 1499.0 -0.03522233358631177 1
gene  1 2 26 -0.07557800493306988 0 1501.0 -0.07557800493306988 1
gene  1 4 26 0.4516035092159235 0 1503.0 0.4516035092159235 1
gene  1 8 26 0.459747227708063 0 1507.0 0.459747227708063 1
gene  1 9 26 0.21634448647501148 0 1508.0 0.21634448647501148 1
gene  1 10 26 -0.4169312743590404 0 1509.0 -0.4169312743590404 1
gene  1 14 26 -0.3702528790655226 0 1513.0 -0.3702528790655226 1
gene  1 15 26 -0.9830919230326529 0 1514.0 -0.9830919230326529 1
gene  1 17 26 -0.7342346141194562 0 1516.0 -0.7342346141194562 1
gene  1 18 26 0.8475423217771175 0 1517.0 0.8475423217771175 1
gene  1 20 26 0.21285030244420056 0 1519.0 0.21285030244420056 1
gene  1 24 26 0.9199055230616737 0 1523.0 0.9199055230616737 1
gene  1 25 26 -0.37060412511944474 0 1524.0 -0.37060412511944474 1
gene  1 26 26 0.1490203392636419 1 1525.0 0.1490203392636419 1
gene  1 28 26 -0.19849347549993135 1 1527.0 -0.19849347549993135 1
gene  1 29 26 -0.4563677056561005 1 1528.0 -0.4563677056561005 1
gene  1 30 26 0.9321272707840542 1 1529.0 0.9321272707840542 1
gene  1 31 26 -0.03817603654267654 1 1530.0 -0.03817603654267654 1
gene  1 32 26 -0.27138903858282015 1 1531.0 -0.27138903858282015 1
gene  1 33 26 -0.6728339517533509 1 1532.0 -0.6728339517533509 1
gene  1 36 26 -0.3275825823996643 1 1535.0 -0.3275825823996643 1
gene  1 51 26 -0.44048821273444927 1 1550.0 -0.44048821273444927 1
gene  1 53 26 -0.5783012132225697 1 1552.0 -0.5783012132225697 1
gene  1 55 26 -0.5496797376656969 1 1554.0 -0.5496797376656969 1
gene  1 56 26 0.9903586033017173 1 1555.0 0.9903586033017173 1
gene  1 59 26 -0.5045130296161314 1 1558.0 -0.5045130296161314 1
gene  1 2 27 0.9514541472591407 0 1561.0 0.9514541472591407 1
gene  1 3 27 -0.006548060490068952 0 1562.0 -0.006548060490068952 1
gene  1 4 27 0.8642547179767167 0 1563.0 0.8642547179767167 1
gene  1 5 27 0.6549611250357392 0 1564.0 0.6549611250357392 1
gene  1 9 27 0.30057344932489927 0 1568.0 0.30057344932489927 1
gene  1 11 27 0.07598104862661947 0 1570.0 0.07598104862661947 1
gene  1 13 27 0.6223848605974138 0 1572.0 0.6223848605974138 1
gene  1 18 27 -0.6821690245433302 0 1577.0 -0.6821690245433302 1
gene  1 19 27 -0.25617128766928576 0 1578.0 -0.25617128766928576 1
gene  1 20 27 -0.29522280605955387 0 1579.0 -0.29522280605955387 1
gene  1 22 27 -0.5091195212581394 0 1581.0 -0.5091195212581394 1
gene  1 23 27 0.806353287032451 0 1582.0 0.806353287032451 1
gene  1 25 27 -0.8418527977908569 0 1584.0 -0.8418527977908569 1
gene  1 33 27 -0.07315764243678613 1 1592.0 -0.07315764243678613 1
gene  1 34 27 -0.8093546790992814 1 1593.0 -0.8093546790992814 1
gene  1 36 27 0.13811786897852563 1 1595.0 0.13811786897852563 1
gene  1 37 27 -0.004511154427738084 1 1596.0 -0.004511154427738084 1
gene  1 38 27 -0.04058625239933633 1 1597.0 -0.04058625239933633 1
gene  1 39 27 -0.1308264886064272 1 1598.0 -0.1308264886064272 1
gene  1 51 27 -0.768319069045631 1 1610.0 -0.768319069045631 1
gene  1 53 27 -0.7878260986548876 1 1612.0 -0.7878260986548876 1
gene  1 54 27 0.7184178396119796 1 1613.0 0.7184178396119796 1
gene  1 55 27 -0.4034264249898747 1 1614.0 -0.4034264249898747 1
gene  1 57 27 -0.3810867559797779 1 1616.0 -0.3810867559797779 1
gene  1 2 28 0.00839749346687979 0 1621.0 0.00839749346687979 1
gene  1 4 28 -0.5963086911768053 0 1623.0 -0.5963086911768053 1
gene  1 5 28 0.27111161691490093 0 1624.0 0.27111161691490093 1
gene  1 15 28 -0.2984375525950833 0 1634.0 -0.2984375525950833 1
gene  1 18 28 0.86892300333151 0 1637.0 0.86892300333151 1
gene  1 20 28 0.3696318152876169 0 1639.0 0.3696318152876169 1
gene  1 21 28 -0.690528633848757 0 1640.0 -0.690528633848757 1
gene  1 22 28 0.9727527778457405 0 1641.0 0.9727527778457405 1
gene  1 25 28 0.824729369959669 0 1644.0 0.824729369959669 1
gene  1 26 28 0.4606111920931306 0 1645.0 0.4606111920931306 1
gene  1 29 28 -0.4162260007881068 1 1648.0 -0.4162260007881068 1
gene  1 32 28 -0.3680662236829111 1 1651.0 -0.3680662236829111 1
gene  1 33 28 -0.6862308468117989 1 1652.0 -0.6862308468117989 1
gene  1 35 28 -0.4845675798628152 1 1654.0 -0.4845675798628152 1
gene  1 40 28 -0.30254764537426315 1 1659.0 -0.30254764537426315 1
gene  1 51 28 -0.37061823047236375 1 1670.0 -0.37061823047236375 1
gene  1 52 28 0.7899282249336481 1 1671.0 0.7899282249336481 1
gene  1 54 28 -0.308449428406381 1 1673.0 -0.308449428406381 1
gene  1 57 28 -0.1910797627692814 1 1676.0 -0.1910797627692814 1
gene  1 1 29 0.285869729173159 0 1680.0 0.285869729173159 1
gene  1 3 29 0.6756686778268631 0 1682.0 0.6756686778268631 1
gene  1 8 29 -0.18947698093167586 0 1687.0 -0.18947698093167586 1
gene  1 10 29 -0.5808406991501386 0 1689.0 -0.5808406991501386 1
gene  1 12 29 -0.7898882011734187 0 1691.0 -0.7898882011734187 1
gene  1 20 29 -0.06122279293291977 0 1699.0 -0.06122279293291977 1
gene  1 22 29 -0.9395119576900187 0 1701.0 -0.9395119576900187 1
gene  1 23 29 -0.34411249512143083 0 1702.0 -0.34411249512143083 1
gene  1 24 29 0.06885119355998215 0 1703.0 0.06885119355998215 1
gene  1 25 29 -0.6718404493399969 0 1704.0 -0.6718404493399969 1
gene  1 27 29 -0.5077437074212847 0 1706.0 -0.5077437074212847 1
gene  1 30 29 -0.7986366979922541 1 1709.0 -0.7986366979922541 1
gene  1 33 29 -0.6968681074166534 1 1712.0 -0.6968681074166534 1
gene  1 34 29 0.24923598329021446 1 1713.0 0.24923598329021446 1
gene  1 35 29 -0.04190473242802473 1 1714.0 -0.04190473242802473 1
gene  1 38 29 0.3684410658874355 1 1717.0 0.3684410658874355 1
gene  1 39 29 0.4492830769378091 1 1718.0 0.4492830769378091 1
gene  1 40 29 0.5902133327839856 1 1719.0 0.5902133327839856 1
gene  1 51 29 0.7173125145116139 1 1730.0 0.7173125145116139 1
gene  1 52 29 0.5493009755042492 1 1731.0 0.5493009755042492 1
gene  1 54 29 0.3403453740180763 1 1733.0 0.3403453740180763 1
gene  1 55 29 -0.9305392596423615 1 1734.0 -0.9305392596423615 1
gene  1 56 29 -0.11377630416221396 1 1735.0 -0.11377630416221396 1
gene  1 57 29 -0.6761241124390206 1 1736.0 -0.6761241124390206 1
gene  1 58 29 -0.8092549116229243 1 1737.0 -0.8092549116229243 1
gene  1 59 29 0.2472441156798698 1 1738.0 0.2472441156798698 1
gene  1 60 29 0.9823769875072518 1 1739.0 0.9823769875072518 1
gene  1 2 30 -0.10060436646087367 0 1741.0 -0.10060436646087367 1
gene  1 3 30 -0.9901137524526775 0 1742.0 -0.9901137524526775 1
gene  1 5 30 0.8766922438872161 0 1744.0 0.8766922438872161 1
gene  1 8 30 0.04627166890543455 0 1747.0 0.04627166890543455 1
gene  1 13 30 -0.40742201784629806 0 1752.0 -0.40742201784629806 1
gene  1 14 30 0.2066262313070315 0 1753.0 0.2066262313070315 1
gene  1 18 30 0.1828029302224926 0 1757.0 0.1828029302224926 1
gene  1 19 30 0.30031121539382755 0 1758.0 0.30031121539382755 1
gene  1 20 30 -0.602051164262316 0 1759.0 -0.602051164262316 1
gene  1 23 30 0.2832449064931981 0 1762.0 0.2832449064931981 1
gene  1 24 30 0.2278861207746704 0 1763.0 0.2278861207746704 1
gene  1 25 30 0.7510844025153975 0 1764.0 0.7510844025153975 1
gene  1 26 30 0.2157199702288214 0 1765.0 0.2157199702288214 1
gene  1 27 30 0.4969923378731592 0 1766.0 0.4969923378731592 1
gene  1 28 30 -0.537720481200859 0 1767.0 -0.537720481200859 1
gene  1 31 30 0.9190879754827768 1 1770.0 0.9190879754827768 1
gene  1 32 30 -0.7129843692003722 1 1771.0 -0.7129843692003722 1
gene  1 35 30 0.27890641591459253 1 1774.0 0.27890641591459253 1
gene  1 38 30 0.0746614907485077 1 1777.0 0.0746614907485077 1
gene  1 51 30 -0.814510586594435 1 1790.0 -0.814510586594435 1
gene  1 52 30 -0.7213213627041474 1 1791.0 -0.7213213627041474 1
gene  1 53 30 0.36584172394446834 1 1792.0 0.36584172394446834 1
gene  1 55 30 -0.571510885912321 1 1794.0 -0.571510885912321 1
gene  1 56 30 -0.7134342423671921 1 1795.0 -0.7134342423671921 1
gene  1 59 30 -0.49360086381644264 1 1798.0 -0.49360086381644264 1
gene  1 3 31 0.49147154785490743 0 1802.0 0.49147154785490743 1
gene  1 6 31 -0.9902725253469818 0 1805.0 -0.9902725253469818 1
gene  1 11 31 -0.47729019864208355 0 1810.0 -0.47729019864208355 1
gene  1 14 31 0.7736064704101451 0 1813.0 0.7736064704101451 1
gene  1 17 31 -0.8634037801174509 0 1816.0 -0.8634037801174509 1
gene  1 18 31 -0.2812995311100138 0 1817.0 -0.2812995311100138 1
gene  1 19 31 -0.5597328054837328 0 1818.0 -0.5597328054837328 1
gene  1 24 31 0.26917299254932336 0 1823.0 0.26917299254932336 1
gene  1 25 31 0.309360482028205 0 1824.0 0.309360482028205 1
gene  1 26 31 -0.9791212456546793 0 1825.0 -0.9791212456546793 1
gene  1 29 31 0.2756548913548793 0 1828.0 0.2756548913548793 1
gene  1 31 31 -0.20109233125495085 1 1830.0 -0.20109233125495085 1
gene  1 33 31 0.7817558465071126 1 1832.0 0.7817558465071126 1
gene  1 34 31 -0.8027112953826322 1 1833.0 -0.8027112953826322 1
gene  1 36 31 0.5201859883602499 1 1835.0 0.5201859883602499 1
gene  1 51 31 0.6396875003477359 1 1850.0 0.6396875003477359 1
gene  1 52 31 -0.813498846829883 1 1851.0 -0.813498846829883 1
gene  1 53 31 -0.0732868159475738 1 1852.0 -0.0732868159475738 1
gene  1 56 31 0.4338833587808659 1 1855.0 0.4338833587808659 1
gene  1 60 31 -0.3627170251954547 1 1859.0 -0.3627170251954547 1
gene  1 1 32 -0.929579271668173 0 1860.0 -0.929579271668173 1
gene  1 4 32 0.8369516427042749 0 1863.0 0.8369516427042749 1
gene  1 5 32 -0.6360158760792355 0 1864.0 -0.6360158760792355 1
gene  1 8 32 -0.8627764237435167 0 1867.0 -0.8627764237435167 1
gene  1 9 32 -0.08447434391890252 0 1868.0 -0.08447434391890252 1
gene  1 10 32 0.4195267099265396 0 1869.0 0.4195267099265396 1
gene  1 12 32 -0.572298912361128 0 1871.0 -0.572298912361128 1
gene  1 13 32 -0.5412119474956755 0 1872.0 -0.5412119474956755 1
gene  1 21 32 0.044523726060199165 0 1880.0 0.044523726060199165 1
gene  1 22 32 0.2555388118030062 0 1881.0 0.2555388118030062 1
gene  1 23 32 0.3374829298361818 0 1882.0 0.3374829298361818 1
gene  1 26 32 0.4872285797439443 0 1885.0 0.4872285797439443 1
gene  1 27 32 -0.631417294913036 0 1886.0 -0.631417294913036 1
gene  1 28 32 0.15322800547815818 0 1887.0 0.15322800547815818 1
gene  1 29 32 -0.48702621765180953 0 1888.0 -0.48702621765180953 1
gene  1 30 32 -0.04071370604184721 0 1889.0 -0.04071370604184721 1
gene  1 31 32 0.7364603089084165 0 1890.0 0.7364603089084165 1
gene  1 35 32 -0.2851230784505482 1 1894.0 -0.2851230784505482 1
gene  1 39 32 0.905262993143702 1 1898.0 0.905262993143702 1
gene  1 40 32 0.3575350161255326 1 1899.0 0.3575350161255326 1
gene  1 51 32 -0.5883269400549839 1 1910.0 -0.5883269400549839 1
gene  1 52 32 -0.6536386556946625 1 1911.0 -0.6536386556946625 1
gene  1 54 32 -0.6689572204615666 1 1913.0 -0.6689572204615666 1
gene  1 57 32 0.7658071435189642 1 1916.0 0.7658071435189642 1
gene  1 58 32 0.47697341029701223 1 1917.0 0.47697341029701223 1
gene  1 1 33 0.26955420460983215 0 1920.0 0.26955420460983215 1
gene  1 2 33 0.06322983409909255 0 1921.0 0.06322983409909255 1
gene  1 5 33 -0.9468348318144655 0 1924.0 -0.9468348318144655 1
gene  1 6 33 -0.8050099454190979 0 1925.0 -0.8050099454190979 1
gene  1 8 33 -0.9163100112994308 0 1927.0 -0.9163100112994308 1
gene  1 10 33 -0.8592590463776134 0 1929.0 -0.8592590463776134 1
gene  1 11 33 0.06797960754354393 0 1930.0 0.06797960754354393 1
gene  1 13 33 0.2412621824781912 0 1932.0 0.2412621824781912 1
gene  1 14 33 0.9448362826262825 0 1933.0 0.9448362826262825 1
gene  1 15 33 -0.6469492044039034 0 1934.0 -0.6469492044039034 1
gene  1 18 33 0.4062927242993728 0 1937.0 0.4062927242993728 1
gene  1 24 33 0.9099933209244161 0 1943.0 0.9099933209244161 1
gene  1 26 33 0.7640336840035444 0 1945.0 0.7640336840035444 1
gene  1 28 33 -0.2873892988047225 0 1947.0 -0.2873892988047225 1
gene  1 30 33 -0.7480056495306849 0 1949.0 -0.7480056495306849 1
gene  1 33 33 0.9681925111068972 1 1952.0 0.9681925111068972 1
gene  1 34 33 -0.4448341993424124 1 1953.0 -0.4448341993424124 1
gene  1 36 33 0.37519724791223086 1 1955.0 0.37519724791223086 1
gene  1 37 33 0.7433532835918701 1 1956.0 0.7433532835918701 1
gene  1 38 33 0.841719102466213 1 1957.0 0.841719102466213 1
gene  1 39 33 0.44665732640681566 1 1958.0 0.44665732640681566 1
gene  1 52 33 -0.3049674676649411 1 1971.0 -0.3049674676649411 1
gene  1 55 33 -0.299070677138501 1 1974.0 -0.299070677138501 1
gene  1 56 33 -0.532560869720165 1 1975.0 -0.532560869720165 1
gene  1 59 33 -0.8815739340250043 1 1978.0 -0.8815739340250043 1
gene  1 2 34 -0.05357447606389498 0 1981.0 -0.05357447606389498 1
gene  1 3 34 0.15948090434413043 0 1982.0 0.15948090434413043 1
gene  1 4 34 0.23202337842755916 0 1983.0 0.23202337842755916 1
gene  1 7 34 -0.8530151363591852 0 1986.0 -0.8530151363591852 1
gene  1 8 34 -0.9149832311562467 0 1987.0 -0.9149832311562467 1
gene  1 9 34 0.7654808662135281 0 1988.0 0.7654808662135281 1
gene  1 11 34 -0.42070136109140455 0 1990.0 -0.42070136109140455 1
gene  1 12 34 -0.313704336989042 0 1991.0 -0.313704336989042 1
gene  1 13 34 -0.0597941200482498 0 1992.0 -0.0597941200482498 1
gene  1 15 34 0.789908899903023 0 1994.0 0.789908899903023 1
gene  1 16 34 0.382347901312335 0 1995.0 0.382347901312335 1
gene  1 18 34 0.07481107920953378 0 1997.0 0.07481107920953378 1
gene  1 21 34 -0.200706013358379 0 2000.0 -0.200706013358379 1
gene  1 22 34 0.9755957652275467 0 2001.0 0.9755957652275467 1
gene  1 24 34 -0.7663883256382263 0 2003.0 -0.7663883256382263 1
gene  1 25 34 -0.2301653533286836 0 2004.0 -0.2301653533286836 1
gene  1 26 34 0.6994815130254101 0 2005.0 0.6994815130254101 1
gene  1 28 34 -0.8935847987574642 0 2007.0 -0.8935847987574642 1
gene  1 31 34 0.39832721854259556 0 2010.0 0.39832721854259556 1
gene  1 32 34 -0.42264375471689786 0 2011.0 -0.42264375471689786 1
gene  1 33 34 -0.8822923899807067 0 2012.0 -0.8822923899807067 1
gene  1 34 34 -0.3851593194355106 1 2013.0 -0.3851593194355106 1
gene  1 36 34 -0.838556224121269 1 2015.0 -0.838556224121269 1
gene  1 37 34 0.3333337587813856 1 2016.0 0.3333337587813856 1
gene  1 38 34 -0.9793290415878759 1 2017.0 -0.9793290415878759 1
gene  1 40 34 0.9409132394030816 1 2019.0 0.9409132394030816 1
gene  1 55 34 0.34234045617890574 1 2034.0 0.34234045617890574 1
gene  1 57 34 0.19846393057193734 1 2036.0 0.19846393057193734 1
gene  1 58 34 -0.17147118245484128 1 2037.0 -0.17147118245484128 1
gene  1 1 35 -0.3384936540297415 0 2040.0 -0.3384936540297415 1
gene  1 3 35 -0.4756797451265409 0 2042.0 -0.4756797451265409 1
gene  1 7 35 -0.40689425490428555 0 2046.0 -0.40689425490428555 1
gene  1 9 35 -0.521208999766474 0 2048.0 -0.521208999766474 1
gene  1 10 35 -0.04006184908879251 0 2049.0 -0.04006184908879251 1
gene  1 12 35 -0.026311078778206154 0 2051.0 -0.026311078778206154 1
gene  1 13 35 -0.5766067117942858 0 2052.0 -0.5766067117942858 1
gene  1 14 35 0.7558185289421374 0 2053.0 0.7558185289421374 1
gene  1 15 35 0.22005949474263098 0 2054.0 0.22005949474263098 1
gene  1 17 35 0.3337266560951869 0 2056.0 0.3337266560951869 1
gene  1 18 35 0.3984104386705768 0 2057.0 0.3984104386705768 1
gene  1 19 35 0.7363541428516065 0 2058.0 0.7363541428516065 1
gene  1 22 35 0.7295095167640935 0 2061.0 0.7295095167640935 1
gene  1 25 35 -0.29848443423551896 0 2064.0 -0.29848443423551896 1
gene  1 28 35 0.8371428118443007 0 2067.0 0.8371428118443007 1
gene  1 29 35 0.1240181362519136 0 2068.0 0.1240181362519136 1
gene  1 32 35 0.7276758272229457 0 2071.0 0.7276758272229457 1
gene  1 34 35 0.15541671567877324 0 2073.0 0.15541671567877324 1
gene  1 37 35 0.535046240460706 1 2076.0 0.535046240460706 1
gene  1 40 35 -0.9929744516371162 1 2079.0 -0.9929744516371162 1
gene  1 52 35 0.34518046140677805 1 2091.0 0.34518046140677805 1
gene  1 53 35 0.3781073678277781 1 2092.0 0.3781073678277781 1
gene  1 55 35 -0.9306436969242613 1 2094.0 -0.9306436969242613 1
gene  1 60 35 0.5421352395455524 1 2099.0 0.5421352395455524 1
gene  1 2 36 -0.3512306739862736 0 2101.0 -0.3512306739862736 1
gene  1 3 36 -0.578090236618127 0 2102.0 -0.578090236618127 1
gene  1 5 36 -0.32311577687394144 0 2104.0 -0.32311577687394144 1
gene  1 7 36 -0.34368513823138314 0 2106.0 -0.34368513823138314 1
gene  1 10 36 -0.9449221094295418 0 2109.0 -0.9449221094295418 1
gene  1 11 36 0.9608796648248223 0 2110.0 0.9608796648248223 1
gene  1 12 36 -0.9325582282134928 0 2111.0 -0.9325582282134928 1
gene  1 14 36 -0.8083144557731792 0 2113.0 -0.8083144557731792 1
gene  1 15 36 -0.0870037014403865 0 2114.0 -0.0870037014403865 1
gene  1 17 36 0.2758097364775982 0 2116.0 0.2758097364775982 1
gene  1 19 36 -0.6581151509833169 0 2118.0 -0.6581151509833169 1
gene  1 20 36 0.43088008029480485 0 2119.0 0.43088008029480485 1
gene  1 22 36 0.14124768955818412 0 2121.0 0.14124768955818412 1
gene  1 23 36 -0.4557428705007165 0 2122.0 -0.4557428705007165 1
gene  1 31 36 -0.3682489848068471 0 2130.0 -0.3682489848068471 1
gene  1 33 36 0.44944572046574716 0 2132.0 0.44944572046574716 1
gene  1 35 36 -0.4577607279868 0 2134.0 -0.4577607279868 1
gene  1 36 36 -0.4783890434316197 1 2135.0 -0.4783890434316197 1
gene  1 39 36 0.9916173225949297 1 2138.0 0.9916173225949297 1
gene  1 51 36 0.4586915205539598 1 2150.0 0.4586915205539598 1
gene  1 54 36 0.1551798921759766 1 2153.0 0.1551798921759766 1
gene  1 55 36 0.8200166649531023 1 2154.0 0.8200166649531023 1
gene  1 58 36 -0.6563386915164657 1 2157.0 -0.6563386915164657 1
gene  1 60 36 -0.2782248969783431 1 2159.0 -0.2782248969783431 1
gene  1 2 37 0.04256901461698803 0 2161.0 0.04256901461698803 1
gene  1 3 37 0.12586425404217072 0 2162.0 0.12586425404217072 1
gene  1 4 37 0.5648868308445106 0 2163.0 0.5648868308445106 1
gene  1 5 37 0.6094355724658402 0 2164.0 0.6094355724658402 1
gene  1 7 37 0.9596950797608625 0 2166.0 0.9596950797608625 1
gene  1 8 37 -0.03508862828992121 0 2167.0 -0.03508862828992121 1
gene  1 9 37 -0.02836809041824917 0 2168.0 -0.02836809041824917 1
gene  1 10 37 0.20266790286418268 0 2169.0 0.20266790286418268 1
gene  1 11 37 0.947821420528699 0 2170.0 0.947821420528699 1
gene  1 13 37 -0.10149105306085915 0 2172.0 -0.10149105306085915 1
gene  1 14 37 -0.12629827853483866 0 2173.0 -0.12629827853483866 1
gene  1 16 37 0.990450329187686 0 2175.0 0.990450329187686 1
gene  1 19 37 -0.5306816688610808 0 2178.0 -0.5306816688610808 1
gene  1 22 37 -0.3088088018845139 0 2181.0 -0.3088088018845139 1
gene  1 23 37 0.2368691782103397 0 2182.0 0.2368691782103397 1
gene  1 25 37 0.8725209786831318 0 2184.0 0.8725209786831318 1
gene  1 28 37 -0.9722463530265731 0 2187.0 -0.9722463530265731 1
gene  1 31 37 -0.13967365308077617 0 2190.0 -0.13967365308077617 1
gene  1 32 37 -0.3006189511208931 0 2191.0 -0.3006189511208931 1
gene  1 33 37 -0.1239914614268125 0 2192.0 -0.1239914614268125 1
gene  1 34 37 -0.9664910595315694 0 2193.0 -0.9664910595315694 1
gene  1 36 37 0.6034351139679065 0 2195.0 0.6034351139679065 1
gene  1 37 37 0.1618077362702659 1 2196.0 0.1618077362702659 1
gene  1 51 37 0.15814170725472787 1 2210.0 0.15814170725472787 1
gene  1 52 37 -0.6337201105335102 1 2211.0 -0.6337201105335102 1
gene  1 53 37 0.12730057874073875 1 2212.0 0.12730057874073875 1
gene  1 54 37 -0.8729423839355557 1 2213.0 -0.8729423839355557 1
gene  1 55 37 -0.13835775429474628 1 2214.0 -0.13835775429474628 1
gene  1 56 37 0.5740726003115718 1 2215.0 0.5740726003115718 1
gene  1 57 37 0.06942169819291732 1 2216.0 0.06942169819291732 1
gene  1 58 37 0.0669524821158225 1 2217.0 0.0669524821158225 1
gene  1 60 37 0.5873088395078843 1 2219.0 0.5873088395078843 1
gene  1 4 38 -0.7344862214310588 0 2223.0 -0.7344862214310588 1
gene  1 7 38 0.6077829876478801 0 2226.0 0.6077829876478801 1
gene  1 8 38 -0.6885359899078972 0 2227.0 -0.6885359899078972 1
gene  1 9 38 0.18267714685455305 0 2228.0 0.18267714685455305 1
gene  1 10 38 -0.9503487792152386 0 2229.0 -0.9503487792152386 1
gene  1 11 38 0.41553699288158596 0 2230.0 0.41553699288158596 1
gene  1 12 38 -0.7430780705546494 0 2231.0 -0.7430780705546494 1
gene  1 13 38 0.7140512144487279 0 2232.0 0.7140512144487279 1
gene  1 14 38 -0.7439265790692446 0 2233.0 -0.7439265790692446 1
gene  1 16 38 0.35666138357107435 0 2235.0 0.35666138357107435 1
gene  1 17 38 -0.6520934918735769 0 2236.0 -0.6520934918735769 1
gene  1 19 38 0.17079160655980397 0 2238.0 0.17079160655980397 1
gene  1 24 38 0.611900680041247 0 2243.0 0.611900680041247 1
gene  1 25 38 0.16474398008889513 0 2244.0 0.16474398008889513 1
gene  1 27 38 0.10401190314232611 0 2246.0 0.10401190314232611 1
gene  1 30 38 0.9609694148466464 0 2249.0 0.9609694148466464 1
gene  1 31 38 0.9743176158310132 0 2250.0 0.9743176158310132 1
gene  1 32 38 0.9259673457382166 0 2251.0 0.9259673457382166 1
gene  1 33 38 0.4358577260898234 0 2252.0 0.4358577260898234 1
gene  1 35 38 -0.7614366091393348 0 2254.0 -0.7614366091393348 1
gene  1 36 38 0.8441979753809269 0 2255.0 0.8441979753809269 1
gene  1 37 38 -0.13297057524814182 0 2256.0 -0.13297057524814182 1
gene  1 38 38 0.9743856611998064 1 2257.0 0.9743856611998064 1
gene  1 40 38 0.7626561163582433 1 2259.0 0.7626561163582433 1
gene  1 51 38 -0.3150435923710344 1 2270.0 -0.3150435923710344 1
gene  1 53 38 0.05159624468700763 1 2272.0 0.05159624468700763 1
gene  1 56 38 -0.9758078787509877 1 2275.0 -0.9758078787509877 1
gene  1 58 38 0.5024191904685718 1 2277.0 0.5024191904685718 1
gene  1 59 38 -0.153521404243936 1 2278.0 -0.153521404243936 1
gene  1 1 39 0.32434259439629987 0 2280.0 0.32434259439629987 1
gene  1 4 39 -0.8245541937655863 0 2283.0 -0.8245541937655863 1
gene  1 5 39 -0.8427044819343973 0 2284.0 -0.8427044819343973 1
gene  1 9 39 0.1745290024275934 0 2288.0 0.1745290024275934 1
gene  1 12 39 0.7837685653619081 0 2291.0 0.7837685653619081 1
gene  1 13 39 -0.6485801878938875 0 2292.0 -0.6485801878938875 1
gene  1 18 39 -0.3057564773067776 0 2297.0 -0.3057564773067776 1
gene  1 19 39 0.010390069824864567 0 2298.0 0.010390069824864567 1
gene  1 24 39 -0.7616481999679354 0 2303.0 -0.7616481999679354 1
gene  1 26 39 -0.06849615222039285 0 2305.0 -0.06849615222039285 1
gene  1 27 39 0.1804259816965691 0 2306.0 0.1804259816965691 1
gene  1 28 39 0.25669020320322 0 2307.0 0.25669020320322 1
gene  1 30 39 -0.1352265542407779 0 2309.0 -0.1352265542407779 1
gene  1 31 39 -0.17901856445075548 0 2310.0 -0.17901856445075548 1
gene  1 32 39 0.8787436775224847 0 2311.0 0.8787436775224847 1
gene  1 33 39 -0.47272005283011675 0 2312.0 -0.47272005283011675 1
gene  1 34 39 -0.5647469663592614 0 2313.0 -0.5647469663592614 1
gene  1 36 39 0.24461171855620434 0 2315.0 0.24461171855620434 1
gene  1 39 39 -0.6657826016524766 1 2318.0 -0.6657826016524766 1
gene  1 40 39 -0.8699960140847235 1 2319.0 -0.8699960140847235 1
gene  1 51 39 -0.9451338450559676 1 2330.0 -0.9451338450559676 1
gene  1 54 39 -0.829227986380986 1 2333.0 -0.829227986380986 1
gene  1 56 39 0.41267944448915195 1 2335.0 0.41267944448915195 1
gene  1 57 39 -0.770104469948796 1 2336.0 -0.770104469948796 1
gene  1 58 39 -0.8523329448295196 1 2337.0 -0.8523329448295196 1
gene  1 2 40 -0.947185368157508 0 2341.0 -0.947185368157508 1
gene  1 3 40 0.6021709945497211 0 2342.0 0.6021709945497211 1
gene  1 5 40 0.6322662303742507 0 2344.0 0.6322662303742507 1
gene  1 6 40 -0.5287160384546619 0 2345.0 -0.5287160384546619 1
gene  1 7 40 -0.26473003127930983 0 2346.0 -0.26473003127930983 1
gene  1 13 40 0.7264831076810626 0 2352.0 0.7264831076810626 1
gene  1 17 40 0.017519675797893486 0 2356.0 0.017519675797893486 1
gene  1 18 40 -0.7739054397208399 0 2357.0 -0.7739054397208399 1
gene  1 23 40 0.7678820556259253 0 2362.0 0.7678820556259253 1
gene  1 24 40 0.09657825928067854 0 2363.0 0.09657825928067854 1
gene  1 26 40 -0.6931250435730107 0 2365.0 -0.6931250435730107 1
gene  1 30 40 0.5235002425476605 0 2369.0 0.5235002425476605 1
gene  1 31 40 -0.6817963121000893 0 2370.0 -0.6817963121000893 1
gene  1 37 40 -0.1766972207049572 0 2376.0 -0.1766972207049572 1
gene  1 52 40 0.9074257387394619 1 2391.0 0.9074257387394619 1
gene  1 53 40 -0.17899770245703783 1 2392.0 -0.17899770245703783 1
gene  1 54 40 0.7419974624173996 1 2393.0 0.7419974624173996 1
gene  1 55 40 -0.9752632298492198 1 2394.0 -0.9752632298492198 1
gene  1 57 40 -0.948567090097961 1 2396.0 -0.948567090097961 1
gene  1 59 40 -0.15258202407907706 1 2398.0 -0.15258202407907706 1
gene  1 60 40 -0.31226246370156807 1 2399.0 -0.31226246370156807 1
gene  1 1 51 0.9783756891128452 0 3000.0 0.9783756891128452 1
gene  1 3 51 -0.503644224058836 0 3002.0 -0.503644224058836 1
gene  1 4 51 -0.09965780186767648 0 3003.0 -0.09965780186767648 1
gene  1 6 51 -0.8732843901708414 0 3005.0 -0.8732843901708414 1
gene  1 7 51 -0.18049840419944085 0 3006.0 -0.18049840419944085 1
gene  1 8 51 -0.1683811864452931 0 3007.0 -0.1683811864452931 1
gene  1 11 51 -0.9036687758884265 0 3010.0 -0.9036687758884265 1
gene  1 14 51 0.2981017858292908 0 3013.0 0.2981017858292908 1
gene  1 15 51 0.13311653097752996 0 3014.0 0.13311653097752996 1
gene  1 16 51 0.12855954796334124 0 3015.0 0.12855954796334124 1
gene  1 18 51 -0.3598722478430657 0 3017.0 -0.3598722478430657 1
gene  1 19 51 0.23402885805348494 0 3018.0 0.23402885805348494 1
gene  1 20 51 0.6400417735425725 0 3019.0 0.6400417735425725 1
gene  1 22 51 0.4972171880446017 0 3021.0 0.4972171880446017 1
gene  1 24 51 0.3697181770534532 0 3023.0 0.3697181770534532 1
gene  1 26 51 0.14776388954080066 0 3025.0 0.14776388954080066 1
gene  1 30 51 -0.9310050700610704 0 3029.0 -0.9310050700610704 1
gene  1 31 51 -0.7971048519541531 0 3030.0 -0.7971048519541531 1
gene  1 33 51 0.23206774526376006 0 3032.0 0.23206774526376006 1
gene  1 39 51 0.9036509364289155 0 3038.0 0.9036509364289155 1
gene  1 54 51 -0.35588981741046044 1 3053.0 -0.35588981741046044 1
gene  1 59 51 -0.4238695563631225 1 3058.0 -0.4238695563631225 1
gene  1 2 52 -0.712811696090749 0 3061.0 -0.712811696090749 1
gene  1 3 52 -0.5497608067088727 0 3062.0 -0.5497608067088727 1
gene  1 4 52 -0.9824921622870453 0 3063.0 -0.9824921622870453 1
gene  1 7 52 -0.7066568369333484 0 3066.0 -0.7066568369333484 1
gene  1 9 52 0.13602188233176382 0 3068.0 0.13602188233176382 1
gene  1 11 52 0.6194571057908183 0 3070.0 0.6194571057908183 1
gene  1 12 52 -0.932495878151655 0 3071.0 -0.932495878151655 1
gene  1 13 52 -0.040891068126927665 0 3072.0 -0.040891068126927665 1
gene  1 15 52 -0.8974723587707073 0 3074.0 -0.8974723587707073 1
gene  1 17 52 -0.2262092030874634 0 3076.0 -0.2262092030874634 1
gene  1 20 52 0.9442392901578809 0 3079.0 0.9442392901578809 1
gene  1 21 52 0.9413788231311189 0 3080.0 0.9413788231311189 1
gene  1 24 52 -0.9194588668019865 0 3083.0 -0.9194588668019865 1
gene  1 26 52 0.4672725072630166 0 3085.0 0.4672725072630166 1
gene  1 27 52 0.9570213951204555 0 3086.0 0.9570213951204555 1
gene  1 29 52 -0.2379384182734966 0 3088.0 -0.2379384182734966 1
gene  1 32 52 -0.49295702556628096 0 3091.0 -0.49295702556628096 1
gene  1 33 52 -0.7600138957854231 0 3092.0 -0.7600138957854231 1
gene  1 34 52 0.5297203513198258 0 3093.0 0.5297203513198258 1
gene  1 37 52 -0.7927144108365657 0 3096.0 -0.7927144108365657 1
gene  1 38 52 0.2723017939854613 0 3097.0 0.2723017939854613 1
gene  1 39 52 0.2375327894396222 0 3098.0 0.2375327894396222 1
gene  1 40 52 0.5553195583729391 0 3099.0 0.5553195583729391 1
gene  1 52 52 -0.38729096644897865 1 3111.0 -0.38729096644897865 1
gene  1 54 52 0.4661235619958287 1 3113.0 0.4661235619958287 1
gene  1 55 52 0.9241047413620329 1 3114.0 0.9241047413620329 1
gene  1 56 52 0.040877524577486724 1 3115.0 0.040877524577486724 1
gene  1 57 52 -0.9346492034774158 1 3116.0 -0.9346492034774158 1
gene  1 58 52 -0.30799810845069386 1 3117.0 -0.30799810845069386 1
gene  1 59 52 0.21401686256763164 1 3118.0 0.21401686256763164 1
gene  1 60 52 0.07723454628840987 1 3119.0 0.07723454628840987 1
gene  1 2 53 -0.08877313990340163 0 3121.0 -0.08877313990340163 1
gene  1 5 53 -0.9772935216156802 0 3124.0 -0.9772935216156802 1
gene  1 9 53 -0.9796151476589384 0 3128.0 -0.9796151476589384 1
gene  1 11 53 0.5213870455005465 0 3130.0 0.5213870455005465 1
gene  1 13 53 0.12302109550590445 0 3132.0 0.12302109550590445 1
gene  1 17 53 -0.29553047333037563 0 3136.0 -0.29553047333037563 1
gene  1 18 53 0.14775384936617397 0 3137.0 0.14775384936617397 1
gene  1 19 53 -0.21343154173828582 0 3138.0 -0.21343154173828582 1
gene  1 21 53 0.6438492437565358 0 3140.0 0.6438492437565358 1
gene  1 23 53 0.7511012663656051 0 3142.0 0.7511012663656051 1
gene  1 24 53 0.6921172375137814 0 3143.0 0.6921172375137814 1
gene  1 26 53 0.7150977844696831 0 3145.0 0.7150977844696831 1
gene  1 27 53 -0.11257454181531756 0 3146.0 -0.11257454181531756 1
gene  1 29 53 0.9446702184721052 0 3148.0 0.9446702184721052 1
gene  1 31 53 0.9977383522134181 0 3150.0 0.9977383522134181 1
gene  1 34 53 0.913356172360627 0 3153.0 0.913356172360627 1
gene  1 38 53 -0.12494959323599353 0 3157.0 -0.12494959323599353 1
gene  1 51 53 -0.12264067335852857 0 3170.0 -0.12264067335852857 1
gene  1 53 53 0.44100532550485216 1 3172.0 0.44100532550485216 1
gene  1 54 53 -0.3149638151811883 1 3173.0 -0.3149638151811883 1
gene  1 56 53 0.10361791359277317 1 3175.0 0.10361791359277317 1
gene  1 57 53 -0.5347262126558817 1 3176.0 -0.5347262126558817 1
gene  1 59 53 -0.6929404765194028 1 3178.0 -0.6929404765194028 1
gene  1 2 54 -0.2600544632779901 0 3181.0 -0.2600544632779901 1
gene  1 6 54 -0.19612491851159597 0 3185.0 -0.19612491851159597 1
gene  1 7 54 0.35629149589496223 0 3186.0 0.35629149589496223 1
gene  1 10 54 -0.7668456959406564 0 3189.0 -0.7668456959406564 1
gene  1 12 54 -0.5082997839217005 0 3191.0 -0.5082997839217005 1
gene  1 16 54 0.24205689341672798 0 3195.0 0.24205689341672798 1
gene  1 17 54 -0.5334871142381244 0 3196.0 -0.5334871142381244 1
gene  1 19 54 0.6866980286201464 0 3198.0 0.6866980286201464 1
gene  1 25 54 -0.9624673302363828 0 3204.0 -0.9624673302363828 1
gene  1 27 54 -0.2249158052703054 0 3206.0 -0.2249158052703054 1
gene  1 28 54 -0.3004266007811408 0 3207.0 -0.3004266007811408 1
gene  1 30 54 -0.014987376886796966 0 3209.0 -0.014987376886796966 1
gene  1 34 54 0.5634459122194247 0 3213.0 0.5634459122194247 1
gene  1 35 54 0.5022413915730636 0 3214.0 0.5022413915730636 1
gene  1 38 54 0.1782503035345171 0 3217.0 0.1782503035345171 1
gene  1 40 54 0.43493001473671744 0 3219.0 0.43493001473671744 1
gene  1 51 54 -0.3494465859054465 0 3230.0 -0.3494465859054465 1
gene  1 52 54 0.7028626323688169 0 3231.0 0.7028626323688169 1
gene  1 55 54 0.875772896065205 1 3234.0 0.875772896065205 1
gene  1 56 54 0.3909552440802 1 3235.0 0.3909552440802 1
gene  1 57 54 0.16093668078217005 1 3236.0 0.16093668078217005 1
gene  1 58 54 -0.681477319985772 1 3237.0 -0.681477319985772 1
gene  1 3 55 -0.7847759866907346 0 3242.0 -0.7847759866907346 1
gene  1 4 55 -0.13371270741929153 0 3243.0 -0.13371270741929153 1
gene  1 6 55 -0.6921217561158609 0 3245.0 -0.6921217561158609 1
gene  1 7 55 -0.5633704822777261 0 3246.0 -0.5633704822777261 1
gene  1 8 55 -0.29851818861915613 0 3247.0 -0.29851818861915613 1
gene  1 13 55 0.7441231366000371 0 3252.0 0.7441231366000371 1
gene  1 15 55 -0.3490260649335801 0 3254.0 -0.3490260649335801 1
gene  1 17 55 -0.22821827627902092 0 3256.0 -0.22821827627902092 1
gene  1 20 55 -0.3127007446702994 0 3259.0 -0.3127007446702994 1
gene  1 23 55 -0.09960983756290498 0 3262.0 -0.09960983756290498 1
gene  1 25 55 0.3423804495551813 0 3264.0 0.3423804495551813 1
gene  1 26 55 0.6506829945047905 0 3265.0 0.6506829945047905 1
gene  1 28 55 -0.3113267478411861 0 3267.0 -0.3113267478411861 1
gene  1 29 55 -0.7408914384014466 0 3268.0 -0.7408914384014466 1
gene  1 30 55 0.3989290447784102 0 3269.0 0.3989290447784102 1
gene  1 34 55 -0.21286721371937656 0 3273.0 -0.21286721371937656 1
gene  1 36 55 -0.9473894388765789 0 3275.0 -0.9473894388765789 1
gene  1 52 55 0.06775169681140825 0 3291.0 0.06775169681140825 1
gene  1 53 55 -0.5551076716481269 0 3292.0 -0.5551076716481269 1
gene  1 54 55 -0.35250739312165325 0 3293.0 -0.35250739312165325 1
gene  1 56 55 0.03624700175555484 1 3295.0 0.03624700175555484 1
gene  1 58 55 0.7770700014119625 1 3297.0 0.7770700014119625 1
gene  1 60 55 0.44939737962917325 1 3299.0 0.44939737962917325 1
gene  1 1 56 -0.9307807927410485 0 3300.0 -0.9307807927410485 1
gene  1 2 56 0.15840018650125054 0 3301.0 0.15840018650125054 1
gene  1 5 56 0.418007704360843 0 3304.0 0.418007704360843 1
gene  1 6 56 0.9604615445291061 0 3305.0 0.9604615445291061 1
gene  1 7 56 -0.2613730612611953 0 3306.0 -0.2613730612611953 1
gene  1 8 56 0.3730646459746194 0 3307.0 0.3730646459746194 1
gene  1 9 56 -0.01139395288786682 0 3308.0 -0.01139395288786682 1
gene  1 11 56 0.6632554382636554 0 3310.0 0.6632554382636554 1
gene  1 13 56 0.4014846759500852 0 3312.0 0.4014846759500852 1
gene  1 14 56 -0.8636821915069689 0 3313.0 -0.8636821915069689 1
gene  1 15 56 -0.9187002030707709 0 3314.0 -0.9187002030707709 1
gene  1 17 56 0.4698471170860484 0 3316.0 0.4698471170860484 1
gene  1 21 56 0.6760940644902127 0 3320.0 0.6760940644902127 1
gene  1 22 56 0.1449747709586069 0 3321.0 0.1449747709586069 1
gene  1 24 56 -0.27807635039015777 0 3323.0 -0.27807635039015777 1
gene  1 25 56 -0.6702796613905045 0 3324.0 -0.6702796613905045 1
gene  1 26 56 0.3962710424069805 0 3325.0 0.3962710424069805 1
gene  1 27 56 -0.9663218427073187 0 3326.0 -0.9663218427073187 1
gene  1 28 56 1.5770350890109697E-4 0 3327.0 1.5770350890109697E-4 1
gene  1 29 56 -0.9353812854228695 0 3328.0 -0.9353812854228695 1
gene  1 32 56 0.7947456665846825 0 3331.0 0.7947456665846825 1
gene  1 33 56 0.44051767698418054 0 3332.0 0.44051767698418054 1
gene  1 34 56 0.3560283287069699 0 3333.0 0.3560283287069699 1
gene  1 35 56 -0.34131279166207695 0 3334.0 -0.34131279166207695 1
gene  1 36 56 -0.5882641117170284 0 3335.0 -0.5882641117170284 1
gene  1 51 56 0.6370972381909661 0 3350.0 0.6370972381909661 1
gene  1 52 56 0.8370077379216398 0 3351.0 0.8370077379216398 1
gene  1 53 56 0.13752585288630736 0 3352.0 0.13752585288630736 1
gene  1 56 56 0.5843539151694789 1 3355.0 0.5843539151694789 1
gene  1 57 56 -0.8165420477944605 1 3356.0 -0.8165420477944605 1
gene  1 59 56 -0.13585417530947563 1 3358.0 -0.13585417530947563 1
gene  1 2 57 0.42776242747475035 0 3361.0 0.42776242747475035 1
gene  1 3 57 -0.9747033829502287 0 3362.0 -0.9747033829502287 1
gene  1 4 57 0.29129719190713965 0 3363.0 0.29129719190713965 1
gene  1 5 57 -0.6284611011992558 0 3364.0 -0.6284611011992558 1
gene  1 6 57 0.6491976716598034 0 3365.0 0.6491976716598034 1
gene  1 7 57 0.5400362628670005 0 3366.0 0.5400362628670005 1
gene  1 9 57 -0.21153075711438485 0 3368.0 -0.21153075711438485 1
gene  1 11 57 0.6329544525863107 0 3370.0 0.6329544525863107 1
gene  1 13 57 0.30864051936396164 0 3372.0 0.30864051936396164 1
gene  1 15 57 -0.8706084272314851 0 3374.0 -0.8706084272314851 1
gene  1 18 57 -0.2522058268305908 0 3377.0 -0.2522058268305908 1
gene  1 19 57 -0.419940781107797 0 3378.0 -0.419940781107797 1
gene  1 22 57 -0.8170482607259282 0 3381.0 -0.8170482607259282 1
gene  1 24 57 -0.867620170448378 0 3383.0 -0.867620170448378 1
gene  1 25 57 0.5719440932103587 0 3384.0 0.5719440932103587 1
gene  1 26 57 -0.546048268523333 0 3385.0 -0.546048268523333 1
gene  1 34 57 -0.014058724836347292 0 3393.0 -0.014058724836347292 1
gene  1 36 57 0.5161532769756281 0 3395.0 0.5161532769756281 1
gene  1 37 57 -0.6063490432326359 0 3396.0 -0.6063490432326359 1
gene  1 39 57 -0.6072603153907052 0 3398.0 -0.6072603153907052 1
gene  1 40 57 -0.5117376502340208 0 3399.0 -0.5117376502340208 1
gene  1 51 57 -0.038806233537374224 0 3410.0 -0.038806233537374224 1
gene  1 52 57 0.3163057943005311 0 3411.0 0.3163057943005311 1
gene  1 55 57 0.15515074806532148 0 3414.0 0.15515074806532148 1
gene  1 58 57 -0.8396023851533452 1 3417.0 -0.8396023851533452 1
gene  1 60 57 0.6769920139347012 1 3419.0 0.6769920139347012 1
gene  1 1 58 0.7370447831251538 0 3420.0 0.7370447831251538 1
gene  1 2 58 -0.9061580462314531 0 3421.0 -0.9061580462314531 1
gene  1 5 58 -0.42891053124262546 0 3424.0 -0.42891053124262546 1
gene  1 9 58 -0.17673058692516153 0 3428.0 -0.17673058692516153 1
gene  1 10 58 -0.8525774868644836 0 3429.0 -0.8525774868644836 1
gene  1 11 58 0.7915199783052396 0 3430.0 0.7915199783052396 1
gene  1 12 58 0.2302632709882907 0 3431.0 0.2302632709882907 1
gene  1 13 58 -0.5474418010116756 0 3432.0 -0.5474418010116756 1
gene  1 14 58 -0.4729940349340561 0 3433.0 -0.4729940349340561 1
gene  1 15 58 -0.055345221671499134 0 3434.0 -0.055345221671499134 1
gene  1 16 58 0.5712147380535157 0 3435.0 0.5712147380535157 1
gene  1 19 58 0.3323212401530943 0 3438.0 0.3323212401530943 1
gene  1 20 58 0.4239376399155085 0 3439.0 0.4239376399155085 1
gene  1 23 58 0.894312545977036 0 3442.0 0.894312545977036 1
gene  1 29 58 0.19561947432459847 0 3448.0 0.19561947432459847 1
gene  1 31 58 -0.7908435857394341 0 3450.0 -0.7908435857394341 1
gene  1 34 58 -0.7075949640778983 0 3453.0 -0.7075949640778983 1
gene  1 37 58 -0.8503273424128485 0 3456.0 -0.8503273424128485 1
gene  1 40 58 0.10908618949078597 0 3459.0 0.10908618949078597 1
gene  1 52 58 0.408131574675792 0 3471.0 0.408131574675792 1
gene  1 54 58 0.5864012013234516 0 3473.0 0.5864012013234516 1
gene  1 55 58 -0.7946649908044918 0 3474.0 -0.7946649908044918 1
gene  1 58 58 -0.319708649748519 1 3477.0 -0.319708649748519 1
gene  1 60 58 0.6695840562288273 1 3479.0 0.6695840562288273 1
gene  1 1 59 0.732357953439935 0 3480.0 0.732357953439935 1
gene  1 2 59 0.27811016704796143 0 3481.0 0.27811016704796143 1
gene  1 3 59 0.10415574812146555 0 3482.0 0.10415574812146555 1
gene  1 4 59 -0.27637333437233214 0 3483.0 -0.27637333437233214 1
gene  1 5 59 -0.6187864421716871 0 3484.0 -0.6187864421716871 1
gene  1 6 59 -0.8376436406808679 0 3485.0 -0.8376436406808679 1
gene  1 7 59 0.44954808040458805 0 3486.0 0.44954808040458805 1
gene  1 9 59 -0.9291777162545617 0 3488.0 -0.9291777162545617 1
gene  1 12 59 -0.38424443940833397 0 3491.0 -0.38424443940833397 1
gene  1 13 59 0.5395025512100025 0 3492.0 0.5395025512100025 1
gene  1 18 59 0.5840174912895483 0 3497.0 0.5840174912895483 1
gene  1 22 59 -0.5216606949000642 0 3501.0 -0.5216606949000642 1
gene  1 24 59 -0.1313561571946784 0 3503.0 -0.1313561571946784 1
gene  1 26 59 -0.26598318587494063 0 3505.0 -0.26598318587494063 1
gene  1 30 59 0.3855135951680696 0 3509.0 0.3855135951680696 1
gene  1 32 59 -0.40647072442661203 0 3511.0 -0.40647072442661203 1
gene  1 33 59 0.431947845167033 0 3512.0 0.431947845167033 1
gene  1 35 59 0.6060807717545528 0 3514.0 0.6060807717545528 1
gene  1 36 59 0.1807302440018158 0 3515.0 0.1807302440018158 1
gene  1 40 59 -0.21651588184287873 0 3519.0 -0.21651588184287873 1
gene  1 52 59 0.074030121084532 0 3531.0 0.074030121084532 1
gene  1 53 59 -0.44675952075225334 0 3532.0 -0.44675952075225334 1
gene  1 54 59 0.3547966459478713 0 3533.0 0.3547966459478713 1
gene  1 55 59 0.23144340497674587 0 3534.0 0.23144340497674587 1
gene  1 58 59 0.4200804346326096 0 3537.0 0.4200804346326096 1
gene  1 1 60 -0.6629798082074845 0 3540.0 -0.6629798082074845 1
gene  1 4 60 -0.987806510486795 0 3543.0 -0.987806510486795 1
gene  1 6 60 -0.20897597844477134 0 3545.0 -0.20897597844477134 1
gene  1 7 60 -0.24838665313735298 0 3546.0 -0.24838665313735298 1
gene  1 8 60 0.5231201078771535 0 3547.0 0.5231201078771535 1
gene  1 10 60 -0.7259167748142115 0 3549.0 -0.7259167748142115 1
gene  1 13 60 -0.9852511224879353 0 3552.0 -0.9852511224879353 1
gene  1 14 60 -0.4529246586820208 0 3553.0 -0.4529246586820208 1
gene  1 15 60 -0.33652902176101906 0 3554.0 -0.33652902176101906 1
gene  1 17 60 0.4515768722811506 0 3556.0 0.4515768722811506 1
gene  1 18 60 0.5666795739054048 0 3557.0 0.5666795739054048 1
gene  1 19 60 0.29974083764148274 0 3558.0 0.29974083764148274 1
gene  1 23 60 -0.41792130300206154 0 3562.0 -0.41792130300206154 1
gene  1 24 60 -0.3177749320221961 0 3563.0 -0.3177749320221961 1
gene  1 25 60 -0.264058824722294 0 3564.0 -0.264058824722294 1
gene  1 26 60 -0.13085362626472663 0 3565.0 -0.13085362626472663 1
gene  1 29 60 0.9973512224491434 0 3568.0 0.9973512224491434 1
gene  1 31 60 0.9926997408881659 0 3570.0 0.9926997408881659 1
gene  1 33 60 -0.08060102096799959 0 3572.0 -0.08060102096799959 1
gene  1 34 60 0.006407738973301713 0 3573.0 0.006407738973301713 1
gene  1 36 60 0.30459803165765487 0 3575.0 0.30459803165765487 1
gene  1 37 60 0.770989993946532 0 3576.0 0.770989993946532 1
gene  1 51 60 -0.7788867380730125 0 3590.0 -0.7788867380730125 1
gene  1 52 60 -0.05272005423384152 0 3591.0 -0.05272005423384152 1
gene  1 53 60 0.6648954265984689 0 3592.0 0.6648954265984689 1
gene  1 54 60 0.6522196237782206 0 3593.0 0.6522196237782206 1
gene  1 56 60 -0.08413882001409834 0 3595.0 -0.08413882001409834 1
gene  1 58 60 0.49282908022518834 0 3597.0 0.49282908022518834 1
gene  1 59 60 -0.19281895538913152 0 3598.0 -0.19281895538913152 1
gene  1 60 60 -0.7822697421162816 1 3599.0 -0.7822697421162816 1
genomeend 0
