genomestart  2
trait 1 0.0 0.0 0.0 0.0 0.0 0.0 0.0 0.0 
node 1 1 1 1
node 2 1 1 1
node 3 1 1 1
node 4 1 1 1
node 5 1 1 1
node 6 1 1 1
node 7 1 1 1
node 8 1 1 1
node 9 1 1 1
node 10 1 1 3
node 11 1 0 0
node 51 1 0 2
node 52 1 0 2
node 53 1 0 2
node 54 1 0 2
node 55 1 0 2
node 56 1 0 2
node 57 1 0 2
node 58 1 0 2
node 59 1 0 2
node 60 1 0 2
gene  1 2 11 0.844905804684918 0 601.0 0.844905804684918 1
gene  1 3 11 -0.609610404103305 0 602.0 -0.609610404103305 1
gene  1 4 11 0.10142056571424518 0 603.0 0.10142056571424518 1
gene  1 5 11 -0.9539485022853604 0 604.0 -0.9539485022853604 1
gene  1 7 11 -0.9250988361177903 0 606.0 -0.9250988361177903 1
gene  1 8 11 0.7420740778440237 0 607.0 0.7420740778440237 1
gene  1 9 11 0.22411724621305984 0 608.0 0.22411724621305984 1
gene  1 11 11 -0.9321144338914602 1 610.0 -0.9321144338914602 1
gene  1 52 11 0.97827710002617 1 651.0 0.97827710002617 1
gene  1 55 11 -0.052019304008622536 1 654.0 -0.052019304008622536 1
gene  1 56 11 0.8468548327251187 1 655.0 0.8468548327251187 1
gene  1 1 51 0.13374910747002922 0 3000.0 0.13374910747002922 1
gene  1 7 51 -0.7738883638172988 0 3006.0 -0.7738883638172988 1
gene  1 8 51 0.9434412660493948 0 3007.0 0.9434412660493948 1
gene  1 10 51 -0.6795682333534587 0 3009.0 -0.6795682333534587 1
gene  1 51 51 -0.8221143360768296 1 3050.0 -0.8221143360768296 1
gene  1 56 51 0.22121861183681468 1 3055.0 0.22121861183681468 1
gene  1 57 51 0.5198587198986654 1 3056.0 0.5198587198986654 1
gene  1 3 52 -0.3149853437000085 0 3062.0 -0.3149853437000085 1
gene  1 5 52 -0.8972507332591467 0 3064.0 -0.8972507332591467 1
gene  1 11 52 0.9190136256578613 0 3070.0 0.9190136256578613 1
gene  1 53 52 0.9581192836351066 1 3112.0 0.9581192836351066 1
gene  1 55 52 0.6320983090421838 1 3114.0 0.6320983090421838 1
gene  1 56 52 -0.6761832508781785 1 3115.0 -0.6761832508781785 1
gene  1 57 52 -0.8058942256711088 1 3116.0 -0.8058942256711088 1
gene  1 58 52 -0.9839177134751943 1 3117.0 -0.9839177134751943 1
gene  1 1 53 0.30697542346294093 0 3120.0 0.30697542346294093 1
gene  1 2 53 0.0016907603249666225 0 3121.0 0.0016907603249666225 1
gene  1 5 53 -0.4316103277646859 0 3124.0 -0.4316103277646859 1
gene  1 8 53 -0.07595975578001657 0 3127.0 -0.07595975578001657 1
gene  1 52 53 -0.9346411981763826 0 3171.0 -0.9346411981763826 1
gene  1 53 53 0.8628941021029082 1 3172.0 0.8628941021029082 1
gene  1 57 53 -0.3147392553110333 1 3176.0 -0.3147392553110333 1
gene  1 58 53 -0.113551697171129 1 3177.0 -0.113551697171129 1
gene  1 59 53 -0.5608918757652875 1 3178.0 -0.5608918757652875 1
gene  1 60 53 0.5412878394591013 1 3179.0 0.5412878394591013 1
gene  1 1 54 -0.38802115819871796 0 3180.0 -0.38802115819871796 1
gene  1 4 54 -0.2526059322439834 0 3183.0 -0.2526059322439834 1
gene  1 6 54 -0.4628642865162106 0 3185.0 -0.4628642865162106 1
gene  1 7 54 0.6246885283557819 0 3186.0 0.6246885283557819 1
gene  1 8 54 0.7294275914607947 0 3187.0 0.7294275914607947 1
gene  1 10 54 0.7709430326515391 0 3189.0 0.7709430326515391 1
gene  1 51 54 -0.3029165794890847 0 3230.0 -0.3029165794890847 1
gene  1 53 54 -0.7356480973575963 0 3232.0 -0.7356480973575963 1
gene  1 54 54 -0.12844228794962753 1 3233.0 -0.12844228794962753 1
gene  1 56 54 -0.7280385119741224 1 3235.0 -0.7280385119741224 1
gene  1 57 54 0.8597590320089947 1 3236.0 0.8597590320089947 1
gene  1 58 54 0.6613257621421718 1 3237.0 0.6613257621421718 1
gene  1 59 54 0.707936020461816 1 3238.0 0.707936020461816 1
gene  1 2 55 -0.40907564458635226 0 3241.0 -0.40907564458635226 1
gene  1 3 55 -0.2585196845877358 0 3242.0 -0.2585196845877358 1
gene  1 8 55 0.6441254435295981 0 3247.0 0.6441254435295981 1
gene  1 11 55 0.8993519858566048 0 3250.0 0.8993519858566048 1
gene  1 53 55 -0.3997724160857362 0 3292.0 -0.3997724160857362 1
gene  1 56 55 -0.3691451996744981 1 3295.0 -0.3691451996744981 1
gene  1 58 55 -0.7764771263373071 1 3297.0 -0.7764771263373071 1
gene  1 60 55 -0.8114764401215897 1 3299.0 -0.8114764401215897 1
gene  1 7 56 0.6077684263650213 0 3306.0 0.6077684263650213 1
gene  1 8 56 -0.008696251265258859 0 3307.0 -0.008696251265258859 1
gene  1 9 56 0.8532242245378204 0 3308.0 0.8532242245378204 1
gene  1 10 56 0.12151250630922916 0 3309.0 0.12151250630922916 1
gene  1 52 56 -0.8085843037858268 0 3351.0 -0.8085843037858268 1
gene  1 54 56 0.0030537762104693167 0 3353.0 0.0030537762104693167 1
gene  1 57 56 -0.2698085834926568 1 3356.0 -0.2698085834926568 1
gene  1 60 56 0.40404437397243076 1 3359.0 0.40404437397243076 1
gene  1 1 57 -0.15886959131180656 0 3360.0 -0.15886959131180656 1
gene  1 2 57 -0.5695312959695521 0 3361.0 -0.5695312959695521 1
gene  1 3 57 -0.9468283897696542 0 3362.0 -0.9468283897696542 1
gene  1 5 57 -0.5731875347123949 0 3364.0 -0.5731875347123949 1
gene  1 6 57 -0.25578329769193964 0 3365.0 -0.25578329769193964 1
gene  1 7 57 0.9529918122653396 0 3366.0 0.9529918122653396 1
gene  1 10 57 -0.12896460832067103 0 3369.0 -0.12896460832067103 1
gene  1 11 57 0.29205758660609515 0 3370.0 0.29205758660609515 1
gene  1 52 57 0.5072219594564449 0 3411.0 0.5072219594564449 1
gene  1 54 57 -0.6602731117978609 0 3413.0 -0.6602731117978609 1
gene  1 55 57 -0.8004861943429462 0 3414.0 -0.8004861943429462 1
gene  1 59 57 0.6698188844873967 1 3418.0 0.6698188844873967 1
gene  1 60 57 -0.9509200173027239 1 3419.0 -0.9509200173027239 1
gene  1 2 58 -0.9138824148953173 0 3421.0 -0.9138824148953173 1
gene  1 3 58 -0.416685828486725 0 3422.0 -0.416685828486725 1
gene  1 4 58 0.8600362462192488 0 3423.0 0.8600362462192488 1
gene  1 5 58 -0.9682674362164432 0 3424.0 -0.9682674362164432 1
gene  1 8 58 -0.30575779790155166 0 3427.0 -0.30575779790155166 1
gene  1 9 58 -0.4411753408315965 0 3428.0 -0.4411753408315965 1
gene  1 10 58 -0.7567581288490245 0 3429.0 -0.7567581288490245 1
gene  1 51 58 0.18746225284894735 0 3470.0 0.18746225284894735 1
gene  1 52 58 0.8420113024138095 0 3471.0 0.8420113024138095 1
gene  1 55 58 0.557864580768522 0 3474.0 0.557864580768522 1
gene  1 58 58 0.4905017491242766 1 3477.0 0.4905017491242766 1
gene  1 59 58 0.9761660112275191 1 3478.0 0.9761660112275191 1
gene  1 60 58 0.19344323044945888 1 3479.0 0.19344323044945888 1
gene  1 1 59 -0.3829179680674034 0 3480.0 -0.3829179680674034 1
gene  1 6 59 0.9107501094436977 0 3485.0 0.9107501094436977 1
gene  1 8 59 0.3613478519705372 0 3487.0 0.3613478519705372 1
gene  1 10 59 -0.6146008827970728 0 3489.0 -0.6146008827970728 1
gene  1 51 59 0.5096617966317607 0 3530.0 0.5096617966317607 1
gene  1 54 59 -0.4322483674911741 0 3533.0 -0.4322483674911741 1
gene  1 55 59 -0.6680632099302745 0 3534.0 -0.6680632099302745 1
gene  1 56 59 0.5734735278975102 0 3535.0 0.5734735278975102 1
gene  1 58 59 0.9863112062833518 0 3537.0 0.9863112062833518 1
gene  1 60 59 -0.16871685013874405 1 3539.0 -0.16871685013874405 1
gene  1 1 60 -0.18345890360301997 0 3540.0 -0.18345890360301997 1
gene  1 2 60 0.09867192199076225 0 3541.0 0.09867192199076225 1
gene  1 4 60 -0.04487932271729733 0 3543.0 -0.04487932271729733 1
gene  1 5 60 -8.683390359879306E-4 0 3544.0 -8.683390359879306E-4 1
gene  1 7 60 -0.38064692323904814 0 3546.0 -0.38064692323904814 1
gene  1 9 60 -0.4521100697805278 0 3548.0 -0.4521100697805278 1
gene  1 10 60 0.4964832888102094 0 3549.0 0.4964832888102094 1
gene  1 51 60 -0.3689921092016222 0 3590.0 -0.3689921092016222 1
gene  1 54 60 -0.6919433751041805 0 3593.0 -0.6919433751041805 1
gene  1 55 60 0.27064145536180395 0 3594.0 0.27064145536180395 1
gene  1 56 60 -0.5946022138081176 0 3595.0 -0.5946022138081176 1
gene  1 58 60 0.05888773512565337 0 3597.0 0.05888773512565337 1
genomeend 2
