genomestart  2
trait 1 0.0 0.0 0.0 0.0 0.0 0.0 0.0 0.0 
node 1 1 1 1
node 2 1 1 1
node 3 1 1 1
node 4 1 1 1
node 5 1 1 1
node 6 1 1 1
node 7 1 1 1
node 8 1 1 1
node 9 1 1 1
node 10 1 1 3
node 11 1 0 0
node 12 1 0 0
node 13 1 0 0
node 14 1 0 0
node 15 1 0 0
node 16 1 0 0
node 17 1 0 0
node 18 1 0 0
node 19 1 0 0
node 20 1 0 0
node 21 1 0 0
node 22 1 0 0
node 23 1 0 0
node 24 1 0 0
node 25 1 0 0
node 26 1 0 0
node 27 1 0 0
node 28 1 0 0
node 29 1 0 0
node 30 1 0 0
node 31 1 0 0
node 32 1 0 0
node 33 1 0 0
node 34 1 0 0
node 35 1 0 0
node 51 1 0 2
node 52 1 0 2
node 53 1 0 2
node 54 1 0 2
node 55 1 0 2
node 56 1 0 2
node 57 1 0 2
node 58 1 0 2
node 59 1 0 2
node 60 1 0 2
gene  1 1 11 0.7676151430005318 0 600.0 0.7676151430005318 1
gene  1 2 11 -0.7883265135931667 0 601.0 -0.7883265135931667 1
gene  1 3 11 -0.6987897520680868 0 602.0 -0.6987897520680868 1
gene  1 4 11 -0.015577119523660032 0 603.0 -0.015577119523660032 1
gene  1 6 11 -0.22972958313612923 0 605.0 -0.22972958313612923 1
gene  1 7 11 -0.8481594764889158 0 606.0 -0.8481594764889158 1
gene  1 9 11 -0.6212472564292174 0 608.0 -0.6212472564292174 1
gene  1 12 11 -0.6752812550331386 1 611.0 -0.6752812550331386 1
gene  1 13 11 -0.09401226079064207 1 612.0 -0.09401226079064207 1
gene  1 15 11 -0.46494729367884546 1 614.0 -0.46494729367884546 1
gene  1 17 11 -0.9257199665389281 1 616.0 -0.9257199665389281 1
gene  1 19 11 -0.12378911524687164 1 618.0 -0.12378911524687164 1
gene  1 21 11 -0.07121573106513057 1 620.0 -0.07121573106513057 1
gene  1 23 11 -0.5480727602009831 1 622.0 -0.5480727602009831 1
gene  1 25 11 0.1827350859879756 1 624.0 0.1827350859879756 1
gene  1 26 11 -0.502433139061482 1 625.0 -0.502433139061482 1
gene  1 29 11 -0.44765725345313045 1 628.0 -0.44765725345313045 1
gene  1 30 11 0.996793419851452 1 629.0 0.996793419851452 1
gene  1 31 11 -0.06777470813998887 1 630.0 -0.06777470813998887 1
gene  1 33 11 -0.451392695373373 1 632.0 -0.451392695373373 1
gene  1 34 11 -0.8525033200053833 1 633.0 -0.8525033200053833 1
gene  1 51 11 0.16820140009079743 1 650.0 0.16820140009079743 1
gene  1 52 11 0.7093914917928374 1 651.0 0.7093914917928374 1
gene  1 53 11 0.638768602531076 1 652.0 0.638768602531076 1
gene  1 54 11 -0.5020574142934251 1 653.0 -0.5020574142934251 1
gene  1 55 11 0.9268734933787534 1 654.0 0.9268734933787534 1
gene  1 56 11 -0.2076091290061003 1 655.0 -0.2076091290061003 1
gene  1 58 11 -0.43379654368026244 1 657.0 -0.43379654368026244 1
gene  1 59 11 0.9993988402597856 1 658.0 0.9993988402597856 1
gene  1 1 12 -0.7362386516298063 0 660.0 -0.7362386516298063 1
gene  1 4 12 0.845949435579115 0 663.0 0.845949435579115 1
gene  1 7 12 0.9957133002781846 0 666.0 0.9957133002781846 1
gene  1 10 12 0.5235383042157867 0 669.0 0.5235383042157867 1
gene  1 14 12 -0.4491718317183897 1 673.0 -0.4491718317183897 1
gene  1 15 12 -0.6750187568383891 1 674.0 -0.6750187568383891 1
gene  1 17 12 -0.2689701352413112 1 676.0 -0.2689701352413112 1
gene  1 21 12 -0.042933518990942776 1 680.0 -0.042933518990942776 1
gene  1 27 12 0.710119323601696 1 686.0 0.710119323601696 1
gene  1 28 12 -0.3611507805718883 1 687.0 -0.3611507805718883 1
gene  1 29 12 0.06848562238838629 1 688.0 0.06848562238838629 1
gene  1 31 12 -0.937067928953938 1 690.0 -0.937067928953938 1
gene  1 33 12 -0.6941434620123584 1 692.0 -0.6941434620123584 1
gene  1 34 12 0.146899689388313 1 693.0 0.146899689388313 1
gene  1 35 12 0.09860603635531584 1 694.0 0.09860603635531584 1
gene  1 52 12 -0.36953147818576004 1 711.0 -0.36953147818576004 1
gene  1 55 12 0.8274991246984581 1 714.0 0.8274991246984581 1
gene  1 57 12 -0.6223389646720878 1 716.0 -0.6223389646720878 1
gene  1 60 12 -0.5414384930166082 1 719.0 -0.5414384930166082 1
gene  1 2 13 -0.7987248249975615 0 721.0 -0.7987248249975615 1
gene  1 4 13 -0.004444320199092688 0 723.0 -0.004444320199092688 1
gene  1 5 13 0.6526550219042128 0 724.0 0.6526550219042128 1
gene  1 7 13 0.8611503736418046 0 726.0 0.8611503736418046 1
gene  1 9 13 0.8693834114827594 0 728.0 0.8693834114827594 1
gene  1 10 13 0.02754628146575888 0 729.0 0.02754628146575888 1
gene  1 12 13 -0.1283144780283667 0 731.0 -0.1283144780283667 1
gene  1 14 13 -0.9594802000244956 1 733.0 -0.9594802000244956 1
gene  1 15 13 0.4404045538164433 1 734.0 0.4404045538164433 1
gene  1 16 13 -0.7422480303233793 1 735.0 -0.7422480303233793 1
gene  1 17 13 0.31338581568154034 1 736.0 0.31338581568154034 1
gene  1 20 13 -0.46474251613802486 1 739.0 -0.46474251613802486 1
gene  1 23 13 0.872155960463235 1 742.0 0.872155960463235 1
gene  1 24 13 -0.8462600756062038 1 743.0 -0.8462600756062038 1
gene  1 25 13 -0.06404566475058548 1 744.0 -0.06404566475058548 1
gene  1 27 13 0.09457226606133562 1 746.0 0.09457226606133562 1
gene  1 28 13 -0.7291167937968384 1 747.0 -0.7291167937968384 1
gene  1 32 13 -0.1626649507915695 1 751.0 -0.1626649507915695 1
gene  1 33 13 0.40590078914507144 1 752.0 0.40590078914507144 1
gene  1 34 13 0.9759560807582139 1 753.0 0.9759560807582139 1
gene  1 55 13 0.4202985700085975 1 774.0 0.4202985700085975 1
gene  1 58 13 -0.35157014509946527 1 777.0 -0.35157014509946527 1
gene  1 60 13 0.21289778615831667 1 779.0 0.21289778615831667 1
gene  1 3 14 0.9810286373120263 0 782.0 0.9810286373120263 1
gene  1 8 14 -0.7787331601088737 0 787.0 -0.7787331601088737 1
gene  1 9 14 -0.4746924243133507 0 788.0 -0.4746924243133507 1
gene  1 11 14 -0.5740237146919547 0 790.0 -0.5740237146919547 1
gene  1 12 14 -0.4118353465083966 0 791.0 -0.4118353465083966 1
gene  1 18 14 -0.3100938439553046 1 797.0 -0.3100938439553046 1
gene  1 19 14 0.4432590121629688 1 798.0 0.4432590121629688 1
gene  1 20 14 -0.9028634114197063 1 799.0 -0.9028634114197063 1
gene  1 21 14 0.28181700693868084 1 800.0 0.28181700693868084 1
gene  1 22 14 0.566303806298571 1 801.0 0.566303806298571 1
gene  1 27 14 -0.3917901426089071 1 806.0 -0.3917901426089071 1
gene  1 30 14 0.7098734700125339 1 809.0 0.7098734700125339 1
gene  1 31 14 -0.45807245196312696 1 810.0 -0.45807245196312696 1
gene  1 33 14 0.42922877820481287 1 812.0 0.42922877820481287 1
gene  1 53 14 -0.1952897275638813 1 832.0 -0.1952897275638813 1
gene  1 54 14 0.9728475771640988 1 833.0 0.9728475771640988 1
gene  1 57 14 -0.6802899956583347 1 836.0 -0.6802899956583347 1
gene  1 58 14 -0.7380683207085398 1 837.0 -0.7380683207085398 1
gene  1 59 14 -0.24858810639775186 1 838.0 -0.24858810639775186 1
gene  1 60 14 0.19673613957252056 1 839.0 0.19673613957252056 1
gene  1 5 15 0.015272262675511183 0 844.0 0.015272262675511183 1
gene  1 7 15 -0.7370482320986832 0 846.0 -0.7370482320986832 1
gene  1 12 15 0.864409592911968 0 851.0 0.864409592911968 1
gene  1 13 15 -0.02338163163444007 0 852.0 -0.02338163163444007 1
gene  1 16 15 -0.3677499600326778 1 855.0 -0.3677499600326778 1
gene  1 17 15 0.9420445434646387 1 856.0 0.9420445434646387 1
gene  1 18 15 -0.12839861386221274 1 857.0 -0.12839861386221274 1
gene  1 20 15 -0.8428447537395655 1 859.0 -0.8428447537395655 1
gene  1 21 15 -0.8981039178387255 1 860.0 -0.8981039178387255 1
gene  1 24 15 0.7697841100976199 1 863.0 0.7697841100976199 1
gene  1 25 15 0.2289396701157803 1 864.0 0.2289396701157803 1
gene  1 27 15 -0.4632096700373146 1 866.0 -0.4632096700373146 1
gene  1 32 15 0.4169784164546788 1 871.0 0.4169784164546788 1
gene  1 54 15 -0.29458686125692 1 893.0 -0.29458686125692 1
gene  1 56 15 0.4081182404095792 1 895.0 0.4081182404095792 1
gene  1 58 15 -0.9418269114141424 1 897.0 -0.9418269114141424 1
gene  1 59 15 -0.27873853366956025 1 898.0 -0.27873853366956025 1
gene  1 60 15 -0.8079369001365986 1 899.0 -0.8079369001365986 1
gene  1 5 16 0.05544923835173898 0 904.0 0.05544923835173898 1
gene  1 8 16 -0.07901212333898455 0 907.0 -0.07901212333898455 1
gene  1 11 16 0.8953366987865855 0 910.0 0.8953366987865855 1
gene  1 13 16 -0.07756279575361436 0 912.0 -0.07756279575361436 1
gene  1 14 16 -0.6827693592238481 0 913.0 -0.6827693592238481 1
gene  1 16 16 -0.4707762944844234 1 915.0 -0.4707762944844234 1
gene  1 17 16 -0.5763255120662609 1 916.0 -0.5763255120662609 1
gene  1 18 16 -0.8166187239316293 1 917.0 -0.8166187239316293 1
gene  1 20 16 0.7185530533631928 1 919.0 0.7185530533631928 1
gene  1 21 16 0.040101175850900006 1 920.0 0.040101175850900006 1
gene  1 22 16 -0.9782722950290137 1 921.0 -0.9782722950290137 1
gene  1 24 16 -0.47080520946660753 1 923.0 -0.47080520946660753 1
gene  1 26 16 -0.1813452435448042 1 925.0 -0.1813452435448042 1
gene  1 30 16 -0.480848982014232 1 929.0 -0.480848982014232 1
gene  1 31 16 -0.44836011699418965 1 930.0 -0.44836011699418965 1
gene  1 32 16 -0.9620502837951055 1 931.0 -0.9620502837951055 1
gene  1 34 16 0.3203587364940528 1 933.0 0.3203587364940528 1
gene  1 53 16 0.40324298770475653 1 952.0 0.40324298770475653 1
gene  1 54 16 0.07504057981126688 1 953.0 0.07504057981126688 1
gene  1 56 16 -0.05125452802675512 1 955.0 -0.05125452802675512 1
gene  1 57 16 0.528786280490233 1 956.0 0.528786280490233 1
gene  1 59 16 0.2479811330187729 1 958.0 0.2479811330187729 1
gene  1 2 17 0.33764754887190074 0 961.0 0.33764754887190074 1
gene  1 3 17 0.9185363265425696 0 962.0 0.9185363265425696 1
gene  1 6 17 -0.07113018773792279 0 965.0 -0.07113018773792279 1
gene  1 10 17 0.30483202282250466 0 969.0 0.30483202282250466 1
gene  1 11 17 0.07317905385325796 0 970.0 0.07317905385325796 1
gene  1 12 17 0.9357141791736823 0 971.0 0.9357141791736823 1
gene  1 13 17 0.04582963712750332 0 972.0 0.04582963712750332 1
gene  1 16 17 -0.7327698368917521 0 975.0 -0.7327698368917521 1
gene  1 17 17 0.6701696605547263 1 976.0 0.6701696605547263 1
gene  1 19 17 0.3101278273263802 1 978.0 0.3101278273263802 1
gene  1 22 17 0.20152253030087885 1 981.0 0.20152253030087885 1
gene  1 24 17 0.11846338456051264 1 983.0 0.11846338456051264 1
gene  1 25 17 0.24674751510979465 1 984.0 0.24674751510979465 1
gene  1 28 17 0.8083989828062014 1 987.0 0.8083989828062014 1
gene  1 29 17 0.7091381105899472 1 988.0 0.7091381105899472 1
gene  1 32 17 -0.3487540429441184 1 991.0 -0.3487540429441184 1
gene  1 34 17 0.28451248895891135 1 993.0 0.28451248895891135 1
gene  1 51 17 0.479810955072011 1 1010.0 0.479810955072011 1
gene  1 53 17 0.2792826228681431 1 1012.0 0.2792826228681431 1
gene  1 54 17 0.9155188222622556 1 1013.0 0.9155188222622556 1
gene  1 55 17 0.15557414527187174 1 1014.0 0.15557414527187174 1
gene  1 58 17 0.6574652168442586 1 1017.0 0.6574652168442586 1
gene  1 3 18 0.41852838361762057 0 1022.0 0.41852838361762057 1
gene  1 4 18 -0.9572780562442498 0 1023.0 -0.9572780562442498 1
gene  1 5 18 0.002613882477617957 0 1024.0 0.002613882477617957 1
gene  1 6 18 -0.3464466227015198 0 1025.0 -0.3464466227015198 1
gene  1 7 18 -0.4995986017862927 0 1026.0 -0.4995986017862927 1
gene  1 9 18 -0.5947028104321211 0 1028.0 -0.5947028104321211 1
gene  1 10 18 -0.9887240314460973 0 1029.0 -0.9887240314460973 1
gene  1 11 18 0.8464682239858051 0 1030.0 0.8464682239858051 1
gene  1 13 18 -0.3362826472371787 0 1032.0 -0.3362826472371787 1
gene  1 17 18 0.39481517233766916 0 1036.0 0.39481517233766916 1
gene  1 19 18 -0.42444260836053915 1 1038.0 -0.42444260836053915 1
gene  1 20 18 0.39581674144835766 1 1039.0 0.39581674144835766 1
gene  1 25 18 0.3083209721246374 1 1044.0 0.3083209721246374 1
gene  1 27 18 -0.043535432336181956 1 1046.0 -0.043535432336181956 1
gene  1 28 18 -0.2751332157671016 1 1047.0 -0.2751332157671016 1
gene  1 30 18 0.16720141181235082 1 1049.0 0.16720141181235082 1
gene  1 31 18 0.7754420334978573 1 1050.0 0.7754420334978573 1
gene  1 32 18 0.6950746913549015 1 1051.0 0.6950746913549015 1
gene  1 34 18 0.04582125059189157 1 1053.0 0.04582125059189157 1
gene  1 52 18 0.8570158880304719 1 1071.0 0.8570158880304719 1
gene  1 53 18 0.6010664391608309 1 1072.0 0.6010664391608309 1
gene  1 54 18 -0.6606286470383026 1 1073.0 -0.6606286470383026 1
gene  1 57 18 0.6978280499245475 1 1076.0 0.6978280499245475 1
gene  1 59 18 -0.7596283347274113 1 1078.0 -0.7596283347274113 1
gene  1 1 19 0.4196437947152156 0 1080.0 0.4196437947152156 1
gene  1 4 19 -0.49341020806463665 0 1083.0 -0.49341020806463665 1
gene  1 5 19 0.6589574310999413 0 1084.0 0.6589574310999413 1
gene  1 7 19 -0.8390606864115379 0 1086.0 -0.8390606864115379 1
gene  1 9 19 -0.7187553460546424 0 1088.0 -0.7187553460546424 1
gene  1 10 19 -0.5021435670229133 0 1089.0 -0.5021435670229133 1
gene  1 11 19 0.9053759949725095 0 1090.0 0.9053759949725095 1
gene  1 12 19 -0.24262743951883725 0 1091.0 -0.24262743951883725 1
gene  1 15 19 0.5564789514190368 0 1094.0 0.5564789514190368 1
gene  1 17 19 -0.8949933113979869 0 1096.0 -0.8949933113979869 1
gene  1 18 19 -0.6993487827605994 0 1097.0 -0.6993487827605994 1
gene  1 20 19 -0.6449711797387155 1 1099.0 -0.6449711797387155 1
gene  1 21 19 -0.5314220390570841 1 1100.0 -0.5314220390570841 1
gene  1 23 19 -0.21914583612207328 1 1102.0 -0.21914583612207328 1
gene  1 24 19 0.7151907347879141 1 1103.0 0.7151907347879141 1
gene  1 25 19 -0.07602645557617893 1 1104.0 -0.07602645557617893 1
gene  1 26 19 -0.49951030343016123 1 1105.0 -0.49951030343016123 1
gene  1 27 19 0.35091112818427705 1 1106.0 0.35091112818427705 1
gene  1 28 19 -0.7505794283328187 1 1107.0 -0.7505794283328187 1
gene  1 29 19 -0.6417118328341782 1 1108.0 -0.6417118328341782 1
gene  1 31 19 0.06717705803208351 1 1110.0 0.06717705803208351 1
gene  1 32 19 -0.8246473676106744 1 1111.0 -0.8246473676106744 1
gene  1 34 19 -0.9480408638018823 1 1113.0 -0.9480408638018823 1
gene  1 51 19 0.06991205940363243 1 1130.0 0.06991205940363243 1
gene  1 54 19 -0.4610057589759232 1 1133.0 -0.4610057589759232 1
gene  1 55 19 -0.8177923856013953 1 1134.0 -0.8177923856013953 1
gene  1 58 19 0.8101263757430001 1 1137.0 0.8101263757430001 1
gene  1 59 19 -0.9442622665579291 1 1138.0 -0.9442622665579291 1
gene  1 2 20 -0.40198867608319055 0 1141.0 -0.40198867608319055 1
gene  1 3 20 -0.16994228690317725 0 1142.0 -0.16994228690317725 1
gene  1 5 20 -0.3215883155093594 0 1144.0 -0.3215883155093594 1
gene  1 6 20 0.07145707769343634 0 1145.0 0.07145707769343634 1
gene  1 7 20 -0.8181049515887274 0 1146.0 -0.8181049515887274 1
gene  1 8 20 0.6767612092709339 0 1147.0 0.6767612092709339 1
gene  1 10 20 0.15464680329807168 0 1149.0 0.15464680329807168 1
gene  1 13 20 0.7707209619742378 0 1152.0 0.7707209619742378 1
gene  1 16 20 0.8784906268061543 0 1155.0 0.8784906268061543 1
gene  1 18 20 0.8194156491906366 0 1157.0 0.8194156491906366 1
gene  1 19 20 -0.3630086425533965 0 1158.0 -0.3630086425533965 1
gene  1 21 20 0.19251670342149607 1 1160.0 0.19251670342149607 1
gene  1 22 20 -0.9895523454492292 1 1161.0 -0.9895523454492292 1
gene  1 25 20 -0.5564637588570325 1 1164.0 -0.5564637588570325 1
gene  1 26 20 -0.7223177892492477 1 1165.0 -0.7223177892492477 1
gene  1 29 20 -0.6427278222527875 1 1168.0 -0.6427278222527875 1
gene  1 30 20 0.16831204156573443 1 1169.0 0.16831204156573443 1
gene  1 31 20 -0.7913238347783395 1 1170.0 -0.7913238347783395 1
gene  1 32 20 0.17672261116551413 1 1171.0 0.17672261116551413 1
gene  1 35 20 0.49300151647034085 1 1174.0 0.49300151647034085 1
gene  1 51 20 0.008292753166482036 1 1190.0 0.008292753166482036 1
gene  1 52 20 -0.3426078846908145 1 1191.0 -0.3426078846908145 1
gene  1 54 20 0.8526523639410313 1 1193.0 0.8526523639410313 1
gene  1 56 20 -0.6416241353566613 1 1195.0 -0.6416241353566613 1
gene  1 58 20 -0.23246426989045654 1 1197.0 -0.23246426989045654 1
gene  1 59 20 0.37911550852565157 1 1198.0 0.37911550852565157 1
gene  1 1 21 0.12299442669626559 0 1200.0 0.12299442669626559 1
gene  1 4 21 -0.8055442909236484 0 1203.0 -0.8055442909236484 1
gene  1 6 21 -0.33714062113869536 0 1205.0 -0.33714062113869536 1
gene  1 8 21 -0.2629010123976028 0 1207.0 -0.2629010123976028 1
gene  1 10 21 0.9908169238363337 0 1209.0 0.9908169238363337 1
gene  1 14 21 -0.6856514984404746 0 1213.0 -0.6856514984404746 1
gene  1 15 21 0.8681086997955493 0 1214.0 0.8681086997955493 1
gene  1 16 21 0.9836826183249455 0 1215.0 0.9836826183249455 1
gene  1 17 21 -0.026628945099471446 0 1216.0 -0.026628945099471446 1
gene  1 18 21 -0.37623434549928536 0 1217.0 -0.37623434549928536 1
gene  1 19 21 0.5303973015988557 0 1218.0 0.5303973015988557 1
gene  1 20 21 -0.01146757514117247 0 1219.0 -0.01146757514117247 1
gene  1 21 21 0.5738267735433634 1 1220.0 0.5738267735433634 1
gene  1 24 21 -0.2671242878754172 1 1223.0 -0.2671242878754172 1
gene  1 26 21 -0.2575684563670363 1 1225.0 -0.2575684563670363 1
gene  1 27 21 0.571501266520748 1 1226.0 0.571501266520748 1
gene  1 28 21 0.4422264358828385 1 1227.0 0.4422264358828385 1
gene  1 29 21 0.20420164941343166 1 1228.0 0.20420164941343166 1
gene  1 30 21 0.9937054912828436 1 1229.0 0.9937054912828436 1
gene  1 35 21 0.4207714750812144 1 1234.0 0.4207714750812144 1
gene  1 52 21 0.7700979456123496 1 1251.0 0.7700979456123496 1
gene  1 54 21 -0.2808923481605381 1 1253.0 -0.2808923481605381 1
gene  1 55 21 -0.7567364561873484 1 1254.0 -0.7567364561873484 1
gene  1 57 21 0.02694229835420925 1 1256.0 0.02694229835420925 1
gene  1 60 21 -0.7534303651252493 1 1259.0 -0.7534303651252493 1
gene  1 1 22 -0.3895903808901934 0 1260.0 -0.3895903808901934 1
gene  1 2 22 0.33759354278863807 0 1261.0 0.33759354278863807 1
gene  1 3 22 0.20176573731534198 0 1262.0 0.20176573731534198 1
gene  1 5 22 0.041685352587551905 0 1264.0 0.041685352587551905 1
gene  1 7 22 -0.4865443065721865 0 1266.0 -0.4865443065721865 1
gene  1 8 22 -0.07507039267256477 0 1267.0 -0.07507039267256477 1
gene  1 10 22 -0.28910214110177224 0 1269.0 -0.28910214110177224 1
gene  1 12 22 -0.47833007059402566 0 1271.0 -0.47833007059402566 1
gene  1 25 22 -0.44496952045599103 1 1284.0 -0.44496952045599103 1
gene  1 28 22 -0.6570767260013908 1 1287.0 -0.6570767260013908 1
gene  1 30 22 -0.7544354459342848 1 1289.0 -0.7544354459342848 1
gene  1 33 22 0.6401383359820699 1 1292.0 0.6401383359820699 1
gene  1 34 22 0.7766839454848362 1 1293.0 0.7766839454848362 1
gene  1 35 22 -0.00815547390797422 1 1294.0 -0.00815547390797422 1
gene  1 51 22 -0.7543242915432377 1 1310.0 -0.7543242915432377 1
gene  1 55 22 0.09165658161108126 1 1314.0 0.09165658161108126 1
gene  1 3 23 -0.3894861076673568 0 1322.0 -0.3894861076673568 1
gene  1 5 23 0.5003461390163361 0 1324.0 0.5003461390163361 1
gene  1 8 23 0.0010964233636491238 0 1327.0 0.0010964233636491238 1
gene  1 12 23 0.1322569531580592 0 1331.0 0.1322569531580592 1
gene  1 13 23 0.7722454207034574 0 1332.0 0.7722454207034574 1
gene  1 19 23 -0.986353808775323 0 1338.0 -0.986353808775323 1
gene  1 20 23 -0.9851527503884269 0 1339.0 -0.9851527503884269 1
gene  1 21 23 -0.9566367007545649 0 1340.0 -0.9566367007545649 1
gene  1 22 23 -0.5280739251309885 0 1341.0 -0.5280739251309885 1
gene  1 23 23 -0.31399082265411216 1 1342.0 -0.31399082265411216 1
gene  1 25 23 -0.6137568181772881 1 1344.0 -0.6137568181772881 1
gene  1 26 23 -0.8811332480375704 1 1345.0 -0.8811332480375704 1
gene  1 31 23 -0.3331955965082972 1 1350.0 -0.3331955965082972 1
gene  1 32 23 -0.8993488749452213 1 1351.0 -0.8993488749452213 1
gene  1 33 23 -0.2947783753368298 1 1352.0 -0.2947783753368298 1
gene  1 51 23 -0.5853469335738554 1 1370.0 -0.5853469335738554 1
gene  1 52 23 0.11978929469614863 1 1371.0 0.11978929469614863 1
gene  1 53 23 0.7703617993035088 1 1372.0 0.7703617993035088 1
gene  1 54 23 0.8945445299584222 1 1373.0 0.8945445299584222 1
gene  1 56 23 -0.08071366932513435 1 1375.0 -0.08071366932513435 1
gene  1 57 23 -0.35910471753190365 1 1376.0 -0.35910471753190365 1
gene  1 59 23 0.9464326410165598 1 1378.0 0.9464326410165598 1
gene  1 60 23 -0.2731099537267947 1 1379.0 -0.2731099537267947 1
gene  1 1 24 0.41613520936265214 0 1380.0 0.41613520936265214 1
gene  1 3 24 -0.6598523244159396 0 1382.0 -0.6598523244159396 1
gene  1 4 24 -0.5946013348864657 0 1383.0 -0.5946013348864657 1
gene  1 7 24 -0.9246481959972427 0 1386.0 -0.9246481959972427 1
gene  1 9 24 -0.4587203446844278 0 1388.0 -0.4587203446844278 1
gene  1 10 24 0.7589495325248238 0 1389.0 0.7589495325248238 1
gene  1 12 24 -0.6461715504133143 0 1391.0 -0.6461715504133143 1
gene  1 14 24 0.7864217397908712 0 1393.0 0.7864217397908712 1
gene  1 17 24 -0.6101554300436117 0 1396.0 -0.6101554300436117 1
gene  1 18 24 0.2392303993026217 0 1397.0 0.2392303993026217 1
gene  1 21 24 0.31452480487067647 0 1400.0 0.31452480487067647 1
gene  1 22 24 0.42241512649067214 0 1401.0 0.42241512649067214 1
gene  1 23 24 -0.12312028479297987 0 1402.0 -0.12312028479297987 1
gene  1 26 24 0.6931454827939308 1 1405.0 0.6931454827939308 1
gene  1 29 24 -0.6166271669115949 1 1408.0 -0.6166271669115949 1
gene  1 31 24 0.41709988459844183 1 1410.0 0.41709988459844183 1
gene  1 33 24 0.02628549509548206 1 1412.0 0.02628549509548206 1
gene  1 35 24 -0.40360872886879395 1 1414.0 -0.40360872886879395 1
gene  1 52 24 0.7559563698749945 1 1431.0 0.7559563698749945 1
gene  1 53 24 -0.04519499976528618 1 1432.0 -0.04519499976528618 1
gene  1 54 24 0.23143347775547451 1 1433.0 0.23143347775547451 1
gene  1 57 24 0.1331878309063529 1 1436.0 0.1331878309063529 1
gene  1 59 24 -0.30859589371525376 1 1438.0 -0.30859589371525376 1
gene  1 3 25 -0.7133300144115136 0 1442.0 -0.7133300144115136 1
gene  1 9 25 -0.534677288589128 0 1448.0 -0.534677288589128 1
gene  1 10 25 0.1103496793986809 0 1449.0 0.1103496793986809 1
gene  1 13 25 -0.09928387427192198 0 1452.0 -0.09928387427192198 1
gene  1 15 25 0.6322129592502793 0 1454.0 0.6322129592502793 1
gene  1 16 25 0.21002197538908585 0 1455.0 0.21002197538908585 1
gene  1 17 25 0.44541408342171984 0 1456.0 0.44541408342171984 1
gene  1 18 25 -0.5393715383615248 0 1457.0 -0.5393715383615248 1
gene  1 22 25 -0.9906389735438335 0 1461.0 -0.9906389735438335 1
gene  1 23 25 -0.17391247102528384 0 1462.0 -0.17391247102528384 1
gene  1 24 25 0.7775514090641918 0 1463.0 0.7775514090641918 1
gene  1 25 25 0.8999123166386858 1 1464.0 0.8999123166386858 1
gene  1 26 25 0.11720159880917325 1 1465.0 0.11720159880917325 1
gene  1 29 25 -0.1421041373334958 1 1468.0 -0.1421041373334958 1
gene  1 30 25 0.08528281292837103 1 1469.0 0.08528281292837103 1
gene  1 33 25 -0.43332336762262724 1 1472.0 -0.43332336762262724 1
gene  1 35 25 -0.7680240401881977 1 1474.0 -0.7680240401881977 1
gene  1 51 25 0.34521520452801846 1 1490.0 0.34521520452801846 1
gene  1 52 25 -0.03357371113338581 1 1491.0 -0.03357371113338581 1
gene  1 5 26 -0.6559596788041671 0 1504.0 -0.6559596788041671 1
gene  1 6 26 0.5397163348527432 0 1505.0 0.5397163348527432 1
gene  1 8 26 -0.6785892198305081 0 1507.0 -0.6785892198305081 1
gene  1 14 26 0.587197292637329 0 1513.0 0.587197292637329 1
gene  1 15 26 -0.22812148463774118 0 1514.0 -0.22812148463774118 1
gene  1 16 26 -0.23097253944567087 0 1515.0 -0.23097253944567087 1
gene  1 17 26 -0.26939945793359565 0 1516.0 -0.26939945793359565 1
gene  1 24 26 0.6084065341375676 0 1523.0 0.6084065341375676 1
gene  1 27 26 -0.2809521865543394 1 1526.0 -0.2809521865543394 1
gene  1 28 26 -0.7530038407791703 1 1527.0 -0.7530038407791703 1
gene  1 29 26 -0.4049295297237423 1 1528.0 -0.4049295297237423 1
gene  1 31 26 0.8522845075977021 1 1530.0 0.8522845075977021 1
gene  1 32 26 -0.35173043262858295 1 1531.0 -0.35173043262858295 1
gene  1 51 26 0.3919963693601253 1 1550.0 0.3919963693601253 1
gene  1 56 26 0.3082044523374097 1 1555.0 0.3082044523374097 1
gene  1 58 26 -0.8600150287173958 1 1557.0 -0.8600150287173958 1
gene  1 59 26 -0.20744135393891783 1 1558.0 -0.20744135393891783 1
gene  1 60 26 0.06398909816252007 1 1559.0 0.06398909816252007 1
gene  1 1 27 0.02003859280609155 0 1560.0 0.02003859280609155 1
gene  1 3 27 0.2726735142268637 0 1562.0 0.2726735142268637 1
gene  1 4 27 -0.21533075161050796 0 1563.0 -0.21533075161050796 1
gene  1 7 27 0.866374873969756 0 1566.0 0.866374873969756 1
gene  1 8 27 -0.47139957641358576 0 1567.0 -0.47139957641358576 1
gene  1 11 27 -0.6993022169059782 0 1570.0 -0.6993022169059782 1
gene  1 13 27 -0.8093775916892186 0 1572.0 -0.8093775916892186 1
gene  1 15 27 0.14739120298169983 0 1574.0 0.14739120298169983 1
gene  1 16 27 0.9499256843064215 0 1575.0 0.9499256843064215 1
gene  1 21 27 0.4856993107054798 0 1580.0 0.4856993107054798 1
gene  1 27 27 -0.3011177699863049 1 1586.0 -0.3011177699863049 1
gene  1 28 27 0.3966208980357876 1 1587.0 0.3966208980357876 1
gene  1 30 27 -0.4945152986577791 1 1589.0 -0.4945152986577791 1
gene  1 34 27 -0.1665886663975018 1 1593.0 -0.1665886663975018 1
gene  1 35 27 -0.3867410864064642 1 1594.0 -0.3867410864064642 1
gene  1 51 27 -0.15117406606039852 1 1610.0 -0.15117406606039852 1
gene  1 55 27 -0.12904810323777083 1 1614.0 -0.12904810323777083 1
gene  1 57 27 0.5250920072779487 1 1616.0 0.5250920072779487 1
gene  1 60 27 0.35146524974948556 1 1619.0 0.35146524974948556 1
gene  1 1 28 0.44375449436653847 0 1620.0 0.44375449436653847 1
gene  1 4 28 -0.2792840585999059 0 1623.0 -0.2792840585999059 1
gene  1 7 28 0.6205160619518328 0 1626.0 0.6205160619518328 1
gene  1 10 28 -0.10534297305703733 0 1629.0 -0.10534297305703733 1
gene  1 11 28 -0.9544827633558538 0 1630.0 -0.9544827633558538 1
gene  1 12 28 -0.6364848276896542 0 1631.0 -0.6364848276896542 1
gene  1 16 28 0.8285930630826716 0 1635.0 0.8285930630826716 1
gene  1 17 28 0.787231468349719 0 1636.0 0.787231468349719 1
gene  1 18 28 -0.31678956205109476 0 1637.0 -0.31678956205109476 1
gene  1 19 28 0.23985170174614812 0 1638.0 0.23985170174614812 1
gene  1 20 28 0.42703935648115876 0 1639.0 0.42703935648115876 1
gene  1 24 28 -0.027875219537875084 0 1643.0 -0.027875219537875084 1
gene  1 26 28 -0.05191228050544916 0 1645.0 -0.05191228050544916 1
gene  1 27 28 -0.6718860423325942 0 1646.0 -0.6718860423325942 1
gene  1 28 28 0.9725736501449013 1 1647.0 0.9725736501449013 1
gene  1 29 28 -0.898023440114542 1 1648.0 -0.898023440114542 1
gene  1 31 28 0.43390834786991916 1 1650.0 0.43390834786991916 1
gene  1 32 28 0.19254586764904946 1 1651.0 0.19254586764904946 1
gene  1 33 28 -0.18168038966459443 1 1652.0 -0.18168038966459443 1
gene  1 34 28 0.7092008734425558 1 1653.0 0.7092008734425558 1
gene  1 35 28 -0.51940035802816 1 1654.0 -0.51940035802816 1
gene  1 51 28 -0.9977552987331878 1 1670.0 -0.9977552987331878 1
gene  1 53 28 -0.13411292315022605 1 1672.0 -0.13411292315022605 1
gene  1 54 28 0.8560248615596084 1 1673.0 0.8560248615596084 1
gene  1 56 28 -0.3996199854734501 1 1675.0 -0.3996199854734501 1
gene  1 57 28 -0.8654649928380534 1 1676.0 -0.8654649928380534 1
gene  1 59 28 0.8624730665304162 1 1678.0 0.8624730665304162 1
gene  1 1 29 0.7595408000325807 0 1680.0 0.7595408000325807 1
gene  1 3 29 0.967231226172161 0 1682.0 0.967231226172161 1
gene  1 5 29 -0.4599718478264092 0 1684.0 -0.4599718478264092 1
gene  1 6 29 -0.12962692024174494 0 1685.0 -0.12962692024174494 1
gene  1 7 29 -0.20753189361183844 0 1686.0 -0.20753189361183844 1
gene  1 11 29 0.6417685907424036 0 1690.0 0.6417685907424036 1
gene  1 12 29 -0.8863780300974373 0 1691.0 -0.8863780300974373 1
gene  1 15 29 0.8940385977050777 0 1694.0 0.8940385977050777 1
gene  1 16 29 0.3036269786595497 0 1695.0 0.3036269786595497 1
gene  1 19 29 0.3045830262631737 0 1698.0 0.3045830262631737 1
gene  1 22 29 0.5275631013023208 0 1701.0 0.5275631013023208 1
gene  1 23 29 0.446521101279019 0 1702.0 0.446521101279019 1
gene  1 24 29 0.19262999196567232 0 1703.0 0.19262999196567232 1
gene  1 25 29 -0.3805774831460912 0 1704.0 -0.3805774831460912 1
gene  1 26 29 0.23340111939371855 0 1705.0 0.23340111939371855 1
gene  1 27 29 0.9049867115815463 0 1706.0 0.9049867115815463 1
gene  1 30 29 0.382056358934174 1 1709.0 0.382056358934174 1
gene  1 31 29 0.5277461898487865 1 1710.0 0.5277461898487865 1
gene  1 33 29 -0.9655878968767923 1 1712.0 -0.9655878968767923 1
gene  1 34 29 0.970473157418684 1 1713.0 0.970473157418684 1
gene  1 52 29 -0.03348466449223775 1 1731.0 -0.03348466449223775 1
gene  1 53 29 0.698985941270014 1 1732.0 0.698985941270014 1
gene  1 55 29 0.6026446594382701 1 1734.0 0.6026446594382701 1
gene  1 56 29 0.9813466764252238 1 1735.0 0.9813466764252238 1
gene  1 58 29 0.05299372933800428 1 1737.0 0.05299372933800428 1
gene  1 59 29 0.6005861320970194 1 1738.0 0.6005861320970194 1
gene  1 4 30 -0.7715935843891689 0 1743.0 -0.7715935843891689 1
gene  1 10 30 0.11583480869992568 0 1749.0 0.11583480869992568 1
gene  1 11 30 -0.21550705155158023 0 1750.0 -0.21550705155158023 1
gene  1 12 30 -0.4493555078457201 0 1751.0 -0.4493555078457201 1
gene  1 13 30 0.9605003319523612 0 1752.0 0.9605003319523612 1
gene  1 16 30 -0.4579898809719598 0 1755.0 -0.4579898809719598 1
gene  1 20 30 -0.2580354998049321 0 1759.0 -0.2580354998049321 1
gene  1 23 30 -0.821018316659441 0 1762.0 -0.821018316659441 1
gene  1 26 30 -0.36646087556719253 0 1765.0 -0.36646087556719253 1
gene  1 27 30 -0.7902745118506979 0 1766.0 -0.7902745118506979 1
gene  1 29 30 0.7631953165094749 0 1768.0 0.7631953165094749 1
gene  1 30 30 0.6661930434915407 1 1769.0 0.6661930434915407 1
gene  1 31 30 -0.7054640685937918 1 1770.0 -0.7054640685937918 1
gene  1 35 30 -0.7480134067632032 1 1774.0 -0.7480134067632032 1
gene  1 51 30 -0.41546114514891175 1 1790.0 -0.41546114514891175 1
gene  1 52 30 0.8612093156255204 1 1791.0 0.8612093156255204 1
gene  1 53 30 0.7345522943066619 1 1792.0 0.7345522943066619 1
gene  1 55 30 -0.06716577905184073 1 1794.0 -0.06716577905184073 1
gene  1 57 30 -0.5837411254308438 1 1796.0 -0.5837411254308438 1
gene  1 2 31 -0.05785804030528985 0 1801.0 -0.05785804030528985 1
gene  1 3 31 -0.36536828945083244 0 1802.0 -0.36536828945083244 1
gene  1 4 31 -0.38681194624413306 0 1803.0 -0.38681194624413306 1
gene  1 6 31 0.19726222844272212 0 1805.0 0.19726222844272212 1
gene  1 8 31 0.9319131156128828 0 1807.0 0.9319131156128828 1
gene  1 9 31 0.755931674732774 0 1808.0 0.755931674732774 1
gene  1 10 31 0.6003584877316815 0 1809.0 0.6003584877316815 1
gene  1 12 31 -0.11653019056107483 0 1811.0 -0.11653019056107483 1
gene  1 14 31 -0.022291952724248665 0 1813.0 -0.022291952724248665 1
gene  1 15 31 0.6006222401966455 0 1814.0 0.6006222401966455 1
gene  1 16 31 -0.36307307088220653 0 1815.0 -0.36307307088220653 1
gene  1 19 31 -0.03325382002471722 0 1818.0 -0.03325382002471722 1
gene  1 20 31 0.2527965216730089 0 1819.0 0.2527965216730089 1
gene  1 23 31 0.36502342153717693 0 1822.0 0.36502342153717693 1
gene  1 24 31 -0.6958533502295235 0 1823.0 -0.6958533502295235 1
gene  1 25 31 0.7854542994079139 0 1824.0 0.7854542994079139 1
gene  1 26 31 -0.47262791581742336 0 1825.0 -0.47262791581742336 1
gene  1 30 31 0.4725368016288498 0 1829.0 0.4725368016288498 1
gene  1 32 31 -0.9231888590947124 1 1831.0 -0.9231888590947124 1
gene  1 33 31 -0.5662366641860179 1 1832.0 -0.5662366641860179 1
gene  1 34 31 -0.2108033346189695 1 1833.0 -0.2108033346189695 1
gene  1 51 31 0.4054322142007679 1 1850.0 0.4054322142007679 1
gene  1 53 31 0.5535328934847249 1 1852.0 0.5535328934847249 1
gene  1 55 31 0.10349184908700382 1 1854.0 0.10349184908700382 1
gene  1 57 31 0.5681090679119111 1 1856.0 0.5681090679119111 1
gene  1 58 31 -0.46803579158664277 1 1857.0 -0.46803579158664277 1
gene  1 59 31 -0.36858453934890667 1 1858.0 -0.36858453934890667 1
gene  1 60 31 -0.5565925589204354 1 1859.0 -0.5565925589204354 1
gene  1 1 32 0.25755244507796793 0 1860.0 0.25755244507796793 1
gene  1 3 32 0.12974486458945533 0 1862.0 0.12974486458945533 1
gene  1 5 32 -0.509484561476636 0 1864.0 -0.509484561476636 1
gene  1 7 32 -0.7253025679310353 0 1866.0 -0.7253025679310353 1
gene  1 8 32 0.2240645335162671 0 1867.0 0.2240645335162671 1
gene  1 9 32 0.6480334292461781 0 1868.0 0.6480334292461781 1
gene  1 11 32 -0.9172228344751645 0 1870.0 -0.9172228344751645 1
gene  1 12 32 0.6028598659850161 0 1871.0 0.6028598659850161 1
gene  1 13 32 0.7344596221995927 0 1872.0 0.7344596221995927 1
gene  1 15 32 -0.21598828671684955 0 1874.0 -0.21598828671684955 1
gene  1 16 32 0.14558478940699104 0 1875.0 0.14558478940699104 1
gene  1 18 32 0.2836214276100708 0 1877.0 0.2836214276100708 1
gene  1 19 32 0.02176173361599687 0 1878.0 0.02176173361599687 1
gene  1 20 32 -0.5064828598988256 0 1879.0 -0.5064828598988256 1
gene  1 33 32 0.4710502000415022 1 1892.0 0.4710502000415022 1
gene  1 34 32 0.5067495476182613 1 1893.0 0.5067495476182613 1
gene  1 35 32 -0.4207186924756653 1 1894.0 -0.4207186924756653 1
gene  1 51 32 0.9390184154020947 1 1910.0 0.9390184154020947 1
gene  1 55 32 0.8878954694526906 1 1914.0 0.8878954694526906 1
gene  1 58 32 0.4790257307911363 1 1917.0 0.4790257307911363 1
gene  1 60 32 0.8547750240096426 1 1919.0 0.8547750240096426 1
gene  1 2 33 0.6905785407136326 0 1921.0 0.6905785407136326 1
gene  1 3 33 -0.1204091458557559 0 1922.0 -0.1204091458557559 1
gene  1 4 33 0.16672665915373674 0 1923.0 0.16672665915373674 1
gene  1 6 33 0.6744730673984357 0 1925.0 0.6744730673984357 1
gene  1 7 33 0.7454669652113833 0 1926.0 0.7454669652113833 1
gene  1 8 33 0.18905731051501196 0 1927.0 0.18905731051501196 1
gene  1 9 33 0.6201883593064872 0 1928.0 0.6201883593064872 1
gene  1 11 33 0.3330797696206558 0 1930.0 0.3330797696206558 1
gene  1 15 33 -0.6398208876869445 0 1934.0 -0.6398208876869445 1
gene  1 19 33 -0.4244488235513202 0 1938.0 -0.4244488235513202 1
gene  1 22 33 -0.5336960104084335 0 1941.0 -0.5336960104084335 1
gene  1 23 33 0.5814534410203833 0 1942.0 0.5814534410203833 1
gene  1 26 33 0.934974170603651 0 1945.0 0.934974170603651 1
gene  1 27 33 0.5822469668559203 0 1946.0 0.5822469668559203 1
gene  1 29 33 -0.6330193349136748 0 1948.0 -0.6330193349136748 1
gene  1 30 33 -0.6194023438110388 0 1949.0 -0.6194023438110388 1
gene  1 31 33 -0.45262848706971326 0 1950.0 -0.45262848706971326 1
gene  1 32 33 -0.9333233693202587 0 1951.0 -0.9333233693202587 1
gene  1 33 33 -0.405495024617744 1 1952.0 -0.405495024617744 1
gene  1 51 33 -0.538053251183197 1 1970.0 -0.538053251183197 1
gene  1 52 33 -0.4482874635113746 1 1971.0 -0.4482874635113746 1
gene  1 57 33 0.8053980970698927 1 1976.0 0.8053980970698927 1
gene  1 58 33 -0.47213673198182604 1 1977.0 -0.47213673198182604 1
gene  1 59 33 -0.99442614352175 1 1978.0 -0.99442614352175 1
gene  1 60 33 -0.8839099952285547 1 1979.0 -0.8839099952285547 1
gene  1 1 34 -0.06347586752079593 0 1980.0 -0.06347586752079593 1
gene  1 2 34 0.6738106138498222 0 1981.0 0.6738106138498222 1
gene  1 6 34 -0.17725873584301244 0 1985.0 -0.17725873584301244 1
gene  1 8 34 -0.9044074123973211 0 1987.0 -0.9044074123973211 1
gene  1 9 34 0.8242691359674349 0 1988.0 0.8242691359674349 1
gene  1 11 34 0.8768974083912638 0 1990.0 0.8768974083912638 1
gene  1 14 34 0.038274275385762446 0 1993.0 0.038274275385762446 1
gene  1 16 34 0.3154837546750656 0 1995.0 0.3154837546750656 1
gene  1 18 34 0.30156320664561787 0 1997.0 0.30156320664561787 1
gene  1 28 34 -0.067801003627597 0 2007.0 -0.067801003627597 1
gene  1 31 34 -0.49604543145804547 0 2010.0 -0.49604543145804547 1
gene  1 32 34 -0.01431397180022953 0 2011.0 -0.01431397180022953 1
gene  1 34 34 -0.9315730242837285 1 2013.0 -0.9315730242837285 1
gene  1 51 34 0.5167565421751096 1 2030.0 0.5167565421751096 1
gene  1 52 34 -0.8752601709304433 1 2031.0 -0.8752601709304433 1
gene  1 53 34 0.8234605697785679 1 2032.0 0.8234605697785679 1
gene  1 54 34 -0.7955850837138077 1 2033.0 -0.7955850837138077 1
gene  1 55 34 -0.4631179067191292 1 2034.0 -0.4631179067191292 1
gene  1 59 34 -0.4617986776953913 1 2038.0 -0.4617986776953913 1
gene  1 60 34 0.32790727944707687 1 2039.0 0.32790727944707687 1
gene  1 1 35 -0.16676783048060884 0 2040.0 -0.16676783048060884 1
gene  1 4 35 -0.7670145737174194 0 2043.0 -0.7670145737174194 1
gene  1 5 35 -0.4572168832171756 0 2044.0 -0.4572168832171756 1
gene  1 8 35 -0.09268077990831725 0 2047.0 -0.09268077990831725 1
gene  1 10 35 0.6935383059903658 0 2049.0 0.6935383059903658 1
gene  1 14 35 -0.4431876872032473 0 2053.0 -0.4431876872032473 1
gene  1 17 35 0.26301074084911025 0 2056.0 0.26301074084911025 1
gene  1 18 35 -0.9436495878991601 0 2057.0 -0.9436495878991601 1
gene  1 19 35 0.08723894133498233 0 2058.0 0.08723894133498233 1
gene  1 22 35 0.6460488449959473 0 2061.0 0.6460488449959473 1
gene  1 25 35 0.357787242594762 0 2064.0 0.357787242594762 1
gene  1 27 35 0.8980240335889383 0 2066.0 0.8980240335889383 1
gene  1 28 35 0.11042505692105187 0 2067.0 0.11042505692105187 1
gene  1 33 35 -0.011525181012041918 0 2072.0 -0.011525181012041918 1
gene  1 34 35 -0.7259525308184512 0 2073.0 -0.7259525308184512 1
gene  1 35 35 -0.3269954193791583 1 2074.0 -0.3269954193791583 1
gene  1 54 35 0.4264871529026142 1 2093.0 0.4264871529026142 1
gene  1 55 35 0.8289164140291251 1 2094.0 0.8289164140291251 1
gene  1 56 35 0.01587632275094808 1 2095.0 0.01587632275094808 1
gene  1 58 35 -0.18588627778490574 1 2097.0 -0.18588627778490574 1
gene  1 60 35 0.34370205388382535 1 2099.0 0.34370205388382535 1
gene  1 1 51 0.15951708681730137 0 3000.0 0.15951708681730137 1
gene  1 3 51 0.24421323544760754 0 3002.0 0.24421323544760754 1
gene  1 5 51 0.7440496794078211 0 3004.0 0.7440496794078211 1
gene  1 7 51 0.3985694166679341 0 3006.0 0.3985694166679341 1
gene  1 8 51 -0.12975357850751512 0 3007.0 -0.12975357850751512 1
gene  1 9 51 -0.8010386642353137 0 3008.0 -0.8010386642353137 1
gene  1 14 51 0.4463453092026186 0 3013.0 0.4463453092026186 1
gene  1 16 51 -0.9152646810574712 0 3015.0 -0.9152646810574712 1
gene  1 18 51 -0.3935265151140045 0 3017.0 -0.3935265151140045 1
gene  1 19 51 0.8619465165756094 0 3018.0 0.8619465165756094 1
gene  1 20 51 -0.02099390602289375 0 3019.0 -0.02099390602289375 1
gene  1 21 51 0.3504217220577217 0 3020.0 0.3504217220577217 1
gene  1 24 51 -0.416686820879586 0 3023.0 -0.416686820879586 1
gene  1 27 51 -0.6768927090854511 0 3026.0 -0.6768927090854511 1
gene  1 28 51 0.06751265702374054 0 3027.0 0.06751265702374054 1
gene  1 29 51 0.19481898810788556 0 3028.0 0.19481898810788556 1
gene  1 30 51 -0.3183337759573276 0 3029.0 -0.3183337759573276 1
gene  1 34 51 0.9143572489903142 0 3033.0 0.9143572489903142 1
gene  1 53 51 0.38767373072279077 1 3052.0 0.38767373072279077 1
gene  1 56 51 0.12482687932898184 1 3055.0 0.12482687932898184 1
gene  1 57 51 0.5880086365772017 1 3056.0 0.5880086365772017 1
gene  1 59 51 -0.6107253625294171 1 3058.0 -0.6107253625294171 1
gene  1 1 52 -0.7082960108946841 0 3060.0 -0.7082960108946841 1
gene  1 2 52 -0.7550009556852605 0 3061.0 -0.7550009556852605 1
gene  1 3 52 0.9608431365125899 0 3062.0 0.9608431365125899 1
gene  1 4 52 -0.8604078684030514 0 3063.0 -0.8604078684030514 1
gene  1 6 52 -0.055340665158817526 0 3065.0 -0.055340665158817526 1
gene  1 10 52 0.8766722266159294 0 3069.0 0.8766722266159294 1
gene  1 21 52 -0.9971611004913201 0 3080.0 -0.9971611004913201 1
gene  1 24 52 -0.21826974110054065 0 3083.0 -0.21826974110054065 1
gene  1 28 52 0.41427348524201946 0 3087.0 0.41427348524201946 1
gene  1 32 52 0.22286160399771604 0 3091.0 0.22286160399771604 1
gene  1 35 52 0.6986488681071306 0 3094.0 0.6986488681071306 1
gene  1 51 52 0.6429191514323119 0 3110.0 0.6429191514323119 1
gene  1 54 52 0.9138943154452855 1 3113.0 0.9138943154452855 1
gene  1 55 52 -0.18377526507361364 1 3114.0 -0.18377526507361364 1
gene  1 56 52 -0.5666090509641015 1 3115.0 -0.5666090509641015 1
gene  1 57 52 -0.4422095273275707 1 3116.0 -0.4422095273275707 1
gene  1 1 53 -0.23360675410889176 0 3120.0 -0.23360675410889176 1
gene  1 3 53 -0.22534322007817043 0 3122.0 -0.22534322007817043 1
gene  1 5 53 -0.4324682467709471 0 3124.0 -0.4324682467709471 1
gene  1 7 53 -0.08018504027822004 0 3126.0 -0.08018504027822004 1
gene  1 10 53 -0.3130716099416687 0 3129.0 -0.3130716099416687 1
gene  1 12 53 0.11093847955150626 0 3131.0 0.11093847955150626 1
gene  1 13 53 0.7769734552522501 0 3132.0 0.7769734552522501 1
gene  1 14 53 0.34128395925621136 0 3133.0 0.34128395925621136 1
gene  1 15 53 0.465897539550141 0 3134.0 0.465897539550141 1
gene  1 17 53 0.0781303751165573 0 3136.0 0.0781303751165573 1
gene  1 19 53 0.009613109028462463 0 3138.0 0.009613109028462463 1
gene  1 25 53 0.4309169589411278 0 3144.0 0.4309169589411278 1
gene  1 26 53 -0.3148819129205954 0 3145.0 -0.3148819129205954 1
gene  1 28 53 -0.4220265942497389 0 3147.0 -0.4220265942497389 1
gene  1 29 53 0.7578351173354999 0 3148.0 0.7578351173354999 1
gene  1 32 53 0.3139372804348377 0 3151.0 0.3139372804348377 1
gene  1 51 53 0.39661770862012347 0 3170.0 0.39661770862012347 1
gene  1 52 53 0.13776731981934454 0 3171.0 0.13776731981934454 1
gene  1 53 53 0.8675855876953363 1 3172.0 0.8675855876953363 1
gene  1 54 53 0.3807778156215016 1 3173.0 0.3807778156215016 1
gene  1 56 53 0.07118791603075392 1 3175.0 0.07118791603075392 1
gene  1 57 53 -0.3897431490800466 1 3176.0 -0.3897431490800466 1
gene  1 58 53 -0.840407714262491 1 3177.0 -0.840407714262491 1
gene  1 60 53 0.296277176291177 1 3179.0 0.296277176291177 1
gene  1 1 54 0.4332204136776159 0 3180.0 0.4332204136776159 1
gene  1 2 54 0.22619048515947138 0 3181.0 0.22619048515947138 1
gene  1 4 54 0.4225479990603803 0 3183.0 0.4225479990603803 1
gene  1 6 54 0.27396182721197504 0 3185.0 0.27396182721197504 1
gene  1 7 54 0.09068435098165939 0 3186.0 0.09068435098165939 1
gene  1 8 54 -0.6264154486301592 0 3187.0 -0.6264154486301592 1
gene  1 14 54 -0.15981797580424129 0 3193.0 -0.15981797580424129 1
gene  1 15 54 -0.6586768806253313 0 3194.0 -0.6586768806253313 1
gene  1 20 54 0.9662658841285241 0 3199.0 0.9662658841285241 1
gene  1 21 54 -0.24483354737692697 0 3200.0 -0.24483354737692697 1
gene  1 23 54 -0.8768303011981612 0 3202.0 -0.8768303011981612 1
gene  1 24 54 0.4572210076667518 0 3203.0 0.4572210076667518 1
gene  1 25 54 -0.1136273321214546 0 3204.0 -0.1136273321214546 1
gene  1 32 54 -0.05148028412107286 0 3211.0 -0.05148028412107286 1
gene  1 34 54 -0.2160202351683025 0 3213.0 -0.2160202351683025 1
gene  1 35 54 0.6786760559104055 0 3214.0 0.6786760559104055 1
gene  1 51 54 0.029872194550173647 0 3230.0 0.029872194550173647 1
gene  1 54 54 0.022219427317315965 1 3233.0 0.022219427317315965 1
gene  1 55 54 0.8628035221520455 1 3234.0 0.8628035221520455 1
gene  1 56 54 0.11643491238611858 1 3235.0 0.11643491238611858 1
gene  1 59 54 -0.11051969049681698 1 3238.0 -0.11051969049681698 1
gene  1 1 55 -0.5224950647725165 0 3240.0 -0.5224950647725165 1
gene  1 2 55 0.7174116669436434 0 3241.0 0.7174116669436434 1
gene  1 4 55 0.589905666981087 0 3243.0 0.589905666981087 1
gene  1 5 55 -0.9305279685419806 0 3244.0 -0.9305279685419806 1
gene  1 6 55 -0.5844621571234812 0 3245.0 -0.5844621571234812 1
gene  1 7 55 -0.6773606390831928 0 3246.0 -0.6773606390831928 1
gene  1 12 55 -0.9672654311604284 0 3251.0 -0.9672654311604284 1
gene  1 14 55 0.5625582017795224 0 3253.0 0.5625582017795224 1
gene  1 16 55 -0.7863824133318126 0 3255.0 -0.7863824133318126 1
gene  1 19 55 -0.5400031432857436 0 3258.0 -0.5400031432857436 1
gene  1 21 55 0.2975825500550201 0 3260.0 0.2975825500550201 1
gene  1 23 55 -0.45178018689955013 0 3262.0 -0.45178018689955013 1
gene  1 26 55 0.402358856197118 0 3265.0 0.402358856197118 1
gene  1 27 55 0.7919112259828197 0 3266.0 0.7919112259828197 1
gene  1 28 55 -0.6116334750098776 0 3267.0 -0.6116334750098776 1
gene  1 29 55 -0.6670011028261573 0 3268.0 -0.6670011028261573 1
gene  1 30 55 -0.2562486758033691 0 3269.0 -0.2562486758033691 1
gene  1 31 55 0.23754019622358746 0 3270.0 0.23754019622358746 1
gene  1 35 55 -0.910689721232284 0 3274.0 -0.910689721232284 1
gene  1 51 55 0.02453752802771869 0 3290.0 0.02453752802771869 1
gene  1 53 55 0.7517600801766177 0 3292.0 0.7517600801766177 1
gene  1 55 55 -0.8472096787514213 1 3294.0 -0.8472096787514213 1
gene  1 56 55 0.29070017170109785 1 3295.0 0.29070017170109785 1
gene  1 57 55 0.4397150699201984 1 3296.0 0.4397150699201984 1
gene  1 58 55 0.6864996726575134 1 3297.0 0.6864996726575134 1
gene  1 59 55 0.2342574039452041 1 3298.0 0.2342574039452041 1
gene  1 3 56 0.2692786259512091 0 3302.0 0.2692786259512091 1
gene  1 4 56 0.37870525098021635 0 3303.0 0.37870525098021635 1
gene  1 8 56 0.1256646026609518 0 3307.0 0.1256646026609518 1
gene  1 10 56 0.46050150555693503 0 3309.0 0.46050150555693503 1
gene  1 12 56 -0.15273009129590143 0 3311.0 -0.15273009129590143 1
gene  1 15 56 -0.8600128612603041 0 3314.0 -0.8600128612603041 1
gene  1 17 56 0.10511002037040929 0 3316.0 0.10511002037040929 1
gene  1 19 56 -0.6219885309669005 0 3318.0 -0.6219885309669005 1
gene  1 20 56 0.6423999205766767 0 3319.0 0.6423999205766767 1
gene  1 21 56 0.6615952624297934 0 3320.0 0.6615952624297934 1
gene  1 22 56 0.6569926022739718 0 3321.0 0.6569926022739718 1
gene  1 25 56 0.884385399888556 0 3324.0 0.884385399888556 1
gene  1 26 56 -0.010659571808762758 0 3325.0 -0.010659571808762758 1
gene  1 32 56 -0.21949448277857742 0 3331.0 -0.21949448277857742 1
gene  1 34 56 0.3667850012142425 0 3333.0 0.3667850012142425 1
gene  1 51 56 0.3671439462134155 0 3350.0 0.3671439462134155 1
gene  1 52 56 0.7379896566332295 0 3351.0 0.7379896566332295 1
gene  1 53 56 0.8220306053146638 0 3352.0 0.8220306053146638 1
gene  1 55 56 0.7502486464614276 0 3354.0 0.7502486464614276 1
gene  1 56 56 -0.8624538718794961 1 3355.0 -0.8624538718794961 1
gene  1 60 56 0.8893884522434574 1 3359.0 0.8893884522434574 1
gene  1 5 57 0.6969556771710934 0 3364.0 0.6969556771710934 1
gene  1 9 57 -0.4143866432088945 0 3368.0 -0.4143866432088945 1
gene  1 10 57 0.7106060404179189 0 3369.0 0.7106060404179189 1
gene  1 11 57 0.10060824989649442 0 3370.0 0.10060824989649442 1
gene  1 12 57 -0.2162910133745395 0 3371.0 -0.2162910133745395 1
gene  1 14 57 0.5782941292488272 0 3373.0 0.5782941292488272 1
gene  1 16 57 -0.9261882110773827 0 3375.0 -0.9261882110773827 1
gene  1 17 57 -0.456758818474745 0 3376.0 -0.456758818474745 1
gene  1 18 57 -0.8855298472626713 0 3377.0 -0.8855298472626713 1
gene  1 23 57 -0.7783789871094047 0 3382.0 -0.7783789871094047 1
gene  1 24 57 0.6148817751305712 0 3383.0 0.6148817751305712 1
gene  1 25 57 -0.8762495708610195 0 3384.0 -0.8762495708610195 1
gene  1 26 57 0.8930218905095045 0 3385.0 0.8930218905095045 1
gene  1 28 57 0.7772066515620923 0 3387.0 0.7772066515620923 1
gene  1 31 57 0.8707487377261258 0 3390.0 0.8707487377261258 1
gene  1 32 57 0.6948797266380787 0 3391.0 0.6948797266380787 1
gene  1 35 57 0.546080628607854 0 3394.0 0.546080628607854 1
gene  1 54 57 0.005179689999466275 0 3413.0 0.005179689999466275 1
gene  1 57 57 0.27789153399034616 1 3416.0 0.27789153399034616 1
gene  1 58 57 0.7955080224989262 1 3417.0 0.7955080224989262 1
gene  1 60 57 0.8589564794310816 1 3419.0 0.8589564794310816 1
gene  1 2 58 0.567710991206239 0 3421.0 0.567710991206239 1
gene  1 4 58 0.2342143037477411 0 3423.0 0.2342143037477411 1
gene  1 5 58 -0.8999020504704743 0 3424.0 -0.8999020504704743 1
gene  1 6 58 -0.2524639361838499 0 3425.0 -0.2524639361838499 1
gene  1 8 58 0.5851882912572168 0 3427.0 0.5851882912572168 1
gene  1 9 58 0.9915617749068961 0 3428.0 0.9915617749068961 1
gene  1 10 58 -0.0672119498629935 0 3429.0 -0.0672119498629935 1
gene  1 17 58 0.8157770107878753 0 3436.0 0.8157770107878753 1
gene  1 21 58 0.6459249707795589 0 3440.0 0.6459249707795589 1
gene  1 24 58 0.2854897479821734 0 3443.0 0.2854897479821734 1
gene  1 28 58 -0.2985432292576281 0 3447.0 -0.2985432292576281 1
gene  1 31 58 0.8296300983332596 0 3450.0 0.8296300983332596 1
gene  1 32 58 -0.5498943052511691 0 3451.0 -0.5498943052511691 1
gene  1 33 58 0.9759281326148138 0 3452.0 0.9759281326148138 1
gene  1 34 58 -0.6842016175281255 0 3453.0 -0.6842016175281255 1
gene  1 35 58 -0.3906671046809692 0 3454.0 -0.3906671046809692 1
gene  1 54 58 0.519170894253697 0 3473.0 0.519170894253697 1
gene  1 56 58 -0.30051398946255803 0 3475.0 -0.30051398946255803 1
gene  1 57 58 0.23860644548282073 0 3476.0 0.23860644548282073 1
gene  1 58 58 0.5646380021136629 1 3477.0 0.5646380021136629 1
gene  1 59 58 0.2248510594310189 1 3478.0 0.2248510594310189 1
gene  1 1 59 -0.2657451327657172 0 3480.0 -0.2657451327657172 1
gene  1 3 59 0.4212506362111068 0 3482.0 0.4212506362111068 1
gene  1 4 59 -0.7590848845565304 0 3483.0 -0.7590848845565304 1
gene  1 6 59 0.5143607618885667 0 3485.0 0.5143607618885667 1
gene  1 9 59 -0.7745651493108917 0 3488.0 -0.7745651493108917 1
gene  1 13 59 0.04843487111622835 0 3492.0 0.04843487111622835 1
gene  1 14 59 0.09350472316330483 0 3493.0 0.09350472316330483 1
gene  1 15 59 -0.6614337472909749 0 3494.0 -0.6614337472909749 1
gene  1 17 59 -0.26663713570383696 0 3496.0 -0.26663713570383696 1
gene  1 18 59 -0.5521999121660788 0 3497.0 -0.5521999121660788 1
gene  1 21 59 -0.7780120727122953 0 3500.0 -0.7780120727122953 1
gene  1 25 59 -0.4569722316564977 0 3504.0 -0.4569722316564977 1
gene  1 26 59 -0.6803735097114059 0 3505.0 -0.6803735097114059 1
gene  1 29 59 0.26668610849677177 0 3508.0 0.26668610849677177 1
gene  1 30 59 -0.6334161385157847 0 3509.0 -0.6334161385157847 1
gene  1 32 59 -0.025183511379980206 0 3511.0 -0.025183511379980206 1
gene  1 33 59 0.23161478040356787 0 3512.0 0.23161478040356787 1
gene  1 52 59 -0.02919360267451243 0 3531.0 -0.02919360267451243 1
gene  1 56 59 -0.31141143438859764 0 3535.0 -0.31141143438859764 1
gene  1 57 59 0.007888905759953713 0 3536.0 0.007888905759953713 1
gene  1 58 59 0.9374171893736003 0 3537.0 0.9374171893736003 1
gene  1 59 59 -0.019007647163176156 1 3538.0 -0.019007647163176156 1
gene  1 60 59 0.8401747790559547 1 3539.0 0.8401747790559547 1
gene  1 1 60 -0.6921716047651095 0 3540.0 -0.6921716047651095 1
gene  1 3 60 0.6363195135353462 0 3542.0 0.6363195135353462 1
gene  1 5 60 0.5514766367906586 0 3544.0 0.5514766367906586 1
gene  1 7 60 -0.3368512076684911 0 3546.0 -0.3368512076684911 1
gene  1 8 60 -0.8533872150713562 0 3547.0 -0.8533872150713562 1
gene  1 9 60 -0.9071890644280903 0 3548.0 -0.9071890644280903 1
gene  1 10 60 0.8621398249901244 0 3549.0 0.8621398249901244 1
gene  1 12 60 0.02486357523060201 0 3551.0 0.02486357523060201 1
gene  1 13 60 -0.9972010799991781 0 3552.0 -0.9972010799991781 1
gene  1 14 60 0.25264896901889455 0 3553.0 0.25264896901889455 1
gene  1 15 60 0.6045339667338626 0 3554.0 0.6045339667338626 1
gene  1 17 60 -0.6732319104874793 0 3556.0 -0.6732319104874793 1
gene  1 20 60 0.3703097635535131 0 3559.0 0.3703097635535131 1
gene  1 21 60 0.9723880776141453 0 3560.0 0.9723880776141453 1
gene  1 22 60 0.42866728809100085 0 3561.0 0.42866728809100085 1
gene  1 23 60 -0.7615551006705665 0 3562.0 -0.7615551006705665 1
gene  1 24 60 -0.4887955193061282 0 3563.0 -0.4887955193061282 1
gene  1 28 60 -0.6354535989766213 0 3567.0 -0.6354535989766213 1
gene  1 32 60 -0.17242183865878724 0 3571.0 -0.17242183865878724 1
gene  1 52 60 -0.764277289684061 0 3591.0 -0.764277289684061 1
gene  1 53 60 0.03397247731268316 0 3592.0 0.03397247731268316 1
gene  1 55 60 0.0949018836798653 0 3594.0 0.0949018836798653 1
gene  1 59 60 -0.6870859117651241 0 3598.0 -0.6870859117651241 1
genomeend 2
